svm_type c_svc
kernel_type rbf
gamma 7.05268e-06
nr_class 2
total_sv 2856
rho 0.80124
label 1 -1
nr_sv 1429 1427
SV
1 113581:1 113582:1 113583:1 113584:1 113585:1 113586:1 113587:1 113588:1 113589:1 113590:1 
1 
1 
1 
1 4011:1 4012:1 4013:1 4014:1 4015:1 4016:1 4017:1 4018:1 4019:1 4020:1 18491:1 18492:1 18493:1 18494:1 18495:1 18496:1 18497:1 18498:1 18499:1 18500:1 32041:2 32042:2 32043:2 32044:2 32045:2 32046:2 32047:2 32048:2 32049:2 32050:2 80911:1 80912:1 80913:1 80914:1 80915:1 80916:1 80917:1 80918:1 80919:1 80920:1 103921:1 103922:1 103923:1 103924:1 103925:1 103926:1 103927:1 103928:1 103929:1 103930:1 120691:1 120692:1 120693:1 120694:1 120695:1 120696:1 120697:1 120698:1 120699:1 120700:1 
1 19761:1 19762:1 19763:1 19764:1 19765:1 19766:1 19767:1 19768:1 19769:1 19770:1 59111:2 59112:2 59113:2 59114:2 59115:2 59116:2 59117:2 59118:2 59119:2 59120:2 62321:1 62322:1 62323:1 62324:1 62325:1 62326:1 62327:1 62328:1 62329:1 62330:1 
1 
1 9881:1 9882:1 9883:1 9884:1 9885:1 9886:1 9887:1 9888:1 9889:1 9890:1 48761:1 48762:1 48763:1 48764:1 48765:1 48766:1 48767:1 48768:1 48769:1 48770:1 92921:1 92922:1 92923:1 92924:1 92925:1 92926:1 92927:1 92928:1 92929:1 92930:1 127291:1 127292:1 127293:1 127294:1 127295:1 127296:1 127297:1 127298:1 127299:1 127300:1 130131:1 130132:1 130133:1 130134:1 130135:1 130136:1 130137:1 130138:1 130139:1 130140:1 
1 12791:1 12792:1 12793:1 12794:1 12795:1 12796:1 12797:1 12798:1 12799:1 12800:1 80911:1 80912:1 80913:1 80914:1 80915:1 80916:1 80917:1 80918:1 80919:1 80920:1 83961:1 83962:1 83963:1 83964:1 83965:1 83966:1 83967:1 83968:1 83969:1 83970:1 133371:1 133372:1 133373:1 133374:1 133375:1 133376:1 133377:1 133378:1 133379:1 133380:1 
1 31651:1 31652:1 31653:1 31654:1 31655:1 31656:1 31657:1 31658:1 31659:1 31660:1 32041:1 32042:1 32043:1 32044:1 32045:1 32046:1 32047:1 32048:1 32049:1 32050:1 106661:1 106662:1 106663:1 106664:1 106665:1 106666:1 106667:1 106668:1 106669:1 106670:1 106991:1 106992:1 106993:1 106994:1 106995:1 106996:1 106997:1 106998:1 106999:1 107000:1 127381:1 127382:1 127383:1 127384:1 127385:1 127386:1 127387:1 127388:1 127389:1 127390:1 
1 26641:1 26642:1 26643:1 26644:1 26645:1 26646:1 26647:1 26648:1 26649:1 26650:1 92561:1 92562:1 92563:1 92564:1 92565:1 92566:1 92567:1 92568:1 92569:1 92570:1 
1 15031:1 15032:1 15033:1 15034:1 15035:1 15036:1 15037:1 15038:1 15039:1 15040:1 58261:1 58262:1 58263:1 58264:1 58265:1 58266:1 58267:1 58268:1 58269:1 58270:1 61621:1 61622:1 61623:1 61624:1 61625:1 61626:1 61627:1 61628:1 61629:1 61630:1 70961:1 70962:1 70963:1 70964:1 70965:1 70966:1 70967:1 70968:1 70969:1 70970:1 101361:1 101362:1 101363:1 101364:1 101365:1 101366:1 101367:1 101368:1 101369:1 101370:1 110991:1 110992:1 110993:1 110994:1 110995:1 110996:1 110997:1 110998:1 110999:1 111000:1 
1 26641:1 26642:1 26643:1 26644:1 26645:1 26646:1 26647:1 26648:1 26649:1 26650:1 92561:1 92562:1 92563:1 92564:1 92565:1 92566:1 92567:1 92568:1 92569:1 92570:1 
1 26641:1 26642:1 26643:1 26644:1 26645:1 26646:1 26647:1 26648:1 26649:1 26650:1 92561:1 92562:1 92563:1 92564:1 92565:1 92566:1 92567:1 92568:1 92569:1 92570:1 
1 15541:1 15542:1 15543:1 15544:1 15545:1 15546:1 15547:1 15548:1 15549:1 15550:1 17431:2 17432:2 17433:2 17434:2 17435:2 17436:2 17437:2 17438:2 17439:2 17440:2 18951:1 18952:1 18953:1 18954:1 18955:1 18956:1 18957:1 18958:1 18959:1 18960:1 31261:1 31262:1 31263:1 31264:1 31265:1 31266:1 31267:1 31268:1 31269:1 31270:1 39001:1 39002:1 39003:1 39004:1 39005:1 39006:1 39007:1 39008:1 39009:1 39010:1 116141:1 116142:1 116143:1 116144:1 116145:1 116146:1 116147:1 116148:1 116149:1 116150:1 
1 26641:1 26642:1 26643:1 26644:1 26645:1 26646:1 26647:1 26648:1 26649:1 26650:1 92561:1 92562:1 92563:1 92564:1 92565:1 92566:1 92567:1 92568:1 92569:1 92570:1 
1 29571:1 29572:1 29573:1 29574:1 29575:1 29576:1 29577:1 29578:1 29579:1 29580:1 48181:1 48182:1 48183:1 48184:1 48185:1 48186:1 48187:1 48188:1 48189:1 48190:1 49031:1 49032:1 49033:1 49034:1 49035:1 49036:1 49037:1 49038:1 49039:1 49040:1 61621:1 61622:1 61623:1 61624:1 61625:1 61626:1 61627:1 61628:1 61629:1 61630:1 136961:1 136962:1 136963:1 136964:1 136965:1 136966:1 136967:1 136968:1 136969:1 136970:1 137271:1 137272:1 137273:1 137274:1 137275:1 137276:1 137277:1 137278:1 137279:1 137280:1 
1 18101:2 18102:2 18103:2 18104:2 18105:2 18106:2 18107:2 18108:2 18109:2 18110:2 58261:1 58262:1 58263:1 58264:1 58265:1 58266:1 58267:1 58268:1 58269:1 58270:1 61641:3 61642:3 61643:3 61644:3 61645:3 61646:3 61647:3 61648:3 61649:3 61650:3 
1 38041:1 38042:1 38043:1 38044:1 38045:1 38046:1 38047:1 38048:1 38049:1 38050:1 112841:1 112842:1 112843:1 112844:1 112845:1 112846:1 112847:1 112848:1 112849:1 112850:1 113851:1 113852:1 113853:1 113854:1 113855:1 113856:1 113857:1 113858:1 113859:1 113860:1 
1 17431:1 17432:1 17433:1 17434:1 17435:1 17436:1 17437:1 17438:1 17439:1 17440:1 81071:1 81072:1 81073:1 81074:1 81075:1 81076:1 81077:1 81078:1 81079:1 81080:1 
1 17431:1 17432:1 17433:1 17434:1 17435:1 17436:1 17437:1 17438:1 17439:1 17440:1 125141:1 125142:1 125143:1 125144:1 125145:1 125146:1 125147:1 125148:1 125149:1 125150:1 
1 5191:1 5192:1 5193:1 5194:1 5195:1 5196:1 5197:1 5198:1 5199:1 5200:1 9881:1 9882:1 9883:1 9884:1 9885:1 9886:1 9887:1 9888:1 9889:1 9890:1 15171:1 15172:1 15173:1 15174:1 15175:1 15176:1 15177:1 15178:1 15179:1 15180:1 97481:1 97482:1 97483:1 97484:1 97485:1 97486:1 97487:1 97488:1 97489:1 97490:1 102551:1 102552:1 102553:1 102554:1 102555:1 102556:1 102557:1 102558:1 102559:1 102560:1 
1 36261:1 36262:1 36263:1 36264:1 36265:1 36266:1 36267:1 36268:1 36269:1 36270:1 111031:1 111032:1 111033:1 111034:1 111035:1 111036:1 111037:1 111038:1 111039:1 111040:1 113581:1 113582:1 113583:1 113584:1 113585:1 113586:1 113587:1 113588:1 113589:1 113590:1 
1 17151:1 17152:1 17153:1 17154:1 17155:1 17156:1 17157:1 17158:1 17159:1 17160:1 107571:1 107572:1 107573:1 107574:1 107575:1 107576:1 107577:1 107578:1 107579:1 107580:1 
1 58261:2 58262:2 58263:2 58264:2 58265:2 58266:2 58267:2 58268:2 58269:2 58270:2 91291:1 91292:1 91293:1 91294:1 91295:1 91296:1 91297:1 91298:1 91299:1 91300:1 106991:1 106992:1 106993:1 106994:1 106995:1 106996:1 106997:1 106998:1 106999:1 107000:1 118521:1 118522:1 118523:1 118524:1 118525:1 118526:1 118527:1 118528:1 118529:1 118530:1 
1 66481:1 66482:1 66483:1 66484:1 66485:1 66486:1 66487:1 66488:1 66489:1 66490:1 100011:1 100012:1 100013:1 100014:1 100015:1 100016:1 100017:1 100018:1 100019:1 100020:1 
1 31291:2 31292:2 31293:2 31294:2 31295:2 31296:2 31297:2 31298:2 31299:2 31300:2 76331:1 76332:1 76333:1 76334:1 76335:1 76336:1 76337:1 76338:1 76339:1 76340:1 102161:1 102162:1 102163:1 102164:1 102165:1 102166:1 102167:1 102168:1 102169:1 102170:1 113581:1 113582:1 113583:1 113584:1 113585:1 113586:1 113587:1 113588:1 113589:1 113590:1 
1 48131:2 48132:2 48133:2 48134:2 48135:2 48136:2 48137:2 48138:2 48139:2 48140:2 
1 18471:1 18472:1 18473:1 18474:1 18475:1 18476:1 18477:1 18478:1 18479:1 18480:1 60031:1 60032:1 60033:1 60034:1 60035:1 60036:1 60037:1 60038:1 60039:1 60040:1 63501:1 63502:1 63503:1 63504:1 63505:1 63506:1 63507:1 63508:1 63509:1 63510:1 141451:1 141452:1 141453:1 141454:1 141455:1 141456:1 141457:1 141458:1 141459:1 141460:1 
1 61621:1 61622:1 61623:1 61624:1 61625:1 61626:1 61627:1 61628:1 61629:1 61630:1 75731:1 75732:1 75733:1 75734:1 75735:1 75736:1 75737:1 75738:1 75739:1 75740:1 100291:1 100292:1 100293:1 100294:1 100295:1 100296:1 100297:1 100298:1 100299:1 100300:1 136341:1 136342:1 136343:1 136344:1 136345:1 136346:1 136347:1 136348:1 136349:1 136350:1 141201:1 141202:1 141203:1 141204:1 141205:1 141206:1 141207:1 141208:1 141209:1 141210:1 
1 751:1 752:1 753:1 754:1 755:1 756:1 757:1 758:1 759:1 760:1 15551:1 15552:1 15553:1 15554:1 15555:1 15556:1 15557:1 15558:1 15559:1 15560:1 16711:1 16712:1 16713:1 16714:1 16715:1 16716:1 16717:1 16718:1 16719:1 16720:1 48171:1 48172:1 48173:1 48174:1 48175:1 48176:1 48177:1 48178:1 48179:1 48180:1 73071:1 73072:1 73073:1 73074:1 73075:1 73076:1 73077:1 73078:1 73079:1 73080:1 135161:1 135162:1 135163:1 135164:1 135165:1 135166:1 135167:1 135168:1 135169:1 135170:1 
1 40071:1 40072:1 40073:1 40074:1 40075:1 40076:1 40077:1 40078:1 40079:1 40080:1 60031:1 60032:1 60033:1 60034:1 60035:1 60036:1 60037:1 60038:1 60039:1 60040:1 74961:1 74962:1 74963:1 74964:1 74965:1 74966:1 74967:1 74968:1 74969:1 74970:1 76081:1 76082:1 76083:1 76084:1 76085:1 76086:1 76087:1 76088:1 76089:1 76090:1 93161:1 93162:1 93163:1 93164:1 93165:1 93166:1 93167:1 93168:1 93169:1 93170:1 113851:1 113852:1 113853:1 113854:1 113855:1 113856:1 113857:1 113858:1 113859:1 113860:1 121291:1 121292:1 121293:1 121294:1 121295:1 121296:1 121297:1 121298:1 121299:1 121300:1 
1 9691:1 9692:1 9693:1 9694:1 9695:1 9696:1 9697:1 9698:1 9699:1 9700:1 29911:1 29912:1 29913:1 29914:1 29915:1 29916:1 29917:1 29918:1 29919:1 29920:1 58291:1 58292:1 58293:1 58294:1 58295:1 58296:1 58297:1 58298:1 58299:1 58300:1 74971:1 74972:1 74973:1 74974:1 74975:1 74976:1 74977:1 74978:1 74979:1 74980:1 116331:1 116332:1 116333:1 116334:1 116335:1 116336:1 116337:1 116338:1 116339:1 116340:1 
1 71461:1 71462:1 71463:1 71464:1 71465:1 71466:1 71467:1 71468:1 71469:1 71470:1 85761:1 85762:1 85763:1 85764:1 85765:1 85766:1 85767:1 85768:1 85769:1 85770:1 137261:1 137262:1 137263:1 137264:1 137265:1 137266:1 137267:1 137268:1 137269:1 137270:1 139141:1 139142:1 139143:1 139144:1 139145:1 139146:1 139147:1 139148:1 139149:1 139150:1 
1 5191:1 5192:1 5193:1 5194:1 5195:1 5196:1 5197:1 5198:1 5199:1 5200:1 48781:1 48782:1 48783:1 48784:1 48785:1 48786:1 48787:1 48788:1 48789:1 48790:1 121921:1 121922:1 121923:1 121924:1 121925:1 121926:1 121927:1 121928:1 121929:1 121930:1 137261:1 137262:1 137263:1 137264:1 137265:1 137266:1 137267:1 137268:1 137269:1 137270:1 
1 88911:2 88912:2 88913:2 88914:2 88915:2 88916:2 88917:2 88918:2 88919:2 88920:2 
1 12861:1 12862:1 12863:1 12864:1 12865:1 12866:1 12867:1 12868:1 12869:1 12870:1 16341:1 16342:1 16343:1 16344:1 16345:1 16346:1 16347:1 16348:1 16349:1 16350:1 48741:1 48742:1 48743:1 48744:1 48745:1 48746:1 48747:1 48748:1 48749:1 48750:1 82201:1 82202:1 82203:1 82204:1 82205:1 82206:1 82207:1 82208:1 82209:1 82210:1 
1 48761:2 48762:2 48763:2 48764:2 48765:2 48766:2 48767:2 48768:2 48769:2 48770:2 48781:1 48782:1 48783:1 48784:1 48785:1 48786:1 48787:1 48788:1 48789:1 48790:1 94531:1 94532:1 94533:1 94534:1 94535:1 94536:1 94537:1 94538:1 94539:1 94540:1 
1 5191:1 5192:1 5193:1 5194:1 5195:1 5196:1 5197:1 5198:1 5199:1 5200:1 34951:1 34952:1 34953:1 34954:1 34955:1 34956:1 34957:1 34958:1 34959:1 34960:1 71051:1 71052:1 71053:1 71054:1 71055:1 71056:1 71057:1 71058:1 71059:1 71060:1 93511:1 93512:1 93513:1 93514:1 93515:1 93516:1 93517:1 93518:1 93519:1 93520:1 114701:1 114702:1 114703:1 114704:1 114705:1 114706:1 114707:1 114708:1 114709:1 114710:1 120041:1 120042:1 120043:1 120044:1 120045:1 120046:1 120047:1 120048:1 120049:1 120050:1 120691:1 120692:1 120693:1 120694:1 120695:1 120696:1 120697:1 120698:1 120699:1 120700:1 122961:1 122962:1 122963:1 122964:1 122965:1 122966:1 122967:1 122968:1 122969:1 122970:1 140691:1 140692:1 140693:1 140694:1 140695:1 140696:1 140697:1 140698:1 140699:1 140700:1 140961:1 140962:1 140963:1 140964:1 140965:1 140966:1 140967:1 140968:1 140969:1 140970:1 
1 61621:1 61622:1 61623:1 61624:1 61625:1 61626:1 61627:1 61628:1 61629:1 61630:1 90191:1 90192:1 90193:1 90194:1 90195:1 90196:1 90197:1 90198:1 90199:1 90200:1 
1 17431:1 17432:1 17433:1 17434:1 17435:1 17436:1 17437:1 17438:1 17439:1 17440:1 31651:1 31652:1 31653:1 31654:1 31655:1 31656:1 31657:1 31658:1 31659:1 31660:1 48761:1 48762:1 48763:1 48764:1 48765:1 48766:1 48767:1 48768:1 48769:1 48770:1 126491:1 126492:1 126493:1 126494:1 126495:1 126496:1 126497:1 126498:1 126499:1 126500:1 127211:1 127212:1 127213:1 127214:1 127215:1 127216:1 127217:1 127218:1 127219:1 127220:1 
1 12791:1 12792:1 12793:1 12794:1 12795:1 12796:1 12797:1 12798:1 12799:1 12800:1 19661:1 19662:1 19663:1 19664:1 19665:1 19666:1 19667:1 19668:1 19669:1 19670:1 112821:1 112822:1 112823:1 112824:1 112825:1 112826:1 112827:1 112828:1 112829:1 112830:1 
1 49081:1 49082:1 49083:1 49084:1 49085:1 49086:1 49087:1 49088:1 49089:1 49090:1 50941:1 50942:1 50943:1 50944:1 50945:1 50946:1 50947:1 50948:1 50949:1 50950:1 52261:1 52262:1 52263:1 52264:1 52265:1 52266:1 52267:1 52268:1 52269:1 52270:1 136341:1 136342:1 136343:1 136344:1 136345:1 136346:1 136347:1 136348:1 136349:1 136350:1 
1 48171:1 48172:1 48173:1 48174:1 48175:1 48176:1 48177:1 48178:1 48179:1 48180:1 61621:2 61622:2 61623:2 61624:2 61625:2 61626:2 61627:2 61628:2 61629:2 61630:2 62051:1 62052:1 62053:1 62054:1 62055:1 62056:1 62057:1 62058:1 62059:1 62060:1 
1 109051:1 109052:1 109053:1 109054:1 109055:1 109056:1 109057:1 109058:1 109059:1 109060:1 
1 3091:1 3092:1 3093:1 3094:1 3095:1 3096:1 3097:1 3098:1 3099:1 3100:1 8111:1 8112:1 8113:1 8114:1 8115:1 8116:1 8117:1 8118:1 8119:1 8120:1 18641:1 18642:1 18643:1 18644:1 18645:1 18646:1 18647:1 18648:1 18649:1 18650:1 31851:1 31852:1 31853:1 31854:1 31855:1 31856:1 31857:1 31858:1 31859:1 31860:1 34531:1 34532:1 34533:1 34534:1 34535:1 34536:1 34537:1 34538:1 34539:1 34540:1 141201:1 141202:1 141203:1 141204:1 141205:1 141206:1 141207:1 141208:1 141209:1 141210:1 
1 72511:1 72512:1 72513:1 72514:1 72515:1 72516:1 72517:1 72518:1 72519:1 72520:1 86561:1 86562:1 86563:1 86564:1 86565:1 86566:1 86567:1 86568:1 86569:1 86570:1 
1 88911:2 88912:2 88913:2 88914:2 88915:2 88916:2 88917:2 88918:2 88919:2 88920:2 
0.6035771953092044 58761:1 58762:1 58763:1 58764:1 58765:1 58766:1 58767:1 58768:1 58769:1 58770:1 73381:1 73382:1 73383:1 73384:1 73385:1 73386:1 73387:1 73388:1 73389:1 73390:1 74941:10 74942:10 74943:10 74944:10 74945:10 74946:10 74947:10 74948:10 74949:10 74950:10 75511:1 75512:1 75513:1 75514:1 75515:1 75516:1 75517:1 75518:1 75519:1 75520:1 127141:1 127142:1 127143:1 127144:1 127145:1 127146:1 127147:1 127148:1 127149:1 127150:1 130961:1 130962:1 130963:1 130964:1 130965:1 130966:1 130967:1 130968:1 130969:1 130970:1 
1 26961:1 26962:1 26963:1 26964:1 26965:1 26966:1 26967:1 26968:1 26969:1 26970:1 60441:1 60442:1 60443:1 60444:1 60445:1 60446:1 60447:1 60448:1 60449:1 60450:1 73331:1 73332:1 73333:1 73334:1 73335:1 73336:1 73337:1 73338:1 73339:1 73340:1 75731:1 75732:1 75733:1 75734:1 75735:1 75736:1 75737:1 75738:1 75739:1 75740:1 87141:1 87142:1 87143:1 87144:1 87145:1 87146:1 87147:1 87148:1 87149:1 87150:1 102311:1 102312:1 102313:1 102314:1 102315:1 102316:1 102317:1 102318:1 102319:1 102320:1 110621:1 110622:1 110623:1 110624:1 110625:1 110626:1 110627:1 110628:1 110629:1 110630:1 
1 1151:1 1152:1 1153:1 1154:1 1155:1 1156:1 1157:1 1158:1 1159:1 1160:1 8601:1 8602:1 8603:1 8604:1 8605:1 8606:1 8607:1 8608:1 8609:1 8610:1 15741:1 15742:1 15743:1 15744:1 15745:1 15746:1 15747:1 15748:1 15749:1 15750:1 60031:1 60032:1 60033:1 60034:1 60035:1 60036:1 60037:1 60038:1 60039:1 60040:1 94651:1 94652:1 94653:1 94654:1 94655:1 94656:1 94657:1 94658:1 94659:1 94660:1 124101:1 124102:1 124103:1 124104:1 124105:1 124106:1 124107:1 124108:1 124109:1 124110:1 
1 12791:1 12792:1 12793:1 12794:1 12795:1 12796:1 12797:1 12798:1 12799:1 12800:1 52261:1 52262:1 52263:1 52264:1 52265:1 52266:1 52267:1 52268:1 52269:1 52270:1 79541:1 79542:1 79543:1 79544:1 79545:1 79546:1 79547:1 79548:1 79549:1 79550:1 97521:1 97522:1 97523:1 97524:1 97525:1 97526:1 97527:1 97528:1 97529:1 97530:1 
1 9531:1 9532:1 9533:1 9534:1 9535:1 9536:1 9537:1 9538:1 9539:1 9540:1 12861:1 12862:1 12863:1 12864:1 12865:1 12866:1 12867:1 12868:1 12869:1 12870:1 48171:1 48172:1 48173:1 48174:1 48175:1 48176:1 48177:1 48178:1 48179:1 48180:1 48181:1 48182:1 48183:1 48184:1 48185:1 48186:1 48187:1 48188:1 48189:1 48190:1 
1 52001:1 52002:1 52003:1 52004:1 52005:1 52006:1 52007:1 52008:1 52009:1 52010:1 57001:1 57002:1 57003:1 57004:1 57005:1 57006:1 57007:1 57008:1 57009:1 57010:1 81451:1 81452:1 81453:1 81454:1 81455:1 81456:1 81457:1 81458:1 81459:1 81460:1 110561:1 110562:1 110563:1 110564:1 110565:1 110566:1 110567:1 110568:1 110569:1 110570:1 115001:1 115002:1 115003:1 115004:1 115005:1 115006:1 115007:1 115008:1 115009:1 115010:1 
1 20791:1 20792:1 20793:1 20794:1 20795:1 20796:1 20797:1 20798:1 20799:1 20800:1 38921:1 38922:1 38923:1 38924:1 38925:1 38926:1 38927:1 38928:1 38929:1 38930:1 104821:1 104822:1 104823:1 104824:1 104825:1 104826:1 104827:1 104828:1 104829:1 104830:1 
1 19761:1 19762:1 19763:1 19764:1 19765:1 19766:1 19767:1 19768:1 19769:1 19770:1 73971:2 73972:2 73973:2 73974:2 73975:2 73976:2 73977:2 73978:2 73979:2 73980:2 113581:1 113582:1 113583:1 113584:1 113585:1 113586:1 113587:1 113588:1 113589:1 113590:1 
1 46951:1 46952:1 46953:1 46954:1 46955:1 46956:1 46957:1 46958:1 46959:1 46960:1 93781:1 93782:1 93783:1 93784:1 93785:1 93786:1 93787:1 93788:1 93789:1 93790:1 101411:1 101412:1 101413:1 101414:1 101415:1 101416:1 101417:1 101418:1 101419:1 101420:1 
1 5141:1 5142:1 5143:1 5144:1 5145:1 5146:1 5147:1 5148:1 5149:1 5150:1 28611:1 28612:1 28613:1 28614:1 28615:1 28616:1 28617:1 28618:1 28619:1 28620:1 60441:1 60442:1 60443:1 60444:1 60445:1 60446:1 60447:1 60448:1 60449:1 60450:1 
1 31261:1 31262:1 31263:1 31264:1 31265:1 31266:1 31267:1 31268:1 31269:1 31270:1 60031:2 60032:2 60033:2 60034:2 60035:2 60036:2 60037:2 60038:2 60039:2 60040:2 61061:1 61062:1 61063:1 61064:1 61065:1 61066:1 61067:1 61068:1 61069:1 61070:1 71931:1 71932:1 71933:1 71934:1 71935:1 71936:1 71937:1 71938:1 71939:1 71940:1 81881:1 81882:1 81883:1 81884:1 81885:1 81886:1 81887:1 81888:1 81889:1 81890:1 97021:1 97022:1 97023:1 97024:1 97025:1 97026:1 97027:1 97028:1 97029:1 97030:1 107971:1 107972:1 107973:1 107974:1 107975:1 107976:1 107977:1 107978:1 107979:1 107980:1 127631:1 127632:1 127633:1 127634:1 127635:1 127636:1 127637:1 127638:1 127639:1 127640:1 130181:1 130182:1 130183:1 130184:1 130185:1 130186:1 130187:1 130188:1 130189:1 130190:1 132651:1 132652:1 132653:1 132654:1 132655:1 132656:1 132657:1 132658:1 132659:1 132660:1 136341:1 136342:1 136343:1 136344:1 136345:1 136346:1 136347:1 136348:1 136349:1 136350:1 
1 3191:1 3192:1 3193:1 3194:1 3195:1 3196:1 3197:1 3198:1 3199:1 3200:1 19661:1 19662:1 19663:1 19664:1 19665:1 19666:1 19667:1 19668:1 19669:1 19670:1 48171:1 48172:1 48173:1 48174:1 48175:1 48176:1 48177:1 48178:1 48179:1 48180:1 48761:1 48762:1 48763:1 48764:1 48765:1 48766:1 48767:1 48768:1 48769:1 48770:1 58691:1 58692:1 58693:1 58694:1 58695:1 58696:1 58697:1 58698:1 58699:1 58700:1 75091:2 75092:2 75093:2 75094:2 75095:2 75096:2 75097:2 75098:2 75099:2 75100:2 76331:1 76332:1 76333:1 76334:1 76335:1 76336:1 76337:1 76338:1 76339:1 76340:1 88801:1 88802:1 88803:1 88804:1 88805:1 88806:1 88807:1 88808:1 88809:1 88810:1 119521:1 119522:1 119523:1 119524:1 119525:1 119526:1 119527:1 119528:1 119529:1 119530:1 138601:1 138602:1 138603:1 138604:1 138605:1 138606:1 138607:1 138608:1 138609:1 138610:1 
1 1151:1 1152:1 1153:1 1154:1 1155:1 1156:1 1157:1 1158:1 1159:1 1160:1 30831:1 30832:1 30833:1 30834:1 30835:1 30836:1 30837:1 30838:1 30839:1 30840:1 57001:1 57002:1 57003:1 57004:1 57005:1 57006:1 57007:1 57008:1 57009:1 57010:1 57891:1 57892:1 57893:1 57894:1 57895:1 57896:1 57897:1 57898:1 57899:1 57900:1 60191:1 60192:1 60193:1 60194:1 60195:1 60196:1 60197:1 60198:1 60199:1 60200:1 97111:1 97112:1 97113:1 97114:1 97115:1 97116:1 97117:1 97118:1 97119:1 97120:1 127391:1 127392:1 127393:1 127394:1 127395:1 127396:1 127397:1 127398:1 127399:1 127400:1 128351:1 128352:1 128353:1 128354:1 128355:1 128356:1 128357:1 128358:1 128359:1 128360:1 137261:1 137262:1 137263:1 137264:1 137265:1 137266:1 137267:1 137268:1 137269:1 137270:1 
1 16111:1 16112:1 16113:1 16114:1 16115:1 16116:1 16117:1 16118:1 16119:1 16120:1 41591:1 41592:1 41593:1 41594:1 41595:1 41596:1 41597:1 41598:1 41599:1 41600:1 48761:1 48762:1 48763:1 48764:1 48765:1 48766:1 48767:1 48768:1 48769:1 48770:1 48781:1 48782:1 48783:1 48784:1 48785:1 48786:1 48787:1 48788:1 48789:1 48790:1 110621:2 110622:2 110623:2 110624:2 110625:2 110626:2 110627:2 110628:2 110629:2 110630:2 
1 46951:1 46952:1 46953:1 46954:1 46955:1 46956:1 46957:1 46958:1 46959:1 46960:1 51971:1 51972:1 51973:1 51974:1 51975:1 51976:1 51977:1 51978:1 51979:1 51980:1 59111:1 59112:1 59113:1 59114:1 59115:1 59116:1 59117:1 59118:1 59119:1 59120:1 69781:1 69782:1 69783:1 69784:1 69785:1 69786:1 69787:1 69788:1 69789:1 69790:1 70541:1 70542:1 70543:1 70544:1 70545:1 70546:1 70547:1 70548:1 70549:1 70550:1 
1 12791:1 12792:1 12793:1 12794:1 12795:1 12796:1 12797:1 12798:1 12799:1 12800:1 53011:1 53012:1 53013:1 53014:1 53015:1 53016:1 53017:1 53018:1 53019:1 53020:1 65311:1 65312:1 65313:1 65314:1 65315:1 65316:1 65317:1 65318:1 65319:1 65320:1 66531:1 66532:1 66533:1 66534:1 66535:1 66536:1 66537:1 66538:1 66539:1 66540:1 
1 21591:1 21592:1 21593:1 21594:1 21595:1 21596:1 21597:1 21598:1 21599:1 21600:1 55411:1 55412:1 55413:1 55414:1 55415:1 55416:1 55417:1 55418:1 55419:1 55420:1 60831:1 60832:1 60833:1 60834:1 60835:1 60836:1 60837:1 60838:1 60839:1 60840:1 62571:1 62572:1 62573:1 62574:1 62575:1 62576:1 62577:1 62578:1 62579:1 62580:1 104781:1 104782:1 104783:1 104784:1 104785:1 104786:1 104787:1 104788:1 104789:1 104790:1 116541:1 116542:1 116543:1 116544:1 116545:1 116546:1 116547:1 116548:1 116549:1 116550:1 
1 21591:1 21592:1 21593:1 21594:1 21595:1 21596:1 21597:1 21598:1 21599:1 21600:1 55411:1 55412:1 55413:1 55414:1 55415:1 55416:1 55417:1 55418:1 55419:1 55420:1 60831:1 60832:1 60833:1 60834:1 60835:1 60836:1 60837:1 60838:1 60839:1 60840:1 62571:1 62572:1 62573:1 62574:1 62575:1 62576:1 62577:1 62578:1 62579:1 62580:1 104781:1 104782:1 104783:1 104784:1 104785:1 104786:1 104787:1 104788:1 104789:1 104790:1 116541:1 116542:1 116543:1 116544:1 116545:1 116546:1 116547:1 116548:1 116549:1 116550:1 
1 21591:1 21592:1 21593:1 21594:1 21595:1 21596:1 21597:1 21598:1 21599:1 21600:1 55411:1 55412:1 55413:1 55414:1 55415:1 55416:1 55417:1 55418:1 55419:1 55420:1 60831:1 60832:1 60833:1 60834:1 60835:1 60836:1 60837:1 60838:1 60839:1 60840:1 62571:1 62572:1 62573:1 62574:1 62575:1 62576:1 62577:1 62578:1 62579:1 62580:1 104781:1 104782:1 104783:1 104784:1 104785:1 104786:1 104787:1 104788:1 104789:1 104790:1 116541:1 116542:1 116543:1 116544:1 116545:1 116546:1 116547:1 116548:1 116549:1 116550:1 
1 21591:1 21592:1 21593:1 21594:1 21595:1 21596:1 21597:1 21598:1 21599:1 21600:1 55411:1 55412:1 55413:1 55414:1 55415:1 55416:1 55417:1 55418:1 55419:1 55420:1 60831:1 60832:1 60833:1 60834:1 60835:1 60836:1 60837:1 60838:1 60839:1 60840:1 62571:1 62572:1 62573:1 62574:1 62575:1 62576:1 62577:1 62578:1 62579:1 62580:1 104781:1 104782:1 104783:1 104784:1 104785:1 104786:1 104787:1 104788:1 104789:1 104790:1 116541:1 116542:1 116543:1 116544:1 116545:1 116546:1 116547:1 116548:1 116549:1 116550:1 
1 12431:1 12432:1 12433:1 12434:1 12435:1 12436:1 12437:1 12438:1 12439:1 12440:1 17481:2 17482:2 17483:2 17484:2 17485:2 17486:2 17487:2 17488:2 17489:2 17490:2 30671:2 30672:2 30673:2 30674:2 30675:2 30676:2 30677:2 30678:2 30679:2 30680:2 31291:1 31292:1 31293:1 31294:1 31295:1 31296:1 31297:1 31298:1 31299:1 31300:1 31511:3 31512:3 31513:3 31514:3 31515:3 31516:3 31517:3 31518:3 31519:3 31520:3 46951:1 46952:1 46953:1 46954:1 46955:1 46956:1 46957:1 46958:1 46959:1 46960:1 73481:2 73482:2 73483:2 73484:2 73485:2 73486:2 73487:2 73488:2 73489:2 73490:2 95681:1 95682:1 95683:1 95684:1 95685:1 95686:1 95687:1 95688:1 95689:1 95690:1 
1 46951:1 46952:1 46953:1 46954:1 46955:1 46956:1 46957:1 46958:1 46959:1 46960:1 56641:1 56642:1 56643:1 56644:1 56645:1 56646:1 56647:1 56648:1 56649:1 56650:1 72511:1 72512:1 72513:1 72514:1 72515:1 72516:1 72517:1 72518:1 72519:1 72520:1 75001:1 75002:1 75003:1 75004:1 75005:1 75006:1 75007:1 75008:1 75009:1 75010:1 108671:3 108672:3 108673:3 108674:3 108675:3 108676:3 108677:3 108678:3 108679:3 108680:3 
1 23551:1 23552:1 23553:1 23554:1 23555:1 23556:1 23557:1 23558:1 23559:1 23560:1 31851:1 31852:1 31853:1 31854:1 31855:1 31856:1 31857:1 31858:1 31859:1 31860:1 48781:1 48782:1 48783:1 48784:1 48785:1 48786:1 48787:1 48788:1 48789:1 48790:1 61001:1 61002:1 61003:1 61004:1 61005:1 61006:1 61007:1 61008:1 61009:1 61010:1 70771:1 70772:1 70773:1 70774:1 70775:1 70776:1 70777:1 70778:1 70779:1 70780:1 82711:1 82712:1 82713:1 82714:1 82715:1 82716:1 82717:1 82718:1 82719:1 82720:1 127611:5 127612:5 127613:5 127614:5 127615:5 127616:5 127617:5 127618:5 127619:5 127620:5 128611:1 128612:1 128613:1 128614:1 128615:1 128616:1 128617:1 128618:1 128619:1 128620:1 
1 9741:1 9742:1 9743:1 9744:1 9745:1 9746:1 9747:1 9748:1 9749:1 9750:1 12931:1 12932:1 12933:1 12934:1 12935:1 12936:1 12937:1 12938:1 12939:1 12940:1 53221:1 53222:1 53223:1 53224:1 53225:1 53226:1 53227:1 53228:1 53229:1 53230:1 117401:1 117402:1 117403:1 117404:1 117405:1 117406:1 117407:1 117408:1 117409:1 117410:1 123591:1 123592:1 123593:1 123594:1 123595:1 123596:1 123597:1 123598:1 123599:1 123600:1 
1 8611:1 8612:1 8613:1 8614:1 8615:1 8616:1 8617:1 8618:1 8619:1 8620:1 67601:1 67602:1 67603:1 67604:1 67605:1 67606:1 67607:1 67608:1 67609:1 67610:1 137951:1 137952:1 137953:1 137954:1 137955:1 137956:1 137957:1 137958:1 137959:1 137960:1 
1 47291:1 47292:1 47293:1 47294:1 47295:1 47296:1 47297:1 47298:1 47299:1 47300:1 97361:1 97362:1 97363:1 97364:1 97365:1 97366:1 97367:1 97368:1 97369:1 97370:1 127141:1 127142:1 127143:1 127144:1 127145:1 127146:1 127147:1 127148:1 127149:1 127150:1 
1 17761:1 17762:1 17763:1 17764:1 17765:1 17766:1 17767:1 17768:1 17769:1 17770:1 29921:1 29922:1 29923:1 29924:1 29925:1 29926:1 29927:1 29928:1 29929:1 29930:1 59111:1 59112:1 59113:1 59114:1 59115:1 59116:1 59117:1 59118:1 59119:1 59120:1 104061:1 104062:1 104063:1 104064:1 104065:1 104066:1 104067:1 104068:1 104069:1 104070:1 113581:1 113582:1 113583:1 113584:1 113585:1 113586:1 113587:1 113588:1 113589:1 113590:1 
1 7471:1 7472:1 7473:1 7474:1 7475:1 7476:1 7477:1 7478:1 7479:1 7480:1 60271:2 60272:2 60273:2 60274:2 60275:2 60276:2 60277:2 60278:2 60279:2 60280:2 115421:1 115422:1 115423:1 115424:1 115425:1 115426:1 115427:1 115428:1 115429:1 115430:1 
1 17431:1 17432:1 17433:1 17434:1 17435:1 17436:1 17437:1 17438:1 17439:1 17440:1 58621:1 58622:1 58623:1 58624:1 58625:1 58626:1 58627:1 58628:1 58629:1 58630:1 105411:1 105412:1 105413:1 105414:1 105415:1 105416:1 105417:1 105418:1 105419:1 105420:1 141231:1 141232:1 141233:1 141234:1 141235:1 141236:1 141237:1 141238:1 141239:1 141240:1 
1 17431:1 17432:1 17433:1 17434:1 17435:1 17436:1 17437:1 17438:1 17439:1 17440:1 58621:1 58622:1 58623:1 58624:1 58625:1 58626:1 58627:1 58628:1 58629:1 58630:1 105411:1 105412:1 105413:1 105414:1 105415:1 105416:1 105417:1 105418:1 105419:1 105420:1 141231:1 141232:1 141233:1 141234:1 141235:1 141236:1 141237:1 141238:1 141239:1 141240:1 
1 17431:1 17432:1 17433:1 17434:1 17435:1 17436:1 17437:1 17438:1 17439:1 17440:1 58621:1 58622:1 58623:1 58624:1 58625:1 58626:1 58627:1 58628:1 58629:1 58630:1 105411:1 105412:1 105413:1 105414:1 105415:1 105416:1 105417:1 105418:1 105419:1 105420:1 141231:1 141232:1 141233:1 141234:1 141235:1 141236:1 141237:1 141238:1 141239:1 141240:1 
1 113581:1 113582:1 113583:1 113584:1 113585:1 113586:1 113587:1 113588:1 113589:1 113590:1 116531:2 116532:2 116533:2 116534:2 116535:2 116536:2 116537:2 116538:2 116539:2 116540:2 
1 
1 891:1 892:1 893:1 894:1 895:1 896:1 897:1 898:1 899:1 900:1 13021:1 13022:1 13023:1 13024:1 13025:1 13026:1 13027:1 13028:1 13029:1 13030:1 70521:1 70522:1 70523:1 70524:1 70525:1 70526:1 70527:1 70528:1 70529:1 70530:1 94971:1 94972:1 94973:1 94974:1 94975:1 94976:1 94977:1 94978:1 94979:1 94980:1 120881:1 120882:1 120883:1 120884:1 120885:1 120886:1 120887:1 120888:1 120889:1 120890:1 138751:1 138752:1 138753:1 138754:1 138755:1 138756:1 138757:1 138758:1 138759:1 138760:1 
1 74981:1 74982:1 74983:1 74984:1 74985:1 74986:1 74987:1 74988:1 74989:1 74990:1 83961:1 83962:1 83963:1 83964:1 83965:1 83966:1 83967:1 83968:1 83969:1 83970:1 97021:1 97022:1 97023:1 97024:1 97025:1 97026:1 97027:1 97028:1 97029:1 97030:1 135201:4 135202:4 135203:4 135204:4 135205:4 135206:4 135207:4 135208:4 135209:4 135210:4 140441:1 140442:1 140443:1 140444:1 140445:1 140446:1 140447:1 140448:1 140449:1 140450:1 
1 118521:1 118522:1 118523:1 118524:1 118525:1 118526:1 118527:1 118528:1 118529:1 118530:1 
1 31291:1 31292:1 31293:1 31294:1 31295:1 31296:1 31297:1 31298:1 31299:1 31300:1 60031:1 60032:1 60033:1 60034:1 60035:1 60036:1 60037:1 60038:1 60039:1 60040:1 128351:1 128352:1 128353:1 128354:1 128355:1 128356:1 128357:1 128358:1 128359:1 128360:1 
1 46091:1 46092:1 46093:1 46094:1 46095:1 46096:1 46097:1 46098:1 46099:1 46100:1 67361:1 67362:1 67363:1 67364:1 67365:1 67366:1 67367:1 67368:1 67369:1 67370:1 73381:1 73382:1 73383:1 73384:1 73385:1 73386:1 73387:1 73388:1 73389:1 73390:1 130131:2 130132:2 130133:2 130134:2 130135:2 130136:2 130137:2 130138:2 130139:2 130140:2 141521:1 141522:1 141523:1 141524:1 141525:1 141526:1 141527:1 141528:1 141529:1 141530:1 
1 12791:2 12792:2 12793:2 12794:2 12795:2 12796:2 12797:2 12798:2 12799:2 12800:2 49081:1 49082:1 49083:1 49084:1 49085:1 49086:1 49087:1 49088:1 49089:1 49090:1 79501:1 79502:1 79503:1 79504:1 79505:1 79506:1 79507:1 79508:1 79509:1 79510:1 80911:2 80912:2 80913:2 80914:2 80915:2 80916:2 80917:2 80918:2 80919:2 80920:2 127971:1 127972:1 127973:1 127974:1 127975:1 127976:1 127977:1 127978:1 127979:1 127980:1 140641:1 140642:1 140643:1 140644:1 140645:1 140646:1 140647:1 140648:1 140649:1 140650:1 
1 11331:1 11332:1 11333:1 11334:1 11335:1 11336:1 11337:1 11338:1 11339:1 11340:1 97141:1 97142:1 97143:1 97144:1 97145:1 97146:1 97147:1 97148:1 97149:1 97150:1 138111:2 138112:2 138113:2 138114:2 138115:2 138116:2 138117:2 138118:2 138119:2 138120:2 
1 48541:1 48542:1 48543:1 48544:1 48545:1 48546:1 48547:1 48548:1 48549:1 48550:1 48761:1 48762:1 48763:1 48764:1 48765:1 48766:1 48767:1 48768:1 48769:1 48770:1 140371:1 140372:1 140373:1 140374:1 140375:1 140376:1 140377:1 140378:1 140379:1 140380:1 140751:1 140752:1 140753:1 140754:1 140755:1 140756:1 140757:1 140758:1 140759:1 140760:1 
1 113721:1 113722:1 113723:1 113724:1 113725:1 113726:1 113727:1 113728:1 113729:1 113730:1 
1 11241:2 11242:2 11243:2 11244:2 11245:2 11246:2 11247:2 11248:2 11249:2 11250:2 15691:1 15692:1 15693:1 15694:1 15695:1 15696:1 15697:1 15698:1 15699:1 15700:1 45401:1 45402:1 45403:1 45404:1 45405:1 45406:1 45407:1 45408:1 45409:1 45410:1 61561:1 61562:1 61563:1 61564:1 61565:1 61566:1 61567:1 61568:1 61569:1 61570:1 107561:1 107562:1 107563:1 107564:1 107565:1 107566:1 107567:1 107568:1 107569:1 107570:1 113851:1 113852:1 113853:1 113854:1 113855:1 113856:1 113857:1 113858:1 113859:1 113860:1 113871:1 113872:1 113873:1 113874:1 113875:1 113876:1 113877:1 113878:1 113879:1 113880:1 116101:1 116102:1 116103:1 116104:1 116105:1 116106:1 116107:1 116108:1 116109:1 116110:1 118871:1 118872:1 118873:1 118874:1 118875:1 118876:1 118877:1 118878:1 118879:1 118880:1 125341:1 125342:1 125343:1 125344:1 125345:1 125346:1 125347:1 125348:1 125349:1 125350:1 
1 42731:1 42732:1 42733:1 42734:1 42735:1 42736:1 42737:1 42738:1 42739:1 42740:1 54671:1 54672:1 54673:1 54674:1 54675:1 54676:1 54677:1 54678:1 54679:1 54680:1 116551:1 116552:1 116553:1 116554:1 116555:1 116556:1 116557:1 116558:1 116559:1 116560:1 
1 24811:1 24812:1 24813:1 24814:1 24815:1 24816:1 24817:1 24818:1 24819:1 24820:1 48761:1 48762:1 48763:1 48764:1 48765:1 48766:1 48767:1 48768:1 48769:1 48770:1 74681:1 74682:1 74683:1 74684:1 74685:1 74686:1 74687:1 74688:1 74689:1 74690:1 112551:1 112552:1 112553:1 112554:1 112555:1 112556:1 112557:1 112558:1 112559:1 112560:1 
1 17431:1 17432:1 17433:1 17434:1 17435:1 17436:1 17437:1 17438:1 17439:1 17440:1 58621:1 58622:1 58623:1 58624:1 58625:1 58626:1 58627:1 58628:1 58629:1 58630:1 105411:1 105412:1 105413:1 105414:1 105415:1 105416:1 105417:1 105418:1 105419:1 105420:1 141231:1 141232:1 141233:1 141234:1 141235:1 141236:1 141237:1 141238:1 141239:1 141240:1 
1 28831:1 28832:1 28833:1 28834:1 28835:1 28836:1 28837:1 28838:1 28839:1 28840:1 47771:1 47772:1 47773:1 47774:1 47775:1 47776:1 47777:1 47778:1 47779:1 47780:1 85981:2 85982:2 85983:2 85984:2 85985:2 85986:2 85987:2 85988:2 85989:2 85990:2 113581:1 113582:1 113583:1 113584:1 113585:1 113586:1 113587:1 113588:1 113589:1 113590:1 117261:1 117262:1 117263:1 117264:1 117265:1 117266:1 117267:1 117268:1 117269:1 117270:1 
1 5111:1 5112:1 5113:1 5114:1 5115:1 5116:1 5117:1 5118:1 5119:1 5120:1 37451:1 37452:1 37453:1 37454:1 37455:1 37456:1 37457:1 37458:1 37459:1 37460:1 51861:1 51862:1 51863:1 51864:1 51865:1 51866:1 51867:1 51868:1 51869:1 51870:1 90711:1 90712:1 90713:1 90714:1 90715:1 90716:1 90717:1 90718:1 90719:1 90720:1 91291:1 91292:1 91293:1 91294:1 91295:1 91296:1 91297:1 91298:1 91299:1 91300:1 97691:1 97692:1 97693:1 97694:1 97695:1 97696:1 97697:1 97698:1 97699:1 97700:1 101591:1 101592:1 101593:1 101594:1 101595:1 101596:1 101597:1 101598:1 101599:1 101600:1 117031:1 117032:1 117033:1 117034:1 117035:1 117036:1 117037:1 117038:1 117039:1 117040:1 127391:1 127392:1 127393:1 127394:1 127395:1 127396:1 127397:1 127398:1 127399:1 127400:1 130741:1 130742:1 130743:1 130744:1 130745:1 130746:1 130747:1 130748:1 130749:1 130750:1 
1 17431:1 17432:1 17433:1 17434:1 17435:1 17436:1 17437:1 17438:1 17439:1 17440:1 30291:1 30292:1 30293:1 30294:1 30295:1 30296:1 30297:1 30298:1 30299:1 30300:1 74681:1 74682:1 74683:1 74684:1 74685:1 74686:1 74687:1 74688:1 74689:1 74690:1 75731:1 75732:1 75733:1 75734:1 75735:1 75736:1 75737:1 75738:1 75739:1 75740:1 83961:1 83962:1 83963:1 83964:1 83965:1 83966:1 83967:1 83968:1 83969:1 83970:1 
1 17431:1 17432:1 17433:1 17434:1 17435:1 17436:1 17437:1 17438:1 17439:1 17440:1 55711:1 55712:1 55713:1 55714:1 55715:1 55716:1 55717:1 55718:1 55719:1 55720:1 58601:1 58602:1 58603:1 58604:1 58605:1 58606:1 58607:1 58608:1 58609:1 58610:1 122591:1 122592:1 122593:1 122594:1 122595:1 122596:1 122597:1 122598:1 122599:1 122600:1 126391:1 126392:1 126393:1 126394:1 126395:1 126396:1 126397:1 126398:1 126399:1 126400:1 141231:1 141232:1 141233:1 141234:1 141235:1 141236:1 141237:1 141238:1 141239:1 141240:1 
1 17431:1 17432:1 17433:1 17434:1 17435:1 17436:1 17437:1 17438:1 17439:1 17440:1 55711:1 55712:1 55713:1 55714:1 55715:1 55716:1 55717:1 55718:1 55719:1 55720:1 73381:1 73382:1 73383:1 73384:1 73385:1 73386:1 73387:1 73388:1 73389:1 73390:1 110131:1 110132:1 110133:1 110134:1 110135:1 110136:1 110137:1 110138:1 110139:1 110140:1 122591:1 122592:1 122593:1 122594:1 122595:1 122596:1 122597:1 122598:1 122599:1 122600:1 126391:1 126392:1 126393:1 126394:1 126395:1 126396:1 126397:1 126398:1 126399:1 126400:1 127391:1 127392:1 127393:1 127394:1 127395:1 127396:1 127397:1 127398:1 127399:1 127400:1 141231:1 141232:1 141233:1 141234:1 141235:1 141236:1 141237:1 141238:1 141239:1 141240:1 
1 113721:1 113722:1 113723:1 113724:1 113725:1 113726:1 113727:1 113728:1 113729:1 113730:1 
1 5191:1 5192:1 5193:1 5194:1 5195:1 5196:1 5197:1 5198:1 5199:1 5200:1 11721:1 11722:1 11723:1 11724:1 11725:1 11726:1 11727:1 11728:1 11729:1 11730:1 47961:1 47962:1 47963:1 47964:1 47965:1 47966:1 47967:1 47968:1 47969:1 47970:1 48281:1 48282:1 48283:1 48284:1 48285:1 48286:1 48287:1 48288:1 48289:1 48290:1 95761:1 95762:1 95763:1 95764:1 95765:1 95766:1 95767:1 95768:1 95769:1 95770:1 101361:1 101362:1 101363:1 101364:1 101365:1 101366:1 101367:1 101368:1 101369:1 101370:1 114431:1 114432:1 114433:1 114434:1 114435:1 114436:1 114437:1 114438:1 114439:1 114440:1 119641:1 119642:1 119643:1 119644:1 119645:1 119646:1 119647:1 119648:1 119649:1 119650:1 
1 121601:1 121602:1 121603:1 121604:1 121605:1 121606:1 121607:1 121608:1 121609:1 121610:1 
1 28061:1 28062:1 28063:1 28064:1 28065:1 28066:1 28067:1 28068:1 28069:1 28070:1 51731:1 51732:1 51733:1 51734:1 51735:1 51736:1 51737:1 51738:1 51739:1 51740:1 65151:1 65152:1 65153:1 65154:1 65155:1 65156:1 65157:1 65158:1 65159:1 65160:1 92241:1 92242:1 92243:1 92244:1 92245:1 92246:1 92247:1 92248:1 92249:1 92250:1 
1 113581:1 113582:1 113583:1 113584:1 113585:1 113586:1 113587:1 113588:1 113589:1 113590:1 121721:1 121722:1 121723:1 121724:1 121725:1 121726:1 121727:1 121728:1 121729:1 121730:1 
1 9881:1 9882:1 9883:1 9884:1 9885:1 9886:1 9887:1 9888:1 9889:1 9890:1 55271:1 55272:1 55273:1 55274:1 55275:1 55276:1 55277:1 55278:1 55279:1 55280:1 73381:1 73382:1 73383:1 73384:1 73385:1 73386:1 73387:1 73388:1 73389:1 73390:1 74961:1 74962:1 74963:1 74964:1 74965:1 74966:1 74967:1 74968:1 74969:1 74970:1 75601:1 75602:1 75603:1 75604:1 75605:1 75606:1 75607:1 75608:1 75609:1 75610:1 102311:1 102312:1 102313:1 102314:1 102315:1 102316:1 102317:1 102318:1 102319:1 102320:1 141161:1 141162:1 141163:1 141164:1 141165:1 141166:1 141167:1 141168:1 141169:1 141170:1 
1 62331:1 62332:1 62333:1 62334:1 62335:1 62336:1 62337:1 62338:1 62339:1 62340:1 89311:1 89312:1 89313:1 89314:1 89315:1 89316:1 89317:1 89318:1 89319:1 89320:1 113881:1 113882:1 113883:1 113884:1 113885:1 113886:1 113887:1 113888:1 113889:1 113890:1 127971:1 127972:1 127973:1 127974:1 127975:1 127976:1 127977:1 127978:1 127979:1 127980:1 
1 38921:1 38922:1 38923:1 38924:1 38925:1 38926:1 38927:1 38928:1 38929:1 38930:1 58641:1 58642:1 58643:1 58644:1 58645:1 58646:1 58647:1 58648:1 58649:1 58650:1 137941:1 137942:1 137943:1 137944:1 137945:1 137946:1 137947:1 137948:1 137949:1 137950:1 
1 54551:1 54552:1 54553:1 54554:1 54555:1 54556:1 54557:1 54558:1 54559:1 54560:1 87151:1 87152:1 87153:1 87154:1 87155:1 87156:1 87157:1 87158:1 87159:1 87160:1 120691:1 120692:1 120693:1 120694:1 120695:1 120696:1 120697:1 120698:1 120699:1 120700:1 
1 62321:1 62322:1 62323:1 62324:1 62325:1 62326:1 62327:1 62328:1 62329:1 62330:1 
1 5191:1 5192:1 5193:1 5194:1 5195:1 5196:1 5197:1 5198:1 5199:1 5200:1 52431:1 52432:1 52433:1 52434:1 52435:1 52436:1 52437:1 52438:1 52439:1 52440:1 92031:1 92032:1 92033:1 92034:1 92035:1 92036:1 92037:1 92038:1 92039:1 92040:1 99811:1 99812:1 99813:1 99814:1 99815:1 99816:1 99817:1 99818:1 99819:1 99820:1 113581:1 113582:1 113583:1 113584:1 113585:1 113586:1 113587:1 113588:1 113589:1 113590:1 114991:1 114992:1 114993:1 114994:1 114995:1 114996:1 114997:1 114998:1 114999:1 115000:1 117471:1 117472:1 117473:1 117474:1 117475:1 117476:1 117477:1 117478:1 117479:1 117480:1 135201:1 135202:1 135203:1 135204:1 135205:1 135206:1 135207:1 135208:1 135209:1 135210:1 
1 9531:1 9532:1 9533:1 9534:1 9535:1 9536:1 9537:1 9538:1 9539:1 9540:1 18471:1 18472:1 18473:1 18474:1 18475:1 18476:1 18477:1 18478:1 18479:1 18480:1 47961:1 47962:1 47963:1 47964:1 47965:1 47966:1 47967:1 47968:1 47969:1 47970:1 90191:1 90192:1 90193:1 90194:1 90195:1 90196:1 90197:1 90198:1 90199:1 90200:1 127161:1 127162:1 127163:1 127164:1 127165:1 127166:1 127167:1 127168:1 127169:1 127170:1 
1 5141:2 5142:2 5143:2 5144:2 5145:2 5146:2 5147:2 5148:2 5149:2 5150:2 9881:1 9882:1 9883:1 9884:1 9885:1 9886:1 9887:1 9888:1 9889:1 9890:1 31651:1 31652:1 31653:1 31654:1 31655:1 31656:1 31657:1 31658:1 31659:1 31660:1 81121:1 81122:1 81123:1 81124:1 81125:1 81126:1 81127:1 81128:1 81129:1 81130:1 91291:1 91292:1 91293:1 91294:1 91295:1 91296:1 91297:1 91298:1 91299:1 91300:1 114201:1 114202:1 114203:1 114204:1 114205:1 114206:1 114207:1 114208:1 114209:1 114210:1 
1 5431:1 5432:1 5433:1 5434:1 5435:1 5436:1 5437:1 5438:1 5439:1 5440:1 57231:1 57232:1 57233:1 57234:1 57235:1 57236:1 57237:1 57238:1 57239:1 57240:1 
1 28691:1 28692:1 28693:1 28694:1 28695:1 28696:1 28697:1 28698:1 28699:1 28700:1 33881:1 33882:1 33883:1 33884:1 33885:1 33886:1 33887:1 33888:1 33889:1 33890:1 123921:1 123922:1 123923:1 123924:1 123925:1 123926:1 123927:1 123928:1 123929:1 123930:1 
1 11371:1 11372:1 11373:1 11374:1 11375:1 11376:1 11377:1 11378:1 11379:1 11380:1 
1 9741:1 9742:1 9743:1 9744:1 9745:1 9746:1 9747:1 9748:1 9749:1 9750:1 49031:1 49032:1 49033:1 49034:1 49035:1 49036:1 49037:1 49038:1 49039:1 49040:1 55271:1 55272:1 55273:1 55274:1 55275:1 55276:1 55277:1 55278:1 55279:1 55280:1 60031:1 60032:1 60033:1 60034:1 60035:1 60036:1 60037:1 60038:1 60039:1 60040:1 79161:1 79162:1 79163:1 79164:1 79165:1 79166:1 79167:1 79168:1 79169:1 79170:1 120881:3 120882:3 120883:3 120884:3 120885:3 120886:3 120887:3 120888:3 120889:3 120890:3 
1 38921:1 38922:1 38923:1 38924:1 38925:1 38926:1 38927:1 38928:1 38929:1 38930:1 80911:2 80912:2 80913:2 80914:2 80915:2 80916:2 80917:2 80918:2 80919:2 80920:2 
1 114941:1 114942:1 114943:1 114944:1 114945:1 114946:1 114947:1 114948:1 114949:1 114950:1 136341:1 136342:1 136343:1 136344:1 136345:1 136346:1 136347:1 136348:1 136349:1 136350:1 
1 111381:3 111382:3 111383:3 111384:3 111385:3 111386:3 111387:3 111388:3 111389:3 111390:3 
1 48181:1 48182:1 48183:1 48184:1 48185:1 48186:1 48187:1 48188:1 48189:1 48190:1 60771:1 60772:1 60773:1 60774:1 60775:1 60776:1 60777:1 60778:1 60779:1 60780:1 69441:1 69442:1 69443:1 69444:1 69445:1 69446:1 69447:1 69448:1 69449:1 69450:1 103641:1 103642:1 103643:1 103644:1 103645:1 103646:1 103647:1 103648:1 103649:1 103650:1 128351:1 128352:1 128353:1 128354:1 128355:1 128356:1 128357:1 128358:1 128359:1 128360:1 
1 120701:1 120702:1 120703:1 120704:1 120705:1 120706:1 120707:1 120708:1 120709:1 120710:1 
1 36541:1 36542:1 36543:1 36544:1 36545:1 36546:1 36547:1 36548:1 36549:1 36550:1 60771:1 60772:1 60773:1 60774:1 60775:1 60776:1 60777:1 60778:1 60779:1 60780:1 127141:2 127142:2 127143:2 127144:2 127145:2 127146:2 127147:2 127148:2 127149:2 127150:2 127291:2 127292:2 127293:2 127294:2 127295:2 127296:2 127297:2 127298:2 127299:2 127300:2 135201:1 135202:1 135203:1 135204:1 135205:1 135206:1 135207:1 135208:1 135209:1 135210:1 140691:1 140692:1 140693:1 140694:1 140695:1 140696:1 140697:1 140698:1 140699:1 140700:1 
1 74701:1 74702:1 74703:1 74704:1 74705:1 74706:1 74707:1 74708:1 74709:1 74710:1 106471:1 106472:1 106473:1 106474:1 106475:1 106476:1 106477:1 106478:1 106479:1 106480:1 107561:2 107562:2 107563:2 107564:2 107565:2 107566:2 107567:2 107568:2 107569:2 107570:2 109461:1 109462:1 109463:1 109464:1 109465:1 109466:1 109467:1 109468:1 109469:1 109470:1 110081:1 110082:1 110083:1 110084:1 110085:1 110086:1 110087:1 110088:1 110089:1 110090:1 141391:1 141392:1 141393:1 141394:1 141395:1 141396:1 141397:1 141398:1 141399:1 141400:1 
1 18491:1 18492:1 18493:1 18494:1 18495:1 18496:1 18497:1 18498:1 18499:1 18500:1 101251:1 101252:1 101253:1 101254:1 101255:1 101256:1 101257:1 101258:1 101259:1 101260:1 113581:1 113582:1 113583:1 113584:1 113585:1 113586:1 113587:1 113588:1 113589:1 113590:1 140731:1 140732:1 140733:1 140734:1 140735:1 140736:1 140737:1 140738:1 140739:1 140740:1 
1 27621:1 27622:1 27623:1 27624:1 27625:1 27626:1 27627:1 27628:1 27629:1 27630:1 30001:1 30002:1 30003:1 30004:1 30005:1 30006:1 30007:1 30008:1 30009:1 30010:1 59111:1 59112:1 59113:1 59114:1 59115:1 59116:1 59117:1 59118:1 59119:1 59120:1 61621:1 61622:1 61623:1 61624:1 61625:1 61626:1 61627:1 61628:1 61629:1 61630:1 100291:1 100292:1 100293:1 100294:1 100295:1 100296:1 100297:1 100298:1 100299:1 100300:1 
1 11061:1 11062:1 11063:1 11064:1 11065:1 11066:1 11067:1 11068:1 11069:1 11070:1 49441:1 49442:1 49443:1 49444:1 49445:1 49446:1 49447:1 49448:1 49449:1 49450:1 
1 17151:1 17152:1 17153:1 17154:1 17155:1 17156:1 17157:1 17158:1 17159:1 17160:1 20071:1 20072:1 20073:1 20074:1 20075:1 20076:1 20077:1 20078:1 20079:1 20080:1 22641:1 22642:1 22643:1 22644:1 22645:1 22646:1 22647:1 22648:1 22649:1 22650:1 36601:1 36602:1 36603:1 36604:1 36605:1 36606:1 36607:1 36608:1 36609:1 36610:1 43391:1 43392:1 43393:1 43394:1 43395:1 43396:1 43397:1 43398:1 43399:1 43400:1 92561:1 92562:1 92563:1 92564:1 92565:1 92566:1 92567:1 92568:1 92569:1 92570:1 97141:1 97142:1 97143:1 97144:1 97145:1 97146:1 97147:1 97148:1 97149:1 97150:1 127721:1 127722:1 127723:1 127724:1 127725:1 127726:1 127727:1 127728:1 127729:1 127730:1 128891:1 128892:1 128893:1 128894:1 128895:1 128896:1 128897:1 128898:1 128899:1 128900:1 137041:1 137042:1 137043:1 137044:1 137045:1 137046:1 137047:1 137048:1 137049:1 137050:1 
1 12711:1 12712:1 12713:1 12714:1 12715:1 12716:1 12717:1 12718:1 12719:1 12720:1 29241:1 29242:1 29243:1 29244:1 29245:1 29246:1 29247:1 29248:1 29249:1 29250:1 45401:1 45402:1 45403:1 45404:1 45405:1 45406:1 45407:1 45408:1 45409:1 45410:1 48181:1 48182:1 48183:1 48184:1 48185:1 48186:1 48187:1 48188:1 48189:1 48190:1 97021:1 97022:1 97023:1 97024:1 97025:1 97026:1 97027:1 97028:1 97029:1 97030:1 
1 23551:1 23552:1 23553:1 23554:1 23555:1 23556:1 23557:1 23558:1 23559:1 23560:1 62321:1 62322:1 62323:1 62324:1 62325:1 62326:1 62327:1 62328:1 62329:1 62330:1 112621:1 112622:1 112623:1 112624:1 112625:1 112626:1 112627:1 112628:1 112629:1 112630:1 
1 17431:1 17432:1 17433:1 17434:1 17435:1 17436:1 17437:1 17438:1 17439:1 17440:1 55711:1 55712:1 55713:1 55714:1 55715:1 55716:1 55717:1 55718:1 55719:1 55720:1 58601:1 58602:1 58603:1 58604:1 58605:1 58606:1 58607:1 58608:1 58609:1 58610:1 122591:1 122592:1 122593:1 122594:1 122595:1 122596:1 122597:1 122598:1 122599:1 122600:1 126391:1 126392:1 126393:1 126394:1 126395:1 126396:1 126397:1 126398:1 126399:1 126400:1 141231:1 141232:1 141233:1 141234:1 141235:1 141236:1 141237:1 141238:1 141239:1 141240:1 
1 85981:1 85982:1 85983:1 85984:1 85985:1 85986:1 85987:1 85988:1 85989:1 85990:1 98001:1 98002:1 98003:1 98004:1 98005:1 98006:1 98007:1 98008:1 98009:1 98010:1 100291:1 100292:1 100293:1 100294:1 100295:1 100296:1 100297:1 100298:1 100299:1 100300:1 
1 9881:1 9882:1 9883:1 9884:1 9885:1 9886:1 9887:1 9888:1 9889:1 9890:1 59111:1 59112:1 59113:1 59114:1 59115:1 59116:1 59117:1 59118:1 59119:1 59120:1 127141:1 127142:1 127143:1 127144:1 127145:1 127146:1 127147:1 127148:1 127149:1 127150:1 
1 121601:1 121602:1 121603:1 121604:1 121605:1 121606:1 121607:1 121608:1 121609:1 121610:1 
1 9881:1 9882:1 9883:1 9884:1 9885:1 9886:1 9887:1 9888:1 9889:1 9890:1 31261:1 31262:1 31263:1 31264:1 31265:1 31266:1 31267:1 31268:1 31269:1 31270:1 100271:1 100272:1 100273:1 100274:1 100275:1 100276:1 100277:1 100278:1 100279:1 100280:1 101461:1 101462:1 101463:1 101464:1 101465:1 101466:1 101467:1 101468:1 101469:1 101470:1 120881:1 120882:1 120883:1 120884:1 120885:1 120886:1 120887:1 120888:1 120889:1 120890:1 141521:1 141522:1 141523:1 141524:1 141525:1 141526:1 141527:1 141528:1 141529:1 141530:1 
1 23781:1 23782:1 23783:1 23784:1 23785:1 23786:1 23787:1 23788:1 23789:1 23790:1 39001:1 39002:1 39003:1 39004:1 39005:1 39006:1 39007:1 39008:1 39009:1 39010:1 48761:1 48762:1 48763:1 48764:1 48765:1 48766:1 48767:1 48768:1 48769:1 48770:1 120691:1 120692:1 120693:1 120694:1 120695:1 120696:1 120697:1 120698:1 120699:1 120700:1 122751:1 122752:1 122753:1 122754:1 122755:1 122756:1 122757:1 122758:1 122759:1 122760:1 
1 113581:1 113582:1 113583:1 113584:1 113585:1 113586:1 113587:1 113588:1 113589:1 113590:1 121791:1 121792:1 121793:1 121794:1 121795:1 121796:1 121797:1 121798:1 121799:1 121800:1 127291:2 127292:2 127293:2 127294:2 127295:2 127296:2 127297:2 127298:2 127299:2 127300:2 138191:1 138192:1 138193:1 138194:1 138195:1 138196:1 138197:1 138198:1 138199:1 138200:1 
1 9881:1 9882:1 9883:1 9884:1 9885:1 9886:1 9887:1 9888:1 9889:1 9890:1 48171:1 48172:1 48173:1 48174:1 48175:1 48176:1 48177:1 48178:1 48179:1 48180:1 140861:1 140862:1 140863:1 140864:1 140865:1 140866:1 140867:1 140868:1 140869:1 140870:1 
1 62321:1 62322:1 62323:1 62324:1 62325:1 62326:1 62327:1 62328:1 62329:1 62330:1 71761:1 71762:1 71763:1 71764:1 71765:1 71766:1 71767:1 71768:1 71769:1 71770:1 
1 17431:1 17432:1 17433:1 17434:1 17435:1 17436:1 17437:1 17438:1 17439:1 17440:1 55711:1 55712:1 55713:1 55714:1 55715:1 55716:1 55717:1 55718:1 55719:1 55720:1 58601:1 58602:1 58603:1 58604:1 58605:1 58606:1 58607:1 58608:1 58609:1 58610:1 122591:1 122592:1 122593:1 122594:1 122595:1 122596:1 122597:1 122598:1 122599:1 122600:1 126391:1 126392:1 126393:1 126394:1 126395:1 126396:1 126397:1 126398:1 126399:1 126400:1 141231:1 141232:1 141233:1 141234:1 141235:1 141236:1 141237:1 141238:1 141239:1 141240:1 
1 8551:1 8552:1 8553:1 8554:1 8555:1 8556:1 8557:1 8558:1 8559:1 8560:1 9741:1 9742:1 9743:1 9744:1 9745:1 9746:1 9747:1 9748:1 9749:1 9750:1 52261:1 52262:1 52263:1 52264:1 52265:1 52266:1 52267:1 52268:1 52269:1 52270:1 60771:1 60772:1 60773:1 60774:1 60775:1 60776:1 60777:1 60778:1 60779:1 60780:1 127141:1 127142:1 127143:1 127144:1 127145:1 127146:1 127147:1 127148:1 127149:1 127150:1 
1 73381:1 73382:1 73383:1 73384:1 73385:1 73386:1 73387:1 73388:1 73389:1 73390:1 110981:1 110982:1 110983:1 110984:1 110985:1 110986:1 110987:1 110988:1 110989:1 110990:1 113881:1 113882:1 113883:1 113884:1 113885:1 113886:1 113887:1 113888:1 113889:1 113890:1 
1 31511:1 31512:1 31513:1 31514:1 31515:1 31516:1 31517:1 31518:1 31519:1 31520:1 124311:1 124312:1 124313:1 124314:1 124315:1 124316:1 124317:1 124318:1 124319:1 124320:1 
1 29241:1 29242:1 29243:1 29244:1 29245:1 29246:1 29247:1 29248:1 29249:1 29250:1 65311:1 65312:1 65313:1 65314:1 65315:1 65316:1 65317:1 65318:1 65319:1 65320:1 72511:1 72512:1 72513:1 72514:1 72515:1 72516:1 72517:1 72518:1 72519:1 72520:1 108221:1 108222:1 108223:1 108224:1 108225:1 108226:1 108227:1 108228:1 108229:1 108230:1 
1 15541:1 15542:1 15543:1 15544:1 15545:1 15546:1 15547:1 15548:1 15549:1 15550:1 54551:1 54552:1 54553:1 54554:1 54555:1 54556:1 54557:1 54558:1 54559:1 54560:1 
1 5191:1 5192:1 5193:1 5194:1 5195:1 5196:1 5197:1 5198:1 5199:1 5200:1 34191:1 34192:1 34193:1 34194:1 34195:1 34196:1 34197:1 34198:1 34199:1 34200:1 61621:1 61622:1 61623:1 61624:1 61625:1 61626:1 61627:1 61628:1 61629:1 61630:1 74001:1 74002:1 74003:1 74004:1 74005:1 74006:1 74007:1 74008:1 74009:1 74010:1 88801:1 88802:1 88803:1 88804:1 88805:1 88806:1 88807:1 88808:1 88809:1 88810:1 127141:1 127142:1 127143:1 127144:1 127145:1 127146:1 127147:1 127148:1 127149:1 127150:1 
1 60031:1 60032:1 60033:1 60034:1 60035:1 60036:1 60037:1 60038:1 60039:1 60040:1 100291:1 100292:1 100293:1 100294:1 100295:1 100296:1 100297:1 100298:1 100299:1 100300:1 131001:1 131002:1 131003:1 131004:1 131005:1 131006:1 131007:1 131008:1 131009:1 131010:1 
1 17431:1 17432:1 17433:1 17434:1 17435:1 17436:1 17437:1 17438:1 17439:1 17440:1 55711:1 55712:1 55713:1 55714:1 55715:1 55716:1 55717:1 55718:1 55719:1 55720:1 58601:1 58602:1 58603:1 58604:1 58605:1 58606:1 58607:1 58608:1 58609:1 58610:1 122591:1 122592:1 122593:1 122594:1 122595:1 122596:1 122597:1 122598:1 122599:1 122600:1 126391:1 126392:1 126393:1 126394:1 126395:1 126396:1 126397:1 126398:1 126399:1 126400:1 141231:1 141232:1 141233:1 141234:1 141235:1 141236:1 141237:1 141238:1 141239:1 141240:1 
1 17431:1 17432:1 17433:1 17434:1 17435:1 17436:1 17437:1 17438:1 17439:1 17440:1 55711:1 55712:1 55713:1 55714:1 55715:1 55716:1 55717:1 55718:1 55719:1 55720:1 58601:1 58602:1 58603:1 58604:1 58605:1 58606:1 58607:1 58608:1 58609:1 58610:1 122591:1 122592:1 122593:1 122594:1 122595:1 122596:1 122597:1 122598:1 122599:1 122600:1 126391:1 126392:1 126393:1 126394:1 126395:1 126396:1 126397:1 126398:1 126399:1 126400:1 141231:1 141232:1 141233:1 141234:1 141235:1 141236:1 141237:1 141238:1 141239:1 141240:1 
1 23961:1 23962:1 23963:1 23964:1 23965:1 23966:1 23967:1 23968:1 23969:1 23970:1 60031:1 60032:1 60033:1 60034:1 60035:1 60036:1 60037:1 60038:1 60039:1 60040:1 
1 12791:1 12792:1 12793:1 12794:1 12795:1 12796:1 12797:1 12798:1 12799:1 12800:1 60031:1 60032:1 60033:1 60034:1 60035:1 60036:1 60037:1 60038:1 60039:1 60040:1 74981:1 74982:1 74983:1 74984:1 74985:1 74986:1 74987:1 74988:1 74989:1 74990:1 114251:1 114252:1 114253:1 114254:1 114255:1 114256:1 114257:1 114258:1 114259:1 114260:1 
1 4011:1 4012:1 4013:1 4014:1 4015:1 4016:1 4017:1 4018:1 4019:1 4020:1 40771:1 40772:1 40773:1 40774:1 40775:1 40776:1 40777:1 40778:1 40779:1 40780:1 70561:1 70562:1 70563:1 70564:1 70565:1 70566:1 70567:1 70568:1 70569:1 70570:1 140871:1 140872:1 140873:1 140874:1 140875:1 140876:1 140877:1 140878:1 140879:1 140880:1 
1 18491:1 18492:1 18493:1 18494:1 18495:1 18496:1 18497:1 18498:1 18499:1 18500:1 76101:1 76102:1 76103:1 76104:1 76105:1 76106:1 76107:1 76108:1 76109:1 76110:1 
1 72321:1 72322:1 72323:1 72324:1 72325:1 72326:1 72327:1 72328:1 72329:1 72330:1 83961:1 83962:1 83963:1 83964:1 83965:1 83966:1 83967:1 83968:1 83969:1 83970:1 92031:2 92032:2 92033:2 92034:2 92035:2 92036:2 92037:2 92038:2 92039:2 92040:2 104301:3 104302:3 104303:3 104304:3 104305:3 104306:3 104307:3 104308:3 104309:3 104310:3 
1 14861:1 14862:1 14863:1 14864:1 14865:1 14866:1 14867:1 14868:1 14869:1 14870:1 108691:1 108692:1 108693:1 108694:1 108695:1 108696:1 108697:1 108698:1 108699:1 108700:1 
1 17431:1 17432:1 17433:1 17434:1 17435:1 17436:1 17437:1 17438:1 17439:1 17440:1 55711:1 55712:1 55713:1 55714:1 55715:1 55716:1 55717:1 55718:1 55719:1 55720:1 58601:1 58602:1 58603:1 58604:1 58605:1 58606:1 58607:1 58608:1 58609:1 58610:1 122591:1 122592:1 122593:1 122594:1 122595:1 122596:1 122597:1 122598:1 122599:1 122600:1 126391:1 126392:1 126393:1 126394:1 126395:1 126396:1 126397:1 126398:1 126399:1 126400:1 141231:1 141232:1 141233:1 141234:1 141235:1 141236:1 141237:1 141238:1 141239:1 141240:1 
1 28491:1 28492:1 28493:1 28494:1 28495:1 28496:1 28497:1 28498:1 28499:1 28500:1 39521:1 39522:1 39523:1 39524:1 39525:1 39526:1 39527:1 39528:1 39529:1 39530:1 51391:1 51392:1 51393:1 51394:1 51395:1 51396:1 51397:1 51398:1 51399:1 51400:1 80911:1 80912:1 80913:1 80914:1 80915:1 80916:1 80917:1 80918:1 80919:1 80920:1 113581:1 113582:1 113583:1 113584:1 113585:1 113586:1 113587:1 113588:1 113589:1 113590:1 120051:1 120052:1 120053:1 120054:1 120055:1 120056:1 120057:1 120058:1 120059:1 120060:1 
1 111381:3 111382:3 111383:3 111384:3 111385:3 111386:3 111387:3 111388:3 111389:3 111390:3 
1 12951:1 12952:1 12953:1 12954:1 12955:1 12956:1 12957:1 12958:1 12959:1 12960:1 38491:1 38492:1 38493:1 38494:1 38495:1 38496:1 38497:1 38498:1 38499:1 38500:1 73681:1 73682:1 73683:1 73684:1 73685:1 73686:1 73687:1 73688:1 73689:1 73690:1 121911:1 121912:1 121913:1 121914:1 121915:1 121916:1 121917:1 121918:1 121919:1 121920:1 128351:1 128352:1 128353:1 128354:1 128355:1 128356:1 128357:1 128358:1 128359:1 128360:1 
1 108671:2 108672:2 108673:2 108674:2 108675:2 108676:2 108677:2 108678:2 108679:2 108680:2 109461:1 109462:1 109463:1 109464:1 109465:1 109466:1 109467:1 109468:1 109469:1 109470:1 
1 66201:1 66202:1 66203:1 66204:1 66205:1 66206:1 66207:1 66208:1 66209:1 66210:1 72511:1 72512:1 72513:1 72514:1 72515:1 72516:1 72517:1 72518:1 72519:1 72520:1 94651:1 94652:1 94653:1 94654:1 94655:1 94656:1 94657:1 94658:1 94659:1 94660:1 97481:1 97482:1 97483:1 97484:1 97485:1 97486:1 97487:1 97488:1 97489:1 97490:1 107751:1 107752:1 107753:1 107754:1 107755:1 107756:1 107757:1 107758:1 107759:1 107760:1 
1 75601:2 75602:2 75603:2 75604:2 75605:2 75606:2 75607:2 75608:2 75609:2 75610:2 120961:1 120962:1 120963:1 120964:1 120965:1 120966:1 120967:1 120968:1 120969:1 120970:1 
1 31631:1 31632:1 31633:1 31634:1 31635:1 31636:1 31637:1 31638:1 31639:1 31640:1 85971:2 85972:2 85973:2 85974:2 85975:2 85976:2 85977:2 85978:2 85979:2 85980:2 85981:1 85982:1 85983:1 85984:1 85985:1 85986:1 85987:1 85988:1 85989:1 85990:1 127141:2 127142:2 127143:2 127144:2 127145:2 127146:2 127147:2 127148:2 127149:2 127150:2 
0.5968694375680049 4771:1 4772:1 4773:1 4774:1 4775:1 4776:1 4777:1 4778:1 4779:1 4780:1 6981:1 6982:1 6983:1 6984:1 6985:1 6986:1 6987:1 6988:1 6989:1 6990:1 18491:1 18492:1 18493:1 18494:1 18495:1 18496:1 18497:1 18498:1 18499:1 18500:1 57831:1 57832:1 57833:1 57834:1 57835:1 57836:1 57837:1 57838:1 57839:1 57840:1 60031:2 60032:2 60033:2 60034:2 60035:2 60036:2 60037:2 60038:2 60039:2 60040:2 106991:1 106992:1 106993:1 106994:1 106995:1 106996:1 106997:1 106998:1 106999:1 107000:1 130631:1 130632:1 130633:1 130634:1 130635:1 130636:1 130637:1 130638:1 130639:1 130640:1 
1 4771:1 4772:1 4773:1 4774:1 4775:1 4776:1 4777:1 4778:1 4779:1 4780:1 6981:1 6982:1 6983:1 6984:1 6985:1 6986:1 6987:1 6988:1 6989:1 6990:1 18491:1 18492:1 18493:1 18494:1 18495:1 18496:1 18497:1 18498:1 18499:1 18500:1 57831:1 57832:1 57833:1 57834:1 57835:1 57836:1 57837:1 57838:1 57839:1 57840:1 60031:2 60032:2 60033:2 60034:2 60035:2 60036:2 60037:2 60038:2 60039:2 60040:2 106991:1 106992:1 106993:1 106994:1 106995:1 106996:1 106997:1 106998:1 106999:1 107000:1 130631:1 130632:1 130633:1 130634:1 130635:1 130636:1 130637:1 130638:1 130639:1 130640:1 
1 18491:1 18492:1 18493:1 18494:1 18495:1 18496:1 18497:1 18498:1 18499:1 18500:1 114961:1 114962:1 114963:1 114964:1 114965:1 114966:1 114967:1 114968:1 114969:1 114970:1 140791:1 140792:1 140793:1 140794:1 140795:1 140796:1 140797:1 140798:1 140799:1 140800:1 
1 9881:1 9882:1 9883:1 9884:1 9885:1 9886:1 9887:1 9888:1 9889:1 9890:1 72511:1 72512:1 72513:1 72514:1 72515:1 72516:1 72517:1 72518:1 72519:1 72520:1 74971:1 74972:1 74973:1 74974:1 74975:1 74976:1 74977:1 74978:1 74979:1 74980:1 114921:1 114922:1 114923:1 114924:1 114925:1 114926:1 114927:1 114928:1 114929:1 114930:1 
1 12951:1 12952:1 12953:1 12954:1 12955:1 12956:1 12957:1 12958:1 12959:1 12960:1 36261:1 36262:1 36263:1 36264:1 36265:1 36266:1 36267:1 36268:1 36269:1 36270:1 54621:1 54622:1 54623:1 54624:1 54625:1 54626:1 54627:1 54628:1 54629:1 54630:1 60201:1 60202:1 60203:1 60204:1 60205:1 60206:1 60207:1 60208:1 60209:1 60210:1 78711:1 78712:1 78713:1 78714:1 78715:1 78716:1 78717:1 78718:1 78719:1 78720:1 113581:1 113582:1 113583:1 113584:1 113585:1 113586:1 113587:1 113588:1 113589:1 113590:1 
1 28561:1 28562:1 28563:1 28564:1 28565:1 28566:1 28567:1 28568:1 28569:1 28570:1 
1 49371:1 49372:1 49373:1 49374:1 49375:1 49376:1 49377:1 49378:1 49379:1 49380:1 
1 1151:3 1152:3 1153:3 1154:3 1155:3 1156:3 1157:3 1158:3 1159:3 1160:3 8611:1 8612:1 8613:1 8614:1 8615:1 8616:1 8617:1 8618:1 8619:1 8620:1 28691:1 28692:1 28693:1 28694:1 28695:1 28696:1 28697:1 28698:1 28699:1 28700:1 31651:1 31652:1 31653:1 31654:1 31655:1 31656:1 31657:1 31658:1 31659:1 31660:1 57001:1 57002:1 57003:1 57004:1 57005:1 57006:1 57007:1 57008:1 57009:1 57010:1 64081:1 64082:1 64083:1 64084:1 64085:1 64086:1 64087:1 64088:1 64089:1 64090:1 97481:2 97482:2 97483:2 97484:2 97485:2 97486:2 97487:2 97488:2 97489:2 97490:2 128891:1 128892:1 128893:1 128894:1 128895:1 128896:1 128897:1 128898:1 128899:1 128900:1 141451:1 141452:1 141453:1 141454:1 141455:1 141456:1 141457:1 141458:1 141459:1 141460:1 141521:1 141522:1 141523:1 141524:1 141525:1 141526:1 141527:1 141528:1 141529:1 141530:1 
1 9881:1 9882:1 9883:1 9884:1 9885:1 9886:1 9887:1 9888:1 9889:1 9890:1 34191:1 34192:1 34193:1 34194:1 34195:1 34196:1 34197:1 34198:1 34199:1 34200:1 60771:1 60772:1 60773:1 60774:1 60775:1 60776:1 60777:1 60778:1 60779:1 60780:1 69681:1 69682:1 69683:1 69684:1 69685:1 69686:1 69687:1 69688:1 69689:1 69690:1 99921:1 99922:1 99923:1 99924:1 99925:1 99926:1 99927:1 99928:1 99929:1 99930:1 127141:1 127142:1 127143:1 127144:1 127145:1 127146:1 127147:1 127148:1 127149:1 127150:1 141631:1 141632:1 141633:1 141634:1 141635:1 141636:1 141637:1 141638:1 141639:1 141640:1 
1 111381:3 111382:3 111383:3 111384:3 111385:3 111386:3 111387:3 111388:3 111389:3 111390:3 
1 12711:1 12712:1 12713:1 12714:1 12715:1 12716:1 12717:1 12718:1 12719:1 12720:1 31851:1 31852:1 31853:1 31854:1 31855:1 31856:1 31857:1 31858:1 31859:1 31860:1 59111:1 59112:1 59113:1 59114:1 59115:1 59116:1 59117:1 59118:1 59119:1 59120:1 75731:1 75732:1 75733:1 75734:1 75735:1 75736:1 75737:1 75738:1 75739:1 75740:1 141451:1 141452:1 141453:1 141454:1 141455:1 141456:1 141457:1 141458:1 141459:1 141460:1 
1 31651:1 31652:1 31653:1 31654:1 31655:1 31656:1 31657:1 31658:1 31659:1 31660:1 39811:1 39812:1 39813:1 39814:1 39815:1 39816:1 39817:1 39818:1 39819:1 39820:1 61001:1 61002:1 61003:1 61004:1 61005:1 61006:1 61007:1 61008:1 61009:1 61010:1 61351:1 61352:1 61353:1 61354:1 61355:1 61356:1 61357:1 61358:1 61359:1 61360:1 107561:1 107562:1 107563:1 107564:1 107565:1 107566:1 107567:1 107568:1 107569:1 107570:1 110811:1 110812:1 110813:1 110814:1 110815:1 110816:1 110817:1 110818:1 110819:1 110820:1 113851:1 113852:1 113853:1 113854:1 113855:1 113856:1 113857:1 113858:1 113859:1 113860:1 128351:1 128352:1 128353:1 128354:1 128355:1 128356:1 128357:1 128358:1 128359:1 128360:1 
1 73521:2 73522:2 73523:2 73524:2 73525:2 73526:2 73527:2 73528:2 73529:2 73530:2 83961:1 83962:1 83963:1 83964:1 83965:1 83966:1 83967:1 83968:1 83969:1 83970:1 115341:1 115342:1 115343:1 115344:1 115345:1 115346:1 115347:1 115348:1 115349:1 115350:1 120881:1 120882:1 120883:1 120884:1 120885:1 120886:1 120887:1 120888:1 120889:1 120890:1 
1 9531:1 9532:1 9533:1 9534:1 9535:1 9536:1 9537:1 9538:1 9539:1 9540:1 62561:1 62562:1 62563:1 62564:1 62565:1 62566:1 62567:1 62568:1 62569:1 62570:1 
1 14301:8 14302:8 14303:8 14304:8 14305:8 14306:8 14307:8 14308:8 14309:8 14310:8 21621:1 21622:1 21623:1 21624:1 21625:1 21626:1 21627:1 21628:1 21629:1 21630:1 28391:1 28392:1 28393:1 28394:1 28395:1 28396:1 28397:1 28398:1 28399:1 28400:1 31651:1 31652:1 31653:1 31654:1 31655:1 31656:1 31657:1 31658:1 31659:1 31660:1 42731:1 42732:1 42733:1 42734:1 42735:1 42736:1 42737:1 42738:1 42739:1 42740:1 121341:14 121342:14 121343:14 121344:14 121345:14 121346:14 121347:14 121348:14 121349:14 121350:14 128611:1 128612:1 128613:1 128614:1 128615:1 128616:1 128617:1 128618:1 128619:1 128620:1 
1 17431:1 17432:1 17433:1 17434:1 17435:1 17436:1 17437:1 17438:1 17439:1 17440:1 58621:1 58622:1 58623:1 58624:1 58625:1 58626:1 58627:1 58628:1 58629:1 58630:1 105411:1 105412:1 105413:1 105414:1 105415:1 105416:1 105417:1 105418:1 105419:1 105420:1 141231:1 141232:1 141233:1 141234:1 141235:1 141236:1 141237:1 141238:1 141239:1 141240:1 
1 5191:3 5192:3 5193:3 5194:3 5195:3 5196:3 5197:3 5198:3 5199:3 5200:3 56161:1 56162:1 56163:1 56164:1 56165:1 56166:1 56167:1 56168:1 56169:1 56170:1 61221:1 61222:1 61223:1 61224:1 61225:1 61226:1 61227:1 61228:1 61229:1 61230:1 116131:1 116132:1 116133:1 116134:1 116135:1 116136:1 116137:1 116138:1 116139:1 116140:1 131341:1 131342:1 131343:1 131344:1 131345:1 131346:1 131347:1 131348:1 131349:1 131350:1 
1 2081:1 2082:1 2083:1 2084:1 2085:1 2086:1 2087:1 2088:1 2089:1 2090:1 58261:2 58262:2 58263:2 58264:2 58265:2 58266:2 58267:2 58268:2 58269:2 58270:2 95431:1 95432:1 95433:1 95434:1 95435:1 95436:1 95437:1 95438:1 95439:1 95440:1 127161:2 127162:2 127163:2 127164:2 127165:2 127166:2 127167:2 127168:2 127169:2 127170:2 
1 48781:2 48782:2 48783:2 48784:2 48785:2 48786:2 48787:2 48788:2 48789:2 48790:2 
1 9881:1 9882:1 9883:1 9884:1 9885:1 9886:1 9887:1 9888:1 9889:1 9890:1 57001:1 57002:1 57003:1 57004:1 57005:1 57006:1 57007:1 57008:1 57009:1 57010:1 70521:1 70522:1 70523:1 70524:1 70525:1 70526:1 70527:1 70528:1 70529:1 70530:1 73381:1 73382:1 73383:1 73384:1 73385:1 73386:1 73387:1 73388:1 73389:1 73390:1 
1 3431:1 3432:1 3433:1 3434:1 3435:1 3436:1 3437:1 3438:1 3439:1 3440:1 9881:1 9882:1 9883:1 9884:1 9885:1 9886:1 9887:1 9888:1 9889:1 9890:1 46101:1 46102:1 46103:1 46104:1 46105:1 46106:1 46107:1 46108:1 46109:1 46110:1 60801:1 60802:1 60803:1 60804:1 60805:1 60806:1 60807:1 60808:1 60809:1 60810:1 
1 17431:1 17432:1 17433:1 17434:1 17435:1 17436:1 17437:1 17438:1 17439:1 17440:1 55711:1 55712:1 55713:1 55714:1 55715:1 55716:1 55717:1 55718:1 55719:1 55720:1 58601:1 58602:1 58603:1 58604:1 58605:1 58606:1 58607:1 58608:1 58609:1 58610:1 122591:1 122592:1 122593:1 122594:1 122595:1 122596:1 122597:1 122598:1 122599:1 122600:1 126391:1 126392:1 126393:1 126394:1 126395:1 126396:1 126397:1 126398:1 126399:1 126400:1 141231:1 141232:1 141233:1 141234:1 141235:1 141236:1 141237:1 141238:1 141239:1 141240:1 
1 17431:1 17432:1 17433:1 17434:1 17435:1 17436:1 17437:1 17438:1 17439:1 17440:1 58621:1 58622:1 58623:1 58624:1 58625:1 58626:1 58627:1 58628:1 58629:1 58630:1 105411:1 105412:1 105413:1 105414:1 105415:1 105416:1 105417:1 105418:1 105419:1 105420:1 141231:1 141232:1 141233:1 141234:1 141235:1 141236:1 141237:1 141238:1 141239:1 141240:1 
1 17431:1 17432:1 17433:1 17434:1 17435:1 17436:1 17437:1 17438:1 17439:1 17440:1 58621:1 58622:1 58623:1 58624:1 58625:1 58626:1 58627:1 58628:1 58629:1 58630:1 105411:1 105412:1 105413:1 105414:1 105415:1 105416:1 105417:1 105418:1 105419:1 105420:1 141231:1 141232:1 141233:1 141234:1 141235:1 141236:1 141237:1 141238:1 141239:1 141240:1 
1 17431:1 17432:1 17433:1 17434:1 17435:1 17436:1 17437:1 17438:1 17439:1 17440:1 58621:1 58622:1 58623:1 58624:1 58625:1 58626:1 58627:1 58628:1 58629:1 58630:1 105411:1 105412:1 105413:1 105414:1 105415:1 105416:1 105417:1 105418:1 105419:1 105420:1 141231:1 141232:1 141233:1 141234:1 141235:1 141236:1 141237:1 141238:1 141239:1 141240:1 
1 104501:1 104502:1 104503:1 104504:1 104505:1 104506:1 104507:1 104508:1 104509:1 104510:1 
1 83961:1 83962:1 83963:1 83964:1 83965:1 83966:1 83967:1 83968:1 83969:1 83970:1 
1 23781:1 23782:1 23783:1 23784:1 23785:1 23786:1 23787:1 23788:1 23789:1 23790:1 39001:1 39002:1 39003:1 39004:1 39005:1 39006:1 39007:1 39008:1 39009:1 39010:1 48761:1 48762:1 48763:1 48764:1 48765:1 48766:1 48767:1 48768:1 48769:1 48770:1 120691:1 120692:1 120693:1 120694:1 120695:1 120696:1 120697:1 120698:1 120699:1 120700:1 122751:1 122752:1 122753:1 122754:1 122755:1 122756:1 122757:1 122758:1 122759:1 122760:1 
1 80911:1 80912:1 80913:1 80914:1 80915:1 80916:1 80917:1 80918:1 80919:1 80920:1 118241:1 118242:1 118243:1 118244:1 118245:1 118246:1 118247:1 118248:1 118249:1 118250:1 
1 
1 5541:1 5542:1 5543:1 5544:1 5545:1 5546:1 5547:1 5548:1 5549:1 5550:1 7971:1 7972:1 7973:1 7974:1 7975:1 7976:1 7977:1 7978:1 7979:1 7980:1 8891:1 8892:1 8893:1 8894:1 8895:1 8896:1 8897:1 8898:1 8899:1 8900:1 15531:1 15532:1 15533:1 15534:1 15535:1 15536:1 15537:1 15538:1 15539:1 15540:1 49081:1 49082:1 49083:1 49084:1 49085:1 49086:1 49087:1 49088:1 49089:1 49090:1 52641:1 52642:1 52643:1 52644:1 52645:1 52646:1 52647:1 52648:1 52649:1 52650:1 69681:1 69682:1 69683:1 69684:1 69685:1 69686:1 69687:1 69688:1 69689:1 69690:1 75731:1 75732:1 75733:1 75734:1 75735:1 75736:1 75737:1 75738:1 75739:1 75740:1 92561:1 92562:1 92563:1 92564:1 92565:1 92566:1 92567:1 92568:1 92569:1 92570:1 113581:1 113582:1 113583:1 113584:1 113585:1 113586:1 113587:1 113588:1 113589:1 113590:1 120691:1 120692:1 120693:1 120694:1 120695:1 120696:1 120697:1 120698:1 120699:1 120700:1 120701:1 120702:1 120703:1 120704:1 120705:1 120706:1 120707:1 120708:1 120709:1 120710:1 128651:1 128652:1 128653:1 128654:1 128655:1 128656:1 128657:1 128658:1 128659:1 128660:1 
1 11081:1 11082:1 11083:1 11084:1 11085:1 11086:1 11087:1 11088:1 11089:1 11090:1 105401:1 105402:1 105403:1 105404:1 105405:1 105406:1 105407:1 105408:1 105409:1 105410:1 141521:1 141522:1 141523:1 141524:1 141525:1 141526:1 141527:1 141528:1 141529:1 141530:1 
1 28951:1 28952:1 28953:1 28954:1 28955:1 28956:1 28957:1 28958:1 28959:1 28960:1 33241:1 33242:1 33243:1 33244:1 33245:1 33246:1 33247:1 33248:1 33249:1 33250:1 39001:1 39002:1 39003:1 39004:1 39005:1 39006:1 39007:1 39008:1 39009:1 39010:1 57121:2 57122:2 57123:2 57124:2 57125:2 57126:2 57127:2 57128:2 57129:2 57130:2 66641:1 66642:1 66643:1 66644:1 66645:1 66646:1 66647:1 66648:1 66649:1 66650:1 80911:1 80912:1 80913:1 80914:1 80915:1 80916:1 80917:1 80918:1 80919:1 80920:1 83961:1 83962:1 83963:1 83964:1 83965:1 83966:1 83967:1 83968:1 83969:1 83970:1 108041:1 108042:1 108043:1 108044:1 108045:1 108046:1 108047:1 108048:1 108049:1 108050:1 121501:1 121502:1 121503:1 121504:1 121505:1 121506:1 121507:1 121508:1 121509:1 121510:1 
1 
1 7061:1 7062:1 7063:1 7064:1 7065:1 7066:1 7067:1 7068:1 7069:1 7070:1 35401:1 35402:1 35403:1 35404:1 35405:1 35406:1 35407:1 35408:1 35409:1 35410:1 42791:1 42792:1 42793:1 42794:1 42795:1 42796:1 42797:1 42798:1 42799:1 42800:1 60771:1 60772:1 60773:1 60774:1 60775:1 60776:1 60777:1 60778:1 60779:1 60780:1 83961:1 83962:1 83963:1 83964:1 83965:1 83966:1 83967:1 83968:1 83969:1 83970:1 141451:1 141452:1 141453:1 141454:1 141455:1 141456:1 141457:1 141458:1 141459:1 141460:1 
1 19661:2 19662:2 19663:2 19664:2 19665:2 19666:2 19667:2 19668:2 19669:2 19670:2 74961:1 74962:1 74963:1 74964:1 74965:1 74966:1 74967:1 74968:1 74969:1 74970:1 74971:1 74972:1 74973:1 74974:1 74975:1 74976:1 74977:1 74978:1 74979:1 74980:1 125701:1 125702:1 125703:1 125704:1 125705:1 125706:1 125707:1 125708:1 125709:1 125710:1 139201:1 139202:1 139203:1 139204:1 139205:1 139206:1 139207:1 139208:1 139209:1 139210:1 141521:1 141522:1 141523:1 141524:1 141525:1 141526:1 141527:1 141528:1 141529:1 141530:1 
1 15531:1 15532:1 15533:1 15534:1 15535:1 15536:1 15537:1 15538:1 15539:1 15540:1 28691:1 28692:1 28693:1 28694:1 28695:1 28696:1 28697:1 28698:1 28699:1 28700:1 48761:1 48762:1 48763:1 48764:1 48765:1 48766:1 48767:1 48768:1 48769:1 48770:1 57001:1 57002:1 57003:1 57004:1 57005:1 57006:1 57007:1 57008:1 57009:1 57010:1 81341:1 81342:1 81343:1 81344:1 81345:1 81346:1 81347:1 81348:1 81349:1 81350:1 94661:1 94662:1 94663:1 94664:1 94665:1 94666:1 94667:1 94668:1 94669:1 94670:1 106081:1 106082:1 106083:1 106084:1 106085:1 106086:1 106087:1 106088:1 106089:1 106090:1 128351:1 128352:1 128353:1 128354:1 128355:1 128356:1 128357:1 128358:1 128359:1 128360:1 137281:1 137282:1 137283:1 137284:1 137285:1 137286:1 137287:1 137288:1 137289:1 137290:1 
1 11821:1 11822:1 11823:1 11824:1 11825:1 11826:1 11827:1 11828:1 11829:1 11830:1 12371:1 12372:1 12373:1 12374:1 12375:1 12376:1 12377:1 12378:1 12379:1 12380:1 48761:1 48762:1 48763:1 48764:1 48765:1 48766:1 48767:1 48768:1 48769:1 48770:1 52801:1 52802:1 52803:1 52804:1 52805:1 52806:1 52807:1 52808:1 52809:1 52810:1 55271:1 55272:1 55273:1 55274:1 55275:1 55276:1 55277:1 55278:1 55279:1 55280:1 57871:1 57872:1 57873:1 57874:1 57875:1 57876:1 57877:1 57878:1 57879:1 57880:1 74971:2 74972:2 74973:2 74974:2 74975:2 74976:2 74977:2 74978:2 74979:2 74980:2 83961:1 83962:1 83963:1 83964:1 83965:1 83966:1 83967:1 83968:1 83969:1 83970:1 125701:1 125702:1 125703:1 125704:1 125705:1 125706:1 125707:1 125708:1 125709:1 125710:1 
1 7031:1 7032:1 7033:1 7034:1 7035:1 7036:1 7037:1 7038:1 7039:1 7040:1 34161:1 34162:1 34163:1 34164:1 34165:1 34166:1 34167:1 34168:1 34169:1 34170:1 46951:1 46952:1 46953:1 46954:1 46955:1 46956:1 46957:1 46958:1 46959:1 46960:1 52261:1 52262:1 52263:1 52264:1 52265:1 52266:1 52267:1 52268:1 52269:1 52270:1 61621:1 61622:1 61623:1 61624:1 61625:1 61626:1 61627:1 61628:1 61629:1 61630:1 69871:1 69872:1 69873:1 69874:1 69875:1 69876:1 69877:1 69878:1 69879:1 69880:1 94501:1 94502:1 94503:1 94504:1 94505:1 94506:1 94507:1 94508:1 94509:1 94510:1 
0.8523726869438805 41441:1 41442:1 41443:1 41444:1 41445:1 41446:1 41447:1 41448:1 41449:1 41450:1 50991:1 50992:1 50993:1 50994:1 50995:1 50996:1 50997:1 50998:1 50999:1 51000:1 61621:3 61622:3 61623:3 61624:3 61625:3 61626:3 61627:3 61628:3 61629:3 61630:3 81341:1 81342:1 81343:1 81344:1 81345:1 81346:1 81347:1 81348:1 81349:1 81350:1 92851:1 92852:1 92853:1 92854:1 92855:1 92856:1 92857:1 92858:1 92859:1 92860:1 125851:1 125852:1 125853:1 125854:1 125855:1 125856:1 125857:1 125858:1 125859:1 125860:1 127141:1 127142:1 127143:1 127144:1 127145:1 127146:1 127147:1 127148:1 127149:1 127150:1 
1 21:1 22:1 23:1 24:1 25:1 26:1 27:1 28:1 29:1 30:1 11331:2 11332:2 11333:2 11334:2 11335:2 11336:2 11337:2 11338:2 11339:2 11340:2 58261:1 58262:1 58263:1 58264:1 58265:1 58266:1 58267:1 58268:1 58269:1 58270:1 127331:1 127332:1 127333:1 127334:1 127335:1 127336:1 127337:1 127338:1 127339:1 127340:1 
1 94561:1 94562:1 94563:1 94564:1 94565:1 94566:1 94567:1 94568:1 94569:1 94570:1 97481:1 97482:1 97483:1 97484:1 97485:1 97486:1 97487:1 97488:1 97489:1 97490:1 120051:1 120052:1 120053:1 120054:1 120055:1 120056:1 120057:1 120058:1 120059:1 120060:1 
1 15541:1 15542:1 15543:1 15544:1 15545:1 15546:1 15547:1 15548:1 15549:1 15550:1 16561:1 16562:1 16563:1 16564:1 16565:1 16566:1 16567:1 16568:1 16569:1 16570:1 33571:1 33572:1 33573:1 33574:1 33575:1 33576:1 33577:1 33578:1 33579:1 33580:1 56141:1 56142:1 56143:1 56144:1 56145:1 56146:1 56147:1 56148:1 56149:1 56150:1 76331:1 76332:1 76333:1 76334:1 76335:1 76336:1 76337:1 76338:1 76339:1 76340:1 90351:1 90352:1 90353:1 90354:1 90355:1 90356:1 90357:1 90358:1 90359:1 90360:1 107821:1 107822:1 107823:1 107824:1 107825:1 107826:1 107827:1 107828:1 107829:1 107830:1 119411:1 119412:1 119413:1 119414:1 119415:1 119416:1 119417:1 119418:1 119419:1 119420:1 128761:1 128762:1 128763:1 128764:1 128765:1 128766:1 128767:1 128768:1 128769:1 128770:1 
1 11061:1 11062:1 11063:1 11064:1 11065:1 11066:1 11067:1 11068:1 11069:1 11070:1 31851:1 31852:1 31853:1 31854:1 31855:1 31856:1 31857:1 31858:1 31859:1 31860:1 39521:1 39522:1 39523:1 39524:1 39525:1 39526:1 39527:1 39528:1 39529:1 39530:1 60971:1 60972:1 60973:1 60974:1 60975:1 60976:1 60977:1 60978:1 60979:1 60980:1 79201:1 79202:1 79203:1 79204:1 79205:1 79206:1 79207:1 79208:1 79209:1 79210:1 110491:1 110492:1 110493:1 110494:1 110495:1 110496:1 110497:1 110498:1 110499:1 110500:1 113851:1 113852:1 113853:1 113854:1 113855:1 113856:1 113857:1 113858:1 113859:1 113860:1 120201:1 120202:1 120203:1 120204:1 120205:1 120206:1 120207:1 120208:1 120209:1 120210:1 
1 31741:2 31742:2 31743:2 31744:2 31745:2 31746:2 31747:2 31748:2 31749:2 31750:2 58691:1 58692:1 58693:1 58694:1 58695:1 58696:1 58697:1 58698:1 58699:1 58700:1 61591:1 61592:1 61593:1 61594:1 61595:1 61596:1 61597:1 61598:1 61599:1 61600:1 77271:1 77272:1 77273:1 77274:1 77275:1 77276:1 77277:1 77278:1 77279:1 77280:1 121241:1 121242:1 121243:1 121244:1 121245:1 121246:1 121247:1 121248:1 121249:1 121250:1 121351:1 121352:1 121353:1 121354:1 121355:1 121356:1 121357:1 121358:1 121359:1 121360:1 139011:1 139012:1 139013:1 139014:1 139015:1 139016:1 139017:1 139018:1 139019:1 139020:1 
1 
0.8028312361722132 17151:1 17152:1 17153:1 17154:1 17155:1 17156:1 17157:1 17158:1 17159:1 17160:1 73681:1 73682:1 73683:1 73684:1 73685:1 73686:1 73687:1 73688:1 73689:1 73690:1 98361:1 98362:1 98363:1 98364:1 98365:1 98366:1 98367:1 98368:1 98369:1 98370:1 108671:47 108672:47 108673:47 108674:47 108675:47 108676:47 108677:47 108678:47 108679:47 108680:47 127721:48 127722:48 127723:48 127724:48 127725:48 127726:48 127727:48 127728:48 127729:48 127730:48 128521:1 128522:1 128523:1 128524:1 128525:1 128526:1 128527:1 128528:1 128529:1 128530:1 141391:1 141392:1 141393:1 141394:1 141395:1 141396:1 141397:1 141398:1 141399:1 141400:1 
1 48761:1 48762:1 48763:1 48764:1 48765:1 48766:1 48767:1 48768:1 48769:1 48770:1 66221:1 66222:1 66223:1 66224:1 66225:1 66226:1 66227:1 66228:1 66229:1 66230:1 73381:1 73382:1 73383:1 73384:1 73385:1 73386:1 73387:1 73388:1 73389:1 73390:1 94651:1 94652:1 94653:1 94654:1 94655:1 94656:1 94657:1 94658:1 94659:1 94660:1 110621:1 110622:1 110623:1 110624:1 110625:1 110626:1 110627:1 110628:1 110629:1 110630:1 121591:1 121592:1 121593:1 121594:1 121595:1 121596:1 121597:1 121598:1 121599:1 121600:1 127391:1 127392:1 127393:1 127394:1 127395:1 127396:1 127397:1 127398:1 127399:1 127400:1 
1 55271:1 55272:1 55273:1 55274:1 55275:1 55276:1 55277:1 55278:1 55279:1 55280:1 61621:2 61622:2 61623:2 61624:2 61625:2 61626:2 61627:2 61628:2 61629:2 61630:2 97181:1 97182:1 97183:1 97184:1 97185:1 97186:1 97187:1 97188:1 97189:1 97190:1 113671:1 113672:1 113673:1 113674:1 113675:1 113676:1 113677:1 113678:1 113679:1 113680:1 113851:1 113852:1 113853:1 113854:1 113855:1 113856:1 113857:1 113858:1 113859:1 113860:1 127291:1 127292:1 127293:1 127294:1 127295:1 127296:1 127297:1 127298:1 127299:1 127300:1 127971:1 127972:1 127973:1 127974:1 127975:1 127976:1 127977:1 127978:1 127979:1 127980:1 140691:1 140692:1 140693:1 140694:1 140695:1 140696:1 140697:1 140698:1 140699:1 140700:1 
1 15651:1 15652:1 15653:1 15654:1 15655:1 15656:1 15657:1 15658:1 15659:1 15660:1 58691:1 58692:1 58693:1 58694:1 58695:1 58696:1 58697:1 58698:1 58699:1 58700:1 61641:1 61642:1 61643:1 61644:1 61645:1 61646:1 61647:1 61648:1 61649:1 61650:1 74971:1 74972:1 74973:1 74974:1 74975:1 74976:1 74977:1 74978:1 74979:1 74980:1 83961:1 83962:1 83963:1 83964:1 83965:1 83966:1 83967:1 83968:1 83969:1 83970:1 90061:1 90062:1 90063:1 90064:1 90065:1 90066:1 90067:1 90068:1 90069:1 90070:1 141451:1 141452:1 141453:1 141454:1 141455:1 141456:1 141457:1 141458:1 141459:1 141460:1 
1 9741:1 9742:1 9743:1 9744:1 9745:1 9746:1 9747:1 9748:1 9749:1 9750:1 12951:1 12952:1 12953:1 12954:1 12955:1 12956:1 12957:1 12958:1 12959:1 12960:1 24341:1 24342:1 24343:1 24344:1 24345:1 24346:1 24347:1 24348:1 24349:1 24350:1 48181:1 48182:1 48183:1 48184:1 48185:1 48186:1 48187:1 48188:1 48189:1 48190:1 48231:1 48232:1 48233:1 48234:1 48235:1 48236:1 48237:1 48238:1 48239:1 48240:1 66531:1 66532:1 66533:1 66534:1 66535:1 66536:1 66537:1 66538:1 66539:1 66540:1 112971:1 112972:1 112973:1 112974:1 112975:1 112976:1 112977:1 112978:1 112979:1 112980:1 119701:1 119702:1 119703:1 119704:1 119705:1 119706:1 119707:1 119708:1 119709:1 119710:1 120221:1 120222:1 120223:1 120224:1 120225:1 120226:1 120227:1 120228:1 120229:1 120230:1 
1 17151:1 17152:1 17153:1 17154:1 17155:1 17156:1 17157:1 17158:1 17159:1 17160:1 61621:2 61622:2 61623:2 61624:2 61625:2 61626:2 61627:2 61628:2 61629:2 61630:2 75131:1 75132:1 75133:1 75134:1 75135:1 75136:1 75137:1 75138:1 75139:1 75140:1 116071:1 116072:1 116073:1 116074:1 116075:1 116076:1 116077:1 116078:1 116079:1 116080:1 120791:1 120792:1 120793:1 120794:1 120795:1 120796:1 120797:1 120798:1 120799:1 120800:1 
1 9531:1 9532:1 9533:1 9534:1 9535:1 9536:1 9537:1 9538:1 9539:1 9540:1 51731:1 51732:1 51733:1 51734:1 51735:1 51736:1 51737:1 51738:1 51739:1 51740:1 73331:1 73332:1 73333:1 73334:1 73335:1 73336:1 73337:1 73338:1 73339:1 73340:1 75601:1 75602:1 75603:1 75604:1 75605:1 75606:1 75607:1 75608:1 75609:1 75610:1 92851:1 92852:1 92853:1 92854:1 92855:1 92856:1 92857:1 92858:1 92859:1 92860:1 97021:1 97022:1 97023:1 97024:1 97025:1 97026:1 97027:1 97028:1 97029:1 97030:1 121631:1 121632:1 121633:1 121634:1 121635:1 121636:1 121637:1 121638:1 121639:1 121640:1 
1 9881:1 9882:1 9883:1 9884:1 9885:1 9886:1 9887:1 9888:1 9889:1 9890:1 36331:1 36332:1 36333:1 36334:1 36335:1 36336:1 36337:1 36338:1 36339:1 36340:1 61641:1 61642:1 61643:1 61644:1 61645:1 61646:1 61647:1 61648:1 61649:1 61650:1 66201:1 66202:1 66203:1 66204:1 66205:1 66206:1 66207:1 66208:1 66209:1 66210:1 83271:1 83272:1 83273:1 83274:1 83275:1 83276:1 83277:1 83278:1 83279:1 83280:1 115581:1 115582:1 115583:1 115584:1 115585:1 115586:1 115587:1 115588:1 115589:1 115590:1 128881:1 128882:1 128883:1 128884:1 128885:1 128886:1 128887:1 128888:1 128889:1 128890:1 
1 10351:1 10352:1 10353:1 10354:1 10355:1 10356:1 10357:1 10358:1 10359:1 10360:1 19921:1 19922:1 19923:1 19924:1 19925:1 19926:1 19927:1 19928:1 19929:1 19930:1 48181:1 48182:1 48183:1 48184:1 48185:1 48186:1 48187:1 48188:1 48189:1 48190:1 66711:1 66712:1 66713:1 66714:1 66715:1 66716:1 66717:1 66718:1 66719:1 66720:1 67131:1 67132:1 67133:1 67134:1 67135:1 67136:1 67137:1 67138:1 67139:1 67140:1 80911:1 80912:1 80913:1 80914:1 80915:1 80916:1 80917:1 80918:1 80919:1 80920:1 111881:1 111882:1 111883:1 111884:1 111885:1 111886:1 111887:1 111888:1 111889:1 111890:1 133341:1 133342:1 133343:1 133344:1 133345:1 133346:1 133347:1 133348:1 133349:1 133350:1 
1 21:1 22:1 23:1 24:1 25:1 26:1 27:1 28:1 29:1 30:1 9531:1 9532:1 9533:1 9534:1 9535:1 9536:1 9537:1 9538:1 9539:1 9540:1 61621:1 61622:1 61623:1 61624:1 61625:1 61626:1 61627:1 61628:1 61629:1 61630:1 73381:1 73382:1 73383:1 73384:1 73385:1 73386:1 73387:1 73388:1 73389:1 73390:1 77381:1 77382:1 77383:1 77384:1 77385:1 77386:1 77387:1 77388:1 77389:1 77390:1 79541:1 79542:1 79543:1 79544:1 79545:1 79546:1 79547:1 79548:1 79549:1 79550:1 
1 8601:1 8602:1 8603:1 8604:1 8605:1 8606:1 8607:1 8608:1 8609:1 8610:1 18051:1 18052:1 18053:1 18054:1 18055:1 18056:1 18057:1 18058:1 18059:1 18060:1 29401:1 29402:1 29403:1 29404:1 29405:1 29406:1 29407:1 29408:1 29409:1 29410:1 34581:1 34582:1 34583:1 34584:1 34585:1 34586:1 34587:1 34588:1 34589:1 34590:1 57001:1 57002:1 57003:1 57004:1 57005:1 57006:1 57007:1 57008:1 57009:1 57010:1 79441:1 79442:1 79443:1 79444:1 79445:1 79446:1 79447:1 79448:1 79449:1 79450:1 120701:1 120702:1 120703:1 120704:1 120705:1 120706:1 120707:1 120708:1 120709:1 120710:1 
1 2441:1 2442:1 2443:1 2444:1 2445:1 2446:1 2447:1 2448:1 2449:1 2450:1 54551:1 54552:1 54553:1 54554:1 54555:1 54556:1 54557:1 54558:1 54559:1 54560:1 75731:2 75732:2 75733:2 75734:2 75735:2 75736:2 75737:2 75738:2 75739:2 75740:2 76331:1 76332:1 76333:1 76334:1 76335:1 76336:1 76337:1 76338:1 76339:1 76340:1 90691:1 90692:1 90693:1 90694:1 90695:1 90696:1 90697:1 90698:1 90699:1 90700:1 
1 29241:1 29242:1 29243:1 29244:1 29245:1 29246:1 29247:1 29248:1 29249:1 29250:1 48761:1 48762:1 48763:1 48764:1 48765:1 48766:1 48767:1 48768:1 48769:1 48770:1 59111:1 59112:1 59113:1 59114:1 59115:1 59116:1 59117:1 59118:1 59119:1 59120:1 80131:1 80132:1 80133:1 80134:1 80135:1 80136:1 80137:1 80138:1 80139:1 80140:1 83611:1 83612:1 83613:1 83614:1 83615:1 83616:1 83617:1 83618:1 83619:1 83620:1 139141:2 139142:2 139143:2 139144:2 139145:2 139146:2 139147:2 139148:2 139149:2 139150:2 141471:1 141472:1 141473:1 141474:1 141475:1 141476:1 141477:1 141478:1 141479:1 141480:1 
1 74941:1 74942:1 74943:1 74944:1 74945:1 74946:1 74947:1 74948:1 74949:1 74950:1 74971:1 74972:1 74973:1 74974:1 74975:1 74976:1 74977:1 74978:1 74979:1 74980:1 95671:1 95672:1 95673:1 95674:1 95675:1 95676:1 95677:1 95678:1 95679:1 95680:1 110241:1 110242:1 110243:1 110244:1 110245:1 110246:1 110247:1 110248:1 110249:1 110250:1 139141:2 139142:2 139143:2 139144:2 139145:2 139146:2 139147:2 139148:2 139149:2 139150:2 139201:1 139202:1 139203:1 139204:1 139205:1 139206:1 139207:1 139208:1 139209:1 139210:1 140661:1 140662:1 140663:1 140664:1 140665:1 140666:1 140667:1 140668:1 140669:1 140670:1 
1 7771:1 7772:1 7773:1 7774:1 7775:1 7776:1 7777:1 7778:1 7779:1 7780:1 50931:1 50932:1 50933:1 50934:1 50935:1 50936:1 50937:1 50938:1 50939:1 50940:1 79951:1 79952:1 79953:1 79954:1 79955:1 79956:1 79957:1 79958:1 79959:1 79960:1 120041:1 120042:1 120043:1 120044:1 120045:1 120046:1 120047:1 120048:1 120049:1 120050:1 121501:1 121502:1 121503:1 121504:1 121505:1 121506:1 121507:1 121508:1 121509:1 121510:1 140661:1 140662:1 140663:1 140664:1 140665:1 140666:1 140667:1 140668:1 140669:1 140670:1 
1 751:1 752:1 753:1 754:1 755:1 756:1 757:1 758:1 759:1 760:1 61621:1 61622:1 61623:1 61624:1 61625:1 61626:1 61627:1 61628:1 61629:1 61630:1 74701:2 74702:2 74703:2 74704:2 74705:2 74706:2 74707:2 74708:2 74709:2 74710:2 75731:1 75732:1 75733:1 75734:1 75735:1 75736:1 75737:1 75738:1 75739:1 75740:1 100291:1 100292:1 100293:1 100294:1 100295:1 100296:1 100297:1 100298:1 100299:1 100300:1 127971:1 127972:1 127973:1 127974:1 127975:1 127976:1 127977:1 127978:1 127979:1 127980:1 135201:1 135202:1 135203:1 135204:1 135205:1 135206:1 135207:1 135208:1 135209:1 135210:1 
1 23511:1 23512:1 23513:1 23514:1 23515:1 23516:1 23517:1 23518:1 23519:1 23520:1 31851:1 31852:1 31853:1 31854:1 31855:1 31856:1 31857:1 31858:1 31859:1 31860:1 73381:1 73382:1 73383:1 73384:1 73385:1 73386:1 73387:1 73388:1 73389:1 73390:1 110411:1 110412:1 110413:1 110414:1 110415:1 110416:1 110417:1 110418:1 110419:1 110420:1 
1 8601:1 8602:1 8603:1 8604:1 8605:1 8606:1 8607:1 8608:1 8609:1 8610:1 22421:1 22422:1 22423:1 22424:1 22425:1 22426:1 22427:1 22428:1 22429:1 22430:1 31741:1 31742:1 31743:1 31744:1 31745:1 31746:1 31747:1 31748:1 31749:1 31750:1 114941:1 114942:1 114943:1 114944:1 114945:1 114946:1 114947:1 114948:1 114949:1 114950:1 129011:1 129012:1 129013:1 129014:1 129015:1 129016:1 129017:1 129018:1 129019:1 129020:1 
1 5141:1 5142:1 5143:1 5144:1 5145:1 5146:1 5147:1 5148:1 5149:1 5150:1 13471:1 13472:1 13473:1 13474:1 13475:1 13476:1 13477:1 13478:1 13479:1 13480:1 14721:1 14722:1 14723:1 14724:1 14725:1 14726:1 14727:1 14728:1 14729:1 14730:1 57231:1 57232:1 57233:1 57234:1 57235:1 57236:1 57237:1 57238:1 57239:1 57240:1 62651:1 62652:1 62653:1 62654:1 62655:1 62656:1 62657:1 62658:1 62659:1 62660:1 66531:1 66532:1 66533:1 66534:1 66535:1 66536:1 66537:1 66538:1 66539:1 66540:1 110991:1 110992:1 110993:1 110994:1 110995:1 110996:1 110997:1 110998:1 110999:1 111000:1 111881:1 111882:1 111883:1 111884:1 111885:1 111886:1 111887:1 111888:1 111889:1 111890:1 
1 39521:1 39522:1 39523:1 39524:1 39525:1 39526:1 39527:1 39528:1 39529:1 39530:1 47411:1 47412:1 47413:1 47414:1 47415:1 47416:1 47417:1 47418:1 47419:1 47420:1 48181:3 48182:3 48183:3 48184:3 48185:3 48186:3 48187:3 48188:3 48189:3 48190:3 48811:1 48812:1 48813:1 48814:1 48815:1 48816:1 48817:1 48818:1 48819:1 48820:1 83961:1 83962:1 83963:1 83964:1 83965:1 83966:1 83967:1 83968:1 83969:1 83970:1 95741:1 95742:1 95743:1 95744:1 95745:1 95746:1 95747:1 95748:1 95749:1 95750:1 
1 53351:1 53352:1 53353:1 53354:1 53355:1 53356:1 53357:1 53358:1 53359:1 53360:1 
1 11311:1 11312:1 11313:1 11314:1 11315:1 11316:1 11317:1 11318:1 11319:1 11320:1 53491:1 53492:1 53493:1 53494:1 53495:1 53496:1 53497:1 53498:1 53499:1 53500:1 59111:1 59112:1 59113:1 59114:1 59115:1 59116:1 59117:1 59118:1 59119:1 59120:1 106401:1 106402:1 106403:1 106404:1 106405:1 106406:1 106407:1 106408:1 106409:1 106410:1 108371:1 108372:1 108373:1 108374:1 108375:1 108376:1 108377:1 108378:1 108379:1 108380:1 113671:1 113672:1 113673:1 113674:1 113675:1 113676:1 113677:1 113678:1 113679:1 113680:1 128351:1 128352:1 128353:1 128354:1 128355:1 128356:1 128357:1 128358:1 128359:1 128360:1 
1 9881:1 9882:1 9883:1 9884:1 9885:1 9886:1 9887:1 9888:1 9889:1 9890:1 13471:1 13472:1 13473:1 13474:1 13475:1 13476:1 13477:1 13478:1 13479:1 13480:1 14081:1 14082:1 14083:1 14084:1 14085:1 14086:1 14087:1 14088:1 14089:1 14090:1 31651:1 31652:1 31653:1 31654:1 31655:1 31656:1 31657:1 31658:1 31659:1 31660:1 49081:1 49082:1 49083:1 49084:1 49085:1 49086:1 49087:1 49088:1 49089:1 49090:1 60271:1 60272:1 60273:1 60274:1 60275:1 60276:1 60277:1 60278:1 60279:1 60280:1 74971:1 74972:1 74973:1 74974:1 74975:1 74976:1 74977:1 74978:1 74979:1 74980:1 84431:1 84432:1 84433:1 84434:1 84435:1 84436:1 84437:1 84438:1 84439:1 84440:1 
1 9881:1 9882:1 9883:1 9884:1 9885:1 9886:1 9887:1 9888:1 9889:1 9890:1 39951:1 39952:1 39953:1 39954:1 39955:1 39956:1 39957:1 39958:1 39959:1 39960:1 48131:1 48132:1 48133:1 48134:1 48135:1 48136:1 48137:1 48138:1 48139:1 48140:1 52891:1 52892:1 52893:1 52894:1 52895:1 52896:1 52897:1 52898:1 52899:1 52900:1 99621:1 99622:1 99623:1 99624:1 99625:1 99626:1 99627:1 99628:1 99629:1 99630:1 141181:1 141182:1 141183:1 141184:1 141185:1 141186:1 141187:1 141188:1 141189:1 141190:1 
1 24971:1 24972:1 24973:1 24974:1 24975:1 24976:1 24977:1 24978:1 24979:1 24980:1 80911:1 80912:1 80913:1 80914:1 80915:1 80916:1 80917:1 80918:1 80919:1 80920:1 116171:1 116172:1 116173:1 116174:1 116175:1 116176:1 116177:1 116178:1 116179:1 116180:1 137721:1 137722:1 137723:1 137724:1 137725:1 137726:1 137727:1 137728:1 137729:1 137730:1 
1 108671:1 108672:1 108673:1 108674:1 108675:1 108676:1 108677:1 108678:1 108679:1 108680:1 127721:3 127722:3 127723:3 127724:3 127725:3 127726:3 127727:3 127728:3 127729:3 127730:3 
1 9531:1 9532:1 9533:1 9534:1 9535:1 9536:1 9537:1 9538:1 9539:1 9540:1 60301:1 60302:1 60303:1 60304:1 60305:1 60306:1 60307:1 60308:1 60309:1 60310:1 62321:1 62322:1 62323:1 62324:1 62325:1 62326:1 62327:1 62328:1 62329:1 62330:1 74971:1 74972:1 74973:1 74974:1 74975:1 74976:1 74977:1 74978:1 74979:1 74980:1 139201:1 139202:1 139203:1 139204:1 139205:1 139206:1 139207:1 139208:1 139209:1 139210:1 
1 
1 52261:1 52262:1 52263:1 52264:1 52265:1 52266:1 52267:1 52268:1 52269:1 52270:1 61621:1 61622:1 61623:1 61624:1 61625:1 61626:1 61627:1 61628:1 61629:1 61630:1 74971:1 74972:1 74973:1 74974:1 74975:1 74976:1 74977:1 74978:1 74979:1 74980:1 75731:1 75732:1 75733:1 75734:1 75735:1 75736:1 75737:1 75738:1 75739:1 75740:1 139741:1 139742:1 139743:1 139744:1 139745:1 139746:1 139747:1 139748:1 139749:1 139750:1 
1 19661:1 19662:1 19663:1 19664:1 19665:1 19666:1 19667:1 19668:1 19669:1 19670:1 62051:1 62052:1 62053:1 62054:1 62055:1 62056:1 62057:1 62058:1 62059:1 62060:1 72311:1 72312:1 72313:1 72314:1 72315:1 72316:1 72317:1 72318:1 72319:1 72320:1 72511:1 72512:1 72513:1 72514:1 72515:1 72516:1 72517:1 72518:1 72519:1 72520:1 76101:1 76102:1 76103:1 76104:1 76105:1 76106:1 76107:1 76108:1 76109:1 76110:1 80911:2 80912:2 80913:2 80914:2 80915:2 80916:2 80917:2 80918:2 80919:2 80920:2 
1 45401:1 45402:1 45403:1 45404:1 45405:1 45406:1 45407:1 45408:1 45409:1 45410:1 74971:1 74972:1 74973:1 74974:1 74975:1 74976:1 74977:1 74978:1 74979:1 74980:1 114201:1 114202:1 114203:1 114204:1 114205:1 114206:1 114207:1 114208:1 114209:1 114210:1 139201:1 139202:1 139203:1 139204:1 139205:1 139206:1 139207:1 139208:1 139209:1 139210:1 
1 49081:1 49082:1 49083:1 49084:1 49085:1 49086:1 49087:1 49088:1 49089:1 49090:1 74971:1 74972:1 74973:1 74974:1 74975:1 74976:1 74977:1 74978:1 74979:1 74980:1 75731:1 75732:1 75733:1 75734:1 75735:1 75736:1 75737:1 75738:1 75739:1 75740:1 76101:1 76102:1 76103:1 76104:1 76105:1 76106:1 76107:1 76108:1 76109:1 76110:1 141641:1 141642:1 141643:1 141644:1 141645:1 141646:1 141647:1 141648:1 141649:1 141650:1 
1 15531:1 15532:1 15533:1 15534:1 15535:1 15536:1 15537:1 15538:1 15539:1 15540:1 31621:1 31622:1 31623:1 31624:1 31625:1 31626:1 31627:1 31628:1 31629:1 31630:1 61621:1 61622:1 61623:1 61624:1 61625:1 61626:1 61627:1 61628:1 61629:1 61630:1 75601:1 75602:1 75603:1 75604:1 75605:1 75606:1 75607:1 75608:1 75609:1 75610:1 78121:1 78122:1 78123:1 78124:1 78125:1 78126:1 78127:1 78128:1 78129:1 78130:1 83961:1 83962:1 83963:1 83964:1 83965:1 83966:1 83967:1 83968:1 83969:1 83970:1 101981:1 101982:1 101983:1 101984:1 101985:1 101986:1 101987:1 101988:1 101989:1 101990:1 
1 12371:1 12372:1 12373:1 12374:1 12375:1 12376:1 12377:1 12378:1 12379:1 12380:1 16631:1 16632:1 16633:1 16634:1 16635:1 16636:1 16637:1 16638:1 16639:1 16640:1 48721:1 48722:1 48723:1 48724:1 48725:1 48726:1 48727:1 48728:1 48729:1 48730:1 60031:1 60032:1 60033:1 60034:1 60035:1 60036:1 60037:1 60038:1 60039:1 60040:1 73521:1 73522:1 73523:1 73524:1 73525:1 73526:1 73527:1 73528:1 73529:1 73530:1 120881:1 120882:1 120883:1 120884:1 120885:1 120886:1 120887:1 120888:1 120889:1 120890:1 
1 19321:1 19322:1 19323:1 19324:1 19325:1 19326:1 19327:1 19328:1 19329:1 19330:1 60331:1 60332:1 60333:1 60334:1 60335:1 60336:1 60337:1 60338:1 60339:1 60340:1 83961:1 83962:1 83963:1 83964:1 83965:1 83966:1 83967:1 83968:1 83969:1 83970:1 91131:1 91132:1 91133:1 91134:1 91135:1 91136:1 91137:1 91138:1 91139:1 91140:1 122741:1 122742:1 122743:1 122744:1 122745:1 122746:1 122747:1 122748:1 122749:1 122750:1 
1 83961:1 83962:1 83963:1 83964:1 83965:1 83966:1 83967:1 83968:1 83969:1 83970:1 90041:1 90042:1 90043:1 90044:1 90045:1 90046:1 90047:1 90048:1 90049:1 90050:1 92561:1 92562:1 92563:1 92564:1 92565:1 92566:1 92567:1 92568:1 92569:1 92570:1 120701:2 120702:2 120703:2 120704:2 120705:2 120706:2 120707:2 120708:2 120709:2 120710:2 126491:1 126492:1 126493:1 126494:1 126495:1 126496:1 126497:1 126498:1 126499:1 126500:1 
1 10351:1 10352:1 10353:1 10354:1 10355:1 10356:1 10357:1 10358:1 10359:1 10360:1 11331:1 11332:1 11333:1 11334:1 11335:1 11336:1 11337:1 11338:1 11339:1 11340:1 17431:2 17432:2 17433:2 17434:2 17435:2 17436:2 17437:2 17438:2 17439:2 17440:2 46951:1 46952:1 46953:1 46954:1 46955:1 46956:1 46957:1 46958:1 46959:1 46960:1 108031:1 108032:1 108033:1 108034:1 108035:1 108036:1 108037:1 108038:1 108039:1 108040:1 
1 60031:2 60032:2 60033:2 60034:2 60035:2 60036:2 60037:2 60038:2 60039:2 60040:2 119521:1 119522:1 119523:1 119524:1 119525:1 119526:1 119527:1 119528:1 119529:1 119530:1 
1 12951:1 12952:1 12953:1 12954:1 12955:1 12956:1 12957:1 12958:1 12959:1 12960:1 15181:1 15182:1 15183:1 15184:1 15185:1 15186:1 15187:1 15188:1 15189:1 15190:1 53041:1 53042:1 53043:1 53044:1 53045:1 53046:1 53047:1 53048:1 53049:1 53050:1 108181:1 108182:1 108183:1 108184:1 108185:1 108186:1 108187:1 108188:1 108189:1 108190:1 113581:1 113582:1 113583:1 113584:1 113585:1 113586:1 113587:1 113588:1 113589:1 113590:1 127131:1 127132:1 127133:1 127134:1 127135:1 127136:1 127137:1 127138:1 127139:1 127140:1 127291:1 127292:1 127293:1 127294:1 127295:1 127296:1 127297:1 127298:1 127299:1 127300:1 
1 33461:1 33462:1 33463:1 33464:1 33465:1 33466:1 33467:1 33468:1 33469:1 33470:1 52261:1 52262:1 52263:1 52264:1 52265:1 52266:1 52267:1 52268:1 52269:1 52270:1 52731:1 52732:1 52733:1 52734:1 52735:1 52736:1 52737:1 52738:1 52739:1 52740:1 75731:1 75732:1 75733:1 75734:1 75735:1 75736:1 75737:1 75738:1 75739:1 75740:1 98001:1 98002:1 98003:1 98004:1 98005:1 98006:1 98007:1 98008:1 98009:1 98010:1 105711:1 105712:1 105713:1 105714:1 105715:1 105716:1 105717:1 105718:1 105719:1 105720:1 113581:1 113582:1 113583:1 113584:1 113585:1 113586:1 113587:1 113588:1 113589:1 113590:1 127291:1 127292:1 127293:1 127294:1 127295:1 127296:1 127297:1 127298:1 127299:1 127300:1 
1 60441:1 60442:1 60443:1 60444:1 60445:1 60446:1 60447:1 60448:1 60449:1 60450:1 71261:1 71262:1 71263:1 71264:1 71265:1 71266:1 71267:1 71268:1 71269:1 71270:1 76101:1 76102:1 76103:1 76104:1 76105:1 76106:1 76107:1 76108:1 76109:1 76110:1 89901:1 89902:1 89903:1 89904:1 89905:1 89906:1 89907:1 89908:1 89909:1 89910:1 107531:1 107532:1 107533:1 107534:1 107535:1 107536:1 107537:1 107538:1 107539:1 107540:1 127291:1 127292:1 127293:1 127294:1 127295:1 127296:1 127297:1 127298:1 127299:1 127300:1 
1 48171:1 48172:1 48173:1 48174:1 48175:1 48176:1 48177:1 48178:1 48179:1 48180:1 48181:1 48182:1 48183:1 48184:1 48185:1 48186:1 48187:1 48188:1 48189:1 48190:1 52641:1 52642:1 52643:1 52644:1 52645:1 52646:1 52647:1 52648:1 52649:1 52650:1 58261:1 58262:1 58263:1 58264:1 58265:1 58266:1 58267:1 58268:1 58269:1 58270:1 76101:1 76102:1 76103:1 76104:1 76105:1 76106:1 76107:1 76108:1 76109:1 76110:1 140811:1 140812:1 140813:1 140814:1 140815:1 140816:1 140817:1 140818:1 140819:1 140820:1 
1 20221:1 20222:1 20223:1 20224:1 20225:1 20226:1 20227:1 20228:1 20229:1 20230:1 61001:1 61002:1 61003:1 61004:1 61005:1 61006:1 61007:1 61008:1 61009:1 61010:1 110991:1 110992:1 110993:1 110994:1 110995:1 110996:1 110997:1 110998:1 110999:1 111000:1 123591:1 123592:1 123593:1 123594:1 123595:1 123596:1 123597:1 123598:1 123599:1 123600:1 
1 9881:1 9882:1 9883:1 9884:1 9885:1 9886:1 9887:1 9888:1 9889:1 9890:1 10931:1 10932:1 10933:1 10934:1 10935:1 10936:1 10937:1 10938:1 10939:1 10940:1 31651:1 31652:1 31653:1 31654:1 31655:1 31656:1 31657:1 31658:1 31659:1 31660:1 59971:1 59972:1 59973:1 59974:1 59975:1 59976:1 59977:1 59978:1 59979:1 59980:1 130181:1 130182:1 130183:1 130184:1 130185:1 130186:1 130187:1 130188:1 130189:1 130190:1 140661:1 140662:1 140663:1 140664:1 140665:1 140666:1 140667:1 140668:1 140669:1 140670:1 
1 5431:1 5432:1 5433:1 5434:1 5435:1 5436:1 5437:1 5438:1 5439:1 5440:1 7971:1 7972:1 7973:1 7974:1 7975:1 7976:1 7977:1 7978:1 7979:1 7980:1 9741:1 9742:1 9743:1 9744:1 9745:1 9746:1 9747:1 9748:1 9749:1 9750:1 117471:1 117472:1 117473:1 117474:1 117475:1 117476:1 117477:1 117478:1 117479:1 117480:1 128351:1 128352:1 128353:1 128354:1 128355:1 128356:1 128357:1 128358:1 128359:1 128360:1 
1 7221:1 7222:1 7223:1 7224:1 7225:1 7226:1 7227:1 7228:1 7229:1 7230:1 19581:1 19582:1 19583:1 19584:1 19585:1 19586:1 19587:1 19588:1 19589:1 19590:1 39921:1 39922:1 39923:1 39924:1 39925:1 39926:1 39927:1 39928:1 39929:1 39930:1 40931:1 40932:1 40933:1 40934:1 40935:1 40936:1 40937:1 40938:1 40939:1 40940:1 47021:1 47022:1 47023:1 47024:1 47025:1 47026:1 47027:1 47028:1 47029:1 47030:1 52641:1 52642:1 52643:1 52644:1 52645:1 52646:1 52647:1 52648:1 52649:1 52650:1 52651:1 52652:1 52653:1 52654:1 52655:1 52656:1 52657:1 52658:1 52659:1 52660:1 58261:1 58262:1 58263:1 58264:1 58265:1 58266:1 58267:1 58268:1 58269:1 58270:1 58281:1 58282:1 58283:1 58284:1 58285:1 58286:1 58287:1 58288:1 58289:1 58290:1 58691:1 58692:1 58693:1 58694:1 58695:1 58696:1 58697:1 58698:1 58699:1 58700:1 59111:1 59112:1 59113:1 59114:1 59115:1 59116:1 59117:1 59118:1 59119:1 59120:1 74701:1 74702:1 74703:1 74704:1 74705:1 74706:1 74707:1 74708:1 74709:1 74710:1 106401:1 106402:1 106403:1 106404:1 106405:1 106406:1 106407:1 106408:1 106409:1 106410:1 124391:1 124392:1 124393:1 124394:1 124395:1 124396:1 124397:1 124398:1 124399:1 124400:1 127161:1 127162:1 127163:1 127164:1 127165:1 127166:1 127167:1 127168:1 127169:1 127170:1 138711:1 138712:1 138713:1 138714:1 138715:1 138716:1 138717:1 138718:1 138719:1 138720:1 
1 9881:1 9882:1 9883:1 9884:1 9885:1 9886:1 9887:1 9888:1 9889:1 9890:1 15311:1 15312:1 15313:1 15314:1 15315:1 15316:1 15317:1 15318:1 15319:1 15320:1 58261:2 58262:2 58263:2 58264:2 58265:2 58266:2 58267:2 58268:2 58269:2 58270:2 121721:1 121722:1 121723:1 121724:1 121725:1 121726:1 121727:1 121728:1 121729:1 121730:1 127971:1 127972:1 127973:1 127974:1 127975:1 127976:1 127977:1 127978:1 127979:1 127980:1 
1 60031:2 60032:2 60033:2 60034:2 60035:2 60036:2 60037:2 60038:2 60039:2 60040:2 117471:1 117472:1 117473:1 117474:1 117475:1 117476:1 117477:1 117478:1 117479:1 117480:1 134211:1 134212:1 134213:1 134214:1 134215:1 134216:1 134217:1 134218:1 134219:1 134220:1 141201:1 141202:1 141203:1 141204:1 141205:1 141206:1 141207:1 141208:1 141209:1 141210:1 
1 15531:1 15532:1 15533:1 15534:1 15535:1 15536:1 15537:1 15538:1 15539:1 15540:1 48761:1 48762:1 48763:1 48764:1 48765:1 48766:1 48767:1 48768:1 48769:1 48770:1 53401:1 53402:1 53403:1 53404:1 53405:1 53406:1 53407:1 53408:1 53409:1 53410:1 69791:1 69792:1 69793:1 69794:1 69795:1 69796:1 69797:1 69798:1 69799:1 69800:1 74371:1 74372:1 74373:1 74374:1 74375:1 74376:1 74377:1 74378:1 74379:1 74380:1 113581:1 113582:1 113583:1 113584:1 113585:1 113586:1 113587:1 113588:1 113589:1 113590:1 128351:1 128352:1 128353:1 128354:1 128355:1 128356:1 128357:1 128358:1 128359:1 128360:1 
1 42911:1 42912:1 42913:1 42914:1 42915:1 42916:1 42917:1 42918:1 42919:1 42920:1 59111:1 59112:1 59113:1 59114:1 59115:1 59116:1 59117:1 59118:1 59119:1 59120:1 75091:1 75092:1 75093:1 75094:1 75095:1 75096:1 75097:1 75098:1 75099:1 75100:1 95741:1 95742:1 95743:1 95744:1 95745:1 95746:1 95747:1 95748:1 95749:1 95750:1 125171:1 125172:1 125173:1 125174:1 125175:1 125176:1 125177:1 125178:1 125179:1 125180:1 129341:1 129342:1 129343:1 129344:1 129345:1 129346:1 129347:1 129348:1 129349:1 129350:1 138881:1 138882:1 138883:1 138884:1 138885:1 138886:1 138887:1 138888:1 138889:1 138890:1 139761:1 139762:1 139763:1 139764:1 139765:1 139766:1 139767:1 139768:1 139769:1 139770:1 139801:1 139802:1 139803:1 139804:1 139805:1 139806:1 139807:1 139808:1 139809:1 139810:1 
1 18641:2 18642:2 18643:2 18644:2 18645:2 18646:2 18647:2 18648:2 18649:2 18650:2 49141:1 49142:1 49143:1 49144:1 49145:1 49146:1 49147:1 49148:1 49149:1 49150:1 60031:1 60032:1 60033:1 60034:1 60035:1 60036:1 60037:1 60038:1 60039:1 60040:1 
1 12781:1 12782:1 12783:1 12784:1 12785:1 12786:1 12787:1 12788:1 12789:1 12790:1 47171:1 47172:1 47173:1 47174:1 47175:1 47176:1 47177:1 47178:1 47179:1 47180:1 60031:1 60032:1 60033:1 60034:1 60035:1 60036:1 60037:1 60038:1 60039:1 60040:1 113121:1 113122:1 113123:1 113124:1 113125:1 113126:1 113127:1 113128:1 113129:1 113130:1 127141:1 127142:1 127143:1 127144:1 127145:1 127146:1 127147:1 127148:1 127149:1 127150:1 
1 23101:1 23102:1 23103:1 23104:1 23105:1 23106:1 23107:1 23108:1 23109:1 23110:1 73381:1 73382:1 73383:1 73384:1 73385:1 73386:1 73387:1 73388:1 73389:1 73390:1 74971:1 74972:1 74973:1 74974:1 74975:1 74976:1 74977:1 74978:1 74979:1 74980:1 75731:1 75732:1 75733:1 75734:1 75735:1 75736:1 75737:1 75738:1 75739:1 75740:1 127141:1 127142:1 127143:1 127144:1 127145:1 127146:1 127147:1 127148:1 127149:1 127150:1 
1 60021:1 60022:1 60023:1 60024:1 60025:1 60026:1 60027:1 60028:1 60029:1 60030:1 96851:1 96852:1 96853:1 96854:1 96855:1 96856:1 96857:1 96858:1 96859:1 96860:1 115521:1 115522:1 115523:1 115524:1 115525:1 115526:1 115527:1 115528:1 115529:1 115530:1 
