svm_type c_svc
kernel_type rbf
gamma 0.0005
nr_class 2
total_sv 3591
rho -0.351864
label 1 -1
nr_sv 1803 1788
SV
1 7:2 9:3 10:1 12:1 13:2 15:1 28:2 31:1 43:1 47:1 49:1 57:1 129:1 139:1 156:1 254:1 313:1 328:1 404:1 452:1 583:1 660:1 1735:1 1869:1 
1 1:1 2:1 7:2 9:2 12:1 13:1 15:1 21:1 22:1 28:2 31:2 32:1 45:1 49:2 51:1 58:1 71:1 78:1 80:1 85:1 106:1 117:1 129:1 150:1 162:1 215:1 230:1 263:1 285:1 289:1 313:1 669:1 1585:1 1587:1 
1 7:3 10:2 12:4 13:2 15:1 22:1 28:2 32:1 34:1 48:1 49:1 51:2 57:1 59:1 66:1 67:1 70:1 75:1 88:1 106:1 127:2 158:1 165:1 230:1 231:1 279:1 331:1 404:1 712:1 740:1 864:1 1396:1 
0.6949392740780591 70:1 115:28 500:1 
1 7:1 9:1 10:1 13:1 15:1 31:1 48:1 62:1 80:1 94:1 147:1 286:1 375:1 
1 7:2 8:1 9:1 10:2 31:1 40:1 42:1 47:1 60:1 64:2 75:1 85:1 117:1 120:2 131:1 137:1 157:1 180:1 388:1 415:1 623:1 1053:1 1179:1 1703:1 1884:1 1959:1 
1 10:2 15:1 18:1 22:1 23:1 30:1 31:1 55:2 57:2 67:1 73:1 91:1 97:1 121:1 135:1 208:2 211:1 230:1 396:1 713:1 
1 1:2 2:2 6:1 7:1 9:2 11:2 12:1 31:1 32:1 40:1 60:1 123:1 136:1 164:1 178:1 213:1 261:1 442:1 654:1 1465:1 1693:1 
1 4:1 5:1 7:1 23:2 28:1 29:5 30:1 31:1 45:2 49:1 55:1 64:3 70:1 72:1 84:1 91:1 129:1 143:1 176:1 493:1 1469:1 1846:1 
1 1:7 2:6 3:1 5:1 6:3 7:1 8:2 11:4 13:1 15:1 26:1 48:1 58:1 59:1 62:2 67:1 68:1 72:1 77:1 88:1 89:2 93:1 111:1 140:1 141:1 192:1 211:2 336:1 
1 7:3 10:2 12:1 13:2 28:2 30:1 31:1 42:2 43:1 45:3 48:2 55:3 56:2 66:1 68:1 70:1 73:1 78:3 129:1 156:1 161:1 204:1 254:1 336:1 454:2 571:1 668:1 773:1 1218:1 1245:1 1467:1 
1 1:8 2:8 21:8 28:3 65:1 74:3 339:1 399:1 490:1 532:1 576:1 588:1 699:1 728:1 909:1 
1 1:2 2:2 6:3 7:1 21:2 22:1 28:4 63:1 74:4 339:2 576:1 594:1 695:1 699:1 1057:1 1143:1 1310:1 1426:1 
1 6:2 7:1 10:1 29:1 42:1 
1 7:1 10:1 18:1 45:1 47:1 67:1 70:2 85:1 208:2 306:1 335:1 636:1 713:1 905:1 1017:1 1201:1 1248:1 1794:1 1914:1 
1 9:1 10:5 12:1 13:1 15:1 23:4 28:2 31:3 49:1 50:1 56:1 59:1 70:2 80:1 85:1 108:1 133:2 237:2 309:1 319:2 340:1 1085:2 1102:1 1214:1 
1 9:3 10:2 15:1 28:2 31:2 49:2 51:1 70:2 73:2 115:1 150:1 158:1 208:1 756:1 1549:1 
1 15:1 91:1 115:1 123:1 150:1 333:1 352:1 510:1 1344:1 
1 7:3 13:3 15:2 18:1 22:1 32:1 43:3 45:1 50:2 55:4 62:1 70:1 105:2 112:1 120:1 130:3 165:1 231:1 367:1 396:3 686:1 719:1 821:1 1089:1 
1 15:1 29:1 59:1 88:1 1567:1 1919:1 
1 7:1 13:4 15:2 31:1 43:1 44:1 48:1 62:1 70:1 71:2 88:2 99:1 111:1 113:1 124:2 133:1 135:2 149:1 224:1 310:1 482:2 1625:1 
1 1:1 7:1 9:2 18:2 45:2 73:1 115:1 151:1 371:1 405:1 542:1 
1 1:7 2:7 10:11 21:7 34:12 53:11 54:11 70:1 74:11 88:11 111:1 227:11 650:11 742:11 856:1 1946:22 
1 7:1 9:1 12:1 13:2 15:2 31:1 32:1 43:2 48:1 50:1 51:1 58:2 59:1 61:1 62:1 69:1 70:1 72:1 100:1 105:1 106:1 260:1 261:1 272:1 396:1 660:1 692:1 811:1 905:1 
1 7:3 8:1 9:1 10:1 12:3 13:1 18:1 23:2 31:1 44:1 48:1 59:2 66:1 70:1 93:1 113:1 141:2 200:1 240:1 328:1 352:1 442:1 501:1 607:1 686:1 740:1 793:1 1389:1 1579:1 1740:1 
1 7:1 10:1 12:2 13:2 23:3 28:1 30:2 32:3 34:1 40:1 45:1 47:1 49:1 50:1 57:2 70:1 140:1 153:1 198:1 257:1 367:2 380:1 510:1 719:1 776:1 814:1 925:1 
1 8:2 9:2 12:3 13:2 15:2 32:1 34:1 44:1 45:1 52:1 59:1 61:1 63:2 70:3 97:1 106:1 119:1 129:1 134:1 152:1 158:1 169:1 178:1 186:1 306:1 785:2 1807:1 
1 7:2 9:1 12:3 13:4 23:1 30:1 32:2 44:2 47:1 59:1 63:1 70:1 80:1 97:1 99:1 106:1 108:1 119:1 120:1 127:1 135:2 144:1 150:1 158:1 238:1 242:1 289:1 307:1 310:1 328:1 359:1 916:1 
1 8:1 9:3 10:1 12:4 13:1 15:2 28:2 34:1 40:1 51:3 56:2 62:1 69:1 70:1 72:1 130:1 133:1 162:1 187:1 188:2 189:1 194:1 208:1 316:1 334:1 366:1 375:1 555:2 960:1 997:1 1292:1 1687:1 1841:1 
1 1:2 2:2 7:2 13:1 21:2 22:5 53:2 54:2 60:1 144:1 289:1 594:1 1019:2 1544:1 1587:1 
1 7:2 9:3 12:7 13:2 15:1 18:1 28:1 32:1 45:1 56:1 57:2 58:1 62:1 70:1 98:1 99:1 119:1 127:1 130:2 144:1 208:1 224:1 245:1 247:1 286:1 340:1 396:1 430:1 448:1 1003:1 1340:2 1409:1 1898:1 
1 7:1 9:3 10:1 12:1 13:3 15:1 18:1 22:1 40:2 64:2 66:1 70:1 72:1 75:1 92:1 131:1 133:1 157:1 195:1 267:1 334:1 351:1 415:1 432:1 483:1 1059:1 
1 7:2 8:2 9:1 10:2 12:1 13:1 15:1 18:1 23:2 28:1 30:1 48:1 49:1 53:1 54:1 61:1 70:1 75:1 80:1 89:1 193:1 230:1 237:1 238:1 427:1 497:1 501:1 801:1 1902:1 
0.6481414016140288 1:420 2:419 3:608 4:392 5:591 6:270 7:220 8:226 9:1 10:9 11:74 12:3 13:3 14:1 15:2 16:1 17:6 18:3 19:115 20:115 21:1 22:3 23:2 24:8 25:8 26:111 28:7 29:1 34:4 36:10 37:109 38:5 39:110 41:2 42:2 43:3 45:2 46:2 47:2 50:1 51:2 53:1 54:1 55:2 57:1 58:1 59:1 61:1 63:1 65:1 66:1 71:1 72:1 75:2 80:1 87:5 99:1 107:2 115:1 116:5 119:1 121:1 130:1 131:1 142:1 148:32 159:37 160:1 171:2 172:1 173:107 230:1 231:1 281:1 298:5 306:1 324:1 328:1 335:2 358:1 395:1 404:1 426:1 434:1 437:1 454:1 477:1 487:1 516:1 535:1 537:1 572:213 597:1 602:1 636:1 641:1 710:1 851:1 879:1 905:1 971:1 1017:2 1062:1 1097:1 1248:2 1312:1 1323:2 1336:1 1389:1 1533:1 1673:1 1685:104 1715:1 1893:1 1976:1 
1 1:2 2:2 6:1 7:1 10:1 12:2 22:1 48:1 50:1 64:2 92:1 99:1 108:1 117:1 227:1 669:1 749:1 
1 7:1 12:3 15:1 31:1 45:1 51:1 57:2 58:1 59:2 70:1 72:1 80:1 86:1 187:1 194:1 297:1 348:1 415:1 494:1 1320:1 1447:1 
1 7:2 9:1 10:1 12:2 13:2 15:1 28:1 32:1 34:1 43:1 45:1 47:1 50:3 66:1 69:1 70:1 72:1 89:1 108:1 120:1 131:2 147:1 254:1 279:1 404:1 588:1 751:1 860:1 1118:1 1154:1 1579:1 1599:1 
1 7:2 9:1 10:1 13:2 15:1 65:1 75:2 141:1 169:1 241:1 266:1 713:1 1150:1 1700:1 1776:1 
1 7:2 10:1 12:1 13:1 18:1 23:3 30:1 50:1 52:1 64:2 70:1 73:1 77:1 100:1 108:1 120:1 137:1 149:1 193:1 237:1 309:1 456:1 521:1 1351:1 1779:1 
1 9:1 10:2 13:2 15:1 18:2 22:1 32:1 45:4 62:3 66:3 70:3 98:1 184:1 251:1 272:2 338:1 793:1 901:1 1975:1 
0.9102686079550406 7:1 9:1 13:4 34:1 40:1 44:1 45:2 57:1 59:1 70:1 72:1 75:1 93:1 106:1 115:1 161:2 192:1 333:1 334:1 396:1 628:1 868:1 935:1 1239:1 1525:1 
1 9:1 10:2 12:1 13:2 23:1 32:1 43:1 47:1 57:1 64:1 91:1 108:1 111:1 120:1 155:1 189:1 238:1 312:1 320:1 929:1 
1 7:4 10:1 14:1 15:1 23:2 31:1 32:1 42:1 60:1 68:1 72:1 84:1 85:1 164:1 183:3 200:1 237:1 251:1 309:1 329:1 338:1 501:1 521:1 986:1 1657:1 
1 7:3 9:3 10:3 12:3 13:2 23:2 31:1 58:1 60:1 62:1 84:1 99:1 115:1 152:1 240:1 282:1 359:1 465:1 475:1 641:1 950:1 961:1 1214:1 
1 7:3 10:1 12:2 13:2 15:1 23:3 34:1 48:1 58:1 65:1 84:1 99:1 107:1 135:1 141:1 144:2 202:1 203:1 260:1 289:1 334:1 393:1 447:1 920:1 
1 7:3 8:1 9:1 12:3 16:1 32:2 34:1 43:2 48:1 50:1 58:1 70:1 93:1 106:1 144:2 165:1 242:1 251:1 493:1 561:2 580:1 1101:1 1483:1 
1 7:1 9:1 10:4 12:2 13:1 18:4 30:2 32:1 43:1 70:1 108:1 120:1 129:1 136:1 150:1 178:1 237:1 243:1 338:1 653:1 769:1 823:1 1026:1 1045:1 1436:1 1976:1 
1 1:10 2:10 7:4 10:1 13:3 15:3 21:10 23:1 34:2 40:2 42:1 45:2 57:1 71:1 80:3 141:1 151:1 227:1 235:1 285:1 460:1 507:1 528:2 555:1 581:1 723:1 728:1 786:1 929:1 1248:1 1485:1 
1 7:1 8:1 9:6 12:2 13:2 23:1 32:2 42:1 48:1 54:1 70:1 105:1 251:1 265:1 291:1 314:1 651:1 872:1 1817:1 1898:1 1933:1 
1 7:1 9:1 10:2 18:1 22:1 32:1 42:2 45:2 47:2 55:3 61:1 70:1 72:1 79:1 86:2 117:1 150:1 163:1 167:1 261:2 270:2 324:1 333:3 760:1 858:1 986:1 1054:1 1381:1 1505:1 
1 7:1 8:1 9:3 10:2 12:2 13:1 15:2 23:2 30:1 32:1 34:1 45:1 70:1 77:1 127:1 131:2 137:1 238:1 265:1 314:1 388:1 643:1 715:1 814:1 897:1 976:1 1075:1 1293:1 
1 7:3 9:1 10:1 12:2 13:1 15:1 22:1 23:2 32:2 48:1 102:1 133:1 208:1 213:1 245:2 275:1 286:1 309:1 394:1 1092:1 1094:3 
1 7:1 8:1 9:2 10:2 13:2 15:1 22:1 23:2 48:1 50:1 57:1 63:1 70:1 78:4 89:1 98:1 140:1 150:1 155:1 336:1 512:1 616:1 651:1 681:1 1096:1 
1 7:1 9:2 12:1 13:2 15:2 22:1 23:2 32:1 50:2 51:5 55:5 62:1 66:2 70:5 111:1 156:1 157:2 174:1 189:1 201:1 231:2 254:2 309:2 405:3 863:1 
1 7:2 8:2 9:1 12:2 15:2 23:1 30:1 32:2 34:2 59:1 68:1 69:1 70:1 98:1 101:1 123:1 141:1 148:1 183:2 193:1 238:1 427:1 436:1 607:1 1055:1 1085:1 1385:1 1615:1 1809:1 1985:1 
1 7:1 9:1 12:1 13:1 14:1 15:1 28:2 31:2 32:2 47:1 54:1 56:3 62:1 63:1 70:1 71:1 72:1 79:1 84:1 97:1 100:1 106:1 124:1 133:2 144:1 161:1 188:1 316:1 340:1 359:1 521:1 764:1 785:1 884:1 1248:1 
1 7:1 9:3 10:1 12:5 15:1 28:3 31:1 32:1 47:1 49:1 53:1 54:1 56:1 57:1 58:1 62:1 70:1 85:1 97:2 115:1 117:1 127:1 133:1 139:1 158:1 161:1 188:1 192:1 289:2 436:2 492:1 494:1 497:1 780:1 950:1 1355:1 1936:1 
1 7:2 8:2 9:2 10:1 12:2 13:1 15:2 18:2 22:1 28:2 30:1 32:1 40:1 43:1 48:1 49:1 56:1 63:1 68:1 70:2 77:1 84:1 89:1 158:1 161:1 162:1 183:1 197:1 226:1 245:1 291:2 396:1 428:1 459:1 577:1 712:1 768:1 775:1 
1 7:2 9:2 10:2 15:2 18:1 40:2 42:1 43:1 57:1 60:1 68:2 69:1 70:1 89:1 127:2 146:1 180:1 191:1 193:1 197:1 200:1 241:2 528:2 955:1 1366:1 1560:1 
1 7:1 9:4 12:1 13:3 28:1 30:1 70:1 115:1 146:2 153:2 170:1 176:1 202:1 228:1 231:1 241:1 288:1 311:1 334:1 359:1 375:1 404:1 1344:1 1853:1 
1 7:2 8:1 10:1 13:2 18:1 22:1 47:4 65:2 83:1 121:1 197:1 258:1 942:1 1078:1 1312:1 1356:2 
1 7:2 9:1 10:4 12:4 13:1 15:1 18:1 34:1 42:1 48:1 62:1 69:1 70:1 101:1 115:1 133:2 144:1 203:2 221:1 225:1 262:1 297:1 393:1 447:1 961:1 1238:1 
1 7:1 9:4 10:1 12:3 13:2 23:1 40:1 64:1 70:1 72:1 73:1 78:3 86:1 155:1 167:1 187:1 211:1 283:1 316:1 324:1 500:1 981:1 1809:1 
1 5:1 7:4 8:1 9:3 10:3 12:3 13:1 15:1 18:2 30:1 42:1 48:1 64:1 73:1 77:1 127:1 153:1 157:2 218:1 273:1 371:1 400:1 428:1 462:3 469:3 494:1 512:1 666:1 681:1 816:1 
1 1:3 2:3 6:1 7:2 9:2 11:1 13:1 15:1 28:1 34:1 49:1 60:1 234:2 444:1 533:1 561:1 1544:1 1556:1 
1 4:1 5:1 7:1 9:1 13:2 15:1 18:2 28:2 32:1 45:3 51:1 55:2 56:1 57:2 62:1 70:1 75:1 98:1 108:1 115:1 120:1 131:1 139:1 174:2 192:1 249:1 283:1 404:1 775:1 924:1 1007:1 1693:1 
1 7:2 13:4 18:1 22:1 23:2 31:3 32:1 34:2 40:1 42:1 48:2 55:4 68:1 106:1 107:1 119:1 123:1 192:2 345:1 374:1 500:1 533:1 813:1 1310:1 1579:1 1817:1 1921:1 
1 10:1 31:1 32:1 40:1 70:3 80:1 627:1 
1 12:1 13:1 15:1 22:2 28:1 43:3 45:2 51:3 62:1 64:1 69:1 70:2 86:2 111:2 113:1 139:1 140:1 189:1 224:1 231:2 247:1 254:1 336:1 388:1 837:1 1401:1 1457:1 1518:1 
1 7:7 15:1 23:1 28:1 32:1 48:1 56:1 57:1 63:1 64:1 88:1 94:1 112:2 131:1 158:1 160:1 170:1 174:1 188:1 224:1 291:1 311:1 329:1 488:1 581:4 882:1 
1 7:2 10:2 12:1 15:1 18:1 22:1 23:1 43:2 47:1 63:1 64:1 70:1 73:2 92:1 127:1 134:1 137:1 143:1 364:1 368:1 508:1 536:1 542:1 681:3 1429:1 
1 7:1 9:1 13:2 15:2 28:3 34:1 43:1 50:1 55:6 58:1 59:1 60:1 64:2 70:2 76:1 92:1 112:2 139:3 140:1 153:1 176:1 331:1 334:1 366:1 369:1 427:1 500:1 863:1 1139:1 1228:1 1232:1 
1 7:1 9:3 10:1 13:2 15:1 22:1 40:1 43:1 44:1 60:1 62:1 70:1 75:1 80:1 85:1 86:1 94:1 97:1 121:1 164:1 313:1 376:1 601:1 947:1 1178:1 1236:1 
1 7:1 9:2 10:1 13:2 15:1 22:1 29:1 31:1 40:1 43:1 60:1 62:1 70:1 75:1 85:1 86:1 88:1 94:1 97:1 121:1 164:1 313:1 376:1 601:1 947:2 1178:1 1236:1 
1 7:3 8:2 9:2 10:1 12:3 13:1 15:2 22:1 23:1 28:1 32:2 42:1 43:1 48:1 65:1 66:1 70:1 72:2 106:1 115:2 135:1 139:1 144:1 200:1 230:2 314:1 442:1 712:1 854:1 1799:1 
1 5:1 7:2 9:6 10:7 18:2 40:3 60:3 70:1 80:3 120:3 131:3 147:2 686:2 
1 7:2 9:3 10:2 13:1 18:1 23:3 30:1 31:1 32:3 55:1 61:1 70:1 72:1 75:1 80:1 101:1 127:1 158:1 163:1 237:1 243:1 289:2 497:1 566:1 712:2 720:1 1070:1 1530:1 
0.5028248424787376 1:110 2:110 3:123 4:75 5:114 6:68 7:5 8:71 9:2 10:3 11:20 12:2 13:1 14:3 15:1 16:3 17:3 19:20 20:20 21:1 22:5 24:8 25:8 26:35 28:2 31:1 33:1 37:5 38:5 39:15 41:2 46:1 47:1 48:2 49:1 57:2 65:1 75:1 76:1 81:2 88:3 93:1 109:1 127:1 142:1 144:1 148:4 159:4 172:1 173:30 231:1 257:1 285:1 510:1 570:1 737:1 807:1 860:1 1065:1 1392:1 1985:1 
1 1:1 2:1 18:1 21:1 45:1 47:1 77:1 206:1 232:1 360:1 368:1 426:1 501:1 810:1 1884:2 
1 1:2 2:1 3:1 5:1 11:1 18:1 19:1 39:1 45:1 47:1 77:1 206:1 232:1 360:1 368:1 426:1 501:1 810:1 1884:2 
1 7:1 8:1 9:2 12:2 13:2 15:2 22:1 23:3 30:1 45:1 48:1 52:1 57:1 61:1 62:1 65:1 69:1 70:1 79:1 108:1 165:1 185:1 288:1 341:1 351:1 688:1 691:1 1182:1 1490:2 1608:1 
1 7:2 8:1 9:4 13:1 18:1 23:1 31:1 32:1 34:1 43:1 48:2 52:1 55:3 57:2 58:1 60:1 67:1 70:1 93:3 106:2 111:1 153:1 192:1 221:1 238:1 289:1 371:1 478:1 580:2 1291:1 1814:1 
1 7:2 8:1 10:1 12:4 13:1 15:4 22:1 23:1 28:2 44:1 56:2 60:2 62:2 64:1 70:6 76:1 89:1 111:1 123:2 129:1 143:1 149:1 155:1 162:1 188:1 200:1 226:1 251:1 263:1 265:1 294:1 308:1 316:1 320:1 335:1 336:1 340:1 424:1 462:1 466:2 469:1 493:1 583:1 680:2 782:1 912:1 991:1 1103:1 1372:1 
1 7:3 9:1 12:3 15:3 18:1 28:3 32:2 40:1 42:1 43:1 47:1 50:2 56:1 57:2 72:1 77:1 89:1 93:1 99:1 102:1 108:1 113:2 129:1 134:1 135:1 161:1 191:1 204:1 273:1 279:1 493:1 834:1 1194:1 1319:1 1475:2 1646:1 1921:1 
1 7:2 9:1 10:1 12:3 13:1 15:1 22:1 23:1 32:1 34:1 45:2 47:1 57:1 68:2 70:1 78:2 94:1 106:1 158:1 191:2 238:1 247:1 292:1 306:1 356:1 513:1 580:1 653:1 1932:1 
1 7:1 8:3 9:1 10:2 12:1 15:2 18:1 22:1 30:1 31:1 34:1 40:1 61:1 70:1 76:1 77:1 93:1 118:1 137:1 141:1 150:1 238:1 341:1 348:2 356:1 750:1 869:1 1620:1 1955:3 
1 7:1 9:3 12:1 13:2 28:2 31:1 49:1 51:1 56:1 58:1 59:1 67:1 73:1 169:1 171:1 199:1 204:1 253:1 313:1 372:1 429:1 493:1 494:1 528:1 707:1 786:1 
1 1:2 2:1 3:1 5:1 11:1 18:1 19:1 39:1 45:1 47:1 77:1 206:1 232:1 360:1 368:1 426:1 501:1 810:1 1884:2 
1 7:3 9:3 10:4 12:2 13:1 15:1 16:1 18:1 22:1 23:1 29:1 30:1 47:1 51:2 63:1 69:1 73:1 84:1 94:1 147:1 157:1 176:1 183:1 197:1 289:1 306:1 329:1 1269:1 1381:1 1429:1 1884:1 
1 1:2 2:1 3:1 5:1 11:1 18:1 19:1 39:1 45:1 47:1 77:1 206:1 232:1 360:1 368:1 426:1 501:1 810:1 1884:2 
1 7:1 13:1 22:1 43:1 55:1 57:1 74:1 106:1 117:1 144:1 156:1 181:1 261:1 263:1 287:1 360:1 647:1 863:1 1017:1 1587:1 
1 7:3 12:2 13:1 15:1 18:1 32:1 45:1 50:1 60:3 64:1 70:1 77:1 80:1 84:1 85:1 86:1 115:1 123:2 155:1 158:1 194:1 200:1 240:1 254:1 415:1 426:1 562:1 592:1 1320:1 1404:1 1471:1 1883:1 
1 1:2 2:1 3:1 5:1 11:1 18:1 19:1 39:1 45:1 47:1 77:1 206:1 232:1 360:1 368:1 426:1 501:1 810:1 1884:2 
1 7:3 9:3 12:2 15:2 22:1 28:1 32:1 47:1 49:1 51:1 64:1 70:1 97:1 112:1 127:2 150:1 162:1 189:1 238:1 265:1 309:1 335:1 654:1 1051:1 1177:1 1394:1 
1 9:3 22:3 67:3 70:1 74:6 151:1 248:1 264:1 372:1 490:3 798:1 1192:1 1299:1 1424:3 1596:1 
1 7:1 8:1 10:1 13:2 15:1 28:1 30:1 43:1 49:1 120:1 192:1 207:1 316:1 328:1 331:1 384:1 427:1 680:1 
1 10:3 12:2 13:1 15:1 18:2 22:1 23:2 31:1 43:1 48:2 57:1 63:1 64:1 70:4 89:1 93:1 94:1 133:1 160:1 161:1 187:1 251:1 292:1 371:1 583:1 585:1 607:1 681:2 
1 7:1 10:1 12:1 18:1 22:2 32:4 34:1 42:3 45:1 48:1 70:1 108:1 144:1 211:1 226:1 290:1 291:1 341:1 395:1 654:1 712:2 1534:1 
1 7:1 12:3 13:3 30:1 32:4 43:1 66:2 70:2 143:1 169:1 183:2 193:1 217:2 404:1 454:1 607:3 610:1 937:1 998:1 1098:2 1757:1 
1 9:8 10:3 13:1 15:1 18:2 30:1 34:1 57:3 61:1 70:1 76:1 144:1 152:1 155:1 223:1 231:1 282:1 358:1 426:3 838:1 899:1 1150:1 
1 7:2 8:1 9:1 10:1 12:1 22:1 30:1 40:1 45:1 48:1 64:1 84:1 86:1 115:1 178:1 194:1 231:1 243:1 335:1 508:1 1320:1 1502:1 
1 4:1 5:1 7:2 8:2 9:2 10:1 12:1 15:3 22:1 23:1 28:2 32:1 47:2 56:2 62:2 78:2 86:1 97:1 183:1 188:2 215:1 387:1 392:1 669:1 751:2 976:1 1681:1 
1 7:5 9:2 12:7 13:3 15:2 22:1 28:1 32:2 34:1 57:1 70:1 84:1 107:1 115:1 123:1 228:1 231:2 236:1 291:1 312:1 314:1 348:1 405:1 430:2 494:1 741:1 1154:1 1232:1 1523:1 1742:1 
1 7:2 8:2 9:1 12:1 15:2 22:1 23:3 28:1 31:1 32:4 43:1 49:1 70:1 84:1 152:1 183:1 200:1 201:1 251:1 256:1 309:1 345:1 456:1 654:3 691:1 725:1 1023:1 1555:1 
1 7:1 8:2 10:2 15:2 22:1 28:2 31:1 40:2 47:1 49:2 64:1 70:1 86:1 97:1 117:1 144:1 152:1 559:1 641:1 654:1 1086:1 1356:1 1835:1 
1 7:2 9:2 13:2 15:2 28:3 45:4 49:1 55:1 56:2 64:1 97:1 129:1 137:1 143:2 189:1 199:1 308:1 571:2 774:1 937:3 1467:1 1932:1 
1 4:1 5:3 7:1 8:1 22:1 28:2 32:1 45:1 48:1 49:2 55:2 60:2 64:2 67:1 70:1 72:1 100:1 115:1 129:1 164:1 176:1 220:1 221:1 231:1 245:1 315:1 663:1 863:2 1475:1 
0.1233799305992699 7:14 13:4 30:1 31:1 44:1 45:1 51:1 55:2 60:1 64:1 69:1 70:1 72:1 89:1 97:2 100:1 112:1 123:1 127:1 230:1 231:1 236:1 261:1 283:1 345:1 417:1 755:1 806:1 863:1 1128:1 1228:1 1467:1 
1 10:1 12:2 13:3 15:1 30:1 32:1 40:2 43:1 44:1 45:2 47:1 48:1 57:2 63:1 64:1 70:5 72:1 75:1 92:1 112:1 130:1 193:1 200:1 203:1 206:1 250:1 309:1 319:1 324:1 367:1 520:1 
1 7:4 9:1 10:1 12:1 13:1 15:2 22:1 23:1 28:1 30:1 31:2 32:1 42:1 48:1 49:1 55:3 58:1 62:1 70:1 99:1 101:1 117:1 150:1 161:2 176:1 213:1 220:1 221:1 224:1 242:1 334:1 535:1 609:1 743:1 1409:1 1549:1 
1 7:3 9:1 12:4 30:1 31:1 42:2 48:1 52:1 57:2 59:1 60:1 70:1 72:1 74:1 93:1 123:2 130:1 144:1 147:1 180:1 199:1 348:1 388:1 445:1 454:1 533:1 558:1 560:1 1007:1 1310:1 
1 7:3 9:1 12:3 13:2 18:1 34:4 45:1 48:1 50:1 51:1 58:1 74:4 85:1 88:1 103:1 115:1 124:1 167:1 225:1 252:1 288:1 339:1 360:1 391:1 533:1 576:1 723:1 983:1 1020:1 1176:1 1228:1 
1 7:2 12:1 13:1 15:1 18:1 34:1 45:1 57:1 84:1 93:1 99:1 113:2 119:1 149:1 166:1 171:1 199:1 262:1 306:1 319:1 369:1 375:1 454:1 1020:1 1139:1 
1 7:2 9:1 10:1 13:3 15:2 18:1 28:1 31:1 32:1 40:1 42:1 45:1 47:1 52:1 55:4 56:1 57:2 58:1 70:1 77:2 86:1 97:2 98:1 130:1 135:1 144:1 156:1 163:1 187:1 203:1 204:1 217:1 231:1 238:1 251:1 257:1 303:1 407:1 555:1 628:1 707:1 
1 4:2 7:2 10:1 12:3 13:1 15:2 18:1 22:1 30:2 32:1 44:1 45:1 48:1 64:2 70:1 105:1 107:1 127:1 155:1 158:2 176:1 223:1 225:1 244:1 247:1 268:1 289:1 387:1 474:1 1023:1 1111:1 1320:1 
1 9:1 10:5 13:1 15:1 23:1 28:4 29:1 30:1 34:2 42:1 45:1 49:2 50:1 53:1 54:1 65:1 70:1 83:1 149:1 178:1 186:1 208:1 239:1 247:1 286:1 293:1 320:1 352:1 518:1 580:1 864:1 1305:1 
1 7:4 8:1 10:2 23:2 31:2 40:1 43:2 47:1 53:2 54:2 55:2 58:1 68:1 70:1 72:1 101:1 106:1 131:2 193:1 230:2 395:1 508:1 693:1 723:1 810:1 1528:1 
1 7:1 9:1 10:2 13:2 15:2 18:1 22:1 40:1 44:1 59:3 65:1 70:1 72:1 88:1 120:1 156:1 195:1 210:1 227:1 253:1 322:1 432:1 448:1 623:2 1701:1 
1 8:1 10:2 12:1 13:2 22:1 23:1 31:1 32:1 43:1 48:2 70:1 88:1 107:1 136:1 200:1 237:1 309:1 510:1 522:1 712:1 740:1 750:1 1326:1 1969:1 
1 7:2 9:1 12:3 13:2 15:2 18:1 22:2 28:2 31:3 48:1 50:1 56:2 63:1 67:1 70:1 73:1 91:1 93:1 106:1 115:1 119:1 161:1 188:1 203:1 220:1 251:1 366:1 405:1 413:1 500:1 524:1 664:1 775:1 1114:1 1716:1 
1 1:3 2:3 7:3 15:1 21:3 28:1 49:1 62:1 63:1 74:1 785:1 
1 8:1 9:1 10:2 12:2 13:1 15:2 18:1 32:1 40:2 50:2 53:1 54:1 59:1 64:1 67:1 70:1 108:1 120:1 131:1 137:1 141:1 149:1 164:1 237:1 256:1 309:1 410:1 456:1 585:1 1490:1 1975:1 
1 7:2 8:1 10:1 12:1 15:2 22:1 23:1 28:2 31:1 32:1 44:2 47:1 49:1 50:1 56:1 57:1 70:1 73:1 76:1 78:1 107:1 161:1 178:1 200:1 203:1 226:1 238:2 256:2 310:1 319:1 552:1 585:1 712:1 775:1 1467:1 
1 10:1 34:1 40:3 60:1 75:1 98:1 131:1 189:1 208:1 249:1 284:1 433:1 739:1 834:1 1107:1 1457:1 
1 7:2 8:1 10:2 12:1 13:4 18:2 34:1 40:2 43:1 48:1 59:1 77:1 170:1 185:1 251:1 328:1 358:1 393:1 839:1 990:1 1034:1 1175:1 1392:1 1636:1 1659:1 
1 7:4 8:3 9:4 10:1 22:1 23:2 28:1 31:1 32:1 48:2 53:1 54:1 55:6 70:2 86:1 144:1 185:1 201:1 224:1 230:2 239:1 287:1 334:1 426:1 436:1 474:1 1058:1 1436:1 1666:1 1702:1 1921:1 1927:1 
1 7:1 8:1 13:2 15:1 23:2 55:3 59:1 62:1 70:1 84:1 121:1 242:1 247:1 405:1 501:1 567:1 628:1 
1 9:1 10:3 13:5 15:2 23:1 44:1 47:1 51:2 52:1 55:1 69:1 70:1 127:1 178:1 181:1 189:1 346:1 363:1 377:1 405:1 447:1 733:1 952:1 1388:2 
0.4022235975144438 7:1 9:3 10:1 12:1 15:2 23:1 28:2 34:1 43:2 45:5 48:1 49:1 52:1 56:1 64:1 70:1 76:1 78:4 86:1 97:1 152:1 156:1 176:1 183:1 215:1 231:1 297:1 306:1 307:1 331:1 379:1 492:1 542:1 1243:1 
1 4:1 5:1 7:2 8:1 9:1 10:1 12:1 13:3 18:1 22:1 28:4 30:2 31:1 43:2 49:3 57:1 62:1 64:1 72:1 78:2 112:2 137:1 140:1 231:1 240:1 250:1 292:1 501:1 595:1 668:1 670:1 917:1 1577:1 
1 7:1 10:6 12:2 13:1 18:1 28:1 34:1 40:1 47:1 48:1 49:1 69:1 70:1 89:1 133:1 391:1 442:1 460:1 820:1 834:1 892:1 1112:1 1168:1 1485:1 1525:1 
1 7:1 9:3 10:3 12:2 13:1 15:1 18:3 23:2 28:1 30:1 32:2 45:1 56:1 57:1 62:1 64:1 67:1 70:1 89:1 106:1 131:1 168:1 202:1 217:1 287:1 290:1 292:1 666:2 693:1 795:1 991:1 1149:1 1401:1 1652:1 
1 7:1 9:3 10:3 12:2 13:2 15:4 18:2 22:2 23:1 47:2 52:1 60:1 62:1 70:1 73:1 89:1 98:1 105:2 115:1 129:1 143:2 263:1 268:1 269:1 513:1 751:1 1322:1 1680:1 
1 12:1 15:1 22:1 23:1 28:1 29:1 30:1 48:1 49:1 50:1 55:1 59:1 70:1 72:1 78:1 105:1 108:1 150:1 240:1 535:1 
1 7:5 8:2 10:3 12:1 13:1 15:1 23:3 32:1 43:1 48:1 65:1 67:1 70:1 79:1 80:1 84:1 144:1 162:1 166:1 200:1 227:1 238:1 257:2 268:1 291:1 1411:1 1746:1 
0.2529098611127957 7:2 8:1 9:1 18:1 23:2 55:2 65:1 89:1 93:1 120:1 127:1 144:2 161:1 230:1 238:1 289:1 297:2 334:1 367:1 681:1 760:1 800:1 820:1 
1 8:2 12:1 13:1 31:1 40:3 59:1 70:1 75:1 231:1 510:1 680:1 
1 1:1 2:1 7:2 13:1 21:1 34:1 40:1 60:1 74:1 85:1 144:1 198:1 360:1 713:1 816:1 1299:1 
1 4:1 5:1 7:3 8:1 9:1 10:1 12:2 13:4 15:1 18:2 23:3 28:1 30:1 31:2 32:1 43:1 56:1 77:2 79:1 84:1 176:2 188:1 250:1 258:2 291:3 390:1 834:2 889:1 1708:1 1739:1 
1 10:1 12:1 13:2 34:1 70:1 127:1 417:1 607:1 1638:1 1738:1 1871:1 1905:1 
1 1:6 2:6 21:6 29:2 53:1 54:1 104:1 173:1 237:1 
1 7:1 8:1 9:3 10:1 12:3 13:3 15:2 23:2 44:1 69:2 70:1 73:2 92:1 99:1 158:1 161:1 235:1 285:1 289:1 318:1 349:1 542:2 651:1 694:1 883:1 990:1 1562:1 1606:1 1655:1 1703:1 1896:1 
1 7:5 34:1 53:1 54:1 59:1 74:2 124:1 149:1 153:1 294:1 810:1 1610:1 1650:2 1942:1 
1 7:2 9:3 12:1 13:1 23:3 28:1 32:2 34:1 47:1 49:1 53:1 54:1 61:1 64:2 70:1 72:1 89:1 91:1 101:1 158:1 192:1 200:1 223:1 257:1 393:1 552:1 809:1 865:1 1080:1 1872:1 
1 7:1 9:5 12:4 15:1 28:3 30:3 31:1 44:1 45:1 50:1 51:2 56:2 66:1 70:1 106:1 150:1 157:1 179:2 188:1 224:2 272:1 284:1 418:1 512:1 595:1 834:1 1076:1 1080:1 1110:1 1319:1 1550:1 1568:1 1591:1 1912:1 
1 7:3 10:1 12:3 13:1 15:1 18:1 23:2 28:1 31:1 34:2 48:1 56:1 58:1 70:1 108:1 127:1 129:1 149:1 152:1 178:1 184:1 203:2 204:1 249:1 253:1 308:1 552:1 579:1 648:1 712:1 1828:1 
1 10:1 12:1 13:2 22:1 23:1 31:1 32:1 42:1 43:2 50:1 55:1 58:1 67:1 70:1 72:1 73:1 91:1 98:1 135:1 178:1 197:1 207:1 213:1 291:1 328:1 807:1 810:1 1894:1 
1 8:1 10:1 13:1 22:1 23:1 28:2 29:6 30:1 44:2 45:1 49:1 51:1 52:1 55:2 56:1 64:1 66:1 68:1 69:2 70:1 84:1 117:1 204:1 247:1 289:1 292:1 312:1 467:1 1098:1 
1 7:6 8:1 9:1 10:1 12:3 13:2 15:2 22:1 31:2 32:3 34:1 48:1 76:1 97:1 106:1 108:2 120:1 158:1 166:1 233:1 243:1 310:1 311:1 367:2 419:1 454:1 500:1 742:1 1219:2 
1 7:1 9:1 10:1 22:1 31:1 40:1 68:1 196:1 202:1 264:1 274:1 332:1 369:1 445:1 561:1 715:1 794:1 858:1 962:1 
1 7:2 9:1 10:3 13:2 18:1 22:1 23:2 28:2 32:1 42:1 52:1 55:2 56:2 57:2 129:1 188:1 297:1 340:1 401:1 501:1 628:1 
1 10:1 15:2 18:2 22:2 28:2 30:2 43:2 44:3 49:2 55:1 70:1 94:1 167:3 189:1 231:3 294:1 309:1 348:2 527:1 662:1 807:1 
1 18:1 23:2 28:2 44:1 56:1 59:1 65:1 69:1 70:5 86:1 131:1 145:1 156:1 157:1 158:1 171:1 180:1 188:1 231:1 299:1 371:1 425:1 432:1 451:1 710:1 1638:1 1845:1 1944:1 
1 7:2 8:1 9:4 12:4 13:1 15:1 23:2 28:3 31:3 40:1 48:2 56:1 101:1 102:1 105:1 119:1 139:1 217:1 220:1 240:1 279:1 426:1 602:1 628:1 1409:1 1547:1 
1 8:1 13:1 18:2 28:3 31:1 32:2 34:1 49:1 55:4 66:2 70:1 72:2 106:1 123:1 127:1 139:1 147:1 157:1 180:1 228:1 258:1 860:1 1178:1 1218:1 
1 10:2 13:2 15:2 23:1 28:1 30:1 32:2 34:1 42:1 43:1 44:1 55:3 66:2 67:1 70:1 72:1 86:1 93:1 118:1 127:1 135:1 162:1 228:1 251:1 289:1 447:1 562:1 1048:1 1114:1 1218:1 1417:1 
1 7:7 8:2 10:1 12:3 13:2 23:2 31:1 34:1 40:1 66:1 67:1 70:1 76:1 80:1 89:1 113:1 130:1 153:1 230:1 241:1 297:1 329:1 396:2 1128:1 1708:1 
1 7:1 10:1 15:1 23:3 31:1 43:1 64:1 165:1 310:1 316:1 690:1 1050:1 1356:1 
1 7:2 8:3 9:3 12:3 13:2 23:1 28:1 31:2 32:1 34:1 42:1 44:1 48:1 56:1 70:1 77:1 86:1 93:1 100:1 106:1 119:3 123:1 127:1 144:1 153:1 181:1 340:1 483:1 552:1 626:1 712:1 869:1 
1 1:5 2:5 7:1 9:1 16:1 21:5 34:1 53:2 54:2 66:1 74:6 85:1 117:1 124:1 594:1 856:1 1008:1 1017:1 
1 7:2 10:2 12:2 13:2 15:1 23:3 28:1 30:3 32:1 47:1 49:1 50:1 52:1 57:1 60:2 65:1 66:1 70:1 79:1 88:1 113:1 115:1 123:2 127:1 144:1 151:1 231:1 288:1 393:1 832:1 1443:1 
1 7:5 8:1 9:1 12:1 13:4 15:2 23:1 31:1 32:1 40:1 43:1 47:2 57:1 69:1 106:1 113:2 147:1 150:1 201:1 241:1 581:1 620:1 681:1 783:1 1523:1 1536:1 
1 8:1 10:1 13:1 31:1 32:1 34:1 44:1 45:2 57:1 61:1 103:1 105:1 106:1 173:1 333:1 346:1 360:1 375:1 493:1 669:1 840:1 987:1 
1 7:1 9:1 10:2 15:1 31:1 34:1 59:1 63:1 77:1 101:1 131:1 153:1 197:1 235:1 239:1 253:1 306:1 695:1 1037:1 1812:1 
1 4:1 5:1 8:1 9:1 12:1 13:1 18:1 31:1 67:1 70:2 144:1 217:1 289:1 315:1 441:1 876:1 
1 7:3 8:2 10:1 12:1 13:3 15:2 16:1 18:1 23:1 31:1 40:1 44:1 48:2 67:2 70:1 71:1 112:1 141:1 147:1 150:1 200:2 202:1 217:1 246:1 288:2 447:1 534:1 654:1 750:1 989:1 1170:1 1807:1 
1 7:1 9:5 10:5 12:1 13:3 23:4 48:1 52:1 65:1 69:1 70:1 72:1 136:3 141:1 144:3 289:1 1005:1 1092:1 1373:1 1660:1 1982:1 
1 7:2 8:2 9:3 12:2 13:2 15:6 28:1 31:1 49:1 52:1 60:1 69:1 88:1 119:1 123:1 135:1 150:2 161:1 215:1 220:1 233:1 254:1 258:1 626:3 1525:1 
1 7:2 8:1 10:2 12:2 13:2 15:1 23:3 28:1 31:1 47:1 48:1 58:1 65:2 70:1 76:1 79:1 106:1 155:1 228:1 308:1 309:1 319:1 367:1 393:1 398:1 456:1 723:1 899:1 1048:1 1493:1 1807:1 1868:1 
1 1:43 2:43 3:55 4:47 5:46 6:25 7:2 8:12 11:10 19:9 20:9 21:1 24:8 25:8 26:6 28:2 37:5 38:5 39:4 41:16 46:1 142:1 148:16 159:16 173:1 572:2 
1 7:4 9:4 10:3 12:2 13:2 18:1 22:2 23:2 30:1 32:1 34:7 42:1 45:1 57:1 61:1 63:1 65:1 69:1 70:1 80:1 94:1 100:1 130:1 131:1 267:1 342:1 462:1 469:1 671:1 793:1 1507:1 1682:1 
1 8:1 10:1 12:2 13:1 15:4 23:2 31:1 32:1 42:1 57:2 59:1 70:1 73:1 80:1 92:1 100:1 106:2 131:1 285:1 315:1 367:1 493:2 581:1 643:1 738:1 740:1 745:1 990:1 1153:1 1761:2 
1 7:3 8:1 9:3 10:3 12:3 13:2 18:1 23:1 30:1 32:1 40:2 64:1 70:1 93:1 106:2 144:2 170:1 181:1 192:1 219:1 266:1 396:2 436:1 440:1 662:1 1429:1 1718:1 1809:1 1912:1 
1 7:4 8:1 10:1 12:3 13:2 23:1 32:1 34:2 43:2 48:2 57:2 68:3 76:1 78:1 99:1 134:1 155:1 217:1 237:1 328:1 501:1 516:1 610:1 651:1 740:2 1007:1 
1 7:1 9:1 10:2 13:3 14:2 18:2 22:1 43:1 53:1 54:1 62:1 67:1 70:1 80:1 120:1 124:1 211:1 230:1 639:1 1095:2 1608:1 
1 7:3 9:4 10:5 12:3 13:2 15:3 18:1 22:1 28:1 40:1 43:1 44:4 48:1 52:1 53:1 54:1 60:1 63:1 68:1 69:3 70:1 84:1 86:1 93:1 98:1 127:2 139:1 169:1 265:1 269:1 291:1 292:4 374:1 462:1 469:1 500:1 534:1 615:1 681:1 744:1 1507:1 1898:1 
1 7:4 9:3 10:2 12:3 13:1 15:1 23:4 30:1 48:2 58:1 64:1 70:1 93:1 97:1 137:1 144:1 157:2 328:1 430:1 501:1 581:1 628:1 643:1 703:1 804:1 844:1 881:1 1228:1 1437:1 
1 1:1 2:1 7:5 9:1 13:4 21:1 34:3 53:2 54:2 69:2 74:5 77:1 124:1 185:2 232:2 281:1 294:2 377:1 490:1 699:1 983:1 1134:2 1259:1 1544:1 1959:1 
1 7:2 8:1 9:4 10:2 13:1 15:2 28:1 30:1 48:2 54:1 55:2 56:1 60:2 66:1 70:1 73:1 98:1 124:1 144:1 192:1 223:2 232:1 289:1 351:2 365:1 366:1 437:1 522:1 562:1 571:1 900:1 1049:1 1887:1 
1 7:2 8:1 9:3 10:2 12:4 13:2 22:3 23:1 31:1 34:1 47:1 48:2 50:1 63:1 70:3 71:1 80:1 237:1 252:1 380:1 501:1 702:1 841:1 858:1 1065:1 1387:1 1584:2 1657:1 1890:1 1939:1 
1 7:1 9:3 10:3 12:1 13:2 23:1 28:1 32:2 40:3 43:2 47:1 49:1 65:1 70:1 71:1 105:1 144:1 153:1 178:1 289:1 393:1 396:1 522:1 561:1 799:1 1291:1 1724:1 
1 7:4 8:1 9:2 10:1 13:1 14:1 15:2 18:1 30:1 32:1 42:1 44:1 88:1 100:1 127:2 144:1 238:1 245:1 260:1 912:1 1092:1 1171:1 1194:1 1273:1 1409:1 1465:1 
1 7:1 10:1 15:1 23:3 28:2 31:1 43:1 45:1 50:1 51:1 55:4 56:2 60:1 70:1 77:1 105:1 108:1 118:1 144:2 204:1 251:1 450:1 494:1 586:2 673:1 1470:1 
1 7:3 9:1 10:1 12:2 15:1 23:3 30:1 31:2 32:1 34:1 57:1 70:1 80:1 89:1 106:1 127:1 133:1 150:1 192:1 200:1 230:1 289:1 359:1 367:1 404:1 479:1 1007:1 
1 4:2 5:2 13:1 30:1 31:1 34:1 42:3 44:1 63:1 67:1 70:3 75:1 83:1 89:1 94:1 156:1 171:1 195:1 272:1 291:1 319:1 417:1 510:1 643:2 876:1 903:1 1103:1 1410:1 
1 7:1 10:1 13:2 15:1 43:1 59:1 62:1 70:1 88:1 106:1 171:1 231:2 313:2 479:1 654:1 1045:1 1648:1 
1 7:7 9:2 10:1 12:4 13:1 15:2 28:1 30:1 31:3 32:1 34:1 42:1 45:1 48:2 58:1 70:1 76:1 80:1 84:1 93:1 102:1 120:1 150:2 158:1 162:1 202:2 297:1 366:1 369:1 375:1 595:1 720:1 1054:1 
1 1:2 2:2 6:2 7:1 8:1 9:3 10:1 13:1 21:2 29:5 32:1 34:1 40:1 53:1 54:1 59:1 70:1 91:1 98:1 111:1 143:1 149:1 158:1 162:1 198:1 426:1 462:2 469:2 1431:1 
1 7:1 8:1 10:2 12:3 13:1 18:1 22:1 23:1 28:1 30:1 31:3 34:1 40:1 42:1 47:1 50:1 52:1 56:1 62:1 70:1 93:1 97:1 99:1 113:1 155:1 224:1 270:1 289:1 359:1 454:1 504:1 581:1 734:1 795:1 984:1 1017:1 1436:1 
1 9:2 10:2 12:4 13:1 22:1 28:6 44:3 48:4 51:3 62:2 66:1 69:1 70:1 77:1 79:1 84:1 101:1 117:2 199:1 231:1 291:1 335:1 508:1 585:1 595:5 925:1 1060:1 
1 7:2 8:1 9:3 13:1 15:2 18:1 28:2 30:2 32:2 40:2 42:1 44:1 48:1 49:1 55:2 62:1 70:1 97:1 108:1 118:1 123:1 143:1 144:1 228:1 235:1 242:1 244:1 261:1 268:1 285:1 348:1 417:1 499:1 712:1 962:1 1128:1 1192:1 1679:1 1833:1 
1 7:2 8:2 9:6 13:1 18:1 28:2 31:1 40:1 42:1 47:1 51:1 55:1 56:2 58:1 66:1 70:1 73:2 75:1 102:1 117:1 155:1 256:1 366:1 371:1 768:1 769:1 884:1 1773:1 1819:1 1854:2 
1 7:3 8:1 10:1 12:4 13:1 15:4 22:1 23:1 30:1 43:1 59:1 71:2 72:1 97:1 100:1 106:2 118:1 133:1 135:1 158:1 161:1 181:2 184:1 190:1 210:1 260:1 291:1 310:1 681:2 776:1 868:1 1906:1 
1 8:1 9:3 15:2 18:1 31:1 34:2 40:1 52:1 67:1 70:1 73:1 91:1 97:1 144:1 161:1 171:1 191:1 232:1 236:1 253:1 276:1 393:1 454:1 713:2 972:1 1170:1 1176:1 1487:1 1827:1 
1 5:1 7:1 9:3 10:5 13:1 15:2 18:1 30:1 34:1 43:1 60:1 68:1 69:1 70:1 78:1 79:1 113:1 127:1 131:1 140:1 152:1 157:1 184:1 299:1 
1 7:1 8:1 12:2 13:3 18:2 23:2 32:2 43:1 47:1 60:1 67:1 70:1 71:1 80:1 94:1 131:1 211:1 220:2 227:1 238:1 254:1 380:1 570:1 712:1 854:1 1034:1 1070:1 1298:1 
1 1:2 2:2 7:2 8:1 9:2 10:1 13:1 15:2 21:2 22:1 34:2 52:1 60:1 62:1 144:1 263:1 287:1 324:1 415:1 742:1 1419:1 1587:1 1700:1 
1 7:1 8:1 12:1 13:2 15:1 32:2 34:1 40:1 44:1 54:1 57:1 68:1 69:1 70:1 73:2 78:1 89:1 115:1 200:1 218:1 332:1 365:1 393:1 437:1 447:1 712:1 860:1 1146:1 1483:1 
1 7:2 8:1 9:2 10:2 22:1 23:3 30:1 31:3 32:1 52:1 55:3 70:1 86:1 102:1 106:1 152:1 192:1 202:1 224:1 231:2 333:1 369:1 479:1 500:1 722:1 1062:1 1246:1 1868:1 
1 7:3 8:1 10:2 12:2 13:2 23:3 31:1 32:2 34:1 48:1 50:1 57:1 65:1 66:1 70:1 185:1 191:1 194:1 218:1 250:1 291:2 319:2 328:1 377:1 427:1 648:1 679:1 1041:1 1341:1 
1 7:1 8:1 12:3 15:2 23:5 30:1 31:2 52:1 58:1 60:3 61:1 62:1 70:1 130:1 146:2 161:1 289:1 396:1 410:1 432:1 1048:1 1125:1 1483:1 1597:1 
1 7:2 8:1 9:4 10:2 12:3 15:1 18:1 34:1 42:1 45:1 57:1 70:1 106:1 156:1 169:1 178:1 186:1 193:1 217:1 367:1 436:2 485:1 862:1 1025:1 1299:1 
1 7:3 10:2 15:3 18:2 31:1 40:5 50:1 53:1 54:1 57:1 60:1 64:2 65:1 68:1 70:2 85:1 112:1 115:1 131:1 137:1 143:1 155:1 210:1 288:1 293:1 342:1 426:1 636:1 761:1 786:1 937:1 1020:1 1046:1 1617:1 1700:1 1927:1 
1 7:5 8:2 10:1 13:1 15:2 29:1 30:1 32:1 34:1 40:1 44:1 48:1 51:1 59:1 63:1 64:1 67:1 70:2 71:1 75:1 106:1 117:1 119:1 127:2 150:1 152:1 215:1 425:1 447:1 485:2 581:1 616:1 623:1 925:1 1098:1 
1 7:2 8:3 9:2 10:1 12:3 13:2 23:1 32:1 42:2 48:1 63:1 67:1 77:1 93:1 101:1 108:1 120:1 127:1 144:2 163:1 181:1 186:1 198:1 311:1 442:1 568:1 577:1 646:1 712:1 860:1 
1 7:3 10:2 12:2 13:3 15:2 23:2 31:2 45:1 53:1 54:1 55:1 57:4 69:1 70:1 131:1 135:1 144:1 220:1 398:1 618:1 776:1 794:1 1467:1 1528:1 1584:1 1612:1 
1 7:1 8:2 10:1 13:2 34:1 40:1 70:1 75:1 83:1 92:1 121:1 202:1 363:1 390:1 455:1 739:1 745:1 750:1 1468:1 
1 7:1 10:1 15:1 23:3 28:3 52:1 55:2 56:3 57:1 70:3 89:2 97:1 115:1 118:1 144:1 150:1 152:1 153:1 188:1 254:1 256:1 289:1 307:2 340:1 372:1 517:1 581:1 618:1 775:1 1514:1 
1 7:3 8:1 10:1 12:9 13:1 28:1 30:3 31:1 40:1 47:1 48:1 52:2 56:1 57:2 63:1 66:1 67:2 70:1 83:2 93:1 106:1 123:3 127:1 130:2 134:1 136:1 158:1 161:1 181:1 184:1 186:1 230:1 251:1 291:1 297:1 371:1 417:1 462:1 469:1 494:1 775:1 789:1 882:1 1007:2 
1 7:1 9:2 10:1 12:4 15:2 22:1 23:3 28:3 30:1 45:1 48:1 52:1 56:1 57:2 59:1 68:2 70:3 98:1 124:1 139:1 152:1 158:1 165:1 188:1 240:1 292:1 313:1 437:1 533:1 776:1 811:1 1355:1 1366:1 1462:1 
1 4:1 5:1 7:1 10:2 12:6 13:3 15:1 28:4 34:1 47:1 56:2 60:3 62:3 63:1 66:1 70:1 75:1 86:1 103:1 108:1 130:1 139:2 157:1 178:1 197:1 207:1 288:1 306:1 324:1 396:2 410:1 437:1 663:1 775:1 933:1 1351:1 
0.6028174236352846 7:3 8:1 13:1 28:1 30:2 31:1 32:1 34:1 45:2 48:1 55:1 56:1 57:1 63:1 70:2 78:3 86:1 115:1 120:1 184:1 194:1 231:1 238:2 319:1 331:1 396:1 828:1 884:1 933:1 1064:1 
1 7:2 8:1 9:3 10:4 15:2 23:1 28:2 30:2 31:1 34:2 44:1 51:2 52:1 56:2 63:1 66:1 70:1 75:1 89:1 97:1 103:1 106:1 141:1 144:1 176:1 199:1 316:1 340:1 393:2 398:1 410:1 443:1 490:1 562:1 588:1 
1 7:7 8:1 10:1 18:1 22:1 31:1 47:1 48:1 65:1 75:1 77:1 79:1 123:1 146:1 241:4 294:1 367:1 432:1 601:1 660:1 768:1 1063:1 1326:1 1559:1 1658:1 1867:1 
1 7:1 8:1 9:3 10:1 13:2 15:1 18:1 30:1 31:2 34:1 53:1 54:1 70:1 74:1 111:1 120:1 176:1 1020:1 1078:1 1153:1 1310:1 
1 7:5 8:1 9:2 10:1 12:3 18:1 22:1 23:1 28:1 30:1 48:1 56:1 60:1 68:3 70:1 78:1 85:1 123:1 129:2 141:1 162:1 183:2 186:1 188:1 192:1 200:1 235:1 238:1 283:1 336:1 669:1 816:1 934:1 1053:1 1067:1 
1 7:1 10:4 13:2 15:1 18:3 22:1 30:1 40:1 44:1 45:1 53:1 54:1 58:1 70:1 137:2 147:2 189:1 201:2 227:1 419:1 424:1 513:2 640:2 1152:1 1272:1 1374:1 
1 5:1 7:2 8:1 10:2 12:3 13:5 15:3 22:1 23:1 32:2 40:1 42:1 48:1 58:1 59:2 62:2 70:1 72:1 73:1 80:1 130:1 162:1 254:1 288:1 328:2 351:1 462:1 469:1 485:1 616:1 750:1 811:1 819:1 1300:1 1465:1 1525:1 
1 7:1 8:1 9:2 10:3 12:4 13:1 15:3 34:1 47:1 59:1 63:1 64:1 70:1 72:1 84:1 93:1 98:1 127:1 153:1 166:1 231:1 243:1 386:1 393:1 519:1 562:1 580:1 637:1 674:1 693:1 695:1 740:1 1471:1 
1 7:1 8:1 9:1 10:2 13:4 15:1 18:1 22:2 43:1 47:1 63:1 70:1 76:1 77:2 93:1 100:1 230:1 236:1 292:1 328:1 501:1 628:1 821:1 976:1 1094:1 1292:1 1326:1 
0.9351368333303046 7:3 8:1 9:10 10:2 12:2 15:2 22:1 23:3 30:1 31:2 45:4 57:2 62:3 66:1 70:1 79:2 119:1 140:1 143:1 157:2 179:1 191:1 192:1 201:1 239:1 262:1 265:1 347:1 462:1 469:1 501:1 524:1 645:1 651:1 740:1 925:1 927:1 1327:1 1349:1 1871:1 1957:1 
0.4138062900826694 1:1 2:1 9:3 21:1 22:2 34:1 74:1 102:1 104:1 118:1 124:28 144:24 151:4 206:44 232:13 276:1 399:1 490:1 532:1 555:1 576:3 698:1 879:1 909:10 1057:3 1067:28 1155:2 1246:1 1310:3 1606:11 1833:22 1863:3 
0.5531219962077532 1:192 2:192 3:180 4:120 5:166 6:111 7:32 8:88 9:11 10:5 11:90 12:3 13:9 15:3 18:5 19:24 20:24 21:1 22:2 23:2 24:8 25:8 26:40 28:16 29:1 30:1 31:4 34:1 37:5 38:5 39:19 40:4 41:2 42:2 44:7 46:3 47:1 48:1 49:2 51:2 52:1 57:1 58:5 59:6 60:1 63:4 64:2 65:2 66:1 67:1 68:1 70:1 71:2 72:2 75:1 77:2 78:1 79:1 84:2 86:1 88:3 91:1 93:2 94:3 97:1 101:1 106:3 108:1 111:1 112:1 115:1 116:11 123:1 134:1 137:2 142:1 147:2 148:30 153:1 156:1 159:41 170:1 173:35 176:1 179:1 187:1 194:1 202:1 203:1 224:2 228:1 230:2 274:1 281:1 303:1 304:1 312:1 315:1 320:1 322:2 324:1 328:2 336:1 337:1 341:1 361:1 367:1 380:1 382:1 390:2 417:1 423:1 432:1 494:1 510:1 515:1 537:2 563:1 572:15 575:1 577:1 579:1 602:2 637:1 703:1 709:2 710:2 776:1 782:1 820:1 832:1 851:1 855:1 878:1 940:1 948:1 971:2 992:1 1065:1 1133:1 1134:1 1171:1 1230:1 1255:1 1271:1 1305:1 1468:1 1576:1 1650:1 1817:1 1892:1 1897:1 
1 7:2 8:1 9:1 10:1 12:1 13:1 31:1 40:3 42:1 43:1 48:1 53:1 54:1 68:1 70:1 71:1 78:1 88:1 147:1 149:1 176:1 262:1 264:1 290:1 359:1 1023:1 1078:1 1143:1 1479:1 1783:1 
1 7:2 12:2 15:3 28:1 32:2 40:1 42:2 50:1 59:4 62:1 70:2 72:1 102:1 112:1 139:1 161:1 200:2 291:1 319:1 560:1 1387:1 
1 7:3 8:1 9:4 10:4 12:4 15:1 18:1 48:1 52:1 60:1 61:1 69:1 70:1 101:1 106:1 119:1 123:1 127:2 141:1 149:1 153:2 164:1 181:1 218:1 225:1 227:1 232:1 241:1 288:1 326:1 371:1 425:1 900:1 1070:1 1137:1 1392:1 
1 7:1 8:1 9:1 10:2 12:1 13:1 15:3 18:1 28:3 30:2 45:4 50:1 56:3 64:2 70:1 130:1 131:2 134:1 164:1 215:1 379:1 571:1 588:1 607:1 723:1 884:2 1702:1 1932:1 
1 4:1 5:1 7:1 9:2 10:2 12:3 13:1 14:1 15:1 22:2 23:1 30:1 31:1 50:1 51:1 57:1 58:1 65:1 69:1 70:1 73:1 79:1 99:1 113:1 310:1 346:1 462:1 465:1 469:1 573:1 854:1 856:1 902:1 1263:1 1544:1 
0.319330741956206 7:3 9:2 12:4 13:3 15:1 23:5 28:2 30:1 31:3 32:2 45:1 49:1 52:1 56:1 57:1 60:1 70:2 73:2 78:1 80:1 112:1 121:1 153:1 163:1 180:1 186:1 202:1 303:1 493:1 500:1 514:1 542:1 822:1 924:1 963:1 
1 1:4 2:4 7:3 9:1 21:4 34:1 45:1 47:1 74:2 85:1 104:1 117:1 149:1 319:1 360:1 713:1 1017:1 1139:1 1336:1 1369:1 1521:1 
1 7:1 8:1 9:3 10:1 12:2 13:1 15:2 18:1 22:1 28:1 31:2 43:1 44:1 48:1 56:1 57:2 59:1 66:1 68:1 70:2 88:1 89:1 92:1 106:1 124:1 127:1 152:1 155:1 203:1 265:1 291:1 328:1 450:1 497:1 750:1 756:1 1182:1 1214:1 1646:1 
1 8:1 9:2 10:1 12:1 13:3 22:1 65:1 68:2 70:1 78:2 143:1 157:1 164:1 334:1 336:1 357:1 419:1 575:1 609:1 616:1 723:1 904:1 1165:1 1243:1 1447:1 1756:1 
1 10:3 12:4 13:2 15:3 23:1 30:2 32:1 34:1 42:1 48:1 57:1 70:1 117:1 127:1 135:1 140:1 150:1 151:1 152:1 158:1 227:1 270:1 289:1 310:1 391:1 1085:1 1312:1 1412:1 
1 7:5 9:1 12:4 15:1 18:1 23:2 30:1 32:1 40:1 42:1 45:1 48:1 51:1 57:3 78:1 102:1 106:1 131:1 155:1 224:1 245:1 404:1 527:1 712:1 899:1 974:1 1051:1 1396:1 1547:1 
1 7:4 8:1 10:1 12:2 13:1 15:1 23:1 31:1 32:1 34:1 66:1 106:1 127:1 248:1 293:1 331:1 419:1 671:1 681:1 712:1 1378:1 
1 6:1 7:2 8:2 9:1 13:2 78:4 97:1 121:1 133:1 187:1 201:1 224:1 396:1 460:1 513:1 825:1 
1 7:2 9:1 12:2 28:2 31:1 52:1 56:2 58:1 63:1 79:2 89:1 108:1 155:1 187:1 188:1 251:1 256:1 257:1 494:1 775:1 964:1 1748:1 
1 1:4 2:4 7:4 9:2 13:2 21:4 34:1 40:1 63:1 72:1 149:1 185:1 331:1 360:2 695:1 816:1 1154:1 1158:1 1251:1 1544:1 
1 7:2 9:1 13:3 15:1 22:1 23:1 31:1 70:4 72:1 80:1 108:1 120:1 129:1 174:1 231:2 261:1 283:1 341:1 607:1 613:1 789:1 813:1 1183:1 1587:1 1712:1 
1 7:3 8:2 9:4 13:1 34:1 40:1 61:1 63:1 67:1 92:1 131:1 206:1 223:1 272:1 308:1 653:1 708:1 764:1 1275:1 
1 12:2 13:1 15:2 18:2 22:1 23:1 31:1 40:1 50:3 51:1 52:1 60:1 69:1 70:1 72:1 77:2 91:1 105:1 117:1 130:1 161:1 171:1 182:1 191:2 198:1 236:1 267:2 303:2 313:1 323:1 396:1 500:1 1856:1 
1 7:1 8:1 10:2 15:1 18:1 22:2 42:1 61:1 70:1 77:1 88:1 120:1 150:1 223:1 261:1 654:1 1611:1 1616:1 
1 7:3 8:1 9:1 10:3 12:1 13:3 23:2 31:1 34:1 48:1 50:1 58:1 65:1 69:1 70:1 88:1 101:1 108:2 120:1 144:1 257:1 319:1 393:1 433:1 723:1 920:1 1920:1 
1 7:3 8:1 9:3 10:2 12:5 13:2 15:4 18:1 23:1 32:1 42:2 48:1 50:1 57:2 65:1 66:2 77:1 88:1 106:2 108:1 113:1 127:2 150:3 155:1 218:1 328:1 417:2 648:1 776:1 1616:1 1830:1 
1 7:4 8:1 9:1 10:1 12:1 13:1 15:2 18:1 23:2 28:1 30:1 31:1 34:1 44:2 45:2 48:1 56:1 69:1 77:1 89:1 115:1 134:1 150:1 161:1 188:1 215:1 227:1 289:1 292:1 369:1 396:1 461:1 715:1 768:1 1141:1 1921:1 
1 7:1 10:2 12:1 13:1 15:2 18:1 22:1 28:1 32:4 40:1 49:1 66:1 69:1 70:3 117:1 130:1 319:1 535:1 692:1 789:1 856:2 1026:1 1104:1 1192:1 1230:1 1831:1 
1 8:1 13:2 15:1 45:1 50:1 55:1 144:1 215:1 270:1 360:1 495:1 508:1 633:1 1359:1 1521:1 
1 7:3 10:1 12:2 28:1 31:1 32:1 49:1 60:1 70:2 72:1 76:1 84:1 106:1 163:1 176:1 217:1 233:1 238:1 239:1 285:1 312:1 320:1 536:1 618:1 816:1 1902:1 
1 7:1 8:1 10:1 12:3 13:1 22:1 30:1 32:2 40:1 43:1 50:1 51:2 53:1 54:1 57:1 59:1 70:1 72:1 75:1 106:1 129:1 130:1 131:1 164:1 166:1 215:1 484:1 561:2 990:1 1439:1 
1 4:1 5:1 7:1 9:1 10:1 13:2 28:1 30:1 40:1 42:1 51:1 56:1 70:1 89:1 103:1 133:1 150:1 185:1 220:1 427:1 494:1 1103:1 1165:1 1624:1 1732:1 1827:1 1856:1 
1 4:1 5:1 7:1 10:1 12:1 13:3 15:2 23:2 32:1 34:1 43:1 48:1 55:1 65:1 68:1 70:1 72:2 93:1 97:1 127:1 161:1 163:2 178:1 186:1 238:1 331:1 393:1 425:1 514:1 625:1 1218:1 
1 7:4 8:1 12:2 13:1 18:1 22:1 23:2 30:1 32:1 45:1 47:1 50:1 55:2 67:1 68:1 70:1 77:1 78:1 86:1 88:1 183:1 240:1 242:1 270:1 271:1 291:1 315:1 322:1 336:1 368:1 768:1 934:1 976:1 1293:1 1295:1 1579:1 
1 7:1 9:2 10:3 12:3 13:4 15:2 18:2 22:1 31:2 32:1 40:1 42:1 48:1 50:1 59:1 66:2 70:1 71:1 73:1 127:1 135:1 230:1 240:1 268:1 291:1 359:1 398:1 512:1 847:1 
1 9:1 12:1 13:3 15:1 22:2 32:1 43:1 45:1 48:1 55:3 70:1 79:1 92:1 118:1 120:1 130:1 150:1 180:1 203:1 231:1 270:1 320:1 338:1 364:2 396:1 577:1 601:1 696:1 773:1 
1 7:2 9:1 10:1 12:1 13:1 23:1 42:2 65:1 69:1 73:1 94:1 141:2 152:1 166:1 192:1 290:1 709:1 776:1 793:1 1270:1 1356:1 
1 7:1 8:1 9:2 10:3 15:1 18:1 22:1 23:1 31:1 47:1 63:1 70:1 108:1 120:1 137:1 614:1 1371:1 1417:1 1767:2 
1 7:2 8:1 9:2 13:1 32:1 40:2 47:1 55:1 58:1 66:1 70:2 73:1 143:1 236:1 436:1 558:1 765:1 793:1 1547:1 
1 7:2 8:2 9:1 10:2 12:4 13:2 15:1 22:2 23:1 30:1 34:1 45:1 47:1 58:1 70:1 73:1 86:1 130:1 131:1 141:1 217:1 243:1 291:1 301:1 393:1 410:1 468:1 562:2 788:1 850:1 916:1 995:1 
1 13:1 15:1 30:1 31:3 45:1 51:1 55:1 57:1 58:1 70:2 72:1 77:1 98:1 123:1 149:1 320:1 535:1 806:1 1066:1 1098:1 1289:1 
1 7:1 9:1 10:1 12:3 13:1 15:3 16:1 23:1 28:1 30:1 34:1 48:1 50:1 52:1 58:1 60:1 64:1 70:1 79:1 83:2 105:1 112:1 120:1 139:1 156:1 158:1 180:1 184:1 240:1 254:1 404:1 611:1 833:1 854:1 1137:1 
1 7:3 9:1 10:2 12:3 13:3 15:1 31:1 32:2 43:1 48:1 70:1 115:1 127:1 158:1 163:1 211:1 309:1 319:1 377:1 425:1 442:2 445:1 514:2 520:1 648:1 750:1 1659:1 
1 7:1 8:1 9:2 10:1 18:1 40:1 55:1 60:1 66:1 70:1 72:1 74:3 79:1 84:1 86:1 120:1 131:1 180:1 206:1 236:1 263:1 342:1 364:1 427:1 623:1 725:1 
1 7:2 9:3 10:1 13:1 15:1 28:2 30:2 31:1 34:1 44:3 48:1 49:1 69:2 70:1 72:1 74:1 88:1 162:1 179:1 256:1 337:1 369:1 398:1 562:1 1106:1 1991:1 
1 7:2 9:5 10:2 12:2 18:1 28:2 30:1 32:1 34:1 40:1 47:1 52:1 59:1 66:1 69:1 70:2 72:1 112:2 120:1 135:1 139:1 203:1 237:1 250:1 275:1 302:1 313:1 331:1 521:1 1359:1 1593:1 1735:1 
1 8:1 10:2 12:3 13:3 28:1 30:1 32:1 45:2 52:1 56:1 62:1 69:1 70:1 71:1 79:1 97:1 101:1 106:1 130:1 133:1 141:1 158:1 188:1 247:1 286:1 289:1 303:1 436:1 461:1 1004:1 
1 4:1 5:1 8:1 9:1 10:2 12:2 13:2 15:1 22:1 23:2 30:1 31:1 43:1 45:2 51:1 64:1 70:4 75:1 85:1 89:1 91:1 119:2 141:2 150:1 171:1 176:2 220:1 336:1 377:1 396:1 1288:1 
1 8:1 9:4 10:2 15:1 18:1 23:2 30:1 34:1 50:1 60:2 64:2 66:1 68:4 69:1 70:1 72:1 77:1 89:2 92:1 97:1 123:1 150:1 237:1 265:1 306:1 374:1 607:1 628:1 903:1 986:1 1584:1 1985:1 
1 8:2 10:1 12:5 22:1 23:1 28:1 30:1 31:2 32:1 48:1 51:1 70:1 72:1 120:1 149:2 156:1 164:1 170:1 228:1 231:2 265:1 284:1 309:1 313:1 451:1 607:1 832:2 
1 5:2 7:2 8:1 9:1 13:1 23:2 28:2 31:2 40:1 43:1 49:2 51:1 55:1 57:2 70:1 72:1 210:1 346:1 1276:1 1561:3 1963:1 
1 7:3 8:3 9:1 13:1 15:1 22:1 23:2 34:1 48:2 57:1 62:1 68:1 69:1 70:1 72:1 76:1 85:1 92:1 93:1 108:1 137:2 241:1 243:1 725:1 1023:1 1128:1 1916:1 
1 7:1 8:1 10:2 15:1 34:1 69:1 73:1 88:1 92:1 105:1 217:1 400:1 411:1 654:1 1020:1 1099:1 
1 7:2 8:1 9:1 12:3 13:1 15:2 18:1 22:1 23:1 30:1 31:1 32:1 34:2 42:1 43:1 45:1 60:1 62:1 67:1 70:1 98:2 108:1 120:1 130:2 152:1 156:1 166:1 215:1 218:1 235:1 291:1 366:1 713:1 862:1 932:1 1096:1 1143:1 
1 7:2 8:1 12:6 15:1 22:2 23:3 28:2 30:1 31:1 34:1 42:1 56:1 70:1 73:2 76:1 93:1 100:1 108:1 127:1 133:1 135:1 144:1 158:1 188:1 228:1 310:1 341:1 433:1 508:1 535:1 643:1 943:1 990:1 1473:1 1560:1 1611:1 
1 2:1 5:1 7:2 8:1 9:1 10:2 12:2 22:1 28:1 42:2 45:1 48:2 49:1 60:1 70:1 80:1 200:1 208:1 219:1 297:1 405:1 561:1 692:1 1450:1 1761:1 
1 7:1 10:1 12:3 13:2 15:2 30:1 34:1 45:1 48:1 50:1 51:1 70:1 74:2 75:1 97:1 107:1 111:1 117:1 121:1 140:1 149:1 155:1 220:1 263:1 510:1 613:1 693:2 1017:1 1259:1 1394:1 1518:1 1521:1 1595:2 
1 7:1 9:2 10:1 12:2 13:1 22:3 23:1 28:1 30:2 31:1 43:1 47:1 49:1 60:1 62:1 67:1 70:1 72:1 89:1 99:1 102:1 158:1 274:1 324:1 370:1 407:1 497:1 533:1 535:1 772:1 1365:1 1911:1 
1 7:1 8:1 9:2 10:2 13:1 15:2 18:1 23:1 31:1 34:1 62:1 65:1 70:1 89:1 98:1 136:1 141:1 144:1 189:1 217:1 292:1 443:1 492:1 524:1 556:1 576:1 581:1 703:1 1330:1 1895:1 
1 8:2 9:1 12:3 13:2 18:1 22:1 23:2 28:1 30:1 31:1 32:1 47:1 56:1 59:3 70:1 79:1 80:1 105:1 119:1 174:1 188:1 299:1 334:1 348:1 961:2 1062:1 1320:1 1534:1 1642:1 
1 7:3 10:2 12:3 13:1 15:2 31:1 32:1 42:1 43:1 47:1 48:2 51:1 70:1 72:1 93:1 98:1 328:1 398:1 412:1 494:1 1838:1 
1 7:1 8:2 9:2 12:5 13:2 15:1 22:1 31:1 32:1 44:1 50:2 52:1 62:1 70:2 103:1 105:2 106:1 108:2 120:1 121:1 129:1 135:1 158:1 202:1 203:1 204:1 226:1 240:1 256:1 456:1 1079:1 
1 1:1 2:1 12:4 21:1 59:1 65:2 74:3 80:3 157:2 198:2 206:1 335:1 376:3 521:1 594:2 882:1 909:1 952:1 991:1 1103:1 1732:1 1844:1 
1 7:1 9:2 10:1 13:1 15:1 18:2 29:1 31:1 34:2 40:1 43:1 61:1 70:1 75:1 88:2 94:3 129:1 131:1 143:1 192:1 193:1 200:1 481:1 528:2 534:1 769:1 1406:1 1611:1 1898:1 1957:1 
1 7:2 9:5 13:1 31:1 34:1 40:2 60:6 70:1 80:1 97:1 261:1 270:1 384:1 415:6 684:1 1704:2 
1 1:1 2:1 8:1 13:1 15:1 18:1 21:1 34:3 59:1 97:1 113:1 124:1 153:1 225:1 261:1 648:1 699:1 1518:1 
1 7:1 8:1 9:1 10:2 13:2 15:1 18:1 22:1 32:2 44:1 48:1 57:1 63:1 68:1 70:1 75:2 160:1 197:1 230:1 238:1 251:1 319:1 328:1 347:1 359:1 447:1 712:1 814:1 1702:1 
1 7:1 12:1 15:1 34:1 45:1 52:1 63:1 70:2 74:2 113:1 121:1 149:1 210:1 277:1 650:1 665:1 695:1 892:1 1020:1 1521:1 
1 7:1 8:2 9:2 10:1 12:1 13:2 18:1 22:1 23:3 30:1 31:1 32:1 48:1 52:1 55:5 62:1 70:1 73:1 92:1 99:1 106:1 112:1 165:1 166:1 187:1 224:1 226:1 247:1 265:1 281:1 290:1 480:1 1020:1 1304:1 1803:2 
1 1:4 2:4 7:3 21:4 34:3 42:1 70:1 74:3 170:1 225:1 319:1 576:2 
1 1:8 2:7 3:1 5:1 6:4 7:4 8:5 9:2 10:2 11:6 12:2 13:2 15:2 22:2 26:1 30:2 31:2 34:3 40:1 42:2 44:3 50:1 51:1 52:1 58:1 59:1 60:1 66:1 72:1 81:1 84:2 85:1 88:1 94:3 98:1 103:1 108:2 111:1 112:1 113:1 121:1 137:1 144:1 150:1 199:1 202:1 210:1 215:1 220:1 231:1 263:2 270:1 348:1 375:1 454:1 488:1 510:1 587:2 692:1 764:1 778:1 862:1 876:1 1089:1 1525:1 1526:1 1910:1 
1 4:1 5:1 8:1 10:4 13:1 18:1 23:1 28:1 30:1 40:2 44:3 49:1 57:2 59:3 65:1 69:2 70:1 75:1 115:1 144:2 147:1 185:1 230:1 275:1 317:1 386:1 393:1 430:1 564:1 981:1 1746:2 
1 10:2 13:2 15:1 23:1 28:1 42:1 43:1 45:1 49:1 52:1 55:1 70:1 89:1 105:1 127:2 131:1 238:1 267:1 313:1 366:1 455:1 721:1 1470:1 1867:1 
1 7:1 8:2 9:7 13:2 34:1 44:1 48:1 58:1 67:1 70:1 76:1 80:1 162:1 200:1 221:1 230:1 294:1 416:1 442:2 500:1 561:1 654:1 865:1 1065:1 1636:1 1822:1 1882:1 
1 1:4 2:3 3:1 5:1 6:2 7:1 8:3 11:2 22:1 26:1 44:1 71:1 79:1 86:1 111:1 189:1 203:1 280:1 314:1 650:1 1008:1 1171:1 
1 7:1 8:1 13:2 22:1 45:1 63:1 70:1 77:1 149:1 185:1 230:1 263:1 507:1 695:1 863:1 933:1 983:1 1638:1 
1 7:3 8:2 9:1 12:3 13:3 15:1 44:1 55:1 57:2 70:1 71:1 89:1 97:1 106:1 108:2 135:1 149:1 161:1 164:1 225:1 262:1 264:1 288:1 363:1 365:1 367:1 368:1 433:2 1192:2 1337:1 1383:1 1867:2 1883:1 
1 7:2 8:2 12:3 15:1 18:1 23:1 28:3 31:1 32:1 44:1 48:1 49:1 56:1 58:1 60:1 70:3 89:1 91:1 99:1 117:1 141:1 158:1 161:1 170:1 174:1 176:1 203:1 208:1 228:1 238:1 257:1 320:1 340:1 375:1 398:1 654:1 960:1 1048:1 1152:1 1417:1 
1 7:4 10:3 12:3 13:3 18:1 23:3 31:2 48:1 61:1 70:3 115:3 141:1 192:1 193:1 288:1 393:1 430:1 1829:1 
1 7:1 9:2 10:1 13:1 23:1 31:1 68:1 70:1 78:1 89:1 105:1 158:1 208:1 336:1 538:1 871:1 1877:1 
1 7:1 8:1 9:1 10:1 12:4 13:1 15:2 22:1 23:2 28:1 30:1 31:1 32:1 34:1 48:1 49:1 70:1 118:1 119:1 152:1 162:1 238:1 364:1 480:1 501:1 538:1 633:1 712:3 982:1 1644:1 
1 7:2 9:1 10:1 12:3 13:2 23:3 28:1 34:1 49:1 57:1 70:1 72:1 86:1 92:1 101:2 105:1 137:1 163:1 312:1 324:1 345:1 521:1 
1 7:3 8:1 9:1 15:1 23:2 28:3 45:1 47:1 49:1 55:1 60:1 67:1 127:1 136:1 542:1 1133:1 
1 9:2 12:3 13:1 15:1 23:2 28:2 42:1 45:1 51:2 52:1 56:1 64:1 70:1 103:1 112:1 150:1 156:1 163:1 195:1 204:1 224:1 337:1 348:1 369:1 430:1 542:1 581:1 
1 7:2 8:1 9:1 12:2 15:1 18:1 23:3 29:1 31:1 53:3 60:1 66:1 70:1 80:1 84:1 115:1 133:1 141:1 144:1 180:1 207:1 226:1 267:1 368:1 786:1 1447:1 1691:1 
1 7:2 9:1 13:1 34:1 48:2 68:2 70:1 72:1 80:1 84:1 108:1 131:1 152:1 173:1 303:1 324:1 364:1 623:1 1523:1 1908:1 
1 7:1 9:3 12:1 15:1 23:2 31:1 47:1 70:1 80:1 106:1 130:1 151:1 265:1 289:1 388:1 426:1 666:1 681:1 772:1 822:1 1041:1 1120:1 
1 1:12 2:11 3:1 5:2 6:6 7:4 8:2 9:3 10:2 11:8 12:1 13:2 15:5 18:1 26:1 28:1 30:1 32:1 42:1 43:1 44:1 55:2 56:1 62:1 63:1 65:2 67:4 68:2 78:1 79:1 86:1 98:1 99:1 111:1 135:1 183:1 185:2 186:1 200:1 207:1 210:1 220:1 231:1 251:2 268:1 291:2 303:1 398:1 447:1 570:1 591:1 612:1 756:1 795:1 1467:1 
1 7:1 8:3 9:3 10:4 13:2 14:1 18:2 22:2 23:1 34:2 47:2 61:3 63:1 70:1 78:1 183:1 193:1 235:1 241:1 256:1 274:1 462:1 469:1 522:1 629:1 976:2 1025:1 1568:1 1912:1 
1 4:1 5:1 7:3 9:2 10:1 13:3 22:2 29:1 34:1 102:1 134:1 181:1 290:1 324:1 490:1 522:1 823:1 957:1 1017:1 1103:1 
1 7:4 8:3 10:1 12:2 15:2 23:1 30:2 45:2 48:3 50:1 53:1 54:1 65:1 66:1 101:1 108:2 178:1 186:1 238:1 681:1 841:1 1409:1 1811:2 1853:1 
1 1:5 2:5 9:8 10:1 13:2 21:5 34:1 42:1 43:1 141:1 230:2 288:1 314:1 328:1 550:1 689:1 816:1 941:1 1031:1 1248:1 1304:1 1635:1 1637:1 1691:1 
1 1:11 2:9 3:7 4:5 5:6 6:5 7:2 8:4 9:1 10:1 11:2 13:1 15:1 19:1 20:1 22:2 23:2 26:2 34:1 39:1 40:1 41:3 43:1 53:1 54:1 57:1 65:1 67:1 80:1 88:1 94:1 96:2 111:1 116:1 127:1 146:1 148:1 159:2 178:1 186:1 205:1 216:1 222:1 393:2 447:1 501:1 740:1 1143:1 1891:1 1916:1 1920:1 
1 1:27 2:27 6:8 7:2 9:1 16:1 21:11 22:1 34:1 47:1 55:2 60:1 74:3 145:1 148:2 234:2 333:2 360:1 417:1 1102:1 1189:1 1449:1 1544:1 
0.6481678268849624 1:601 2:601 3:304 4:75 5:53 6:271 14:4 17:8 18:1 19:30 20:30 22:1 24:59 25:32 26:7 29:17 34:29 35:42 53:29 54:29 58:1 59:1 82:3 87:8 95:1 104:111 111:1 124:2 144:34 148:3 159:32 182:2 205:5 206:115 222:5 231:136 239:14 289:102 298:8 355:131 413:34 418:31 422:24 451:34 463:3 501:133 528:131 533:103 617:1 632:34 729:34 739:131 765:136 914:34 981:1 1021:131 1065:136 1094:35 1287:221 1467:34 1523:136 1564:102 1565:34 1636:34 1734:34 1782:102 1807:68 1837:133 
0.6481777463869072 1:160 2:153 3:49 4:43 5:49 6:71 7:3 8:11 9:8 11:17 12:1 19:6 21:5 24:1 25:1 29:4 36:13 37:7 38:7 39:6 70:1 81:8 82:1 90:4 95:2 96:4 104:6 124:5 126:22 148:57 159:11 182:1 209:4 219:24 239:1 357:2 399:2 540:1 619:10 622:10 831:4 1102:1 1147:4 1233:1 1580:1 1883:2 
1 12:2 15:4 22:1 23:1 28:1 31:1 34:1 45:4 62:1 63:1 70:1 73:1 105:1 106:1 139:1 189:1 379:1 833:1 1152:1 1289:1 1384:2 
1 7:2 8:1 10:3 12:2 13:2 15:1 45:1 55:1 57:1 70:3 71:1 83:2 89:1 93:1 97:1 108:1 120:1 127:1 163:1 164:1 192:1 297:1 425:1 452:1 474:1 510:1 620:1 693:1 714:1 877:1 
1 7:2 8:3 12:6 15:4 28:2 31:1 47:1 49:1 56:1 62:3 84:1 97:1 106:3 179:4 231:1 275:1 308:1 316:1 329:1 340:1 430:4 581:1 1208:1 1320:1 1447:1 1866:1 
1 9:2 13:1 15:1 22:1 28:3 32:3 51:3 52:1 55:2 69:2 70:1 86:1 89:2 119:1 150:1 171:1 176:1 180:2 287:1 538:1 581:1 595:1 702:1 1414:1 1883:1 
1 7:2 8:1 12:8 13:1 15:1 22:2 23:1 30:1 31:1 32:2 48:1 70:1 85:1 97:1 98:1 99:1 100:1 105:1 106:2 129:1 140:1 158:1 224:1 256:1 326:1 396:1 476:1 579:1 668:1 905:1 1228:1 1281:1 1584:2 
1 7:1 8:1 10:1 12:1 13:3 30:2 42:1 45:1 48:1 69:1 70:1 71:1 73:1 78:2 88:1 89:1 100:1 107:1 164:1 200:1 238:1 247:1 497:1 542:1 647:1 680:1 1101:1 
1 7:1 8:3 9:1 10:1 13:1 15:1 23:2 29:1 30:1 42:1 47:1 67:1 70:1 78:3 84:2 140:1 158:1 183:1 189:1 238:1 254:1 270:1 282:1 309:1 407:1 455:1 488:1 501:1 597:1 1080:1 1280:1 
1 8:2 10:1 13:5 32:3 40:1 42:1 50:1 55:2 58:1 61:1 70:1 78:2 106:1 120:1 141:1 192:1 203:1 230:1 231:1 257:1 288:1 331:1 415:1 436:1 561:1 719:1 740:1 879:1 1724:1 
1 4:1 5:1 7:2 9:3 10:1 12:2 22:1 23:2 31:1 32:1 34:1 51:1 60:1 65:1 70:1 76:1 91:1 117:1 127:1 152:1 202:1 223:1 274:1 312:1 332:1 367:1 427:1 430:1 447:1 522:1 680:1 1061:1 1528:1 1732:1 
1 7:6 10:1 12:4 13:2 23:1 30:1 45:1 48:2 50:1 62:1 63:1 66:1 70:1 71:1 73:1 99:2 105:1 108:1 112:1 180:1 186:1 247:1 289:1 474:1 512:1 648:1 695:1 907:1 
1 7:1 8:1 9:2 10:1 15:2 23:1 29:1 34:2 40:2 45:1 48:1 55:1 58:1 63:1 70:1 76:1 100:1 106:1 112:1 144:1 153:1 166:1 187:1 192:1 200:1 256:1 261:1 372:1 454:1 484:1 493:1 758:1 997:1 1014:2 1315:1 1383:1 1579:1 
1 7:3 8:2 9:2 10:1 12:2 15:1 34:1 44:1 48:4 50:1 59:2 60:1 69:1 70:1 88:1 89:1 105:1 127:1 137:1 158:1 163:1 170:1 178:1 186:1 195:1 309:1 319:1 433:1 447:1 872:1 1179:1 1291:1 1344:1 1982:1 
0.7309814094876741 4:1 5:1 7:5 9:2 10:2 12:2 15:1 18:1 23:3 28:2 31:1 45:2 56:2 65:2 70:1 97:1 106:1 136:1 140:1 144:1 188:1 200:1 203:1 217:1 238:1 308:1 340:1 393:2 492:1 799:1 1005:1 1177:1 1322:1 1373:1 
1 7:2 9:1 10:2 12:2 13:1 23:2 28:1 32:3 34:2 42:1 43:1 48:1 49:1 52:1 53:1 54:1 59:1 70:2 77:1 80:1 92:4 106:1 131:2 153:1 319:1 671:1 712:2 848:1 870:2 1464:1 1703:1 1811:1 
1 7:1 9:2 10:1 13:2 23:3 31:3 44:4 47:1 48:2 55:1 57:1 58:1 59:1 69:1 70:1 76:1 144:1 195:1 203:2 224:1 289:1 369:1 609:1 726:1 920:2 1571:1 
1 7:3 10:3 12:3 13:1 15:2 18:2 23:1 42:1 47:1 57:1 60:1 61:1 70:1 89:1 92:1 127:1 137:1 153:1 165:1 203:1 336:1 405:1 497:1 701:1 732:1 768:1 1070:1 1354:1 1896:1 1919:1 
1 7:1 8:1 9:4 10:3 12:3 13:2 15:1 18:1 22:1 31:1 34:1 50:1 52:1 58:1 62:1 70:1 73:1 107:1 135:1 147:1 167:1 173:1 224:2 313:1 535:1 963:1 988:1 1027:1 1388:1 1841:1 
1 7:1 9:2 10:1 13:1 15:2 42:1 44:2 47:1 48:1 51:1 66:1 70:1 94:1 252:1 396:1 434:1 463:1 641:1 712:1 732:1 862:1 916:1 1076:1 
1 7:1 8:1 9:4 10:1 12:3 13:4 15:2 18:1 23:1 28:1 31:1 42:1 44:1 45:1 52:1 60:1 64:2 67:1 70:1 73:1 105:1 115:1 119:1 127:1 139:1 144:1 153:1 179:1 180:1 221:1 224:1 240:1 303:1 392:1 443:1 502:1 680:1 768:1 992:1 1199:1 
1 7:1 10:1 15:1 28:2 32:1 34:2 40:1 45:1 47:1 48:1 50:1 55:3 56:1 57:1 67:1 70:1 73:1 85:1 97:1 144:1 155:1 161:1 195:1 208:1 279:1 328:1 340:1 417:1 444:1 914:1 
1 7:1 8:1 9:3 10:4 12:5 13:1 23:1 32:1 50:1 60:1 61:1 70:1 73:1 123:1 129:1 156:1 164:1 207:1 265:1 311:1 336:1 420:1 528:1 561:1 628:1 651:1 773:1 1027:1 
1 7:1 8:2 9:1 10:2 12:2 13:2 15:3 23:1 28:1 34:1 42:1 44:1 45:1 48:1 66:1 67:1 70:4 76:1 106:1 112:1 139:1 145:1 150:1 158:1 253:1 425:1 654:1 666:1 740:1 1273:1 1449:1 1514:1 
1 7:1 8:2 9:2 10:2 12:4 13:1 15:3 22:1 23:1 28:3 30:2 31:2 34:1 42:1 47:1 49:2 50:1 62:1 70:1 84:2 86:1 105:1 108:1 115:1 116:1 150:1 161:1 170:1 185:1 228:1 240:1 248:1 282:1 396:1 432:1 436:2 641:1 1625:1 1662:1 
1 7:2 8:1 9:2 10:1 12:3 22:2 23:2 28:2 34:1 42:2 52:1 56:1 63:1 70:1 80:1 100:1 103:1 106:1 108:1 133:1 166:1 217:1 228:1 324:1 386:1 436:2 500:1 1592:1 1936:1 
1 7:1 9:3 10:2 12:2 15:1 23:4 28:1 31:1 44:2 52:1 56:1 59:1 65:1 70:1 72:1 80:1 105:1 111:1 127:2 133:1 167:1 186:1 187:1 188:1 345:1 580:1 822:1 961:1 
1 7:1 9:1 13:2 15:2 43:1 44:1 57:1 58:2 67:1 70:1 92:1 97:1 112:1 123:1 147:1 149:1 150:2 262:1 285:1 291:2 356:1 521:1 1811:1 1869:1 
1 7:2 8:3 10:1 12:2 13:1 23:1 28:2 43:1 44:1 45:1 47:1 48:1 50:2 52:1 56:1 66:1 70:2 73:1 85:1 88:1 97:1 99:1 117:1 141:1 174:1 188:1 226:1 228:1 238:1 288:1 295:1 452:1 643:1 657:1 768:1 802:1 1350:1 1459:1 1461:1 
1 7:1 8:3 9:2 10:1 12:3 13:1 15:1 22:1 23:1 28:2 32:1 34:1 44:1 48:1 49:1 50:1 52:1 57:1 63:1 70:1 86:1 106:1 120:1 131:1 144:1 245:1 256:1 291:1 309:1 359:1 595:1 602:1 618:1 810:1 1085:1 1096:1 1316:1 1582:1 1811:1 
1 7:1 8:2 9:2 12:1 16:2 22:1 32:1 42:1 43:2 59:1 63:1 64:1 70:1 89:1 116:1 123:1 127:1 220:1 221:1 230:2 276:1 308:1 1490:1 
1 7:3 8:1 10:4 12:4 13:1 15:2 22:1 23:1 28:1 31:1 50:1 56:1 70:1 77:1 84:1 108:1 162:1 186:1 203:1 221:1 250:1 261:1 292:1 340:1 341:1 712:1 724:1 961:1 
1 7:1 9:1 10:2 12:2 15:1 18:1 28:1 31:1 45:1 48:1 51:2 56:1 70:1 88:1 94:1 150:1 157:1 179:1 252:1 262:1 293:1 340:1 428:1 606:1 684:1 807:1 1060:1 1142:1 1507:1 1713:1 
1 7:1 9:2 16:1 22:1 31:1 34:1 40:1 44:1 59:1 60:1 67:1 75:1 88:1 92:1 94:1 120:1 149:1 152:1 156:1 215:1 230:1 287:1 870:1 1017:1 1521:1 
1 7:2 8:2 9:3 12:2 13:1 30:1 32:1 40:1 42:1 43:1 45:2 51:1 63:2 70:1 73:1 78:2 120:1 193:1 201:1 346:1 561:1 904:1 964:1 1152:1 1507:1 
1 7:3 8:2 9:1 15:1 18:2 28:3 30:1 31:1 32:2 44:2 49:2 55:2 59:1 70:1 77:2 106:1 108:1 118:1 150:1 228:1 256:1 286:1 291:1 310:1 319:1 363:1 367:1 426:1 497:1 511:1 729:1 765:1 1341:1 1401:1 
1 10:3 13:1 15:2 18:2 31:1 34:1 44:1 67:1 70:1 79:1 91:1 97:1 106:1 113:1 134:1 155:1 164:1 286:1 313:1 322:1 452:1 615:1 616:1 742:1 1020:1 1159:2 1748:1 
1 7:6 8:1 10:1 12:3 13:1 15:2 18:2 23:1 31:2 48:1 58:1 66:1 72:1 80:2 115:2 143:1 230:1 231:1 328:1 479:1 524:1 801:1 964:2 1245:1 1361:1 1416:1 1517:1 
1 7:3 8:1 9:1 12:1 15:1 16:1 18:1 23:1 34:1 43:1 45:2 48:1 51:1 53:1 54:2 66:1 69:1 91:1 112:1 127:1 131:2 178:1 184:1 194:1 200:1 236:1 289:1 907:1 1257:1 1312:1 1389:1 1409:1 1870:1 
1 7:1 9:2 10:5 12:3 15:1 22:1 23:2 28:1 30:1 34:1 42:1 56:1 60:1 64:1 67:1 70:1 80:1 85:1 131:1 133:1 140:1 163:1 174:1 188:1 221:1 224:1 237:1 252:1 319:2 349:1 477:1 1146:1 1923:1 
1 7:3 8:2 9:1 10:1 12:2 13:2 31:1 40:1 46:1 48:1 75:1 76:1 187:1 220:1 230:1 328:1 751:1 1392:1 
1 7:3 8:1 13:2 15:3 22:2 32:1 42:2 43:1 45:1 47:1 48:1 50:1 55:3 62:1 69:1 70:1 76:1 79:1 84:1 93:1 127:1 141:1 144:1 226:1 277:1 288:1 328:1 379:1 398:1 419:1 709:1 863:1 
1 7:2 8:1 9:1 10:1 13:1 14:2 40:1 42:1 74:1 120:1 151:1 185:1 294:1 334:1 392:1 1008:1 1291:1 1959:1 
1 7:3 12:1 13:1 15:1 28:1 31:1 34:2 53:1 54:1 60:1 62:1 63:1 83:1 85:1 231:1 306:1 595:1 648:1 785:1 931:1 1812:1 1887:1 
1 7:3 8:1 9:3 12:1 13:2 34:1 53:1 54:1 70:2 75:1 94:1 107:1 243:1 244:1 257:1 324:1 363:1 396:3 1085:1 
1 7:1 8:1 9:1 12:4 13:2 22:1 32:1 48:1 57:1 61:1 64:1 70:2 71:1 108:1 112:1 130:1 133:1 193:1 282:1 311:1 319:1 359:1 1017:1 1834:1 
1 9:3 10:2 12:4 13:1 28:2 31:2 32:1 40:2 49:2 53:1 54:1 57:1 58:2 70:1 73:3 77:1 84:1 91:1 105:1 115:1 133:1 144:2 147:1 164:1 167:1 178:1 239:1 243:1 352:1 692:1 719:1 929:1 1066:1 
1 7:2 8:1 9:1 10:2 12:2 13:3 15:2 23:1 28:1 29:1 34:2 44:1 59:1 66:1 70:1 71:1 75:1 119:1 127:1 166:1 181:1 190:1 198:1 211:2 221:1 260:1 299:1 533:1 620:1 920:1 1023:1 
1 4:1 5:2 7:3 9:3 10:1 12:2 13:1 15:1 22:1 29:1 32:1 45:1 51:3 52:1 53:1 54:1 75:1 77:1 80:1 81:1 129:1 131:1 217:1 224:1 367:1 419:1 448:1 563:1 937:1 1118:1 
1 7:2 10:3 13:1 15:2 23:1 30:2 32:1 43:1 45:1 55:2 57:1 58:1 70:1 71:1 79:1 113:1 115:1 135:1 153:1 193:1 221:1 238:1 241:2 247:1 256:1 257:1 288:1 465:1 477:1 607:1 1048:1 
1 7:2 10:1 12:5 13:1 22:1 23:2 28:2 30:1 31:1 34:2 40:2 50:1 52:1 56:1 57:1 58:1 65:1 70:1 74:2 76:1 86:1 89:1 106:1 153:1 178:1 181:1 188:1 227:1 231:1 276:1 393:1 447:1 670:1 693:1 699:1 1749:1 
1 7:1 9:3 10:2 12:2 13:1 18:1 23:1 28:3 31:3 43:1 49:1 52:2 56:1 69:1 70:3 71:2 93:2 129:1 131:1 144:1 158:1 181:1 190:1 204:1 217:1 245:1 289:1 916:1 
1 7:4 10:2 12:2 13:3 15:2 23:1 28:1 31:3 42:1 48:1 49:1 61:1 68:1 78:1 111:1 135:1 158:1 174:1 189:1 192:2 512:2 533:1 612:1 752:1 776:1 1023:1 1078:1 
1 7:2 9:3 10:4 13:1 15:1 22:2 28:3 30:2 31:2 32:1 34:1 43:1 49:2 55:3 70:1 72:2 85:1 93:1 130:1 139:1 156:1 169:1 195:1 215:1 300:1 466:1 477:1 580:1 1326:1 1523:1 1799:1 1838:1 
1 7:2 9:2 13:5 18:1 22:1 23:3 29:1 31:1 55:1 58:1 123:1 127:1 185:1 426:1 494:1 758:1 1586:1 
1 7:3 12:3 13:2 15:1 23:1 32:1 42:1 47:1 68:1 69:1 70:1 71:1 101:1 127:1 141:1 150:1 241:1 291:1 1443:1 1490:1 1670:1 
1 7:5 8:1 9:2 10:3 12:1 15:1 23:4 31:1 32:2 34:1 44:2 55:2 61:2 66:1 70:2 80:1 88:1 101:1 119:1 127:3 141:1 151:1 152:1 155:1 157:1 158:1 191:1 192:1 198:1 264:1 309:1 314:2 377:2 388:1 400:1 411:1 460:1 462:1 469:1 566:1 734:1 860:1 1067:1 1560:2 
1 9:4 10:1 15:1 18:1 22:2 23:1 28:1 30:2 60:2 64:2 70:1 92:1 136:1 158:1 223:1 249:1 311:1 424:1 494:2 653:1 684:1 761:1 1457:1 1740:1 1856:1 1907:1 
1 7:2 9:1 13:1 23:1 32:3 47:2 55:1 57:1 66:1 70:2 72:1 78:2 85:1 115:1 152:1 174:1 240:1 266:1 297:1 366:1 396:1 497:1 514:1 712:2 1228:2 
1 8:1 9:2 10:1 12:2 13:2 15:1 22:1 23:1 28:1 30:1 34:1 42:1 45:1 56:1 59:1 62:1 68:1 70:2 73:1 89:1 102:1 127:1 170:1 202:1 247:1 286:1 339:1 437:1 533:1 660:1 987:1 1312:1 1414:1 1778:1 
1 7:2 9:3 10:2 12:3 13:3 15:1 18:1 23:2 28:3 43:1 48:2 49:1 65:1 70:1 77:1 93:1 127:1 139:1 157:1 228:1 247:1 291:1 309:1 319:1 990:1 1443:1 1490:1 
1 9:2 10:2 13:1 18:1 22:3 53:1 54:1 60:2 91:2 435:1 1959:1 
1 7:1 9:2 10:2 12:3 18:2 30:1 31:1 43:1 60:1 70:1 120:1 131:1 133:1 134:1 245:1 261:1 309:1 507:1 527:1 607:1 715:1 723:1 841:1 937:1 1416:1 1544:1 
1 7:5 9:3 13:1 15:3 23:1 64:4 92:2 98:1 112:4 123:1 131:1 184:2 241:2 247:3 251:1 270:1 319:1 329:1 
1 7:2 8:1 10:2 12:1 13:1 15:2 18:1 23:2 32:2 34:1 43:1 53:1 54:1 67:1 70:1 76:1 80:1 92:1 100:1 161:1 217:1 230:1 276:1 314:1 428:1 452:1 556:1 750:1 930:1 962:1 990:1 1632:1 
1 7:3 8:3 9:1 12:1 13:3 22:1 23:2 31:1 43:1 44:1 59:1 63:1 67:1 70:1 80:1 93:1 103:1 105:1 106:1 111:1 118:1 144:1 170:1 240:1 291:1 400:1 501:1 868:1 1679:1 
1 7:1 9:5 10:3 18:1 22:3 30:1 32:1 40:1 53:1 54:1 60:1 62:2 70:1 158:1 171:1 190:1 200:1 206:1 251:1 834:1 1179:1 1272:2 1740:1 1883:1 
1 7:2 10:1 12:3 13:1 15:2 18:1 23:1 32:2 43:1 59:4 65:1 77:1 106:1 127:2 150:1 200:1 230:1 241:1 291:1 319:1 376:1 497:1 643:1 
1 7:1 10:4 12:2 13:2 15:1 22:2 28:1 40:1 48:1 63:1 70:1 86:1 165:3 179:1 195:1 231:1 306:1 309:2 377:1 499:1 614:1 670:1 832:1 1121:1 1712:1 
1 7:2 10:1 12:1 43:1 45:2 52:1 58:1 64:1 83:1 84:1 112:2 115:1 117:1 119:1 121:1 124:1 157:1 176:1 195:1 207:1 240:1 313:1 333:2 627:1 725:1 863:1 939:1 
1 10:1 15:2 22:1 23:2 44:2 48:1 57:1 62:1 69:2 70:1 89:3 119:2 147:2 157:6 202:2 208:1 309:1 316:1 328:1 384:1 475:1 588:1 651:1 1209:1 1324:1 
1 7:3 9:3 12:2 13:2 15:1 23:2 30:1 43:1 57:1 69:1 70:1 80:1 89:2 93:1 106:1 127:1 160:1 165:1 166:1 178:1 186:1 187:2 190:1 191:1 275:1 289:1 328:1 
1 7:1 8:2 9:1 10:3 13:2 15:2 18:1 22:1 42:1 44:3 50:1 51:1 58:1 61:2 70:1 89:1 94:1 127:1 158:2 171:1 507:1 513:1 633:1 654:1 876:2 1459:1 
1 7:3 8:1 9:2 13:2 15:2 29:1 40:1 50:1 53:1 54:1 73:1 86:1 102:1 115:1 174:1 201:1 230:1 236:1 238:1 251:1 308:1 328:1 333:1 356:1 364:1 398:1 492:1 500:1 501:1 736:1 806:1 868:1 1846:1 
1 7:1 9:3 10:2 12:4 13:2 16:1 23:2 30:1 32:1 34:1 40:1 58:1 63:1 64:2 70:1 86:1 107:1 115:1 120:1 151:1 211:1 256:1 282:1 319:1 324:1 402:1 607:1 1429:1 1864:1 1944:1 
1 7:4 8:3 10:2 13:2 23:1 34:1 47:1 48:2 70:1 162:1 197:2 235:1 241:4 275:1 294:1 349:1 502:1 610:1 679:1 723:7 1085:1 
0.6229711741889287 1:126 2:126 3:75 4:3 5:1 6:82 8:1 10:2 11:1 12:2 13:2 15:2 16:2 18:1 21:126 22:1 28:2 29:1 42:3 43:1 47:1 49:2 51:1 60:1 70:21 74:1 76:1 97:1 107:1 121:1 123:1 124:13 141:2 144:43 151:3 165:1 185:12 206:58 232:6 276:1 335:1 339:1 360:1 374:1 399:1 401:1 476:2 484:1 490:1 532:5 540:13 576:12 594:1 597:1 613:1 641:1 648:1 666:1 699:1 864:1 875:3 959:1 1019:2 1026:1 1057:22 1083:1 1103:1 1130:1 1143:23 1246:9 1305:6 1330:3 1345:1 1369:19 1518:4 1575:1 1651:2 1666:16 1824:2 1865:12 
0.3613988896158853 1:128 2:128 7:7 9:143 15:5 17:1 21:128 28:5 29:4 31:5 34:2 43:5 49:5 58:5 74:75 85:5 124:28 151:2 162:5 182:74 185:1 206:35 232:16 399:2 476:2 490:1 576:2 772:1 907:5 1057:18 1067:5 1083:19 1158:1 1246:25 1248:5 1310:1 1369:4 1518:1 1617:1 1666:9 1865:11 1983:5 
1 7:1 8:1 13:2 15:2 18:2 31:1 45:2 48:1 53:1 54:1 58:2 67:1 68:1 70:1 115:1 162:1 238:1 239:1 260:1 291:1 376:1 629:1 811:1 843:1 905:1 974:1 1794:1 1902:1 
1 7:2 10:1 13:3 18:1 28:1 32:2 34:1 45:1 55:1 67:2 84:1 91:1 101:1 131:1 140:1 228:1 270:1 291:1 600:1 643:1 742:1 1036:1 1132:1 1337:1 1872:1 
1 7:2 10:1 12:1 13:2 18:3 28:1 31:1 32:1 40:1 44:1 45:1 49:1 57:1 60:1 64:1 66:1 69:1 70:3 73:1 84:1 88:1 92:1 98:1 155:1 192:1 194:1 207:1 220:1 404:1 428:1 542:1 719:1 801:1 832:1 843:1 877:1 925:1 1320:1 1632:1 
1 7:3 9:3 12:2 13:2 15:1 22:1 23:2 32:3 57:3 58:1 64:2 70:1 71:1 72:1 106:1 112:1 130:1 137:1 143:1 203:1 223:1 238:1 260:1 262:2 284:1 307:1 319:1 396:1 548:1 748:1 881:1 953:1 992:1 
1 7:1 8:2 9:2 10:2 12:3 22:1 23:1 28:2 31:1 34:1 48:1 52:1 56:1 63:1 70:1 73:1 76:1 79:1 97:1 152:1 169:1 187:1 188:1 197:1 221:1 235:1 307:1 367:1 477:1 595:1 623:1 651:1 768:1 1429:1 1656:1 
1 7:4 12:1 13:1 15:2 18:1 22:2 23:1 32:1 42:1 43:1 44:1 45:1 57:1 70:1 77:2 88:1 92:1 106:1 150:1 158:1 248:1 267:1 316:1 452:1 741:1 750:1 1275:1 1447:1 1486:1 
1 7:5 8:1 10:1 12:3 13:2 15:3 18:1 23:1 28:1 31:1 44:1 57:1 71:1 74:1 93:1 127:1 139:1 149:1 155:1 158:1 202:1 208:1 215:1 242:1 328:1 633:1 693:1 695:1 785:1 875:1 1020:1 1067:1 
1 7:3 8:1 9:2 10:3 12:3 15:1 23:2 29:1 30:1 47:1 51:1 63:1 85:1 93:1 99:1 150:1 233:1 265:1 272:1 316:1 394:1 495:1 513:1 651:1 663:1 684:1 1292:1 1359:1 1435:1 1550:1 
1 5:1 7:1 9:3 10:4 12:3 13:1 15:1 18:1 28:1 29:1 34:1 43:1 49:1 58:1 62:2 64:2 67:1 70:1 86:1 92:1 99:1 100:1 112:2 117:2 121:1 129:1 137:1 254:1 280:1 359:1 533:1 739:1 761:1 918:1 932:2 1378:1 1469:1 
1 7:3 8:2 10:1 12:2 13:1 15:1 18:1 23:3 29:1 34:1 50:1 58:1 60:2 62:1 63:1 70:1 99:1 112:1 137:2 141:1 144:1 155:1 169:1 395:1 607:1 615:1 1436:1 
1 4:1 5:1 7:4 9:2 12:1 13:2 15:2 18:1 23:1 30:1 40:1 42:1 44:2 45:1 64:2 67:1 84:1 101:1 112:1 143:1 157:2 199:1 203:1 225:1 263:1 348:1 371:1 493:2 847:2 924:1 1003:1 1411:1 1459:1 1525:1 1611:1 1708:1 1818:1 1921:1 
1 7:3 10:2 12:3 13:1 15:3 40:1 42:1 47:1 50:1 62:1 76:1 77:2 86:1 89:1 102:1 121:1 127:1 129:1 133:1 136:1 150:1 158:1 164:1 178:1 248:1 294:1 360:1 367:1 407:1 811:1 1023:2 1356:1 
1 7:1 9:1 10:2 12:3 13:1 15:1 23:2 30:1 32:1 50:2 65:1 70:2 71:1 100:1 106:1 108:2 119:1 141:2 167:1 283:1 413:1 905:1 990:1 1047:1 1150:1 1298:1 1627:1 1815:1 
1 7:1 8:1 9:3 10:1 12:1 13:2 15:2 18:2 23:1 28:2 31:1 40:1 45:1 49:2 57:1 64:2 70:2 72:2 76:1 92:1 97:1 156:1 157:1 164:1 195:2 201:1 238:1 262:1 417:1 493:1 542:1 705:1 843:1 990:1 1037:1 1735:1 
1 7:4 8:1 9:4 10:1 12:3 13:1 15:1 18:1 22:1 23:2 28:1 32:3 43:1 45:1 56:1 58:1 80:2 106:1 118:1 127:1 167:1 178:2 188:1 192:1 230:1 291:2 307:1 313:1 357:1 1902:1 
1 7:2 9:1 10:1 12:1 13:1 15:1 22:1 32:1 42:1 44:2 47:1 48:1 100:1 165:1 352:1 578:1 772:1 1659:1 1818:1 
1 7:3 13:1 18:1 32:2 42:1 45:1 55:5 57:1 68:1 70:1 78:1 106:1 108:2 115:1 124:1 143:1 156:1 201:1 247:1 271:1 377:1 434:1 500:1 533:1 751:1 806:1 1007:1 1579:1 
1 7:1 8:1 10:1 13:2 15:1 30:1 32:1 40:2 48:2 55:1 70:1 78:2 89:1 102:1 111:1 120:1 124:1 170:1 189:1 232:1 405:1 645:1 651:1 791:1 854:1 904:1 
1 7:1 8:1 9:1 10:1 13:3 15:2 18:1 23:1 30:1 32:1 52:1 57:1 70:1 72:1 79:2 146:1 153:1 158:1 170:2 221:1 334:1 413:1 419:1 807:1 934:1 1763:1 1818:1 
1 7:1 8:2 9:1 12:2 13:2 15:1 23:1 28:2 30:2 31:1 34:1 44:1 49:1 52:1 56:1 62:1 68:1 70:1 78:2 106:1 123:1 141:1 255:1 282:1 290:1 340:1 524:1 592:1 620:1 712:1 801:1 860:1 1184:1 
1 7:2 8:2 9:1 12:1 13:3 18:1 28:1 34:1 44:1 47:1 56:1 63:1 67:1 70:1 72:1 77:1 78:1 115:1 163:1 183:1 187:1 273:1 340:1 394:1 413:1 432:1 504:1 577:1 1514:1 1906:2 
1 7:2 8:3 10:3 13:2 15:1 18:2 22:1 23:3 47:1 48:1 52:1 70:1 76:1 100:1 108:1 137:2 501:1 614:1 619:1 675:1 1128:1 
1 7:1 9:3 10:2 18:1 22:1 28:2 30:1 34:1 44:1 49:2 53:1 54:1 61:1 62:1 67:1 70:2 71:1 137:1 147:2 184:1 231:1 252:1 286:1 311:1 315:1 347:1 620:2 640:2 785:1 1600:1 1955:1 
1 7:1 8:3 9:2 13:3 15:1 18:2 32:1 42:1 43:1 44:1 55:2 57:1 66:1 70:1 93:1 98:1 103:1 105:1 119:2 134:1 144:1 199:1 215:1 291:1 454:1 591:1 763:1 876:1 948:1 1431:1 1614:1 1670:1 
1 7:2 8:1 12:1 15:2 18:3 32:1 43:1 45:1 58:1 67:1 70:1 71:1 77:1 92:1 93:2 98:1 112:1 137:1 141:1 242:1 331:1 462:1 469:1 625:1 680:1 742:1 1084:1 1139:1 1232:1 
1 7:5 10:1 13:4 15:2 32:1 42:1 45:1 55:4 58:1 61:2 70:1 130:3 161:2 169:1 190:1 192:3 199:1 231:1 245:1 382:1 384:2 396:2 433:1 436:1 776:1 907:1 
1 7:3 9:1 10:3 15:1 18:2 28:1 30:1 31:1 40:1 43:1 100:1 108:1 120:2 564:1 636:1 669:1 823:1 1374:2 1460:1 
1 4:1 5:1 7:2 9:1 10:1 12:1 13:1 15:2 22:1 23:2 28:2 31:1 44:2 52:1 56:1 57:1 60:1 70:1 80:1 83:1 88:1 133:1 135:1 144:1 150:1 161:1 176:1 239:1 244:1 289:1 315:1 320:1 328:1 337:1 382:1 388:1 1320:1 1399:1 1486:1 
1 7:3 10:3 13:3 15:1 28:1 31:1 42:1 45:1 47:1 49:1 55:3 61:1 78:1 92:1 164:2 231:1 329:1 494:1 607:2 745:1 753:1 854:1 936:1 1444:1 
1 7:3 8:4 9:1 10:1 12:5 15:1 22:1 23:1 31:2 71:2 76:1 80:1 106:2 107:2 178:1 184:1 221:1 224:1 226:1 315:1 393:2 916:1 1048:1 
1 7:3 8:2 9:2 10:1 13:2 15:1 18:1 23:2 28:1 30:1 31:3 32:2 34:1 42:1 45:1 47:1 49:1 51:1 53:1 54:1 55:6 59:1 63:1 70:1 71:1 86:1 94:1 112:1 115:1 129:1 130:1 178:1 180:1 268:1 297:2 329:1 364:1 395:1 462:1 469:1 702:1 712:1 854:1 904:1 1106:1 1750:2 
1 7:3 8:1 10:1 12:2 13:2 23:2 28:1 32:1 40:3 52:1 64:1 70:1 78:1 92:2 98:1 112:1 118:1 137:1 139:1 152:1 170:1 181:1 185:2 187:1 189:1 200:1 303:1 514:1 783:1 962:1 1355:1 1636:2 
1 7:1 9:3 10:1 12:2 13:1 15:1 22:1 44:1 49:1 50:1 51:1 60:2 70:1 73:1 85:1 86:1 93:1 103:1 117:1 171:1 215:1 222:1 252:1 313:1 316:1 320:1 432:1 474:1 477:1 493:1 633:1 718:1 1025:1 1259:1 1532:1 1883:1 1959:2 
1 7:1 8:1 10:1 12:4 13:3 23:1 28:2 31:1 32:1 34:1 45:2 57:1 70:1 71:1 73:1 97:1 108:1 113:1 179:1 201:1 228:2 229:1 231:2 251:2 320:1 341:1 364:1 435:1 480:1 607:1 990:1 1748:1 
1 9:2 13:3 28:1 29:1 40:5 49:1 70:1 71:1 75:1 89:4 275:1 620:1 1099:1 1144:1 1590:1 1819:1 
1 4:1 5:1 7:3 8:3 12:4 13:4 22:1 23:1 28:1 48:3 56:1 64:1 70:1 92:1 112:1 133:1 137:2 226:1 238:2 240:1 284:1 332:1 445:1 511:1 528:1 644:1 775:1 1128:1 1285:1 
1 7:2 9:1 10:1 12:4 13:2 22:1 28:1 29:1 30:1 31:3 45:1 51:1 57:1 58:1 70:1 100:1 106:1 123:1 134:1 164:1 206:1 224:1 230:2 231:1 242:1 494:1 595:1 811:1 905:1 964:1 1730:1 
1 1:3 2:3 7:5 9:1 13:1 21:3 23:3 32:1 34:1 63:1 78:2 80:1 86:1 141:1 232:1 235:2 285:2 306:1 307:1 323:1 476:1 672:1 723:1 728:1 962:1 1561:1 1574:1 1587:1 1650:1 
1 7:3 8:2 9:2 10:1 12:1 13:3 18:2 22:1 23:1 34:1 42:1 44:1 48:1 60:1 72:1 83:1 88:1 119:1 127:1 136:1 197:1 230:1 322:1 359:1 426:1 437:1 501:1 810:1 1434:1 1451:1 1560:1 
1 7:3 8:3 9:2 10:2 12:2 13:2 18:2 23:1 28:2 43:1 49:1 56:1 63:1 73:2 78:2 112:1 204:1 341:1 374:1 432:1 443:1 542:2 990:1 1101:1 1488:1 
1 7:1 8:2 10:2 12:1 13:1 15:1 18:2 22:2 23:1 31:2 34:1 42:1 47:1 61:1 69:1 70:1 88:1 94:1 144:1 165:1 178:2 186:2 200:1 694:1 719:1 904:1 916:1 1089:1 1355:1 
1 7:4 8:1 23:1 31:2 34:1 44:3 52:1 55:3 57:1 58:1 63:1 70:4 72:1 75:1 93:1 111:1 119:1 127:1 129:1 174:1 178:1 184:1 218:1 243:2 273:1 297:1 329:1 501:2 574:1 580:1 607:1 1585:1 
1 7:1 8:1 10:4 12:2 13:1 15:1 18:1 28:1 34:1 43:1 48:1 49:1 69:1 70:1 73:1 93:1 203:1 221:1 238:2 258:1 332:1 380:1 398:1 615:1 676:1 912:1 1273:1 1291:1 
1 7:4 8:1 9:3 13:1 15:1 22:1 28:1 40:2 48:1 49:1 52:1 53:1 54:1 64:1 75:1 97:1 111:1 136:1 137:1 144:1 153:1 161:1 163:1 180:1 187:1 258:1 289:1 448:1 463:2 626:1 640:1 769:1 780:1 1403:1 1635:1 
1 8:3 9:1 15:1 18:3 28:4 43:1 44:3 49:1 52:1 57:1 60:1 70:2 76:1 86:1 89:1 91:2 94:1 106:1 155:1 191:1 236:1 253:1 309:1 337:1 394:1 801:1 895:1 952:1 1257:1 1280:1 
1 7:1 9:2 10:2 13:1 15:1 18:1 30:1 32:1 34:1 40:1 42:1 51:1 53:1 54:1 60:1 62:2 70:2 102:1 120:2 131:1 164:1 231:1 275:1 338:1 669:1 1272:1 1648:1 1819:1 
1 7:4 8:2 9:1 12:5 13:1 23:3 28:1 31:1 43:1 48:1 52:1 56:1 61:1 63:1 65:1 67:1 70:1 80:1 100:1 105:1 141:1 157:1 162:1 186:1 336:1 435:3 450:1 702:1 841:1 1063:1 1134:1 1227:1 
1 7:2 12:5 15:1 22:1 23:2 31:3 51:2 62:1 65:1 86:1 100:1 103:1 121:1 157:4 185:1 191:1 231:1 251:2 254:3 348:1 569:1 599:1 607:1 661:1 751:1 832:1 1279:1 1912:1 
1 7:4 8:1 9:3 12:1 13:2 28:2 31:1 34:1 42:1 44:2 50:1 51:2 63:1 73:1 88:2 91:2 98:2 105:1 108:2 135:1 166:1 228:2 230:1 232:1 235:1 238:1 256:1 265:1 291:2 309:1 313:1 375:1 387:1 394:1 530:1 600:1 735:1 1507:1 
1 8:3 9:2 10:1 15:1 22:1 30:1 43:1 45:2 61:1 64:2 70:1 72:1 97:1 117:1 121:1 178:1 193:1 210:1 211:1 247:1 248:1 286:1 436:1 603:1 1288:1 
1 10:1 12:1 13:2 23:1 32:2 43:1 45:4 66:1 69:1 70:1 137:1 217:1 226:1 247:1 327:1 370:1 412:1 501:1 640:2 927:1 1883:1 
1 4:1 5:1 7:1 8:1 12:2 13:1 15:1 22:1 29:1 32:2 34:1 48:2 51:2 52:1 70:1 75:1 77:1 79:1 93:1 97:1 99:1 102:1 113:1 150:1 203:1 215:1 256:1 277:1 291:1 312:1 359:1 904:1 1075:1 1585:1 1637:1 
1 1:4 2:4 8:2 9:4 10:1 13:1 18:1 21:4 34:1 42:1 60:1 62:1 66:1 85:1 113:1 124:1 130:1 144:1 180:1 210:1 276:1 360:1 426:1 475:1 532:1 713:1 741:1 1001:1 1142:1 1349:1 
1 7:3 8:1 10:1 12:1 13:1 23:1 34:3 40:2 42:1 57:3 58:1 60:1 64:1 70:1 88:1 92:1 93:1 102:1 106:1 123:1 130:1 137:2 141:1 144:1 242:2 749:1 819:1 1111:1 1406:1 1691:1 1907:1 
1 7:3 8:1 9:2 10:2 15:1 18:1 23:3 30:1 31:1 32:1 45:2 65:1 131:1 137:1 176:1 252:1 410:1 501:1 591:1 723:1 814:1 815:1 847:1 1085:1 1251:1 1412:1 1756:1 
0.3522099142160573 7:2 8:1 9:2 10:3 13:1 18:1 22:1 28:2 29:1 31:2 44:2 48:1 49:2 50:1 53:1 54:1 57:1 59:2 70:1 75:1 77:1 80:1 88:1 134:1 144:2 155:1 189:1 197:1 201:1 207:1 231:1 308:1 367:1 425:1 500:1 644:1 1238:1 1747:1 
1 8:1 10:2 13:3 15:2 18:1 32:1 34:1 43:1 55:2 59:2 67:1 70:1 93:1 106:1 127:2 135:1 144:1 153:1 174:1 187:1 192:1 231:1 289:1 314:1 442:1 763:1 854:1 916:1 1276:1 1565:1 
1 1:4 2:4 8:1 9:1 12:1 13:1 21:4 22:1 23:1 30:1 42:1 53:1 54:1 60:1 80:1 208:1 230:1 252:1 306:1 575:2 983:1 1464:1 1544:1 
1 7:4 8:1 9:1 10:1 12:3 13:4 18:1 22:1 28:1 32:2 49:1 50:1 65:2 69:1 70:1 81:1 193:1 226:1 238:1 319:1 393:1 428:1 430:1 607:1 860:1 1347:1 1373:1 
1 7:1 8:2 9:2 12:1 13:1 18:1 22:1 30:1 40:3 58:1 70:1 72:1 76:1 83:1 89:1 115:1 118:1 198:1 211:1 241:1 315:1 413:1 512:1 518:1 766:1 804:1 899:4 
1 4:1 5:1 7:2 8:1 9:2 10:2 12:2 15:1 23:2 34:5 65:1 70:1 149:1 152:1 197:1 294:1 380:1 411:1 447:1 454:1 481:1 932:1 990:1 1271:1 1419:1 1632:1 
1 7:1 9:1 10:2 12:1 13:2 15:1 34:1 48:2 58:1 70:1 79:1 86:1 118:1 124:1 178:1 200:1 238:1 248:1 643:1 1022:1 1811:1 
1 7:1 9:1 10:2 13:2 15:2 22:1 40:1 43:1 45:1 60:1 65:1 70:1 73:1 101:1 118:1 162:1 171:1 181:1 364:1 555:1 1311:1 1856:1 1975:1 
1 7:1 9:2 10:2 13:4 18:2 34:1 43:1 48:1 55:2 70:1 93:1 101:1 130:1 223:1 237:1 267:1 889:1 1911:1 
1 7:1 8:1 10:1 13:1 22:1 23:2 28:1 32:1 52:1 55:4 56:1 60:2 64:1 67:1 70:5 72:1 85:2 86:1 120:1 129:1 131:1 156:1 204:1 224:1 231:1 235:1 311:1 349:1 476:1 528:1 642:1 700:1 903:1 1008:1 1020:1 1128:1 1884:1 
1 7:4 8:1 10:1 12:6 13:1 15:1 30:1 31:1 34:2 47:1 48:1 62:1 70:1 93:1 106:1 115:1 119:1 121:1 130:1 235:1 282:1 359:1 367:1 393:1 423:1 436:1 520:1 580:1 607:1 776:1 799:1 
1 1:25 2:25 6:8 7:2 9:2 21:9 22:1 34:1 47:1 55:2 59:1 60:1 74:3 145:1 148:2 234:2 333:2 360:1 417:1 1102:1 1189:1 1449:1 1544:1 
1 7:3 9:5 10:2 13:3 34:1 42:1 55:1 57:1 58:1 59:1 72:1 83:1 242:1 396:1 445:1 1260:1 1666:1 1828:1 
0.4820547508407613 7:2 9:4 13:1 14:4 22:1 40:3 60:7 63:1 102:1 231:2 233:1 261:1 311:1 413:1 415:5 1092:1 1704:1 
1 7:2 8:1 12:1 13:1 32:2 42:1 43:2 45:2 48:1 53:1 54:1 70:1 77:1 78:4 120:1 158:1 161:1 208:1 233:1 260:1 289:1 396:1 419:1 493:1 511:1 666:1 669:1 777:1 874:1 936:1 1243:1 1364:1 
1 7:1 9:2 10:4 13:1 15:3 18:1 22:1 32:1 44:1 47:2 66:1 69:1 70:1 147:2 269:1 294:1 302:1 356:1 384:1 400:1 458:1 1835:1 
1 7:2 8:1 9:1 10:1 12:1 13:1 15:1 28:1 31:1 32:1 34:1 42:1 43:1 44:1 48:1 56:1 70:1 79:1 88:1 101:1 133:1 191:1 203:1 218:1 238:1 376:1 396:2 450:1 459:1 497:1 524:1 562:1 609:1 637:1 1714:1 1879:1 1989:1 
1 7:1 8:1 9:1 13:2 15:1 23:2 43:1 68:1 70:1 131:1 451:1 804:1 976:1 1326:1 1366:1 1397:1 
1 10:5 28:1 32:1 45:1 49:1 51:1 70:1 157:1 231:1 858:2 1124:6 1324:2 1429:1 1445:1 
1 9:2 10:5 12:1 13:4 30:2 70:1 77:1 79:1 91:1 120:1 129:1 131:2 149:1 160:1 201:1 266:1 272:1 314:1 410:1 436:1 723:5 937:1 1456:1 1895:1 
1 7:6 8:2 10:1 12:1 13:1 15:3 23:1 28:1 32:1 43:2 48:1 49:1 52:1 63:1 67:2 76:1 80:2 89:1 93:1 130:1 135:1 144:1 170:1 291:1 501:1 514:1 556:1 695:1 705:1 950:1 1374:1 
1 7:3 9:1 10:4 12:1 13:1 15:1 18:1 22:1 23:3 28:1 31:2 32:1 34:1 47:1 48:3 49:1 51:1 53:1 54:1 66:1 70:1 88:1 101:2 112:1 137:2 150:1 152:1 155:1 167:1 198:1 242:1 243:1 270:1 283:1 289:2 328:1 462:1 469:1 524:1 681:1 765:1 908:1 951:2 1864:1 
0.3613988847494761 1:140 2:140 7:7 9:145 15:6 17:1 21:140 28:6 29:5 31:6 34:2 43:6 49:6 58:6 74:76 85:6 124:26 151:2 162:6 182:75 185:1 206:35 232:19 399:2 476:2 490:1 576:2 772:1 907:6 1057:18 1067:5 1083:19 1158:1 1246:26 1248:6 1310:1 1369:4 1518:1 1617:1 1666:9 1865:12 1983:6 
1 7:5 9:2 10:1 13:2 22:1 23:2 43:1 63:1 65:2 70:1 79:1 94:1 147:1 178:1 217:1 230:1 239:2 241:1 273:1 288:1 393:1 679:1 706:1 799:1 1043:1 1414:2 1651:1 1873:1 
1 7:3 8:1 9:1 10:2 12:3 15:3 28:2 47:1 48:1 49:1 50:1 58:1 80:1 106:1 139:1 144:1 152:1 165:3 271:1 289:1 345:1 482:1 497:1 645:1 664:1 793:1 1275:1 1358:1 1693:1 
1 7:2 9:2 10:1 12:3 22:1 23:1 30:3 32:1 42:1 43:2 45:1 58:1 65:1 70:2 78:1 112:1 118:1 134:1 144:1 162:1 238:1 239:1 300:1 312:1 443:1 502:1 504:1 674:1 830:1 963:1 990:1 1295:1 
1 8:1 9:2 10:1 13:4 15:1 23:1 31:1 43:1 48:2 53:1 54:1 59:1 67:1 69:1 70:1 79:1 83:1 88:2 133:1 141:1 176:1 195:1 221:1 393:1 556:1 575:1 916:1 974:1 1728:1 
1 7:2 8:1 9:4 12:1 13:2 22:1 23:1 32:1 34:1 42:1 59:1 65:1 69:1 70:1 76:1 88:1 141:1 230:1 306:1 352:1 358:1 395:1 436:1 820:1 828:1 
1 7:1 8:1 13:2 15:1 30:1 32:1 40:1 45:1 48:1 55:2 57:2 58:1 62:1 64:1 70:4 100:1 112:1 155:1 231:1 260:1 261:1 289:1 501:1 507:1 524:1 672:1 712:2 740:1 969:1 1297:1 1936:1 
0.3490860577656084 1:65 2:65 3:61 4:54 5:52 6:40 7:18 8:13 9:6 10:1 11:48 12:9 13:11 14:3 16:3 17:3 19:9 20:9 21:1 22:5 23:3 24:8 25:8 26:5 28:2 30:6 32:13 33:3 34:5 37:5 38:5 39:4 40:3 41:2 42:5 44:7 45:3 46:1 48:2 49:2 52:1 56:1 57:5 60:2 66:2 69:1 72:1 76:2 79:1 89:2 93:1 113:1 115:3 118:2 123:1 133:1 140:1 141:2 142:1 144:2 148:24 158:1 159:24 167:1 170:1 178:1 181:1 186:1 193:3 194:1 200:1 210:1 231:1 233:2 243:1 273:1 284:1 288:1 291:6 293:2 295:1 309:2 319:4 393:1 395:1 402:1 412:1 419:1 435:1 450:1 501:1 502:1 516:1 617:1 636:1 679:3 705:1 712:3 814:1 839:1 899:1 904:2 1048:3 1065:1 1067:2 1084:1 1107:1 1112:1 1118:1 1296:1 1297:2 1390:1 1401:1 1454:1 1464:1 1478:1 1576:1 1608:1 1799:1 1811:1 1982:1 
0.6589107138225045 1:59 2:59 3:37 4:31 5:28 6:56 8:17 11:2 13:3 14:41 15:3 16:40 17:40 19:8 20:8 21:40 22:2 24:8 25:8 26:5 27:2 28:2 29:1 31:2 33:36 35:1 37:5 38:5 39:3 40:1 41:2 42:1 44:23 45:1 46:1 49:4 51:5 52:2 55:4 56:8 57:15 60:1 66:3 67:3 72:2 89:3 97:2 102:6 105:1 106:2 129:1 142:1 147:2 148:1 155:3 156:2 175:1 187:3 204:9 236:1 251:2 279:4 280:2 289:22 337:18 394:1 402:2 472:1 491:4 500:1 541:4 552:3 555:1 580:2 754:1 925:17 932:2 1714:2 1728:1 
0.6232651982841345 1:140 2:140 3:84 6:12 8:1 9:1 10:3 11:1 12:2 13:1 14:1 15:3 16:2 21:140 24:2 29:2 40:1 42:3 43:1 47:2 57:1 71:1 74:3 84:1 102:1 104:1 124:14 130:1 141:5 144:36 151:2 164:1 165:1 185:10 206:59 232:6 239:1 276:2 319:1 339:2 387:1 399:3 401:2 426:1 476:1 484:1 490:1 532:3 540:11 576:17 594:2 641:1 648:1 666:1 698:1 699:1 738:1 829:1 864:1 875:2 907:9 1026:3 1057:29 1083:2 1103:1 1130:1 1143:16 1246:8 1305:5 1330:2 1369:20 1518:3 1575:2 1651:7 1666:18 1824:5 1865:11 
0.648038922581517 1:860 2:860 3:801 4:641 5:791 6:477 7:206 8:190 9:53 10:59 11:306 12:28 13:38 14:29 15:42 16:29 17:29 18:12 19:85 20:85 21:4 22:7 23:16 24:8 25:8 26:83 28:2 30:11 31:8 32:5 33:23 34:15 37:5 38:5 39:80 40:3 41:302 42:8 43:2 44:27 45:1 46:1 47:10 48:5 49:12 50:4 52:5 53:5 54:5 56:5 57:7 58:7 59:2 60:1 61:5 63:8 65:7 66:3 67:13 68:1 69:8 71:3 72:4 73:3 74:1 75:1 76:4 77:1 78:1 80:2 82:76 83:2 84:1 85:1 86:3 88:18 89:10 91:1 93:7 94:4 95:77 97:5 98:1 99:1 100:2 102:2 106:10 107:6 108:5 109:6 111:2 115:1 116:4 117:1 118:9 119:15 123:2 127:4 129:1 130:1 134:1 135:4 136:6 139:1 141:1 142:1 144:2 147:4 148:302 149:1 151:1 152:2 153:3 155:1 157:4 158:7 159:302 160:5 161:2 162:2 163:1 164:1 165:4 167:6 169:14 170:6 173:78 178:3 179:1 180:1 181:1 184:3 186:3 187:3 188:1 189:1 190:1 191:1 194:3 195:2 197:1 200:1 202:2 204:1 205:1 206:1 207:1 208:1 213:4 216:1 217:2 221:2 222:1 226:2 228:2 229:3 230:1 232:1 233:2 237:1 238:1 240:1 244:6 248:1 253:1 254:1 256:1 257:3 258:1 260:1 261:1 266:2 267:2 269:2 271:2 273:1 274:1 276:1 279:2 281:2 283:1 284:1 287:1 288:1 289:5 293:1 295:4 299:8 300:1 301:1 303:1 305:1 307:2 310:5 314:1 316:1 319:2 326:1 327:2 331:1 339:2 354:3 365:1 366:1 370:1 375:2 388:1 390:2 393:1 394:1 399:1 402:3 404:1 409:1 411:3 413:2 418:1 434:1 437:2 440:2 444:1 447:3 450:1 453:1 456:2 459:2 460:2 461:1 468:2 472:1 478:2 480:1 485:4 487:1 490:1 504:1 516:3 521:1 523:2 524:2 542:1 549:1 554:1 556:1 568:1 570:1 572:138 573:1 577:1 580:1 599:1 604:2 610:1 617:1 621:2 623:1 626:3 628:1 631:1 644:1 652:1 668:1 671:1 680:2 687:6 698:1 701:1 702:4 711:1 715:1 724:1 726:3 728:1 733:2 734:1 748:4 749:1 753:1 783:1 795:1 808:1 829:1 849:1 857:2 858:2 868:5 871:1 873:3 877:1 885:1 893:5 896:4 899:1 910:1 917:1 919:1 920:1 948:3 978:2 991:1 1014:2 1016:1 1034:2 1038:1 1054:1 1056:2 1064:1 1065:1 1100:1 1103:1 1104:1 1114:1 1141:1 1175:1 1214:1 1229:1 1245:1 1255:1 1277:1 1285:1 1318:3 1319:1 1338:2 1361:1 1369:1 1372:1 1389:2 1411:1 1443:1 1454:1 1464:2 1479:1 1491:1 1497:1 1499:1 1514:2 1528:1 1577:1 1604:1 1610:1 1627:2 1708:1 1723:1 1735:1 1749:1 1755:1 1803:1 1814:2 1828:2 1874:1 1880:4 1919:1 1921:1 1972:1 1989:1 1995:1 
1 7:5 8:1 9:1 10:1 12:2 18:1 23:2 32:1 34:1 44:1 47:1 48:1 50:1 69:1 70:1 76:2 80:1 88:1 89:1 100:1 108:1 127:1 143:1 147:1 162:1 179:1 203:1 230:1 249:1 275:1 465:1 567:1 576:1 755:1 868:1 1106:1 1326:1 
1 1:8 2:5 3:5 4:1 5:5 6:4 8:6 9:3 10:2 11:2 13:2 14:1 15:1 23:2 26:2 29:2 30:1 31:1 35:1 41:2 42:2 47:2 52:1 55:3 57:1 58:2 59:1 60:1 70:5 77:1 98:1 180:1 186:1 197:1 224:1 225:1 238:1 259:2 304:1 305:1 332:1 357:1 421:1 439:1 498:1 503:1 510:1 583:1 788:1 806:2 1005:1 1313:1 1559:1 1658:1 1659:2 
1 7:2 8:1 9:3 10:2 13:1 22:1 23:1 63:1 68:1 83:1 120:1 131:1 183:1 235:1 400:1 934:1 1128:1 1507:1 
1 7:1 8:4 12:3 13:2 15:1 23:1 28:1 31:1 34:1 40:1 50:2 53:1 54:1 56:1 70:1 72:1 86:1 89:2 102:1 106:1 108:1 150:1 204:1 208:1 375:1 990:1 1284:1 1298:1 
1 7:1 8:1 9:2 10:1 12:1 13:2 15:1 30:1 34:1 42:1 70:1 75:1 86:1 108:1 111:1 120:1 141:1 171:1 179:1 181:2 189:1 207:1 218:1 235:1 238:2 275:1 280:1 396:1 578:1 794:1 1114:1 
1 7:2 9:1 12:2 13:1 34:1 44:1 50:1 92:1 108:1 134:1 200:1 265:1 457:1 644:1 719:1 1128:2 
1 7:1 9:1 15:1 18:1 23:2 31:2 47:1 51:1 59:1 70:1 71:1 93:1 111:1 150:1 189:1 223:1 248:1 258:1 289:2 407:1 416:1 828:1 833:1 868:1 1828:1 
0.6472854943169458 1:156 2:156 3:71 4:65 5:62 6:85 7:1 8:16 10:9 11:72 13:11 14:8 15:12 16:8 17:7 18:4 19:8 20:8 21:1 22:1 23:6 24:8 25:8 26:5 28:2 30:3 31:5 32:2 33:2 34:1 37:5 38:5 39:3 40:3 41:2 42:4 43:3 44:3 45:3 46:1 48:2 50:3 51:1 52:3 53:1 54:1 55:29 57:2 58:3 63:2 66:1 67:2 68:14 72:1 73:1 78:7 81:68 84:6 86:1 89:1 91:1 92:1 93:1 94:1 97:1 102:1 105:1 106:1 107:2 108:1 109:3 111:1 115:1 117:1 121:4 127:5 129:3 130:1 136:1 142:1 144:1 148:36 150:1 152:1 155:1 156:2 159:36 160:2 165:1 166:1 167:1 172:2 180:1 192:5 194:1 195:1 201:1 203:1 208:1 215:1 223:1 228:2 230:1 236:2 237:2 238:1 242:1 250:1 255:1 261:2 266:2 281:2 286:1 290:1 300:1 305:1 313:1 314:1 317:1 331:1 354:1 359:1 360:1 363:1 367:1 368:1 372:1 374:1 390:1 391:1 409:1 415:1 424:1 431:1 435:1 437:1 447:2 456:1 484:2 500:1 502:1 514:1 535:1 542:1 551:1 577:1 591:1 662:1 677:1 695:1 702:1 734:1 765:1 766:1 768:3 776:2 806:1 808:1 810:1 829:1 830:1 838:1 867:3 904:1 921:1 964:1 1084:1 1113:1 1192:1 1206:1 1275:1 1413:1 1514:1 1516:1 1517:1 1642:1 1643:1 1853:1 
1 9:7 10:2 12:1 13:1 22:2 28:3 31:3 42:1 49:3 51:2 67:1 70:1 89:1 129:1 143:1 163:1 203:1 285:1 482:1 500:1 560:1 937:1 1605:1 1838:1 1980:1 
1 7:2 8:1 9:1 12:5 13:1 15:2 23:1 28:1 30:1 32:1 45:2 48:1 51:1 52:1 59:1 64:1 70:1 76:1 86:1 106:1 129:1 135:1 137:1 161:1 224:1 240:1 247:1 285:2 290:1 337:1 349:1 367:1 465:1 481:2 750:1 1447:1 1617:1 
1 7:1 12:1 13:1 18:1 23:1 31:1 32:1 34:1 43:1 44:1 51:1 70:1 88:1 94:1 100:1 106:1 127:1 129:1 152:1 191:1 235:1 262:1 276:1 365:1 386:1 411:1 418:1 478:1 719:1 850:1 990:1 1128:1 1459:1 1536:1 
1 7:2 9:3 12:2 13:3 15:1 23:1 28:1 31:1 32:2 34:1 43:1 47:1 49:1 63:1 68:1 70:1 78:1 80:1 127:1 150:1 170:1 186:1 194:1 367:1 434:1 502:1 533:1 648:1 750:1 
1 1:2 2:2 7:1 9:2 13:3 21:2 22:1 28:1 31:2 43:1 49:1 52:1 72:1 97:1 141:1 144:1 253:1 306:1 931:1 1257:1 1587:1 
1 9:1 10:1 12:1 15:1 16:1 28:1 44:1 47:1 56:1 70:1 73:1 188:1 215:1 246:1 768:1 877:1 
1 7:2 12:1 28:1 34:1 42:1 49:1 58:1 70:2 72:1 84:1 144:1 258:1 329:1 602:1 
1 7:2 10:2 13:1 18:1 28:1 34:1 40:2 50:1 63:1 67:1 68:3 143:2 161:1 962:1 1418:1 
1 1:2 2:2 8:2 10:2 12:3 15:1 21:2 23:1 34:1 40:1 52:1 57:2 58:1 63:1 71:1 72:1 77:1 106:1 130:1 161:1 180:1 185:1 200:1 206:1 211:1 285:1 417:2 495:1 633:1 693:1 1136:1 1163:1 1251:1 
1 7:1 9:2 10:1 12:3 13:2 15:1 28:3 32:1 34:1 42:1 48:2 56:1 70:1 108:1 115:1 133:1 135:1 158:1 178:1 213:1 218:1 220:1 228:2 264:1 283:1 354:1 367:1 405:1 568:1 775:1 811:1 854:1 1042:1 1779:1 
1 7:4 8:1 9:1 13:1 15:1 23:2 28:1 31:3 50:2 52:1 56:1 57:1 62:1 64:1 72:1 80:2 84:1 99:1 108:1 117:1 140:1 166:1 207:1 211:1 249:1 340:1 358:1 479:1 501:2 527:1 640:1 740:1 900:1 1409:1 
1 4:1 5:1 7:3 8:1 13:1 15:1 30:1 31:4 34:1 40:1 43:2 51:1 55:1 65:1 67:1 70:1 73:1 94:1 98:1 108:1 158:2 170:1 226:1 253:1 310:1 315:1 322:1 367:1 480:1 660:1 
1 7:1 8:1 9:1 12:3 13:3 15:1 18:1 31:1 32:1 42:1 43:1 44:2 48:2 57:1 58:1 70:2 76:1 84:1 88:1 106:1 124:1 127:2 135:1 144:1 187:1 251:1 254:1 257:1 267:1 291:1 510:1 607:1 863:1 1809:1 
1 7:1 8:1 9:3 10:4 12:4 13:1 15:1 18:2 22:2 23:2 31:1 32:3 45:1 50:1 59:2 62:1 63:1 70:1 80:1 101:1 118:2 123:1 152:1 201:1 208:1 365:1 368:1 462:1 469:1 579:1 588:1 623:1 715:1 968:1 1675:2 1841:1 1867:1 
1 7:2 10:1 15:3 23:1 31:1 32:1 55:4 70:1 97:1 123:2 143:2 144:1 164:1 231:1 282:1 319:1 336:1 
1 10:3 15:3 23:1 30:2 70:1 78:5 108:1 120:2 369:1 479:1 967:1 1188:1 1757:1 1965:1 
1 7:1 8:1 9:3 10:1 12:2 13:1 15:1 22:2 28:1 31:1 32:1 34:1 49:1 57:1 60:1 70:1 75:1 89:2 97:1 100:1 133:1 149:1 164:1 189:1 203:1 308:1 320:1 344:1 436:1 490:1 918:1 997:1 1199:1 1216:1 
1 7:3 8:1 9:1 10:1 15:1 23:2 28:1 34:1 45:1 49:1 63:1 70:1 78:1 80:1 123:1 141:2 147:1 183:1 187:1 230:1 337:1 436:1 688:1 896:1 962:1 1194:1 1550:1 1901:1 
1 7:2 9:1 10:2 15:1 18:1 23:1 64:4 113:1 133:1 134:1 162:1 181:1 240:1 247:1 254:1 258:1 428:1 1775:1 
1 7:2 9:1 12:2 15:3 16:2 32:2 40:2 42:1 45:3 53:1 54:1 57:1 64:2 70:2 93:1 115:1 137:1 144:1 158:1 161:1 217:1 440:1 471:1 507:1 510:1 633:1 648:1 712:1 814:1 992:1 
1 4:1 5:1 7:2 9:2 12:4 13:1 15:2 23:2 29:1 30:3 45:1 58:1 62:2 70:1 73:1 75:1 153:2 158:1 176:1 220:1 235:1 247:1 272:1 338:1 365:1 368:1 480:1 538:2 1899:1 
1 7:1 8:1 12:1 13:1 15:1 28:1 49:1 51:1 59:1 70:1 72:1 121:1 157:1 166:1 171:1 199:1 203:1 231:1 263:1 277:1 289:1 510:1 868:1 984:1 1320:1 1413:1 1585:1 
1 7:1 9:1 10:1 13:1 23:1 31:2 52:1 80:1 84:1 120:1 217:1 235:1 261:1 311:1 367:1 547:1 764:1 813:1 1201:1 
1 6:2 8:1 10:1 12:3 13:3 15:1 22:2 23:2 30:1 51:1 58:1 60:1 66:1 70:1 83:1 106:2 115:1 121:2 135:1 156:1 163:2 210:1 254:1 309:1 
1 7:3 9:2 10:2 13:1 18:2 22:1 28:2 29:1 34:1 47:1 64:1 93:1 108:1 120:1 156:1 200:1 235:1 238:1 625:1 643:1 994:1 1525:1 
1 7:5 12:3 13:1 15:1 23:3 34:1 48:1 52:1 60:1 65:3 70:1 100:1 115:1 127:1 178:1 245:1 248:1 501:1 643:1 679:1 860:1 1443:1 1490:1 1598:1 
1 7:2 8:1 9:1 12:3 13:2 22:1 23:2 28:2 31:2 45:1 56:1 60:1 62:1 70:1 72:1 76:1 86:1 97:1 98:1 105:1 133:1 141:1 152:1 166:3 198:1 200:1 204:1 228:1 233:1 261:1 367:1 442:1 494:1 788:1 933:1 
1 7:1 9:2 10:3 12:1 15:1 23:2 32:1 43:1 50:1 52:1 57:1 59:2 65:1 67:1 70:2 106:1 108:1 144:1 157:1 170:1 178:1 197:1 218:1 264:1 362:1 367:1 497:1 581:1 626:1 813:1 844:1 893:1 1056:1 1726:1 
1 7:1 8:1 9:1 10:2 12:4 15:2 18:1 23:2 45:1 47:1 61:1 64:1 70:2 73:1 85:1 99:1 112:1 243:1 356:1 365:1 369:1 371:1 407:1 430:1 607:1 673:1 882:1 1355:1 1470:1 1475:2 1803:1 
1 7:4 8:2 9:1 10:1 12:4 13:1 15:1 23:2 28:3 30:3 34:1 45:1 47:1 48:1 49:1 56:1 57:1 59:2 70:2 72:1 73:1 74:1 77:1 80:1 84:1 108:1 115:1 130:1 144:1 153:1 158:1 164:1 228:1 242:1 243:1 270:1 293:1 445:1 810:1 1007:1 1318:1 1455:1 1769:1 
1 7:5 8:1 9:1 10:1 13:1 30:1 60:7 67:1 70:1 84:2 100:1 121:1 131:1 171:1 251:3 288:1 328:1 410:1 723:1 806:7 858:1 899:1 1004:1 1065:1 1413:1 1668:2 
1 9:1 12:1 15:1 18:1 23:2 28:1 31:2 40:1 42:1 43:1 44:1 48:1 49:1 57:1 60:2 70:1 71:1 75:1 77:1 133:1 147:1 171:1 198:1 294:1 501:1 535:1 636:1 952:1 1024:1 1292:1 
1 7:4 8:2 9:5 10:3 16:1 22:1 23:2 28:2 31:1 42:3 45:1 48:1 60:1 70:1 118:1 192:1 246:1 288:1 316:1 426:1 442:1 581:1 625:1 1982:1 
1 7:1 10:2 12:1 13:1 15:1 34:1 40:1 53:2 54:2 67:1 70:2 84:1 97:1 127:1 147:1 203:1 251:1 282:1 393:1 430:1 447:1 552:1 
1 7:2 9:1 12:1 13:1 16:1 34:1 45:1 56:1 63:1 71:1 86:1 106:1 124:1 149:1 185:1 215:1 309:1 333:1 387:1 695:1 730:1 1136:1 1251:1 1521:1 
1 7:2 9:3 10:2 12:3 13:4 18:1 22:1 23:1 30:1 43:2 45:2 48:1 57:2 66:1 70:2 80:2 94:1 129:1 161:1 166:1 181:1 229:1 258:1 282:1 371:1 426:1 500:1 709:1 841:1 863:1 885:1 1654:1 
1 7:2 8:1 13:1 15:1 18:1 22:1 28:1 34:1 40:1 44:2 56:1 69:2 70:1 83:1 88:2 105:1 106:1 136:1 184:1 188:1 221:1 225:1 255:1 352:1 393:1 552:1 679:1 712:1 926:1 1344:1 
1 7:3 8:1 9:3 10:1 12:3 13:1 15:1 23:4 28:2 31:1 49:1 50:1 53:1 54:1 56:1 60:1 63:1 64:1 70:1 99:1 101:1 115:1 153:1 167:1 187:1 188:1 348:1 379:1 386:1 623:1 686:1 959:1 1851:1 
1 7:2 8:1 9:3 10:1 12:2 13:1 23:1 31:2 34:1 43:1 53:1 54:1 60:1 61:2 69:2 70:1 72:1 79:1 107:1 115:2 127:1 144:2 195:1 226:1 283:1 447:1 655:1 773:1 
1 7:1 9:1 10:2 13:1 18:4 40:1 65:1 66:1 70:1 75:1 163:1 169:1 231:1 293:1 309:1 1165:1 1429:1 1732:1 1816:1 1959:1 
1 7:4 8:1 9:1 10:1 12:2 13:1 18:3 28:1 32:2 40:1 48:1 56:1 66:1 77:1 80:1 86:1 106:1 131:1 136:1 229:1 230:1 237:1 291:1 340:1 442:1 680:1 1903:1 
1 7:1 10:1 12:1 13:2 15:2 22:1 28:2 31:1 40:1 49:1 57:1 59:3 60:1 70:3 78:2 85:1 97:1 106:1 137:1 151:1 176:1 193:1 200:1 230:1 231:1 241:1 290:1 337:1 355:1 499:1 558:1 750:1 929:1 1128:1 
1 7:1 10:1 12:5 15:2 18:1 22:1 23:4 30:1 32:1 34:1 42:1 50:1 66:1 70:1 93:1 106:1 155:1 157:1 223:1 226:1 289:1 371:1 393:1 492:1 570:1 814:1 1329:1 1684:1 
1 7:1 8:1 9:3 10:1 12:1 13:1 18:1 23:1 31:1 47:2 48:1 53:1 54:1 59:1 63:1 70:1 77:1 80:1 101:1 141:1 156:1 267:1 314:1 332:1 577:1 970:1 1239:1 
1 1:58 2:58 3:71 4:47 5:62 6:40 7:17 8:31 9:2 10:1 11:14 12:1 13:1 18:1 19:16 20:16 21:1 23:1 24:8 25:8 26:15 28:2 37:5 38:5 39:11 41:2 46:1 47:1 57:1 68:3 75:1 80:1 142:1 155:1 173:10 194:1 217:2 218:1 328:1 417:1 572:16 602:1 679:1 712:1 1585:2 
1 7:4 10:1 13:1 18:1 42:2 44:1 48:2 53:1 54:1 57:1 68:3 70:1 88:1 89:1 101:1 151:1 155:1 183:3 193:1 194:1 237:1 239:1 285:1 291:1 328:1 341:1 441:1 607:2 666:1 679:1 1297:1 
1 7:1 10:2 13:1 22:2 23:1 43:1 60:1 70:1 92:1 108:1 120:1 131:1 252:1 396:1 477:1 
1 7:2 8:1 9:3 10:1 12:3 13:3 15:2 28:1 32:1 40:1 43:1 49:1 57:1 59:1 66:1 67:1 70:2 72:1 76:1 88:1 106:1 112:1 123:1 210:1 221:1 254:1 291:1 331:1 341:1 620:1 712:1 740:1 1058:1 
1 7:3 9:1 10:2 12:2 13:4 15:3 23:1 43:1 45:1 70:1 80:2 107:1 127:1 144:1 152:1 178:1 202:1 282:1 638:1 854:1 889:1 1394:1 1523:1 
1 7:4 10:1 12:2 13:1 15:1 23:3 28:1 31:1 34:2 49:1 55:1 68:3 70:1 71:1 77:1 157:1 158:1 162:1 183:1 192:1 237:1 262:1 314:1 332:1 342:1 375:1 379:1 396:1 538:1 580:1 642:1 1055:1 
1 4:1 5:1 7:1 8:2 9:4 12:2 13:1 23:2 31:1 32:2 44:2 53:1 54:1 58:1 68:1 69:1 70:1 75:1 78:1 79:1 97:1 163:2 169:1 223:1 224:1 244:1 360:1 442:1 482:2 669:1 854:1 972:1 1078:1 1872:1 
1 7:4 9:2 10:1 12:3 18:1 23:1 47:1 61:2 68:2 77:1 80:1 134:1 163:2 251:1 309:1 319:1 1475:1 1756:1 1808:1 
1 1:6 2:6 4:2 21:6 45:1 53:1 54:1 74:4 83:2 91:2 111:1 490:1 576:1 594:2 713:1 909:1 1248:1 
1 7:1 8:2 10:1 12:2 22:2 23:1 47:1 48:1 58:1 69:1 70:1 71:1 80:1 93:1 115:1 131:1 134:1 170:1 187:1 265:1 291:1 995:1 1483:1 1815:1 
1 1:4 2:3 3:1 5:1 6:2 7:1 8:2 10:1 11:2 15:2 26:1 63:1 71:1 111:1 199:2 454:1 474:1 476:1 1189:1 1549:1 
1 1:1 2:1 7:1 8:1 21:1 31:1 32:1 34:2 42:1 50:1 55:1 70:2 73:1 106:1 166:1 193:1 221:1 306:1 689:1 909:1 1369:1 
1 1:2 2:2 8:1 13:1 15:1 17:1 21:2 32:2 34:1 40:3 135:1 198:1 230:1 263:2 313:1 374:1 454:1 826:1 897:1 1248:1 
1 1:6 2:6 7:6 12:2 13:1 18:1 21:6 28:2 32:2 34:1 35:1 49:1 50:1 52:1 60:1 63:1 67:1 69:1 74:1 85:1 113:1 115:1 124:1 137:1 149:2 204:1 215:1 241:1 294:1 302:1 335:1 360:1 644:1 713:1 750:1 989:1 992:1 1017:1 1863:1 
1 7:3 9:1 13:2 23:1 65:1 69:2 72:1 146:1 164:1 187:2 203:1 899:1 1296:1 1426:1 1427:1 
1 7:4 10:1 12:4 13:3 23:6 45:1 57:1 64:2 70:1 86:1 137:3 237:1 247:1 265:1 334:1 336:1 349:1 413:1 501:1 502:1 576:1 628:1 1057:1 1246:1 
1 7:3 9:1 10:3 13:1 18:1 23:2 31:1 34:1 42:1 70:1 75:1 77:1 80:1 88:1 100:1 101:1 156:1 192:1 359:1 460:2 504:1 780:2 908:1 956:1 969:1 1140:2 1340:1 1822:3 
1 7:1 8:2 9:3 10:6 13:1 23:4 30:1 40:1 50:1 55:1 58:1 70:3 89:2 91:1 102:2 166:1 229:1 231:1 252:2 275:1 829:1 834:3 1047:2 
1 7:1 8:1 10:1 12:1 13:1 15:1 43:1 44:1 48:1 50:1 64:1 69:1 70:1 81:1 88:1 92:1 127:1 131:1 147:1 203:1 225:2 238:1 310:1 465:1 1064:1 1289:1 1423:1 1959:1 
1 7:3 9:2 12:3 13:3 28:1 30:1 32:1 40:1 42:1 69:1 79:1 133:1 153:1 157:1 199:1 200:1 224:1 229:1 231:1 245:1 291:1 535:1 595:1 650:1 657:1 694:2 1409:1 1902:1 
1 7:2 13:3 23:1 30:6 44:1 45:4 50:2 51:1 55:1 62:1 70:4 73:1 78:1 99:1 102:1 140:1 191:1 247:2 254:2 272:1 333:6 607:1 843:1 
1 7:4 9:1 10:1 12:1 13:2 22:1 23:3 28:1 30:1 32:1 49:1 57:1 62:1 69:1 70:1 79:2 80:2 118:1 121:1 127:1 192:1 194:1 195:1 241:1 319:1 328:1 336:1 396:1 648:1 992:1 1085:1 1497:1 
1 7:2 9:1 12:3 13:2 15:2 22:1 23:2 28:1 32:1 34:1 57:1 63:1 70:1 80:1 89:1 107:1 108:1 120:1 124:1 127:1 139:1 141:2 156:1 158:1 161:1 200:1 251:1 270:1 314:2 437:1 530:1 585:1 874:1 
1 7:2 9:1 10:3 12:1 13:2 15:2 18:1 22:1 28:2 30:1 44:2 48:1 56:2 57:1 59:2 65:1 70:1 75:1 76:1 88:1 98:1 188:2 210:1 254:1 291:1 355:1 359:1 448:1 510:1 676:1 700:1 1178:1 
1 7:2 8:1 9:1 10:1 12:5 13:1 15:1 18:2 28:4 30:1 31:1 48:1 49:3 51:1 57:1 66:1 67:1 72:1 102:1 113:1 115:1 134:1 143:1 156:1 157:1 167:1 179:1 208:2 218:1 242:1 306:1 336:2 364:1 674:1 692:1 755:1 867:1 1216:1 1388:1 
1 7:1 8:1 10:1 12:2 13:1 15:1 23:2 28:4 30:4 32:1 43:1 44:1 45:1 47:1 49:1 50:1 52:1 56:1 64:1 70:1 78:2 102:1 103:1 133:1 139:2 158:1 176:1 186:1 204:1 308:1 359:1 405:1 444:1 454:1 561:1 749:1 1007:1 1104:1 1161:1 
1 7:1 9:1 10:3 12:2 15:2 30:1 62:1 70:1 92:1 117:2 120:1 121:1 153:1 180:1 315:1 351:1 432:1 512:1 686:1 955:1 1359:1 1691:1 1883:1 
1 7:3 8:2 13:2 15:2 42:1 44:2 48:2 55:2 66:1 67:1 70:1 76:1 118:1 119:1 127:3 136:1 174:1 230:1 417:1 447:1 497:1 740:1 878:1 1044:1 1192:1 1228:1 1344:1 
1 7:2 12:5 13:1 15:2 23:2 28:3 40:1 45:1 51:2 56:1 57:2 58:1 69:1 139:1 176:1 188:1 247:1 279:1 335:1 346:1 348:1 379:1 405:1 499:2 566:1 986:1 1157:1 1851:1 
1 7:2 9:1 13:4 15:1 28:1 30:1 34:1 49:1 131:1 137:1 387:1 393:1 485:1 957:1 1125:1 
1 9:1 15:1 30:1 40:1 57:1 80:1 108:1 120:1 153:1 170:1 669:1 1020:1 1051:1 
1 7:1 9:1 10:1 15:2 23:1 31:1 34:1 60:1 102:1 112:1 123:1 133:1 155:1 199:1 263:1 275:1 801:1 929:1 
1 7:1 8:1 9:1 10:2 12:1 13:3 15:1 22:1 23:1 42:1 43:1 54:1 70:1 106:1 115:1 143:1 147:1 165:1 174:1 183:1 273:1 442:1 937:1 1092:1 1120:1 1128:1 1560:2 1599:1 
1 7:2 13:1 22:1 34:1 53:2 54:2 74:2 230:1 463:1 1587:1 1865:1 
1 7:1 10:2 15:3 18:1 28:1 30:1 31:2 34:1 40:3 43:1 49:1 60:1 67:1 68:1 70:1 77:1 78:2 199:1 242:1 271:1 290:1 426:1 913:1 979:1 1023:1 1176:1 1696:1 1872:1 
1 7:1 8:1 13:2 15:5 18:1 51:1 55:1 62:2 67:1 70:1 72:1 85:1 86:1 97:2 103:1 113:2 117:1 124:1 160:1 161:1 174:1 215:1 288:1 379:1 472:1 493:2 627:1 806:1 863:1 929:1 996:1 1055:1 1516:1 1547:1 1717:1 
1 7:1 8:1 9:2 10:1 13:1 23:1 31:1 60:1 67:1 68:1 70:1 78:1 79:1 85:1 91:1 98:1 123:1 143:1 146:1 152:1 157:1 187:2 241:1 306:1 311:1 348:1 359:1 610:1 653:1 663:1 
1 7:2 8:1 10:1 12:1 15:1 18:1 22:1 23:2 28:2 31:2 34:1 45:1 55:3 56:2 60:1 70:2 72:1 77:1 86:1 93:1 97:1 100:1 130:1 149:1 179:1 180:1 253:1 302:1 340:1 396:2 526:1 566:1 586:1 806:1 1183:1 1318:1 1616:1 1702:1 1798:1 
1 7:3 13:2 31:1 34:1 55:3 57:1 62:1 70:5 79:1 102:1 120:1 130:1 144:1 166:1 192:1 217:1 244:2 286:1 367:1 578:1 679:1 
1 7:1 8:1 10:1 12:2 18:1 28:1 30:2 42:1 44:1 47:2 48:1 57:1 70:1 139:1 186:1 245:1 306:1 315:1 447:1 734:1 1048:1 1103:1 1312:1 1340:1 1628:1 
1 7:3 9:4 10:1 12:4 13:5 15:3 22:1 28:1 31:1 56:1 62:3 67:1 70:3 100:1 115:1 119:2 158:1 161:1 165:1 224:1 254:1 334:1 340:1 441:1 628:1 
1 7:3 8:1 13:4 22:1 23:2 32:1 45:2 47:1 55:1 58:1 70:1 73:1 75:1 84:1 120:1 195:1 300:1 514:2 542:1 554:1 583:1 684:1 709:1 
1 9:3 10:2 12:3 13:3 18:1 32:3 42:1 45:1 48:1 51:3 66:1 70:1 134:1 164:1 171:2 192:1 224:1 289:1 311:1 412:1 860:2 883:1 927:1 1123:1 1182:1 1307:1 
1 4:1 5:1 8:1 9:6 10:1 13:1 15:4 18:1 22:1 44:2 45:1 61:1 62:1 64:1 70:2 71:1 76:1 77:1 94:1 117:1 137:1 147:1 162:1 187:1 208:1 231:1 294:1 302:1 313:1 607:1 616:1 692:1 912:1 1326:1 
1 1:4 2:4 6:3 7:2 10:1 12:2 13:2 15:1 18:1 21:2 22:1 23:1 41:2 47:1 60:1 63:1 64:1 68:1 71:1 73:1 78:3 85:1 86:1 93:1 98:2 112:1 120:1 123:1 141:1 144:1 150:2 167:1 191:1 220:1 221:1 261:1 292:1 348:1 404:1 521:1 669:1 725:1 741:1 801:1 1053:1 1268:1 1590:1 
1 7:3 8:1 9:3 10:1 12:3 13:2 15:1 23:1 28:1 34:2 43:1 45:1 51:1 52:1 56:1 74:2 75:1 106:1 113:2 117:1 130:2 131:1 145:1 156:1 188:1 208:1 210:1 238:1 252:1 277:1 290:1 306:1 699:1 824:1 1017:1 1085:1 1128:1 1208:1 1299:1 1700:1 
1 7:2 9:1 15:2 28:1 34:1 51:1 55:3 70:1 91:1 93:2 98:1 105:1 139:1 155:1 195:1 199:1 262:1 263:1 289:1 366:1 454:1 544:1 
1 8:2 9:2 10:1 16:1 22:1 28:2 31:1 45:1 49:1 70:1 73:1 75:1 79:1 84:1 115:1 139:1 163:1 288:1 356:1 379:1 482:1 740:1 
1 9:1 12:1 13:4 15:2 40:2 43:1 45:1 67:1 70:3 92:3 103:2 106:2 137:1 156:2 176:1 187:1 435:2 823:1 986:2 1595:1 
1 4:2 5:2 7:2 9:2 10:2 12:1 15:3 18:2 23:1 28:2 30:1 34:1 42:1 45:1 49:2 61:1 64:2 86:1 99:1 120:1 127:1 137:1 199:1 223:1 284:2 303:1 338:2 376:1 580:1 1022:1 1118:2 1301:1 1611:1 1805:1 
1 7:1 8:2 9:1 10:1 12:2 13:1 15:1 22:1 23:2 28:1 34:1 42:1 50:1 64:1 70:1 71:1 108:1 130:1 141:1 165:1 179:1 180:1 226:1 228:1 235:1 269:1 563:1 728:1 1273:1 1634:1 1880:1 
1 7:2 9:2 13:2 28:1 34:1 47:2 49:1 58:1 117:1 276:1 474:1 767:1 864:1 1017:1 1176:1 1248:1 1312:1 1332:2 
1 7:3 8:1 9:3 12:1 13:3 28:1 32:1 40:1 48:1 52:1 77:1 158:1 264:1 266:1 602:1 680:1 740:1 876:1 968:1 
1 7:1 8:1 10:1 12:4 13:1 15:1 18:1 22:1 23:2 43:1 45:1 50:1 69:1 70:1 106:1 141:1 143:1 155:1 156:1 223:1 290:1 292:1 376:1 454:1 709:1 1056:1 1832:1 
1 7:2 9:2 12:3 13:1 18:1 23:3 28:1 30:2 31:1 32:2 45:1 48:1 49:1 57:1 70:1 80:1 133:1 149:1 153:1 155:1 291:1 308:1 315:1 497:1 712:1 953:1 1315:1 1437:1 
1 5:2 7:2 8:1 9:2 12:3 18:2 22:2 31:1 32:1 48:2 50:1 51:1 70:1 77:1 140:1 176:1 189:1 238:1 308:2 309:1 359:1 663:1 1389:1 1418:1 1555:1 
1 12:2 13:1 15:1 28:1 31:2 32:2 49:1 57:1 58:1 59:1 62:1 70:3 71:1 72:1 73:1 106:1 130:1 152:1 157:1 161:1 231:1 434:1 436:1 556:1 616:1 742:1 776:1 854:1 925:1 1242:1 1679:1 
1 13:1 34:1 59:1 70:1 1292:1 1550:1 
1 7:3 8:1 9:1 10:1 12:2 30:1 42:2 43:1 45:1 63:1 65:1 67:2 70:1 76:1 92:1 93:1 127:2 136:1 152:1 153:1 178:1 186:1 291:1 317:1 428:1 652:1 764:1 962:1 1415:1 1525:1 1544:1 
1 7:2 8:1 9:2 10:1 12:4 13:1 15:4 18:1 30:2 32:2 34:1 43:1 60:1 68:1 70:1 97:1 99:1 101:1 123:1 135:2 247:1 285:1 315:1 359:1 580:1 713:1 861:1 1023:1 
1 8:1 9:3 10:3 12:1 13:2 23:2 40:1 43:1 53:1 54:1 58:1 64:1 70:1 71:1 73:1 118:1 162:1 482:1 495:1 542:1 1090:1 1590:1 1662:1 1952:1 
1 7:2 8:2 9:2 12:3 22:1 23:1 28:1 43:1 48:1 51:3 52:1 56:1 65:1 69:1 70:1 85:1 117:1 129:1 156:1 171:1 188:1 195:1 200:1 235:1 283:1 336:1 365:1 388:1 427:1 451:1 501:1 729:1 1439:1 
1 7:4 8:1 9:1 10:2 12:3 13:1 15:1 22:1 31:3 34:2 42:1 66:1 67:1 74:2 86:1 97:1 99:1 106:1 127:1 135:1 153:1 213:1 224:1 232:1 310:1 376:1 650:1 1250:1 1369:1 1431:1 
1 7:4 8:2 9:1 10:2 13:1 18:1 23:1 28:2 31:1 42:1 43:1 47:1 48:1 49:1 55:1 56:1 58:1 70:1 92:1 101:1 131:1 291:1 340:1 357:1 451:1 452:1 455:1 502:1 1025:1 1118:1 1565:1 1628:1 1867:1 
1 7:1 8:1 10:1 12:3 13:1 15:1 18:1 22:2 28:1 40:1 42:2 43:1 48:1 49:1 50:2 51:1 61:1 63:1 70:1 93:1 105:1 129:1 136:1 147:1 161:1 237:1 254:1 359:1 404:1 425:1 533:1 1012:1 1023:1 1303:1 
1 1:6 2:5 3:1 5:1 6:3 7:1 8:2 10:1 11:4 12:2 15:1 23:1 26:1 30:1 42:1 43:1 47:1 72:1 111:1 198:1 220:1 254:1 412:1 535:1 811:1 1549:1 1716:1 
1 7:3 8:2 10:2 12:2 13:1 18:1 23:3 34:1 44:1 47:1 48:2 65:3 70:1 101:2 143:1 198:1 552:1 568:1 620:1 753:1 1065:1 
1 7:2 9:2 10:2 13:2 15:1 22:1 40:1 44:2 47:2 62:1 65:1 70:1 111:1 120:2 161:1 207:1 263:1 404:1 981:1 998:1 1593:1 1708:1 
1 1:2 2:2 4:2 7:1 8:1 10:3 13:2 21:2 22:2 34:1 45:1 55:2 57:1 70:1 74:2 85:1 107:1 149:1 263:1 319:1 339:1 360:1 375:1 401:1 454:1 806:1 932:1 1020:1 1067:2 1139:1 1869:1 
1 7:1 8:1 12:1 15:2 28:1 30:1 45:1 48:1 50:1 60:1 62:1 64:2 65:1 70:1 78:1 108:2 112:2 120:3 121:1 133:1 208:1 247:1 251:1 336:1 351:1 536:1 607:1 649:1 953:1 
1 7:1 10:1 12:4 13:2 15:1 18:4 23:1 28:1 42:1 49:1 57:1 59:1 61:1 62:1 68:3 70:1 71:1 78:1 106:1 120:1 121:1 130:1 143:1 150:1 203:2 242:1 273:1 461:1 514:1 516:2 1340:2 
1 4:1 5:1 7:2 8:1 10:2 12:4 13:2 15:2 18:2 22:1 23:1 31:1 32:1 34:1 42:1 48:1 50:1 70:1 72:1 93:1 105:1 150:1 169:1 268:1 281:1 291:2 599:1 1382:1 1548:1 
1 5:2 7:1 10:5 13:1 23:1 31:1 53:1 54:1 55:1 67:1 75:1 85:1 91:1 105:1 113:2 152:1 164:1 192:1 193:1 221:1 313:1 499:2 528:1 936:1 1311:1 1373:1 1957:1 
1 7:2 10:1 13:1 15:1 28:1 29:1 31:1 40:1 42:1 43:1 44:1 73:1 88:1 105:1 127:1 178:1 337:1 351:1 367:1 478:1 493:1 579:1 656:1 834:1 1972:1 
1 7:2 8:2 12:4 23:1 28:1 43:1 48:1 49:1 70:1 72:1 80:1 84:1 85:1 86:1 115:1 156:1 195:1 238:1 263:1 277:1 319:1 323:1 364:1 530:1 773:1 1697:1 1894:1 
1 7:1 8:1 10:2 12:2 13:3 15:2 18:1 30:1 32:2 45:1 50:1 70:1 72:1 153:1 197:1 198:1 210:1 235:1 240:1 254:1 291:1 314:1 442:1 529:1 712:1 848:1 960:1 
1 7:1 9:1 10:3 13:1 18:1 22:1 28:1 29:1 50:1 62:1 79:1 91:1 273:1 493:1 941:1 1531:1 1761:1 
1 8:1 12:4 13:1 28:5 30:1 42:1 49:1 56:1 57:1 58:1 70:2 103:1 134:1 139:2 156:1 195:1 204:1 220:1 374:1 377:1 786:1 1036:1 1096:1 1227:1 
1 7:2 8:1 15:1 23:1 31:1 34:1 43:1 45:1 48:2 55:3 64:1 70:1 84:1 92:1 133:1 135:2 136:1 144:1 217:2 289:1 290:1 359:1 524:1 679:1 867:1 1194:1 1401:1 1464:1 1822:1 
1 5:1 8:1 10:1 12:2 13:3 14:1 18:1 28:1 29:1 34:3 47:1 49:1 62:1 70:1 91:1 99:1 105:1 134:1 220:1 224:1 245:1 492:1 529:1 628:1 705:1 920:1 1070:1 
1 7:3 8:1 9:1 12:3 13:1 18:1 23:2 28:1 30:1 32:2 52:1 56:1 59:1 60:1 69:1 70:1 80:2 106:1 115:2 152:1 153:1 155:1 193:1 223:1 242:1 251:1 288:1 293:1 340:1 581:1 917:1 1007:1 1242:1 1647:1 
1 10:1 13:4 18:1 22:1 30:1 45:1 48:2 51:2 55:2 66:1 70:1 84:1 86:1 99:1 169:1 213:1 221:1 235:1 253:1 336:1 405:1 468:1 511:1 607:1 627:2 
1 7:2 9:1 13:1 15:1 22:1 32:1 43:1 45:3 78:1 86:1 123:1 183:1 198:1 213:1 492:1 610:1 1408:1 1503:1 
1 7:2 8:2 9:1 10:1 12:2 31:1 43:1 47:2 48:2 52:1 70:1 77:1 102:1 105:1 115:1 144:1 192:1 393:1 427:1 452:1 669:1 740:1 780:1 879:1 1170:1 1798:1 
1 7:1 9:1 10:1 12:2 13:1 15:3 22:1 23:1 34:1 45:1 48:2 59:1 69:1 70:1 72:1 76:1 78:1 79:1 93:1 117:1 135:1 144:1 150:1 153:1 200:1 217:1 288:1 319:1 652:1 734:1 764:1 997:1 1079:1 1239:1 1445:1 
1 7:1 8:1 10:2 12:3 13:1 18:1 23:1 31:1 45:1 63:1 86:1 153:1 180:1 297:1 442:1 607:1 1429:1 1517:1 1764:1 
