svm_type c_svc
kernel_type rbf
gamma 0.00050025
nr_class 2
total_sv 3144
rho -0.200067
label 1 -1
probA -2.20462
probB -0.960194
nr_sv 1590 1554
SV
1 7:3 13:7 59:7 73:1 138:6 156:7 262:6 355:6 395:7 520:7 805:1 1486:7 1616:7 1996:6 
1 7:1 9:3 10:1 13:3 15:1 18:1 22:1 39:2 63:2 64:1 65:1 69:1 71:1 74:1 91:1 130:1 132:1 136:2 156:3 194:1 251:1 266:1 333:1 350:1 414:1 482:1 487:1 587:1 639:1 659:1 881:1 1058:1 1101:1 1123:1 1287:2 1456:1 1486:3 1759:1 1888:1 1918:1 
1 7:1 15:1 30:1 44:1 50:1 56:2 57:1 58:2 69:1 71:1 79:1 85:1 157:2 186:1 193:1 197:1 264:1 271:1 296:1 347:1 414:1 493:1 587:1 659:1 1102:1 1319:1 1446:1 
1 4:1 5:1 7:2 8:1 9:1 10:1 13:3 18:1 22:1 29:2 30:1 42:2 48:3 56:1 61:1 63:1 64:1 71:1 77:2 79:1 111:2 136:1 139:1 156:3 157:1 182:2 230:1 238:1 239:1 249:1 251:1 291:1 292:2 500:1 594:1 659:1 667:1 669:1 742:2 881:1 916:1 1101:1 1486:3 1576:1 1592:3 1703:1 1804:2 1991:1 
1 7:7 8:2 10:1 13:2 23:2 30:1 33:1 39:1 64:1 65:1 66:1 69:1 75:1 79:1 88:1 112:1 129:1 152:1 156:2 229:1 238:2 274:1 296:1 328:1 375:1 395:2 487:1 1101:1 1127:1 1287:1 1486:2 1649:1 1843:1 1959:1 
1 7:2 12:2 13:2 15:3 31:1 33:2 44:4 54:2 61:1 88:1 145:1 156:2 166:1 198:1 199:1 207:2 209:1 214:1 230:3 250:1 257:1 269:1 274:1 363:1 375:2 452:1 587:3 1102:4 1236:1 1408:1 1486:2 1519:1 1703:3 
1 7:1 9:3 10:3 13:2 23:1 31:2 39:3 42:2 46:1 48:1 64:3 69:1 70:1 104:1 143:1 152:1 156:2 177:1 199:2 288:1 351:1 386:1 392:1 395:1 521:1 560:1 742:2 798:1 821:1 1101:3 1164:1 1287:3 1290:1 1464:1 1486:2 1592:1 1723:1 
1 8:1 9:3 15:2 18:1 30:1 33:2 39:1 51:1 66:1 69:1 72:1 79:1 90:1 96:1 143:1 160:1 170:1 178:1 190:1 231:1 235:1 238:1 252:1 275:1 375:2 392:1 453:1 587:2 712:2 881:1 971:1 1169:1 1175:2 1287:1 1464:1 1589:1 1623:1 1709:1 1826:1 
1 7:2 8:1 9:1 10:1 22:1 29:1 39:1 44:1 47:1 63:1 64:1 83:1 85:1 114:1 136:1 177:1 193:1 230:1 238:1 242:1 251:1 264:1 292:1 507:1 821:1 1101:1 1102:1 1133:1 1287:1 1319:1 1501:1 1703:1 
1 4:1 5:1 7:1 10:1 12:1 13:3 15:2 23:2 31:1 33:1 42:1 47:1 54:1 64:1 67:1 69:1 71:2 92:1 96:1 126:1 156:3 160:1 162:2 177:1 185:1 199:1 237:1 330:1 375:1 392:1 513:1 587:2 624:1 659:2 742:1 821:1 849:1 978:1 1101:1 1217:1 1222:1 1486:3 
1 7:1 9:4 13:1 18:2 30:1 31:2 33:1 39:2 42:1 43:1 57:1 69:1 76:1 79:1 87:1 88:1 93:1 126:1 132:1 140:1 156:1 197:1 199:2 224:1 230:1 274:1 375:1 392:1 412:1 427:1 446:1 614:1 742:1 813:1 881:2 989:1 1033:1 1123:1 1241:1 1287:2 1486:1 1701:1 1703:1 1775:1 
1 8:1 9:4 10:2 15:1 18:1 23:2 29:1 33:1 49:1 59:2 63:2 64:2 65:1 67:4 68:1 69:1 71:1 76:1 88:2 91:1 96:1 122:1 136:2 149:1 236:1 238:1 274:2 292:1 305:1 373:1 375:1 427:1 487:1 520:2 587:1 606:1 627:1 639:1 659:1 881:1 902:1 978:4 985:1 1101:2 1321:1 1583:1 1616:2 1651:1 1731:1 1794:1 1971:1 1984:1 
1 8:2 10:1 22:1 23:1 29:1 30:2 31:1 47:1 50:1 64:1 69:1 71:1 79:2 119:1 148:2 155:1 163:1 169:1 199:1 227:1 230:2 238:2 251:1 271:1 283:1 292:1 308:1 312:1 431:1 450:1 606:1 659:1 831:2 1101:1 1151:1 1533:1 1573:2 1703:2 
1 7:2 8:1 15:1 22:2 23:3 29:1 30:1 33:1 41:1 55:1 69:1 72:2 75:1 79:1 92:1 99:1 107:1 126:1 132:1 134:1 143:1 187:1 227:1 238:1 251:2 292:1 309:1 340:1 375:1 424:1 432:1 507:1 534:1 587:1 642:1 849:1 989:1 1123:1 1464:1 1472:1 1538:1 1559:1 1709:2 1719:1 1843:1 
1 7:2 8:2 9:1 15:3 22:1 30:1 33:1 43:1 47:1 48:2 51:1 57:1 61:1 69:1 71:1 75:1 79:1 87:1 114:1 126:1 142:1 154:1 178:1 197:1 230:1 237:1 238:2 251:1 327:2 350:1 375:1 414:1 441:1 587:3 615:1 659:1 1084:1 1592:2 1703:1 1843:1 
1 7:2 9:1 10:2 13:1 23:2 31:3 33:2 41:1 42:1 47:1 48:1 51:1 58:1 64:2 69:2 76:1 91:4 105:1 130:2 152:1 156:1 178:1 199:3 318:1 375:2 424:1 427:1 639:4 670:1 711:2 742:1 847:1 869:2 1101:2 1318:1 1456:2 1463:1 1486:1 1592:1 1702:1 1810:1 
1 1:2 2:1 3:1 5:1 11:1 18:1 19:1 38:1 44:1 46:1 76:1 205:1 231:1 359:1 367:1 386:1 421:1 425:1 427:1 500:1 809:1 881:1 1102:1 1883:2 
1 7:2 8:2 9:3 13:1 29:1 31:1 39:1 41:1 42:1 44:2 50:1 62:2 69:1 72:1 77:2 119:1 156:1 182:2 192:1 199:1 200:1 238:2 271:1 292:1 345:1 424:1 560:1 742:1 903:1 963:1 1102:2 1115:1 1287:1 1486:1 1506:1 1709:1 1911:1 
1 1:2 2:1 3:1 5:1 11:1 18:1 19:1 38:1 44:1 46:1 76:1 205:1 231:1 359:1 367:1 386:1 421:1 425:1 427:1 500:1 809:1 881:1 1102:1 1883:2 
1 7:3 8:1 9:1 15:1 16:1 18:1 23:1 33:1 42:1 44:2 47:1 50:1 65:1 68:1 90:1 111:1 126:1 130:2 177:1 183:1 193:1 235:1 238:1 271:1 288:1 375:1 487:1 587:1 742:1 821:1 881:1 906:1 1102:2 1256:1 1328:1 1408:1 1456:2 1461:1 1645:1 1804:1 1869:1 
1 7:1 10:4 13:2 15:1 22:2 39:1 47:1 62:1 64:4 69:1 85:1 156:2 164:3 194:1 230:1 251:2 264:1 273:3 305:1 308:2 376:1 498:1 587:1 613:1 669:1 831:1 1101:4 1120:1 1287:1 1486:2 1703:1 1711:1 1918:1 
1 9:1 10:1 12:2 15:2 30:1 31:1 33:3 44:3 48:4 50:4 54:2 55:1 62:1 64:1 69:1 75:1 79:1 85:1 90:1 128:1 132:1 151:1 187:1 199:1 214:1 230:2 264:1 271:4 319:1 375:3 587:2 606:1 781:1 866:3 941:1 987:1 1101:1 1102:3 1123:1 1538:1 1592:4 1703:2 1836:1 1843:1 
1 7:1 13:3 29:1 31:4 42:1 65:2 69:2 142:1 156:3 168:1 192:1 199:4 216:2 292:1 403:1 453:1 487:2 606:3 609:1 615:1 742:1 936:1 997:1 1097:2 1115:1 1436:2 1486:3 1756:1 1791:1 
0.7721107805128684 1:126 2:126 3:75 4:3 5:1 6:82 8:1 10:2 11:1 13:2 15:2 16:2 18:1 21:126 22:1 28:1 41:3 42:1 46:1 48:2 50:1 59:1 64:2 69:21 73:1 75:1 96:1 106:1 120:1 122:1 123:13 140:2 143:43 144:12 150:3 156:2 164:1 184:12 205:58 231:6 238:1 251:1 271:1 273:1 275:1 338:1 359:1 373:1 386:1 398:1 400:1 421:1 424:3 475:2 483:1 489:1 520:1 531:5 539:13 575:12 587:2 593:1 596:1 612:1 698:1 742:1 874:3 881:1 958:1 1018:2 1025:1 1056:22 1082:1 1101:2 1129:1 1142:23 1245:9 1304:6 1329:3 1344:1 1368:19 1464:43 1486:2 1517:4 1574:1 1592:2 1616:1 1650:2 1651:1 1665:16 1775:2 1794:1 1823:2 1843:1 1846:1 1864:12 
1 7:2 8:1 10:1 15:2 22:1 23:1 30:1 31:1 43:2 46:1 48:1 49:1 55:1 56:1 64:1 69:1 72:1 75:1 77:1 79:1 87:2 106:1 157:1 160:1 177:1 182:1 199:1 202:1 225:1 237:2 238:1 251:1 255:2 309:1 318:1 386:1 551:1 584:1 587:2 601:1 711:1 774:1 821:1 868:1 1060:2 1101:1 1466:1 1538:1 1592:1 1709:1 1731:1 1843:1 1846:1 
1 7:2 8:2 9:1 13:3 18:1 33:1 43:1 46:1 55:1 62:1 66:1 69:1 71:1 76:1 77:1 87:1 114:1 156:3 162:1 182:1 186:1 238:2 272:1 339:1 375:1 386:1 393:1 412:1 427:1 503:1 576:1 659:1 881:1 1486:3 1513:1 1538:1 1905:2 
1 4:1 5:1 7:2 9:1 10:1 13:1 15:2 22:1 23:2 30:1 43:2 51:1 55:1 56:1 59:1 64:1 69:1 79:1 82:1 87:2 132:1 134:1 143:1 149:1 156:1 157:1 160:1 175:1 178:1 243:1 251:1 288:1 314:1 319:1 327:1 336:1 381:1 387:1 520:1 587:2 781:1 1101:1 1123:1 1319:1 1398:1 1464:1 1485:1 1486:1 1538:1 1595:1 1616:1 1971:1 
1 7:1 8:1 9:3 13:1 15:3 31:4 50:1 51:1 59:1 66:1 69:1 74:1 128:1 129:1 130:1 140:1 143:1 156:1 178:1 179:1 199:4 202:1 206:1 214:1 230:2 237:1 238:1 241:1 262:1 271:1 517:1 520:1 534:1 587:3 601:1 619:1 663:1 755:1 1456:1 1464:1 1486:1 1616:1 1703:2 1741:1 1759:1 1775:1 1959:1 1964:1 
1 7:1 10:1 12:1 13:2 15:3 23:2 43:1 54:1 56:1 64:1 68:1 69:4 87:1 99:1 105:1 126:1 135:2 143:1 144:1 156:2 157:1 184:1 192:1 313:3 327:4 410:1 573:1 587:3 627:1 653:1 815:1 1004:1 1101:1 1115:1 1188:1 1262:1 1464:1 1486:2 1719:1 1725:2 1734:1 1744:1 
1 7:1 9:1 10:2 13:2 15:1 33:1 47:2 57:1 64:2 69:1 78:1 85:1 117:1 123:1 156:2 177:1 197:1 237:1 240:1 247:1 264:1 375:1 587:1 642:1 821:1 1101:2 1119:1 1486:2 1810:1 
1 7:2 8:2 13:1 15:1 30:1 33:1 39:1 42:1 46:1 49:1 51:1 57:1 63:1 66:1 69:5 74:1 79:1 91:1 93:1 130:1 136:1 142:1 143:1 156:1 175:1 178:1 185:1 197:1 237:1 238:2 253:1 265:1 288:1 290:1 340:1 375:1 386:1 442:1 587:1 614:1 615:1 639:1 708:1 711:1 742:1 1287:1 1456:1 1464:1 1486:1 1731:1 1759:1 
1 1:1 2:1 7:2 9:2 13:1 15:1 21:1 22:1 30:2 31:1 44:1 48:2 50:1 57:1 70:1 77:1 79:2 84:1 105:1 116:1 128:1 149:1 156:1 161:1 182:1 197:1 199:1 214:1 229:1 251:1 262:1 271:1 284:1 288:1 312:1 334:1 587:1 668:1 1079:1 1102:1 1151:1 1164:1 1440:1 1486:1 1584:1 1586:1 1592:2 1649:1 1971:1 
1 7:5 13:1 15:1 23:3 33:1 47:1 51:1 59:1 69:1 99:1 114:1 126:1 156:1 177:1 178:1 244:1 247:1 375:1 500:1 520:1 587:1 642:1 678:1 821:1 859:1 1442:1 1486:1 1489:1 1597:1 1616:1 1719:1 
1 9:1 15:1 18:1 23:2 30:2 39:1 41:1 42:1 43:1 47:1 48:1 56:1 59:2 69:1 70:1 74:1 76:1 79:2 87:1 132:1 146:1 157:1 170:1 293:1 424:1 427:1 500:1 520:2 534:1 587:1 635:1 742:1 881:1 1023:1 1123:1 1164:1 1287:1 1291:1 1385:1 1592:1 1616:2 1623:1 1759:1 
1 7:4 9:2 10:1 18:1 23:1 46:1 60:2 64:1 67:2 76:1 133:1 162:2 250:1 300:2 308:1 318:1 386:1 427:1 881:1 978:2 1101:1 1474:1 1755:1 1807:1 
1 7:2 9:4 10:1 13:1 18:1 23:2 30:3 46:1 48:2 50:2 51:1 55:1 56:2 59:1 64:1 69:1 75:1 79:3 90:1 118:1 143:2 146:1 156:1 157:2 178:1 179:1 201:1 271:2 291:1 298:1 303:1 308:1 315:1 319:1 331:1 339:1 385:1 386:1 520:1 529:1 662:1 781:1 819:1 881:1 1101:1 1385:1 1464:2 1486:1 1538:1 1592:2 1616:1 1741:1 1843:1 1989:1 
1 7:1 8:1 10:2 13:3 15:2 18:1 29:1 31:2 44:1 49:1 64:2 69:1 71:1 152:1 156:3 196:1 199:2 209:1 234:1 238:1 239:1 253:1 290:1 292:1 313:1 441:1 528:1 587:2 659:1 711:1 847:1 881:1 959:1 1101:2 1102:1 1438:1 1486:3 1731:1 
1 8:1 13:1 15:1 22:1 23:1 30:1 31:1 43:1 47:1 58:2 66:1 67:1 69:2 79:1 87:1 143:1 156:1 161:1 185:1 199:1 220:1 238:1 251:1 288:1 507:1 556:1 587:1 785:1 978:1 1319:1 1325:1 1464:1 1486:1 1953:1 
1 7:2 12:3 13:5 15:2 29:2 39:2 49:3 50:1 54:3 56:3 61:1 62:1 65:1 69:1 97:1 98:1 134:1 154:1 156:5 157:3 207:1 223:1 229:1 230:1 244:1 271:1 292:2 312:2 368:1 487:1 587:2 606:2 951:1 979:1 990:1 1151:2 1287:2 1486:5 1649:1 1697:1 1703:1 1731:3 
1 7:1 9:2 10:3 13:2 15:2 23:1 30:1 33:1 43:1 44:1 46:1 48:1 56:1 64:3 67:2 69:1 75:1 77:1 79:1 87:1 126:2 146:1 149:1 151:1 156:2 157:1 182:1 375:1 386:1 418:1 459:1 587:2 647:1 891:1 978:2 987:1 1101:3 1102:1 1385:1 1486:2 1592:1 1674:1 1702:1 1811:1 1843:1 1971:1 
1 7:1 8:5 9:4 23:1 28:1 51:1 60:3 85:1 178:1 206:1 210:1 223:1 238:5 261:1 264:1 272:1 300:3 348:1 714:1 738:4 1443:1 
1 7:4 9:3 12:3 13:1 23:2 29:1 30:1 31:1 42:2 44:1 50:1 51:1 54:3 56:1 57:1 69:1 79:1 90:1 112:1 156:1 157:1 165:1 178:1 197:1 199:1 201:1 216:1 220:1 271:1 288:1 292:1 319:1 333:1 395:1 491:1 554:1 557:1 702:1 742:2 781:1 859:2 861:1 952:1 1102:1 1486:1 1807:1 1888:1 1989:1 
1 7:1 8:1 9:3 13:2 43:2 47:1 50:1 51:1 55:1 69:1 72:1 76:1 85:1 87:2 119:1 122:1 156:2 161:1 170:1 178:1 191:1 196:1 227:1 238:1 255:1 264:1 271:1 290:1 293:1 306:1 358:1 427:1 473:1 596:1 683:1 959:1 1060:1 1398:1 1438:1 1486:2 1538:1 1623:1 1651:1 1709:1 
1 7:1 10:1 13:4 18:1 29:1 33:1 39:1 43:1 48:1 50:2 59:1 64:1 69:2 72:1 85:1 87:1 102:1 119:1 122:1 134:1 156:4 230:1 264:1 271:2 292:1 312:1 375:1 520:1 627:1 881:1 1088:1 1101:1 1151:1 1287:1 1486:4 1566:1 1592:1 1616:1 1651:1 1703:1 1709:1 1834:1 
1 6:1 7:6 8:2 13:3 22:1 23:3 42:1 56:2 69:1 105:1 129:1 155:1 156:3 157:2 186:1 238:2 251:1 254:2 287:1 313:1 431:1 496:2 500:2 742:1 798:1 824:1 843:1 1127:2 1193:2 1486:3 1959:1 
1 12:1 23:1 30:1 33:1 44:3 50:4 54:1 55:4 68:1 69:1 78:1 79:1 84:4 160:1 187:1 206:1 207:1 229:1 240:1 253:1 271:4 333:1 339:1 375:1 449:1 465:4 606:1 751:1 894:4 1079:4 1102:3 1398:1 1400:1 1538:4 1649:1 1888:1 
1 8:1 9:1 28:1 48:1 55:1 69:1 72:1 84:1 122:1 170:1 177:1 196:1 209:1 238:1 821:1 936:1 1079:1 1438:1 1538:1 1592:1 1623:1 1651:1 1709:1 
1 12:1 13:1 18:1 23:1 43:2 47:2 51:1 54:1 56:1 57:1 59:1 63:1 69:7 71:2 87:2 88:1 111:1 114:4 130:1 132:1 136:1 143:1 154:1 155:1 156:1 157:1 178:1 194:1 197:1 228:1 274:1 327:1 412:1 431:1 442:1 520:1 659:2 881:1 1002:1 1123:1 1178:1 1456:1 1464:1 1486:1 1616:1 1804:1 1918:1 
1 7:2 9:1 22:1 59:2 69:3 90:1 110:1 116:1 123:2 205:1 226:1 251:1 334:1 509:1 520:2 757:1 1170:1 1616:2 
1 7:2 12:4 13:4 18:1 22:1 23:2 30:3 31:1 33:2 39:1 41:1 47:2 54:4 67:1 79:3 105:1 106:1 118:1 122:1 156:4 191:2 199:1 251:1 298:1 344:1 358:2 373:1 375:2 424:1 499:1 532:1 812:1 881:1 978:1 1287:1 1309:1 1486:4 1578:1 1651:1 1794:1 1816:1 1846:1 1920:1 
1 7:1 8:1 10:2 13:4 23:2 29:1 30:2 43:1 46:1 47:2 51:1 58:1 64:2 69:1 79:2 87:1 93:1 156:4 166:1 177:1 178:1 227:1 236:2 238:1 265:1 292:1 308:1 327:2 362:1 386:1 614:1 821:1 1101:2 1321:2 1486:4 
1 9:3 10:1 13:2 15:3 30:1 31:1 39:1 42:1 51:1 56:1 57:1 59:1 62:1 64:1 69:2 74:1 79:1 105:1 116:1 126:1 143:2 156:2 157:1 168:1 177:1 178:1 197:1 199:1 202:1 207:1 256:2 260:1 288:2 302:1 334:1 441:1 520:1 587:3 601:1 742:1 755:1 821:1 1011:1 1101:1 1287:1 1336:1 1464:2 1486:2 1616:1 1759:1 1878:1 
1 4:1 5:1 7:1 9:1 12:2 13:2 15:1 18:2 31:1 44:3 50:1 54:2 55:1 56:2 61:1 69:1 74:1 97:1 107:1 114:1 119:1 130:1 138:1 156:2 157:2 173:2 191:1 199:1 248:1 271:1 282:1 358:1 403:1 587:1 774:1 881:2 887:2 923:1 951:1 1006:1 1102:3 1456:1 1486:2 1538:1 1692:1 1759:1 1791:1 1975:1 1996:1 
1 7:1 9:1 10:1 13:1 15:1 18:1 39:1 44:1 46:1 64:1 69:1 70:1 71:2 88:1 99:1 114:1 119:1 130:1 134:1 140:1 142:1 149:1 154:1 156:1 237:1 250:1 255:1 274:1 284:1 302:1 328:1 386:1 395:1 403:1 565:1 587:1 615:1 659:2 669:1 788:1 881:1 994:1 1060:1 1101:1 1102:1 1164:1 1287:1 1440:1 1456:1 1486:1 1719:1 1739:1 1775:1 1791:1 1971:1 
1 7:3 9:2 13:2 23:2 30:1 33:1 39:1 44:1 46:1 51:1 59:1 65:1 69:1 79:1 114:2 122:1 126:1 143:1 156:2 178:1 202:1 222:1 229:1 261:1 369:1 375:1 386:1 392:2 446:1 487:1 500:1 520:1 601:1 1054:1 1102:1 1287:1 1464:1 1486:2 1616:1 1649:1 1651:1 
1 9:3 13:1 22:1 31:1 44:1 62:1 119:2 156:1 196:2 199:1 201:1 207:1 230:2 232:1 251:1 270:1 362:1 494:1 553:1 1102:1 1285:1 1438:2 1486:1 1703:2 1989:1 
1 7:5 9:2 13:3 15:2 22:1 31:2 33:1 56:1 69:1 83:1 106:1 114:1 122:1 156:3 157:1 199:2 227:1 230:2 235:1 251:1 290:1 311:1 313:1 347:1 375:1 404:1 429:2 493:1 587:2 740:1 1133:1 1153:1 1231:1 1486:3 1522:1 1651:1 1703:2 1846:1 
1 7:3 10:2 12:1 13:3 15:2 23:2 30:2 44:1 54:1 56:4 64:2 68:1 69:1 79:2 130:1 134:1 143:1 156:3 157:4 219:1 397:1 587:2 617:1 775:1 793:1 1101:2 1102:1 1456:1 1464:1 1466:1 1486:3 1527:1 1583:1 1611:1 
0.9991857743084746 1:65 2:52 3:13 5:13 6:13 7:3 11:13 13:2 15:1 19:13 21:13 38:13 44:1 49:1 50:1 62:1 70:1 71:2 73:13 74:1 80:26 82:26 110:1 156:2 202:1 214:1 262:1 271:1 275:2 276:2 305:1 338:7 421:13 575:1 582:1 587:1 593:1 601:1 659:2 904:1 908:2 1055:2 1102:1 1164:1 1170:1 1486:2 1520:1 1584:1 1731:1 1759:1 
1 7:1 10:1 12:5 13:2 15:2 29:3 41:1 44:1 46:1 49:1 54:5 56:2 59:1 64:1 69:1 104:1 139:1 140:1 156:2 157:2 175:1 236:1 250:1 269:1 285:1 292:3 309:2 351:1 363:2 386:1 397:1 424:1 520:1 529:1 587:2 604:1 606:1 1101:1 1102:1 1321:1 1486:2 1616:1 1731:1 1775:1 
1 7:1 9:2 10:1 15:2 22:1 23:3 29:1 44:1 47:1 51:1 55:1 56:2 58:1 64:1 67:2 69:3 97:1 123:1 138:1 151:1 157:2 164:1 178:1 187:1 239:1 251:1 273:1 291:1 292:1 312:1 436:1 532:1 587:2 775:1 810:1 951:1 978:2 987:1 1101:1 1102:1 1151:1 1354:1 1365:1 1538:1 1996:1 
1 7:2 8:2 9:6 13:1 15:1 18:1 23:2 30:1 33:1 43:1 47:1 48:1 51:1 59:1 69:1 79:1 87:1 143:1 156:1 169:1 178:1 191:1 222:1 237:1 238:2 256:1 288:1 358:1 370:1 375:1 520:1 587:1 675:1 711:1 791:1 881:1 1464:1 1486:1 1592:1 1616:1 
1 15:1 28:1 58:1 587:1 
1 7:3 9:1 15:3 46:1 47:1 48:1 58:1 62:1 63:1 69:1 84:1 99:1 105:1 117:1 126:1 136:1 143:1 152:1 219:1 241:1 252:1 306:1 314:1 357:1 366:1 386:1 418:1 587:3 619:1 701:1 1079:1 1083:1 1119:1 1191:1 1278:1 1464:1 1592:1 1719:1 
1 7:2 8:1 10:3 13:2 23:3 31:1 33:1 39:1 41:1 42:1 46:1 64:3 69:1 78:1 93:1 126:1 142:2 146:1 156:2 173:1 199:1 202:1 229:1 238:1 240:1 287:1 375:1 386:1 392:1 418:1 424:1 549:1 601:1 614:1 615:2 718:1 742:1 887:1 989:1 1047:1 1101:3 1105:1 1287:1 1385:1 1442:1 1486:2 1489:1 1649:1 
1 13:1 31:2 43:1 56:1 68:1 69:1 80:1 83:1 87:1 151:1 156:1 157:1 199:2 207:1 219:1 237:1 281:1 318:1 501:1 532:1 987:1 1133:1 1486:1 
0.7723893403793775 1:140 2:140 3:84 6:12 8:1 9:1 10:3 11:1 13:1 14:1 15:3 16:2 21:140 24:2 28:2 39:1 41:3 42:1 46:2 56:1 64:3 70:1 73:3 83:1 101:1 103:1 123:14 129:1 140:5 143:36 144:10 150:2 156:1 157:1 163:1 164:1 184:10 205:59 231:6 238:1 273:1 275:2 318:1 338:2 386:2 398:3 400:2 421:1 424:3 425:1 447:1 475:1 483:1 489:1 531:3 539:11 575:17 587:3 593:2 697:1 698:1 737:1 742:1 828:1 874:2 906:9 1025:3 1056:29 1082:2 1101:3 1129:1 1133:1 1142:16 1164:1 1245:8 1287:1 1304:5 1329:2 1368:20 1461:9 1464:36 1486:1 1517:3 1574:2 1645:9 1650:7 1665:18 1775:5 1823:5 1864:11 1947:1 1959:1 
1 8:3 12:1 13:3 15:1 31:1 39:5 42:1 43:1 44:1 46:1 49:1 54:1 56:1 59:1 67:2 72:1 77:3 87:1 101:1 119:1 140:1 146:1 156:3 157:1 182:3 199:1 209:1 232:1 238:3 275:1 284:1 359:1 373:2 386:1 447:1 456:1 500:1 520:1 587:1 742:1 827:1 978:2 1102:1 1287:5 1385:1 1440:1 1466:1 1486:3 1515:1 1616:1 1709:1 1731:1 1775:1 1794:2 1892:1 
1 7:1 8:2 9:2 13:1 18:1 22:1 29:1 39:3 57:1 69:1 71:1 75:1 82:1 88:1 114:1 117:1 156:1 197:1 210:1 238:2 251:1 274:1 292:1 314:1 412:1 511:1 517:1 659:1 765:1 803:1 881:1 898:4 1119:1 1287:3 1486:1 1843:1 
1 7:4 9:3 10:2 13:1 15:1 23:4 29:1 47:2 57:1 63:1 64:2 69:1 92:1 96:1 136:1 143:1 156:1 197:1 292:1 327:1 429:1 500:1 580:1 587:1 627:1 642:1 702:1 803:1 843:1 849:1 880:1 1101:2 1227:1 1464:1 1486:1 
1 7:2 9:3 10:2 12:1 13:1 18:1 23:3 29:1 30:1 31:3 54:1 60:1 64:2 69:1 71:1 74:1 79:1 100:1 126:1 156:1 162:1 199:3 236:1 242:1 288:2 292:1 300:1 496:1 565:1 659:1 711:2 871:1 881:1 1069:1 1101:2 1193:1 1321:1 1486:1 1529:1 1759:1 
1 7:1 8:2 10:1 13:3 15:4 18:1 23:1 29:1 33:1 42:1 44:1 47:1 50:1 64:1 66:2 69:1 92:1 114:1 149:1 156:3 229:2 238:2 239:1 253:1 271:1 290:1 292:1 327:2 375:1 503:1 580:1 587:4 711:1 742:1 842:1 849:1 881:1 1101:1 1102:1 1117:1 1244:1 1299:1 1388:1 1395:1 1410:1 1486:3 1649:2 1674:1 1971:1 
1 12:4 15:1 41:1 43:1 44:4 50:3 51:1 54:4 61:1 69:1 87:1 92:1 102:2 134:1 142:2 155:2 178:1 193:1 271:3 308:1 335:1 395:1 424:1 431:2 587:1 613:1 615:2 772:1 805:2 849:1 862:1 1006:1 1102:4 1566:2 1809:1 
1 7:5 8:1 10:1 13:1 15:1 18:1 39:1 47:2 56:1 61:1 62:1 64:1 67:2 76:1 77:1 93:1 100:1 133:1 140:1 156:1 157:1 166:1 182:1 238:1 310:1 341:1 427:1 440:1 450:1 532:1 587:1 614:1 687:1 711:1 734:1 755:1 813:1 871:1 881:1 978:2 1101:1 1287:1 1428:1 1486:1 1637:1 1775:1 
1 7:1 9:1 10:2 13:1 15:1 23:2 29:1 31:1 49:2 64:2 69:2 70:1 99:1 105:1 107:2 118:1 140:2 156:1 166:1 199:1 282:1 292:1 298:1 412:1 587:1 904:1 989:1 1046:1 1101:2 1149:1 1164:1 1297:1 1486:1 1626:1 1719:1 1731:2 1775:2 1814:1 
1 7:1 8:1 9:3 13:2 18:1 31:1 33:1 39:1 43:1 47:1 49:1 50:1 51:1 57:1 59:1 62:1 65:1 69:1 87:1 105:1 107:1 116:1 118:1 128:1 129:1 152:1 156:2 169:1 178:1 197:1 199:1 226:1 234:1 237:1 238:1 270:1 271:1 290:1 298:1 302:1 334:1 354:1 375:1 487:1 489:1 517:1 520:1 881:1 1127:1 1226:1 1234:1 1287:1 1486:2 1506:1 1616:1 1731:1 1959:1 
1 7:5 9:3 13:4 15:1 23:1 33:1 43:3 44:1 48:1 55:1 56:1 65:1 68:1 82:1 87:3 117:1 126:1 143:1 156:4 157:1 187:1 214:1 375:1 395:1 452:1 487:1 587:1 681:1 711:1 1097:1 1102:1 1119:1 1436:1 1464:1 1486:4 1538:1 1592:1 1920:1 
1 7:1 8:2 9:1 10:3 13:1 15:1 22:1 23:1 30:1 41:2 46:2 55:1 56:1 64:3 65:2 69:1 79:1 117:1 143:1 156:1 157:1 238:2 251:1 288:1 309:1 323:1 329:1 386:2 424:2 441:1 487:2 587:1 892:1 1101:3 1109:1 1119:1 1126:1 1194:1 1295:1 1464:1 1486:1 1538:1 
1 7:3 8:4 9:1 10:1 15:1 22:1 23:1 30:2 64:1 70:2 75:1 79:2 105:2 106:2 177:1 183:1 220:1 223:1 225:1 238:4 251:1 314:1 392:2 587:1 821:1 868:1 915:1 1047:1 1101:1 1164:2 1328:1 1416:2 1843:1 1846:2 
1 4:1 5:1 7:3 8:3 13:4 22:1 23:1 47:3 55:1 63:1 69:1 91:1 111:1 132:1 136:1 156:4 225:1 237:2 238:3 239:1 251:1 283:1 331:1 444:1 510:1 527:1 639:1 643:1 774:1 868:1 1123:1 1127:1 1284:1 1486:4 1533:1 1538:1 1804:1 
1 7:3 10:3 12:3 13:3 15:1 30:1 41:1 44:1 46:1 48:1 54:3 60:1 64:3 77:1 79:1 91:1 156:3 163:2 182:1 230:1 300:1 328:1 386:1 424:1 493:1 587:1 606:2 639:1 744:1 752:1 853:1 935:1 1101:3 1102:1 1443:1 1486:3 1592:1 1703:1 
1 7:4 8:1 12:3 23:1 30:2 33:1 43:3 51:1 54:3 56:1 57:1 62:1 69:4 71:1 74:1 79:2 87:3 92:1 110:1 118:1 126:1 128:1 157:1 173:1 177:1 178:1 183:1 197:1 217:1 238:1 242:2 272:1 296:1 298:1 328:1 375:1 500:2 573:1 579:1 606:1 659:1 821:1 849:1 887:1 1170:1 1188:1 1262:1 1328:1 1584:1 1759:1 
1 7:6 8:1 9:1 10:1 13:2 18:1 22:1 23:3 31:1 42:2 64:1 65:1 66:1 70:1 156:2 161:1 191:1 199:1 228:1 238:1 251:1 290:2 315:1 358:1 370:1 433:1 487:1 644:1 742:2 881:1 1101:1 1164:1 1288:1 1472:1 1486:2 1501:1 
1 7:3 8:1 10:1 13:1 23:1 33:3 39:2 41:1 56:3 57:1 59:1 63:1 64:1 69:1 91:1 92:1 101:1 105:1 122:1 129:1 136:1 140:1 143:1 156:1 157:3 197:1 238:1 241:2 375:3 424:1 447:1 520:1 619:2 639:1 748:1 818:1 849:1 1101:1 1110:1 1287:2 1405:1 1464:1 1486:1 1616:1 1651:1 1775:1 1906:1 1959:1 
1 7:2 8:2 9:2 10:2 13:1 15:1 18:1 33:1 46:2 47:1 64:2 69:1 82:1 105:1 126:1 144:1 156:1 184:1 238:2 375:1 386:2 587:1 637:1 798:1 881:1 1046:1 1101:2 1443:1 1486:1 
1 7:2 13:2 15:2 22:1 33:1 42:1 43:1 62:2 69:1 87:1 91:2 92:1 126:1 150:1 156:2 251:1 263:1 375:1 416:3 441:1 587:2 639:2 711:2 742:1 849:1 1097:1 1436:1 1481:1 1486:2 
1 9:2 10:1 13:4 15:1 22:1 29:1 30:2 33:1 39:1 44:1 47:1 58:2 64:1 69:1 78:1 79:2 90:1 105:1 114:1 142:1 145:2 156:4 192:1 193:2 229:1 240:1 251:1 252:2 275:1 292:1 375:1 395:1 587:1 615:1 1051:1 1101:1 1102:1 1115:1 1287:1 1391:1 1486:4 1649:1 1837:1 
1 7:1 8:1 13:1 18:1 23:2 29:2 30:1 33:1 50:5 51:2 59:1 66:1 69:1 74:2 79:1 122:1 128:1 156:1 170:1 178:2 190:1 225:1 238:1 270:1 271:5 292:2 375:1 520:1 549:1 581:1 606:2 868:1 881:1 936:1 1428:1 1486:1 1589:1 1616:1 1623:1 1651:1 1759:2 
1 8:3 10:2 13:2 22:1 23:1 29:2 30:1 41:1 44:1 59:1 64:2 69:2 79:1 134:1 143:1 156:2 169:1 193:1 216:1 238:3 244:1 247:1 251:1 269:2 290:1 292:2 312:1 364:1 424:1 426:1 520:1 669:2 1101:2 1102:1 1127:1 1151:1 1191:1 1221:1 1464:1 1486:2 1616:1 1637:1 
1 7:2 8:1 9:4 12:3 13:1 18:1 23:1 30:1 31:1 33:1 42:1 47:2 51:1 54:3 56:2 57:1 59:1 66:1 69:1 79:1 92:3 105:2 110:1 152:1 156:1 157:2 178:1 191:1 197:1 199:1 220:1 237:1 238:1 288:1 358:1 370:1 375:1 477:1 520:1 579:2 742:1 849:3 881:1 1170:1 1290:1 1486:1 1616:1 1813:1 
1 7:2 10:1 13:3 15:1 22:1 23:3 46:1 49:1 57:2 59:1 64:1 66:1 69:1 72:1 84:1 85:1 88:1 96:1 106:1 118:1 129:2 140:1 143:2 156:3 197:2 214:1 234:1 244:1 251:1 264:1 274:1 281:1 298:1 328:1 385:1 386:1 520:1 587:1 1079:1 1101:1 1110:1 1142:1 1464:2 1486:3 1616:1 1709:1 1731:1 1775:1 1832:1 1846:1 1959:2 
1 7:1 8:1 9:9 12:4 23:5 30:3 33:1 54:4 69:1 79:3 114:1 118:3 129:1 132:1 138:1 143:2 168:1 196:1 201:2 238:1 241:1 288:1 298:3 375:1 619:1 895:1 1123:1 1438:1 1464:2 1959:1 1989:2 1996:1 
1 9:2 13:1 15:1 18:1 31:2 39:1 44:2 47:1 57:1 63:1 66:1 69:2 91:1 107:1 118:1 119:1 136:1 142:1 156:1 164:1 177:1 197:1 199:2 209:1 220:1 255:1 273:1 298:1 308:1 392:1 540:1 587:1 611:1 615:1 639:1 691:1 821:1 881:1 1060:1 1102:2 1287:1 1486:1 1721:1 
1 7:1 9:3 13:2 30:1 48:1 50:1 55:1 57:1 58:1 66:1 72:1 79:1 156:2 168:1 170:1 197:1 198:1 203:1 252:1 271:1 312:1 371:1 428:1 492:1 493:1 527:1 706:1 785:1 1151:1 1317:1 1486:2 1538:1 1592:1 1623:1 1709:1 
1 7:2 8:1 9:4 10:1 13:1 15:2 23:2 30:2 31:2 33:1 41:1 42:1 55:1 60:3 61:1 64:1 69:2 79:2 104:1 134:1 143:1 146:1 156:1 173:1 187:1 199:2 229:1 238:1 300:3 351:1 375:1 424:1 441:1 519:1 587:2 742:1 887:1 1064:1 1101:1 1343:1 1385:1 1413:1 1464:1 1486:1 1538:1 1649:1 
1 7:2 8:3 15:4 30:1 46:1 48:1 55:1 61:3 79:1 83:1 96:1 105:3 230:1 238:3 307:1 315:1 328:1 339:1 386:1 429:4 580:1 587:4 1133:1 1207:1 1319:1 1446:1 1538:1 1592:1 1703:1 1865:1 
1 7:3 8:2 9:1 12:2 15:1 18:2 29:1 30:1 31:2 43:2 48:2 54:2 58:1 69:1 76:2 79:1 87:2 105:1 107:1 117:1 149:1 199:2 227:1 238:2 255:1 285:1 290:1 292:1 309:1 318:1 362:1 366:1 425:1 427:2 496:1 510:1 587:1 647:1 728:1 764:1 881:2 1060:1 1119:1 1193:1 1278:1 1340:1 1400:1 1592:2 1971:1 
1 7:1 8:1 10:2 13:3 22:2 23:1 28:1 30:1 39:2 41:1 42:1 46:1 57:1 64:2 69:1 75:1 79:1 93:1 156:3 179:1 197:1 216:1 238:1 251:2 290:1 386:1 422:1 424:1 441:1 614:1 742:1 1101:2 1287:2 1360:1 1486:3 1669:1 1741:1 1843:1 
1 7:3 9:3 10:4 13:1 15:1 16:1 18:1 22:1 23:1 28:1 29:1 46:1 50:2 62:1 64:4 68:1 72:1 83:1 93:1 146:1 156:1 175:1 196:1 251:1 271:2 288:1 292:1 305:1 328:1 386:1 587:1 614:1 881:1 1101:4 1133:1 1268:1 1380:1 1385:1 1428:1 1438:1 1486:1 1709:1 1883:1 
1 7:1 9:1 10:5 12:2 13:1 18:1 33:1 41:1 42:1 46:2 54:2 58:1 64:5 69:1 74:1 76:1 105:1 138:1 143:1 156:1 186:1 230:1 280:1 288:1 318:1 375:1 386:2 424:1 427:1 504:1 632:1 742:1 881:1 1101:5 1121:1 1464:1 1486:1 1626:1 1703:1 1759:1 1978:1 1996:1 
1 7:2 8:1 13:2 22:1 86:1 156:2 238:1 251:1 603:1 922:1 982:1 1256:1 1295:1 1486:2 1555:1 1650:1 
1 7:3 10:2 13:3 15:1 23:2 31:1 33:1 41:1 56:2 64:2 66:1 69:5 77:2 85:1 92:1 126:1 130:1 154:1 156:3 157:2 182:2 199:1 249:1 264:1 290:1 296:1 375:1 424:1 470:1 500:1 587:1 801:1 827:1 849:1 853:1 1101:2 1456:1 1486:3 
1 7:3 8:1 12:3 13:2 15:3 22:2 31:1 41:2 42:1 44:1 46:1 47:1 49:1 54:3 61:1 68:1 69:1 75:1 78:1 83:1 92:1 126:1 140:1 143:1 156:2 199:1 225:1 238:1 240:1 251:2 276:1 287:1 327:1 378:1 386:1 397:1 418:1 424:2 587:3 708:1 742:1 849:1 862:1 868:1 1055:1 1102:1 1133:1 1464:1 1486:2 1731:1 1775:1 1843:1 
1 7:3 10:1 13:2 22:1 23:1 31:1 33:1 39:1 48:1 49:2 57:1 64:1 66:1 101:1 107:1 143:1 156:2 180:1 197:1 199:1 251:1 262:1 287:1 331:1 375:1 447:1 516:1 560:1 982:1 1101:1 1287:1 1464:1 1476:2 1486:2 1592:1 1731:2 1881:1 
1 1:1 2:1 7:1 9:2 10:3 21:1 28:1 33:1 46:2 51:1 64:3 66:1 84:2 117:1 140:1 178:1 375:1 386:2 722:1 736:1 892:1 1079:2 1101:3 1119:1 1674:1 1775:1 
1 7:2 9:2 12:1 13:5 18:1 22:1 23:3 28:1 30:1 54:1 57:1 79:1 122:1 126:1 144:1 156:5 184:1 197:1 251:1 425:1 493:1 757:1 881:1 1486:5 1585:1 1651:1 
1 7:2 13:3 15:2 18:1 23:2 30:1 39:1 43:1 50:1 56:3 63:1 69:1 70:1 74:1 79:1 87:1 105:1 106:1 111:1 118:1 126:1 128:1 134:1 136:1 149:1 156:3 157:3 162:1 180:1 202:1 236:1 271:1 298:1 385:1 395:2 496:1 587:2 601:1 881:1 1006:1 1164:1 1193:1 1287:1 1321:1 1486:3 1759:1 1804:1 1846:1 1971:1 
1 9:2 10:2 13:1 18:1 22:3 59:2 64:2 90:2 156:1 251:3 434:1 520:2 881:1 1101:2 1486:1 1616:2 1958:1 
1 9:3 10:1 13:2 23:3 30:2 31:3 33:1 42:1 62:1 64:1 68:1 69:1 78:1 79:2 82:1 85:2 122:1 130:1 138:1 140:1 156:2 169:1 199:3 240:1 264:2 375:1 403:1 742:1 1101:1 1456:1 1486:2 1506:1 1651:1 1775:1 1791:1 1996:1 
1 7:5 8:1 9:1 10:1 13:1 29:1 59:7 64:1 66:1 69:1 83:2 99:1 120:1 130:1 156:1 170:1 238:1 250:3 287:1 292:1 327:1 409:1 520:7 722:1 805:7 857:1 898:1 1003:1 1064:1 1101:1 1133:2 1412:1 1456:1 1486:1 1616:7 1623:1 1667:2 1719:1 
1 7:1 8:1 12:3 29:1 30:1 33:3 41:3 44:1 47:1 50:1 51:1 54:3 57:1 61:1 63:2 65:1 79:1 90:1 91:1 92:1 102:1 105:1 111:1 129:1 136:2 139:1 142:1 143:1 178:1 197:1 223:1 234:2 238:1 265:1 266:1 271:1 284:1 292:1 355:1 375:3 424:3 453:2 487:1 615:1 639:1 672:1 849:1 862:1 1102:1 1255:1 1274:1 1440:1 1464:1 1566:1 1707:1 1804:1 1959:1 
1 7:1 9:6 13:4 22:2 33:1 51:1 58:1 62:1 69:1 76:1 117:1 138:1 145:1 156:4 177:1 178:1 196:1 251:2 310:1 375:1 427:1 434:1 441:1 557:1 643:1 821:1 861:1 926:1 1035:1 1119:1 1438:1 1446:1 1486:4 1567:1 1996:1 
1 10:3 13:2 22:1 23:3 44:3 46:1 50:2 51:1 59:1 64:3 69:1 72:2 74:1 88:1 92:2 101:1 104:2 154:1 156:2 163:1 178:1 185:1 186:1 200:1 230:1 251:1 259:1 271:2 274:1 315:1 351:2 386:1 447:1 520:1 660:1 849:2 857:1 926:1 1101:3 1102:3 1486:2 1567:2 1616:1 1703:1 1709:2 1759:1 1911:1 
1 7:3 9:2 10:1 13:1 15:2 18:3 31:3 33:2 39:1 44:2 51:1 57:1 64:1 71:1 72:1 130:1 156:1 178:1 197:1 199:3 312:1 345:1 375:2 500:1 587:2 637:1 659:1 813:1 881:3 1101:1 1102:2 1151:1 1281:1 1287:1 1456:1 1469:1 1486:1 1709:1 1870:1 
1 7:5 8:1 10:4 12:2 13:1 23:1 31:1 33:1 41:1 42:1 43:3 46:1 50:2 54:2 64:4 69:1 70:1 85:1 87:3 90:1 115:1 117:1 156:1 170:1 199:1 237:1 238:1 264:1 271:2 318:1 375:1 386:1 401:1 424:1 501:1 507:1 742:1 1101:4 1119:1 1164:1 1196:1 1408:1 1446:1 1486:1 1623:1 1726:1 
1 7:4 9:4 10:3 13:2 18:1 22:2 23:2 29:1 31:1 33:7 41:1 44:1 56:1 60:1 62:1 64:3 68:1 69:1 93:1 99:1 129:1 130:1 156:2 157:1 199:1 251:2 266:1 292:1 300:1 341:1 375:7 424:1 614:1 670:1 792:1 881:1 1101:3 1102:1 1318:1 1456:1 1486:2 1506:1 1681:1 1719:1 1959:1 
1 7:2 10:2 15:3 16:2 23:1 29:1 30:1 33:1 41:1 49:1 51:1 58:1 59:1 64:2 69:2 75:2 76:1 79:1 96:1 97:1 105:1 107:1 110:1 111:2 114:1 151:2 164:1 178:1 194:1 273:1 292:1 350:1 375:1 424:1 427:1 520:1 581:1 587:3 951:1 986:1 987:2 1101:2 1170:1 1319:1 1446:1 1616:1 1731:1 1804:2 1843:2 1918:1 
1 7:1 8:1 9:1 15:2 22:1 23:1 29:1 31:1 42:1 45:1 55:1 62:1 69:1 76:1 77:1 92:1 100:1 105:1 126:1 134:1 151:1 182:1 187:1 199:1 237:1 238:1 251:1 255:1 292:1 314:1 394:1 427:1 459:1 521:1 587:2 676:1 699:1 742:1 849:1 871:1 987:1 1060:1 1325:1 1538:1 1673:1 1810:1 1811:1 1904:1 
1 7:1 8:1 9:1 10:2 15:2 18:1 23:2 44:1 46:1 60:1 63:1 64:2 69:2 72:1 84:1 98:1 111:1 136:1 238:1 242:1 300:1 355:1 364:1 368:1 370:1 386:1 406:1 429:1 587:2 606:1 672:1 881:1 990:1 1079:1 1101:2 1102:1 1354:1 1469:1 1474:2 1709:1 1804:1 
1 5:2 7:1 9:5 10:2 12:4 13:2 15:1 18:1 23:1 30:1 33:1 42:1 44:1 46:1 47:1 50:3 54:4 55:1 59:1 64:2 68:1 69:1 71:1 75:1 79:1 99:1 114:2 133:1 156:2 177:1 187:1 214:1 223:1 271:3 327:1 375:1 386:1 412:1 520:1 587:1 637:1 659:1 742:1 821:1 881:1 923:1 1101:2 1102:1 1486:2 1538:1 1616:1 1617:1 1719:1 1843:1 1893:1 
1 7:3 8:1 10:1 12:2 13:1 15:2 23:1 31:1 54:2 63:3 64:1 69:1 83:1 105:1 110:1 119:1 126:1 132:2 136:3 149:1 154:1 156:1 180:1 199:1 238:1 241:1 257:1 266:1 288:1 376:1 587:2 619:1 648:1 775:1 858:1 1101:1 1123:2 1133:1 1170:1 1486:1 1519:1 1971:1 
1 7:4 8:1 9:1 10:1 13:1 15:2 18:1 23:2 29:1 30:1 33:1 43:2 44:2 47:1 55:1 64:1 68:1 76:1 79:1 87:2 88:1 114:1 133:1 149:1 156:1 160:1 187:1 214:1 226:1 238:1 274:1 288:1 291:1 292:1 368:1 375:1 395:1 427:1 460:1 587:2 714:1 767:1 881:1 990:1 1101:1 1102:2 1140:1 1486:1 1538:1 1920:1 1971:1 
1 7:2 8:1 9:2 10:4 12:1 18:1 23:2 31:1 43:1 44:1 46:1 54:1 64:4 69:1 75:2 77:1 80:1 87:1 93:1 130:1 151:2 182:1 183:1 199:1 238:1 291:2 386:1 426:1 450:1 500:1 501:1 614:1 637:1 711:1 881:1 987:2 1081:1 1101:4 1102:1 1328:1 1456:1 1843:2 
1 7:10 10:3 12:3 13:4 15:2 23:1 41:1 54:3 64:3 69:2 76:1 88:1 135:1 148:2 149:1 156:4 186:1 253:1 274:1 337:1 350:1 424:1 427:1 559:1 574:1 583:1 587:2 799:1 892:1 924:1 1075:1 1101:3 1486:4 1550:1 1564:1 1573:2 1725:1 1958:1 1971:1 
1 7:1 13:2 31:2 43:2 56:2 66:1 67:1 69:1 71:1 72:1 74:1 87:2 129:1 132:1 138:1 142:1 154:1 156:2 157:2 199:2 202:1 237:1 305:1 318:1 333:1 383:1 432:1 437:1 479:1 491:1 582:1 601:1 615:1 659:1 676:1 711:1 782:2 978:1 1112:1 1123:1 1486:2 1590:1 1709:1 1759:1 1888:1 1959:1 1996:1 
1 7:2 9:1 10:1 13:2 15:1 23:2 30:3 41:1 43:1 51:2 58:1 64:1 65:1 69:1 74:1 78:2 79:3 87:1 114:1 143:1 156:2 173:1 177:1 178:2 185:1 240:2 347:1 392:1 414:1 422:1 424:1 439:1 487:1 587:1 606:1 821:1 887:1 1101:1 1464:1 1486:2 1759:1 
1 4:1 5:1 7:3 8:2 9:1 10:1 13:1 18:2 23:1 30:1 47:2 56:1 64:1 69:1 79:1 99:1 119:1 130:1 133:1 143:2 156:1 157:1 173:1 207:1 223:1 229:1 238:2 242:1 282:1 288:1 440:1 576:1 797:1 845:1 881:2 887:1 1101:1 1456:1 1464:2 1486:1 1649:1 1719:1 
1 7:4 8:1 12:1 13:2 15:3 22:1 23:1 41:1 42:1 44:1 48:2 51:1 54:1 66:2 67:2 69:3 77:3 104:1 107:2 156:2 160:2 178:1 182:3 212:1 237:1 238:1 251:1 279:1 351:1 355:1 378:2 424:1 473:1 553:1 587:3 742:1 978:2 1102:1 1408:1 1474:1 1486:2 1578:1 1592:2 1891:1 
1 7:2 10:3 13:3 15:1 23:2 30:2 31:2 33:1 46:1 51:1 56:2 61:2 64:3 69:1 70:2 75:1 79:2 126:1 129:2 143:1 156:3 157:2 178:1 180:1 199:2 232:1 261:1 291:1 327:1 347:1 366:1 375:1 386:1 410:2 587:1 913:1 1006:1 1101:3 1164:2 1241:1 1278:1 1464:1 1486:3 1696:1 1843:1 1959:2 
1 7:2 8:1 9:1 10:2 12:3 13:1 15:2 22:1 23:2 30:1 33:1 39:1 41:1 47:1 54:3 56:1 58:1 64:2 69:1 79:1 105:1 126:1 135:1 156:1 157:1 217:1 227:1 238:1 251:1 261:1 263:1 375:1 424:1 500:1 509:1 587:2 610:1 627:1 837:1 1077:1 1101:2 1287:1 1486:1 1696:1 1725:1 
1 7:2 8:2 10:1 13:3 15:1 18:2 29:1 39:1 44:3 59:3 64:1 156:3 238:2 292:1 520:3 587:1 881:2 1101:1 1102:3 1141:2 1287:1 1323:2 1486:3 1616:3 
1 8:2 9:5 10:2 13:1 15:1 16:1 22:1 41:1 43:2 44:1 47:1 49:1 56:1 59:1 63:1 64:2 67:1 69:1 76:1 87:2 136:1 154:1 156:1 157:1 186:1 190:1 220:1 232:1 238:2 251:1 368:1 399:1 424:1 427:1 520:1 527:1 587:1 608:1 786:1 978:1 990:1 1077:1 1101:2 1102:1 1316:1 1486:1 1589:1 1616:1 1731:1 1984:1 
1 7:1 10:1 13:1 23:2 29:1 46:2 47:1 63:3 64:1 85:1 101:1 136:3 156:1 207:1 246:1 264:1 292:1 386:2 447:1 935:1 1101:1 1105:1 1486:1 1674:1 
1 7:2 9:1 10:1 13:2 15:1 22:1 29:1 30:1 31:1 55:1 58:1 62:1 63:1 64:1 77:1 79:1 111:1 136:1 156:2 182:1 199:1 251:1 253:1 292:1 339:1 559:1 587:1 606:1 866:1 924:1 1101:1 1468:1 1486:2 1538:1 1804:1 
1 7:1 8:1 10:1 13:1 15:1 23:1 30:1 33:1 43:2 51:1 56:1 57:1 64:1 68:2 69:1 72:1 79:1 87:2 96:1 100:1 107:1 119:1 123:1 126:1 154:1 156:1 157:1 178:1 194:1 197:1 202:1 238:1 255:1 288:1 308:1 342:1 356:1 366:1 369:1 375:1 545:1 586:1 587:1 601:1 643:1 723:1 871:1 1060:1 1101:1 1274:1 1278:1 1486:1 1709:1 1918:1 
1 2:1 8:1 49:1 58:2 69:1 238:1 338:1 727:1 840:1 967:1 1731:1 
1 1:3 2:3 3:2 4:1 5:2 7:1 8:2 10:1 15:1 21:2 22:1 26:1 33:1 36:1 37:1 46:1 61:1 64:1 73:2 129:1 238:2 251:1 305:1 375:1 386:1 500:1 587:1 977:1 981:1 1101:1 1335:1 1463:1 1722:1 1959:1 
1 5:1 7:2 8:1 10:1 13:3 23:2 58:3 64:1 68:2 69:1 78:1 83:1 156:3 205:1 212:1 238:1 240:1 416:1 441:1 509:1 535:2 622:1 722:1 967:1 1101:1 1133:1 1486:3 1853:1 
1 7:5 9:1 10:2 13:2 18:1 29:1 31:1 44:2 46:1 47:1 56:1 64:2 74:2 154:1 156:2 157:1 198:1 199:1 206:2 212:1 222:1 241:1 292:1 310:1 327:1 369:1 386:1 547:1 619:1 881:1 892:2 985:1 1101:2 1102:2 1319:1 1396:1 1486:2 1759:2 1920:1 
1 7:2 8:1 9:2 10:3 15:1 22:1 23:3 42:1 46:1 64:3 69:2 85:1 88:1 190:1 238:1 251:1 264:1 274:1 281:1 289:1 296:1 386:1 393:1 493:2 582:1 587:1 733:1 738:1 742:1 828:1 1101:3 1589:1 1895:1 
1 9:3 10:4 13:1 15:1 18:1 23:2 29:1 30:3 33:1 51:1 62:1 64:4 69:1 76:2 79:3 85:1 96:1 126:1 132:1 156:1 161:1 178:1 194:1 264:1 292:1 315:1 363:1 366:1 375:1 427:2 453:1 506:1 587:1 632:1 676:1 881:1 1101:4 1112:1 1123:1 1278:1 1418:1 1486:1 1918:1 
1 9:1 10:2 13:2 23:1 31:1 42:1 46:1 56:1 63:1 64:2 90:1 107:1 110:1 119:1 136:1 154:1 156:2 157:1 188:1 199:1 237:1 311:1 319:1 386:1 742:1 781:1 928:1 1101:2 1170:1 1486:2 
1 8:1 12:5 13:2 15:1 23:1 29:1 31:1 41:1 44:3 49:1 54:5 63:1 69:1 76:1 78:1 85:1 97:1 98:1 101:3 122:1 136:1 156:2 179:1 199:1 207:2 238:1 240:1 264:1 292:1 305:1 332:1 423:1 424:1 427:1 447:3 587:1 598:1 599:1 606:2 951:1 1102:3 1486:2 1578:1 1651:1 1697:1 1731:1 1741:1 
1 7:2 12:1 13:1 15:1 23:1 29:2 31:1 41:1 44:1 46:1 49:1 54:1 55:2 57:1 62:1 65:1 66:2 69:2 85:1 102:1 104:1 105:1 107:1 114:1 129:1 130:1 156:1 197:1 199:1 200:1 222:1 239:1 246:1 264:1 270:1 292:2 310:1 339:1 351:1 366:1 376:1 386:1 424:1 450:1 487:1 587:1 1102:1 1278:1 1428:1 1456:1 1486:1 1538:2 1566:1 1731:1 1911:1 1959:1 
1 7:1 9:2 10:4 13:1 15:1 22:1 33:1 64:4 67:1 69:2 71:1 77:1 88:1 92:1 126:1 156:1 162:1 175:1 182:1 183:1 234:1 251:1 274:1 311:1 348:1 375:1 395:1 440:1 511:1 587:1 642:2 659:1 818:1 849:1 978:1 1101:4 1328:1 1486:1 1755:1 
1 9:3 10:1 13:3 23:1 29:1 31:1 42:1 47:2 56:1 62:1 63:2 64:1 69:1 71:1 72:1 98:1 107:1 128:1 130:2 136:2 156:3 157:1 199:1 202:1 227:1 228:1 290:1 292:1 501:1 582:1 585:1 601:1 659:1 718:1 742:1 772:1 1101:1 1428:1 1456:2 1486:3 1709:1 1894:1 
1 7:5 8:1 9:1 12:3 13:1 23:1 29:1 39:1 48:1 50:1 54:3 56:1 62:1 69:7 85:1 90:1 104:1 105:1 138:1 142:1 143:1 156:1 157:1 164:1 180:1 191:1 194:1 238:1 264:1 271:1 273:1 292:1 340:1 351:1 358:1 366:1 443:1 479:1 554:1 615:1 785:1 906:1 1191:1 1278:1 1287:1 1461:1 1464:1 1486:1 1592:1 1645:1 1918:1 1996:1 
1 7:2 9:1 10:2 13:4 23:1 31:2 33:1 49:1 64:2 69:1 101:1 102:1 107:1 117:1 156:4 177:1 199:2 230:1 237:1 241:2 318:1 366:1 375:1 447:1 456:1 517:1 532:1 577:1 619:2 626:1 821:1 1043:1 1101:2 1119:1 1278:1 1486:4 1522:1 1566:1 1703:1 1731:1 
1 7:5 8:2 15:1 22:1 31:2 41:1 47:1 49:1 55:1 71:1 84:2 95:1 101:1 112:2 199:2 238:2 251:1 278:1 290:2 339:1 409:1 424:1 447:1 587:1 632:2 659:1 943:1 1079:2 1290:2 1408:1 1538:1 1729:1 1731:1 
1 7:1 8:1 9:1 10:2 12:1 13:4 18:1 23:1 33:1 42:1 54:1 58:1 64:2 65:1 69:1 73:1 74:2 90:1 105:1 135:1 156:4 238:1 288:1 318:1 375:1 392:1 487:1 558:1 742:1 881:1 898:1 927:1 971:1 1101:2 1142:1 1238:1 1372:1 1486:4 1576:1 1725:1 1759:2 
1 9:3 10:2 13:3 18:1 31:3 41:1 44:1 47:1 50:3 64:2 65:1 69:1 133:1 156:3 163:1 170:2 191:1 199:3 223:1 271:3 288:1 310:1 358:1 411:1 424:1 487:1 859:2 881:1 882:1 926:1 1101:2 1102:1 1122:1 1181:1 1306:1 1486:3 1623:2 
1 7:3 10:2 22:2 23:1 29:3 39:1 41:1 44:1 50:1 62:2 64:2 66:1 68:1 69:1 72:1 117:1 120:1 159:1 249:1 251:2 271:1 279:1 283:1 292:3 296:1 424:1 680:2 1101:2 1102:1 1119:1 1287:1 1506:2 1533:1 1541:1 1638:1 1709:1 1920:1 
1 8:3 10:1 12:3 13:2 15:1 23:1 29:1 30:1 33:1 39:1 49:2 50:2 54:3 58:1 64:1 69:1 79:1 97:2 98:1 132:1 156:2 177:1 185:1 219:1 238:3 271:2 282:1 292:1 327:1 375:1 433:2 511:1 587:1 764:1 805:1 811:1 821:1 951:2 1101:1 1117:1 1123:1 1287:1 1319:1 1395:1 1486:2 1731:2 
1 7:6 9:1 23:3 30:2 31:1 33:1 39:1 51:1 69:1 75:1 79:2 129:1 178:1 180:1 199:1 216:2 229:1 325:1 375:1 727:1 739:1 961:1 1287:1 1649:1 1843:1 1959:1 
1 7:2 9:1 13:2 23:3 31:1 33:1 47:1 51:2 57:1 69:1 88:1 126:1 143:1 156:2 168:1 178:2 197:1 199:1 256:1 274:1 288:1 315:1 375:1 457:1 521:1 591:1 1426:1 1464:1 1465:1 1486:2 
1 7:5 9:2 10:1 13:2 22:1 23:2 42:1 62:1 64:1 69:1 78:1 93:1 146:1 156:2 177:1 216:1 229:1 240:1 251:1 272:1 287:1 392:1 614:1 678:1 705:1 742:1 798:1 821:1 1042:1 1101:1 1385:1 1413:2 1486:2 1649:1 1650:1 1872:1 
1 7:6 8:2 9:1 10:2 13:1 15:1 18:1 22:1 23:1 31:1 47:1 59:1 60:1 64:2 67:1 68:1 72:1 117:1 143:1 152:1 156:1 161:1 177:1 199:1 230:1 234:2 237:1 238:2 251:1 261:1 290:1 300:1 520:1 531:1 587:1 747:1 821:1 874:1 881:1 920:1 978:1 1101:2 1119:1 1464:1 1486:1 1590:1 1616:1 1703:1 1709:1 
1 7:2 8:1 10:2 18:1 22:1 29:1 47:2 51:1 61:1 64:2 69:1 88:1 115:1 120:1 130:2 155:1 177:1 178:1 207:1 223:1 230:2 235:1 238:1 251:1 274:1 292:1 409:1 412:1 431:1 493:2 499:1 617:1 821:1 881:1 902:1 1041:1 1101:2 1241:1 1456:2 1475:1 1703:2 1809:1 
1 5:1 7:2 8:1 10:2 13:5 15:3 22:1 23:1 31:2 39:1 41:1 47:1 57:1 58:2 61:2 64:2 69:1 71:1 72:1 129:1 156:5 161:1 197:1 199:2 238:1 251:1 253:1 287:1 327:2 350:1 424:1 484:1 587:3 659:1 749:1 810:1 818:1 1101:2 1287:1 1299:1 1486:5 1524:1 1709:1 1959:1 
1 7:1 8:2 9:3 10:2 29:1 41:2 48:1 50:1 51:1 64:2 69:1 71:1 74:3 75:1 76:1 84:2 99:1 101:1 116:1 178:1 209:1 238:2 271:1 287:1 292:1 327:1 334:1 336:1 424:2 427:1 447:1 582:1 644:1 659:1 696:1 739:1 858:1 1079:2 1101:2 1586:1 1592:1 1719:1 1759:3 1843:1 
1 5:1 7:3 9:3 13:1 15:3 22:1 43:3 55:2 87:3 93:2 132:1 154:1 156:1 186:1 187:2 214:1 248:1 251:1 285:1 347:1 453:2 537:1 587:3 614:2 632:1 641:1 741:2 1123:1 1406:1 1486:1 1538:2 1975:1 
1 7:1 8:1 9:1 10:2 13:4 15:1 18:1 22:2 42:1 46:1 62:1 64:2 69:1 75:1 76:2 92:1 99:1 156:4 229:1 235:1 238:1 251:2 291:1 327:1 386:1 427:2 500:1 587:1 627:1 742:1 820:1 849:1 881:1 975:1 1093:1 1101:2 1291:1 1325:1 1486:4 1649:1 1719:1 1843:1 
1 7:1 8:1 9:2 10:2 13:2 15:1 22:1 23:2 47:1 49:1 56:1 62:1 64:2 69:1 77:4 88:1 97:1 139:1 149:1 154:1 156:2 157:1 182:4 238:1 251:1 274:1 335:1 511:1 587:1 650:1 680:1 951:1 1095:1 1101:2 1486:2 1731:1 1971:1 
1 7:2 8:1 9:1 13:1 15:2 23:1 29:1 31:1 44:2 47:1 50:1 51:1 58:1 63:1 69:1 75:1 85:1 105:1 128:1 134:1 136:1 156:1 160:1 178:1 199:1 223:1 238:1 239:1 246:1 264:1 271:1 284:2 289:1 292:1 336:1 348:1 366:1 464:1 480:2 587:2 749:1 1102:2 1278:1 1440:2 1446:1 1486:1 1843:1 
1 7:3 8:1 9:3 15:1 18:1 33:1 44:1 51:1 56:1 59:1 107:1 143:1 154:1 157:1 178:1 195:1 234:1 237:1 238:1 241:1 305:1 326:1 362:1 375:1 385:1 520:1 587:1 619:1 842:1 874:1 881:1 932:1 1102:1 1464:1 1616:1 
1 7:3 9:1 10:1 15:1 23:3 29:1 30:2 31:1 33:1 56:1 64:1 69:1 79:2 88:1 105:1 126:1 132:1 149:1 157:1 191:1 199:1 229:1 274:1 288:1 292:1 358:1 366:1 375:1 403:1 478:1 587:1 1006:1 1101:1 1123:1 1278:1 1649:1 1791:1 1971:1 
1 7:1 8:1 10:1 13:1 15:1 23:2 29:4 31:1 42:1 43:1 44:1 46:1 48:1 49:1 51:1 55:1 63:1 64:1 69:1 77:2 87:1 101:1 102:1 132:1 136:1 138:2 156:1 175:1 178:1 182:2 185:1 199:1 203:1 238:1 292:4 307:1 386:1 404:1 443:1 447:1 453:1 560:1 587:1 742:1 748:1 1006:1 1101:1 1102:1 1103:1 1123:1 1160:1 1317:1 1486:1 1538:1 1566:1 1592:1 1731:1 1996:2 
1 7:6 8:1 12:1 15:3 43:2 44:4 51:1 54:1 56:1 66:1 69:2 73:1 87:2 107:1 126:2 134:1 157:1 169:1 178:1 216:1 238:1 253:1 395:1 418:1 462:1 516:1 587:3 627:1 711:2 777:1 779:1 791:1 805:1 808:1 934:1 1102:4 1191:1 
1 7:1 10:1 13:2 15:1 18:4 23:1 41:1 48:1 56:1 58:1 60:1 61:1 64:1 67:3 69:1 70:1 77:1 105:1 119:1 120:1 129:1 142:1 149:1 156:2 157:1 182:1 202:2 241:1 272:1 300:1 424:1 460:1 513:1 515:2 587:1 601:2 615:1 619:1 881:4 978:3 1101:1 1164:1 1222:1 1339:2 1486:2 1592:1 1959:1 1971:1 
1 7:5 10:2 22:1 23:3 33:1 41:1 55:1 64:2 69:1 75:2 111:3 177:2 196:1 234:1 241:1 251:1 296:1 315:1 364:1 375:1 424:1 619:1 821:2 1068:1 1101:2 1109:1 1438:1 1538:1 1804:3 1843:2 1964:1 
1 7:3 9:2 10:2 13:1 23:1 29:3 33:1 49:1 51:1 55:1 56:2 62:1 63:1 64:2 78:1 91:2 98:1 105:1 136:1 139:1 156:1 157:2 178:1 187:1 220:1 240:1 261:1 292:3 374:1 375:1 399:1 433:2 622:1 639:2 1006:1 1101:2 1316:1 1486:1 1538:1 1731:1 
1 7:1 8:2 13:2 15:3 23:1 47:1 69:2 72:1 78:1 92:1 132:1 134:1 140:1 156:2 238:2 240:1 289:1 330:1 523:1 587:3 849:1 968:1 1123:1 1138:1 1486:2 1599:1 1688:1 1709:1 1775:1 1795:1 
1 7:2 8:2 9:1 13:1 18:1 23:3 30:1 31:1 33:1 39:1 46:1 47:1 56:1 69:1 70:1 72:1 78:1 79:1 83:1 156:1 157:1 169:1 199:1 238:2 240:1 314:1 375:1 386:1 450:1 813:1 881:1 1133:1 1164:1 1287:1 1486:1 1522:1 1546:2 1709:1 
1 7:1 8:1 9:2 10:2 18:2 22:1 29:1 30:1 31:1 47:1 49:1 56:1 64:2 69:1 71:1 74:1 79:1 84:1 96:1 102:1 157:1 159:1 198:1 199:1 238:1 251:1 267:1 290:1 292:1 367:1 527:1 654:1 659:1 662:1 669:1 815:1 881:2 986:1 989:1 1079:1 1101:2 1261:1 1553:1 1566:1 1638:1 1710:1 1731:1 1759:1 
1 5:1 7:1 9:3 10:5 13:1 15:2 18:1 29:1 33:1 42:1 59:1 64:5 67:1 68:1 69:1 77:1 78:1 112:1 126:1 130:1 139:1 151:1 156:1 182:1 183:1 240:1 292:1 375:1 520:1 587:2 742:1 881:1 978:1 987:1 1101:5 1328:1 1456:1 1486:1 1616:1 
1 7:1 8:1 9:1 10:2 13:2 15:1 23:2 33:1 41:1 42:2 57:1 64:2 68:1 69:1 101:1 114:1 140:1 143:1 156:2 197:1 222:1 238:1 244:1 256:1 285:1 350:1 374:1 375:1 392:1 424:1 447:1 450:1 587:1 715:1 742:2 793:1 1101:2 1346:1 1464:1 1486:2 1775:1 
1 4:1 5:1 9:2 10:1 13:1 15:2 23:3 29:2 30:1 39:1 49:1 64:1 69:3 79:1 105:1 132:1 149:1 156:1 173:1 239:1 292:2 309:1 366:1 385:1 587:2 887:1 1097:1 1101:1 1123:1 1275:1 1278:1 1287:1 1436:1 1446:1 1485:1 1486:1 1731:1 1971:1 
1 7:1 9:1 10:1 13:2 15:1 22:1 33:1 41:1 47:1 64:1 65:1 68:1 69:1 71:1 78:1 92:3 115:1 126:1 152:1 156:2 164:1 225:1 240:1 251:1 272:1 273:1 290:1 366:1 375:1 403:1 408:1 424:1 487:1 491:1 504:1 567:1 587:1 642:1 659:1 849:3 868:1 1101:1 1278:1 1486:2 1791:1 
1 7:3 8:1 10:3 13:2 15:1 18:1 23:3 28:1 30:3 44:1 58:1 60:1 64:3 65:1 68:1 69:1 75:1 79:3 92:1 114:1 126:1 149:1 156:2 161:1 173:1 220:1 238:1 254:1 282:1 300:1 327:1 441:1 487:1 559:1 587:1 640:1 762:1 849:1 881:1 887:1 924:1 1101:3 1102:1 1486:2 1843:1 1971:1 
1 7:3 9:4 10:2 13:2 18:2 23:1 30:1 31:1 39:1 41:1 43:1 51:1 64:2 68:1 69:1 79:1 87:1 143:1 146:1 148:1 156:2 178:1 196:1 199:1 202:1 392:1 412:1 424:1 551:1 601:1 651:1 881:2 1101:2 1287:1 1372:1 1385:1 1438:1 1464:1 1486:2 1527:1 1573:1 1756:1 
1 7:2 8:1 9:2 10:3 13:1 18:1 29:1 31:1 39:1 42:1 46:1 47:2 59:2 64:3 69:1 71:1 75:1 78:1 97:1 120:1 122:1 128:1 156:1 177:1 199:1 238:1 240:1 280:1 292:1 318:1 327:1 386:1 520:2 642:1 659:1 681:1 742:1 821:1 866:1 881:1 951:1 1101:3 1287:1 1299:1 1325:1 1486:1 1565:1 1616:2 1651:1 1843:1 
1 7:1 13:1 18:1 22:1 46:1 47:1 51:1 57:1 92:1 156:1 178:1 179:1 197:1 242:1 251:1 386:1 849:1 881:1 1486:1 1520:1 1741:1 1831:1 
1 7:1 8:2 9:3 10:2 13:1 16:1 18:1 30:2 41:1 42:1 43:4 47:1 48:2 51:1 56:1 58:1 60:1 63:1 64:2 69:2 74:1 79:2 87:4 96:1 104:1 128:1 136:1 148:1 156:1 157:1 178:1 191:1 238:2 253:1 270:1 300:1 351:1 358:1 423:1 424:1 453:1 700:1 742:1 809:1 881:1 934:1 1089:1 1101:2 1215:1 1486:1 1573:1 1592:2 1759:1 
1 10:2 12:2 13:1 18:1 30:1 31:1 39:1 43:2 44:2 46:1 50:1 51:2 54:2 64:2 65:1 75:1 79:1 87:2 93:1 98:1 118:1 149:1 155:2 156:1 178:2 199:1 207:1 230:1 269:1 271:1 298:1 386:1 431:2 437:1 487:1 529:1 606:1 614:1 881:1 938:1 1101:2 1102:2 1287:1 1434:1 1486:1 1703:1 1745:1 1843:1 1971:1 
1 7:4 9:2 10:4 12:1 13:2 23:2 29:1 42:1 44:2 46:1 47:1 51:1 54:1 64:4 115:1 156:2 178:1 224:1 229:1 291:1 292:1 307:1 386:1 392:1 412:1 426:1 496:1 551:1 742:1 1100:1 1101:4 1102:2 1193:1 1408:1 1486:2 1649:1 1771:1 
1 10:1 12:1 13:2 15:1 16:1 29:1 30:1 31:1 39:1 41:1 42:1 44:1 54:1 59:1 64:1 69:3 71:1 72:1 79:1 90:1 96:1 97:1 129:1 143:2 152:1 156:2 159:1 198:1 199:1 207:1 245:1 292:1 315:1 333:1 355:1 397:1 414:1 424:1 467:1 520:1 541:1 587:1 659:1 742:1 951:1 1101:1 1102:1 1120:1 1287:1 1464:2 1474:1 1486:2 1616:1 1638:1 1709:1 1888:1 1954:1 1959:1 
1 7:3 9:1 13:1 15:1 23:4 29:1 30:1 43:1 58:2 59:1 69:1 71:2 79:1 87:1 92:1 98:1 112:1 130:1 134:2 143:1 146:1 150:1 156:1 168:1 185:1 261:2 288:1 292:1 520:1 537:1 587:1 642:1 659:2 708:1 849:1 923:1 1219:1 1385:1 1456:1 1464:1 1486:1 1616:1 1831:1 
1 7:4 8:2 9:1 10:1 13:3 15:1 23:2 30:1 31:1 41:1 47:1 58:5 64:1 69:1 79:1 105:1 156:3 186:1 199:1 236:1 238:2 288:1 308:1 310:1 328:1 370:1 424:1 516:1 587:1 606:1 678:1 1097:1 1101:1 1321:1 1411:1 1436:1 1486:3 
1 7:1 8:1 9:3 10:1 13:2 15:1 29:1 46:1 59:1 61:1 64:1 69:2 71:1 72:1 107:1 117:1 142:1 156:2 160:1 166:1 202:1 227:1 232:2 238:1 260:2 290:1 292:1 296:1 386:1 387:1 520:1 582:1 587:1 601:1 615:1 659:1 669:1 1101:1 1119:1 1336:2 1486:2 1616:1 1709:1 1923:1 
1 7:7 8:1 12:4 18:1 23:5 30:1 31:1 42:1 47:2 51:1 54:4 56:1 69:3 79:1 85:1 92:1 140:1 154:1 157:1 168:1 178:1 185:1 199:1 238:1 264:1 290:1 327:1 404:1 441:1 567:1 640:1 665:1 742:1 849:1 881:1 906:1 1163:1 1461:1 1645:1 1775:1 
1 7:5 8:2 10:1 13:1 15:2 28:1 29:1 31:1 33:1 39:1 43:1 47:1 50:1 58:1 62:1 63:1 64:1 66:1 69:2 70:1 74:1 87:1 105:1 116:1 118:1 126:2 136:1 149:1 151:1 156:1 199:1 214:1 238:2 271:1 292:1 298:1 334:1 375:1 446:1 484:2 559:1 580:1 587:2 622:1 924:1 987:1 1097:1 1101:1 1164:1 1287:1 1436:1 1486:1 1759:1 1971:1 
1 7:4 9:3 10:2 13:3 18:2 22:1 30:2 31:5 41:1 42:1 46:1 47:1 55:1 58:1 64:2 65:1 69:1 79:2 118:1 133:1 152:2 156:3 199:5 230:2 251:1 298:1 328:1 386:1 424:1 437:1 449:1 478:1 487:1 517:1 560:1 678:1 742:1 881:2 884:1 900:1 1014:1 1101:2 1303:1 1486:3 1522:1 1538:1 1703:2 
1 7:6 8:1 9:1 10:1 13:2 23:3 29:2 48:1 50:1 64:1 67:1 72:1 77:1 100:1 104:1 156:2 182:1 192:1 193:1 238:1 271:1 292:2 335:2 351:1 500:1 549:1 606:2 634:1 826:1 871:1 978:1 985:1 1080:1 1101:1 1115:1 1486:2 1592:1 1709:1 1829:1 
1 4:1 5:1 7:3 8:1 10:1 23:1 31:1 39:1 47:1 56:1 62:1 63:4 64:1 69:3 91:1 105:1 117:1 135:1 136:4 151:1 157:1 169:1 199:1 228:1 238:1 241:1 268:1 316:1 395:1 532:1 619:1 639:1 773:1 775:1 987:1 1101:1 1119:1 1287:1 1418:1 1428:1 1725:1 
1 7:5 10:1 13:1 18:1 23:3 30:1 33:1 50:1 64:1 68:1 69:1 79:1 140:1 143:1 148:1 156:1 170:1 192:1 225:1 271:1 287:1 375:1 392:2 500:1 537:1 586:1 627:1 752:1 791:1 868:1 881:1 906:1 1047:1 1101:1 1115:1 1461:1 1464:1 1486:1 1573:1 1623:1 1645:1 1775:1 1828:1 
1 8:1 10:2 12:3 18:1 30:1 31:1 33:1 43:1 46:2 48:1 54:3 62:1 64:2 65:1 69:1 79:1 87:1 105:1 107:1 110:1 117:1 140:1 143:1 199:1 206:1 238:1 241:1 287:1 318:1 330:1 375:1 386:2 392:1 487:1 493:1 619:1 784:1 859:1 876:1 881:1 1101:2 1119:1 1170:1 1464:1 1578:1 1592:1 1775:1 
1 7:6 8:1 10:2 13:2 15:1 30:1 33:2 47:1 64:2 79:1 105:1 117:1 126:2 154:1 156:2 186:1 238:1 268:1 282:1 354:1 375:2 444:1 453:1 496:1 587:1 606:1 739:1 934:1 997:1 1101:2 1119:1 1193:1 1408:1 1486:2 
1 7:2 8:2 9:1 13:2 15:2 18:3 22:2 23:2 29:1 30:2 31:4 39:1 51:1 59:1 66:2 69:3 72:2 76:1 79:2 92:1 97:1 156:2 163:1 168:1 178:1 199:4 217:1 238:2 244:1 251:2 270:1 290:1 292:1 310:1 350:1 365:1 427:1 520:1 587:2 783:1 813:1 849:1 881:3 951:1 962:1 1207:1 1287:1 1377:1 1474:1 1486:2 1616:1 1709:2 1768:1 
1 7:3 8:2 13:1 14:1 22:1 31:1 41:1 46:1 47:1 62:1 69:3 114:1 130:1 154:1 156:1 162:1 168:1 177:1 199:1 200:1 202:1 206:1 238:2 251:1 288:1 348:1 364:1 386:1 406:1 424:1 501:1 601:1 637:1 650:1 685:1 734:1 739:1 821:1 823:1 1127:1 1456:1 1486:1 1911:1 
1 7:1 8:1 10:1 13:1 15:1 18:1 22:1 23:1 28:1 29:1 30:1 31:4 42:2 49:1 55:1 64:1 66:1 77:1 79:1 85:1 99:1 102:1 129:1 149:1 156:1 163:1 182:1 191:1 198:1 199:4 237:1 238:1 250:1 251:1 264:1 268:1 292:1 306:1 315:1 358:1 451:1 453:1 457:1 472:1 587:1 714:1 741:1 742:2 810:1 881:1 962:1 989:1 1057:1 1101:1 1217:1 1486:1 1538:1 1566:1 1716:1 1719:1 1731:1 1959:1 1971:1 
1 7:1 8:3 9:6 10:2 13:3 22:1 23:1 28:1 29:1 30:1 43:2 47:3 55:1 58:4 64:2 68:1 69:1 79:1 87:2 102:1 143:2 156:3 168:1 170:1 179:1 192:1 238:3 251:1 287:1 292:1 467:1 482:1 630:2 632:1 674:1 787:1 809:1 813:1 1101:2 1115:1 1391:1 1464:2 1486:3 1495:1 1538:1 1566:1 1623:1 1741:1 
1 7:4 8:4 9:2 10:1 13:3 30:1 33:1 39:1 47:1 49:2 55:1 56:1 59:1 64:1 69:1 79:1 105:1 107:1 122:1 128:1 142:1 156:3 157:1 177:1 187:1 196:1 228:1 234:1 238:4 265:1 314:1 375:1 520:1 532:1 615:1 719:1 791:1 821:1 901:1 1101:1 1127:1 1287:1 1435:1 1438:1 1486:3 1538:1 1616:1 1651:1 1731:2 
1 7:1 9:3 10:2 15:1 23:3 28:1 29:1 30:2 31:1 47:1 58:1 64:2 69:1 79:2 105:1 107:1 144:1 149:1 184:1 199:1 247:1 292:1 333:1 366:1 587:1 590:1 667:1 1101:2 1272:1 1278:1 1611:1 1650:1 1888:1 1944:1 1971:1 
1 1:4 2:4 7:2 9:1 10:1 13:3 15:1 21:4 22:1 30:2 31:2 33:1 39:1 41:1 42:1 44:1 48:1 58:1 64:1 70:1 79:2 85:1 105:1 144:1 155:1 156:3 170:1 179:1 184:1 199:2 251:1 262:1 264:1 375:1 424:1 431:1 459:1 506:1 587:1 632:1 741:1 742:1 1101:1 1102:1 1164:1 1200:1 1287:1 1486:3 1592:1 1623:1 1741:1 1811:1 
1 7:2 8:1 9:12 10:1 13:1 15:1 23:1 30:2 43:2 47:2 48:1 64:1 69:1 75:1 79:2 87:2 110:1 126:1 156:1 238:1 327:1 376:1 496:1 587:1 961:1 1101:1 1170:1 1193:1 1486:1 1592:1 1843:1 
1 7:5 8:1 10:3 15:1 23:2 30:1 31:2 47:1 48:1 58:3 64:3 75:1 79:1 105:1 130:1 188:1 193:1 199:2 238:1 317:1 403:1 587:1 1019:1 1101:3 1456:1 1592:1 1782:1 1791:1 1843:1 1977:1 
1 7:3 9:2 10:2 13:1 18:2 22:1 28:1 33:1 46:1 63:1 64:2 92:1 107:1 119:1 136:1 155:1 156:1 234:1 237:1 251:1 375:1 386:1 431:1 624:1 642:1 849:1 881:2 993:1 1101:2 1486:1 1524:1 
1 8:1 9:2 10:1 13:2 15:2 41:1 47:1 59:1 64:1 69:1 156:2 161:2 168:1 237:1 238:1 290:1 392:1 424:1 459:1 520:1 561:1 567:1 587:2 782:1 811:1 1101:1 1128:1 1481:1 1486:2 1616:1 1811:1 
1 7:2 8:1 9:1 13:2 22:1 23:2 30:2 44:1 55:1 59:1 61:1 69:1 71:1 75:1 79:2 85:1 96:1 97:1 104:1 132:1 140:1 151:1 156:2 165:3 203:1 227:1 232:1 238:1 251:1 260:1 264:1 351:1 366:1 441:1 493:1 520:1 659:1 787:1 932:1 951:1 987:1 1102:1 1123:1 1278:1 1317:1 1336:1 1486:2 1538:1 1616:1 1775:1 1843:1 
1 13:2 15:2 18:2 28:1 31:2 44:1 46:1 49:1 69:1 83:1 96:1 106:1 114:1 129:1 134:1 142:1 156:2 199:2 244:1 262:1 269:1 284:1 312:1 323:1 383:1 386:1 404:1 500:1 503:1 540:1 587:2 615:1 881:2 1102:1 1133:1 1151:1 1440:1 1486:2 1584:1 1731:1 1846:1 1959:1 
1 7:1 10:2 13:1 22:3 23:2 29:1 31:1 42:1 44:1 51:1 64:2 67:5 69:1 98:1 100:1 156:1 178:1 199:1 230:1 246:1 251:3 283:1 292:1 437:1 454:1 608:1 655:1 742:1 871:1 933:1 978:5 985:1 1059:1 1101:2 1102:1 1219:1 1380:1 1486:1 1533:1 1703:1 1836:1 
1 7:3 73:2 84:1 123:1 1079:1 
1 7:2 10:2 13:1 18:1 23:3 48:1 49:1 51:1 58:3 59:1 64:2 69:1 76:2 140:1 156:1 178:1 186:1 229:2 256:1 318:1 392:1 427:2 455:1 520:1 881:1 1101:2 1486:1 1592:1 1616:1 1649:2 1731:1 1775:1 
1 7:1 10:4 13:2 15:1 22:1 29:1 31:1 41:1 64:4 69:1 71:1 78:1 82:1 148:1 155:1 156:2 199:1 209:1 222:2 240:1 251:1 289:1 290:1 292:1 305:1 424:1 431:1 512:1 587:1 659:1 759:1 956:1 1101:4 1486:2 1573:1 
1 4:1 5:1 7:4 9:2 10:1 13:3 15:1 23:4 29:1 30:1 41:1 44:1 50:1 57:1 62:1 64:1 71:1 79:1 85:1 92:1 151:1 156:3 160:1 175:1 179:1 197:1 249:1 264:1 271:1 292:1 376:1 424:1 587:1 606:1 651:1 659:1 803:1 849:1 987:1 1101:1 1102:1 1486:3 1510:1 1741:1 1964:1 
1 7:8 12:3 15:2 18:1 29:1 31:1 44:1 50:2 54:3 56:1 57:1 60:1 69:1 72:1 76:1 84:1 105:1 107:1 116:1 118:1 123:1 143:1 149:2 157:1 191:1 197:1 199:1 234:1 239:1 255:1 260:1 271:2 292:1 298:1 300:1 334:1 358:1 385:1 427:1 428:1 540:1 587:2 643:1 662:1 881:1 1060:1 1079:1 1102:1 1336:1 1464:1 1707:1 1709:1 1971:2 
1 7:3 8:1 9:3 13:3 31:1 39:1 47:1 51:1 76:1 156:3 178:1 199:1 238:1 263:1 265:1 427:1 679:1 739:1 875:1 967:1 1287:1 1486:3 
1 7:1 8:1 9:2 13:2 23:2 30:1 33:1 48:3 51:1 55:1 59:1 69:1 77:1 79:1 88:1 93:1 104:1 156:2 178:1 182:1 186:1 192:1 237:1 238:1 274:1 351:1 375:1 520:1 614:1 622:1 678:2 711:1 1115:1 1486:2 1538:1 1592:3 1616:1 
1 7:3 8:2 10:1 13:1 15:1 18:1 23:3 28:1 33:1 49:1 57:1 59:2 61:1 62:1 64:1 69:1 98:1 111:1 140:1 143:1 154:1 156:1 168:1 197:1 238:2 375:1 394:1 520:2 587:1 606:1 881:1 1101:1 1435:1 1464:1 1486:1 1616:2 1731:1 1775:1 1804:1 
1 7:3 8:3 9:2 10:1 15:1 23:3 30:2 47:2 51:1 59:1 62:1 64:1 69:1 79:2 105:1 132:1 178:1 209:1 223:1 237:1 238:3 269:1 311:1 414:1 520:1 587:1 717:1 1101:1 1123:1 1253:1 1616:1 
1 7:1 9:1 10:2 12:3 13:1 18:3 30:1 31:2 41:1 46:2 47:1 48:1 51:1 54:3 55:1 62:1 64:2 69:2 76:2 79:1 145:1 156:1 162:1 178:1 179:1 185:1 199:2 227:1 296:1 318:1 327:1 339:1 386:2 424:1 427:2 433:1 510:1 813:2 881:3 1101:2 1486:1 1538:1 1592:1 1741:1 
1 5:1 7:1 8:2 9:4 10:3 13:3 15:1 18:3 22:2 63:1 64:3 69:1 76:2 91:1 106:1 126:1 136:1 156:3 162:1 220:1 238:2 246:1 251:2 296:2 427:2 560:1 587:1 609:2 639:1 760:1 881:3 1101:3 1486:3 1846:1 
1 7:4 9:1 10:1 13:2 22:1 23:3 29:1 31:1 48:1 56:1 61:1 64:1 68:1 69:1 78:2 117:1 120:1 126:1 156:2 157:1 191:1 193:1 194:1 199:1 240:2 251:1 292:1 318:1 327:1 335:1 358:1 395:1 991:1 1084:1 1101:1 1119:1 1486:2 1496:1 1592:1 1918:1 
1 7:2 8:1 9:3 16:1 23:1 29:1 30:1 33:2 44:1 46:1 47:1 56:1 59:1 69:2 79:1 84:1 114:2 117:1 145:1 154:1 157:1 161:1 189:1 191:1 238:1 241:1 292:1 313:1 327:2 357:1 358:1 375:2 386:1 409:1 416:2 520:1 565:1 619:1 1079:1 1102:1 1119:1 1616:1 
1 7:6 33:1 73:1 143:1 150:1 164:1 273:1 305:1 375:1 515:1 649:1 982:1 1000:1 1464:1 1845:1 
1 10:1 33:1 39:3 59:1 64:1 74:1 97:1 130:1 188:1 207:1 248:1 283:1 375:1 432:1 520:1 738:1 833:1 951:1 1101:1 1106:1 1287:3 1456:1 1533:1 1616:1 1759:1 1975:1 
1 7:3 8:1 10:1 30:1 33:1 43:3 46:1 47:2 56:1 62:1 64:1 69:1 79:1 87:3 99:1 100:1 107:1 117:1 143:1 157:1 161:1 165:1 180:1 185:1 228:1 238:1 265:1 293:1 357:1 366:1 375:1 386:1 541:1 853:1 871:1 1004:1 1101:1 1119:1 1278:1 1464:1 1719:1 1734:1 
1 7:3 8:2 9:2 12:4 13:1 22:2 29:1 33:1 43:2 47:2 49:1 51:1 54:4 55:1 59:1 69:1 76:1 82:2 87:2 91:2 143:1 154:1 156:1 178:1 187:1 238:2 249:1 251:2 268:1 292:1 327:1 375:1 423:1 427:1 457:1 520:1 565:1 639:2 1095:1 1216:1 1464:1 1486:1 1538:1 1616:1 1731:1 1853:1 
1 7:1 8:1 9:3 10:1 13:2 15:2 18:2 23:1 30:1 39:1 44:1 48:2 56:1 63:2 64:1 69:2 71:2 75:1 79:1 91:1 96:1 136:2 155:1 156:2 157:1 163:1 194:2 200:1 237:1 238:1 261:1 416:1 431:1 492:1 541:1 587:2 639:1 659:2 704:1 842:1 881:2 989:1 1036:1 1101:1 1102:1 1287:1 1486:2 1592:2 1843:1 1911:1 1918:2 
1 7:1 8:2 10:1 15:1 18:1 23:1 29:1 31:1 39:3 51:1 56:2 61:1 64:1 67:1 69:1 71:1 105:1 129:1 157:2 160:1 178:1 199:1 238:2 241:1 292:1 359:1 366:1 432:1 509:1 532:1 587:1 619:1 659:1 723:1 867:1 881:1 916:1 978:1 1101:1 1191:1 1278:1 1287:3 1959:1 1990:1 
1 1:28 2:28 6:28 9:2 21:28 28:1 123:2 150:2 205:2 231:2 275:2 338:2 398:2 475:2 489:2 531:2 575:2 593:2 697:1 727:2 771:1 908:1 967:2 1056:2 1066:2 1082:2 1142:2 1245:2 1579:11 1605:2 1832:2 
1 7:5 10:3 13:1 15:1 18:2 23:1 29:1 30:1 47:1 49:1 55:2 60:1 64:3 66:2 73:1 79:1 100:1 105:1 114:2 117:1 123:1 143:1 156:1 179:1 187:2 235:1 241:1 244:1 292:1 300:1 467:1 587:1 598:1 619:1 733:1 871:1 881:2 1101:3 1119:1 1339:1 1464:1 1486:1 1538:2 1731:1 1741:1 1895:1 1920:1 1926:1 
1 5:1 7:1 8:1 9:1 10:1 12:5 13:3 16:1 33:1 54:5 64:1 69:4 76:1 83:3 149:1 155:1 156:3 166:1 201:1 238:1 241:1 283:1 366:1 375:1 427:1 431:1 506:1 619:1 1101:1 1133:3 1135:1 1278:1 1290:2 1486:3 1533:1 1707:2 1971:1 1989:1 
1 7:2 9:1 13:2 22:1 28:1 29:1 31:1 39:1 42:2 44:2 46:1 50:1 55:1 56:1 63:1 68:2 69:2 78:1 83:1 90:1 104:1 136:1 155:1 156:2 157:1 191:1 198:1 199:1 205:1 230:1 240:1 251:1 257:1 271:1 292:1 337:1 351:1 358:1 386:1 409:1 431:1 559:1 570:1 742:2 924:1 996:1 1102:2 1133:1 1287:1 1486:2 1519:1 1538:1 1564:1 1703:1 
1 12:2 13:1 30:3 31:1 51:1 54:2 56:1 58:1 69:1 73:2 79:3 106:1 138:1 144:1 156:1 157:1 178:1 184:1 199:1 207:1 220:1 366:1 1250:1 1278:1 1335:1 1486:1 1527:1 1846:1 1996:1 
1 1:22 2:22 18:1 21:22 73:18 231:1 509:1 881:1 977:1 1228:1 1427:1 1454:1 1609:1 1913:1 
1 7:1 8:1 9:4 10:1 15:1 22:1 28:1 49:1 63:2 64:1 69:1 107:1 111:1 126:1 132:1 136:2 140:1 143:1 152:1 169:1 175:1 238:1 251:1 296:1 348:1 368:1 587:1 650:1 688:1 892:1 990:1 1101:1 1123:1 1239:1 1464:1 1731:1 1775:1 1804:1 
1 7:1 8:1 10:3 12:3 13:2 15:3 18:1 41:2 47:2 54:3 58:1 64:3 68:1 69:1 71:1 78:1 105:1 116:1 144:1 149:1 156:2 160:2 168:1 184:1 226:1 238:1 240:1 283:1 334:1 424:2 587:3 659:1 863:1 881:1 1012:1 1101:3 1486:2 1533:1 1878:1 1971:1 
1 8:2 13:1 30:1 39:3 58:1 69:1 74:1 79:1 156:1 230:1 238:2 509:1 679:1 1287:3 1486:1 1703:1 1759:1 
1 4:1 5:1 7:2 8:1 9:1 10:1 13:1 15:1 22:1 29:1 30:1 33:1 39:1 43:1 47:1 63:2 64:1 69:1 79:1 85:3 87:1 88:1 136:2 140:1 156:1 163:1 238:1 247:1 251:1 264:3 269:1 274:1 292:1 347:1 375:1 587:1 669:1 809:1 1101:1 1287:1 1486:1 1695:1 1775:1 
1 7:1 9:4 10:1 13:1 15:1 31:2 33:2 41:1 49:1 50:1 59:1 64:1 65:1 69:1 104:1 112:1 156:1 199:2 234:1 241:1 252:1 266:2 271:1 290:1 313:1 351:1 375:2 424:1 487:1 520:1 525:1 587:1 606:1 619:1 795:1 903:1 931:1 1101:1 1486:1 1616:1 1731:1 1807:1 
1 7:2 9:1 13:2 22:1 42:1 62:1 70:1 143:1 148:1 156:2 180:1 251:1 694:1 742:1 759:1 982:1 1164:1 1200:1 1464:1 1486:2 1573:1 
1 1:22 2:22 18:1 21:22 73:18 231:1 509:1 881:1 977:1 1228:1 1427:1 1454:1 1609:1 1913:1 
1 7:4 8:2 9:5 12:1 13:1 23:1 31:2 41:1 43:1 47:1 48:1 51:1 54:1 63:2 87:1 119:1 132:1 136:2 155:1 156:1 178:1 191:1 199:2 207:1 210:1 238:2 282:1 358:1 368:1 424:1 431:1 656:1 797:1 813:2 990:1 1012:1 1123:1 1486:1 1592:1 1627:1 1920:1 
1 4:1 5:1 7:3 9:2 10:2 13:1 18:2 33:1 39:1 43:3 46:1 61:1 64:2 68:1 69:1 75:1 87:3 98:1 114:2 116:2 143:1 156:1 192:2 226:1 291:1 321:1 334:2 336:1 375:1 386:1 566:1 881:2 1101:2 1115:2 1287:1 1408:1 1452:1 1464:1 1486:1 1840:2 1843:1 
1 7:4 22:1 29:2 30:2 31:1 33:1 41:1 44:4 48:2 55:3 59:1 63:2 69:1 75:1 79:2 101:1 111:2 116:1 119:1 136:2 138:1 199:1 230:1 251:1 283:1 292:2 334:1 375:1 424:1 447:1 520:1 565:1 570:3 751:1 966:1 1102:4 1192:1 1533:1 1538:3 1592:2 1616:1 1619:1 1703:1 1804:2 1843:1 1855:1 1996:1 
1 7:6 8:2 9:2 10:1 13:2 15:2 22:1 23:2 29:1 30:1 31:1 42:1 46:2 55:1 63:2 64:1 69:1 79:1 83:1 91:1 99:1 105:1 122:1 136:2 156:2 165:1 185:1 199:1 225:1 238:2 251:1 292:1 386:2 435:1 587:2 605:1 610:1 627:2 639:1 651:1 680:1 742:1 774:1 811:1 867:1 868:1 1101:1 1133:1 1136:2 1237:1 1486:2 1538:1 1651:1 1719:1 
1 7:4 9:1 15:2 18:1 23:1 29:1 31:3 44:1 46:1 47:1 66:1 84:1 104:1 159:1 189:1 199:3 225:1 292:1 335:1 351:1 386:1 523:1 556:1 587:2 606:1 642:1 813:1 868:1 881:1 925:1 1079:1 1102:1 1638:1 1830:1 
1 7:1 8:1 10:1 15:1 18:1 30:2 41:1 47:1 50:2 51:1 59:1 64:1 66:1 69:1 72:1 79:2 138:1 142:1 169:1 170:2 178:1 179:1 192:1 235:2 238:1 271:2 302:1 424:1 520:1 587:1 615:1 771:1 859:2 881:1 930:1 958:1 1101:1 1115:1 1616:1 1623:2 1709:1 1741:1 1834:1 1996:1 
1 7:2 8:1 9:4 10:1 12:2 13:1 15:1 23:1 30:1 43:2 44:1 47:1 48:1 51:1 54:2 56:1 62:1 64:1 65:1 66:1 69:2 79:1 87:2 104:1 118:1 126:2 147:1 151:1 156:1 157:1 177:1 178:1 237:1 238:1 298:1 326:1 351:1 389:1 487:1 587:1 599:1 821:1 987:1 1101:1 1102:1 1486:1 1592:1 1833:1 
1 5:2 7:1 10:5 12:1 13:1 23:1 30:1 54:1 64:5 66:1 74:1 79:1 84:1 90:1 104:1 112:2 151:1 156:1 163:1 191:1 192:1 220:1 312:1 351:1 358:1 498:2 527:1 935:1 987:1 1079:1 1101:5 1115:1 1151:1 1310:1 1372:1 1486:1 1759:1 1956:1 
1 7:3 10:1 13:1 15:3 23:2 30:1 33:1 41:1 48:2 64:1 72:1 76:2 79:1 92:1 97:1 142:1 156:1 159:1 206:1 220:1 223:1 327:1 375:1 415:1 424:1 427:2 587:3 608:1 615:1 711:2 849:1 951:1 1101:1 1218:1 1486:1 1592:2 1638:1 1709:1 
1 7:3 8:3 10:1 15:1 22:2 23:2 33:1 46:1 64:1 69:1 76:1 114:3 126:1 185:1 237:1 238:3 251:2 287:1 327:1 375:1 386:1 427:1 528:1 587:1 785:1 872:1 1101:1 
1 7:1 8:1 9:1 13:1 15:2 23:1 30:2 41:1 47:1 58:2 61:1 66:1 67:1 69:1 77:1 79:2 92:1 106:1 151:2 156:1 169:1 182:1 188:1 216:1 223:1 238:1 336:1 424:1 439:1 535:1 587:2 676:1 748:1 849:1 860:1 978:1 987:2 1006:1 1074:1 1112:1 1486:1 1846:1 
1 10:1 13:2 15:2 23:3 30:2 31:1 39:1 48:1 58:2 59:1 60:2 61:1 64:1 69:1 75:1 79:2 82:1 96:1 100:1 114:1 156:2 160:1 183:1 199:1 212:1 223:1 289:1 300:2 314:1 327:1 335:1 520:1 547:1 587:2 871:1 1101:1 1287:1 1328:1 1486:2 1592:1 1616:1 1624:1 1805:1 1843:1 
1 7:3 8:1 10:1 12:2 13:5 15:1 30:2 41:1 42:2 54:2 64:1 66:2 67:1 72:2 79:2 91:1 126:1 138:2 140:1 156:5 160:1 177:1 185:1 238:1 241:1 290:1 395:1 424:1 450:1 455:1 486:1 587:1 619:1 639:1 742:2 775:1 821:1 978:1 1101:1 1129:1 1486:5 1516:1 1701:1 1709:2 1775:1 1996:2 
1 8:1 9:1 12:1 13:1 31:1 33:3 39:1 48:1 54:1 56:2 69:1 77:2 105:1 107:1 114:1 119:1 133:1 156:1 157:2 160:1 182:2 199:1 202:1 226:1 238:1 247:1 290:2 333:1 375:3 387:2 426:1 432:1 601:1 643:1 969:1 1287:1 1299:1 1486:1 1592:1 1888:1 
1 7:1 9:1 10:3 13:3 15:1 22:1 31:1 33:1 43:1 46:1 64:3 69:1 87:1 93:2 119:1 138:1 146:1 156:3 199:1 212:1 237:1 251:1 296:1 317:1 368:1 375:1 386:1 587:1 614:2 651:1 892:1 990:1 1010:1 1101:3 1269:1 1385:1 1486:3 1996:1 
1 7:1 9:1 10:1 13:1 15:1 22:1 23:1 30:2 31:1 33:1 39:1 42:1 47:1 48:1 50:1 51:1 64:1 66:1 69:1 74:1 76:2 79:2 88:1 135:1 156:1 170:1 178:1 194:1 199:1 200:1 230:1 239:1 250:1 251:1 268:1 271:1 274:1 347:1 375:1 379:1 427:2 457:1 478:1 587:1 742:1 837:1 898:1 1101:1 1215:1 1287:1 1399:1 1466:1 1486:1 1592:1 1598:1 1623:1 1703:1 1725:1 1759:1 1911:1 1918:1 
1 1:3 2:3 3:3 4:2 5:3 6:3 19:1 21:2 22:4 38:1 81:1 94:1 119:2 151:2 164:2 196:4 205:2 251:4 273:2 415:2 964:2 987:2 1267:2 1438:4 
1 7:3 9:1 10:1 13:2 44:1 50:4 57:1 60:1 64:1 69:1 93:1 156:2 191:1 197:1 232:1 250:1 271:4 300:1 308:1 311:2 319:1 358:1 606:1 614:1 767:1 781:1 995:1 1054:1 1101:1 1102:1 1127:1 1486:2 1598:1 
1 7:3 8:2 9:2 10:1 12:6 13:2 15:1 18:1 23:2 29:1 30:3 31:2 33:1 41:1 44:1 46:1 48:1 50:1 54:6 58:1 62:1 64:1 69:1 70:1 79:3 85:1 93:1 111:1 114:1 128:1 129:1 156:2 177:1 179:1 199:2 238:2 264:1 267:1 271:1 292:1 296:2 328:1 363:1 375:1 386:1 394:1 424:1 587:1 614:1 665:1 701:1 711:1 821:1 853:1 881:1 903:1 940:1 1101:1 1102:1 1105:1 1164:1 1486:2 1592:1 1741:1 1749:2 1804:1 1959:1 
1 4:1 5:1 7:2 9:3 10:1 13:2 15:1 18:1 22:1 23:1 64:1 119:1 130:1 156:2 161:1 200:1 251:1 418:1 587:1 881:1 933:1 1101:1 1456:1 1486:2 1516:1 1911:1 
1 1:6 2:4 3:4 4:1 5:4 6:3 8:3 9:2 11:2 12:5 13:2 14:1 15:5 22:1 26:1 28:2 30:1 31:2 34:1 40:2 44:1 46:1 48:1 51:1 54:5 56:2 59:1 61:1 69:1 71:1 72:3 79:1 102:1 129:1 134:1 138:2 142:3 156:2 157:2 160:2 178:1 199:2 207:1 212:1 214:1 224:1 237:1 238:3 243:1 251:1 258:2 290:1 303:1 345:1 374:1 386:1 408:1 421:2 471:1 479:1 493:1 497:1 502:1 520:1 524:1 533:1 587:5 615:3 659:1 661:1 1102:1 1407:1 1486:2 1566:1 1592:1 1595:1 1616:1 1709:3 1950:1 1959:1 1996:2 
1 7:4 8:2 9:1 10:1 12:2 15:1 18:1 22:1 23:3 30:2 31:1 33:1 51:1 54:2 55:1 56:1 57:4 64:1 69:1 71:1 76:1 79:2 105:1 155:1 157:1 178:1 187:1 197:4 199:1 201:1 238:2 241:1 251:1 257:1 375:1 426:1 427:1 431:1 554:1 587:1 619:1 642:1 659:1 813:1 881:1 917:1 1101:1 1519:1 1538:1 1989:1 
1 7:1 8:1 9:2 10:3 13:2 15:4 23:1 28:2 33:1 42:1 44:2 46:1 51:1 57:2 58:1 59:1 64:3 69:1 92:1 100:1 105:1 106:1 129:1 156:2 161:3 166:1 169:1 178:1 197:2 238:1 374:1 375:1 386:1 439:1 520:1 587:4 682:1 742:1 849:1 871:1 1037:1 1043:1 1101:3 1102:2 1486:2 1616:1 1846:1 1883:1 1959:1 
1 7:6 8:1 9:1 10:1 13:2 15:2 22:1 30:2 31:3 33:1 47:1 64:1 75:1 79:2 96:1 105:1 107:2 119:1 156:2 165:1 199:3 232:1 238:1 242:1 251:1 309:1 310:1 366:2 375:1 418:1 453:1 499:1 587:2 741:1 1101:1 1218:2 1278:2 1486:2 1843:1 
1 10:1 13:1 15:2 31:2 62:1 64:1 69:5 96:1 105:1 118:2 134:1 156:1 160:1 189:1 198:1 199:2 201:1 207:1 226:1 268:2 298:2 308:1 327:3 443:1 587:2 730:1 741:1 805:1 1101:1 1486:1 1487:1 1675:1 1989:1 
1 1:2 2:1 3:1 5:1 6:1 7:1 8:2 13:1 14:1 15:2 16:1 22:1 40:2 49:1 59:1 62:1 69:1 143:1 148:1 156:1 232:1 238:2 249:1 251:1 258:1 260:2 430:1 470:1 520:1 587:2 888:1 1067:1 1336:2 1377:1 1464:1 1486:1 1573:1 1616:1 1731:1 
1 7:4 8:1 9:4 13:1 15:2 18:1 23:1 33:2 43:2 62:1 65:1 69:1 87:2 117:1 126:2 151:1 156:1 238:1 288:1 296:1 375:2 487:1 587:2 701:1 881:1 898:1 919:1 987:1 1119:1 1142:1 1486:1 
1 1:18 2:18 3:35 4:29 5:26 6:16 7:7 8:12 11:2 12:6 13:3 14:5 15:2 16:5 17:5 18:1 19:8 20:8 21:1 22:1 23:1 24:8 25:8 26:5 30:5 31:2 32:1 36:5 37:5 38:3 40:2 41:1 42:1 43:1 44:1 45:1 49:1 51:1 54:6 56:1 59:3 63:1 67:2 71:1 77:2 79:5 87:1 92:1 98:3 101:1 108:4 114:1 116:2 122:2 132:1 136:1 138:1 141:1 156:3 157:1 173:1 178:1 182:2 189:1 191:1 199:2 214:1 230:1 237:1 238:12 239:2 241:1 251:1 334:2 337:1 358:1 374:1 417:1 418:1 421:2 424:1 447:1 493:1 520:3 587:2 598:1 619:1 659:1 676:1 742:1 804:1 849:1 881:1 887:1 903:1 911:1 957:1 978:2 985:1 1005:1 1102:1 1112:1 1117:1 1123:1 1244:1 1358:1 1388:1 1395:1 1486:3 1564:1 1616:3 1651:2 1678:1 1703:1 1731:1 1839:1 1996:1 
1 5:2 7:2 9:3 15:2 18:1 23:3 29:2 30:3 31:1 47:1 50:1 51:1 55:1 61:1 66:1 76:1 79:3 82:1 88:1 149:1 175:1 178:1 187:1 199:1 229:1 241:1 271:1 274:1 288:1 292:2 306:1 427:1 481:1 587:2 619:1 785:1 881:1 949:1 1104:1 1538:1 1649:1 1971:1 
1 22:1 30:1 42:1 56:1 57:1 74:1 79:1 90:2 97:1 112:1 130:1 157:1 197:1 251:1 261:1 266:1 289:1 319:1 383:1 742:1 769:1 781:1 951:1 1456:1 1759:1 
1 7:1 8:1 9:2 10:1 13:3 15:3 22:1 29:1 30:1 41:1 47:1 48:1 64:1 69:1 79:1 85:1 134:1 140:1 156:3 165:1 229:1 235:1 238:1 251:1 256:1 264:1 292:1 305:1 424:1 474:1 548:1 587:3 903:1 994:1 1101:1 1237:1 1486:3 1592:1 1649:1 1775:1 
1 10:2 12:3 13:2 15:2 23:1 29:1 31:2 33:1 41:1 42:1 43:1 54:3 64:2 65:2 66:1 69:1 71:1 85:1 87:1 92:1 117:1 126:1 134:1 156:2 161:1 199:2 227:1 250:1 264:1 288:1 292:1 375:1 424:1 446:1 487:2 561:1 587:2 659:1 742:1 849:1 1047:1 1101:2 1113:1 1119:1 1217:1 1486:2 
1 13:2 15:1 22:2 30:1 42:1 43:2 44:1 74:1 78:1 79:1 87:2 92:1 106:1 143:2 156:2 168:1 193:1 201:1 206:1 240:1 251:2 252:1 262:1 266:1 345:1 587:1 742:1 849:1 1039:1 1102:1 1464:2 1486:2 1759:1 1846:1 1989:1 
1 7:2 9:1 12:1 22:1 23:1 31:1 42:1 44:2 51:1 54:1 63:3 130:1 136:3 148:1 178:1 199:1 230:1 251:1 368:1 373:1 742:1 806:1 853:1 936:2 990:1 1102:2 1230:1 1456:1 1573:1 1703:1 1794:1 
1 8:1 9:2 12:1 13:3 15:3 22:1 30:1 43:1 47:1 48:2 49:1 54:1 56:2 69:1 79:1 87:1 118:1 126:1 149:1 152:1 154:2 156:3 157:2 238:1 241:1 251:1 288:1 298:1 327:1 353:1 416:1 587:3 590:1 619:1 642:1 1369:1 1486:3 1592:2 1731:1 1971:1 
1 7:2 8:3 9:3 13:2 23:1 30:2 31:1 33:1 41:1 43:1 47:1 55:1 69:1 76:1 79:2 85:1 87:1 92:1 99:1 105:1 118:3 122:1 126:1 143:1 152:1 156:2 180:1 199:1 238:3 264:1 298:3 339:1 375:1 424:1 427:1 482:1 551:1 625:1 711:1 849:1 1464:1 1486:2 1538:1 1651:1 1719:1 
1 7:3 9:1 10:1 13:1 15:1 22:1 23:2 31:2 47:1 64:1 101:1 132:1 156:1 199:2 207:1 212:1 244:2 251:1 285:1 308:1 393:1 447:1 587:1 1091:1 1093:3 1101:1 1123:1 1486:1 
1 7:4 10:1 13:1 15:2 18:1 23:3 30:1 31:2 33:1 43:1 44:1 46:1 64:1 66:1 67:1 69:1 72:1 77:1 79:1 87:1 135:1 152:1 156:1 165:1 182:1 199:2 216:1 301:1 370:1 375:1 386:1 446:1 513:1 587:2 667:1 670:1 711:1 813:1 881:1 978:1 1101:1 1102:1 1191:1 1222:1 1318:1 1330:1 1486:1 1709:1 1725:1 
1 7:10 10:3 13:2 18:1 22:2 29:1 41:1 43:1 51:1 58:1 63:1 64:3 70:1 71:1 76:1 87:1 105:2 110:2 112:1 136:1 152:1 155:1 156:2 173:2 175:1 178:1 180:1 231:1 251:2 278:1 292:1 383:1 424:1 427:1 431:1 659:1 881:1 887:2 1087:1 1101:3 1164:1 1170:2 1191:1 1486:2 1584:1 1755:1 
1 1:1 2:1 7:1 9:1 13:2 21:1 42:1 57:1 73:1 156:2 197:1 275:1 441:1 462:1 742:1 1258:1 1486:2 1545:1 
1 7:3 8:1 13:1 15:2 18:1 22:1 31:3 47:1 66:1 69:1 128:1 151:1 156:1 177:1 179:1 199:3 216:1 217:1 238:1 251:1 366:1 515:1 587:2 821:1 881:1 987:1 1278:1 1355:1 1486:1 1741:1 
1 8:1 9:1 13:2 15:1 18:1 29:1 31:1 39:1 44:2 47:1 50:4 51:1 56:1 69:1 143:1 156:2 157:1 178:1 199:1 212:1 218:1 238:1 246:1 271:4 292:1 314:1 347:1 383:1 556:1 587:1 606:1 881:1 1095:1 1102:2 1287:1 1464:1 1486:2 
1 7:3 10:1 13:2 15:1 22:1 23:1 29:1 33:1 43:1 46:1 47:1 64:1 68:2 72:1 75:1 84:1 87:1 88:1 156:2 220:1 251:1 274:1 292:1 367:1 375:1 386:1 387:1 399:1 456:1 527:1 587:1 654:1 793:1 1079:1 1101:1 1127:1 1316:1 1486:2 1709:1 1843:1 
1 8:1 9:2 10:2 13:1 23:1 30:2 48:1 64:2 66:1 69:2 79:2 88:1 107:1 117:2 151:1 156:1 177:1 238:1 255:1 274:1 278:1 369:1 500:1 562:1 578:1 608:1 821:1 859:1 987:1 1060:1 1101:2 1119:2 1403:1 1486:1 1579:1 1592:1 
1 7:2 10:2 13:3 33:2 43:1 44:1 46:1 64:2 83:1 87:1 93:1 102:1 156:3 222:1 230:1 308:1 321:1 332:1 365:1 375:2 386:1 614:1 1087:1 1101:2 1102:1 1133:1 1244:1 1388:1 1400:1 1486:3 1566:1 1668:1 1703:1 
1 9:2 10:5 13:1 18:1 29:1 41:1 56:1 62:1 64:5 69:2 70:2 72:1 105:2 106:1 138:1 144:1 156:1 157:1 179:1 184:1 289:1 292:1 357:1 366:2 403:1 424:1 515:1 761:1 795:1 881:1 931:1 1084:1 1101:5 1164:2 1278:2 1486:1 1709:1 1741:1 1791:1 1846:1 1996:1 
1 7:3 8:2 13:3 15:1 23:1 41:1 43:1 47:1 48:1 57:1 87:1 105:1 126:1 140:1 156:3 185:1 186:1 197:1 238:2 256:1 288:1 356:1 424:1 587:1 687:1 739:1 798:1 915:1 1486:3 1592:1 1775:1 1806:1 
1 7:1 8:1 9:1 13:1 15:2 23:1 33:1 39:1 42:1 44:2 51:1 57:1 62:1 63:1 67:2 69:1 78:1 85:2 91:1 104:1 118:1 126:1 136:1 148:1 156:1 159:1 178:1 194:1 197:1 217:1 238:1 240:1 246:1 264:2 298:1 311:2 319:1 351:1 375:1 523:1 587:2 639:1 742:1 781:1 978:2 1102:2 1113:1 1287:1 1486:1 1569:1 1573:1 1638:1 1702:1 1918:1 
1 7:2 8:2 9:1 13:1 15:2 18:1 23:2 29:1 31:3 42:1 43:1 58:2 69:2 71:1 72:1 84:1 87:1 126:1 143:1 149:1 156:1 199:3 220:1 238:2 242:1 292:1 327:1 368:1 392:1 566:1 587:2 653:1 659:1 670:1 742:1 787:1 881:1 915:1 990:1 1079:1 1318:1 1464:1 1486:1 1709:1 1971:1 
1 7:1 8:1 10:4 13:2 15:1 18:2 23:2 30:1 46:1 57:1 64:4 69:3 79:1 114:1 118:1 134:1 143:1 146:1 152:1 156:2 167:2 197:1 238:1 298:1 318:1 322:2 323:1 386:1 481:1 587:1 873:1 881:2 949:1 999:1 1046:1 1101:4 1385:1 1464:1 1486:2 1554:2 
1 1:3 2:3 3:2 4:1 5:2 7:3 8:1 9:1 13:2 15:1 21:2 26:1 30:3 31:2 33:3 36:1 37:1 44:1 57:1 59:2 71:2 73:1 79:3 96:1 156:2 197:1 199:2 229:1 238:1 249:1 260:1 305:1 375:3 520:2 587:1 659:2 711:1 1026:1 1102:1 1336:1 1368:1 1382:1 1486:2 1616:2 1649:1 
1 1:10 2:9 3:1 4:1 5:3 6:5 7:4 8:3 9:2 10:4 11:8 13:3 15:5 22:1 26:1 30:3 33:4 39:2 43:2 48:1 49:1 60:2 61:1 64:4 68:1 72:1 74:1 78:1 79:3 82:2 87:2 88:2 98:1 99:1 105:1 110:3 112:2 132:2 142:1 156:3 168:1 169:1 198:4 214:1 223:2 226:1 229:1 238:3 240:1 251:1 274:2 300:2 327:1 354:2 375:4 397:1 421:8 526:1 527:2 587:5 590:1 615:1 642:3 667:1 668:1 845:1 856:1 963:1 1101:4 1123:2 1170:3 1287:2 1299:3 1360:1 1467:1 1486:3 1592:1 1649:1 1709:1 1719:1 1731:1 1759:1 1928:1 1988:2 
1 4:1 5:1 7:1 8:1 9:1 13:3 18:1 23:1 41:1 42:1 44:1 48:1 57:2 66:1 67:1 69:1 74:1 77:1 92:1 156:3 161:1 182:1 197:2 238:1 247:1 288:1 290:1 294:1 327:1 424:1 742:1 849:1 881:1 926:1 978:1 983:1 1102:1 1347:1 1430:1 1486:3 1592:1 1759:1 
1 7:2 8:1 13:1 15:2 23:1 31:1 50:3 55:1 56:1 65:1 116:3 128:2 148:1 156:1 157:1 166:1 175:3 187:1 199:1 209:1 238:1 253:1 271:3 311:3 334:3 374:2 487:1 587:2 606:1 1206:1 1486:1 1538:1 1573:1 
1 7:1 8:1 13:2 15:2 18:1 23:1 31:1 33:1 43:1 48:1 51:1 56:1 58:1 69:1 74:2 78:1 83:1 85:1 87:1 96:2 105:1 112:1 154:1 155:1 156:2 157:1 160:1 178:1 180:2 185:1 199:1 238:1 240:1 247:1 264:1 354:1 366:1 375:1 431:1 525:1 587:2 775:1 837:1 881:1 1075:1 1133:1 1278:1 1486:2 1592:1 1759:2 
1 9:1 13:1 15:2 23:3 41:1 42:1 56:1 67:1 69:1 77:4 82:1 85:1 151:1 156:1 157:1 173:1 182:4 198:1 216:1 223:1 264:1 302:1 311:1 424:1 489:1 587:2 718:1 738:1 742:1 887:1 978:1 987:1 1486:1 
1 1:8 2:8 4:2 13:2 21:8 28:2 73:4 140:1 143:1 156:2 977:1 982:1 1147:2 1421:1 1464:1 1486:2 1571:1 1775:1 1862:1 
1 6:1 7:1 10:2 12:2 13:2 16:1 18:1 33:1 39:1 42:1 50:1 51:1 54:2 64:2 69:1 71:1 96:1 134:1 143:1 145:2 156:2 178:1 210:1 220:1 271:1 315:1 319:1 375:1 392:2 585:1 659:1 734:1 742:1 781:1 798:1 824:1 862:1 878:1 881:1 1004:1 1101:2 1287:1 1464:1 1486:2 1515:2 1734:1 
1 7:2 8:1 9:1 12:1 13:2 23:2 29:1 30:2 31:1 41:1 42:1 46:2 54:1 55:1 56:1 66:1 69:3 79:2 83:2 117:2 126:1 143:1 156:2 157:1 187:1 199:1 228:1 238:1 292:1 366:1 386:2 398:1 424:1 471:1 496:1 509:1 711:1 742:1 906:1 1000:1 1059:1 1077:1 1119:2 1133:2 1191:1 1193:1 1278:1 1461:1 1464:1 1486:2 1538:1 1645:1 1845:1 
1 10:1 13:2 23:1 31:2 42:1 44:4 64:1 65:1 68:1 69:1 156:2 199:2 216:1 225:1 246:1 326:1 369:1 411:1 487:1 500:1 742:1 868:1 926:1 1101:1 1102:4 1486:2 1882:1 
1 7:2 8:2 9:2 10:1 13:1 18:1 23:1 29:1 39:1 41:1 46:1 47:1 48:1 50:1 64:1 69:2 72:1 132:1 143:1 156:1 164:1 237:1 238:2 249:1 271:1 273:1 292:1 314:1 331:1 386:1 424:1 484:1 646:1 860:1 881:1 1101:1 1123:1 1287:1 1464:1 1486:1 1592:1 1669:1 1709:1 
1 1:4 2:4 8:2 9:4 10:1 13:1 18:1 21:4 33:1 41:1 59:1 61:1 64:1 65:1 84:1 112:1 123:1 129:1 143:1 156:1 179:1 209:1 238:2 275:1 359:1 375:1 424:1 425:1 474:1 487:1 520:1 531:1 712:1 740:1 881:1 1000:1 1079:1 1101:1 1141:1 1175:1 1348:1 1464:1 1486:1 1616:1 1741:1 1845:1 1959:1 
1 7:2 8:1 9:2 15:3 23:1 29:1 30:1 31:2 41:1 47:1 48:1 56:1 57:1 59:1 69:2 79:1 105:1 126:1 130:1 135:1 157:1 175:1 197:1 199:2 238:1 292:1 331:1 381:1 424:1 441:1 483:1 520:1 587:3 679:1 741:1 1019:1 1456:1 1506:1 1592:1 1616:1 1725:1 1831:1 
1 7:3 8:1 10:1 13:1 18:2 22:1 23:2 31:1 39:1 42:1 63:2 64:1 66:1 69:1 91:1 101:1 132:1 136:2 156:1 199:1 238:1 251:1 284:1 436:1 447:1 453:1 472:1 475:1 514:1 639:1 650:1 742:1 789:1 814:1 881:2 896:1 1101:1 1123:1 1255:1 1287:1 1440:1 1486:1 1907:1 1964:1 
1 7:2 9:1 10:2 13:2 15:1 18:1 23:4 30:3 31:1 47:1 56:1 59:1 62:1 64:2 65:1 69:1 79:3 97:1 117:1 126:1 139:1 143:1 156:2 157:1 177:1 199:1 202:1 441:1 487:1 520:1 587:1 601:1 694:1 798:1 815:1 821:1 881:1 951:1 1101:2 1119:1 1237:1 1464:1 1486:2 1616:1 1806:1 
1 7:1 8:5 9:3 15:1 22:2 29:1 31:1 41:1 42:2 47:1 59:1 69:1 71:1 102:2 104:1 185:1 199:1 236:1 238:5 251:2 270:1 292:1 351:1 424:1 520:1 540:1 587:1 659:1 674:1 742:2 826:1 1321:1 1354:1 1566:2 1616:1 1656:1 
1 1:21 2:21 3:16 4:8 5:18 6:14 8:10 10:1 11:2 13:2 19:5 21:2 24:5 25:5 26:5 29:1 38:5 40:2 42:1 45:1 62:1 64:1 67:2 77:1 85:1 100:1 102:1 105:1 119:1 156:2 159:1 167:1 179:1 182:1 210:1 212:1 230:1 238:10 239:1 250:1 264:1 282:1 292:1 322:1 354:1 421:2 600:1 742:1 831:1 847:1 871:1 978:2 1101:1 1408:1 1486:2 1566:1 1638:1 1703:1 1741:1 1855:1 1865:1 
1 7:2 9:1 12:5 13:1 15:1 18:1 23:3 29:1 31:1 41:1 47:1 54:5 56:1 65:1 67:3 69:2 77:2 85:1 107:2 117:1 119:1 122:1 128:1 132:1 142:1 143:1 145:1 149:1 156:1 157:1 160:1 169:1 182:2 199:1 200:1 212:2 223:1 264:1 276:1 290:1 292:1 316:1 328:1 424:1 487:1 515:1 587:1 606:1 615:1 791:1 795:1 881:1 978:3 1055:1 1119:1 1123:1 1127:1 1297:1 1464:1 1486:1 1651:1 1715:1 1787:1 1911:1 1971:1 
1 7:1 8:2 9:7 10:1 13:2 14:1 15:1 18:1 22:1 23:3 45:2 64:1 69:1 114:1 117:1 126:1 143:3 151:1 156:2 186:1 191:1 231:1 238:2 251:1 288:1 333:1 343:1 358:1 444:1 541:1 587:1 771:1 881:1 987:1 1101:1 1119:1 1464:3 1486:2 1798:1 1888:1 
1 7:2 10:1 13:2 15:1 23:2 41:1 56:1 62:1 64:1 65:1 66:1 69:2 71:1 105:1 142:1 154:1 156:2 157:1 168:1 173:1 183:1 288:1 327:1 395:1 424:1 471:1 487:1 491:1 525:1 576:1 587:1 615:1 617:1 659:1 711:1 767:1 820:1 887:1 1101:1 1328:1 1486:2 1513:1 1875:1 1997:1 
1 7:5 8:1 10:1 18:1 22:1 23:3 47:2 58:1 64:1 67:1 69:1 76:1 117:1 132:1 133:1 143:1 189:1 229:1 238:1 241:1 251:1 282:1 288:1 326:1 403:2 427:1 493:1 619:1 881:1 966:1 978:1 1044:1 1101:1 1119:1 1123:1 1252:1 1464:1 1649:1 1791:2 1803:1 
1 7:3 8:2 9:2 10:2 13:1 18:2 23:2 30:2 31:1 41:1 57:1 59:1 60:1 64:2 71:1 79:2 86:1 156:1 179:1 197:1 199:1 238:2 296:1 300:1 394:1 424:1 500:1 504:1 520:1 644:1 659:1 675:1 838:1 857:1 881:2 892:1 922:1 1057:1 1101:2 1380:1 1389:1 1486:1 1616:1 1741:1 
1 7:1 8:2 10:2 13:2 15:1 18:1 28:1 39:2 41:1 44:1 59:1 61:1 64:2 69:1 85:1 122:1 132:1 133:1 148:1 156:2 237:1 238:2 264:1 309:1 317:1 392:1 424:1 520:1 551:1 587:1 842:1 867:1 881:1 1101:2 1102:1 1121:1 1123:1 1252:1 1287:2 1486:2 1573:1 1616:1 1651:1 1669:1 
1 8:2 15:1 22:2 29:1 30:1 31:1 33:1 39:2 51:1 69:1 79:1 116:1 119:2 178:1 179:1 190:2 199:1 212:1 238:2 251:2 270:1 292:1 334:1 346:1 375:1 493:1 498:1 499:1 587:1 1093:3 1287:2 1589:2 1741:1 1800:1 
1 7:1 8:2 9:1 10:1 13:2 15:2 18:1 23:2 29:1 31:2 33:1 44:1 64:1 69:1 70:1 112:1 156:2 160:1 199:2 212:1 234:1 238:2 241:1 270:1 292:1 354:1 374:1 375:1 389:1 587:2 619:1 881:1 935:1 961:1 1063:1 1101:1 1102:1 1164:1 1486:2 1763:1 
1 7:1 8:1 10:2 12:2 13:1 15:1 28:1 29:1 30:1 31:3 39:2 41:1 47:1 50:1 51:1 54:2 64:2 69:1 70:1 79:1 102:1 122:1 149:1 156:1 165:1 169:1 178:1 190:1 199:3 202:1 238:1 271:1 281:1 292:1 341:1 424:1 433:1 434:1 439:1 587:1 596:1 601:1 877:1 952:1 1035:1 1101:2 1164:1 1287:2 1322:1 1325:1 1486:1 1566:1 1589:1 1651:1 1971:1 
1 1:12 2:11 3:1 5:3 6:6 7:6 8:3 9:4 10:1 11:10 13:3 15:2 22:1 26:1 29:1 31:3 41:1 42:2 48:2 49:3 55:2 59:3 64:1 66:2 67:3 77:3 85:2 99:1 110:1 130:1 133:1 134:2 140:1 151:1 154:2 156:3 182:3 199:3 200:1 203:1 210:2 238:3 251:1 264:2 292:1 362:1 418:1 421:10 422:2 424:1 520:3 570:1 587:2 668:2 718:2 738:1 742:2 777:1 903:1 961:1 978:3 987:1 1101:1 1149:1 1170:1 1248:1 1317:1 1456:1 1486:3 1516:1 1538:2 1583:1 1592:2 1616:3 1719:1 1731:3 1775:1 1911:1 
1 7:1 9:3 10:2 13:1 22:1 31:1 44:1 46:1 49:1 58:1 64:2 69:2 92:1 156:1 159:1 164:1 199:1 202:1 234:1 251:1 273:1 386:1 392:1 550:1 569:1 601:1 654:1 849:1 1047:1 1101:2 1102:1 1486:1 1638:1 1731:1 
1 9:8 10:3 13:1 15:1 18:2 29:1 33:1 56:3 60:1 64:3 69:1 75:1 143:1 151:1 154:1 156:1 157:3 222:1 230:1 281:1 292:1 300:1 357:1 375:1 425:3 587:1 837:1 881:2 898:1 987:1 1101:3 1149:1 1464:1 1486:1 1703:1 1843:1 
1 8:2 9:3 10:2 12:1 13:5 15:1 23:1 30:1 42:1 43:1 44:1 47:1 54:1 56:1 64:2 69:1 75:1 79:1 87:1 105:1 118:1 119:1 126:2 156:5 157:1 162:1 186:1 238:2 241:1 298:1 587:1 619:1 742:1 1064:1 1101:2 1102:1 1126:1 1131:1 1486:5 1843:1 
1 4:1 5:1 7:3 8:3 10:1 12:1 13:1 23:1 28:1 31:1 33:2 42:1 46:1 48:1 54:1 64:1 78:1 133:1 144:1 146:1 156:1 184:1 199:1 238:3 240:1 265:1 313:1 375:2 386:1 389:1 392:1 446:1 496:1 604:1 667:1 742:1 1101:1 1193:1 1385:1 1416:1 1486:1 1527:1 1592:1 1721:1 
1 7:2 10:1 13:1 15:1 23:2 30:1 31:2 39:1 41:1 42:1 44:1 59:1 61:1 64:1 69:1 71:1 78:1 79:1 85:1 105:1 112:1 129:1 148:1 156:1 165:2 179:1 181:1 199:2 240:1 264:1 306:1 338:1 395:1 424:1 517:1 520:1 530:1 555:1 587:1 659:1 742:1 909:1 981:1 1019:1 1101:1 1102:1 1287:1 1486:1 1573:1 1594:1 1616:1 1741:1 1926:1 1959:1 
1 7:3 8:1 10:1 12:2 13:3 15:1 31:1 47:1 49:1 54:2 56:1 58:2 60:3 64:1 68:1 69:1 74:2 78:4 142:1 144:1 145:1 156:3 157:1 169:1 184:1 199:1 238:1 240:4 300:3 460:1 587:1 615:1 811:1 1101:1 1254:1 1313:1 1486:3 1731:1 1759:2 1815:1 
1 7:3 8:3 12:2 13:2 31:1 33:3 54:2 55:1 59:1 63:2 69:1 71:1 111:1 126:1 133:1 136:2 156:2 187:1 199:1 228:1 237:1 238:3 270:1 311:2 323:1 362:1 375:3 520:1 659:1 878:1 1486:2 1538:1 1616:1 1804:1 1984:1 
1 7:2 8:2 9:1 13:2 15:2 22:3 31:2 41:1 42:1 43:3 48:1 57:1 60:1 68:2 69:1 70:1 72:1 85:1 87:3 92:1 105:1 130:1 146:1 156:2 162:1 164:1 197:1 199:2 238:2 251:3 264:1 265:1 273:1 290:1 300:1 305:1 309:1 424:1 441:1 512:1 533:2 578:1 587:2 625:1 742:1 778:1 810:1 849:1 1127:1 1164:1 1385:1 1419:1 1456:1 1486:2 1592:1 1709:1 
1 8:1 10:1 13:2 22:1 30:1 41:1 58:1 62:1 64:1 73:1 74:1 76:1 79:1 114:1 119:2 123:1 140:1 148:1 152:1 156:2 161:1 229:1 238:1 251:1 293:1 305:2 422:1 424:1 427:1 464:1 649:1 694:1 698:2 722:1 809:1 982:1 1101:1 1208:2 1486:2 1573:1 1649:1 1759:1 1775:1 
1 8:2 9:1 10:1 13:2 18:1 23:1 29:1 31:1 42:1 48:1 59:1 64:1 69:2 92:2 97:1 156:2 169:1 199:1 202:1 236:1 237:1 238:2 254:1 256:1 292:1 318:1 412:1 455:1 520:1 526:1 601:1 651:1 742:1 849:2 881:1 951:1 991:1 1101:1 1321:1 1486:2 1576:1 1592:1 1616:1 1650:1 
1 8:3 9:5 10:1 13:2 18:1 22:1 31:1 33:2 39:1 41:1 56:2 64:1 65:1 69:1 74:1 83:2 101:1 156:2 157:2 199:1 235:2 238:3 251:1 276:1 375:2 424:1 447:1 487:1 626:1 881:1 1055:1 1080:1 1101:1 1133:2 1287:1 1486:2 1560:1 1759:1 
1 7:1 8:2 9:1 10:2 13:2 16:1 33:1 47:1 50:1 51:1 64:2 68:1 69:1 71:1 78:1 83:1 114:1 116:1 118:1 156:2 160:1 178:1 202:2 224:1 238:2 240:1 271:1 298:1 334:1 375:1 392:1 601:2 659:1 705:1 859:1 1101:2 1133:1 1290:1 1372:1 1486:2 
1 7:2 9:1 10:1 15:1 23:3 29:1 39:1 46:1 58:1 63:2 64:1 69:1 85:1 91:2 96:1 105:1 106:1 122:1 136:2 146:1 148:1 160:1 162:1 189:1 249:1 264:1 292:1 359:1 386:1 395:1 587:1 639:2 1101:1 1287:1 1306:1 1385:1 1573:1 1651:1 1846:1 
1 8:2 10:1 13:2 15:1 18:1 30:1 43:2 44:1 46:2 47:3 49:2 58:4 64:1 65:1 69:2 75:1 79:1 87:2 92:2 104:1 107:1 118:1 126:1 152:1 156:2 238:2 298:1 327:1 351:1 381:1 386:2 406:1 487:1 587:1 791:1 849:2 881:1 1046:1 1101:1 1102:1 1373:1 1486:2 1731:2 1843:1 
1 1:6 2:5 3:1 5:1 6:2 8:1 9:2 11:5 13:1 26:1 28:1 33:1 41:2 57:1 90:1 110:1 145:1 156:1 197:1 238:1 267:1 270:1 310:1 325:1 364:1 375:1 416:1 421:5 424:2 741:1 818:1 945:1 1170:1 1486:1 
1 7:4 8:1 9:1 10:1 12:1 13:1 15:1 18:1 22:2 23:1 29:1 39:1 48:1 49:1 51:1 54:1 61:1 64:1 76:1 107:1 148:1 156:1 178:1 196:1 200:1 234:1 238:1 251:2 266:1 292:1 338:1 369:1 415:1 427:1 587:1 711:1 753:1 881:1 909:1 1056:1 1082:1 1101:1 1287:1 1314:1 1330:1 1354:1 1438:1 1486:1 1573:1 1592:1 1605:1 1731:1 1911:1 
1 7:1 9:1 10:1 13:2 23:3 30:1 31:1 33:2 47:1 58:1 60:1 64:1 69:1 72:1 79:1 91:1 110:1 140:1 156:2 199:1 202:1 222:1 248:1 256:1 300:1 333:1 375:2 415:1 601:1 639:1 651:1 711:1 739:1 1101:1 1170:1 1237:1 1486:2 1659:1 1701:1 1709:1 1775:1 1888:1 1975:1 
1 7:2 8:2 9:1 10:2 13:1 15:2 23:1 30:1 43:1 46:2 47:1 51:1 56:1 59:1 64:2 69:1 75:2 77:2 79:1 87:1 133:1 146:1 156:1 157:1 163:1 178:1 182:2 216:1 238:2 306:1 347:1 370:1 374:1 386:2 406:1 466:1 516:1 520:1 587:2 677:1 1101:2 1385:1 1486:1 1616:1 1843:2 1905:2 
1 1:2 2:2 7:1 8:1 10:1 13:1 15:1 21:2 22:1 29:1 30:2 33:1 39:2 51:1 59:1 62:1 64:1 76:1 79:2 83:1 96:1 140:1 143:1 144:1 148:1 156:1 178:1 179:1 184:1 238:1 249:1 251:1 292:1 316:1 375:1 391:1 427:1 520:1 587:1 694:1 763:1 809:1 982:1 1101:1 1133:1 1287:2 1464:1 1486:1 1520:1 1573:1 1616:1 1741:1 1775:1 
1 7:2 8:1 10:1 13:2 15:2 23:5 30:2 31:1 64:1 69:1 70:1 71:1 79:2 156:2 162:1 168:1 188:1 199:1 232:1 238:1 282:1 481:1 580:1 587:2 625:2 659:1 814:1 859:1 1101:1 1105:1 1164:1 1270:1 1358:1 1486:2 1517:1 
1 4:1 5:1 7:2 8:3 10:1 13:2 22:1 23:1 31:2 33:1 41:1 42:1 44:1 46:1 55:1 64:1 69:1 90:1 107:1 150:1 156:2 189:1 199:2 227:1 237:1 238:3 241:1 251:1 294:1 296:1 368:1 375:1 386:1 424:1 436:1 510:1 535:1 619:1 742:1 990:1 1101:1 1102:1 1109:1 1486:2 1538:1 1549:1 1822:1 
1 7:1 8:3 9:1 10:1 13:2 15:1 22:1 23:1 33:1 39:2 41:2 60:1 64:1 67:1 69:2 77:1 130:1 156:2 182:1 190:1 238:3 251:1 268:1 300:1 375:1 424:2 587:1 643:1 738:1 978:1 1026:1 1101:1 1127:1 1287:2 1365:1 1456:1 1486:2 1589:1 
1 7:1 8:1 10:3 13:1 15:1 41:2 46:3 64:3 68:2 69:1 100:1 156:1 222:1 225:1 238:1 386:3 424:2 527:2 587:1 714:1 868:1 871:1 1101:3 1139:1 1486:1 1821:1 
1 7:5 10:1 12:2 13:3 16:1 23:2 30:2 33:1 43:1 54:2 56:2 58:1 64:1 69:1 70:1 74:1 79:2 87:1 93:1 118:1 126:1 146:1 154:1 156:3 157:2 193:1 289:1 298:1 327:1 375:1 496:1 614:1 746:1 784:1 934:1 991:1 1101:1 1164:1 1193:1 1385:1 1486:3 1583:1 1759:1 
1 7:4 8:2 9:1 23:2 29:1 30:2 46:1 47:1 51:1 69:1 79:2 83:1 84:1 90:1 98:1 140:1 146:1 151:1 178:1 219:1 223:1 238:2 292:1 386:1 752:1 956:1 987:1 1079:1 1133:1 1385:1 1413:1 1575:1 1576:1 1775:1 
1 8:2 15:2 18:1 28:1 39:1 41:1 43:1 57:1 58:4 59:1 62:1 69:1 76:1 84:1 87:1 92:1 93:1 96:1 134:1 142:1 146:1 197:1 202:1 238:2 262:1 363:1 424:1 427:1 520:1 587:2 601:1 614:1 615:1 847:1 849:1 881:1 1079:1 1127:1 1160:1 1287:1 1385:1 1616:1 1747:1 
1 4:1 5:1 7:1 15:2 23:1 31:1 44:1 59:1 69:2 152:1 159:1 165:1 193:1 199:1 235:1 253:1 288:1 290:1 307:1 462:1 520:1 587:2 617:1 1102:1 1241:1 1616:1 1638:1 
1 1:8 2:5 3:5 4:1 5:5 6:4 8:7 9:5 10:1 11:2 13:2 14:1 15:1 26:2 28:2 34:1 40:2 42:3 46:2 64:1 69:1 76:2 156:2 196:1 224:1 237:1 238:7 258:2 303:1 304:1 386:2 420:1 421:2 427:2 438:1 446:1 482:1 497:1 502:1 587:1 742:3 892:1 919:1 1101:1 1438:1 1486:2 1583:1 1715:1 1828:1 1984:1 
1 7:3 8:4 9:6 13:1 18:1 42:1 43:4 46:1 47:1 69:1 72:1 85:1 87:4 93:2 133:1 152:1 156:1 164:1 217:1 234:2 238:4 263:1 264:1 266:1 273:1 280:1 364:1 386:1 399:1 440:1 605:1 614:2 682:1 739:1 742:1 750:1 762:1 881:1 908:1 1316:1 1486:1 1709:1 
1 7:1 9:5 10:2 12:4 13:1 15:1 23:3 29:1 46:1 47:1 54:4 56:1 59:1 64:2 69:1 71:1 106:1 126:1 132:1 143:1 156:1 157:1 164:1 202:1 248:1 256:1 273:1 292:1 314:1 368:1 386:1 520:1 585:1 587:1 601:1 659:1 685:1 864:1 990:1 1097:1 1101:2 1123:1 1382:1 1436:1 1464:1 1486:1 1616:1 1846:1 1975:1 
1 7:3 8:1 13:1 22:1 29:1 31:1 41:1 42:1 43:1 47:1 58:1 69:1 70:1 71:1 87:1 105:1 106:1 156:1 168:1 177:1 199:1 238:1 251:1 292:1 424:1 577:1 659:1 739:1 742:1 821:1 847:1 872:1 895:1 1049:1 1164:1 1311:1 1458:1 1486:1 1846:1 
1 7:1 13:2 15:4 22:1 39:3 41:1 42:1 50:2 59:1 61:3 66:1 69:1 71:1 104:3 128:1 130:2 138:1 142:1 156:2 160:3 170:1 200:2 207:1 251:1 271:2 351:3 424:1 503:1 520:1 587:4 615:1 659:1 742:1 823:1 1026:1 1287:3 1312:1 1350:1 1456:2 1486:2 1616:1 1623:1 1911:2 1996:1 
1 9:1 30:1 31:2 42:1 44:2 46:1 50:1 56:1 57:1 59:1 61:1 69:1 71:1 79:1 119:1 142:1 157:1 162:1 165:1 188:1 197:1 199:2 223:1 269:1 271:1 386:1 464:1 500:1 520:1 615:1 659:1 742:1 1061:1 1102:2 1616:1 1807:1 
1 4:2 5:1 7:1 8:2 9:3 10:1 13:1 15:1 22:1 23:2 44:1 50:1 57:1 58:1 64:1 69:1 77:1 130:1 132:1 149:1 156:1 170:1 182:1 191:1 197:1 238:2 244:1 246:1 251:1 271:1 335:1 358:1 368:1 528:1 587:1 663:1 780:1 990:1 1101:1 1102:1 1123:1 1446:1 1456:1 1486:1 1577:1 1623:1 1749:1 1971:1 
1 7:6 10:1 13:2 23:1 29:1 44:1 47:2 49:1 61:1 62:1 64:1 65:1 69:1 70:1 72:1 98:2 104:1 107:1 111:1 156:2 179:1 185:1 246:1 288:1 292:1 351:1 473:1 487:1 511:1 694:1 906:1 1101:1 1102:1 1164:1 1461:1 1486:2 1645:1 1709:1 1731:1 1741:1 1804:1 
1 4:1 5:1 7:2 8:3 10:2 13:4 15:1 18:2 23:2 29:1 31:1 42:1 47:2 48:1 64:2 68:1 69:1 70:1 75:1 78:1 112:1 118:1 122:1 126:1 140:1 143:2 145:1 150:1 156:4 185:1 199:1 237:1 238:3 240:1 288:1 292:1 298:1 450:1 587:1 628:1 742:1 792:1 881:2 1101:2 1164:1 1464:2 1486:4 1592:1 1651:1 1775:1 1843:1 1925:1 
1 10:1 13:3 15:2 18:1 29:1 30:1 31:1 43:2 47:2 48:1 55:1 56:1 57:1 64:1 69:1 76:1 77:2 79:1 87:2 105:1 118:1 126:1 143:1 151:1 156:3 157:1 182:2 187:1 191:1 197:1 199:1 216:1 262:1 292:1 298:1 354:1 358:1 427:1 501:1 580:1 585:1 587:2 606:1 881:1 987:1 1101:1 1464:1 1486:3 1538:1 1578:1 1592:1 1882:1 
1 7:2 10:1 12:5 13:2 15:1 22:1 23:1 31:1 46:1 47:1 51:1 54:5 58:1 64:1 69:2 92:1 106:1 117:1 156:2 160:1 163:1 168:1 178:1 198:1 199:1 202:1 250:1 251:1 262:1 290:2 335:1 386:1 399:1 406:1 509:1 587:1 601:1 734:1 772:1 805:1 837:1 849:1 1097:1 1101:1 1119:1 1314:1 1316:1 1436:1 1486:2 1546:1 1846:1 
1 7:3 9:2 12:4 13:2 15:1 30:1 31:2 39:1 42:1 48:1 54:4 69:2 71:2 79:1 83:1 85:1 88:1 105:1 129:3 140:1 143:1 152:1 156:2 191:1 199:2 229:1 264:1 274:1 321:1 358:1 378:1 434:1 439:1 587:1 659:2 742:1 809:1 896:1 906:1 1133:1 1287:1 1452:1 1461:1 1464:1 1486:2 1592:1 1645:1 1649:1 1775:1 1959:3 
1 7:1 8:1 9:4 10:3 13:2 15:1 18:1 22:1 30:1 33:1 49:1 51:1 57:1 61:1 64:3 69:1 72:1 79:1 106:1 134:1 146:1 156:2 166:1 172:1 178:1 197:1 223:2 238:1 251:1 312:1 375:1 534:1 587:1 881:1 962:1 1026:1 1101:3 1151:1 1385:1 1387:1 1486:2 1709:1 1731:1 1840:1 1846:1 
1 7:2 9:2 10:3 13:1 15:3 23:1 31:1 33:1 41:2 43:2 44:2 63:1 64:3 69:1 76:1 87:2 93:1 118:1 126:1 136:1 156:1 199:1 216:1 242:1 298:1 309:1 375:1 416:1 424:2 427:1 567:1 587:3 614:1 644:1 853:1 892:1 991:1 1084:1 1101:3 1102:2 1413:1 1486:1 
1 7:1 9:1 13:2 23:1 28:1 30:3 31:1 39:1 42:1 56:1 69:1 71:1 79:3 156:2 157:1 177:1 185:1 199:1 201:1 214:1 387:1 392:1 659:1 742:1 813:1 821:1 915:1 955:2 1287:1 1486:2 1981:1 1989:1 
1 7:1 8:1 9:2 13:2 15:2 22:1 23:3 29:1 44:1 47:1 51:1 56:1 60:1 61:1 68:1 69:1 78:1 107:1 144:1 156:2 157:1 164:1 178:1 184:1 238:1 240:1 251:1 273:1 287:1 292:1 300:1 340:1 350:1 587:2 687:1 690:1 1102:1 1181:1 1486:2 1489:2 1607:1 
1 1:31 2:31 3:44 4:38 5:32 6:24 7:5 8:11 9:3 10:3 11:10 13:2 14:3 15:2 16:3 17:3 18:1 19:11 20:11 21:1 22:2 23:1 24:8 25:8 26:5 29:2 30:2 31:3 32:1 33:1 36:5 37:5 38:6 40:2 44:1 45:4 46:1 47:3 48:1 51:1 56:1 61:1 64:3 66:1 68:1 71:1 75:1 79:2 85:1 88:1 102:1 104:1 114:1 115:1 121:1 131:1 141:1 143:2 145:1 148:1 149:1 156:2 157:1 159:1 168:1 178:1 199:3 200:1 222:1 229:1 238:11 244:1 246:1 250:2 251:2 264:1 274:1 288:1 292:2 345:1 351:1 368:1 375:1 386:1 421:10 429:1 441:2 463:3 494:1 587:2 598:1 650:2 659:1 723:1 764:3 782:1 837:1 857:1 881:1 910:2 938:1 990:1 1101:3 1102:1 1464:2 1486:2 1490:1 1559:1 1566:1 1573:1 1592:1 1638:1 1649:1 1843:1 1911:1 1971:1 
1 7:5 9:1 10:1 13:2 18:1 23:2 30:2 31:2 33:1 56:1 64:1 66:2 69:1 79:2 119:3 139:1 156:2 157:1 183:1 199:2 219:1 235:1 321:1 335:1 373:1 375:1 478:1 717:1 881:1 1101:1 1328:1 1330:1 1486:2 1773:1 1794:1 
1 7:6 8:2 10:3 18:2 22:1 23:1 33:1 41:2 64:3 98:1 105:1 126:1 135:1 191:1 192:1 193:1 238:2 251:1 280:1 288:1 358:1 370:1 375:1 424:2 470:1 881:2 963:1 1084:2 1101:3 1115:1 1296:2 1725:1 
1 7:3 8:1 10:1 12:1 15:2 23:1 42:3 49:1 50:1 54:1 62:1 63:1 64:1 69:2 98:1 105:1 117:1 126:1 136:1 170:1 191:1 238:1 271:1 308:1 358:1 363:1 365:1 587:2 617:1 742:3 919:1 1081:1 1101:1 1119:1 1127:1 1254:2 1623:1 1731:1 
1 7:1 10:1 13:2 15:1 22:1 23:3 29:2 30:1 31:1 39:1 44:1 51:1 64:1 69:1 70:1 77:4 79:1 143:1 156:2 178:1 182:4 199:1 246:1 251:1 292:2 321:1 326:1 395:1 587:1 610:1 751:1 853:1 958:1 1101:1 1102:1 1164:1 1236:1 1287:1 1464:1 1486:2 
1 7:3 8:1 9:2 10:3 13:2 15:1 18:1 23:2 29:1 41:1 43:1 64:3 68:1 69:1 72:1 87:1 116:1 156:2 237:2 238:1 292:1 311:1 334:1 369:1 424:1 426:1 557:1 582:1 587:1 669:1 767:1 861:1 881:1 1046:1 1101:3 1486:2 1709:1 1875:1 1910:1 
0.7507526314785071 1:38 2:38 3:35 4:29 5:26 6:26 7:10 8:11 9:3 10:2 11:10 13:5 14:4 15:4 16:4 17:3 18:4 19:8 20:8 21:1 23:2 24:8 25:8 26:5 29:7 30:2 31:4 32:3 33:4 36:5 37:5 38:3 39:2 40:2 42:2 44:3 45:1 46:1 49:1 55:3 56:3 58:3 64:2 65:2 67:2 71:2 74:2 76:1 78:3 79:2 80:12 83:1 93:3 102:1 106:1 112:3 122:1 128:1 129:1 140:1 141:1 142:1 148:1 154:1 155:1 156:5 157:3 161:1 164:1 166:1 168:1 169:3 177:1 187:1 189:1 193:1 196:1 199:4 203:1 216:1 232:2 238:11 239:1 240:3 244:1 248:1 250:2 263:2 269:1 273:1 283:2 289:1 292:7 293:2 306:1 310:1 315:2 316:1 339:1 345:1 347:1 375:4 386:1 421:10 427:1 430:1 431:1 442:1 444:2 477:1 487:2 496:1 512:1 513:2 527:2 529:1 556:1 572:2 587:4 614:3 615:1 638:1 650:1 659:2 683:1 734:1 742:2 766:1 780:1 792:1 795:2 821:1 859:1 881:4 961:2 978:2 1002:1 1042:1 1078:1 1088:1 1101:2 1102:3 1133:1 1193:1 1222:2 1287:2 1317:1 1339:1 1438:1 1486:5 1522:1 1533:2 1538:3 1566:1 1573:1 1578:1 1651:1 1731:1 1743:1 1759:2 1775:1 1846:1 1959:1 1975:1 
1 7:1 9:1 10:4 13:1 14:1 18:2 23:2 28:2 30:1 64:4 69:1 75:1 79:1 90:2 119:1 151:1 156:1 177:1 220:1 247:2 288:1 314:1 341:1 385:1 387:1 472:1 584:1 722:1 751:1 821:1 881:2 987:1 1101:4 1393:1 1486:1 1843:1 
1 7:3 10:7 13:1 15:2 18:2 22:2 33:1 46:1 47:1 64:7 70:1 75:1 76:3 91:1 111:1 119:1 140:1 143:1 151:1 156:1 185:1 251:2 290:2 318:1 367:1 375:1 386:1 427:3 587:2 608:1 639:1 881:2 987:1 1101:7 1131:1 1164:1 1464:1 1486:1 1663:1 1775:1 1804:1 1843:1 
1 1:4 2:4 3:2 4:1 5:2 7:1 8:1 9:1 21:3 22:1 26:1 33:2 36:1 37:1 39:1 57:1 73:2 92:1 144:1 179:1 184:1 197:1 207:1 238:1 251:1 375:2 453:1 506:1 698:1 849:1 930:1 979:1 1250:1 1287:1 1335:1 1340:1 1358:1 1517:1 1741:1 
1 1:4 2:4 7:4 9:1 13:2 21:4 22:1 28:1 33:1 62:1 73:1 148:2 156:2 251:1 266:1 375:1 503:1 677:1 968:1 1256:1 1486:2 1520:1 1573:2 
1 7:2 8:1 10:1 15:1 16:1 22:1 29:1 31:1 43:2 47:2 56:1 59:1 62:1 64:1 65:1 69:1 71:1 74:1 87:2 88:1 90:1 107:1 132:1 134:1 152:1 157:1 179:1 199:1 238:1 242:1 251:1 274:1 292:1 354:1 487:1 520:1 587:1 659:1 734:1 839:1 915:1 1101:1 1123:1 1428:1 1501:1 1616:1 1741:1 1759:1 
1 1:6 2:5 3:1 5:1 6:3 7:1 8:2 9:2 10:5 11:4 18:1 22:1 26:1 33:1 41:1 46:1 64:5 110:1 168:1 238:2 251:1 375:1 386:1 399:1 421:4 424:1 881:1 1101:5 1170:1 1316:1 1503:1 
1 7:2 9:1 10:2 13:1 15:1 18:1 23:2 29:1 30:2 31:2 41:1 50:2 62:1 64:2 66:1 67:1 69:2 79:2 83:1 96:1 116:1 128:1 144:1 156:1 162:1 163:1 184:1 199:2 216:1 223:1 271:2 285:1 292:1 334:1 412:1 424:1 440:1 587:1 616:1 881:1 923:1 961:1 978:1 1101:2 1133:1 1486:1 
1 7:3 10:1 13:2 15:1 23:2 30:2 31:1 33:1 42:1 44:1 51:1 55:1 56:1 60:2 62:2 64:1 69:1 79:2 88:2 97:1 105:1 116:1 122:1 126:1 138:1 151:1 156:2 157:1 166:1 178:1 199:1 223:1 274:2 300:2 334:1 339:1 344:1 366:1 375:1 395:1 509:1 587:1 641:1 742:1 951:1 987:1 1101:1 1102:1 1153:1 1278:1 1486:2 1538:1 1651:1 1996:1 
1 4:2 5:2 7:1 9:1 13:1 15:1 28:1 30:1 33:1 69:1 79:1 156:1 188:2 374:1 375:1 453:1 566:2 587:1 1291:1 1486:1 
1 7:1 8:1 9:2 13:2 15:1 29:1 31:2 43:1 56:1 59:1 60:1 69:1 87:1 118:1 122:1 133:1 156:2 157:1 168:1 199:2 220:1 230:1 238:1 292:1 298:1 300:1 341:1 369:1 478:1 520:1 587:1 1486:2 1616:1 1651:1 1703:1 
1 7:4 8:1 12:5 13:1 15:2 22:1 29:1 31:3 41:1 42:1 44:1 46:1 49:2 51:2 54:5 56:1 59:1 89:1 92:1 105:1 107:1 129:2 156:1 157:1 168:1 178:2 199:3 200:1 227:1 238:1 251:1 292:1 314:1 386:1 395:1 424:1 520:1 587:2 613:1 742:1 849:1 985:1 1102:1 1237:1 1267:1 1486:1 1565:1 1616:1 1731:2 1911:1 1959:2 
1 4:1 7:4 9:2 10:1 13:1 15:1 29:1 33:1 39:3 62:1 64:1 67:1 69:1 77:2 126:1 155:2 156:1 175:1 182:2 232:1 241:1 284:1 292:1 338:1 375:1 385:1 431:2 436:1 475:1 555:1 587:1 619:1 697:1 722:1 727:1 763:1 978:1 1101:1 1287:3 1428:1 1440:1 1486:1 
1 7:1 8:1 9:1 13:1 15:1 23:1 29:2 31:1 33:1 44:1 60:1 69:1 75:1 77:1 83:1 92:1 99:1 114:2 144:1 154:1 156:1 182:1 184:1 199:1 237:1 238:1 255:1 284:1 292:2 300:1 365:1 375:1 470:1 587:1 693:1 849:1 859:1 862:1 1060:1 1102:1 1133:1 1235:1 1364:1 1440:1 1486:1 1719:1 1843:1 
1 7:1 13:1 15:1 18:1 23:1 29:1 30:1 31:1 33:1 44:1 57:1 67:2 69:1 76:1 79:1 92:1 116:1 139:1 149:1 156:1 197:1 199:1 246:1 292:1 334:1 375:1 427:1 494:1 587:1 813:1 849:1 881:1 978:2 1102:1 1283:1 1337:1 1486:1 1971:1 
1 7:1 13:1 15:4 23:1 29:3 55:1 61:2 69:2 83:1 92:1 97:1 114:1 132:1 156:1 230:1 244:2 262:1 281:1 292:3 313:1 339:1 395:1 439:1 587:4 669:2 804:1 849:1 951:1 1041:1 1123:1 1133:1 1233:1 1486:1 1538:1 1703:1 
1 7:1 8:1 13:1 15:2 23:1 29:2 42:1 55:1 57:1 62:2 65:1 69:1 72:2 85:1 92:1 105:1 135:1 156:1 160:1 197:1 219:1 223:1 232:1 238:1 239:1 252:1 259:1 264:1 292:2 339:1 364:1 487:1 534:1 570:1 587:2 742:1 743:1 849:1 1111:1 1486:1 1538:1 1709:2 1725:1 
1 7:1 8:2 9:3 13:1 30:1 33:1 44:1 47:1 58:1 59:1 62:1 66:1 69:1 70:1 71:2 73:1 79:1 84:1 105:1 106:1 119:1 138:1 156:1 188:1 225:1 238:2 375:1 392:2 444:1 506:1 520:1 584:1 591:1 659:2 864:1 868:1 1079:1 1102:1 1164:1 1486:1 1616:1 1846:1 1890:1 1996:1 
1 7:1 8:1 9:1 10:2 12:3 15:1 18:2 22:1 31:1 54:3 64:2 69:2 71:1 85:1 96:1 123:1 126:1 133:1 139:1 151:1 199:1 201:1 223:1 234:1 238:1 251:1 257:1 264:1 275:1 366:1 534:1 587:1 659:1 723:1 749:1 836:1 881:2 987:1 1101:2 1127:1 1278:1 1519:1 1989:1 
1 1:2 2:2 4:1 5:1 8:3 10:2 13:1 18:2 21:2 30:3 33:1 39:2 51:1 64:2 69:3 73:1 76:1 79:3 156:1 178:1 238:3 267:1 279:1 375:1 427:1 597:1 616:1 881:2 1019:1 1101:2 1287:2 1486:1 
1 7:2 9:2 10:3 13:3 15:3 18:1 22:1 29:1 33:1 42:1 43:1 48:1 63:1 64:3 68:1 76:1 87:1 91:2 126:2 136:1 140:1 156:3 251:1 287:1 292:1 296:1 375:1 427:1 480:1 587:3 590:1 639:2 742:1 872:1 881:1 892:1 961:1 1101:3 1408:1 1486:3 1592:1 1775:1 
1 7:1 10:4 14:1 22:1 23:1 29:2 30:1 48:2 57:1 64:4 68:1 69:1 71:1 75:1 79:1 114:1 119:1 142:2 151:1 197:1 242:1 251:1 292:2 432:1 476:1 500:1 615:2 659:1 764:1 819:1 987:1 1101:4 1396:1 1592:2 1843:1 
1 4:2 5:2 7:1 9:2 10:2 18:1 30:1 31:1 39:1 44:1 58:1 64:2 66:1 76:1 79:1 93:1 163:1 164:1 193:1 199:1 227:1 246:1 273:1 308:1 427:1 510:1 614:1 819:1 881:1 1059:1 1101:2 1102:1 1287:1 1319:1 1485:1 1516:1 1541:1 
1 7:3 9:2 10:1 13:1 23:1 29:1 30:1 31:2 39:1 44:1 45:1 47:1 56:1 64:1 69:1 71:1 72:1 79:1 83:1 114:2 126:1 138:1 151:1 156:1 157:1 159:1 168:1 191:1 199:2 292:1 358:1 395:1 432:1 580:1 659:1 813:1 987:1 1025:1 1101:1 1102:1 1133:1 1172:1 1287:1 1486:1 1638:1 1709:1 1996:1 
1 4:1 5:2 7:3 9:3 10:1 13:1 15:1 22:1 28:1 31:1 44:1 50:3 51:1 64:1 74:1 76:1 80:1 128:1 130:1 156:1 178:1 199:1 216:1 223:1 251:1 271:3 366:1 418:1 427:1 562:1 587:1 936:1 1101:1 1102:1 1117:1 1278:1 1395:1 1456:1 1486:1 1759:1 
1 7:2 10:3 12:2 13:1 15:2 23:1 29:2 31:1 42:1 44:1 54:2 56:1 57:1 64:3 69:1 70:1 78:1 112:1 114:1 134:1 152:1 156:1 157:1 192:1 197:1 199:1 220:1 237:1 240:1 246:1 255:1 256:1 287:1 292:2 464:1 476:1 587:2 606:1 742:1 1047:1 1060:1 1101:3 1102:1 1115:1 1164:1 1486:1 
1 7:3 10:1 12:1 13:1 15:4 23:1 29:1 31:2 33:1 48:1 54:1 56:2 64:1 65:1 68:2 69:1 77:1 78:3 111:1 117:1 134:2 139:1 156:1 157:2 160:1 180:1 182:1 199:2 240:3 246:1 252:1 260:1 292:1 366:1 375:1 433:1 487:1 513:1 586:1 587:4 737:1 767:1 880:1 961:1 1101:1 1119:1 1222:1 1278:1 1336:1 1486:1 1592:1 1804:1 1947:1 
1 1:2 2:2 7:4 13:2 18:1 21:2 22:1 31:1 33:1 39:1 57:1 62:1 106:1 119:1 156:2 197:1 199:1 229:1 242:1 251:1 306:1 375:1 462:1 574:1 718:1 881:1 982:1 1287:1 1367:1 1486:2 1649:1 1724:1 1846:1 1876:1 
1 7:1 9:3 10:2 13:1 18:1 23:1 30:3 42:1 48:1 51:2 55:1 64:2 68:1 69:3 70:2 79:3 92:2 128:1 130:1 143:1 156:1 178:2 180:1 189:1 203:1 216:1 244:1 288:1 742:1 849:2 881:1 915:1 1101:2 1164:2 1317:1 1456:1 1464:1 1486:1 1538:1 1592:1 
1 7:3 8:1 10:2 13:1 15:2 18:1 22:1 30:2 31:1 33:1 43:1 46:1 57:1 64:2 68:1 69:1 72:1 79:2 85:1 87:1 146:1 148:2 156:1 164:1 194:1 197:1 199:1 216:1 238:1 251:1 264:1 273:1 314:1 331:1 375:1 385:1 386:1 452:1 587:2 694:1 741:1 881:1 1046:1 1101:2 1385:1 1486:1 1488:1 1546:1 1573:2 1709:1 1918:1 
1 8:1 10:3 12:1 13:1 22:3 23:1 31:1 43:1 47:1 54:1 63:1 64:3 68:2 69:1 75:2 76:1 87:1 93:1 117:1 136:1 156:1 199:1 216:1 223:1 238:1 251:3 427:1 440:1 614:1 1101:3 1119:1 1486:1 1755:1 1843:2 
1 7:3 10:2 23:2 30:1 31:1 33:2 41:1 49:1 56:1 58:1 64:2 65:1 66:1 69:1 70:1 71:1 79:1 105:1 107:1 116:1 120:1 126:1 140:1 157:1 165:1 166:1 175:1 191:1 199:1 279:1 334:1 358:1 375:2 424:1 483:1 487:1 659:1 1101:2 1164:1 1688:1 1731:1 1775:1 1810:1 1935:1 
1 7:2 8:1 10:1 12:2 13:4 15:1 23:1 41:1 43:2 50:1 54:2 56:1 62:1 63:1 64:1 68:2 69:1 70:1 85:1 87:2 106:1 111:1 136:1 155:1 156:4 157:1 162:1 164:1 220:1 238:1 264:1 271:1 273:1 328:1 424:1 431:1 568:1 587:1 784:1 801:1 803:1 1101:1 1164:1 1191:1 1486:4 1804:1 1846:1 
1 1:19 2:19 3:16 4:6 5:16 6:12 7:1 8:10 10:1 11:2 13:2 15:1 18:3 19:5 24:5 25:5 26:5 38:5 40:2 41:1 45:1 48:1 64:1 73:1 99:1 111:1 120:1 144:1 156:2 184:1 205:1 231:1 238:10 260:1 374:1 421:2 424:1 587:1 702:1 741:1 881:3 1101:1 1220:2 1336:1 1486:2 1520:1 1592:1 1719:1 1804:1 
1 10:4 15:3 30:2 43:1 64:4 69:1 79:2 87:1 98:4 142:3 207:2 263:2 305:3 401:1 587:3 615:3 857:1 1101:4 1788:2 
1 7:1 8:1 10:1 13:2 16:1 22:1 30:1 31:2 43:1 46:1 47:1 58:2 64:1 69:1 75:1 79:1 87:1 93:1 105:1 156:2 199:2 229:1 238:1 251:1 254:1 290:1 313:1 354:1 362:1 386:1 415:1 606:1 614:1 947:2 1101:1 1486:2 1649:1 1843:1 
1 7:1 8:1 9:1 13:3 15:2 29:1 30:1 31:1 39:1 44:1 46:1 49:1 63:1 69:1 74:1 78:2 79:1 98:1 104:1 105:2 111:2 128:2 136:1 149:1 156:3 169:1 199:1 207:1 238:1 240:2 269:1 292:1 351:1 386:1 533:1 587:2 611:1 664:1 728:1 739:1 880:1 1102:1 1287:1 1339:1 1486:3 1731:1 1759:1 1804:2 1971:1 
1 7:4 8:1 9:1 15:1 23:1 30:1 31:2 46:1 47:1 55:1 56:1 58:2 67:2 69:1 71:2 77:1 79:1 85:1 102:1 119:1 154:1 157:1 169:1 182:1 199:2 200:1 238:1 250:1 253:1 264:1 269:1 386:1 450:1 454:1 498:1 587:1 651:1 659:2 978:2 1365:1 1538:1 1566:1 1911:1 
1 7:3 8:2 9:1 10:2 22:2 23:2 30:1 31:1 33:1 41:1 46:1 51:1 62:1 63:1 64:2 69:1 72:1 79:1 88:1 105:1 136:1 138:1 140:1 160:1 163:1 178:1 199:1 238:2 251:2 274:1 287:1 288:1 375:1 386:1 424:1 441:1 444:1 1006:1 1101:2 1283:1 1709:1 1775:1 1996:1 
1 7:2 10:2 12:1 13:2 15:2 22:1 33:2 39:2 54:1 56:1 58:1 61:1 63:2 64:2 69:2 71:1 83:1 94:1 136:2 143:1 156:2 157:1 179:1 216:1 232:1 241:1 251:1 321:1 375:2 494:1 575:1 587:2 619:1 659:1 1101:2 1110:1 1133:1 1287:2 1464:1 1486:2 1741:1 1882:1 
1 7:1 9:3 10:2 13:2 16:1 23:2 29:1 31:1 33:1 39:1 57:1 62:1 63:2 64:2 69:1 85:1 106:1 114:1 119:1 136:2 150:1 156:2 197:1 199:1 210:1 255:1 264:1 281:1 292:1 318:1 323:1 375:1 401:1 606:1 1060:1 1101:2 1287:1 1428:1 1486:2 1846:1 1863:1 1943:1 
1 1:28 2:28 3:36 4:30 5:27 6:22 7:7 8:13 9:8 10:5 11:12 13:5 15:6 18:5 19:8 20:8 21:1 22:3 24:8 25:8 26:5 30:1 33:3 36:5 37:5 38:3 39:2 40:2 41:1 45:1 48:1 49:2 50:4 51:2 55:1 56:2 57:5 58:4 63:1 64:5 67:1 69:2 70:1 71:3 72:1 74:1 75:1 77:1 78:3 79:1 83:1 85:1 96:1 102:1 105:1 111:2 112:1 114:2 116:1 118:4 123:1 126:2 128:1 132:1 135:1 136:1 138:2 141:1 143:1 144:1 146:1 148:3 154:1 156:5 157:2 161:3 164:1 178:2 179:1 182:1 183:1 184:1 186:2 194:1 196:1 197:5 203:1 207:1 209:1 214:2 222:1 224:2 230:1 237:3 238:13 240:3 242:1 243:1 251:3 257:2 261:1 264:1 268:2 271:4 273:1 282:1 289:1 291:2 293:2 298:4 314:1 317:2 327:1 331:1 334:1 335:2 375:3 398:1 409:1 421:12 424:1 436:1 456:1 465:1 470:3 474:1 501:2 587:6 650:1 659:3 667:3 669:1 676:1 717:1 728:1 755:1 819:1 881:5 894:1 978:1 1024:1 1101:5 1123:1 1127:4 1133:1 1164:1 1287:2 1292:1 1317:1 1328:1 1385:1 1401:1 1438:1 1464:1 1486:5 1519:2 1538:1 1566:1 1573:3 1590:1 1592:1 1595:1 1637:1 1639:1 1673:1 1701:1 1703:1 1709:1 1725:1 1731:2 1741:1 1759:1 1804:2 1843:1 1915:1 1918:1 1996:2 
