svm_type c_svc
kernel_type rbf
gamma 0.00050025
nr_class 2
total_sv 2230
rho -0.869632
label 1 -1
probA -2.15118
probB -1.03688
nr_sv 1224 1006
SV
1 15:1 90:1 114:1 122:1 149:1 332:1 509:1 587:1 1343:1 1651:1 1971:1 
1 15:1 28:1 58:1 587:1 
1 7:1 13:4 15:2 30:1 42:1 43:1 47:1 61:1 69:1 70:2 79:1 87:1 98:1 110:1 112:1 123:2 132:1 134:2 148:1 156:4 223:1 309:1 481:2 587:2 742:1 1123:1 1164:2 1170:1 1486:4 1573:1 1624:1 
1 7:1 9:3 10:1 13:3 15:1 18:1 22:1 39:2 63:2 64:1 65:1 69:1 71:1 74:1 91:1 130:1 132:1 136:2 156:3 194:1 251:1 266:1 333:1 350:1 414:1 482:1 487:1 587:1 639:1 659:1 881:1 1058:1 1101:1 1123:1 1287:2 1456:1 1486:3 1759:1 1888:1 1918:1 
1 7:2 8:1 10:1 13:2 18:1 22:1 46:4 64:1 82:1 120:1 156:2 196:1 238:1 251:1 257:1 386:4 881:1 941:1 1101:1 1355:2 1438:1 1486:2 1519:1 
1 4:1 5:1 7:1 9:1 12:2 13:2 15:1 18:2 31:1 44:3 50:1 54:2 55:1 56:2 61:1 69:1 74:1 97:1 107:1 114:1 119:1 130:1 138:1 156:2 157:2 173:2 191:1 199:1 248:1 271:1 282:1 358:1 403:1 587:1 774:1 881:2 887:2 923:1 951:1 1006:1 1102:3 1456:1 1486:2 1538:1 1692:1 1759:1 1791:1 1975:1 1996:1 
1 7:2 12:4 13:4 18:1 22:1 23:2 30:3 31:1 33:2 39:1 41:1 47:2 54:4 67:1 79:3 105:1 106:1 118:1 122:1 156:4 191:2 199:1 251:1 298:1 344:1 358:2 373:1 375:2 424:1 499:1 532:1 812:1 881:1 978:1 1287:1 1309:1 1486:4 1578:1 1651:1 1794:1 1816:1 1846:1 1920:1 
0.1545421434147944 1:110 2:110 3:123 4:75 5:114 6:68 7:5 8:71 9:2 10:3 11:20 13:1 14:3 15:1 16:3 17:3 19:20 20:20 21:1 22:5 24:8 25:8 26:35 30:1 32:1 36:5 37:5 38:15 40:2 45:1 46:1 47:2 48:1 56:2 64:3 74:1 75:1 79:1 80:2 92:1 108:1 126:1 141:1 143:1 147:4 156:1 157:2 158:4 171:1 172:30 230:1 238:71 251:5 256:1 284:1 386:1 421:20 509:1 569:1 587:1 736:1 806:1 849:1 859:1 1064:1 1101:3 1391:1 1440:1 1464:1 1486:1 1592:1 1703:1 1759:1 1843:1 1984:1 
1 7:1 8:1 9:2 13:2 15:2 22:1 23:3 29:1 44:1 47:1 51:1 56:1 60:1 61:1 68:1 69:1 78:1 107:1 144:1 156:2 157:1 164:1 178:1 184:1 238:1 240:1 251:1 273:1 287:1 292:1 300:1 340:1 350:1 587:2 687:1 690:1 1102:1 1181:1 1486:2 1489:2 1607:1 
1 1:2 2:1 3:1 5:1 11:1 18:1 19:1 38:1 44:1 46:1 76:1 205:1 231:1 359:1 367:1 386:1 421:1 425:1 427:1 500:1 809:1 881:1 1102:1 1883:2 
1 7:1 12:1 13:1 22:1 42:1 54:1 56:1 73:1 105:1 116:1 143:1 155:1 156:1 157:1 180:1 251:1 260:1 262:1 286:1 334:1 359:1 431:1 646:1 742:1 862:1 1016:1 1336:1 1464:1 1486:1 1586:1 
1 9:8 10:3 13:1 15:1 18:2 29:1 33:1 56:3 60:1 64:3 69:1 75:1 143:1 151:1 154:1 156:1 157:3 222:1 230:1 281:1 292:1 300:1 357:1 375:1 425:3 587:1 837:1 881:2 898:1 987:1 1101:3 1149:1 1464:1 1486:1 1703:1 1843:1 
1 7:2 8:1 9:1 10:1 22:1 29:1 39:1 44:1 47:1 63:1 64:1 83:1 85:1 114:1 136:1 177:1 193:1 230:1 238:1 242:1 251:1 264:1 292:1 507:1 821:1 1101:1 1102:1 1133:1 1287:1 1319:1 1501:1 1703:1 
1 7:3 10:1 13:1 15:1 18:1 23:2 30:1 33:2 47:1 55:1 57:1 64:1 69:1 79:1 107:1 126:1 128:1 148:1 151:1 156:1 177:1 183:1 197:1 202:2 203:1 248:1 252:1 307:1 375:2 551:1 578:1 587:1 601:2 711:1 821:1 881:1 987:1 1101:1 1317:1 1328:1 1486:1 1538:1 1573:1 1827:1 1975:1 
1 7:6 8:1 9:1 10:1 13:2 15:2 22:1 30:2 31:3 33:1 47:1 64:1 75:1 79:2 96:1 105:1 107:2 119:1 156:2 165:1 199:3 232:1 238:1 242:1 251:1 309:1 310:1 366:2 375:1 418:1 453:1 499:1 587:2 741:1 1101:1 1218:2 1278:2 1486:2 1843:1 
1 7:1 10:1 12:1 13:2 15:3 23:2 43:1 54:1 56:1 64:1 68:1 69:4 87:1 99:1 105:1 126:1 135:2 143:1 144:1 156:2 157:1 184:1 192:1 313:3 327:4 410:1 573:1 587:3 627:1 653:1 815:1 1004:1 1101:1 1115:1 1188:1 1262:1 1464:1 1486:2 1719:1 1725:2 1734:1 1744:1 
1 7:1 8:1 10:2 13:1 18:1 22:1 23:1 29:1 30:3 33:1 39:1 41:1 46:1 49:1 51:1 55:1 61:1 64:2 69:1 79:3 92:1 96:1 98:1 112:1 154:1 156:1 178:1 223:1 238:1 251:1 269:1 288:1 292:1 375:1 386:1 424:1 453:1 503:1 580:1 733:1 794:1 849:1 881:1 983:1 1016:1 1101:2 1287:1 1435:1 1486:1 1538:1 1731:1 
1 4:1 5:1 7:1 9:2 10:2 13:1 14:1 15:1 22:2 23:1 29:1 30:1 49:1 50:1 56:1 57:1 64:2 68:1 69:1 72:1 78:1 79:1 98:1 112:1 156:1 157:1 197:1 240:1 251:2 271:1 292:1 309:1 345:1 464:1 572:1 587:1 719:1 853:1 855:1 901:1 1101:2 1486:1 1543:1 1709:1 1731:1 
1 4:1 5:1 7:1 10:1 12:1 13:3 15:2 23:2 31:1 33:1 42:1 47:1 54:1 64:1 67:1 69:1 71:2 92:1 96:1 126:1 156:3 160:1 162:2 177:1 185:1 199:1 237:1 330:1 375:1 392:1 513:1 587:2 624:1 659:2 742:1 821:1 849:1 978:1 1101:1 1217:1 1222:1 1486:3 
1 1:4 2:4 7:4 9:2 13:2 21:4 33:1 39:1 62:1 71:1 144:1 148:1 156:2 184:1 330:1 359:2 375:1 659:1 694:1 815:1 1153:1 1157:1 1250:1 1287:1 1486:2 1543:1 1573:1 
1 7:3 8:2 9:1 12:1 13:3 15:1 43:1 54:1 56:2 69:1 70:1 87:1 88:1 96:1 105:1 107:2 134:1 148:1 156:3 157:2 160:1 163:1 224:1 238:2 261:1 263:1 274:1 287:1 362:1 364:1 366:1 367:1 432:2 587:1 1164:1 1191:2 1278:1 1382:1 1486:3 1573:1 1866:2 1882:1 
1 7:2 8:2 9:1 15:3 22:1 30:1 33:1 43:1 47:1 48:2 51:1 57:1 61:1 69:1 71:1 75:1 79:1 87:1 114:1 126:1 142:1 154:1 178:1 197:1 230:1 237:1 238:2 251:1 327:2 350:1 375:1 414:1 441:1 587:3 615:1 659:1 1084:1 1592:2 1703:1 1843:1 
1 7:1 8:1 9:4 10:3 13:2 15:1 18:1 22:1 30:1 33:1 49:1 51:1 57:1 61:1 64:3 69:1 72:1 79:1 106:1 134:1 146:1 156:2 166:1 172:1 178:1 197:1 223:2 238:1 251:1 312:1 375:1 534:1 587:1 881:1 962:1 1026:1 1101:3 1151:1 1385:1 1387:1 1486:2 1709:1 1731:1 1840:1 1846:1 
1 7:3 8:1 12:3 13:2 15:3 22:2 31:1 41:2 42:1 44:1 46:1 47:1 49:1 54:3 61:1 68:1 69:1 75:1 78:1 83:1 92:1 126:1 140:1 143:1 156:2 199:1 225:1 238:1 240:1 251:2 276:1 287:1 327:1 378:1 386:1 397:1 418:1 424:2 587:3 708:1 742:1 849:1 862:1 868:1 1055:1 1102:1 1133:1 1464:1 1486:2 1731:1 1775:1 1843:1 
1 4:1 5:2 7:3 9:3 10:1 13:1 15:1 22:1 28:1 31:1 44:1 50:3 51:1 64:1 74:1 76:1 80:1 128:1 130:1 156:1 178:1 199:1 216:1 223:1 251:1 271:3 366:1 418:1 427:1 562:1 587:1 936:1 1101:1 1102:1 1117:1 1278:1 1395:1 1456:1 1486:1 1759:1 
1 7:2 10:3 12:2 13:1 15:2 23:1 29:2 31:1 42:1 44:1 54:2 56:1 57:1 64:3 69:1 70:1 78:1 112:1 114:1 134:1 152:1 156:1 157:1 192:1 197:1 199:1 220:1 237:1 240:1 246:1 255:1 256:1 287:1 292:2 464:1 476:1 587:2 606:1 742:1 1047:1 1060:1 1101:3 1102:1 1115:1 1164:1 1486:1 
1 7:1 9:3 10:2 13:1 18:1 23:1 30:3 42:1 48:1 51:2 55:1 64:2 68:1 69:3 70:2 79:3 92:2 128:1 130:1 143:1 156:1 178:2 180:1 189:1 203:1 216:1 244:1 288:1 742:1 849:2 881:1 915:1 1101:2 1164:2 1317:1 1456:1 1464:1 1486:1 1538:1 1592:1 
1 7:2 9:2 12:1 13:5 18:1 22:1 23:3 28:1 30:1 54:1 57:1 79:1 122:1 126:1 144:1 156:5 184:1 197:1 251:1 425:1 493:1 757:1 881:1 1486:5 1585:1 1651:1 
1 7:5 8:1 10:1 13:2 15:3 18:1 23:1 30:1 43:1 56:1 64:1 70:1 73:1 79:1 87:1 92:1 126:1 138:1 148:1 154:1 156:2 157:1 201:1 207:1 214:1 238:1 241:1 327:1 587:3 619:1 632:1 692:1 694:1 784:1 849:1 874:1 881:1 1019:1 1066:1 1101:1 1164:1 1486:2 1573:1 1989:1 1996:1 
1 7:1 8:2 10:1 13:3 15:4 18:1 23:1 29:1 33:1 42:1 44:1 47:1 50:1 64:1 66:2 69:1 92:1 114:1 149:1 156:3 229:2 238:2 239:1 253:1 271:1 290:1 292:1 327:2 375:1 503:1 580:1 587:4 711:1 742:1 842:1 849:1 881:1 1101:1 1102:1 1117:1 1244:1 1299:1 1388:1 1395:1 1410:1 1486:3 1649:2 1674:1 1971:1 
1 7:3 8:2 10:1 13:1 15:1 18:1 23:3 28:1 33:1 49:1 57:1 59:2 61:1 62:1 64:1 69:1 98:1 111:1 140:1 143:1 154:1 156:1 168:1 197:1 238:2 375:1 394:1 520:2 587:1 606:1 881:1 1101:1 1435:1 1464:1 1486:1 1616:2 1731:1 1775:1 1804:1 
1 4:1 5:1 7:2 9:1 10:1 13:1 15:2 22:1 23:2 30:1 43:2 51:1 55:1 56:1 59:1 64:1 69:1 79:1 82:1 87:2 132:1 134:1 143:1 149:1 156:1 157:1 160:1 175:1 178:1 243:1 251:1 288:1 314:1 319:1 327:1 336:1 381:1 387:1 520:1 587:2 781:1 1101:1 1123:1 1319:1 1398:1 1464:1 1485:1 1486:1 1538:1 1595:1 1616:1 1971:1 
1 7:3 8:4 9:1 10:1 15:1 22:1 23:1 30:2 64:1 70:2 75:1 79:2 105:2 106:2 177:1 183:1 220:1 223:1 225:1 238:4 251:1 314:1 392:2 587:1 821:1 868:1 915:1 1047:1 1101:1 1164:2 1328:1 1416:2 1843:1 1846:2 
1 7:3 10:3 12:3 13:3 15:1 30:1 41:1 44:1 46:1 48:1 54:3 60:1 64:3 77:1 79:1 91:1 156:3 163:2 182:1 230:1 300:1 328:1 386:1 424:1 493:1 587:1 606:2 639:1 744:1 752:1 853:1 935:1 1101:3 1102:1 1443:1 1486:3 1592:1 1703:1 
1 7:4 8:1 12:3 23:1 30:2 33:1 43:3 51:1 54:3 56:1 57:1 62:1 69:4 71:1 74:1 79:2 87:3 92:1 110:1 118:1 126:1 128:1 157:1 173:1 177:1 178:1 183:1 197:1 217:1 238:1 242:2 272:1 296:1 298:1 328:1 375:1 500:2 573:1 579:1 606:1 659:1 821:1 849:1 887:1 1170:1 1188:1 1262:1 1328:1 1584:1 1759:1 
1 7:1 9:1 10:2 13:2 15:1 33:1 47:2 57:1 64:2 69:1 78:1 85:1 117:1 123:1 156:2 177:1 197:1 237:1 240:1 247:1 264:1 375:1 587:1 642:1 821:1 1101:2 1119:1 1486:2 1810:1 
0.1300920255353806 1:140 2:140 7:7 9:145 15:6 17:1 21:140 28:5 30:6 33:2 42:6 48:6 57:6 73:76 79:6 84:6 123:26 144:1 150:2 161:6 181:75 184:1 197:6 205:35 231:19 375:2 398:2 475:2 489:1 575:2 587:6 742:6 771:1 906:6 1056:18 1066:5 1079:6 1082:19 1157:1 1245:26 1247:6 1309:1 1368:4 1461:6 1517:1 1592:6 1645:6 1665:9 1864:12 1982:6 
1 9:7 10:2 13:1 22:2 30:3 41:1 48:3 50:2 64:2 66:1 69:1 79:3 88:1 128:1 142:1 156:1 162:1 202:1 251:2 271:2 274:1 284:1 424:1 481:1 499:1 601:1 615:1 936:1 1101:2 1440:1 1486:1 1592:3 1604:1 1837:1 1979:1 
1 1:2 2:2 7:1 9:2 13:3 21:2 22:1 30:2 42:1 48:1 51:1 71:1 79:2 96:1 140:1 143:1 156:3 178:1 251:1 252:1 305:1 659:1 742:1 930:1 1256:1 1464:1 1486:3 1586:1 1592:1 1775:1 
1 7:2 8:1 9:1 13:2 22:1 23:2 30:2 44:1 55:1 59:1 61:1 69:1 71:1 75:1 79:2 85:1 96:1 97:1 104:1 132:1 140:1 151:1 156:2 165:3 203:1 227:1 232:1 238:1 251:1 260:1 264:1 351:1 366:1 441:1 493:1 520:1 659:1 787:1 932:1 951:1 987:1 1102:1 1123:1 1278:1 1317:1 1336:1 1486:2 1538:1 1616:1 1775:1 1843:1 
1 7:5 8:1 9:1 10:1 13:1 29:1 59:7 64:1 66:1 69:1 83:2 99:1 120:1 130:1 156:1 170:1 238:1 250:3 287:1 292:1 327:1 409:1 520:7 722:1 805:7 857:1 898:1 1003:1 1064:1 1101:1 1133:2 1412:1 1456:1 1486:1 1616:7 1623:1 1667:2 1719:1 
1 7:3 8:1 9:3 13:3 31:1 39:1 47:1 51:1 76:1 156:3 178:1 199:1 238:1 263:1 265:1 427:1 679:1 739:1 875:1 967:1 1287:1 1486:3 
1 7:3 8:2 10:2 13:1 18:1 23:3 33:1 43:1 46:1 47:2 64:2 69:1 87:1 100:2 142:1 156:1 238:2 375:1 386:1 551:1 567:1 615:1 752:1 871:2 881:1 1064:1 1101:2 1486:1 
1 7:3 8:1 9:1 13:1 18:1 23:2 29:1 31:2 51:1 55:1 58:1 59:1 68:1 69:1 105:1 114:2 151:1 152:1 154:1 156:1 178:1 192:1 199:2 222:1 238:1 241:1 250:1 287:1 292:1 339:1 520:1 580:1 619:1 881:1 916:1 987:1 1006:1 1115:1 1241:1 1486:1 1538:1 1616:1 1646:1 
1 7:1 9:1 13:1 15:3 39:1 56:1 61:1 63:3 97:1 99:1 102:1 119:1 136:3 156:1 157:1 163:1 198:1 226:1 378:1 587:3 936:1 951:1 1287:1 1486:1 1566:1 1699:1 1719:1 
1 7:4 8:2 9:9 10:14 13:3 18:1 22:2 29:1 39:13 41:1 44:1 49:1 50:2 55:1 56:1 63:2 64:14 65:1 69:7 70:1 74:1 75:1 85:1 91:1 130:1 134:1 136:2 156:3 157:1 164:1 165:1 170:2 237:1 238:2 251:2 264:1 271:2 273:1 292:1 381:1 424:1 487:1 622:1 639:1 668:1 724:1 860:1 881:1 1098:1 1101:14 1102:1 1164:1 1287:13 1456:1 1486:3 1538:1 1591:1 1623:2 1692:1 1731:1 1759:1 1826:1 1843:1 1952:1 
1 1:3 2:3 3:2 4:1 5:2 7:1 8:1 21:2 26:1 33:2 36:1 37:1 41:1 42:1 46:1 73:1 148:1 238:1 338:1 375:2 386:1 424:1 742:1 809:1 1135:1 1157:1 1573:1 1579:1 
1 7:1 9:2 10:3 13:2 15:2 23:1 30:1 33:1 43:1 44:1 46:1 48:1 56:1 64:3 67:2 69:1 75:1 77:1 79:1 87:1 126:2 146:1 149:1 151:1 156:2 157:1 182:1 375:1 386:1 418:1 459:1 587:2 647:1 891:1 978:2 987:1 1101:3 1102:1 1385:1 1486:2 1592:1 1674:1 1702:1 1811:1 1843:1 1971:1 
1 7:1 8:1 10:3 12:3 13:2 15:3 18:1 41:2 47:2 54:3 58:1 64:3 68:1 69:1 71:1 78:1 105:1 116:1 144:1 149:1 156:2 160:2 168:1 184:1 226:1 238:1 240:1 283:1 334:1 424:2 587:3 659:1 863:1 881:1 1012:1 1101:3 1486:2 1533:1 1878:1 1971:1 
1 7:2 9:1 13:2 22:1 42:1 62:1 70:1 143:1 148:1 156:2 180:1 251:1 694:1 742:1 759:1 982:1 1164:1 1200:1 1464:1 1486:2 1573:1 
1 4:1 5:1 7:3 8:2 9:1 10:1 13:1 18:2 23:1 30:1 47:2 56:1 64:1 69:1 79:1 99:1 119:1 130:1 133:1 143:2 156:1 157:1 173:1 207:1 223:1 229:1 238:2 242:1 282:1 288:1 440:1 576:1 797:1 845:1 881:2 887:1 1101:1 1456:1 1464:2 1486:1 1649:1 1719:1 
1 7:1 10:1 22:1 33:1 59:1 64:1 147:2 229:1 251:1 375:1 520:1 549:1 982:1 1101:1 1135:1 1543:1 1616:1 1649:1 
1 7:1 8:1 9:1 15:2 22:1 23:1 29:1 31:1 42:1 45:1 55:1 62:1 69:1 76:1 77:1 92:1 100:1 105:1 126:1 134:1 151:1 182:1 187:1 199:1 237:1 238:1 251:1 255:1 292:1 314:1 394:1 427:1 459:1 521:1 587:2 676:1 699:1 742:1 849:1 871:1 987:1 1060:1 1325:1 1538:1 1673:1 1810:1 1811:1 1904:1 
1 7:2 9:1 22:1 59:2 69:3 90:1 110:1 116:1 123:2 205:1 226:1 251:1 334:1 509:1 520:2 757:1 1170:1 1616:2 
1 5:2 7:1 10:5 12:1 13:1 23:1 30:1 54:1 64:5 66:1 74:1 79:1 84:1 90:1 104:1 112:2 151:1 156:1 163:1 191:1 192:1 220:1 312:1 351:1 358:1 498:2 527:1 935:1 987:1 1079:1 1101:5 1115:1 1151:1 1310:1 1372:1 1486:1 1759:1 1956:1 
1 1:1 2:1 3:3 4:2 5:3 6:1 7:2 8:3 9:1 10:1 18:1 19:1 23:1 33:1 38:1 41:2 42:1 46:1 47:1 48:1 60:1 62:1 64:1 67:1 69:1 81:1 93:1 94:1 161:1 189:1 205:2 228:1 229:1 238:3 300:1 375:1 386:1 424:2 614:1 692:1 711:1 729:1 742:1 784:1 881:1 978:1 1093:2 1101:1 1185:1 1463:1 1467:1 1592:1 1649:1 
1 9:3 10:1 13:2 15:3 30:1 31:1 39:1 42:1 51:1 56:1 57:1 59:1 62:1 64:1 69:2 74:1 79:1 105:1 116:1 126:1 143:2 156:2 157:1 168:1 177:1 178:1 197:1 199:1 202:1 207:1 256:2 260:1 288:2 302:1 334:1 441:1 520:1 587:3 601:1 742:1 755:1 821:1 1011:1 1101:1 1287:1 1336:1 1464:2 1486:2 1616:1 1759:1 1878:1 
1 7:3 8:2 9:1 10:1 15:1 23:2 29:1 33:1 42:1 44:1 46:1 47:1 51:1 62:1 63:1 64:1 69:1 89:1 111:1 117:1 136:1 144:1 151:1 178:1 184:1 219:1 238:2 246:1 292:1 375:1 386:1 499:1 501:1 532:1 587:1 742:1 758:1 949:1 987:1 991:1 1101:1 1102:1 1119:1 1804:1 1897:1 
1 7:1 9:1 10:3 13:1 14:1 22:1 64:3 69:1 156:1 224:1 251:1 426:1 474:1 750:1 789:1 810:1 1101:3 1355:1 1486:1 1691:1 
1 12:1 15:1 54:1 58:1 59:1 69:2 71:1 76:1 77:1 78:1 101:1 112:1 114:1 118:1 122:1 182:1 240:1 298:1 319:1 427:1 447:1 520:1 587:1 659:1 781:1 954:1 1271:1 1616:1 1651:1 1695:1 1901:1 
1 7:4 8:1 9:2 10:3 13:2 18:1 30:2 31:1 43:1 47:2 48:2 51:1 55:1 58:1 64:3 79:2 83:1 87:1 96:1 128:1 148:1 156:2 178:1 199:1 200:1 226:1 235:1 238:1 282:1 307:1 383:1 412:1 449:1 496:1 767:1 881:1 936:1 962:1 1101:3 1133:1 1193:1 1387:2 1486:2 1538:1 1573:1 1592:2 1911:1 
1 4:1 5:1 7:1 8:1 9:3 13:1 15:1 18:1 22:1 29:1 30:1 39:1 59:1 66:1 69:1 79:1 100:1 143:1 156:1 168:1 170:1 216:1 238:1 251:1 292:1 363:1 520:1 526:1 587:1 628:1 787:1 871:1 881:1 1062:1 1287:1 1464:1 1486:1 1616:1 1623:1 1752:1 1867:1 
1 4:1 5:1 7:3 8:3 10:1 12:1 13:1 23:1 28:1 31:1 33:2 42:1 46:1 48:1 54:1 64:1 78:1 133:1 144:1 146:1 156:1 184:1 199:1 238:3 240:1 265:1 313:1 375:2 386:1 389:1 392:1 446:1 496:1 604:1 667:1 742:1 1101:1 1193:1 1385:1 1416:1 1486:1 1527:1 1592:1 1721:1 
1 7:2 8:1 10:3 13:2 23:3 31:1 33:1 39:1 41:1 42:1 46:1 64:3 69:1 78:1 93:1 126:1 142:2 146:1 156:2 173:1 199:1 202:1 229:1 238:1 240:1 287:1 375:1 386:1 392:1 418:1 424:1 549:1 601:1 614:1 615:2 718:1 742:1 887:1 989:1 1047:1 1101:3 1105:1 1287:1 1385:1 1442:1 1486:2 1489:1 1649:1 
1 7:3 8:2 13:3 15:1 23:1 41:1 43:1 47:1 48:1 57:1 87:1 105:1 126:1 140:1 156:3 185:1 186:1 197:1 238:2 256:1 288:1 356:1 424:1 587:1 687:1 739:1 798:1 915:1 1486:3 1592:1 1775:1 1806:1 
1 7:1 8:1 9:1 15:1 39:1 41:1 48:1 63:1 69:1 72:1 88:1 92:1 96:1 126:1 132:1 136:1 142:1 143:1 154:1 179:1 191:1 238:1 274:1 358:1 424:1 587:1 611:1 615:1 849:1 854:1 1123:1 1153:1 1287:1 1464:1 1592:1 1709:1 1741:1 1898:1 
1 7:2 8:1 9:2 10:2 12:1 18:1 22:1 28:1 29:2 39:3 44:2 54:1 62:1 64:2 66:1 69:1 105:1 142:2 151:1 165:1 196:2 238:1 239:1 251:1 292:2 312:1 615:2 626:1 722:1 881:1 987:1 1006:1 1076:2 1101:2 1102:2 1151:1 1197:1 1287:3 1363:1 1399:1 1438:2 
1 13:1 31:2 43:1 56:1 68:1 69:1 80:1 83:1 87:1 151:1 156:1 157:1 199:2 207:1 219:1 237:1 281:1 318:1 501:1 532:1 987:1 1133:1 1486:1 
1 4:1 5:1 7:1 9:2 10:1 22:1 28:1 30:1 39:1 46:1 48:2 49:1 64:1 69:1 72:1 79:1 110:1 120:1 202:1 251:1 260:2 386:1 601:1 1101:1 1170:1 1287:1 1336:2 1592:2 1709:1 1720:1 1731:1 1735:1 
1 7:3 9:2 10:4 13:2 18:2 29:1 30:2 39:1 48:3 59:1 64:4 79:2 93:1 119:1 135:1 146:1 156:2 236:1 290:1 292:1 345:1 520:1 548:1 614:1 881:2 1101:4 1287:1 1321:1 1385:1 1486:2 1592:3 1616:1 1642:1 1725:1 
1 1:8 2:5 3:5 4:1 5:5 6:4 7:3 8:5 9:1 11:2 13:4 14:1 15:1 18:2 26:2 28:2 34:1 40:2 42:1 46:2 57:1 69:1 73:1 110:1 119:1 156:4 197:1 224:1 237:1 238:5 258:2 303:1 304:1 386:2 420:1 421:2 438:1 460:1 481:1 497:1 502:1 587:1 742:1 762:1 850:1 875:1 881:2 1024:1 1170:1 1466:1 1486:4 1979:1 
1 1:14 2:9 3:5 5:5 6:2 9:8 15:2 19:5 21:6 38:5 73:9 86:1 101:1 134:2 140:3 143:1 147:3 286:2 359:1 404:3 447:1 525:2 574:1 587:2 815:2 912:2 922:1 982:1 1464:1 1637:1 1775:3 
1 7:6 8:2 9:2 10:1 13:2 15:2 22:1 23:2 29:1 30:1 31:1 42:1 46:2 55:1 63:2 64:1 69:1 79:1 83:1 91:1 99:1 105:1 122:1 136:2 156:2 165:1 185:1 199:1 225:1 238:2 251:1 292:1 386:2 435:1 587:2 605:1 610:1 627:2 639:1 651:1 680:1 742:1 774:1 811:1 867:1 868:1 1101:1 1133:1 1136:2 1237:1 1486:2 1538:1 1651:1 1719:1 
0.1302335377143904 1:1204 2:1204 3:432 4:426 5:423 6:609 8:10 9:15 10:3 11:396 13:6 14:214 16:199 17:199 18:5 19:8 20:8 21:1 22:1 24:10 25:9 26:5 28:1 32:6 36:5 37:5 38:3 40:2 45:1 48:2 64:3 81:197 82:204 84:1 101:1 125:394 141:1 156:6 205:1 218:394 238:10 251:1 267:197 356:2 405:192 421:396 447:1 490:1 594:1 621:197 715:1 881:5 1079:1 1101:3 1173:1 1232:1 1265:2 1486:6 1525:2 1592:2 1890:1 1915:1 1985:1 1991:1 
1 7:2 8:1 10:2 18:1 22:1 29:1 47:2 51:1 61:1 64:2 69:1 88:1 115:1 120:1 130:2 155:1 177:1 178:1 207:1 223:1 230:2 235:1 238:1 251:1 274:1 292:1 409:1 412:1 431:1 493:2 499:1 617:1 821:1 881:1 902:1 1041:1 1101:2 1241:1 1456:2 1475:1 1703:2 1809:1 
1 7:3 8:2 9:3 13:2 22:2 23:1 31:1 41:1 47:1 60:1 63:1 65:1 70:1 111:1 136:1 140:1 156:2 199:1 238:2 247:1 251:2 300:1 340:1 424:1 483:1 487:1 1016:2 1164:1 1185:1 1486:2 1775:1 1804:1 
1 7:2 8:2 10:1 13:2 15:2 18:1 23:1 31:1 42:1 47:1 64:1 66:1 68:1 69:1 72:1 78:2 112:1 122:1 139:1 140:1 156:2 168:1 199:1 229:1 238:2 240:2 255:1 345:1 364:1 435:1 439:1 578:1 587:2 643:1 742:1 815:2 881:1 986:1 1060:1 1101:1 1486:2 1489:1 1649:1 1651:1 1705:1 1709:1 1775:1 1881:1 
1 7:3 8:4 9:2 10:1 12:3 13:4 15:1 22:1 23:2 33:1 46:1 49:1 54:3 60:2 64:1 69:1 73:1 88:1 143:1 149:1 156:4 191:1 238:4 247:1 251:1 274:1 300:2 357:1 358:1 375:1 386:1 398:1 459:1 489:1 496:1 534:1 578:1 580:1 587:1 941:1 1101:1 1193:1 1413:1 1464:1 1486:4 1520:1 1531:2 1731:1 1811:1 1866:1 1878:1 1971:1 
0.1300151944597152 1:180 2:180 3:109 4:108 5:109 6:90 7:14 8:5 9:8 10:3 11:2 13:4 14:30 15:1 18:8 22:4 24:2 25:2 26:1 28:45 30:1 33:4 34:45 36:1 37:1 39:2 41:2 48:1 49:1 50:1 51:2 57:1 59:1 64:3 76:1 79:1 81:1 84:3 90:1 99:1 115:1 120:2 125:116 134:1 140:2 150:1 156:4 169:1 170:1 178:2 197:1 202:1 210:1 218:58 226:3 227:1 236:1 238:5 242:1 251:4 254:1 262:1 267:58 271:1 305:1 308:1 312:1 330:1 347:1 356:2 360:1 372:1 375:4 398:1 421:2 422:1 424:2 427:1 473:1 489:1 500:1 515:1 520:1 530:1 558:1 587:1 601:1 603:1 621:58 681:1 697:1 731:1 745:29 770:29 804:1 844:15 878:1 881:8 982:4 1005:1 1079:3 1101:3 1151:1 1173:1 1192:1 1200:1 1212:1 1232:1 1247:1 1258:1 1287:2 1321:1 1384:1 1409:1 1414:1 1439:1 1486:4 1509:1 1532:1 1592:1 1616:1 1623:1 1693:1 1719:1 1723:1 1731:1 1732:1 1775:2 1826:1 1903:1 1916:1 
1 7:4 8:4 9:2 10:1 13:3 30:1 33:1 39:1 47:1 49:2 55:1 56:1 59:1 64:1 69:1 79:1 105:1 107:1 122:1 128:1 142:1 156:3 157:1 177:1 187:1 196:1 228:1 234:1 238:4 265:1 314:1 375:1 520:1 532:1 615:1 719:1 791:1 821:1 901:1 1101:1 1127:1 1287:1 1435:1 1438:1 1486:3 1538:1 1616:1 1651:1 1731:2 
1 7:5 8:1 10:2 13:1 15:3 31:1 33:1 41:2 62:1 64:2 67:2 77:1 107:1 119:1 126:2 156:1 182:1 199:1 216:1 237:1 238:1 267:1 272:2 362:1 375:1 422:1 424:2 587:3 694:1 978:2 1035:2 1087:1 1101:2 1408:1 1486:1 
1 7:1 9:2 10:2 13:1 18:1 22:1 23:2 39:1 41:1 42:1 60:2 63:3 64:2 69:1 72:1 99:1 104:1 129:1 136:3 140:1 154:1 156:1 177:1 185:1 251:1 283:1 300:2 335:1 346:1 348:1 351:1 424:1 541:1 732:1 742:1 821:1 881:1 1088:1 1101:2 1287:1 1486:1 1533:1 1709:1 1719:1 1743:1 1775:1 1800:1 1959:1 
1 7:5 8:1 10:1 13:1 15:1 18:1 39:1 47:2 56:1 61:1 62:1 64:1 67:2 76:1 77:1 93:1 100:1 133:1 140:1 156:1 157:1 166:1 182:1 238:1 310:1 341:1 427:1 440:1 450:1 532:1 587:1 614:1 687:1 711:1 734:1 755:1 813:1 871:1 881:1 978:2 1101:1 1287:1 1428:1 1486:1 1637:1 1775:1 
1 7:1 8:2 10:1 15:1 18:1 23:1 29:1 31:1 39:3 51:1 56:2 61:1 64:1 67:1 69:1 71:1 105:1 129:1 157:2 160:1 178:1 199:1 238:2 241:1 292:1 359:1 366:1 432:1 509:1 532:1 587:1 619:1 659:1 723:1 867:1 881:1 916:1 978:1 1101:1 1191:1 1278:1 1287:3 1959:1 1990:1 
1 7:4 8:1 9:3 12:3 13:1 15:5 18:1 43:1 47:1 48:1 54:3 69:1 75:2 87:1 88:1 91:1 92:1 115:1 126:2 132:1 138:1 156:1 160:1 165:1 177:1 190:1 229:1 230:1 238:1 274:1 313:1 381:1 587:5 639:1 653:2 821:1 849:1 881:1 1123:1 1408:1 1486:1 1589:1 1592:1 1649:1 1703:1 1843:2 1871:1 1996:1 
1 7:1 8:1 9:4 10:1 15:1 22:1 28:1 49:1 63:2 64:1 69:1 107:1 111:1 126:1 132:1 136:2 140:1 143:1 152:1 169:1 175:1 238:1 251:1 296:1 348:1 368:1 587:1 650:1 688:1 892:1 990:1 1101:1 1123:1 1239:1 1464:1 1731:1 1775:1 1804:1 
1 7:2 8:1 9:2 15:3 23:1 29:1 30:1 31:2 41:1 47:1 48:1 56:1 57:1 59:1 69:2 79:1 105:1 126:1 130:1 135:1 157:1 175:1 197:1 199:2 238:1 292:1 331:1 381:1 424:1 441:1 483:1 520:1 587:3 679:1 741:1 1019:1 1456:1 1506:1 1592:1 1616:1 1725:1 1831:1 
1 7:13 8:1 9:9 10:5 13:7 15:3 18:4 22:1 23:5 27:1 29:4 30:1 33:1 39:1 41:2 47:3 48:1 49:1 51:1 55:1 56:1 57:1 60:2 61:1 64:5 66:1 67:4 68:1 71:1 74:1 77:6 79:1 80:1 83:1 84:1 97:1 101:1 106:1 114:4 122:1 126:1 129:1 130:1 145:1 149:1 156:7 157:1 159:1 163:1 166:4 173:2 175:1 178:1 182:6 183:1 194:2 197:1 203:1 214:1 223:1 228:1 230:1 232:2 238:1 249:1 251:1 262:1 288:1 291:1 292:4 296:1 300:2 308:1 312:1 335:2 365:1 375:1 399:1 412:1 424:2 434:1 447:1 460:1 473:1 510:1 517:1 583:1 587:3 644:1 659:1 724:1 732:1 763:1 778:1 881:4 887:2 951:1 978:4 984:1 1079:1 1101:5 1133:1 1151:1 1217:1 1287:1 1316:1 1317:1 1328:1 1456:1 1486:7 1538:1 1592:1 1638:1 1651:1 1696:1 1703:1 1731:1 1759:1 1846:1 1869:1 1918:2 1959:1 1969:1 1971:1 
1 7:5 8:1 9:3 13:2 15:1 44:1 46:1 49:1 50:1 55:1 59:1 69:1 71:1 72:1 78:2 90:1 93:1 96:1 97:2 104:1 112:1 134:1 146:1 152:1 156:2 203:1 237:1 238:1 240:2 271:1 312:1 319:1 327:1 345:1 351:1 386:1 492:1 520:1 587:1 614:1 659:1 672:1 781:1 951:2 1051:1 1102:1 1151:1 1317:1 1385:1 1391:1 1486:2 1538:1 1616:1 1709:1 1714:1 1731:1 
1 7:3 9:1 10:1 13:2 44:1 50:4 57:1 60:1 64:1 69:1 93:1 156:2 191:1 197:1 232:1 250:1 271:4 300:1 308:1 311:2 319:1 358:1 606:1 614:1 767:1 781:1 995:1 1054:1 1101:1 1102:1 1127:1 1486:2 1598:1 
1 7:3 9:1 10:1 12:2 13:1 15:2 23:3 31:2 33:1 41:2 47:1 50:1 51:1 54:2 57:3 62:2 64:1 69:1 84:1 91:1 116:1 119:1 130:1 156:1 178:1 197:3 199:2 209:1 219:1 241:1 256:1 260:1 271:1 282:1 334:1 338:1 375:1 424:2 459:1 462:1 551:1 587:2 619:1 639:1 677:1 722:1 749:1 1047:1 1079:1 1081:2 1101:1 1274:1 1336:1 1354:1 1456:1 1480:1 1486:1 1811:1 1972:1 
1 7:2 8:2 9:2 10:2 13:1 15:1 18:1 33:1 46:2 47:1 64:2 69:1 82:1 105:1 126:1 144:1 156:1 184:1 238:2 375:1 386:2 587:1 637:1 798:1 881:1 1046:1 1101:2 1443:1 1486:1 
1 7:2 8:1 9:1 13:1 15:1 23:1 29:2 30:1 41:1 43:1 51:1 55:1 56:2 62:1 66:1 69:1 79:1 87:1 138:1 156:1 157:2 178:1 185:1 198:1 203:1 220:1 238:1 248:1 249:1 290:1 292:2 424:1 587:1 681:1 706:1 877:1 1317:1 1486:1 1538:1 1975:1 1996:1 
1 7:2 9:1 12:5 13:1 15:1 18:1 23:3 29:1 31:1 41:1 47:1 54:5 56:1 65:1 67:3 69:2 77:2 85:1 107:2 117:1 119:1 122:1 128:1 132:1 142:1 143:1 145:1 149:1 156:1 157:1 160:1 169:1 182:2 199:1 200:1 212:2 223:1 264:1 276:1 290:1 292:1 316:1 328:1 424:1 487:1 515:1 587:1 606:1 615:1 791:1 795:1 881:1 978:3 1055:1 1119:1 1123:1 1127:1 1297:1 1464:1 1486:1 1651:1 1715:1 1787:1 1911:1 1971:1 
1 7:1 13:2 15:4 22:1 39:3 41:1 42:1 50:2 59:1 61:3 66:1 69:1 71:1 104:3 128:1 130:2 138:1 142:1 156:2 160:3 170:1 200:2 207:1 251:1 271:2 351:3 424:1 503:1 520:1 587:4 615:1 659:1 742:1 823:1 1026:1 1287:3 1312:1 1350:1 1456:2 1486:2 1616:1 1623:1 1911:2 1996:1 
1 9:1 30:1 31:2 42:1 44:2 46:1 50:1 56:1 57:1 59:1 61:1 69:1 71:1 79:1 119:1 142:1 157:1 162:1 165:1 188:1 197:1 199:2 223:1 269:1 271:1 386:1 464:1 500:1 520:1 615:1 659:1 742:1 1061:1 1102:2 1616:1 1807:1 
1 7:3 8:1 10:1 12:1 15:2 23:1 42:3 49:1 50:1 54:1 62:1 63:1 64:1 69:2 98:1 105:1 117:1 126:1 136:1 170:1 191:1 238:1 271:1 308:1 358:1 363:1 365:1 587:2 617:1 742:3 919:1 1081:1 1101:1 1119:1 1127:1 1254:2 1623:1 1731:1 
1 8:3 10:2 13:2 22:1 23:1 29:2 30:1 41:1 44:1 59:1 64:2 69:2 79:1 134:1 143:1 156:2 169:1 193:1 216:1 238:3 244:1 247:1 251:1 269:2 290:1 292:2 312:1 364:1 424:1 426:1 520:1 669:2 1101:2 1102:1 1127:1 1151:1 1191:1 1221:1 1464:1 1486:2 1616:1 1637:1 
1 7:3 8:1 9:2 10:3 13:2 15:1 18:1 23:2 29:1 41:1 43:1 64:3 68:1 69:1 72:1 87:1 116:1 156:2 237:2 238:1 292:1 311:1 334:1 369:1 424:1 426:1 557:1 582:1 587:1 669:1 767:1 861:1 881:1 1046:1 1101:3 1486:2 1709:1 1875:1 1910:1 
1 7:1 8:1 10:1 13:1 15:1 18:1 22:1 23:1 28:1 29:1 30:1 31:4 42:2 49:1 55:1 64:1 66:1 77:1 79:1 85:1 99:1 102:1 129:1 149:1 156:1 163:1 182:1 191:1 198:1 199:4 237:1 238:1 250:1 251:1 264:1 268:1 292:1 306:1 315:1 358:1 451:1 453:1 457:1 472:1 587:1 714:1 741:1 742:2 810:1 881:1 962:1 989:1 1057:1 1101:1 1217:1 1486:1 1538:1 1566:1 1716:1 1719:1 1731:1 1959:1 1971:1 
1 9:3 10:1 13:2 23:3 30:2 31:3 33:1 42:1 62:1 64:1 68:1 69:1 78:1 79:2 82:1 85:2 122:1 130:1 138:1 140:1 156:2 169:1 199:3 240:1 264:2 375:1 403:1 742:1 1101:1 1456:1 1486:2 1506:1 1651:1 1775:1 1791:1 1996:1 
1 1:4 2:4 7:4 9:1 13:2 21:4 22:1 28:1 33:1 62:1 73:1 148:2 156:2 251:1 266:1 375:1 503:1 677:1 968:1 1256:1 1486:2 1520:1 1573:2 
1 7:3 10:1 13:2 15:1 23:2 30:2 31:1 33:1 42:1 44:1 51:1 55:1 56:1 60:2 62:2 64:1 69:1 79:2 88:2 97:1 105:1 116:1 122:1 126:1 138:1 151:1 156:2 157:1 166:1 178:1 199:1 223:1 274:2 300:2 334:1 339:1 344:1 366:1 375:1 395:1 509:1 587:1 641:1 742:1 951:1 987:1 1101:1 1102:1 1153:1 1278:1 1486:2 1538:1 1651:1 1996:1 
1 4:2 5:2 7:1 9:1 13:1 15:1 28:1 30:1 33:1 69:1 79:1 156:1 188:2 374:1 375:1 453:1 566:2 587:1 1291:1 1486:1 
1 1:3 2:2 3:1 5:1 6:2 7:1 10:2 11:1 40:2 57:2 58:1 64:2 82:2 151:1 152:1 197:2 232:1 258:1 366:1 421:1 425:1 441:1 732:1 987:1 1094:1 1101:2 1278:1 1402:1 1497:1 
1 1:2 2:2 4:1 5:1 8:3 10:2 13:1 18:2 21:2 30:3 33:1 39:2 51:1 64:2 69:3 73:1 76:1 79:3 156:1 178:1 238:3 267:1 279:1 375:1 427:1 597:1 616:1 881:2 1019:1 1101:2 1287:2 1486:1 
1 7:3 10:1 13:2 22:1 23:1 31:1 33:1 39:1 48:1 49:2 57:1 64:1 66:1 101:1 107:1 143:1 156:2 180:1 197:1 199:1 251:1 262:1 287:1 331:1 375:1 447:1 516:1 560:1 982:1 1101:1 1287:1 1464:1 1476:2 1486:2 1592:1 1731:2 1881:1 
1 1:2 2:2 6:1 7:1 8:1 10:1 11:2 13:1 14:2 16:2 17:2 18:1 32:2 55:1 56:2 61:1 64:1 90:1 110:1 156:1 157:2 162:1 169:1 238:1 278:1 421:2 449:1 572:1 881:1 906:1 932:1 1016:1 1101:1 1148:1 1170:1 1461:1 1486:1 1538:1 1645:1 
1 7:2 13:3 15:2 18:1 23:2 30:1 39:1 43:1 50:1 56:3 63:1 69:1 70:1 74:1 79:1 87:1 105:1 106:1 111:1 118:1 126:1 128:1 134:1 136:1 149:1 156:3 157:3 162:1 180:1 202:1 236:1 271:1 298:1 385:1 395:2 496:1 587:2 601:1 881:1 1006:1 1164:1 1193:1 1287:1 1321:1 1486:3 1759:1 1804:1 1846:1 1971:1 
1 7:3 10:1 12:1 13:1 15:4 23:1 29:1 31:2 33:1 48:1 54:1 56:2 64:1 65:1 68:2 69:1 77:1 78:3 111:1 117:1 134:2 139:1 156:1 157:2 160:1 180:1 182:1 199:2 240:3 246:1 252:1 260:1 292:1 366:1 375:1 433:1 487:1 513:1 586:1 587:4 737:1 767:1 880:1 961:1 1101:1 1119:1 1222:1 1278:1 1336:1 1486:1 1592:1 1804:1 1947:1 
1 7:1 8:1 9:3 10:3 23:2 30:3 41:1 43:1 46:1 48:1 64:3 68:1 69:1 71:1 79:3 87:1 138:1 152:1 234:1 238:1 241:1 328:1 386:1 424:1 530:1 619:1 659:1 680:1 706:1 707:1 988:1 1096:1 1101:3 1462:1 1592:1 1996:1 
0.1294301725366954 1:108 2:108 3:67 4:66 5:67 6:54 7:7 8:9 9:3 10:7 11:2 13:7 14:18 18:6 22:3 24:2 25:2 26:1 28:27 29:1 30:2 33:2 34:27 36:1 37:1 39:1 47:2 48:1 49:2 50:1 57:1 64:7 65:1 70:2 74:1 79:2 81:1 84:1 101:1 115:1 119:1 123:1 125:68 150:1 156:7 161:1 167:1 168:1 169:2 170:1 177:1 188:1 192:1 197:1 202:1 205:1 218:34 222:1 229:1 237:2 238:9 242:2 251:3 255:2 267:34 271:1 292:1 294:1 305:1 308:1 322:1 330:1 333:1 356:2 360:2 364:1 372:1 375:2 411:1 421:2 430:2 447:1 473:1 475:1 487:1 498:1 506:1 515:1 530:1 558:1 601:1 621:34 745:17 754:2 770:17 821:1 844:9 881:6 908:2 982:2 1018:2 1026:1 1060:2 1079:1 1101:7 1115:1 1164:2 1173:1 1180:1 1192:1 1200:1 1232:1 1236:1 1247:1 1261:1 1287:1 1409:1 1414:2 1486:7 1532:1 1586:1 1592:1 1623:1 1649:1 1731:2 1732:1 1759:1 1888:1 
1 7:1 10:2 13:1 22:3 23:2 29:1 31:1 42:1 44:1 51:1 64:2 67:5 69:1 98:1 100:1 156:1 178:1 199:1 230:1 246:1 251:3 283:1 292:1 437:1 454:1 608:1 655:1 742:1 871:1 933:1 978:5 985:1 1059:1 1101:2 1102:1 1219:1 1380:1 1486:1 1533:1 1703:1 1836:1 
1 1:6 2:6 7:5 8:2 13:5 15:1 21:6 22:2 31:1 46:1 92:2 107:1 119:1 140:1 143:1 156:5 180:2 183:1 198:1 199:1 229:1 234:1 235:1 238:2 248:1 251:2 287:1 305:1 364:1 386:1 395:1 459:1 537:1 587:1 641:1 712:1 733:1 849:2 912:1 982:1 1138:1 1175:1 1247:1 1328:1 1329:1 1464:1 1486:5 1649:1 1775:1 1811:1 1881:1 1975:1 
1 7:1 9:6 13:4 22:2 33:1 51:1 58:1 62:1 69:1 76:1 117:1 138:1 145:1 156:4 177:1 178:1 196:1 251:2 310:1 375:1 427:1 434:1 441:1 557:1 643:1 821:1 861:1 926:1 1035:1 1119:1 1438:1 1446:1 1486:4 1567:1 1996:1 
1 7:3 8:2 9:1 13:3 18:2 22:1 23:1 31:2 47:2 51:1 57:1 98:2 101:1 104:2 115:1 156:3 178:1 190:1 197:1 199:2 200:1 238:2 251:1 351:2 447:1 526:2 534:1 637:1 820:1 881:2 1065:1 1486:3 1589:1 1661:1 1911:1 
1 4:1 5:1 7:10 8:2 9:1 10:6 13:6 15:3 18:1 22:3 23:1 30:4 31:1 33:1 41:4 44:2 46:3 47:1 48:2 49:3 50:3 57:2 64:6 71:1 73:2 75:3 79:4 84:1 101:2 102:1 105:1 120:1 149:3 151:1 156:6 197:2 199:1 238:2 251:3 252:1 271:3 278:1 305:1 318:1 324:1 375:1 386:3 424:4 425:1 435:1 447:2 473:1 482:1 499:1 506:1 515:1 557:1 587:3 659:1 741:1 758:1 809:1 861:1 881:1 931:1 932:1 986:1 987:1 1079:1 1101:6 1102:2 1138:1 1147:1 1171:1 1192:2 1466:1 1486:6 1520:1 1566:1 1592:2 1731:3 1797:1 1843:3 1894:1 1971:3 
1 7:3 8:1 9:4 13:1 15:1 16:1 51:1 59:1 65:1 68:1 69:1 72:1 74:2 92:1 93:2 106:1 140:1 156:1 164:1 178:1 179:1 202:1 206:1 238:1 247:1 273:1 369:1 385:1 392:1 425:1 466:1 487:1 517:1 520:1 587:1 601:1 614:2 717:1 849:1 998:1 1274:1 1348:1 1486:1 1616:1 1709:1 1741:1 1759:2 1775:1 1846:1 
1 1:4 2:4 3:13 4:12 5:10 8:1 9:1 10:2 11:2 19:2 20:2 24:1 25:1 26:1 28:1 33:1 34:1 38:1 46:1 51:1 55:1 64:2 69:1 81:2 94:2 96:1 152:1 154:1 172:1 178:1 204:1 206:1 215:1 221:1 238:1 366:1 372:2 375:1 386:1 421:2 469:2 493:2 602:1 685:1 774:1 797:1 866:1 925:1 1101:2 1278:1 1538:1 
1 4:1 5:1 8:4 9:3 10:2 13:1 15:1 22:1 28:1 29:1 41:1 46:1 48:1 50:1 57:1 63:1 64:2 66:1 69:1 84:1 90:2 119:1 130:1 136:1 151:1 156:1 161:1 195:1 197:1 212:1 229:1 238:4 251:1 252:1 262:1 271:1 279:1 289:1 291:1 292:1 304:1 386:1 391:1 393:1 397:1 424:1 467:1 481:1 554:1 587:1 602:1 611:1 928:1 962:1 987:1 1079:1 1101:2 1456:1 1486:1 1592:1 1649:1 
1 7:2 10:3 15:1 23:1 30:1 39:1 64:3 72:1 79:1 110:1 188:1 399:1 543:1 578:1 587:1 668:1 680:1 822:1 1068:1 1101:3 1167:1 1170:1 1287:1 1316:1 1356:1 1709:1 
1 7:1 8:1 9:1 10:1 13:1 15:1 18:1 23:1 29:1 30:2 31:2 33:1 44:1 59:1 64:1 69:1 72:1 79:2 99:1 111:1 114:1 117:1 122:1 128:1 132:1 142:1 156:1 161:1 199:2 223:1 238:1 244:1 292:1 311:1 375:1 418:1 520:1 587:1 615:1 881:1 928:1 995:2 1101:1 1102:1 1119:1 1123:1 1469:1 1486:1 1616:1 1651:1 1709:1 1719:1 1804:1 
1 7:3 8:1 10:1 12:2 13:1 15:2 23:1 31:1 54:2 63:3 64:1 69:1 83:1 105:1 110:1 119:1 126:1 132:2 136:3 149:1 154:1 156:1 180:1 199:1 238:1 241:1 257:1 266:1 288:1 376:1 587:2 619:1 648:1 775:1 858:1 1101:1 1123:2 1133:1 1170:1 1486:1 1519:1 1971:1 
1 7:2 8:1 9:2 10:4 12:1 18:1 23:2 31:1 43:1 44:1 46:1 54:1 64:4 69:1 75:2 77:1 80:1 87:1 93:1 130:1 151:2 182:1 183:1 199:1 238:1 291:2 386:1 426:1 450:1 500:1 501:1 614:1 637:1 711:1 881:1 987:2 1081:1 1101:4 1102:1 1328:1 1456:1 1843:2 
1 7:1 13:2 31:2 43:2 56:2 66:1 67:1 69:1 71:1 72:1 74:1 87:2 129:1 132:1 138:1 142:1 154:1 156:2 157:2 199:2 202:1 237:1 305:1 318:1 333:1 383:1 432:1 437:1 479:1 491:1 582:1 601:1 615:1 659:1 676:1 711:1 782:2 978:1 1112:1 1123:1 1486:2 1590:1 1709:1 1759:1 1888:1 1959:1 1996:1 
1 7:1 8:3 9:1 10:1 13:2 15:1 22:1 23:1 33:1 39:2 41:2 60:1 64:1 67:1 69:2 77:1 130:1 156:2 182:1 190:1 238:3 251:1 268:1 300:1 375:1 424:2 587:1 643:1 738:1 978:1 1026:1 1101:1 1127:1 1287:2 1365:1 1456:1 1486:2 1589:1 
1 7:1 10:1 13:1 23:2 29:1 46:2 47:1 63:3 64:1 85:1 101:1 136:3 156:1 207:1 246:1 264:1 292:1 386:2 447:1 935:1 1101:1 1105:1 1486:1 1674:1 
1 7:2 9:1 10:1 13:2 15:1 22:1 29:1 30:1 31:1 55:1 58:1 62:1 63:1 64:1 77:1 79:1 111:1 136:1 156:2 182:1 199:1 251:1 253:1 292:1 339:1 559:1 587:1 606:1 866:1 924:1 1101:1 1468:1 1486:2 1538:1 1804:1 
1 7:2 8:1 9:1 10:1 12:1 13:1 15:1 23:1 30:1 39:2 44:2 47:1 54:1 63:3 64:1 69:1 78:1 79:1 85:1 100:1 111:1 136:3 140:1 145:1 151:1 152:1 156:1 173:1 193:1 229:1 238:1 240:1 250:1 252:1 263:1 264:1 348:1 412:1 416:3 422:1 501:1 551:1 587:1 651:1 805:1 871:1 887:1 987:1 1101:1 1102:2 1287:2 1486:1 1649:1 1775:1 1804:1 
1 7:1 9:1 10:1 13:1 15:2 18:1 22:1 23:1 31:2 41:1 46:1 50:1 55:1 56:2 64:1 69:1 70:1 72:1 85:1 105:1 106:1 118:1 128:1 142:1 156:1 157:2 163:1 173:1 199:2 201:1 203:1 214:1 248:2 251:1 264:1 271:1 296:1 298:1 386:1 424:1 587:2 615:1 881:1 887:1 1027:1 1101:1 1164:1 1317:1 1486:1 1538:1 1630:1 1709:1 1846:1 1975:2 1989:1 
1 7:2 13:1 15:1 23:1 33:1 39:3 41:1 42:1 49:1 50:1 55:1 56:1 65:1 71:2 135:1 156:1 157:1 271:1 286:1 359:1 375:1 398:1 424:1 475:1 487:1 574:1 587:1 659:2 741:1 742:1 771:1 982:1 1287:3 1302:1 1486:1 1536:1 1538:1 1615:1 1634:1 1725:1 1731:1 
1 9:3 10:1 13:3 23:1 29:1 31:1 42:1 47:2 56:1 62:1 63:2 64:1 69:1 71:1 72:1 98:1 107:1 128:1 130:2 136:2 156:3 157:1 199:1 202:1 227:1 228:1 290:1 292:1 501:1 582:1 585:1 601:1 659:1 718:1 742:1 772:1 1101:1 1428:1 1456:2 1486:3 1709:1 1894:1 
1 8:2 10:1 13:2 15:1 18:1 30:1 43:2 44:1 46:2 47:3 49:2 58:4 64:1 65:1 69:2 75:1 79:1 87:2 92:2 104:1 107:1 118:1 126:1 152:1 156:2 238:2 298:1 327:1 351:1 381:1 386:2 406:1 487:1 587:1 791:1 849:2 881:1 1046:1 1101:1 1102:1 1373:1 1486:2 1731:2 1843:1 
1 1:8 2:5 3:5 4:1 5:5 6:4 7:2 8:5 9:2 10:1 11:2 13:3 14:1 15:1 22:1 23:3 26:2 28:2 29:1 31:1 34:1 39:1 40:2 41:1 42:1 46:1 49:1 57:1 58:1 64:1 66:1 69:1 77:1 82:1 98:1 107:1 156:3 182:1 190:1 197:1 199:1 212:1 223:1 224:1 237:1 238:5 251:1 258:2 282:1 292:1 303:1 304:1 318:1 386:1 420:1 421:2 424:1 433:1 438:1 497:1 502:1 587:1 742:1 1004:1 1094:1 1101:1 1145:2 1287:1 1486:3 1497:1 1589:1 1731:1 1734:1 
1 4:1 5:1 7:2 8:1 13:1 14:1 15:1 18:1 22:1 23:1 29:1 59:1 60:1 62:1 69:1 71:1 72:1 88:1 105:2 112:1 149:1 156:1 168:1 228:1 238:1 249:1 251:1 274:1 292:1 300:1 309:1 520:1 587:1 645:1 659:1 668:1 793:1 881:1 1006:1 1411:1 1486:1 1546:1 1616:1 1709:1 1971:1 
1 7:5 8:2 15:1 22:1 31:2 41:1 47:1 49:1 55:1 71:1 84:2 95:1 101:1 112:2 199:2 238:2 251:1 278:1 290:2 339:1 409:1 424:1 447:1 587:1 632:2 659:1 943:1 1079:2 1290:2 1408:1 1538:1 1729:1 1731:1 
1 8:3 10:1 12:3 13:2 15:1 23:1 29:1 30:1 33:1 39:1 49:2 50:2 54:3 58:1 64:1 69:1 79:1 97:2 98:1 132:1 156:2 177:1 185:1 219:1 238:3 271:2 282:1 292:1 327:1 375:1 433:2 511:1 587:1 764:1 805:1 811:1 821:1 951:2 1101:1 1117:1 1123:1 1287:1 1319:1 1395:1 1486:2 1731:2 
1 7:1 8:1 10:3 13:1 15:1 41:2 46:3 64:3 68:2 69:1 100:1 156:1 222:1 225:1 238:1 386:3 424:2 527:2 587:1 714:1 868:1 871:1 1101:3 1139:1 1486:1 1821:1 
1 7:3 8:4 9:1 10:1 13:1 15:1 18:1 23:2 29:2 33:1 44:1 46:1 64:1 72:1 74:1 77:2 85:1 116:1 142:1 156:1 179:1 182:2 226:1 238:4 246:1 264:1 280:1 292:2 323:1 334:1 375:1 386:1 414:1 435:2 450:1 473:1 541:1 578:1 587:1 615:1 789:1 881:1 929:1 1101:1 1102:1 1484:1 1486:1 1709:1 1741:1 1759:1 
1 7:2 9:1 13:2 23:3 31:1 33:1 47:1 51:2 57:1 69:1 88:1 126:1 143:1 156:2 168:1 178:2 197:1 199:1 256:1 274:1 288:1 315:1 375:1 457:1 521:1 591:1 1426:1 1464:1 1465:1 1486:2 
1 8:3 10:1 18:2 31:1 44:1 50:1 55:1 58:1 64:1 66:1 69:1 73:3 76:1 85:1 199:1 203:1 238:3 264:1 271:1 412:1 427:1 517:1 761:1 881:2 1101:1 1102:1 1192:1 1317:1 1538:1 1637:1 1679:1 1680:1 1965:2 
1 7:3 9:1 10:2 12:1 13:2 18:1 23:1 30:1 44:1 46:1 47:1 54:1 57:1 64:2 65:1 66:1 69:1 79:1 105:1 123:1 132:2 145:1 151:1 156:2 161:1 188:1 197:1 205:1 227:1 260:1 368:1 371:1 386:1 392:1 487:1 543:1 600:1 881:1 987:1 990:1 1101:2 1102:1 1123:2 1336:1 1486:2 1535:1 
1 4:1 5:1 7:1 15:2 23:1 31:1 44:1 59:1 69:2 152:1 159:1 165:1 193:1 199:1 235:1 253:1 288:1 290:1 307:1 462:1 520:1 587:2 617:1 1102:1 1241:1 1616:1 1638:1 
1 7:4 10:1 15:1 18:1 23:1 29:1 31:1 42:2 43:1 47:3 58:1 64:1 66:3 69:1 87:1 107:2 111:2 134:1 146:1 160:1 186:1 196:1 199:1 241:1 292:1 310:1 553:1 587:1 619:1 742:2 859:1 881:1 1101:1 1385:1 1438:1 1467:1 1675:1 1804:2 1882:1 
1 7:1 9:1 10:4 13:3 15:1 22:1 29:1 33:1 49:2 58:1 64:4 69:1 93:2 144:1 146:1 147:1 155:1 156:3 170:1 184:1 251:1 292:1 318:1 355:1 375:1 431:1 587:1 614:2 935:1 1101:4 1211:1 1272:1 1385:1 1477:2 1486:3 1502:1 1548:2 1623:1 1658:1 1731:2 
1 7:1 9:1 10:4 13:3 15:1 22:1 29:1 33:1 49:2 58:1 64:4 69:1 93:2 144:1 146:1 147:1 155:1 156:3 170:1 184:1 251:1 292:1 318:1 355:1 375:1 431:1 587:1 614:2 935:1 1101:4 1211:1 1272:1 1385:1 1477:2 1486:3 1502:1 1548:2 1623:1 1658:1 1731:2 
1 7:3 8:5 9:1 15:1 18:1 29:1 30:1 42:2 47:2 59:1 61:1 67:1 69:1 72:1 76:1 77:2 79:1 99:1 111:1 114:1 130:1 143:1 182:2 237:1 238:5 292:1 335:1 348:1 360:2 364:1 389:1 417:1 427:1 456:1 520:1 526:1 587:1 609:2 679:1 742:2 881:1 978:1 1100:1 1127:1 1414:2 1443:1 1456:1 1464:1 1616:1 1709:1 1719:1 1804:1 1839:1 
1 7:1 8:2 9:1 10:3 15:1 18:2 30:1 39:1 55:1 62:1 64:3 69:1 79:1 114:1 116:1 132:1 187:1 222:1 238:2 319:1 334:1 412:1 414:1 435:1 442:1 499:1 514:1 576:1 579:1 587:1 597:1 656:1 750:1 781:1 803:1 881:2 1101:3 1123:1 1287:1 1538:1 1650:1 1758:1 1790:2 
1 7:2 10:4 13:1 15:3 18:1 22:1 31:1 46:1 62:1 64:4 69:1 88:1 132:1 134:1 156:1 199:1 216:1 226:1 251:1 259:1 274:1 369:1 386:1 573:1 577:1 587:3 864:1 881:1 919:1 1101:4 1123:1 1188:1 1262:1 1345:1 1457:1 1486:1 
1 7:1 8:2 9:7 10:1 13:2 14:1 15:1 18:1 22:1 23:3 45:2 64:1 69:1 114:1 117:1 126:1 143:3 151:1 156:2 186:1 191:1 231:1 238:2 251:1 288:1 333:1 343:1 358:1 444:1 541:1 587:1 771:1 881:1 987:1 1101:1 1119:1 1464:3 1486:2 1798:1 1888:1 
1 4:1 5:1 7:3 8:2 10:2 13:3 18:2 22:3 23:2 29:1 39:2 41:1 55:1 60:2 64:2 69:1 76:1 92:1 130:1 154:1 156:3 220:1 238:2 251:3 292:1 300:2 321:1 339:1 424:1 427:1 608:1 702:1 849:1 881:2 983:1 1016:1 1091:1 1101:2 1250:1 1287:2 1361:1 1430:1 1456:1 1486:3 1538:1 1781:1 1795:1 
1 7:3 8:2 9:2 10:2 13:1 18:2 23:2 30:2 31:1 41:1 57:1 59:1 60:1 64:2 71:1 79:2 86:1 156:1 179:1 197:1 199:1 238:2 296:1 300:1 394:1 424:1 500:1 504:1 520:1 644:1 659:1 675:1 838:1 857:1 881:2 892:1 922:1 1057:1 1101:2 1380:1 1389:1 1486:1 1616:1 1741:1 
1 7:11 8:3 9:3 10:2 12:6 13:7 15:7 22:2 23:4 31:2 39:5 41:1 44:2 46:1 47:1 49:4 50:1 51:1 54:6 56:2 61:2 64:2 67:3 69:3 77:12 78:1 83:1 98:2 99:2 116:2 130:1 134:1 140:2 144:1 152:1 154:1 156:7 157:2 177:1 178:1 180:2 182:12 183:1 184:1 194:1 199:2 225:1 229:1 230:1 234:1 238:3 240:1 242:1 251:2 262:1 271:1 275:1 279:1 284:2 288:1 308:1 333:1 334:2 350:1 368:1 386:1 404:1 422:1 424:1 429:1 436:1 475:1 529:1 572:1 582:1 587:7 644:1 712:1 747:1 773:1 800:1 814:1 821:1 868:1 898:1 912:1 978:3 990:1 993:1 1016:1 1073:1 1101:2 1102:2 1117:1 1133:1 1175:1 1179:1 1217:1 1238:1 1247:1 1287:5 1328:1 1365:1 1395:1 1440:2 1456:1 1466:2 1470:3 1486:7 1578:1 1649:1 1703:1 1719:2 1731:4 1775:2 1822:1 1888:1 1918:1 
1 8:3 12:5 18:2 29:2 31:1 42:2 46:1 47:2 54:5 67:1 69:1 84:1 118:1 143:1 177:1 185:1 190:1 199:1 228:1 237:1 238:3 265:1 270:1 292:2 296:1 298:1 386:1 541:1 742:2 821:1 822:1 840:1 842:2 881:2 978:1 1079:1 1184:1 1464:1 1589:1 1872:1 
0.1466541174533373 1:82 2:81 3:87 4:96 5:46 6:56 7:1 8:45 9:31 11:11 13:1 17:1 18:4 19:8 20:8 21:16 22:1 24:8 25:8 26:22 28:17 30:1 35:2 36:6 37:5 38:3 40:3 41:1 42:1 45:2 46:1 79:1 80:2 84:1 86:1 118:1 133:1 141:1 156:1 165:1 172:16 189:1 204:16 215:16 221:16 233:2 238:45 251:1 298:1 386:1 395:1 421:11 424:1 433:1 574:1 692:1 711:1 742:1 815:1 828:1 833:1 881:4 882:1 922:1 1021:1 1079:1 1093:34 1096:1 1200:1 1282:1 1286:2 1294:1 1416:1 1445:1 1459:2 1486:1 1487:1 1563:2 1655:1 1781:2 1955:1 
1 7:1 9:2 13:1 16:1 22:2 23:1 31:2 44:1 49:1 51:1 69:1 88:2 99:1 107:1 156:1 178:1 190:2 196:1 199:2 242:1 245:1 246:1 251:2 274:2 285:1 364:1 404:1 478:1 1022:1 1068:1 1102:1 1438:1 1486:1 1589:2 1719:1 1731:1 
1 1:10 2:9 6:2 7:3 8:1 13:1 15:1 21:5 28:3 42:1 46:1 50:1 61:1 73:1 102:1 149:1 156:1 161:1 190:1 233:2 238:1 271:1 324:1 373:1 386:1 509:2 587:1 596:1 742:1 1279:1 1459:2 1486:1 1566:1 1589:1 1794:1 1971:1 
1 9:4 10:1 13:1 15:1 23:1 31:2 33:1 41:1 45:1 50:3 55:1 62:1 63:1 64:1 68:1 69:3 84:1 90:2 97:1 118:1 136:1 138:1 142:1 156:1 187:1 199:2 235:1 237:1 271:3 284:1 298:1 318:1 342:1 375:1 424:1 492:1 545:1 587:1 615:1 920:1 951:1 995:1 1079:1 1101:1 1309:1 1440:1 1486:1 1538:1 1996:1 
1 7:6 8:1 12:1 15:3 43:2 44:4 51:1 54:1 56:1 66:1 69:2 73:1 87:2 107:1 126:2 134:1 157:1 169:1 178:1 216:1 238:1 253:1 395:1 418:1 462:1 516:1 587:3 627:1 711:2 777:1 779:1 791:1 805:1 808:1 934:1 1102:4 1191:1 
1 4:1 5:1 6:1 7:2 8:2 9:2 10:1 13:2 15:1 18:2 23:1 30:1 31:1 43:1 64:1 68:1 69:1 72:1 76:1 79:1 87:1 88:1 126:1 156:2 199:1 238:2 274:1 280:1 327:1 333:1 427:1 541:1 582:1 587:1 670:1 864:1 881:2 1101:1 1318:1 1486:2 1709:1 1888:1 
1 4:1 7:2 8:2 9:1 18:1 22:1 33:1 39:1 41:1 46:1 57:1 73:1 100:1 148:1 197:1 238:2 251:1 323:1 367:1 375:1 386:1 424:1 527:1 871:1 881:1 931:1 1019:1 1287:1 1551:1 1573:1 1831:1 
1 7:2 8:4 9:1 12:3 13:1 15:1 22:2 23:1 29:1 31:1 33:1 44:1 47:1 54:3 55:1 66:1 69:1 83:1 105:1 107:1 114:1 135:1 149:1 156:1 177:1 185:2 193:1 199:1 225:1 229:1 238:4 251:2 290:1 292:1 348:1 375:1 395:1 587:1 774:1 821:1 868:1 1102:1 1133:1 1486:1 1538:1 1649:1 1725:1 1971:1 
1 7:1 8:1 10:1 12:4 15:2 23:1 30:1 31:1 33:1 39:3 41:1 44:2 49:1 54:4 56:1 60:2 61:1 64:1 69:2 79:1 105:1 132:1 135:2 144:1 148:1 154:1 157:1 183:1 184:1 189:1 199:1 238:1 249:1 260:1 287:1 300:2 375:1 424:1 435:1 453:1 529:1 587:2 711:1 805:1 863:1 1068:1 1101:1 1102:2 1123:1 1287:3 1328:1 1336:1 1573:1 1639:1 1725:2 1731:1 
1 1:53 2:53 3:5 4:3 5:5 6:25 8:5 10:3 11:26 13:3 15:2 18:4 21:3 22:1 24:1 26:2 28:1 29:1 34:1 35:2 36:2 37:2 42:1 43:1 47:1 49:1 50:1 62:1 64:3 66:1 68:2 73:3 80:18 82:1 87:1 91:1 98:1 99:1 111:2 112:1 120:1 135:1 156:3 181:2 192:1 238:5 251:1 261:1 271:1 275:1 292:1 421:26 494:1 514:1 527:1 587:2 593:1 613:1 625:1 639:1 646:1 694:1 741:1 742:1 768:1 801:1 869:1 874:1 881:4 920:1 1082:1 1101:3 1115:1 1116:1 1286:2 1486:3 1520:1 1719:1 1725:1 1731:1 1804:2 1809:1 1812:1 
1 7:4 9:3 10:1 13:2 15:3 23:3 42:2 44:1 64:1 69:1 77:1 83:1 133:1 140:1 156:2 168:1 182:1 234:1 284:1 305:2 385:1 480:1 507:1 587:3 606:1 635:1 742:2 792:1 1101:1 1102:1 1133:1 1239:1 1440:1 1486:2 1775:1 
1 8:1 9:3 10:2 12:1 13:2 15:2 23:1 30:1 31:1 33:1 41:1 43:2 47:2 54:1 62:1 64:2 66:1 67:1 68:1 69:1 72:1 79:1 87:2 93:1 96:1 99:1 118:1 156:2 163:1 199:1 229:1 237:1 238:1 270:1 298:1 299:1 375:1 424:1 425:1 458:1 587:2 614:1 741:1 926:1 978:1 1101:2 1486:2 1649:1 1702:1 1709:1 1719:1 
1 7:2 8:1 12:2 13:1 15:3 18:1 23:1 42:1 43:3 46:1 54:2 62:1 65:1 66:1 67:1 69:3 87:3 116:1 128:1 134:2 156:1 175:1 177:1 185:1 189:1 191:1 223:1 238:1 285:1 288:1 327:1 334:1 358:1 386:1 432:1 446:1 487:1 501:1 513:1 587:3 625:1 742:1 821:1 862:1 881:1 978:1 1222:1 1486:1 1797:1 
1 7:2 8:1 9:1 10:2 12:1 13:3 15:2 22:1 31:1 33:2 41:1 46:1 47:1 50:2 54:1 64:2 66:1 69:1 75:1 114:2 130:1 156:3 199:1 230:1 238:1 251:1 266:1 271:2 327:1 375:2 386:1 403:1 424:1 433:1 440:1 503:1 587:2 1101:2 1117:2 1380:1 1395:2 1456:1 1486:3 1546:1 1584:1 1605:1 1703:1 1791:1 1843:1 
1 7:3 9:1 10:1 13:1 15:3 23:1 43:1 48:1 55:1 57:1 63:1 64:1 68:1 69:1 87:1 96:1 111:1 132:1 136:1 152:1 156:1 160:1 197:1 216:1 225:1 336:1 366:1 415:1 467:1 557:2 584:1 587:3 794:1 861:2 868:1 1101:1 1123:1 1278:1 1354:1 1486:1 1538:1 1592:1 1615:1 1804:1 
1 7:1 9:1 13:1 18:1 23:1 31:1 33:1 41:1 46:1 47:2 50:2 62:1 69:1 76:1 90:1 92:1 126:1 156:1 186:1 190:1 193:1 199:1 212:1 241:1 263:1 266:1 271:2 308:1 336:1 375:1 386:1 424:1 427:1 619:1 849:1 876:1 881:1 919:1 1486:1 1589:1 
1 7:3 8:1 12:3 13:2 15:1 22:1 23:3 30:2 31:1 48:1 51:1 54:3 57:1 58:1 62:1 65:2 69:1 70:1 79:2 83:1 90:1 114:2 133:1 138:1 143:1 148:1 156:2 160:1 178:1 197:1 199:1 230:1 238:1 251:1 353:1 487:2 506:1 561:1 587:1 1133:1 1164:1 1464:1 1486:2 1573:1 1592:1 1703:1 1996:1 
1 7:1 10:2 12:1 13:1 18:1 44:1 46:1 51:1 54:1 55:1 56:1 64:2 68:1 69:3 84:1 92:1 110:1 156:1 157:1 175:1 177:1 178:1 217:1 263:1 281:1 355:1 386:1 420:1 434:1 449:1 566:1 707:1 821:1 849:1 879:1 880:1 881:1 1079:1 1101:2 1102:1 1170:1 1226:1 1462:1 1486:1 1538:1 
1 7:1 9:1 10:1 13:2 15:1 22:1 33:1 41:1 47:1 64:1 65:1 68:1 69:1 71:1 78:1 92:3 115:1 126:1 152:1 156:2 164:1 225:1 240:1 251:1 272:1 273:1 290:1 366:1 375:1 403:1 408:1 424:1 487:1 491:1 504:1 567:1 587:1 642:1 659:1 849:3 868:1 1101:1 1278:1 1486:2 1791:1 
1 7:1 13:1 18:1 22:1 46:1 47:1 51:1 57:1 92:1 156:1 178:1 179:1 197:1 242:1 251:1 386:1 849:1 881:1 1486:1 1520:1 1741:1 1831:1 
1 7:1 9:1 10:3 13:2 15:1 16:1 18:2 22:1 33:1 41:1 42:1 64:3 67:3 69:1 129:1 138:1 156:2 170:1 224:1 225:1 245:1 251:1 291:1 368:1 375:1 424:1 587:1 653:1 742:1 868:1 881:2 978:3 990:1 1101:3 1247:1 1361:1 1407:1 1430:1 1486:2 1623:1 1959:1 1996:1 
1 7:3 8:1 9:2 10:2 13:1 23:1 29:1 31:1 33:1 41:1 42:1 44:1 64:2 66:1 133:1 156:1 185:1 191:1 199:1 216:1 237:1 238:1 284:1 289:1 292:1 325:1 330:1 358:1 375:1 404:1 424:1 742:1 1101:2 1102:1 1440:1 1486:1 
1 10:2 12:2 13:1 18:1 30:1 31:1 39:1 43:2 44:2 46:1 50:1 51:2 54:2 64:2 65:1 75:1 79:1 87:2 93:1 98:1 118:1 149:1 155:2 156:1 178:2 199:1 207:1 230:1 269:1 271:1 298:1 386:1 431:2 437:1 487:1 529:1 606:1 614:1 881:1 938:1 1101:2 1102:2 1287:1 1434:1 1486:1 1703:1 1745:1 1843:1 1971:1 
1 7:3 9:1 13:1 15:1 23:4 29:1 30:1 43:1 58:2 59:1 69:1 71:2 79:1 87:1 92:1 98:1 112:1 130:1 134:2 143:1 146:1 150:1 156:1 168:1 185:1 261:2 288:1 292:1 520:1 537:1 587:1 642:1 659:2 708:1 849:1 923:1 1219:1 1385:1 1456:1 1464:1 1486:1 1616:1 1831:1 
1 7:3 8:1 9:3 13:1 18:1 30:3 33:1 46:1 59:1 60:1 69:1 79:3 118:1 122:1 135:1 138:1 148:1 156:1 216:1 219:1 238:1 244:1 288:1 298:1 300:1 328:1 363:1 366:1 375:1 386:1 520:1 616:1 881:1 1278:1 1387:1 1486:1 1547:1 1573:1 1616:1 1651:1 1725:1 1996:1 
1 7:2 8:2 9:1 10:2 13:2 15:2 39:1 41:1 49:4 55:1 63:1 64:2 69:1 91:1 102:1 111:1 117:1 118:1 136:1 143:2 155:1 156:2 161:1 162:1 179:1 185:2 187:1 238:2 272:1 298:1 403:1 424:1 431:1 470:1 523:1 587:2 639:1 1101:2 1119:1 1287:1 1464:2 1486:2 1538:1 1566:1 1731:4 1741:1 1791:1 1804:1 
1 1:4 2:3 3:1 5:1 6:2 7:1 8:2 9:3 10:3 11:2 13:1 15:2 18:1 26:1 42:1 62:1 64:3 92:1 107:1 110:1 119:1 145:1 156:1 238:2 421:2 587:2 742:1 849:1 881:1 1101:3 1170:1 1417:1 1486:1 1644:1 1664:1 1798:1 
1 7:2 8:2 9:2 13:2 22:2 29:1 30:1 39:1 56:2 69:1 76:1 79:1 99:1 119:1 156:2 157:2 238:2 251:2 260:2 292:1 427:1 521:1 724:1 803:1 1069:1 1287:1 1336:2 1486:2 1719:1 1906:1 
1 4:1 5:2 7:2 9:1 10:1 12:2 15:3 18:1 23:1 30:1 33:1 44:1 49:1 54:2 56:1 57:1 64:1 69:1 79:1 97:1 134:1 135:1 157:1 189:1 197:1 198:1 212:1 239:1 250:1 315:1 341:1 375:1 455:1 579:1 587:3 881:1 951:1 1101:1 1102:1 1106:1 1168:1 1725:1 1731:1 
1 7:1 8:1 10:1 13:1 15:1 33:1 46:1 49:1 58:1 64:1 72:1 152:1 156:1 170:1 238:1 307:1 375:1 386:1 587:1 1101:1 1135:1 1167:1 1291:1 1486:1 1623:1 1709:1 1731:1 
1 7:2 8:2 9:2 10:2 13:1 18:2 22:2 62:1 64:2 72:1 82:1 83:1 133:1 145:1 156:1 238:2 251:2 327:1 328:1 593:1 710:1 881:2 1101:2 1133:1 1168:1 1486:1 1709:1 1907:1 
1 7:3 10:5 13:2 16:1 22:1 29:1 31:1 46:2 64:5 69:1 146:1 152:1 156:2 162:2 199:1 245:1 251:1 292:1 328:1 386:2 394:1 573:1 713:1 732:1 857:1 1014:1 1061:1 1101:5 1171:1 1188:1 1262:1 1385:1 1486:2 1583:1 
1 1:8 2:5 3:5 4:1 5:5 6:4 7:1 8:6 9:2 11:2 13:3 14:1 15:1 18:1 26:2 28:2 29:1 31:1 34:1 40:2 42:1 44:1 46:1 56:1 57:1 59:1 71:1 74:1 78:1 84:1 102:1 116:1 156:3 157:1 173:1 197:1 199:1 224:1 237:1 238:6 240:1 258:2 290:1 292:1 303:1 304:1 313:1 334:1 386:1 420:1 421:2 438:1 497:1 502:1 520:1 587:1 659:1 742:1 810:1 850:1 881:1 887:1 1079:1 1102:1 1361:1 1486:3 1516:1 1566:1 1616:1 1656:1 1759:1 
1 7:1 13:1 15:2 18:1 30:1 31:2 41:2 50:1 51:1 56:1 69:1 75:1 79:1 97:1 106:1 128:1 154:1 156:1 157:1 164:1 165:1 178:1 199:2 201:1 244:1 260:1 271:1 273:1 289:1 412:1 424:2 434:1 554:1 587:2 806:1 881:1 951:1 1336:1 1486:1 1675:1 1717:1 1843:1 1846:1 1989:1 
1 7:2 8:1 10:1 13:1 15:3 23:2 30:1 31:1 41:1 43:1 47:1 56:1 64:1 69:1 70:1 79:1 87:1 96:1 97:1 106:1 145:1 156:1 157:1 177:1 183:1 199:1 238:1 247:1 288:1 326:1 424:1 587:3 821:1 951:1 1101:1 1164:1 1299:1 1328:1 1486:1 1846:1 
1 7:7 8:4 9:2 13:1 33:2 42:1 66:1 73:1 93:1 99:1 119:1 143:2 144:1 156:1 184:1 216:1 238:4 333:1 361:1 375:2 614:1 742:1 890:1 908:1 1030:1 1464:2 1486:1 1719:1 1888:1 
1 8:1 9:4 10:1 15:4 23:1 33:1 42:1 43:2 56:2 64:1 66:1 68:2 69:1 74:1 87:2 157:2 206:1 238:1 290:1 350:2 375:1 422:1 459:1 583:1 587:4 630:1 675:1 739:1 742:1 764:1 1081:1 1101:1 1231:1 1759:1 1811:1 
1 7:4 8:1 9:3 10:1 13:2 15:1 18:1 23:1 42:1 46:1 62:2 64:1 66:2 68:1 75:1 85:1 99:1 118:1 143:1 146:1 156:2 162:1 206:1 220:1 237:1 238:1 264:1 270:1 284:1 298:1 340:1 363:1 386:1 491:1 587:1 679:1 695:1 708:1 742:1 832:1 881:1 1101:1 1385:1 1440:1 1464:1 1486:2 1542:1 1674:1 1719:1 1843:1 
1 7:1 8:1 9:1 10:1 13:2 15:1 18:1 31:2 33:1 41:1 44:1 48:1 51:1 56:1 57:1 59:1 63:1 64:1 69:1 83:1 99:1 105:2 135:1 136:1 155:1 156:2 157:1 178:1 197:1 199:2 232:1 238:1 375:1 412:1 424:1 431:1 514:1 520:1 587:1 664:1 679:1 711:1 869:1 881:1 950:1 1101:1 1102:1 1133:1 1466:1 1486:2 1592:1 1616:1 1719:1 1725:1 
1 7:1 8:2 10:1 13:1 15:1 18:1 23:1 31:2 46:1 49:1 55:1 61:1 64:1 69:1 76:1 82:1 98:1 105:1 107:1 110:1 143:2 156:1 190:1 198:1 199:2 206:1 223:1 232:1 238:2 247:1 315:1 362:1 386:1 427:1 435:1 439:1 449:1 585:1 587:1 881:1 1046:1 1101:1 1170:1 1464:2 1486:1 1538:1 1589:1 1731:1 
1 7:2 8:2 9:1 10:1 13:1 15:2 18:1 23:1 29:1 31:1 33:1 46:1 47:1 48:1 49:1 55:1 64:1 69:1 92:1 96:1 97:1 112:1 122:1 140:1 156:1 169:1 185:1 186:1 187:1 199:1 237:1 238:2 292:1 354:1 375:1 386:1 426:1 435:1 450:1 491:1 583:1 587:2 637:1 650:1 838:1 849:1 881:1 951:1 1101:1 1389:1 1486:1 1538:1 1592:1 1633:2 1651:1 1731:1 1775:1 
1 7:1 9:1 10:1 13:2 15:3 18:1 31:1 41:1 44:1 57:1 62:1 64:1 66:1 69:1 93:1 151:1 156:2 196:1 197:1 199:1 212:2 220:1 410:1 424:1 482:1 500:1 501:1 573:1 587:3 614:1 881:1 911:1 987:1 1101:1 1102:1 1188:1 1262:1 1312:1 1438:1 1486:2 
1 7:3 8:1 13:1 15:4 22:1 23:2 30:1 41:1 56:1 57:1 67:1 69:1 79:1 92:1 96:1 126:1 133:2 156:1 157:1 162:1 197:1 238:1 241:1 249:1 251:1 331:1 347:1 424:1 429:1 467:1 587:4 619:1 680:1 758:1 849:1 978:1 1003:1 1234:1 1486:1 1692:1 
1 1:6 2:5 3:11 4:11 5:9 6:2 7:6 8:1 10:1 12:2 15:1 18:2 19:2 20:2 22:1 24:1 25:1 28:1 31:1 34:1 35:2 38:2 39:2 40:2 44:1 54:2 63:1 64:1 70:1 76:1 81:2 89:1 94:2 99:1 119:1 129:2 136:1 140:2 199:1 238:1 251:1 355:1 357:1 372:2 395:1 427:1 450:1 469:2 548:1 587:1 602:1 663:1 797:1 881:2 1101:1 1102:1 1164:1 1166:1 1274:1 1286:2 1287:2 1719:1 1749:1 1775:2 1959:2 
1 1:10 2:9 3:1 5:1 6:5 7:4 8:5 9:3 10:4 11:8 13:2 15:2 16:1 18:1 22:2 26:1 33:4 46:1 47:2 64:4 70:1 72:3 73:6 82:1 89:1 100:2 110:2 147:2 156:2 188:1 238:5 251:2 375:4 386:1 421:8 432:1 587:2 871:2 881:1 941:1 1101:4 1135:1 1164:1 1170:2 1486:2 1520:1 1543:1 1709:3 1941:1 
0.1093109178021413 1:32 2:32 3:35 4:29 5:26 6:23 7:4 8:26 9:23 10:28 11:16 12:28 13:26 14:43 15:37 16:43 17:43 18:11 19:8 20:8 21:1 22:14 23:10 24:8 25:8 26:5 28:2 29:9 30:14 31:13 32:4 33:8 34:1 36:5 37:5 38:3 39:5 40:2 41:2 42:10 43:5 44:9 45:1 46:9 47:1 48:1 49:9 50:7 51:6 54:28 55:3 56:2 57:4 59:2 60:4 61:11 62:3 64:28 65:7 66:5 68:5 70:1 71:2 72:3 74:1 75:3 76:3 77:4 79:14 83:1 84:4 87:5 90:2 93:6 96:3 97:4 98:8 99:4 101:4 104:3 106:1 107:1 108:35 110:1 112:1 116:1 118:3 119:6 121:2 126:1 128:1 129:5 130:1 131:2 132:2 133:2 134:2 139:2 140:2 141:1 142:4 146:5 148:1 150:1 151:1 152:1 154:5 155:1 156:26 157:2 159:1 160:5 163:3 164:1 166:1 170:3 173:1 177:3 178:6 179:1 182:4 185:1 186:2 191:1 192:1 193:1 197:4 199:13 200:2 203:2 206:1 209:1 214:4 219:4 223:1 224:2 226:1 228:2 229:1 230:4 232:1 234:1 235:1 238:26 239:1 243:2 244:2 249:1 250:1 251:14 252:3 255:1 265:2 266:1 268:4 269:1 271:7 272:1 273:1 276:1 281:1 286:2 289:2 291:1 292:9 298:3 300:4 306:1 309:1 310:2 315:1 318:1 321:1 323:2 327:1 334:1 340:1 342:1 346:1 351:3 358:1 359:1 368:1 375:8 376:1 381:1 386:9 412:1 421:16 424:2 425:1 427:3 431:1 433:1 434:1 435:3 447:4 452:1 453:1 457:1 473:1 474:1 478:1 487:7 491:1 493:2 498:1 507:1 509:1 517:1 520:2 528:1 545:1 559:1 563:1 570:1 572:1 586:1 587:37 614:6 615:4 634:2 645:1 659:2 662:2 667:1 669:1 682:2 683:1 685:1 700:1 708:3 739:1 742:10 763:1 767:1 810:1 821:3 823:1 855:1 856:1 862:1 880:2 881:11 887:1 896:2 899:1 917:1 924:1 931:1 935:1 936:1 951:4 962:1 975:1 987:1 990:1 1005:1 1055:1 1060:1 1079:4 1093:1 1101:28 1102:9 1115:1 1123:2 1127:1 1133:1 1136:1 1143:1 1145:1 1164:1 1170:1 1176:1 1181:1 1197:1 1215:1 1221:1 1231:1 1249:1 1269:1 1280:2 1287:5 1288:1 1291:1 1292:1 1317:2 1325:9 1334:1 1340:1 1385:5 1400:1 1411:1 1415:1 1417:1 1456:1 1463:1 1486:26 1496:1 1523:1 1538:3 1573:1 1592:1 1595:2 1616:2 1623:3 1638:1 1649:1 1675:2 1699:2 1703:4 1709:3 1719:4 1731:9 1741:1 1759:1 1775:2 1781:2 1784:2 1800:1 1822:1 1834:1 1838:1 1843:3 1846:1 1855:1 1897:1 1902:1 1904:2 1911:2 1949:1 1953:2 1956:1 1959:5 1992:2 
1 7:3 8:2 13:1 14:1 22:1 31:1 41:1 46:1 47:1 62:1 69:3 114:1 130:1 154:1 156:1 162:1 168:1 177:1 199:1 200:1 202:1 206:1 238:2 251:1 288:1 348:1 364:1 386:1 406:1 424:1 501:1 601:1 637:1 650:1 685:1 734:1 739:1 821:1 823:1 1127:1 1456:1 1486:1 1911:1 
1 6:1 7:4 8:2 9:1 10:4 12:3 13:7 15:1 22:3 24:1 30:1 31:1 39:2 41:3 44:1 47:1 49:2 50:1 54:3 63:3 64:4 71:1 79:1 84:1 114:1 116:1 119:3 120:1 136:3 144:1 156:7 168:1 184:1 192:1 199:1 207:1 209:1 222:1 226:2 238:2 251:3 262:1 271:1 334:1 359:1 374:1 401:1 424:3 532:1 587:1 599:1 652:1 659:1 712:1 804:1 829:1 862:1 928:1 952:1 989:1 995:1 1079:1 1101:4 1102:1 1115:1 1175:1 1267:2 1287:2 1486:7 1520:1 1665:2 1700:1 1729:2 1731:2 1941:1 
1 7:2 8:1 9:1 10:6 12:2 13:1 15:2 23:3 29:1 41:1 42:1 44:1 51:1 54:2 56:1 57:1 63:3 64:6 69:1 72:2 76:1 84:1 91:1 111:1 136:3 156:1 157:1 175:1 178:1 193:1 196:1 197:1 238:1 255:1 292:1 314:1 364:1 399:1 424:1 427:1 436:1 452:1 587:2 639:1 656:1 742:1 1022:1 1060:1 1079:1 1101:6 1102:1 1316:1 1374:1 1438:1 1486:1 1619:1 1709:2 1721:1 1804:1 
1 1:4 2:4 7:7 8:1 9:1 10:4 13:2 15:2 18:2 21:4 22:1 29:2 30:3 33:3 39:1 41:1 43:3 49:1 56:1 57:1 59:1 61:1 62:1 64:4 65:1 71:1 73:1 74:2 79:3 87:3 96:1 101:1 104:1 105:1 106:1 120:1 122:1 129:1 144:2 148:1 156:2 157:1 160:1 184:2 197:1 198:1 236:1 238:1 251:1 262:1 292:2 301:1 302:1 323:1 351:1 375:3 424:1 447:1 487:1 520:1 587:2 659:1 881:2 930:1 947:1 979:1 1019:2 1026:1 1048:1 1101:4 1250:2 1287:1 1321:1 1335:1 1458:1 1486:2 1573:1 1615:1 1616:1 1651:1 1731:1 1759:2 1846:1 1906:1 1922:1 1959:1 
1 7:1 8:3 9:1 10:2 13:1 15:1 18:1 23:1 41:1 46:1 48:1 63:3 64:2 69:1 85:1 99:1 126:1 130:1 136:3 156:1 168:1 175:2 238:3 264:1 296:1 338:1 369:1 386:1 424:1 450:2 504:1 560:1 587:1 645:1 650:1 822:1 834:1 881:1 1101:2 1456:1 1486:1 1592:1 1719:1 1726:1 
1 1:8 2:5 3:5 4:1 5:5 6:4 8:7 9:5 10:1 11:2 13:2 14:1 15:1 26:2 28:2 34:1 40:2 42:3 46:2 64:1 69:1 76:2 156:2 196:1 224:1 237:1 238:7 258:2 303:1 304:1 386:2 420:1 421:2 427:2 438:1 446:1 482:1 497:1 502:1 587:1 742:3 892:1 919:1 1101:1 1438:1 1486:2 1583:1 1715:1 1828:1 1984:1 
1 1:8 2:5 3:5 4:1 5:5 6:4 7:2 8:6 9:1 11:2 13:2 14:1 15:1 16:1 17:1 18:2 22:2 26:2 28:2 29:2 34:1 40:2 41:1 46:1 47:1 50:1 58:1 69:1 71:1 85:1 102:1 156:2 179:1 224:1 237:1 238:6 251:2 258:2 264:1 271:1 292:2 303:1 304:1 317:4 386:1 416:1 420:1 421:2 424:1 425:1 434:1 438:1 497:1 502:1 587:1 659:1 881:2 1023:1 1422:1 1465:1 1486:2 1566:1 1718:1 1741:1 
0.3292447358496054 1:8 2:7 3:1 5:1 6:4 7:6 8:4 9:4 10:10 11:6 13:1 15:1 18:3 22:1 26:1 29:1 30:2 39:4 41:2 43:1 48:1 50:1 51:1 60:3 64:10 79:2 87:1 91:1 99:2 110:1 119:1 128:1 130:1 140:1 156:1 161:1 163:1 165:1 178:1 193:1 194:1 195:1 207:1 211:2 212:1 219:1 238:4 251:1 271:1 283:1 291:2 292:1 300:3 400:1 414:1 417:1 421:6 424:2 435:1 503:1 563:1 565:1 587:1 639:1 648:1 761:3 771:1 881:3 903:1 959:1 1101:10 1170:1 1177:1 1287:4 1310:1 1455:1 1456:1 1486:1 1533:1 1563:1 1592:1 1719:2 1775:1 1839:1 1918:1 1925:1 1976:1 
0.1456060321626443 1:138 2:137 3:70 4:48 5:61 6:77 7:12 8:45 9:11 10:17 11:26 13:6 14:21 15:11 16:21 17:19 18:6 19:10 20:10 21:1 22:4 23:1 24:8 25:8 26:19 28:5 29:1 30:2 33:4 36:5 37:5 38:5 39:9 40:2 45:1 46:1 48:1 50:6 55:3 58:2 61:1 62:1 63:1 64:17 65:1 66:1 68:1 70:2 71:2 73:1 74:3 76:3 79:2 82:2 84:1 85:1 88:4 90:6 95:8 96:3 99:1 100:1 104:1 108:1 110:1 112:1 116:1 120:3 121:9 123:1 131:9 133:1 136:1 141:1 147:5 150:1 151:1 156:6 158:4 159:2 165:1 170:2 172:13 179:2 183:1 188:1 190:1 202:1 205:1 219:2 228:2 229:1 231:1 236:1 238:45 242:1 243:1 248:1 251:4 254:1 261:1 264:1 269:1 271:6 272:1 274:4 279:1 292:1 293:1 314:1 315:1 317:4 325:1 326:1 329:32 334:1 340:1 350:2 351:1 371:1 375:4 386:1 387:2 399:1 412:1 421:26 427:3 430:2 459:1 487:1 514:1 526:1 527:1 531:1 551:1 561:2 572:1 573:1 587:11 601:1 622:1 632:2 659:2 664:1 682:1 792:1 812:1 846:3 871:1 881:6 883:1 980:1 987:1 1042:1 1079:1 1081:1 1101:17 1106:1 1157:1 1164:2 1170:1 1188:1 1200:1 1239:1 1262:1 1287:9 1316:1 1321:1 1328:1 1343:1 1390:6 1392:1 1394:1 1486:6 1538:3 1589:1 1591:1 1592:1 1595:1 1623:2 1638:2 1649:1 1650:1 1719:1 1741:2 1759:3 1806:1 1811:1 1828:2 1940:1 1975:1 
1 7:3 8:1 9:1 10:3 13:1 15:3 18:1 23:1 33:2 46:1 64:3 66:1 69:1 71:1 88:1 92:1 96:1 97:1 105:1 156:1 165:1 168:1 216:1 238:1 261:1 274:1 287:1 294:1 306:1 375:2 386:1 587:3 659:1 677:1 692:1 849:1 881:1 934:1 951:1 1089:1 1101:3 1486:1 
1 4:1 5:1 7:2 9:3 10:1 13:2 15:1 18:1 22:1 23:1 64:1 119:1 130:1 156:2 161:1 200:1 251:1 418:1 587:1 881:1 933:1 1101:1 1456:1 1486:2 1516:1 1911:1 
1 7:1 8:1 9:1 13:1 15:2 18:1 22:1 31:2 33:2 39:1 42:1 44:1 69:2 92:1 97:1 110:1 130:1 148:1 156:1 159:1 189:1 199:2 238:1 251:1 262:1 363:1 375:2 587:2 712:1 742:1 751:1 815:1 849:1 881:1 951:1 1102:1 1170:1 1175:1 1244:1 1247:1 1287:1 1388:1 1456:1 1486:1 1573:1 1638:1 1699:1 
1 1:18 2:18 3:35 4:29 5:26 6:16 7:7 8:12 11:2 12:6 13:3 14:5 15:2 16:5 17:5 18:1 19:8 20:8 21:1 22:1 23:1 24:8 25:8 26:5 30:5 31:2 32:1 36:5 37:5 38:3 40:2 41:1 42:1 43:1 44:1 45:1 49:1 51:1 54:6 56:1 59:3 63:1 67:2 71:1 77:2 79:5 87:1 92:1 98:3 101:1 108:4 114:1 116:2 122:2 132:1 136:1 138:1 141:1 156:3 157:1 173:1 178:1 182:2 189:1 191:1 199:2 214:1 230:1 237:1 238:12 239:2 241:1 251:1 334:2 337:1 358:1 374:1 417:1 418:1 421:2 424:1 447:1 493:1 520:3 587:2 598:1 619:1 659:1 676:1 742:1 804:1 849:1 881:1 887:1 903:1 911:1 957:1 978:2 985:1 1005:1 1102:1 1112:1 1117:1 1123:1 1244:1 1358:1 1388:1 1395:1 1486:3 1564:1 1616:3 1651:2 1678:1 1703:1 1731:1 1839:1 1996:1 
1 7:1 8:2 9:1 13:2 18:1 23:1 28:1 31:1 33:1 42:1 47:1 112:1 130:1 152:1 156:2 199:1 238:2 290:1 375:1 446:1 714:1 742:1 744:1 842:1 881:1 1456:1 1486:2 
1 7:1 8:1 9:2 13:2 23:2 30:1 33:1 48:3 51:1 55:1 59:1 69:1 77:1 79:1 88:1 93:1 104:1 156:2 178:1 182:1 186:1 192:1 237:1 238:1 274:1 351:1 375:1 520:1 614:1 622:1 678:2 711:1 1115:1 1486:2 1538:1 1592:3 1616:1 
1 7:3 8:3 9:2 10:1 15:1 23:3 30:2 47:2 51:1 59:1 62:1 64:1 69:1 79:2 105:1 132:1 178:1 209:1 223:1 237:1 238:3 269:1 311:1 414:1 520:1 587:1 717:1 1101:1 1123:1 1253:1 1616:1 
1 7:1 9:1 10:2 12:3 13:1 18:3 30:1 31:2 41:1 46:2 47:1 48:1 51:1 54:3 55:1 62:1 64:2 69:2 76:2 79:1 145:1 156:1 162:1 178:1 179:1 185:1 199:2 227:1 296:1 318:1 327:1 339:1 386:2 424:1 427:2 433:1 510:1 813:2 881:3 1101:2 1486:1 1538:1 1592:1 1741:1 
1 7:1 9:1 10:2 12:1 13:1 18:1 22:3 23:1 29:1 30:1 31:1 46:1 47:1 48:1 54:1 63:2 64:2 66:1 69:1 79:1 91:2 107:1 111:1 136:2 156:1 199:1 216:1 228:1 241:1 251:3 255:1 268:2 292:1 386:1 415:1 516:1 560:1 578:1 619:1 639:2 869:1 881:1 898:1 1040:1 1060:1 1101:2 1486:1 1592:1 1804:1 1901:1 
1 7:3 8:2 9:2 12:4 13:1 22:2 29:1 33:1 43:2 47:2 49:1 51:1 54:4 55:1 59:1 69:1 76:1 82:2 87:2 91:2 143:1 154:1 156:1 178:1 187:1 238:2 249:1 251:2 268:1 292:1 327:1 375:1 423:1 427:1 457:1 520:1 565:1 639:2 1095:1 1216:1 1464:1 1486:1 1538:1 1616:1 1731:1 1853:1 
1 7:4 8:2 10:1 15:1 22:1 23:2 30:2 41:2 44:1 51:1 55:2 57:2 64:1 69:1 79:2 88:1 128:1 162:1 178:1 185:1 187:1 190:1 197:2 216:1 238:2 251:1 256:1 274:1 279:1 335:1 339:1 373:1 378:1 424:2 587:1 713:1 718:1 1101:1 1102:1 1312:1 1314:1 1538:2 1589:1 1794:1 1808:1 
1 1:20 2:20 3:35 4:29 5:26 6:17 7:6 8:13 9:2 10:2 11:4 13:3 14:4 15:11 16:4 17:4 18:1 19:8 20:8 21:1 24:8 25:8 26:5 31:2 32:4 33:4 36:5 37:5 38:3 40:2 43:2 44:1 45:1 47:3 49:1 55:2 56:1 62:2 64:2 66:1 67:1 87:2 92:1 97:1 105:2 106:1 107:1 118:3 119:1 123:1 126:5 132:1 133:1 141:1 145:1 154:1 156:3 157:1 162:1 186:1 187:1 199:2 203:1 225:2 227:1 237:1 238:13 252:1 265:2 298:3 299:1 313:1 325:1 340:1 354:1 375:4 408:1 421:4 446:1 504:1 580:1 583:1 586:1 587:11 642:1 680:2 694:1 787:1 831:1 849:1 868:2 881:1 919:1 951:1 978:1 1101:2 1102:1 1123:1 1139:1 1303:1 1317:1 1486:3 1538:2 1731:1 1846:1 1920:1 
1 1:28 2:28 6:28 9:2 21:28 28:1 123:2 150:2 205:2 231:2 275:2 338:2 398:2 475:2 489:2 531:2 575:2 593:2 697:1 727:2 771:1 908:1 967:2 1056:2 1066:2 1082:2 1142:2 1245:2 1579:11 1605:2 1832:2 
1 7:1 8:1 9:2 22:1 29:1 31:1 47:1 57:1 59:1 61:1 62:1 65:1 69:1 76:1 83:1 101:1 102:1 117:1 119:1 154:1 163:1 197:1 199:1 238:1 242:1 251:1 288:1 292:1 368:1 427:1 447:1 487:1 520:1 534:1 990:1 1016:1 1095:1 1119:1 1133:1 1566:1 1616:1 
1 5:1 7:1 8:1 9:1 10:1 12:5 13:3 16:1 33:1 54:5 64:1 69:4 76:1 83:3 149:1 155:1 156:3 166:1 201:1 238:1 241:1 283:1 366:1 375:1 427:1 431:1 506:1 619:1 1101:1 1133:3 1135:1 1278:1 1290:2 1486:3 1533:1 1707:2 1971:1 1989:1 
1 8:2 9:3 10:1 13:1 15:1 33:1 41:1 44:1 47:1 50:1 51:1 55:1 56:1 60:1 64:1 66:1 90:1 130:2 156:1 157:1 178:1 194:1 220:1 238:2 271:1 300:1 327:1 374:1 375:1 424:1 570:1 587:1 708:1 1015:1 1101:1 1102:1 1120:1 1456:2 1486:1 1538:1 1707:1 1918:1 
1 7:1 9:1 10:3 13:2 15:3 18:1 22:1 23:1 61:2 64:3 65:1 66:1 69:1 71:1 88:1 100:1 133:1 156:2 200:1 202:1 220:1 251:1 274:1 305:1 487:1 587:3 600:1 601:1 659:1 871:1 881:1 960:1 1101:3 1405:1 1486:2 1911:1 
1 7:4 9:3 10:2 13:2 15:2 18:1 22:1 30:3 31:1 33:1 44:2 48:2 55:1 59:3 63:2 64:2 71:1 79:3 83:2 128:1 132:1 136:2 138:1 156:2 160:1 199:1 203:1 235:1 246:2 251:1 252:1 319:1 375:1 520:3 570:1 579:1 587:2 659:1 781:1 881:1 968:1 1101:2 1102:2 1123:1 1133:2 1241:1 1317:1 1408:1 1486:2 1538:1 1592:2 1616:3 1835:1 1996:1 
1 7:2 8:1 9:2 12:3 13:3 15:1 23:1 30:2 51:2 54:3 61:1 65:2 66:2 69:2 79:2 96:1 114:2 138:1 144:1 156:3 165:1 178:2 179:1 184:1 188:1 193:1 238:1 379:1 395:1 440:1 487:2 523:1 587:1 676:1 1112:1 1284:1 1486:3 1741:1 1996:1 
1 7:1 13:1 15:2 23:1 29:1 47:1 56:1 67:2 77:1 78:1 85:1 122:1 156:1 157:1 182:1 210:1 224:1 240:1 264:1 275:1 292:1 305:1 533:1 587:2 978:2 1469:1 1486:1 1651:1 
1 12:2 13:1 30:3 31:1 51:1 54:2 56:1 58:1 69:1 73:2 79:3 106:1 138:1 144:1 156:1 157:1 178:1 184:1 199:1 207:1 220:1 366:1 1250:1 1278:1 1335:1 1486:1 1527:1 1846:1 1996:1 
1 7:5 8:2 9:1 15:1 30:2 33:4 39:3 46:1 47:1 51:1 57:1 61:1 66:1 73:2 79:2 93:2 110:1 144:1 148:1 169:1 178:1 184:1 186:1 197:1 227:1 229:1 238:2 318:1 375:4 386:1 389:1 440:1 456:1 587:1 614:2 649:1 839:1 855:1 916:1 1138:1 1170:1 1287:3 1298:1 1335:1 1573:1 1575:1 1649:1 
1 7:4 8:1 9:2 10:2 15:1 16:1 23:1 29:1 30:3 33:1 44:1 56:1 64:2 79:3 122:1 140:1 143:1 157:1 177:1 185:1 216:1 238:1 248:1 280:1 292:1 325:1 375:1 379:1 516:1 587:1 821:1 963:1 1082:1 1101:2 1102:1 1464:1 1651:1 1775:1 1975:1 
1 7:2 8:2 13:5 15:1 41:1 42:2 43:1 47:2 55:1 66:1 69:1 85:1 87:1 97:1 126:1 138:1 149:1 156:5 160:1 187:1 229:1 238:2 263:1 264:1 289:1 327:1 365:1 424:1 550:1 587:1 637:1 681:1 742:2 951:1 1320:1 1347:1 1486:5 1538:1 1549:1 1649:1 1971:1 1996:1 
1 7:2 8:2 9:2 10:3 13:2 15:1 18:3 22:2 41:1 46:3 64:3 68:3 69:1 76:1 117:1 118:1 130:1 133:1 156:2 210:2 238:2 251:2 298:1 367:1 386:3 424:1 427:1 587:1 605:1 881:3 1101:3 1119:1 1353:1 1456:1 1486:2 1757:1 
1 7:3 9:3 13:1 22:2 23:1 30:1 31:2 42:1 43:3 62:1 68:1 69:1 70:1 79:1 87:3 88:1 93:1 106:1 126:1 140:1 156:1 191:1 199:2 232:1 251:2 274:1 287:1 314:1 336:1 358:1 441:1 451:1 560:1 614:1 742:1 749:1 760:1 1164:1 1486:1 1775:1 1846:1 
1 9:1 10:5 12:1 13:4 15:1 18:1 23:1 30:1 33:1 41:1 42:1 49:1 54:1 55:1 59:1 64:5 69:1 79:1 156:4 375:1 424:1 520:1 587:1 742:1 794:1 881:1 1101:5 1423:1 1486:4 1538:1 1616:1 1632:1 1731:1 1854:1 1976:1 
1 1:8 2:5 3:5 4:1 5:5 6:4 7:3 8:5 9:2 10:1 11:2 13:1 14:1 15:3 22:1 23:2 26:2 28:2 30:1 31:1 33:1 34:1 40:2 46:1 48:1 55:1 60:1 64:1 65:2 68:1 69:1 79:1 91:1 92:1 156:1 160:2 173:1 177:2 183:1 185:1 187:1 199:1 212:1 224:1 235:1 237:1 238:5 251:1 258:2 282:2 296:1 300:1 303:1 304:1 375:1 386:1 420:1 421:2 437:1 438:1 446:3 487:2 497:1 502:1 579:1 587:3 639:1 821:2 849:1 880:1 887:1 1101:1 1168:1 1328:1 1334:1 1486:1 1538:1 1592:1 
1 1:8 2:5 3:5 4:1 5:5 6:4 7:2 8:6 10:1 11:2 13:3 14:1 15:1 22:1 23:1 26:2 28:2 30:1 34:1 40:2 41:1 42:1 46:2 56:1 62:1 64:1 65:1 69:2 79:1 92:2 107:1 114:1 119:1 146:2 156:3 157:1 191:1 224:1 229:1 237:1 238:6 251:1 258:2 303:1 304:1 306:1 309:1 358:1 386:2 403:1 420:1 421:2 424:1 432:1 438:1 441:1 481:1 487:1 497:1 502:1 553:1 587:1 681:1 742:1 849:2 1101:1 1385:2 1408:1 1486:3 1635:1 1649:1 1791:1 
1 1:1 2:1 7:2 9:1 13:1 17:1 21:1 39:1 42:1 44:1 46:1 84:1 100:1 144:1 156:1 184:1 386:1 697:1 742:1 871:1 1079:1 1102:1 1247:1 1287:1 1486:1 1544:2 1574:1 1602:1 
1 1:3 2:3 3:3 4:2 5:3 6:3 7:3 8:2 9:1 10:1 13:2 15:1 18:2 19:1 21:2 22:2 23:2 38:1 41:1 46:2 47:1 64:1 67:2 77:1 81:1 85:1 94:2 148:1 156:2 163:1 182:1 205:2 238:2 251:2 264:1 269:1 286:1 386:2 424:1 454:1 587:1 654:1 881:2 933:1 978:2 1062:1 1101:1 1197:1 1486:2 1573:1 1992:1 
1 7:1 8:1 15:2 18:1 31:2 44:1 47:2 69:1 90:3 105:1 106:1 107:1 155:1 177:1 185:1 196:1 199:2 202:1 212:1 223:1 237:1 238:1 250:1 252:1 255:1 308:1 353:1 366:1 414:1 415:1 431:1 501:1 556:1 587:2 601:1 765:1 821:1 829:1 881:1 1060:1 1102:1 1278:1 1438:1 1846:1 
1 7:2 10:1 13:2 15:2 23:1 41:1 48:1 59:1 64:1 66:1 70:1 96:1 156:2 161:1 279:1 319:1 395:1 424:1 520:1 587:2 781:1 818:1 972:1 1101:1 1164:1 1355:2 1486:2 1592:1 1616:1 1814:1 
1 7:6 8:1 9:1 13:2 23:1 33:1 43:1 47:1 58:1 69:1 74:1 87:1 104:1 156:2 202:1 238:1 253:1 257:2 351:1 375:1 426:1 441:1 525:1 601:1 676:1 791:1 1112:1 1314:1 1486:2 1519:2 1759:1 
1 7:1 8:1 10:3 13:3 41:1 43:1 46:2 64:3 65:2 69:2 72:1 87:1 156:3 238:1 284:1 287:1 335:1 386:2 389:1 424:1 487:2 642:1 767:1 775:1 1001:2 1027:1 1101:3 1440:1 1486:3 1665:1 1688:1 1709:1 
1 13:2 15:1 23:2 29:3 30:3 44:1 51:1 59:1 67:1 68:1 69:1 72:1 77:2 79:3 104:1 122:1 128:1 154:1 156:2 178:1 182:2 246:1 269:1 292:3 351:1 520:1 523:1 587:1 655:1 723:1 739:1 978:1 1102:1 1486:2 1578:1 1616:1 1651:1 1709:1 1778:1 1921:1 1943:1 
1 7:1 12:1 13:2 15:2 18:1 29:2 30:1 31:2 33:1 54:1 69:1 74:1 76:2 79:1 101:1 112:1 119:1 138:1 156:2 160:1 199:2 202:1 248:1 252:1 292:2 375:1 397:1 427:2 447:1 579:1 587:2 601:1 608:1 661:1 881:1 932:1 986:1 1050:1 1486:2 1759:1 1950:1 1975:1 1996:1 
1 7:2 8:2 9:1 10:1 23:1 30:1 33:1 41:1 63:1 64:1 79:1 80:1 85:1 119:1 136:1 177:1 206:1 222:1 223:1 238:2 249:1 250:1 264:1 375:1 424:1 455:1 806:1 821:1 946:1 1101:1 1590:1 
1 7:3 9:1 13:4 15:1 22:1 23:1 30:1 31:1 39:1 42:1 68:1 69:1 78:1 79:1 83:1 91:1 126:2 151:1 156:4 185:1 199:1 229:1 231:1 234:1 240:1 251:1 299:1 316:1 433:1 587:1 606:1 639:1 742:1 987:1 1133:1 1287:1 1486:4 1649:1 
1 7:1 8:1 9:2 10:3 13:2 15:4 23:1 28:2 33:1 42:1 44:2 46:1 51:1 57:2 58:1 59:1 64:3 69:1 92:1 100:1 105:1 106:1 129:1 156:2 161:3 166:1 169:1 178:1 197:2 238:1 374:1 375:1 386:1 439:1 520:1 587:4 682:1 742:1 849:1 871:1 1037:1 1043:1 1101:3 1102:2 1486:2 1616:1 1846:1 1883:1 1959:1 
1 8:1 13:2 15:1 22:1 30:5 48:1 50:1 55:1 56:1 69:1 79:5 119:1 134:1 156:2 157:1 209:2 238:1 242:1 251:1 261:1 271:1 305:1 354:1 587:1 774:1 1486:2 1538:1 1590:1 1592:1 
1 8:1 13:4 15:1 29:1 31:1 33:1 39:1 44:1 67:1 69:1 71:1 77:3 90:1 106:1 107:2 119:2 134:1 156:4 182:3 189:1 199:1 238:1 247:1 292:1 319:2 326:1 375:1 376:1 587:1 659:1 704:1 763:1 781:2 864:1 956:1 978:1 1102:1 1287:1 1486:4 1515:1 1846:1 
1 7:1 8:2 9:2 10:3 13:1 15:1 18:1 23:1 29:1 41:1 42:1 43:1 46:1 50:2 60:1 64:3 69:1 72:1 76:2 87:1 116:1 140:1 143:1 149:1 156:1 190:1 207:1 238:2 250:1 269:1 271:2 292:1 300:1 334:1 354:1 386:1 424:1 427:2 484:1 585:1 587:1 622:1 681:1 694:1 698:1 742:1 784:1 880:1 881:1 1101:3 1261:1 1464:1 1486:1 1589:1 1709:1 1775:1 1971:1 
1 1:4 2:4 3:2 4:1 5:2 6:3 7:1 10:2 11:1 14:1 15:1 27:1 28:1 34:1 40:2 48:1 51:1 55:1 58:1 64:2 66:1 70:1 74:1 92:1 140:1 178:1 187:1 191:1 258:1 304:1 358:1 421:1 515:1 587:1 598:1 745:1 770:1 849:1 947:1 991:1 1101:2 1164:1 1386:1 1458:1 1538:1 1592:1 1759:1 1775:1 
1 10:2 15:1 39:1 48:1 59:1 64:2 116:1 119:1 154:1 186:1 200:1 250:1 285:1 334:1 363:1 520:1 587:1 1101:2 1159:1 1287:1 1358:1 1592:1 1616:1 1911:1 1953:1 
1 8:1 10:2 13:3 18:1 23:2 30:2 31:1 47:1 60:1 64:2 69:1 79:2 98:1 99:1 107:1 116:1 133:1 139:1 156:3 199:1 224:1 238:1 282:1 300:1 334:1 361:1 371:1 784:1 881:1 1101:2 1104:1 1379:1 1380:1 1486:3 1719:1 1742:1 
1 7:1 9:1 10:2 18:1 23:1 29:1 39:1 42:1 44:1 47:1 48:1 57:1 63:1 64:2 69:1 85:1 136:1 197:1 227:1 236:1 264:1 292:1 308:1 348:1 409:1 455:1 501:1 627:1 692:1 742:1 881:1 1101:2 1102:1 1238:1 1287:1 1321:1 1592:1 1619:1 1723:1 
1 7:5 13:1 15:4 18:1 23:1 30:2 31:1 47:2 61:1 65:1 79:2 83:1 84:1 92:1 156:1 161:1 199:1 241:1 250:2 289:1 330:1 487:1 587:4 619:1 634:1 790:1 849:1 881:1 1079:1 1133:1 1486:1 
1 13:2 15:1 22:2 30:1 42:1 43:2 44:1 74:1 78:1 79:1 87:2 92:1 106:1 143:2 156:2 168:1 193:1 201:1 206:1 240:1 251:2 252:1 262:1 266:1 345:1 587:1 742:1 849:1 1039:1 1102:1 1464:2 1486:2 1759:1 1846:1 1989:1 
1 7:4 8:2 9:3 13:1 18:1 22:1 23:2 42:1 44:1 66:1 69:1 155:1 156:1 177:1 185:1 193:1 223:1 229:1 234:1 237:1 238:2 251:1 266:1 325:1 326:1 395:1 431:1 543:1 580:1 654:1 735:1 742:1 821:1 881:1 1064:1 1102:1 1486:1 1649:1 
1 7:3 8:1 10:2 15:1 22:3 33:1 46:4 62:1 64:2 69:1 92:1 96:1 105:3 138:1 165:1 238:1 251:3 360:1 375:1 386:4 392:1 587:1 636:1 849:1 1101:2 1391:1 1414:1 1771:1 1996:1 
1 7:10 10:3 13:2 18:1 22:2 29:1 41:1 43:1 51:1 58:1 63:1 64:3 70:1 71:1 76:1 87:1 105:2 110:2 112:1 136:1 152:1 155:1 156:2 173:2 175:1 178:1 180:1 231:1 251:2 278:1 292:1 383:1 424:1 427:1 431:1 659:1 881:1 887:2 1087:1 1101:3 1164:1 1170:2 1191:1 1486:2 1584:1 1755:1 
1 7:2 13:2 23:1 33:1 71:1 148:1 156:2 205:1 305:1 375:1 659:1 982:1 1094:1 1486:2 1497:1 1573:1 1993:1 
1 7:2 10:1 12:2 15:2 18:2 29:1 33:1 39:1 44:1 47:1 50:1 51:1 54:2 57:1 61:1 64:1 69:1 72:1 76:1 112:1 114:1 128:2 155:1 160:1 161:1 178:1 185:1 197:1 206:1 266:1 271:1 292:1 347:1 375:1 427:1 431:1 541:1 555:1 587:2 672:1 881:2 1004:1 1101:1 1102:1 1287:1 1577:1 1709:1 1734:1 1894:1 
1 7:2 9:1 10:2 13:1 15:2 18:1 23:2 41:1 46:1 64:2 66:1 69:1 105:1 117:1 139:1 156:1 160:1 168:1 180:1 189:1 252:1 257:1 386:1 424:1 496:1 562:1 587:2 598:1 610:1 679:1 828:1 881:1 1101:2 1119:1 1193:1 1486:1 1519:1 1596:1 
1 7:2 8:1 9:1 10:1 13:2 15:1 18:2 22:2 33:1 48:1 64:1 68:1 156:2 180:1 234:1 236:1 238:1 251:2 311:1 346:1 369:1 375:1 572:1 587:1 881:2 1101:1 1172:1 1283:1 1321:1 1450:1 1486:2 1592:1 1800:1 1831:1 1883:1 
1 4:1 5:1 7:1 8:1 9:1 13:3 18:1 23:1 41:1 42:1 44:1 48:1 57:2 66:1 67:1 69:1 74:1 77:1 92:1 156:3 161:1 182:1 197:2 238:1 247:1 288:1 290:1 294:1 327:1 424:1 742:1 849:1 881:1 926:1 978:1 983:1 1102:1 1347:1 1430:1 1486:3 1592:1 1759:1 
1 6:2 7:3 9:3 10:1 28:1 39:1 41:1 64:1 66:1 88:2 133:1 168:1 248:1 274:2 346:1 366:1 424:1 584:1 1101:1 1275:1 1278:1 1287:1 1314:1 1324:1 1800:1 1975:1 
1 7:1 8:1 13:2 15:2 18:1 23:1 31:1 33:1 43:1 48:1 51:1 56:1 58:1 69:1 74:2 78:1 83:1 85:1 87:1 96:2 105:1 112:1 154:1 155:1 156:2 157:1 160:1 178:1 180:2 185:1 199:1 238:1 240:1 247:1 264:1 354:1 366:1 375:1 431:1 525:1 587:2 775:1 837:1 881:1 1075:1 1133:1 1278:1 1486:2 1592:1 1759:2 
1 9:1 13:1 15:2 23:3 41:1 42:1 56:1 67:1 69:1 77:4 82:1 85:1 151:1 156:1 157:1 173:1 182:4 198:1 216:1 223:1 264:1 302:1 311:1 424:1 489:1 587:2 718:1 738:1 742:1 887:1 978:1 987:1 1486:1 
1 4:2 5:2 7:5 8:1 9:7 10:4 13:2 15:1 18:2 22:1 23:3 42:2 44:1 48:2 57:1 59:1 64:4 65:1 66:1 67:2 72:1 77:5 85:1 90:4 97:2 99:1 118:1 122:3 156:2 164:1 175:1 182:5 197:1 234:1 238:1 246:1 251:1 264:1 273:1 284:1 298:1 311:2 319:1 369:1 487:1 498:1 520:1 587:1 626:1 690:1 742:2 781:1 881:2 902:1 931:1 945:1 951:2 978:2 982:1 1022:3 1101:4 1102:1 1132:1 1242:2 1440:1 1486:2 1592:2 1616:1 1643:1 1651:3 1709:1 1719:1 
1 7:1 9:2 10:1 13:1 15:1 22:2 31:2 41:1 44:1 46:1 60:2 64:1 69:2 72:1 78:1 102:1 111:1 138:1 156:1 162:1 166:1 180:1 199:2 207:1 232:1 240:1 251:2 281:1 300:2 323:1 331:1 368:1 369:1 386:1 401:1 424:1 560:1 572:1 587:1 723:1 750:1 990:1 1101:1 1102:1 1380:1 1460:1 1486:1 1566:1 1709:1 1804:1 1996:1 
1 7:2 9:4 10:1 13:2 15:2 23:3 31:1 44:1 56:1 64:1 66:2 69:1 72:1 76:1 83:1 119:1 145:1 156:2 157:1 185:1 199:1 249:1 363:1 427:1 541:1 587:2 617:1 1101:1 1102:1 1133:1 1337:1 1486:2 1542:1 1678:1 1709:1 1871:1 
1 7:3 9:1 10:2 13:2 15:1 22:1 29:1 31:1 49:2 61:1 64:2 65:1 75:1 98:1 106:1 119:1 142:1 151:1 155:1 156:2 162:1 199:1 223:1 228:1 247:1 251:1 292:1 366:1 385:1 431:1 487:1 584:1 587:1 615:1 987:1 1016:1 1101:2 1178:1 1218:1 1278:1 1294:1 1486:2 1498:1 1731:2 1843:1 1846:1 1974:1 
1 7:3 8:1 9:2 10:2 12:1 15:4 23:1 31:1 33:1 39:1 44:1 47:1 54:1 57:1 63:2 64:2 69:1 75:1 85:1 104:1 126:1 136:2 151:1 165:1 183:1 197:1 198:2 199:1 238:1 264:1 330:1 348:1 351:1 375:1 442:1 473:1 499:1 587:4 809:1 943:1 987:1 1097:1 1101:2 1102:1 1287:1 1328:1 1342:1 1419:1 1436:1 1765:1 1843:1 
1 7:4 8:1 10:2 13:1 15:1 18:1 23:2 30:1 46:1 48:1 60:1 64:2 69:1 79:1 91:1 126:1 156:1 177:1 185:1 189:1 207:1 237:1 238:1 256:1 284:1 291:1 300:1 386:1 395:1 458:1 496:1 516:1 537:1 587:1 639:1 640:1 821:1 881:1 1047:1 1101:2 1193:1 1440:1 1486:1 1592:1 
1 7:1 8:1 10:3 12:3 13:3 23:1 31:2 39:1 41:2 42:2 47:1 54:3 56:1 64:3 69:1 92:1 105:1 110:2 117:1 143:1 156:3 157:1 199:2 206:1 238:1 249:1 330:1 424:2 434:1 470:1 492:1 513:2 742:2 743:1 849:1 1101:3 1119:1 1136:1 1170:2 1222:2 1287:1 1464:1 1486:3 
0.2705575489597524 1:57 2:56 3:53 4:36 5:38 6:36 7:1 8:24 9:15 10:8 11:10 13:7 15:9 18:5 19:11 20:11 21:1 22:3 24:8 25:8 26:9 29:1 33:3 36:6 37:5 38:6 40:2 42:1 43:2 44:1 45:3 48:1 49:3 50:7 55:1 56:1 57:1 58:3 59:2 60:2 64:8 72:2 74:3 75:1 80:6 83:2 84:2 86:1 87:2 92:1 93:1 95:2 97:2 98:2 99:3 103:1 110:1 115:1 116:1 118:1 128:2 129:2 140:1 141:1 142:1 144:1 146:1 156:7 157:1 158:1 161:3 170:6 172:4 184:1 197:1 198:1 203:1 214:1 222:1 223:1 226:3 235:1 238:24 248:1 250:1 251:3 271:7 278:1 292:1 293:2 298:1 300:2 305:1 323:1 329:9 334:1 340:1 341:1 347:1 375:3 381:1 421:10 459:1 486:1 509:1 514:1 515:1 520:2 535:4 536:2 587:9 594:1 614:1 615:1 616:2 631:1 660:1 712:1 742:1 775:1 810:4 813:1 829:1 849:1 881:5 903:1 904:1 922:1 947:1 951:2 967:2 1018:1 1078:1 1079:2 1101:8 1102:1 1133:2 1170:1 1175:1 1312:1 1317:1 1326:3 1361:3 1385:1 1474:1 1486:7 1538:1 1592:1 1616:2 1623:6 1684:3 1709:2 1719:3 1721:1 1731:3 1759:3 1775:1 1811:1 1843:1 1855:1 1886:1 1959:2 1975:1 1991:1 
1 1:6 2:5 3:1 6:5 7:7 8:6 9:2 10:2 11:2 13:6 15:1 18:1 21:2 22:2 23:1 26:1 30:1 31:2 33:1 39:2 41:1 42:1 44:1 48:1 49:1 57:2 60:1 63:1 64:2 70:1 76:1 79:1 82:1 92:1 107:2 110:1 114:2 119:1 132:1 136:1 142:1 150:1 156:6 162:2 169:1 197:2 199:2 216:1 227:1 238:6 242:2 251:2 294:1 300:1 319:1 350:1 375:1 421:2 424:1 427:1 579:1 587:1 593:1 615:1 681:1 742:1 767:1 768:1 781:1 849:1 881:1 964:1 1094:1 1101:2 1102:1 1123:1 1164:1 1170:1 1287:2 1308:1 1393:1 1486:6 1490:1 1497:1 1592:1 1607:1 1731:1 1883:1 
1 1:23 2:23 3:43 4:35 5:33 6:19 7:7 8:16 9:1 10:4 11:2 13:4 15:4 18:1 19:9 20:9 21:1 22:3 23:2 24:8 25:8 26:7 36:5 37:5 38:4 40:2 41:1 42:1 43:1 45:2 51:1 60:1 64:4 68:1 70:2 71:1 75:1 76:1 81:1 87:1 92:1 93:2 94:1 96:1 100:1 122:1 126:1 141:1 152:1 156:4 160:1 163:1 172:1 178:1 191:1 201:1 204:1 215:1 221:1 226:1 238:16 251:3 267:1 300:1 333:2 358:1 368:1 369:1 370:1 421:2 424:1 427:1 444:1 474:1 480:1 550:1 553:1 571:1 587:4 614:2 659:1 742:1 750:1 815:1 843:1 849:1 858:1 859:1 871:1 881:1 974:1 990:1 1080:1 1101:4 1164:2 1486:4 1524:1 1651:1 1769:1 1843:1 1888:2 1989:1 
1 1:9 2:9 3:10 4:8 5:10 6:7 7:1 8:4 9:6 11:3 13:2 15:1 19:1 20:1 21:4 22:1 24:1 25:1 26:1 43:1 60:2 69:3 70:1 76:2 81:1 87:1 93:2 94:1 156:2 158:1 172:1 194:1 228:2 238:4 251:1 275:2 300:2 333:1 362:2 409:2 421:3 427:2 587:1 614:2 689:2 717:1 950:1 1164:1 1421:1 1486:2 1888:1 1918:1 
1 6:1 7:7 8:6 9:2 10:5 13:4 16:1 18:1 22:3 23:2 29:1 30:3 33:4 39:2 41:3 43:6 46:1 47:1 49:1 50:1 51:3 57:1 58:1 59:1 64:5 66:1 70:2 71:1 72:1 73:3 74:2 79:3 83:1 84:2 87:6 88:1 93:4 98:1 101:1 105:1 107:1 114:1 116:1 119:2 129:1 144:2 152:1 156:4 169:1 178:3 184:2 192:1 197:1 226:1 229:1 238:6 242:1 251:3 255:2 262:1 263:1 270:1 271:1 274:1 292:1 299:1 302:1 309:2 334:1 338:2 375:4 383:1 386:1 408:1 416:1 417:1 424:3 447:1 473:1 498:1 520:1 532:1 577:1 614:4 646:1 649:1 659:1 771:1 809:1 824:1 829:1 881:1 904:1 930:1 982:1 1019:1 1042:1 1060:2 1079:2 1088:1 1101:5 1115:1 1133:1 1163:1 1164:2 1287:2 1413:1 1486:4 1609:1 1616:1 1649:1 1709:1 1731:1 1746:2 1759:2 1839:1 1959:1 
1 1:25 2:25 3:40 4:33 5:31 6:20 7:2 8:13 9:4 10:1 11:6 13:3 14:1 16:1 17:1 18:2 19:9 20:9 21:1 24:8 25:8 26:6 31:1 33:1 36:5 37:5 38:4 40:2 41:2 45:1 47:1 49:1 57:1 60:1 62:1 64:1 75:1 76:1 92:1 101:1 108:1 115:1 118:1 141:1 156:3 158:1 165:1 172:1 181:1 197:1 199:1 228:1 229:1 238:13 247:1 287:1 298:1 300:1 306:1 375:1 421:6 424:2 427:1 432:1 444:1 447:1 599:1 815:2 849:1 864:1 881:2 1025:1 1069:1 1101:1 1349:1 1486:3 1649:1 1731:1 1843:1 
1 7:1 8:5 9:3 15:1 22:2 29:1 31:1 41:1 42:2 47:1 59:1 69:1 71:1 102:2 104:1 185:1 199:1 236:1 238:5 251:2 270:1 292:1 351:1 424:1 520:1 540:1 587:1 659:1 674:1 742:2 826:1 1321:1 1354:1 1566:2 1616:1 1656:1 
1 1:13 2:13 7:4 8:1 9:2 13:8 16:2 21:13 22:2 41:1 46:1 74:1 84:1 92:1 100:1 110:1 118:1 144:2 146:1 149:1 154:1 156:8 161:1 170:1 184:2 229:1 238:1 251:2 252:1 298:1 305:3 379:1 386:1 416:1 424:1 535:2 632:1 692:1 815:1 849:1 871:1 878:1 1079:1 1080:1 1170:1 1258:1 1335:1 1385:1 1486:8 1623:1 1637:1 1649:1 1714:1 1759:1 1971:1 
1 7:4 8:4 9:3 10:1 13:1 15:2 18:2 23:4 30:1 31:2 41:1 48:1 49:1 55:2 64:1 66:1 69:1 79:1 84:1 89:1 104:1 114:1 156:1 173:2 187:1 199:2 237:2 238:4 270:1 339:1 350:1 351:1 357:1 424:1 450:1 519:1 528:1 587:2 685:1 728:1 842:1 881:2 887:2 928:1 995:1 1052:1 1079:1 1101:1 1365:1 1486:1 1538:2 1592:1 1731:1 1851:1 
1 1:20 2:20 3:35 4:29 5:26 6:17 7:4 8:12 9:2 10:1 11:4 13:3 14:4 15:1 16:4 17:4 18:2 19:8 20:8 21:1 23:1 24:8 25:8 26:5 32:4 33:2 36:5 37:5 38:3 40:2 42:1 45:1 47:2 48:1 51:1 55:2 57:1 59:1 60:3 64:1 65:1 68:2 75:1 82:1 84:1 97:1 104:1 117:1 122:1 128:1 138:1 141:1 151:1 155:1 156:3 168:1 178:1 185:1 187:1 192:1 197:1 201:1 203:1 235:1 238:12 241:1 259:1 290:1 300:3 307:1 344:1 351:1 366:1 375:2 392:1 421:4 431:1 487:1 493:1 520:1 531:1 582:1 587:1 605:1 619:1 687:1 724:2 730:1 742:1 751:1 838:1 881:2 951:1 987:1 1064:1 1079:1 1101:1 1115:1 1119:1 1278:1 1317:1 1389:1 1417:1 1486:3 1538:2 1592:1 1616:1 1651:1 1843:1 1989:1 1996:1 
0.1208967604900024 1:28 2:28 3:40 4:33 5:30 6:24 7:55 8:35 9:76 10:47 11:4 13:42 14:43 15:51 16:43 17:43 18:29 19:9 20:9 21:6 22:17 23:4 24:9 25:9 26:6 29:24 30:6 31:24 32:22 33:8 36:5 37:5 38:4 39:9 40:2 41:10 42:7 43:11 44:23 45:1 46:6 47:5 48:8 49:18 50:14 51:5 55:8 56:4 57:2 58:1 59:9 60:8 61:4 62:3 63:5 64:47 65:3 66:10 70:3 71:5 73:1 74:13 75:1 76:2 78:3 79:6 83:1 84:16 85:4 87:11 89:1 90:5 91:7 93:7 96:3 97:5 100:3 102:2 104:5 105:4 107:3 108:1 110:2 111:2 112:5 116:2 118:2 119:4 120:4 121:9 122:2 123:1 128:1 129:7 130:5 131:9 132:6 134:1 135:1 136:5 138:2 139:1 140:3 141:1 142:1 143:3 145:3 146:3 147:1 148:2 149:1 150:1 152:1 154:3 155:2 156:42 157:4 159:7 160:2 161:3 162:5 163:5 165:2 166:3 170:5 173:1 175:3 177:1 178:5 179:1 186:1 189:2 191:1 197:2 198:2 199:24 200:5 203:4 204:1 205:1 206:5 207:1 212:1 214:2 215:1 216:1 217:2 221:1 223:2 226:3 229:3 230:7 235:2 236:1 237:1 238:35 239:2 240:3 244:8 246:1 248:1 249:1 250:1 251:17 262:6 264:4 266:2 268:1 270:1 271:14 272:2 280:1 285:1 289:1 290:4 292:24 293:1 295:4 298:2 300:8 302:1 306:1 307:1 311:1 312:3 313:5 318:1 319:1 321:1 323:1 326:4 328:1 330:4 331:1 333:1 334:2 336:2 340:2 341:2 345:1 347:1 348:2 351:5 355:4 358:1 359:3 363:4 365:1 366:1 370:1 375:8 376:2 381:1 383:1 386:6 390:1 401:1 403:3 404:1 409:6 412:1 414:1 415:2 417:1 421:4 422:2 424:10 425:1 427:2 431:2 432:1 434:1 435:2 439:1 440:1 453:2 454:1 462:1 464:2 465:2 470:1 474:1 478:2 487:3 490:2 514:2 519:1 520:9 533:3 562:1 570:1 579:2 584:1 585:2 587:51 605:1 611:1 614:7 615:1 616:2 617:2 626:1 639:7 659:5 667:1 668:2 670:1 704:2 705:1 706:3 712:1 714:1 719:1 723:2 727:1 740:1 742:7 749:4 751:1 755:2 781:1 792:1 804:1 821:1 833:1 837:1 845:1 860:1 871:3 881:29 887:1 894:2 901:1 907:1 909:1 943:1 950:1 951:5 955:1 966:2 989:1 995:4 1015:2 1035:1 1079:16 1088:1 1095:1 1097:1 1101:47 1102:23 1106:2 1118:1 1123:6 1133:1 1134:3 1151:3 1154:1 1164:3 1166:2 1170:2 1175:1 1190:2 1211:1 1241:1 1255:1 1270:1 1278:1 1287:9 1291:2 1317:4 1318:1 1321:1 1344:1 1385:3 1397:1 1430:1 1436:1 1449:2 1456:5 1464:3 1466:1 1486:42 1538:8 1550:1 1566:2 1573:2 1592:8 1596:1 1616:9 1623:5 1631:1 1638:7 1649:3 1651:2 1661:1 1669:1 1686:1 1702:1 1703:7 1707:2 1718:1 1725:1 1729:1 1731:18 1741:1 1759:13 1762:1 1775:3 1778:2 1791:3 1804:2 1818:3 1826:1 1831:2 1839:1 1843:1 1850:2 1872:1 1888:1 1897:1 1911:5 1931:2 1959:7 1971:1 1975:1 1996:2 
0.1302575490072762 1:100 2:98 3:287 4:90 5:122 6:68 7:4 8:39 9:186 10:16 11:7 13:10 14:22 15:11 16:7 18:4 19:15 20:15 21:19 22:4 23:5 24:45 25:15 26:16 28:1 29:1 30:4 31:2 33:4 38:13 40:2 42:2 43:3 46:1 47:4 49:3 50:1 51:1 55:1 56:3 57:2 58:5 60:2 62:1 64:16 65:1 66:1 67:1 68:1 70:1 71:2 74:4 75:2 76:1 77:2 78:3 79:4 81:30 82:2 85:1 87:3 89:1 92:2 94:30 96:2 97:2 101:105 102:1 106:1 110:1 115:16 117:1 118:1 120:1 122:1 126:3 129:1 132:1 134:1 140:1 142:1 147:28 148:1 156:10 157:3 160:1 162:1 172:15 177:1 178:1 180:1 182:2 193:1 197:2 199:2 201:2 204:15 206:1 215:15 238:39 240:3 243:1 245:7 250:1 251:4 258:1 261:1 264:1 267:15 271:1 272:1 292:1 298:1 300:2 315:1 316:1 321:1 327:2 339:1 340:1 354:3 368:1 375:4 377:1 386:1 395:2 399:1 400:1 421:7 427:1 443:1 447:105 460:1 472:1 487:1 512:1 515:1 524:15 530:15 534:1 548:1 578:1 587:11 611:1 612:15 615:1 616:1 654:1 659:2 675:2 677:1 678:2 681:1 695:1 742:2 746:1 786:1 810:1 811:1 821:1 849:2 881:4 892:1 893:15 929:1 947:1 949:1 951:2 977:15 978:1 990:1 1006:1 1009:15 1042:1 1048:1 1064:1 1101:16 1119:1 1123:1 1137:15 1139:1 1164:1 1170:1 1189:15 1195:15 1201:15 1202:15 1204:15 1209:15 1210:15 1248:1 1251:1 1316:1 1320:1 1411:1 1484:1 1486:10 1501:1 1505:1 1538:1 1559:2 1566:1 1573:1 1595:1 1621:1 1651:1 1672:1 1731:3 1759:4 1775:1 1821:1 1843:2 1846:1 1959:1 1989:2 
1 1:3 2:3 3:4 5:1 7:4 9:1 10:3 15:1 18:2 19:1 21:2 23:2 38:1 39:1 43:2 60:1 64:3 65:2 74:1 76:1 87:2 93:1 112:1 115:1 130:1 158:1 164:1 177:1 180:1 188:1 220:1 234:1 273:1 300:1 303:2 354:1 427:1 456:1 487:2 516:1 587:1 614:1 738:1 821:1 869:1 881:2 1035:1 1043:1 1101:3 1127:1 1287:1 1365:1 1456:1 1759:1 1943:1 
1 7:3 8:1 9:4 10:4 15:2 18:1 22:1 23:2 28:1 33:2 42:1 47:1 48:1 51:1 56:1 59:2 64:4 67:2 77:4 122:1 126:2 128:1 133:1 151:1 157:1 178:1 182:4 238:1 251:1 325:1 344:1 373:1 375:2 454:1 473:2 499:1 520:2 587:2 625:1 654:1 742:1 818:1 881:1 978:2 987:1 1022:1 1087:1 1101:4 1187:1 1592:1 1616:2 1651:1 1720:1 1735:1 1794:1 
1 7:1 9:5 10:3 15:1 22:1 31:1 62:1 64:3 69:4 77:1 115:1 126:1 182:1 199:1 201:1 220:1 241:1 246:1 251:1 333:1 368:1 587:1 619:1 990:1 1022:1 1101:3 1433:1 1888:1 1989:1 
1 4:1 5:1 7:1 9:3 10:3 13:1 15:1 16:1 18:2 22:1 23:1 29:2 31:1 33:2 39:2 47:1 60:1 64:3 69:1 134:1 145:1 156:1 161:1 190:1 199:1 251:1 256:1 292:2 300:1 308:1 375:2 422:1 435:1 476:1 587:1 881:2 1101:3 1280:1 1287:2 1320:1 1486:1 1540:1 1589:1 
1 7:1 9:4 10:4 13:1 15:1 18:1 41:1 43:1 64:4 69:1 70:1 87:1 133:1 152:1 156:1 163:1 261:1 424:1 573:1 580:1 587:1 881:1 1101:4 1164:1 1188:1 1262:1 1486:1 1524:1 1679:1 
0.3244254460773857 1:34 2:34 3:74 4:56 5:65 6:30 7:1 8:23 9:6 10:2 11:6 13:2 14:2 15:1 19:14 20:14 21:1 24:8 25:8 26:11 28:2 34:2 36:5 37:5 38:3 40:2 41:8 45:2 60:2 64:2 81:6 94:6 100:6 141:1 147:2 156:2 162:1 172:6 174:2 179:4 216:1 238:23 270:1 300:2 361:5 421:6 424:8 462:5 463:1 530:1 587:1 648:1 675:1 871:6 1028:1 1101:2 1150:1 1486:2 1741:4 1864:5 1909:1 
1 7:2 8:2 10:2 13:2 22:1 23:2 28:1 30:1 46:1 48:1 58:1 60:2 64:2 66:1 69:1 79:1 105:2 117:1 133:1 140:1 156:2 191:1 192:1 238:2 251:1 265:1 300:2 358:1 361:1 386:1 784:1 982:1 1101:2 1115:1 1119:1 1486:2 1586:1 1592:1 1775:1 
1 7:1 8:1 9:3 10:5 13:2 18:1 22:1 39:2 41:1 57:1 64:5 69:1 74:1 84:1 143:2 156:2 197:1 210:1 214:1 238:1 250:1 251:1 256:1 424:1 446:1 457:1 478:1 551:1 881:1 921:1 1079:1 1101:5 1287:2 1464:2 1486:2 1759:1 
0.07281236024259471 1:8 2:5 3:5 4:1 5:5 6:4 7:3 8:5 9:2 10:1 11:2 12:1 13:2 14:1 15:4 18:1 23:1 26:2 28:2 29:1 30:2 31:1 34:1 40:2 46:1 47:1 54:1 57:1 61:1 63:1 64:1 69:1 72:1 79:2 85:1 106:1 117:1 120:1 136:1 142:1 149:1 156:2 197:1 199:1 201:1 207:1 212:1 224:1 237:1 238:5 253:1 258:2 264:1 268:1 292:1 303:1 304:1 363:1 369:1 386:1 420:1 421:2 434:1 438:1 455:1 479:1 497:1 502:1 556:1 557:1 587:4 615:1 641:1 755:1 861:1 881:1 1101:1 1119:1 1134:1 1140:1 1474:1 1486:2 1709:1 1846:1 1971:1 1989:1 
1 7:4 9:1 13:2 15:3 18:2 23:1 30:1 31:1 42:1 47:1 50:1 56:1 57:1 67:1 71:1 79:1 118:1 119:1 156:2 157:1 197:1 199:1 216:1 241:1 271:1 298:1 325:1 587:3 619:1 659:1 708:1 742:1 810:1 881:2 978:1 1239:1 1339:1 1486:2 1869:1 
1 7:3 8:1 9:1 13:1 15:3 18:1 22:2 23:1 31:1 47:1 59:1 72:1 75:1 76:1 139:1 140:1 145:2 156:1 196:1 199:1 238:1 249:1 251:2 268:1 290:1 318:1 347:1 427:1 436:1 520:1 587:3 655:1 809:1 881:1 1438:1 1486:1 1562:1 1616:1 1709:1 1775:1 1843:1 
1 1:4 2:4 4:9 7:3 8:1 9:2 10:1 13:1 14:2 15:3 21:4 22:2 28:3 42:1 46:1 50:1 64:1 83:1 98:1 100:1 146:1 156:1 198:1 209:1 226:1 235:1 238:1 251:2 252:1 269:1 271:1 305:1 359:1 386:1 459:1 587:3 593:1 690:1 712:1 742:1 829:1 871:1 1018:6 1101:1 1133:1 1142:1 1175:1 1247:1 1304:1 1385:1 1486:1 1811:1 
1 1:23 2:23 3:41 4:34 5:32 6:19 7:8 8:14 9:6 10:5 11:4 13:2 14:2 15:1 18:3 19:9 20:9 21:1 22:1 23:1 24:8 25:8 26:6 28:1 30:2 31:4 33:3 34:1 36:5 37:5 38:4 40:2 45:1 47:1 60:2 61:1 64:5 66:1 78:1 79:2 83:1 92:1 114:1 116:1 124:1 129:1 132:1 139:1 141:1 148:1 156:2 160:1 163:2 166:1 169:1 172:2 173:1 186:2 194:1 199:4 223:1 235:1 236:1 238:14 240:1 244:1 251:1 300:2 334:1 349:1 375:3 418:1 421:4 429:1 523:1 550:1 587:1 623:1 638:1 700:1 772:1 849:1 881:3 887:1 908:1 930:1 1101:5 1123:1 1133:1 1301:1 1321:1 1339:1 1399:1 1403:1 1486:2 1563:1 1573:1 1614:1 1656:1 1872:1 1918:1 1959:1 
1 1:20 2:20 3:35 4:29 5:26 6:17 7:5 8:12 9:5 10:8 11:4 13:4 15:1 18:1 19:8 20:8 21:1 22:1 23:4 24:8 25:8 26:5 29:4 30:1 36:5 37:5 38:3 40:2 41:1 45:1 47:1 56:1 64:8 70:1 71:2 72:6 76:1 79:1 98:1 99:1 105:1 106:2 110:1 140:1 141:1 156:4 157:1 163:1 188:1 223:1 238:12 251:1 270:1 281:1 292:4 307:1 314:1 346:1 355:1 387:1 391:1 409:1 421:4 424:1 427:1 479:1 492:1 503:1 534:1 587:1 591:1 608:1 659:2 679:1 733:1 768:1 855:1 881:1 941:1 1101:8 1132:1 1164:1 1170:1 1358:1 1367:1 1486:4 1647:1 1700:1 1709:6 1719:1 1775:1 1800:1 1846:2 
0.1301273505052871 1:131 2:130 3:28 4:19 5:17 6:63 7:23 8:11 9:23 10:29 13:17 14:1 15:20 18:12 19:5 20:5 22:7 23:11 24:1 25:1 26:3 28:2 29:4 30:3 31:5 33:4 34:3 38:5 39:1 40:120 41:3 42:2 43:6 46:1 47:4 48:5 49:2 50:5 51:1 56:2 57:1 58:2 59:5 60:5 61:3 62:5 63:4 64:29 65:5 66:1 67:2 68:6 70:2 74:2 76:1 78:1 79:3 81:5 82:2 83:2 84:1 87:6 88:1 90:1 91:2 92:1 93:7 94:5 96:1 97:1 98:6 100:2 102:1 104:2 105:1 112:5 115:1 117:2 120:1 126:2 133:1 136:4 139:1 140:6 145:1 146:2 149:1 151:1 154:1 156:17 157:2 163:1 165:1 166:1 170:1 173:1 175:1 177:3 178:1 183:1 185:2 186:2 192:2 194:1 196:1 197:1 199:5 201:1 204:3 206:1 207:1 215:3 216:1 221:3 223:1 225:1 227:1 237:1 238:11 239:3 240:1 243:1 246:1 250:1 251:7 256:1 259:1 268:3 271:5 272:3 274:1 276:1 282:1 283:1 286:3 290:1 292:4 300:5 309:1 311:1 321:1 324:2 327:2 330:1 336:2 344:2 351:2 354:2 362:1 365:1 368:1 372:2 374:1 375:4 386:1 399:1 401:2 412:1 416:1 424:3 427:1 429:1 437:1 469:2 487:5 498:1 520:5 522:1 533:3 540:1 582:1 587:20 602:1 614:7 626:2 631:1 639:2 649:3 660:2 664:1 728:1 734:1 742:2 766:1 778:1 786:1 788:1 793:1 797:1 803:1 821:3 849:1 859:1 868:1 871:2 881:12 887:1 899:1 923:1 951:1 961:1 978:2 987:1 990:1 1002:1 1011:1 1037:1 1042:1 1043:1 1055:1 1079:1 1101:29 1115:2 1119:2 1133:2 1158:1 1164:2 1261:1 1287:1 1316:1 1322:2 1325:4 1328:1 1364:1 1385:2 1438:1 1486:17 1523:1 1533:1 1542:1 1550:1 1552:1 1566:1 1580:1 1592:5 1595:1 1600:1 1616:5 1623:1 1663:1 1667:3 1705:1 1726:1 1731:2 1759:2 1775:6 1784:1 1793:1 1870:3 1897:4 1904:1 1918:1 1927:1 1971:1 1989:1 
0.04807795442589113 1:40 2:39 3:36 4:30 5:27 6:26 7:26 8:18 9:27 10:21 11:21 13:24 14:48 15:11 16:48 17:47 18:6 19:8 20:8 21:1 22:14 23:1 24:8 25:8 26:5 27:2 29:1 30:5 31:4 32:22 33:3 36:5 37:5 38:3 39:4 40:2 41:1 42:6 43:4 44:4 45:2 46:4 48:7 49:1 50:4 51:2 55:2 56:2 58:1 60:2 61:7 62:5 64:21 66:4 67:3 70:1 71:2 72:1 75:1 77:1 79:5 85:1 87:4 88:2 90:1 91:2 92:8 93:4 96:2 97:1 99:2 100:2 101:1 102:2 105:1 106:3 108:4 111:1 112:2 116:1 120:2 128:3 133:2 134:2 138:1 141:1 142:2 144:1 145:1 146:1 147:1 149:1 151:2 154:2 156:24 157:2 160:1 163:1 169:2 171:21 173:1 178:2 182:1 183:1 184:1 188:1 191:1 192:1 196:1 199:4 203:1 206:1 219:1 225:1 227:1 229:2 236:1 238:18 242:1 243:2 247:1 249:2 250:1 251:14 252:1 254:1 255:1 259:1 262:1 264:1 265:1 271:4 274:2 278:7 280:1 283:1 284:1 288:3 289:1 292:1 299:1 300:2 312:1 313:5 323:2 326:2 334:1 336:3 354:1 357:2 358:1 375:3 385:1 386:4 389:1 392:1 394:1 397:1 403:2 415:1 417:1 421:21 424:1 430:1 436:1 447:1 472:1 500:2 507:2 512:2 554:1 555:2 563:1 566:1 569:1 573:1 587:11 614:4 615:2 622:1 625:1 627:1 637:2 639:2 653:1 656:1 659:2 723:2 740:2 742:6 744:1 749:3 753:1 810:1 813:2 831:1 847:1 849:8 864:1 868:1 871:2 873:2 881:6 887:1 898:1 904:1 951:1 978:3 987:2 988:2 994:1 1026:1 1027:1 1033:1 1060:1 1072:2 1073:1 1101:21 1102:4 1115:1 1121:1 1151:1 1164:1 1174:1 1188:1 1262:1 1287:4 1317:1 1321:1 1326:1 1328:1 1347:1 1350:1 1365:1 1385:1 1410:1 1438:1 1440:1 1458:2 1486:24 1506:1 1533:1 1538:2 1540:1 1549:1 1566:2 1592:7 1595:2 1639:1 1649:2 1709:1 1719:2 1731:1 1791:2 1804:1 1827:1 1839:1 1843:1 1846:3 1871:1 1889:1 1944:1 1971:1 1996:1 
1 7:4 9:1 10:3 13:2 15:2 47:2 64:3 68:1 70:1 78:1 97:1 117:1 118:1 120:1 122:1 126:1 143:1 156:2 206:1 240:1 243:1 298:1 314:1 433:1 503:1 506:1 551:1 587:2 628:1 680:1 777:1 950:1 951:1 1101:3 1119:1 1164:1 1464:1 1486:2 1590:1 1595:1 1651:1 
1 7:2 9:1 10:2 13:1 15:1 18:1 23:1 46:1 47:1 49:1 59:1 60:2 64:2 68:1 69:1 75:1 107:1 139:1 140:1 145:1 156:1 300:2 344:1 386:1 500:1 520:1 587:1 881:1 960:1 1101:2 1208:1 1486:1 1616:1 1731:1 1775:1 1843:1 
1 7:3 8:1 10:2 13:1 15:2 18:1 23:1 29:1 31:2 33:1 41:1 64:2 66:1 106:1 112:1 156:1 160:1 193:1 199:2 238:1 244:1 292:1 310:1 375:1 383:1 424:1 456:1 587:2 628:1 881:1 1053:1 1098:2 1101:2 1167:1 1486:1 1846:1 
1 7:3 8:2 9:1 10:1 15:2 18:1 23:1 41:1 43:2 58:1 64:1 69:1 83:1 87:2 96:1 97:1 105:1 132:1 143:1 146:1 150:1 185:1 238:2 250:1 283:1 315:1 343:1 398:1 424:1 587:2 812:1 881:1 951:1 956:1 1042:1 1101:1 1123:1 1128:1 1133:1 1385:1 1464:1 1527:1 1533:1 
1 7:4 8:1 9:1 15:1 22:1 39:1 47:1 48:1 49:1 56:1 59:2 68:1 69:2 99:1 122:1 157:1 186:1 202:1 238:1 251:1 294:1 350:1 446:1 465:1 504:2 520:2 548:1 587:1 601:1 695:1 894:1 1287:1 1592:1 1616:2 1650:1 1651:1 1719:1 1731:1 
1 7:3 8:1 10:1 12:2 13:3 15:1 31:1 47:1 49:1 54:2 56:1 58:2 60:3 64:1 68:1 69:1 74:2 78:4 142:1 144:1 145:1 156:3 157:1 169:1 184:1 199:1 238:1 240:4 300:3 460:1 587:1 615:1 811:1 1101:1 1254:1 1313:1 1486:3 1731:1 1759:2 1815:1 
1 6:1 7:3 8:1 9:1 10:1 15:1 16:2 30:1 33:1 42:1 46:1 47:1 64:1 66:1 69:1 70:1 75:2 79:1 92:1 119:1 143:1 201:1 222:1 228:1 236:1 238:1 252:1 341:1 375:1 386:1 426:1 584:1 587:1 742:1 777:1 824:1 849:1 1101:1 1164:1 1321:1 1421:1 1464:1 1843:2 1872:1 1988:1 1989:1 
1 7:1 9:2 10:2 13:2 18:1 22:2 23:1 41:2 43:1 64:2 69:1 87:1 93:1 114:1 156:2 250:1 251:2 424:2 614:1 881:1 1101:2 1345:1 1367:1 1486:2 1785:1 
1 7:2 9:1 10:1 15:1 23:3 29:1 39:1 46:1 58:1 63:2 64:1 69:1 85:1 91:2 96:1 105:1 106:1 122:1 136:2 146:1 148:1 160:1 162:1 189:1 249:1 264:1 292:1 359:1 386:1 395:1 587:1 639:2 1101:1 1287:1 1306:1 1385:1 1573:1 1651:1 1846:1 
1 7:2 9:1 15:1 29:1 30:1 43:1 46:1 47:2 56:1 59:1 68:1 69:2 72:1 78:1 79:1 83:1 87:1 96:1 142:1 154:1 157:1 160:1 169:1 200:1 240:1 292:1 336:1 367:1 386:1 520:1 526:1 541:1 566:1 587:1 611:1 615:1 662:1 1019:1 1133:1 1465:1 1616:1 1709:1 1911:1 
1 7:1 12:1 13:1 15:4 18:1 29:1 42:1 44:2 49:2 50:1 54:1 69:1 71:1 84:1 85:1 156:1 165:1 168:1 226:1 264:1 271:1 292:1 397:1 433:1 492:1 587:4 645:1 659:1 742:1 881:1 899:1 1079:1 1102:2 1128:1 1247:1 1486:1 1731:2 
1 7:2 9:4 10:3 13:2 14:2 18:2 23:2 29:2 31:1 44:1 47:1 50:4 64:3 69:1 70:1 76:2 80:2 83:1 97:1 105:1 114:1 130:1 139:1 156:2 199:1 207:2 227:3 250:1 252:1 271:4 281:1 292:2 365:1 427:2 451:1 478:1 501:1 836:1 881:2 951:1 966:1 1101:3 1102:1 1133:1 1164:1 1187:1 1456:1 1486:2 1906:1 
1 7:2 9:4 10:2 13:2 22:2 23:2 33:3 39:1 46:1 48:1 64:2 69:1 73:1 75:1 101:1 140:1 143:1 151:1 156:2 241:1 251:2 287:1 375:3 386:1 447:1 551:2 573:1 619:1 636:1 903:1 987:1 1101:2 1145:1 1188:1 1262:1 1287:1 1346:1 1349:1 1464:1 1486:2 1592:1 1775:1 1843:1 1876:1 
1 7:3 9:2 10:2 13:2 15:1 23:1 30:2 33:1 41:1 43:1 46:1 47:2 48:1 57:1 64:2 69:1 75:1 79:2 87:1 92:1 156:2 175:1 189:1 197:1 206:1 227:1 241:1 247:1 375:1 376:1 386:1 424:1 559:1 587:1 594:1 619:1 849:1 924:1 1101:2 1319:1 1418:1 1486:2 1592:1 1843:1 1901:2 1991:1 
0.09757580024520485 1:96 2:96 3:51 4:50 5:37 6:72 7:9 8:21 9:35 10:8 11:14 12:10 13:16 14:14 15:11 16:14 17:17 18:9 19:8 20:8 21:35 22:1 23:1 24:8 25:8 26:5 29:3 30:3 31:5 32:13 33:1 35:16 36:5 37:5 38:3 39:1 40:4 41:2 42:1 44:2 45:1 46:1 48:4 50:22 54:10 55:5 56:2 57:1 59:1 61:1 62:1 63:3 64:8 65:4 68:1 70:1 71:2 72:1 74:1 76:1 79:3 82:4 83:1 84:1 86:5 88:3 89:4 90:5 91:2 92:1 96:1 97:1 98:2 101:1 102:1 103:3 104:3 106:1 108:1 110:1 112:1 114:1 116:4 118:1 120:1 123:3 128:4 130:2 136:3 138:1 139:1 140:1 141:1 142:1 143:1 147:5 155:1 156:16 157:2 158:5 169:1 170:3 180:2 183:1 185:1 189:1 190:1 191:1 197:1 198:3 199:5 203:3 219:1 220:3 223:2 230:1 233:4 238:21 239:1 241:1 242:1 251:1 252:1 263:2 266:1 271:22 274:3 289:1 290:1 292:3 294:1 298:1 312:1 314:1 331:1 334:4 336:2 351:3 358:1 368:1 369:3 375:1 386:1 415:1 421:14 424:2 425:1 427:1 428:1 431:1 447:1 478:2 487:4 493:1 520:1 540:1 546:1 559:1 570:1 580:2 582:1 587:11 589:2 603:2 615:1 619:1 639:2 659:2 674:1 692:1 742:1 772:5 773:1 795:1 799:1 830:3 849:1 857:1 881:9 922:5 924:1 927:1 937:2 951:1 990:1 1006:1 1014:1 1059:1 1064:2 1079:1 1080:3 1099:1 1101:8 1102:2 1109:1 1126:1 1133:1 1151:1 1164:1 1170:1 1282:1 1286:16 1287:1 1297:1 1317:3 1319:1 1323:1 1328:1 1369:2 1452:1 1456:2 1459:4 1464:1 1486:16 1522:1 1538:5 1561:2 1566:1 1589:1 1592:4 1598:1 1601:1 1616:1 1623:3 1647:2 1703:1 1709:1 1759:1 1775:1 1846:1 1874:1 1996:1 
1 1:4 2:4 7:4 8:5 10:7 13:6 15:4 18:2 21:4 22:1 23:1 29:3 33:2 39:3 41:2 42:2 44:2 49:3 50:2 58:1 64:7 65:1 68:1 70:1 73:1 74:1 75:1 76:1 83:1 84:1 98:1 99:1 106:1 107:2 116:1 118:1 123:2 149:1 150:1 152:1 156:6 235:1 238:5 251:1 252:1 255:1 267:1 271:2 292:3 293:3 298:1 308:1 325:1 334:1 375:2 391:1 416:1 424:2 427:1 454:1 459:1 487:1 500:1 515:1 587:4 597:1 603:1 649:1 692:1 742:2 755:1 759:2 881:2 904:1 916:1 1060:1 1079:1 1101:7 1102:2 1133:1 1164:1 1171:1 1247:1 1261:1 1287:3 1411:6 1486:6 1659:1 1712:1 1719:1 1731:3 1757:1 1759:1 1811:1 1843:1 1846:1 1971:1 
1 7:1 8:1 10:2 13:3 15:1 18:2 22:2 39:1 48:1 64:2 76:1 83:1 110:1 119:2 156:3 188:1 196:1 231:1 236:1 238:1 251:2 260:2 361:2 427:1 474:1 587:1 881:2 1101:2 1133:1 1170:1 1197:1 1220:1 1287:1 1321:1 1336:2 1438:1 1486:3 1588:1 1592:1 1982:1 
1 1:8 2:5 3:5 4:1 5:5 6:4 7:2 8:5 10:2 11:2 13:1 14:1 15:1 26:2 28:2 29:1 34:1 39:1 40:2 41:1 44:1 46:1 48:1 64:2 69:3 70:1 156:1 224:1 237:1 238:5 256:1 258:2 292:1 303:1 304:1 317:4 386:1 416:3 420:1 421:2 424:1 438:1 497:1 502:1 509:5 535:4 587:1 626:2 642:1 801:1 1101:2 1102:1 1164:1 1180:1 1237:1 1287:1 1486:1 1592:1 1637:3 1856:2 1990:1 
1 1:8 2:5 3:5 4:1 5:5 6:4 7:3 8:6 9:2 10:1 11:2 13:1 14:1 15:1 22:2 26:2 28:2 31:1 34:1 40:2 42:1 46:2 50:1 55:1 57:1 62:1 64:1 65:1 66:1 71:1 90:4 97:1 114:1 142:1 156:1 170:2 197:1 199:1 212:1 224:1 225:1 237:1 238:6 251:2 258:2 271:1 272:1 303:1 304:1 308:1 314:1 339:1 353:1 386:2 414:2 420:1 421:2 438:1 478:1 487:1 492:1 497:1 502:1 587:1 615:1 659:1 680:1 742:1 868:1 951:1 958:1 1101:1 1136:1 1486:1 1538:1 1623:2 1695:1 
0.1369302157409217 1:72 2:71 3:40 4:35 5:29 6:42 7:13 8:16 9:6 10:6 11:13 13:7 14:52 15:14 16:54 17:56 18:2 19:8 20:8 21:1 22:5 24:8 25:8 26:6 28:1 29:2 32:1 33:1 35:4 36:5 37:5 38:3 39:2 40:2 42:1 45:1 46:1 49:1 50:2 57:1 64:6 70:1 71:1 72:1 74:1 76:1 84:1 86:2 90:2 97:1 99:1 104:1 108:47 118:1 121:3 131:3 133:1 135:3 141:1 144:1 147:2 156:7 158:2 166:1 170:1 184:1 189:2 194:2 197:1 202:1 223:1 224:1 229:1 238:16 249:1 251:5 262:3 271:2 292:2 298:1 318:1 329:28 347:1 351:1 369:2 370:1 375:1 386:1 390:1 402:1 421:13 427:1 455:1 477:1 504:2 554:1 566:1 587:14 600:1 601:1 659:1 687:1 699:1 742:1 757:3 773:1 778:1 829:1 855:1 881:2 912:1 921:2 922:2 951:1 957:2 975:1 1053:1 1073:1 1079:1 1101:6 1158:1 1164:1 1167:1 1237:1 1251:1 1255:1 1286:4 1287:2 1367:1 1390:2 1399:1 1423:1 1486:7 1623:1 1649:1 1709:1 1719:1 1725:3 1731:1 1759:1 1769:1 1820:1 1834:1 1856:1 1897:1 1918:2 1974:10 
0.111116395316475 1:44 2:43 3:14 4:14 5:8 6:5 9:5 10:9 12:41 13:9 15:5 18:1 19:2 20:2 21:32 22:5 24:1 25:1 28:1 29:9 30:7 31:17 33:6 34:1 35:4 38:2 39:5 40:6 41:1 42:6 43:2 44:6 46:1 48:1 49:1 50:23 51:5 54:41 55:13 56:2 57:4 58:2 59:9 60:1 61:2 64:9 65:2 74:5 76:6 79:7 80:1 81:2 84:1 86:2 87:2 88:3 90:10 94:2 97:1 98:1 100:1 102:7 103:2 104:1 116:11 118:10 128:6 129:4 133:1 138:3 139:1 150:1 154:1 155:1 156:9 157:2 163:4 170:6 178:5 180:1 193:3 194:1 197:4 198:2 199:17 200:4 202:1 203:9 207:1 209:3 212:2 214:3 226:3 230:2 235:1 241:2 251:5 261:5 262:2 271:23 274:3 278:2 282:1 292:9 298:10 300:1 319:11 334:11 336:6 345:3 351:1 353:1 359:1 372:2 373:1 375:6 386:1 391:1 398:1 408:1 411:1 414:8 424:1 427:6 431:1 432:1 469:2 478:6 487:2 493:3 507:3 520:9 547:1 572:3 585:1 587:5 589:1 601:1 602:1 612:1 617:1 619:2 672:3 691:1 742:6 744:1 772:1 781:11 782:1 797:1 803:1 810:2 840:1 842:2 853:1 866:2 871:1 881:1 900:2 922:2 935:1 937:1 951:1 1006:1 1052:1 1073:1 1079:1 1101:9 1102:6 1116:1 1181:1 1246:3 1286:4 1287:5 1317:9 1330:1 1434:1 1486:9 1526:1 1538:13 1566:7 1572:1 1592:1 1616:9 1623:6 1695:2 1703:2 1731:1 1756:2 1759:5 1794:1 1850:1 1911:4 1918:1 1959:4 1976:2 1996:3 
1 1:6 2:6 4:1 5:1 7:5 8:2 9:4 10:6 13:3 15:3 18:2 21:6 22:2 23:1 30:1 33:2 39:1 42:1 46:1 47:1 59:1 60:2 61:1 62:1 63:1 64:6 74:1 78:3 79:1 83:1 88:1 119:1 132:1 136:1 140:2 154:1 156:3 168:1 175:1 177:1 207:2 238:2 240:3 251:2 259:1 260:1 274:1 283:1 285:2 300:2 336:1 375:2 386:1 432:1 436:1 441:1 473:1 520:1 548:1 587:3 635:1 668:1 674:2 698:1 729:1 742:1 821:1 843:1 881:2 1043:1 1068:1 1080:1 1101:6 1123:1 1133:1 1148:1 1166:1 1287:1 1336:1 1354:1 1486:3 1506:2 1533:1 1549:1 1616:1 1759:1 1775:2 1820:1 
