svm_type c_svc
kernel_type rbf
gamma 0.00050025
nr_class 2
total_sv 3192
rho 0.349761
label 1 -1
probA -1.04358
probB 0.454257
nr_sv 1566 1626
SV
1 1:4 2:4 7:8 11:4 73:3 82:1 275:1 293:1 362:1 398:1 421:4 462:1 1082:1 1142:1 
1 1:6 2:6 7:12 8:1 11:6 17:1 73:5 205:1 238:1 275:1 421:6 483:1 575:1 697:1 904:1 1056:1 1247:1 
1 1:10 2:10 7:12 8:1 17:1 21:10 73:5 205:1 238:1 275:1 483:1 575:1 697:1 904:1 1056:1 1247:1 
0.5186649869282832 7:6 8:1 9:1 23:1 31:2 39:1 41:3 44:1 49:1 63:1 69:1 91:2 105:1 107:1 114:1 118:1 126:1 129:1 136:1 152:1 179:1 183:1 199:2 201:1 238:1 255:1 298:1 310:3 347:1 362:1 363:1 368:1 424:3 606:1 639:2 990:1 1060:1 1102:1 1120:1 1287:1 1328:1 1731:1 1741:1 1959:1 1989:1 
1 1:21 2:21 7:8 15:1 21:21 33:8 72:1 73:8 161:1 180:1 293:8 338:2 375:8 531:2 575:1 587:1 908:3 964:1 1253:1 1329:2 1709:1 1862:1 
1 7:1 8:1 13:1 15:1 73:3 156:1 238:1 390:1 398:2 562:1 587:1 890:1 891:1 904:2 916:1 1340:1 1368:1 1486:1 
0.3120347453201818 7:2 10:1 13:1 15:1 22:1 23:2 41:1 64:1 123:1 156:1 234:1 251:1 424:1 494:1 507:1 587:1 599:1 731:1 793:1 1101:1 1486:1 1720:1 1735:1 
1 4:1 5:1 7:1 9:4 10:2 13:1 15:1 28:1 41:1 42:1 51:1 59:2 64:2 69:1 97:2 101:1 111:2 130:1 134:1 156:1 162:1 170:1 178:1 256:1 312:2 374:1 422:1 424:1 447:1 520:2 587:1 591:1 742:1 748:1 857:1 951:2 1101:2 1151:2 1456:1 1486:1 1616:2 1622:1 1623:1 1804:2 1818:1 
0.58782834255712 7:4 8:1 12:1 13:2 15:3 22:1 23:1 41:1 42:1 44:1 48:2 51:1 54:1 66:2 67:2 69:3 77:3 104:1 107:2 156:2 160:2 178:1 182:3 212:1 237:1 238:1 251:1 279:1 351:1 355:1 378:2 424:1 473:1 553:1 587:3 742:1 978:2 1102:1 1408:1 1474:1 1486:2 1578:1 1592:2 1891:1 
1 7:2 8:2 9:1 13:1 23:2 76:1 156:1 238:2 289:1 427:1 454:1 585:1 772:1 1071:1 1238:1 1470:1 1486:1 
1 7:2 10:2 43:9 64:2 69:1 87:9 93:7 173:1 200:1 206:1 290:1 313:1 614:7 887:1 1101:2 1280:10 1697:1 1911:1 
1 7:2 10:2 13:1 22:1 39:1 46:1 64:2 68:1 156:1 196:1 251:1 386:1 1101:2 1287:1 1438:1 1486:1 
1 13:4 15:2 29:1 43:2 49:1 55:1 69:2 71:1 74:5 87:2 88:4 104:1 118:3 119:1 146:1 156:4 203:1 274:4 292:1 298:3 351:1 365:1 535:1 565:1 587:2 659:1 1317:1 1385:1 1477:1 1486:4 1538:1 1731:1 1759:5 
1 1:11 2:11 6:1 7:2 18:1 21:11 49:1 70:1 73:8 74:1 82:1 89:1 93:1 115:1 152:1 236:1 563:1 614:1 698:1 762:1 881:1 890:1 891:2 1056:1 1142:1 1164:1 1321:1 1553:3 1710:3 1731:1 1759:1 1862:1 
0.3576564138071779 7:1 9:4 10:1 13:3 15:2 23:1 44:1 46:1 62:1 64:1 67:1 69:1 70:1 110:1 123:1 129:1 156:3 201:1 386:1 481:1 486:1 587:2 630:1 978:1 1030:1 1071:1 1101:1 1102:1 1164:1 1170:1 1242:1 1486:3 1959:1 1989:1 
1 7:2 9:1 13:1 15:1 22:1 33:1 41:1 78:1 83:1 128:1 142:1 152:1 156:1 202:1 240:1 250:3 251:1 375:1 424:1 587:1 601:1 615:1 862:1 1089:1 1120:1 1133:1 1486:1 
1 7:1 8:1 9:1 23:1 30:1 42:1 48:1 63:1 79:1 107:1 119:1 136:1 164:1 238:1 273:1 742:1 1592:1 
1 7:1 8:1 9:1 23:1 30:1 42:1 48:1 63:1 79:1 107:1 119:1 136:1 164:1 238:1 273:1 742:1 1592:1 
0.8412976330828823 7:1 8:1 9:1 23:1 30:1 42:1 48:1 63:1 79:1 107:1 119:1 136:1 164:1 238:1 273:1 742:1 1592:1 
1 8:1 13:2 41:1 46:1 47:1 58:1 59:1 61:1 69:1 105:1 139:1 156:2 238:1 308:1 318:1 386:1 424:1 459:1 520:1 878:1 1486:2 1616:1 1663:1 1811:1 
1 7:4 8:2 9:1 13:3 15:2 23:2 30:1 41:1 63:1 72:1 79:1 88:1 91:2 136:1 144:1 156:3 164:1 168:1 184:1 238:2 254:1 273:1 274:1 309:1 397:1 424:1 440:1 587:2 639:2 775:1 1061:1 1486:3 1709:1 1873:1 1920:1 
1 1:6 2:5 3:1 5:1 6:3 7:1 8:4 9:1 11:4 13:2 26:1 42:1 46:1 72:1 76:1 110:1 156:2 159:1 164:1 238:4 273:1 386:1 406:1 421:4 427:1 489:1 742:1 1017:1 1170:1 1486:2 1638:1 1647:1 1709:1 1809:1 
1 8:1 9:1 10:1 13:1 22:1 55:1 57:1 58:1 64:1 66:1 69:2 75:1 97:1 101:1 105:1 114:1 156:1 173:1 187:1 197:1 238:1 251:1 365:1 447:1 848:1 887:1 951:1 1101:1 1486:1 1538:1 1843:1 
1 7:3 8:2 9:4 13:1 23:3 30:3 41:1 42:1 55:1 69:1 79:3 105:2 132:1 140:1 148:1 156:1 219:1 238:2 241:1 339:1 424:1 434:1 619:1 742:1 1123:1 1486:1 1538:1 1573:1 1775:1 1927:1 
1 7:1 9:2 10:1 13:1 39:1 42:1 46:1 64:1 76:1 101:3 119:1 130:1 156:1 386:1 427:1 447:3 494:1 717:1 742:1 1101:1 1287:1 1456:1 1486:1 
1 7:5 9:1 12:2 22:1 30:1 31:1 33:1 47:1 48:1 54:2 79:1 199:1 232:1 242:1 251:1 284:1 375:1 512:1 1135:1 1440:1 1592:1 
1 1:4 2:4 7:6 21:4 22:3 73:3 123:3 150:1 251:3 362:3 398:1 649:1 715:3 967:1 1025:3 1298:1 
1 1:65 2:52 3:13 5:13 6:13 7:3 11:13 13:2 15:1 19:13 21:13 38:13 44:1 49:1 50:1 62:1 70:1 71:2 73:13 74:1 80:26 82:26 110:1 156:2 202:1 214:1 262:1 271:1 275:2 276:2 305:1 338:7 421:13 575:1 582:1 587:1 593:1 601:1 659:2 904:1 908:2 1055:2 1102:1 1164:1 1170:1 1486:2 1520:1 1584:1 1731:1 1759:1 
1 7:4 8:2 10:1 13:2 22:1 33:1 43:2 48:1 55:1 59:1 62:1 63:1 64:1 65:1 69:1 72:1 87:2 90:1 102:1 114:1 136:1 138:1 146:1 156:2 187:1 238:2 251:1 375:1 487:1 512:1 520:1 1006:1 1101:1 1120:1 1177:1 1385:1 1486:2 1538:1 1566:1 1592:1 1616:1 1709:1 1747:1 1857:1 1996:1 
1 7:1 13:1 22:2 49:1 56:1 57:1 110:1 156:1 157:1 188:1 196:1 197:1 251:2 432:1 600:1 769:1 1170:1 1438:1 1486:1 1731:1 1809:1 
0.385660007156193 7:1 8:1 10:2 13:2 15:3 18:2 22:2 23:3 29:1 41:1 46:1 64:2 69:1 70:1 76:2 117:1 135:1 156:2 161:1 164:1 196:1 234:1 238:1 251:2 257:1 273:1 292:1 386:1 399:1 424:1 427:2 496:1 587:3 766:1 881:2 972:1 1101:2 1119:1 1164:1 1193:1 1316:1 1356:1 1438:1 1486:2 1519:1 1725:1 1921:1 
1 1:5 2:5 7:6 21:5 22:3 73:3 123:3 150:1 251:3 362:3 398:1 649:1 715:3 967:1 1025:3 1298:1 
1 7:4 8:1 10:1 13:2 15:2 23:1 30:2 33:1 47:1 49:2 57:1 64:1 66:2 69:1 79:2 117:1 155:1 156:2 165:1 197:1 207:1 225:1 238:1 241:1 287:1 375:1 397:1 431:1 587:2 619:1 630:1 868:1 895:1 1061:1 1101:1 1119:1 1486:2 1731:2 1882:1 
0.2190821743499918 5:2 7:1 13:3 30:1 61:1 63:2 66:1 69:3 79:1 83:2 84:1 85:1 96:1 116:1 132:1 134:1 136:2 156:3 244:1 264:1 278:1 312:1 334:1 414:1 598:1 668:1 746:1 805:1 956:1 1079:1 1123:1 1133:2 1151:1 1486:3 1622:3 
1 4:1 5:1 7:1 18:1 23:1 30:1 55:1 68:1 71:1 72:1 78:1 79:1 90:1 104:1 128:1 173:1 187:1 240:1 351:1 455:1 659:1 881:1 887:1 1538:1 1709:1 1932:1 
1 7:3 10:1 12:2 13:2 15:3 29:1 30:3 43:1 44:1 46:1 49:2 54:2 56:1 57:1 59:1 61:1 64:1 65:1 71:1 79:3 87:1 93:1 97:1 107:1 120:1 129:1 134:1 148:1 156:2 157:1 160:1 191:1 197:1 200:1 202:1 220:1 292:1 319:1 344:1 358:1 386:1 487:1 520:1 587:3 601:1 614:1 659:1 781:1 951:1 1101:1 1102:1 1486:2 1573:1 1616:1 1731:2 1911:1 1959:1 
1 1:57 2:57 21:57 22:1 39:1 44:1 49:1 50:1 58:2 65:1 69:1 73:40 74:1 115:1 116:1 123:28 128:1 150:4 205:2 210:80 226:1 231:12 251:1 271:1 312:1 334:1 338:2 475:4 487:1 539:1 575:14 593:3 697:1 727:5 908:6 967:1 1016:1 1025:40 1056:5 1066:1 1082:1 1102:1 1142:2 1147:2 1151:1 1245:1 1283:40 1287:1 1309:3 1553:39 1665:1 1710:39 1731:1 1759:1 1864:1 1878:1 
1 9:1 10:6 13:3 15:1 23:2 30:1 43:1 60:1 64:6 69:1 71:1 79:1 87:1 100:1 126:1 151:1 156:3 185:1 207:1 234:1 253:1 300:1 333:1 399:1 501:1 587:1 659:1 871:1 987:1 1101:6 1316:1 1434:1 1486:3 1888:1 1927:1 
1 7:2 8:2 9:4 15:1 18:1 22:3 23:1 42:1 46:1 57:1 66:1 69:1 72:1 130:1 135:1 197:1 231:1 238:2 241:1 251:3 259:1 386:1 587:1 619:1 742:1 881:1 908:1 1162:1 1300:1 1456:1 1709:1 1725:1 
1 9:4 10:5 13:4 15:2 18:1 58:1 64:5 69:1 100:1 129:3 148:1 156:4 162:1 348:1 368:1 587:2 871:1 881:1 990:1 1101:5 1187:1 1365:2 1486:4 1573:1 1580:1 1959:3 
1 7:5 10:4 18:1 23:2 30:1 33:2 56:1 64:4 69:1 79:1 133:1 148:1 154:2 157:1 375:2 478:1 699:1 843:1 881:1 1101:4 1573:1 1976:1 
1 1:32 2:32 9:27 15:1 21:32 33:1 46:1 73:27 123:15 150:3 231:8 338:3 375:1 386:1 398:1 416:1 489:1 587:1 593:1 727:1 874:1 945:1 967:1 1082:2 1142:2 1309:2 1832:1 1862:2 
1 7:2 8:2 9:1 13:1 22:1 23:2 46:1 59:1 156:1 175:1 200:1 238:2 251:1 268:1 386:1 504:1 520:1 1255:1 1300:1 1353:1 1486:1 1616:1 1911:1 
1 7:1 8:3 12:3 13:1 22:1 30:2 31:1 39:1 46:1 48:1 54:3 60:1 69:1 70:1 74:1 79:2 114:1 156:1 168:2 199:1 238:3 251:1 269:1 300:1 344:1 386:1 443:1 1164:1 1287:1 1486:1 1592:1 1759:1 1903:1 
1 1:20 2:20 6:2 10:1 15:6 18:1 21:16 62:6 64:1 73:7 84:1 123:1 150:1 205:2 231:7 233:4 338:1 539:1 587:6 727:1 881:1 904:1 1025:7 1079:1 1101:1 1142:1 1283:7 1362:1 1459:4 1553:7 1710:7 1832:1 
1 7:1 8:1 9:4 10:1 12:1 13:1 15:1 23:1 33:2 46:1 48:3 50:1 54:1 56:1 59:1 63:1 64:1 69:1 71:2 111:1 117:1 136:1 156:1 157:1 161:1 212:1 238:1 262:1 269:1 271:1 279:1 323:1 344:1 375:2 386:1 517:1 518:1 520:1 587:1 659:2 669:1 1101:1 1119:1 1186:1 1486:1 1592:3 1616:1 1804:1 
0.738763586528478 7:1 13:4 23:2 50:1 105:1 114:2 156:4 271:1 517:1 1075:1 1110:1 1486:4 
1 1:17 2:17 9:9 21:17 46:1 73:11 84:1 123:6 231:2 386:1 398:1 575:1 839:1 967:1 1056:1 1079:1 1832:1 
0.3877355162208857 7:2 13:1 23:1 31:1 39:1 42:1 46:1 49:1 69:1 72:1 83:1 85:1 105:1 114:1 129:1 142:1 151:1 156:1 160:1 199:1 239:1 255:1 264:1 285:1 338:2 386:1 517:1 615:1 742:1 775:1 952:1 987:1 1060:1 1110:1 1133:1 1287:1 1486:1 1709:1 1731:1 1959:1 
1 7:2 8:1 13:3 18:1 22:1 23:1 30:1 46:1 68:1 69:1 70:1 71:1 78:1 79:1 105:2 145:1 156:3 160:1 223:1 237:1 238:1 240:1 251:1 328:1 363:1 386:1 425:1 659:1 669:1 881:1 1120:1 1164:1 1486:3 1557:1 
1 7:5 8:2 9:4 10:1 13:2 15:2 18:1 23:3 29:1 30:1 41:1 44:1 46:1 47:1 55:1 62:1 64:1 66:1 69:1 79:1 88:1 93:1 117:1 126:2 156:2 180:1 186:1 189:1 238:2 274:1 292:1 339:1 344:1 386:1 424:1 504:1 587:2 614:1 881:1 1101:1 1102:1 1119:1 1141:1 1486:2 1513:1 1538:1 1981:1 
1 8:2 9:3 10:2 13:4 18:1 22:2 30:1 31:2 46:1 47:1 48:1 50:1 51:1 56:1 59:2 64:2 69:1 79:1 83:1 104:1 107:1 114:1 132:4 138:1 156:4 157:1 178:1 196:1 199:2 227:1 232:1 238:2 244:1 251:2 271:1 351:1 386:1 476:1 478:1 479:1 520:2 522:1 524:1 583:1 819:1 881:1 938:1 1089:1 1101:2 1123:4 1133:1 1246:1 1438:1 1486:4 1555:1 1592:1 1616:2 1792:1 1996:1 
1 7:4 8:1 10:1 13:1 22:1 42:1 44:1 64:1 69:1 70:1 92:2 105:1 110:1 133:1 148:1 156:1 201:1 216:1 220:1 238:1 241:1 251:1 314:1 385:1 619:1 729:1 742:1 849:2 1101:1 1102:1 1120:1 1162:1 1164:1 1170:1 1300:1 1486:1 1573:1 1989:1 
1 7:5 8:1 12:1 13:3 18:1 23:1 33:1 41:1 42:1 43:1 44:2 47:1 50:1 54:1 56:1 63:2 74:1 87:1 93:1 102:1 107:1 122:1 136:2 149:1 156:3 157:1 160:1 177:1 179:1 206:1 229:1 238:1 255:1 260:1 271:1 294:1 375:1 424:1 557:1 599:1 614:1 742:1 805:1 810:1 821:1 861:1 881:1 1060:1 1102:2 1336:1 1486:3 1566:1 1615:1 1649:1 1651:1 1741:1 1759:1 1971:1 
1 7:1 8:1 9:1 12:2 13:1 23:1 30:1 31:1 42:1 43:1 46:1 48:1 54:2 69:3 77:1 79:1 87:1 140:1 156:1 182:1 199:1 238:1 386:1 501:1 513:1 599:1 630:1 718:1 742:1 779:1 808:1 1026:1 1111:1 1222:1 1486:1 1592:1 1775:1 
1 7:2 8:1 9:2 10:3 18:1 22:1 33:1 42:1 43:1 47:2 59:1 64:3 69:1 87:1 107:1 110:1 228:1 238:1 248:1 251:1 257:1 266:1 375:1 426:1 441:1 456:1 520:1 612:1 742:1 837:3 881:1 1101:3 1170:1 1488:1 1519:1 1616:1 1975:1 
1 9:3 10:4 13:1 22:1 43:2 64:4 66:1 69:1 74:1 87:2 90:1 96:1 97:1 142:1 146:1 156:1 163:1 183:1 190:1 202:2 251:1 260:1 331:1 472:1 474:1 573:1 580:1 601:2 615:1 823:1 951:1 1089:1 1101:4 1120:1 1188:1 1262:1 1275:1 1328:1 1336:1 1385:1 1486:1 1589:1 1759:1 
0.5788329716933566 7:5 8:2 10:1 13:1 15:2 18:1 23:3 42:1 59:2 61:1 64:1 97:1 140:1 142:1 156:1 160:1 222:1 238:2 250:2 347:1 429:1 434:1 520:2 523:1 585:2 587:2 606:1 615:1 735:1 742:1 881:1 951:1 1101:1 1486:1 1616:2 1775:1 
0.2944459984957103 4:7 8:1 13:1 15:1 23:1 28:8 50:3 55:1 69:1 88:1 105:1 133:1 156:1 175:1 219:1 228:1 238:1 243:1 271:3 274:1 342:1 545:1 587:1 963:1 994:1 1300:1 1398:1 1486:1 1538:1 1595:1 
1 1:1 2:1 3:3 4:2 5:3 6:1 7:1 8:2 13:3 19:1 29:1 38:1 41:1 46:2 81:1 94:1 115:1 156:3 205:2 238:2 292:1 367:1 386:2 406:1 424:1 1113:1 1353:1 1486:3 
1 7:3 8:2 10:3 13:3 15:1 18:1 22:1 23:1 31:2 62:2 64:3 105:2 118:1 150:1 156:3 180:1 199:2 238:2 251:1 279:1 298:1 376:2 400:1 483:1 587:1 881:1 1101:3 1108:2 1120:1 1486:3 1490:1 
1 7:3 9:1 12:1 13:1 29:1 31:1 39:1 44:1 46:1 54:1 57:1 66:1 69:1 75:1 90:1 104:1 105:2 114:1 115:1 156:1 177:1 185:1 191:1 197:1 199:1 201:1 292:1 351:1 358:1 386:1 470:1 559:1 665:1 821:1 866:1 924:1 1102:1 1106:1 1120:1 1287:1 1486:1 1843:1 1944:1 1989:1 
1 8:4 9:2 13:2 15:1 22:2 23:3 29:1 30:1 33:2 59:1 69:2 71:1 78:1 79:1 96:1 97:1 104:1 128:1 130:1 138:2 156:2 163:1 169:1 238:4 240:1 251:2 292:1 311:1 323:2 344:1 351:1 363:1 375:2 442:2 520:1 541:1 587:1 659:1 837:1 951:1 1456:1 1486:2 1616:1 1996:2 
1 7:3 8:1 9:3 13:1 23:3 30:1 46:1 55:1 56:1 62:1 69:1 79:1 83:1 129:1 154:1 156:1 157:1 183:1 207:1 238:1 241:1 289:1 340:1 386:1 404:1 449:1 498:1 619:1 701:1 1133:1 1328:1 1486:1 1538:1 1622:2 1798:1 1882:1 1959:1 
1 7:2 9:2 10:3 22:3 33:1 64:3 68:2 100:1 251:3 375:1 593:1 635:1 677:1 871:1 972:1 1101:3 1329:1 1353:1 
1 7:3 9:2 10:1 13:1 18:2 23:1 28:2 42:1 63:1 64:1 136:1 142:1 156:1 234:1 338:1 364:1 615:1 742:1 881:2 933:1 1101:1 1304:1 1486:1 
1 7:2 9:1 10:1 13:1 23:1 41:2 64:1 68:1 72:1 93:1 140:2 151:1 156:1 165:1 191:1 289:1 358:1 424:2 614:1 708:1 775:1 792:1 987:1 1101:1 1269:1 1355:1 1486:1 1709:1 1775:2 
1 7:3 8:1 9:5 13:1 18:1 33:1 51:1 59:1 71:1 100:1 118:1 119:1 130:1 133:1 156:1 178:1 192:1 238:1 298:1 375:1 520:1 659:1 871:1 881:1 1115:1 1291:1 1456:1 1486:1 1616:1 
1 1:2 2:2 6:1 10:2 13:2 18:1 30:1 33:1 39:1 41:1 51:1 59:1 64:2 65:1 68:1 79:1 92:1 102:1 156:2 178:1 206:1 209:1 233:2 375:1 424:1 487:1 520:1 689:1 849:1 881:1 1074:1 1101:2 1287:1 1459:2 1486:2 1566:1 1616:1 
1 7:3 8:1 9:2 10:2 12:3 13:2 15:1 23:4 31:1 41:1 47:1 54:3 56:1 62:1 63:1 64:2 71:1 107:1 136:1 156:2 157:1 161:1 185:1 199:1 202:1 238:1 243:1 328:1 424:1 483:1 582:2 587:1 599:1 601:1 659:1 1083:1 1101:2 1408:1 1486:2 1595:1 1792:1 1875:1 
1 7:1 9:4 10:3 13:2 18:1 22:1 30:1 39:1 42:1 58:1 59:1 64:3 69:1 71:1 75:1 78:1 79:1 96:2 102:1 144:1 154:1 156:2 165:1 184:1 194:1 202:1 219:1 236:1 240:1 250:1 251:1 397:1 520:1 601:1 659:1 742:1 881:1 949:1 1030:1 1101:3 1287:1 1321:1 1486:2 1566:1 1616:1 1806:1 1843:1 1918:1 
1 7:2 8:1 9:2 10:1 18:1 23:1 42:1 64:1 119:1 164:1 238:1 273:1 581:1 742:1 881:1 933:1 1101:1 1693:1 
0.3268827527115621 7:2 8:2 9:1 10:1 13:4 18:2 23:2 39:1 41:1 47:1 56:2 59:1 62:1 64:1 65:1 69:1 77:3 83:1 107:1 117:2 119:3 156:4 157:2 166:1 182:3 229:1 238:2 241:1 344:1 424:1 434:1 487:1 520:1 619:1 881:2 1101:1 1119:2 1120:1 1133:1 1234:1 1287:1 1486:4 1616:1 1649:1 
1 7:1 9:9 10:3 18:3 41:4 64:3 68:4 69:4 118:2 123:1 150:1 205:1 226:3 298:2 424:4 578:3 596:3 881:3 1101:3 1365:4 1851:1 
1 7:4 8:1 15:4 22:1 33:2 43:1 44:1 46:1 48:2 49:1 55:1 56:1 87:1 88:1 105:1 126:1 132:1 134:1 157:1 186:1 187:1 216:1 238:1 251:1 274:1 280:1 375:2 386:1 406:1 446:1 504:1 587:4 695:1 711:1 1102:1 1123:1 1237:1 1538:1 1592:2 1731:1 1742:1 
1 1:10 2:10 21:10 22:1 44:1 46:1 50:1 66:1 69:2 73:8 74:1 88:1 116:1 123:5 150:1 205:1 210:16 226:1 231:4 251:1 271:1 274:1 275:1 334:1 359:1 386:1 475:1 489:1 575:4 593:1 697:1 891:1 1016:1 1025:8 1102:1 1142:1 1283:8 1553:8 1710:8 1759:1 
1 1:6 2:5 3:1 5:1 6:3 7:1 8:4 10:2 11:4 13:2 22:2 26:1 48:1 64:2 100:1 107:1 110:1 119:1 156:2 238:4 239:1 251:2 421:4 690:1 871:1 1061:1 1101:2 1170:1 1486:2 1592:1 1760:1 
1 7:3 8:2 9:1 13:1 15:1 18:1 22:1 23:1 42:1 47:2 56:1 57:1 59:1 69:2 74:1 91:1 105:1 114:1 117:1 126:1 156:1 157:1 197:1 202:1 237:1 238:2 251:1 288:1 290:1 512:1 520:1 587:1 601:1 639:1 742:1 754:1 755:1 837:2 879:1 881:1 1002:1 1119:1 1435:1 1486:1 1616:1 1759:1 1787:1 
1 1:91 2:91 3:47 4:41 5:40 6:66 8:12 9:28 10:1 11:8 13:2 14:13 15:2 16:9 17:8 19:6 20:6 21:30 24:15 25:9 26:5 27:4 28:4 29:2 31:3 34:2 36:5 37:5 38:1 40:6 42:1 44:1 45:1 50:3 56:24 57:2 60:2 62:1 64:1 71:1 76:2 78:1 81:5 82:1 84:1 85:1 97:1 101:2 102:1 109:2 110:1 113:2 116:2 121:1 125:12 131:1 134:1 139:1 141:1 148:1 156:2 157:24 160:1 170:1 171:6 181:3 193:1 195:1 197:2 199:3 209:1 211:3 218:8 230:1 234:1 235:4 238:12 240:1 244:1 246:1 250:2 254:1 261:1 264:1 267:2 269:1 271:3 292:2 300:2 334:2 341:1 342:1 348:1 356:6 359:1 363:1 421:8 427:2 430:1 433:1 447:2 459:1 462:3 478:1 480:2 489:1 491:1 496:1 512:1 540:1 545:1 587:2 607:2 621:2 659:1 695:1 715:1 742:1 911:1 951:1 1072:2 1079:1 1101:1 1102:1 1170:1 1173:3 1176:1 1187:1 1193:1 1225:2 1232:3 1257:2 1265:6 1404:2 1413:1 1455:1 1457:1 1486:2 1566:1 1573:1 1623:1 1625:1 1667:1 1703:1 1756:1 1811:1 
1 7:2 9:1 13:2 15:2 16:1 29:1 30:1 31:1 49:2 57:1 66:1 67:2 69:1 71:1 79:1 119:1 120:1 156:2 197:1 199:1 210:1 245:1 259:1 270:1 292:1 477:1 587:2 659:1 832:1 978:2 1117:1 1395:1 1486:2 1731:2 1869:1 
1 1:8 2:7 3:1 5:1 6:4 7:1 8:4 9:1 10:1 11:2 13:1 21:1 22:1 26:1 40:3 46:1 49:1 64:1 110:1 156:1 175:1 238:4 251:1 367:1 386:1 406:1 421:2 736:1 1101:1 1170:1 1429:1 1486:1 1731:1 1809:1 
1 7:1 8:1 9:1 12:2 13:1 23:3 30:1 54:2 56:1 57:1 66:1 67:1 69:2 71:1 77:1 79:1 130:1 132:1 156:1 157:1 182:1 197:1 216:1 223:1 238:1 403:1 450:1 659:1 969:1 978:1 1123:1 1242:1 1456:1 1486:1 1791:1 
1 8:2 10:4 12:1 13:1 15:1 22:2 30:2 39:2 54:1 64:4 69:3 79:2 85:1 119:1 132:1 142:1 156:1 167:1 217:1 238:2 247:1 250:1 251:2 252:1 264:1 305:1 322:1 587:1 615:1 805:1 994:1 1101:4 1123:1 1266:1 1287:2 1314:1 1364:1 1486:1 1554:1 1927:1 
1 7:1 8:1 9:1 10:2 13:4 15:1 39:3 46:1 55:1 59:1 61:1 64:2 66:1 69:1 104:1 107:1 119:1 156:4 194:1 214:1 238:1 321:1 333:1 351:1 365:1 386:1 453:1 503:1 520:1 587:1 610:1 702:1 1101:2 1287:3 1486:4 1538:1 1616:1 1888:1 1918:1 
1 9:1 10:2 13:1 29:2 41:1 46:1 48:1 50:1 56:3 64:2 69:2 75:1 83:1 90:1 97:1 112:1 142:1 154:3 156:1 157:3 190:1 202:2 219:1 230:1 271:1 288:1 291:1 292:2 308:1 333:1 363:1 386:1 414:1 424:1 601:2 615:1 877:1 938:1 951:1 1089:1 1101:2 1133:1 1486:1 1589:1 1592:1 1703:1 1715:1 1843:1 1882:1 1888:1 
1 7:3 10:1 13:1 15:1 23:1 29:2 33:2 41:1 43:3 49:1 55:1 64:1 69:1 71:2 72:1 78:1 87:3 93:1 130:1 132:1 151:1 156:1 166:2 203:1 206:1 240:1 285:1 292:2 310:1 336:1 375:2 424:1 587:1 614:1 659:2 987:1 1101:1 1123:1 1156:1 1317:1 1456:1 1486:1 1538:1 1709:1 1731:1 1795:1 1920:1 
1 4:2 5:3 7:3 8:1 9:2 10:2 13:2 41:1 46:1 58:2 62:1 64:2 67:1 69:1 156:2 238:1 243:1 386:1 424:1 599:2 978:1 1101:2 1120:1 1272:1 1486:2 1544:1 1595:1 1833:1 
1 1:6 2:6 7:4 15:1 21:6 33:3 73:3 150:1 293:3 375:3 587:1 697:1 757:1 
1 8:1 9:1 10:2 13:3 15:1 22:1 33:3 47:2 57:1 58:2 64:2 65:1 69:1 112:1 156:3 189:1 192:1 197:1 238:1 251:1 321:1 375:3 486:1 487:1 587:1 811:1 845:1 950:1 1101:2 1115:1 1117:1 1395:1 1486:3 
1 1:1 2:1 3:3 4:2 5:3 6:1 7:2 8:1 9:1 10:1 18:1 19:1 23:1 38:1 42:1 64:1 67:1 71:1 75:1 77:1 81:1 94:1 151:1 182:1 205:2 234:1 238:1 284:1 659:1 742:1 881:1 978:1 987:1 1082:1 1101:1 1440:1 1843:1 
1 7:1 8:3 13:1 28:1 29:1 39:2 83:1 90:1 130:1 156:1 198:1 238:3 292:1 414:1 1133:1 1287:2 1456:1 1486:1 
1 7:2 10:1 23:1 29:1 33:1 42:1 49:1 56:1 64:1 66:1 69:1 71:1 76:1 105:1 140:2 154:1 157:1 270:1 292:1 375:1 427:1 599:1 659:1 705:1 742:1 853:1 1101:1 1110:1 1718:1 1731:1 1775:2 
1 1:8 2:8 7:3 9:8 15:2 21:8 62:1 73:3 123:1 170:1 231:2 293:1 362:2 475:1 587:2 593:2 697:1 809:1 891:1 984:1 1138:1 1553:3 1623:1 1699:1 1710:3 1862:1 
1 1:19 2:19 7:2 9:5 10:1 21:19 22:1 31:4 46:1 61:1 62:1 64:1 73:11 74:1 84:1 102:1 123:3 150:1 180:4 195:1 199:4 212:1 231:6 251:1 275:1 293:11 386:1 400:3 553:4 736:3 784:1 839:11 874:7 891:1 907:1 984:3 1079:1 1094:1 1101:1 1183:3 1497:1 1517:1 1553:6 1566:1 1710:6 1729:1 1759:1 1862:3 
1 1:5 2:4 3:1 6:4 7:5 8:3 9:4 10:3 11:1 13:3 18:2 21:2 22:2 26:1 28:2 42:1 46:1 51:1 62:1 63:1 64:3 65:1 66:1 71:1 83:1 91:2 99:1 110:1 119:1 136:1 151:1 156:3 178:1 179:1 180:1 185:1 193:1 210:2 220:1 228:1 231:1 238:3 251:2 255:1 261:1 367:1 386:1 421:1 475:1 484:1 487:1 599:1 622:1 639:2 654:3 659:1 742:1 793:1 881:2 987:1 999:1 1060:1 1101:3 1114:1 1133:1 1170:1 1304:1 1486:3 1634:3 1718:1 1719:1 1741:1 1820:1 1892:1 
1 7:2 8:2 13:5 23:1 41:1 69:1 70:1 72:1 91:1 92:1 101:1 105:1 118:1 122:1 123:1 126:1 129:2 143:1 156:5 160:1 180:1 238:2 265:1 288:1 298:1 330:1 344:1 424:1 447:1 599:1 639:1 641:1 651:1 698:1 849:1 858:1 1120:1 1164:1 1464:1 1486:5 1651:1 1709:1 1959:2 
1 7:8 10:2 15:1 18:1 47:1 48:2 49:1 56:1 64:2 69:1 105:4 120:1 130:1 157:1 170:1 227:1 315:1 422:1 428:1 537:1 587:1 617:1 881:1 1101:2 1387:2 1456:1 1557:2 1592:2 1623:1 1731:1 1840:1 
1 7:7 8:2 9:1 10:4 15:1 22:1 23:1 30:1 31:1 33:1 41:2 42:1 48:1 61:1 64:4 67:1 69:2 70:1 73:2 79:1 105:1 199:1 200:1 227:1 238:2 251:1 272:1 305:1 375:1 418:1 424:2 501:1 530:2 555:1 587:1 630:2 635:1 742:1 918:1 978:1 1101:4 1164:1 1275:1 1592:1 1911:1 
1 1:2 2:2 7:1 8:1 9:1 10:2 12:1 13:1 15:2 21:2 22:1 31:1 42:1 54:1 56:1 61:1 62:1 64:2 86:1 105:1 133:1 155:1 156:1 157:1 165:1 199:1 224:1 225:1 238:1 251:1 262:1 286:1 431:1 587:2 742:1 868:1 912:1 922:1 1101:2 1162:1 1486:1 1579:1 
1 4:1 5:1 7:2 9:1 10:1 13:2 15:1 22:1 33:3 39:1 48:1 58:4 62:1 64:1 93:1 151:1 156:2 170:1 251:1 375:3 587:1 614:1 769:1 987:1 1101:1 1287:1 1300:1 1486:2 1592:1 1623:1 1655:1 
1 1:9 2:8 3:2 4:1 5:2 6:5 7:7 8:4 9:3 10:2 11:6 13:10 15:2 18:3 21:1 22:7 26:1 39:3 41:3 45:1 47:1 59:1 62:1 63:1 64:2 70:1 74:2 91:2 110:1 119:1 136:1 156:10 159:1 216:2 238:4 251:7 256:4 257:2 303:1 367:1 390:1 421:6 424:3 474:1 486:1 503:1 520:1 587:2 635:1 639:2 725:1 771:1 873:1 881:3 999:1 1101:2 1130:1 1132:1 1152:1 1154:1 1164:1 1170:1 1287:3 1309:1 1335:1 1345:1 1353:1 1368:1 1422:1 1452:1 1486:10 1519:2 1605:1 1616:1 1638:1 1665:1 1724:1 1759:2 1832:1 
1 1:2 2:2 4:1 7:5 8:1 10:3 13:4 15:2 21:2 22:1 23:1 29:2 31:2 33:3 39:6 41:1 46:1 59:1 61:1 64:3 65:2 70:1 73:3 76:1 82:1 83:1 84:1 102:1 119:1 140:1 144:1 156:4 164:1 173:1 184:1 190:1 199:2 220:1 238:1 251:1 273:1 284:1 286:1 292:2 344:1 350:1 365:1 375:3 383:1 386:1 398:1 414:1 424:1 427:1 462:1 487:2 520:1 587:2 616:1 671:1 755:1 763:1 887:1 1079:1 1101:3 1133:1 1147:1 1164:1 1287:6 1340:1 1440:1 1486:4 1566:1 1589:1 1616:1 1727:1 1775:1 1819:1 1834:1 
1 1:48 2:48 6:48 7:48 8:14 9:202 10:8 13:20 15:18 18:15 21:48 22:2 23:1 28:1 33:3 41:3 42:1 46:1 64:8 68:1 84:3 85:1 91:3 99:6 100:9 156:20 164:1 177:1 193:1 195:9 210:1 222:1 225:1 238:14 247:1 251:2 264:1 273:1 311:1 324:1 369:4 375:3 378:1 386:1 391:1 424:3 471:2 486:1 489:2 494:1 503:4 524:3 527:4 543:2 568:1 585:1 587:18 603:2 636:1 639:3 649:1 698:1 715:1 738:1 742:1 801:10 814:1 821:1 841:1 855:3 858:1 868:1 871:9 874:2 881:15 908:2 957:1 972:1 999:2 1009:1 1029:1 1054:5 1066:2 1079:3 1082:1 1101:8 1147:1 1245:1 1329:1 1351:7 1353:1 1454:1 1486:20 1536:1 1605:3 1648:1 1719:6 1764:2 1786:1 1832:3 1862:1 1886:1 1953:1 
1 1:6 2:7 3:2 4:2 5:1 6:5 7:1 8:1 9:1 15:2 18:1 21:3 23:1 26:1 28:2 30:1 40:2 46:1 49:1 55:1 57:1 59:1 67:2 76:1 79:1 85:1 122:1 187:1 197:1 204:1 215:1 221:1 238:1 264:1 305:1 374:2 386:1 427:1 520:1 557:1 587:2 861:1 875:1 881:1 978:2 1538:1 1557:1 1616:1 1651:1 1731:1 
1 7:1 8:1 10:2 18:1 31:1 39:1 43:1 44:2 64:2 69:1 74:1 76:1 87:1 133:1 199:1 220:1 235:1 236:1 238:1 363:1 412:1 426:1 427:1 501:1 627:1 881:1 966:1 1035:1 1101:2 1102:2 1287:1 1321:1 1759:1 
1 7:1 10:2 13:1 18:1 22:1 39:2 41:1 42:1 51:1 64:2 66:1 69:2 70:1 77:1 101:2 107:1 110:1 119:1 156:1 178:1 180:1 182:1 189:1 202:1 249:1 251:1 265:1 301:1 348:1 424:1 447:2 481:1 482:1 601:1 742:1 880:1 881:1 1101:2 1164:1 1170:1 1287:2 1486:1 1728:1 
1 7:8 8:2 13:1 15:2 31:1 41:1 44:3 57:1 66:1 75:1 96:1 152:2 156:1 162:1 197:1 199:1 201:1 216:1 232:1 238:2 261:1 305:1 424:1 587:2 1068:1 1102:3 1486:1 1843:1 1989:1 
1 9:1 10:5 22:1 23:1 31:1 41:2 58:1 64:5 65:1 69:1 75:1 168:1 169:1 199:1 251:1 424:2 487:1 644:1 892:1 1023:1 1101:5 1425:1 1843:1 
1 7:1 9:1 10:1 15:2 23:1 31:1 33:1 48:1 51:1 55:1 56:1 64:1 69:1 70:1 88:1 92:1 105:1 132:1 138:1 148:1 157:1 178:1 187:1 199:1 221:1 232:1 244:1 261:1 274:1 309:1 367:1 375:1 419:1 551:1 586:1 587:2 837:1 849:1 1101:1 1110:1 1123:1 1164:1 1538:1 1573:1 1592:1 1740:1 1882:1 1996:1 
1 7:2 10:5 13:2 18:1 22:1 23:3 30:1 41:1 62:1 64:5 69:2 79:1 85:1 106:1 156:2 168:1 169:1 177:1 185:1 251:1 264:1 424:1 582:1 799:1 821:1 837:1 881:1 1101:5 1323:1 1348:1 1486:2 1706:1 1846:1 
1 9:3 13:3 15:1 30:1 31:1 39:2 44:1 56:3 57:1 67:3 69:1 77:1 79:1 105:1 112:1 133:1 154:1 156:3 157:3 182:1 191:1 197:1 199:1 230:1 241:1 246:1 358:1 452:1 478:1 587:1 599:1 619:1 782:1 880:1 961:1 978:3 1102:1 1287:2 1486:3 1703:1 
1 7:4 8:1 10:3 13:1 23:2 29:1 30:1 39:1 50:1 57:1 58:1 59:1 63:1 64:3 69:1 79:1 90:1 126:1 136:1 156:1 162:2 163:1 197:1 198:1 202:1 238:1 246:1 271:1 292:1 520:1 601:1 610:1 676:1 1017:1 1101:3 1112:1 1254:1 1287:1 1486:1 1616:1 1768:1 
1 7:5 8:2 9:2 10:2 12:1 13:1 15:1 18:1 22:1 23:3 31:2 44:1 47:1 54:1 64:2 69:2 91:1 126:2 130:1 151:1 156:1 165:1 177:1 199:2 229:1 237:1 238:2 247:1 251:1 441:1 587:1 639:1 821:1 881:1 987:1 1101:2 1102:1 1456:1 1486:1 1553:1 1649:1 1710:1 1868:1 
1 7:1 8:3 9:3 13:1 15:1 18:1 22:1 23:2 30:1 33:2 47:1 48:2 51:1 56:2 62:1 69:1 76:1 79:1 105:1 123:1 144:1 156:1 157:2 160:1 178:1 184:1 238:3 251:1 262:1 331:1 375:2 390:1 427:1 432:1 496:1 587:1 881:1 1193:1 1294:1 1486:1 1592:2 1609:2 
1 7:1 8:2 9:1 13:3 18:1 30:1 39:1 41:1 49:1 58:1 69:2 79:1 105:1 156:3 162:1 170:1 181:1 212:1 234:1 238:2 359:1 424:1 462:1 721:1 881:1 1043:1 1166:1 1287:1 1486:3 1623:1 1731:1 
1 1:2 2:1 3:1 5:1 6:1 7:1 8:5 10:1 22:2 23:1 26:1 33:1 39:1 46:1 48:1 63:1 64:1 91:1 99:1 136:1 152:1 164:1 200:1 238:5 251:2 273:1 375:1 386:1 399:1 459:1 573:1 639:1 875:1 939:1 1087:1 1101:1 1188:1 1262:1 1287:1 1316:1 1592:1 1719:1 1811:1 1911:1 
1 7:1 8:3 9:1 10:1 13:1 15:1 29:2 51:1 55:1 64:1 66:1 69:1 84:1 114:1 116:1 126:1 128:1 148:1 149:1 156:1 164:1 178:1 180:1 183:1 203:1 235:1 238:3 252:1 273:1 292:2 334:1 344:1 472:1 587:1 645:1 1079:1 1101:1 1169:1 1317:1 1328:1 1486:1 1538:1 1573:1 1971:1 
1 8:1 9:2 12:1 21:1 22:1 23:1 31:1 41:1 51:1 54:1 68:1 69:1 84:1 93:1 178:1 179:1 199:1 238:1 251:1 283:1 424:1 556:1 614:1 959:1 1079:1 1533:1 1741:1 
1 4:1 7:1 8:1 10:2 13:1 23:1 29:1 30:2 33:1 41:1 46:1 56:1 61:1 64:2 69:1 70:1 78:3 79:2 110:1 126:1 156:1 157:1 192:1 223:1 238:1 240:3 259:1 292:1 296:1 363:1 375:1 386:1 424:1 667:1 878:1 1101:2 1115:1 1164:1 1166:1 1170:1 1281:1 1486:1 
1 30:1 33:1 44:1 46:1 79:1 88:1 116:1 119:1 165:1 209:1 274:1 323:1 334:1 359:1 375:1 386:1 462:1 617:1 655:1 805:1 1102:1 
0.7291062526911425 5:1 7:7 8:2 9:4 13:2 15:1 18:1 29:1 30:2 44:2 47:1 57:1 60:1 78:1 79:2 101:1 105:1 156:2 165:1 166:1 197:1 212:1 216:2 232:1 238:2 240:1 292:1 300:1 315:1 335:1 344:2 363:1 447:1 587:1 860:1 881:1 1102:2 1486:2 1716:1 
1 7:2 8:2 9:2 10:2 13:1 15:1 18:1 22:2 31:2 42:1 47:1 48:1 60:1 61:1 62:1 64:2 69:1 77:1 83:1 107:1 156:1 182:1 199:2 200:1 238:2 241:1 251:2 259:1 283:1 300:1 357:1 460:1 587:1 619:1 742:1 881:1 1036:1 1101:2 1133:1 1276:1 1300:1 1415:1 1486:1 1533:1 1592:1 1702:1 1778:1 1911:1 
1 7:3 8:1 9:1 13:2 15:1 23:5 31:1 61:1 63:2 69:1 84:1 91:2 136:2 156:2 191:2 199:1 207:1 210:1 238:1 250:2 265:1 302:1 358:2 359:1 587:1 639:2 813:1 1019:1 1079:1 1486:2 1633:1 
1 7:1 8:2 9:1 12:2 13:3 23:1 30:3 33:1 51:1 54:2 56:2 66:1 69:1 79:3 83:1 96:1 102:1 111:1 133:1 142:1 154:1 156:3 157:2 159:1 178:1 207:1 228:1 238:2 248:1 329:1 340:1 363:1 375:1 404:1 434:1 615:1 638:1 966:1 1026:1 1095:1 1133:1 1486:3 1566:1 1638:1 1667:1 1804:1 1975:1 
1 7:1 8:3 10:2 15:2 18:1 22:2 23:1 33:1 41:1 42:1 61:1 62:1 64:2 69:1 76:1 105:2 111:1 114:1 118:1 122:1 160:1 198:1 238:3 251:2 298:1 367:1 375:1 424:1 427:1 442:1 580:1 583:1 587:2 596:1 679:1 742:1 881:1 1058:1 1101:2 1415:1 1651:1 1804:1 
1 1:28 2:28 6:28 9:2 21:28 28:1 123:2 150:2 205:2 231:2 275:2 338:2 398:2 475:2 489:2 531:2 575:2 593:2 697:1 727:2 771:1 908:1 967:2 1056:2 1066:2 1082:2 1142:2 1245:2 1579:11 1605:2 1832:2 
1 7:1 8:1 12:3 13:2 15:1 23:2 54:3 58:1 61:1 69:1 83:1 120:1 156:2 238:1 241:1 246:1 404:1 500:1 566:1 587:1 619:1 627:1 1133:1 1486:2 
1 7:1 10:1 13:2 15:2 29:1 39:1 64:1 90:1 92:1 97:1 128:1 130:1 156:2 292:1 587:2 849:1 923:1 951:1 1101:1 1287:1 1387:1 1430:1 1456:1 1486:2 
1 4:1 5:1 7:2 9:2 10:1 13:2 15:3 22:1 29:1 30:1 31:1 33:1 44:1 46:1 50:1 56:2 64:1 65:1 69:1 71:1 79:1 84:1 90:1 96:1 122:1 134:1 142:1 143:1 156:2 157:2 162:1 185:1 199:1 207:1 239:1 251:1 253:1 259:1 271:1 282:1 292:1 308:1 312:1 375:1 386:1 408:1 487:1 587:3 594:1 615:1 659:1 1079:1 1101:1 1102:1 1151:1 1275:1 1464:1 1486:2 1651:1 1991:1 
1 4:1 5:1 13:1 85:1 152:1 156:1 264:1 478:1 1089:1 1486:1 
1 1:3 2:3 3:2 4:1 5:2 7:1 8:1 21:2 26:1 33:2 36:1 37:1 41:1 42:1 46:1 73:1 148:1 238:1 338:1 375:2 386:1 424:1 742:1 809:1 1135:1 1157:1 1573:1 1579:1 
1 7:1 9:4 13:3 29:2 43:5 55:2 59:2 69:1 84:2 87:5 97:1 122:1 156:3 175:1 187:2 239:1 292:2 417:4 464:1 520:2 951:1 1079:2 1486:3 1538:2 1616:2 1651:1 1839:4 
1 5:1 7:1 8:1 9:3 13:1 23:3 28:1 57:1 61:1 69:2 76:1 85:1 117:1 134:1 156:1 186:2 197:1 223:1 238:1 264:1 308:2 309:1 427:1 669:1 702:1 739:1 837:1 1024:1 1119:1 1486:1 
1 4:1 5:1 7:2 8:3 10:1 15:1 18:3 44:1 47:1 56:1 58:2 62:1 64:1 69:1 70:1 99:1 100:1 157:1 216:1 238:3 246:1 253:1 348:1 585:1 587:1 840:1 869:1 871:1 881:3 1101:1 1102:1 1164:1 1276:1 1412:1 1719:1 
1 7:2 8:2 9:3 10:3 13:1 15:2 23:2 30:1 46:1 51:1 57:1 64:3 69:1 79:1 100:1 130:1 156:1 165:1 178:1 188:1 197:1 238:2 268:2 326:1 386:1 450:1 587:2 871:1 913:1 1101:3 1300:2 1446:1 1456:1 1486:1 1817:1 
1 7:2 8:1 9:1 10:1 15:1 23:1 30:1 64:1 79:1 83:1 99:1 110:1 126:1 238:1 587:1 888:1 1101:1 1133:1 1170:1 1719:1 
1 7:2 8:1 9:2 15:3 18:1 22:1 29:1 30:1 31:1 48:1 49:1 51:1 56:1 66:1 75:1 79:1 114:1 157:1 163:1 178:1 199:1 238:1 244:1 251:1 262:1 292:1 305:1 587:3 663:1 757:1 862:1 881:1 932:1 1592:1 1731:1 1843:1 
1 7:3 10:2 13:1 18:2 22:1 23:2 30:2 39:1 46:3 47:1 56:1 58:1 64:2 69:1 75:1 76:1 79:2 138:1 148:1 156:1 157:1 175:1 227:1 231:1 251:1 269:1 303:1 385:1 386:3 427:1 436:1 523:1 881:2 1101:2 1120:1 1287:1 1486:1 1554:1 1573:1 1843:1 1996:1 
1 1:5 2:4 3:1 5:1 6:3 7:1 8:3 9:1 10:1 11:2 13:1 21:1 22:2 26:1 41:1 64:1 99:1 110:1 156:1 175:1 238:3 251:2 367:1 421:2 424:1 654:1 1101:1 1170:1 1486:1 1719:1 1809:1 
0.4991637375100299 7:2 9:1 10:1 15:2 22:1 23:2 47:1 55:1 62:1 64:1 69:1 73:1 100:1 105:1 112:1 118:1 130:1 177:1 183:1 185:1 190:1 251:1 298:1 345:1 449:1 489:1 530:1 587:2 821:1 840:1 871:1 1101:1 1328:1 1368:1 1456:1 1538:1 1589:1 1891:3 
1 7:2 8:1 9:5 12:1 13:1 16:3 23:1 29:1 30:4 39:1 41:1 44:1 48:2 54:1 56:1 63:4 65:1 66:1 69:1 79:4 97:1 105:1 136:4 155:1 156:1 157:1 181:3 189:1 201:1 207:1 227:1 238:1 278:1 292:1 424:1 431:1 487:1 667:2 698:1 906:1 908:1 951:1 1102:1 1103:2 1236:1 1287:1 1461:1 1486:1 1592:2 1645:1 1864:1 1989:1 
1 7:1 29:1 39:1 48:1 50:1 62:1 69:1 71:2 74:4 78:2 85:1 132:2 188:1 194:1 240:2 250:2 264:1 271:1 292:1 363:1 585:1 659:2 932:1 1123:2 1287:1 1592:1 1759:4 1894:1 1910:1 1918:1 
1 7:2 8:4 9:2 10:3 13:5 14:2 15:2 18:1 22:1 23:1 29:1 33:2 48:1 60:2 64:3 82:1 83:1 91:2 154:1 156:5 200:1 238:4 251:1 292:1 300:2 373:1 375:2 587:2 639:2 721:1 881:1 994:1 1101:3 1133:1 1154:1 1486:5 1592:1 1794:1 1911:1 
1 7:4 8:1 10:1 12:5 13:3 18:1 23:2 29:1 33:1 44:1 49:1 54:5 57:1 59:2 64:1 69:2 71:1 72:1 97:1 144:1 154:1 156:3 184:1 186:1 191:3 197:1 238:1 249:1 292:1 358:3 375:1 409:1 479:2 520:2 600:1 659:1 683:1 881:1 951:1 1101:1 1102:1 1486:3 1616:2 1678:1 1709:1 1731:1 1778:1 
1 1:2 2:2 6:1 7:2 10:1 28:2 29:1 40:2 47:1 50:1 64:1 77:1 107:1 182:1 227:1 231:1 236:1 255:1 271:1 289:1 292:1 308:1 510:1 525:1 783:1 1060:1 1101:1 1321:1 
0.2851454511443686 5:1 7:1 9:6 10:2 13:2 29:1 30:1 39:1 41:1 47:1 64:2 69:1 78:2 79:1 85:1 89:1 111:5 130:1 156:2 240:2 264:1 292:1 311:1 424:1 667:1 766:1 941:1 1101:2 1287:1 1456:1 1486:2 1804:5 
1 1:8 2:5 3:5 4:1 5:5 6:4 7:5 8:8 9:6 10:1 11:2 13:1 14:1 15:2 18:2 26:2 28:2 29:1 33:1 34:1 40:2 42:1 44:2 46:3 49:1 59:1 64:1 69:1 76:1 96:1 110:1 116:1 120:1 129:1 149:1 156:1 224:1 237:1 238:8 242:1 243:1 247:1 258:2 272:1 288:1 292:1 303:1 304:1 334:1 375:1 386:3 420:1 421:2 427:1 438:1 497:1 502:1 517:2 520:1 587:2 742:1 775:1 881:2 1082:1 1101:1 1102:2 1148:1 1170:1 1177:1 1356:1 1486:1 1565:1 1595:1 1616:1 1718:1 1731:1 1959:1 1971:1 
1 7:2 9:1 10:3 13:1 15:2 22:1 23:1 30:1 45:1 63:1 64:3 67:4 69:1 72:1 75:1 77:1 79:1 126:1 136:1 142:2 156:1 182:1 216:2 225:1 251:1 370:1 376:1 587:2 615:2 640:1 868:1 978:4 1101:3 1486:1 1590:1 1709:1 1843:1 
1 4:1 5:1 7:3 8:1 9:2 10:2 15:2 22:2 23:3 31:1 46:1 49:1 55:1 58:1 64:2 69:1 88:1 102:1 105:2 118:1 132:1 135:1 187:1 199:1 238:1 249:1 251:2 274:1 287:1 298:1 386:1 432:1 450:1 454:1 587:2 625:1 630:1 1051:1 1058:1 1061:1 1101:2 1123:1 1434:1 1538:1 1566:1 1725:1 1731:1 
1 7:2 8:2 9:1 10:1 12:2 13:3 18:1 23:1 29:1 30:1 41:1 47:2 49:1 54:2 57:1 62:1 63:1 64:1 66:1 79:1 83:1 88:1 98:1 116:1 118:1 128:1 136:1 156:3 197:1 238:2 274:1 292:1 298:1 328:1 334:1 424:1 881:1 1015:1 1061:1 1101:1 1133:1 1371:1 1486:3 1728:1 1731:1 1893:1 
1 2:1 7:5 8:1 9:1 23:3 33:1 67:3 69:1 77:1 88:1 130:1 132:1 182:1 238:1 246:1 250:1 274:1 375:1 403:1 450:1 969:1 978:3 1123:1 1242:1 1456:1 1701:1 1791:1 
1 7:1 10:1 13:3 15:3 18:1 29:2 33:2 57:1 58:1 61:2 64:1 66:1 69:1 74:1 101:1 156:3 159:1 190:1 197:1 239:1 262:2 266:1 292:2 375:2 447:1 587:3 618:1 635:1 881:1 1101:1 1486:3 1589:1 1638:1 1759:1 1774:1 
1 7:3 8:2 9:2 13:1 15:3 22:1 23:1 41:1 44:1 62:1 67:1 69:1 130:1 140:2 156:1 188:1 207:1 238:2 251:1 256:1 307:1 347:1 418:1 424:1 456:1 517:1 566:1 587:3 609:1 739:1 747:1 768:1 771:1 793:1 908:1 978:1 1102:1 1456:1 1486:1 1775:2 
1 4:1 5:1 7:4 9:2 10:2 22:2 23:1 29:1 43:2 46:2 51:1 64:2 68:2 69:1 87:2 93:1 106:1 107:1 110:2 151:1 178:1 188:1 210:1 227:1 229:1 251:2 292:1 308:1 386:2 454:1 472:2 614:1 987:1 1101:2 1170:2 1649:1 1846:1 
0.2316064027661229 7:2 9:1 10:2 13:4 15:3 23:1 29:1 30:2 44:1 48:1 56:2 64:2 69:2 71:1 79:2 83:1 96:1 97:1 122:2 148:1 154:1 156:4 157:2 163:1 186:1 201:1 206:1 207:1 249:1 253:1 292:1 312:2 523:1 587:3 659:1 880:1 951:1 1101:2 1102:1 1133:1 1151:2 1486:4 1557:1 1573:1 1592:1 1651:2 1787:1 1989:1 
1 7:1 9:1 10:1 13:2 22:1 23:2 33:1 46:1 64:1 68:1 69:1 156:2 231:1 251:1 375:1 386:1 489:1 531:1 1087:1 1101:1 1365:1 1486:2 1793:1 
1 5:3 7:1 13:2 15:2 23:2 28:2 31:1 33:1 42:1 47:1 49:2 55:1 67:1 69:2 71:1 77:3 132:1 138:1 156:2 160:1 175:2 182:3 199:1 203:1 207:1 226:2 246:1 311:1 319:1 375:1 453:2 551:1 587:2 659:1 741:1 742:1 781:1 864:1 978:1 1123:1 1317:1 1486:2 1538:1 1731:2 1996:1 
1 7:2 8:2 9:1 10:1 13:3 22:2 23:4 33:1 42:1 43:1 51:1 55:1 57:1 63:1 64:1 68:1 69:1 84:1 87:1 105:1 111:1 136:1 156:3 178:1 197:1 219:1 238:2 251:2 344:1 375:1 442:1 556:1 590:1 742:1 794:1 1061:1 1079:1 1101:1 1434:1 1486:3 1538:1 1545:1 1724:1 1804:1 
1 7:2 9:2 10:2 13:1 15:3 23:1 30:2 31:1 44:1 47:2 61:1 64:2 69:1 79:2 98:1 122:1 132:1 156:1 192:1 199:1 306:1 587:3 682:1 852:1 1101:2 1102:1 1115:1 1123:1 1486:1 1651:1 
1 7:1 8:2 9:1 10:2 13:4 30:1 41:1 46:1 47:1 56:1 58:1 64:2 66:1 69:1 79:1 97:1 106:1 114:1 126:1 156:4 157:1 189:1 238:2 376:2 386:1 424:1 534:1 599:1 938:2 951:1 1101:2 1288:1 1486:4 1846:1 
1 4:1 5:2 7:2 8:1 9:2 10:2 13:1 15:2 23:1 30:1 39:1 41:1 44:2 48:1 61:1 63:3 64:2 66:1 69:2 79:1 128:1 130:1 136:3 156:1 163:1 217:1 238:1 253:1 414:1 424:1 587:2 1062:1 1101:2 1102:2 1287:1 1456:1 1486:1 1592:1 
1 7:3 8:2 9:3 10:3 13:1 15:3 18:2 23:1 30:2 41:1 47:1 51:1 64:3 66:1 75:1 79:2 111:1 152:1 156:1 178:1 196:1 198:1 216:1 238:2 280:1 367:1 424:1 587:3 591:1 706:1 793:1 881:2 1101:3 1438:1 1486:1 1531:1 1804:1 1843:1 1883:1 
1 22:1 30:1 42:1 56:1 57:1 74:1 79:1 90:2 97:1 112:1 130:1 157:1 197:1 251:1 261:1 266:1 289:1 319:1 383:1 742:1 769:1 781:1 951:1 1456:1 1759:1 
1 7:1 9:2 13:1 49:1 50:1 59:1 66:2 69:5 71:1 85:1 92:1 156:1 177:1 185:1 226:1 264:1 271:1 285:1 520:1 584:1 659:1 673:1 821:1 849:1 1117:1 1163:1 1395:1 1486:1 1616:1 1731:1 
1 8:2 9:2 10:3 13:2 14:1 30:1 39:1 42:1 50:2 64:3 65:1 69:1 79:1 102:2 156:2 238:2 271:2 487:1 554:2 742:1 1101:3 1163:1 1287:1 1486:2 1505:1 1566:2 1965:1 
1 4:1 5:1 7:3 10:1 12:1 13:2 15:1 18:1 30:1 39:1 48:2 54:1 57:1 61:2 64:1 76:1 79:1 84:1 88:1 129:1 149:1 156:2 160:1 197:1 252:1 255:1 274:1 284:1 427:1 587:1 881:1 1060:1 1079:1 1101:1 1287:1 1418:1 1440:1 1486:2 1592:2 1896:1 1959:1 1971:1 
0.006507423448066551 7:2 9:2 10:1 13:2 29:2 33:1 50:2 64:1 66:1 84:1 90:1 96:1 101:1 116:1 156:2 162:1 170:2 219:1 271:2 279:1 292:2 308:2 321:1 334:1 375:1 434:1 447:1 579:1 585:1 1079:1 1101:1 1291:1 1486:2 1623:2 1652:1 
1 7:3 8:3 9:1 13:1 30:1 31:1 47:3 48:1 60:1 79:1 107:1 119:1 126:1 150:1 156:1 164:1 191:1 199:1 225:1 227:1 238:3 255:1 273:1 294:1 300:1 330:1 331:1 358:1 436:1 868:1 971:1 1060:1 1486:1 1592:1 1715:1 
0.5187952726774213 13:2 15:1 39:4 56:1 63:3 67:1 69:1 77:1 110:1 136:3 156:2 157:1 182:1 207:1 225:1 333:1 443:1 587:1 751:1 868:1 978:1 1170:1 1242:2 1287:4 1466:1 1486:2 1888:1 
0.4099787829214276 7:2 8:1 10:3 13:1 15:2 22:1 47:2 49:1 50:2 59:1 64:3 65:1 67:2 76:1 92:1 97:1 102:1 115:1 130:1 138:1 142:1 156:1 160:1 193:1 238:1 251:1 271:2 427:1 450:1 487:1 517:1 520:1 537:1 587:2 615:1 699:1 849:1 951:1 978:2 1101:3 1456:1 1486:1 1560:1 1566:1 1616:1 1731:1 1996:1 
1 7:1 9:3 10:5 13:1 18:1 22:3 23:1 30:1 33:1 41:1 48:1 51:1 64:5 69:1 72:1 79:1 82:1 156:1 162:1 178:1 196:1 224:1 234:1 251:3 367:1 375:1 400:1 424:1 599:1 858:1 881:1 955:1 1101:5 1141:2 1438:1 1486:1 1592:1 1618:1 1709:1 
1 13:2 15:1 30:1 43:1 44:1 59:1 67:1 70:1 71:1 77:1 79:1 87:1 155:1 156:2 182:1 198:1 261:2 336:1 429:1 431:1 520:1 587:1 659:1 673:1 676:1 978:1 1102:1 1112:1 1164:1 1485:1 1486:2 1616:1 
1 2:1 4:1 5:1 7:5 9:2 10:2 18:1 22:1 23:1 46:1 49:1 50:3 57:1 58:1 60:1 64:2 69:1 97:1 104:1 142:1 151:1 179:1 197:1 205:1 223:1 241:1 248:1 249:1 251:1 259:1 271:3 300:1 328:1 351:1 354:1 386:1 450:1 509:1 517:1 615:1 619:1 881:1 951:1 987:1 1101:2 1291:1 1678:1 1731:1 1741:1 1951:1 1975:1 
1 1:7 2:7 3:4 4:3 5:4 6:1 10:2 13:1 15:5 19:1 21:4 24:1 25:1 35:2 38:1 61:1 64:2 68:1 72:1 78:1 86:1 103:1 107:1 123:1 148:1 156:1 240:1 367:1 453:1 587:5 922:1 1101:2 1286:2 1486:1 1573:1 1709:1 1891:1 1953:1 
1 7:2 9:4 10:1 22:3 23:1 41:1 46:1 57:1 64:1 72:1 117:1 197:1 251:3 386:1 424:1 677:1 1101:1 1119:1 1365:1 1709:1 
1 7:1 8:2 9:4 10:1 13:1 22:1 30:2 33:1 39:1 43:1 48:2 59:1 64:1 69:1 78:2 79:2 83:1 87:1 93:1 102:2 145:1 156:1 202:1 238:2 240:2 251:1 252:1 317:2 319:1 375:1 520:1 601:1 614:1 769:1 781:1 1101:1 1133:1 1287:1 1412:1 1486:1 1566:2 1592:2 1616:1 1949:1 1987:1 
1 7:3 8:1 9:1 10:4 15:1 22:1 23:1 30:1 33:1 39:1 41:1 50:2 55:1 56:1 62:1 64:4 65:1 66:1 79:1 83:1 102:1 104:1 132:1 139:2 157:1 163:1 238:1 251:1 257:1 271:2 279:1 345:2 351:1 375:1 424:1 487:1 519:1 569:1 587:1 763:1 1101:4 1123:1 1133:1 1280:2 1287:1 1519:1 1538:1 1566:1 
1 7:3 10:1 13:4 15:1 18:1 30:1 31:1 46:2 64:1 66:1 67:1 68:2 69:1 78:1 79:1 97:1 146:1 151:1 156:4 189:1 199:1 240:1 244:1 386:2 587:1 613:1 881:1 941:1 951:1 978:1 987:1 1101:1 1120:1 1227:1 1385:1 1486:4 1663:1 1774:1 
1 2:2 4:2 5:2 7:6 10:1 22:1 23:4 51:1 63:2 64:1 69:1 72:1 82:1 91:1 136:2 178:1 234:1 251:1 284:1 326:1 373:1 494:1 575:1 639:1 706:1 773:1 1101:1 1172:1 1365:1 1440:1 1709:1 1753:1 1794:1 
1 7:3 8:1 10:5 13:2 15:2 62:1 64:5 66:1 69:1 70:1 112:1 133:1 156:2 217:1 222:1 238:1 261:1 387:1 397:1 587:2 652:1 673:2 1101:5 1129:1 1164:1 1358:1 1486:2 1792:1 
1 13:2 17:1 30:1 31:1 33:1 39:3 57:1 58:3 73:2 79:1 156:2 197:1 199:1 305:1 368:1 373:1 375:1 506:1 530:1 722:1 982:1 990:1 1287:3 1486:2 1794:1 
1 10:1 64:1 69:2 90:1 98:1 151:1 198:1 223:1 987:1 1101:1 
1 1:8 2:5 3:5 4:1 5:5 6:4 7:1 8:6 10:1 11:2 13:2 14:1 15:1 26:2 28:2 30:1 34:1 40:2 41:1 46:2 51:1 59:1 64:1 75:1 79:1 83:1 105:1 122:1 154:1 155:1 156:2 178:1 186:1 224:1 237:1 238:6 258:2 303:1 304:1 386:2 416:1 420:1 421:2 424:1 431:1 438:1 497:1 502:1 520:1 587:1 966:1 1089:1 1101:1 1133:1 1154:1 1486:2 1616:1 1651:1 1843:1 1965:1 
0.5272455378819829 7:2 8:3 9:2 15:2 22:1 23:1 33:1 63:1 84:1 91:3 107:1 119:1 136:1 200:1 238:3 251:1 375:1 529:1 587:2 639:3 744:1 946:1 1079:1 1234:1 1246:1 1911:1 
1 1:8 2:5 3:5 4:1 5:5 6:4 8:5 9:2 10:2 11:2 13:1 14:1 15:4 18:1 26:2 28:2 29:1 30:2 34:1 39:1 40:2 44:1 46:2 49:1 50:1 56:1 59:1 60:1 61:1 62:1 64:2 66:1 69:1 72:1 75:1 78:1 79:2 83:1 90:3 92:1 97:1 116:1 134:1 156:1 157:1 160:1 224:1 237:1 238:5 240:1 244:1 258:2 271:1 283:1 292:1 300:1 301:1 303:1 304:1 319:1 334:1 336:1 344:1 386:2 420:1 421:2 438:1 497:1 502:1 520:1 587:4 692:1 781:1 849:1 881:1 951:1 1101:2 1102:1 1120:1 1133:1 1287:1 1486:1 1533:1 1616:1 1709:1 1731:1 1843:1 
1 7:3 8:1 9:3 10:2 13:1 15:1 18:1 22:1 30:2 39:2 46:1 48:1 55:1 64:2 71:1 72:2 79:2 133:1 156:1 159:1 238:1 251:1 269:1 386:1 587:1 659:1 800:1 881:1 883:1 1101:2 1143:1 1287:2 1344:1 1486:1 1538:1 1592:1 1638:1 1709:2 
1 7:1 8:1 9:5 10:3 13:2 15:1 18:1 41:1 46:2 62:1 64:3 66:1 69:1 129:1 156:2 180:1 238:1 252:1 265:1 342:1 386:2 397:1 424:1 542:1 545:1 563:1 587:1 703:1 881:1 1101:3 1396:1 1486:2 1959:1 
1 7:1 8:1 9:2 10:2 13:3 15:1 18:1 22:1 29:1 33:1 42:1 47:2 64:2 68:1 69:1 70:1 78:1 107:1 112:1 130:1 156:3 164:1 238:1 240:1 241:1 251:1 273:1 292:1 375:1 387:1 587:1 619:1 652:1 731:1 742:1 766:1 881:1 1101:2 1164:1 1196:1 1456:1 1486:3 1993:1 
1 1:8 2:5 3:5 4:1 5:5 6:4 7:7 8:5 11:2 12:2 13:1 14:1 15:1 26:2 28:2 34:1 40:2 44:2 46:2 50:3 51:2 54:2 116:1 149:1 154:1 156:1 178:2 180:1 193:1 224:1 237:1 238:5 258:2 260:1 271:3 303:1 304:1 334:1 348:1 386:2 416:2 420:1 421:2 438:1 497:1 502:1 509:2 587:1 862:2 1102:2 1336:1 1431:1 1486:1 1971:1 
1 9:3 10:1 18:1 23:1 30:1 41:1 42:1 43:1 44:1 64:1 66:1 69:2 77:1 79:1 84:1 87:1 101:1 120:1 129:1 132:1 155:1 182:1 207:2 230:1 235:1 365:1 424:1 431:1 447:1 742:1 806:1 807:1 879:1 881:1 902:1 973:2 1079:1 1101:1 1102:1 1123:1 1703:1 1817:1 1959:1 
1 7:8 8:1 10:2 13:5 15:1 22:1 30:1 33:1 41:1 43:2 48:1 50:1 51:1 56:1 60:1 61:1 64:2 69:1 79:1 87:2 93:1 120:1 143:1 146:1 156:5 157:1 178:1 202:1 238:1 251:1 253:1 271:1 279:1 300:1 310:1 374:1 375:1 424:1 587:1 598:1 601:1 614:1 712:1 1101:2 1143:1 1175:1 1268:1 1334:1 1385:1 1464:1 1486:5 1560:1 1592:1 
1 7:4 8:2 9:3 13:2 15:1 29:1 33:1 39:1 47:2 48:2 60:1 67:1 69:1 71:1 75:1 114:2 117:1 122:1 126:1 143:1 152:1 156:2 238:2 269:1 287:1 292:1 300:1 327:1 375:1 450:1 515:1 587:1 630:1 634:1 659:1 978:1 1089:1 1119:1 1275:1 1287:1 1464:1 1486:2 1546:1 1592:2 1651:1 1843:1 
1 7:6 8:2 9:1 10:4 13:4 14:1 15:2 22:1 23:2 29:2 30:4 33:2 42:2 46:1 47:1 48:1 49:2 50:1 55:2 56:1 57:3 61:2 63:7 64:4 71:1 75:1 78:1 79:4 83:1 91:1 96:1 97:1 98:3 100:1 107:1 111:1 114:1 116:1 119:1 120:2 126:1 130:1 132:1 136:7 149:2 156:4 157:1 161:1 187:1 197:3 206:1 238:2 240:1 251:1 261:1 271:1 272:1 285:2 292:2 321:1 334:1 363:1 375:2 386:1 587:2 622:1 639:1 652:1 659:1 705:1 742:2 871:1 951:1 1101:4 1123:1 1133:1 1353:1 1401:1 1456:1 1486:4 1520:2 1538:2 1592:1 1606:1 1646:1 1731:2 1733:1 1804:1 1843:1 1971:2 
1 7:7 9:3 10:1 13:1 18:2 23:3 30:2 64:1 69:2 79:2 92:3 132:1 156:1 229:1 247:1 281:1 283:1 294:1 439:2 441:1 475:1 641:1 837:2 849:3 880:1 881:2 1101:1 1123:1 1486:1 1533:1 1557:1 1649:1 1920:1 
1 7:1 9:1 10:1 13:1 15:3 18:1 22:1 29:1 31:1 39:1 47:1 56:1 57:1 64:1 69:1 72:1 75:1 110:1 132:1 152:1 156:1 157:1 197:1 199:1 219:1 251:1 252:1 292:1 314:1 364:1 471:1 534:1 559:1 587:3 663:1 881:1 924:1 1101:1 1123:1 1170:1 1275:1 1287:1 1486:1 1569:1 1628:1 1709:1 1843:1 
1 7:6 10:4 13:5 15:1 39:1 43:1 47:1 51:1 62:1 63:1 64:4 69:1 74:1 87:1 93:1 96:1 136:1 149:2 156:5 162:1 178:1 230:1 306:2 567:1 587:1 614:1 995:1 1071:1 1101:4 1287:1 1486:5 1502:1 1703:1 1759:1 1971:2 1997:1 
1 7:2 9:1 10:2 13:1 15:1 22:1 30:1 33:1 41:2 42:1 48:2 64:2 79:1 90:1 104:1 107:1 110:1 119:1 152:1 156:1 160:1 177:1 181:7 188:1 247:1 251:1 308:1 351:1 375:1 424:2 436:1 543:1 587:1 742:1 821:1 959:1 1101:2 1170:1 1345:1 1486:1 1592:2 
1 1:8 2:5 3:5 4:1 5:5 6:4 7:1 8:6 9:4 11:2 13:3 14:1 15:1 18:1 22:1 23:2 26:2 28:2 29:2 34:1 40:2 46:2 55:1 56:1 59:1 67:4 69:5 72:1 77:2 88:1 90:1 93:1 122:1 140:2 146:1 156:3 157:1 180:1 182:2 206:1 224:1 237:1 238:6 246:2 251:1 258:2 274:1 292:2 303:1 304:1 339:1 386:2 420:1 421:2 438:1 497:1 502:1 520:1 587:1 596:1 614:1 881:1 931:1 978:4 1385:1 1486:3 1538:1 1616:1 1622:1 1651:1 1709:1 1775:2 1787:1 
1 7:4 13:2 23:1 30:2 33:2 49:1 55:3 69:1 72:1 79:2 91:1 98:1 99:1 106:1 107:1 139:1 156:2 187:2 198:1 227:1 242:1 311:1 339:1 375:2 639:1 662:1 741:1 807:1 1486:2 1538:3 1709:1 1719:1 1731:1 1846:1 1914:1 
1 7:7 8:1 10:1 12:5 13:6 31:1 39:1 54:5 59:1 64:1 65:1 71:1 72:2 75:1 138:2 142:2 156:6 199:1 238:1 289:1 487:1 520:1 534:1 615:2 659:1 767:1 837:1 952:1 1101:1 1120:1 1179:1 1287:1 1486:6 1546:2 1616:1 1709:2 1843:1 1996:2 
1 8:2 9:2 10:2 13:1 14:1 15:3 30:1 33:1 39:2 42:1 44:1 49:1 51:1 56:1 58:1 59:1 61:1 64:2 69:1 79:1 117:1 126:1 129:2 130:1 156:1 157:1 161:1 178:1 207:1 238:2 346:1 363:1 375:1 376:1 520:1 587:3 648:1 742:1 761:1 1101:2 1102:1 1119:1 1287:2 1456:1 1486:1 1616:1 1731:1 1800:1 1959:2 
1 7:3 8:3 10:1 23:3 29:1 30:3 64:1 79:3 83:1 175:1 238:3 292:1 348:1 523:1 733:1 825:1 1035:1 1101:1 1133:1 1613:1 
1 5:1 7:1 8:1 9:3 12:5 13:3 14:1 15:2 22:2 30:1 31:2 42:1 48:1 49:1 51:1 54:5 69:1 74:1 78:1 79:1 88:1 105:1 129:1 156:3 173:1 178:1 180:1 199:2 238:1 240:1 251:2 274:1 282:2 429:1 492:1 587:2 702:1 742:1 887:1 1093:1 1141:1 1486:3 1515:1 1592:1 1731:1 1759:1 1959:1 
1 7:3 8:1 9:2 10:8 13:2 22:2 23:3 51:2 59:2 64:8 88:1 99:1 156:2 178:2 183:1 229:1 238:1 251:2 274:1 520:2 1101:8 1323:3 1328:1 1486:2 1590:1 1616:2 1649:1 1719:1 
1 7:1 8:1 9:2 13:2 15:2 23:1 31:1 44:1 47:1 58:2 62:1 69:1 72:1 85:1 88:1 90:1 92:1 107:1 148:1 156:2 160:1 168:1 175:1 199:1 214:1 220:1 237:1 238:1 264:1 274:1 278:2 343:1 348:1 436:1 489:1 492:1 587:2 849:1 1102:1 1120:1 1275:1 1486:2 1573:1 1709:1 
1 7:2 8:2 9:2 13:2 23:1 42:1 70:1 91:2 119:1 130:1 133:1 156:2 238:2 440:1 639:2 742:1 933:1 1083:1 1164:1 1402:1 1456:1 1486:2 1760:1 
1 8:1 9:1 10:2 15:1 22:1 31:1 33:1 39:1 41:1 64:2 69:1 77:2 92:1 104:1 119:1 128:1 182:2 199:1 205:1 209:1 238:1 243:1 251:1 351:1 375:1 424:1 439:1 532:1 541:1 587:1 755:1 849:1 862:1 1089:1 1101:2 1120:1 1266:1 1287:1 1595:1 1750:1 
1 8:1 9:3 10:2 13:2 23:2 46:1 49:2 59:1 64:2 69:1 70:1 75:1 100:1 105:1 106:1 107:1 112:1 140:1 156:2 207:1 232:1 238:1 314:1 386:1 433:1 480:1 510:1 520:1 751:1 838:1 871:1 1101:2 1164:1 1275:1 1389:1 1486:2 1616:1 1650:1 1731:2 1772:1 1775:1 1843:1 1846:1 
1 1:8 2:5 3:5 4:1 5:5 6:4 7:1 8:6 9:4 11:2 13:3 14:1 15:1 18:1 22:1 23:2 26:2 28:2 29:2 34:1 40:2 46:2 55:1 56:1 59:1 67:4 69:5 72:1 77:2 88:1 90:1 93:1 122:1 140:2 146:1 156:3 157:1 180:1 182:2 206:1 224:1 237:1 238:6 246:2 251:1 258:2 274:1 292:2 303:1 304:1 339:1 386:2 420:1 421:2 438:1 497:1 502:1 520:1 587:1 596:1 614:1 881:1 931:1 978:4 1385:1 1486:3 1538:1 1616:1 1622:1 1651:1 1709:1 1775:2 1787:1 
1 8:3 9:2 12:2 13:3 15:2 18:1 22:1 23:3 31:1 39:1 41:1 44:1 54:2 68:1 69:1 78:1 88:2 106:1 115:2 134:1 146:1 148:1 156:3 196:1 199:1 200:1 214:1 238:3 240:1 251:1 274:2 424:1 453:1 587:2 727:1 803:1 881:1 1102:1 1142:1 1287:1 1385:1 1438:1 1486:3 1557:1 1573:1 1797:1 1846:1 1911:1 
1 7:4 9:1 10:1 13:2 15:2 30:1 33:1 43:1 46:1 48:1 60:1 62:1 64:1 67:1 68:1 78:1 79:1 87:1 92:1 96:1 126:2 156:2 165:1 222:1 240:1 300:1 375:1 386:1 446:1 501:1 549:1 587:2 849:1 978:1 1000:1 1101:1 1120:2 1196:2 1213:1 1486:2 1592:1 1845:1 1927:1 1981:1 
1 7:4 9:1 10:2 18:1 22:1 23:1 33:1 39:1 48:1 56:1 63:1 64:2 66:1 68:1 112:1 136:1 143:1 157:1 251:1 314:1 375:1 381:1 562:1 596:1 881:1 1029:1 1101:2 1287:1 1464:1 1592:1 
1 1:13 2:13 8:1 10:1 13:1 14:1 18:1 21:13 46:3 47:1 49:1 64:1 73:6 82:2 129:1 156:1 238:1 293:3 362:2 386:3 398:2 462:1 475:1 550:1 562:3 881:1 972:1 1101:1 1335:1 1368:1 1417:1 1486:1 1517:1 1579:1 1720:2 1731:1 1735:2 1864:1 1959:1 
1 7:2 8:2 9:2 13:2 23:1 42:1 70:1 91:2 119:1 130:1 133:1 156:2 210:1 238:2 440:1 639:2 742:1 933:1 1083:1 1164:1 1402:1 1456:1 1486:2 1760:1 
1 7:2 9:5 13:3 15:1 31:2 39:4 46:1 59:1 61:1 62:1 69:2 95:1 129:1 156:3 199:2 241:1 259:1 353:1 386:1 520:1 556:1 587:1 619:1 1238:1 1287:4 1486:3 1616:1 1899:1 1927:2 1959:1 
1 1:8 2:5 3:5 4:1 5:5 6:4 7:1 8:5 9:3 10:1 11:2 13:2 14:1 15:1 23:1 26:2 28:3 29:1 30:1 31:3 34:1 40:2 41:1 46:1 48:3 49:2 50:1 55:1 57:1 64:1 69:3 79:1 98:2 107:2 133:1 135:1 156:2 166:1 197:1 199:3 224:1 237:1 238:5 258:2 270:1 271:1 292:1 303:1 304:1 313:1 339:1 344:1 373:2 386:1 420:1 421:2 424:1 438:1 497:1 502:1 587:1 1101:1 1117:1 1365:1 1395:1 1430:1 1486:2 1538:1 1592:3 1701:1 1725:1 1731:2 1794:2 
1 7:1 8:4 10:1 18:2 22:1 29:1 30:1 31:1 42:1 44:1 49:1 60:1 64:1 66:1 69:1 79:1 99:1 133:1 144:2 184:2 193:1 199:1 200:1 225:1 238:4 244:1 251:1 292:1 300:1 310:1 376:1 432:1 742:1 868:1 881:2 1101:1 1102:1 1371:1 1475:1 1718:1 1719:1 1731:1 1893:1 1911:1 
1 7:2 8:1 9:2 13:1 15:1 22:1 31:1 33:2 46:1 51:1 55:1 57:1 69:1 105:1 126:1 156:1 178:1 180:1 197:1 199:1 238:1 251:1 287:1 339:1 373:1 375:2 386:1 587:1 997:1 1250:1 1313:1 1486:1 1538:1 1607:1 1794:1 
1 7:4 8:1 9:1 10:1 13:2 22:1 23:1 43:1 44:2 55:1 61:1 64:1 66:1 69:1 74:1 78:1 87:1 140:1 156:2 160:1 198:1 226:1 238:1 240:1 247:1 251:1 268:1 314:1 378:1 441:1 444:2 449:1 1101:1 1102:2 1179:1 1486:2 1538:1 1622:2 1697:1 1759:1 1775:1 
1 7:4 8:1 9:3 10:1 13:1 15:2 18:2 23:1 28:1 31:3 41:2 44:1 50:1 59:1 64:1 72:1 100:1 106:1 128:1 155:1 156:1 199:3 229:1 238:1 248:1 271:1 312:1 424:2 431:1 435:1 520:1 587:2 806:1 809:1 866:1 871:1 881:2 1056:1 1101:1 1102:1 1151:1 1486:1 1616:1 1649:1 1709:1 1846:1 1975:1 1993:1 
1 7:2 9:2 13:1 23:2 30:2 33:1 41:2 44:3 51:1 57:1 69:1 79:2 106:1 114:1 154:1 156:1 178:1 189:1 197:1 207:1 235:1 288:1 375:1 424:2 1102:3 1181:1 1227:1 1288:1 1365:1 1486:1 1846:1 1891:1 
1 1:3 2:3 7:1 13:1 15:1 21:3 22:3 33:1 42:1 61:1 62:1 73:2 82:2 84:1 102:1 150:1 156:1 231:1 251:3 375:1 587:1 697:1 742:1 784:1 891:1 984:2 1019:1 1056:1 1079:1 1486:1 1520:1 1553:2 1566:1 1710:2 1793:1 
1 8:2 9:1 13:2 22:2 28:3 30:1 33:1 43:1 44:1 50:2 56:1 58:1 69:1 76:1 79:1 87:1 97:1 102:1 122:1 156:2 157:1 170:2 198:2 215:1 238:2 251:2 271:2 302:1 304:1 310:1 373:1 375:1 427:1 534:1 951:1 1102:1 1486:2 1566:1 1623:2 1651:1 1794:1 1840:1 
1 7:1 9:1 10:5 13:1 15:1 18:2 22:1 43:2 47:1 58:1 59:1 64:5 69:1 70:1 76:1 87:2 156:1 177:1 185:2 251:1 259:1 291:1 370:1 373:1 427:1 520:1 569:2 587:1 599:1 821:1 881:2 1101:5 1164:1 1486:1 1616:1 1794:1 1927:1 
1 7:2 8:2 9:3 10:3 13:1 15:1 23:1 29:1 30:2 33:1 41:1 47:1 48:2 49:1 55:1 59:1 62:1 64:3 79:2 102:1 119:1 142:1 156:1 203:1 238:2 292:1 333:1 363:1 368:1 375:1 424:1 434:1 476:1 517:2 520:1 554:1 587:1 615:1 672:1 900:1 990:1 1101:3 1317:1 1392:1 1486:1 1538:1 1566:1 1592:2 1616:1 1731:1 1888:1 
1 1:8 2:5 3:5 4:1 5:5 6:4 7:4 8:7 9:1 10:1 11:2 12:3 13:1 14:1 15:2 16:2 22:1 26:2 28:2 30:3 31:2 34:1 40:2 41:2 46:1 47:2 48:1 54:3 58:4 64:1 69:1 71:1 75:1 79:3 134:1 156:1 160:1 180:2 199:2 222:1 224:1 237:1 238:7 241:1 251:1 258:2 303:1 304:1 347:2 376:1 386:1 387:1 408:1 420:1 421:2 424:2 438:1 496:1 497:1 502:1 509:1 547:1 587:2 619:1 659:1 676:1 1097:1 1101:1 1193:1 1241:1 1436:1 1486:1 1592:1 1673:1 1843:1 
1 1:6 2:5 3:1 5:1 6:3 7:1 8:4 9:1 10:1 11:4 13:2 18:2 22:2 26:1 29:1 39:1 46:1 64:1 110:1 116:1 133:1 156:2 159:1 204:1 238:4 251:2 260:1 292:1 334:1 386:1 406:1 421:4 628:1 817:1 881:2 1082:1 1101:1 1170:1 1287:1 1336:1 1486:2 1638:1 1809:1 
1 1:36 2:36 6:18 7:4 9:31 10:1 11:36 18:2 22:1 28:1 33:3 48:5 58:1 64:1 65:2 73:19 110:3 112:1 248:1 251:1 275:3 338:10 359:2 375:3 398:1 421:36 475:1 487:2 489:2 575:2 698:1 855:2 881:2 908:1 982:1 1101:1 1170:3 1592:5 1650:1 1886:1 1975:1 
1 4:1 5:1 7:7 9:1 10:1 13:1 15:2 18:1 22:2 23:6 33:1 41:1 59:3 62:1 64:1 66:1 69:1 76:1 99:2 100:1 156:1 220:1 251:2 276:1 366:1 375:1 424:1 427:1 520:3 587:2 635:1 685:1 871:1 881:1 916:1 1055:1 1101:1 1278:1 1486:1 1616:3 1719:2 1749:1 
1 9:1 30:1 31:2 42:1 44:2 46:1 50:1 56:1 57:1 59:1 61:1 69:1 71:1 79:1 119:1 142:1 157:1 162:1 165:1 188:1 197:1 199:2 223:1 269:1 271:1 386:1 464:1 500:1 520:1 615:1 659:1 742:1 1061:1 1102:2 1616:1 1807:1 
1 1:6 2:6 10:1 21:6 33:2 64:1 65:1 123:3 231:2 375:2 487:1 593:1 984:2 1025:2 1101:1 1511:3 1553:4 1710:4 
1 7:2 9:2 13:3 18:1 22:2 41:1 42:1 48:1 68:1 110:1 156:3 159:1 251:2 406:1 424:1 489:1 713:1 742:1 881:1 1170:1 1270:1 1486:3 1592:1 1638:1 1809:1 1816:1 
1 7:1 9:4 10:2 13:2 15:1 23:1 30:4 33:2 43:1 47:1 49:1 55:2 64:2 69:2 79:4 87:1 107:1 132:1 138:1 140:1 156:2 162:2 169:1 282:1 285:1 313:1 339:2 363:1 375:2 411:1 587:1 597:1 1101:2 1123:1 1176:1 1486:2 1538:2 1731:1 1775:1 1996:1 
1 7:1 8:1 9:1 13:1 15:1 23:1 31:1 65:1 66:1 69:1 71:1 72:1 92:1 110:1 112:1 129:1 155:1 156:1 177:1 188:1 199:1 217:1 223:2 238:1 247:1 255:1 294:1 304:1 335:1 431:1 487:1 587:1 594:1 659:1 821:1 849:1 1060:1 1160:1 1170:1 1315:1 1486:1 1709:1 1959:1 1991:1 
1 7:1 8:1 10:2 13:3 22:2 23:1 28:1 30:1 39:2 41:1 42:1 46:1 57:1 64:2 69:1 75:1 79:1 93:1 156:3 179:1 197:1 216:1 238:1 251:2 290:1 386:1 422:1 424:1 441:1 614:1 742:1 1101:2 1287:2 1360:1 1486:3 1669:1 1741:1 1843:1 
1 7:2 9:4 10:1 29:1 31:1 33:2 51:1 55:1 59:1 64:1 70:1 102:1 114:1 119:1 129:1 155:1 178:1 183:1 194:1 199:1 200:1 234:1 235:1 244:1 284:1 292:1 355:1 375:2 431:1 520:1 613:1 1101:1 1103:1 1164:1 1328:1 1440:1 1474:1 1538:1 1566:1 1616:1 1911:1 1918:1 1959:1 
1 8:1 10:1 13:1 15:1 23:1 29:1 30:1 33:1 43:3 47:1 55:1 56:1 62:2 64:1 69:1 79:1 84:1 87:3 88:1 91:1 99:1 126:1 128:1 130:1 156:1 157:1 173:1 187:1 238:1 274:1 292:1 375:1 394:1 442:1 587:1 639:1 736:1 887:1 1079:1 1101:1 1412:1 1456:1 1486:1 1538:1 1719:1 1773:1 1863:1 
1 1:7 2:6 3:2 4:1 5:3 6:6 7:1 8:3 9:3 10:1 11:1 13:1 15:1 18:1 21:4 26:2 33:1 39:1 48:2 55:1 64:1 67:2 69:1 72:2 110:1 119:1 130:1 142:1 156:1 238:3 314:1 363:1 375:1 421:1 541:1 587:1 615:1 652:1 881:1 978:2 1101:1 1170:1 1287:1 1420:1 1456:1 1486:1 1538:1 1592:2 1709:2 
1 7:6 9:2 13:3 15:1 29:1 42:1 46:1 47:1 58:1 126:1 143:1 156:3 177:1 183:1 185:1 292:1 296:1 386:1 561:1 584:1 587:1 742:1 821:1 837:1 890:1 1328:1 1464:1 1486:3 
0.3418296722259784 7:1 9:1 10:2 12:8 13:1 15:1 18:1 29:1 31:1 47:2 49:1 51:1 54:8 56:1 61:1 64:2 69:1 75:1 101:1 102:1 111:1 152:1 156:1 157:1 166:1 178:1 199:1 255:2 292:1 401:1 423:1 447:1 528:1 587:1 669:1 881:1 906:2 1060:2 1101:2 1184:1 1461:2 1486:1 1566:1 1645:2 1731:1 1774:1 1804:1 1843:1 1863:1 
1 7:3 10:2 13:1 15:1 18:1 23:2 30:1 31:1 41:1 44:1 47:1 50:1 56:1 57:1 64:2 69:1 75:2 76:2 79:1 92:1 128:1 156:1 157:1 173:2 188:1 197:1 199:1 201:1 257:1 271:1 344:1 418:1 424:1 427:2 432:1 587:1 849:1 881:1 887:2 917:1 1101:2 1102:1 1179:1 1229:1 1486:1 1519:1 1843:2 1989:1 
0.39343346488264 7:3 8:1 9:3 10:2 13:1 15:3 23:1 28:1 29:1 30:1 31:3 33:1 42:1 43:1 44:1 59:1 64:2 73:1 79:1 87:1 93:1 96:2 106:1 114:1 126:2 130:1 156:1 199:3 219:1 238:1 292:1 375:1 453:4 473:1 520:1 587:3 614:1 718:1 729:1 742:1 757:3 917:1 1101:2 1102:1 1152:1 1456:1 1486:1 1579:1 1616:1 1846:1 
1 7:1 8:1 9:1 10:1 13:2 30:1 31:2 39:1 42:1 44:2 47:1 50:2 51:1 55:1 56:1 64:1 69:1 71:1 72:1 79:1 105:1 129:1 144:1 152:1 156:2 157:1 169:1 178:1 184:1 199:2 203:1 238:1 241:1 271:2 312:1 317:2 345:1 404:1 619:1 659:1 708:1 742:1 1101:1 1102:2 1151:1 1287:1 1317:1 1486:2 1538:1 1696:1 1709:1 1869:1 1959:1 
1 7:1 8:3 9:2 13:1 15:1 29:1 31:2 42:1 44:1 46:1 47:2 69:1 70:1 77:1 105:1 156:1 164:1 177:2 182:1 185:2 189:1 199:2 231:1 238:3 242:1 259:1 273:1 292:1 359:1 386:1 560:1 587:1 742:1 821:2 923:1 933:1 1102:1 1164:1 1486:1 
1 7:4 8:1 9:4 13:3 18:1 22:2 23:2 30:1 41:2 48:1 66:1 69:1 74:1 79:1 123:1 129:2 144:1 156:3 184:1 194:1 231:1 238:1 251:2 270:1 395:1 424:2 775:1 881:1 1371:1 1486:3 1592:1 1759:1 1918:1 1959:2 
1 9:4 10:4 13:2 18:2 23:1 30:1 42:2 47:1 58:1 64:4 69:1 78:2 79:1 92:2 123:1 126:1 146:2 156:2 173:1 229:1 240:2 392:1 481:2 537:2 651:1 690:1 742:2 849:2 867:1 881:2 887:1 1101:4 1385:2 1391:1 1486:2 1649:1 1892:2 
1 7:3 9:1 15:3 18:1 31:2 39:1 41:1 42:1 46:1 49:2 55:1 56:2 71:1 76:1 88:1 92:1 98:1 101:1 107:1 112:2 128:1 133:1 134:1 157:2 160:1 190:1 199:2 203:1 272:1 274:1 278:1 386:1 424:1 427:1 447:1 492:1 587:3 659:1 742:1 833:1 849:1 881:1 1287:1 1317:1 1474:2 1538:1 1589:1 1731:2 1920:1 
1 7:3 9:1 10:3 23:1 30:1 33:1 42:2 48:2 59:1 64:3 66:1 67:1 69:1 71:2 77:3 79:1 84:1 119:1 163:1 179:1 182:3 231:1 310:1 333:1 375:1 520:1 659:2 742:2 978:1 1079:1 1101:3 1509:1 1592:2 1616:1 1741:1 1888:1 
1 7:2 10:2 13:1 23:1 33:1 46:1 47:1 64:2 156:1 164:1 177:1 273:1 375:1 386:1 435:1 462:1 618:1 821:1 1094:1 1101:2 1355:1 1486:1 1497:1 1627:1 
1 1:5 2:5 13:1 21:5 33:1 44:1 49:1 62:1 76:3 116:1 120:1 128:1 156:1 262:1 312:1 332:1 334:1 375:1 427:3 460:1 496:1 517:1 632:1 694:1 741:1 1102:1 1135:1 1151:1 1193:1 1486:1 1520:1 1731:1 
1 7:4 8:2 13:1 15:2 30:1 31:3 33:1 41:1 46:1 61:1 69:1 72:1 79:1 107:1 130:1 134:1 139:1 149:1 155:1 156:1 199:3 219:1 223:1 227:2 238:2 247:1 327:1 330:1 375:1 386:1 423:1 424:1 431:1 470:1 534:1 587:2 852:1 1456:1 1486:1 1542:1 1709:1 1971:1 
1 7:1 8:4 9:1 13:1 23:1 30:3 41:1 42:1 46:1 47:1 58:1 69:2 73:1 79:3 92:1 156:1 192:1 202:1 223:1 229:2 231:1 238:4 241:1 386:1 424:1 601:1 619:1 630:1 742:1 849:1 878:1 1007:1 1115:1 1486:1 1649:2 1792:1 
1 7:3 8:1 13:1 15:2 23:2 29:1 30:3 47:3 48:1 56:1 57:1 61:1 69:1 70:1 72:1 79:3 83:1 101:1 134:1 156:1 157:1 159:1 197:1 223:1 238:1 248:1 253:1 256:1 292:1 404:1 423:1 447:1 511:1 587:2 877:1 938:1 1133:1 1164:1 1486:1 1592:1 1638:1 1709:1 1975:1 
1 7:3 10:1 13:2 15:1 23:2 30:2 31:1 33:1 42:1 44:1 51:1 55:1 56:1 60:2 62:2 64:1 69:1 79:2 88:2 97:1 105:1 116:1 122:1 126:1 138:1 151:1 156:2 157:1 166:1 178:1 199:1 223:1 274:2 300:2 334:1 339:1 344:1 366:1 375:1 395:1 509:1 587:1 641:1 742:1 951:1 987:1 1101:1 1102:1 1153:1 1278:1 1486:2 1538:1 1651:1 1996:1 
1 4:1 5:1 9:2 10:5 18:2 23:1 29:1 33:2 42:1 56:1 64:5 68:1 69:1 72:1 84:1 107:1 119:1 130:1 152:1 157:1 196:1 234:1 266:1 292:1 375:2 390:1 742:1 881:2 1079:1 1101:5 1438:1 1456:1 1494:1 1709:1 
1 4:2 5:2 7:1 9:1 13:1 15:1 28:1 30:1 33:1 69:1 79:1 156:1 188:2 374:1 375:1 453:1 566:2 587:1 1291:1 1486:1 
1 7:1 8:1 10:2 13:1 18:1 22:1 23:1 29:1 46:1 59:1 64:2 68:1 76:1 77:1 156:1 182:1 191:1 238:1 251:1 292:1 358:1 386:1 427:1 434:1 473:1 520:1 786:1 881:1 1101:2 1486:1 1616:1 
0.6802532290151966 7:2 8:3 12:1 13:3 18:1 23:2 30:1 31:1 44:2 54:1 65:1 66:1 69:1 71:1 79:1 105:1 106:2 114:1 117:1 133:1 156:3 199:1 201:1 238:3 260:1 286:2 344:1 418:1 487:1 599:1 659:1 881:1 1102:2 1119:1 1336:1 1486:3 1707:1 1846:2 1903:1 1927:1 1989:1 
1 7:1 8:1 9:3 10:1 12:2 13:2 15:2 18:1 22:1 30:1 31:2 49:1 51:1 54:2 55:1 56:1 64:1 69:1 79:1 83:1 104:1 106:1 149:1 156:2 157:1 178:1 186:1 191:1 199:2 238:1 251:1 269:1 276:1 339:1 344:1 347:1 351:1 358:1 365:1 587:2 655:1 881:1 1055:1 1101:1 1133:1 1486:2 1538:1 1731:1 1846:1 1971:1 
1 7:2 9:1 10:3 13:1 18:2 22:2 41:1 46:2 48:1 64:3 68:1 156:1 251:2 256:1 338:1 386:2 424:1 475:1 496:1 531:1 575:1 596:1 881:2 1101:3 1166:1 1193:1 1486:1 1592:1 1809:1 
1 7:1 9:1 10:2 13:3 15:1 18:1 23:2 30:1 41:2 43:1 48:1 49:1 64:2 65:1 69:1 70:1 71:1 79:1 87:1 93:1 99:1 106:1 156:3 164:1 177:1 183:1 227:1 229:1 231:1 273:1 424:2 487:1 587:1 614:1 630:1 659:1 821:1 881:1 902:1 1000:1 1101:2 1164:1 1214:1 1328:1 1486:3 1592:1 1617:1 1649:1 1719:1 1731:1 1845:1 1846:1 
0.6914351829164234 7:3 10:2 13:1 15:1 16:1 23:1 30:1 39:1 41:1 62:1 64:2 67:1 69:2 77:3 79:1 96:1 152:1 156:1 165:1 166:1 180:1 182:3 209:1 220:1 346:1 368:1 417:1 424:1 496:1 582:1 587:1 854:1 978:1 990:1 1101:2 1193:1 1287:1 1486:1 1800:1 1839:1 
1 7:5 8:1 9:1 12:1 13:2 23:1 30:1 31:1 33:2 39:1 44:2 46:1 51:1 54:1 56:2 59:1 74:1 75:1 79:1 90:1 155:1 156:2 157:2 161:1 178:1 179:1 191:2 194:2 199:1 200:1 232:1 238:1 250:1 288:1 293:1 358:2 375:2 386:1 431:1 520:1 819:1 966:1 1102:2 1287:1 1486:2 1616:1 1741:1 1759:1 1803:1 1843:1 1911:1 1918:2 
1 7:3 8:1 10:1 12:2 13:4 15:2 23:2 30:2 44:4 47:2 54:2 57:1 61:1 64:1 69:2 72:1 79:2 84:2 106:1 119:1 155:1 156:4 196:1 197:1 238:1 260:1 289:1 308:1 364:1 431:1 481:1 578:1 587:2 840:2 1061:1 1079:2 1101:1 1102:4 1314:1 1336:1 1438:1 1486:4 1554:1 1709:1 1846:1 
1 1:7 2:6 3:2 4:2 5:3 6:4 7:1 8:3 9:1 10:1 11:4 21:1 26:1 30:1 39:1 42:1 43:1 45:1 46:1 48:1 59:1 64:1 79:1 85:1 87:1 110:1 133:1 160:1 194:1 238:3 264:1 303:1 336:1 386:1 421:4 511:1 520:1 528:1 706:1 742:1 1101:1 1170:1 1287:1 1592:1 1616:1 1918:1 
1 7:3 8:1 9:4 10:1 13:1 15:1 18:1 31:4 33:1 41:3 64:1 76:1 88:1 107:1 114:1 118:1 119:1 145:1 149:1 156:1 161:1 199:4 225:1 238:1 260:1 274:1 298:1 313:1 375:1 424:3 427:1 441:1 587:1 784:1 831:1 868:1 881:1 1077:1 1089:1 1101:1 1280:1 1336:1 1486:1 1920:1 1971:1 
1 4:9 15:1 22:1 23:1 28:9 50:3 69:1 70:1 105:1 175:1 180:1 219:1 228:1 243:1 251:1 261:1 271:3 342:1 545:1 587:1 673:1 963:1 994:1 1164:1 1595:1 
1 7:3 8:1 9:3 10:1 23:3 33:1 64:1 67:3 69:1 77:1 88:1 130:1 132:1 139:1 148:1 149:1 182:1 238:1 246:1 250:1 274:1 346:1 375:1 403:1 450:1 969:1 978:3 1101:1 1123:1 1242:1 1456:1 1573:1 1701:2 1791:1 1800:1 1971:1 
1 9:1 10:1 41:2 50:1 57:1 58:1 64:1 66:1 197:1 220:1 271:1 323:1 344:1 424:2 499:1 708:1 818:1 1101:1 1409:1 1732:1 1769:1 
1 8:1 9:1 10:1 13:4 15:1 23:4 33:1 42:1 56:1 57:1 59:1 62:1 63:1 64:1 67:1 69:1 77:1 98:1 104:1 115:1 123:1 136:1 152:1 156:4 157:1 164:1 182:1 191:1 197:1 220:1 238:1 262:1 273:1 344:1 351:1 358:1 375:1 443:1 471:1 520:1 587:1 742:1 978:1 1101:1 1191:1 1330:1 1486:4 1495:1 1616:1 1787:1 
1 7:6 10:2 13:1 15:2 23:1 30:1 44:1 57:1 60:1 62:1 64:2 71:1 72:2 77:1 79:1 99:1 149:1 156:1 160:1 164:1 182:1 197:1 214:1 246:1 273:1 300:1 301:1 335:1 338:1 541:1 587:2 590:2 659:1 940:1 1101:2 1102:1 1227:1 1486:1 1709:2 1719:1 1971:1 
1 7:1 8:3 10:1 13:1 18:1 23:3 33:1 41:1 47:2 50:1 55:1 64:1 69:1 76:1 128:1 130:1 132:1 135:1 140:1 156:1 185:1 187:1 238:3 266:1 271:1 288:1 375:1 424:1 427:1 816:1 881:1 1101:1 1123:1 1456:1 1486:1 1538:1 1725:1 1775:1 1884:1 
1 7:1 9:3 10:1 13:2 15:1 22:1 23:2 31:1 44:1 46:2 64:1 69:1 83:1 112:1 118:1 138:1 142:1 156:2 165:1 170:1 177:1 199:1 251:1 272:1 298:1 386:2 409:1 419:1 587:1 615:1 755:1 821:1 1101:1 1102:1 1133:1 1364:1 1486:2 1557:1 1623:1 1779:1 1894:1 1972:1 1996:1 
1 7:3 10:5 15:1 22:1 23:2 33:1 47:1 50:2 64:5 66:1 69:1 76:1 135:1 200:1 223:1 243:1 244:1 251:1 271:2 336:2 375:1 427:1 587:1 630:1 707:1 998:1 1101:5 1215:1 1462:1 1595:1 1725:1 1911:1 
1 7:1 9:2 10:4 13:1 18:1 29:2 31:1 41:1 46:1 47:2 51:1 64:4 68:1 69:1 72:1 92:1 129:1 156:1 167:1 178:1 186:1 199:1 292:2 316:1 322:1 363:1 386:1 424:1 523:1 849:1 881:1 989:1 1101:4 1486:1 1593:1 1700:1 1709:1 1959:1 
1 7:3 8:1 10:1 12:1 13:3 23:2 30:1 41:1 42:1 46:1 54:1 62:1 63:1 64:1 69:2 70:1 71:1 79:1 91:1 92:1 105:1 136:1 156:3 162:1 180:1 225:1 238:1 261:1 323:1 386:1 424:1 467:1 639:1 659:1 742:1 761:1 801:1 849:1 868:1 915:1 1101:1 1120:1 1164:1 1486:3 
0.2399297998695212 9:1 13:2 15:1 29:2 39:1 43:2 69:1 87:2 90:1 92:1 97:2 99:1 101:1 119:1 130:1 142:1 156:2 194:1 292:2 363:1 447:1 587:1 615:1 652:2 668:1 849:1 951:2 988:1 1134:1 1287:1 1456:1 1486:2 1719:1 1918:1 
1 7:1 10:1 13:3 41:1 64:1 67:1 72:1 118:1 156:3 183:1 275:1 286:1 298:1 424:1 668:1 946:1 978:1 1061:2 1101:1 1154:1 1328:1 1486:3 1709:1 1809:2 1994:1 
1 7:2 10:2 12:4 13:2 15:1 18:1 29:1 30:1 31:2 41:1 49:1 54:4 56:1 59:1 64:2 69:1 72:1 74:1 75:1 79:1 107:1 112:1 140:1 154:1 156:2 157:1 165:1 186:1 192:1 199:2 236:1 292:1 397:1 424:1 479:2 520:1 587:1 881:1 938:2 1098:1 1101:2 1108:1 1115:1 1321:1 1393:1 1486:2 1616:1 1709:1 1731:1 1759:1 1775:1 1778:1 1843:1 
1 1:5 2:5 6:4 7:1 9:1 10:2 13:1 15:1 21:3 23:2 30:1 33:1 40:2 50:1 51:1 64:2 77:2 79:1 90:1 97:1 104:1 122:1 138:1 152:1 156:1 160:2 166:1 178:1 182:2 239:1 265:1 271:1 351:1 375:1 587:1 788:1 951:1 1101:2 1179:1 1486:1 1651:1 1996:1 
1 7:2 9:4 10:2 13:3 15:2 23:2 41:1 42:1 57:1 58:2 64:2 65:1 66:1 68:1 69:1 126:1 156:3 197:1 228:1 242:1 424:1 487:1 587:2 674:1 742:1 799:1 853:1 1101:2 1237:1 1486:3 
1 7:2 10:3 13:1 18:2 22:1 29:2 33:1 42:1 61:1 64:3 66:2 69:1 74:1 78:1 92:2 98:1 105:1 126:1 146:1 156:1 161:1 185:2 240:1 251:1 290:1 292:2 335:1 375:1 425:1 446:1 742:1 849:2 881:2 1101:3 1385:1 1486:1 1759:1 1892:1 
1 5:1 7:1 9:3 10:2 13:1 15:3 41:1 42:1 64:2 68:2 69:1 75:1 76:2 104:1 112:2 122:1 145:1 156:1 163:1 175:1 257:1 293:1 351:1 355:1 424:1 427:2 440:1 552:1 587:3 742:1 1101:2 1233:1 1486:1 1519:1 1651:1 1843:1 
1 1:3 2:3 3:3 4:2 5:3 6:3 15:2 19:1 21:2 33:2 38:1 81:1 85:2 94:1 205:2 264:2 375:2 397:2 435:2 587:2 966:2 1300:2 
1 7:1 9:1 10:1 13:2 15:1 31:1 42:1 50:1 62:1 64:1 68:2 134:1 151:1 156:2 159:1 170:1 183:1 199:1 202:2 232:1 271:1 587:1 601:2 742:1 926:1 938:1 987:1 1101:1 1328:1 1486:2 1623:1 1638:1 
1 7:2 12:4 13:1 15:2 23:2 29:1 43:3 44:1 49:1 51:1 54:4 56:1 57:1 59:1 62:1 71:1 87:3 102:1 112:1 128:1 134:1 156:1 157:1 178:1 197:1 198:1 206:1 285:1 292:1 305:1 401:1 520:1 576:1 587:2 650:1 659:1 959:1 1102:1 1486:1 1566:1 1616:1 1731:1 
1 7:2 8:1 10:3 13:2 18:1 30:1 42:1 47:1 64:3 76:1 79:1 112:1 133:1 145:1 152:2 156:2 196:1 228:1 238:1 239:1 353:1 406:1 427:1 467:1 692:1 742:1 881:1 1101:3 1216:1 1438:1 1486:2 1520:1 1969:1 
1 7:1 9:1 10:5 13:1 33:1 39:1 64:5 66:2 69:1 99:1 100:1 148:1 156:1 162:1 190:1 252:1 375:1 453:1 648:1 734:1 787:1 871:1 1101:5 1237:1 1287:1 1486:1 1573:1 1589:1 1639:1 1719:1 1750:1 
1 1:1 2:1 13:2 15:1 21:1 33:1 84:1 101:1 156:2 198:1 360:1 375:1 447:1 453:2 499:1 587:1 662:1 671:1 1079:1 1414:1 1486:2 1520:1 1724:1 1819:1 
0.8194833129239716 5:1 7:2 9:6 10:7 18:2 39:3 59:3 64:7 69:1 119:3 130:3 146:2 520:3 685:2 881:2 1101:7 1287:3 1385:2 1456:3 1616:3 
1 1:14 2:13 3:1 5:2 6:7 7:6 8:3 9:4 10:3 11:12 13:2 15:2 18:2 22:5 26:1 33:1 39:1 47:1 48:1 56:1 57:1 59:1 61:2 64:3 68:1 72:1 91:3 110:1 119:1 156:2 157:1 159:2 164:1 197:1 235:1 238:3 242:1 247:1 251:5 273:1 375:1 421:12 432:1 434:1 504:1 520:1 587:2 596:1 639:3 668:1 769:1 880:1 881:2 933:1 1101:3 1170:1 1287:1 1350:1 1486:2 1540:1 1592:1 1616:1 1638:2 1709:1 1809:1 1820:1 
1 7:4 8:2 9:1 10:1 13:2 15:3 18:1 22:1 23:1 30:1 41:1 44:1 50:1 59:1 61:1 64:1 65:1 79:1 83:1 84:1 105:1 114:1 128:1 138:1 156:2 160:1 170:1 202:1 203:1 226:1 238:2 247:1 249:1 251:1 253:1 271:1 312:1 424:1 487:1 520:1 587:3 601:1 881:1 917:1 952:1 1012:1 1048:1 1079:1 1101:1 1102:1 1133:1 1151:1 1317:1 1408:1 1486:2 1542:1 1616:1 1623:1 1996:1 
1 1:8 2:8 21:8 22:3 99:1 198:1 231:3 251:3 647:1 652:1 665:2 715:1 984:5 1138:1 1553:3 1710:3 1719:1 
1 5:4 7:2 9:3 10:2 18:2 22:1 23:1 30:1 31:3 49:1 51:1 64:2 69:4 79:1 100:1 105:1 106:1 117:1 139:1 175:1 178:1 199:3 251:1 259:1 312:1 717:1 776:2 871:1 881:2 1101:2 1119:1 1151:1 1731:1 1846:1 
1 1:8 2:5 3:5 4:1 5:5 6:4 7:4 8:7 9:2 10:2 11:2 13:2 14:1 15:4 18:1 26:2 28:2 29:1 31:1 33:1 34:1 40:2 46:1 47:1 49:1 59:1 64:2 69:1 78:2 97:1 156:2 162:1 195:2 199:1 220:1 224:1 237:1 238:7 240:2 258:2 292:1 303:1 304:1 337:1 375:1 386:1 420:1 421:2 422:1 423:1 438:1 497:1 502:1 520:1 550:1 587:4 673:1 881:1 932:1 951:1 1101:2 1117:1 1218:1 1275:1 1395:1 1486:2 1564:1 1616:1 1731:1 
0.4250771045421755 9:3 10:2 13:2 15:1 31:1 41:1 64:2 66:1 69:1 72:2 90:1 114:1 134:1 142:1 152:1 156:2 164:1 199:1 200:1 234:1 241:1 273:1 306:1 344:1 348:1 367:1 424:1 567:1 587:1 615:1 619:1 1101:2 1486:2 1499:1 1510:1 1709:2 1742:1 1911:1 
1 7:3 12:2 13:1 22:1 30:1 31:2 39:1 43:1 47:1 49:1 54:2 59:1 66:1 72:1 79:1 87:1 128:1 143:1 156:1 179:1 199:2 251:1 260:1 270:1 332:2 344:1 368:1 470:1 520:1 818:2 990:1 1287:1 1336:1 1464:1 1486:1 1616:1 1709:1 1731:1 1741:1 1797:1 
1 7:3 10:5 13:2 16:1 22:1 29:1 31:1 46:2 64:5 69:1 146:1 152:1 156:2 162:2 199:1 245:1 251:1 292:1 328:1 386:2 394:1 573:1 713:1 732:1 857:1 1014:1 1061:1 1101:5 1171:1 1188:1 1262:1 1385:1 1486:2 1583:1 
1 7:3 9:3 13:4 15:2 23:2 33:1 42:1 44:1 51:1 55:1 69:1 101:1 112:2 156:4 178:1 234:1 253:1 375:1 447:1 449:1 537:1 550:2 587:2 735:1 742:1 923:1 973:1 1102:1 1486:4 1538:1 1817:1 
1 7:1 8:2 9:2 10:1 13:3 15:1 18:1 23:2 30:2 41:1 43:2 46:1 55:2 56:1 59:1 64:1 65:1 69:2 76:1 79:2 87:2 93:1 114:1 134:1 156:3 157:1 161:1 175:1 187:1 214:1 238:2 290:1 344:1 386:1 424:1 427:1 487:1 516:1 520:1 543:1 587:1 614:1 881:1 1033:1 1047:1 1101:1 1337:1 1398:1 1486:3 1538:2 1616:1 
1 12:1 13:1 15:1 22:2 23:2 31:4 42:1 47:1 54:1 55:1 62:2 65:1 69:1 107:1 149:1 150:1 156:1 173:1 199:4 239:1 251:2 270:1 285:1 289:1 305:1 332:1 341:1 449:1 487:1 587:1 695:1 701:1 721:1 742:1 887:1 1059:1 1179:1 1486:1 1538:1 1582:1 1971:1 
1 12:5 13:1 29:1 39:1 46:1 47:1 51:1 54:5 57:1 61:1 69:1 76:1 129:1 132:1 135:3 143:1 156:1 177:1 178:1 191:1 197:1 241:1 247:1 257:1 275:1 292:1 358:1 386:1 398:1 423:1 427:1 436:2 517:1 619:1 773:1 821:1 1123:1 1287:1 1464:1 1486:1 1519:1 1725:3 1959:1 
1 5:1 7:1 8:2 9:2 13:1 18:1 29:1 30:1 39:3 42:1 56:1 61:1 69:1 72:1 79:1 100:1 102:1 104:2 110:1 119:1 156:1 157:1 207:1 219:1 238:2 250:1 260:1 292:1 310:1 351:2 478:2 742:1 871:1 881:1 1170:1 1287:3 1336:1 1486:1 1566:1 1709:1 
1 7:4 8:2 9:1 10:2 13:2 15:3 18:1 22:2 30:3 33:1 42:1 46:1 47:3 49:1 59:1 63:1 64:2 67:1 79:3 82:1 98:1 107:1 111:1 126:1 132:1 136:1 148:1 156:2 207:1 220:1 238:2 251:2 261:1 306:1 345:1 363:1 375:1 386:1 443:1 517:1 520:1 587:3 603:1 742:1 881:1 915:1 978:1 1101:2 1123:1 1486:2 1488:1 1573:1 1616:1 1692:1 1731:1 1804:1 
1 7:1 8:4 9:4 10:2 13:4 15:1 22:1 23:1 31:1 46:1 64:2 66:1 69:1 84:1 106:1 156:4 189:1 199:1 216:1 222:1 238:4 244:1 251:1 309:1 374:1 386:1 492:1 582:1 587:1 591:1 848:1 1065:1 1079:1 1101:2 1184:1 1486:4 1749:1 1846:1 
1 7:2 8:2 10:1 15:1 18:2 22:1 23:1 49:1 59:1 64:1 69:1 110:1 116:1 140:3 188:1 237:1 238:2 251:1 308:1 330:1 334:1 389:1 520:1 529:1 587:1 881:2 902:1 1037:1 1061:2 1081:1 1084:2 1101:1 1170:1 1397:1 1616:1 1731:1 1775:3 1892:1 
1 7:6 8:3 9:1 13:1 18:1 30:1 31:1 33:1 41:1 44:1 47:1 48:1 51:1 66:1 71:1 79:1 83:1 107:1 114:1 118:1 156:1 165:1 178:1 185:1 199:1 238:3 298:1 344:1 366:1 375:1 389:1 418:1 424:1 440:1 441:1 578:1 659:1 828:1 881:1 933:1 1102:1 1133:1 1278:1 1486:1 1592:1 
1 7:2 8:1 12:1 13:1 15:3 30:1 31:1 33:1 47:2 54:1 56:1 69:5 75:1 79:1 84:1 106:2 107:1 123:1 134:1 149:1 156:1 157:1 177:1 199:1 234:1 238:1 247:1 255:2 260:1 371:1 375:1 519:1 587:3 643:1 685:1 821:1 933:1 1060:2 1079:1 1275:1 1336:1 1486:1 1843:1 1846:2 1913:1 1971:1 
1 7:3 8:2 9:3 10:1 13:4 31:1 42:1 47:1 56:1 64:1 69:1 71:1 91:1 156:4 157:1 169:1 199:1 237:1 238:2 580:1 639:1 659:1 681:1 742:1 760:1 1101:1 1486:4 1853:1 
1 7:5 8:1 12:4 13:1 15:1 30:1 31:1 44:1 47:2 51:1 54:4 56:1 69:1 72:1 78:2 79:1 83:1 123:1 128:1 151:1 156:1 157:1 165:1 166:1 178:1 191:1 199:1 238:1 240:2 250:1 263:1 312:1 358:1 364:1 366:1 403:1 587:1 676:1 837:1 840:1 938:1 987:1 1102:1 1112:1 1133:1 1151:1 1278:1 1486:1 1643:1 1709:1 1791:1 1837:1 
1 1:471 2:471 3:3 4:1 5:2 6:5 7:21 8:2 9:10 10:6 13:2 15:2 18:1 21:470 22:2 26:1 28:186 29:1 33:1 36:1 37:1 41:3 46:1 58:1 64:6 70:1 73:92 74:2 82:4 84:2 120:2 123:55 149:1 150:5 156:2 183:2 205:4 231:4 238:2 243:1 251:2 275:3 276:1 292:1 317:1 318:1 338:8 375:1 386:1 391:1 394:1 398:3 424:3 475:1 489:1 531:2 575:4 587:2 715:1 727:6 752:1 771:1 860:1 881:1 891:95 921:1 967:5 972:1 1024:1 1055:1 1056:5 1066:14 1079:2 1082:6 1101:6 1142:1 1157:1 1164:1 1245:4 1253:94 1304:4 1322:2 1328:2 1409:3 1486:2 1553:1 1595:1 1710:1 1720:1 1732:3 1735:1 1759:2 1769:1 1831:1 1832:1 1878:2 1971:1 
1 1:8 2:5 3:5 4:1 5:5 6:4 7:3 8:6 9:1 10:2 11:2 12:3 13:6 14:1 15:4 26:2 28:2 30:2 34:1 39:1 40:2 46:1 48:1 54:3 56:1 57:1 59:1 64:2 66:1 67:2 69:1 71:1 72:1 75:1 79:2 88:1 100:1 104:1 119:1 138:1 155:1 156:6 157:1 175:1 177:1 197:1 224:1 237:1 238:6 258:2 274:1 291:2 303:1 304:1 312:1 351:1 378:1 386:1 420:1 421:2 426:1 431:1 438:1 439:1 492:1 497:1 502:1 520:1 587:4 659:1 695:1 805:1 821:1 834:1 871:1 978:2 999:1 1101:2 1120:1 1151:1 1287:1 1486:6 1592:1 1616:1 1709:1 1752:1 1843:1 1893:1 1946:1 1996:1 
1 2:1 7:4 9:1 10:2 13:2 15:2 29:2 30:1 43:1 47:1 60:2 62:1 63:1 64:2 65:1 69:2 79:1 87:1 111:1 136:1 143:1 154:1 156:2 193:2 236:1 239:1 255:1 292:2 300:2 434:1 439:1 487:1 492:1 532:1 587:2 610:1 966:1 1060:1 1101:2 1138:1 1300:1 1321:1 1433:1 1464:1 1486:2 1804:1 1820:1 1868:1 1927:1 
1 8:2 13:2 18:1 22:1 29:1 33:1 39:1 41:1 43:1 57:1 58:2 69:1 76:1 83:1 87:1 92:1 117:1 156:2 169:1 189:1 193:1 197:1 238:2 241:1 251:1 292:1 321:1 348:1 375:1 424:1 427:1 450:1 453:1 532:1 619:1 641:1 789:1 849:1 881:1 1119:1 1120:2 1133:1 1275:1 1287:1 1486:2 
1 1:8 2:5 3:5 4:1 5:5 6:4 7:4 8:5 9:1 11:2 13:2 14:1 15:2 18:1 22:2 26:2 28:2 29:1 30:1 34:1 40:2 46:2 55:2 69:2 72:1 75:1 79:1 102:2 129:1 138:1 148:1 150:1 154:1 156:2 160:1 164:1 173:1 177:1 180:1 201:1 222:1 224:1 237:1 238:5 251:2 258:2 273:1 275:1 289:1 292:1 303:1 304:1 386:2 401:1 420:1 421:2 438:1 456:1 497:1 498:1 502:1 587:2 821:1 881:1 887:1 908:1 1110:2 1280:1 1315:1 1486:2 1538:2 1566:2 1573:1 1709:1 1843:1 1959:1 1989:1 1996:1 
1 7:2 8:1 10:5 12:2 13:2 22:1 30:1 31:1 33:2 54:2 60:1 64:5 66:1 69:1 75:3 79:1 85:1 92:1 106:1 151:2 156:2 165:1 199:1 220:2 232:2 238:1 251:1 264:1 300:1 375:2 483:1 599:1 849:1 853:1 955:1 987:2 1101:5 1196:1 1486:2 1602:1 1805:1 1843:3 1846:1 
1 7:3 8:3 9:4 10:1 15:1 22:1 23:1 33:1 41:1 56:2 59:1 64:1 83:1 98:1 105:1 133:1 157:2 207:1 223:1 232:1 238:3 251:1 281:1 375:1 424:1 514:1 520:1 576:1 587:1 724:1 823:1 955:1 966:1 1101:1 1133:1 1141:1 1408:1 1412:1 1616:1 1803:1 
1 1:49 2:48 3:24 4:24 5:8 6:14 9:13 10:7 13:5 15:3 17:7 18:1 19:2 20:2 21:19 23:2 24:1 25:1 28:1 29:3 31:2 33:1 34:1 35:14 38:2 40:14 41:1 43:1 44:5 48:1 50:3 55:3 57:1 62:1 63:4 64:7 75:2 81:2 85:1 86:7 87:1 89:7 94:2 98:2 111:1 117:1 128:1 136:4 156:5 159:1 162:6 173:1 187:2 193:1 197:1 199:2 203:1 209:1 220:1 239:2 250:2 264:1 271:3 292:3 305:2 319:1 326:1 360:1 372:2 375:1 424:1 469:2 480:1 532:2 574:1 584:1 587:3 599:3 602:1 680:1 681:1 707:1 776:3 781:1 788:1 793:1 797:1 842:1 881:1 887:1 922:7 955:3 1043:1 1061:5 1101:7 1102:5 1119:1 1286:14 1300:1 1317:1 1319:1 1334:1 1414:1 1462:1 1486:5 1506:1 1531:1 1538:3 1592:1 1638:1 1804:1 1843:2 
0.7550283287296196 1:831 2:831 3:3 4:1 5:2 6:15 7:26 8:2 9:4 10:4 13:2 15:3 18:1 21:830 22:5 26:1 28:329 29:1 33:2 36:1 37:1 41:1 58:3 59:1 61:1 64:4 65:1 70:2 73:165 74:2 82:15 101:1 116:1 120:4 123:82 147:1 148:3 149:1 150:6 156:2 180:1 205:15 231:4 238:2 251:5 275:8 276:1 292:1 317:5 334:1 338:10 375:2 394:1 398:5 424:1 447:1 464:1 475:2 487:1 489:4 509:2 520:1 529:1 531:9 553:1 562:1 575:3 587:3 593:7 632:1 697:13 713:1 727:3 752:2 771:1 860:1 881:1 891:167 904:1 908:7 921:1 967:3 972:1 1029:1 1055:1 1056:2 1066:2 1082:7 1101:4 1142:2 1157:1 1164:2 1245:5 1253:166 1298:6 1304:6 1309:4 1322:1 1352:1 1362:1 1409:3 1486:2 1553:2 1573:3 1605:1 1616:1 1626:1 1710:2 1722:2 1732:3 1759:2 1769:1 1831:1 1832:3 1878:2 1971:1 
1 4:2 7:4 8:2 9:2 10:2 13:3 15:4 22:1 23:3 48:2 49:1 50:1 56:1 61:1 64:2 67:2 75:1 77:1 82:1 84:1 99:1 107:1 119:1 120:1 130:1 156:3 157:1 168:1 177:1 180:1 182:1 185:1 232:1 238:2 251:1 271:1 316:1 350:1 507:1 527:1 587:4 599:1 780:1 797:1 821:1 978:2 1079:1 1101:2 1280:1 1365:1 1456:1 1486:3 1531:1 1592:2 1719:1 1731:1 1843:1 
1 1:8 2:5 3:5 4:1 5:5 6:4 7:4 8:7 9:2 10:2 11:2 13:2 14:1 15:3 18:1 26:2 28:2 31:1 34:1 40:2 41:1 46:1 47:2 51:1 59:1 64:2 66:1 69:1 70:1 71:1 75:1 96:1 138:1 156:2 177:1 178:1 193:1 199:1 224:1 237:1 238:7 258:2 267:1 303:1 304:1 386:1 420:1 421:2 424:1 438:1 497:1 502:1 520:1 587:3 659:1 821:1 881:1 1101:2 1164:1 1252:1 1423:1 1486:2 1616:1 1827:1 1843:1 1996:1 
1 7:3 9:3 10:1 15:2 18:1 31:1 33:3 39:1 49:1 55:1 57:2 64:1 69:1 72:1 104:1 132:1 142:3 154:1 165:1 197:2 199:1 241:1 244:1 253:1 281:6 346:2 351:1 375:3 449:1 464:1 572:1 587:2 615:3 619:1 691:1 881:1 900:1 1101:1 1123:1 1287:1 1485:1 1538:1 1709:1 1731:1 1787:3 1800:2 
1 7:5 8:3 9:3 10:6 15:3 18:4 22:1 39:1 41:1 47:2 60:1 61:1 62:1 63:2 64:6 91:1 107:1 110:1 111:1 119:1 136:2 144:1 151:4 155:1 184:1 188:1 238:3 251:1 300:1 409:1 424:1 431:1 494:1 496:1 516:1 529:1 587:3 639:1 677:1 784:1 881:4 987:4 1025:1 1101:6 1114:1 1166:1 1170:1 1193:1 1221:1 1287:1 1356:1 1804:1 1822:1 
1 1:34 2:34 3:35 4:29 5:26 6:24 7:40 8:18 9:4 10:19 11:18 13:28 14:7 15:9 16:7 17:7 18:8 19:8 20:8 21:1 22:6 23:6 24:8 25:8 26:5 29:3 30:2 31:1 32:7 33:4 36:5 37:5 38:3 39:1 40:2 41:2 42:3 43:18 44:3 45:1 46:1 47:2 49:1 50:2 51:5 55:5 56:2 57:2 59:1 60:2 62:3 63:5 64:19 66:3 68:7 70:1 71:4 72:2 75:3 76:1 78:5 79:2 83:1 84:1 85:1 87:18 88:1 92:3 93:3 97:1 100:1 102:1 104:1 105:5 106:1 110:1 111:5 112:11 118:4 120:1 122:4 123:4 126:7 128:1 135:1 136:5 139:2 141:1 143:2 144:1 145:2 146:2 148:1 149:1 151:2 154:1 156:28 157:2 160:1 161:2 162:10 165:1 167:1 168:2 169:1 173:1 177:1 178:5 179:1 183:3 184:1 185:2 186:1 187:1 191:2 196:5 197:2 199:1 201:1 209:2 216:1 220:1 224:5 225:2 226:1 236:1 238:18 240:5 243:2 251:6 252:1 253:2 255:1 264:1 266:2 269:1 271:2 274:1 276:1 278:2 288:1 291:5 292:3 296:1 298:4 300:2 303:1 306:1 307:1 314:1 322:1 330:1 338:1 339:1 344:1 351:1 358:2 365:1 368:1 370:1 375:4 378:1 379:1 381:1 386:1 421:18 423:1 424:2 427:1 454:1 475:1 480:1 484:1 517:2 520:1 530:1 550:1 553:1 587:9 598:1 599:2 614:3 622:2 635:1 652:6 659:4 661:1 669:1 673:1 708:5 714:1 724:1 734:1 742:3 748:1 754:1 755:1 785:1 804:1 811:1 819:2 821:1 849:3 868:2 871:1 881:8 887:1 951:1 964:2 987:2 990:1 998:1 1012:2 1046:1 1050:1 1055:1 1060:1 1079:1 1101:19 1102:3 1109:1 1113:1 1126:1 1128:1 1133:1 1158:1 1164:1 1170:1 1182:2 1196:2 1198:1 1205:1 1287:1 1300:5 1321:1 1328:3 1338:1 1381:1 1385:2 1438:5 1464:2 1470:1 1486:28 1538:5 1566:1 1573:1 1577:1 1595:2 1616:1 1641:1 1651:4 1663:1 1709:2 1715:1 1725:1 1731:1 1741:1 1774:1 1804:5 1825:2 1843:3 1846:1 1950:1 1971:1 1977:1 1989:1 
0.7556047288896928 1:820 2:820 3:3 4:1 5:2 6:13 7:24 8:2 9:4 10:4 13:2 15:3 18:1 21:819 22:4 26:1 28:323 29:1 33:2 36:1 37:1 41:1 42:1 50:1 58:2 59:1 60:1 61:1 64:4 65:2 70:2 73:162 74:2 82:14 101:1 116:2 120:3 123:82 147:1 148:2 149:1 150:6 156:2 180:1 191:1 205:16 231:5 238:2 251:4 271:1 275:8 276:1 292:1 300:1 317:4 334:2 338:11 358:1 375:2 394:1 398:5 424:1 447:1 464:1 475:3 487:2 489:2 509:2 520:1 531:9 553:1 562:1 575:3 587:3 593:7 632:2 697:13 713:1 727:3 737:1 742:1 752:1 771:1 860:1 881:1 891:164 904:1 908:6 921:1 967:3 972:1 1023:1 1029:1 1055:1 1056:2 1066:2 1082:4 1101:4 1142:2 1157:1 1164:2 1245:5 1253:163 1298:6 1304:6 1309:3 1322:1 1352:1 1362:1 1409:3 1486:2 1553:2 1573:2 1605:1 1616:1 1626:1 1710:2 1722:2 1732:3 1759:2 1769:1 1831:1 1832:3 1878:2 1947:1 1971:1 
1 1:448 2:448 3:3 4:1 5:2 6:4 7:19 8:2 9:10 10:6 13:2 15:5 18:2 21:447 22:2 26:1 28:190 29:1 30:2 33:1 36:1 37:1 41:2 42:2 46:1 48:2 57:2 58:1 64:6 70:1 73:95 74:2 79:2 82:3 84:2 123:4 149:1 150:1 156:2 161:2 197:2 205:4 210:1 231:3 238:2 243:1 251:2 275:4 276:1 292:1 317:2 318:1 338:9 375:1 386:1 391:1 394:1 398:3 424:2 475:1 489:1 531:2 573:1 575:4 587:5 715:1 727:8 742:2 752:1 771:1 860:1 881:2 891:99 906:2 921:1 967:6 972:1 1024:1 1055:1 1056:5 1066:14 1079:2 1082:6 1101:6 1142:1 1157:1 1164:1 1188:1 1245:4 1247:2 1253:97 1262:1 1304:4 1322:2 1409:3 1461:2 1486:2 1553:1 1592:2 1595:1 1645:2 1710:1 1720:1 1732:3 1735:1 1759:2 1769:1 1831:1 1878:2 1971:1 1982:2 
1 1:18 2:18 3:35 4:29 5:26 6:16 7:15 8:12 9:5 10:16 11:2 12:12 13:9 15:7 18:6 19:8 20:8 21:1 22:4 23:11 24:8 25:8 26:5 29:2 30:1 33:2 36:5 37:5 38:3 40:2 41:2 42:2 43:4 44:4 45:1 46:1 47:3 49:3 51:1 54:12 56:1 57:4 60:2 61:1 62:4 64:16 65:2 66:4 68:4 76:2 78:1 79:1 85:1 87:4 89:1 93:1 98:1 107:1 112:2 116:1 119:1 126:1 129:1 133:1 141:1 143:1 148:2 151:1 156:9 157:1 164:1 165:1 177:2 178:1 196:4 197:4 206:2 220:1 228:1 238:12 240:1 243:1 248:1 251:4 257:1 264:1 273:1 292:2 300:2 323:2 330:1 334:1 335:2 344:2 347:1 367:2 375:2 376:1 386:1 418:1 421:2 424:2 427:2 434:1 442:1 484:6 487:2 507:1 517:1 576:1 587:7 597:1 599:1 614:1 622:1 742:2 821:2 840:1 881:6 987:1 999:1 1101:16 1102:4 1142:1 1339:3 1438:4 1464:1 1486:9 1519:1 1573:2 1595:1 1731:3 1891:1 1933:1 1959:1 1975:1 
0.9189263862583015 1:42 2:42 3:35 4:29 5:26 6:28 7:18 8:21 9:16 10:21 11:22 13:14 15:15 17:1 18:2 19:8 20:8 21:1 22:7 23:16 24:8 25:8 26:5 29:12 30:5 31:1 33:5 36:5 37:5 38:3 39:1 40:2 41:3 42:2 43:2 44:4 45:1 46:2 49:3 50:3 55:5 56:3 57:1 59:4 60:1 61:1 63:10 64:21 66:1 67:1 69:5 72:2 74:1 75:1 76:1 77:1 78:1 79:5 84:2 85:5 87:2 88:4 90:1 91:3 92:1 93:1 95:4 97:1 98:2 99:1 100:2 101:2 106:1 107:3 110:1 111:1 114:2 116:2 117:2 118:2 119:1 120:1 122:2 123:1 128:2 132:3 134:2 136:10 139:2 141:1 142:2 145:1 156:14 157:3 161:1 162:2 164:4 167:2 169:2 173:1 175:1 182:1 183:1 187:4 190:2 197:1 198:1 199:1 212:1 214:1 219:1 220:2 222:2 225:2 227:2 229:1 232:1 236:2 237:1 238:21 240:1 242:1 251:7 255:1 256:1 260:1 264:5 265:2 271:3 273:4 274:4 279:1 282:2 284:1 286:1 289:1 292:12 294:1 296:1 298:2 300:1 306:1 319:1 322:2 334:2 340:1 343:1 357:1 364:1 368:1 371:1 375:5 376:1 378:1 386:2 421:22 424:3 426:1 427:1 447:2 449:1 454:3 472:1 476:1 478:2 482:1 489:1 491:1 492:1 504:1 520:4 540:1 546:1 586:1 587:15 594:2 614:1 615:2 628:1 635:2 639:3 673:1 738:1 742:2 750:2 781:1 823:1 831:2 849:1 867:1 868:2 871:2 881:2 887:1 951:1 952:1 978:1 990:1 1060:1 1063:1 1079:2 1087:4 1100:1 1101:21 1102:4 1119:2 1121:1 1123:3 1170:1 1178:1 1236:1 1287:1 1321:2 1328:1 1330:1 1336:1 1337:2 1440:1 1460:1 1472:1 1475:1 1486:14 1494:1 1538:5 1547:2 1589:2 1604:1 1616:4 1649:1 1651:2 1709:2 1719:1 1726:1 1731:3 1759:1 1774:1 1804:1 1805:1 1843:1 1846:1 1917:1 1931:1 1991:2 
1 1:729 2:729 3:3 4:1 5:2 6:12 7:26 8:2 9:4 10:3 13:2 15:4 18:1 21:728 22:5 26:1 28:319 29:1 30:1 33:2 36:1 37:1 41:2 42:2 48:1 50:1 57:1 58:3 59:1 60:1 61:1 64:3 65:1 70:1 73:160 74:2 79:1 82:12 84:1 101:1 116:2 120:4 123:12 148:3 149:1 150:7 156:2 161:1 180:1 191:1 197:1 205:14 210:1 231:4 238:2 251:5 271:1 275:7 276:1 292:1 300:1 317:4 334:2 338:10 358:1 375:2 394:1 398:5 424:2 447:1 475:3 487:1 489:4 509:2 520:1 531:10 553:1 575:3 587:4 593:6 632:1 697:12 713:1 727:3 737:1 742:2 752:1 771:1 860:1 881:1 891:163 904:1 906:1 908:5 921:1 967:2 972:1 1023:1 1029:1 1055:1 1056:3 1066:2 1079:1 1082:4 1101:3 1142:2 1157:1 1164:1 1245:5 1247:1 1253:161 1298:6 1304:6 1309:4 1352:1 1362:1 1409:3 1461:1 1486:2 1498:1 1553:1 1573:3 1592:1 1605:1 1616:1 1626:1 1645:1 1710:1 1722:1 1732:3 1759:2 1769:1 1831:1 1832:3 1878:2 1947:1 1971:1 1982:1 
1 1:44 2:44 3:44 4:37 5:35 6:36 7:5 8:10 9:6 10:4 11:14 13:1 14:6 16:6 17:5 18:1 19:9 20:9 21:14 22:1 23:3 24:8 25:8 26:5 28:2 29:1 30:7 31:9 32:3 36:5 37:5 38:4 40:2 42:5 45:1 47:1 59:1 63:1 64:4 79:7 99:1 100:1 117:1 122:2 133:1 136:1 141:1 147:7 149:1 156:1 158:7 171:2 185:2 199:9 224:1 237:1 238:10 246:2 251:1 259:2 292:1 301:1 335:1 361:1 402:3 421:14 430:1 520:1 571:1 742:5 842:1 871:1 881:1 1006:1 1101:4 1119:1 1141:1 1236:1 1486:1 1506:1 1549:1 1561:1 1583:1 1616:1 1622:2 1651:2 1719:1 1876:1 1971:1 
1 1:8 2:8 8:5 12:1 13:5 18:1 21:8 22:2 33:2 44:1 46:1 49:1 50:2 54:1 73:3 144:1 156:5 184:1 224:1 238:5 251:2 271:2 375:2 386:1 462:1 759:2 881:1 982:1 1102:1 1117:1 1250:1 1251:3 1326:1 1395:1 1486:5 1491:1 1571:1 1584:1 1731:1 1864:1 1873:1 
1 7:3 9:1 15:1 23:2 29:2 30:2 43:2 51:1 57:2 59:1 61:1 68:1 79:2 87:2 92:1 93:1 102:1 132:1 135:1 154:1 178:1 197:2 259:1 265:1 292:2 306:1 441:2 517:1 520:1 587:1 614:1 849:1 1123:1 1566:1 1616:1 1725:1 
1 7:2 9:1 10:2 13:1 15:3 43:1 46:2 47:2 48:1 55:1 63:1 64:2 72:1 75:1 87:1 102:1 132:1 134:1 136:1 149:1 155:1 156:1 261:1 291:1 344:1 386:2 431:1 489:1 509:1 587:3 624:1 782:1 1101:2 1123:1 1177:1 1283:1 1486:1 1538:1 1566:1 1592:1 1709:1 1843:1 1971:1 
1 7:1 13:2 15:2 22:1 23:1 31:2 57:1 69:2 71:1 83:1 85:1 126:1 130:1 156:2 197:1 199:2 251:1 264:1 325:1 364:1 414:1 443:1 504:1 587:2 617:1 654:1 659:1 789:1 814:1 837:1 840:1 936:1 949:1 1133:1 1207:1 1456:1 1486:2 
1 7:3 9:4 15:1 23:2 30:2 47:1 51:1 59:2 60:2 61:2 69:1 71:1 72:1 79:2 98:1 123:1 143:3 154:1 160:1 178:1 223:2 282:1 300:2 392:1 511:1 520:2 587:1 594:2 627:1 659:1 837:2 1464:3 1616:2 1709:1 1991:2 
1 7:2 12:4 13:4 15:1 23:1 30:2 31:1 47:2 51:1 54:4 56:1 69:1 71:1 79:2 85:1 106:1 126:1 139:1 156:4 157:1 173:1 178:1 179:1 199:1 264:1 307:1 364:1 436:1 587:1 604:1 659:1 863:1 887:1 966:2 1120:1 1217:1 1486:4 1741:1 1846:1 
1 7:2 8:1 10:1 15:2 23:1 29:1 30:2 41:1 42:3 44:1 47:1 55:1 56:1 57:1 64:1 69:1 75:1 79:2 85:1 97:1 114:1 128:1 134:1 138:1 157:1 160:1 190:1 197:1 203:1 238:1 241:1 264:1 283:1 292:1 363:1 409:1 424:1 440:1 587:2 619:1 638:1 742:3 902:1 951:1 1101:1 1102:1 1317:1 1533:1 1538:1 1589:1 1843:1 1996:1 
1 7:1 9:1 10:1 13:2 18:1 23:2 30:1 33:1 41:1 46:1 47:1 64:1 68:1 69:1 72:1 79:1 99:1 107:1 130:1 156:2 160:1 263:1 307:1 340:1 375:1 386:1 424:1 704:1 828:1 881:1 1101:1 1456:1 1486:2 1709:1 1719:1 
1 7:4 8:1 9:2 10:1 13:2 15:2 18:2 31:2 33:1 39:1 43:2 44:1 47:1 62:1 64:1 69:1 78:1 87:2 93:2 123:1 156:2 190:1 199:2 217:1 234:1 238:1 240:1 313:2 375:1 478:1 517:2 562:1 587:2 614:2 881:2 1071:1 1101:1 1102:1 1187:1 1211:1 1276:1 1287:1 1486:2 1589:1 
0.4765655857361454 7:6 8:1 9:2 10:4 13:1 15:1 22:2 23:2 30:1 39:2 47:1 56:1 64:4 65:1 76:2 79:1 85:1 97:1 104:1 117:1 156:1 157:1 164:1 180:1 217:1 220:1 238:1 241:1 251:2 264:1 273:1 351:1 366:1 427:2 487:1 542:1 587:1 619:1 630:2 703:1 951:1 1101:4 1119:1 1278:1 1287:2 1486:1 
1 7:1 8:1 9:1 13:3 15:1 18:1 30:1 31:1 41:1 42:1 43:2 47:2 56:1 57:1 69:2 75:1 79:1 83:1 87:2 105:1 123:1 126:2 134:1 143:1 156:3 157:1 186:1 197:1 199:1 238:1 250:1 253:1 256:1 266:1 290:1 424:1 509:1 587:1 606:1 742:1 862:1 881:1 1133:1 1464:1 1486:3 1808:1 1843:1 
1 1:9 2:9 3:2 4:1 5:2 7:4 8:1 13:1 16:1 18:1 21:8 23:1 26:1 28:1 33:1 36:1 37:1 148:2 156:1 167:1 238:1 305:1 322:1 375:1 389:1 881:1 982:1 1135:1 1486:1 1520:1 1573:2 
1 4:1 5:2 7:1 9:6 13:2 22:1 30:2 48:1 50:1 58:1 66:1 69:1 77:1 79:2 83:1 88:1 96:2 114:2 128:1 130:1 133:1 151:1 156:2 160:1 175:1 182:1 202:1 212:1 251:1 271:1 274:1 511:1 601:1 707:2 987:1 1133:1 1334:1 1456:1 1462:2 1486:2 1592:1 1622:1 
1 8:2 9:2 10:2 13:2 18:1 33:1 39:1 44:1 63:1 64:2 69:4 71:1 106:1 136:1 156:2 207:2 220:1 230:1 238:2 369:1 375:1 478:1 659:1 806:1 881:1 1058:1 1075:1 1101:2 1102:1 1287:1 1486:2 1703:1 1846:1 
1 7:1 8:1 49:1 58:1 62:1 69:1 77:2 85:1 105:1 180:1 182:2 238:1 264:1 759:1 831:1 1584:1 1731:1 
1 7:4 8:2 9:1 12:2 13:1 15:1 22:1 30:1 31:1 33:1 54:2 69:1 79:1 83:1 105:1 112:1 114:1 156:1 169:1 179:1 199:1 214:1 238:2 241:3 251:1 281:1 307:1 343:1 344:1 375:1 418:1 587:1 619:3 805:1 874:1 966:1 1133:1 1140:1 1486:1 1741:1 1798:1 
0.1170997769894537 7:4 9:2 10:1 18:1 23:1 46:1 60:2 64:1 67:2 76:1 133:1 162:2 250:1 300:2 308:1 318:1 386:1 427:1 881:1 978:2 1101:1 1474:1 1755:1 1807:1 
1 1:2 2:2 8:1 13:1 15:1 17:1 21:2 31:2 33:1 39:3 134:1 156:1 199:2 229:1 238:1 262:2 312:1 373:1 375:1 453:1 587:1 825:1 896:1 1151:1 1247:1 1287:3 1486:1 1649:1 1794:1 
0.7874319221574335 4:1 5:1 9:2 10:1 13:1 15:2 23:3 29:2 30:1 39:1 49:1 64:1 69:3 79:1 105:1 132:1 149:1 156:1 173:1 239:1 292:2 309:1 366:1 385:1 587:2 887:1 1097:1 1101:1 1123:1 1275:1 1278:1 1287:1 1436:1 1446:1 1485:1 1486:1 1731:1 1971:1 
1 9:1 23:2 31:1 41:2 51:1 56:1 58:1 62:1 65:1 69:2 96:1 117:1 155:1 157:1 178:1 199:1 219:1 260:1 307:1 424:2 431:1 487:1 496:1 828:1 1119:1 1191:1 1193:1 1336:1 1557:1 
1 1:2 2:2 7:4 21:2 73:3 123:1 144:3 184:3 231:1 275:1 430:1 574:1 575:1 1832:1 
1 7:3 9:2 13:1 23:1 28:1 39:2 43:1 46:1 48:1 69:2 87:1 140:1 156:1 190:1 241:1 282:1 336:1 386:1 496:1 619:1 1193:1 1287:2 1486:1 1589:1 1592:1 1775:1 
1 1:1 2:1 7:1 9:2 13:1 21:1 22:1 23:1 33:2 49:1 51:1 73:2 135:1 144:1 148:1 152:1 156:1 178:1 179:1 184:1 205:1 251:1 375:2 462:1 733:1 982:1 1423:1 1486:1 1573:1 1725:1 1731:1 1741:1 1864:1 
1 3:1 7:3 10:1 13:2 28:1 39:1 43:1 49:1 57:1 62:1 64:1 69:1 71:1 87:1 90:1 91:1 130:1 142:1 152:1 156:2 197:1 243:1 363:1 398:1 559:1 615:1 639:1 652:1 659:1 689:1 924:1 1101:1 1196:1 1287:1 1456:1 1486:2 1595:1 1627:1 1731:1 
1 9:1 15:1 29:1 39:1 56:1 107:1 119:1 152:1 157:1 169:1 292:1 587:1 668:1 1019:1 1050:1 1287:1 
1 7:4 8:1 13:2 15:4 22:1 23:1 55:1 56:1 59:1 66:2 85:1 105:1 114:1 129:2 134:2 156:2 157:1 160:2 177:1 185:3 209:1 238:1 244:1 248:1 251:1 264:1 339:1 379:1 453:1 520:1 587:4 777:1 821:1 837:1 1033:1 1408:1 1486:2 1493:1 1538:1 1616:1 1959:2 1975:1 
1 7:1 8:2 9:2 13:1 18:1 23:1 33:1 48:1 51:1 57:1 59:1 69:1 83:1 92:1 139:1 140:1 151:1 156:1 178:1 197:1 238:2 259:1 281:1 319:1 335:1 363:1 375:1 399:1 511:1 517:1 520:1 672:1 781:1 849:1 881:1 987:1 1071:1 1088:1 1092:1 1133:1 1316:1 1376:1 1486:1 1592:1 1616:1 1775:1 
1 7:6 10:1 13:1 15:1 33:2 46:1 62:1 64:1 72:1 73:1 156:1 375:2 386:1 587:1 593:1 982:1 1101:1 1135:1 1392:1 1486:1 1709:1 
1 7:5 10:1 15:3 18:2 23:1 29:1 30:1 31:1 44:1 56:1 64:1 66:1 75:1 76:1 79:1 92:1 97:1 122:1 126:1 151:1 152:1 157:1 185:1 199:1 220:1 256:1 266:1 284:1 292:1 316:1 344:1 427:1 449:1 587:3 751:1 849:1 881:2 951:1 987:1 1101:1 1102:1 1371:1 1440:1 1651:1 1843:1 1881:1 1998:1 
1 7:2 8:2 9:1 10:2 13:1 15:1 18:2 23:2 42:1 43:3 47:1 56:1 57:1 64:2 68:1 69:1 87:3 117:1 146:1 156:1 157:1 160:1 168:1 197:1 238:2 243:1 256:1 342:1 545:1 587:1 599:1 630:1 661:1 742:1 881:2 1101:2 1119:1 1272:1 1385:1 1486:1 1595:1 1950:1 
0.2955922288836262 5:1 7:6 8:3 15:1 16:1 22:1 31:2 44:1 55:1 62:1 72:1 83:1 111:1 126:1 138:1 149:1 152:1 162:1 169:1 175:1 199:2 238:3 241:1 242:1 244:1 251:1 294:1 328:1 510:1 517:1 587:1 594:1 619:1 760:1 837:1 1102:1 1109:1 1110:1 1133:1 1538:1 1709:1 1804:1 1971:1 1991:1 1996:1 
1 7:2 8:1 9:10 10:1 13:3 18:2 22:3 23:2 33:1 46:1 47:1 64:1 67:1 69:1 156:3 192:1 200:1 236:1 238:1 251:3 375:1 386:1 771:1 881:2 933:1 978:1 994:1 1035:1 1056:1 1101:1 1115:1 1321:1 1365:1 1486:3 1911:1 1938:1 
1 4:1 5:1 10:1 13:2 22:1 23:1 29:1 33:1 42:1 64:1 67:2 75:1 77:2 85:1 119:1 151:1 156:2 175:1 182:2 200:1 251:1 264:1 292:1 375:1 742:1 978:2 987:1 1101:1 1486:2 1843:1 1911:1 
1 7:1 8:1 9:3 10:1 13:2 15:4 18:1 23:4 29:1 33:1 41:1 43:2 48:1 56:1 64:1 66:1 69:1 76:1 77:1 87:2 98:1 134:2 156:2 157:1 182:1 198:1 238:1 292:1 309:1 344:1 375:1 424:1 427:1 587:4 881:1 1101:1 1192:1 1486:2 1592:1 1699:2 
1 10:2 12:3 13:2 15:3 22:1 23:2 31:1 33:1 41:1 44:1 47:1 54:3 56:1 57:1 60:1 63:2 64:2 69:3 92:1 111:1 129:1 136:2 152:1 156:2 157:1 177:1 197:1 199:1 251:1 300:1 375:1 424:1 441:2 442:1 534:1 572:1 587:3 667:1 819:1 821:1 849:1 866:1 1073:1 1089:1 1101:2 1102:1 1356:1 1486:2 1804:1 1959:1 
1 1:7 2:7 9:2 10:1 17:8 21:7 33:2 39:1 64:1 73:10 150:2 205:4 293:2 338:1 375:2 376:2 394:2 398:7 475:1 1101:1 1287:1 
0.837606285206112 9:5 10:3 15:1 18:4 22:2 23:1 30:3 43:3 47:1 50:1 56:1 64:3 68:4 69:1 79:3 87:3 97:1 104:1 110:1 146:1 154:1 157:1 186:1 251:2 271:1 278:1 345:1 351:1 400:1 478:1 587:1 597:1 881:4 951:1 952:1 1101:3 1170:1 1385:1 1882:1 
1 7:2 8:1 9:2 10:3 12:2 18:1 22:2 30:2 33:1 39:1 48:1 54:2 64:3 65:1 69:1 79:2 90:1 96:1 100:2 122:1 133:1 173:1 238:1 251:2 375:1 381:1 487:1 812:1 833:1 871:2 881:1 887:1 1101:3 1287:1 1592:1 1610:1 1651:1 1683:1 1756:1 1961:1 
1 8:2 9:3 10:3 13:2 15:3 30:3 31:2 33:1 42:1 47:3 56:1 64:3 69:1 78:1 79:3 85:1 96:1 122:1 156:2 157:1 199:2 238:2 240:1 264:1 272:1 344:1 348:1 375:1 443:1 509:1 587:3 742:1 966:2 1101:3 1486:2 1637:1 1651:1 
1 7:2 9:2 13:1 15:2 22:1 46:1 50:1 60:1 77:1 78:1 105:1 112:1 156:1 175:1 177:1 182:1 185:1 200:1 240:1 251:1 269:1 271:1 300:1 386:1 587:2 594:1 821:1 1071:1 1093:1 1117:1 1395:1 1486:1 1911:1 1991:1 
1 7:3 8:4 9:1 10:1 13:1 15:1 18:2 22:4 39:1 42:1 43:1 47:1 64:1 65:1 87:1 99:1 140:1 156:1 163:1 233:1 238:4 251:4 321:1 487:1 517:1 576:1 587:1 734:1 742:1 751:1 762:1 881:2 1101:1 1287:1 1322:1 1459:1 1486:1 1544:1 1719:1 1720:1 1735:1 1775:1 
1 9:1 13:2 16:1 29:1 31:1 33:1 46:1 62:1 63:2 69:1 90:2 104:1 136:2 150:1 156:2 162:1 199:1 214:1 244:1 279:1 292:1 351:1 375:1 386:1 414:1 1068:1 1486:2 
1 8:1 9:1 10:3 13:2 15:2 23:1 29:1 30:3 33:1 42:1 44:5 46:1 48:1 51:1 64:3 65:1 69:1 79:3 83:1 156:2 178:1 212:1 238:1 253:2 292:1 370:1 375:1 386:1 487:1 587:2 742:1 1101:3 1102:5 1133:1 1143:1 1300:1 1486:2 1592:1 1641:1 
1 1:8 2:5 3:5 4:1 5:5 6:4 8:5 11:2 13:2 14:1 15:1 16:1 26:2 28:2 31:1 34:1 40:2 42:1 46:2 123:1 156:2 168:2 180:1 199:1 224:1 237:1 238:5 258:2 303:1 304:1 386:2 398:2 420:1 421:2 438:1 497:1 502:1 531:1 587:1 627:1 742:1 771:1 867:1 1486:2 
1 7:1 9:1 10:1 18:2 22:1 23:1 47:2 50:2 57:1 64:1 66:1 69:1 70:1 71:1 76:1 96:1 122:2 170:2 177:1 191:1 197:1 242:1 251:1 271:2 340:1 358:1 427:1 659:1 711:1 760:1 821:1 881:2 1087:1 1101:1 1164:1 1623:2 1651:2 1678:1 
1 9:2 13:2 15:3 31:2 50:2 58:2 66:1 69:1 130:2 156:2 199:2 201:1 220:1 271:2 326:1 368:1 403:2 587:3 711:1 990:1 1456:2 1486:2 1791:2 1989:1 
0.1752612988224986 4:1 5:1 7:1 9:3 10:3 18:2 23:1 31:1 44:1 46:1 60:1 63:1 64:3 66:1 69:1 91:1 117:1 133:1 136:1 138:1 169:1 199:1 220:1 241:1 300:1 348:1 386:1 509:1 619:1 639:1 881:2 1101:3 1102:1 1119:1 1266:2 1339:1 1365:1 1996:1 
1 8:1 9:4 10:1 13:1 15:1 18:1 22:1 33:1 42:1 64:1 66:1 68:1 78:1 100:1 156:1 161:1 164:1 175:1 188:1 191:1 222:1 238:1 240:1 251:1 261:1 273:1 325:1 338:1 358:1 375:1 587:1 742:1 871:1 881:1 1007:1 1101:1 1486:1 1525:1 
1 1:4 2:4 9:1 15:1 21:4 33:2 73:1 74:1 117:1 148:1 205:1 231:1 375:2 587:1 698:1 771:1 1119:1 1573:1 1637:1 1759:1 
1 7:1 9:2 10:3 13:1 18:2 29:1 30:1 39:1 42:1 46:1 48:1 50:1 64:3 69:1 75:1 79:1 102:1 117:1 119:1 132:1 142:1 156:1 179:1 210:1 241:1 271:1 292:1 323:1 331:1 370:1 386:1 426:1 515:1 615:1 619:1 687:1 742:1 747:1 881:2 1101:3 1119:1 1123:1 1287:1 1486:1 1566:1 1592:1 1741:1 1843:1 
0.3418230381245769 7:2 9:1 12:3 13:3 15:1 18:1 29:1 33:2 44:2 51:1 54:3 59:1 63:2 69:1 74:1 97:1 104:1 111:1 114:1 128:1 136:2 138:1 140:2 154:1 155:1 156:3 178:1 179:2 191:1 194:1 206:1 292:1 302:1 351:1 358:1 375:2 414:1 431:1 474:1 520:1 540:1 587:1 866:1 881:1 932:1 951:1 1102:2 1486:3 1616:1 1741:2 1759:1 1775:2 1804:1 1918:1 1996:1 
1 7:1 8:2 9:2 12:1 15:2 18:1 30:1 33:1 43:1 49:1 51:1 54:1 56:1 69:1 72:1 79:1 87:1 97:1 104:1 107:1 114:1 119:2 134:1 151:1 157:1 165:1 178:1 202:1 225:1 238:2 249:1 280:1 333:1 348:1 351:1 375:1 439:1 519:1 587:2 601:1 868:1 881:1 951:1 987:1 1217:1 1275:1 1285:1 1678:1 1709:1 1731:1 1888:1 1990:1 
1 7:6 9:1 13:2 15:1 22:1 23:1 30:5 31:1 33:2 41:1 44:1 47:1 48:1 66:2 79:5 105:1 106:1 156:2 199:1 241:1 251:1 344:1 375:2 424:1 494:1 587:1 619:1 917:1 1102:1 1326:1 1342:1 1486:2 1592:1 1765:1 1846:1 
1 7:3 8:1 9:1 10:1 13:2 15:2 23:4 30:1 44:1 50:3 58:1 64:1 69:1 77:2 79:1 82:1 90:1 123:1 130:1 134:1 139:1 156:2 170:1 182:2 205:1 229:1 238:1 271:3 284:1 500:1 517:1 587:2 727:1 896:1 926:1 1101:1 1102:1 1440:1 1456:1 1486:2 1623:1 1649:1 
1 7:1 8:1 9:2 13:2 30:1 41:1 66:1 79:1 92:2 105:1 146:1 156:2 210:1 229:1 238:1 327:1 424:1 517:1 736:1 849:2 1100:1 1385:1 1486:2 1649:1 
1 7:2 8:2 10:2 13:1 18:1 22:2 41:1 64:2 126:1 156:1 238:2 251:2 424:1 881:1 1101:2 1356:1 1486:1 1499:1 
1 13:1 15:2 33:1 39:1 44:1 49:1 50:4 51:1 57:1 69:3 71:1 76:1 85:1 88:1 104:1 116:1 128:1 151:1 156:1 178:1 197:1 264:1 271:4 274:1 296:1 334:1 335:1 351:1 375:1 426:1 427:1 465:1 532:1 587:2 659:1 664:1 894:1 954:2 987:1 998:1 1102:1 1287:1 1486:1 1731:1 
1 7:5 9:1 10:5 13:3 15:2 18:1 29:2 30:1 39:1 44:1 64:5 66:2 69:1 79:1 105:1 129:1 156:3 160:1 162:1 292:2 312:1 330:1 381:1 587:2 790:1 815:1 881:1 1023:1 1101:5 1102:1 1151:1 1287:1 1346:1 1486:3 1747:1 1807:1 1959:1 
1 7:2 10:1 33:2 41:1 64:1 73:1 74:1 123:1 362:1 375:2 424:1 484:1 891:1 984:1 1101:1 1157:1 1517:1 1553:1 1710:1 1759:1 
1 13:2 15:10 46:1 49:2 69:1 110:1 149:2 156:2 368:1 386:1 406:1 416:1 572:1 587:10 860:1 990:1 997:1 1120:1 1170:1 1486:2 1731:2 1971:2 
1 1:2 2:2 7:3 8:1 13:2 21:2 29:1 33:1 49:2 73:1 107:1 112:1 114:1 140:1 156:2 238:1 287:1 292:1 375:1 874:1 1019:1 1486:2 1731:2 1775:1 
0.4486457101370349 8:1 9:3 10:1 15:1 29:1 31:1 56:1 64:1 67:2 69:4 105:1 118:1 134:1 157:1 177:1 180:1 185:1 199:1 209:1 216:1 228:1 238:1 292:1 298:1 587:1 744:1 821:1 939:1 978:2 1101:1 1270:1 1300:1 1748:1 
1 8:1 9:3 10:3 13:1 23:1 28:2 30:1 39:1 42:1 48:1 58:3 64:3 65:1 69:1 72:2 79:1 105:1 144:1 146:1 155:1 156:1 162:1 184:1 238:1 431:1 487:1 567:1 708:1 742:1 1101:3 1157:1 1287:1 1385:1 1486:1 1592:1 1709:2 
1 1:13 2:13 3:2 4:2 5:4 6:7 7:4 8:3 10:2 11:10 13:4 15:4 18:1 21:1 22:1 26:1 28:1 30:1 41:2 43:5 46:2 47:1 48:1 49:2 51:1 55:1 59:1 62:1 64:2 74:2 78:1 79:1 87:5 96:1 102:2 106:2 110:1 151:1 154:1 155:2 156:4 175:1 178:1 180:1 186:1 204:1 215:1 219:1 221:1 229:1 238:3 240:1 251:1 301:1 323:2 386:2 389:1 403:1 421:10 424:2 428:1 431:2 520:1 587:4 652:1 881:1 955:1 964:1 987:1 1101:2 1170:1 1177:1 1280:2 1486:4 1538:1 1566:2 1592:1 1616:1 1617:1 1649:1 1731:2 1759:2 1791:1 1846:2 
1 7:2 9:2 10:2 15:2 18:1 39:2 41:1 42:1 56:1 59:1 64:2 67:2 68:1 69:1 88:1 126:2 145:1 157:1 179:1 190:1 192:1 196:1 274:1 424:1 520:1 527:2 587:2 742:1 881:1 954:1 978:2 1101:2 1115:1 1287:2 1365:1 1438:1 1559:1 1589:1 1616:1 1741:1 
1 7:5 8:2 9:1 10:1 15:1 22:1 23:1 28:1 31:2 46:2 47:3 48:1 62:1 64:1 69:1 105:1 107:1 199:2 202:1 238:2 251:1 386:2 422:1 435:2 587:1 601:1 779:1 808:1 986:1 1089:1 1101:1 1393:1 1476:1 1592:1 
1 8:1 9:1 13:2 23:1 30:2 33:1 41:1 48:1 57:1 58:2 79:2 156:2 197:1 223:1 232:1 238:1 247:1 296:1 375:1 424:1 534:1 785:1 791:1 1486:2 1592:1 1792:1 
1 4:1 5:1 9:2 10:2 13:2 15:2 23:1 42:1 43:1 46:1 49:1 50:2 55:1 56:1 62:1 64:2 65:1 69:1 87:1 90:1 105:1 112:1 130:1 156:2 157:1 170:1 253:1 271:2 308:1 310:1 363:1 386:1 433:1 449:1 487:1 500:1 587:2 606:1 742:1 964:1 1101:2 1456:1 1486:2 1538:1 1623:1 1731:1 
1 4:1 5:1 7:1 8:2 9:1 12:1 13:1 23:1 29:2 30:4 39:2 43:1 48:2 50:1 51:1 54:1 57:2 59:1 69:2 75:1 79:4 87:1 88:1 92:1 102:1 138:1 152:1 155:1 156:1 163:1 178:1 197:2 212:1 226:1 238:2 271:1 274:1 292:2 318:1 340:1 344:1 347:1 397:1 419:1 431:1 486:1 520:1 578:1 599:1 849:1 1287:2 1486:1 1566:1 1592:2 1616:1 1747:1 1843:1 1996:1 
1 1:1 2:1 7:1 10:1 21:1 23:1 33:2 42:1 46:1 49:1 64:1 73:2 76:1 152:1 375:2 386:1 427:1 698:1 742:1 853:1 874:1 996:1 1101:1 1283:1 1731:1 
1 1:5 2:5 8:1 12:2 13:1 21:5 30:2 42:2 44:1 46:1 49:1 54:2 61:1 62:1 79:2 110:1 123:2 151:1 156:1 162:1 188:1 192:1 214:1 229:1 238:1 318:3 386:1 430:1 440:1 453:1 599:1 649:1 742:2 964:1 987:1 1073:2 1102:1 1115:1 1138:1 1170:1 1486:1 1649:1 1731:1 1913:1 
1 7:1 8:1 9:3 10:2 13:3 15:1 18:1 33:1 41:1 44:2 47:1 62:1 64:2 69:1 92:1 97:1 126:1 156:3 238:1 375:1 416:1 424:1 587:1 686:1 849:1 881:1 951:1 1101:2 1102:2 1458:1 1486:3 1621:1 
1 7:2 13:2 15:2 23:4 31:2 42:1 51:1 62:1 69:1 76:1 104:1 151:1 156:2 178:1 199:2 202:1 253:2 351:1 366:1 397:2 427:1 576:1 587:2 601:1 653:1 742:1 775:1 987:1 1278:1 1441:1 1486:2 
1 1:4 2:3 3:3 5:1 7:2 9:3 10:1 13:1 15:1 19:1 23:2 24:1 30:2 38:1 39:1 42:1 44:1 51:1 59:1 64:1 72:1 79:2 84:1 114:1 115:1 117:1 125:1 156:1 158:1 160:1 178:1 218:1 234:1 356:1 364:1 498:1 520:1 587:1 636:1 742:1 776:1 837:1 1079:1 1101:1 1102:1 1119:1 1173:1 1287:1 1486:1 1616:1 1622:1 1709:1 
1 7:1 8:1 13:1 15:2 23:1 41:1 69:1 91:1 100:1 130:1 134:1 156:1 238:1 424:1 587:2 639:1 871:1 882:1 1393:1 1456:1 1486:1 
1 7:1 8:1 9:3 13:1 15:1 23:1 31:2 42:1 44:1 47:1 51:1 56:2 57:1 69:1 78:1 101:1 106:1 114:1 115:1 118:1 138:1 154:1 156:1 157:2 178:1 197:1 199:2 216:1 238:1 240:1 247:1 298:1 307:1 434:1 447:1 453:1 587:1 742:1 1102:1 1486:1 1693:2 1846:1 1996:1 
1 9:3 13:2 15:1 33:1 43:2 47:1 49:1 50:3 51:2 58:1 68:1 69:1 76:1 85:1 87:2 92:1 93:1 123:1 156:2 170:1 178:2 234:1 250:1 264:1 271:3 311:1 312:1 327:1 335:1 375:1 427:1 429:1 557:1 587:1 614:1 849:1 861:1 963:1 1004:1 1151:1 1486:2 1557:1 1623:1 1731:1 1734:1 
0.1236571754142786 9:1 23:1 29:2 30:1 33:1 39:1 43:4 49:1 69:1 71:1 79:1 84:1 87:4 90:1 98:1 102:1 104:2 132:1 148:1 207:1 214:2 244:1 261:1 281:1 292:2 307:1 319:2 351:2 363:1 375:1 426:1 540:1 659:1 781:2 801:1 837:1 931:1 1079:1 1123:1 1287:1 1515:1 1566:1 1573:1 1731:1 1854:1 1882:1 
1 7:2 8:1 10:1 13:3 15:1 18:1 23:1 33:1 46:1 62:1 64:1 65:1 67:1 69:1 105:1 133:1 146:1 156:3 238:1 289:1 369:1 375:1 385:1 386:1 418:1 450:1 487:1 523:1 541:1 587:1 762:1 775:1 881:1 978:1 1087:1 1101:1 1385:1 1486:3 
1 1:2 2:2 6:1 7:2 9:1 10:1 11:2 23:2 30:3 33:1 39:1 48:1 64:1 79:3 93:1 118:1 298:1 346:1 375:1 421:2 614:1 1101:1 1287:1 1592:1 1800:1 
1 7:5 8:1 13:1 22:1 29:1 41:1 44:1 144:1 148:1 150:1 156:1 184:1 238:1 251:1 292:1 359:1 424:1 1102:1 1486:1 1573:1 
1 7:2 8:2 9:1 13:1 15:1 18:1 23:1 31:2 41:1 42:2 47:1 49:1 58:1 66:2 67:1 85:1 96:1 105:1 118:1 132:1 133:1 156:1 185:1 199:2 228:1 237:1 238:2 247:1 261:1 264:1 298:1 318:1 424:1 587:1 686:1 718:2 742:2 881:1 978:1 1123:1 1300:1 1408:1 1486:1 1731:1 
1 7:4 8:2 10:2 12:5 13:1 15:2 18:3 23:1 33:1 43:1 46:1 51:1 54:5 56:1 59:1 64:2 66:1 69:1 72:1 87:1 92:1 107:1 126:1 139:1 154:1 156:1 157:1 169:1 177:1 178:1 206:1 209:1 238:2 241:1 242:1 307:1 375:1 386:1 520:1 587:2 619:1 698:2 821:1 849:1 881:3 1061:2 1101:2 1168:1 1486:1 1616:1 1709:1 1862:1 
0.2937329829357267 7:3 8:1 10:1 12:4 13:2 15:1 23:2 30:1 31:1 44:1 47:1 49:1 51:1 54:4 64:1 69:2 75:1 79:1 83:1 97:1 156:2 178:1 193:1 199:1 238:1 281:1 344:1 366:1 395:1 403:1 416:1 435:1 587:1 866:1 951:1 1101:1 1102:1 1133:1 1278:1 1408:1 1486:2 1731:1 1791:1 1843:1 
1 7:2 9:2 10:1 13:1 15:2 22:1 23:2 29:1 31:2 33:1 41:2 44:1 64:1 69:1 126:1 152:1 156:1 194:1 199:2 251:1 253:1 292:1 375:1 403:1 424:2 526:1 587:2 957:1 999:1 1101:1 1102:1 1486:1 1791:1 1869:2 1882:1 1918:1 
1 7:2 8:1 9:1 10:1 13:1 15:4 23:1 29:1 31:3 41:2 55:1 64:1 66:2 69:1 96:1 105:1 126:2 134:1 149:1 156:1 163:2 191:1 199:3 238:1 241:1 292:1 309:1 313:1 339:1 358:1 424:2 434:1 473:1 587:4 619:1 866:1 1101:1 1344:1 1486:1 1538:1 1971:1 
1 8:2 9:2 10:1 13:1 15:1 23:1 29:1 30:1 41:1 48:2 50:1 56:1 64:1 69:4 79:1 84:1 99:1 134:1 156:1 157:1 165:1 168:1 191:1 202:1 228:1 238:2 241:1 271:1 289:1 292:1 358:1 424:1 587:1 598:1 599:1 601:1 619:1 884:1 1079:1 1101:1 1486:1 1592:2 1719:1 1793:1 
