svm_type c_svc
kernel_type rbf
gamma 0.0005
nr_class 2
total_sv 1985
rho -0.224269
label 1 -1
probA -2.81958
probB 1.45872
nr_sv 1000 985
SV
1 15:1 91:1 115:1 123:1 150:1 333:1 352:1 510:1 1344:1 
1 1:4 2:4 6:3 8:1 9:1 13:1 14:4 16:4 21:2 32:1 41:2 78:1 91:2 99:1 108:1 119:1 165:1 170:1 184:1 200:1 202:2 240:2 545:4 761:1 782:1 1128:1 
1 7:10 10:3 12:3 13:2 18:1 22:2 28:3 30:1 42:1 44:1 52:1 59:1 64:1 71:1 72:1 77:1 106:2 111:2 113:1 153:1 156:1 174:2 176:1 181:1 232:1 279:1 384:1 1088:1 1192:1 1585:1 1756:1 
0.3912193293849044 70:1 115:28 500:1 
1 4:1 7:2 9:1 12:1 13:1 22:1 23:1 42:1 47:1 70:1 100:1 641:1 715:1 840:1 1001:1 
1 15:1 29:1 59:1 88:1 1567:1 1919:1 
1 15:1 31:1 48:1 55:1 57:1 144:1 261:1 508:1 1192:1 
1 9:1 10:5 12:1 13:1 15:1 23:4 28:2 31:3 49:1 50:1 56:1 59:1 70:2 80:1 85:1 108:1 133:2 237:2 309:1 319:2 340:1 1085:2 1102:1 1214:1 
1 7:2 8:2 9:1 10:1 12:3 13:1 28:2 43:2 45:1 49:1 52:1 57:1 64:2 68:1 70:1 72:2 84:1 93:2 101:1 106:1 119:1 133:1 151:2 156:1 181:1 184:1 228:1 251:1 254:1 261:2 341:2 670:1 1255:1 1469:1 1547:1 
1 10:2 15:1 18:1 22:1 23:1 30:1 31:1 55:2 57:2 67:1 73:1 91:1 97:1 121:1 135:1 208:2 211:1 230:1 396:1 713:1 
1 7:1 13:4 15:2 31:1 43:1 44:1 48:1 62:1 70:1 71:2 88:2 99:1 111:1 113:1 124:2 133:1 135:2 149:1 224:1 310:1 482:2 1625:1 
1 7:2 13:1 79:1 113:1 120:1 182:1 270:1 289:1 460:1 463:1 1547:1 
1 28:1 31:2 32:2 42:1 52:1 55:2 62:1 84:2 100:1 139:1 277:1 384:1 863:2 1388:1 
1 1:10 2:9 3:1 6:9 8:2 9:5 11:6 18:1 21:2 26:1 28:1 29:5 47:5 53:2 54:2 111:1 335:1 641:1 648:1 666:1 794:1 1078:1 1312:1 1403:1 
1 4:2 5:2 7:2 9:3 10:1 12:1 13:4 15:2 23:1 45:1 70:1 80:2 84:1 91:2 94:1 115:1 127:1 150:1 153:1 176:1 332:1 352:2 442:1 1288:2 1651:1 1919:1 
1 10:2 18:2 28:3 31:2 45:1 49:3 60:3 70:1 73:1 176:1 224:1 254:1 320:1 480:1 802:1 806:1 
1 1:9 2:8 3:1 6:8 8:2 9:5 11:5 18:1 21:2 26:1 28:1 29:5 47:5 53:2 54:2 111:1 335:1 641:1 648:1 666:1 794:1 1078:1 1312:1 1403:1 
1 7:2 12:1 28:1 34:1 42:1 49:1 58:1 70:2 72:1 84:1 144:1 258:1 329:1 602:1 
1 1:6 2:6 21:6 29:8 74:8 83:1 339:2 532:1 648:1 864:1 909:1 1330:1 1914:1 
1 1:3 2:3 7:2 9:1 13:1 21:3 28:1 43:1 81:1 816:1 1246:1 1635:1 1776:1 
1 7:3 12:12 13:7 28:6 60:7 74:1 139:6 263:6 356:6 396:7 806:1 
1 7:2 9:3 12:7 13:2 15:1 18:1 28:1 32:1 45:1 56:1 57:2 58:1 62:1 70:1 98:1 99:1 119:1 127:1 130:2 144:1 208:1 224:1 245:1 247:1 286:1 340:1 396:1 430:1 448:1 1003:1 1340:2 1409:1 1898:1 
0.7432853914074578 1:86 2:86 7:1 10:2 13:1 17:1 18:1 21:86 28:3 34:1 49:2 53:1 54:1 61:1 71:1 74:1 124:1 134:1 141:30 144:46 151:1 172:1 206:2 232:1 276:1 319:1 339:1 399:1 471:1 476:1 478:1 490:1 532:1 540:1 576:1 594:1 650:1 698:1 699:1 728:1 752:34 875:1 883:1 909:1 919:1 946:1 968:1 1057:1 1067:1 1083:1 1143:2 1246:1 1305:1 1310:1 1330:1 1363:1 1369:1 1518:2 1606:1 1616:1 1666:2 1833:1 1863:1 1865:1 1921:1 
1 6:1 7:2 8:2 9:1 13:2 78:4 97:1 121:1 133:1 187:1 201:1 224:1 396:1 460:1 513:1 825:1 
1 7:2 8:1 9:3 10:1 13:1 18:1 23:2 34:1 61:1 120:1 131:1 137:1 176:1 235:1 372:1 400:1 490:1 576:1 934:1 1050:1 1493:1 1801:1 
1 5:1 7:4 8:1 9:3 10:3 12:3 13:1 15:1 18:2 30:1 42:1 48:1 64:1 73:1 77:1 127:1 153:1 157:2 218:1 273:1 371:1 400:1 428:1 462:3 469:3 494:1 512:1 666:1 681:1 816:1 
1 9:1 10:1 12:2 15:2 23:2 28:2 30:1 32:1 45:1 56:2 68:2 70:1 78:4 86:3 176:2 183:1 224:1 247:1 292:1 434:1 450:1 499:2 1402:1 1977:1 
1 7:1 8:2 9:1 13:1 43:1 48:1 78:2 134:1 183:1 224:1 307:1 314:1 393:2 739:1 964:1 1128:1 
1 7:1 8:3 9:1 12:2 15:1 18:1 40:1 48:1 50:1 77:1 105:1 115:1 131:1 133:1 149:1 210:1 238:1 289:1 
1 7:3 10:2 12:1 13:2 28:2 30:1 31:1 42:2 43:1 45:3 48:2 55:3 56:2 66:1 68:1 70:1 73:1 78:3 129:1 156:1 161:1 204:1 254:1 336:1 454:2 571:1 668:1 773:1 1218:1 1245:1 1467:1 
1 7:1 9:2 10:3 13:1 18:1 28:1 30:2 31:2 40:3 43:1 44:2 49:1 52:1 60:1 64:2 70:1 72:1 73:1 75:1 84:1 89:1 97:1 98:1 103:1 137:1 164:2 251:1 275:1 338:1 405:1 418:1 970:1 1406:1 
1 7:3 9:1 10:3 12:2 13:3 15:1 18:1 23:1 32:3 40:1 42:1 47:1 73:1 75:1 167:1 203:1 229:1 268:1 277:1 291:4 456:1 476:1 583:1 1388:1 1409:1 
1 9:6 10:3 12:1 13:2 15:3 28:1 31:3 42:1 48:2 55:4 56:1 58:1 70:1 73:1 78:2 91:2 123:1 150:1 176:1 188:1 215:1 257:1 312:1 367:1 396:1 459:1 555:2 742:1 964:1 
1 7:3 8:2 10:1 12:1 13:2 18:2 31:1 32:1 40:1 43:2 48:1 68:2 70:1 73:1 77:1 78:1 105:1 108:1 131:1 174:1 183:2 415:1 502:1 740:1 1397:1 
0.2628793962427243 7:3 13:3 15:2 18:1 22:1 32:1 43:3 45:1 50:2 55:4 62:1 70:1 105:2 112:1 120:1 130:3 165:1 231:1 367:1 396:3 686:1 719:1 821:1 1089:1 
1 7:1 9:1 12:1 13:2 15:2 31:1 32:1 43:2 48:1 50:1 51:1 58:2 59:1 61:1 62:1 69:1 70:1 72:1 100:1 105:1 106:1 260:1 261:1 272:1 396:1 660:1 692:1 811:1 905:1 
1 10:3 12:1 13:1 15:3 18:2 31:1 34:2 43:1 57:1 62:1 66:1 70:2 80:1 107:1 136:1 144:1 157:1 338:1 428:1 495:1 1242:1 1611:1 
0.8033076342593839 1:110 2:110 3:123 4:75 5:114 6:68 7:5 8:71 9:2 10:3 11:20 12:2 13:1 14:3 15:1 16:3 17:3 19:20 20:20 21:1 22:5 24:8 25:8 26:35 28:2 31:1 33:1 37:5 38:5 39:15 41:2 46:1 47:1 48:2 49:1 57:2 65:1 75:1 76:1 81:2 88:3 93:1 109:1 127:1 142:1 144:1 148:4 159:4 172:1 173:30 231:1 257:1 285:1 510:1 570:1 737:1 807:1 860:1 1065:1 1392:1 1985:1 
1 7:1 8:1 9:3 10:2 12:2 13:1 15:2 23:2 30:1 32:1 34:1 45:1 70:1 77:1 127:1 131:2 137:1 238:1 265:1 314:1 388:1 643:1 715:1 814:1 897:1 976:1 1075:1 1293:1 
1 7:1 9:2 12:4 15:1 22:2 23:1 32:1 40:1 42:1 70:2 73:1 85:1 86:1 102:1 129:1 130:1 131:1 140:1 157:1 171:2 224:1 247:1 288:1 311:1 314:3 364:2 367:1 500:1 542:1 558:1 1154:1 1337:1 1397:1 
1 7:2 8:1 9:3 10:3 12:2 13:3 15:4 22:1 23:1 28:1 34:2 43:2 49:1 70:1 89:1 113:1 127:1 243:1 295:1 299:1 368:1 528:1 655:1 681:1 1272:1 1722:1 1869:1 
1 8:1 10:5 50:2 53:2 54:2 70:3 78:3 178:4 183:1 475:1 627:2 1009:1 1135:1 1456:1 
1 7:1 10:1 12:2 13:2 23:3 28:1 30:2 32:3 34:1 40:1 45:1 47:1 49:1 50:1 57:2 70:1 140:1 153:1 198:1 257:1 367:2 380:1 510:1 719:1 776:1 814:1 925:1 
1 1:44 2:44 3:42 4:21 5:42 7:1 8:21 10:3 13:1 14:1 15:1 21:23 26:21 28:1 30:1 37:21 38:21 43:1 50:1 51:1 56:1 59:1 75:1 79:1 98:1 119:1 131:1 150:1 204:1 239:1 335:1 405:1 499:1 627:1 1688:1 
1 7:4 9:2 12:3 13:2 16:1 23:1 34:2 40:2 45:2 53:1 54:1 67:1 70:2 105:1 131:1 158:1 215:1 225:1 271:1 324:1 334:1 364:1 367:1 413:1 550:1 740:1 964:1 1841:1 
1 10:1 13:2 15:2 18:1 28:1 50:2 55:2 60:1 62:1 70:1 77:1 79:2 89:1 99:1 115:1 131:1 139:1 153:2 160:1 193:1 231:1 396:1 454:2 707:1 764:1 891:2 1315:1 
1 7:8 10:3 13:1 15:2 23:1 32:1 43:2 53:1 54:1 55:3 56:2 60:1 67:1 70:4 72:1 75:1 89:1 103:1 127:1 139:1 180:1 199:1 249:1 251:1 269:1 291:2 319:1 351:1 499:1 500:1 796:1 933:1 1399:1 
1 7:1 9:2 13:1 60:1 120:1 157:1 268:1 840:1 
1 7:1 9:3 10:3 12:2 13:2 15:4 18:2 22:2 23:1 47:2 52:1 60:1 62:1 70:1 73:1 89:1 98:1 105:2 115:1 129:1 143:2 263:1 268:1 269:1 513:1 751:1 1322:1 1680:1 
1 4:1 5:1 8:1 9:1 12:1 13:1 18:1 31:1 67:1 70:2 144:1 217:1 289:1 315:1 441:1 876:1 
1 7:3 9:2 10:1 12:3 23:2 28:1 31:1 32:1 47:1 48:1 49:1 58:1 63:1 69:1 70:1 72:1 80:1 84:3 89:1 186:1 241:1 405:1 524:1 575:1 668:1 822:1 925:1 1085:1 1098:1 1412:1 
1 7:1 10:1 12:2 28:1 30:1 42:1 45:1 49:1 60:1 70:1 72:2 98:1 157:1 297:1 313:1 400:1 434:1 1323:1 
1 7:3 8:2 10:1 13:1 15:2 23:2 45:1 48:1 59:1 70:1 80:1 88:1 150:1 178:1 217:1 329:1 442:1 529:1 628:1 712:1 723:3 1238:1 1792:1 1889:1 
0.03849045993576927 7:1 9:5 10:5 12:1 13:3 23:4 48:1 52:1 65:1 69:1 70:1 72:1 136:3 141:1 144:3 289:1 1005:1 1092:1 1373:1 1660:1 1982:1 
1 9:4 10:1 12:1 13:2 15:2 18:1 28:3 30:1 31:2 32:1 34:1 49:1 52:1 55:2 58:1 62:1 68:2 70:1 78:1 98:1 115:2 123:1 129:1 139:2 141:1 143:1 155:1 158:1 161:1 217:1 220:1 238:1 248:1 348:1 967:1 1340:1 1977:1 
1 4:1 5:1 7:2 8:1 9:2 12:1 13:1 15:1 18:1 31:1 32:1 44:3 50:2 60:1 65:1 67:1 70:1 77:1 79:1 88:1 89:1 94:1 108:1 117:1 135:1 158:1 186:1 224:1 254:1 256:1 286:1 291:1 312:1 375:1 398:2 1857:1 
1 7:3 9:2 10:1 12:5 13:1 15:2 28:1 31:1 32:1 43:1 47:1 51:1 56:1 63:1 70:1 80:1 105:2 127:1 140:1 143:1 150:3 157:1 158:1 164:1 166:1 211:1 217:1 221:1 254:1 270:1 450:1 505:1 723:1 1080:1 
1 9:1 10:2 13:3 15:1 22:1 31:1 40:3 47:1 58:1 70:1 75:1 94:1 120:1 133:1 156:1 180:1 253:1 291:1 427:1 434:1 585:1 588:1 864:1 1050:1 1158:1 1312:1 
0.8773592288158083 1:47 2:47 7:2 9:70 17:1 21:47 47:1 74:40 124:20 151:2 182:40 206:19 232:5 490:1 699:1 1067:8 1083:30 1369:5 1518:1 1606:1 1666:6 1865:3 
1 1:1 2:1 7:2 13:1 21:1 34:1 40:1 60:1 74:1 85:1 144:1 198:1 360:1 713:1 816:1 1299:1 
1 7:2 8:1 10:1 15:1 18:1 22:1 42:1 47:1 48:1 79:1 100:1 105:1 240:1 270:1 943:1 
1 7:2 12:1 28:1 31:1 51:2 55:1 62:1 73:2 108:1 111:1 115:1 149:1 169:1 189:1 208:1 221:1 224:1 228:1 320:1 366:1 396:1 492:1 588:1 1314:1 1841:1 
1 7:2 8:1 9:1 10:1 12:1 15:1 23:1 31:1 84:1 100:1 111:1 127:1 889:1 1050:1 1189:1 1951:1 
1 8:2 9:1 12:4 13:1 15:1 23:1 34:1 45:1 57:1 64:2 67:2 70:1 77:1 89:1 93:1 106:1 127:1 130:1 131:1 133:1 186:1 254:1 291:1 434:1 668:1 826:1 1157:1 1547:1 1811:1 
1 7:1 9:1 10:1 12:1 13:2 22:1 23:2 28:2 34:1 47:1 69:1 70:1 137:2 232:1 490:1 532:1 1088:1 1366:1 1794:1 1880:1 
1 7:2 8:1 9:2 10:1 12:1 22:1 28:2 31:1 47:1 49:2 59:1 62:1 68:1 70:2 78:1 80:1 84:1 93:1 99:1 106:2 111:1 117:1 124:1 157:1 183:1 868:1 1192:1 1375:1 
1 7:6 10:1 13:1 15:2 28:1 31:1 40:3 51:1 56:1 57:1 62:1 64:4 70:2 97:1 123:1 161:1 167:1 171:1 210:1 244:1 306:1 315:1 388:1 404:1 427:1 571:1 937:1 1679:1 
1 7:1 8:2 9:1 12:7 13:1 22:1 23:1 28:1 32:2 64:1 65:1 68:1 70:2 76:1 101:1 127:1 152:1 208:1 224:2 247:1 251:1 290:1 307:1 382:1 595:1 752:1 
1 7:3 9:1 10:3 13:3 18:5 22:2 29:1 32:1 40:1 45:1 64:1 86:1 92:1 112:1 121:1 211:1 335:1 618:1 627:1 647:1 
1 8:1 13:1 18:2 28:3 31:1 32:2 34:1 49:1 55:4 66:2 70:1 72:2 106:1 123:1 127:1 139:1 147:1 157:1 180:1 228:1 258:1 860:1 1178:1 1218:1 
1 1:6 2:6 21:6 29:2 53:1 54:1 104:1 173:1 237:1 
1 7:2 12:3 13:1 15:2 30:5 32:2 34:1 43:1 45:1 51:3 62:1 65:3 70:1 72:1 106:1 107:1 119:1 153:1 161:1 171:1 254:1 334:1 419:1 430:2 477:3 1469:1 
1 7:7 8:2 10:1 12:3 13:2 23:2 31:1 34:1 40:1 66:1 67:1 70:1 76:1 80:1 89:1 113:1 130:1 153:1 230:1 241:1 297:1 329:1 396:2 1128:1 1708:1 
1 1:2 2:2 7:1 9:5 13:1 21:2 43:1 74:1 144:1 647:1 698:1 1546:1 1635:1 1863:1 
1 1:2 2:2 10:1 12:2 21:2 22:1 23:1 43:1 45:1 47:1 59:1 63:1 86:1 221:1 247:1 284:1 460:1 796:1 1403:1 1755:1 1812:1 
1 7:2 9:2 10:1 13:1 22:2 23:1 40:1 120:1 131:1 137:1 934:1 960:1 1493:1 1801:1 
1 7:2 12:1 23:1 28:1 29:1 32:1 34:1 42:1 45:1 49:1 57:1 58:1 67:1 68:1 70:1 106:1 115:1 183:2 367:1 876:2 
1 7:1 15:4 18:1 23:2 28:1 31:1 44:1 45:1 48:1 49:1 52:1 53:1 54:1 59:1 60:1 67:1 70:2 88:1 97:1 101:1 112:1 118:1 137:1 150:1 152:1 158:1 180:1 181:1 217:1 269:1 289:1 776:1 860:1 947:1 1312:1 
1 1:7 2:7 21:7 29:2 53:1 54:1 173:1 211:1 237:1 
1 7:4 10:1 12:1 13:1 22:1 44:1 50:1 52:1 59:2 60:2 74:1 75:2 79:1 88:1 106:2 108:1 113:1 178:1 179:1 230:1 240:1 241:1 286:1 289:1 367:1 1239:1 
1 7:2 8:1 10:2 12:2 15:1 22:1 23:1 30:1 62:2 67:1 72:1 85:1 89:2 99:1 115:2 117:1 144:1 351:1 356:1 424:2 549:1 976:1 1653:1 1767:1 
1 7:4 10:1 12:1 13:1 15:3 23:1 42:1 44:1 45:1 47:3 70:1 76:1 80:1 88:1 94:1 100:1 108:1 119:1 210:1 225:1 329:3 336:1 341:1 1079:1 
1 1:43 2:43 3:55 4:47 5:46 6:25 7:2 8:12 11:10 19:9 20:9 21:1 24:8 25:8 26:6 28:2 37:5 38:5 39:4 41:16 46:1 142:1 148:16 159:16 173:1 572:2 
1 7:3 9:4 10:5 12:3 13:2 15:3 18:1 22:1 28:1 40:1 43:1 44:4 48:1 52:1 53:1 54:1 60:1 63:1 68:1 69:3 70:1 84:1 86:1 93:1 98:1 127:2 139:1 169:1 265:1 269:1 291:1 292:4 374:1 462:1 469:1 500:1 534:1 615:1 681:1 744:1 1507:1 1898:1 
1 8:1 13:2 23:1 31:1 42:1 44:1 66:3 70:1 76:1 80:3 84:3 86:1 120:1 144:2 147:1 213:1 293:2 328:1 363:1 1337:2 1507:1 
1 7:1 9:1 10:1 12:2 13:1 15:2 28:2 32:1 42:1 43:1 49:1 52:1 56:1 68:1 70:1 78:1 93:1 101:1 112:1 200:1 316:1 340:1 430:1 451:1 725:1 750:2 819:1 1591:1 1698:1 
1 4:1 5:1 7:3 8:1 9:4 10:6 12:1 13:2 15:4 18:2 22:3 23:2 28:2 31:2 34:3 40:1 50:1 51:2 56:2 64:6 73:1 86:2 92:2 98:1 99:1 112:1 115:1 117:1 188:1 193:1 199:1 220:1 274:1 299:1 320:2 398:1 434:1 488:1 499:2 653:1 901:1 989:1 1378:1 1386:1 1402:1 1656:1 1778:1 1788:1 
0.7455381936432159 1:126 2:126 3:75 4:3 5:1 6:82 8:1 10:2 11:1 12:2 13:2 15:2 16:2 18:1 21:126 22:1 28:2 29:1 42:3 43:1 47:1 49:2 51:1 60:1 70:21 74:1 76:1 97:1 107:1 121:1 123:1 124:13 141:2 144:43 151:3 165:1 185:12 206:58 232:6 276:1 335:1 339:1 360:1 374:1 399:1 401:1 476:2 484:1 490:1 532:5 540:13 576:12 594:1 597:1 613:1 641:1 648:1 666:1 699:1 864:1 875:3 959:1 1019:2 1026:1 1057:22 1083:1 1103:1 1130:1 1143:23 1246:9 1305:6 1330:3 1345:1 1369:19 1518:4 1575:1 1651:2 1666:16 1824:2 1865:12 
0.5713501799564323 1:4 2:4 9:1 21:4 118:1 124:28 144:24 151:4 206:44 232:13 276:1 399:1 476:2 490:1 532:1 576:3 909:10 1057:3 1067:28 1155:2 1246:1 1310:3 1386:1 1606:11 1833:22 1863:3 
0.7757424287515015 1:184 2:184 6:6 9:637 13:1 21:184 29:4 83:1 360:1 543:3 546:1 1189:12 1343:2 1485:4 1684:4 1766:10 
1 7:1 8:1 9:2 10:2 13:1 22:1 30:1 43:1 44:2 47:1 57:1 70:1 79:2 88:1 94:1 119:1 140:1 447:1 860:1 988:1 1065:1 1493:1 1746:1 
1 7:3 9:1 13:2 16:1 22:2 63:1 144:1 150:1 253:1 695:1 742:1 851:1 983:1 1403:1 1521:1 1580:1 
1 1:1 2:1 7:2 9:5 21:1 32:1 45:1 47:1 53:1 54:1 102:1 144:1 173:1 816:1 1248:1 1336:1 1575:1 1637:1 
1 7:3 9:2 10:2 12:3 13:3 23:1 43:1 50:1 57:1 59:1 70:1 72:1 89:1 106:1 108:1 141:1 144:1 149:1 187:1 193:1 230:1 369:1 393:1 643:1 860:1 925:1 1073:1 1347:1 1720:1 1829:1 1995:1 
0.1590166862122233 7:4 9:3 13:1 23:2 30:1 31:1 32:1 43:2 45:1 51:1 52:1 55:3 57:1 58:1 70:1 91:1 113:1 166:1 202:1 217:1 221:1 289:1 320:1 334:1 396:1 492:1 555:1 558:1 703:1 860:2 953:1 1808:1 
1 7:2 9:2 10:2 12:1 13:1 23:2 28:1 29:2 30:1 32:1 49:1 50:1 57:1 60:1 70:1 78:1 79:1 80:2 101:1 115:1 127:1 158:1 176:1 232:1 238:1 319:1 451:1 517:1 753:1 
1 1:8 2:5 3:5 4:2 5:6 6:4 7:2 8:5 9:5 10:1 11:2 13:2 14:1 15:1 23:3 26:2 29:2 32:1 34:6 35:1 41:2 47:1 51:1 55:4 58:1 70:1 71:1 77:1 91:1 99:2 112:3 115:1 186:1 210:2 225:1 226:1 238:2 259:2 282:1 304:1 305:1 421:1 439:1 498:1 503:1 932:1 1272:1 1648:1 1965:1 1977:1 
1 7:2 10:3 13:1 15:1 22:1 28:1 40:3 47:1 52:1 53:1 54:1 55:1 56:1 70:1 127:1 144:1 158:1 170:1 255:1 289:1 324:1 334:1 497:1 884:1 1023:2 1726:1 
1 8:1 9:3 15:2 18:1 31:1 34:2 40:1 52:1 67:1 70:1 73:1 91:1 97:1 144:1 161:1 171:1 191:1 232:1 236:1 253:1 276:1 393:1 454:1 713:2 972:1 1170:1 1176:1 1487:1 1827:1 
0.01158546620408193 7:1 9:3 10:1 16:1 22:1 28:2 30:2 31:2 34:1 40:2 47:1 49:2 50:1 51:3 55:4 66:1 70:1 105:1 143:4 144:1 171:1 180:2 186:1 240:1 261:1 369:1 607:1 1235:1 1388:1 1475:1 1696:1 1698:1 
1 7:6 10:1 13:1 15:1 18:1 22:1 31:2 34:1 44:4 48:1 52:1 57:1 67:1 69:1 85:1 94:1 144:2 194:2 289:1 315:1 367:1 386:1 655:1 662:1 1057:1 1093:1 1246:1 
1 7:1 9:3 10:1 16:1 22:1 28:2 30:2 31:2 34:1 40:2 47:1 49:2 50:1 51:3 55:4 66:1 70:1 105:1 143:4 144:1 171:1 180:2 186:1 240:1 261:1 369:1 607:1 1235:1 1388:1 1475:1 1696:1 1698:1 
1 7:1 9:2 10:2 12:1 13:1 15:1 18:1 34:1 43:2 45:1 63:1 70:1 73:1 84:1 93:2 113:1 146:1 160:1 270:1 319:1 404:1 487:1 500:1 785:1 811:1 
1 7:1 8:2 9:2 10:1 12:1 13:2 18:1 22:1 23:3 30:1 31:1 32:1 48:1 52:1 55:5 62:1 70:1 73:1 92:1 99:1 106:1 112:1 165:1 166:1 187:1 224:1 226:1 247:1 265:1 281:1 290:1 480:1 1020:1 1304:1 1803:2 
1 7:2 12:2 15:3 28:1 32:2 40:1 42:2 50:1 59:4 62:1 70:2 72:1 102:1 112:1 139:1 161:1 200:2 291:1 319:1 560:1 1387:1 
0.227287579951713 7:1 8:1 9:1 10:2 12:1 13:1 15:3 18:1 28:3 30:2 45:4 50:1 56:3 64:2 70:1 130:1 131:2 134:1 164:1 215:1 379:1 571:1 588:1 607:1 723:1 884:2 1702:1 1932:1 
1 7:1 9:1 10:3 34:1 52:1 60:1 64:1 74:1 79:1 112:1 113:1 123:2 349:1 742:1 1189:1 1882:1 
1 7:1 9:2 10:1 15:2 22:3 30:3 40:3 44:1 47:1 50:1 52:1 59:1 60:1 70:1 80:1 88:1 93:1 143:1 164:1 270:1 280:1 338:2 718:1 769:1 1069:1 1288:1 
1 1:1 2:1 7:1 8:2 9:1 10:2 12:1 13:1 15:1 21:1 30:1 53:1 54:1 60:2 62:1 72:1 74:1 120:2 130:1 131:1 149:1 155:1 169:1 187:1 198:1 300:1 316:1 339:1 364:1 393:1 725:1 826:1 1521:1 
1 7:2 8:1 9:1 10:3 15:2 18:2 28:1 47:1 49:1 92:1 241:1 270:1 602:1 891:1 1022:1 1880:1 
1 7:1 8:1 10:1 12:3 13:1 22:1 30:1 32:2 40:1 43:1 50:1 51:2 53:1 54:1 57:1 59:1 70:1 72:1 75:1 106:1 129:1 130:1 131:1 164:1 166:1 215:1 484:1 561:2 990:1 1439:1 
1 7:2 9:3 10:3 13:1 15:1 23:2 28:2 31:1 42:1 43:1 48:1 49:1 50:1 52:1 55:1 56:1 57:1 60:1 62:1 70:1 74:1 91:1 131:1 136:1 144:1 146:1 276:1 316:1 393:1 404:1 571:1 1005:1 
1 7:2 8:1 9:3 10:2 13:1 18:2 22:1 23:1 28:1 47:1 77:1 120:1 137:1 176:1 814:1 934:1 1050:1 1088:1 
1 7:2 10:1 12:1 13:1 18:1 23:3 30:1 50:1 52:1 64:2 70:1 73:1 77:1 100:1 108:1 120:1 137:1 149:1 193:1 237:1 309:1 456:1 521:1 1351:1 1779:1 
1 7:2 9:5 10:1 12:4 28:2 32:1 44:1 45:1 48:1 51:3 56:2 57:1 62:1 69:3 86:1 200:1 204:1 224:2 272:3 320:1 334:1 450:1 494:1 524:1 652:1 673:1 723:1 755:1 1409:1 
1 7:2 9:5 10:2 15:1 18:1 28:1 40:1 43:2 47:1 49:1 51:1 52:1 55:1 60:1 62:1 66:2 70:3 100:1 103:1 118:1 135:1 153:2 201:1 302:1 313:1 405:1 409:1 435:1 500:1 566:1 723:2 740:1 1292:2 1883:1 
1 5:2 7:2 8:1 9:1 13:1 23:2 28:2 31:2 40:1 43:1 49:2 51:1 55:1 57:2 70:1 72:1 210:1 346:1 1276:1 1561:3 1963:1 
1 7:2 9:1 10:1 12:2 13:2 15:1 28:1 32:1 34:1 43:1 45:1 47:1 50:3 66:1 69:1 70:1 72:1 89:1 108:1 120:1 131:2 147:1 254:1 279:1 404:1 588:1 751:1 860:1 1118:1 1154:1 1579:1 1599:1 
0.8363076855343099 1:76 2:76 14:35 16:3 21:76 28:2 44:3 70:9 85:3 268:3 454:3 462:2 742:3 
1 7:1 9:1 10:1 13:1 15:1 22:1 23:1 57:1 60:1 62:1 64:2 65:1 107:1 121:1 141:1 176:1 191:1 396:1 453:1 461:1 
1 7:1 8:1 9:3 12:3 13:1 23:1 28:1 43:1 47:1 52:1 58:1 63:1 70:1 71:1 86:1 115:1 139:1 144:1 153:1 239:1 245:1 289:1 290:1 297:1 637:1 642:1 788:1 876:1 1045:1 1354:1 1607:1 1684:1 
1 7:1 10:2 13:1 22:2 23:1 43:1 60:1 70:1 92:1 108:1 120:1 131:1 252:1 396:1 477:1 
1 7:1 9:3 10:2 12:1 13:1 18:1 22:1 30:2 32:1 44:3 52:1 67:1 69:1 70:1 79:1 99:2 113:1 163:1 181:2 193:1 210:1 236:1 256:1 291:1 310:1 336:1 434:1 570:1 765:1 
1 7:2 8:1 9:3 10:2 13:1 18:2 22:1 23:1 28:1 47:1 77:1 120:1 137:1 176:1 814:1 934:1 1050:1 1088:1 
1 8:1 13:2 15:1 45:1 50:1 55:1 144:1 215:1 270:1 360:1 495:1 508:1 633:1 1359:1 1521:1 
1 7:2 10:2 13:2 15:2 30:1 34:1 40:1 50:1 51:2 55:3 57:3 62:1 66:2 70:5 77:1 98:2 115:1 130:1 131:1 144:1 155:1 231:1 261:1 291:1 369:1 405:1 1118:1 1275:1 1827:1 
0.7841461012860904 12:2 15:1 28:3 32:1 45:3 49:2 51:1 62:1 70:1 143:1 157:1 169:1 171:1 176:2 195:2 217:2 235:1 252:1 272:4 293:2 334:1 335:1 364:1 368:1 412:1 595:1 627:1 927:1 1437:1 
1 7:4 10:1 14:1 15:1 23:2 31:1 32:1 42:1 60:1 68:1 72:1 84:1 85:1 164:1 183:3 200:1 237:1 251:1 309:1 329:1 338:1 501:1 521:1 986:1 1657:1 
1 8:3 9:3 12:1 13:2 34:1 51:3 52:1 55:2 59:1 62:1 69:3 70:2 71:2 105:1 123:1 129:2 141:1 155:1 193:1 230:2 238:1 269:1 272:1 336:1 410:1 477:1 1076:1 
1 8:1 13:2 15:1 45:1 50:1 55:1 144:1 215:1 270:1 360:1 495:1 508:1 633:1 1359:1 1521:1 
1 7:2 8:1 9:1 10:3 15:2 18:2 28:1 47:1 49:1 92:1 241:1 270:1 602:1 891:1 1022:1 1880:1 
1 12:2 13:1 15:2 18:2 22:1 23:1 31:1 40:1 50:3 51:1 52:1 60:1 69:1 70:1 72:1 77:2 91:1 105:1 117:1 130:1 161:1 171:1 182:1 191:2 198:1 236:1 267:2 303:2 313:1 323:1 396:1 500:1 1856:1 
1 8:1 13:2 15:1 45:1 50:1 55:1 144:1 215:1 270:1 360:1 495:1 508:1 633:1 1359:1 1521:1 
1 7:1 9:2 15:2 23:1 48:2 52:1 60:1 77:1 136:1 149:1 193:1 655:1 1032:1 1354:1 
1 1:4 2:4 8:1 13:3 21:4 63:1 74:2 149:1 649:1 695:1 909:1 1521:1 1863:1 
1 7:1 8:1 9:1 13:1 18:1 34:1 40:1 43:1 45:2 47:3 62:1 64:2 70:1 84:1 92:1 146:1 149:1 270:1 311:1 415:1 418:1 521:1 690:1 740:1 869:1 
1 7:4 8:1 9:2 15:1 18:1 31:3 34:2 45:2 47:1 51:1 55:3 57:1 59:1 66:1 70:2 73:1 106:2 115:1 155:1 192:1 281:1 319:1 367:1 772:1 774:1 1098:2 1118:1 
1 13:1 15:1 30:1 31:3 45:1 51:1 55:1 57:1 58:1 70:2 72:1 77:1 98:1 123:1 149:1 320:1 535:1 806:1 1066:1 1098:1 1289:1 
1 7:3 8:1 9:2 10:1 12:1 13:1 28:3 44:3 45:1 47:1 48:1 52:1 53:1 54:1 57:1 59:1 70:1 72:1 74:1 88:1 93:1 106:1 108:1 113:1 115:1 120:1 139:1 144:1 163:1 180:1 224:1 289:1 376:1 398:1 595:2 728:1 957:1 1773:1 1779:1 
1 7:3 12:4 13:3 28:2 31:2 32:1 34:1 45:1 47:1 49:2 50:2 63:1 70:1 72:1 93:1 108:1 115:1 129:1 144:1 161:1 163:2 185:1 242:1 245:1 405:1 475:1 809:1 819:1 1111:1 1390:1 1779:1 
1 7:1 8:1 9:4 10:1 12:4 22:1 23:1 28:1 30:1 32:1 34:1 43:1 48:2 56:1 70:1 73:1 113:1 130:1 141:1 150:1 187:1 188:1 200:1 291:1 345:1 442:1 499:1 592:1 844:1 1104:1 
1 7:1 10:1 12:2 13:1 23:1 28:1 34:2 45:1 59:1 149:1 279:1 324:1 405:1 742:1 1142:1 1152:1 1521:1 1572:1 
1 1:24 2:24 3:43 4:37 5:33 6:20 8:10 11:2 13:1 17:1 19:9 20:9 21:2 24:8 25:9 26:5 28:2 36:2 37:5 38:5 39:4 41:2 46:1 59:14 81:2 82:1 87:1 95:1 116:1 124:1 142:1 144:14 159:1 519:14 1083:1 1651:14 1776:14 
1 7:4 8:3 10:1 12:2 15:2 23:1 30:2 45:2 48:3 50:1 53:1 54:1 65:1 66:1 101:1 108:2 178:1 186:1 238:1 681:1 841:1 1409:1 1811:2 1853:1 
1 7:6 8:1 9:1 10:1 12:3 13:2 15:2 22:1 31:2 32:3 34:1 48:1 76:1 97:1 106:1 108:2 120:1 158:1 166:1 233:1 243:1 310:1 311:1 367:2 419:1 454:1 500:1 742:1 1219:2 
1 7:6 9:1 10:1 12:4 15:2 23:1 28:1 32:1 43:1 49:1 57:1 80:1 93:1 106:1 127:1 130:1 152:1 186:1 193:1 230:1 289:2 351:1 367:1 444:1 578:1 776:1 819:1 822:1 867:1 1239:1 1378:2 
1 1:8 2:5 3:5 4:2 5:6 6:4 7:2 8:5 9:2 10:2 11:2 13:2 14:1 15:2 23:1 26:2 29:2 30:1 31:1 35:1 40:2 41:2 44:3 45:1 47:1 51:1 55:1 58:1 60:1 62:1 63:1 69:1 111:1 143:1 149:2 164:2 189:1 225:1 238:1 259:2 304:1 305:1 336:1 363:1 421:1 439:1 498:1 503:1 692:1 1507:1 1696:1 
1 7:3 8:2 9:3 12:2 13:2 15:2 23:3 32:1 34:1 43:1 45:1 52:1 55:1 65:1 68:1 70:1 78:1 80:2 102:1 108:1 120:1 127:2 135:1 161:1 226:1 240:1 242:2 251:1 291:1 295:1 681:2 907:1 
1 7:1 9:2 10:1 12:7 13:1 15:1 18:1 28:1 31:2 32:1 40:1 47:1 50:1 52:1 56:1 70:1 72:1 93:1 99:1 108:1 129:1 135:1 149:2 176:1 204:1 224:1 238:1 256:1 269:1 291:1 301:1 369:1 535:1 666:1 
1 12:2 15:4 22:1 23:1 28:1 31:1 34:1 45:4 62:1 63:1 70:1 73:1 105:1 106:1 139:1 189:1 379:1 833:1 1152:1 1289:1 1384:2 
1 7:1 8:1 10:2 13:3 22:2 23:1 28:1 29:1 31:1 40:2 42:1 43:1 47:1 58:1 65:2 70:1 76:1 88:1 94:1 180:1 217:1 291:1 423:1 442:1 1361:1 1670:1 
1 7:3 8:1 9:3 10:3 12:3 13:2 18:1 23:1 30:1 32:1 40:2 64:1 70:1 93:1 106:2 144:2 170:1 181:1 192:1 219:1 266:1 396:2 436:1 440:1 662:1 1429:1 1718:1 1809:1 1912:1 
1 7:3 9:1 12:3 15:3 18:1 28:3 32:2 40:1 42:1 43:1 47:1 50:2 56:1 57:2 72:1 77:1 89:1 93:1 99:1 102:1 108:1 113:2 129:1 134:1 135:1 161:1 191:1 204:1 273:1 279:1 493:1 834:1 1194:1 1319:1 1475:2 1646:1 1921:1 
1 7:2 9:3 10:2 12:3 13:3 15:1 18:1 23:2 28:3 43:1 48:2 49:1 65:1 70:1 77:1 93:1 127:1 139:1 157:1 228:1 247:1 291:1 309:1 319:1 990:1 1443:1 1490:1 
1 7:3 8:1 10:4 13:2 22:2 23:2 30:3 40:1 42:1 44:1 64:3 92:1 100:1 120:2 149:1 165:1 178:1 197:1 308:1 474:1 477:1 574:1 1037:1 1218:2 1555:1 
1 9:3 12:1 13:2 28:3 31:3 34:1 42:1 44:2 47:1 49:2 59:2 70:1 72:1 73:1 80:2 88:3 106:2 123:2 124:1 127:1 153:1 180:1 228:1 235:1 367:2 510:1 566:1 768:1 772:1 838:1 1001:1 1041:1 1128:2 1315:1 1638:1 
1 7:5 8:2 9:3 10:1 13:2 15:1 18:2 22:2 28:1 32:1 40:2 47:1 49:1 57:1 77:1 120:1 183:2 185:2 198:1 230:1 249:1 262:1 269:1 291:1 428:1 535:1 574:1 644:1 868:1 899:1 919:1 1059:1 
1 7:1 9:2 10:5 12:3 15:1 22:1 23:2 28:1 30:1 34:1 42:1 56:1 60:1 64:1 67:1 70:1 80:1 85:1 131:1 133:1 140:1 163:1 174:1 188:1 221:1 224:1 237:1 252:1 319:2 349:1 477:1 1146:1 1923:1 
1 8:2 9:1 12:1 22:1 28:1 34:1 40:1 44:1 47:1 50:1 52:1 56:1 67:1 72:1 99:1 204:1 320:1 405:1 662:1 1546:1 1638:1 
1 7:2 8:1 10:1 13:2 15:3 23:1 34:1 43:1 44:1 50:1 51:1 53:1 54:1 57:2 67:1 69:1 70:1 80:1 89:1 131:1 141:1 147:2 155:1 178:1 185:1 186:1 221:1 249:1 285:1 291:1 404:1 434:2 1396:1 
1 7:1 9:5 10:3 18:1 22:3 30:1 32:1 40:1 53:1 54:1 60:1 62:2 70:1 158:1 171:1 190:1 200:1 206:1 251:1 834:1 1179:1 1272:2 1740:1 1883:1 
1 10:4 15:3 31:2 44:1 70:1 99:4 143:3 208:2 264:2 306:3 402:1 858:1 1789:2 
1 7:3 8:1 9:3 12:1 13:2 34:1 53:1 54:1 70:2 75:1 94:1 107:1 243:1 244:1 257:1 324:1 363:1 396:3 1085:1 
1 7:5 8:2 13:1 15:2 22:1 23:3 28:1 56:1 57:1 63:1 64:1 68:1 70:1 78:2 79:1 85:1 86:1 112:1 115:1 158:1 183:3 184:1 188:1 208:1 247:1 401:1 499:1 502:1 1469:1 
1 7:2 8:3 9:1 12:4 13:2 23:2 28:2 30:2 31:1 44:1 49:1 67:1 70:1 80:1 100:1 134:1 156:2 158:1 164:2 184:1 202:1 223:1 238:2 252:1 285:1 289:2 337:1 424:1 499:1 581:1 674:1 766:1 1348:1 
1 6:1 7:4 8:1 10:3 12:1 13:2 15:1 23:3 34:1 47:1 48:1 52:1 57:1 64:1 76:1 91:1 137:2 144:1 169:1 191:1 217:1 303:1 352:1 355:1 682:1 810:1 825:1 
1 7:3 9:1 10:2 12:1 13:1 15:3 18:1 23:3 31:1 47:1 67:1 69:1 70:1 80:1 93:1 100:2 127:1 137:1 150:2 178:1 186:1 434:1 628:1 640:1 1201:1 1209:1 1651:2 
0.5614878592087287 7:1 8:3 9:2 13:3 15:3 18:2 50:2 51:1 55:1 57:1 58:1 60:3 62:1 70:1 74:1 76:1 99:1 144:1 161:2 320:1 434:2 475:1 778:1 1292:1 1636:1 1905:1 
1 7:1 9:2 10:2 12:3 13:1 15:3 18:1 22:2 23:2 31:1 32:1 45:1 53:1 54:1 57:1 67:3 70:1 93:1 106:1 127:1 135:1 169:1 223:1 434:1 742:1 816:1 858:1 910:1 944:1 1074:1 1076:1 1419:1 1547:1 1758:1 
1 1:7 2:6 3:2 5:2 6:6 8:3 11:1 13:2 15:1 21:4 26:2 34:1 42:2 43:1 52:1 53:1 54:1 63:1 70:4 72:1 85:1 91:1 92:1 111:1 135:1 144:1 258:1 263:1 382:1 393:1 415:1 427:1 454:1 739:1 935:1 941:1 1359:1 1869:1 1977:1 
1 9:1 10:4 13:1 15:2 23:1 28:1 42:1 43:1 47:1 49:1 63:1 67:1 70:2 91:1 97:1 113:1 131:1 179:1 833:1 855:1 876:1 990:1 
1 7:1 8:3 9:2 10:1 12:3 13:1 15:1 22:1 23:1 28:2 32:1 34:1 44:1 48:1 49:1 50:1 52:1 57:1 63:1 70:1 86:1 106:1 120:1 131:1 144:1 245:1 256:1 291:1 309:1 359:1 595:1 602:1 618:1 810:1 1085:1 1096:1 1316:1 1582:1 1811:1 
1 7:4 9:1 10:3 12:6 13:1 23:2 32:1 43:2 70:1 111:1 136:1 144:1 155:1 193:1 203:1 224:1 230:1 393:1 396:1 430:1 456:1 521:1 1528:1 
1 7:1 9:2 10:2 12:3 13:1 18:2 23:2 28:1 30:1 32:1 34:1 45:3 47:1 49:1 70:1 71:1 72:1 78:2 80:1 100:1 118:1 133:1 143:2 158:1 162:1 190:1 230:1 574:1 776:1 924:1 976:1 1340:1 1474:1 
0.353009422798163 7:2 8:1 13:1 15:1 22:1 28:1 30:3 45:1 55:3 57:3 59:1 62:1 64:2 68:1 70:3 75:1 78:1 84:2 112:1 117:1 120:1 139:1 144:1 155:2 176:1 231:1 236:1 261:1 291:1 351:1 358:1 465:1 530:1 774:1 776:1 806:1 1698:1 
1 7:2 10:3 12:2 13:2 18:1 22:1 32:1 40:1 43:1 48:1 58:1 59:1 64:1 66:1 67:1 70:1 111:1 113:1 127:1 174:1 189:1 213:1 221:1 294:1 369:1 519:1 584:1 719:1 876:1 988:1 1638:1 
1 7:2 8:1 13:1 22:1 34:1 47:1 52:1 74:1 83:1 169:1 185:1 306:2 706:1 723:1 983:1 1077:1 1136:1 1732:1 
1 7:4 8:3 10:2 13:2 23:1 34:1 47:1 48:2 70:1 162:1 197:2 235:1 241:4 275:1 294:1 349:1 502:1 610:1 679:1 723:7 1085:1 
1 7:1 8:2 9:2 12:1 16:2 22:1 32:1 42:1 43:2 59:1 63:1 64:1 70:1 89:1 116:1 123:1 127:1 220:1 221:1 230:2 276:1 308:1 1490:1 
1 7:2 12:2 23:1 28:3 32:1 47:1 49:1 52:1 56:1 59:1 60:1 63:1 70:4 91:1 103:1 105:1 131:1 150:1 174:1 279:1 286:1 303:1 313:1 343:1 365:1 490:1 521:1 547:1 927:1 1193:1 1493:1 1532:1 
1 7:1 8:1 9:4 10:3 12:3 13:2 15:1 18:1 22:1 31:1 34:1 50:1 52:1 58:1 62:1 70:1 73:1 107:1 135:1 147:1 167:1 173:1 224:2 313:1 535:1 963:1 988:1 1027:1 1388:1 1841:1 
1 7:3 8:2 9:2 10:2 13:2 18:1 28:1 30:1 44:3 48:4 51:1 56:1 63:1 69:1 70:1 80:1 88:2 102:1 117:1 127:1 158:1 160:1 192:1 204:1 218:1 230:2 393:1 434:1 558:1 844:1 
1 7:1 9:1 12:2 13:2 23:1 29:1 31:3 32:1 40:1 43:1 57:1 70:1 72:1 178:1 186:1 202:1 215:1 388:1 393:1 814:1 916:1 956:2 1982:1 
1 7:3 12:3 13:2 15:1 23:1 32:1 42:1 47:1 68:1 69:1 70:1 71:1 101:1 127:1 141:1 150:1 241:1 291:1 1443:1 1490:1 1670:1 
1 8:1 10:1 12:1 13:2 23:1 34:1 48:1 51:1 59:2 75:1 117:1 144:2 203:1 239:1 289:1 324:1 369:1 552:2 987:1 1239:1 1728:1 
1 10:3 12:2 13:1 15:1 18:2 22:1 23:2 31:1 43:1 48:2 57:1 63:1 64:1 70:4 89:1 93:1 94:1 133:1 160:1 161:1 187:1 251:1 292:1 371:1 583:1 585:1 607:1 681:2 
1 8:1 12:1 13:3 15:1 28:4 31:2 34:1 45:2 49:2 51:2 52:1 55:2 56:2 58:3 70:1 72:1 77:1 89:1 106:2 119:1 135:1 143:1 164:1 170:1 221:1 226:1 231:1 250:1 262:1 435:2 511:1 623:1 775:1 802:1 927:1 1883:1 
1 7:1 8:3 9:1 10:2 12:1 15:2 18:1 22:1 30:1 31:1 34:1 40:1 61:1 70:1 76:1 77:1 93:1 118:1 137:1 141:1 150:1 238:1 341:1 348:2 356:1 750:1 869:1 1620:1 1955:3 
1 8:1 9:3 10:3 12:4 13:1 15:2 23:3 30:2 32:1 48:1 52:1 58:1 70:2 76:1 89:2 115:1 127:1 136:1 144:1 158:1 316:1 351:1 391:1 442:1 477:1 483:1 849:1 858:1 860:1 
1 7:1 8:3 9:2 10:1 12:8 18:1 23:4 28:1 32:1 45:1 48:1 49:1 63:3 66:1 70:1 106:1 133:2 224:2 247:1 265:2 1246:1 1305:1 1352:1 1765:1 
1 7:2 8:2 9:2 10:2 12:2 13:2 15:1 28:1 31:1 34:1 40:2 52:1 62:1 67:1 70:1 105:1 113:1 127:1 134:1 144:1 158:2 161:1 184:1 185:1 208:1 297:1 329:1 429:1 434:2 595:1 1403:1 
0.7756734512721581 1:160 2:153 3:49 4:43 5:49 6:71 7:3 8:11 9:8 11:17 12:1 19:6 21:5 24:1 25:1 29:4 36:13 37:7 38:7 39:6 70:1 81:8 82:1 90:4 95:2 96:4 104:6 124:5 126:22 148:57 159:11 182:1 209:4 219:24 239:1 357:2 399:2 540:1 619:10 622:10 831:4 1102:1 1147:4 1233:1 1580:1 1883:2 
1 7:2 9:2 10:2 12:2 13:2 15:2 23:3 31:3 32:1 52:1 57:1 70:1 74:1 83:1 91:1 97:1 144:1 155:1 316:2 393:3 448:1 490:1 925:1 1528:1 1565:1 1708:1 1807:1 
1 7:5 8:2 10:3 12:1 13:1 15:1 23:3 32:1 43:1 48:1 65:1 67:1 70:1 79:1 80:1 84:1 144:1 162:1 166:1 200:1 227:1 238:1 257:2 268:1 291:1 1411:1 1746:1 
1 7:3 10:1 12:2 13:2 15:1 23:3 34:1 48:1 58:1 65:1 84:1 99:1 107:1 135:1 141:1 144:2 202:1 203:1 260:1 289:1 334:1 393:1 447:1 920:1 
1 5:1 7:1 8:1 12:5 13:1 15:1 28:3 30:2 32:1 42:1 45:1 49:1 56:2 62:1 70:1 78:1 133:1 134:1 135:1 150:1 161:1 224:1 238:1 243:1 269:1 275:1 286:1 340:1 458:1 618:1 623:1 674:1 1240:1 1468:1 
1 7:1 9:3 10:4 18:2 22:1 28:2 32:1 40:1 42:1 49:1 50:1 51:1 56:1 70:1 129:1 188:1 226:1 243:1 256:1 335:1 368:1 388:1 794:1 814:1 835:1 935:1 1047:1 1439:1 
1 7:1 9:1 10:4 12:2 13:1 18:4 30:2 32:1 43:1 70:1 108:1 120:1 129:1 136:1 150:1 178:1 237:1 243:1 338:1 653:1 769:1 823:1 1026:1 1045:1 1436:1 1976:1 
1 7:1 8:1 9:2 10:1 12:2 13:3 15:3 23:1 32:2 40:1 45:2 48:1 58:1 68:1 70:1 118:1 135:1 161:1 200:1 210:1 290:1 312:1 425:1 526:1 561:2 671:1 761:1 788:1 1023:2 1074:1 
1 7:1 9:2 10:2 12:3 13:2 18:1 22:1 31:1 32:2 43:4 46:1 47:1 54:1 58:1 59:2 60:1 70:1 97:1 121:1 123:1 130:2 228:1 268:1 269:1 331:1 359:1 367:2 780:1 
0.9880743196587038 7:1 9:4 10:1 13:2 23:1 32:1 43:1 47:1 66:1 70:1 75:1 80:1 144:1 165:1 178:1 180:1 203:1 230:1 251:1 260:1 261:1 434:1 690:1 1192:1 1489:1 1708:1 
1 7:3 8:2 10:1 12:2 13:1 15:1 18:1 23:3 29:1 34:1 50:1 58:1 60:2 62:1 63:1 70:1 99:1 112:1 137:2 141:1 144:1 155:1 169:1 395:1 607:1 615:1 1436:1 
0.4215703245599231 4:1 5:1 7:3 8:1 9:1 10:1 12:2 13:4 15:1 18:2 23:3 28:1 30:1 31:2 32:1 43:1 56:1 77:2 79:1 84:1 176:2 188:1 250:1 258:2 291:3 390:1 834:2 889:1 1708:1 1739:1 
0.9252969006697437 7:4 8:1 9:3 12:1 13:2 28:2 31:1 34:1 42:1 44:2 50:1 51:2 63:1 73:1 88:2 91:2 98:2 105:1 108:2 135:1 166:1 228:2 230:1 232:1 235:1 238:1 256:1 265:1 291:2 309:1 313:1 375:1 387:1 394:1 530:1 600:1 735:1 1507:1 
1 7:2 9:1 10:1 12:4 13:2 22:1 28:1 29:1 30:1 31:3 45:1 51:1 57:1 58:1 70:1 100:1 106:1 123:1 134:1 164:1 206:1 224:1 230:2 231:1 242:1 494:1 595:1 811:1 905:1 964:1 1730:1 
1 9:1 12:3 13:2 15:4 23:1 28:2 32:1 45:3 47:1 51:1 56:1 60:1 63:1 70:1 97:1 139:1 176:1 187:1 189:1 190:1 194:1 195:1 204:1 215:1 221:1 247:1 285:1 289:1 349:1 366:1 497:1 814:1 1128:1 
1 7:1 10:2 12:1 13:2 15:2 22:1 23:1 32:2 34:1 69:1 70:1 127:1 131:2 144:1 163:1 193:1 238:1 257:1 291:1 766:1 1397:1 1451:1 1834:2 
1 7:2 8:1 10:2 12:2 13:2 15:1 23:3 28:1 31:1 47:1 48:1 58:1 65:2 70:1 76:1 79:1 106:1 155:1 228:1 308:1 309:1 319:1 367:1 393:1 398:1 456:1 723:1 899:1 1048:1 1493:1 1807:1 1868:1 
0.4758509812036851 7:1 12:1 13:2 15:1 28:2 30:1 32:3 34:2 45:1 49:2 51:1 66:1 70:1 130:1 291:1 494:1 554:1 561:1 761:1 844:1 901:1 1453:1 
1 7:1 8:2 9:2 10:1 12:2 13:1 15:1 18:2 22:1 28:1 30:1 32:1 34:1 45:1 49:1 57:1 59:1 68:2 78:1 106:1 127:1 150:1 155:1 208:1 238:2 242:1 336:1 432:1 692:1 1030:1 1491:1 
1 7:5 8:5 9:1 10:1 13:4 15:1 22:4 23:5 30:1 31:2 58:1 62:1 64:2 66:1 69:1 70:1 76:1 78:1 79:1 89:2 100:1 144:2 160:1 164:1 347:2 369:1 912:1 1565:3 
1 8:2 9:2 10:3 12:1 13:1 18:1 23:1 28:1 30:2 34:1 42:1 45:1 47:1 49:1 67:1 70:1 73:1 77:1 89:1 108:1 120:1 143:1 220:1 294:1 302:1 452:1 480:1 548:1 802:1 871:1 1025:1 1573:1 1698:2 
1 7:4 8:2 9:1 12:5 13:1 23:3 28:1 31:1 43:1 48:1 52:1 56:1 61:1 63:1 65:1 67:1 70:1 80:1 100:1 105:1 141:1 157:1 162:1 186:1 336:1 435:3 450:1 702:1 841:1 1063:1 1134:1 1227:1 
1 7:1 8:1 9:2 10:1 13:5 28:2 30:1 40:1 42:1 43:1 49:2 53:1 54:1 64:2 70:1 156:1 158:1 331:1 931:1 1637:1 1726:1 
0.7757310027876614 1:192 2:192 3:180 4:120 5:166 6:111 7:32 8:88 9:11 10:5 11:90 12:3 13:9 15:3 18:5 19:24 20:24 21:1 22:2 23:2 24:8 25:8 26:40 28:16 29:1 30:1 31:4 34:1 37:5 38:5 39:19 40:4 41:2 42:2 44:7 46:3 47:1 48:1 49:2 51:2 52:1 57:1 58:5 59:6 60:1 63:4 64:2 65:2 66:1 67:1 68:1 70:1 71:2 72:2 75:1 77:2 78:1 79:1 84:2 86:1 88:3 91:1 93:2 94:3 97:1 101:1 106:3 108:1 111:1 112:1 115:1 116:11 123:1 134:1 137:2 142:1 147:2 148:30 153:1 156:1 159:41 170:1 173:35 176:1 179:1 187:1 194:1 202:1 203:1 224:2 228:1 230:2 274:1 281:1 303:1 304:1 312:1 315:1 320:1 322:2 324:1 328:2 336:1 337:1 341:1 361:1 367:1 380:1 382:1 390:2 417:1 423:1 432:1 494:1 510:1 515:1 537:2 563:1 572:15 575:1 577:1 579:1 602:2 637:1 703:1 709:2 710:2 776:1 782:1 820:1 832:1 851:1 855:1 878:1 940:1 948:1 971:2 992:1 1065:1 1133:1 1134:1 1171:1 1230:1 1255:1 1271:1 1305:1 1468:1 1576:1 1650:1 1817:1 1892:1 1897:1 
1 7:4 12:7 23:2 28:1 34:1 43:1 56:1 58:2 63:1 65:1 67:1 76:1 84:2 86:1 103:1 127:1 140:1 167:1 178:1 204:1 227:1 236:1 245:1 265:1 282:2 379:1 435:1 986:1 1409:1 1783:1 1789:1 
1 7:2 8:2 9:1 10:2 12:1 13:1 15:1 18:1 23:2 28:1 30:1 48:1 49:1 53:1 54:1 61:1 70:1 75:1 80:1 89:1 193:1 230:1 237:1 238:1 427:1 497:1 501:1 801:1 1902:1 
1 7:1 9:6 13:1 44:1 70:2 75:1 84:1 149:1 162:1 245:1 249:1 335:2 364:2 1020:2 1075:1 1665:1 
1 7:2 9:1 10:3 12:2 13:3 15:1 18:2 22:1 32:1 63:1 94:3 130:1 201:1 203:1 513:1 989:1 1079:1 1507:1 1549:1 
1 1:4 2:4 6:1 7:3 9:4 13:1 21:4 22:1 43:1 60:1 77:1 85:1 149:1 163:1 173:1 185:1 189:1 208:1 567:1 649:1 689:1 723:1 816:1 970:1 1017:1 1515:1 1575:1 
1 7:2 8:1 10:1 12:2 13:3 22:1 30:1 32:2 34:1 42:1 55:2 57:2 70:1 103:1 130:1 156:1 201:2 236:1 240:1 245:2 315:1 318:2 369:1 376:1 510:1 579:1 796:1 972:1 1636:1 
1 7:3 10:3 12:2 13:1 18:4 22:1 28:1 32:2 34:2 43:1 51:1 55:2 67:1 72:1 86:1 93:1 129:1 139:1 162:1 176:1 282:1 291:1 413:1 636:1 1475:1 1613:1 1662:1 1788:1 
1 7:4 10:2 12:3 15:1 30:1 45:1 52:1 67:1 70:1 80:1 100:1 106:2 158:1 166:1 174:1 178:1 180:1 186:1 208:1 285:1 289:1 306:1 359:1 432:1 434:1 556:1 584:1 591:1 733:1 987:1 1397:1 
1 7:1 9:2 10:4 13:1 15:3 18:1 22:1 32:1 44:1 47:2 66:1 69:1 70:1 147:2 269:1 294:1 302:1 356:1 384:1 400:1 458:1 1835:1 
1 7:2 9:1 10:3 12:2 13:3 15:1 18:2 22:1 32:1 63:1 94:3 130:1 201:1 203:1 513:1 989:1 1079:1 1507:1 1549:1 
1 7:2 9:1 10:3 12:2 13:3 15:1 18:2 22:1 32:1 63:1 94:3 130:1 201:1 203:1 513:1 989:1 1079:1 1507:1 1549:1 
1 7:1 9:3 12:3 13:1 18:2 28:5 31:1 32:1 42:2 43:1 47:1 49:3 52:1 63:1 70:1 102:1 123:1 139:1 228:1 352:1 359:1 393:2 561:1 1005:1 1417:3 1550:1 
1 9:3 10:1 13:3 15:1 22:2 28:1 31:1 34:2 48:1 49:1 55:1 70:1 71:1 93:1 106:1 264:1 307:1 362:2 367:1 370:1 393:2 460:1 484:1 585:1 692:1 1195:1 
0.7453318807219126 1:140 2:140 3:84 6:12 8:1 9:1 10:3 11:1 12:2 13:1 14:1 15:3 16:2 21:140 24:2 29:2 40:1 42:3 43:1 47:2 57:1 71:1 74:3 84:1 102:1 104:1 124:14 130:1 141:5 144:36 151:2 164:1 165:1 185:10 206:59 232:6 239:1 276:2 319:1 339:2 387:1 399:3 401:2 426:1 476:1 484:1 490:1 532:3 540:11 576:17 594:2 641:1 648:1 666:1 698:1 699:1 738:1 829:1 864:1 875:2 907:9 1026:3 1057:29 1083:2 1103:1 1130:1 1143:16 1246:8 1305:5 1330:2 1369:20 1518:3 1575:2 1651:7 1666:18 1824:5 1865:11 
1 7:3 8:1 9:1 12:1 13:1 15:3 18:1 22:2 23:1 32:1 48:1 60:1 73:1 76:1 77:1 140:1 141:1 146:2 197:1 250:1 269:1 291:1 319:1 348:1 437:1 656:1 810:1 1563:1 
1 7:3 8:2 9:2 10:2 12:1 13:3 18:3 23:2 28:1 42:2 49:1 64:1 93:1 141:1 144:1 238:2 305:1 535:1 694:1 830:1 843:1 1856:1 
1 1:50 2:50 3:62 4:46 5:53 6:33 8:26 11:16 12:1 14:1 16:2 17:2 18:2 19:10 20:10 21:1 24:8 25:8 26:13 28:2 31:1 33:1 37:5 38:5 39:5 41:2 44:1 46:1 48:1 52:1 58:2 60:1 64:2 84:1 112:1 123:1 133:1 142:1 148:7 159:7 166:1 170:1 172:1 173:8 328:1 403:1 442:1 504:1 510:1 538:1 763:1 1585:1 
1 1:5 2:4 3:1 4:1 5:2 6:4 7:5 8:4 9:1 10:3 11:1 12:2 13:4 15:2 18:5 21:2 22:2 23:4 26:1 28:1 29:2 32:2 43:1 45:1 50:1 61:2 64:1 69:1 73:1 77:1 81:1 84:1 92:3 107:1 111:1 137:2 141:1 143:1 144:1 155:1 157:1 165:1 203:1 238:1 249:1 264:1 349:1 371:1 493:1 512:1 640:1 715:1 793:1 1075:2 1215:1 1734:1 1803:1 1854:1 
1 5:1 7:3 8:1 9:1 10:2 12:3 13:3 15:3 18:1 28:1 29:1 43:2 47:1 62:2 63:2 65:1 70:1 79:2 86:1 100:1 105:1 152:1 170:2 176:1 215:2 237:1 254:1 268:1 279:1 329:1 368:1 462:2 469:2 684:1 853:1 912:1 991:1 1015:1 1045:1 1142:1 1165:1 1349:1 1474:1 1507:1 1680:1 1959:1 
1 1:8 2:5 3:5 4:1 5:5 6:4 7:3 8:8 10:2 11:2 13:4 14:1 15:1 18:1 26:2 29:2 31:1 34:1 35:1 40:2 41:2 42:1 43:1 47:1 70:1 85:1 89:1 93:1 99:1 108:2 120:2 152:1 183:3 193:1 199:1 225:1 230:2 235:2 238:1 259:2 269:1 304:1 305:1 331:2 421:1 434:1 439:1 498:1 503:1 522:1 629:1 723:1 976:1 1460:1 1859:1 
1 7:1 8:1 9:1 10:1 13:2 22:2 23:1 28:1 31:1 34:1 40:1 49:1 59:1 60:1 61:1 63:1 89:1 92:1 131:1 163:1 164:1 192:1 494:1 738:1 936:1 1152:1 
1 7:2 12:3 13:2 15:1 18:1 23:1 32:1 34:1 48:1 59:1 68:2 70:1 79:1 123:1 187:1 210:1 277:1 328:1 396:1 494:1 514:1 724:1 
1 7:2 9:2 10:1 13:1 18:4 23:1 52:1 61:1 92:1 131:1 134:1 137:1 261:2 361:1 644:1 761:1 934:1 1050:1 
1 7:1 9:4 10:1 12:3 13:2 23:1 40:1 64:1 70:1 72:1 73:1 78:3 86:1 155:1 167:1 187:1 211:1 283:1 316:1 324:1 500:1 981:1 1809:1 
1 7:5 9:4 10:1 12:4 13:2 15:2 18:1 28:3 42:1 45:2 49:1 52:1 56:1 60:1 62:1 67:1 70:1 129:2 130:1 139:1 161:2 242:1 396:1 499:1 561:1 623:1 
1 7:3 9:3 13:1 34:1 44:1 45:1 55:1 60:1 62:1 67:1 69:1 70:1 117:1 140:1 151:1 180:1 291:1 677:1 772:3 773:1 806:1 1113:1 1411:1 1606:1 1798:1 1846:2 1960:1 
1 7:2 8:1 9:1 10:1 12:6 13:1 15:4 23:1 28:1 30:1 32:3 42:2 56:1 67:2 70:1 97:1 106:1 127:2 135:1 150:1 164:2 192:1 242:1 310:1 314:1 340:1 435:1 474:1 867:1 869:1 1345:1 1539:1 
1 5:1 7:2 9:1 10:1 13:3 15:1 18:1 28:2 30:1 51:1 53:1 54:1 60:1 62:1 70:1 75:1 134:1 272:1 286:1 707:1 1083:1 1332:1 1696:2 
1 7:3 8:2 9:2 10:2 12:2 13:3 15:1 18:3 23:2 30:1 42:1 44:1 48:2 53:1 54:1 57:1 59:1 60:1 62:1 68:1 69:1 70:1 78:1 88:1 111:1 127:1 140:1 143:1 144:1 153:2 161:1 192:1 207:1 240:1 289:1 448:1 462:1 469:1 477:1 521:1 527:1 585:1 824:1 1243:1 1286:1 1340:2 1889:1 
0.6606549830582523 7:1 8:1 12:3 15:2 23:5 30:1 31:2 52:1 58:1 60:3 61:1 62:1 70:1 130:1 146:2 161:1 289:1 396:1 410:1 432:1 1048:1 1125:1 1483:1 1597:1 
1 7:2 9:1 13:1 15:1 22:1 32:1 43:1 45:3 78:1 86:1 123:1 183:1 198:1 213:1 492:1 610:1 1408:1 1503:1 
1 5:2 7:2 8:1 9:2 12:3 18:2 22:2 31:1 32:1 48:2 50:1 51:1 70:1 77:1 140:1 176:1 189:1 238:1 308:2 309:1 359:1 663:1 1389:1 1418:1 1555:1 
1 7:2 8:1 9:2 10:1 12:3 15:2 22:1 23:2 28:2 31:2 56:2 61:1 70:1 80:1 127:3 340:1 367:1 775:1 1021:1 1177:1 
1 7:2 8:2 9:1 10:1 12:2 31:1 43:1 47:2 48:2 52:1 70:1 77:1 102:1 105:1 115:1 144:1 192:1 393:1 427:1 452:1 669:1 740:1 780:1 879:1 1170:1 1798:1 
0.5392181014067805 8:2 9:1 15:1 18:1 23:2 29:2 30:1 31:3 32:1 34:1 40:1 43:1 44:1 45:1 47:1 53:1 54:1 66:2 70:2 91:1 101:1 118:1 131:1 136:1 137:1 140:1 143:1 149:1 336:1 447:1 566:1 606:1 899:1 1288:1 
1 7:2 9:1 12:2 13:1 34:1 44:1 50:1 92:1 108:1 134:1 200:1 265:1 457:1 644:1 719:1 1128:2 
1 7:2 8:1 9:4 10:1 13:1 15:2 23:1 30:1 31:1 32:2 40:1 45:1 57:1 59:1 62:1 64:2 67:1 70:1 77:1 99:1 100:1 118:1 119:1 135:2 153:1 155:1 162:1 220:1 247:1 308:1 322:1 380:1 514:1 1023:2 1446:1 1738:1 
1 8:1 10:1 12:2 18:1 29:1 30:1 42:1 70:1 106:2 367:1 1312:1 
1 9:4 13:1 15:2 18:1 22:1 30:1 34:1 42:1 44:2 48:2 51:1 55:1 60:1 70:1 72:1 108:2 129:1 158:1 203:2 207:1 404:1 440:1 806:1 1073:1 1315:1 1397:1 1579:1 1708:1 1789:1 
1 7:1 9:2 12:1 13:1 28:1 48:1 51:3 56:1 60:1 67:1 70:1 73:1 89:1 204:1 308:1 335:1 611:1 
1 7:2 23:3 31:1 55:2 60:1 63:1 66:1 69:2 70:1 73:1 79:2 84:1 99:1 111:1 117:1 119:1 149:1 160:1 169:1 186:1 217:1 240:1 314:1 575:1 868:1 1429:1 
1 7:1 8:1 9:2 10:2 13:2 15:1 22:1 23:2 48:1 50:1 57:1 63:1 70:1 78:4 89:1 98:1 140:1 150:1 155:1 336:1 512:1 616:1 651:1 681:1 1096:1 
1 7:6 8:1 9:1 10:1 12:2 13:2 15:2 23:2 28:1 31:1 43:1 48:1 49:1 51:1 59:1 62:1 70:1 71:1 72:1 76:1 80:2 91:1 105:1 106:1 107:2 115:1 129:1 144:2 150:1 157:1 230:1 317:1 404:1 1065:1 1708:1 
1 7:1 8:2 9:1 12:2 18:1 23:2 28:1 30:1 31:1 47:2 49:1 63:1 69:1 70:1 71:1 72:1 80:1 105:1 115:1 144:1 147:1 178:1 189:1 197:1 226:1 248:1 308:1 324:1 393:2 423:1 434:1 552:1 686:1 735:1 785:1 961:1 
1 1:4 2:4 4:4 9:6 12:1 21:4 22:1 43:2 53:1 54:1 74:1 136:1 145:1 153:1 206:1 232:1 650:1 931:1 1020:1 1201:1 
1 10:1 12:2 13:3 15:1 30:1 32:1 40:2 43:1 44:1 45:2 47:1 48:1 57:2 63:1 64:1 70:5 72:1 75:1 92:1 112:1 130:1 193:1 200:1 203:1 206:1 250:1 309:1 319:1 324:1 367:1 520:1 
1 7:3 9:1 10:1 12:1 13:4 15:5 22:3 23:1 28:1 31:1 34:1 44:1 49:1 66:1 67:1 68:1 69:1 70:1 88:2 89:1 94:1 97:1 106:1 115:2 127:3 241:1 265:1 331:3 462:1 469:1 987:1 1016:1 1065:1 
1 7:2 13:1 23:1 120:1 137:1 934:1 
1 7:5 8:1 13:1 22:1 30:1 42:1 45:1 149:1 151:1 185:1 360:1 
1 1:2 2:2 8:1 9:3 13:2 15:1 21:2 31:1 32:2 34:1 40:1 43:1 45:1 52:1 55:1 60:2 62:2 71:1 85:2 98:1 117:1 121:1 124:1 171:1 180:1 185:1 306:1 334:1 465:2 495:1 510:1 647:1 905:1 980:1 1057:1 1251:1 1341:2 1850:1 
1 7:1 9:1 10:1 12:1 13:1 15:1 23:1 40:1 42:1 43:1 45:2 55:1 57:1 64:4 70:1 99:1 108:1 118:1 120:1 133:1 136:1 158:1 167:1 181:1 215:1 229:1 251:1 269:1 289:1 359:1 400:1 453:1 710:1 1228:2 1344:1 
1 4:1 5:1 7:2 9:1 10:1 13:2 23:2 34:1 61:1 64:3 84:1 241:1 251:1 336:1 387:1 674:1 960:1 1324:1 
1 7:7 9:2 10:1 12:4 13:1 15:2 28:1 30:1 31:3 32:1 34:1 42:1 45:1 48:2 58:1 70:1 76:1 80:1 84:1 93:1 102:1 120:1 150:2 158:1 162:1 202:2 297:1 366:1 369:1 375:1 595:1 720:1 1054:1 
1 7:3 9:2 10:2 12:2 22:1 43:1 44:1 50:1 53:1 54:2 58:2 63:1 106:1 108:1 111:1 120:1 131:1 189:1 208:1 225:1 236:1 243:2 283:1 301:1 367:1 434:1 599:1 909:1 
1 7:4 10:2 12:1 13:1 22:1 23:1 32:1 34:1 47:2 48:1 52:1 57:1 66:1 70:1 78:1 83:1 93:1 94:1 106:1 137:1 147:1 183:1 238:1 297:1 331:1 465:1 786:1 892:1 1001:1 1078:1 1118:1 1981:1 
0.8954874388104969 7:1 8:1 10:1 12:2 13:1 15:1 18:1 22:1 23:1 28:1 29:1 30:1 31:1 32:4 43:2 50:1 56:1 67:1 78:1 86:1 88:1 100:1 103:1 130:1 150:1 164:1 192:1 199:1 238:1 251:1 269:1 307:1 316:1 452:1 454:1 458:1 473:1 715:1 742:1 811:1 963:1 990:1 1058:1 1218:1 1717:1 
1 7:2 8:2 9:6 13:3 18:2 22:1 23:1 28:2 29:1 34:1 47:1 48:1 49:1 77:1 92:1 111:1 120:1 131:1 137:1 181:1 189:1 235:1 261:1 518:1 934:1 1240:1 1526:1 1593:1 1662:1 
1 7:3 10:3 12:4 18:1 23:1 28:1 30:1 31:1 52:1 56:1 69:1 70:1 71:2 72:1 80:1 105:1 106:1 124:1 141:1 144:1 155:1 180:1 181:1 224:1 340:1 591:1 820:1 860:1 961:1 
1 7:2 10:2 12:1 15:1 18:1 22:1 23:1 43:2 47:1 63:1 64:1 70:1 73:2 92:1 127:1 134:1 137:1 143:1 364:1 368:1 508:1 536:1 542:1 681:3 1429:1 
1 7:1 9:3 12:2 15:2 16:1 18:1 31:1 32:2 42:2 52:1 57:1 59:1 62:1 64:2 70:1 83:2 93:1 94:1 106:2 120:2 133:1 166:1 351:1 444:1 478:1 666:1 864:2 1037:1 1378:2 
1 7:2 12:1 13:1 15:1 18:1 34:1 45:1 57:1 84:1 93:1 99:1 113:2 119:1 149:1 166:1 171:1 199:1 262:1 306:1 319:1 369:1 375:1 454:1 1020:1 1139:1 
1 7:2 9:1 10:1 13:3 15:2 18:1 28:1 31:1 32:1 40:1 42:1 45:1 47:1 52:1 55:4 56:1 57:2 58:1 70:1 77:2 86:1 97:2 98:1 130:1 135:1 144:1 156:1 163:1 187:1 203:1 204:1 217:1 231:1 238:1 251:1 257:1 303:1 407:1 555:1 628:1 707:1 
1 7:2 10:2 12:2 13:2 15:1 23:3 28:1 30:3 32:1 47:1 49:1 50:1 52:1 57:1 60:2 65:1 66:1 70:1 79:1 88:1 113:1 115:1 123:2 127:1 144:1 151:1 231:1 288:1 393:1 832:1 1443:1 
1 7:3 8:2 9:4 10:1 12:1 13:4 14:1 18:1 57:1 63:1 68:1 70:1 71:2 72:2 107:1 183:2 193:1 196:1 218:1 221:1 238:1 289:1 291:1 319:1 329:1 462:1 469:1 530:1 578:1 599:1 626:1 1811:1 
1 1:1 2:1 7:1 9:1 13:2 21:1 43:1 58:1 74:1 276:1 442:1 463:1 1259:1 1546:1 
1 7:2 8:1 9:1 10:2 31:1 40:1 42:1 47:1 60:1 64:2 75:1 85:1 117:1 120:2 131:1 137:1 157:1 180:1 388:1 415:1 623:1 1053:1 1179:1 1703:1 1884:1 1959:1 
1 7:1 9:2 10:1 12:3 13:2 15:1 28:3 32:1 34:1 42:1 48:2 56:1 70:1 108:1 115:1 133:1 135:1 158:1 178:1 213:1 218:1 220:1 228:2 264:1 283:1 354:1 367:1 405:1 568:1 775:1 811:1 854:1 1042:1 1779:1 
0.1896250247021595 12:4 13:1 15:3 23:4 43:1 45:2 47:1 51:4 62:1 66:1 70:1 75:1 150:1 171:1 199:1 236:1 251:1 254:5 272:1 309:4 396:1 488:4 588:1 986:1 
1 7:2 13:1 18:1 22:1 23:1 29:1 30:1 44:2 45:2 51:3 73:1 75:1 123:1 140:1 143:1 152:1 164:1 167:1 171:1 180:1 352:1 368:1 510:1 627:1 1457:1 
1 7:1 9:5 10:3 12:3 13:1 15:2 23:2 28:1 30:1 32:2 44:1 52:2 56:1 64:2 70:1 84:1 86:1 102:1 106:1 204:1 240:1 306:1 309:1 319:1 359:1 391:1 662:1 749:1 834:1 1702:2 
1 7:1 9:3 10:1 12:5 15:1 28:3 31:1 32:1 47:1 49:1 53:1 54:1 56:1 57:1 58:1 62:1 70:1 85:1 97:2 115:1 117:1 127:1 133:1 139:1 158:1 161:1 188:1 192:1 289:2 436:2 492:1 494:1 497:1 780:1 950:1 1355:1 1936:1 
1 7:9 9:3 12:4 13:1 15:2 23:1 30:1 43:1 69:1 84:1 88:1 89:1 127:1 144:1 157:1 158:1 192:1 241:1 250:1 267:1 289:1 297:1 367:1 430:1 623:1 854:1 
0.2908807591711868 7:1 8:1 10:1 12:2 13:1 15:1 18:1 22:1 23:1 28:1 29:1 30:1 31:1 32:4 43:2 50:1 56:1 67:1 78:1 86:1 88:1 100:1 103:1 130:1 150:1 164:1 192:1 199:1 238:1 251:1 269:1 307:1 316:1 452:1 454:1 458:1 473:1 715:1 742:1 811:1 963:1 990:1 1058:1 1218:1 1717:1 
1 7:6 8:1 10:2 13:2 22:1 40:1 43:1 47:2 60:1 63:1 70:1 79:1 88:2 97:1 123:1 152:1 170:1 179:1 369:1 393:1 476:1 514:1 547:1 759:1 799:1 927:1 980:1 1337:1 1465:2 1574:1 
1 7:1 8:1 12:1 23:1 28:2 47:1 49:2 52:1 61:1 70:1 178:1 230:1 248:1 293:1 819:1 
1 7:1 8:1 10:2 13:1 23:3 31:1 32:1 34:2 43:2 47:1 55:2 70:3 76:1 102:1 113:1 130:1 152:1 181:1 185:1 244:1 289:1 291:2 303:1 320:1 477:1 522:1 749:1 806:1 970:1 1804:1 1818:1 
1 7:1 9:1 12:5 13:2 23:1 28:4 31:2 32:1 34:1 40:1 47:1 49:1 52:1 56:1 58:1 66:1 70:1 84:1 89:1 97:2 119:1 144:1 178:1 188:1 191:1 248:1 279:1 289:1 303:1 331:2 359:1 386:2 394:1 595:1 731:1 
1 7:2 8:2 10:1 13:3 15:3 30:1 31:2 34:1 40:1 44:3 48:1 57:2 60:1 66:1 70:1 73:1 113:1 117:1 135:1 143:1 144:1 147:1 217:1 238:1 247:1 269:1 303:1 398:2 507:1 899:1 1178:1 
1 4:1 5:1 7:1 10:2 13:1 15:1 18:1 34:1 43:2 44:2 65:1 70:1 88:1 94:1 106:1 108:1 113:1 120:1 147:1 152:1 230:1 312:1 452:1 455:1 460:1 1983:1 
1 7:1 9:1 10:1 12:4 15:1 32:1 34:1 43:2 48:1 50:1 63:1 70:1 72:1 73:2 77:1 108:1 124:1 130:1 143:1 161:1 164:1 207:1 254:1 315:1 322:1 396:1 404:2 577:1 710:1 811:1 1194:1 1219:1 1397:1 
1 4:1 5:1 8:1 9:1 10:2 13:2 15:1 23:1 28:3 30:1 31:2 34:1 43:1 44:1 50:1 55:3 56:1 57:1 59:2 62:1 70:1 79:3 86:1 98:1 111:1 135:1 139:1 147:1 156:1 174:1 176:1 396:1 450:1 595:1 1370:1 
1 7:1 8:1 9:1 10:1 12:3 13:2 22:1 23:1 32:3 43:1 47:1 48:2 57:1 63:1 68:1 70:1 72:1 78:1 86:1 101:1 106:1 119:1 130:1 152:1 190:1 238:1 317:1 319:1 331:1 396:1 511:1 917:1 1375:1 
1 7:3 8:2 10:1 13:1 22:1 30:1 58:1 61:1 62:2 64:1 69:1 99:2 111:1 153:1 217:1 265:1 354:1 638:1 690:1 
1 7:3 8:1 10:2 12:2 13:3 15:4 23:1 30:1 34:1 45:1 55:1 61:1 62:1 67:1 70:1 72:1 89:2 105:1 120:1 127:2 163:1 193:1 254:2 331:1 338:1 356:1 614:1 620:1 811:1 816:1 
1 7:4 8:5 9:5 12:1 13:1 15:1 31:3 32:1 34:4 40:1 43:1 45:2 47:1 48:1 50:1 72:1 73:1 74:1 85:1 120:1 131:1 136:1 141:1 149:1 208:1 227:1 230:1 235:1 263:1 360:1 618:1 686:1 689:1 863:1 913:1 958:1 1073:1 1195:2 1336:1 1337:1 1521:1 1700:1 
1 1:1 2:1 10:1 12:2 13:1 15:2 21:1 22:2 28:1 34:2 43:1 45:2 51:1 85:1 97:1 131:1 139:1 147:1 150:1 215:1 328:1 364:1 382:1 417:1 460:1 494:1 1722:1 1957:1 
1 7:4 9:1 12:4 13:2 15:1 18:1 23:3 34:1 40:1 50:1 57:1 62:1 63:1 68:1 78:1 118:1 129:1 133:2 135:1 152:1 199:1 286:1 291:1 328:1 396:2 427:1 620:1 669:1 881:1 1429:1 
1 1:5 2:4 3:1 5:1 6:3 7:1 8:2 9:3 10:1 11:2 13:1 21:1 26:1 34:1 47:1 100:1 111:1 185:1 252:1 552:1 641:1 1168:1 1898:1 
1 7:2 8:1 9:1 12:2 13:1 15:1 23:3 29:1 31:1 45:1 67:1 75:1 80:1 97:1 119:1 488:1 625:1 670:1 1388:1 1801:1 
1 7:1 9:1 10:3 12:2 18:2 23:1 28:2 32:1 47:1 48:1 52:1 56:2 65:1 70:1 83:1 149:1 157:1 166:1 197:1 210:1 261:1 311:1 340:1 400:1 407:1 413:1 434:1 438:1 450:1 672:1 
1 7:1 9:1 10:2 13:3 15:2 31:1 40:1 50:1 52:1 66:1 70:1 73:1 76:1 97:1 100:1 113:3 143:1 144:1 167:1 193:1 208:1 261:1 291:2 360:1 435:1 664:1 913:1 937:1 996:1 1895:2 
1 9:1 13:1 29:1 30:1 53:1 55:1 68:1 70:1 89:1 150:1 227:1 1397:1 1431:1 1536:1 
1 7:2 9:1 10:2 15:1 18:1 23:1 64:4 113:1 133:1 134:1 162:1 181:1 240:1 247:1 254:1 258:1 428:1 1775:1 
1 7:2 8:2 9:2 12:5 13:1 15:1 23:1 30:1 32:2 34:1 45:1 53:1 54:1 55:1 67:1 70:1 71:1 77:1 91:1 98:1 106:2 115:1 123:1 136:1 230:1 238:1 263:1 352:1 359:1 404:1 454:1 712:1 773:1 1118:1 1464:1 
1 7:3 10:1 15:3 30:1 32:1 48:1 55:3 62:1 70:1 74:1 149:1 178:1 351:1 384:1 623:1 762:1 810:1 878:1 
1 1:4 2:4 4:4 9:6 12:1 21:4 22:1 43:2 53:1 54:1 74:1 136:1 145:1 153:1 206:1 232:1 650:1 931:1 1020:1 1201:1 
1 7:2 9:1 10:1 28:1 30:1 34:1 47:1 48:1 56:1 57:1 59:1 65:1 68:2 70:2 78:2 88:1 118:1 127:1 140:1 166:1 179:1 210:1 242:1 339:1 367:1 1637:1 
1 4:1 9:2 10:1 15:1 22:2 30:2 40:2 43:2 63:2 64:2 70:1 120:1 176:1 690:1 772:1 1017:1 1332:1 1387:1 1880:1 
1 1:2 2:2 6:2 7:1 8:1 9:3 10:1 13:1 21:2 29:5 32:1 34:1 40:1 53:1 54:1 59:1 70:1 91:1 98:1 111:1 143:1 149:1 158:1 162:1 198:1 426:1 462:2 469:2 1431:1 
1 7:3 42:1 47:1 48:1 66:1 69:1 72:1 88:2 93:1 120:1 203:1 258:1 407:1 1143:1 1312:1 1560:1 
1 1:5 2:3 3:1 5:1 6:3 7:1 8:2 9:3 11:2 21:1 22:1 26:1 34:3 42:1 47:1 52:1 60:1 68:1 111:1 367:1 592:1 666:1 960:1 1120:1 1326:1 
1 7:4 10:1 13:3 15:1 18:2 22:1 45:7 61:2 62:1 63:1 65:2 70:1 92:3 120:3 137:3 238:1 253:1 297:1 395:1 900:1 912:1 1272:1 1600:1 
1 7:1 9:1 10:3 13:1 15:1 22:1 30:2 50:1 60:2 70:1 120:2 310:1 415:2 477:1 956:1 1423:1 
1 4:1 5:1 7:2 9:2 12:4 13:1 15:2 23:2 29:1 30:3 45:1 58:1 62:2 70:1 73:1 75:1 153:2 158:1 176:1 220:1 235:1 247:1 272:1 338:1 365:1 368:1 480:1 538:2 1899:1 
1 7:1 8:1 10:1 12:4 13:2 15:1 18:2 30:1 31:1 32:2 40:2 50:1 70:1 99:2 127:1 136:1 150:1 166:1 208:1 224:1 242:1 243:1 256:1 365:1 1069:1 1111:1 1741:1 1865:1 
1 7:1 8:1 9:2 13:2 15:2 28:1 30:1 32:1 34:1 43:1 48:3 55:6 56:1 70:1 93:1 106:1 107:1 108:1 117:1 129:1 133:1 135:1 203:2 220:1 226:1 261:1 775:1 806:1 850:1 907:1 1914:1 
1 7:1 12:1 13:2 32:2 40:2 43:1 50:3 55:2 67:1 70:1 72:1 85:1 102:1 108:1 111:1 131:2 150:1 151:1 158:1 189:1 232:1 291:1 339:1 724:1 788:1 867:1 1348:1 1779:2 1929:1 
1 7:2 8:1 9:2 10:2 12:6 13:1 22:1 23:1 28:2 31:1 32:1 43:1 45:1 51:1 52:1 57:1 63:1 66:1 70:1 72:1 100:1 106:1 139:1 158:1 170:1 180:2 202:1 224:1 327:1 367:1 375:1 595:1 702:1 1023:1 1050:1 1088:1 1718:1 
1 7:2 8:1 13:3 15:4 23:2 40:1 43:1 44:2 48:1 61:1 68:1 70:1 76:1 80:1 97:1 98:1 115:1 127:1 133:1 135:1 147:2 158:1 161:1 210:1 253:1 288:2 351:1 356:1 681:1 1070:1 
1 10:1 12:1 13:2 22:1 23:1 31:1 32:1 42:1 43:2 50:1 55:1 58:1 67:1 70:1 72:1 73:1 91:1 98:1 135:1 178:1 197:1 207:1 213:1 291:1 328:1 807:1 810:1 1894:1 
1 7:3 13:1 18:1 22:1 50:1 60:1 83:1 97:1 106:1 155:1 230:1 334:1 391:1 660:1 1128:1 1587:1 1652:1 1996:1 
1 6:1 7:3 34:2 42:1 57:1 102:1 144:1 507:1 810:1 825:1 905:1 1585:1 1650:1 
1 4:1 7:1 8:2 9:1 10:3 15:1 28:1 30:1 31:1 34:1 43:1 47:1 51:1 60:1 62:1 66:1 67:2 74:2 91:1 144:1 153:1 165:1 166:1 171:1 226:1 268:1 337:1 358:1 359:1 424:1 728:1 810:1 1369:1 1446:1 1927:1 
1 1:19 2:11 3:10 5:10 9:1 19:10 21:10 29:1 31:1 39:10 42:1 45:1 47:1 74:4 120:1 230:1 360:1 689:1 1187:1 1465:1 
1 9:1 12:4 15:1 23:2 34:1 45:2 51:2 63:1 69:1 70:1 89:1 91:1 107:1 135:1 152:1 157:1 179:1 258:1 272:1 273:1 284:1 352:1 363:1 387:1 419:1 480:1 723:1 834:1 1889:1 
1 4:1 5:1 7:1 8:2 9:4 12:2 13:1 23:2 31:1 32:2 44:2 53:1 54:1 58:1 68:1 69:1 70:1 75:1 78:1 79:1 97:1 163:2 169:1 223:1 224:1 244:1 360:1 442:1 482:2 669:1 854:1 972:1 1078:1 1872:1 
1 7:1 8:1 9:3 13:2 15:1 18:1 28:1 32:1 42:1 44:1 48:1 49:1 57:1 65:1 70:1 83:1 89:1 92:1 97:1 112:1 141:1 178:1 186:1 203:1 238:1 255:1 288:1 291:1 363:1 
1 13:1 28:1 29:1 53:1 55:1 72:1 79:1 84:2 92:1 93:1 106:1 113:1 115:2 236:1 288:1 289:1 315:1 337:1 1738:1 
1 7:2 8:1 23:1 30:1 48:2 64:2 102:1 137:1 284:1 834:1 1066:1 1839:1 
1 9:1 28:1 49:1 57:1 64:1 70:1 72:1 92:1 137:1 311:1 501:1 535:1 
1 7:2 9:1 10:1 12:4 13:1 15:1 23:1 28:2 30:1 31:3 32:1 42:1 47:1 48:1 49:2 61:3 70:2 72:1 83:1 86:1 156:1 180:1 187:1 245:1 264:1 307:1 367:1 398:1 407:1 476:1 507:1 660:2 1085:1 1412:1 1928:1 
1 7:2 8:1 9:1 12:1 13:2 15:1 23:1 31:1 34:2 44:1 52:1 57:1 65:1 69:1 70:1 75:1 84:1 88:2 89:1 99:1 105:1 106:1 127:1 144:1 203:1 324:2 375:1 393:1 794:1 1021:1 1422:1 1490:1 
1 9:1 13:2 28:1 31:1 56:1 73:1 79:1 86:2 91:1 98:3 204:1 208:1 386:1 493:1 566:1 782:1 
1 13:1 29:1 31:1 53:1 63:1 70:1 73:1 434:1 
1 7:4 8:1 10:2 23:2 31:2 40:1 43:2 47:1 53:2 54:2 55:2 58:1 68:1 70:1 72:1 101:1 106:1 131:2 193:1 230:2 395:1 508:1 693:1 723:1 810:1 1528:1 
1 7:4 8:2 9:1 12:1 13:2 15:2 18:1 23:1 28:2 34:1 43:1 45:3 47:1 49:1 67:1 72:1 80:1 86:1 89:1 103:1 105:1 108:1 144:1 150:1 165:1 206:1 226:1 228:1 251:2 272:1 501:1 552:1 696:1 1788:1 
1 7:1 10:2 12:1 15:2 18:2 22:1 23:1 34:2 57:1 65:1 70:2 88:1 93:2 94:1 127:1 166:1 178:1 186:1 393:1 676:1 814:1 1417:1 1811:1 
1 9:2 13:1 15:6 18:1 32:4 34:1 43:1 48:3 53:2 54:3 55:2 58:1 66:1 70:2 74:6 106:1 149:3 162:1 339:1 699:3 742:2 909:1 982:1 1020:2 1595:1 
1 7:2 12:4 13:2 15:2 23:1 34:1 43:1 47:1 57:1 70:1 100:1 101:1 112:2 120:1 127:1 137:1 156:1 165:1 197:1 253:1 367:1 437:1 502:2 681:3 768:1 854:2 1166:1 
1 7:1 8:1 9:2 10:1 12:1 13:2 15:1 18:1 22:1 23:3 31:1 58:1 68:1 70:1 77:1 80:1 92:1 101:1 120:1 131:2 141:1 152:1 169:1 176:1 237:1 238:1 257:2 745:1 814:1 995:1 
1 7:1 8:3 9:1 13:1 15:2 18:1 22:1 28:1 31:3 34:1 40:1 44:1 47:1 48:1 49:1 50:2 52:1 70:1 120:1 121:1 147:1 161:1 176:1 190:1 200:2 263:1 266:1 270:1 271:1 295:1 322:1 359:1 367:1 388:1 418:1 561:1 761:1 1065:1 1178:1 
1 7:2 9:1 12:2 23:1 28:1 30:1 32:2 34:1 45:3 52:1 56:1 64:1 66:1 70:2 72:1 124:1 137:2 170:1 188:1 191:1 200:1 203:1 217:1 235:1 346:1 365:1 504:1 575:2 712:1 1193:1 1412:1 1702:1 
1 7:4 9:2 10:2 13:2 18:1 28:1 40:2 44:2 64:1 66:1 67:1 70:1 94:1 112:1 137:1 170:1 337:1 359:1 388:1 1045:1 1450:1 1853:1 
1 7:2 8:1 9:1 12:3 13:2 22:1 23:2 28:2 31:2 45:1 56:1 60:1 62:1 70:1 72:1 76:1 86:1 97:1 98:1 105:1 133:1 141:1 152:1 166:3 198:1 200:1 204:1 228:1 233:1 261:1 367:1 442:1 494:1 788:1 933:1 
1 9:2 10:1 12:1 13:3 15:1 23:1 28:1 30:1 40:2 43:1 44:2 48:2 49:1 57:1 58:2 67:1 69:1 70:1 73:1 76:1 78:1 93:2 108:1 143:1 200:1 203:1 226:1 238:1 253:1 291:1 309:1 319:1 474:1 
1 7:1 8:1 10:1 12:4 13:2 15:1 22:1 28:3 31:1 32:1 40:1 43:1 44:1 56:2 70:2 89:1 102:1 129:1 139:1 186:1 188:2 194:1 238:1 303:1 393:1 544:1 641:1 865:1 1053:1 1107:1 1417:1 1891:1 
1 7:2 13:4 18:1 22:1 23:2 31:3 32:1 34:2 40:1 42:1 48:2 55:4 68:1 106:1 107:1 119:1 123:1 192:2 345:1 374:1 500:1 533:1 813:1 1310:1 1579:1 1817:1 1921:1 
1 1:4 2:4 9:2 12:1 13:3 15:1 18:1 21:4 55:1 84:1 92:1 99:1 106:1 130:1 166:1 206:2 210:1 291:1 835:1 1521:1 1832:1 1863:1 
1 7:1 8:3 9:3 10:4 13:2 14:1 18:2 22:2 23:1 34:2 47:2 61:3 63:1 70:1 78:1 183:1 193:1 235:1 241:1 256:1 274:1 462:1 469:1 522:1 629:1 976:2 1025:1 1568:1 1912:1 
1 7:2 9:4 13:1 15:2 28:1 30:1 42:1 50:1 55:3 60:1 67:2 69:1 70:1 75:2 79:1 89:1 93:1 102:1 105:1 113:2 120:1 123:1 139:1 152:1 161:1 192:1 197:1 203:1 289:1 520:1 1440:1 
1 7:4 8:2 10:2 12:1 28:1 32:1 47:1 48:1 55:3 63:1 67:1 70:1 72:1 74:1 106:1 170:1 188:1 309:1 319:1 367:1 386:1 468:1 510:1 635:1 913:1 927:1 1118:1 1409:1 1565:1 
1 6:2 7:1 8:1 9:1 10:2 12:1 13:1 28:1 29:1 34:1 49:1 52:1 57:2 70:1 75:1 80:1 85:1 92:1 108:1 185:2 215:1 248:1 367:1 374:1 
1 7:6 8:1 9:1 10:2 12:2 15:2 18:1 23:2 30:2 31:2 32:1 44:3 47:1 69:1 73:1 80:1 115:1 127:1 134:1 135:1 155:1 224:1 226:1 292:1 620:1 660:1 681:2 
1 7:2 8:2 9:1 10:3 12:1 13:2 15:1 18:1 23:3 30:1 31:1 34:1 48:1 66:1 70:1 76:1 80:1 83:1 108:1 115:1 144:1 152:1 170:1 230:1 256:1 257:1 434:3 628:1 988:1 1510:1 
1 7:4 9:1 10:3 13:1 15:1 18:1 22:1 23:1 28:3 30:1 31:1 32:1 40:1 47:1 49:2 55:1 76:1 77:1 108:1 120:1 135:1 139:1 152:1 203:2 235:1 269:1 290:1 404:1 463:1 668:1 953:1 
1 7:1 8:1 10:1 12:1 13:2 15:1 18:3 23:3 30:2 31:3 32:1 57:2 59:1 62:1 64:1 70:1 80:1 115:1 127:1 147:1 150:1 157:1 166:1 176:1 192:1 225:1 250:1 315:1 376:1 398:1 417:1 434:1 759:1 1020:2 1106:1 1841:1 
1 4:3 5:3 13:3 15:1 28:2 40:1 43:1 54:1 55:5 56:1 57:1 62:1 63:1 66:1 70:2 98:1 115:1 135:1 150:1 174:1 204:1 215:1 283:1 291:1 340:1 510:1 708:1 773:1 854:1 1157:1 
1 7:1 8:1 9:3 10:1 12:1 13:1 18:1 23:1 31:1 47:2 48:1 53:1 54:1 59:1 63:1 70:1 77:1 80:1 101:1 141:1 156:1 267:1 314:1 332:1 577:1 970:1 1239:1 
1 4:1 5:1 8:1 10:4 13:1 18:1 23:1 28:1 30:1 40:2 44:3 49:1 57:2 59:3 65:1 69:2 70:1 75:1 115:1 144:2 147:1 185:1 230:1 275:1 317:1 386:1 393:1 430:1 564:1 981:1 1746:2 
1 9:1 10:1 13:2 22:1 23:1 40:3 42:1 57:1 59:1 60:1 62:1 63:1 64:2 70:3 72:1 75:1 77:1 79:1 80:1 86:1 91:1 92:1 137:1 140:1 143:1 157:1 374:1 602:1 832:1 1142:1 1255:1 
1 7:3 8:3 9:1 13:1 15:1 22:1 23:2 34:1 48:2 57:1 62:1 68:1 69:1 70:1 72:1 76:1 85:1 92:1 93:1 108:1 137:2 241:1 243:1 725:1 1023:1 1128:1 1916:1 
1 7:1 10:1 12:5 15:2 18:1 22:1 23:4 30:1 32:1 34:1 42:1 50:1 66:1 70:1 93:1 106:1 155:1 157:1 223:1 226:1 289:1 371:1 393:1 492:1 570:1 814:1 1329:1 1684:1 
1 7:2 10:1 12:2 13:2 23:3 28:2 30:2 31:1 32:1 42:1 48:1 49:1 57:1 58:1 59:1 63:1 64:1 70:2 80:1 92:1 100:1 224:1 230:1 374:1 513:1 840:1 1195:1 1352:1 1507:1 1618:1 
1 9:2 10:2 12:2 15:1 18:1 23:1 28:3 31:1 45:2 56:3 70:1 78:2 84:1 129:1 148:1 150:1 163:1 188:3 221:1 271:1 912:1 
1 7:1 8:1 9:3 12:1 13:2 28:2 44:2 48:1 51:1 52:1 56:1 70:1 73:1 77:1 86:1 120:1 123:1 162:1 171:1 183:1 192:1 197:1 228:1 256:1 291:1 294:1 307:1 474:1 597:1 616:1 684:1 960:1 1399:1 
0.04594558793632751 7:2 8:2 9:2 10:1 12:2 13:1 15:2 18:2 22:1 28:2 30:1 32:1 40:1 43:1 48:1 49:1 56:1 63:1 68:1 70:2 77:1 84:1 89:1 158:1 161:1 162:1 183:1 197:1 226:1 245:1 291:2 396:1 428:1 459:1 577:1 712:1 768:1 775:1 
1 7:2 8:2 13:1 15:2 18:1 30:1 40:1 53:2 54:2 68:1 73:1 116:1 131:1 143:1 144:1 195:1 199:1 202:1 236:1 339:1 561:1 655:1 824:1 854:1 1037:1 1217:1 1397:1 
1 4:1 5:1 7:3 9:2 10:2 12:3 13:1 15:2 18:1 23:1 28:1 31:2 49:1 52:1 63:1 65:1 86:1 91:2 103:1 106:1 118:2 123:1 131:1 229:1 244:1 252:1 269:2 272:1 315:1 338:1 359:1 367:2 493:1 952:1 1184:1 
1 7:3 9:3 10:3 12:5 15:4 23:2 28:1 30:2 31:1 34:1 45:1 62:4 72:1 164:1 176:1 208:4 308:3 410:1 1003:4 1565:1 1921:1 
1 7:1 8:1 9:2 10:1 12:3 13:2 15:1 22:1 23:1 32:1 45:1 47:1 65:1 70:1 71:1 79:1 93:1 118:1 119:1 134:1 135:1 150:1 162:1 269:1 285:1 291:1 301:1 452:1 504:1 787:1 1676:1 1811:1 
1 7:2 9:1 12:3 13:2 15:2 18:1 22:2 28:2 31:3 48:1 50:1 56:2 63:1 67:1 70:1 73:1 91:1 93:1 106:1 115:1 119:1 161:1 188:1 203:1 220:1 251:1 366:1 405:1 413:1 500:1 524:1 664:1 775:1 1114:1 1716:1 
1 9:1 10:1 12:3 13:1 18:2 22:1 30:1 44:1 48:2 50:1 67:1 70:1 94:1 99:1 100:1 108:1 116:1 178:1 213:1 226:1 265:1 356:1 699:1 1528:1 1814:1 
1 7:2 9:2 10:1 13:1 18:4 23:1 52:1 61:1 92:1 131:1 134:1 137:1 261:2 361:1 644:1 761:1 934:1 1050:1 
1 7:2 9:2 10:1 13:1 18:4 23:1 52:1 61:1 92:1 131:1 134:1 137:1 261:2 361:1 644:1 761:1 934:1 1050:1 
1 6:3 7:2 9:1 10:1 17:3 29:1 34:1 42:1 47:1 70:1 86:1 147:1 276:1 399:1 532:1 1323:1 1927:1 
1 1:8 2:5 3:5 4:1 5:5 6:4 7:1 8:5 9:1 11:2 12:2 13:1 14:1 15:1 18:1 22:1 26:2 28:1 29:2 32:4 35:1 41:2 42:1 47:1 55:1 57:4 59:2 63:1 103:1 106:1 135:1 139:1 225:1 238:1 259:2 300:1 304:1 305:1 421:1 432:1 439:1 498:1 503:1 1084:1 1279:1 
1 12:2 13:1 15:1 28:1 31:2 32:2 49:1 57:1 58:1 59:1 62:1 70:3 71:1 72:1 73:1 106:1 130:1 152:1 157:1 161:1 231:1 434:1 436:1 556:1 616:1 742:1 776:1 854:1 925:1 1242:1 1679:1 
1 7:4 9:1 10:2 12:2 13:3 18:1 22:1 23:2 28:2 30:1 31:3 32:1 40:1 49:1 56:1 64:1 67:1 70:1 72:1 133:1 204:1 213:1 240:1 242:1 620:1 643:1 681:1 692:1 930:1 1444:1 1809:1 1941:1 
1 7:3 8:1 10:1 12:1 13:2 22:2 28:1 30:2 31:2 48:3 65:1 70:2 74:1 75:1 100:1 108:1 124:1 149:1 180:1 203:1 228:1 272:1 289:1 294:1 
1 7:4 9:2 10:1 12:3 18:1 23:1 47:1 61:2 68:2 77:1 80:1 134:1 163:2 251:1 309:1 319:1 1475:1 1756:1 1808:1 
1 4:1 5:1 7:1 10:2 12:6 13:3 15:1 28:4 34:1 47:1 56:2 60:3 62:3 63:1 66:1 70:1 75:1 86:1 103:1 108:1 130:1 139:2 157:1 178:1 197:1 207:1 288:1 306:1 324:1 396:2 410:1 437:1 663:1 775:1 933:1 1351:1 
1 7:3 8:1 9:4 10:1 12:2 13:1 15:1 22:1 28:2 30:1 31:2 32:1 49:1 52:1 60:1 61:1 62:1 75:1 86:1 94:2 139:1 163:1 171:1 181:1 193:1 286:1 647:1 748:1 770:1 788:1 850:1 989:1 1895:1 
1 7:4 8:3 9:1 12:1 13:2 18:1 23:3 30:1 31:3 44:2 48:1 52:1 59:1 66:1 69:1 105:1 115:1 118:1 127:1 129:1 144:1 166:1 218:1 237:1 275:1 288:2 370:1 860:1 1213:1 1315:1 1804:1 1921:1 
1 10:3 18:1 22:1 28:1 40:2 42:1 56:1 63:2 73:1 211:1 334:1 487:1 499:1 944:1 1000:1 1189:1 1277:1 1318:1 1595:1 1882:1 
1 1:2 2:2 8:1 13:1 15:1 17:1 21:2 32:2 34:1 40:3 135:1 198:1 230:1 263:2 313:1 374:1 454:1 826:1 897:1 1248:1 
1 7:1 9:1 10:1 13:2 15:1 28:1 42:1 55:3 59:1 60:1 70:1 73:1 75:1 84:1 135:1 143:1 146:1 180:1 181:1 201:1 203:1 240:1 251:1 316:1 417:1 423:1 510:1 614:1 786:1 1730:1 
1 7:1 8:1 10:1 13:1 15:1 16:1 18:2 22:1 23:3 28:2 31:1 40:1 49:2 65:1 69:1 70:1 77:1 78:1 101:1 111:1 141:2 198:1 199:1 257:1 413:1 1135:1 1493:1 
1 4:1 5:1 8:1 9:1 22:1 23:1 31:1 32:1 42:1 43:1 45:1 48:1 59:2 64:1 69:1 79:1 83:1 265:1 269:1 1328:1 
1 7:2 13:1 18:1 22:1 23:1 29:1 30:1 44:2 45:2 51:3 73:1 75:1 123:1 140:1 143:1 152:1 164:1 167:1 171:1 180:1 352:1 368:1 510:1 627:1 1457:1 
1 10:1 31:1 32:1 40:1 70:3 80:1 627:1 
1 7:3 12:1 13:1 15:3 28:2 30:2 44:2 47:1 48:1 56:1 70:1 88:2 97:1 106:1 116:1 129:1 130:1 133:1 150:1 157:1 184:1 188:1 189:1 192:1 203:1 254:1 313:1 337:1 404:2 453:1 660:1 961:1 1104:1 1965:1 
1 7:4 8:1 12:5 13:2 15:1 22:1 23:2 50:1 63:1 67:1 70:1 71:1 80:2 99:1 100:1 115:1 127:1 130:1 169:1 233:1 276:1 432:1 434:2 497:1 682:1 773:1 
1 7:1 8:1 9:2 13:1 34:1 45:1 52:1 55:1 60:1 61:1 69:1 70:1 72:2 73:1 77:1 79:2 85:1 86:1 89:1 113:1 115:1 131:1 176:1 188:1 240:1 312:2 364:2 806:1 1157:1 1199:1 
1 7:2 9:2 15:3 16:1 30:1 31:2 40:1 55:3 57:1 60:1 70:1 85:1 91:1 124:1 127:1 187:3 201:1 206:1 245:1 256:1 310:1 348:1 465:1 497:1 708:1 1292:1 1749:1 1894:1 
1 7:1 9:3 10:2 13:1 60:1 70:1 84:1 187:1 359:1 386:1 723:1 1364:1 1749:1 
1 7:2 8:1 10:1 12:3 15:2 18:2 30:1 31:1 32:1 34:1 40:1 48:3 52:1 66:1 70:1 71:1 79:1 97:1 127:1 133:1 149:1 217:1 230:1 291:1 331:1 390:1 1139:1 
1 7:1 8:1 15:3 23:1 28:1 30:2 48:1 52:1 64:2 70:1 73:2 80:1 112:1 113:1 119:1 192:1 208:2 211:1 240:1 306:1 313:1 1432:1 1461:1 1493:1 
1 1:2 2:2 6:2 7:1 8:1 9:3 10:1 13:1 21:2 29:5 32:1 34:1 40:1 53:1 54:1 59:1 70:1 91:1 98:1 111:1 143:1 149:1 158:1 162:1 198:1 426:1 462:2 469:2 1431:1 
1 1:4 2:4 4:4 9:6 12:1 21:4 22:1 43:2 53:1 54:1 74:1 136:1 145:1 153:1 206:1 232:1 650:1 931:1 1020:1 1201:1 
1 7:2 9:1 10:3 23:2 28:2 30:1 31:1 34:2 43:1 48:1 49:1 50:1 52:1 56:1 65:1 70:1 72:1 79:1 80:1 123:1 133:1 152:1 188:1 197:1 221:1 315:1 1152:1 1632:1 
1 7:2 13:3 28:1 31:2 47:1 56:1 74:2 75:1 88:2 119:1 149:1 153:1 204:1 263:1 369:1 430:1 531:1 644:1 932:1 1020:1 1148:1 
1 7:1 9:1 10:1 12:4 13:1 15:1 18:1 40:1 45:1 47:1 53:1 54:1 70:1 71:1 72:2 89:1 100:1 115:1 120:1 131:1 135:1 141:1 143:1 150:1 155:1 238:1 251:1 256:1 285:1 303:1 329:1 396:1 404:1 566:1 670:1 789:1 995:1 1740:1 
1 7:7 10:3 22:1 28:3 47:1 49:1 53:11 54:12 70:1 71:1 74:12 75:1 178:1 387:1 442:1 462:1 469:1 602:1 
1 7:2 9:1 10:1 13:1 15:1 18:3 23:2 32:3 44:1 47:1 70:1 77:1 86:1 89:1 106:1 108:1 120:1 198:1 268:1 290:1 367:1 398:1 538:1 615:1 922:1 1864:1 
1 9:2 10:2 12:4 13:1 22:1 28:6 44:3 48:4 51:3 62:2 66:1 69:1 70:1 77:1 79:1 84:1 101:1 117:2 199:1 231:1 291:1 335:1 508:1 585:1 595:5 925:1 1060:1 
1 7:3 9:3 13:1 22:2 23:1 28:1 31:1 32:2 43:1 44:3 63:1 69:1 70:1 71:1 89:1 94:1 107:1 127:1 141:1 192:1 233:1 288:1 315:1 337:1 442:1 452:1 561:1 750:1 761:1 
1 7:2 8:1 9:4 10:3 12:5 16:2 23:3 28:1 34:1 48:1 52:1 63:1 67:1 70:1 83:1 106:2 118:1 133:1 139:1 158:1 166:1 181:1 245:1 277:1 287:1 322:1 558:1 802:1 1045:1 1763:1 
1 7:1 9:2 13:1 18:2 28:1 32:1 49:1 51:1 57:1 67:1 69:3 70:1 71:1 77:1 83:1 89:1 147:1 251:1 272:2 291:1 476:1 636:1 772:1 1041:1 1162:1 1897:1 
1 7:1 9:3 10:3 15:1 22:1 23:1 30:2 31:2 44:1 64:3 65:1 69:1 70:2 81:1 85:1 91:1 121:1 123:1 143:1 156:1 166:1 176:1 195:2 208:1 240:2 782:1 902:1 1214:1 1423:1 
1 7:2 12:2 15:1 28:1 30:1 31:1 34:1 45:1 48:2 50:1 56:1 62:1 64:1 69:1 86:1 92:1 112:1 163:1 188:1 221:1 251:1 297:1 354:1 435:1 627:1 986:1 1315:1 1475:1 1514:1 1922:1 
1 7:1 10:1 12:2 15:2 23:1 34:1 43:1 45:1 51:1 146:1 157:1 158:1 250:1 315:1 356:1 393:1 404:1 740:1 1089:1 1118:2 1314:1 1638:2 
1 7:1 10:1 13:1 18:1 22:1 66:1 149:1 171:1 199:1 311:1 377:1 384:1 1385:1 1521:1 
1 9:1 10:1 28:2 29:2 34:1 42:1 44:2 47:1 53:1 54:1 67:1 70:1 93:1 94:1 108:1 157:1 203:1 226:1 228:1 230:1 276:1 290:1 337:1 434:1 556:1 
1 7:1 8:1 9:1 10:1 12:2 13:1 15:1 23:2 28:1 30:1 31:3 44:1 47:1 56:1 57:2 62:1 70:3 88:1 102:1 106:1 115:1 123:1 188:1 215:1 220:1 254:1 317:2 772:1 810:2 1041:1 1128:1 1852:1 
0.3141285783055866 7:3 8:1 12:2 18:2 23:1 30:2 40:1 43:1 45:1 50:2 52:1 55:1 57:1 66:1 70:1 73:1 85:1 108:1 134:1 144:1 149:1 156:1 161:1 169:1 207:1 250:1 289:1 291:1 752:1 806:1 1286:1 1574:1 1579:2 1646:1 1687:1 
1 8:1 10:1 13:1 15:1 22:4 23:1 30:1 31:2 32:1 34:2 40:4 57:1 58:1 67:1 72:1 108:2 120:2 124:1 149:1 215:2 306:1 583:1 810:1 825:1 863:1 1375:1 1474:1 1671:1 
1 7:2 9:4 10:2 12:3 13:2 18:2 22:1 23:1 28:2 43:1 44:1 48:1 49:2 64:2 67:1 70:1 77:1 86:1 89:1 92:1 93:1 107:1 118:1 123:1 152:1 158:1 180:2 190:1 245:1 454:1 494:1 1036:1 
1 7:3 12:2 13:2 15:2 23:1 34:1 45:1 47:1 50:1 60:4 66:1 69:3 70:1 80:1 99:1 105:1 123:1 146:1 160:1 241:2 324:1 356:1 618:1 1490:1 
1 7:2 12:2 13:2 15:4 18:1 28:1 31:1 43:1 44:1 56:1 58:1 63:1 65:1 70:1 94:1 97:1 118:1 129:2 147:1 152:1 188:1 254:1 269:1 270:1 364:1 388:1 404:1 811:1 947:1 1015:1 1167:1 
1 1:8 2:5 3:5 4:1 5:5 6:4 7:1 8:5 11:2 13:3 14:1 15:1 26:2 29:2 35:1 41:2 47:1 59:5 225:1 230:1 238:1 259:2 304:1 305:1 421:1 439:1 498:1 503:1 876:1 1650:1 
1 4:1 5:1 7:3 8:1 9:2 10:1 12:1 13:2 14:1 15:2 22:1 23:1 28:1 43:1 64:2 65:2 79:1 92:1 112:1 127:1 136:1 157:1 176:1 203:1 217:1 226:1 257:1 327:1 988:1 1696:1 
1 7:2 8:1 10:1 13:1 15:1 18:2 22:1 23:2 31:1 43:1 44:1 66:1 70:1 74:1 94:3 97:1 137:1 161:1 185:1 190:1 217:1 263:1 311:1 348:1 428:1 683:1 1730:1 1763:1 
1 1:2 2:2 7:3 8:1 12:2 13:2 21:2 30:1 34:1 50:2 74:1 108:1 113:1 115:1 141:1 288:1 875:1 1020:1 1389:1 
1 7:2 8:1 9:1 10:1 12:5 13:1 15:1 18:2 28:4 30:1 31:1 48:1 49:3 51:1 57:1 66:1 67:1 72:1 102:1 113:1 115:1 134:1 143:1 156:1 157:1 167:1 179:1 208:2 218:1 242:1 306:1 336:2 364:1 674:1 692:1 755:1 867:1 1216:1 1388:1 
1 4:1 5:1 7:2 8:1 9:1 10:5 13:1 23:1 29:1 34:1 40:1 62:1 79:1 80:1 86:1 115:1 121:1 169:1 252:1 302:1 306:1 448:1 623:1 834:1 955:1 1644:1 
1 7:1 9:1 10:1 22:1 31:1 40:1 68:1 196:1 202:1 264:1 274:1 332:1 369:1 445:1 561:1 715:1 794:1 858:1 962:1 
1 1:1 2:1 7:2 9:2 12:1 13:1 15:1 21:1 22:1 28:2 31:2 32:1 45:1 49:2 51:1 58:1 71:1 78:1 80:1 85:1 106:1 117:1 129:1 150:1 162:1 215:1 230:1 263:1 285:1 289:1 313:1 669:1 1585:1 1587:1 
1 7:2 9:1 10:1 13:1 15:1 18:1 23:2 30:1 31:2 32:1 48:1 52:1 55:1 58:1 66:1 70:1 102:1 103:1 144:1 207:1 230:1 309:1 315:1 319:1 405:1 416:1 442:1 868:1 925:1 1469:1 1565:1 
1 9:2 12:3 23:1 30:1 31:1 32:1 34:1 60:1 62:1 77:2 103:2 149:1 156:1 250:1 275:1 283:1 284:1 367:1 773:1 1042:1 1069:1 
1 12:3 23:1 32:2 43:2 59:2 63:1 70:2 86:1 99:1 106:1 143:1 577:1 719:1 734:1 962:1 1470:1 1487:1 1852:1 
1 7:2 8:1 13:1 15:2 30:1 31:1 40:1 52:2 97:1 98:1 144:1 208:1 211:1 240:1 270:2 308:1 331:1 366:1 618:1 944:2 947:1 1074:2 
1 7:1 8:2 9:1 10:1 12:1 13:1 15:2 18:1 30:1 32:1 45:2 60:1 63:1 64:1 70:1 73:1 76:1 119:1 127:1 137:1 140:1 144:1 375:1 475:1 493:1 555:1 1499:1 
1 7:1 10:1 12:3 13:1 15:2 30:1 31:2 42:1 45:1 50:1 57:1 60:1 62:1 70:1 73:1 75:1 79:1 108:1 127:1 130:1 133:1 161:1 258:1 316:1 359:1 776:1 1000:1 1023:1 1111:1 1312:1 1332:1 
1 7:3 8:2 9:3 10:1 13:1 22:1 23:1 31:1 34:1 42:3 63:1 65:1 69:2 118:1 141:1 153:1 178:1 202:1 243:1 434:2 463:1 638:1 648:1 858:1 1131:1 1423:1 
1 7:2 9:4 12:4 13:1 15:1 16:1 23:3 32:2 34:1 66:1 91:1 97:1 105:1 106:1 127:1 165:1 166:1 235:1 269:1 352:1 367:1 480:1 1057:1 1069:1 1394:1 1413:1 
1 7:5 8:2 10:1 13:1 15:1 34:2 40:1 42:1 55:1 57:2 59:1 68:3 78:1 79:1 97:1 106:2 127:1 130:1 134:1 174:1 238:2 258:1 316:1 334:1 363:1 396:2 440:1 514:1 903:1 1763:1 
1 7:2 8:3 9:2 10:1 12:3 13:2 23:1 32:1 42:2 48:1 63:1 67:1 77:1 93:1 101:1 108:1 120:1 127:1 144:2 163:1 181:1 186:1 198:1 311:1 442:1 568:1 577:1 646:1 712:1 860:1 
1 4:1 5:2 7:4 9:1 10:2 13:1 18:2 22:1 28:5 31:3 49:3 55:4 60:1 70:3 73:1 77:1 84:1 105:1 123:2 139:1 178:1 186:1 192:4 240:1 267:1 320:1 413:2 558:1 592:1 595:1 907:1 1921:1 
1 7:1 9:4 10:3 12:4 13:2 23:2 28:2 31:2 34:1 45:1 56:2 61:2 70:2 84:1 97:1 120:1 124:1 133:1 144:1 152:1 167:1 176:1 204:2 224:1 237:1 253:1 283:1 342:1 432:1 585:1 586:1 591:1 860:1 1361:1 
1 12:1 13:2 15:1 23:1 34:1 42:1 45:2 52:1 55:1 57:1 67:1 70:2 72:1 93:1 135:1 203:1 231:1 261:1 271:1 289:1 434:1 581:1 713:1 
1 7:4 12:3 15:2 23:2 28:1 31:1 32:1 42:2 45:1 49:1 50:1 51:1 63:1 70:1 80:1 97:1 115:1 127:1 179:1 220:1 238:1 648:1 733:1 1085:1 1128:1 1478:1 1811:1 1869:1 
1 7:5 10:1 12:1 13:2 18:1 22:1 23:1 28:1 42:1 56:1 58:1 67:1 68:1 70:1 71:1 72:1 88:1 106:1 108:1 111:1 124:2 183:1 189:1 256:1 260:1 262:1 775:1 840:1 1001:1 1067:1 1088:1 1366:1 
1 7:1 8:1 9:1 10:1 12:2 15:3 23:1 31:1 42:1 50:1 60:1 70:1 178:1 196:1 245:1 348:1 504:1 715:1 991:1 1095:1 1394:1 1637:1 1773:1 1873:1 
1 7:1 9:2 13:3 30:1 32:1 40:1 42:1 55:2 57:1 68:1 70:1 72:2 75:1 78:1 89:2 93:1 120:1 127:1 129:1 141:1 161:1 224:1 230:1 311:1 313:1 334:1 404:1 754:1 1336:1 1431:1 
1 7:1 9:3 10:1 12:1 13:3 15:1 18:1 22:1 40:2 64:2 66:1 70:1 72:1 75:1 92:1 131:1 133:1 157:1 195:1 267:1 334:1 351:1 415:1 432:1 483:1 1059:1 
1 7:1 9:3 10:1 13:1 22:1 29:1 65:2 70:1 75:1 117:1 271:1 309:1 882:1 1388:1 
1 7:2 8:2 10:3 12:4 13:2 23:2 34:3 60:4 67:2 70:1 79:3 83:2 123:2 133:2 221:3 299:2 988:1 1137:2 
1 7:3 9:2 10:2 12:3 13:1 23:1 28:1 30:3 34:1 50:1 52:1 56:1 57:2 63:1 64:1 79:1 92:2 99:1 106:1 140:1 188:1 221:1 262:1 375:1 400:1 434:2 623:1 941:1 1007:1 
1 4:1 5:1 7:1 8:2 13:2 15:2 18:1 28:1 30:1 31:2 44:1 48:1 49:1 69:1 70:3 86:1 88:1 93:1 150:1 184:1 434:1 499:1 1337:1 
1 15:2 18:1 31:1 32:1 45:1 52:1 55:2 70:1 77:1 106:1 112:1 150:1 208:1 291:1 664:1 1314:1 1315:1 1811:1 
1 7:2 12:1 13:2 15:1 23:1 31:1 45:1 47:1 48:2 51:3 59:1 66:1 70:1 73:1 119:1 144:1 160:1 163:1 221:1 224:1 242:1 309:1 334:1 359:1 364:1 369:1 520:1 1637:1 1732:1 1889:1 
1 1:1 2:1 7:2 9:2 12:1 13:1 15:1 21:1 22:1 28:2 31:2 32:1 45:1 49:2 51:1 58:1 71:1 78:1 80:1 85:1 106:1 117:1 129:1 150:1 162:1 215:1 230:1 263:1 285:1 289:1 313:1 669:1 1585:1 1587:1 
1 1:2 2:2 18:1 21:2 31:1 34:2 43:1 45:1 67:2 72:1 120:1 144:1 156:1 269:1 306:1 356:1 691:1 713:1 1133:1 
1 1:2 2:2 7:2 9:3 13:1 21:2 34:1 718:1 721:1 728:1 1882:1 
1 9:3 10:1 13:3 18:1 34:1 43:1 51:6 60:1 69:1 70:1 71:1 91:1 131:2 149:1 230:1 267:2 653:1 751:2 1015:1 1159:1 1732:2 
1 7:2 8:2 9:1 13:1 15:1 22:1 34:1 42:1 43:1 62:1 64:1 92:1 108:1 120:1 137:1 149:1 195:1 218:1 247:1 264:1 678:1 1312:1 
1 4:1 5:1 7:1 9:3 10:1 12:2 13:1 18:3 23:1 29:1 30:1 31:1 32:2 61:1 67:2 70:2 73:1 77:2 80:1 93:1 118:1 133:1 158:1 162:1 170:1 192:1 230:1 267:1 291:1 629:1 670:1 1045:2 1049:1 
1 1:5 2:5 7:3 8:1 9:2 13:2 21:5 28:1 30:1 34:1 43:1 50:1 51:1 66:1 117:1 279:2 931:1 1732:1 
1 7:1 8:2 10:1 12:2 22:2 23:1 47:1 48:1 58:1 69:1 70:1 71:1 80:1 93:1 115:1 131:1 134:1 170:1 187:1 265:1 291:1 995:1 1483:1 1815:1 
1 7:2 10:1 12:1 13:3 18:1 28:2 30:2 31:2 42:1 44:2 53:1 54:1 56:2 58:1 68:1 70:1 78:1 80:1 106:1 129:1 145:1 153:1 158:1 184:1 188:1 195:1 221:1 297:1 320:1 329:1 340:1 359:1 413:1 430:1 442:1 1412:1 1716:1 
1 7:1 9:2 10:1 13:1 15:1 22:1 28:1 30:1 34:1 49:1 60:1 62:1 64:1 68:1 120:1 170:1 183:1 1397:1 
1 7:1 9:5 12:2 13:3 15:1 18:1 47:2 50:2 70:1 75:1 93:1 108:1 115:1 130:1 147:1 149:1 156:1 158:1 195:1 242:1 262:1 263:1 269:1 329:1 339:1 388:1 504:1 1084:1 1309:1 1369:1 1401:1 1580:1 
1 4:1 5:1 7:3 9:1 10:3 13:1 30:1 31:1 42:1 48:1 50:1 64:2 99:1 133:1 137:1 176:1 189:1 263:1 372:1 592:1 653:1 781:1 1169:1 
1 7:1 9:2 10:2 12:6 13:3 15:1 18:1 28:2 30:2 31:1 32:1 42:1 48:1 56:2 60:1 65:1 70:1 84:2 98:1 105:1 106:1 140:1 178:1 204:2 237:1 402:1 442:1 477:2 584:1 948:1 1157:1 1404:1 1814:1 
1 1:8 2:8 6:1 7:2 9:3 13:1 21:8 74:7 111:1 149:1 463:1 510:1 575:1 650:1 699:1 1316:1 1521:1 1865:1 
1 7:1 8:1 9:1 10:3 13:1 15:2 32:1 42:1 43:1 45:1 47:1 70:1 152:1 156:1 270:1 752:1 1526:1 1894:1 1975:1 
1 7:1 9:3 10:2 12:1 13:4 15:4 29:1 34:1 62:1 70:1 71:1 75:1 79:1 150:1 151:1 162:1 191:1 207:1 251:1 292:1 351:1 392:1 482:1 1370:1 1566:1 1696:1 
1 10:3 18:1 22:1 28:1 40:2 42:1 56:1 63:2 73:1 211:1 334:1 487:1 499:1 944:1 1000:1 1189:1 1277:1 1318:1 1595:1 1882:1 
1 7:4 9:1 10:1 12:2 13:1 23:2 44:1 48:2 65:1 70:1 94:1 100:1 141:4 144:1 203:1 211:1 274:1 358:1 393:1 522:1 615:1 628:2 723:1 1123:1 1170:1 
1 8:1 9:3 10:1 12:4 13:1 15:2 28:2 34:1 40:1 51:3 56:2 62:1 69:1 70:1 72:1 130:1 133:1 162:1 187:1 188:2 189:1 194:1 208:1 316:1 334:1 366:1 375:1 555:2 960:1 997:1 1292:1 1687:1 1841:1 
1 4:1 5:1 7:2 9:1 10:1 13:2 23:2 34:1 61:1 64:3 84:1 241:1 251:1 336:1 387:1 674:1 960:1 1324:1 
1 7:3 8:1 9:4 10:2 13:1 18:1 23:1 62:1 64:1 67:1 78:1 133:1 149:1 183:1 200:1 244:1 338:1 424:1 1359:1 1611:1 1664:1 
1 4:1 5:1 7:1 8:1 10:2 12:1 13:1 18:1 28:1 48:1 49:1 61:1 69:1 70:5 80:1 113:1 146:1 183:1 185:2 197:1 213:1 225:1 273:1 495:1 560:1 615:1 
1 7:3 13:2 31:1 34:1 55:3 57:1 62:1 70:5 79:1 102:1 120:1 130:1 144:1 166:1 192:1 217:1 244:2 286:1 367:1 578:1 679:1 
1 9:1 13:2 28:1 31:1 56:1 73:1 79:1 86:2 91:1 98:3 204:1 208:1 386:1 493:1 566:1 782:1 
1 7:1 12:3 13:1 23:1 28:1 31:1 42:2 47:1 52:1 63:1 179:1 203:1 220:1 240:1 279:1 359:1 384:1 407:1 677:1 1040:1 1045:1 1113:1 
1 1:1 2:1 7:1 9:1 10:1 13:1 21:1 22:1 28:2 42:1 43:1 49:2 53:1 54:1 65:1 74:1 93:1 401:1 728:1 983:1 1193:1 1375:1 1651:1 
1 7:1 8:1 10:1 12:4 13:1 15:1 18:1 22:1 23:2 43:1 45:1 50:1 69:1 70:1 106:1 141:1 143:1 155:1 156:1 223:1 290:1 292:1 376:1 454:1 709:1 1056:1 1832:1 
1 7:2 8:1 9:2 10:1 13:1 18:2 22:2 28:1 47:1 63:1 67:1 68:2 72:1 181:2 217:1 239:1 241:1 262:1 287:1 534:1 564:1 927:1 1354:1 1903:1 
1 7:2 10:3 12:5 13:1 15:1 22:1 23:2 28:2 31:2 34:4 48:2 70:1 85:1 102:1 131:1 152:1 174:1 178:1 228:1 235:1 243:1 263:2 283:1 336:1 351:1 490:1 618:1 995:1 
1 7:1 10:1 13:2 15:1 43:1 59:1 62:1 70:1 88:1 106:1 171:1 231:2 313:2 479:1 654:1 1045:1 1648:1 
1 7:1 8:2 9:1 10:1 12:2 13:1 22:1 23:3 30:1 32:1 47:2 62:1 70:1 89:1 99:1 197:1 200:1 681:1 919:1 1085:1 1217:1 1771:1 1846:1 
1 7:6 8:2 10:1 12:1 13:1 15:1 22:1 23:1 43:1 44:1 48:3 66:1 72:1 75:1 76:2 84:1 89:1 92:1 135:1 163:1 202:1 230:3 272:1 285:1 291:1 314:1 352:1 371:1 820:1 882:1 1792:1 
1 31:1 40:1 70:2 161:1 191:1 333:1 584:1 660:1 1192:1 1397:1 
1 7:1 9:1 12:1 13:3 23:3 28:2 32:1 42:1 43:1 49:2 59:2 65:1 70:1 76:1 80:2 101:1 127:1 152:1 195:1 291:1 342:1 433:1 628:1 648:1 710:1 
1 7:2 12:1 28:1 30:2 31:1 32:1 34:1 48:1 55:3 56:1 62:1 70:4 72:1 77:2 84:1 91:1 106:1 144:1 156:1 195:1 215:1 240:1 256:1 283:2 338:1 471:1 708:1 775:1 806:1 838:1 863:2 1396:1 1516:1 
1 8:1 9:1 28:2 29:1 49:1 53:1 56:1 70:1 73:1 80:1 85:1 123:1 171:1 178:1 197:1 210:1 428:1 521:1 743:1 937:1 1457:1 1574:1 1590:1 1732:1 
1 7:4 8:1 9:2 10:2 13:2 15:2 22:1 23:1 43:1 63:2 65:1 70:1 88:1 89:1 93:1 98:1 113:1 136:1 195:1 291:2 344:1 357:1 372:1 393:1 396:1 468:1 478:1 576:1 927:2 1443:1 1780:1 1793:1 
1 1:10 2:9 6:2 7:3 8:1 15:1 21:5 22:1 29:3 43:1 74:1 150:1 162:1 234:2 325:1 374:1 510:2 905:1 1465:1 
1 7:1 16:1 22:1 34:1 150:1 287:1 516:1 932:1 
1 7:3 9:1 10:5 12:1 13:1 34:1 43:2 52:1 61:2 70:1 77:1 106:2 144:1 200:1 238:1 666:1 868:1 950:1 1617:1 1742:1 1829:1 
1 7:1 8:1 9:2 12:1 13:2 15:2 32:1 45:1 47:1 50:1 51:3 69:2 73:2 91:1 99:2 105:2 150:1 218:1 240:3 312:1 335:1 601:1 627:1 1114:1 
1 7:1 8:1 9:1 12:3 13:1 15:1 22:1 23:1 31:1 32:1 42:1 50:1 60:1 66:1 113:1 123:1 161:1 180:1 210:1 212:1 229:1 265:1 368:1 437:1 814:1 1042:1 1403:1 1474:1 
1 7:2 8:1 23:1 30:1 48:2 64:2 102:1 137:1 284:1 834:1 1066:1 1839:1 
1 8:2 9:1 10:1 12:1 13:1 14:1 18:1 23:2 30:1 40:1 42:1 47:1 52:1 59:1 65:1 69:2 70:1 79:1 89:1 127:1 144:1 149:1 151:1 162:1 169:1 174:1 180:1 283:1 393:1 413:1 648:1 799:1 920:1 950:1 1001:1 1309:1 1341:1 1572:1 
1 7:2 8:1 9:1 12:1 13:1 18:1 23:2 28:1 31:1 32:2 42:1 49:1 54:1 63:1 68:1 70:1 77:1 79:1 80:1 100:1 101:1 106:1 127:1 131:1 158:2 170:1 193:1 203:1 291:1 310:1 518:1 801:1 896:1 1170:1 1872:1 
1 4:1 5:1 7:2 9:1 10:1 13:2 23:2 34:1 61:1 64:3 84:1 241:1 251:1 336:1 387:1 674:1 960:1 1324:1 
1 13:1 34:1 59:1 70:1 1292:1 1550:1 
1 7:1 9:3 10:1 13:2 15:2 22:1 28:4 30:1 44:1 47:1 48:1 49:2 55:3 56:1 57:1 60:1 62:1 70:1 72:1 89:1 117:1 119:1 139:1 152:1 161:1 164:1 192:1 204:1 221:1 227:1 307:2 310:1 312:1 351:1 407:1 1006:1 
1 7:3 8:1 10:1 12:1 15:1 18:1 23:2 28:1 30:1 34:1 42:1 44:1 49:1 60:1 70:1 76:1 77:1 80:1 84:1 88:1 127:1 152:1 191:1 290:2 309:1 359:2 517:1 1128:1 1177:1 1628:1 
1 7:1 8:1 9:3 10:1 13:1 15:1 31:1 45:1 60:2 98:1 100:1 375:1 454:1 584:1 650:1 1193:1 1201:1 
1 7:2 9:3 13:1 15:2 18:1 32:2 40:2 45:2 50:1 52:1 55:2 57:1 58:1 70:1 72:1 85:1 97:1 98:1 102:1 105:1 135:1 150:1 161:2 174:1 191:1 227:1 291:1 370:1 404:1 677:2 806:3 863:1 1113:2 1703:1 
1 7:2 8:2 10:2 13:2 15:2 18:1 30:1 32:1 34:1 55:3 57:1 63:2 70:1 97:2 106:1 118:1 186:1 251:1 435:1 442:1 554:1 654:1 655:1 896:1 1065:1 1979:1 
1 7:1 9:2 10:2 12:2 13:1 22:3 23:1 30:2 34:2 47:1 61:1 70:1 191:1 197:1 225:1 428:1 960:1 1080:1 1365:1 1493:1 1840:1 1847:1 1983:1 
1 7:3 8:1 9:4 12:4 18:1 22:1 23:1 28:1 30:1 45:1 51:6 56:1 57:1 69:3 70:1 72:1 115:1 143:1 169:1 179:1 188:1 239:1 265:1 282:1 342:1 371:1 477:1 510:1 607:1 769:1 882:1 917:1 1042:1 1440:1 
1 7:2 8:1 9:1 16:1 34:1 40:2 43:1 47:1 51:1 59:1 60:2 66:1 70:1 73:1 105:1 120:2 134:1 246:1 309:2 338:1 474:1 587:1 618:2 1075:1 1096:1 1218:1 1337:1 1819:1 
1 7:2 8:2 10:1 12:4 13:2 15:2 23:1 48:1 57:2 70:2 75:1 97:1 105:1 106:1 115:1 123:1 127:1 144:1 171:1 288:1 442:1 588:1 792:1 1728:1 
1 8:1 9:6 15:1 22:1 23:1 28:6 31:4 32:2 49:4 52:2 55:4 56:1 60:1 63:1 67:1 70:1 73:1 81:1 85:1 103:1 105:1 156:2 163:1 174:1 224:1 226:1 228:1 313:1 316:1 348:1 384:1 749:1 1315:1 1981:1 
1 1:65 2:52 3:13 5:13 6:13 7:3 11:13 12:2 13:2 15:1 19:13 21:13 39:13 45:1 50:1 51:1 63:1 71:1 72:2 74:13 75:1 81:26 83:26 111:1 203:1 215:1 263:1 276:2 277:2 306:1 335:1 339:7 488:1 576:1 583:1 594:1 905:1 909:2 1521:1 1585:1 
1 7:1 9:3 10:2 13:2 18:1 22:1 23:2 29:1 42:1 44:2 50:1 59:1 66:1 70:1 71:1 72:1 88:1 94:2 105:1 106:1 160:1 275:1 434:3 701:1 763:1 961:1 1061:1 1524:1 
1 7:4 8:1 9:1 10:2 12:3 13:1 15:1 22:1 31:3 34:2 42:1 66:1 67:1 74:2 86:1 97:1 99:1 106:1 127:1 135:1 153:1 213:1 224:1 232:1 310:1 376:1 650:1 1250:1 1369:1 1431:1 
1 7:2 13:1 15:1 22:1 47:1 144:1 148:1 294:1 699:1 713:1 983:1 1248:1 
1 7:2 9:1 12:3 13:4 23:1 30:1 32:2 44:2 47:1 59:1 63:1 70:1 80:1 97:1 99:1 106:1 108:1 119:1 120:1 127:1 135:2 144:1 150:1 158:1 238:1 242:1 289:1 307:1 310:1 328:1 359:1 916:1 
1 7:2 9:1 10:3 12:1 15:3 22:1 23:2 30:1 31:3 32:1 45:1 61:1 62:1 69:1 97:1 106:1 117:1 163:1 174:1 527:2 554:1 1329:1 1620:1 1962:1 
1 7:1 8:1 10:1 12:2 13:1 15:1 18:1 22:1 23:1 28:1 29:1 30:1 31:1 32:4 43:2 50:1 56:1 67:1 78:1 86:1 88:1 100:1 103:1 130:1 150:1 164:1 192:1 199:1 238:1 251:1 269:1 307:1 316:1 452:1 454:1 458:1 473:1 715:1 742:1 811:1 963:1 990:1 1058:1 1218:1 1717:1 
1 7:1 9:1 10:3 12:2 15:2 30:1 62:1 70:1 92:1 117:2 120:1 121:1 153:1 180:1 315:1 351:1 432:1 512:1 686:1 955:1 1359:1 1691:1 1883:1 
1 7:3 8:1 9:3 10:3 12:2 18:1 23:3 28:1 31:1 32:1 48:1 49:1 52:1 60:2 65:1 70:1 72:1 80:1 136:1 155:1 189:1 203:1 308:1 393:1 434:1 860:1 928:1 1454:1 
1 12:1 13:2 17:1 31:1 32:1 34:1 40:3 58:1 59:3 74:2 200:1 306:1 369:1 374:1 507:1 531:1 723:1 983:1 1776:1 
1 7:1 9:3 10:1 12:5 13:2 15:2 22:1 28:1 32:1 34:2 50:2 56:1 70:1 79:1 106:2 127:1 149:1 204:1 256:1 367:1 610:1 1023:1 1158:1 1478:1 1600:1 2000:1 
0.4110586806248614 7:4 8:2 9:2 12:2 13:1 15:1 18:1 23:3 32:1 44:1 47:1 48:1 53:1 54:2 62:1 83:1 85:1 94:1 131:1 147:1 158:1 238:3 245:1 265:1 275:1 327:1 466:1 1178:1 
1 7:3 10:1 12:2 13:1 15:1 23:1 28:2 30:2 34:2 42:1 44:3 50:1 56:1 70:1 72:2 73:1 79:1 94:1 131:1 133:1 152:1 167:2 204:1 207:1 286:1 311:1 337:1 432:1 1157:1 1462:1 1796:1 1921:1 
1 8:3 9:5 10:1 12:1 13:2 18:1 22:1 32:1 34:2 40:1 42:1 57:2 66:1 70:1 75:1 84:2 102:1 137:1 236:2 277:1 627:1 1081:1 1561:1 
1 7:3 8:2 10:2 12:2 13:1 18:1 23:3 34:1 44:1 47:1 48:2 65:3 70:1 101:2 143:1 198:1 552:1 568:1 620:1 753:1 1065:1 
1 7:3 10:2 13:1 18:1 23:1 30:1 31:1 34:2 44:2 63:1 65:1 67:1 69:1 70:1 77:1 89:1 94:1 123:1 127:1 147:2 160:1 192:1 299:1 307:1 359:2 434:1 628:1 777:1 927:1 1192:2 1322:1 
1 7:1 10:4 13:2 15:1 18:3 22:1 30:1 40:1 44:1 45:1 53:1 54:1 58:1 70:1 137:2 147:2 189:1 201:2 227:1 419:1 424:1 513:2 640:2 1152:1 1272:1 1374:1 
1 1:5 2:5 4:3 7:1 13:2 21:4 31:1 34:1 43:1 74:1 103:1 230:1 234:1 647:1 1019:2 1422:1 
1 7:1 8:2 9:3 10:2 12:3 13:1 15:2 23:1 32:1 34:2 45:1 47:1 48:1 54:1 70:1 78:1 98:1 141:1 200:1 237:1 332:2 342:1 474:2 538:1 924:1 970:1 1065:1 1111:1 1281:1 
0.5792257584594878 12:5 40:5 51:6 70:1 130:1 149:7 201:1 513:1 557:1 1844:1 
1 7:5 10:1 12:1 13:1 31:1 40:1 50:1 53:5 55:1 57:1 65:3 69:2 124:1 140:1 151:2 203:1 206:1 232:1 276:1 315:1 331:1 370:1 375:1 550:1 735:1 1326:1 1639:1 
1 7:2 9:1 13:1 22:1 23:1 60:1 74:1 145:1 185:1 306:2 521:1 931:1 1378:1 
1 7:1 9:1 10:1 15:1 60:1 63:1 72:1 85:1 169:2 280:1 341:1 497:1 718:1 816:1 1059:1 1115:1 
1 7:5 12:3 13:1 15:4 18:1 23:1 31:2 32:1 48:2 62:1 66:1 80:2 84:1 85:1 93:1 158:1 162:1 242:1 251:2 290:1 331:1 635:1 791:1 1704:1 
1 7:1 8:1 10:1 13:1 23:1 30:1 58:1 61:1 62:2 64:1 70:1 99:2 111:1 153:1 217:1 265:1 293:1 354:1 638:1 690:1 1398:1 
1 1:3 2:2 3:1 5:1 6:2 7:1 8:1 10:1 13:2 15:1 21:2 22:1 26:1 29:1 73:1 83:1 101:1 143:1 1469:1 1561:1 
1 7:1 8:2 9:1 12:1 13:1 15:1 18:1 43:1 45:1 51:1 74:1 85:1 199:1 215:1 263:1 308:1 335:1 713:1 1248:1 1521:1 1595:1 1638:1 
1 7:1 9:2 12:1 13:4 15:2 22:2 23:1 28:1 30:2 31:1 40:1 49:1 51:3 64:2 70:1 73:2 86:1 92:1 117:1 118:1 135:1 293:1 499:1 751:1 761:1 924:1 1037:1 1114:1 1435:1 1565:3 
1 7:3 8:1 10:1 22:1 23:1 32:1 34:1 42:2 45:1 50:1 51:1 60:2 66:1 70:1 77:1 80:1 85:1 155:1 158:1 164:1 185:1 187:1 221:1 245:1 285:1 315:1 418:2 442:1 445:1 454:1 558:1 867:1 987:1 1646:1 
1 7:7 8:2 9:1 12:1 13:1 18:1 22:1 23:2 31:1 51:1 57:1 67:1 69:2 80:1 171:1 386:1 575:1 772:1 986:1 1081:1 1409:1 1624:1 1897:1 
1 7:2 8:2 12:4 23:1 28:1 43:1 48:1 49:1 70:1 72:1 80:1 84:1 85:1 86:1 115:1 156:1 195:1 238:1 263:1 277:1 319:1 323:1 364:1 530:1 773:1 1697:1 1894:1 
1 10:2 15:1 28:1 40:1 49:1 60:1 65:1 117:1 120:1 155:1 187:1 201:1 251:1 286:1 364:1 1160:1 1359:1 1954:1 
1 7:1 9:1 10:1 29:2 59:1 68:1 70:1 215:1 415:1 510:1 1083:1 1114:1 1165:1 1193:1 1994:1 
1 7:1 9:2 15:1 18:2 28:1 44:2 48:1 50:1 56:1 58:1 70:1 94:1 102:1 147:1 188:1 199:1 227:1 413:1 575:1 578:1 767:1 1124:1 1329:1 
1 3:1 7:1 8:1 9:4 10:1 13:2 23:2 30:1 52:1 54:1 59:2 64:1 66:1 141:1 147:1 149:1 153:1 164:1 165:1 221:1 230:1 419:1 476:1 478:1 521:1 578:1 987:1 1239:1 1490:1 1846:1 
1 7:1 8:2 9:1 12:1 13:1 15:1 18:2 22:1 28:2 34:1 43:1 45:2 51:1 74:1 84:1 85:1 139:1 199:1 263:1 308:1 335:1 595:1 713:1 1248:1 1521:1 1595:1 1638:1 1722:1 
1 7:1 8:1 9:2 13:2 15:1 18:1 22:1 31:2 40:1 65:1 70:1 73:1 76:1 146:1 156:1 217:1 230:1 244:1 454:1 480:1 639:1 734:1 810:1 1546:1 
1 7:8 8:1 10:1 12:2 13:1 15:1 30:2 31:1 32:1 34:1 40:1 43:1 45:1 48:1 50:1 55:1 57:2 58:1 62:1 67:1 76:1 120:1 130:1 157:1 271:1 358:1 396:1 424:1 435:1 500:1 501:1 715:1 1702:1 1912:1 
1 4:1 5:1 7:3 8:1 12:5 23:1 30:2 34:1 42:1 45:2 67:1 78:1 86:1 103:1 106:1 117:1 157:1 167:1 170:1 200:1 232:1 235:1 239:1 247:1 316:1 348:1 402:1 561:1 708:1 
1 13:1 15:1 32:1 45:2 57:1 63:2 70:1 86:2 103:1 120:2 208:1 235:1 253:2 265:1 585:1 1103:1 1332:1 
1 9:1 10:3 13:5 15:2 23:1 44:1 47:1 51:2 52:1 55:1 69:1 70:1 127:1 178:1 181:1 189:1 346:1 363:1 377:1 405:1 447:1 733:1 952:1 1388:2 
1 7:1 8:1 9:2 12:1 18:1 23:1 34:1 42:1 43:1 44:1 48:1 52:1 60:1 63:1 65:1 68:1 70:1 76:1 78:1 102:1 115:1 119:1 144:2 152:1 155:1 158:1 160:1 229:1 367:1 390:1 437:1 1004:1 1218:1 1588:1 1601:1 
1 7:3 8:1 9:2 10:4 13:2 18:1 23:3 32:1 34:1 48:1 52:1 55:2 60:1 70:1 127:1 144:2 162:1 186:1 203:1 289:2 413:1 447:1 799:1 814:1 902:1 1291:2 
0.2144887829178436 7:1 9:3 10:1 13:1 15:1 22:3 28:1 30:1 40:4 49:1 57:1 58:1 64:1 70:1 89:1 115:1 161:1 192:2 243:1 269:2 322:1 388:1 405:1 448:1 477:1 947:1 1069:1 1371:1 1636:1 
1 7:2 8:2 9:2 10:1 12:1 13:1 15:4 22:1 48:1 52:1 55:6 60:1 62:1 70:2 72:1 127:1 133:1 140:1 164:1 248:1 250:1 254:1 284:1 306:1 323:1 368:1 681:1 747:1 846:1 
1 7:1 9:1 13:4 34:1 60:1 75:1 79:1 83:1 103:1 144:1 149:1 356:1 781:1 1111:1 1281:1 1977:1 
0.7756619884667482 1:860 2:860 3:801 4:641 5:791 6:477 7:206 8:190 9:53 10:59 11:306 12:28 13:38 14:29 15:42 16:29 17:29 18:12 19:85 20:85 21:4 22:7 23:16 24:8 25:8 26:83 28:2 30:11 31:8 32:5 33:23 34:15 37:5 38:5 39:80 40:3 41:302 42:8 43:2 44:27 45:1 46:1 47:10 48:5 49:12 50:4 52:5 53:5 54:5 56:5 57:7 58:7 59:2 60:1 61:5 63:8 65:7 66:3 67:13 68:1 69:8 71:3 72:4 73:3 74:1 75:1 76:4 77:1 78:1 80:2 82:76 83:2 84:1 85:1 86:3 88:18 89:10 91:1 93:7 94:4 95:77 97:5 98:1 99:1 100:2 102:2 106:10 107:6 108:5 109:6 111:2 115:1 116:4 117:1 118:9 119:15 123:2 127:4 129:1 130:1 134:1 135:4 136:6 139:1 141:1 142:1 144:2 147:4 148:302 149:1 151:1 152:2 153:3 155:1 157:4 158:7 159:302 160:5 161:2 162:2 163:1 164:1 165:4 167:6 169:14 170:6 173:78 178:3 179:1 180:1 181:1 184:3 186:3 187:3 188:1 189:1 190:1 191:1 194:3 195:2 197:1 200:1 202:2 204:1 205:1 206:1 207:1 208:1 213:4 216:1 217:2 221:2 222:1 226:2 228:2 229:3 230:1 232:1 233:2 237:1 238:1 240:1 244:6 248:1 253:1 254:1 256:1 257:3 258:1 260:1 261:1 266:2 267:2 269:2 271:2 273:1 274:1 276:1 279:2 281:2 283:1 284:1 287:1 288:1 289:5 293:1 295:4 299:8 300:1 301:1 303:1 305:1 307:2 310:5 314:1 316:1 319:2 326:1 327:2 331:1 339:2 354:3 365:1 366:1 370:1 375:2 388:1 390:2 393:1 394:1 399:1 402:3 404:1 409:1 411:3 413:2 418:1 434:1 437:2 440:2 444:1 447:3 450:1 453:1 456:2 459:2 460:2 461:1 468:2 472:1 478:2 480:1 485:4 487:1 490:1 504:1 516:3 521:1 523:2 524:2 542:1 549:1 554:1 556:1 568:1 570:1 572:138 573:1 577:1 580:1 599:1 604:2 610:1 617:1 621:2 623:1 626:3 628:1 631:1 644:1 652:1 668:1 671:1 680:2 687:6 698:1 701:1 702:4 711:1 715:1 724:1 726:3 728:1 733:2 734:1 748:4 749:1 753:1 783:1 795:1 808:1 829:1 849:1 857:2 858:2 868:5 871:1 873:3 877:1 885:1 893:5 896:4 899:1 910:1 917:1 919:1 920:1 948:3 978:2 991:1 1014:2 1016:1 1034:2 1038:1 1054:1 1056:2 1064:1 1065:1 1100:1 1103:1 1104:1 1114:1 1141:1 1175:1 1214:1 1229:1 1245:1 1255:1 1277:1 1285:1 1318:3 1319:1 1338:2 1361:1 1369:1 1372:1 1389:2 1411:1 1443:1 1454:1 1464:2 1479:1 1491:1 1497:1 1499:1 1514:2 1528:1 1577:1 1604:1 1610:1 1627:2 1708:1 1723:1 1735:1 1749:1 1755:1 1803:1 1814:2 1828:2 1874:1 1880:4 1919:1 1921:1 1972:1 1989:1 1995:1 
0.7959303868259052 1:59 2:59 3:37 4:31 5:28 6:56 8:17 11:2 13:3 14:41 15:3 16:40 17:40 19:8 20:8 21:40 22:2 24:8 25:8 26:5 27:2 28:2 29:1 31:2 33:36 35:1 37:5 38:5 39:3 40:1 41:2 42:1 44:23 45:1 46:1 49:4 51:5 52:2 55:4 56:8 57:15 60:1 66:3 67:3 72:2 89:3 97:2 102:6 105:1 106:2 129:1 142:1 147:2 148:1 155:3 156:2 175:1 187:3 204:9 236:1 251:2 279:4 280:2 289:22 337:18 394:1 402:2 472:1 491:4 500:1 541:4 552:3 555:1 580:2 754:1 925:17 932:2 1714:2 1728:1 
0.5823293652383447 1:333 2:333 3:221 4:208 5:223 6:156 7:4 8:40 9:5 10:2 11:140 13:13 15:3 19:19 21:5 22:1 25:4 26:20 27:4 29:6 34:3 37:20 38:20 39:19 41:13 51:1 52:1 53:10 54:10 55:2 59:1 66:1 67:1 74:8 82:41 83:10 88:3 94:2 95:19 97:1 101:1 111:1 113:1 121:1 126:36 130:1 148:98 150:1 155:1 159:98 171:1 206:4 219:8 232:1 234:2 253:1 268:1 325:1 333:6 357:8 374:1 398:1 454:1 460:1 463:32 476:8 490:1 510:1 532:1 576:1 594:1 641:1 796:1 864:1 891:1 1019:16 1067:1 1077:1 1137:1 1143:1 1158:1 1251:1 1259:1 1292:1 1299:3 1369:4 1386:1 1415:1 1422:1 1518:4 1820:1 1826:1 
0.1751111123213929 1:314 2:314 3:217 4:204 5:219 6:147 7:3 8:40 9:4 10:2 11:135 13:11 15:2 19:19 21:5 25:4 26:20 27:4 29:6 34:2 37:20 38:20 39:19 41:13 51:1 52:1 53:10 54:10 59:1 66:1 67:1 74:8 82:41 83:10 88:1 94:1 95:19 97:1 101:1 111:1 113:1 121:1 126:36 130:1 148:94 150:1 155:1 159:94 171:1 206:4 219:8 232:1 253:1 268:1 325:1 357:8 374:1 398:1 454:1 460:1 463:32 476:8 490:1 510:1 532:1 576:1 594:1 641:1 796:1 864:1 891:1 1019:16 1067:1 1143:1 1251:1 1259:1 1292:1 1299:3 1369:4 1386:1 1415:1 1422:1 1518:4 1820:1 
0.8410516752509392 1:71 2:71 3:63 4:50 5:54 6:41 7:3 8:18 11:43 14:8 16:7 17:7 19:11 20:11 21:2 24:8 25:8 26:9 28:2 29:5 33:2 35:1 37:6 38:5 39:6 41:2 46:1 82:1 95:1 102:1 116:1 142:1 148:9 159:10 172:5 173:4 175:1 195:1 205:1 535:1 1219:1 1685:1 
0.7753560782954306 1:1204 2:1204 3:432 4:426 5:423 6:609 8:10 9:15 10:3 11:396 13:6 14:214 16:199 17:199 18:5 19:8 20:8 21:1 22:1 24:10 25:9 26:5 28:2 29:1 33:6 37:5 38:5 39:3 41:2 46:1 49:2 53:30 54:30 65:3 82:197 83:204 85:1 102:1 126:394 142:1 145:3 206:1 219:394 268:197 357:2 406:192 491:1 595:1 622:197 716:1 943:1 1174:1 1189:6 1214:1 1233:1 1266:2 1334:1 1499:2 1522:1 1526:2 1611:1 1684:4 1767:1 1891:1 1916:1 1972:1 1986:1 
0.7746805782800115 1:112 2:111 3:65 4:10 5:8 6:55 7:3 8:3 9:6 10:5 12:11 13:10 15:1 18:4 19:2 20:2 22:2 23:4 24:1 25:1 28:2 29:6 31:1 32:2 34:1 35:1 39:2 40:1 41:110 42:3 43:2 44:3 47:2 49:1 56:1 57:1 63:2 66:3 70:3 76:1 80:1 82:2 89:1 95:2 100:1 107:4 116:1 119:4 124:1 130:7 135:1 148:55 153:1 158:2 159:55 169:2 174:1 181:1 197:1 200:2 202:1 217:1 221:2 232:1 253:1 258:1 269:1 276:1 297:1 299:3 326:1 340:1 360:1 373:2 386:1 393:2 417:2 457:1 468:2 470:2 488:1 508:1 536:3 599:1 603:1 620:1 649:1 674:2 762:2 798:1 803:2 859:1 872:1 1081:1 1103:1 1112:1 1129:2 1131:1 1392:1 1426:1 1432:1 1527:1 1529:2 1660:2 1743:1 
0.8410815889891459 1:40 2:40 10:20 21:40 34:21 53:20 54:20 70:2 74:20 88:20 111:1 227:20 650:20 742:20 856:1 1946:40 
1 1:8 2:5 3:5 4:1 5:5 6:4 8:6 9:6 10:8 11:2 13:2 14:3 15:1 22:1 26:2 29:2 34:1 35:1 40:4 41:2 47:1 65:2 70:1 117:1 157:1 225:1 238:1 259:2 304:1 305:1 335:2 347:2 370:1 421:1 439:1 445:2 498:1 503:1 518:2 604:1 834:4 871:1 1742:1 
1 7:4 8:2 9:9 10:14 12:1 13:3 18:1 22:2 28:1 30:1 40:13 42:1 45:1 50:1 51:2 56:1 57:1 64:2 66:1 70:7 71:1 75:1 76:1 86:1 92:1 131:1 135:1 137:1 165:1 166:1 171:2 238:1 338:1 382:1 623:1 669:1 725:1 861:1 1099:1 1465:1 1592:1 1693:1 1827:1 1953:1 
0.766231082631517 1:408 2:422 3:219 4:212 5:210 6:208 8:11 9:1 10:1 11:285 14:291 16:112 17:64 18:1 19:9 20:9 21:36 22:1 24:8 25:8 26:5 27:9 28:3 29:184 35:179 37:5 38:5 39:4 41:6 46:3 49:5 65:4 81:58 83:1 114:4 142:2 145:1 148:175 172:38 175:175 206:23 239:1 293:4 339:1 490:1 545:44 576:1 666:2 728:1 754:1 817:1 968:1 988:1 994:1 1057:1 1067:1 1083:1 1100:1 1120:1 1143:1 1246:1 1305:1 1606:1 1666:2 1833:1 1916:1 1973:1 
1 7:1 8:2 10:2 22:1 30:2 31:1 34:1 40:1 42:3 45:1 55:2 58:1 73:1 93:1 100:1 120:2 144:1 185:1 199:1 261:1 273:2 289:1 510:1 689:1 957:2 983:1 1139:1 1195:3 1262:1 1519:1 
0.7665435172482169 1:452 2:469 3:239 4:232 5:230 6:233 8:11 9:1 10:1 11:306 14:320 16:125 17:70 18:1 19:9 20:9 21:45 22:1 24:8 25:8 26:5 27:9 28:3 29:200 35:195 37:5 38:5 39:4 41:14 46:7 49:6 65:5 81:64 83:1 114:4 142:4 145:1 148:191 172:41 175:191 206:26 239:1 252:1 293:4 339:1 490:1 545:50 576:1 666:2 728:1 754:1 817:1 909:1 968:1 988:1 994:1 1057:1 1067:1 1083:1 1100:1 1120:1 1143:1 1246:1 1305:1 1310:1 1465:1 1606:1 1666:2 1833:1 1916:1 1973:3 
1 1:4 2:4 6:3 7:4 8:1 10:2 12:2 13:5 15:1 21:2 23:3 29:2 32:1 41:2 43:1 45:1 47:1 48:2 58:5 66:1 69:1 73:2 77:1 79:1 80:1 91:1 97:1 98:1 136:1 150:1 224:1 238:1 262:1 281:1 297:1 377:1 415:1 492:1 616:1 618:1 645:1 834:2 1361:1 1460:1 1469:1 1558:1 1579:1 1601:1 1652:1 1679:1 
1 7:1 9:1 13:1 18:1 31:1 40:2 42:1 52:1 57:1 58:1 93:1 102:1 135:1 149:1 185:1 192:1 248:1 287:1 360:1 465:1 500:2 507:1 541:1 636:1 689:1 816:2 1195:2 1585:1 
1 1:14 2:9 3:5 5:5 6:2 9:8 15:2 19:5 21:6 39:5 74:9 87:1 102:1 135:2 141:3 144:1 148:3 287:2 360:1 405:3 526:2 575:1 816:2 913:2 983:1 1638:1 
1 1:8 2:5 3:5 4:1 5:5 6:4 7:1 8:5 9:1 10:3 11:2 12:2 13:2 14:1 15:4 22:2 23:1 26:2 28:1 29:2 30:2 34:1 35:1 41:2 43:2 45:2 47:1 57:1 59:1 68:1 70:1 97:1 131:1 135:1 139:1 225:1 238:1 259:2 290:1 304:1 305:1 351:1 396:1 404:1 417:1 421:1 439:1 498:1 503:1 510:1 790:1 1036:1 1116:1 1183:1 1235:1 1245:1 1389:1 1746:1 
1 1:8 2:5 3:5 4:1 5:5 6:4 7:2 8:6 9:2 10:3 11:2 13:3 14:1 15:2 18:1 22:3 26:2 28:1 29:2 30:1 35:1 40:3 41:2 43:1 47:1 48:1 49:1 50:1 57:1 63:1 65:1 68:1 70:1 78:1 79:1 147:2 155:1 183:1 198:1 225:1 238:1 259:2 260:1 304:1 305:1 421:1 439:1 498:1 503:1 549:1 681:3 785:1 876:1 896:1 1416:1 1429:1 
1 7:6 8:2 9:2 10:1 12:2 13:2 15:2 22:1 23:2 28:1 30:1 31:1 32:1 43:1 47:2 56:1 64:2 70:1 80:1 84:1 92:1 100:1 106:1 123:1 137:1 166:1 186:1 226:1 436:1 462:1 469:1 606:1 611:1 628:2 652:1 681:1 775:1 809:1 812:1 822:1 868:1 988:1 1137:2 1238:1 
1 7:1 8:3 9:4 12:2 13:3 15:1 22:1 30:1 32:1 42:2 44:1 45:1 68:1 70:1 71:1 77:1 102:1 106:1 147:1 183:1 184:1 312:1 393:1 568:1 930:1 986:1 1348:1 1756:1 
1 4:1 5:1 7:1 8:2 9:2 10:2 12:1 15:1 22:1 30:1 34:2 40:2 43:1 47:1 62:1 70:1 72:2 102:1 111:1 136:1 144:1 189:1 289:1 328:1 418:1 477:1 497:1 515:1 627:2 664:1 720:1 855:1 1030:1 1097:1 
1 7:5 8:3 10:1 12:1 13:5 18:1 23:4 30:1 32:1 50:1 51:1 62:1 68:2 78:3 93:1 101:1 105:1 121:1 152:1 160:1 183:2 225:1 230:1 242:1 314:2 434:1 448:1 518:1 528:1 561:2 615:1 713:2 736:1 783:1 1081:1 1396:1 1579:1 1746:1 1757:1 1872:1 
1 7:2 9:2 10:1 12:3 22:1 23:1 30:3 32:1 42:1 43:2 45:1 58:1 65:1 70:2 78:1 112:1 118:1 134:1 144:1 162:1 238:1 239:1 300:1 312:1 443:1 502:1 504:1 674:1 830:1 963:1 990:1 1295:1 
1 7:3 8:1 10:2 13:1 15:4 22:1 32:1 43:1 48:1 50:1 62:1 80:1 98:1 131:1 143:1 199:1 242:1 291:1 303:1 427:1 559:1 684:1 751:1 1881:1 
1 4:1 5:1 7:5 8:2 9:3 10:1 12:5 13:1 15:1 22:2 28:1 31:1 32:1 43:1 48:1 52:1 56:1 57:1 60:1 67:1 70:1 80:1 97:1 123:2 158:1 171:1 190:1 192:1 204:1 215:1 258:1 265:1 317:1 358:1 430:2 462:1 467:1 469:1 521:1 734:1 810:1 902:1 908:1 931:1 1597:1 1730:4 
1 1:3 2:3 6:2 7:5 8:5 9:1 10:3 12:3 13:2 15:4 18:1 21:1 22:1 23:3 28:4 30:1 32:3 34:3 41:2 43:2 48:1 50:3 52:1 55:12 56:2 58:1 91:1 105:1 106:1 113:2 115:1 117:1 119:1 121:1 133:1 136:1 139:1 146:1 149:1 155:1 161:1 167:1 185:1 204:1 215:1 223:1 228:1 247:1 254:1 256:1 315:1 324:1 454:1 571:1 620:1 863:1 980:2 982:2 1020:1 1057:1 1139:1 1234:1 1288:1 1595:1 1730:4 1763:3 2000:2 
1 8:2 10:5 13:3 22:1 28:3 34:1 40:1 49:2 59:5 64:2 70:1 71:1 73:1 79:1 88:1 89:1 106:1 118:1 120:1 131:1 144:1 147:1 149:1 156:1 157:1 158:1 162:1 228:1 240:1 261:1 262:1 269:3 344:1 424:1 462:1 469:1 502:1 576:1 616:1 750:1 848:1 1543:1 
1 7:3 10:3 15:1 18:2 22:1 23:1 30:2 32:3 40:1 42:1 48:1 50:1 55:5 57:1 70:1 90:1 124:1 130:1 140:1 156:1 166:1 347:1 396:1 404:1 434:1 617:1 789:1 986:1 1335:1 
1 7:1 9:1 10:5 13:4 15:1 18:4 22:1 30:1 40:3 42:1 43:1 61:1 65:1 70:1 92:1 100:1 131:1 136:1 149:1 199:1 239:1 302:1 460:2 462:1 469:1 601:1 813:1 912:1 947:1 1977:1 
1 7:3 8:1 9:1 10:1 12:2 15:1 18:2 31:2 32:3 34:1 42:1 45:1 50:1 52:1 53:1 54:1 70:1 74:1 100:1 108:1 117:1 127:1 163:1 180:1 183:1 242:1 312:1 338:1 465:1 473:1 579:1 742:1 818:1 1023:1 1160:1 1863:1 2000:1 
1 7:6 8:2 9:1 10:2 12:1 13:1 15:1 18:1 22:1 23:1 32:1 48:1 60:1 61:1 68:1 69:1 73:1 88:1 118:1 144:1 153:1 162:1 178:1 179:1 183:1 231:1 235:2 238:1 262:1 291:1 428:1 532:1 748:1 875:1 921:1 1591:1 
1 7:3 8:3 10:1 12:3 13:2 18:1 28:1 32:1 34:1 43:1 50:1 54:1 56:1 60:1 67:1 70:1 75:1 84:1 123:2 127:1 186:1 204:1 241:1 289:1 291:2 390:1 488:1 679:1 822:1 928:1 1561:1 1576:1 
1 8:1 10:2 12:3 13:1 15:1 28:2 30:1 31:1 43:1 45:1 46:1 47:1 50:1 57:1 64:1 70:1 94:1 105:1 119:1 163:1 242:1 247:1 256:1 390:1 437:1 504:1 664:1 681:1 811:1 1568:1 1744:1 1746:1 1883:1 
1 7:3 9:2 10:1 12:3 15:1 18:2 22:1 28:2 30:1 31:1 32:1 34:1 47:1 48:1 49:2 59:1 63:1 67:1 86:2 111:2 203:1 231:1 245:1 253:1 280:1 302:1 333:1 494:2 686:1 1009:1 1355:1 1648:2 1687:1 1919:2 
1 7:2 8:1 10:2 12:2 15:1 23:3 30:2 34:1 43:1 44:1 47:1 52:1 65:1 70:1 127:1 134:1 162:1 197:1 248:2 269:1 306:1 411:1 428:1 437:1 458:1 681:1 1077:1 1670:1 1940:1 
1 4:1 5:1 7:3 8:2 9:1 12:2 18:1 22:1 23:2 28:3 29:1 32:1 34:1 56:3 63:1 70:1 80:1 89:1 118:1 131:1 191:1 204:2 314:1 337:1 425:1 555:1 683:1 755:1 1212:1 1399:1 1507:1 
0.001240114434293366 1:794 2:774 3:414 4:408 5:448 6:317 8:34 9:4 11:633 13:24 18:33 19:40 21:100 34:34 36:12 39:40 43:158 53:2 54:2 74:165 82:21 83:162 90:9 95:21 130:1 148:326 149:1 159:326 209:6 232:33 234:2 333:2 395:33 476:4 490:3 911:4 1001:1 1019:5 1057:3 1083:8 1229:6 1246:8 1415:20 1428:8 1574:1 1575:132 1610:21 1833:4 1942:27 
0.7744049481988184 1:794 2:774 3:414 4:408 5:448 6:317 8:34 9:4 11:633 13:24 18:33 19:40 21:100 34:34 36:12 39:40 43:158 53:2 54:2 74:165 82:21 83:162 90:9 95:21 130:1 148:326 149:1 159:326 209:6 232:33 234:2 333:2 395:33 476:4 490:3 911:4 1001:1 1019:5 1057:3 1083:8 1229:6 1246:8 1415:20 1428:8 1574:1 1575:132 1610:21 1833:4 1942:27 
0.3885221519609114 1:867 2:847 3:457 4:451 5:494 6:351 8:37 9:4 11:701 13:24 18:36 19:43 21:102 34:37 36:12 39:43 43:177 53:2 54:2 74:182 82:24 83:174 90:11 95:24 130:1 148:360 149:1 159:360 209:6 232:36 234:2 333:2 395:36 476:4 490:2 911:4 1001:1 1019:5 1057:4 1083:9 1229:10 1246:7 1415:24 1428:7 1574:1 1575:146 1610:24 1820:2 1833:4 1942:34 
0.3895172567458834 1:869 2:849 3:457 4:451 5:494 6:351 8:37 9:4 11:701 13:24 18:36 19:43 21:104 34:37 36:12 39:43 43:177 53:2 54:2 74:182 82:24 83:174 90:11 95:24 130:1 148:360 149:1 159:360 209:6 232:36 234:2 333:2 395:36 476:4 490:2 840:1 911:4 1001:1 1019:5 1057:4 1083:9 1229:10 1246:7 1415:24 1428:7 1574:1 1575:146 1610:24 1820:2 1833:4 1942:34 
1 1:7 2:7 10:11 21:7 34:12 53:11 54:11 70:1 74:11 88:11 111:1 227:11 650:11 742:11 856:1 1946:22 
1 1:24 2:23 3:21 4:10 5:8 6:11 19:2 20:2 23:2 24:1 25:1 29:1 31:1 32:4 35:1 39:2 41:22 51:2 52:2 60:2 70:1 80:1 82:2 95:2 134:2 148:11 159:11 373:2 376:1 470:2 479:1 603:1 798:1 1757:1 
1 1:6 2:5 3:1 6:5 7:7 8:3 9:5 10:8 11:2 13:1 18:1 21:2 22:3 23:3 26:1 28:4 40:1 43:2 48:1 49:3 61:3 65:3 73:1 92:2 108:1 111:1 121:1 131:1 134:1 153:1 165:3 185:1 186:1 221:1 256:1 344:1 368:1 455:2 485:1 605:1 623:1 641:2 690:1 1022:1 1095:2 1330:1 1555:1 1640:1 1994:1 
0.6291514258165642 1:306 2:302 3:226 4:186 5:226 6:135 7:4 8:39 9:5 10:2 11:126 13:9 15:3 19:32 21:9 22:1 25:2 26:20 27:4 29:3 34:3 37:20 38:20 39:32 41:10 51:1 52:1 53:4 54:4 55:2 59:1 66:1 67:1 74:4 75:1 82:43 83:6 88:3 94:2 95:25 97:1 101:1 111:1 113:1 121:1 126:32 130:1 148:84 150:1 155:1 159:84 171:1 193:1 206:2 219:4 232:1 234:4 253:1 268:1 325:5 333:8 357:4 374:1 398:1 399:2 454:1 460:1 463:28 476:2 490:1 510:1 532:1 576:1 594:1 641:1 796:1 864:1 891:1 1019:8 1067:1 1077:1 1137:1 1143:1 1158:2 1251:1 1259:1 1292:1 1299:3 1369:2 1386:1 1415:1 1422:1 1518:2 1820:1 1826:1 
0.7756993592142567 1:420 2:419 3:608 4:392 5:591 6:270 7:220 8:226 9:1 10:9 11:74 12:3 13:3 14:1 15:2 16:1 17:6 18:3 19:115 20:115 21:1 22:3 23:2 24:8 25:8 26:111 28:7 29:1 34:4 36:10 37:109 38:5 39:110 41:2 42:2 43:3 45:2 46:2 47:2 50:1 51:2 53:1 54:1 55:2 57:1 58:1 59:1 61:1 63:1 65:1 66:1 71:1 72:1 75:2 80:1 87:5 99:1 107:2 115:1 116:5 119:1 121:1 130:1 131:1 142:1 148:32 159:37 160:1 171:2 172:1 173:107 230:1 231:1 281:1 298:5 306:1 324:1 328:1 335:2 358:1 395:1 404:1 426:1 434:1 437:1 454:1 477:1 487:1 516:1 535:1 537:1 572:213 597:1 602:1 636:1 641:1 710:1 851:1 879:1 905:1 971:1 1017:2 1062:1 1097:1 1248:2 1312:1 1323:2 1336:1 1389:1 1533:1 1673:1 1685:104 1715:1 1893:1 1976:1 
1 4:1 5:1 7:1 8:2 10:1 12:1 13:3 23:1 48:1 58:1 70:1 72:1 79:1 106:1 113:1 119:1 131:1 213:1 241:1 443:1 645:1 823:1 
1 7:3 12:2 13:2 18:1 22:2 23:1 30:2 32:1 46:1 68:4 70:1 78:3 99:1 118:1 152:1 183:1 247:2 269:1 415:1 425:1 619:1 641:1 962:1 1563:1 1754:1 
1 7:2 8:3 9:1 12:3 13:1 15:1 22:2 31:2 32:1 34:1 40:1 43:1 45:1 52:1 57:1 65:2 85:1 117:1 141:1 144:1 153:1 171:1 184:1 190:1 388:1 465:1 557:1 563:1 677:1 905:1 983:1 1017:1 1046:1 1580:1 1674:1 1914:2 
1 7:3 9:5 10:2 13:3 34:1 42:1 55:1 57:1 58:1 59:1 72:1 83:1 242:1 396:1 445:1 1260:1 1666:1 1828:1 
1 7:2 8:1 9:1 10:1 13:1 15:1 23:1 30:1 44:2 47:1 48:2 53:1 54:1 57:1 58:1 70:1 91:1 93:1 111:1 136:1 144:1 151:1 184:1 186:1 221:1 289:1 434:3 437:1 466:1 
1 1:4 2:4 7:4 13:1 14:1 21:4 23:2 34:2 53:1 54:1 62:1 74:2 85:2 140:1 149:1 153:1 165:1 306:1 369:1 699:1 957:1 983:1 1217:1 1259:1 1412:1 1660:1 
0.743818868335849 1:117 2:117 3:102 4:79 5:93 6:67 7:19 8:40 9:9 10:2 11:70 12:1 13:8 14:6 15:1 16:6 17:5 18:1 19:11 20:11 21:1 22:2 23:1 24:8 25:8 26:19 28:2 29:4 31:1 33:2 34:3 37:5 38:5 39:6 41:2 42:1 44:2 46:1 47:2 48:5 49:2 50:1 52:1 57:2 59:6 65:4 66:1 69:1 71:1 72:1 75:1 77:1 88:2 100:1 102:1 116:15 122:1 132:1 142:1 148:18 157:1 159:33 161:2 172:1 173:14 192:1 194:1 206:1 213:1 221:2 229:1 239:1 256:1 328:1 339:1 356:1 369:1 371:1 386:1 430:1 431:1 447:1 482:1 485:1 538:1 572:17 632:1 779:1 1050:2 1078:1 1493:1 1520:1 1651:1 1803:1 
