svm_type c_svc
kernel_type rbf
gamma 0.0005
nr_class 2
total_sv 502
rho 0.462677
label 1 -1
probA -2.92651
probB 1.86591
nr_sv 250 252
SV
0.2152441009900104 10:2 15:1 22:1 23:3 28:1 40:2 56:1 59:2 70:1 73:1 78:8 89:1 108:1 120:1 133:1 143:1 157:1 161:1 167:1 183:1 256:1 415:1 623:1 1121:1 1457:1 1952:1 
1 1:36 2:36 6:31 7:2 9:25 11:6 21:24 53:25 54:24 81:6 158:2 172:1 211:24 422:1 540:1 650:1 772:1 1299:1 1363:2 1834:1 1859:1 1880:1 
1 1:21 2:20 3:1 6:20 8:2 9:16 11:17 21:2 24:1 26:1 28:1 111:1 532:5 576:1 698:3 728:1 1057:1 1143:3 1189:4 1246:1 1310:1 1330:1 1606:3 
1 10:5 13:6 15:1 18:1 55:2 57:1 62:1 63:2 70:1 140:1 156:1 163:1 349:1 369:1 398:1 684:2 696:1 1301:4 
0.6468626023953075 7:6 10:1 12:7 13:2 15:1 23:1 28:1 31:1 45:2 47:1 51:4 56:1 72:1 73:1 91:2 105:1 130:1 131:1 150:1 171:1 270:1 336:1 454:1 495:1 508:1 1234:1 1521:1 1567:1 
1 1:4 2:4 6:3 8:1 9:2 12:1 13:2 18:2 21:2 22:2 23:2 30:1 40:1 41:2 55:1 57:1 59:1 64:1 68:2 89:2 112:1 129:1 135:1 191:1 224:1 286:1 345:1 617:1 618:1 854:1 1192:1 1301:1 1952:1 
1 1:6 2:5 3:1 5:1 7:8 11:3 19:1 21:2 39:1 74:1 75:1 124:3 294:1 488:1 576:1 985:1 1057:1 1143:1 1158:3 1299:1 1711:3 
1 7:2 8:1 10:1 17:1 22:1 47:1 65:1 79:1 86:1 134:1 185:1 343:1 356:2 1188:1 1650:1 
0.6484123871201746 1:6 2:6 7:12 8:1 11:6 17:1 74:5 206:1 276:1 484:1 576:1 698:1 905:1 1057:1 1176:1 1248:1 1389:1 1711:5 
1 1:6 2:6 7:12 8:1 11:6 17:1 74:5 206:1 276:1 484:1 576:1 698:1 905:1 1057:1 1176:1 1248:1 1389:1 1711:5 
1 7:1 8:1 9:2 13:3 15:1 18:1 22:1 28:1 30:2 34:1 40:1 51:3 56:1 70:1 79:1 80:1 84:1 86:1 89:1 97:1 102:1 103:1 111:1 129:1 135:1 146:1 150:1 157:1 227:2 315:1 367:1 435:1 967:1 1042:1 1970:1 
0.4172223219523359 1:10 2:10 7:12 8:1 17:1 21:10 74:5 206:1 276:1 484:1 576:1 698:1 905:1 1057:1 1176:1 1248:1 1389:1 1711:5 
0.5453464953876416 1:21 2:21 7:8 15:1 21:21 34:8 73:1 74:8 162:1 181:1 294:8 339:2 532:2 576:1 909:3 965:1 1116:1 1254:1 1330:2 1711:8 1863:1 
1 7:1 9:2 12:3 15:2 23:3 28:1 32:1 43:1 56:1 61:2 89:1 131:1 162:1 189:1 265:1 314:1 340:1 364:2 493:1 1372:1 
1 1:2 2:2 7:2 15:1 18:1 21:2 34:1 66:1 74:1 79:1 83:1 113:1 127:1 136:1 149:1 151:1 303:1 360:1 490:1 521:1 1176:1 
1 8:1 12:1 13:2 15:3 31:2 34:1 40:2 42:1 44:1 48:2 50:1 51:1 57:2 70:1 72:1 89:1 98:1 105:1 169:1 208:1 220:1 277:1 345:1 348:1 405:1 415:1 547:1 585:1 588:1 605:1 696:1 782:2 967:1 1179:1 1281:1 1288:1 1475:1 
1 7:1 8:1 9:2 10:1 12:3 13:1 15:1 23:1 30:1 31:1 32:1 50:1 55:1 70:1 73:1 84:1 97:1 119:1 123:1 153:2 158:1 176:1 191:1 226:1 250:1 256:1 310:1 535:1 967:1 1121:1 1157:1 1219:1 1475:1 1482:1 
1 7:3 10:1 12:6 13:2 15:1 23:2 28:2 31:2 34:1 63:1 117:1 129:1 139:2 162:1 171:1 273:1 474:1 535:1 586:1 967:1 1104:2 1475:1 1558:1 
1 7:6 8:1 9:1 12:4 23:1 32:2 40:1 42:3 45:1 50:1 64:1 70:1 92:2 106:1 108:1 115:1 119:1 127:1 130:1 137:1 153:1 180:1 184:1 202:1 241:1 256:1 311:3 348:1 363:1 364:1 369:1 432:1 607:1 1121:1 
1 7:1 9:1 10:1 13:2 15:1 18:1 40:3 45:1 55:3 70:1 73:2 77:1 78:1 89:1 129:1 156:2 195:2 237:1 261:1 541:2 939:1 1238:1 
1 7:1 8:1 13:1 15:1 74:3 391:1 399:2 563:1 891:1 892:1 905:2 917:1 1341:1 1369:1 
1 7:1 8:2 9:1 10:2 12:1 15:2 18:1 23:1 28:2 30:2 31:1 34:2 40:1 47:1 49:1 52:1 70:1 78:1 80:1 120:1 139:1 143:1 149:1 150:1 155:1 170:1 316:1 324:1 345:1 352:1 359:1 457:1 532:1 585:1 912:1 979:1 1167:1 1431:1 1623:1 
1 7:2 10:1 13:1 15:1 22:1 23:2 42:1 53:1 54:1 124:1 235:1 495:1 508:1 600:1 641:1 732:1 794:1 1721:1 
1 7:8 10:2 12:3 13:1 15:1 23:1 40:1 44:1 88:1 94:1 106:1 119:1 124:1 157:1 179:1 336:1 384:1 476:1 518:2 533:1 1281:1 1355:1 1520:1 1912:1 
1 7:1 8:2 9:2 12:2 13:3 15:2 22:1 50:2 55:4 60:3 62:1 70:2 130:1 136:1 160:1 161:1 167:1 169:1 203:1 220:1 313:1 331:1 379:1 696:1 806:1 939:2 1716:1 
0.8199518668852698 1:47 2:47 7:5 8:1 9:5 10:4 12:3 13:4 15:1 18:1 21:47 22:1 32:1 34:1 40:1 45:1 47:2 50:1 55:1 74:6 75:1 93:1 103:1 106:1 113:1 117:1 124:21 130:2 145:1 151:4 166:1 195:1 200:1 232:9 236:1 374:1 460:1 594:13 602:1 633:1 653:1 892:1 932:1 965:1 1025:1 1080:1 1310:3 1431:1 1449:1 
1 7:1 8:1 9:2 10:3 13:2 18:1 22:1 48:1 50:1 53:1 54:1 69:1 70:1 71:1 79:1 108:1 153:1 197:1 248:1 274:1 1069:1 1114:1 1341:1 
1 7:3 8:2 10:1 13:1 22:1 30:1 163:1 262:1 600:1 1062:1 1198:1 1520:3 1719:1 
1 9:1 10:2 13:2 18:1 28:1 31:1 42:1 45:1 51:1 56:1 66:1 67:1 70:1 121:1 171:1 208:1 313:1 346:1 518:1 533:1 623:1 700:1 713:1 908:1 1524:1 
1 7:4 8:1 13:2 15:3 22:1 23:1 28:2 42:1 43:1 45:1 49:2 52:1 55:1 67:2 68:2 70:3 78:3 105:1 108:2 161:2 213:1 238:1 280:1 356:1 379:2 474:1 554:1 1409:1 1475:1 1579:1 1892:1 
1 1:6 2:6 6:1 7:8 10:2 11:2 21:2 34:2 74:3 234:2 294:1 363:1 399:1 698:1 1083:1 1143:1 1512:2 1666:2 1711:3 1736:3 1863:1 
0.250534908149812 7:2 9:2 10:1 13:2 15:2 22:2 45:2 52:1 55:2 57:1 58:1 64:1 70:1 84:3 112:1 115:2 120:1 130:1 131:1 167:1 261:1 313:1 404:1 416:1 492:1 806:2 919:1 967:1 1372:2 1437:1 1579:1 
0.007216308390508377 7:1 10:1 13:2 43:1 45:1 70:2 361:1 475:1 
1 7:2 9:1 10:1 13:2 15:1 22:1 28:1 30:1 31:1 32:1 56:1 59:1 63:1 64:1 78:1 112:1 200:1 254:1 340:1 607:1 867:1 925:1 1469:1 
1 7:2 8:2 9:1 12:2 13:1 23:2 77:1 290:1 455:1 586:1 773:1 1072:1 1239:1 1471:1 
1 7:2 10:1 13:1 15:1 18:1 22:1 34:1 60:1 69:1 75:2 79:1 133:1 241:2 1623:1 
1 4:1 5:1 7:1 9:4 10:2 13:1 15:1 29:1 42:1 43:1 52:1 60:2 70:1 98:2 102:1 112:2 131:1 135:1 163:1 171:1 257:1 313:2 375:1 423:1 592:1 749:1 858:1 1152:1 1623:1 1819:1 
1 1:6 2:6 6:1 7:8 10:2 11:2 21:2 34:2 74:3 234:2 294:1 363:1 399:1 698:1 1083:1 1143:1 1512:2 1666:2 1711:3 1736:3 1863:1 
1 4:2 5:2 7:2 10:2 13:3 15:1 22:1 34:1 40:1 45:1 55:3 57:1 59:1 64:1 69:2 70:1 79:2 84:2 106:2 120:1 153:1 253:1 324:1 417:1 505:1 510:1 557:1 907:1 914:1 
1 7:2 8:1 9:1 10:2 12:2 13:1 15:2 18:2 23:4 43:2 45:1 47:1 58:2 70:1 118:1 147:1 225:1 1041:1 1301:1 1700:1 
1 7:2 10:2 44:9 70:1 94:7 174:1 201:1 207:1 252:1 291:1 314:1 1281:10 1698:1 
1 7:3 8:1 9:1 10:2 12:1 15:3 23:2 30:1 40:1 42:1 45:1 47:1 48:1 52:1 55:1 64:1 72:2 108:1 115:1 133:1 149:1 158:1 165:1 166:1 170:1 240:1 269:1 335:1 377:1 407:1 580:1 864:1 1115:1 1558:1 1841:1 
1 4:1 5:1 7:1 8:2 9:1 12:3 18:1 22:1 29:1 31:2 42:1 52:1 64:1 68:1 70:1 112:1 123:1 208:2 223:1 239:1 247:1 338:1 600:1 937:1 1354:1 
1 4:1 5:1 7:3 8:1 9:1 15:2 18:2 23:1 31:2 42:1 45:1 58:2 70:5 77:1 78:1 131:1 238:1 267:1 320:1 364:1 843:1 1437:1 
1 7:2 10:2 13:1 22:1 40:1 47:1 69:1 197:1 198:1 
0.2003417014307481 7:2 10:1 12:1 18:1 28:2 31:2 45:1 49:2 57:1 58:1 60:1 67:1 72:1 85:1 106:1 108:3 178:1 218:1 220:1 276:1 341:1 399:1 437:1 448:1 551:1 1121:1 1893:1 
1 13:4 15:2 28:1 30:1 44:2 50:1 56:1 70:2 72:1 75:5 89:4 105:1 119:3 120:1 147:1 204:1 366:1 536:1 566:1 1478:1 
1 1:10 2:10 7:3 9:10 10:2 11:1 21:10 28:4 49:4 72:1 74:3 75:1 90:1 124:3 192:1 195:1 211:2 239:4 460:4 490:3 554:1 563:4 891:1 908:1 909:1 985:1 1056:1 1172:1 1318:1 1627:4 1711:3 
1 7:1 9:1 10:2 12:5 13:1 15:2 22:1 23:2 28:1 32:2 42:3 43:1 45:1 54:1 57:1 70:1 79:1 89:1 97:1 101:1 131:1 133:1 139:1 158:1 161:1 178:1 184:1 186:1 244:1 263:1 364:1 514:2 600:3 663:1 1052:1 1788:1 
1 1:3 2:3 6:1 7:3 8:1 9:1 11:2 13:2 21:1 22:1 28:1 49:1 58:1 119:1 163:1 213:1 217:1 266:1 289:1 348:1 600:2 666:1 674:1 828:1 1142:1 1349:1 
1 7:3 8:2 9:2 12:4 13:2 15:2 18:1 23:2 28:1 34:2 43:1 56:1 63:1 67:1 70:1 102:1 121:1 165:1 174:1 231:2 236:1 284:1 309:1 340:1 349:1 479:1 722:1 901:1 1301:1 1366:5 
1 7:11 8:1 9:1 10:1 12:1 15:2 16:1 18:1 22:1 23:2 28:2 34:1 49:1 62:2 68:1 70:1 77:1 80:2 89:1 90:1 91:1 106:1 120:1 183:1 195:1 272:1 337:1 1090:1 1547:1 
1 7:1 9:4 13:1 15:2 18:2 22:1 23:2 60:1 64:1 68:3 70:1 121:1 137:1 165:1 193:1 242:1 391:1 653:2 946:1 1230:1 1307:1 
1 1:7 2:6 3:2 5:2 6:6 7:2 8:3 9:1 10:1 11:1 13:2 18:1 21:4 26:2 28:3 29:1 30:1 31:1 43:1 49:2 59:1 68:1 72:1 84:1 102:1 111:1 120:1 183:1 211:2 240:1 313:1 653:1 1364:1 1921:1 
1 7:2 8:1 9:2 12:5 13:2 15:1 22:1 23:2 28:1 31:1 48:3 56:1 70:1 101:1 195:1 239:1 265:1 269:2 336:1 340:1 615:1 653:1 1301:1 
1 7:1 8:2 9:3 10:1 12:2 13:1 23:1 47:1 53:1 54:1 70:1 72:1 153:1 265:1 291:1 402:1 442:1 475:1 
1 7:1 8:2 9:3 10:1 12:2 13:1 23:1 47:1 53:1 54:1 70:1 72:1 153:1 265:1 291:1 402:1 442:1 475:1 
1 7:1 10:5 12:1 13:1 15:1 30:1 32:1 40:2 45:2 52:1 58:1 60:1 70:5 73:1 93:1 97:1 108:1 120:1 130:1 166:1 198:1 223:1 345:1 1121:1 1623:1 
1 7:1 8:2 9:3 10:1 12:2 13:1 23:1 47:1 53:1 54:1 70:1 72:1 153:1 265:1 291:1 402:1 442:1 475:1 
1 7:1 8:2 9:3 10:1 12:2 13:1 23:1 47:1 53:1 54:1 70:1 72:1 153:1 265:1 291:1 402:1 442:1 475:1 
1 5:2 7:4 9:2 10:6 13:1 15:3 28:2 31:1 34:1 49:2 67:1 77:1 80:1 90:1 119:1 179:1 189:1 308:1 313:1 428:1 465:1 604:2 1276:1 1757:1 
1 1:11 2:11 6:1 7:2 12:1 18:1 21:11 50:1 71:1 74:8 75:1 83:1 90:1 94:1 116:1 153:1 237:1 564:1 699:1 763:1 891:1 892:2 1057:1 1143:1 1554:3 1863:1 
1 7:1 9:4 10:1 13:3 15:2 23:1 45:1 47:1 63:1 68:1 70:1 71:1 111:1 124:1 130:1 202:1 482:1 487:1 631:1 1031:1 1072:1 1243:1 
1 7:1 10:2 12:2 13:2 15:1 18:2 23:1 32:1 42:1 44:1 45:1 58:1 60:1 67:2 68:1 70:1 71:1 72:1 97:1 156:1 158:1 164:1 174:1 220:1 281:1 324:1 386:1 392:1 474:1 600:1 735:1 1627:1 
1 8:1 9:1 23:2 30:1 32:3 40:1 45:1 50:1 52:1 55:2 57:2 59:1 66:1 70:2 73:2 78:2 101:1 106:2 130:1 192:1 202:1 220:1 510:1 535:1 786:1 870:1 1098:1 1121:1 1547:1 1872:1 1971:1 
1 7:3 9:4 10:3 12:1 13:1 18:1 22:1 23:3 28:1 30:1 31:2 44:1 63:1 70:1 80:1 106:1 134:1 139:1 158:2 237:1 256:1 292:1 345:1 522:1 1028:1 1341:1 1437:1 1994:1 
1 7:2 10:3 12:1 13:3 15:1 18:1 22:1 23:1 32:1 40:1 45:2 51:3 67:1 69:1 70:1 77:2 107:1 119:1 120:1 123:1 127:1 131:1 149:1 207:1 237:1 238:1 309:2 319:1 331:1 352:1 618:1 1928:1 
1 7:1 8:1 10:4 13:1 18:1 23:1 28:1 48:1 49:1 55:2 57:1 60:1 64:1 66:1 67:1 69:1 70:2 72:1 73:1 113:1 119:1 364:1 454:1 554:1 841:1 1121:1 1183:1 1269:1 1289:1 1894:1 
0.2098269134744663 7:3 9:1 12:2 15:1 16:2 23:1 32:1 43:1 52:1 63:1 70:1 71:1 74:3 86:1 106:1 116:1 127:1 163:1 181:1 192:1 206:1 315:1 322:1 339:1 345:1 518:1 521:1 650:2 660:1 724:1 
1 8:2 9:3 10:1 13:1 15:1 32:1 34:3 43:1 44:1 45:5 58:1 60:1 62:3 66:1 70:1 72:1 75:1 79:1 97:1 121:1 195:1 208:1 347:1 375:1 452:1 601:1 1301:1 
1 7:1 9:1 10:3 12:4 13:2 18:3 28:1 31:1 32:1 45:2 49:1 50:1 60:2 66:1 67:1 70:1 72:1 97:1 123:1 167:1 220:1 223:1 258:1 286:1 308:1 313:1 327:1 341:1 416:1 480:1 732:1 1144:1 1475:1 
0.5719599503896755 7:1 13:1 22:2 50:1 57:1 58:1 111:1 189:1 197:1 433:1 601:1 770:1 1810:1 
1 1:6 2:5 3:1 5:1 6:3 7:1 8:4 9:1 11:4 13:2 26:1 43:1 47:1 53:1 54:1 73:1 77:1 111:1 160:1 165:1 407:1 490:1 1018:1 1312:1 1648:1 1810:1 
1 1:6 2:6 12:1 21:6 34:1 45:1 60:1 74:2 103:1 124:1 129:1 276:1 294:2 313:1 391:1 490:1 909:1 1136:1 1554:2 
1 7:2 8:2 13:2 15:2 23:1 34:1 43:2 48:1 51:3 62:2 64:1 68:1 72:1 77:1 78:1 85:1 91:1 99:1 112:1 117:2 131:1 186:1 310:1 313:1 336:1 474:1 673:1 867:1 942:1 1558:1 1702:1 
1 9:1 10:1 13:1 15:3 31:1 32:3 42:1 45:1 48:1 51:1 55:3 62:1 70:1 73:1 75:1 76:1 77:1 91:1 98:1 105:1 143:2 150:1 176:1 178:1 215:1 220:1 240:1 280:1 348:1 375:1 420:1 454:2 627:1 735:1 913:1 
1 7:3 10:3 12:4 22:1 23:1 30:1 40:1 48:1 51:1 60:1 70:2 73:1 86:2 108:1 111:1 141:1 144:1 149:1 176:1 178:1 201:1 208:1 226:1 320:1 345:1 348:1 580:1 639:1 664:1 1337:1 1463:1 1719:1 
1 8:1 9:1 10:1 12:2 13:1 22:1 28:1 53:1 56:1 58:1 59:1 67:1 70:2 76:1 98:1 102:1 106:1 115:1 174:1 188:1 366:1 849:1 
1 7:3 8:1 9:1 10:2 15:1 23:4 30:1 52:1 57:1 60:2 70:1 73:1 84:1 89:1 115:1 155:2 162:1 189:1 345:1 497:1 800:1 950:1 1134:1 
1 7:1 8:2 13:3 30:1 42:1 47:2 116:1 368:1 407:1 864:1 1114:1 1354:1 
1 8:1 12:9 15:1 23:1 29:8 51:3 70:2 71:1 98:1 99:1 106:1 134:1 176:1 181:1 220:1 244:1 262:1 333:1 343:1 674:1 964:1 995:1 1301:1 
1 4:1 5:1 7:3 9:1 10:1 12:1 13:1 15:1 22:1 23:1 30:2 31:4 40:1 50:2 51:2 57:1 62:1 69:1 75:1 79:1 86:2 99:1 108:1 117:2 152:1 153:1 184:1 231:1 309:2 320:1 345:1 364:1 555:1 627:1 782:1 862:1 955:1 967:1 1089:1 
1 6:1 7:5 10:1 12:6 13:1 14:1 15:1 22:1 23:3 28:2 32:1 51:1 56:1 60:1 69:1 70:1 139:1 171:1 176:1 188:1 207:1 272:2 319:1 379:1 722:1 825:1 967:1 1104:1 1370:1 1623:1 1700:1 
1 7:1 9:1 12:1 13:3 15:2 23:1 28:2 31:1 34:1 42:1 43:1 45:3 49:2 61:1 62:1 63:1 64:3 70:1 72:1 73:1 92:1 99:1 105:1 115:1 117:1 129:1 161:1 192:1 346:1 404:1 456:1 492:1 854:1 1016:1 1418:1 
1 7:3 10:2 12:1 13:2 28:2 30:1 31:1 42:2 43:1 45:3 48:2 55:3 56:2 66:1 68:1 70:1 73:1 78:3 129:1 156:1 161:1 204:1 254:1 336:1 454:2 571:1 668:1 773:1 1218:1 1245:1 1467:1 
1 7:2 9:2 15:3 16:1 30:1 31:2 40:1 55:3 57:1 60:1 70:1 85:1 91:1 124:1 127:1 187:3 201:1 206:1 245:1 256:1 310:1 348:1 465:1 497:1 708:1 1292:1 1749:1 1894:1 
0.7389191676718317 7:2 15:2 22:2 43:1 67:1 92:1 127:1 135:1 137:1 1303:1 
0.4136724562992397 7:1 8:1 9:5 13:1 15:1 22:1 23:1 30:1 32:2 45:2 55:6 60:1 64:3 70:1 72:1 86:2 98:1 101:1 105:2 106:1 121:1 174:1 215:4 247:1 562:1 806:2 1234:1 1516:1 1775:1 
1 4:2 5:3 7:2 9:6 10:1 12:3 13:1 35:1 48:1 51:1 66:1 69:1 70:2 79:1 84:2 129:1 137:1 153:2 176:2 195:1 203:1 217:1 224:2 547:1 943:1 1121:1 1820:1 
1 7:1 8:1 9:1 12:4 13:2 23:2 28:3 30:1 47:1 49:1 56:1 68:1 70:2 78:2 84:1 97:1 106:1 108:1 188:1 202:1 217:1 223:2 224:1 228:1 247:1 262:1 308:1 345:2 686:1 850:1 964:1 1471:1 
1 7:1 10:1 13:1 18:1 22:1 66:1 149:1 171:1 199:1 311:1 377:1 384:1 1385:1 1521:1 
1 7:2 8:1 9:2 13:1 23:3 28:1 30:1 32:1 43:1 44:2 55:2 56:1 57:1 58:1 64:1 69:1 70:1 73:1 115:1 162:2 178:1 180:1 181:1 186:1 188:1 221:1 281:1 289:1 294:1 377:1 610:1 867:1 1137:1 1788:4 
1 8:2 9:4 10:2 12:1 13:1 15:1 22:1 23:1 31:1 34:1 43:1 45:1 48:1 51:2 57:1 59:1 63:1 70:1 72:1 155:1 230:1 362:1 1118:1 1140:1 
1 7:1 9:1 18:1 42:1 47:2 69:1 781:1 978:1 1312:1 1439:1 
1 7:4 9:3 12:4 13:1 23:2 30:1 32:1 34:1 43:1 45:1 48:1 59:1 78:2 100:1 131:1 158:1 174:1 176:2 178:1 183:2 229:1 312:2 320:1 442:1 514:1 680:1 1329:1 1885:1 
1 8:1 12:2 13:2 42:1 47:1 48:1 59:1 60:1 62:1 65:1 70:1 106:1 140:1 309:1 319:1 460:1 879:1 1664:1 
1 7:1 8:1 10:2 13:2 15:3 18:2 22:2 23:3 30:1 42:1 47:1 65:1 70:1 71:1 77:2 118:1 136:1 162:1 165:1 197:1 235:1 258:1 400:1 462:1 469:1 497:1 767:1 973:1 1357:1 1439:1 1922:1 
1 7:1 8:1 9:1 10:1 23:1 28:1 31:1 34:1 40:1 48:1 57:1 64:2 68:2 70:2 78:2 84:1 86:1 91:1 102:1 105:1 112:2 137:1 183:1 207:1 229:1 240:1 265:1 309:1 595:1 782:1 1372:1 1475:1 1712:1 
1 7:1 10:1 12:1 18:1 22:1 23:2 30:1 32:2 47:2 58:1 70:4 89:1 158:1 164:1 226:1 290:1 400:1 443:1 538:1 708:1 793:1 876:2 948:1 
1 7:5 9:3 10:1 12:1 13:3 30:1 42:3 60:1 72:1 97:3 178:1 186:1 292:1 323:1 364:1 368:1 369:2 410:2 751:1 1005:2 1383:1 1409:1 
1 7:1 9:1 10:1 15:1 28:1 30:1 49:1 70:1 135:1 316:1 984:1 1646:1 
1 7:3 8:1 9:3 13:1 14:2 15:1 22:1 28:1 30:1 31:1 40:1 49:1 62:2 63:1 64:2 72:1 89:1 99:1 293:1 335:1 639:1 752:1 
1 7:1 9:2 10:2 13:1 15:1 22:2 30:2 45:2 51:1 60:1 62:1 149:1 207:2 272:1 962:1 1272:1 
1 7:5 9:1 22:1 28:1 31:1 32:1 34:1 48:1 49:1 55:2 233:1 243:1 285:1 513:1 1136:1 
1 1:58 2:58 3:35 4:29 5:26 6:36 7:1 8:10 10:1 11:14 12:1 19:8 20:8 21:1 23:2 24:8 25:8 26:5 28:2 31:1 32:2 37:5 38:5 39:3 41:2 42:1 43:1 45:1 46:1 67:1 80:1 81:14 118:1 133:1 142:1 221:1 302:1 428:1 625:1 1876:1 
1 7:2 9:1 13:1 15:1 22:1 34:1 42:1 79:1 84:1 129:1 143:1 153:1 203:1 251:3 863:1 1090:1 1121:1 
1 7:1 8:1 9:1 10:3 12:3 13:1 15:1 18:1 22:2 30:1 40:1 42:1 43:1 70:1 74:1 86:1 133:1 149:1 167:1 171:1 251:1 308:1 310:1 315:1 359:1 398:1 568:1 1121:1 1365:1 
1 7:2 8:1 15:1 23:1 28:3 31:2 32:1 43:1 45:1 53:1 54:1 55:2 66:1 70:1 72:1 79:1 108:1 113:1 131:1 156:1 158:1 183:1 228:2 247:1 359:1 364:1 734:1 918:1 990:1 1475:1 1629:1 1708:1 1713:1 1894:1 
1 7:1 10:2 12:3 15:1 18:3 22:1 45:1 48:1 66:1 67:1 70:2 73:1 85:3 91:1 93:1 97:1 98:1 115:2 215:1 220:2 265:1 335:1 364:1 401:1 410:1 861:1 963:1 1121:1 1288:1 1623:1 1786:1 1788:1 
1 7:1 9:1 18:1 42:1 47:2 69:1 781:1 978:1 1312:1 1439:1 
1 7:4 8:2 9:1 13:3 15:2 23:2 31:1 42:1 64:1 73:1 89:1 92:2 137:1 165:1 169:1 185:1 255:1 310:1 376:1 398:1 441:1 776:1 1062:1 1874:1 1919:1 1921:1 
0.1324047419201367 7:2 9:1 10:1 12:2 13:1 18:1 28:1 30:1 45:1 56:1 115:1 164:1 188:1 195:1 242:1 263:1 310:1 386:1 600:1 737:1 934:1 1083:1 1276:1 1720:1 
1 7:1 9:2 12:4 13:1 23:1 28:1 30:1 31:1 43:1 48:1 56:1 68:1 70:1 72:2 78:1 97:1 99:1 106:1 108:1 117:1 120:1 123:1 247:1 441:1 450:1 1001:1 1067:1 1329:1 1332:1 1366:1 
1 4:2 5:2 7:1 10:3 22:1 34:1 47:1 73:1 120:1 185:1 1288:1 1672:1 
1 4:1 5:1 7:3 8:1 10:3 12:3 15:1 16:1 22:2 42:1 43:1 45:1 47:1 48:1 67:1 70:1 106:1 112:1 123:1 130:1 137:1 158:1 166:1 174:1 179:1 220:1 292:1 320:1 334:1 549:1 600:2 824:1 1521:1 1735:1 1852:1 
1 10:1 12:4 13:5 15:1 23:2 28:3 34:1 42:1 43:1 49:1 51:5 63:1 70:1 71:1 77:1 80:1 89:1 143:2 155:2 208:2 223:1 228:2 251:2 273:1 331:1 600:1 628:1 
1 1:23 2:23 7:5 13:3 21:23 22:1 29:38 34:2 47:1 74:19 75:1 83:1 85:9 124:20 206:3 213:1 232:9 276:1 360:1 363:19 460:1 484:1 490:2 621:1 728:2 753:1 879:1 892:1 909:1 1026:1 1067:1 1143:2 1246:1 1284:1 1357:1 1711:19 1736:19 1833:2 
1 1:65 2:52 3:13 5:13 6:13 7:3 11:13 12:2 13:2 15:1 19:13 21:13 39:13 45:1 50:1 51:1 63:1 71:1 72:2 74:13 75:1 81:26 83:26 111:1 203:1 215:1 263:1 276:2 277:2 306:1 335:1 339:7 488:1 576:1 583:1 594:1 905:1 909:2 1521:1 1585:1 
1 5:2 7:1 13:3 28:1 31:1 62:1 64:2 67:1 70:3 84:2 85:1 86:1 97:1 117:1 133:1 135:1 245:1 272:1 279:1 313:1 415:1 599:1 669:1 747:1 806:1 957:1 1623:3 1803:1 
1 7:3 8:2 9:4 12:2 13:1 23:3 28:1 31:3 42:1 43:1 56:1 70:1 80:1 106:2 133:1 141:1 149:1 220:1 242:1 340:1 435:1 862:1 1928:1 
1 7:4 8:2 10:1 12:1 13:2 22:1 28:3 34:1 44:2 49:1 56:1 60:1 63:1 64:1 66:1 70:1 73:1 91:1 103:1 115:1 137:1 139:1 147:1 188:1 352:2 513:1 1007:1 1121:1 1178:1 1748:1 1792:1 1858:1 
1 7:1 9:1 10:2 18:1 60:2 69:1 123:1 1853:1 1907:1 1974:1 
1 7:1 9:2 10:1 13:1 40:1 43:1 47:1 77:1 102:3 120:1 131:1 495:1 718:1 
1 7:3 9:2 10:1 12:2 13:2 15:1 18:1 23:1 28:1 30:1 32:1 34:1 47:1 48:1 50:1 51:1 56:1 66:2 70:1 80:1 107:1 127:1 129:1 130:1 158:1 178:1 180:1 181:1 188:1 192:1 1041:1 1312:1 1409:1 1870:1 
0.2343665836386388 7:3 12:4 13:1 15:1 23:1 28:1 40:1 49:1 57:3 62:1 69:2 70:1 80:1 86:1 91:1 97:1 103:1 115:1 157:1 161:2 195:1 207:2 224:2 290:1 308:2 334:1 348:1 423:1 616:1 1788:1 1928:1 
0.6487238149445097 7:1 8:1 9:1 23:1 28:1 31:1 43:1 49:1 64:1 108:1 120:1 165:1 
1 7:1 9:3 10:1 12:1 28:4 30:1 31:1 32:2 47:2 49:3 50:1 52:1 60:2 61:1 68:1 70:2 78:1 99:1 108:2 139:1 151:1 174:2 180:1 203:1 235:1 256:1 283:1 338:1 386:1 514:2 521:1 620:1 712:1 1072:1 1090:1 1558:1 
1 7:1 8:1 9:1 23:1 28:1 31:1 43:1 49:1 64:1 108:1 120:1 165:1 
0.1282715494691083 7:2 13:2 15:1 22:1 31:1 34:1 40:2 45:1 55:1 59:2 60:1 70:1 84:1 85:1 93:1 113:1 115:2 117:1 124:1 129:1 134:1 156:1 195:1 200:1 264:1 289:1 290:1 435:1 712:1 776:1 806:1 838:1 863:1 
1 8:1 9:7 10:1 15:1 23:2 31:1 45:2 55:1 68:1 70:1 78:7 93:1 111:1 119:5 162:1 221:1 247:1 346:1 451:1 758:1 988:1 1076:1 
1 8:1 9:1 13:1 15:1 18:1 22:1 30:1 32:1 42:1 45:1 47:2 52:1 57:1 60:1 62:2 70:1 72:1 78:1 97:1 120:1 129:1 130:1 181:1 237:1 240:1 261:1 303:1 351:1 395:1 404:1 427:1 482:1 806:2 1643:1 
1 7:3 12:1 13:1 15:2 18:1 28:1 31:1 40:2 42:2 45:2 49:1 57:1 61:1 67:2 80:1 97:1 118:1 130:2 131:1 146:2 160:1 213:1 294:1 345:1 364:1 370:1 504:2 673:1 910:1 953:1 
1 8:1 9:1 10:1 12:3 14:1 30:1 34:1 43:1 59:1 60:1 68:3 70:1 103:1 106:1 120:1 134:1 143:1 155:1 157:1 240:1 242:1 598:1 905:1 1218:1 1350:1 
1 4:8 7:2 8:1 12:9 13:1 15:1 23:1 29:8 51:4 71:1 106:1 134:1 176:1 181:1 220:1 244:1 262:1 343:1 674:1 964:1 995:1 1301:1 
1 4:2 5:3 7:7 9:1 10:1 12:3 13:2 18:1 23:1 28:2 30:2 31:1 32:1 47:1 48:1 49:1 51:1 56:1 60:1 63:4 77:2 86:1 89:2 93:1 101:1 102:1 117:1 139:1 156:1 188:1 270:1 273:1 335:1 404:1 1104:1 1192:1 
1 7:2 9:1 13:2 22:1 23:1 28:1 29:1 32:1 40:1 44:1 49:1 58:1 66:1 67:1 70:1 78:2 108:1 115:1 141:1 171:1 198:1 230:1 263:1 876:1 1366:1 
1 1:8 2:8 3:2 4:1 5:2 6:4 7:1 8:1 11:5 12:1 18:1 21:2 26:1 37:1 38:1 53:1 54:1 75:1 83:3 93:1 271:1 1056:1 1131:1 
1 7:1 10:1 13:1 22:2 23:1 47:1 70:1 78:1 89:1 252:1 1022:1 1366:1 
1 7:3 8:1 10:1 22:1 23:1 32:1 34:1 42:2 45:1 50:1 51:1 60:2 66:1 70:1 77:1 80:1 85:1 155:1 158:1 164:1 185:1 187:1 221:1 245:1 285:1 315:1 418:2 442:1 445:1 454:1 558:1 867:1 987:1 1646:1 
1 7:1 10:1 13:1 22:2 23:1 47:1 70:1 78:1 89:1 252:1 1022:1 1366:1 
1 7:2 8:1 9:2 10:1 12:2 13:1 15:2 18:3 23:1 28:1 31:1 32:1 40:1 45:2 48:2 49:1 50:1 63:2 66:1 67:1 70:1 72:1 77:1 86:1 93:1 97:1 152:1 388:1 437:1 454:1 527:1 600:1 1090:1 1413:1 1562:1 1693:1 
1 7:4 8:1 10:1 12:4 13:2 15:2 23:1 31:2 34:1 48:1 50:2 58:1 67:2 70:1 80:1 118:1 156:1 166:1 208:1 226:1 242:1 288:1 398:1 631:1 896:1 1062:1 1390:1 1883:1 
1 4:1 5:1 7:3 8:1 10:3 12:3 15:1 16:1 22:2 42:1 43:1 45:1 47:1 48:1 67:1 70:1 106:1 112:1 123:1 130:1 137:1 158:1 166:1 174:1 179:1 220:1 292:1 320:1 334:1 549:1 600:2 824:1 1521:1 1735:1 1852:1 
1 7:1 10:2 12:6 18:1 23:2 30:1 32:1 34:1 40:1 60:1 66:1 70:1 85:1 86:1 123:1 167:1 207:1 220:1 275:1 345:1 436:1 456:1 670:1 1053:1 1463:1 1928:1 1944:1 
1 8:3 10:3 15:1 18:2 22:2 32:2 55:1 106:2 210:1 832:1 875:1 
1 7:2 9:4 13:3 22:1 23:1 30:2 32:2 50:1 55:7 66:1 70:1 72:1 73:1 103:1 130:2 153:1 178:1 245:1 261:2 305:1 314:1 418:1 480:2 535:1 907:1 939:2 1089:1 1566:1 
1 1:1 2:1 7:1 13:1 15:1 21:1 28:1 31:1 32:1 34:2 45:1 56:1 77:2 375:1 451:1 1188:1 
1 7:4 8:1 12:3 13:3 28:3 30:1 31:1 47:1 56:2 58:2 63:1 71:2 98:1 106:1 130:1 155:2 178:1 179:1 180:1 188:2 276:1 340:1 345:1 442:3 642:1 675:1 833:1 1090:1 1121:1 1409:1 
1 4:2 5:2 9:3 10:2 12:1 13:2 15:3 28:2 32:2 40:2 49:2 63:1 70:4 86:1 88:1 106:2 116:1 141:1 156:1 161:1 195:1 261:1 348:1 379:1 838:1 1646:1 
1 7:1 8:1 9:1 23:1 28:1 31:1 43:1 49:1 64:1 108:1 120:1 165:1 
1 4:1 5:1 7:5 8:1 9:2 10:2 12:3 15:1 18:1 23:1 28:1 32:1 42:1 52:1 56:1 58:1 63:1 89:1 97:1 106:1 149:1 158:1 178:1 186:1 188:1 210:1 223:1 227:1 299:1 310:1 876:1 948:1 1381:1 1893:1 1921:1 1995:1 
1 7:3 10:1 13:2 15:3 30:1 31:3 44:1 45:1 47:1 50:2 55:2 57:1 58:1 60:1 62:1 66:1 72:1 88:1 94:1 98:1 108:1 121:1 130:1 135:1 149:1 161:1 192:1 201:1 203:1 221:1 320:1 345:1 
1 7:2 8:1 10:3 13:1 18:1 23:1 30:1 31:1 34:1 44:4 48:1 50:1 52:2 55:1 57:2 60:2 63:1 67:1 70:1 102:1 106:1 123:1 127:1 149:1 185:1 197:1 207:1 264:1 345:1 370:1 663:1 1090:1 1219:2 
1 7:2 9:4 12:4 15:2 28:2 30:1 31:2 32:1 40:1 42:1 49:1 51:3 55:1 56:1 57:1 63:1 103:3 129:1 143:1 201:1 215:2 240:1 253:1 311:1 320:1 331:1 432:1 1778:1 1895:1 1921:1 
1 7:1 9:1 10:4 12:2 13:1 15:2 18:1 22:1 34:1 40:1 57:2 67:1 70:1 72:1 93:1 106:1 107:1 127:1 135:1 144:1 156:1 167:1 169:1 265:1 310:1 315:1 367:1 600:1 619:1 718:2 802:1 1585:1 1646:1 
1 1:46 2:46 9:38 21:46 74:38 85:1 124:24 145:1 151:4 232:8 276:1 339:3 399:1 490:1 576:1 594:1 728:2 875:2 946:1 968:3 1083:3 1143:1 1310:3 1449:1 1606:1 1711:38 1736:38 1833:2 1863:2 
0.1312688564231211 1:62 2:62 7:1 12:1 21:62 34:1 40:1 45:1 47:1 50:1 51:1 53:6 54:6 70:1 74:45 105:1 117:1 124:29 151:5 206:5 211:89 215:1 227:1 232:16 276:1 325:1 339:1 360:1 476:4 490:1 540:1 576:14 594:3 602:1 698:1 728:5 909:4 1026:45 1057:5 1067:1 1083:1 1136:1 1143:2 1284:45 1310:2 1554:43 1580:2 1666:1 1865:1 
1 7:1 9:3 13:1 30:5 40:3 47:1 55:1 57:1 58:3 70:1 97:1 156:1 191:1 394:1 806:2 907:1 967:2 1461:2 1623:2 1718:3 1788:2 
1 7:2 9:1 10:1 13:2 15:1 28:1 42:1 49:1 53:1 54:1 61:1 85:1 111:1 400:1 476:1 497:1 532:1 663:1 968:1 1116:1 1371:1 1606:1 1810:1 1833:1 
1 7:3 8:1 9:1 10:2 12:4 13:4 15:2 28:1 31:2 32:2 45:1 48:1 56:1 72:1 103:1 106:1 130:2 131:1 143:1 166:1 268:1 270:1 280:1 346:1 348:1 436:1 484:1 996:1 1121:1 1163:1 1423:1 1558:1 
1 7:2 8:3 9:2 10:2 13:2 22:1 47:2 68:2 119:1 176:1 183:1 186:1 213:1 343:1 454:1 550:1 606:1 648:1 1793:1 
0.7844480181229651 1:30 2:30 7:1 9:46 10:1 21:30 74:23 88:1 103:1 124:12 151:2 232:9 294:23 318:6 339:2 463:5 490:1 594:1 850:1 875:2 892:1 909:1 946:1 975:1 1001:1 1083:1 1143:2 1299:4 1310:1 1580:2 1711:23 1736:23 1833:1 1865:5 
1 7:1 9:2 10:1 13:1 22:1 28:1 49:1 63:2 64:3 86:3 92:1 195:1 207:1 260:1 702:1 785:1 967:3 1135:1 
1 5:4 7:5 9:3 13:5 22:1 43:1 45:8 51:1 64:4 143:4 163:2 270:2 358:1 513:2 939:1 1099:1 1642:2 1664:2 1921:1 
1 9:1 10:6 12:1 13:3 15:1 23:2 31:1 44:1 61:1 70:1 72:1 101:1 127:1 152:1 186:1 208:1 235:1 254:1 265:1 334:1 338:1 400:1 502:1 1435:1 1928:1 
1 7:1 8:1 9:3 15:2 32:3 40:2 45:1 47:1 68:1 70:1 71:2 106:2 115:1 120:2 134:1 189:1 200:2 201:1 256:1 345:1 514:1 724:2 1180:2 1558:1 1703:1 1928:1 
1 7:2 9:2 10:4 13:1 18:1 22:1 23:1 48:1 52:1 65:1 69:1 70:1 77:3 79:1 90:1 93:1 100:1 106:1 131:1 162:1 213:1 238:1 291:1 370:1 394:1 646:1 967:1 1313:1 1317:1 1439:1 
1 10:1 12:2 13:1 15:1 22:1 23:2 28:1 32:2 49:1 54:1 70:2 72:1 152:1 182:2 351:1 359:1 437:1 455:1 476:1 497:1 518:1 690:1 701:1 728:2 1111:1 1317:1 1719:1 
1 7:1 8:3 10:2 13:4 23:3 31:2 34:1 43:1 44:2 48:2 55:4 60:1 61:1 67:1 70:1 93:2 123:2 144:1 167:1 178:1 186:1 253:1 317:1 328:1 396:1 518:2 690:1 806:1 907:2 1301:1 
1 13:2 14:3 15:1 29:1 40:1 68:2 70:1 73:1 115:1 131:1 163:1 918:1 1243:1 
1 7:5 10:4 18:1 23:2 31:1 34:2 57:1 70:1 80:2 134:1 149:1 155:2 157:2 158:1 479:1 700:1 844:1 1977:1 
1 7:4 8:2 10:3 12:5 13:3 18:4 22:1 23:4 31:2 48:1 52:1 63:1 70:2 71:1 72:1 89:1 115:1 129:1 702:1 841:1 1062:1 1072:1 1649:1 
1 9:4 10:5 12:3 13:4 15:2 18:1 59:1 65:1 70:1 101:1 130:3 149:1 163:1 349:1 369:1 1188:1 1366:2 1581:1 
1 7:2 8:2 9:4 15:1 18:1 22:3 23:1 43:1 47:1 58:1 67:1 70:1 73:1 131:1 136:1 137:1 232:1 242:1 260:1 909:1 1163:1 1301:1 
1 1:66 2:66 7:2 8:1 10:2 12:1 18:1 21:66 32:1 34:1 45:1 50:1 51:2 53:7 54:7 55:1 58:1 67:1 70:3 74:48 75:1 79:1 84:1 89:1 117:1 121:1 124:35 135:1 151:3 174:1 181:1 189:1 206:2 211:96 227:1 232:17 243:1 276:1 319:1 339:1 360:1 476:4 510:1 540:1 576:14 594:3 598:1 698:1 699:1 728:5 735:1 737:1 892:1 909:7 965:1 1026:48 1057:5 1067:1 1143:2 1246:1 1284:48 1305:1 1310:5 1554:47 1580:1 1666:1 1723:1 1833:1 1865:2 1879:1 
1 7:2 8:2 9:1 13:1 22:1 23:2 47:1 60:1 176:1 201:1 239:1 269:1 505:1 640:1 864:1 1256:1 1301:1 1354:1 
1 7:2 8:1 10:2 13:1 15:1 16:1 44:4 48:1 52:1 55:2 58:1 69:1 105:1 113:1 117:1 123:1 174:1 191:1 192:1 215:1 248:2 284:1 355:1 388:1 567:1 773:1 783:1 838:1 1090:1 1192:1 1228:1 1255:1 1301:1 
1 7:1 9:1 10:2 13:1 15:1 22:1 34:1 40:1 42:1 62:1 69:1 70:1 121:1 127:1 136:1 152:1 457:1 875:1 982:1 1083:1 1221:1 1533:1 1595:1 
1 7:2 8:2 10:3 18:2 28:1 47:1 49:1 65:1 69:1 767:1 876:1 984:1 
1 1:2 2:1 3:1 5:1 6:1 7:8 8:2 12:6 13:1 15:4 23:4 31:1 32:1 40:1 41:2 45:1 48:1 50:1 60:2 61:5 62:1 67:1 71:1 76:1 80:3 111:1 117:1 130:2 144:1 150:1 167:1 170:1 189:1 224:1 230:1 241:1 259:1 283:2 306:1 363:1 366:1 398:1 404:1 423:1 698:1 735:1 868:2 888:1 967:2 1062:1 1446:1 1792:1 
1 7:3 8:1 12:1 13:2 22:1 30:1 32:1 40:1 45:3 50:1 57:2 58:1 60:1 67:1 70:1 72:1 84:1 100:1 112:1 120:2 137:2 158:1 169:1 443:1 502:1 729:1 
1 10:2 13:3 18:3 22:1 28:1 30:1 31:2 34:2 43:1 45:4 52:2 55:1 60:1 67:1 70:1 79:1 108:1 133:3 201:1 228:1 245:1 601:1 1072:1 1366:1 
0.1028278418482088 7:1 12:1 23:1 30:2 42:3 43:1 63:2 64:1 67:1 70:1 92:1 93:2 108:1 115:1 120:2 127:1 165:1 176:1 193:1 226:1 271:1 289:1 440:1 487:1 785:1 1691:2 
1 7:2 8:2 9:2 10:2 12:2 13:2 18:1 22:1 23:3 28:1 30:1 31:1 32:1 34:1 49:1 70:1 80:1 106:2 108:1 162:1 197:1 287:1 316:1 345:1 359:1 508:1 510:1 579:2 600:2 674:1 838:1 1032:1 
1 7:1 8:1 9:2 10:1 12:4 13:1 28:1 47:2 48:1 52:1 54:1 56:1 58:1 65:1 70:1 71:1 72:1 115:1 158:1 176:2 178:1 181:1 188:1 190:1 227:1 248:2 518:1 1111:1 1281:1 
1 7:4 9:2 10:2 12:4 15:1 18:1 23:1 28:1 31:1 48:1 51:2 56:1 59:1 63:2 80:1 91:1 97:1 98:2 106:1 293:1 319:1 323:1 340:1 345:1 369:1 430:1 466:1 699:1 710:1 838:1 976:2 1118:1 1121:1 1221:1 
1 7:4 8:2 9:1 12:5 13:1 23:3 28:1 31:1 43:1 48:1 52:1 56:1 61:1 63:1 65:1 67:1 70:1 80:1 100:1 105:1 141:1 157:1 162:1 186:1 336:1 435:3 450:1 702:1 841:1 1063:1 1134:1 1227:1 
0.9058051184216301 7:3 9:2 12:1 23:2 30:1 32:1 40:1 42:2 70:1 71:1 120:1 124:1 137:2 180:1 186:1 200:1 206:1 235:1 256:1 479:1 518:1 750:1 1024:1 1366:1 1439:1 1883:1 1897:2 1994:2 
1 8:1 10:1 12:4 13:1 15:1 23:2 30:1 32:2 42:2 51:1 57:1 59:1 62:1 70:1 72:1 91:1 99:2 101:1 115:1 119:1 210:1 263:1 272:1 320:1 335:2 435:1 454:1 508:1 1547:1 1734:1 1763:1 1927:1 
1 9:1 10:4 15:1 18:1 29:1 30:1 40:1 42:1 47:2 51:1 59:3 60:1 64:1 70:1 77:1 83:1 86:1 97:2 161:1 171:1 247:1 349:1 375:1 451:1 456:1 806:1 863:1 1558:2 1702:1 
1 7:4 8:1 13:4 15:1 28:1 30:1 31:2 34:1 50:2 51:3 55:2 56:1 57:2 70:1 72:2 76:1 86:1 89:2 108:1 139:1 167:1 233:2 261:1 273:1 290:1 554:1 647:1 967:1 1206:1 1409:1 1558:1 1788:1 
1 7:1 8:3 13:1 22:1 28:1 31:2 32:1 40:1 47:1 49:1 55:3 61:1 70:1 71:1 75:1 115:1 169:2 270:1 345:1 444:1 1904:1 
1 7:1 12:2 13:3 15:1 32:1 43:1 51:2 57:1 60:1 63:1 64:1 70:3 71:1 92:1 93:1 106:1 112:3 123:1 135:1 140:1 149:1 166:1 190:1 193:1 262:1 719:1 1413:1 
1 10:1 12:8 13:1 15:2 45:1 70:1 102:1 106:1 107:1 135:1 158:1 163:1 166:1 176:1 179:2 202:2 203:1 215:1 245:1 382:1 435:1 488:1 525:1 560:1 626:1 807:1 1122:1 1516:1 1520:1 
1 1:20 2:20 6:2 10:1 15:6 18:1 21:16 63:6 74:7 85:1 124:1 151:1 206:2 232:7 234:4 339:1 540:1 728:1 905:1 1026:7 1143:1 1176:1 1284:7 1363:1 1554:7 1736:1 1833:1 
1 7:2 8:1 9:2 10:3 18:1 22:1 28:1 34:1 43:1 44:1 48:2 60:1 70:1 88:2 108:1 111:1 229:1 249:1 258:1 267:1 427:1 442:1 457:1 613:1 660:1 838:3 1489:1 
0.557035796029404 1:9 2:9 21:9 22:3 74:3 85:1 124:2 232:2 905:1 1026:3 1083:1 1284:3 1305:1 1554:1 1711:2 1736:3 1865:1 
1 7:6 13:5 23:1 32:2 34:1 42:1 52:1 55:5 57:1 64:1 70:1 92:1 111:1 112:2 119:1 127:1 155:1 213:1 231:1 264:2 1059:1 1090:1 1507:1 1678:1 1790:1 1980:1 
1 4:7 8:1 12:8 13:1 15:1 23:1 28:1 29:8 51:3 56:1 70:1 89:1 106:1 134:1 176:1 220:1 229:1 244:1 343:1 964:1 995:1 1301:1 1399:1 
1 7:1 8:1 9:4 10:1 12:1 13:1 15:1 23:1 28:3 34:2 47:1 49:3 51:1 55:1 57:1 60:1 64:1 70:1 72:2 112:1 118:1 162:1 213:1 263:1 270:1 280:1 324:1 335:1 345:1 518:1 519:1 670:1 1590:1 
1 7:2 8:1 12:4 13:3 18:1 22:1 23:1 31:1 47:1 69:1 70:1 71:1 72:1 79:1 106:2 146:1 161:1 224:1 238:1 252:1 329:1 364:1 426:1 670:1 1121:1 1558:1 
1 4:1 5:1 7:3 10:2 12:3 13:1 15:2 23:1 30:1 40:2 42:1 43:1 45:2 47:2 51:1 70:1 84:1 86:1 105:1 106:1 143:1 161:1 190:1 236:1 346:1 364:1 410:1 435:1 1090:1 1516:1 1558:1 
1 7:2 9:3 10:2 23:1 42:1 52:1 55:1 60:2 69:1 70:1 77:1 89:1 119:2 134:1 153:1 156:1 165:1 221:1 224:1 245:1 250:1 261:1 806:2 933:1 965:1 1121:1 1895:1 1937:1 
1 7:1 10:2 12:5 13:1 15:2 22:1 28:2 30:2 48:1 51:1 52:1 54:1 56:1 58:1 60:1 67:1 70:1 86:1 105:1 108:1 115:1 120:1 139:1 188:1 224:1 240:2 253:1 260:1 271:1 303:1 334:1 388:1 405:1 416:1 530:1 967:2 
0.8658759169849441 7:3 13:1 18:1 23:2 28:1 43:2 48:2 49:1 64:1 70:1 77:2 86:1 92:2 102:1 189:1 197:1 400:1 528:1 934:1 1173:1 
0.3776649521126733 8:1 10:1 23:1 30:1 31:2 32:1 34:1 40:1 45:1 48:2 55:2 70:2 78:3 176:1 320:2 374:1 417:1 600:1 662:1 817:1 934:1 1006:1 1192:1 1471:2 
1 1:5 2:4 3:1 5:1 6:3 7:1 8:2 11:2 13:1 18:1 21:1 26:1 28:1 49:1 65:1 111:1 112:1 120:1 148:1 165:1 186:1 487:1 653:1 1078:1 
1 4:1 5:1 7:1 10:1 13:1 15:2 22:1 23:3 31:2 32:2 48:1 55:3 70:3 71:1 84:1 89:1 97:1 101:1 112:1 119:1 127:1 178:1 186:1 226:1 313:1 391:1 404:1 484:1 679:1 1314:1 1555:1 
1 7:4 9:1 13:1 23:1 31:2 42:1 43:2 44:1 57:1 63:1 92:1 93:1 127:1 158:1 166:1 203:1 229:1 232:1 290:1 299:1 341:1 556:1 631:1 864:1 1194:1 1312:1 1409:1 1569:1 1870:1 1893:1 
1 7:3 9:3 15:1 18:2 22:1 31:2 32:1 34:2 44:1 52:1 53:1 54:1 55:1 57:1 63:1 66:1 69:1 70:1 117:1 149:2 156:1 171:1 195:1 199:1 202:1 224:1 535:1 854:1 919:1 1841:1 
1 9:3 13:2 23:1 30:1 31:1 32:1 42:1 48:2 55:5 57:1 58:1 70:2 86:1 99:2 116:1 134:1 185:1 199:1 220:1 245:1 262:1 322:1 454:2 527:1 628:1 821:1 944:1 1883:1 
1 7:2 12:6 13:1 23:1 32:1 40:1 43:1 47:1 50:1 70:1 73:1 84:1 86:1 106:1 115:1 130:1 143:1 152:1 158:1 161:1 240:1 241:1 256:1 286:1 339:2 518:1 776:1 953:1 1111:1 
1 7:2 9:2 10:2 12:2 13:1 15:3 18:1 23:1 28:1 30:1 31:1 42:1 45:1 47:1 48:1 54:1 56:1 63:1 64:1 70:1 72:1 77:1 92:1 97:1 103:1 107:1 158:2 163:2 188:1 215:1 242:1 247:1 310:1 331:1 356:1 861:1 918:1 
1 4:1 5:1 7:1 10:2 12:1 13:3 15:1 22:1 31:1 55:2 70:1 72:1 97:1 106:1 130:1 134:1 143:1 158:1 166:2 171:1 176:1 326:1 366:1 442:1 728:1 829:1 850:1 1121:1 1547:1 1629:1 
1 8:2 12:1 13:2 15:2 32:1 34:1 42:1 43:1 45:2 47:2 51:1 63:2 72:1 85:2 97:1 100:1 151:1 215:1 600:2 1832:1 1865:1 
1 7:1 8:2 12:4 13:1 22:2 28:2 30:1 32:1 48:1 50:1 56:2 57:1 70:1 97:1 99:1 108:2 133:1 158:1 167:1 188:1 249:1 275:1 309:1 345:1 356:1 358:1 450:1 744:1 1660:1 1779:2 
1 7:2 9:1 10:3 12:3 15:2 22:1 23:2 28:1 30:1 48:1 62:1 65:1 66:1 70:1 80:1 99:1 140:1 161:2 227:1 228:1 454:1 578:1 895:1 959:1 1743:1 1910:1 
1 7:1 8:1 13:1 15:2 22:1 28:1 30:2 34:1 45:1 49:1 50:1 63:2 70:1 73:1 80:1 85:2 115:1 120:1 160:1 166:1 211:1 236:1 253:1 358:1 990:1 1104:1 1292:1 1335:1 1662:1 
1 7:1 12:4 13:4 23:2 51:1 106:1 115:2 518:1 1076:1 1111:1 1960:1 
1 8:2 9:3 10:2 12:7 13:4 18:1 22:2 28:3 31:1 32:2 47:1 48:1 49:1 51:1 52:1 57:1 60:2 70:1 84:1 105:1 108:1 115:1 133:4 139:1 197:1 228:1 233:1 245:1 462:1 469:1 477:1 479:1 480:1 523:1 525:1 584:1 820:1 939:1 1090:1 1247:1 1556:1 1793:1 
1 7:1 8:1 9:8 10:1 12:1 70:2 165:1 166:1 170:1 236:1 272:1 332:1 708:1 
1 7:2 8:1 12:3 13:1 15:5 16:1 22:1 34:1 42:1 45:1 48:1 60:1 70:3 72:1 94:1 106:1 127:1 131:1 141:1 149:1 158:1 179:1 246:1 345:2 404:1 474:1 492:1 958:1 989:1 1370:1 
1 7:1 8:2 10:1 12:2 13:3 15:1 22:1 23:2 31:2 32:1 61:1 67:2 70:2 71:1 73:1 93:1 163:1 181:1 288:2 312:1 317:1 568:1 600:1 802:1 1270:1 1446:1 
1 8:2 9:1 10:1 18:1 22:1 23:2 28:2 34:1 45:2 55:1 56:1 60:1 63:1 70:1 72:2 73:1 115:1 136:1 139:1 170:1 187:1 188:1 229:1 366:1 390:1 709:1 854:1 1664:1 1788:1 
1 7:2 10:5 12:1 13:3 15:1 18:1 23:1 43:1 64:1 67:1 70:2 75:1 88:1 127:1 147:1 152:1 158:1 242:1 331:1 430:1 523:1 628:1 773:1 1090:1 1584:1 1585:1 1638:1 
1 7:5 8:2 9:4 10:1 13:2 15:2 18:1 23:3 28:1 30:1 31:1 42:1 45:1 47:1 48:1 56:1 63:1 67:1 70:1 80:2 89:1 94:1 118:1 127:2 181:1 187:1 190:1 274:1 299:1 340:1 345:1 505:1 1142:1 1514:1 1982:1 
1 7:1 8:4 12:4 13:2 23:3 31:3 42:1 43:1 57:2 66:1 70:1 72:1 73:1 79:1 105:1 106:1 115:1 127:1 151:1 158:1 191:1 224:2 229:1 248:1 274:1 297:1 345:2 675:1 
1 9:3 10:4 13:1 22:1 44:2 67:1 70:1 75:1 91:1 97:1 98:1 143:1 147:1 164:1 184:1 191:1 203:2 261:1 332:1 473:1 475:1 574:1 581:1 824:1 1090:1 1121:1 1276:1 
1 7:2 10:1 12:4 13:1 15:2 23:2 28:1 30:2 32:2 50:1 66:2 79:1 84:1 102:1 113:1 140:1 157:1 167:1 174:1 199:1 280:1 285:1 335:1 430:1 432:1 518:1 595:1 881:1 1558:1 
1 7:1 8:1 9:1 13:1 23:1 28:1 31:1 32:1 43:1 44:1 47:1 49:1 55:2 70:3 78:1 141:1 502:1 514:1 600:1 631:1 719:1 780:1 1027:1 1112:1 
1 7:5 8:2 10:1 12:6 13:1 15:2 18:1 23:3 43:1 60:2 62:1 98:1 141:1 143:1 161:1 223:1 251:2 301:1 348:1 430:1 435:1 524:1 586:2 607:1 736:1 
1 7:4 8:1 10:1 12:1 13:1 22:1 43:1 45:1 70:1 71:1 93:2 106:1 111:1 134:1 149:1 202:1 217:1 221:1 242:1 315:1 386:1 521:1 730:1 1121:1 1163:1 1301:1 
1 7:5 8:1 13:3 18:1 23:1 34:1 42:1 43:1 44:1 45:2 48:1 51:1 55:1 57:1 64:2 75:1 94:1 103:1 108:1 123:1 150:1 161:1 178:1 180:1 207:1 230:1 256:1 261:1 295:1 558:1 600:1 806:1 811:1 1616:1 
1 7:2 8:1 10:2 13:2 18:1 40:3 51:2 60:2 63:1 67:1 68:3 70:1 78:2 97:1 98:1 117:1 121:1 149:1 156:2 178:1 186:1 202:1 309:2 374:1 665:1 967:1 1082:1 1163:1 
1 7:1 8:1 10:2 12:1 13:2 22:1 23:1 28:1 31:2 43:1 56:1 59:2 90:1 129:1 131:1 134:1 135:1 188:1 241:2 364:1 1664:1 1763:1 
1 8:1 10:1 13:1 18:1 30:1 32:2 40:2 50:1 51:1 55:1 58:1 68:1 70:1 78:4 133:3 164:1 171:1 208:1 238:1 319:1 518:1 585:1 927:1 967:1 1066:1 1558:1 
1 7:2 9:1 10:1 12:2 13:1 22:1 28:1 31:1 34:1 42:1 49:1 57:1 70:1 88:2 130:1 153:1 178:1 182:1 186:1 194:1 213:1 258:1 359:1 363:1 399:1 417:1 455:1 518:2 1754:1 1820:1 
1 7:3 9:1 10:2 12:3 13:1 15:5 28:2 30:1 31:1 44:1 48:1 56:2 57:1 70:1 76:1 77:1 80:1 84:1 89:1 97:1 127:1 135:1 153:1 161:1 179:1 340:2 345:1 566:1 802:1 939:2 1157:1 
1 7:3 9:1 12:2 13:1 28:1 30:1 32:1 40:1 45:1 47:1 55:1 58:1 67:1 70:1 76:1 91:1 105:1 106:2 115:1 116:1 178:1 186:1 192:1 202:1 471:1 521:1 867:1 925:1 1107:1 1121:1 1945:1 
0.9411064142359673 1:47 2:47 3:1 6:2 9:1 12:1 21:47 22:2 28:7 49:7 59:3 83:1 121:1 124:3 151:1 186:3 232:4 248:1 294:4 363:1 376:4 432:1 476:2 532:1 568:1 666:1 1120:1 1259:1 1554:9 1574:2 1624:1 1711:1 1812:1 
1 7:1 8:1 9:1 10:3 12:2 13:2 15:1 22:1 28:2 40:1 51:1 57:1 60:1 70:1 86:1 115:1 123:1 133:1 139:1 144:1 164:1 195:1 208:1 210:1 250:1 337:1 394:1 396:1 588:1 854:1 1121:1 1558:1 1697:1 1816:1 1849:1 
1 7:1 9:1 10:1 12:8 14:1 15:1 23:2 32:1 50:2 62:1 64:4 70:1 81:1 85:1 86:3 105:1 108:2 111:1 112:3 133:2 136:1 140:2 189:1 245:1 254:1 286:1 413:1 441:1 462:1 469:1 637:1 670:1 761:1 939:1 1043:1 1683:1 1988:1 
1 1:1 2:1 3:3 4:2 5:3 6:1 7:1 8:2 13:3 19:1 30:1 39:1 42:1 47:2 82:1 95:1 116:1 206:2 368:1 407:1 864:1 1114:1 1354:1 
1 7:1 8:1 10:1 13:1 22:3 23:1 28:2 31:1 48:3 49:2 64:1 70:1 92:1 116:1 136:2 137:1 193:2 412:1 
1 9:5 10:2 12:2 13:3 14:1 15:1 18:1 22:1 23:1 28:2 31:1 32:2 42:1 45:3 52:1 56:1 57:1 64:3 68:1 70:1 92:1 106:1 112:3 127:1 137:1 165:1 179:1 188:1 273:1 354:2 392:1 441:1 833:1 1062:2 
1 1:17 2:17 9:3 15:1 21:17 28:1 47:1 49:1 53:5 54:5 62:1 63:2 74:7 85:1 103:1 124:1 230:1 232:1 239:1 460:4 490:1 594:7 698:1 785:1 803:1 985:1 1041:1 1057:1 1067:1 1143:2 1305:1 1554:5 1627:1 
1 7:3 8:2 10:3 12:3 13:3 15:1 18:1 22:1 23:1 32:2 63:2 106:2 119:1 151:1 181:1 280:1 377:2 401:1 484:1 1109:2 1121:1 1491:1 
1 7:1 8:1 9:1 15:1 18:1 22:3 23:1 47:2 60:1 64:1 70:1 92:1 100:1 137:1 165:1 193:1 242:1 497:1 870:1 1380:1 1394:1 
0.1778239686189435 1:57 2:57 7:4 8:2 9:1 10:1 12:2 15:2 18:1 21:57 22:1 28:2 30:1 34:1 45:1 50:1 51:2 52:1 53:6 54:6 56:1 59:1 70:1 74:39 75:3 97:1 116:1 117:1 124:27 139:1 151:3 200:1 206:2 211:78 227:1 230:1 232:13 339:2 360:1 476:3 526:1 540:1 576:13 594:3 623:1 698:1 728:4 763:1 774:1 862:1 892:1 909:6 965:1 1017:1 1026:39 1057:4 1067:1 1143:2 1246:1 1284:39 1310:4 1554:38 1664:1 1666:1 1865:1 1866:1 1879:1 
1 1:50 2:50 16:5 21:50 34:5 45:1 47:1 51:1 53:6 54:6 59:1 74:35 117:1 124:22 151:1 184:1 206:7 211:60 215:1 227:1 232:10 264:1 276:4 325:1 476:4 485:1 490:4 540:2 576:9 594:2 698:1 728:5 909:3 1024:5 1026:30 1057:5 1143:2 1284:30 1310:1 1554:27 1580:1 1859:5 
-1 10:2 13:1 15:1 22:2 34:1 42:1 44:1 47:2 55:4 66:1 70:1 73:2 101:1 106:2 107:1 115:1 119:1 127:2 146:1 151:1 359:1 459:1 665:1 772:1 1001:1 1323:1 
-1 9:1 18:2 22:1 30:1 34:1 42:1 47:1 53:1 54:1 60:1 64:1 67:1 68:3 70:1 92:1 107:1 112:1 134:1 164:1 165:1 169:1 174:1 194:1 208:1 223:1 235:1 307:1 407:1 834:1 1969:1 
-1 7:4 8:1 10:2 12:3 13:3 15:1 22:1 23:1 31:1 40:2 43:2 50:1 60:1 72:1 73:1 80:2 98:1 124:1 151:1 193:1 220:1 232:1 235:1 306:1 323:1 351:1 365:1 466:1 507:1 647:1 723:1 732:1 983:1 
-1 7:1 8:1 9:4 10:1 15:1 22:1 29:1 50:1 64:2 70:1 108:1 112:1 127:1 133:1 141:1 144:1 153:1 157:1 170:1 176:1 275:1 297:1 349:1 359:1 369:1 651:1 689:1 893:1 1240:1 
-1 1:8 2:8 3:5 4:3 5:5 6:5 7:1 8:2 10:4 11:4 12:1 13:2 19:1 20:1 21:1 26:1 31:1 39:1 42:2 46:1 47:2 63:1 119:1 123:1 124:1 166:1 173:1 217:1 458:1 505:1 550:1 735:1 791:1 1015:1 1525:1 
-1 7:1 8:1 9:1 10:1 12:4 13:1 15:2 18:1 23:1 30:1 31:1 34:1 42:2 45:1 50:1 60:1 69:1 70:1 76:2 77:1 98:1 102:1 111:1 115:1 174:1 243:1 256:1 281:1 351:1 365:1 368:1 432:1 445:1 587:1 664:1 744:1 1042:1 1492:1 
-1 1:4 2:4 7:4 8:5 10:7 12:1 13:6 15:4 18:2 21:4 22:1 23:1 30:3 34:2 40:3 42:2 43:2 45:2 50:3 51:2 59:1 65:1 66:1 69:1 71:1 74:1 75:1 76:1 77:1 84:1 85:1 99:1 100:1 107:1 108:2 117:1 119:1 124:2 150:1 151:1 153:1 198:1 236:1 253:1 256:1 268:1 294:3 309:1 326:1 392:1 417:1 428:1 455:1 460:1 501:1 516:1 598:1 604:1 650:1 693:1 756:1 760:2 905:1 917:1 1056:1 1172:1 1176:1 1248:1 1262:1 1412:6 1660:1 1713:1 1758:1 
-1 7:5 8:2 12:4 15:1 22:1 28:7 32:2 42:1 48:1 50:1 56:1 72:1 85:2 96:1 102:1 113:2 157:1 158:1 279:1 291:2 340:1 410:1 633:2 944:1 1291:2 1409:1 1730:1 
-1 7:1 8:1 10:3 12:2 13:2 15:1 22:1 31:1 34:1 42:2 48:1 63:1 70:1 101:1 106:2 107:1 112:1 119:1 184:1 194:1 221:1 229:1 276:1 288:1 290:1 357:1 359:1 398:1 447:1 497:1 620:1 676:1 1006:1 
-1 7:1 10:3 13:1 15:1 18:1 22:2 28:1 34:4 51:2 56:1 60:1 61:1 69:2 70:1 77:2 85:1 97:2 103:1 106:1 117:1 141:1 156:1 158:1 160:1 179:1 187:1 203:1 204:1 277:1 316:1 463:1 517:1 598:1 679:1 1275:1 1432:1 1767:1 
-1 7:2 9:1 10:2 12:3 13:1 15:2 18:1 23:2 42:1 47:1 53:2 54:2 67:1 70:1 106:1 118:1 140:1 158:1 161:1 169:1 181:1 190:1 253:1 258:1 497:1 563:1 599:1 611:1 680:1 829:1 941:1 1457:1 1597:1 
-0.6046440467311154 1:44 2:43 3:14 4:14 5:8 6:5 9:5 10:9 13:9 15:5 18:1 19:2 20:2 21:32 22:5 24:1 25:1 28:27 29:1 30:9 31:7 32:17 34:6 35:1 36:4 39:2 40:5 41:6 42:1 43:6 44:2 45:6 47:1 49:1 50:1 51:23 52:5 55:41 56:13 57:2 58:4 59:2 60:9 61:1 62:2 66:2 75:5 77:6 81:1 82:2 85:1 87:2 89:3 91:10 95:2 98:1 99:1 101:1 103:7 104:2 105:1 117:11 119:10 129:6 130:4 134:1 139:3 140:1 151:1 155:1 156:1 164:4 171:6 181:1 194:3 195:1 199:2 201:4 203:1 204:9 208:1 210:3 213:2 215:3 227:3 231:2 236:1 242:2 262:5 263:2 279:2 283:1 320:11 335:1 337:6 346:3 354:1 360:1 373:2 374:1 392:1 399:1 409:1 412:1 415:8 433:1 470:2 479:6 494:3 508:3 548:1 573:3 586:1 590:1 603:1 613:1 618:1 673:3 692:1 745:1 773:1 783:1 798:1 804:1 811:2 841:1 843:2 854:1 867:2 901:2 936:1 938:1 1007:1 1053:1 1074:1 1117:1 1182:1 1247:3 1331:1 1435:1 1527:1 1573:1 1696:2 1757:2 1851:1 1977:2 
-1 7:3 8:3 9:2 10:1 12:2 13:3 18:1 42:1 43:1 45:1 57:2 78:1 93:1 127:1 134:1 183:1 327:2 507:1 519:1 1436:1 1501:1 
-1 4:1 5:1 7:2 8:1 10:2 12:2 13:1 22:1 23:1 43:1 45:1 54:1 65:1 70:2 71:1 72:1 75:1 80:1 100:1 106:1 141:2 146:1 331:1 362:1 392:1 452:1 504:1 636:1 973:1 1544:1 
-1 7:1 10:2 12:2 13:1 18:1 23:1 30:1 31:1 43:1 58:1 70:1 73:1 91:3 92:1 98:1 235:1 239:1 243:1 285:1 349:1 382:1 434:1 490:1 616:1 783:1 876:1 980:1 1440:1 1457:1 1590:1 1652:1 
-1 7:3 8:1 10:1 12:2 13:1 15:3 18:1 22:1 28:1 32:2 49:1 71:1 80:1 152:1 163:1 245:1 265:1 327:1 568:1 573:1 588:1 664:1 1215:1 1282:1 1409:1 1844:2 
-1 7:1 8:2 10:1 13:2 15:1 23:1 28:1 30:1 34:1 47:1 48:1 56:1 63:1 68:2 70:1 79:2 111:1 147:1 150:1 152:1 153:1 204:1 217:1 247:1 263:1 329:1 365:1 399:1 457:1 556:1 979:1 
-1 7:1 8:1 9:1 10:2 15:1 23:1 28:1 42:1 43:2 45:2 63:2 70:4 75:1 79:2 100:1 123:1 129:1 184:1 186:1 192:1 241:1 313:1 315:1 326:1 359:1 360:1 367:1 399:1 927:1 963:1 1571:1 
-1 7:2 8:1 9:2 10:2 18:1 22:1 28:4 29:1 30:2 40:3 45:2 55:1 63:1 67:1 70:1 106:1 143:2 152:1 166:1 197:2 240:1 313:1 627:1 723:1 1007:1 1198:1 1364:1 1400:1 
-1 7:1 8:2 10:1 12:2 13:2 15:1 22:2 23:1 30:1 31:1 40:1 47:1 60:1 66:1 70:1 72:1 73:1 86:1 98:1 107:1 160:1 178:1 210:1 248:1 270:1 323:1 429:1 488:1 499:1 707:1 849:1 1021:1 1042:1 1122:1 1157:1 1547:1 1565:1 
-1 7:1 8:3 9:3 10:2 12:3 18:1 22:1 23:1 28:1 32:1 34:2 42:2 47:1 52:1 53:1 54:1 57:1 61:1 62:1 70:2 76:1 85:1 106:1 139:1 169:1 178:1 180:1 181:1 396:1 418:1 455:1 579:1 583:1 662:1 732:1 859:1 1002:1 1312:1 
-1 7:1 8:1 10:3 12:4 18:1 22:1 23:3 31:1 48:1 50:1 52:1 59:2 63:1 70:1 71:1 86:1 158:2 224:1 242:2 258:1 283:1 315:1 731:2 1088:1 1408:1 1661:1 
-1 7:1 8:2 9:3 10:2 12:1 13:1 18:2 23:1 30:1 32:2 34:2 40:1 44:1 48:2 59:2 70:1 76:2 97:1 106:1 193:1 198:1 201:1 230:1 358:1 390:1 442:1 914:1 1102:1 
-1 7:1 13:4 15:2 31:1 43:1 44:1 48:1 62:1 70:1 71:2 88:2 99:1 111:1 113:1 124:2 133:1 135:2 149:1 224:1 310:1 482:2 1625:1 
-1 7:2 8:1 10:3 12:2 13:2 23:3 32:1 34:1 40:1 42:1 43:1 47:1 70:1 79:1 94:1 127:1 143:2 147:1 174:1 203:1 230:1 288:1 393:1 419:1 550:1 615:1 719:1 990:1 1048:1 1106:1 1443:1 1490:1 
-1 7:3 8:2 13:3 15:1 23:1 28:1 42:1 44:1 48:1 49:1 58:1 80:1 88:1 106:1 127:1 141:1 186:1 187:1 257:1 289:1 357:1 641:1 688:1 740:1 799:1 916:1 1807:1 
-1 7:2 8:1 10:1 12:3 22:1 30:1 31:1 43:1 47:1 57:1 60:1 74:1 106:1 123:1 184:1 185:1 221:1 263:1 507:1 829:1 972:1 1201:1 1214:1 
-1 5:1 7:5 8:1 9:1 10:2 12:2 13:1 15:1 22:1 23:2 34:2 42:1 57:2 58:1 76:2 80:1 84:1 152:1 158:1 213:1 224:1 233:1 245:1 359:1 645:1 1057:1 
-1 7:2 8:2 9:1 12:1 13:3 23:1 43:1 47:2 69:1 70:1 94:1 100:1 170:1 178:1 183:1 186:1 200:1 238:2 357:1 575:1 583:1 610:1 841:1 842:1 1141:1 1971:1 
-0.4136923317535408 1:43 2:43 3:49 4:43 5:39 6:29 7:15 8:16 9:9 10:15 11:18 12:17 13:5 14:42 15:5 16:30 17:30 18:7 19:9 20:9 21:1 22:4 23:15 24:8 25:9 26:5 28:2 29:10 30:12 31:4 32:4 33:7 34:1 35:10 37:5 38:5 39:4 40:2 41:2 42:2 44:2 45:1 46:1 47:1 48:2 49:1 50:3 51:2 52:2 53:2 54:2 56:5 58:1 59:8 62:1 63:3 64:1 66:2 67:3 72:1 73:1 75:1 76:1 77:1 80:3 82:1 83:4 84:1 85:1 86:2 91:4 94:1 95:1 96:8 97:1 100:3 101:2 105:1 108:2 109:8 111:1 112:2 120:3 122:2 125:2 129:1 130:1 132:2 134:1 137:1 141:1 142:1 147:1 152:3 154:1 166:1 167:1 174:2 175:9 178:1 180:2 184:2 185:1 186:1 187:2 202:1 204:2 220:1 223:1 224:6 249:1 250:1 252:1 257:1 268:1 273:2 293:1 296:9 308:1 309:1 312:1 320:1 323:2 336:2 340:1 341:2 342:1 352:1 366:1 368:1 387:1 395:1 402:1 406:10 417:1 420:3 427:1 433:1 444:1 448:1 450:1 465:1 466:1 491:1 499:1 505:1 510:2 523:1 548:1 549:1 558:1 578:1 585:1 604:1 613:1 614:1 615:1 702:1 710:1 732:1 777:2 786:1 789:1 829:1 841:1 905:2 914:1 941:3 969:1 1025:1 1063:2 1141:1 1450:1 1463:1 1567:1 1617:1 1632:1 1637:1 1732:1 1742:1 1747:1 1907:1 1990:1 
-0.1825682600565642 1:46 2:39 3:56 4:43 5:33 6:30 8:38 11:2 19:15 20:8 21:1 24:8 25:8 26:19 28:2 37:5 38:5 39:3 41:2 46:1 142:1 
-1 1:2 2:2 3:1 4:1 5:1 6:1 7:2 9:1 10:1 13:3 22:4 27:2 29:1 35:1 63:1 83:1 85:1 151:1 197:1 198:1 256:1 779:1 1009:1 1221:4 1226:1 1544:1 1994:1 
-1 1:6 2:5 3:1 5:1 6:3 7:3 8:3 9:2 10:1 11:4 13:2 15:4 18:2 23:1 26:1 34:2 44:5 47:1 48:1 52:1 60:1 62:1 69:1 76:1 86:2 88:1 94:2 97:1 98:1 107:1 111:1 123:1 210:1 251:1 263:3 264:1 267:1 275:1 460:1 541:1 936:1 1178:2 1419:1 1817:1 
-1 7:1 10:1 12:2 23:1 28:1 30:1 34:1 45:1 47:1 56:1 57:2 70:1 72:1 85:1 152:1 190:1 450:1 459:1 497:1 1672:1 
-1 7:1 9:1 10:1 12:1 13:2 15:3 18:1 32:1 42:1 45:1 58:1 63:1 67:1 70:1 88:1 94:1 152:1 197:1 213:2 221:1 411:1 425:1 483:1 501:1 502:1 574:1 912:1 1313:1 
-0.5372891934811099 1:207 2:207 3:59 4:52 5:46 6:72 7:5 8:12 9:8 11:26 14:4 16:2 19:12 20:12 21:2 24:11 25:11 26:6 27:2 28:2 29:27 34:1 35:2 37:5 38:5 39:6 41:2 43:1 46:8 53:4 54:4 81:14 82:1 85:6 95:1 138:4 142:1 148:2 151:1 175:2 206:3 232:1 330:127 431:2 449:1 463:1 464:3 754:1 840:1 978:1 982:2 1019:2 1154:1 1391:16 1845:2 1914:2 1916:2 
-1 7:2 8:3 9:3 12:1 13:2 15:1 28:1 34:2 45:1 56:1 57:1 60:1 61:1 65:1 67:1 70:1 72:1 93:1 98:1 106:1 115:1 118:1 123:1 141:1 144:1 155:1 188:1 218:1 229:1 299:1 550:1 580:1 800:1 873:1 1066:1 1084:1 1194:1 1796:1 
-1 1:4 2:4 4:9 7:3 8:1 9:2 10:1 13:1 14:2 15:3 21:4 22:2 29:3 43:1 47:1 51:1 65:2 84:1 99:1 101:1 147:1 199:1 210:1 227:1 236:1 253:1 270:1 306:1 335:1 360:1 460:1 594:1 691:1 713:1 830:1 1019:6 1143:1 1176:1 1248:1 1305:1 
-1 1:58 2:58 4:12 7:2 8:1 18:1 21:58 42:1 53:6 54:6 62:1 74:7 83:2 103:1 124:1 136:1 151:1 206:5 233:1 268:1 294:2 495:1 594:3 909:1 969:2 1019:8 1057:1 1083:2 1310:1 1678:2 1754:1 1790:2 1992:2 
-1 8:3 10:1 13:2 15:1 23:1 30:1 31:1 34:1 40:1 50:2 51:2 55:3 59:1 70:1 98:2 99:1 133:1 178:1 186:1 220:1 283:1 328:1 335:1 434:2 512:1 765:1 806:1 812:1 1118:1 1320:1 
-0.1045197155017441 1:38 2:35 3:44 4:24 5:46 6:24 8:23 9:1 10:1 11:4 12:4 13:4 14:21 15:1 18:1 19:9 20:9 21:1 23:2 26:11 29:13 31:1 35:12 39:9 41:2 45:1 46:1 47:1 52:1 58:1 59:2 61:3 67:1 70:1 73:1 80:1 116:9 143:1 161:1 176:1 178:1 186:1 214:9 225:2 238:1 259:2 260:1 270:1 304:2 305:1 334:1 350:9 353:9 385:9 409:1 421:1 439:1 461:1 496:1 498:1 501:1 503:1 505:1 510:1 727:1 764:1 980:1 1126:1 
-1 7:3 8:1 9:3 10:2 12:3 15:3 22:1 23:2 28:1 32:2 34:2 47:1 48:1 49:1 53:1 54:1 58:1 70:1 76:1 89:1 93:3 108:1 141:1 152:2 162:1 251:1 264:1 284:1 306:1 309:1 365:1 462:1 469:1 474:1 809:1 850:1 976:1 1104:1 1169:1 1954:1 1957:1 
-1 8:2 10:3 15:1 18:1 22:1 23:2 50:1 58:1 59:1 60:3 64:2 73:1 80:1 91:2 98:1 99:1 101:1 108:1 189:1 217:1 326:1 335:1 349:1 443:1 460:1 500:1 567:1 1310:1 
-0.880525104361604 1:42 2:42 3:7 4:7 5:6 6:35 7:38 8:3 9:6 10:4 12:1 13:1 14:2 15:8 17:1 18:2 19:1 20:1 21:27 22:1 26:1 27:4 28:2 29:11 30:3 31:1 34:4 35:2 39:1 40:4 42:2 43:1 46:1 48:1 49:1 50:1 53:2 54:2 56:1 57:1 58:3 59:1 60:1 61:1 62:4 63:1 66:1 70:10 72:2 75:2 77:2 79:2 80:1 83:5 85:1 89:2 91:1 99:1 116:1 117:2 118:1 121:1 144:1 149:1 150:1 151:1 156:1 161:1 166:1 170:1 174:1 197:1 206:4 207:1 227:1 232:2 252:1 256:1 261:1 276:3 316:1 369:1 378:1 399:1 402:1 477:1 492:1 525:1 532:1 563:9 566:1 571:1 613:1 621:2 636:1 639:2 746:2 766:2 771:2 799:1 839:1 864:1 919:1 933:1 1116:2 1138:1 1177:1 1551:1 1592:1 1631:2 1676:1 1679:16 1897:1 1915:1 
-1 7:2 8:1 9:1 30:1 32:1 40:1 42:1 43:1 45:1 53:2 54:1 61:1 70:1 117:1 124:1 129:1 143:1 174:1 206:1 227:1 521:1 584:1 749:1 1256:1 1819:2 1958:1 
-1 7:3 9:2 10:3 12:1 15:2 16:2 32:1 34:1 48:1 55:1 61:2 124:1 135:1 184:1 185:1 192:1 257:1 264:1 431:1 880:1 1194:1 2000:1 
-1 7:1 8:1 9:1 12:3 13:3 15:2 30:1 31:1 32:1 40:1 45:1 47:1 50:1 64:1 70:1 75:1 79:2 99:1 105:1 106:2 112:2 129:2 150:1 170:1 208:1 270:1 534:1 612:1 665:1 729:1 740:1 881:1 1340:1 1463:1 
-1 7:2 8:1 9:1 12:3 13:2 15:2 23:1 30:2 31:2 42:1 47:1 48:1 51:1 67:1 70:1 80:1 86:1 115:1 127:1 144:1 150:2 158:1 178:1 194:1 202:1 240:1 465:1 547:1 591:1 647:1 677:1 876:1 1320:1 1335:1 1473:1 1516:1 1674:1 
-1 1:10 2:10 13:1 21:10 34:3 60:1 74:3 85:1 98:1 124:1 145:1 206:1 232:2 287:1 463:1 650:2 1095:1 1182:1 1575:4 1776:1 
-1 7:2 8:2 9:1 10:2 13:1 15:1 30:1 31:1 32:1 34:1 42:1 43:1 45:1 48:2 52:1 55:3 70:1 73:1 79:1 108:1 130:1 144:1 152:1 184:1 207:1 218:1 223:1 240:1 323:1 405:1 443:1 534:1 1536:1 1605:1 
-1 7:2 8:1 9:3 12:3 13:1 14:1 23:1 28:5 32:1 34:1 45:2 51:1 56:1 58:1 61:1 64:1 69:1 70:1 88:1 101:1 134:1 137:1 141:1 176:1 187:1 239:1 340:1 560:1 645:1 674:1 713:1 748:1 1176:1 1997:1 
-1 7:5 13:3 18:1 28:2 32:3 45:2 47:1 49:1 52:1 56:1 58:1 63:1 69:1 72:1 77:1 79:1 131:2 141:1 284:1 419:1 501:1 571:1 764:1 1137:1 1199:1 1256:3 
-1 1:10 2:10 4:4 5:2 9:4 21:10 24:1 74:12 206:3 422:5 699:3 1310:1 
-1 8:2 9:1 12:2 13:2 15:1 22:1 23:1 28:3 31:1 43:1 49:2 50:1 52:1 60:1 66:1 70:2 78:1 86:1 141:1 156:1 169:1 170:1 228:1 242:1 324:1 405:1 409:1 507:1 747:1 982:1 1108:1 1198:1 
-1 7:3 10:1 12:3 13:1 15:2 16:1 23:3 28:1 29:1 30:3 32:1 45:3 49:1 64:3 73:1 99:2 101:1 112:2 117:1 136:1 140:1 195:1 239:1 247:1 346:1 438:1 443:1 633:1 1066:1 1102:1 1579:1 
-1 7:4 8:1 9:1 10:3 12:1 13:1 15:2 28:2 42:2 49:1 50:2 63:1 88:1 105:1 108:1 120:1 153:1 178:1 218:1 256:1 279:1 281:1 404:1 437:1 535:1 741:1 1031:2 1409:1 1545:1 1718:1 
-0.2061594872263914 1:43 2:43 3:57 4:49 5:48 6:29 7:8 8:13 9:7 10:9 11:4 12:1 13:3 14:33 15:4 18:2 19:9 20:9 21:1 22:3 23:3 24:9 25:9 26:6 27:20 28:2 29:20 31:2 32:1 34:3 35:12 37:5 38:5 39:4 41:2 42:1 43:1 44:3 46:2 47:3 61:1 62:1 65:1 76:1 82:2 87:10 88:2 94:2 95:2 100:2 107:2 110:10 111:1 114:10 116:2 118:1 125:1 127:1 128:10 138:1 140:1 142:1 152:1 154:1 159:2 163:1 173:1 178:1 181:1 186:2 213:1 214:2 244:1 254:1 274:2 284:1 299:2 310:1 321:10 361:10 382:1 409:1 455:1 459:1 474:1 478:1 483:1 501:1 529:1 570:1 626:1 676:1 726:2 738:1 765:1 822:1 860:1 893:1 1291:1 1347:1 1377:1 1454:1 1505:1 1663:1 1884:1 1916:1 1920:1 
-1 1:8 2:5 3:5 4:1 5:5 6:4 7:5 8:5 9:1 10:3 11:2 12:5 13:1 14:1 15:1 18:1 23:1 26:2 28:2 29:2 32:1 34:1 35:1 40:2 41:2 47:2 48:1 56:2 57:1 60:1 63:1 65:1 70:1 115:1 133:1 149:1 188:2 225:1 238:1 259:2 304:1 305:1 368:1 421:1 439:1 447:1 448:1 498:1 503:1 548:1 562:2 580:1 865:1 1092:1 1120:1 1125:2 1836:1 
-1 7:5 10:3 12:5 13:3 15:1 18:1 23:3 32:4 45:1 51:1 58:1 60:1 67:1 70:1 73:1 86:1 118:1 134:3 153:1 163:2 166:1 190:1 308:1 346:1 435:1 462:1 469:1 644:1 789:1 827:1 1152:1 1546:1 1604:1 
-1 1:8 2:5 3:5 4:1 5:5 6:4 7:1 8:7 9:2 10:1 11:2 12:3 13:1 14:1 15:2 22:1 23:3 26:2 28:1 29:2 32:1 35:1 41:2 42:1 45:1 47:2 58:1 62:1 65:1 67:2 68:1 70:2 73:1 78:3 86:1 93:1 99:1 139:1 161:1 164:1 180:1 190:1 225:1 226:1 238:1 259:2 260:1 265:1 303:1 304:1 305:1 409:1 421:1 439:1 498:1 503:1 842:1 1030:1 1461:1 1773:1 
-0.537306600020687 1:135 2:132 3:10 4:10 5:8 6:5 7:94 8:1 9:91 19:2 20:2 21:121 24:1 25:1 29:24 35:1 39:2 41:10 53:92 54:92 74:114 76:1 82:2 95:2 124:34 151:22 182:3 206:52 211:1 232:11 276:26 339:16 373:2 470:2 490:1 532:5 536:66 576:6 594:2 603:1 699:5 798:1 905:1 909:2 1014:2 1067:1 1518:1 1844:92 1859:1 1863:1 
-1 7:2 8:1 9:1 10:2 12:4 13:3 15:3 18:1 32:3 34:1 43:1 44:1 70:1 72:1 76:1 97:1 100:1 106:3 119:1 129:1 135:1 166:1 184:1 266:1 272:1 295:1 453:1 459:1 473:1 484:1 533:1 561:1 724:1 768:1 1137:1 
-1 7:2 8:1 9:2 10:3 18:1 28:2 30:1 44:4 47:1 48:1 59:1 88:1 197:1 228:1 256:1 302:1 337:1 367:1 387:1 457:1 531:1 919:1 1188:1 1303:1 
-1 4:3 7:5 9:2 13:1 15:1 22:1 47:1 77:1 124:1 151:1 232:1 360:1 434:1 458:1 827:1 1006:1 1151:2 1262:1 1572:1 1678:1 1776:1 1917:1 
-1 10:2 12:4 13:2 15:1 22:2 23:1 32:1 43:1 51:1 52:1 57:1 67:1 70:1 73:1 84:2 108:2 163:1 167:1 169:1 192:1 311:1 369:1 420:1 430:1 468:1 598:1 753:1 1228:1 1447:1 1456:1 1484:1 
-1 4:1 5:1 7:3 8:1 10:2 12:1 13:2 15:2 22:1 23:2 30:1 31:1 34:1 42:1 47:1 53:1 54:1 59:1 63:1 72:1 98:1 127:1 133:1 136:1 161:1 176:1 202:1 242:1 508:1 697:1 786:1 
-1 1:2 2:2 3:1 4:1 5:1 6:1 8:2 9:4 10:5 13:1 14:1 15:1 18:1 23:1 26:1 28:1 29:1 30:1 34:2 42:3 47:1 53:1 54:1 62:1 63:1 67:1 68:1 72:2 77:1 107:1 108:1 120:1 131:1 197:1 301:1 379:1 416:1 666:1 690:1 927:1 1184:1 1332:1 
-1 1:1 2:1 3:3 4:2 5:3 6:1 7:2 9:2 10:1 18:2 19:1 23:1 28:1 39:1 49:1 77:1 82:1 95:1 131:1 134:1 137:1 206:2 541:1 934:1 1078:1 1666:1 
-1 7:2 9:2 10:1 13:1 23:1 48:1 65:1 157:1 186:1 192:1 363:1 1050:1 1086:1 1161:1 1392:1 
-1 3:1 7:2 8:1 10:1 13:1 15:1 18:1 23:1 28:1 32:3 34:1 47:1 48:1 55:3 56:1 70:4 76:1 86:1 106:1 107:1 163:1 188:1 190:1 237:1 255:1 552:1 568:1 758:1 765:1 1042:1 1170:1 1239:1 1528:1 
-0.1822388561182228 1:44 2:44 3:39 4:33 5:28 6:28 7:14 8:22 9:6 10:13 11:3 13:9 14:2 15:15 16:2 17:2 18:8 19:8 20:8 21:1 22:9 24:8 25:8 26:7 28:2 29:2 30:8 31:1 33:2 34:5 37:5 38:5 39:3 40:3 41:2 42:3 43:1 44:10 45:1 46:1 47:3 49:1 50:3 51:2 52:1 56:1 57:1 60:1 61:2 62:5 63:1 65:2 67:3 71:3 75:7 76:2 79:1 81:10 83:5 84:2 85:1 86:1 88:3 89:2 93:1 94:10 99:3 100:1 103:2 105:1 111:1 113:1 115:1 120:2 121:4 124:2 131:1 134:1 140:1 142:1 146:2 147:3 151:1 152:1 153:1 160:1 161:2 181:1 193:1 197:1 198:3 205:2 207:1 216:2 222:2 223:2 225:1 228:1 230:1 232:1 244:2 252:1 253:1 258:1 263:1 267:1 271:1 281:1 291:2 312:1 314:1 322:1 330:10 344:1 351:1 356:1 360:1 376:1 380:2 384:1 390:1 391:2 407:1 423:1 433:1 437:2 442:1 556:1 564:1 574:1 579:1 588:1 594:1 605:1 614:1 628:1 666:2 681:1 690:1 734:1 799:1 820:1 837:1 840:1 848:1 857:1 889:4 894:2 913:1 996:1 1008:1 1034:1 1040:2 1059:1 1068:1 1122:1 1132:1 1176:1 1198:2 1249:1 1272:1 1391:2 1411:1 1431:1 1468:1 1543:1 1549:1 1596:1 1696:1 1739:1 1890:3 1945:1 1955:1 
-1 7:1 9:4 10:2 12:1 13:1 15:1 18:2 23:1 31:1 42:1 65:1 70:1 75:1 93:2 145:1 160:1 163:1 230:2 233:1 365:1 402:1 574:1 839:1 1511:1 1781:1 1809:1 
-1 7:1 8:2 10:3 12:1 13:1 15:2 22:2 23:1 30:1 31:1 34:2 43:1 70:1 107:1 127:1 185:1 242:1 297:1 395:1 452:1 478:1 549:2 706:1 1418:1 1582:1 1969:1 
-1 4:1 5:1 7:1 8:2 9:1 10:2 13:3 15:2 23:1 28:1 31:1 34:1 44:2 45:1 47:1 49:1 52:1 70:1 86:1 93:1 106:1 107:1 124:1 127:1 135:1 145:1 255:1 275:1 301:1 547:1 578:1 1048:1 1291:1 1528:1 
-1 9:3 10:4 12:4 13:4 15:1 18:3 42:2 52:1 70:1 79:1 93:1 112:1 113:1 123:1 127:1 129:1 136:1 163:1 164:1 271:1 329:2 349:1 511:1 665:1 870:1 912:1 
-1 7:2 9:1 22:1 32:2 40:1 44:1 47:1 48:1 65:1 70:1 88:1 181:1 184:1 233:1 253:1 300:1 309:1 484:1 502:1 544:1 614:1 629:1 1380:1 1500:1 
-1 7:3 9:1 10:3 13:1 15:2 23:1 34:1 42:1 54:1 63:3 65:1 70:1 92:2 112:1 120:3 143:3 147:3 157:1 186:1 293:1 462:1 469:1 609:1 679:1 770:1 1015:3 1214:1 1764:3 
-1 7:1 9:3 10:2 12:2 13:1 18:1 23:1 28:3 31:3 43:1 49:1 52:2 56:1 69:1 70:3 71:2 93:2 129:1 131:1 144:1 158:1 181:1 190:1 204:1 217:1 245:1 289:1 916:1 
-1 1:8 2:5 3:5 4:1 5:5 6:4 7:4 8:5 9:2 10:1 11:2 12:2 13:3 14:2 15:4 26:2 29:2 30:1 32:1 35:1 40:1 41:2 42:2 47:1 52:1 67:1 69:1 70:1 88:3 94:1 97:1 100:1 124:1 130:2 131:1 166:1 201:1 221:1 225:1 231:1 235:2 238:2 259:2 285:1 292:1 304:1 305:1 319:1 349:1 362:1 372:1 421:1 439:1 498:1 502:1 503:1 674:1 868:1 1128:2 1745:2 
-1 7:3 8:4 9:1 12:1 13:1 22:1 23:1 30:1 34:1 40:1 43:1 47:1 80:2 85:1 181:1 198:1 208:1 230:1 300:1 306:2 392:1 568:1 647:1 829:1 897:1 901:1 1256:1 1477:1 
-0.320116590304783 1:32 2:32 3:40 4:36 5:35 6:24 7:18 8:25 9:36 10:15 11:10 12:26 13:10 15:15 18:6 19:9 20:9 21:2 22:6 23:6 24:8 25:8 26:6 28:21 29:1 30:3 31:13 32:5 34:4 37:5 38:5 39:4 40:3 41:2 42:1 43:3 44:2 46:1 49:6 50:3 51:3 52:4 53:2 54:2 56:5 57:2 58:5 60:6 62:2 63:1 64:2 65:2 66:3 67:1 70:3 71:1 72:1 73:2 76:6 80:2 81:1 84:2 85:4 86:3 88:1 89:2 90:1 91:3 92:1 93:3 96:2 97:2 98:3 102:1 103:4 105:5 108:3 111:1 113:1 117:2 120:2 123:1 129:1 133:1 139:3 140:1 142:1 143:2 144:3 148:1 150:1 152:1 155:1 157:1 159:1 163:1 164:1 165:1 166:1 167:3 173:1 174:1 178:1 180:1 191:1 192:2 198:1 203:2 204:2 207:2 218:1 226:1 228:2 235:1 237:1 243:2 248:1 253:1 260:1 265:1 269:1 273:1 279:2 280:1 281:1 282:3 287:1 297:1 300:1 305:2 316:2 326:1 329:1 344:1 348:1 360:1 366:1 377:1 379:1 386:1 394:1 400:1 402:1 405:1 415:2 420:1 429:1 438:1 450:1 471:1 472:1 473:1 513:2 530:1 535:1 551:1 557:1 560:1 587:1 599:1 664:5 670:1 674:2 692:1 708:1 736:1 738:1 744:1 773:1 780:1 795:1 798:1 812:1 821:1 846:1 850:1 858:1 910:1 933:1 957:1 972:1 1066:1 1081:1 1099:2 1178:1 1231:2 1242:1 1270:1 1289:1 1347:1 1351:1 1382:1 1461:1 1463:1 1566:1 1600:3 1649:2 1678:1 1712:1 1910:1 
-1 7:1 12:2 18:1 23:3 42:1 45:1 70:1 72:1 73:1 80:1 84:1 86:1 161:1 180:1 186:1 258:1 348:1 748:1 822:1 999:1 1195:1 
-1 4:1 5:1 7:1 8:1 9:3 13:1 15:1 18:1 22:1 30:1 31:1 40:1 60:1 67:1 70:1 101:1 144:1 169:1 171:1 217:1 364:1 527:1 588:1 629:1 788:1 1063:1 1753:1 1868:1 
-1 7:5 8:2 9:2 10:2 12:5 18:1 28:2 45:1 47:1 48:2 49:1 58:1 60:1 63:1 70:1 93:1 106:1 139:1 239:1 242:1 260:2 376:1 494:1 523:1 552:1 660:1 702:1 
-1 1:10 2:10 7:2 9:4 13:2 15:1 18:1 21:10 22:2 29:1 30:1 34:1 42:1 43:1 53:3 54:3 59:1 66:1 74:7 75:1 83:6 85:1 141:1 144:1 150:1 152:2 165:1 166:1 207:1 211:9 242:1 253:1 255:1 276:1 288:1 305:1 307:1 319:1 339:1 357:2 395:1 463:1 476:1 490:2 530:1 549:1 594:1 650:1 706:1 828:1 875:1 877:1 941:1 983:1 1019:1 1136:1 1139:1 1158:1 1299:1 1336:1 1375:1 1651:1 1846:1 1917:1 
-1 1:4 2:4 3:4 4:2 5:4 7:3 8:2 10:1 12:1 13:1 21:2 23:1 26:2 30:1 31:1 34:3 37:2 38:2 43:1 65:1 71:1 74:3 78:1 86:1 99:1 153:1 185:2 271:1 325:1 460:1 576:2 629:1 728:1 1160:1 1251:1 
-0.4104773627777382 1:42 2:42 3:91 4:69 5:58 6:32 7:3 8:27 9:2 10:4 11:2 13:1 14:1 15:3 16:1 17:1 18:2 19:16 20:16 21:1 24:8 25:8 26:13 28:26 30:1 31:3 32:1 33:1 34:1 37:5 38:5 39:11 40:2 41:2 44:3 46:9 48:1 50:1 52:2 56:1 59:3 61:1 64:1 65:3 66:1 75:2 82:8 83:2 86:1 88:4 93:1 94:1 95:8 98:1 116:1 123:2 140:1 142:1 163:1 167:1 173:8 176:1 185:2 190:3 204:1 221:1 230:1 285:1 286:1 302:1 308:1 319:1 341:1 342:1 364:1 372:1 417:1 457:1 514:1 629:1 701:1 816:1 915:8 975:2 1049:1 1102:1 1145:8 1178:2 1267:1 1288:1 1579:1 1832:1 1919:1 
-1 1:5 2:5 7:4 10:2 13:2 15:1 21:5 22:2 28:1 31:1 34:3 40:2 42:2 43:1 44:1 48:1 49:1 50:1 53:2 54:2 60:1 74:1 80:1 88:1 94:1 98:1 124:1 185:1 193:1 257:1 276:1 300:1 306:2 318:1 563:1 605:1 922:1 983:1 1116:1 1136:1 1158:1 1515:1 1651:1 
-0.5373390882952981 1:44 2:44 6:3 8:2 10:11 13:6 15:8 18:2 21:44 22:1 28:1 31:2 34:2 40:3 47:3 51:1 53:1 54:1 56:1 58:1 69:1 74:295 75:1 79:2 85:1 93:1 101:3 111:1 150:1 161:1 163:1 182:2 235:2 242:1 243:1 244:1 276:1 288:1 302:1 313:1 339:2 359:1 360:1 365:1 458:1 465:1 475:1 584:1 650:3 686:1 703:2 737:1 805:1 856:1 879:1 961:3 1024:1 1026:4 1056:1 1168:2 1176:1 1318:1 1371:1 1552:1 1938:1 
-1 7:2 10:1 13:1 18:1 60:1 79:1 146:1 169:1 179:1 688:1 1193:1 1322:1 1592:1 1854:1 
-1 7:2 10:1 13:2 15:2 23:1 28:1 42:1 49:1 60:1 67:1 71:1 97:1 162:1 280:1 320:1 396:1 819:1 973:1 1050:1 1356:2 1815:1 
-1 9:1 13:1 15:2 23:3 42:1 43:1 57:1 68:1 70:1 78:4 83:1 86:1 152:1 174:1 199:1 217:1 224:1 303:1 312:1 490:1 719:1 739:1 
-1 7:1 8:1 9:1 12:3 13:2 15:2 28:2 30:1 32:2 34:1 42:1 51:2 52:1 61:1 70:1 86:1 102:1 108:1 152:1 156:1 158:2 166:1 228:1 229:2 337:1 423:1 897:1 910:1 1256:1 1292:1 1295:1 
-1 7:1 9:2 10:2 13:1 23:1 31:2 42:1 48:1 57:1 68:1 70:1 71:1 78:2 84:1 85:1 111:1 156:1 165:1 166:1 174:1 201:1 220:1 262:1 282:1 488:1 524:1 557:1 663:1 880:1 991:1 
-1 7:2 8:1 9:4 12:3 13:2 15:1 18:1 22:1 23:1 32:1 48:1 61:1 63:1 68:2 70:1 78:1 86:1 93:1 127:1 170:2 183:1 197:1 253:1 277:1 285:1 297:1 504:1 598:1 742:1 1004:1 1070:1 1194:1 1715:1 1829:1 
-1 7:2 8:3 9:1 12:2 13:1 22:2 23:2 28:2 34:1 42:1 50:1 53:1 54:1 67:1 70:1 73:1 79:2 136:2 169:1 186:1 203:1 250:1 260:1 337:1 428:1 482:1 595:1 731:1 802:1 822:1 1069:1 1978:1 
-1 7:2 10:3 12:2 13:3 22:1 32:1 34:1 47:1 48:2 50:3 58:1 63:1 67:1 68:1 70:1 88:1 102:1 115:1 117:1 124:1 160:1 266:1 273:1 312:1 434:1 437:1 618:1 628:1 790:3 937:2 
-1 7:1 8:1 9:2 10:3 12:4 13:1 15:1 22:1 23:4 34:1 42:1 70:1 77:1 89:1 98:1 100:1 118:1 136:1 226:1 250:1 254:1 271:1 369:1 473:1 654:1 714:1 
-1 7:2 10:2 12:1 13:2 15:1 23:1 30:1 32:3 34:1 42:1 63:1 69:1 70:1 76:1 191:1 198:1 200:1 201:1 257:1 284:1 285:1 316:1 438:1 606:1 896:1 1051:1 1309:1 1541:1 
-1 7:4 8:1 9:2 10:1 13:1 22:1 23:1 28:1 31:1 40:1 43:1 47:1 49:1 63:1 65:1 69:1 70:1 73:1 80:2 86:1 88:1 141:2 152:1 186:1 198:1 468:1 501:1 641:1 688:1 816:1 1045:1 1048:1 1069:1 1434:1 1443:1 
-1 7:7 9:2 10:1 12:7 15:2 23:1 28:4 31:1 32:1 34:1 43:1 45:1 49:3 52:1 56:1 57:1 60:1 68:1 70:1 78:2 89:1 108:1 141:2 158:2 161:1 165:1 166:1 183:1 188:1 190:1 197:1 220:1 236:1 242:1 251:1 254:1 293:1 327:1 360:2 437:1 462:1 469:1 514:1 517:1 538:1 705:1 773:2 1286:1 1870:1 
-1 1:8 2:5 3:5 4:1 5:5 6:4 7:1 8:5 11:2 12:3 13:3 14:1 15:2 23:2 26:2 29:2 32:1 34:3 35:1 41:2 43:1 47:1 58:1 70:1 72:1 74:1 100:1 146:1 171:1 178:1 221:1 225:1 238:1 259:2 304:1 305:1 324:1 364:1 421:1 439:1 498:1 503:1 609:1 613:1 661:1 1018:1 1095:1 1106:1 
-1 1:2 2:2 7:3 8:1 10:3 12:4 13:5 18:1 21:2 28:1 31:3 32:1 42:1 43:1 44:1 47:2 56:1 57:1 58:1 63:1 67:1 72:3 74:1 85:1 103:1 115:1 130:1 133:1 134:1 135:1 155:1 185:1 187:1 190:1 199:1 208:1 215:1 220:1 306:1 357:3 395:1 557:1 623:1 644:1 707:1 1058:2 1139:1 1415:1 1518:1 1774:1 
-1 7:2 8:1 10:1 13:1 15:1 18:1 42:1 60:1 65:1 69:1 810:1 1312:1 
-1 1:2 2:2 7:3 8:1 10:3 12:4 13:5 18:1 21:2 28:1 31:3 32:1 42:1 43:1 44:1 47:2 56:1 57:1 58:1 63:1 67:1 72:3 74:1 85:1 103:1 115:1 130:1 133:1 134:1 135:1 155:1 185:1 187:1 190:1 199:1 208:1 215:1 220:1 306:1 357:3 395:1 557:1 623:1 644:1 707:1 1058:2 1139:1 1415:1 1518:1 1774:1 
-1 7:1 10:2 13:2 15:2 22:1 23:1 30:2 31:1 34:1 40:1 45:1 50:1 55:2 57:3 64:2 70:1 86:1 108:1 127:1 144:2 150:1 155:1 169:1 192:1 194:1 236:1 322:1 323:1 433:2 828:1 843:1 870:1 
-1 1:2 2:2 7:3 9:2 10:6 12:3 13:1 15:4 21:2 22:2 23:2 28:1 31:2 32:1 45:1 47:2 48:1 52:2 56:1 58:1 60:1 66:1 74:1 77:1 80:1 86:1 151:1 162:1 188:1 199:1 230:1 237:2 254:1 270:1 297:1 302:1 325:1 360:1 396:1 501:1 514:1 516:1 796:1 905:1 1054:1 1055:1 1193:1 1574:1 
-1 4:1 5:1 7:1 9:4 10:2 13:2 22:1 48:1 53:1 54:1 57:1 65:1 70:1 79:1 136:1 155:1 163:1 164:1 198:1 211:1 216:1 241:1 334:1 363:1 372:1 425:1 478:1 598:1 714:1 715:1 
-1 7:1 9:5 10:1 12:3 13:2 15:1 18:1 23:2 43:1 53:1 54:1 66:1 70:1 160:1 185:1 249:1 285:1 299:1 370:1 430:1 1134:1 1355:1 1661:1 
-1 7:1 12:2 13:2 23:1 32:1 43:1 48:1 50:1 51:1 60:1 61:1 70:3 75:1 85:1 93:2 98:1 117:1 143:1 227:1 285:1 318:1 429:1 495:1 609:1 645:1 674:1 854:1 925:1 1143:1 1368:1 
-1 7:4 8:1 23:1 31:2 34:1 44:3 52:1 55:3 57:1 58:1 63:1 70:4 72:1 75:1 93:1 111:1 119:1 127:1 129:1 174:1 178:1 184:1 218:1 243:2 273:1 297:1 329:1 501:2 574:1 580:1 607:1 1585:1 
-0.3948148732937949 1:60 2:60 3:47 4:41 5:38 6:37 7:6 8:12 9:10 10:23 11:9 12:3 13:6 14:1 15:6 18:6 19:8 20:8 21:1 22:4 24:8 25:8 26:5 27:20 28:2 30:3 31:2 34:2 35:1 36:18 37:5 38:5 39:3 40:6 41:2 42:2 43:2 46:2 50:4 52:1 53:3 54:3 58:1 60:3 61:3 62:1 65:1 69:1 75:2 76:1 85:3 90:5 93:1 104:5 105:1 108:1 116:2 121:1 125:1 136:1 138:1 142:1 143:1 145:7 146:1 149:1 151:5 154:1 168:5 174:1 177:5 184:1 185:2 195:2 198:1 220:3 224:1 226:3 229:1 233:1 235:1 237:1 256:1 365:1 388:2 392:1 418:1 423:1 427:2 428:1 465:1 527:1 686:1 703:1 736:1 742:1 842:1 904:1 960:2 1018:1 1051:1 1356:1 1474:1 1492:1 1692:1 1754:1 1782:1 1961:1 1994:3 
-1 7:1 8:2 10:3 13:1 22:1 34:2 40:1 43:1 47:1 70:1 76:3 108:1 120:1 131:1 152:1 178:1 186:1 230:1 233:1 322:1 423:1 1102:1 1724:1 
-1 4:1 5:1 7:2 8:1 12:7 13:1 14:1 15:1 18:1 22:1 23:1 30:1 60:1 61:1 63:1 70:1 72:1 73:1 89:1 106:2 113:1 150:1 158:1 169:1 229:1 250:1 310:1 646:1 669:1 794:1 988:1 1007:1 1412:1 1547:1 
-1 7:3 8:2 9:1 10:4 12:5 13:1 18:1 22:2 23:3 31:1 40:1 50:1 52:1 64:1 70:1 77:2 120:1 133:1 137:1 158:1 185:1 218:1 220:1 224:1 323:1 512:1 586:1 1013:1 1031:1 1536:1 1747:1 
-1 1:8 2:5 3:5 4:1 5:5 6:4 7:4 8:6 9:1 10:1 11:2 12:3 13:2 14:1 15:2 22:2 26:2 28:1 29:2 30:2 32:1 35:1 41:2 47:1 53:1 54:1 57:1 60:1 62:1 68:1 78:1 111:1 118:1 139:1 162:1 180:1 187:1 189:1 201:1 208:1 225:1 238:1 241:1 259:2 282:1 304:1 305:1 337:1 421:1 439:1 462:1 474:1 498:1 503:1 529:1 533:1 739:1 942:1 
-1 7:4 8:1 9:2 10:3 12:4 13:2 18:1 28:4 31:2 32:1 44:1 48:2 49:2 52:1 56:1 59:1 80:1 84:1 97:1 129:1 149:1 201:1 227:1 236:1 283:1 308:1 384:1 413:1 450:1 497:1 768:1 937:1 963:1 1272:1 1388:2 
-0.3826755374390781 1:43 2:42 3:18 4:21 5:20 6:23 7:9 8:5 9:9 10:6 11:1 12:15 13:18 14:17 15:10 18:5 21:1 22:7 23:8 27:37 28:2 29:17 30:7 31:3 32:4 34:5 35:17 40:2 41:4 42:2 43:3 44:1 45:2 47:2 49:2 50:4 51:5 57:3 58:2 59:7 61:3 65:2 66:1 67:2 70:3 72:1 75:1 76:2 78:1 79:3 83:2 89:1 90:1 93:2 94:1 98:2 99:1 102:1 105:3 108:2 113:1 118:1 120:2 121:1 129:2 131:1 137:5 146:2 147:4 149:3 150:1 152:2 153:2 158:1 176:1 191:2 192:2 194:2 201:1 207:1 210:1 213:2 224:1 229:1 230:1 231:3 240:1 242:3 259:1 267:1 272:1 277:1 289:2 301:1 324:1 331:1 335:3 336:3 338:1 342:1 351:2 354:1 405:1 463:1 465:1 479:2 488:1 499:1 501:1 510:1 522:1 538:1 550:1 551:1 568:1 606:1 629:1 632:1 690:1 693:1 733:1 741:2 746:11 771:11 776:1 781:5 804:1 824:1 848:2 901:1 986:1 993:4 1054:1 1112:2 1260:2 1265:2 1294:4 1323:1 1328:1 1340:2 1389:1 1534:1 1539:1 1551:1 1768:2 1805:2 
-0.5373389883894912 1:195 2:134 3:132 4:65 5:123 6:81 7:1 8:86 9:2 10:3 13:2 14:4 15:1 16:4 17:4 19:8 20:8 21:1 24:8 25:8 26:66 28:2 29:17 31:1 34:2 37:5 38:5 39:3 41:71 46:38 47:1 48:1 52:1 53:16 54:16 56:1 58:1 73:1 75:1 83:2 91:1 98:1 106:1 109:2 120:1 124:1 142:1 145:1 168:1 169:1 181:1 185:2 191:1 208:1 224:1 235:1 272:1 322:1 330:32 365:1 376:1 404:1 406:1 423:1 439:4 527:1 581:1 772:1 829:1 876:1 941:1 946:1 965:1 1133:1 1171:1 1391:2 1431:1 1661:1 1807:1 
-1 7:2 8:2 9:2 12:1 13:2 22:2 30:1 31:1 40:1 57:2 70:1 77:1 100:1 120:1 261:2 522:1 725:1 804:1 1070:1 1463:1 1907:1 
-1 7:3 10:3 12:4 18:1 30:1 31:1 32:1 34:1 45:1 57:1 70:1 86:1 108:1 115:1 120:1 152:1 233:1 237:1 262:1 276:1 282:1 342:1 365:1 416:1 419:1 457:1 522:1 824:1 903:1 
-0.5374908912677403 1:331 2:330 3:124 4:116 5:117 6:145 7:37 8:15 9:2 10:4 13:4 14:10 15:2 17:7 18:2 19:9 21:31 22:1 24:29 25:14 26:6 27:2 28:3 29:29 30:1 31:2 34:2 35:10 36:6 37:6 38:6 39:9 40:2 41:4 42:1 45:1 48:1 49:2 50:3 55:3 56:1 57:1 58:2 65:3 66:1 74:2 75:2 76:1 77:1 81:2 82:27 87:3 95:4 103:1 108:3 116:4 120:1 124:3 126:115 130:1 148:4 151:4 159:4 175:4 182:8 192:1 198:1 200:1 204:1 214:6 219:58 230:1 232:2 268:15 287:3 298:5 300:1 320:1 321:1 330:64 331:1 339:1 357:16 384:1 399:1 455:1 463:4 507:1 541:1 622:15 636:1 879:1 909:5 932:1 966:7 978:1 1040:1 1067:1 1083:1 1174:8 1189:1 1233:8 1259:1 1363:3 1391:8 1428:2 1552:1 1724:1 1785:1 1948:3 1983:1 1984:4 
-1 13:2 34:1 72:1 74:1 120:1 123:1 185:1 360:1 931:1 
-0.4142334887888183 1:77 2:77 3:60 4:63 5:41 6:46 7:17 8:15 9:11 10:11 11:20 12:9 13:8 14:13 15:5 16:11 17:21 18:8 19:9 20:9 21:1 22:6 23:3 24:8 25:8 26:5 28:2 30:2 31:2 32:3 33:5 34:3 35:1 36:20 37:5 38:5 39:4 40:7 41:2 42:1 43:5 44:1 45:1 46:1 47:2 49:1 50:4 51:2 52:1 53:1 54:1 56:2 57:2 58:1 59:3 60:1 61:1 62:1 64:3 65:3 67:2 72:2 76:1 77:1 80:1 81:20 82:2 84:2 86:1 87:10 88:1 91:4 94:2 95:2 97:2 100:1 103:1 106:1 111:1 112:1 115:1 120:1 122:3 131:1 132:3 137:1 139:1 141:1 142:1 147:5 148:10 153:1 156:1 159:10 160:1 166:1 174:1 176:2 178:1 186:1 189:1 201:1 203:1 204:1 214:2 223:1 228:1 236:1 238:3 243:1 245:1 248:1 258:1 269:2 271:1 274:1 309:1 316:1 324:1 327:1 331:2 338:2 351:1 356:2 363:1 384:1 388:1 400:1 405:1 412:1 418:1 420:1 423:1 427:3 440:1 460:2 484:1 512:1 523:1 536:1 570:1 582:1 625:1 628:1 640:2 641:1 643:1 656:1 668:1 747:1 822:2 848:1 868:1 917:1 989:1 1017:1 1037:1 1086:1 1179:2 1198:1 1222:1 1272:1 1286:1 1288:1 1311:1 1370:1 1385:1 1394:1 1396:1 1480:1 1567:1 1659:1 1718:1 1752:1 1776:1 1923:1 
-1 7:4 9:2 10:1 12:5 13:2 15:1 22:4 23:1 28:1 43:1 44:1 45:1 48:3 56:1 64:1 70:1 72:2 73:1 84:1 91:1 124:1 129:1 137:1 155:1 161:1 231:1 237:1 264:1 272:1 282:1 320:1 331:1 363:1 405:1 411:1 445:1 462:1 469:1 502:1 628:1 664:1 775:1 990:1 1236:1 1499:1 
-1 7:1 8:1 9:2 10:1 12:2 13:1 15:1 18:1 28:1 31:2 43:2 47:2 52:1 56:1 63:1 70:1 75:1 85:1 89:1 106:1 130:1 147:1 149:1 150:1 151:1 167:1 192:1 194:1 316:1 331:1 369:1 450:1 521:1 655:1 660:1 816:1 1199:1 
-1 7:3 9:1 10:1 12:4 13:1 18:1 23:2 28:2 34:1 42:1 47:1 52:1 53:1 54:1 59:1 66:1 72:1 77:1 79:2 93:1 104:1 149:1 158:1 169:1 171:1 227:1 271:2 277:1 279:1 324:1 337:1 404:1 984:1 1005:1 1182:1 1341:1 1409:1 1760:1 
-1 7:2 9:3 13:1 23:1 30:2 31:1 34:1 51:1 70:1 184:2 243:1 822:1 1396:1 
-1 7:2 9:1 10:2 28:2 30:2 32:2 34:1 48:2 52:1 55:3 56:1 66:1 70:1 73:1 80:1 107:1 139:1 149:1 153:1 166:1 178:1 186:1 233:1 260:1 340:1 535:1 670:1 760:1 796:1 841:1 942:1 1060:1 1503:1 1562:1 
-1 7:1 8:1 10:2 15:1 18:1 22:2 53:1 54:1 65:1 70:1 120:1 136:1 165:1 169:1 261:1 574:1 726:1 848:1 1983:1 
-1 7:1 8:2 10:1 12:2 13:3 15:1 23:3 30:1 32:2 42:1 63:1 70:1 77:1 131:1 176:1 192:1 194:1 220:2 223:1 438:1 512:1 620:1 645:1 941:1 1757:1 
-1 7:1 8:3 9:1 13:1 23:3 30:1 43:1 47:1 48:1 70:1 72:1 78:1 80:2 89:1 149:1 165:1 170:2 235:1 365:1 507:1 629:1 760:1 849:1 931:1 1474:1 1616:1 
-1 7:1 8:1 9:2 13:1 15:1 18:1 23:1 43:1 46:1 67:1 77:1 92:1 98:1 120:1 137:1 179:1 405:1 652:1 1603:1 
-1 7:2 10:1 15:2 18:2 30:1 34:1 40:1 45:1 48:1 51:1 52:1 55:2 58:1 62:1 70:1 73:1 77:1 113:1 115:1 129:2 156:1 161:1 162:1 186:1 207:1 267:1 348:1 542:1 556:1 673:1 1005:1 1578:1 1895:1 
-1 7:2 8:1 10:5 13:2 18:1 22:1 34:2 40:1 50:1 63:1 76:1 108:2 120:1 198:1 202:1 257:1 369:1 1300:1 
-0.5284190631182447 1:65 2:65 3:93 4:87 5:86 6:34 7:5 8:11 10:1 11:46 12:3 13:3 14:39 15:2 16:6 17:7 19:6 20:6 21:2 22:2 23:1 24:6 25:6 26:5 27:2 28:2 29:1 32:7 35:32 37:5 38:5 39:1 41:2 46:33 48:1 57:1 65:2 67:1 71:1 80:1 81:2 125:31 134:1 138:31 142:1 154:31 158:1 163:1 172:6 214:1 239:1 245:1 252:1 297:1 412:1 672:2 807:1 852:1 942:1 998:1 1105:1 1119:1 1802:1 
-1 7:1 9:2 10:1 12:1 13:2 15:1 22:1 23:2 28:1 34:1 44:1 45:1 47:1 49:1 68:1 69:1 70:3 88:1 94:1 152:1 250:1 297:1 468:1 578:1 822:1 892:1 899:1 
-1 1:6 2:6 4:1 7:6 8:1 9:1 13:4 15:1 18:2 21:6 34:1 43:1 47:1 50:2 52:1 62:1 69:2 74:2 75:2 77:1 108:1 141:2 149:2 153:1 192:1 235:1 241:2 276:1 288:1 306:1 365:1 395:1 418:1 540:1 541:1 629:1 636:1 638:1 655:1 1073:1 1246:2 1330:1 1575:2 1700:1 
-1 4:1 5:2 7:2 9:1 10:1 15:3 18:1 23:1 31:1 34:1 45:1 50:1 54:1 55:2 57:1 58:1 70:1 98:1 135:1 136:1 190:1 199:1 213:1 240:1 251:1 316:1 342:1 456:1 580:1 1107:1 1169:1 
-1 7:1 8:1 10:2 12:1 13:1 22:1 34:1 42:1 70:1 89:1 92:1 119:1 217:1 243:1 260:2 405:1 426:1 497:1 648:1 833:2 1184:1 1214:1 
-1 7:2 8:2 10:1 13:2 15:1 23:1 28:1 30:1 31:1 32:2 43:1 50:1 55:4 57:1 70:1 76:1 108:1 130:1 169:1 203:1 207:1 228:1 233:1 256:1 261:1 440:1 477:1 805:1 854:1 1199:1 1221:1 1314:1 1644:1 
-1 7:1 8:1 12:2 13:3 15:1 18:1 23:2 28:1 30:2 32:2 45:1 52:1 56:1 64:1 66:2 70:1 73:2 77:1 112:1 115:1 163:1 166:1 167:1 176:1 194:1 324:1 671:1 752:1 924:1 1194:1 1642:1 
-1 8:1 9:2 12:1 13:1 15:1 28:1 30:1 32:1 44:2 49:1 51:1 57:2 58:1 61:1 66:1 70:2 86:1 107:1 134:2 140:1 162:1 171:1 294:1 348:1 412:1 497:1 524:1 656:1 942:1 1335:1 
-1 7:1 8:1 9:6 10:2 12:4 13:3 15:2 18:1 22:1 32:2 43:1 47:1 52:1 70:1 127:1 178:1 193:1 208:1 210:1 217:1 220:1 355:1 362:1 497:1 519:1 581:1 1043:1 1070:1 1140:1 1642:1 
-1 7:2 8:1 9:1 12:1 13:1 15:1 23:1 28:2 30:2 31:1 42:1 44:1 52:1 56:1 57:2 63:1 67:1 70:1 80:1 88:1 139:1 186:1 199:1 204:1 221:1 249:1 250:1 291:1 682:1 707:1 878:1 
-1 12:1 13:1 32:2 44:1 57:1 69:1 70:1 81:1 84:1 152:1 208:1 220:1 238:1 265:1 272:1 282:1 319:1 488:1 502:1 533:1 
-1 4:1 5:1 7:1 9:2 10:1 22:1 28:2 29:1 31:1 40:1 47:1 49:2 50:1 70:1 73:1 111:1 121:1 203:1 261:2 1596:1 1721:1 1801:1 
-1 8:1 9:1 12:6 13:2 15:1 23:1 28:1 30:2 31:1 48:1 49:1 70:1 71:1 72:1 84:1 93:1 102:1 106:1 108:1 129:1 158:1 160:1 162:1 163:1 181:1 190:1 220:1 242:1 256:1 263:1 323:1 429:1 522:1 568:1 1066:1 
-1 7:3 9:2 10:4 13:2 18:2 28:3 30:1 31:2 40:1 49:3 60:1 80:1 94:1 120:1 136:1 147:1 237:1 291:1 346:1 462:1 469:1 549:1 1022:1 1643:1 
-1 7:1 8:2 9:4 10:2 12:1 13:1 15:1 28:1 49:1 50:1 63:1 70:1 71:1 116:1 127:1 153:1 165:1 186:1 200:1 238:1 310:1 425:1 495:1 648:1 679:1 902:1 1253:1 1633:1 
-1 7:2 8:4 9:4 12:3 13:2 23:1 31:1 32:1 43:1 45:1 47:1 48:3 59:1 65:1 70:1 72:1 76:1 144:1 248:2 317:1 352:1 358:1 612:1 709:1 781:1 822:1 1506:1 
-1 7:1 8:1 9:3 10:2 13:4 15:2 18:1 22:2 31:2 42:1 44:3 67:1 69:1 70:1 77:1 94:1 98:1 101:1 107:1 118:1 119:1 123:1 127:1 158:2 206:1 291:1 310:1 918:1 1289:1 
-1 7:3 9:1 10:2 12:2 13:2 15:1 22:1 28:1 30:1 32:1 50:2 53:2 54:2 62:1 66:1 76:1 99:1 107:1 120:1 143:1 152:1 156:1 158:1 163:1 224:1 229:1 248:1 367:1 386:1 585:1 1017:1 1179:1 1219:1 1295:1 1975:1 
-1 5:1 10:1 13:3 15:1 18:1 22:2 30:1 45:1 46:1 50:1 63:2 69:1 70:1 176:1 223:1 242:1 351:1 355:1 653:1 728:1 782:1 968:1 1735:1 
-1 7:1 9:1 10:2 12:3 13:1 15:2 18:1 22:1 28:2 32:1 34:1 44:1 48:1 56:2 57:1 63:1 67:1 70:1 78:2 88:1 89:1 93:1 108:1 117:1 127:1 135:1 188:1 215:1 227:1 242:1 254:1 256:1 310:1 312:1 393:1 440:1 702:1 724:1 1110:1 
-1 7:4 12:2 13:2 22:1 23:1 30:1 32:1 44:1 47:1 52:1 55:1 63:1 67:1 70:2 106:1 153:1 158:1 186:1 198:1 213:1 221:1 427:1 429:1 577:1 677:1 701:1 729:1 1016:1 1113:1 1231:1 1514:1 1712:1 
-1 7:2 8:2 9:2 10:1 12:1 13:1 15:2 18:2 29:1 44:2 57:1 63:1 67:1 70:2 93:1 106:1 127:1 199:1 242:1 328:1 507:1 575:1 702:1 803:1 
-1 1:3 2:3 3:2 4:1 5:2 8:1 12:1 13:1 21:2 26:1 34:2 37:1 38:1 58:1 70:1 74:2 106:1 145:1 243:1 249:1 284:1 485:1 892:2 1026:1 1284:1 1449:1 
-1 7:4 9:5 10:4 12:1 13:2 15:1 18:1 22:2 30:1 32:2 40:1 42:2 43:1 44:1 58:1 65:1 67:1 70:2 88:2 94:2 116:1 124:1 147:1 152:2 166:1 221:1 260:1 276:1 372:1 395:1 401:2 462:1 469:1 574:1 657:1 689:2 789:1 1163:1 1208:1 1438:1 1759:1 
-1 7:3 9:1 10:2 12:2 13:2 18:1 23:1 28:2 31:1 45:1 47:1 48:1 53:2 55:1 58:1 66:1 67:1 70:1 106:1 124:1 133:2 146:1 152:1 162:1 189:1 206:1 228:1 261:1 369:1 372:1 393:1 544:1 601:1 1536:1 
-1 7:2 8:1 9:4 10:4 13:2 15:2 18:3 22:2 28:1 34:1 40:4 48:1 49:1 63:1 67:1 70:1 83:1 88:1 100:1 106:1 137:2 151:1 166:1 192:1 193:1 268:1 323:1 395:1 462:1 469:1 690:1 847:1 861:1 1264:1 1854:1 
-0.3653358590359773 1:73 2:69 3:75 4:58 5:61 6:49 7:12 8:23 9:3 10:10 11:34 13:9 14:9 15:6 16:8 17:9 18:2 19:19 20:19 21:1 22:1 23:2 24:8 25:8 26:10 27:2 28:2 29:1 30:4 31:2 33:8 34:1 35:1 37:5 38:5 39:14 40:1 41:2 42:1 43:3 44:3 46:12 47:1 48:1 49:4 50:1 51:2 52:1 56:2 57:2 59:1 61:1 62:1 64:2 68:1 69:4 72:1 75:1 76:1 78:1 79:1 83:1 87:1 88:3 89:1 93:1 94:2 100:2 101:1 111:1 112:1 113:1 118:3 119:1 140:1 141:1 142:1 146:2 147:1 153:1 155:1 156:1 157:2 158:1 163:1 184:1 194:1 205:1 210:1 216:1 217:1 220:1 222:1 228:2 230:2 241:1 266:1 274:1 275:1 278:4 295:2 302:1 322:1 329:1 340:1 352:1 365:1 369:1 380:1 398:1 412:1 416:1 436:1 449:11 450:1 457:1 459:1 472:1 473:1 488:1 501:2 604:1 636:1 652:1 661:1 753:1 778:2 815:1 851:2 870:1 1061:1 1085:1 1158:1 1238:1 1254:1 1296:1 1389:1 1422:1 1524:1 1675:1 1780:1 
-1 1:1 2:1 7:3 8:1 9:1 13:1 15:1 21:1 31:1 42:1 53:1 54:1 131:1 149:1 170:1 230:1 285:1 306:1 481:1 643:1 1004:1 1724:1 
-1 7:1 8:1 9:4 10:3 13:1 15:2 28:3 40:1 44:2 47:1 50:2 55:2 56:1 57:2 60:1 63:1 70:2 75:1 97:1 139:1 143:1 156:1 170:1 195:1 204:1 218:1 233:1 256:1 303:1 337:1 433:1 475:1 529:1 829:1 919:1 1896:1 
-1 7:3 9:3 13:3 15:2 22:1 23:2 43:1 45:1 55:4 68:4 70:1 78:4 105:2 119:1 140:1 143:1 163:1 247:1 271:1 282:1 311:1 312:1 332:1 375:1 430:1 493:1 568:1 586:1 1331:1 
-1 7:3 8:1 10:2 12:3 15:1 22:3 28:1 34:1 47:4 53:1 54:1 63:1 70:1 88:2 93:1 97:1 106:3 139:1 166:1 361:1 393:1 637:1 641:1 1392:1 1772:1 
-1 1:8 2:5 3:5 4:1 5:5 6:4 7:2 8:5 9:2 10:1 11:2 12:2 13:3 14:1 15:1 22:1 23:3 26:2 29:2 30:1 32:1 35:1 40:1 41:2 42:1 43:1 47:1 50:1 58:1 59:1 65:1 67:1 70:1 78:1 83:1 99:1 108:1 191:1 213:1 224:1 225:1 238:1 259:2 283:1 304:1 305:1 319:1 421:1 434:1 439:1 498:1 503:1 1005:1 1095:1 1146:2 1590:1 
-1 7:2 9:4 10:2 12:1 13:2 22:2 23:2 28:1 34:3 40:1 47:1 49:1 54:1 65:2 70:1 74:1 76:1 102:1 141:1 144:1 152:1 242:1 288:1 552:2 574:1 637:1 904:1 1146:1 1347:1 1350:1 1877:1 
-1 7:2 9:1 15:1 28:1 30:1 31:1 44:1 47:1 48:2 57:1 60:1 69:1 70:2 73:1 79:1 84:1 88:1 97:1 143:1 155:1 161:1 170:1 201:1 337:1 338:1 368:1 527:1 542:1 567:1 612:1 640:1 663:1 1020:1 1466:1 
-1 7:3 9:3 10:1 16:2 22:1 23:1 28:1 31:4 32:1 34:2 42:1 44:1 49:1 58:1 60:1 77:2 79:1 119:1 124:1 198:1 217:1 243:1 249:1 306:2 326:1 983:1 1397:1 
-1 9:3 13:2 34:2 43:1 45:1 47:1 50:1 51:1 55:1 77:1 85:1 117:1 129:1 130:1 143:1 155:1 182:1 232:2 313:1 324:1 407:1 699:1 1057:2 1245:1 1575:1 1865:1 
-1 7:3 8:1 9:2 10:2 15:4 23:1 32:1 34:1 40:1 45:1 48:1 55:1 58:1 64:2 70:1 76:1 86:1 105:1 127:1 152:1 166:1 184:1 199:2 331:1 349:1 443:1 474:1 500:1 810:1 944:1 1098:1 1343:1 1420:1 
-1 7:1 8:1 9:2 10:2 13:1 15:1 31:1 42:1 70:1 71:1 92:1 106:1 165:1 181:1 190:1 297:1 401:1 550:1 652:1 745:1 
-1 1:16 2:16 4:18 9:2 21:16 29:1 34:1 47:1 53:1 54:1 65:1 74:6 75:1 276:3 339:2 360:1 490:1 594:2 728:1 828:1 973:1 1044:1 1136:1 1176:1 1332:1 1863:2 
-0.5372890027378134 1:113 2:110 3:144 4:72 5:144 6:74 7:4 8:74 11:4 12:3 13:1 14:71 15:5 19:34 20:34 21:1 22:1 26:36 28:1 29:38 30:1 32:1 35:37 39:34 41:2 44:1 46:1 47:1 49:1 50:1 57:1 58:1 60:1 62:1 63:1 67:1 70:1 71:1 72:1 88:2 92:1 99:1 106:1 107:1 116:34 123:1 135:2 166:1 167:1 179:1 190:1 200:1 214:34 223:1 225:2 238:1 243:2 259:2 264:1 304:2 305:1 314:1 350:34 351:2 353:34 368:1 369:1 385:34 421:1 439:1 496:1 498:1 503:1 577:1 654:1 719:1 727:1 805:1 848:1 951:1 1106:1 1126:1 1676:1 
-1 7:1 8:2 9:3 10:2 12:4 13:1 22:1 23:3 28:1 31:3 32:1 52:1 53:1 54:1 60:1 70:1 74:1 117:1 201:1 228:1 237:1 303:1 808:1 860:1 1160:1 1458:1 1528:1 1807:1 
-1 7:2 8:1 9:1 10:2 12:2 13:1 15:1 22:1 28:4 34:1 40:1 49:4 57:1 60:1 63:1 70:2 73:1 80:1 106:1 151:1 185:1 208:1 235:1 307:1 336:1 456:1 644:1 714:1 933:1 995:1 1058:1 
-1 7:3 10:1 12:3 13:1 15:1 18:1 23:2 28:1 31:1 34:2 48:1 56:1 58:1 70:1 108:1 127:1 129:1 149:1 152:1 178:1 184:1 203:2 204:1 249:1 253:1 308:1 552:1 579:1 648:1 712:1 1828:1 
-1 7:1 8:2 9:2 10:3 12:2 13:1 15:1 18:1 23:1 30:1 42:1 43:1 44:1 47:1 51:2 61:1 70:1 73:1 77:2 117:1 141:1 144:1 150:1 191:1 208:1 251:1 270:1 355:1 485:1 586:1 623:1 682:1 695:1 699:1 785:1 881:1 1262:1 
-0.542391841477483 1:73 2:73 3:38 4:41 5:37 6:32 7:3 8:1 9:5 11:66 12:2 13:3 15:4 21:4 22:1 26:1 28:1 29:4 31:3 34:1 37:1 38:1 40:1 43:2 45:2 47:2 50:3 51:5 61:1 62:1 63:3 71:3 74:4 83:1 84:1 99:1 100:1 103:2 111:1 116:35 139:1 148:2 159:35 200:1 205:1 206:1 210:1 211:2 216:1 222:1 227:2 285:1 335:1 343:7 360:2 376:1 380:2 391:1 418:2 428:1 463:1 546:1 556:1 558:1 594:2 621:1 650:1 689:3 699:2 830:2 840:1 1019:2 1080:2 1176:2 1439:2 1567:1 1684:4 1723:1 1865:1 1948:1 1992:1 
-1 1:8 2:5 3:5 4:1 5:5 6:4 7:3 8:6 9:2 10:1 11:2 13:1 14:1 15:1 22:2 26:2 28:1 29:2 32:1 35:1 41:2 43:1 47:2 51:1 56:1 58:1 63:1 66:1 67:1 72:1 91:4 98:1 115:1 137:3 143:1 157:1 171:2 213:1 225:1 226:1 238:1 259:2 273:1 304:1 305:1 309:1 315:1 338:1 340:1 354:1 415:2 421:1 439:1 479:1 493:1 498:1 503:1 616:1 681:1 959:1 1080:1 1137:1 1696:1 
-0.1802157819823115 1:52 2:52 3:64 4:52 5:49 6:34 7:9 8:12 9:6 10:1 11:14 12:11 13:1 14:23 15:3 16:1 19:10 20:10 21:1 22:1 23:1 24:8 25:8 26:5 27:20 28:12 29:15 30:3 31:2 32:6 34:2 35:16 37:5 38:5 39:5 40:1 41:2 43:1 46:10 47:1 48:1 49:1 50:1 53:1 54:1 57:1 58:1 59:2 60:1 70:1 84:1 85:1 91:1 92:1 108:1 110:8 114:7 115:1 117:1 118:1 121:1 125:7 130:1 138:7 142:1 143:1 145:7 151:1 154:7 156:1 157:3 165:1 166:2 167:1 168:7 177:7 179:1 184:1 196:1 218:1 233:1 240:1 242:1 255:7 264:1 269:1 288:1 290:1 328:1 358:1 364:1 386:1 400:1 407:1 444:1 460:1 535:1 537:2 548:1 608:4 616:1 670:1 705:1 740:1 826:1 889:1 945:1 957:1 1007:1 1118:1 1157:1 1239:2 1367:1 1464:1 1537:1 1629:1 1646:2 1669:1 1740:1 1888:1 1900:1 1959:1 
-1 4:1 5:1 7:1 9:2 12:2 13:1 18:1 23:1 28:1 29:1 31:1 49:1 53:1 54:1 63:1 70:2 91:1 105:1 130:1 221:1 245:1 270:1 517:1 907:1 
-1 4:4 5:4 7:3 9:1 12:6 13:3 23:2 28:5 30:2 31:3 40:1 49:1 51:1 52:1 57:1 64:1 70:2 80:1 88:1 101:1 112:1 119:2 133:1 150:4 156:1 157:1 184:1 228:1 247:1 256:1 272:1 279:3 297:1 499:1 774:1 
-1 7:2 9:1 12:1 13:1 15:2 22:1 28:1 31:1 44:1 47:1 48:2 50:1 57:1 59:1 67:1 69:1 70:1 88:1 100:1 115:1 127:1 139:1 155:1 160:2 189:1 190:1 198:1 249:1 253:1 260:1 351:1 399:1 889:1 1007:1 1375:1 1443:1 
-1 7:10 10:3 12:3 13:2 18:1 22:2 28:3 30:1 42:1 44:1 52:1 59:1 64:1 71:1 72:1 77:1 106:2 111:2 113:1 153:1 156:1 174:2 176:1 181:1 232:1 279:1 384:1 1088:1 1192:1 1585:1 1756:1 
-1 7:3 8:1 9:3 10:2 12:2 13:1 22:2 23:1 30:1 31:1 40:1 69:1 77:1 101:2 143:1 157:1 160:1 162:1 169:1 178:1 186:1 200:1 218:1 224:1 628:1 1484:2 1871:1 
-0.02107096092105112 1:39 2:39 3:35 4:29 5:26 6:34 7:10 8:16 9:5 10:7 11:8 12:18 13:7 14:5 15:5 16:5 17:5 18:6 19:8 20:8 21:16 22:3 23:3 24:8 25:8 26:5 28:2 30:3 31:2 32:7 33:5 34:4 37:5 38:5 39:3 40:1 41:2 42:1 45:1 46:1 48:1 49:1 52:1 56:3 58:1 61:1 62:1 66:1 67:1 68:1 73:1 78:3 86:2 89:3 94:1 97:1 99:1 100:1 101:2 105:1 107:1 108:1 111:1 127:2 133:1 139:1 141:1 142:1 152:1 164:1 174:1 180:1 181:1 183:1 184:1 188:3 191:1 192:1 200:1 208:1 213:1 223:1 224:2 226:2 229:2 235:2 249:1 250:1 251:1 254:1 265:1 269:1 271:2 274:1 297:2 312:1 336:2 338:3 358:1 366:1 372:1 412:1 432:1 474:1 502:1 561:1 564:1 615:1 670:1 681:1 686:1 878:1 880:1 1064:1 1076:1 1079:1 1120:1 1128:1 1169:1 1193:1 1214:1 1289:1 1313:1 1406:1 1440:1 1450:1 1592:1 1696:2 1780:1 1874:1 
-1 7:6 8:2 9:2 13:1 23:2 32:2 48:3 63:1 68:1 70:1 78:4 151:1 174:1 201:1 208:1 235:1 242:1 251:1 262:1 285:1 479:2 504:1 637:1 702:1 748:1 789:1 958:1 1906:1 
-0.09077516858658183 1:37 2:37 3:40 4:34 5:32 6:25 7:14 8:11 10:4 11:16 13:3 14:21 15:6 16:16 17:16 19:7 20:7 21:1 24:6 25:6 26:5 27:4 28:2 29:7 30:3 31:10 32:4 33:10 34:1 35:5 37:5 38:5 39:2 40:1 41:2 43:1 44:2 45:2 46:2 47:2 49:3 50:2 52:2 53:1 54:3 55:17 57:4 62:2 72:1 76:6 82:1 83:2 84:2 85:1 86:2 87:2 91:1 95:1 101:1 108:1 111:1 116:1 139:3 142:1 144:1 148:2 153:1 156:1 172:6 173:1 174:2 175:3 186:1 190:1 199:1 206:1 208:2 228:3 243:1 245:1 279:1 294:1 303:1 313:1 323:1 325:1 363:2 375:1 383:1 400:1 444:3 445:1 464:1 471:1 484:1 494:1 523:1 552:2 647:1 650:1 677:7 705:1 713:1 766:1 775:1 778:3 783:1 1024:1 1060:1 1113:2 1170:1 1239:1 1255:1 1290:2 1422:1 1505:1 1674:5 1764:1 1906:1 1961:1 
-1 7:1 8:3 47:1 68:1 78:2 86:1 143:1 165:1 213:1 239:1 242:1 247:1 349:1 472:1 553:1 561:1 802:1 896:1 1046:1 
-1 1:8 2:7 3:1 5:1 6:4 7:2 8:4 9:2 10:2 11:6 13:2 15:3 18:2 26:1 34:1 40:3 43:1 53:1 54:1 62:1 76:1 77:1 83:2 92:1 108:1 111:1 112:1 120:1 121:2 131:1 134:1 218:1 244:1 485:1 487:1 504:1 579:1 654:1 918:1 940:1 1022:1 1040:1 1207:1 1376:1 1614:1 
-1 7:2 8:1 9:1 10:1 13:2 15:1 18:2 22:2 28:1 34:1 49:1 69:1 179:1 181:1 235:1 237:1 274:1 312:1 347:1 370:1 573:1 641:1 1173:1 1284:1 1451:1 1522:1 1832:1 1884:1 
-1 8:1 9:1 10:2 28:1 42:1 47:1 49:1 70:1 77:1 120:1 152:1 165:1 185:1 261:1 442:1 591:1 597:1 636:1 691:1 931:1 1175:1 1361:1 1386:1 1701:1 
-1 7:2 8:2 9:1 12:5 13:2 23:3 31:1 32:1 34:1 48:1 50:1 52:1 70:1 86:1 89:1 170:1 174:1 178:1 185:1 261:1 262:1 283:1 307:1 547:1 578:1 1001:1 1048:1 1303:1 1493:1 
-1 1:6 2:5 3:3 5:3 6:4 7:1 8:2 9:2 10:1 11:1 13:1 15:1 18:1 19:1 21:2 22:1 26:2 27:1 30:1 31:1 35:1 40:1 50:1 57:1 60:1 72:1 111:1 113:1 156:1 846:1 
-1 1:4 2:4 7:9 8:2 9:8 12:1 13:6 15:2 21:4 22:3 32:2 34:3 40:2 48:1 58:2 76:1 77:1 85:1 102:1 107:1 108:1 120:1 131:1 144:1 149:1 183:1 184:1 185:1 193:1 208:1 217:1 233:1 306:1 399:1 460:1 463:1 481:1 526:1 538:2 579:1 643:1 725:1 732:1 816:1 847:1 962:1 983:1 1156:1 1158:1 1752:1 1917:2 
-1 7:1 8:1 10:1 12:1 13:1 15:1 34:1 47:1 50:1 59:1 73:1 153:1 171:1 308:1 1136:1 1168:1 1292:1 
-0.5375192416504785 1:152 2:152 3:104 4:87 5:83 6:86 7:3 8:22 9:6 10:13 11:34 12:5 13:16 14:44 16:9 17:33 18:2 19:16 20:16 21:1 22:1 23:1 24:13 25:13 26:10 27:70 28:12 29:37 30:3 31:6 32:4 33:3 35:35 37:5 38:5 39:11 40:1 41:2 43:1 46:4 47:1 48:1 49:1 51:3 52:2 53:1 54:1 55:10 56:2 57:2 59:40 61:1 63:3 67:1 68:2 74:2 75:2 76:1 77:1 79:1 83:1 84:3 87:35 91:3 97:2 100:1 101:5 103:1 106:2 107:1 113:1 117:1 119:2 122:3 129:1 132:3 133:2 140:1 142:1 144:1 149:1 150:1 153:1 160:1 171:1 176:1 185:1 188:1 193:1 205:5 215:1 216:5 221:1 222:5 232:1 233:1 239:1 240:1 261:2 263:1 275:1 283:2 285:2 289:1 297:1 298:1 318:6 324:1 327:2 362:1 366:1 374:1 378:5 422:1 461:1 514:2 516:1 523:1 537:2 571:1 590:4 611:1 647:1 669:1 709:1 760:1 764:1 785:1 806:2 868:1 876:5 881:1 925:2 938:3 942:1 964:1 992:1 1004:1 1141:1 1192:7 1197:1 1283:1 1335:1 1460:1 1539:2 1593:2 1713:1 1859:2 1885:4 1891:2 1992:1 1997:1 
-1 7:1 8:1 9:1 13:1 15:1 23:1 28:2 31:1 40:1 42:1 45:1 47:1 49:1 51:1 53:1 54:1 55:2 58:1 59:1 60:1 70:1 71:1 84:1 93:1 115:1 117:1 123:1 149:1 171:1 191:1 324:1 337:1 847:1 990:1 1085:1 1275:1 1528:1 
-1 8:1 9:5 10:2 12:1 13:2 22:1 23:1 28:3 29:1 31:2 40:2 47:1 49:2 52:1 60:1 70:1 89:1 139:1 153:1 180:2 202:1 261:1 292:1 367:1 423:1 787:1 1098:1 1353:1 1431:1 
-1 9:1 13:1 18:1 32:1 42:1 47:1 50:1 52:1 55:2 60:1 70:1 73:1 108:1 123:1 143:1 193:1 201:1 320:1 465:1 480:2 829:1 1380:1 1515:1 1653:2 1814:1 
-1 7:2 9:4 13:3 15:2 18:1 22:1 23:1 31:1 40:1 52:1 58:1 60:1 62:2 75:1 77:1 79:1 85:1 91:1 97:1 105:2 113:1 117:1 143:1 227:3 524:1 616:1 661:1 770:1 1028:1 1697:1 
-1 7:1 8:2 9:4 12:1 13:2 15:2 18:1 28:1 40:1 43:1 45:1 58:1 63:1 67:1 70:1 71:1 137:1 139:1 158:1 186:1 244:1 290:1 412:1 434:1 443:1 482:1 505:1 526:1 641:1 999:1 1315:1 1582:1 
-1 7:3 8:1 9:1 10:2 12:4 13:2 23:2 28:1 42:1 43:1 45:1 56:1 66:1 70:2 76:1 77:1 80:1 123:1 133:1 134:1 156:1 166:2 169:1 188:1 195:1 242:1 369:1 398:1 569:1 837:1 
-0.06552854746340299 1:31 2:31 3:53 4:42 5:44 6:24 7:17 8:19 9:22 10:24 11:8 12:2 13:8 14:1 15:9 16:2 17:2 18:10 19:11 20:11 21:1 22:6 23:5 24:8 25:8 26:7 28:2 30:4 31:1 32:1 33:1 34:5 37:7 38:5 39:6 41:2 42:6 43:1 44:13 46:1 48:1 50:1 52:1 53:1 54:1 59:2 60:2 62:1 63:3 65:1 66:3 69:3 72:1 76:2 80:1 82:3 86:1 88:5 92:1 94:4 95:3 97:1 99:2 100:3 102:1 103:1 106:1 107:3 109:1 111:1 116:1 118:1 119:2 120:1 124:2 134:2 140:1 142:1 147:5 148:1 150:1 151:1 153:1 160:1 164:1 166:1 173:2 180:1 186:1 189:1 191:3 194:2 197:1 217:1 224:1 229:1 232:1 233:1 244:4 258:1 260:2 263:1 264:1 274:1 287:1 295:1 309:1 310:1 326:1 332:1 338:2 362:2 382:1 386:1 395:1 403:1 409:1 420:1 442:1 459:1 473:1 478:1 487:1 495:1 532:1 548:1 572:4 577:1 581:1 609:1 641:1 642:1 648:1 650:1 670:1 674:1 676:1 689:3 711:1 723:1 725:1 778:1 787:1 800:1 808:1 813:1 837:1 844:1 865:1 872:1 916:2 920:1 968:1 1042:1 1093:1 1108:1 1114:1 1170:1 1199:1 1280:1 1381:1 1430:2 1602:1 1607:1 1685:2 1707:1 1772:1 1797:1 1818:1 1903:1 1965:1 1980:1 
-1 7:1 8:2 10:2 12:2 13:2 15:3 18:1 23:1 28:1 32:2 40:1 48:1 49:1 57:1 68:1 70:1 88:1 100:1 124:1 150:1 192:1 200:1 238:1 242:1 359:1 437:1 453:1 510:1 628:1 652:2 881:1 960:1 1028:1 1300:1 1702:1 
-1 7:1 9:2 12:3 13:2 15:2 23:1 42:1 43:1 53:2 54:2 58:1 70:2 93:1 106:2 150:1 162:2 169:2 189:1 202:1 208:1 248:1 277:1 511:1 627:1 820:1 1102:1 
-1 7:3 9:1 10:1 12:6 13:1 15:2 22:1 30:1 31:1 32:1 34:1 43:1 59:1 60:1 62:1 65:1 69:1 70:1 86:1 98:2 99:1 208:1 223:2 224:1 245:1 251:1 351:2 354:1 625:1 701:1 883:1 1208:1 1403:1 
-1 4:1 5:2 7:2 8:3 9:1 10:2 12:1 13:1 18:2 30:1 31:2 43:1 48:1 54:1 60:1 70:1 84:1 133:1 169:1 178:1 186:1 282:1 818:1 841:2 1080:1 1254:1 1469:2 1476:1 1488:1 1750:1 1845:1 
-1 7:1 9:1 10:2 12:1 13:1 15:2 18:1 23:1 34:1 48:1 58:2 70:1 76:1 78:2 94:1 127:1 146:2 147:1 152:1 211:1 257:1 265:1 342:1 375:1 416:1 442:1 607:1 670:1 758:1 799:1 877:1 1398:1 
-1 8:2 9:1 12:1 13:1 22:1 23:1 31:1 34:1 43:1 45:1 47:1 55:2 57:1 58:1 63:1 66:1 70:1 89:1 97:1 100:1 102:2 103:1 106:2 119:1 121:1 129:1 288:1 349:1 395:1 524:1 597:1 651:1 833:1 1628:1 
-1 7:3 9:3 13:2 18:2 22:1 31:1 40:1 42:1 45:1 47:1 48:1 66:1 101:1 106:1 107:2 131:1 151:1 156:1 183:1 202:1 213:1 225:1 262:1 326:1 644:1 813:1 
-1 10:2 12:2 13:1 18:2 22:2 23:1 28:2 49:2 58:2 60:3 67:1 70:1 121:1 123:1 239:1 305:1 318:1 374:1 497:2 536:1 548:1 610:1 900:1 1112:2 1379:2 
-1 7:7 8:5 9:1 10:2 15:1 22:1 23:1 43:1 45:1 55:2 61:1 64:2 73:2 91:1 94:1 106:1 127:1 134:1 176:1 269:1 312:2 364:1 443:1 504:1 637:1 679:1 726:1 1921:1 1925:1 
-1 7:3 13:4 15:1 22:1 23:2 32:4 34:1 40:1 50:2 55:2 57:1 68:1 71:1 78:3 107:1 130:1 156:1 183:1 191:1 201:2 271:1 294:1 396:1 479:2 529:1 585:1 1440:1 
-1 7:1 9:3 10:1 12:1 13:4 23:2 31:3 44:2 45:1 47:1 51:1 52:1 69:1 70:3 84:1 88:1 89:1 106:1 127:1 152:1 158:1 186:1 313:1 346:1 637:1 1745:1 1809:1 
-1 8:1 13:3 23:1 32:1 43:1 44:2 45:1 47:3 48:2 55:1 70:1 92:1 93:1 127:1 178:1 186:1 266:2 288:1 404:1 419:1 849:1 1291:1 1514:1 1525:1 1664:1 
-1 7:2 9:2 10:1 13:1 23:1 48:1 65:1 157:1 186:1 192:1 363:1 1050:1 1086:1 1161:1 1392:1 
-1 7:2 8:1 9:1 10:3 12:4 15:2 22:2 30:1 32:1 34:1 42:2 48:1 50:1 57:1 67:1 70:1 76:1 86:1 108:1 135:2 155:1 176:1 208:1 230:1 310:1 312:1 477:1 558:1 564:1 1905:1 
-1 7:3 8:1 9:1 10:1 12:3 13:1 18:1 28:3 32:1 42:1 47:1 49:1 52:1 56:1 63:1 65:1 66:1 71:1 73:1 75:1 106:1 113:1 139:1 149:1 156:1 186:1 188:1 199:1 275:1 276:1 390:1 396:1 443:1 481:1 648:1 677:1 679:1 948:1 1585:2 1674:1 
-1 7:1 8:1 10:1 12:2 22:1 23:2 29:1 31:1 42:2 50:1 57:1 58:1 70:1 73:1 133:1 141:1 153:1 155:1 161:1 415:1 440:1 442:1 694:2 747:1 974:1 1374:1 1442:1 
-1 7:1 9:1 28:1 29:1 32:1 34:1 42:1 45:1 48:1 50:1 55:2 57:1 67:1 70:3 93:2 151:1 156:1 185:1 207:1 228:1 235:1 263:1 277:1 365:1 420:1 456:1 507:1 814:1 990:1 1512:1 
-1 7:1 8:2 10:1 12:3 13:1 15:1 18:1 23:1 28:1 32:2 47:1 50:1 56:1 62:1 70:1 77:1 83:1 99:1 106:1 108:1 111:1 144:2 191:1 198:1 199:1 207:1 224:1 233:1 248:1 316:1 363:1 436:1 440:1 450:1 586:1 641:1 1047:1 
-1 7:1 8:2 12:1 13:1 15:1 18:1 22:1 30:1 31:1 32:2 45:1 47:2 58:1 63:1 64:1 70:1 72:1 92:1 101:1 106:1 141:1 260:1 267:1 287:1 356:1 376:1 474:1 507:1 704:1 761:1 776:1 1136:1 1286:1 1450:1 
-1 7:2 8:1 9:3 10:2 13:1 31:1 44:2 47:3 54:1 61:1 63:1 70:1 75:1 94:1 119:1 131:1 144:1 152:1 161:1 213:1 229:1 245:1 258:1 289:1 426:1 980:1 1027:1 
-1 4:1 5:1 7:3 8:3 10:1 13:1 23:1 28:1 29:1 32:1 34:2 43:1 47:1 49:1 55:1 79:1 134:1 147:1 185:1 266:1 314:1 390:1 393:1 447:1 497:1 605:1 668:1 1528:1 1722:1 
-1 7:2 9:2 10:2 12:4 13:2 15:1 18:1 32:1 47:2 63:2 69:1 70:1 72:1 107:1 131:1 133:1 169:2 287:1 299:1 425:1 474:1 605:1 648:1 702:2 709:1 807:1 823:1 1041:1 1206:1 1223:1 1231:1 
-1 1:8 2:5 3:5 4:1 5:5 6:4 7:5 8:6 10:2 11:2 12:5 13:1 14:1 15:2 26:2 29:2 34:1 35:1 40:1 41:2 47:1 48:2 53:1 54:1 57:1 58:1 59:2 61:2 66:1 70:2 72:1 86:1 88:1 120:1 121:1 130:1 137:1 140:1 155:1 163:1 180:1 217:1 225:1 238:1 249:1 259:2 269:1 302:1 304:1 305:1 313:1 328:1 355:1 417:1 421:1 439:1 480:1 498:1 503:1 538:1 587:1 625:1 638:1 1034:1 1143:1 1488:1 1854:1 
-1 1:8 2:5 3:5 4:1 5:5 6:4 7:6 8:7 9:3 11:2 13:3 14:1 15:2 18:1 23:1 26:2 28:3 29:2 31:2 32:1 34:1 35:1 41:2 42:2 45:1 47:1 49:1 55:6 59:1 70:1 86:1 92:1 106:2 112:1 113:2 141:1 167:1 194:1 210:1 225:2 230:1 238:1 259:2 270:1 273:1 304:1 305:1 396:1 421:1 439:1 498:1 503:1 507:1 595:2 760:1 1014:2 1585:1 1826:1 1964:1 1971:1 
-0.6211588705262063 1:39 2:39 3:38 4:32 5:28 6:25 8:10 11:14 19:9 20:9 21:1 24:8 25:8 26:5 28:2 29:4 37:5 38:5 39:4 41:2 46:1 81:8 98:2 142:1 148:1 159:1 
-1 7:1 8:1 9:5 10:1 12:3 13:1 15:2 18:1 28:2 31:1 32:3 34:1 43:1 45:1 47:3 50:1 53:1 54:1 59:1 60:1 62:1 66:1 70:1 85:1 97:1 120:1 121:1 143:1 187:1 190:1 218:1 227:1 248:1 252:1 253:1 279:2 326:1 395:1 452:1 455:1 462:1 469:1 552:1 560:1 688:1 776:1 821:1 891:1 919:1 1607:1 
-1 7:3 9:2 10:2 12:3 13:1 15:6 23:1 34:1 42:1 48:1 62:1 64:4 92:1 97:1 98:1 107:2 112:1 123:1 133:2 161:1 163:1 215:1 224:1 253:1 308:1 315:1 405:1 471:1 492:1 656:1 721:1 1617:1 
-1 7:1 10:2 13:1 15:1 18:2 42:1 47:1 48:2 79:1 131:1 147:1 153:1 181:1 194:1 237:1 249:1 267:1 442:1 648:1 697:1 773:1 844:1 873:1 1102:1 1313:1 
-1 7:1 9:2 12:1 13:1 28:1 29:1 32:2 43:1 47:2 50:1 51:2 61:1 63:2 70:1 73:1 76:1 77:1 85:1 89:1 103:1 106:1 124:1 228:1 258:1 309:1 335:1 365:1 436:1 456:1 457:1 642:1 673:1 963:1 1218:1 1378:1 1710:1 
-1 7:2 9:2 10:1 13:1 23:1 48:1 65:1 157:1 186:1 192:1 363:1 1050:1 1086:1 1161:1 1392:1 
-1 7:1 8:1 10:2 12:6 13:1 15:2 28:2 34:1 42:1 56:1 57:1 63:1 66:1 70:2 72:1 93:1 98:1 106:2 111:1 123:1 133:1 139:1 156:2 204:1 215:1 263:1 285:1 331:1 390:1 516:1 547:1 796:1 833:1 878:1 1598:1 
-1 7:1 9:2 10:1 12:5 13:1 15:1 22:2 28:1 32:2 42:1 45:1 47:1 61:2 70:2 73:1 79:1 103:1 112:1 139:1 163:1 167:1 181:1 208:1 233:1 282:1 324:1 332:1 369:1 370:1 402:1 561:1 573:1 724:1 751:1 1381:1 1461:1 
-1 7:3 8:2 9:2 12:2 13:1 15:1 18:1 23:2 28:1 30:1 43:1 47:1 48:2 56:1 57:1 64:1 65:1 77:1 79:1 112:1 158:1 267:1 313:1 391:2 500:1 795:1 841:1 1214:1 1502:1 1524:1 1675:1 
-1 8:2 10:2 13:1 15:1 18:1 22:1 23:1 31:1 34:1 43:1 48:1 58:1 63:1 67:1 70:2 76:1 88:1 94:1 131:1 143:1 152:1 170:1 230:1 241:1 248:1 394:1 402:1 619:1 652:1 681:2 881:1 
-1 7:1 9:1 10:3 12:2 13:2 15:1 16:1 18:2 22:1 28:1 34:1 42:1 43:1 68:3 70:1 130:1 139:1 171:1 225:1 226:1 246:1 292:1 369:1 654:1 1176:1 1248:1 1362:1 1408:1 1431:1 
-1 7:3 10:2 12:2 13:2 15:2 22:1 23:1 28:2 30:1 31:1 32:1 43:1 60:1 63:1 65:1 67:1 68:3 70:1 71:1 91:1 98:1 183:1 217:1 229:1 232:1 243:1 273:1 285:1 312:1 646:1 782:1 785:1 956:1 962:1 1105:1 
-1 7:2 8:2 9:1 10:2 13:2 18:1 22:1 23:1 42:1 44:3 47:1 48:2 59:1 63:1 65:1 67:1 70:2 160:1 186:1 230:2 281:1 359:1 648:1 741:1 822:1 922:1 1524:1 
-1 7:3 8:2 10:1 12:3 13:3 15:1 18:1 22:2 32:1 44:1 48:1 50:1 54:1 66:1 69:1 70:1 79:1 80:1 88:1 108:2 120:1 123:1 127:1 178:1 201:1 208:1 224:2 248:1 358:1 390:1 437:1 467:1 722:1 
-1 7:4 8:1 10:2 12:2 13:1 15:1 18:1 23:2 28:1 31:1 47:1 49:1 61:1 70:1 80:1 92:1 127:1 178:1 186:1 190:1 208:1 238:1 257:1 285:1 292:1 396:1 428:1 459:1 497:1 517:1 538:1 640:1 1048:1 
-1 7:2 8:1 10:2 12:4 13:1 18:1 23:1 28:1 32:1 47:1 48:1 49:1 58:1 61:1 66:1 67:1 70:1 71:1 107:1 144:1 153:1 178:1 252:1 266:1 277:1 324:1 536:1 638:1 820:1 841:1 1339:1 
-1 7:3 8:2 9:4 10:3 12:3 13:2 15:1 18:2 31:1 45:1 48:1 66:2 67:1 72:1 115:1 118:1 144:1 163:1 221:1 229:1 242:1 250:1 359:1 377:1 413:1 515:2 598:1 744:1 1216:1 1557:1 1615:1 
-1 8:1 9:1 10:2 12:4 13:1 15:1 22:1 32:1 48:1 58:1 67:1 70:1 127:2 149:1 191:1 201:1 257:2 293:1 336:1 369:1 554:1 588:1 733:1 841:1 1707:1 
-1 7:3 8:1 13:1 15:4 22:1 23:2 28:2 31:1 42:1 57:1 58:1 68:1 70:1 88:2 93:1 97:1 127:1 134:2 157:1 163:1 183:1 242:1 250:1 332:1 348:1 430:1 468:1 681:1 759:1 1004:1 1235:1 1693:1 
-1 7:1 9:2 10:1 13:5 34:1 44:1 60:1 70:1 75:1 89:1 123:1 129:1 131:5 134:1 135:1 147:3 160:1 201:1 220:1 252:1 253:2 267:3 551:2 573:1 1180:1 1280:1 1639:1 
-1 7:1 10:6 13:4 15:1 18:2 28:2 34:1 44:2 49:1 64:3 70:1 88:1 93:1 97:1 106:1 147:1 163:1 190:1 273:1 337:1 419:1 457:1 460:1 473:1 523:1 579:1 620:1 913:1 1006:1 1752:1 1852:1 1882:1 
-1 28:1 29:1 31:2 40:1 42:1 45:1 47:1 49:1 71:1 75:1 91:1 100:1 129:1 156:1 191:1 462:1 
