svm_type c_svc
kernel_type rbf
gamma 0.00050025
nr_class 2
total_sv 2983
rho 0.658789
label 1 -1
probA -1.70641
probB 0.82588
nr_sv 1452 1531
SV
1 7:2 8:1 9:2 13:1 23:1 156:1 238:1 933:1 1486:1 
1 10:4 12:3 50:1 54:3 62:4 64:4 72:1 97:1 102:1 105:3 271:1 404:1 951:1 1101:4 1546:1 1566:1 1709:1 
1 1:36 2:36 6:31 7:2 9:25 11:6 21:24 80:6 171:1 210:24 421:6 539:1 649:1 771:1 1298:1 1362:2 
1 10:5 12:2 13:6 15:1 18:1 54:2 56:1 61:1 62:2 64:5 69:1 139:1 155:1 156:6 157:1 162:1 348:1 368:1 397:1 431:1 587:1 683:2 695:1 881:1 990:1 1101:5 1300:4 1486:6 
1 7:2 8:1 9:1 10:2 13:1 15:2 18:2 23:4 42:2 44:1 46:1 57:2 64:2 69:1 117:1 146:1 156:1 197:2 224:1 238:1 386:1 587:2 742:2 881:2 1101:2 1102:1 1119:1 1300:1 1385:1 1486:1 1699:1 
1 1:4 2:4 6:3 8:1 9:2 12:1 13:2 18:2 21:2 22:2 23:2 29:1 39:1 40:2 54:1 56:1 58:1 63:1 67:2 88:2 111:1 128:1 134:1 136:1 156:2 157:1 190:1 223:1 238:1 251:2 274:2 285:1 292:1 344:1 616:1 617:1 853:1 881:2 978:2 1191:1 1287:1 1300:1 1486:2 1589:1 1804:1 1951:1 
1 4:1 5:1 7:2 8:1 9:4 10:2 13:1 15:1 22:1 23:2 29:1 30:2 43:1 47:1 49:1 64:2 69:1 79:2 87:1 119:1 128:1 156:1 238:1 251:1 266:1 292:1 335:1 460:1 481:1 587:1 933:1 1101:2 1486:1 1588:1 1731:1 
1 12:2 13:1 15:1 18:1 41:1 54:2 66:1 69:1 97:2 105:1 134:1 156:1 160:1 180:1 222:1 365:1 404:1 424:1 587:1 676:2 704:1 805:1 853:1 881:1 951:2 1254:1 1486:1 1673:2 
0.4967923319286941 7:1 42:1 47:1 77:1 119:1 164:1 177:1 182:1 222:1 224:1 273:1 578:1 668:1 742:1 821:1 
1 7:2 8:1 9:4 10:2 15:2 22:1 23:1 47:3 48:1 50:2 58:2 64:2 69:2 83:1 90:1 114:2 117:1 161:1 225:1 238:1 251:1 271:2 308:1 344:1 429:1 587:2 868:1 1101:2 1119:1 1133:1 1554:1 1592:1 
1 8:1 13:2 15:3 30:2 33:1 39:2 41:1 43:1 47:2 49:1 50:1 56:2 69:1 71:1 79:2 87:1 88:1 97:1 104:1 156:2 157:2 168:1 207:1 219:1 238:1 271:1 274:1 276:1 344:1 347:1 351:1 375:1 404:1 414:1 424:1 546:1 584:1 587:3 604:1 659:1 695:1 951:1 966:1 1055:1 1178:1 1280:1 1287:2 1474:1 1486:2 1731:1 
1 7:2 13:1 22:1 28:1 30:1 39:1 62:2 63:1 68:1 79:1 136:1 156:1 194:1 251:1 269:1 328:1 509:1 1062:1 1287:1 1486:1 1918:1 
1 7:2 8:2 9:1 10:1 12:2 13:3 18:1 23:1 29:1 30:1 41:1 47:2 49:1 54:2 57:1 62:1 63:1 64:1 66:1 79:1 83:1 88:1 98:1 116:1 118:1 128:1 136:1 156:3 197:1 238:2 274:1 292:1 298:1 328:1 334:1 424:1 881:1 1015:1 1061:1 1101:1 1133:1 1371:1 1486:3 1728:1 1731:1 1893:1 
1 7:1 9:1 10:1 13:2 22:1 23:2 33:1 46:1 64:1 68:1 69:1 156:2 231:1 251:1 375:1 386:1 489:1 531:1 1087:1 1101:1 1365:1 1486:2 1793:1 
1 1:2 2:2 7:2 15:1 18:1 21:2 33:1 65:1 73:1 78:1 82:1 112:1 126:1 135:1 148:1 150:1 240:1 302:1 359:1 375:1 487:1 489:1 587:1 881:1 1573:1 1725:1 
1 7:2 9:2 13:1 15:1 23:2 30:2 43:2 51:1 56:4 66:1 69:2 79:2 87:2 105:1 126:1 134:1 135:1 149:1 156:1 157:4 164:1 178:1 180:1 273:1 309:1 385:2 426:1 587:1 676:1 779:1 808:1 853:1 933:1 991:1 1097:1 1227:1 1238:1 1408:1 1436:1 1486:1 1673:1 1725:1 1971:1 
1 4:1 5:1 7:3 10:1 12:1 13:2 15:1 18:1 30:1 39:1 48:2 54:1 57:1 61:2 64:1 76:1 79:1 84:1 88:1 129:1 149:1 156:2 160:1 197:1 252:1 255:1 274:1 284:1 427:1 587:1 881:1 1060:1 1079:1 1101:1 1287:1 1418:1 1440:1 1486:2 1592:2 1896:1 1959:1 1971:1 
1 7:1 8:1 10:1 13:1 22:1 41:1 62:1 64:1 68:1 72:1 85:1 156:1 159:1 196:1 238:1 251:1 264:1 406:1 424:1 489:1 736:1 874:1 1101:1 1158:1 1438:1 1486:1 1638:1 1709:1 1809:1 
1 7:7 16:1 18:1 28:5 117:1 263:1 698:1 881:1 1119:1 
1 7:2 10:1 13:1 15:1 22:1 23:2 41:1 64:1 123:1 156:1 234:1 251:1 424:1 494:1 507:1 587:1 599:1 731:1 793:1 1101:1 1486:1 1720:1 1735:1 
1 7:3 8:2 9:2 13:2 15:2 18:1 23:2 33:2 42:1 55:1 62:1 66:1 69:1 101:1 120:1 156:2 164:1 173:1 230:2 235:1 238:2 273:1 283:1 308:1 339:1 348:1 375:2 447:1 478:1 587:2 721:1 742:1 881:1 887:1 900:1 1300:1 1365:5 1486:2 1533:1 1538:1 1703:2 
1 7:1 9:1 13:3 15:2 22:2 28:1 44:1 48:1 59:1 62:1 69:1 110:1 114:1 126:1 140:1 156:3 180:1 189:1 251:2 408:1 434:3 513:1 520:1 587:2 721:1 1102:1 1170:1 1222:1 1337:1 1486:3 1592:1 1616:1 1775:1 
1 7:5 8:2 10:2 12:2 13:1 15:2 23:3 29:2 30:2 31:1 42:1 47:1 49:1 54:2 55:1 56:1 64:2 65:1 69:3 79:2 106:1 117:1 134:1 156:1 157:1 194:1 199:1 238:2 292:2 327:1 339:1 487:1 587:2 665:1 742:1 863:1 966:1 1049:1 1087:1 1101:2 1119:1 1486:1 1538:1 1731:1 1846:1 1918:1 
1 7:2 9:2 10:1 13:1 15:2 22:1 23:2 29:1 31:2 33:1 41:2 44:1 64:1 69:1 126:1 152:1 156:1 194:1 199:2 251:1 253:1 292:1 375:1 403:1 424:2 526:1 587:2 957:1 999:1 1101:1 1102:1 1486:1 1791:1 1869:2 1882:1 1918:1 
1 1:8 2:7 3:1 5:1 6:4 7:2 8:4 9:1 10:3 11:4 12:2 13:3 15:1 18:2 26:1 42:1 54:2 64:3 68:1 76:2 78:1 85:1 110:1 156:3 161:1 238:4 240:1 264:1 399:1 421:4 427:2 429:1 453:1 587:1 636:1 742:1 881:2 1061:1 1101:3 1170:1 1316:1 1337:1 1353:3 1486:3 1809:1 
1 7:2 8:1 13:1 42:1 47:2 107:1 156:1 175:1 192:1 238:1 742:1 933:1 1115:1 1486:1 
1 7:2 9:1 10:1 15:1 22:1 30:2 31:1 33:1 39:1 41:1 47:2 48:2 55:1 64:1 69:1 79:2 84:1 99:1 111:1 128:1 163:1 187:1 194:1 199:1 201:1 251:1 259:1 375:1 424:1 557:1 587:1 718:1 861:1 933:1 1079:1 1101:1 1191:1 1287:1 1434:1 1538:1 1592:2 1719:1 1804:1 1918:1 1989:1 
0.8697414660580142 7:3 9:1 13:2 18:2 28:3 63:1 136:1 142:1 156:2 615:1 881:2 933:1 1066:1 1486:2 
1 7:2 9:1 10:1 13:2 15:1 22:1 29:1 30:1 31:1 55:1 58:1 62:1 63:1 64:1 77:1 79:1 111:1 136:1 156:2 182:1 199:1 251:1 253:1 292:1 339:1 559:1 587:1 606:1 866:1 924:1 1101:1 1468:1 1486:2 1538:1 1804:1 
1 7:1 8:1 9:1 13:1 15:1 22:1 23:1 29:1 47:1 48:1 57:1 61:1 69:1 85:1 106:1 107:1 151:1 156:1 179:1 197:1 202:1 223:1 238:1 251:1 264:1 292:1 434:1 582:1 587:1 601:1 613:1 644:2 819:1 987:1 1226:1 1486:1 1592:1 1741:1 1846:1 
1 4:2 5:2 7:2 10:2 12:3 13:3 15:1 22:1 33:1 39:1 44:1 54:3 56:1 58:1 63:1 64:2 68:2 69:1 78:2 83:2 105:2 119:1 136:1 152:1 156:3 157:1 240:2 251:1 252:1 323:1 375:1 416:1 504:1 509:1 556:1 587:1 906:1 913:1 1101:2 1102:1 1133:2 1287:1 1461:1 1486:3 1645:1 
1 7:1 9:2 10:1 13:1 23:2 30:3 31:1 33:1 43:2 44:1 55:1 60:2 64:1 69:1 70:1 71:1 72:1 79:3 85:1 87:2 105:2 106:1 148:1 150:1 156:1 164:2 180:1 199:1 216:1 264:1 273:2 289:1 300:2 339:1 343:1 344:1 375:1 594:1 659:1 1087:1 1101:1 1102:1 1164:1 1486:1 1538:1 1573:1 1709:1 1846:1 1991:1 
1 7:2 8:2 9:1 13:1 23:2 76:1 156:1 238:2 289:1 427:1 454:1 585:1 772:1 1071:1 1238:1 1470:1 1486:1 
1 7:1 8:2 13:3 29:1 41:1 46:2 115:1 156:3 238:2 292:1 367:1 386:2 406:1 424:1 1113:1 1353:1 1486:3 
1 7:2 8:1 9:3 13:1 18:2 28:2 33:1 63:1 91:1 136:1 142:1 156:1 238:1 375:1 615:1 639:1 881:2 933:1 959:1 1486:1 1517:1 
1 7:1 10:1 13:2 42:1 44:1 64:1 69:2 156:2 360:1 474:1 742:1 1101:1 1102:1 1414:1 1486:2 
1 7:1 9:1 10:2 13:2 15:2 18:1 39:1 48:1 56:3 64:2 65:1 69:1 71:2 72:1 106:1 107:1 134:1 144:1 154:1 156:2 157:3 170:1 184:1 252:1 312:1 319:1 429:1 487:1 583:1 587:2 659:2 676:1 695:1 781:1 881:1 957:1 1101:2 1112:1 1151:1 1287:1 1431:1 1486:2 1592:1 1623:1 1624:1 1709:1 1778:1 1846:1 
1 7:1 9:1 10:1 13:1 15:2 29:2 49:1 56:1 63:2 64:1 66:1 69:1 96:1 114:1 120:1 129:1 134:2 136:2 156:1 157:1 191:1 206:1 292:2 358:1 403:1 587:2 1101:1 1371:1 1486:1 1695:1 1731:1 1791:1 1898:1 1959:1 
1 1:17 2:17 7:1 9:3 13:3 14:1 21:17 39:1 42:14 60:1 62:1 73:1 76:1 123:2 135:1 150:1 156:3 160:1 170:1 231:1 300:1 410:1 427:1 480:1 512:1 717:1 731:14 742:14 939:1 981:1 1018:1 1249:1 1287:1 1338:1 1486:3 1623:1 1646:1 1725:1 
1 7:2 10:2 43:9 64:2 69:1 87:9 93:7 173:1 200:1 206:1 290:1 313:1 614:7 887:1 1101:2 1280:10 1697:1 1911:1 
1 1:2 2:1 3:1 5:1 6:1 7:2 8:2 9:2 10:2 11:2 22:1 33:1 64:2 66:1 72:1 85:1 99:1 133:1 162:1 180:1 238:2 251:1 258:1 264:1 265:1 375:1 421:2 458:1 946:1 1101:2 1709:1 1719:1 1937:1 
1 7:2 8:1 10:1 17:1 22:1 46:1 64:1 78:1 85:1 133:1 144:1 184:1 238:1 240:1 251:1 264:1 342:1 355:2 386:1 545:1 1101:1 1187:1 
1 7:1 8:1 13:1 46:1 68:1 105:1 156:1 163:1 190:1 238:1 270:1 386:1 494:1 510:1 628:1 989:1 1187:1 1486:1 1589:1 
1 1:5 2:5 6:4 7:1 9:1 10:2 13:1 15:1 21:3 23:2 30:1 33:1 40:2 50:1 51:1 64:2 77:2 79:1 90:1 97:1 104:1 122:1 138:1 152:1 156:1 160:2 166:1 178:1 182:2 239:1 265:1 271:1 351:1 375:1 587:1 788:1 951:1 1101:2 1179:1 1486:1 1651:1 1996:1 
1 7:1 8:1 9:2 13:3 15:1 18:1 22:1 29:2 33:1 39:1 50:3 55:1 69:1 78:1 83:1 85:1 88:1 96:1 101:1 102:1 110:1 128:1 134:1 145:1 149:1 156:3 226:2 238:1 240:1 251:1 264:1 271:3 274:1 292:2 314:1 366:1 375:1 434:1 447:1 587:1 881:1 966:1 1041:1 1133:1 1170:1 1278:1 1287:1 1486:3 1538:1 1566:1 1969:1 1971:1 
1 7:2 8:1 13:1 15:5 16:1 22:1 33:1 41:1 44:1 47:1 59:1 69:3 71:1 93:1 105:1 126:1 130:1 140:1 148:1 156:1 238:1 245:1 251:1 344:2 375:1 403:1 424:1 473:1 491:1 520:1 587:5 614:1 659:1 957:1 988:1 1102:1 1369:1 1456:1 1486:1 1573:1 1616:1 1775:1 1791:1 
1 7:8 8:2 13:1 15:2 31:1 41:1 44:3 57:1 66:1 75:1 96:1 152:2 156:1 162:1 197:1 199:1 201:1 216:1 232:1 238:2 261:1 305:1 424:1 587:2 1068:1 1102:3 1486:1 1843:1 1989:1 
0.8636761443355705 7:3 9:1 10:1 13:1 15:1 22:1 23:2 31:2 47:1 64:1 101:1 132:1 156:1 199:2 207:1 212:1 244:2 251:1 285:1 308:1 393:1 447:1 587:1 1091:1 1093:3 1101:1 1123:1 1486:1 
1 7:1 10:1 13:3 15:3 18:1 29:2 33:2 57:1 58:1 61:2 64:1 66:1 69:1 74:1 101:1 156:3 159:1 190:1 197:1 239:1 262:2 266:1 292:2 375:2 447:1 587:3 618:1 635:1 881:1 1101:1 1486:3 1589:1 1638:1 1759:1 1774:1 
1 7:1 10:1 12:2 13:6 15:2 22:1 29:1 42:1 44:1 49:1 54:2 60:1 61:1 63:1 64:1 65:1 69:1 136:1 149:1 156:6 160:2 183:1 251:1 260:1 262:1 284:1 291:1 292:1 300:1 374:1 487:1 587:2 676:1 721:1 742:1 805:2 1071:1 1101:1 1102:1 1113:1 1118:1 1120:1 1328:1 1336:1 1371:1 1440:1 1486:6 1673:1 1731:1 1869:1 1971:1 
1 1:5 2:4 3:1 5:1 6:2 7:1 8:3 9:1 10:3 11:2 13:1 22:1 26:1 64:3 71:1 82:2 100:1 110:1 156:1 164:1 216:1 238:3 251:1 273:1 421:2 436:1 481:1 659:1 871:1 1101:3 1170:1 1413:1 1486:1 1525:1 1647:1 
1 7:2 8:1 10:1 25:1 42:1 64:1 68:1 145:1 164:1 222:1 238:1 273:1 504:1 736:1 742:1 1101:1 1809:1 
1 5:1 7:5 9:2 10:3 13:2 18:1 23:3 29:3 30:1 33:1 39:2 41:2 59:1 64:3 79:1 88:1 93:1 140:1 156:2 201:1 226:1 274:1 292:3 375:1 424:2 520:1 614:1 748:1 881:1 933:2 1101:3 1287:2 1433:1 1486:2 1616:1 1775:1 1987:3 1989:1 
1 1:7 2:6 3:2 5:2 6:6 7:2 8:3 9:1 10:1 11:1 13:2 18:1 21:4 26:2 28:1 29:1 30:1 42:1 48:2 58:1 64:1 67:1 71:1 79:1 83:1 101:1 110:1 119:1 156:2 210:2 238:3 239:1 292:1 312:1 421:1 447:1 652:1 659:1 742:1 881:1 978:1 1101:1 1133:1 1151:1 1170:1 1363:1 1486:2 1592:2 1920:1 
1 7:2 8:2 10:3 18:2 46:1 48:1 64:3 68:1 238:2 386:1 766:1 875:1 881:2 983:1 1101:3 1592:1 
1 1:8 2:5 3:5 4:1 5:5 6:4 7:2 8:5 9:3 10:1 11:2 13:4 14:1 15:3 18:1 22:1 26:2 28:2 29:1 31:1 33:4 34:1 39:5 40:2 42:2 46:1 56:1 63:1 64:1 71:1 101:1 111:1 134:1 136:1 140:1 155:1 156:4 157:1 194:1 199:1 214:1 224:1 237:1 238:5 251:1 258:2 292:1 301:1 303:1 304:1 375:4 386:1 403:1 420:1 421:2 431:1 438:1 447:1 497:1 502:1 587:3 659:1 721:2 737:1 742:2 881:1 1036:1 1101:1 1287:5 1486:4 1578:1 1695:2 1775:1 1791:1 1804:1 1918:1 1947:1 
1 7:2 9:1 13:1 33:1 43:1 49:1 87:1 91:1 107:1 133:1 156:1 375:1 456:1 639:1 643:1 718:1 1127:2 1486:1 1731:1 
1 7:8 10:5 13:2 15:2 22:1 30:4 39:1 43:1 49:1 51:1 63:2 64:5 65:1 69:1 71:4 77:1 79:4 87:1 97:1 101:1 134:4 136:2 156:2 175:1 178:1 182:1 216:1 251:1 253:1 312:4 447:1 487:1 568:1 587:2 659:4 951:1 1014:1 1101:5 1151:4 1287:1 1486:2 1731:1 1774:1 
1 9:1 10:5 22:1 23:1 31:1 41:2 58:1 64:5 65:1 69:1 75:1 168:1 169:1 199:1 251:1 424:2 487:1 644:1 892:1 1023:1 1101:5 1425:1 1843:1 
1 4:2 5:2 7:1 10:3 22:1 33:1 46:1 64:3 72:1 119:1 144:1 184:1 251:1 375:1 386:1 1101:3 1671:1 1709:1 
1 1:2 2:2 3:2 4:2 6:2 7:3 8:2 9:1 10:2 13:1 22:1 26:1 48:1 55:1 64:2 77:2 98:1 100:1 156:1 173:1 180:1 182:2 209:1 216:1 238:2 251:1 302:1 339:1 341:1 871:1 887:1 1101:2 1486:1 1538:1 1592:1 1958:1 
1 7:2 9:1 13:2 15:2 16:1 29:1 30:1 31:1 49:2 57:1 66:1 67:2 69:1 71:1 79:1 119:1 120:1 156:2 197:1 199:1 210:1 245:1 259:1 270:1 292:1 477:1 587:2 659:1 832:1 978:2 1117:1 1395:1 1486:2 1731:2 1869:1 
1 7:8 10:2 13:1 15:1 23:1 39:1 43:1 64:2 87:1 93:1 105:1 118:1 123:1 156:1 298:1 335:1 383:1 475:1 517:2 532:1 587:1 614:1 1101:2 1280:1 1287:1 1354:1 1486:1 
0.6499116485384814 7:1 9:2 10:2 13:1 15:3 23:1 33:1 42:1 46:1 51:1 55:1 59:1 63:2 64:2 65:1 66:1 69:1 83:1 91:1 96:2 111:2 136:2 156:1 162:2 178:1 309:1 312:1 323:1 339:1 375:1 386:1 487:1 520:1 587:3 639:1 661:1 742:1 1101:2 1133:1 1151:1 1394:1 1486:1 1538:1 1616:1 1780:1 1804:2 1950:1 
1 7:20 8:1 13:2 31:1 41:1 51:1 56:3 59:2 69:2 105:1 129:1 138:1 144:1 148:1 155:1 156:2 157:3 178:1 184:1 191:1 199:1 217:1 238:1 358:1 424:1 431:1 496:1 506:1 517:2 520:2 906:1 1110:2 1191:1 1193:1 1461:1 1486:2 1573:1 1616:2 1645:1 1782:1 1959:1 1996:1 
1 7:2 10:2 13:2 15:3 18:1 22:1 31:1 33:1 44:2 49:2 64:2 65:1 67:2 97:1 156:2 199:1 212:1 244:2 251:1 365:1 375:1 487:1 523:1 587:3 594:1 608:1 721:1 881:1 951:1 978:2 1101:2 1102:2 1473:1 1486:2 1731:2 1757:1 1991:1 
1 7:1 9:1 12:1 13:2 15:1 22:1 30:2 31:2 33:1 39:1 54:1 55:1 56:1 57:2 61:1 65:1 66:1 69:1 70:1 79:2 82:1 105:1 119:1 156:2 157:1 197:2 199:2 251:1 283:1 339:1 368:1 375:1 487:1 587:1 706:1 831:1 990:1 999:1 1061:1 1164:1 1287:1 1412:1 1486:2 1533:1 1538:1 
1 7:1 8:1 9:1 10:2 13:2 15:1 18:3 33:1 46:1 57:1 64:2 65:1 66:1 69:1 74:1 82:1 88:1 91:1 101:1 107:1 111:2 119:1 126:1 140:1 156:2 191:1 197:1 220:1 238:1 274:1 280:1 358:1 375:1 386:1 447:1 487:1 587:1 639:1 721:1 836:1 881:3 999:1 1004:1 1101:2 1230:1 1486:2 1734:1 1759:1 1775:1 1804:2 
1 7:1 8:1 10:1 13:1 15:1 41:1 46:1 64:1 69:1 74:1 116:1 156:1 238:1 334:1 386:1 424:1 473:1 587:1 1101:1 1486:1 1494:1 1713:1 1759:1 1764:1 1784:1 1898:1 
1 7:2 9:2 12:3 15:3 16:1 29:1 30:2 39:1 54:3 56:1 59:1 69:1 79:2 84:1 90:1 123:1 126:1 157:1 186:3 200:1 205:1 244:1 255:1 292:1 309:1 347:1 464:1 496:1 520:1 587:3 707:1 1060:1 1079:1 1193:1 1287:1 1291:1 1462:1 1616:1 1748:1 1893:1 1911:1 
1 12:1 15:1 31:1 33:2 47:1 49:1 51:1 54:1 59:3 76:1 92:1 106:1 167:1 178:1 199:1 222:2 248:1 308:1 322:1 368:1 375:2 427:1 520:3 587:1 849:1 990:1 1184:1 1616:3 1731:1 1846:1 1975:1 
1 1:8 2:7 3:1 5:1 6:4 7:1 8:4 9:1 11:2 13:2 21:1 22:2 26:1 40:3 48:1 110:1 156:2 175:1 238:4 251:2 421:2 600:1 728:1 1082:1 1087:1 1152:1 1170:1 1353:1 1486:2 1592:1 1809:1 
1 7:3 9:1 10:1 12:2 13:1 15:2 29:1 39:1 43:1 48:1 54:2 59:1 64:1 83:1 87:1 88:1 90:2 97:2 134:1 156:1 160:2 173:1 212:1 252:1 260:1 274:1 284:1 291:1 292:1 365:1 451:1 460:1 465:1 520:1 540:1 550:1 587:2 887:1 894:1 951:2 1101:1 1133:1 1287:1 1336:1 1440:1 1486:1 1592:1 1616:1 1927:1 
1 7:2 10:2 12:1 13:1 15:1 44:1 54:1 56:1 64:2 68:1 69:1 72:1 83:1 156:1 157:1 216:1 561:1 587:1 673:1 1101:2 1102:1 1133:1 1323:1 1486:1 1709:1 
1 7:4 8:2 9:1 13:3 15:2 23:2 30:1 41:1 63:1 72:1 79:1 88:1 91:2 136:1 144:1 156:3 164:1 168:1 184:1 238:2 254:1 273:1 274:1 309:1 397:1 424:1 440:1 587:2 639:2 775:1 1061:1 1486:3 1709:1 1873:1 1920:1 
1 4:1 5:1 7:2 8:2 9:3 10:1 12:1 23:1 30:2 48:1 54:1 57:1 59:2 63:2 64:1 65:1 69:2 72:1 79:2 83:1 84:1 105:1 136:2 140:1 173:1 197:1 238:2 242:2 318:1 319:1 416:1 487:1 520:2 652:1 781:1 887:1 1079:1 1101:1 1133:1 1300:1 1546:1 1592:1 1616:2 1709:1 1775:1 1920:1 
1 1:6 2:5 3:1 5:1 6:3 7:1 8:4 9:1 11:4 13:2 26:1 42:1 46:1 72:1 76:1 110:1 156:2 159:1 164:1 238:4 273:1 386:1 406:1 421:4 427:1 489:1 742:1 1017:1 1170:1 1486:2 1638:1 1647:1 1709:1 1809:1 
1 7:2 8:2 13:2 15:2 23:1 33:1 42:2 47:1 50:3 61:2 63:1 67:1 71:1 76:1 77:1 84:1 90:1 98:1 111:1 116:2 130:1 136:1 156:2 182:1 185:1 238:2 271:3 309:1 312:1 334:2 335:1 375:1 427:1 473:1 587:2 659:1 672:1 742:2 866:1 941:1 978:1 1079:1 1151:1 1456:1 1486:2 1557:1 1701:1 1804:1 
1 7:1 8:3 10:2 15:2 18:1 22:2 23:1 33:1 41:1 42:1 61:1 62:1 64:2 69:1 76:1 105:2 111:1 114:1 118:1 122:1 160:1 198:1 238:3 251:2 298:1 367:1 375:1 424:1 427:1 442:1 580:1 583:1 587:2 596:1 679:1 742:1 881:1 1058:1 1101:2 1415:1 1651:1 1804:1 
1 7:2 8:1 9:3 13:2 15:1 18:1 22:1 23:2 29:1 33:1 55:1 63:1 69:1 88:1 123:1 136:1 156:2 177:1 185:1 196:1 238:1 239:1 251:1 274:1 292:1 339:1 375:1 575:1 587:1 631:1 699:1 793:1 821:1 881:1 920:1 1056:1 1438:1 1486:2 1538:1 
1 4:1 5:1 7:3 8:3 18:3 22:2 33:1 39:1 44:1 46:1 59:2 69:1 71:5 76:1 83:1 129:3 169:1 190:1 238:3 251:2 262:1 266:1 333:1 375:1 386:1 427:1 434:1 520:2 617:1 659:5 881:3 1102:1 1133:1 1287:1 1557:1 1589:1 1616:2 1798:1 1888:1 1959:3 
1 7:2 8:1 9:10 10:1 13:3 18:2 22:3 23:2 33:1 46:1 47:1 64:1 67:1 69:1 156:3 192:1 200:1 236:1 238:1 251:3 375:1 386:1 771:1 881:2 933:1 978:1 994:1 1035:1 1056:1 1101:1 1115:1 1321:1 1365:1 1486:3 1911:1 1938:1 
1 9:2 10:4 13:4 15:1 23:2 29:3 39:2 43:1 64:4 65:1 69:1 76:2 87:1 123:1 143:1 151:1 152:1 154:1 156:4 205:1 220:1 288:1 292:3 344:1 376:1 427:2 454:1 487:1 583:1 587:1 656:1 818:1 987:1 1101:4 1287:2 1464:1 1486:4 1817:1 
1 7:2 9:1 13:2 22:1 23:1 28:1 31:1 39:1 43:1 48:1 57:1 65:1 66:1 69:1 77:2 87:1 107:1 114:1 140:1 156:2 170:1 182:2 197:1 199:1 229:1 251:1 262:1 487:1 875:1 1287:1 1365:1 1486:2 1592:1 1623:1 1649:1 1775:1 
1 7:3 8:1 9:6 10:1 13:1 14:1 18:1 23:2 30:2 42:1 50:1 64:1 79:2 105:1 145:1 156:1 163:1 169:1 177:1 185:1 238:1 271:1 336:1 412:1 429:1 559:1 742:1 821:1 881:1 924:1 1101:1 1105:1 1179:1 1486:1 1557:3 1787:1 
0.9677720746702488 7:2 9:2 10:3 22:3 33:1 64:3 68:2 100:1 251:3 375:1 593:1 635:1 677:1 871:1 972:1 1101:3 1329:1 1353:1 
1 7:3 8:1 9:3 13:1 14:2 15:1 22:1 29:1 30:1 39:1 48:1 61:2 62:1 63:2 71:1 79:1 88:1 98:1 136:2 156:1 238:1 251:1 274:1 292:1 587:1 638:1 659:1 751:1 1287:1 1486:1 1592:1 
1 13:3 22:1 41:1 68:1 156:3 251:1 424:1 474:1 600:1 1298:1 1345:1 1353:1 1486:3 1809:1 
1 7:1 8:2 9:1 30:1 39:2 42:1 48:1 69:1 79:1 132:1 238:2 248:1 455:1 742:1 1123:1 1287:2 1592:1 1664:1 1785:1 1975:1 
1 7:1 10:1 13:1 15:1 23:1 30:1 39:1 42:1 55:2 58:1 62:1 64:1 69:2 79:1 85:1 97:1 102:1 126:1 148:1 152:1 156:1 168:1 173:1 187:1 191:1 220:1 264:1 337:1 350:1 358:1 367:1 387:1 498:1 587:1 742:1 887:1 951:1 1101:1 1117:1 1287:1 1395:1 1486:1 1538:2 1564:1 1566:1 1573:1 1625:1 1869:1 
1 7:2 9:2 13:1 15:1 23:3 29:1 31:3 43:1 65:1 68:1 69:1 80:1 87:1 96:1 126:1 156:1 199:3 212:1 281:1 292:1 310:1 464:1 478:1 487:1 587:1 731:1 1089:1 1486:1 1756:1 1770:1 
1 9:1 10:1 12:2 15:2 18:1 31:1 33:1 47:1 51:1 54:2 55:1 64:1 69:2 75:1 92:2 96:1 99:1 122:1 148:1 177:1 178:1 187:1 199:1 209:1 216:1 243:1 244:1 315:2 375:1 443:1 473:1 587:2 719:1 821:1 849:2 881:1 901:1 1101:1 1538:1 1573:1 1595:1 1651:1 1719:1 1774:2 1843:1 
0.7693369490928372 7:3 8:3 10:1 23:3 29:1 30:3 64:1 79:3 83:1 175:1 238:3 292:1 348:1 523:1 733:1 825:1 1035:1 1101:1 1133:1 1613:1 
1 7:2 8:1 9:1 13:2 23:2 31:1 39:1 42:1 46:1 60:1 69:3 71:1 77:2 140:1 154:1 156:2 182:2 199:1 238:1 300:1 310:1 371:1 386:1 511:1 659:1 677:1 742:1 1287:1 1486:2 1775:1 1871:1 
1 7:2 8:1 10:3 13:3 15:2 18:1 22:1 23:2 31:2 47:1 62:2 64:3 69:1 85:1 88:1 105:1 114:1 134:1 148:1 156:3 169:1 194:1 199:2 238:1 251:1 264:1 274:1 299:1 335:1 344:1 548:1 576:1 587:2 881:1 1087:1 1101:3 1486:3 1573:1 1603:1 1918:1 
1 7:1 9:2 13:2 15:2 22:1 23:1 30:1 41:1 42:1 44:1 46:1 50:1 51:1 59:1 72:1 79:1 96:1 99:1 156:2 178:1 251:1 271:1 350:1 363:1 386:1 424:1 520:1 587:2 742:1 904:1 1102:1 1110:1 1234:1 1280:1 1486:2 1616:1 1709:1 1715:1 1719:1 1721:1 
1 10:1 12:2 15:1 30:1 33:1 44:1 49:2 50:1 54:2 63:1 64:1 69:1 70:1 79:1 85:1 111:1 136:1 139:1 170:1 210:2 246:1 264:1 271:1 289:1 311:1 319:1 375:1 416:1 473:1 537:1 587:1 781:1 798:1 828:1 1101:1 1102:1 1164:1 1218:1 1300:1 1623:1 1731:2 1804:1 
1 7:1 8:1 10:2 18:1 31:1 39:1 43:1 44:2 64:2 69:1 74:1 76:1 87:1 133:1 199:1 220:1 235:1 236:1 238:1 363:1 412:1 426:1 427:1 501:1 627:1 881:1 966:1 1035:1 1101:2 1102:2 1287:1 1321:1 1759:1 
1 1:2 2:2 7:1 15:1 21:2 62:1 69:1 84:1 110:1 146:1 170:1 210:1 554:2 575:1 587:1 694:1 904:1 1048:1 1066:1 1079:1 1170:1 1329:1 1385:1 1623:1 
1 4:1 5:1 7:1 9:4 10:2 13:1 15:1 28:1 41:1 42:1 51:1 59:2 64:2 69:1 97:2 101:1 111:2 130:1 134:1 156:1 162:1 170:1 178:1 256:1 312:2 374:1 422:1 424:1 447:1 520:2 587:1 591:1 742:1 748:1 857:1 951:2 1101:2 1151:2 1456:1 1486:1 1616:2 1622:1 1623:1 1804:2 1818:1 
1 7:2 13:1 15:3 22:1 29:1 42:1 59:1 60:1 68:2 130:1 156:1 248:1 251:1 266:2 270:1 292:1 300:1 520:1 587:3 742:1 766:1 1382:1 1456:1 1486:1 1616:1 1975:1 
1 7:2 9:2 10:1 13:1 15:1 18:1 23:2 31:2 33:1 47:2 59:1 63:1 64:1 69:1 70:1 75:1 91:1 92:1 100:1 107:2 114:1 129:1 136:1 156:1 173:1 199:2 207:1 234:1 239:1 282:1 284:1 375:1 520:1 587:1 639:1 849:1 871:1 881:1 887:1 1071:1 1101:1 1164:1 1440:1 1486:1 1590:1 1616:1 1843:1 1959:1 1997:1 
0.4064922559777559 12:1 13:2 15:3 42:1 43:1 44:2 50:1 54:1 55:1 61:1 62:1 63:1 69:1 87:1 111:2 136:1 139:1 156:2 187:1 214:1 262:1 271:1 272:1 335:1 365:1 374:1 580:1 587:3 594:1 681:1 742:1 946:1 966:1 1089:1 1102:2 1486:2 1538:1 1804:2 1991:1 
1 7:2 12:1 13:2 15:1 22:1 30:1 33:1 39:2 44:1 54:1 58:2 59:1 69:1 79:1 83:1 84:1 92:1 112:1 114:2 116:1 123:1 128:1 133:1 155:1 156:2 194:1 251:1 263:1 288:1 289:1 334:1 375:1 431:1 434:1 520:1 587:1 711:1 775:1 805:1 837:1 849:1 862:1 1079:1 1102:1 1133:1 1287:2 1486:2 1616:1 1918:1 
1 8:1 9:1 13:1 15:1 18:1 22:1 29:1 31:1 41:1 44:1 46:2 51:1 56:1 59:1 61:2 69:1 71:1 77:1 96:1 119:1 128:1 129:1 156:1 157:1 178:1 180:1 182:1 199:1 236:1 238:1 239:1 251:1 260:1 292:1 302:1 350:1 386:2 394:1 403:1 424:1 426:1 481:1 520:1 587:1 659:1 805:2 881:1 1102:1 1321:1 1336:1 1486:1 1616:1 1642:1 1791:1 1959:1 
1 7:2 8:1 10:3 12:1 13:1 18:1 23:1 29:1 30:1 33:1 43:4 47:1 49:1 51:2 54:1 56:2 59:2 62:1 64:3 66:1 69:1 79:1 87:4 101:1 105:1 122:1 126:1 144:1 148:1 156:1 157:2 178:2 184:1 196:1 206:1 238:1 263:1 292:1 344:1 369:1 375:1 447:1 520:2 662:1 881:1 1089:1 1101:3 1218:2 1438:1 1486:1 1573:1 1616:2 1651:1 1731:1 
1 1:5 2:4 3:1 5:1 6:3 7:1 8:3 9:1 10:1 11:2 13:1 21:1 22:2 26:1 41:1 64:1 99:1 110:1 156:1 175:1 238:3 251:2 367:1 421:2 424:1 654:1 1101:1 1170:1 1486:1 1719:1 1809:1 
1 7:2 8:1 9:2 10:2 13:2 15:2 18:2 31:1 47:1 64:2 66:1 69:1 70:1 74:1 92:2 97:1 156:2 199:1 202:1 216:1 238:1 367:1 587:2 601:1 631:1 813:1 822:1 849:2 850:1 881:2 951:1 1101:2 1164:1 1486:2 1759:1 
1 7:5 9:1 12:2 22:1 30:1 31:1 33:1 47:1 48:1 54:2 79:1 199:1 232:1 242:1 251:1 284:1 375:1 512:1 1135:1 1440:1 1592:1 
1 7:12 16:1 18:1 30:1 56:2 69:1 79:1 157:2 235:1 296:1 344:1 403:1 812:1 881:1 1103:1 1113:1 1791:1 
1 7:4 8:1 13:1 15:1 22:2 23:2 31:2 33:1 69:3 105:1 126:2 140:1 156:1 191:1 199:2 238:1 251:2 333:1 358:1 375:1 587:1 931:1 1153:1 1418:1 1486:1 1775:1 1888:1 
1 8:3 10:3 12:1 15:1 18:2 22:2 31:2 54:1 64:3 105:2 199:2 209:1 238:3 251:2 587:1 831:1 874:1 881:2 1101:3 
1 4:2 5:2 9:3 10:2 13:2 15:3 31:2 39:2 48:2 62:1 64:2 69:4 85:1 105:2 115:1 140:1 155:1 156:2 160:1 194:1 199:2 260:1 264:1 347:1 378:1 431:1 587:3 837:1 1101:2 1287:2 1336:1 1486:2 1592:2 1775:1 1918:1 
1 1:1 2:1 7:1 13:1 15:1 21:1 30:1 31:1 33:2 44:1 55:1 76:2 79:1 156:1 199:1 374:1 375:2 427:2 450:1 587:1 1102:1 1187:1 1486:1 1538:1 
1 7:2 8:3 9:1 10:1 12:6 13:2 15:2 23:2 29:1 39:1 47:1 51:1 54:6 56:1 62:1 64:1 66:1 69:1 70:1 114:1 126:1 156:2 157:1 178:1 223:1 238:3 241:1 262:1 270:1 292:1 344:1 432:1 587:2 619:1 701:1 751:1 1087:1 1101:1 1164:1 1287:1 1486:2 1905:1 
1 1:2 2:2 6:1 9:1 11:2 14:1 15:1 16:1 17:1 22:1 31:1 32:1 33:1 43:1 49:1 55:1 56:1 87:1 112:2 154:1 157:1 177:1 199:1 251:1 255:1 296:1 339:1 375:1 421:2 525:1 587:1 788:1 821:1 1060:1 1538:1 1731:1 
0.8417679896075586 7:1 9:4 15:2 23:5 29:3 30:2 31:1 39:1 44:1 47:1 51:1 57:2 69:2 75:1 79:2 85:1 88:1 90:1 107:1 178:1 183:1 190:1 197:2 199:1 202:1 264:1 274:1 292:3 454:1 587:2 601:1 719:1 775:1 893:1 901:1 1102:1 1287:1 1328:1 1589:1 1843:1 
1 7:6 12:5 13:5 23:1 31:2 33:1 41:1 51:1 54:5 56:1 63:1 69:1 91:1 110:1 111:2 118:1 126:1 136:1 154:1 156:5 157:1 178:1 199:2 212:1 230:1 263:2 298:1 375:1 424:1 639:1 1058:1 1089:1 1170:1 1486:5 1506:1 1677:1 1703:1 1789:1 1804:2 1979:1 
1 7:1 10:1 13:1 18:1 22:1 64:1 65:1 148:1 156:1 170:1 198:1 251:1 310:1 376:1 383:1 487:1 881:1 1101:1 1384:1 1486:1 1520:1 1573:1 1623:1 
1 1:1 2:1 3:3 4:2 5:3 6:1 7:1 8:2 13:3 19:1 29:1 38:1 41:1 46:2 81:1 94:1 115:1 156:3 205:2 238:2 292:1 367:1 386:2 406:1 424:1 1113:1 1353:1 1486:3 
1 7:1 13:1 28:1 30:1 47:1 48:1 49:1 55:1 79:1 84:2 143:1 145:1 148:1 156:1 255:1 275:1 338:1 489:1 593:1 883:1 1060:1 1079:2 1464:1 1486:1 1538:1 1573:1 1592:1 1731:1 
1 7:2 8:2 10:1 30:1 41:1 48:2 64:1 66:1 72:1 79:1 88:1 170:1 216:1 238:2 274:1 424:1 656:1 1101:1 1493:1 1592:2 1623:1 1709:1 
1 8:1 9:6 12:4 15:1 22:1 23:1 30:4 31:2 48:4 51:2 54:4 55:1 59:1 62:1 66:1 69:1 72:1 79:4 80:1 84:1 102:1 104:1 155:2 162:1 173:1 178:2 199:2 223:1 225:1 227:1 238:1 251:1 312:1 315:1 347:1 351:1 383:1 431:2 520:1 587:1 748:1 868:1 887:1 1079:1 1151:1 1314:1 1538:1 1566:1 1592:4 1616:1 1709:1 1980:1 
1 1:65 2:52 3:13 5:13 6:13 7:3 11:13 13:2 15:1 19:13 21:13 38:13 44:1 49:1 50:1 62:1 70:1 71:2 73:13 74:1 80:26 82:26 110:1 156:2 202:1 214:1 262:1 271:1 275:2 276:2 305:1 338:7 421:13 575:1 582:1 587:1 593:1 601:1 659:2 904:1 908:2 1055:2 1102:1 1164:1 1170:1 1486:2 1520:1 1584:1 1731:1 1759:1 
1 7:3 9:1 15:1 16:2 23:1 31:1 42:1 51:1 62:1 69:1 70:1 73:3 85:1 105:1 115:1 126:1 162:1 178:1 180:1 191:1 199:1 205:1 264:1 314:1 321:1 338:1 344:1 358:1 517:1 587:1 649:2 723:1 742:1 1164:1 
1 1:8 2:5 3:5 4:1 5:5 6:4 7:1 8:5 9:3 11:2 13:4 14:1 15:1 26:2 28:2 34:1 40:2 42:1 46:1 101:6 156:4 224:1 237:1 238:5 258:2 303:1 304:1 386:1 420:1 421:2 438:1 447:6 497:1 502:1 587:1 742:1 1486:4 
1 1:4 2:4 6:3 8:1 9:1 13:1 14:4 16:4 21:2 31:1 40:2 77:1 90:2 98:1 107:1 118:1 156:1 164:1 169:1 182:1 183:1 199:1 201:2 238:1 239:2 273:1 298:1 544:4 760:1 1127:1 1328:1 1486:1 1989:2 
1 7:2 10:4 13:2 29:1 41:1 48:1 50:2 64:4 69:4 96:1 104:1 105:1 112:1 120:1 123:1 130:1 151:1 156:2 165:1 207:1 271:2 292:1 348:1 351:1 424:1 433:1 486:1 672:1 676:1 923:1 946:1 987:1 1101:4 1456:1 1486:2 1592:1 1673:1 
1 1:4 2:3 3:1 5:1 6:2 7:1 8:4 9:5 10:1 11:2 15:1 26:1 39:2 41:1 48:1 51:1 57:1 64:1 71:1 83:1 84:1 110:2 130:1 134:1 162:1 169:1 178:1 188:1 197:1 238:4 239:1 312:1 421:2 424:1 568:1 587:1 652:1 659:1 683:1 731:1 776:1 946:1 1079:1 1101:1 1133:1 1140:1 1151:1 1170:2 1287:2 1456:1 1525:1 1592:1 1809:1 
1 15:1 28:1 58:1 587:1 
1 7:4 9:3 13:1 22:1 23:1 30:1 31:1 41:1 44:1 46:1 47:2 51:1 55:1 57:1 70:1 79:1 100:1 105:1 107:1 151:1 156:1 166:1 178:1 187:1 197:1 199:1 251:1 255:1 365:1 386:1 415:1 424:1 575:1 635:1 721:1 871:1 987:1 1060:1 1102:1 1164:1 1179:1 1486:1 1538:1 
1 4:1 5:1 7:4 8:1 10:1 12:1 13:1 15:1 23:1 29:1 30:2 47:1 54:1 61:1 64:1 65:1 68:2 69:1 72:2 78:2 79:2 83:1 84:1 88:2 156:1 219:1 238:1 240:2 242:1 274:2 292:1 364:1 455:1 487:1 521:1 587:1 654:1 909:1 938:1 1079:1 1101:1 1133:1 1486:1 1709:2 
1 9:3 29:1 31:2 39:2 49:1 58:2 77:1 97:1 160:1 182:1 199:2 226:1 292:1 319:1 332:1 355:1 414:1 712:1 781:1 837:1 951:1 1175:1 1287:2 1470:1 1611:1 1731:1 1946:1 
1 7:1 9:3 10:1 29:1 30:1 31:2 46:2 48:3 49:1 51:1 59:2 60:1 64:1 67:1 69:2 77:1 79:1 98:1 107:2 138:1 150:1 173:2 178:1 179:1 182:1 199:2 202:1 234:1 255:1 282:1 292:1 300:1 385:1 386:2 513:2 520:2 601:1 711:1 887:2 978:1 1060:1 1071:1 1089:1 1101:1 1222:2 1557:1 1592:3 1616:2 1731:1 1741:1 1996:1 
1 7:1 10:1 13:1 15:2 29:1 30:2 41:1 44:1 49:1 56:1 59:1 61:1 64:1 69:1 72:1 74:1 78:1 79:2 107:1 126:1 129:1 132:1 156:1 157:1 160:1 240:1 257:1 292:1 315:1 424:1 520:1 587:2 775:1 999:1 1022:1 1101:1 1102:1 1110:1 1123:1 1486:1 1519:1 1616:1 1709:1 1731:1 1759:1 1959:1 
0.9239337950604354 7:2 9:4 12:7 13:3 22:1 23:1 29:2 31:2 49:1 54:7 65:1 69:1 71:1 72:1 102:1 129:2 152:1 156:3 177:1 199:2 244:1 251:1 260:2 292:2 304:1 313:1 417:1 479:2 487:1 534:1 659:1 821:1 906:1 938:2 1088:1 1336:2 1461:1 1486:3 1565:1 1566:1 1645:1 1709:1 1731:1 1839:1 1959:2 
1 7:1 8:1 9:2 10:3 13:2 18:1 22:1 47:1 49:1 64:3 68:1 69:1 70:1 78:1 107:1 152:1 156:2 196:1 238:1 240:1 247:1 251:1 881:1 1068:1 1101:3 1113:1 1164:1 1340:1 1438:1 1486:2 1498:1 1731:1 
1 7:1 8:1 9:1 10:3 13:1 15:2 31:1 41:1 42:1 44:1 46:1 64:3 69:1 151:1 155:1 156:1 199:1 238:1 269:1 386:1 424:1 431:1 587:2 742:1 751:1 987:1 1101:3 1102:1 1486:1 1525:1 1893:1 1974:1 
0.02630326696085376 7:3 9:4 10:3 13:1 18:1 22:1 23:3 29:1 30:2 43:1 62:1 64:3 69:1 79:2 87:1 105:1 133:1 138:1 156:1 236:1 251:1 255:1 291:1 292:1 344:1 521:1 881:1 1027:1 1060:1 1101:3 1321:1 1340:1 1486:1 1993:1 1996:1 
1 7:2 8:1 9:3 10:2 12:2 13:1 18:2 29:1 30:1 39:1 41:1 42:1 44:1 49:1 54:2 57:1 62:1 64:2 69:2 71:1 79:1 129:1 152:1 155:1 156:1 162:2 197:1 202:1 238:1 275:1 292:1 344:1 424:1 431:1 434:2 467:1 549:1 567:1 601:1 659:1 701:1 742:1 881:2 1101:2 1102:1 1287:1 1486:1 1731:1 1959:1 
1 7:3 10:1 13:2 15:1 23:2 30:2 33:1 62:1 64:1 79:2 116:1 128:1 138:2 156:2 161:1 170:1 272:1 334:1 375:1 473:1 534:1 585:1 587:1 966:1 1101:1 1103:2 1474:1 1486:2 1557:1 1623:1 1996:2 
1 30:1 39:1 69:2 79:1 160:1 190:1 332:1 583:1 1191:1 1287:1 1396:1 1589:1 
1 7:3 10:2 13:1 15:3 16:1 29:1 41:2 49:1 58:1 63:1 64:2 68:1 93:1 104:1 119:2 136:1 156:1 223:1 234:1 249:1 292:1 344:1 351:1 397:2 404:1 424:2 587:3 614:1 672:1 787:1 1037:1 1101:2 1153:1 1486:1 1713:1 1731:1 
1 4:8 7:2 8:1 13:1 15:1 23:1 28:8 50:4 70:1 105:1 133:1 156:1 175:1 180:1 219:1 238:1 243:1 261:1 271:4 342:1 545:1 587:1 673:1 963:1 994:1 1164:1 1300:1 1486:1 1595:1 
1 7:1 10:2 13:1 15:1 23:2 29:3 30:2 33:1 43:2 48:1 51:1 64:2 69:1 74:2 79:2 87:2 146:1 148:1 149:1 151:1 155:1 156:1 161:2 178:1 223:1 224:1 230:1 272:1 292:3 293:2 375:1 431:1 474:1 481:1 587:1 721:1 987:1 1101:2 1236:1 1385:1 1486:1 1573:1 1590:1 1592:1 1703:1 1759:2 1971:1 
1 1:40 2:40 10:20 21:40 33:21 64:20 69:2 73:20 110:1 226:20 375:21 649:20 741:20 855:1 1101:20 1170:1 1945:40 
1 1:90 2:90 6:90 7:46 8:6 9:186 10:2 13:17 15:8 18:7 21:90 28:1 33:1 41:1 42:4 60:1 64:2 84:1 99:4 100:1 145:1 156:17 186:1 193:1 195:1 205:1 225:2 238:6 247:1 300:1 359:1 375:1 399:1 415:1 424:1 475:1 486:4 489:2 503:1 524:1 527:1 587:8 715:2 734:1 738:1 742:4 801:6 858:1 868:2 871:1 874:1 881:7 945:1 981:1 1054:2 1066:2 1079:1 1082:3 1101:2 1309:1 1316:1 1329:2 1468:1 1486:17 1605:1 1648:1 1719:4 1729:1 1832:2 1862:2 1864:1 1886:1 
1 7:2 8:4 9:3 10:3 13:1 18:1 22:2 23:1 33:1 46:3 47:3 63:1 64:3 69:1 100:1 107:1 136:1 147:2 156:1 164:1 177:1 210:1 238:4 251:2 255:1 273:1 375:1 385:1 386:3 563:1 578:1 641:1 821:1 871:1 881:1 933:1 972:1 1060:1 1101:3 1486:1 
1 7:1 10:1 13:1 18:1 29:1 31:1 41:1 47:1 63:1 64:1 69:2 70:1 99:1 100:1 136:1 156:1 199:1 218:1 229:1 234:1 241:1 261:1 275:1 292:1 364:1 376:1 424:1 444:1 619:1 637:1 651:1 683:1 747:1 871:1 881:1 1101:1 1164:1 1486:1 1649:1 1719:1 
1 1:8 2:7 3:1 6:7 7:5 8:5 9:2 10:6 11:4 13:3 15:1 18:2 21:2 22:3 23:1 26:1 29:1 33:3 39:2 41:1 42:1 48:1 63:1 64:6 91:3 99:1 105:1 110:1 116:1 120:1 133:1 134:1 136:1 145:1 156:3 163:2 180:1 204:1 238:5 239:1 246:1 251:3 268:1 285:1 292:1 305:1 334:1 353:1 375:3 389:1 399:1 411:1 421:4 424:1 457:1 494:3 514:1 587:1 639:3 742:1 744:3 806:1 881:2 908:1 975:1 1061:1 1071:1 1101:6 1162:1 1170:1 1287:2 1316:1 1353:1 1382:1 1486:3 1590:1 1592:1 1719:1 1898:2 
1 7:8 10:3 13:3 15:1 22:1 43:3 50:1 51:2 55:1 61:1 64:3 66:1 69:1 87:3 93:2 101:1 102:1 156:3 178:2 251:1 271:1 336:1 383:1 447:1 471:1 553:1 587:1 614:2 676:1 938:1 997:1 1010:1 1101:3 1112:1 1143:1 1300:2 1486:3 1538:1 1566:1 1815:1 
1 7:1 8:1 9:2 10:2 13:3 15:1 18:1 22:1 29:1 33:1 42:1 47:2 64:2 68:1 69:1 70:1 78:1 107:1 112:1 130:1 156:3 164:1 238:1 240:1 241:1 251:1 273:1 292:1 375:1 387:1 587:1 619:1 652:1 731:1 742:1 766:1 881:1 1101:2 1164:1 1196:1 1456:1 1486:3 1993:1 
1 8:2 9:3 10:2 13:4 15:2 18:1 22:1 31:2 47:1 64:2 66:1 69:1 70:1 122:1 123:1 126:1 133:1 156:4 163:1 180:1 199:2 238:2 251:1 286:3 400:1 517:1 587:2 817:1 881:1 1101:2 1164:1 1486:4 1651:1 1907:1 1917:1 
1 7:2 9:1 10:1 13:2 15:1 41:1 48:1 60:1 64:1 84:1 110:1 156:2 300:1 399:1 424:1 475:1 496:1 531:1 587:1 662:1 967:1 1079:1 1101:1 1170:1 1193:1 1316:1 1370:1 1486:2 1592:1 1605:1 1809:1 1832:1 
1 7:1 8:4 9:1 13:2 15:1 29:1 42:1 47:1 49:1 57:1 61:2 69:2 96:1 133:1 134:1 156:2 197:1 214:1 227:1 235:1 237:1 238:4 247:1 261:1 292:1 587:1 648:1 742:1 837:1 1162:1 1237:1 1486:2 1731:1 
1 7:3 8:2 9:5 10:3 13:2 15:2 18:1 22:1 23:2 31:1 33:1 42:1 47:1 48:1 61:1 63:2 64:3 69:1 88:1 107:1 136:2 156:2 164:1 199:1 238:2 251:1 273:1 274:1 321:1 375:1 496:1 587:2 638:1 742:1 750:1 751:1 838:1 881:1 1101:3 1193:1 1389:1 1486:2 1592:1 1612:1 1778:1 1869:2 
1 1:9 2:8 3:2 4:1 5:2 6:5 7:7 8:4 9:3 10:2 11:6 13:10 15:2 18:3 21:1 22:7 26:1 39:3 41:3 45:1 47:1 59:1 62:1 63:1 64:2 70:1 74:2 91:2 110:1 119:1 136:1 156:10 159:1 216:2 238:4 251:7 256:4 257:2 303:1 367:1 390:1 421:6 424:3 474:1 486:1 503:1 520:1 587:2 635:1 639:2 725:1 771:1 873:1 881:3 999:1 1101:2 1130:1 1132:1 1152:1 1154:1 1164:1 1170:1 1287:3 1309:1 1335:1 1345:1 1353:1 1368:1 1422:1 1452:1 1486:10 1519:2 1605:1 1616:1 1638:1 1665:1 1724:1 1759:2 1832:1 
1 1:7 2:7 10:11 21:7 33:12 64:11 69:1 73:11 110:1 226:11 375:12 649:11 741:11 855:1 1101:11 1170:1 1945:22 
1 9:1 10:6 13:3 15:1 23:2 30:1 43:1 60:1 64:6 69:1 71:1 79:1 87:1 100:1 126:1 151:1 156:3 185:1 207:1 234:1 253:1 300:1 333:1 399:1 501:1 587:1 659:1 871:1 987:1 1101:6 1316:1 1434:1 1486:3 1888:1 1927:1 
1 1:2 2:1 3:1 5:1 6:1 7:3 8:3 9:2 10:2 11:2 13:1 15:1 22:2 23:1 46:1 47:1 64:2 68:1 72:1 156:1 162:1 185:1 205:1 238:3 251:2 258:1 259:1 386:1 399:1 421:2 504:1 587:1 766:1 1051:1 1101:2 1316:1 1353:1 1486:1 1709:1 
1 7:1 8:2 9:3 10:1 13:1 23:1 46:1 64:1 69:1 71:1 152:1 156:1 238:2 290:1 386:1 401:1 441:1 474:1 659:1 1101:1 1486:1 
1 7:2 8:2 9:4 15:1 18:1 22:3 23:1 42:1 46:1 57:1 66:1 69:1 72:1 130:1 135:1 197:1 231:1 238:2 241:1 251:3 259:1 386:1 587:1 619:1 742:1 881:1 908:1 1162:1 1300:1 1456:1 1709:1 1725:1 
1 7:1 8:2 9:1 13:2 15:2 18:1 22:2 23:2 31:1 33:2 42:1 44:1 46:1 62:1 69:1 91:2 111:1 156:2 185:1 199:1 217:1 238:2 243:1 251:2 263:1 344:1 375:2 386:1 442:1 527:1 567:1 587:2 639:2 742:1 881:1 1087:1 1102:1 1486:2 1595:1 1603:1 1804:1 
1 7:8 10:2 15:1 18:1 47:1 48:2 49:1 56:1 64:2 69:1 105:4 120:1 130:1 157:1 170:1 227:1 315:1 422:1 428:1 537:1 587:1 617:1 881:1 1101:2 1387:2 1456:1 1557:2 1592:2 1623:1 1731:1 1840:1 
1 7:3 9:3 13:4 15:2 23:2 33:1 42:1 44:1 51:1 55:1 69:1 101:1 112:2 156:4 178:1 234:1 253:1 375:1 447:1 449:1 537:1 550:2 587:2 735:1 742:1 923:1 973:1 1102:1 1486:4 1538:1 1817:1 
1 7:1 8:2 9:3 10:1 13:1 23:1 46:1 64:1 69:1 71:1 152:1 156:1 238:2 290:1 386:1 401:1 441:1 474:1 659:1 1101:1 1486:1 
1 7:1 8:2 9:3 10:1 13:1 23:1 46:1 64:1 69:1 71:1 152:1 156:1 238:2 290:1 386:1 401:1 441:1 474:1 659:1 1101:1 1486:1 
1 12:1 13:1 15:1 22:2 23:2 31:4 42:1 47:1 54:1 55:1 62:2 65:1 69:1 107:1 149:1 150:1 156:1 173:1 199:4 239:1 251:2 270:1 285:1 289:1 305:1 332:1 341:1 449:1 487:1 587:1 695:1 701:1 721:1 742:1 887:1 1059:1 1179:1 1486:1 1538:1 1582:1 1971:1 
1 10:1 13:1 15:1 22:1 23:2 31:2 48:1 64:1 69:2 71:1 151:1 156:1 181:2 199:2 251:1 350:1 436:1 454:1 475:1 496:1 517:1 587:1 659:1 689:1 700:1 727:2 987:1 1101:1 1110:1 1193:1 1486:1 1592:1 1718:1 
1 7:2 8:3 13:1 15:1 18:1 22:1 23:1 29:1 30:1 41:1 47:2 69:1 71:2 76:1 79:1 98:1 105:1 155:1 156:1 168:1 217:1 238:3 251:1 266:1 292:1 364:1 424:1 427:1 431:1 434:1 436:1 587:1 644:2 659:2 700:1 881:1 903:1 1396:1 1486:1 
1 4:1 5:1 7:2 9:1 10:1 13:2 15:1 22:1 33:3 39:1 48:1 58:4 62:1 64:1 93:1 151:1 156:2 170:1 251:1 375:3 587:1 614:1 769:1 987:1 1101:1 1287:1 1300:1 1486:2 1592:1 1623:1 1655:1 
1 7:2 8:1 10:5 13:1 23:1 41:1 64:5 69:1 75:1 156:1 177:1 207:1 238:1 244:1 246:1 338:1 343:1 424:1 440:1 519:1 528:1 583:1 594:1 732:1 821:1 870:1 940:1 1101:5 1486:1 1843:1 1991:1 
0.6963401458030793 7:1 13:1 15:2 22:1 31:1 62:1 69:1 71:1 84:1 100:1 112:1 114:2 156:1 163:1 164:1 168:1 199:1 214:1 219:1 226:1 251:1 273:1 419:1 587:2 617:1 644:1 659:1 871:1 1079:1 1184:1 1486:1 1515:1 1625:1 1768:1 
1 1:2 2:1 3:1 5:1 6:1 7:8 8:2 13:1 15:4 23:4 30:1 31:1 39:1 40:2 44:1 47:1 49:1 59:2 60:5 61:1 66:1 70:1 75:1 79:1 110:1 116:1 129:2 143:1 149:1 156:1 166:1 169:1 188:1 199:1 223:1 229:1 238:2 258:1 282:2 300:5 305:1 334:1 362:1 365:1 397:1 403:1 422:1 520:2 587:4 697:1 734:1 867:2 966:2 1061:1 1102:1 1164:1 1170:1 1287:1 1445:1 1464:1 1486:1 1616:2 1649:1 1731:1 1791:1 1843:1 1959:2 1971:1 
0.5157001248487273 7:1 9:1 10:2 13:1 15:1 23:2 29:1 31:1 49:2 64:2 69:2 70:1 99:1 105:1 107:2 118:1 140:2 156:1 166:1 199:1 282:1 292:1 298:1 412:1 587:1 904:1 989:1 1046:1 1101:2 1149:1 1164:1 1297:1 1486:1 1626:1 1719:1 1731:2 1775:2 1814:1 
1 1:5 2:4 3:1 5:1 6:3 7:1 8:3 11:2 13:1 15:1 21:1 22:1 26:1 33:1 46:1 49:1 99:1 107:1 110:1 156:1 159:1 225:1 238:3 239:1 251:1 375:1 386:1 406:1 421:2 569:1 586:1 587:1 868:1 1071:1 1170:1 1486:1 1520:1 1638:1 1719:1 1731:1 
0.3660401076350129 7:3 9:2 23:2 29:1 31:1 39:1 41:2 69:1 70:1 119:1 123:1 179:1 185:1 199:1 205:1 234:1 255:1 292:1 424:2 478:1 517:1 749:1 1023:1 1060:1 1164:1 1287:1 1365:1 1741:1 1882:1 1993:2 
1 7:1 8:2 10:3 12:1 18:1 22:2 23:1 33:1 39:1 41:1 51:1 54:1 58:1 62:1 63:1 64:3 69:1 90:1 98:1 119:1 130:1 136:1 140:1 143:1 178:1 198:1 238:2 251:2 375:1 424:1 817:1 852:1 881:1 1087:1 1089:1 1101:3 1287:1 1456:1 1464:1 1775:1 1893:1 
1 7:1 8:3 12:3 13:1 22:1 30:2 31:1 39:1 46:1 48:1 54:3 60:1 69:1 70:1 74:1 79:2 114:1 156:1 168:2 199:1 238:3 251:1 269:1 300:1 344:1 386:1 443:1 1164:1 1287:1 1486:1 1592:1 1759:1 1903:1 
1 8:3 9:8 10:1 15:1 33:10 48:1 59:1 61:1 64:1 69:1 196:1 238:3 310:1 375:10 520:1 587:1 654:1 1043:1 1084:1 1089:1 1101:1 1239:1 1438:1 1592:1 1616:1 1958:1 
1 7:1 8:3 9:2 10:2 13:1 43:1 46:1 47:1 51:1 55:1 58:1 64:2 69:1 84:1 87:1 126:1 149:1 156:1 178:1 187:1 196:1 235:1 238:3 364:1 365:1 386:1 436:1 441:1 444:1 725:1 1079:1 1101:2 1438:1 1486:1 1538:1 1971:1 
1 8:1 9:1 10:3 13:1 14:1 15:1 18:3 23:1 29:1 39:1 46:3 47:2 64:3 69:1 70:1 75:1 104:1 156:1 207:1 222:1 223:1 238:1 292:1 296:1 318:1 328:1 351:1 386:3 517:1 587:1 721:1 881:3 1101:3 1164:1 1287:1 1486:1 1522:1 1718:2 1843:1 
0.7648975127238203 7:1 9:1 10:4 13:1 18:2 22:1 33:1 39:1 64:4 69:1 72:1 119:1 135:1 156:1 159:1 251:1 375:1 387:1 683:1 881:2 1071:1 1101:4 1287:1 1460:1 1486:1 1638:1 1709:1 1725:1 
1 7:3 8:3 9:3 10:3 13:4 15:2 18:1 22:1 23:1 33:1 51:1 64:3 66:1 69:1 75:1 78:2 92:1 104:1 105:1 122:3 126:1 143:1 145:1 156:4 177:1 178:1 211:1 215:1 238:3 240:2 251:1 318:1 351:1 375:1 506:1 517:1 555:1 587:2 632:1 661:1 769:1 821:1 849:1 881:1 1101:3 1464:1 1486:4 1520:1 1651:3 1843:1 1950:1 
1 7:1 9:2 10:3 13:1 15:1 18:2 22:1 39:1 50:1 61:1 64:3 65:1 69:1 83:1 92:1 104:1 146:1 152:1 156:1 214:1 251:1 271:1 278:1 351:1 487:1 587:1 849:1 881:2 1101:3 1113:1 1133:1 1287:1 1385:1 1486:1 
1 7:3 8:1 9:2 10:2 18:1 29:2 30:1 31:1 33:2 47:2 62:1 64:2 69:1 70:1 75:1 79:1 183:1 199:1 238:1 292:2 325:1 375:2 474:1 531:1 701:1 881:1 925:1 1101:2 1164:1 1328:1 1843:1 
1 7:2 8:2 9:1 10:2 13:1 15:1 18:1 47:1 62:1 64:2 69:1 70:1 78:2 105:1 106:1 156:1 216:1 238:2 240:2 280:1 399:1 506:1 587:1 667:1 881:1 1101:2 1158:1 1164:1 1316:1 1326:1 1486:1 1749:1 1846:1 
1 7:1 8:1 10:2 13:1 33:1 41:2 46:1 49:1 59:1 64:2 65:1 107:1 156:1 238:1 239:1 285:1 375:1 386:1 424:2 487:1 520:1 568:1 1101:2 1194:1 1353:1 1486:1 1616:1 1731:1 
1 7:2 8:1 10:2 12:2 13:1 15:1 16:1 43:4 47:1 51:1 54:2 57:1 64:2 68:1 87:4 104:1 112:1 116:1 122:1 156:1 173:1 178:1 190:1 191:1 197:1 214:1 238:1 247:2 283:1 334:1 351:1 354:1 358:1 387:1 566:1 587:1 772:1 782:1 837:1 887:1 1089:1 1101:2 1191:1 1227:1 1254:1 1300:1 1486:1 1533:1 1589:1 1651:1 
1 10:2 13:2 18:2 31:2 47:1 48:1 51:1 58:3 64:2 69:1 91:2 107:1 142:1 156:2 178:1 199:2 416:1 440:1 576:1 615:1 639:2 714:1 881:2 1058:1 1101:2 1143:1 1486:2 1592:1 1695:1 
1 7:1 13:3 15:1 31:1 42:1 50:2 56:1 59:1 62:1 63:1 69:3 70:1 91:1 92:1 105:1 111:3 122:1 134:1 136:1 139:1 148:1 156:3 157:1 165:1 189:1 192:1 199:1 261:1 271:2 520:1 587:1 639:1 718:1 742:1 849:1 1115:1 1164:1 1412:1 1486:3 1573:1 1616:1 1651:1 1804:3 
1 7:4 8:2 9:1 10:3 13:2 33:1 41:1 47:1 48:1 59:1 64:3 74:1 115:1 146:1 151:1 156:2 179:1 183:1 212:1 220:1 238:2 247:1 294:1 369:1 375:1 403:1 424:1 520:1 717:1 847:1 987:1 1101:3 1328:1 1385:1 1486:2 1592:1 1616:1 1741:1 1759:1 1791:1 1835:1 
1 7:3 10:1 13:4 15:1 18:1 30:1 31:1 46:2 64:1 66:1 67:1 68:2 69:1 78:1 79:1 97:1 146:1 151:1 156:4 189:1 199:1 240:1 244:1 386:2 587:1 613:1 881:1 941:1 951:1 978:1 987:1 1101:1 1120:1 1227:1 1385:1 1486:4 1663:1 1774:1 
1 13:6 15:1 31:3 69:1 107:1 156:6 199:3 587:1 767:1 1014:1 1187:1 1486:6 
1 7:4 8:2 9:1 13:1 23:3 30:1 42:1 47:1 51:1 55:1 60:1 62:1 66:1 69:1 79:1 99:1 104:1 140:1 156:1 161:1 178:1 185:1 238:2 300:1 335:1 351:1 434:3 449:1 701:1 742:1 840:1 1062:1 1226:1 1486:1 1538:1 1719:1 1775:1 
0.7291330230185934 4:1 5:2 7:1 9:1 10:4 13:1 22:1 23:2 28:1 29:1 30:1 31:1 33:1 39:1 41:4 42:1 44:1 46:1 47:2 64:4 66:2 68:1 69:1 77:2 78:1 79:1 99:2 101:1 107:2 119:1 130:1 132:1 156:1 164:1 175:1 182:2 199:1 240:1 251:1 273:1 292:1 306:1 375:1 386:1 419:1 424:4 447:1 652:2 742:1 818:1 878:1 1101:4 1102:1 1123:1 1128:1 1287:1 1353:1 1443:1 1456:1 1486:1 1719:2 1780:1 1838:1 1910:1 
1 9:2 10:1 12:1 13:1 15:1 30:2 31:1 41:1 47:1 49:1 51:2 54:1 64:1 69:1 75:1 79:2 83:1 97:1 98:1 101:1 116:1 126:1 151:1 156:1 164:1 178:2 199:1 200:1 223:1 253:1 273:1 314:1 334:1 404:1 424:1 447:1 550:2 587:1 765:1 788:1 951:1 987:1 1009:1 1101:1 1133:1 1237:1 1418:1 1486:1 1731:1 1843:1 1911:1 
1 5:1 9:1 10:1 13:2 14:1 15:1 39:2 42:1 43:2 55:1 61:1 64:1 69:1 82:1 85:1 87:2 102:1 104:1 138:1 148:1 151:1 156:2 209:2 236:1 264:1 321:1 351:1 422:1 587:1 667:1 742:1 847:1 883:1 987:1 1037:1 1101:1 1287:2 1321:1 1486:2 1538:1 1566:1 1573:1 1840:1 1996:1 
1 1:3 2:3 3:2 4:1 5:2 7:2 8:1 9:1 10:3 13:3 21:2 22:1 26:1 36:1 37:1 41:1 48:1 50:1 57:1 64:3 65:1 96:1 156:3 161:2 197:1 201:1 202:1 212:1 238:1 251:1 271:1 424:1 487:1 517:1 559:1 601:1 731:1 924:1 983:1 1101:3 1486:3 1592:1 1769:1 1989:1 
1 7:2 8:1 9:3 10:5 13:1 15:2 22:1 23:2 33:1 41:1 44:1 47:1 50:1 57:1 64:5 69:2 88:1 96:1 112:1 126:1 139:1 148:1 149:1 156:1 197:1 225:1 238:1 251:1 271:1 274:1 374:1 375:1 424:1 587:2 656:1 868:1 1101:5 1102:1 1486:1 1573:1 1971:1 
1 7:2 10:5 13:3 15:1 18:1 23:1 42:1 63:1 64:5 66:1 69:2 74:1 126:1 136:1 146:1 151:1 156:3 241:1 330:1 429:1 522:1 587:1 619:1 627:1 742:1 772:1 881:1 987:1 1089:1 1101:5 1385:1 1486:3 1583:1 1584:1 1637:1 1759:1 
1 7:2 9:2 13:3 18:1 22:2 41:1 42:1 48:1 68:1 110:1 156:3 159:1 251:2 406:1 424:1 489:1 713:1 742:1 881:1 1170:1 1270:1 1486:3 1592:1 1638:1 1809:1 1816:1 
0.09851068990860264 7:3 10:2 13:1 15:1 18:1 23:2 30:1 31:1 41:1 44:1 47:1 50:1 56:1 57:1 64:2 69:1 75:2 76:2 79:1 92:1 128:1 156:1 157:1 173:2 188:1 197:1 199:1 201:1 257:1 271:1 344:1 418:1 424:1 427:2 432:1 587:1 849:1 881:1 887:2 917:1 1101:2 1102:1 1179:1 1229:1 1486:1 1519:1 1843:2 1989:1 
1 7:1 8:1 9:4 10:1 12:1 13:1 15:1 23:1 33:2 46:1 48:3 50:1 54:1 56:1 59:1 63:1 64:1 69:1 71:2 111:1 117:1 136:1 156:1 157:1 161:1 212:1 238:1 262:1 269:1 271:1 279:1 323:1 344:1 375:2 386:1 517:1 518:1 520:1 587:1 659:2 669:1 1101:1 1119:1 1186:1 1486:1 1592:3 1616:1 1804:1 
1 1:3 2:3 3:4 4:3 5:4 6:2 7:1 8:3 9:1 13:2 18:1 19:1 20:1 22:1 38:1 39:1 40:2 63:1 94:1 133:1 136:1 156:2 158:1 164:1 175:1 194:1 205:1 225:1 238:3 251:1 273:1 275:1 286:1 603:1 671:1 673:1 801:1 868:1 881:1 1287:1 1353:1 1486:2 1813:1 1819:1 1918:1 
1 7:2 13:2 15:1 41:1 69:1 72:1 85:1 114:1 135:1 138:2 156:2 264:1 282:1 424:1 587:1 732:1 799:1 938:2 1458:1 1486:2 1709:1 1725:1 1996:2 
1 7:3 9:2 10:1 13:4 15:2 23:1 51:1 55:1 64:1 68:1 78:1 132:1 134:1 135:1 149:1 152:1 156:4 165:1 178:1 185:1 240:1 287:1 587:2 676:1 686:1 1101:1 1109:1 1112:1 1123:1 1196:1 1314:1 1486:4 1538:1 1725:1 1971:1 
1 7:3 8:2 9:2 12:1 22:1 23:1 30:2 47:1 51:1 54:1 55:1 57:1 62:1 79:2 101:1 163:1 178:1 197:1 238:2 251:1 259:1 337:1 339:1 434:1 447:1 701:1 823:1 840:1 1117:1 1395:1 1538:1 1564:1 
1 7:4 13:1 15:1 18:1 23:2 31:1 33:1 42:1 43:1 44:2 66:1 69:1 71:1 72:1 85:1 87:1 92:1 98:1 111:1 134:1 156:1 173:1 199:1 225:1 250:3 264:1 375:1 428:2 583:1 587:1 659:1 742:1 837:1 849:1 868:1 881:1 887:1 1033:1 1102:2 1486:1 1620:1 1709:1 1804:1 
1 4:1 5:1 7:1 8:2 9:1 18:1 22:1 28:1 30:2 41:1 51:1 63:1 67:1 69:1 79:2 111:1 122:1 136:1 178:1 207:2 222:1 238:2 246:1 251:1 424:1 599:1 881:1 936:1 978:1 1353:1 1651:1 1804:1 
1 7:2 13:1 23:1 31:1 39:1 42:1 46:1 49:1 69:1 72:1 83:1 85:1 105:1 114:1 129:1 142:1 151:1 156:1 160:1 199:1 239:1 255:1 264:1 285:1 338:2 386:1 517:1 615:1 742:1 775:1 952:1 987:1 1060:1 1110:1 1133:1 1287:1 1486:1 1709:1 1731:1 1959:1 
1 9:3 13:2 30:3 33:1 41:1 43:2 46:1 48:2 58:2 69:1 71:1 72:1 79:3 87:2 105:2 122:2 123:1 126:1 152:1 156:2 179:1 227:1 234:1 366:2 375:1 386:1 424:1 509:1 565:1 659:1 767:1 771:1 837:1 1000:1 1127:2 1278:2 1314:1 1486:2 1592:2 1637:1 1651:2 1709:1 1741:1 1845:1 
1 1:5 2:4 3:1 5:1 6:3 7:1 8:2 11:2 13:1 18:1 21:1 26:1 48:1 110:1 111:1 119:1 147:1 156:1 164:1 185:1 238:2 273:1 421:2 486:1 652:1 881:1 1170:1 1486:1 1592:1 1804:1 
1 7:1 8:1 9:2 10:1 18:1 29:1 33:1 39:1 51:1 56:1 64:1 66:1 68:1 69:4 92:1 119:1 138:1 139:1 149:1 157:1 161:1 163:1 178:1 188:1 223:1 235:1 238:1 292:1 319:1 333:1 344:1 375:1 391:1 411:1 523:1 781:1 849:1 881:1 1101:1 1179:1 1217:1 1287:1 1631:1 1888:1 1971:1 1996:1 
0.7893546637342119 7:1 8:1 10:2 13:2 22:1 23:1 30:2 42:1 55:1 58:2 64:2 79:2 89:1 128:1 130:1 133:1 134:1 156:2 187:1 238:1 251:1 363:1 742:1 1101:2 1456:1 1486:2 1538:1 1663:1 1762:1 
1 7:3 8:3 10:1 13:2 15:3 31:1 41:1 47:1 64:1 66:1 69:1 78:1 112:1 134:1 156:2 183:1 199:1 209:1 238:3 240:1 253:1 270:1 328:1 424:1 473:1 587:3 641:1 731:1 1101:1 1328:1 1486:2 
1 7:1 8:2 9:1 10:4 13:1 15:1 18:3 22:2 41:1 48:1 64:4 68:2 69:1 76:1 100:1 145:1 156:1 196:1 238:2 251:2 270:1 305:1 424:1 427:1 573:1 587:1 667:1 871:1 881:3 1101:4 1188:1 1262:1 1353:1 1438:1 1486:1 1592:1 1915:1 
1 4:1 5:2 7:1 9:3 10:1 15:1 23:2 44:1 50:1 55:1 56:3 64:1 69:1 88:2 157:3 219:2 271:1 274:2 328:3 335:2 587:1 923:1 1101:1 1102:1 1398:1 1538:1 
1 7:1 8:1 9:1 15:6 31:2 33:1 41:1 44:3 48:1 59:1 61:1 69:1 72:1 101:1 105:1 162:1 163:1 170:1 177:2 199:2 223:1 238:1 278:1 307:1 310:1 375:1 383:1 424:1 443:1 447:1 482:1 520:1 587:6 821:2 1102:3 1300:1 1358:1 1592:1 1616:1 1620:1 1623:1 1709:1 1756:1 1818:1 
1 7:2 9:1 10:3 13:1 18:2 22:2 41:1 46:2 48:1 64:3 68:1 156:1 251:2 256:1 338:1 386:2 424:1 475:1 496:1 531:1 575:1 596:1 881:2 1101:3 1166:1 1193:1 1486:1 1592:1 1809:1 
1 8:2 9:3 10:2 15:1 31:1 33:1 42:1 46:1 47:1 49:1 59:1 64:2 65:1 68:1 69:2 85:1 98:1 106:1 107:2 112:1 169:1 199:1 202:1 238:2 264:1 375:1 386:1 487:1 520:1 587:1 594:1 601:1 644:1 656:2 742:1 969:1 1101:2 1616:1 1731:1 1846:1 1991:1 
1 8:1 10:1 13:3 15:2 23:2 29:1 30:2 49:1 51:1 57:1 60:1 62:1 64:1 69:1 72:1 79:2 85:1 99:1 138:1 151:1 156:3 178:1 197:1 223:1 238:1 244:1 264:1 285:1 292:1 300:1 409:1 587:2 767:1 966:2 987:1 1065:1 1101:1 1486:3 1606:1 1709:1 1719:1 1731:1 1996:1 
1 7:3 8:2 9:4 10:1 12:5 22:2 23:1 30:1 31:1 33:1 39:1 49:1 54:5 55:1 56:1 64:1 79:1 107:1 138:1 148:1 154:1 157:1 187:1 199:1 238:2 246:1 251:2 260:1 308:1 363:1 375:1 478:1 583:1 593:1 594:1 606:1 966:1 1101:1 1287:1 1336:1 1538:1 1554:1 1573:1 1586:1 1731:1 1809:1 1991:1 1996:1 
1 7:4 9:1 13:1 23:1 30:2 41:1 42:2 43:1 56:1 62:1 79:2 87:1 91:1 92:1 126:1 156:1 157:1 165:1 202:1 228:1 231:1 289:1 340:1 424:1 555:1 601:1 630:1 639:1 742:2 849:1 1408:1 1486:1 1869:1 1892:1 
1 7:3 9:1 10:2 13:1 15:5 29:1 30:1 43:1 47:1 55:2 56:1 64:2 69:1 75:1 76:1 79:1 83:1 87:1 88:1 96:1 126:1 134:1 152:1 156:1 157:1 160:1 274:1 292:1 339:2 344:1 427:1 565:1 587:5 801:1 938:2 1101:2 1133:1 1156:1 1486:1 1538:2 1843:1 
1 7:2 10:2 13:1 22:1 39:1 46:1 64:2 68:1 156:1 196:1 251:1 386:1 1101:2 1287:1 1438:1 1486:1 
1 7:1 8:3 10:1 13:1 18:1 23:3 33:1 41:1 47:2 50:1 55:1 64:1 69:1 76:1 128:1 130:1 132:1 135:1 140:1 156:1 185:1 187:1 238:3 266:1 271:1 288:1 375:1 424:1 427:1 816:1 881:1 1101:1 1123:1 1456:1 1486:1 1538:1 1725:1 1775:1 1884:1 
1 7:1 10:1 13:3 15:3 18:1 23:2 29:1 30:1 39:1 46:1 47:1 49:1 50:3 64:1 65:1 69:1 70:1 79:1 90:1 101:1 111:1 115:1 129:1 134:1 143:1 156:3 200:1 202:1 255:1 271:3 284:1 292:1 308:1 327:1 344:1 345:1 386:1 447:1 487:1 587:3 601:1 881:1 1060:1 1082:1 1101:1 1127:1 1132:1 1164:1 1179:1 1287:1 1440:1 1464:1 1486:3 1731:1 1804:1 1882:1 1911:1 1959:1 
1 7:3 8:1 10:3 13:2 28:1 29:1 43:2 46:2 47:1 50:1 59:1 64:3 68:1 69:2 70:1 87:2 133:1 142:1 156:2 183:1 191:1 238:1 261:1 271:1 291:1 292:1 358:1 386:2 411:1 432:1 446:1 454:1 484:1 520:1 550:1 577:1 615:1 837:1 1101:3 1164:1 1328:1 1486:2 1616:1 
1 7:4 8:1 12:1 15:1 22:1 29:1 30:1 39:1 44:1 47:1 51:1 54:1 56:1 58:2 62:1 66:1 68:1 69:1 74:1 79:1 88:2 101:2 102:1 132:1 134:1 140:1 157:1 178:1 202:1 238:1 251:1 256:1 274:2 292:1 306:1 447:2 496:1 512:1 526:1 587:1 601:1 1102:1 1123:1 1193:1 1287:1 1566:1 1759:1 1775:1 1821:1 1882:1 
1 7:2 8:2 9:2 12:1 13:2 18:1 30:1 31:1 47:1 54:1 69:1 79:1 83:1 92:1 114:1 122:1 133:2 140:1 156:2 177:1 185:1 199:1 238:2 281:2 434:1 806:1 821:1 836:1 849:1 860:1 881:1 1133:1 1154:1 1486:2 1651:1 1775:1 
1 7:3 9:3 15:2 22:1 31:1 46:1 48:1 50:1 63:1 69:1 96:1 111:1 126:2 136:1 149:1 161:1 188:1 199:1 237:1 251:1 271:1 308:1 386:1 587:2 653:1 1050:1 1176:1 1393:1 1592:1 1804:1 1971:1 
1 1:4 2:3 3:1 5:1 6:2 7:1 8:3 10:1 11:2 13:3 15:1 22:1 26:1 55:1 64:1 66:1 67:1 69:1 72:1 77:1 82:1 106:1 110:1 126:1 156:3 164:1 182:1 187:1 188:1 238:3 251:1 273:1 307:1 308:1 323:1 342:1 421:2 545:1 587:1 978:1 1101:1 1170:1 1486:3 1538:1 1709:1 1846:1 1869:1 
1 7:1 8:4 13:2 23:3 30:3 41:1 42:1 56:2 65:1 69:1 71:1 72:1 78:1 79:3 104:1 105:1 114:1 126:1 150:1 156:2 157:2 190:1 223:2 228:1 238:4 240:1 247:1 296:1 344:2 351:1 424:1 487:1 659:1 674:1 742:1 1486:2 1589:1 1709:1 
1 7:4 9:1 10:1 13:1 15:2 23:1 30:1 42:1 48:1 49:1 51:1 64:1 66:1 79:1 83:1 92:1 105:1 129:1 138:1 156:1 160:1 162:1 178:1 235:1 460:1 481:1 587:2 730:1 742:1 849:1 909:1 1101:1 1133:1 1486:1 1592:1 1731:1 1869:1 1959:1 1996:1 
1 7:2 8:1 9:1 13:1 22:1 23:3 39:1 46:2 47:1 69:1 135:1 156:1 234:1 238:1 251:1 364:1 386:2 853:1 961:1 1239:1 1287:1 1365:2 1486:1 1725:1 
1 4:1 5:1 7:3 10:2 13:1 15:2 23:1 29:1 39:2 41:1 42:1 44:2 46:2 50:1 64:2 69:1 83:1 85:1 104:1 105:1 142:1 156:1 160:1 189:1 235:1 264:1 271:1 292:1 345:1 351:1 363:1 386:2 409:1 424:1 434:1 587:2 615:1 742:1 1089:1 1101:2 1102:2 1133:1 1287:2 1486:1 1515:1 1557:1 
1 7:4 9:3 10:3 13:2 22:1 39:4 47:1 48:1 64:3 65:1 68:1 71:1 76:1 90:1 107:1 119:2 148:1 156:2 161:1 251:1 387:1 427:1 487:1 560:1 584:1 659:1 685:2 1087:1 1101:3 1287:4 1486:2 1573:1 1592:1 
1 8:1 10:1 13:2 18:1 30:2 31:1 33:1 39:2 41:1 42:1 56:3 57:1 59:1 64:1 69:2 79:2 84:1 90:1 97:1 129:2 156:2 157:3 173:1 197:1 199:1 235:1 238:1 310:1 319:1 375:1 424:1 481:1 486:1 520:1 613:1 713:1 721:1 742:1 781:1 880:1 881:1 887:1 951:1 969:1 1079:1 1101:1 1287:2 1486:2 1616:1 1959:2 
1 7:1 8:1 13:1 22:2 29:1 30:3 31:2 39:4 41:1 44:2 49:1 51:1 55:1 56:1 69:1 79:3 84:1 114:1 128:1 129:1 132:2 154:1 155:1 156:1 157:1 160:1 166:1 178:1 194:1 199:2 200:1 203:1 238:1 251:2 292:1 340:1 424:1 431:1 611:1 656:1 772:1 1079:1 1102:2 1123:2 1287:4 1317:1 1486:1 1538:1 1628:1 1731:1 1911:1 1918:1 1959:1 
1 7:2 8:1 9:2 10:3 18:1 22:1 33:1 42:1 43:1 47:2 59:1 64:3 69:1 87:1 107:1 110:1 228:1 238:1 248:1 251:1 257:1 266:1 375:1 426:1 441:1 456:1 520:1 612:1 742:1 837:3 881:1 1101:3 1170:1 1488:1 1519:1 1616:1 1975:1 
1 4:7 8:1 13:1 15:1 23:1 28:8 50:3 55:1 69:1 88:1 105:1 133:1 156:1 175:1 219:1 228:1 238:1 243:1 271:3 274:1 342:1 545:1 587:1 963:1 994:1 1300:1 1398:1 1486:1 1538:1 1595:1 
0.8150072296038017 7:2 8:2 10:1 12:6 13:2 15:1 18:2 22:1 39:1 47:4 54:6 55:1 64:1 69:1 75:1 76:1 85:1 99:1 101:1 102:1 114:1 138:1 156:2 167:1 227:2 232:1 238:2 251:1 264:1 322:1 340:1 389:1 427:1 447:1 587:1 625:1 656:1 881:2 1101:1 1287:1 1486:2 1538:1 1554:1 1566:1 1719:1 1843:1 1996:1 
1 7:4 8:1 13:4 23:3 30:3 39:1 41:1 42:1 47:1 60:1 63:1 67:1 69:1 79:3 88:1 100:1 136:1 142:1 156:4 190:1 237:1 238:1 274:1 300:1 424:1 597:1 615:1 732:3 742:1 751:1 871:1 978:1 1083:1 1287:1 1486:4 1589:1 
1 7:1 9:1 10:2 13:2 15:1 30:2 31:1 48:1 58:1 64:2 69:2 70:1 71:1 79:2 105:1 122:1 138:1 151:1 156:2 179:1 180:1 194:1 199:1 587:1 659:1 732:1 741:1 752:1 826:1 853:1 987:1 1025:1 1101:2 1164:1 1300:1 1486:2 1592:1 1651:1 1741:1 1918:1 1996:1 
1 7:1 8:1 9:3 13:1 15:1 29:1 30:1 42:1 55:1 60:1 69:1 79:1 97:1 105:1 132:1 156:1 166:1 173:1 187:1 238:1 244:1 292:1 300:1 315:1 465:1 511:1 587:1 742:1 755:1 887:1 894:1 951:1 1123:1 1486:1 1538:1 
1 4:1 5:1 7:3 8:1 9:2 10:1 12:3 18:2 22:1 29:1 30:1 33:1 39:2 41:2 44:1 47:2 51:1 54:3 57:1 62:1 64:1 69:1 76:1 78:1 79:1 145:1 178:1 197:1 202:1 217:1 238:1 240:1 251:1 292:1 375:1 424:2 427:1 512:1 601:1 881:2 906:1 938:1 1033:1 1101:1 1102:1 1287:2 1306:1 1461:1 1645:1 1744:1 
1 7:2 10:2 13:2 22:2 23:1 31:1 39:1 46:1 47:2 64:2 69:1 76:1 110:1 114:1 117:2 119:2 144:1 156:2 161:1 163:1 184:1 188:1 196:1 199:1 207:1 251:2 275:1 386:1 427:1 537:1 1101:2 1119:2 1143:1 1170:1 1287:1 1438:1 1486:2 
1 7:5 8:2 9:1 10:1 15:1 29:1 46:2 64:1 65:1 71:1 75:2 90:1 117:1 118:1 216:1 238:2 278:1 292:1 298:1 383:1 386:2 397:1 487:1 587:1 659:1 1101:1 1119:1 1843:2 
0.03951802625005021 7:5 8:2 10:1 13:1 15:2 18:1 23:3 42:1 59:2 61:1 64:1 97:1 140:1 142:1 156:1 160:1 222:1 238:2 250:2 347:1 429:1 434:1 520:2 523:1 585:2 587:2 606:1 615:1 735:1 742:1 881:1 951:1 1101:1 1486:1 1616:2 1775:1 
1 7:3 9:1 10:2 13:2 18:1 23:2 31:1 41:2 44:1 47:2 48:1 62:1 64:2 69:1 70:1 76:1 77:1 119:1 123:2 135:1 155:1 156:2 164:1 180:1 182:1 199:1 220:1 268:1 273:1 354:1 424:2 427:1 431:1 496:1 513:1 582:1 881:1 1101:2 1102:1 1164:1 1193:1 1222:1 1486:2 1592:1 1725:1 
1 7:1 9:1 10:1 13:2 15:1 31:1 42:1 50:1 62:1 64:1 68:2 134:1 151:1 156:2 159:1 170:1 183:1 199:1 202:2 232:1 271:1 587:1 601:2 742:1 926:1 938:1 987:1 1101:1 1328:1 1486:2 1623:1 1638:1 
0.3619124795277567 1:107 2:107 6:107 7:56 8:10 9:222 10:2 13:15 15:15 18:16 21:107 22:1 28:1 41:5 42:2 46:1 64:2 84:1 99:3 100:4 145:1 156:15 186:1 193:1 195:1 205:1 238:10 247:1 251:1 369:2 373:1 386:1 399:1 415:1 424:5 471:2 489:3 503:2 524:1 527:2 543:1 587:15 738:1 742:2 801:10 871:4 881:16 945:2 972:1 999:1 1029:1 1054:1 1066:3 1079:1 1081:1 1082:1 1101:2 1135:1 1258:1 1309:4 1316:1 1329:2 1352:1 1486:15 1525:1 1536:1 1605:1 1719:3 1729:3 1764:1 1794:1 1832:2 1862:1 1886:1 
1 1:115 2:115 6:115 7:59 8:6 9:237 10:1 13:21 15:16 17:2 18:13 21:115 22:1 28:1 41:4 61:1 64:1 84:1 99:2 100:4 101:1 145:1 152:1 156:21 159:1 195:6 238:6 247:1 251:1 313:1 369:1 398:2 415:1 424:4 447:1 489:3 503:1 537:1 543:1 587:16 698:2 715:2 757:1 801:8 871:4 874:3 881:13 908:1 945:2 977:1 981:1 1054:5 1066:2 1079:1 1082:1 1101:1 1135:4 1199:3 1200:1 1253:4 1309:3 1351:5 1368:1 1486:21 1605:2 1638:1 1719:2 1729:4 1832:3 1886:1 1999:1 
1 7:2 8:3 10:2 13:1 15:1 22:1 29:1 33:1 46:1 64:2 71:1 78:1 156:1 164:1 165:1 175:1 183:1 196:1 216:1 238:3 240:1 241:1 251:1 253:1 273:1 292:1 375:1 386:1 587:1 619:1 659:1 766:1 1001:2 1101:2 1281:1 1328:1 1353:1 1434:1 1438:1 1475:1 1486:1 
1 1:10 2:9 3:1 5:1 6:5 7:7 8:6 9:3 10:5 11:8 13:2 15:2 18:2 22:2 23:1 26:1 47:2 51:1 64:5 67:1 68:1 70:1 76:1 99:2 101:1 110:1 130:1 133:1 156:2 164:1 165:1 175:1 178:1 180:2 209:1 210:1 238:6 241:1 251:2 265:1 273:1 286:2 363:1 391:1 399:1 421:8 427:1 429:1 447:1 527:1 587:2 619:1 729:1 737:1 814:1 834:1 854:1 881:2 966:1 978:1 1067:1 1101:5 1164:1 1170:1 1187:1 1230:1 1316:1 1353:1 1371:1 1456:1 1486:2 1719:2 1947:1 
0.93590759939781 1:48 2:48 6:48 7:47 8:9 9:199 10:4 13:25 15:17 18:8 21:48 28:1 33:5 41:2 42:1 64:4 84:1 99:1 100:4 145:1 156:25 177:1 186:2 193:1 195:7 238:9 247:1 313:1 369:6 375:5 424:2 489:3 494:1 503:3 527:6 587:17 623:1 715:1 734:2 742:1 757:1 801:16 821:1 852:1 871:4 874:2 881:8 908:1 945:2 1054:4 1066:3 1079:1 1082:1 1101:4 1183:1 1245:2 1301:1 1329:1 1351:6 1486:25 1605:2 1719:1 1729:1 1862:3 1886:1 1999:2 
1 7:1 9:1 10:2 13:1 15:1 18:1 42:1 48:1 64:2 66:1 92:1 99:1 105:1 112:1 148:1 156:1 164:1 273:1 348:1 493:1 587:1 742:1 849:1 881:1 1101:2 1353:1 1486:1 1520:1 1573:1 1592:1 1719:1 1953:1 
0.164036825154058 7:3 8:1 9:2 10:1 15:1 18:1 23:1 29:1 31:2 55:4 64:1 69:1 72:1 83:1 96:1 97:1 117:2 134:1 154:1 161:1 166:1 187:4 199:2 200:1 238:1 241:1 283:1 292:1 365:1 381:1 408:1 555:1 587:1 619:1 676:4 881:1 951:1 1101:1 1119:2 1133:1 1520:1 1533:1 1538:4 1673:4 1709:1 1911:1 
1 7:4 8:1 13:3 22:1 23:2 33:1 69:1 126:1 150:1 156:3 167:1 212:1 238:1 251:1 322:1 375:1 436:1 475:1 837:1 933:1 1015:1 1068:1 1113:1 1486:3 
1 7:2 8:2 10:2 18:1 23:2 46:2 64:2 75:1 77:3 151:1 164:1 171:1 182:3 221:1 238:2 273:1 386:2 881:1 987:1 1061:1 1101:2 1353:1 1688:1 1843:1 
1 7:2 8:2 9:1 10:2 18:1 23:2 46:2 64:2 75:1 77:3 151:1 164:1 171:1 182:3 210:1 221:1 238:2 273:1 386:2 881:1 987:1 1061:1 1101:2 1353:1 1688:1 1843:1 
1 7:5 8:1 9:4 12:1 13:1 15:2 23:1 30:1 31:1 33:2 46:1 47:2 54:1 67:3 71:1 75:1 77:1 79:1 93:1 107:1 118:1 134:1 156:1 168:1 177:1 182:1 185:1 191:1 199:1 200:1 225:1 238:1 298:1 358:1 375:2 386:1 470:1 560:1 583:1 587:2 614:1 659:1 723:1 737:1 821:1 868:1 933:1 978:3 1280:1 1486:1 1843:1 1911:1 1920:1 1947:1 
1 7:1 8:1 10:1 13:1 22:3 23:1 30:1 47:3 48:2 63:1 64:1 69:1 79:1 91:1 115:1 135:2 136:1 156:1 192:2 238:1 251:3 411:1 639:1 1101:1 1115:2 1486:1 1592:2 1725:2 
1 7:2 8:2 9:1 10:1 13:3 22:2 23:4 33:1 42:1 43:1 51:1 55:1 57:1 63:1 64:1 68:1 69:1 84:1 87:1 105:1 111:1 136:1 156:3 178:1 197:1 219:1 238:2 251:2 344:1 375:1 442:1 556:1 590:1 742:1 794:1 1061:1 1079:1 1101:1 1434:1 1486:3 1538:1 1545:1 1724:1 1804:1 
1 1:8 2:5 3:5 4:1 5:5 6:4 7:1 8:6 10:1 11:2 13:2 14:1 15:1 26:2 28:2 30:1 34:1 40:2 41:1 46:2 51:1 59:1 64:1 75:1 79:1 83:1 105:1 122:1 154:1 155:1 156:2 178:1 186:1 224:1 237:1 238:6 258:2 303:1 304:1 386:2 416:1 420:1 421:2 424:1 431:1 438:1 497:1 502:1 520:1 587:1 966:1 1089:1 1101:1 1133:1 1154:1 1486:2 1616:1 1651:1 1843:1 1965:1 
1 1:8 2:5 3:5 4:1 5:5 6:4 7:1 8:6 10:1 11:2 13:2 14:1 15:1 26:2 28:2 30:1 34:1 40:2 41:1 46:2 51:1 59:1 64:1 75:1 79:1 83:1 105:1 122:1 154:1 155:1 156:2 178:1 186:1 224:1 237:1 238:6 258:2 303:1 304:1 386:2 416:1 420:1 421:2 424:1 431:1 438:1 497:1 502:1 520:1 587:1 966:1 1089:1 1101:1 1133:1 1154:1 1486:2 1616:1 1651:1 1843:1 1965:1 
1 9:4 10:2 13:1 15:1 29:1 48:2 55:1 62:1 64:2 69:1 77:2 88:1 115:1 119:1 120:1 144:1 155:1 156:1 182:2 184:1 207:1 219:1 262:1 274:1 292:1 305:1 363:1 431:1 570:1 587:1 932:1 1101:2 1187:1 1486:1 1501:1 1538:1 1592:2 1774:1 1952:1 
0.5254841289395913 1:105 2:105 6:105 7:54 8:3 9:227 10:5 13:19 15:13 17:1 18:17 21:105 28:1 41:1 42:4 64:5 84:1 99:4 100:5 101:1 145:1 156:19 160:1 193:1 195:1 196:1 238:3 391:1 398:1 399:1 415:1 424:1 436:1 447:1 489:4 494:1 503:2 527:1 543:1 549:1 568:1 585:1 587:13 593:1 597:1 598:1 698:1 715:1 742:4 801:5 858:1 871:5 881:17 908:3 967:3 974:1 981:2 1054:4 1079:1 1082:3 1101:5 1135:1 1245:4 1316:1 1329:1 1438:1 1486:19 1605:4 1648:1 1665:1 1719:4 1729:4 1832:2 1862:2 1886:1 1997:1 1999:1 
1 1:6 2:5 3:1 5:1 6:3 7:1 8:4 9:1 10:1 11:4 13:2 18:2 22:2 26:1 29:1 39:1 46:1 64:1 110:1 116:1 133:1 156:2 159:1 204:1 238:4 251:2 260:1 292:1 334:1 386:1 406:1 421:4 628:1 817:1 881:2 1082:1 1101:1 1170:1 1287:1 1336:1 1486:2 1638:1 1809:1 
1 1:91 2:91 3:47 4:41 5:40 6:66 8:12 9:28 10:1 11:8 13:2 14:13 15:2 16:9 17:8 19:6 20:6 21:30 24:15 25:9 26:5 27:4 28:4 29:2 31:3 34:2 36:5 37:5 38:1 40:6 42:1 44:1 45:1 50:3 56:24 57:2 60:2 62:1 64:1 71:1 76:2 78:1 81:5 82:1 84:1 85:1 97:1 101:2 102:1 109:2 110:1 113:2 116:2 121:1 125:12 131:1 134:1 139:1 141:1 148:1 156:2 157:24 160:1 170:1 171:6 181:3 193:1 195:1 197:2 199:3 209:1 211:3 218:8 230:1 234:1 235:4 238:12 240:1 244:1 246:1 250:2 254:1 261:1 264:1 267:2 269:1 271:3 292:2 300:2 334:2 341:1 342:1 348:1 356:6 359:1 363:1 421:8 427:2 430:1 433:1 447:2 459:1 462:3 478:1 480:2 489:1 491:1 496:1 512:1 540:1 545:1 587:2 607:2 621:2 659:1 695:1 715:1 742:1 911:1 951:1 1072:2 1079:1 1101:1 1102:1 1170:1 1173:3 1176:1 1187:1 1193:1 1225:2 1232:3 1257:2 1265:6 1404:2 1413:1 1455:1 1457:1 1486:2 1566:1 1573:1 1623:1 1625:1 1667:1 1703:1 1756:1 1811:1 
1 1:1 2:1 8:1 10:1 15:2 28:1 29:2 50:1 58:1 64:1 65:1 69:2 90:1 99:1 119:1 142:1 163:1 165:2 209:1 210:2 238:1 249:1 260:1 271:1 278:1 284:1 292:2 433:1 487:1 517:1 580:1 587:2 615:1 1101:1 1336:1 1440:1 1719:1 
1 7:2 10:1 13:2 15:1 31:2 42:1 44:1 47:1 48:1 49:2 56:1 61:1 64:1 69:1 104:1 107:2 150:1 156:2 157:1 199:2 351:1 587:1 718:1 724:1 742:1 801:1 961:1 989:1 1101:1 1102:1 1486:2 1592:1 1731:2 
1 7:2 9:1 13:2 18:1 57:1 59:2 68:1 78:1 122:2 132:2 155:1 156:2 197:1 240:1 276:1 431:1 520:2 881:1 1055:1 1123:2 1486:2 1550:1 1616:2 1651:2 
1 7:1 9:3 10:2 12:2 18:3 30:4 39:2 49:2 51:1 54:2 56:1 64:2 69:1 70:1 79:4 92:1 107:2 114:1 119:1 128:1 129:1 157:1 178:1 179:1 232:1 255:1 282:1 314:1 459:2 534:1 721:2 754:1 849:1 881:3 1060:1 1101:2 1164:1 1287:2 1425:1 1731:2 1741:1 1811:2 1959:1 
1 8:4 9:2 13:2 15:1 22:2 23:3 29:1 30:1 33:2 59:1 69:2 71:1 78:1 79:1 96:1 97:1 104:1 128:1 130:1 138:2 156:2 163:1 169:1 238:4 240:1 251:2 292:1 311:1 323:2 344:1 351:1 363:1 375:2 442:2 520:1 541:1 587:1 659:1 837:1 951:1 1456:1 1486:2 1616:1 1996:2 
1 7:2 9:3 10:1 15:1 23:1 30:3 51:1 64:1 79:3 85:1 99:1 101:1 114:1 122:1 134:1 165:1 178:1 207:1 264:1 390:1 447:1 451:1 587:1 651:1 1101:1 1651:1 1719:1 
1 4:1 5:1 7:3 9:2 10:1 12:2 13:1 18:1 23:2 31:1 41:1 43:1 44:1 50:2 54:2 62:1 64:1 68:1 85:2 87:1 90:1 104:1 116:1 119:1 128:1 151:1 156:1 160:1 190:1 199:1 222:1 264:2 271:2 334:1 336:1 351:1 424:1 510:1 617:1 668:1 866:1 881:1 987:1 1089:1 1101:1 1102:1 1227:1 1230:1 1276:1 1486:1 1493:1 1589:1 
1 7:2 9:1 10:2 13:1 15:1 22:1 30:1 33:1 41:2 42:1 48:2 64:2 79:1 90:1 104:1 107:1 110:1 119:1 152:1 156:1 160:1 177:1 181:7 188:1 247:1 251:1 308:1 351:1 375:1 424:2 436:1 543:1 587:1 742:1 821:1 959:1 1101:2 1170:1 1345:1 1486:1 1592:2 
1 7:3 8:1 13:1 15:1 23:1 30:1 31:1 33:1 39:1 42:1 44:1 46:1 47:1 57:1 61:1 76:1 77:1 79:1 100:1 101:3 112:1 116:1 134:1 139:1 156:1 159:1 182:1 197:1 199:1 237:1 238:1 246:1 334:1 375:1 386:1 427:1 447:3 587:1 676:1 742:1 871:1 966:1 1102:1 1171:1 1235:1 1287:1 1474:2 1486:1 1638:1 1673:1 
0.8380791294026969 1:14 2:13 3:1 5:2 6:7 7:6 8:3 9:4 11:10 12:2 13:2 15:1 22:2 23:3 26:1 29:2 42:1 44:1 46:1 50:2 54:2 55:4 67:1 71:1 76:1 77:3 78:1 85:1 90:1 100:1 110:1 126:1 148:1 156:2 164:1 173:1 180:1 182:3 203:2 210:1 214:1 238:3 240:1 246:1 251:2 264:1 270:1 271:2 273:1 282:1 292:2 308:1 326:1 335:2 339:2 386:1 421:10 427:1 459:1 565:1 587:1 610:1 659:1 668:1 742:1 871:1 887:1 920:1 978:1 1102:1 1105:1 1170:1 1317:2 1486:2 1538:4 1573:1 1811:1 1995:1 
1 7:3 8:1 10:1 13:1 16:1 18:1 23:3 31:1 42:1 47:2 64:1 69:1 85:1 107:1 151:1 156:1 183:1 199:1 234:1 238:1 264:1 284:1 410:1 742:1 881:1 903:1 987:1 1101:1 1142:1 1328:1 1440:1 1486:1 1700:1 
1 7:1 10:1 13:1 14:1 18:3 22:1 28:1 29:1 33:1 59:1 64:1 65:2 69:1 151:1 156:1 251:1 266:1 292:1 314:1 375:1 487:2 520:1 881:3 987:1 1013:2 1016:1 1101:1 1486:1 1616:1 
1 8:1 9:4 10:1 13:1 15:5 49:1 61:2 62:1 64:1 69:1 72:2 134:1 138:1 155:3 156:1 238:1 244:1 252:1 305:3 350:1 365:1 376:1 383:1 431:3 540:1 561:1 587:5 591:1 594:1 1101:1 1431:1 1481:1 1486:1 1709:2 1731:1 1991:1 1996:1 
1 7:1 8:1 9:4 10:2 13:1 18:1 23:2 30:1 41:3 48:1 59:1 63:1 64:2 68:1 69:1 70:1 79:1 107:1 116:1 136:1 138:1 140:1 142:1 154:1 156:1 161:1 173:1 188:1 222:1 238:1 283:1 288:1 302:1 334:1 379:1 424:3 520:1 615:1 881:1 887:1 1101:2 1164:1 1486:1 1494:1 1533:1 1592:1 1616:1 1655:2 1775:1 1996:1 
1 1:8 2:5 3:5 4:1 5:5 6:4 7:2 8:5 9:1 10:2 11:2 13:3 14:1 15:4 18:1 23:3 26:2 28:2 30:1 34:1 40:2 46:1 59:1 60:2 64:2 69:1 79:1 84:1 105:1 140:1 149:3 156:3 177:1 224:1 237:1 238:5 247:1 258:2 300:2 303:1 304:1 314:1 386:1 420:1 421:2 438:1 497:1 502:1 520:1 587:4 732:1 775:1 821:1 881:1 963:1 1052:1 1079:1 1094:1 1101:2 1105:1 1486:3 1497:1 1616:1 1775:1 1971:3 
1 8:3 9:1 10:1 22:2 42:1 46:1 64:1 133:1 152:1 196:1 238:3 251:2 360:1 386:1 441:1 542:1 703:1 742:1 1101:1 1414:1 1438:1 
1 7:1 9:9 10:3 18:3 41:4 64:3 68:4 69:4 118:2 123:1 150:1 205:1 226:3 298:2 424:4 578:3 596:3 881:3 1101:3 1365:4 1851:1 
1 7:5 8:1 10:1 18:1 22:1 29:1 33:1 41:1 47:1 64:1 69:1 105:2 142:1 149:1 173:1 238:1 251:1 278:1 292:1 330:2 333:1 375:1 424:1 460:1 517:1 615:1 661:1 876:1 881:1 887:1 969:1 1026:1 1101:1 1888:1 1950:1 1971:1 
1 7:2 9:1 10:1 13:1 23:1 41:2 64:1 68:1 72:1 93:1 140:2 151:1 156:1 165:1 191:1 289:1 358:1 424:2 614:1 708:1 775:1 792:1 987:1 1101:1 1269:1 1355:1 1486:1 1709:1 1775:2 
1 7:2 10:1 13:1 15:1 18:1 22:1 33:1 59:1 64:1 68:1 74:2 78:1 132:1 156:1 240:1 251:1 375:1 520:1 587:1 881:1 1101:1 1123:1 1486:1 1616:1 1622:1 1759:2 
1 7:1 8:1 9:1 10:2 13:2 15:1 22:1 23:1 29:1 31:2 39:1 48:2 51:1 55:1 63:1 64:2 66:1 69:1 77:1 78:1 96:1 136:1 156:2 168:1 178:1 182:1 194:1 199:2 238:1 240:1 243:1 251:1 261:1 292:1 449:1 587:1 670:2 1101:2 1287:1 1318:2 1486:2 1538:1 1546:1 1592:2 1595:1 1916:1 1918:1 
0.1218888057232154 7:4 9:1 10:1 12:2 13:2 29:1 41:1 49:1 54:2 64:1 69:4 75:1 85:1 126:1 134:1 152:2 156:2 193:1 264:1 285:1 291:1 292:1 312:1 424:1 426:1 517:1 837:1 941:1 1101:1 1151:1 1401:1 1486:2 1506:1 1731:1 1843:1 
1 13:1 15:1 18:1 30:1 31:3 33:1 39:1 42:1 47:1 48:1 58:4 63:1 69:2 76:1 79:1 89:1 136:1 149:1 152:1 156:1 199:3 337:1 375:1 427:1 559:1 583:1 587:1 655:1 742:1 813:1 881:1 924:1 938:1 958:1 1208:1 1287:1 1291:1 1486:1 1564:1 1592:1 1870:1 1971:1 
1 5:1 7:1 9:2 10:2 13:2 18:1 22:1 23:1 31:2 64:2 66:1 118:1 135:1 156:2 199:2 216:1 251:1 298:1 400:1 517:1 881:1 1061:1 1101:2 1486:2 1725:1 
1 7:1 10:1 12:4 13:6 44:1 46:1 49:2 54:4 56:1 64:1 65:1 69:2 71:1 88:1 107:2 112:1 156:6 157:1 159:1 168:1 274:1 321:1 323:1 327:1 340:1 386:1 439:1 487:1 567:1 659:1 1101:1 1102:1 1486:6 1638:1 1731:2 1778:1 
1 4:1 5:1 7:3 8:1 10:1 13:2 18:1 22:3 23:2 29:1 30:1 33:1 44:1 61:1 64:1 66:1 69:1 79:1 105:1 122:1 140:1 145:1 156:2 175:1 191:1 225:1 238:1 251:3 292:1 358:1 370:1 375:1 417:1 868:1 881:1 1101:1 1102:1 1486:2 1641:1 1651:1 1775:1 1839:1 
1 7:2 8:1 10:1 13:1 18:1 41:1 64:1 68:1 156:1 238:1 424:1 519:1 677:1 736:1 881:1 1101:1 1353:1 1486:1 1648:1 
1 7:1 8:1 9:2 13:2 15:2 22:1 29:1 30:1 43:2 47:1 48:1 56:1 63:1 69:1 74:1 79:1 87:2 92:1 104:1 126:2 136:1 139:2 149:2 156:2 157:1 209:1 226:1 238:1 251:1 292:1 308:1 351:1 496:1 515:1 587:2 613:1 849:1 988:1 1193:1 1353:1 1486:2 1592:1 1759:1 1838:1 1971:2 
1 10:3 12:2 13:1 15:1 29:1 33:2 44:1 49:1 51:2 54:2 59:3 64:3 65:1 69:4 71:1 75:1 104:1 114:1 119:1 155:1 156:1 168:1 178:2 239:1 250:1 256:1 260:1 269:1 292:1 318:1 351:1 375:2 397:1 431:1 465:1 487:1 520:3 550:1 587:1 659:1 788:1 805:1 894:1 1101:3 1102:1 1336:1 1486:1 1554:1 1616:3 1731:1 1843:1 
1 7:3 8:1 9:5 13:1 18:1 33:1 51:1 59:1 71:1 100:1 118:1 119:1 130:1 133:1 156:1 178:1 192:1 238:1 298:1 375:1 520:1 659:1 871:1 881:1 1115:1 1291:1 1456:1 1486:1 1616:1 
1 7:4 8:1 9:2 10:1 13:1 15:1 18:1 29:1 31:1 41:1 42:1 44:1 64:1 66:1 69:1 77:1 91:1 105:1 111:1 152:1 156:1 177:1 182:1 185:1 199:1 220:1 238:1 249:1 292:1 385:3 424:1 517:1 587:1 639:1 723:1 742:1 821:1 881:1 1101:1 1102:1 1120:1 1275:1 1486:1 1804:1 
1 7:1 9:1 10:2 13:1 18:1 29:1 39:2 48:3 51:1 58:1 59:2 62:1 63:3 64:2 69:1 72:2 91:1 136:3 156:1 178:1 191:1 292:1 310:1 358:1 394:1 465:1 520:2 639:1 881:1 894:1 1101:2 1191:1 1287:2 1430:1 1486:1 1592:3 1616:2 1709:2 
1 7:3 8:2 13:2 33:2 39:1 47:1 49:1 72:1 73:1 84:1 90:1 123:1 155:1 156:2 161:1 168:1 205:2 237:1 238:2 284:1 291:1 323:1 375:2 398:1 431:1 489:1 566:1 920:1 933:1 1079:1 1287:1 1440:1 1486:2 1709:1 1731:1 
1 8:2 13:1 18:1 23:3 42:2 46:1 47:1 57:1 69:1 70:1 99:1 105:1 129:1 151:1 156:1 180:1 197:1 238:2 341:1 386:1 481:1 509:1 578:1 742:2 881:1 987:1 1075:1 1164:1 1283:1 1486:1 1719:1 1959:1 
1 7:2 8:1 9:2 10:2 13:1 22:1 31:1 33:1 39:1 43:1 48:1 64:2 69:1 77:1 87:1 93:1 101:1 138:1 146:1 156:1 160:1 175:1 182:1 199:1 237:1 238:1 239:1 251:1 261:1 262:1 375:1 447:1 584:1 614:1 907:1 1101:2 1287:1 1385:1 1486:1 1592:1 1996:1 
1 7:4 8:1 12:1 13:2 15:3 22:1 23:1 41:1 42:1 44:1 48:2 51:1 54:1 66:2 67:2 69:3 77:3 104:1 107:2 156:2 160:2 178:1 182:3 212:1 237:1 238:1 251:1 279:1 351:1 355:1 378:2 424:1 473:1 553:1 587:3 742:1 978:2 1102:1 1408:1 1474:1 1486:2 1578:1 1592:2 1891:1 
1 7:1 8:1 9:6 10:2 13:2 15:1 22:1 62:1 64:2 65:1 69:1 156:2 185:1 207:1 212:1 238:1 250:1 251:1 487:1 525:1 587:1 1101:2 1300:1 1486:2 1561:1 1653:1 1756:1 1774:1 
1 7:1 9:1 10:1 13:1 15:1 22:2 39:1 42:2 47:2 57:1 64:1 66:1 67:2 69:2 106:1 156:1 179:1 196:1 197:1 231:1 247:1 251:2 262:1 270:1 472:1 587:1 635:1 742:2 978:2 1033:1 1101:1 1287:1 1382:1 1438:1 1486:1 1741:1 1846:1 1869:1 
1 1:14 2:14 10:1 18:1 21:14 48:1 49:1 64:1 73:13 92:1 150:1 179:1 329:1 594:1 697:5 727:9 849:1 881:1 1101:1 1592:1 1731:1 1741:1 1991:1 
1 7:1 8:1 13:1 15:1 23:2 29:1 30:2 31:1 46:1 59:1 61:1 62:1 69:2 77:1 79:2 85:1 122:1 132:2 144:1 151:2 156:1 162:1 182:1 184:1 188:1 199:1 219:1 238:1 253:1 264:1 292:1 386:1 520:1 587:1 790:1 987:2 1123:2 1486:1 1616:1 1651:1 
1 7:8 8:3 10:2 12:1 13:3 18:1 22:1 29:1 33:1 39:4 41:1 43:1 54:1 61:1 64:2 65:1 69:1 84:1 87:1 116:1 145:1 156:3 163:1 189:1 190:1 200:1 238:3 251:1 292:1 334:1 375:1 424:1 487:1 512:1 702:1 881:1 1071:1 1079:1 1101:2 1287:4 1486:3 1589:1 1604:1 1655:1 1774:1 1809:1 1894:1 1911:1 1987:1 
1 1:1 2:1 3:3 4:2 5:3 6:1 7:2 8:2 9:2 10:2 13:2 18:2 19:1 22:1 23:2 30:1 33:1 38:1 64:2 79:1 81:1 85:1 94:1 119:1 130:1 144:1 156:2 179:1 184:1 205:2 238:2 251:1 264:1 375:1 390:1 881:2 933:1 1022:1 1101:2 1456:1 1486:2 1741:1 1869:1 
1 7:1 9:1 10:2 12:1 13:1 15:1 23:2 33:1 44:2 47:1 51:1 54:1 56:2 62:2 63:2 64:2 69:1 70:1 71:1 85:1 96:1 126:1 136:2 156:1 157:2 165:1 178:1 180:1 189:1 220:1 229:1 246:1 264:1 282:1 375:1 387:1 394:1 587:1 659:1 704:1 1101:2 1102:2 1164:1 1217:1 1486:1 1649:1 1890:1 
1 7:1 10:3 13:2 15:1 22:1 23:1 30:1 33:1 46:1 48:1 49:1 50:1 59:2 63:1 64:3 69:1 74:1 79:1 85:1 107:1 111:1 123:1 128:1 134:1 136:1 140:1 149:1 156:2 217:1 222:2 225:1 251:1 263:2 264:1 271:1 291:1 350:1 375:1 386:1 415:1 520:2 587:1 699:2 868:1 1087:2 1101:3 1486:2 1592:1 1616:2 1731:1 1759:1 1775:1 1804:1 1971:1 
1 7:1 10:2 12:2 13:3 15:1 18:1 22:1 30:1 44:1 54:2 64:2 79:1 156:3 209:1 251:1 269:1 486:1 587:1 836:1 881:1 1101:2 1102:1 1108:1 1486:3 
1 7:1 9:2 15:2 23:1 47:2 51:1 59:1 76:1 135:1 148:1 178:1 192:1 427:1 520:1 587:2 654:1 1031:1 1115:1 1353:1 1573:1 1616:1 1725:1 
1 7:1 8:2 13:1 22:1 23:1 33:1 39:3 43:2 50:1 56:1 58:1 59:1 65:1 69:1 71:1 87:2 92:1 104:1 123:1 134:1 156:1 157:1 164:1 191:1 223:1 238:2 251:1 271:1 273:1 333:1 337:1 340:1 351:1 358:1 375:1 436:1 487:1 520:1 659:1 751:1 849:1 1117:1 1287:3 1395:1 1486:1 1564:1 1616:1 1827:1 1869:1 1888:1 
1 9:1 15:3 22:1 31:1 44:1 47:1 50:2 56:2 69:1 72:2 98:1 126:1 128:1 154:1 157:2 170:1 199:1 220:1 222:1 223:1 226:1 235:1 251:1 271:2 587:3 985:1 1002:1 1102:1 1623:1 1709:2 1927:1 
1 7:8 13:1 15:2 18:2 22:1 23:1 30:1 31:3 50:1 59:1 61:1 62:1 79:1 117:1 122:1 138:1 156:1 199:3 222:1 251:1 271:1 302:1 317:1 333:1 426:1 478:1 507:1 520:1 535:2 587:2 626:1 881:2 1119:1 1486:1 1616:1 1651:1 1756:1 1888:1 1996:1 
0.2943436955576218 7:4 9:5 10:1 12:2 13:4 23:1 29:1 50:1 51:2 54:2 59:1 64:1 65:1 69:1 90:2 105:1 114:1 122:2 128:1 138:2 156:4 178:2 194:1 271:1 292:1 330:1 487:1 496:1 520:1 704:1 934:1 1101:1 1193:1 1486:4 1616:1 1651:2 1707:1 1881:1 1918:1 1996:2 
1 7:1 10:1 13:1 15:2 18:1 22:2 23:1 33:1 39:1 48:1 57:2 62:1 64:1 69:1 77:1 78:1 99:1 104:2 135:1 149:1 156:1 182:1 194:1 197:2 214:1 240:1 251:2 351:2 369:1 375:1 403:1 498:1 587:2 609:1 627:1 732:1 875:1 881:1 900:1 904:1 1101:1 1143:1 1166:1 1287:1 1486:1 1592:1 1719:1 1725:1 1769:1 1791:1 1918:1 1971:1 
1 7:1 10:3 12:2 13:2 15:3 22:1 30:1 39:1 41:1 44:1 54:2 56:1 57:2 58:2 59:1 64:3 69:1 77:1 79:1 151:1 156:2 157:1 182:1 197:2 244:1 251:1 256:1 309:1 319:1 378:1 424:1 441:1 520:1 537:1 587:3 781:1 805:1 987:1 1101:3 1102:1 1110:2 1254:1 1280:2 1287:1 1486:2 1616:1 1901:1 
1 7:1 9:4 10:3 13:2 18:1 22:1 30:1 39:1 42:1 58:1 59:1 64:3 69:1 71:1 75:1 78:1 79:1 96:2 102:1 144:1 154:1 156:2 165:1 184:1 194:1 202:1 219:1 236:1 240:1 250:1 251:1 397:1 520:1 601:1 659:1 742:1 881:1 949:1 1030:1 1101:3 1287:1 1321:1 1486:2 1566:1 1616:1 1806:1 1843:1 1918:1 
0.8003367653893043 5:1 7:3 8:1 9:1 10:1 15:1 23:1 42:1 49:1 58:1 63:1 64:1 65:1 72:2 91:1 96:1 107:2 119:1 128:1 136:1 142:1 225:1 238:1 309:1 487:1 494:1 557:1 587:1 613:1 615:1 639:1 742:1 744:1 861:1 868:1 1101:1 1524:1 1709:2 1731:1 1761:1 
1 9:2 13:2 29:1 30:2 39:2 44:1 62:1 69:1 79:2 83:2 84:2 88:1 90:1 92:1 97:1 156:2 162:1 194:1 219:2 272:2 274:1 278:1 292:1 333:1 451:1 553:1 638:1 646:1 849:1 943:1 951:1 1079:2 1102:1 1133:2 1280:1 1287:2 1393:1 1486:2 1888:1 1918:1 
1 7:6 8:2 9:1 13:1 14:1 22:1 23:1 30:2 33:1 39:1 51:1 55:3 79:2 83:1 129:1 140:1 143:1 156:1 168:1 173:1 178:1 238:2 251:1 314:1 323:1 339:1 375:1 556:1 883:2 887:1 1133:1 1287:1 1464:1 1486:1 1538:3 1775:1 1959:1 
1 7:4 9:1 10:1 15:1 18:1 30:2 47:1 56:1 64:1 69:1 71:1 72:1 79:2 100:1 120:1 138:1 144:1 155:1 157:1 184:1 194:1 236:1 397:1 431:1 534:1 587:1 659:1 663:1 730:1 871:1 881:1 1101:1 1103:1 1235:1 1321:1 1709:1 1918:1 1996:1 
1 9:3 13:4 15:3 33:3 44:4 69:1 156:4 198:1 311:3 375:3 418:3 587:3 957:1 1102:4 1486:4 
1 7:2 8:1 10:1 13:1 23:1 29:1 31:2 33:1 44:2 47:1 48:1 64:1 69:1 140:1 156:1 177:1 183:2 193:1 199:2 235:1 238:1 239:1 292:1 294:1 375:1 464:1 821:1 1101:1 1102:2 1256:1 1328:2 1442:1 1486:1 1592:1 1688:1 1775:1 1869:1 
1 7:4 8:1 9:1 13:3 31:2 39:3 46:2 56:2 67:1 77:3 122:1 130:1 156:3 157:2 182:3 192:1 199:2 223:1 238:1 241:1 261:1 312:1 386:2 423:1 432:1 619:1 779:1 808:1 847:1 978:1 1115:1 1151:1 1176:1 1287:3 1456:1 1486:3 1570:1 1651:1 1920:1 
1 7:2 10:1 13:2 15:3 30:1 31:1 41:1 47:2 62:1 64:1 65:2 66:1 69:1 72:3 79:1 82:1 97:1 101:1 104:1 116:1 122:1 156:2 199:1 236:1 334:1 351:1 387:1 424:1 447:1 481:1 487:2 587:3 641:1 767:1 951:1 1101:1 1321:1 1486:2 1651:1 1709:3 
1 1:1 2:1 8:1 13:1 15:1 18:1 21:1 33:3 58:1 96:1 112:1 123:1 152:1 156:1 224:1 238:1 260:1 375:3 587:1 665:1 698:1 881:1 1336:1 1486:1 1517:1 
1 9:3 15:1 29:2 30:1 42:1 43:1 44:1 48:1 50:1 51:1 55:1 61:1 69:2 79:1 87:1 107:2 116:1 128:1 142:1 178:1 187:1 190:1 207:1 227:1 235:1 252:1 271:1 292:2 319:1 334:1 345:1 414:1 587:1 615:1 691:1 742:1 781:1 1102:1 1538:1 1589:1 1592:1 1882:1 
1 7:1 13:1 31:1 33:1 39:1 44:1 46:1 73:3 84:2 156:1 199:1 224:1 338:1 373:1 375:1 386:1 874:1 904:1 1079:2 1102:1 1258:1 1287:1 1486:1 1794:1 1862:1 
0.6637308651207299 8:1 9:1 10:2 13:1 15:1 28:1 42:1 50:2 58:1 64:2 66:1 69:1 76:1 110:1 116:1 118:1 119:1 156:1 163:1 168:1 188:1 238:1 271:2 298:1 334:1 381:1 403:2 409:1 427:1 465:1 491:1 587:1 656:2 742:1 755:1 894:1 1101:2 1170:1 1344:1 1486:1 1791:2 
1 4:1 5:1 10:1 13:1 15:1 44:1 46:1 48:1 64:1 71:1 77:1 105:1 129:1 149:1 156:1 182:1 196:1 243:1 386:1 503:1 578:1 587:1 659:1 775:1 891:1 1101:1 1102:1 1438:1 1486:1 1592:1 1595:1 1959:1 1971:1 
1 7:2 8:1 10:1 22:3 39:1 42:1 46:1 61:1 63:1 64:1 75:1 84:1 88:1 120:1 136:1 161:1 226:1 238:1 251:3 274:1 283:1 328:1 386:1 573:1 742:1 769:1 831:1 936:1 1079:1 1101:1 1188:1 1262:1 1287:1 1533:1 1843:1 
1 7:1 8:1 9:1 10:3 14:1 15:2 18:1 22:1 30:2 33:1 46:1 47:1 64:3 69:1 78:1 79:2 99:1 142:1 179:1 238:1 240:1 251:1 301:1 328:1 344:1 375:1 386:1 587:2 615:1 811:1 881:1 1101:3 1531:1 1552:1 1719:1 1741:1 
1 7:2 10:2 13:1 15:1 18:1 22:1 30:1 64:2 68:1 76:2 79:1 148:1 156:1 168:1 251:1 427:2 464:1 484:1 550:1 587:1 598:1 622:1 769:1 881:1 1101:2 1179:1 1486:1 1573:1 
1 7:3 9:1 13:1 23:1 29:1 30:1 33:1 41:1 44:1 62:1 79:1 132:1 138:1 156:1 183:1 234:2 257:1 292:1 314:1 375:1 409:1 424:1 465:1 499:1 894:1 966:1 1102:1 1123:1 1328:1 1486:1 1519:1 1996:1 
1 7:1 8:1 9:1 10:2 13:2 16:1 18:1 23:1 48:1 64:2 69:1 156:2 238:1 241:1 366:1 441:1 494:1 563:1 619:1 635:1 881:1 1101:2 1278:1 1486:2 1525:1 1592:1 
1 7:2 8:1 10:3 12:2 13:1 18:2 43:1 47:1 54:2 56:1 59:1 64:3 68:1 69:3 71:1 87:1 92:1 139:1 148:1 156:1 157:1 159:1 163:1 177:1 185:1 236:1 238:1 302:1 319:1 376:1 455:1 520:1 573:1 659:1 779:1 781:1 808:1 821:1 840:1 849:1 860:1 881:2 1101:3 1188:1 1262:1 1321:1 1486:1 1490:1 1573:1 1616:1 1638:1 
1 7:1 9:3 10:1 13:2 15:1 18:1 22:1 23:1 33:1 39:1 43:1 44:2 50:1 57:1 59:1 61:1 64:1 69:1 70:1 85:1 87:1 101:1 120:1 135:1 155:1 156:2 175:1 197:1 219:1 234:1 251:1 264:1 271:1 284:1 375:1 431:1 447:1 520:1 587:1 600:1 874:1 881:1 917:1 1089:1 1101:1 1102:2 1164:1 1287:1 1440:1 1486:2 1546:1 1616:1 1725:1 1747:1 
1 7:2 8:1 9:1 13:1 15:1 23:2 41:1 49:1 59:1 61:1 68:1 76:1 88:2 122:1 156:1 224:1 238:1 239:2 274:2 424:1 427:1 520:1 587:1 719:1 736:1 901:1 1067:1 1155:1 1486:1 1616:1 1651:1 1731:1 
1 7:2 9:1 10:3 14:1 15:2 18:1 29:2 33:1 43:1 57:1 64:3 68:2 69:1 70:1 76:2 87:1 89:1 101:1 112:1 197:1 201:3 216:1 220:2 248:1 261:1 283:1 292:2 308:2 375:1 427:2 447:1 478:1 587:2 721:2 880:1 881:1 1101:3 1111:1 1164:1 1180:1 1533:1 1685:1 1975:1 1989:3 
1 5:2 7:4 9:2 10:6 13:1 15:3 30:1 33:1 48:2 64:6 66:1 76:1 79:1 89:1 118:1 156:1 188:1 298:1 307:1 312:1 375:1 427:1 464:1 587:3 603:2 1101:6 1151:1 1275:1 1486:1 1592:2 1756:1 
1 1:11 2:11 3:10 4:4 5:10 6:7 7:2 8:7 9:4 10:3 13:1 18:1 19:3 22:2 23:1 24:3 25:3 26:3 38:3 40:2 45:1 46:1 64:3 70:1 76:1 119:1 130:1 156:1 236:1 238:7 251:2 386:1 427:1 881:1 933:2 1087:1 1101:3 1164:1 1211:1 1321:1 1456:1 1486:1 1525:1 
1 7:2 8:1 9:3 13:2 15:1 23:1 29:1 30:1 31:1 39:1 44:1 47:2 48:1 56:4 62:1 69:1 72:1 79:1 85:1 106:1 107:1 117:1 154:1 156:2 157:4 166:1 199:1 201:1 235:1 238:1 241:2 264:1 292:1 344:2 434:1 517:1 587:1 619:2 699:1 1102:1 1119:1 1149:1 1287:1 1486:2 1592:1 1709:1 1846:1 1989:1 
1 7:2 10:3 13:3 15:4 31:2 39:3 44:2 59:5 62:1 64:3 156:3 199:2 230:1 381:1 520:5 587:4 923:1 1101:3 1102:2 1287:3 1486:3 1616:5 1703:1 
1 1:14 2:14 3:13 4:5 5:13 6:9 8:8 9:2 13:1 15:3 18:1 19:4 23:2 24:4 25:4 26:4 38:4 40:2 45:1 63:2 84:1 91:1 130:1 134:1 136:2 156:1 160:1 238:8 348:1 437:1 587:3 639:1 662:1 668:1 881:1 1079:1 1353:1 1434:2 1456:1 1486:1 1599:1 1871:1 
1 7:1 8:1 9:3 10:3 13:1 18:1 22:1 33:1 39:1 42:1 48:1 63:1 64:3 136:1 156:1 168:1 202:1 238:1 251:1 375:1 527:1 601:1 731:1 742:1 873:1 881:1 933:1 997:1 1101:3 1150:1 1277:1 1287:1 1486:1 1523:1 1592:1 
1 7:4 8:1 9:1 10:1 13:2 33:1 39:2 46:1 48:1 51:1 56:2 64:1 67:2 69:1 72:1 77:1 78:1 156:2 157:2 178:1 182:1 231:1 235:1 238:1 240:1 256:1 325:1 344:2 375:1 386:1 444:1 472:1 866:1 978:2 1087:1 1101:1 1287:2 1412:1 1486:2 1592:1 1709:1 
1 7:3 8:2 9:3 10:5 13:1 15:1 22:3 41:2 42:1 46:3 64:5 68:3 69:1 74:1 75:1 119:1 130:1 156:1 159:1 161:1 164:1 168:1 177:1 222:1 238:2 251:3 265:2 273:1 386:3 399:1 424:2 450:1 489:1 587:1 736:1 742:1 766:1 821:1 972:1 1000:1 1087:1 1101:5 1150:1 1316:1 1456:1 1486:1 1638:1 1759:1 1843:1 1845:1 
1 8:2 9:3 10:2 13:4 18:1 22:2 30:1 31:2 46:1 47:1 48:1 50:1 51:1 56:1 59:2 64:2 69:1 79:1 83:1 104:1 107:1 114:1 132:4 138:1 156:4 157:1 178:1 196:1 199:2 227:1 232:1 238:2 244:1 251:2 271:1 351:1 386:1 476:1 478:1 479:1 520:2 522:1 524:1 583:1 819:1 881:1 938:1 1089:1 1101:2 1123:4 1133:1 1246:1 1438:1 1486:4 1555:1 1592:1 1616:2 1792:1 1996:1 
1 7:2 8:4 9:2 10:3 13:5 14:2 15:2 18:1 22:1 23:1 29:1 33:2 48:1 60:2 64:3 82:1 83:1 91:2 154:1 156:5 200:1 238:4 251:1 292:1 300:2 373:1 375:2 587:2 639:2 721:1 881:1 994:1 1101:3 1133:1 1154:1 1486:5 1592:1 1794:1 1911:1 
1 7:2 8:1 9:1 13:1 15:2 29:1 30:3 39:3 48:2 50:2 56:1 59:1 61:2 69:1 79:3 85:2 88:1 102:2 133:1 142:3 145:1 149:2 156:1 157:1 173:1 235:1 238:1 257:1 264:2 271:2 274:1 292:1 350:1 409:2 437:1 520:1 587:2 615:3 837:3 887:1 1287:3 1486:1 1519:1 1566:2 1592:2 1616:1 1756:1 1971:2 
1 1:6 2:5 3:1 5:1 6:3 7:1 8:2 9:1 10:1 11:4 13:1 15:1 18:1 26:1 33:1 46:1 49:1 64:1 99:1 110:1 156:1 175:1 238:2 263:1 338:2 375:1 386:1 399:1 406:1 421:4 563:1 587:1 881:1 1101:1 1170:1 1316:1 1353:1 1486:1 1719:1 1731:1 
1 7:1 8:2 9:2 10:1 12:5 13:2 18:1 23:2 30:1 42:1 44:1 51:1 54:5 55:1 56:1 57:1 62:1 64:1 69:1 75:1 79:1 98:1 149:1 156:2 157:1 161:1 178:1 180:1 185:1 197:1 238:2 255:1 335:1 339:1 481:1 553:1 742:1 787:1 801:1 881:1 1060:1 1101:1 1102:1 1268:1 1486:2 1538:1 1843:1 1971:1 
1 7:3 8:1 10:1 12:4 13:1 18:1 23:4 29:1 30:2 31:1 33:1 44:1 54:4 56:1 62:1 64:1 79:2 82:1 85:1 117:1 128:1 130:1 156:1 157:1 161:1 175:1 191:2 199:1 207:1 238:1 264:1 266:1 292:1 332:1 335:1 358:2 375:1 841:1 881:1 1101:1 1102:1 1119:1 1127:1 1160:1 1361:1 1456:1 1486:1 
0.6393357350877666 5:1 7:5 10:2 12:3 13:1 15:1 23:1 28:2 30:1 48:2 49:1 54:3 59:1 61:1 63:1 64:2 69:1 72:1 79:1 93:1 104:1 136:1 142:3 151:1 156:1 175:1 220:1 228:1 243:1 308:1 351:1 409:1 519:1 520:1 541:1 587:1 614:1 615:3 676:1 938:1 987:1 1101:2 1112:1 1486:1 1592:2 1595:1 1616:1 1709:1 1731:1 
1 7:2 8:1 9:1 10:1 15:1 18:1 22:1 57:1 59:1 64:1 68:1 185:1 197:1 238:1 242:1 251:1 520:1 587:1 596:1 881:1 933:1 1101:1 1216:1 1616:1 1809:1 
0.2888020609084674 7:4 8:1 9:2 10:1 13:1 23:4 29:2 30:2 33:1 55:1 64:1 69:1 79:2 96:1 98:2 154:1 156:1 187:1 230:1 238:1 292:2 375:1 473:1 491:1 739:1 1068:1 1101:1 1283:1 1460:3 1486:1 1538:1 1703:1 
1 1:4 2:3 3:1 5:1 6:2 7:1 8:2 9:1 11:2 13:1 15:1 26:1 41:1 110:1 152:1 156:1 238:2 421:2 424:1 587:1 608:1 1057:1 1170:1 1486:1 
1 7:5 8:1 13:1 15:1 22:1 42:1 43:1 44:1 46:1 48:1 59:1 62:1 68:2 72:1 87:1 91:1 92:1 104:1 114:1 151:1 156:1 194:1 228:1 238:1 241:1 251:1 345:1 351:1 386:1 519:1 520:1 587:1 619:1 639:1 742:1 785:1 849:1 987:1 1020:1 1102:1 1300:1 1371:1 1486:1 1592:1 1616:1 1663:1 1709:1 1918:1 
1 7:3 8:2 10:1 13:1 22:1 29:1 64:1 156:1 162:1 238:2 251:1 261:1 292:1 599:1 1061:1 1101:1 1197:1 1486:1 1718:1 
1 7:6 10:2 15:3 23:2 29:1 31:1 33:1 41:1 44:1 63:1 64:2 67:1 73:1 82:1 84:1 100:1 101:1 111:1 119:2 126:1 134:1 136:1 140:1 191:1 199:1 243:1 263:1 282:1 292:1 358:1 375:1 424:1 447:1 587:3 731:1 741:1 871:1 963:1 977:1 978:1 1079:1 1101:2 1102:1 1368:1 1595:1 1775:1 1804:1 
0.570283656030893 9:2 10:2 13:3 15:2 23:1 29:2 31:1 41:2 42:1 44:2 51:1 62:2 64:2 69:1 71:1 77:3 105:2 118:1 126:1 156:3 178:1 182:3 199:1 292:2 298:1 309:1 315:1 344:1 424:2 513:1 587:2 659:1 742:1 786:1 818:1 1101:2 1102:2 1120:1 1127:2 1222:1 1486:3 
1 7:1 8:3 9:1 10:2 18:2 22:1 31:1 39:2 48:1 64:2 69:1 70:1 78:1 114:1 119:1 132:1 135:1 199:1 202:1 238:3 240:1 251:1 289:1 313:1 336:1 344:1 601:1 852:1 881:2 1101:2 1123:1 1164:1 1285:1 1287:2 1418:1 1592:1 1725:1 1957:1 
1 7:1 9:3 12:3 13:3 18:1 30:1 42:1 43:1 47:1 54:3 57:2 62:1 67:1 68:1 69:1 72:1 79:1 87:1 99:1 105:1 106:1 114:1 118:1 142:1 156:3 163:1 185:1 197:2 219:1 298:1 381:1 615:1 742:1 785:1 837:1 881:1 978:1 1338:1 1413:2 1486:3 1709:1 1719:1 1813:1 1846:1 
1 5:1 7:6 8:3 15:1 16:1 22:1 31:2 44:1 55:1 62:1 72:1 83:1 111:1 126:1 138:1 149:1 152:1 162:1 169:1 175:1 199:2 238:3 241:1 242:1 244:1 251:1 294:1 328:1 510:1 517:1 587:1 594:1 619:1 760:1 837:1 1102:1 1109:1 1110:1 1133:1 1538:1 1709:1 1804:1 1971:1 1991:1 1996:1 
1 7:2 8:3 9:2 15:2 22:1 23:1 33:1 63:1 84:1 91:3 107:1 119:1 136:1 200:1 238:3 251:1 375:1 529:1 587:2 639:3 744:1 946:1 1079:1 1234:1 1246:1 1911:1 
1 7:3 13:1 15:1 23:1 31:2 42:1 47:1 69:1 71:2 75:1 91:1 99:1 101:1 126:1 133:1 140:1 149:1 151:1 156:1 192:1 199:2 216:1 220:1 435:1 447:1 517:1 587:1 639:1 659:2 690:1 721:1 742:1 869:1 987:1 989:1 1115:1 1486:1 1719:1 1775:1 1843:1 1971:1 1999:1 
1 1:8 2:7 3:1 5:1 6:4 7:1 8:4 9:1 10:1 11:2 13:1 21:1 22:1 26:1 40:3 46:1 49:1 64:1 110:1 156:1 175:1 238:4 251:1 367:1 386:1 406:1 421:2 736:1 1101:1 1170:1 1429:1 1486:1 1731:1 1809:1 
1 7:3 8:4 9:1 10:1 13:1 15:1 18:2 22:4 39:1 42:1 43:1 47:1 64:1 65:1 87:1 99:1 140:1 156:1 163:1 233:1 238:4 251:4 321:1 487:1 517:1 576:1 587:1 734:1 742:1 751:1 762:1 881:2 1101:1 1287:1 1322:1 1459:1 1486:1 1544:1 1719:1 1720:1 1735:1 1775:1 
1 7:1 8:3 13:1 28:1 29:1 39:2 83:1 90:1 130:1 156:1 198:1 238:3 292:1 414:1 1133:1 1287:2 1456:1 1486:1 
1 7:2 9:2 10:1 13:2 15:1 23:2 30:1 33:1 48:1 51:1 56:1 59:1 62:1 64:1 69:2 70:1 71:1 72:1 74:1 76:1 79:1 142:1 151:1 156:2 157:1 160:1 175:1 178:1 227:1 235:1 241:1 272:1 375:1 397:1 427:1 520:1 587:1 615:1 619:1 659:1 987:1 1087:1 1101:1 1164:1 1486:2 1592:1 1616:1 1709:1 1717:1 1759:1 1917:1 
1 7:1 9:4 13:1 23:1 31:1 39:1 58:1 89:1 140:1 156:1 177:1 199:1 247:1 307:1 337:1 559:1 714:2 821:1 843:1 924:1 952:1 1287:1 1444:1 1486:1 1564:1 1775:1 
1 7:2 9:1 10:1 13:1 18:1 22:1 23:1 29:1 31:1 39:1 41:1 43:2 44:3 49:1 64:1 67:1 68:2 69:1 77:2 87:2 100:1 117:1 133:1 148:1 156:1 182:2 199:1 249:1 251:1 291:1 292:1 424:1 744:1 871:1 881:1 923:1 978:1 1101:1 1102:3 1119:1 1127:2 1287:1 1486:1 1573:1 1691:1 1731:1 
1 7:1 8:1 9:6 10:1 13:3 15:1 18:1 47:1 63:1 64:1 68:1 69:1 117:1 130:1 136:1 156:3 192:1 193:1 238:1 337:3 455:1 587:1 881:1 1101:1 1115:1 1119:1 1263:1 1456:1 1486:3 1564:3 1656:2 1685:1 
1 1:6 2:5 3:1 5:1 6:3 7:2 8:2 10:1 11:4 13:1 15:2 26:1 31:1 50:1 55:3 64:1 70:1 110:1 144:1 149:1 156:1 184:1 187:2 199:1 238:2 244:1 271:1 365:2 387:1 419:1 421:4 511:1 550:1 583:1 587:2 610:1 708:1 1101:1 1109:1 1164:1 1170:1 1486:1 1538:3 1891:1 1971:1 
1 7:2 8:1 13:2 15:4 23:2 31:1 33:1 39:1 44:1 55:1 69:1 72:1 92:1 96:1 111:1 114:2 119:1 150:1 156:2 163:1 199:1 212:1 214:1 238:1 242:1 375:1 385:1 492:2 587:4 660:1 794:1 849:1 957:1 1035:1 1102:1 1287:1 1401:1 1486:2 1538:1 1709:1 1804:1 
1 7:3 10:4 13:3 18:2 22:1 23:2 56:1 60:1 62:1 64:4 66:1 70:1 117:1 129:2 151:1 156:3 157:1 212:1 241:1 251:1 300:1 366:1 619:1 721:1 881:2 972:1 987:1 1004:1 1087:1 1101:4 1117:1 1119:1 1164:1 1278:1 1395:1 1486:3 1554:1 1734:1 1869:1 1959:2 1990:1 
1 1:5 2:4 3:1 5:1 6:3 7:1 8:2 11:2 18:1 21:1 23:1 26:1 41:1 48:1 110:1 151:1 238:2 243:1 247:1 272:1 306:1 421:2 424:1 731:1 852:1 881:1 987:1 1071:1 1170:1 1592:1 1595:1 
0.4744870912037299 7:3 8:1 15:2 22:1 42:2 47:1 56:1 59:1 69:1 70:1 129:1 152:1 154:1 157:1 169:1 171:1 223:1 238:1 239:1 251:1 262:1 328:1 355:1 422:1 517:1 520:1 587:2 643:1 742:2 874:1 1110:1 1164:1 1280:1 1616:1 1959:1 
1 7:2 9:2 10:2 13:1 15:1 22:1 64:2 68:1 156:1 192:1 212:1 251:1 587:1 1101:2 1115:1 1486:1 1598:1 
1 7:1 8:4 10:2 15:1 63:2 64:2 67:1 69:1 70:1 73:1 119:1 136:2 238:4 239:1 305:1 398:1 399:1 587:1 609:1 668:1 978:1 1071:1 1101:2 1164:1 1316:1 
1 7:1 9:2 13:1 46:1 69:1 70:1 119:1 156:1 386:1 933:1 1164:1 1486:1 1693:1 1921:1 
1 8:1 9:1 10:2 13:3 15:1 22:1 33:3 47:2 57:1 58:2 64:2 65:1 69:1 112:1 156:3 189:1 192:1 197:1 238:1 251:1 321:1 375:3 486:1 487:1 587:1 811:1 845:1 950:1 1101:2 1115:1 1117:1 1395:1 1486:3 
1 7:1 8:1 10:1 13:1 15:2 18:1 23:2 29:1 31:1 33:1 44:1 64:1 65:1 69:1 77:2 85:1 96:1 105:1 114:1 119:1 132:1 155:1 156:1 179:1 182:2 199:1 207:1 234:1 238:1 264:1 284:1 292:1 375:1 429:1 431:1 487:1 560:1 583:1 587:2 606:1 881:1 1101:1 1102:1 1123:1 1198:1 1440:1 1466:1 1486:1 1516:1 1741:1 
1 1:3 2:2 3:1 5:1 6:2 7:1 8:1 10:1 13:2 15:1 21:2 22:1 26:1 28:1 64:1 72:1 82:1 100:1 142:1 156:2 238:1 251:1 587:1 615:1 871:1 1101:1 1468:1 1486:2 1560:1 1709:1 
1 7:1 9:1 10:3 13:1 15:2 22:1 23:1 33:1 42:1 46:1 63:1 64:3 65:1 69:1 72:1 91:1 105:1 136:1 156:1 168:1 250:1 251:1 375:1 386:1 487:1 587:2 639:1 742:1 1071:1 1101:3 1486:1 1709:1 
1 7:4 8:2 10:2 12:5 13:1 15:2 18:3 23:1 33:1 43:1 46:1 51:1 54:5 56:1 59:1 64:2 66:1 69:1 72:1 87:1 92:1 107:1 126:1 139:1 154:1 156:1 157:1 169:1 177:1 178:1 206:1 209:1 238:2 241:1 242:1 307:1 375:1 386:1 520:1 587:2 619:1 698:2 821:1 849:1 881:3 1061:2 1101:2 1168:1 1486:1 1616:1 1709:1 1862:1 
0.7391620292075475 9:1 10:2 13:2 18:1 30:1 41:1 44:1 50:1 55:1 64:2 65:1 66:1 69:1 79:1 120:1 156:2 170:1 207:1 271:1 312:1 345:1 424:1 487:1 517:1 532:1 622:1 699:1 712:1 881:1 907:1 1101:2 1102:1 1151:1 1175:1 1486:2 1523:1 1538:1 1623:1 
0.241650167713559 7:3 9:5 10:2 15:1 23:1 29:1 33:1 39:1 51:1 59:1 60:2 64:2 67:1 69:1 76:1 77:1 107:1 164:1 178:1 182:1 183:1 216:1 241:1 257:1 273:1 289:2 292:1 300:2 375:1 425:1 427:1 520:1 557:1 587:1 594:1 619:1 792:1 861:1 978:1 1101:2 1110:1 1287:1 1328:1 1519:1 1616:1 1991:1 
1 7:4 9:1 13:1 23:2 44:1 47:1 50:3 56:5 59:2 69:1 84:2 116:2 138:5 146:1 156:1 157:5 193:1 270:1 271:3 281:1 308:2 330:1 334:2 366:1 520:2 1079:2 1102:1 1103:2 1278:1 1385:1 1486:1 1616:2 1838:1 1996:5 
1 7:3 9:2 15:2 23:1 55:1 60:1 102:1 130:1 229:1 241:1 261:1 300:1 587:2 619:1 747:1 804:1 1383:1 1456:1 1538:1 1566:1 1649:1 
1 7:2 13:4 15:1 18:1 22:1 23:1 39:1 43:1 47:1 49:1 57:1 63:1 76:1 85:1 87:1 111:1 112:1 136:1 156:4 165:1 197:1 200:1 209:1 251:1 259:1 264:1 306:1 321:1 427:1 587:1 751:1 881:1 1287:1 1486:4 1731:1 1764:1 1804:1 1869:1 1911:1 
1 9:2 10:2 13:4 22:1 30:1 44:1 46:1 48:2 51:1 56:2 61:1 63:2 64:2 69:5 71:1 79:1 128:1 136:2 142:1 156:4 157:2 178:1 185:1 202:1 251:1 285:2 338:1 386:1 408:1 567:1 601:1 615:1 659:1 732:1 828:1 1101:2 1102:1 1486:4 1592:2 1652:1 1990:1 
1 1:1 2:1 3:3 4:2 5:3 6:1 7:2 8:1 9:1 10:1 18:1 19:1 23:1 38:1 42:1 64:1 67:1 71:1 75:1 77:1 81:1 94:1 151:1 182:1 205:2 234:1 238:1 284:1 659:1 742:1 881:1 978:1 987:1 1082:1 1101:1 1440:1 1843:1 
1 7:1 8:1 10:4 13:1 15:1 18:1 23:1 31:1 44:1 46:1 47:1 49:1 62:1 64:4 69:1 72:2 76:1 85:2 105:1 112:1 156:1 166:1 185:1 199:1 217:1 220:1 238:1 264:2 311:1 354:1 386:1 427:1 434:1 587:1 653:1 881:1 896:1 1087:2 1101:4 1102:1 1226:1 1486:1 1639:1 1709:2 1731:1 
1 7:2 8:2 13:2 18:2 28:2 33:1 42:1 47:1 67:1 72:1 77:1 85:1 106:1 107:1 156:2 182:1 196:1 238:2 264:1 375:1 443:1 456:1 472:1 742:1 881:2 933:1 978:1 1438:1 1486:2 1709:1 1846:1 
1 7:2 8:3 9:1 10:3 13:4 15:4 22:1 23:1 33:1 42:2 43:1 47:1 56:1 58:1 64:3 69:1 87:1 88:1 114:1 118:1 126:1 145:1 156:4 157:1 216:1 238:3 242:1 251:1 274:1 275:1 298:1 341:1 375:1 410:1 441:1 587:4 742:2 872:1 963:1 1101:3 1154:1 1486:4 
0.4965485603749701 7:1 9:1 10:1 13:1 15:2 31:1 42:1 50:1 56:1 59:1 64:1 65:1 66:1 69:2 76:1 85:1 91:1 100:1 126:1 156:1 157:1 199:1 230:1 264:1 271:1 337:1 427:1 440:1 487:1 520:1 555:1 587:2 639:1 742:1 795:1 871:1 1075:1 1101:1 1314:1 1455:1 1486:1 1557:1 1564:1 1616:1 1703:1 1849:1 1868:1 1893:1 
0.5847779446906763 7:2 10:5 13:1 39:2 42:1 44:1 46:1 50:2 56:1 64:5 69:1 72:2 76:1 114:1 156:1 157:1 179:1 271:2 360:1 374:1 386:1 418:1 427:1 550:1 559:1 728:2 742:1 785:1 793:1 875:1 924:1 1003:1 1101:5 1102:1 1287:2 1414:1 1416:1 1486:1 1709:2 1741:1 
1 7:2 8:2 9:2 10:1 13:1 15:1 23:2 29:1 30:1 43:1 47:1 49:1 55:1 56:2 64:1 68:1 69:1 70:1 79:1 87:1 112:1 130:1 134:1 138:1 149:1 156:1 157:2 187:1 228:1 238:2 292:1 587:1 936:1 1022:1 1101:1 1164:1 1456:1 1486:1 1538:1 1731:1 1971:1 1996:1 
1 1:4 2:3 3:1 5:1 6:2 7:1 8:4 10:1 11:2 18:1 22:1 23:1 26:1 39:1 64:1 76:1 110:1 130:1 185:1 195:1 238:4 251:1 286:1 348:1 421:2 427:1 881:1 1071:1 1101:1 1170:1 1287:1 1456:1 
1 7:2 8:3 9:1 10:3 13:3 29:1 41:1 46:1 63:3 64:3 66:1 69:1 117:1 136:3 156:3 168:1 190:1 212:1 238:3 253:1 292:1 309:1 328:1 386:1 394:1 424:1 550:1 994:1 1101:3 1119:1 1312:1 1486:3 1589:1 1679:1 
1 7:4 8:2 10:1 13:2 22:1 33:1 43:2 48:1 55:1 59:1 62:1 63:1 64:1 65:1 69:1 72:1 87:2 90:1 102:1 114:1 136:1 138:1 146:1 156:2 187:1 238:2 251:1 375:1 487:1 512:1 520:1 1006:1 1101:1 1120:1 1177:1 1385:1 1486:2 1538:1 1566:1 1592:1 1616:1 1709:1 1747:1 1857:1 1996:1 
1 7:1 9:1 10:2 13:3 15:1 23:1 31:2 33:1 41:1 42:1 64:2 69:1 90:1 104:1 115:1 151:1 156:3 199:2 351:1 367:1 375:1 424:1 479:1 534:1 560:2 587:1 739:1 742:1 771:1 913:1 987:1 1089:1 1101:2 1486:3 
1 7:4 8:1 13:3 14:1 15:1 18:1 23:1 30:2 31:1 41:1 55:1 56:1 63:1 66:1 68:1 69:2 79:2 100:1 105:1 111:1 136:1 156:3 157:1 169:1 199:1 220:1 224:1 238:1 312:1 326:1 333:1 395:1 424:1 449:1 498:1 587:1 767:1 871:1 881:1 1151:1 1401:1 1486:3 1538:1 1804:1 1888:1 
1 7:1 8:1 13:2 22:1 85:1 156:2 238:1 241:1 251:1 264:1 367:1 619:1 766:1 780:1 842:1 933:1 1486:2 
1 7:1 9:1 10:1 13:1 31:1 42:1 44:1 48:1 55:1 56:1 62:1 64:1 69:1 106:1 132:2 156:1 157:1 170:2 187:1 189:1 199:1 403:1 483:1 517:3 596:1 742:1 1101:1 1102:1 1123:2 1344:1 1486:1 1538:1 1592:1 1623:2 1791:1 1846:1 
1 7:1 8:1 10:3 13:1 23:1 29:2 33:1 41:2 46:1 64:3 68:1 115:1 156:1 238:1 292:2 375:1 386:1 424:2 818:1 1101:3 1113:1 1486:1 1892:1 
0.2331592008187626 7:1 8:1 13:3 22:1 39:1 42:1 67:2 69:1 77:1 89:1 119:1 156:3 175:1 182:1 185:1 190:1 238:1 251:1 404:4 742:1 751:1 826:1 862:1 978:2 1287:1 1431:1 1486:3 1589:1 1994:1 
0.8878321464693265 7:2 8:1 9:3 13:1 14:1 23:1 31:1 33:1 44:2 50:1 55:1 57:1 60:1 63:1 68:1 69:1 100:1 133:1 136:1 140:1 156:1 175:1 186:1 197:1 199:1 238:1 271:1 300:1 339:1 375:1 644:1 673:1 712:1 747:1 871:1 1102:2 1175:1 1486:1 1538:1 1775:1 
1 7:3 8:1 9:2 13:1 15:1 22:1 29:1 31:1 41:1 44:1 69:1 97:1 98:1 105:1 156:1 199:1 223:1 238:1 251:1 292:1 424:1 471:1 559:1 587:1 617:1 731:1 772:1 924:1 951:1 1045:1 1102:1 1486:1 
1 7:2 8:1 9:2 10:1 13:3 23:1 29:1 39:1 44:2 57:1 64:1 66:1 69:1 70:1 77:1 91:1 107:2 117:1 119:2 156:3 177:1 182:1 197:1 237:1 238:1 246:1 247:1 270:1 292:1 357:1 363:1 537:1 639:1 792:1 821:1 989:1 1101:1 1102:2 1119:1 1164:1 1287:1 1486:3 1927:1 
1 7:4 8:1 10:1 13:2 22:1 23:3 48:1 56:1 64:1 68:1 69:2 85:1 88:1 114:1 156:2 157:1 185:1 202:1 238:1 251:1 264:1 274:1 498:1 601:1 769:1 826:1 842:1 1101:1 1176:1 1486:2 1592:1 
1 7:5 10:4 15:1 22:1 33:2 48:1 49:1 50:1 51:1 59:1 60:1 64:4 66:1 74:1 97:1 130:1 132:1 148:1 159:1 178:1 235:1 251:1 271:1 278:1 281:1 291:1 300:1 344:1 363:1 375:2 387:1 520:1 587:1 610:1 951:1 1101:4 1103:1 1123:1 1179:1 1456:1 1573:1 1592:1 1616:1 1627:1 1638:1 1731:1 1759:1 1852:1 
1 7:6 8:2 9:1 13:1 15:1 22:1 23:1 43:1 55:1 58:1 69:1 87:1 88:1 105:1 126:1 135:1 140:1 156:1 180:1 183:1 216:1 222:1 238:2 251:1 253:1 274:1 327:1 339:1 344:1 403:1 491:1 587:1 625:1 892:1 938:1 1051:1 1061:1 1328:1 1337:1 1400:1 1486:1 1538:1 1725:1 1775:1 1791:1 
1 4:1 5:1 7:5 8:1 9:2 10:2 15:1 18:1 23:1 31:1 41:1 51:1 55:1 57:1 62:1 64:2 88:1 96:1 105:1 148:1 177:1 178:1 185:1 187:1 197:1 199:1 209:1 222:1 226:1 238:1 274:1 309:1 424:1 587:1 821:1 875:1 881:1 947:1 1101:2 1380:1 1538:1 1573:1 1892:1 1920:1 1994:1 
1 4:1 5:1 7:1 8:1 9:1 10:1 13:2 18:2 22:1 30:2 31:1 42:1 44:1 47:1 51:1 55:1 64:1 69:1 79:2 84:1 106:1 150:1 156:2 178:1 186:1 193:1 199:1 220:1 231:1 234:1 238:1 251:1 265:1 339:1 344:1 364:2 436:1 644:1 742:1 881:2 1071:1 1079:1 1101:1 1102:1 1486:2 1538:1 1688:1 1846:1 
1 7:2 8:1 9:1 10:1 15:1 18:1 22:1 23:1 31:1 41:3 56:1 64:1 66:1 69:2 76:1 96:1 101:1 126:1 132:1 157:1 199:1 201:1 228:1 238:1 251:1 422:2 424:3 427:1 447:1 473:1 491:1 587:1 881:1 1083:1 1101:1 1123:1 1989:1 
1 7:1 8:1 9:2 10:2 18:2 23:2 30:1 33:2 46:1 59:1 64:2 67:2 69:1 70:1 76:1 77:2 79:1 84:1 101:1 130:1 182:2 216:1 238:1 250:1 311:1 375:2 386:1 400:1 427:1 447:1 452:1 520:1 602:1 881:2 978:2 1079:1 1101:2 1105:1 1164:1 1456:1 1616:1 1730:1 
1 4:1 5:1 7:1 8:1 9:3 10:2 15:2 18:1 22:1 30:1 33:1 39:1 41:1 43:2 47:1 62:1 64:2 65:1 69:1 75:1 79:1 87:2 126:1 130:1 132:1 209:1 238:1 251:1 272:1 373:1 375:1 424:1 487:1 587:2 651:1 881:1 1101:2 1123:1 1287:1 1456:1 1655:1 1794:1 1843:1 
1 1:1 2:1 3:3 4:2 5:3 6:1 7:2 8:2 10:1 13:1 15:1 19:1 28:1 29:1 30:2 38:1 39:1 41:1 59:1 60:2 63:2 64:1 70:1 71:1 72:1 79:2 81:1 91:2 94:1 104:1 117:1 126:1 136:2 152:1 156:1 162:2 180:1 186:1 205:2 238:2 265:1 283:1 292:1 300:2 321:1 351:1 414:1 424:1 432:1 520:1 523:1 587:1 639:2 659:1 790:1 1101:1 1113:1 1119:1 1141:2 1164:1 1287:1 1486:1 1533:1 1616:1 1709:1 1916:1 
1 7:2 8:2 9:1 10:2 13:1 15:2 18:1 23:2 43:2 46:1 47:1 64:2 69:1 77:1 85:2 87:2 88:1 91:1 96:1 106:1 112:1 156:1 175:1 182:1 209:1 238:2 253:1 264:2 274:1 386:1 587:2 639:1 744:1 881:1 933:1 1101:2 1471:1 1486:1 1817:1 1846:1 
1 7:1 8:1 9:2 10:3 13:1 15:2 22:2 29:1 31:1 33:2 47:1 64:3 65:1 66:1 69:1 105:1 126:1 156:1 177:1 199:1 229:2 238:1 247:1 251:2 292:1 375:2 476:1 487:1 526:1 531:1 587:2 695:1 821:1 969:1 1101:3 1372:2 1486:1 1561:1 1649:2 
1 7:4 8:1 9:3 15:2 29:1 31:1 39:1 44:2 47:1 49:1 59:2 60:2 67:1 117:1 129:1 132:1 140:1 143:1 155:1 186:1 199:1 238:1 282:1 292:1 300:2 404:1 431:1 520:2 587:2 723:2 837:1 960:1 978:1 1102:2 1119:1 1123:1 1287:1 1319:1 1464:1 1616:2 1731:1 1774:1 1775:1 1959:1 
1 7:1 9:1 10:2 13:2 15:2 18:1 22:2 23:1 30:1 31:2 47:1 55:1 56:1 58:1 64:2 69:2 79:1 83:1 89:1 138:1 156:2 157:1 199:2 203:1 214:1 251:2 253:1 281:1 587:2 617:1 881:1 1046:1 1101:2 1133:1 1317:1 1434:1 1486:2 1538:1 1773:1 1996:1 
1 1:14 2:13 3:1 5:2 6:7 7:6 8:3 9:4 10:3 11:12 13:2 15:2 18:2 22:5 26:1 33:1 39:1 47:1 48:1 56:1 57:1 59:1 61:2 64:3 68:1 72:1 91:3 110:1 119:1 156:2 157:1 159:2 164:1 197:1 235:1 238:3 242:1 247:1 251:5 273:1 375:1 421:12 432:1 434:1 504:1 520:1 587:2 596:1 639:3 668:1 769:1 880:1 881:2 933:1 1101:3 1170:1 1287:1 1350:1 1486:2 1540:1 1592:1 1616:1 1638:2 1709:1 1809:1 1820:1 
1 7:1 8:1 10:4 13:2 18:1 22:1 29:1 39:1 41:1 48:1 64:4 65:1 69:1 132:1 134:1 156:2 238:1 251:1 292:1 381:1 424:1 487:1 831:1 837:1 881:1 972:1 1101:4 1123:1 1238:1 1287:1 1380:1 1415:1 1486:2 1592:1 1711:1 
1 7:3 8:2 9:6 10:5 15:1 18:2 22:4 41:1 64:5 68:1 72:1 92:1 126:2 159:1 165:2 196:1 238:2 251:4 338:1 343:1 385:1 424:1 531:1 587:1 609:1 675:1 736:1 771:1 849:1 870:1 881:2 1000:1 1007:1 1043:1 1051:1 1101:5 1353:1 1438:1 1591:1 1638:1 1709:1 1845:1 1949:1 
1 4:1 5:1 7:1 8:2 9:2 10:1 13:1 28:1 31:2 33:1 44:1 64:1 84:1 85:1 90:1 92:1 105:1 126:1 133:1 140:1 156:1 199:2 200:1 217:1 238:2 264:1 364:1 375:1 385:1 456:1 517:1 849:1 1079:1 1087:1 1101:1 1102:1 1315:1 1486:1 1775:1 1869:1 1911:1 
1 7:2 9:4 10:1 15:2 18:2 23:1 43:2 51:1 58:1 64:1 68:1 69:1 76:1 78:2 87:2 93:2 140:1 168:1 178:1 216:1 220:1 240:2 296:1 344:1 350:1 356:1 366:1 427:1 587:2 614:2 762:1 827:1 881:2 1101:1 1278:1 1775:1 1928:1 
1 7:2 8:1 9:2 10:3 13:3 15:2 30:1 39:1 44:1 47:1 55:1 61:1 62:1 63:2 64:3 69:1 79:1 83:1 99:1 111:1 117:1 136:2 151:1 156:3 163:1 186:1 238:1 260:1 284:1 339:1 344:1 348:1 553:1 587:2 761:1 838:1 899:1 987:1 1101:3 1102:1 1119:1 1133:1 1287:1 1336:1 1389:1 1440:1 1486:3 1538:1 1719:1 1804:1 
1 7:1 8:1 9:4 10:4 13:1 15:1 18:1 22:1 29:1 39:1 64:4 66:1 69:1 84:1 91:1 99:1 130:1 156:1 162:1 229:1 238:1 251:1 292:1 296:1 340:1 411:1 481:1 587:1 639:1 881:1 1079:1 1101:4 1287:1 1306:1 1456:1 1486:1 1649:1 1719:1 1751:1 
1 7:1 8:1 9:3 10:2 13:2 15:2 18:2 23:1 29:1 31:1 42:1 47:1 55:1 64:2 69:1 104:1 115:1 128:1 133:1 156:2 187:1 198:1 199:1 238:1 292:1 351:1 434:1 523:1 547:1 587:2 742:1 807:1 881:2 1101:2 1486:2 1538:1 1569:1 
1 5:1 7:1 8:2 9:2 13:1 18:1 29:1 30:1 39:3 42:1 56:1 61:1 69:1 72:1 79:1 100:1 102:1 104:2 110:1 119:1 156:1 157:1 207:1 219:1 238:2 250:1 260:1 292:1 310:1 351:2 478:2 742:1 871:1 881:1 1170:1 1287:3 1336:1 1486:1 1566:1 1709:1 
1 7:2 9:1 10:2 13:1 15:3 22:1 23:1 31:1 46:1 61:1 62:1 64:2 69:1 82:1 100:1 105:1 117:1 129:1 139:1 156:1 168:1 199:1 241:1 244:1 251:1 290:1 313:1 316:1 318:1 374:1 386:1 587:3 619:1 711:1 757:1 871:1 1087:1 1101:2 1110:1 1119:1 1377:1 1486:1 1718:1 1869:1 1959:1 
1 1:5 2:4 3:1 5:1 6:2 7:1 8:3 9:1 10:1 11:2 13:1 22:1 26:1 29:1 33:1 60:1 64:1 78:1 107:1 110:1 119:1 152:1 156:1 175:1 234:1 238:3 240:1 251:1 292:1 300:1 375:1 399:1 421:2 578:1 780:1 793:1 1101:1 1170:1 1316:1 1353:1 1486:1 1520:1 1605:1 1809:1 1969:1 
1 7:1 8:1 9:1 13:2 18:4 22:2 23:1 29:1 30:1 56:1 66:1 68:1 69:1 79:1 88:1 99:2 156:2 157:1 229:1 238:1 251:2 262:1 274:1 292:1 355:1 582:1 609:1 650:1 721:2 809:1 881:4 1486:2 1581:1 1649:1 1667:1 1719:2 
1 4:1 5:1 7:1 8:2 9:1 10:1 15:2 18:1 30:2 33:1 39:1 41:1 44:1 48:2 64:1 69:1 79:2 84:1 191:1 238:2 314:1 358:1 375:1 399:1 424:1 443:1 587:2 679:1 881:1 1079:1 1101:1 1102:1 1183:1 1287:1 1316:1 1592:2 
1 8:1 9:3 10:1 13:5 15:2 29:1 30:2 31:2 42:1 47:1 57:1 64:1 65:1 69:1 78:1 79:2 83:2 122:1 134:1 156:5 186:1 197:1 199:2 238:1 240:1 290:1 292:1 439:1 487:1 509:1 587:2 742:1 789:2 966:1 1087:1 1089:2 1101:1 1133:2 1162:1 1486:5 1651:1 1654:1 1899:1 
1 7:1 8:2 9:2 13:1 15:1 22:1 33:1 41:1 47:1 67:1 69:1 71:1 72:2 99:1 148:1 156:1 183:1 185:1 234:1 238:2 251:1 275:1 296:1 343:1 364:1 368:1 375:1 424:1 433:1 517:1 575:1 587:1 659:1 792:1 978:1 990:1 1328:1 1486:1 1573:1 1709:2 1719:1 
1 7:2 9:2 10:4 13:2 22:2 33:1 64:4 69:1 72:1 74:2 119:1 156:2 189:1 251:2 260:1 276:1 375:1 472:1 729:1 1055:1 1101:4 1336:1 1345:1 1353:1 1486:2 1709:1 1759:2 1889:1 
1 7:2 8:2 10:2 13:2 15:3 18:1 22:1 31:1 41:1 44:2 47:1 64:2 66:1 68:1 69:2 71:1 78:1 85:1 105:1 129:1 134:1 156:2 199:1 238:2 240:1 241:1 251:1 264:1 290:1 321:1 344:1 395:1 424:1 587:3 619:1 659:1 747:1 881:1 1087:1 1101:2 1102:2 1246:1 1314:1 1371:1 1486:2 1490:1 1959:1 
1 7:3 8:2 9:2 10:2 13:1 23:2 29:1 30:2 31:1 39:1 41:1 46:1 49:1 55:1 64:2 75:1 79:2 156:1 173:1 187:1 199:1 238:2 272:1 282:1 292:1 386:1 423:1 424:1 506:1 656:2 887:1 981:1 1101:2 1251:1 1287:1 1486:1 1520:1 1538:1 1594:1 1731:1 1782:1 1806:1 1843:1 
1 7:2 8:2 10:1 13:1 15:2 23:2 29:1 33:1 43:1 47:1 49:1 56:1 63:2 64:1 69:1 84:1 87:1 111:1 115:1 118:1 136:2 146:2 156:1 157:1 200:1 216:1 238:2 246:1 292:1 298:1 299:1 325:1 340:1 375:1 385:1 509:1 582:1 587:2 697:1 721:1 962:1 1071:1 1079:1 1101:1 1385:2 1486:1 1731:1 1804:1 1869:1 1911:1 
1 7:2 9:1 10:1 13:1 22:1 23:1 29:1 30:1 33:1 55:1 64:1 79:1 98:1 112:1 145:1 156:1 248:1 251:1 292:1 339:1 375:1 568:1 579:1 686:1 801:1 1009:1 1091:1 1101:1 1373:1 1486:1 1538:1 1975:1 
1 7:4 8:2 9:1 10:2 13:2 15:3 18:1 22:2 30:3 33:1 42:1 46:1 47:3 49:1 59:1 63:1 64:2 67:1 79:3 82:1 98:1 107:1 111:1 126:1 132:1 136:1 148:1 156:2 207:1 220:1 238:2 251:2 261:1 306:1 345:1 363:1 375:1 386:1 443:1 517:1 520:1 587:3 603:1 742:1 881:1 915:1 978:1 1101:2 1123:1 1486:2 1488:1 1573:1 1616:1 1692:1 1731:1 1804:1 
