svm_type c_svc
kernel_type rbf
gamma 0.00050025
nr_class 2
total_sv 2238
rho 0.570125
label 1 -1
probA -1.71601
probB 0.821629
nr_sv 1081 1157
SV
0.5946721996826464 1:36 2:36 6:31 7:2 9:25 11:6 21:24 80:6 171:1 210:24 421:6 539:1 649:1 771:1 1298:1 1362:2 
1 10:5 12:2 13:6 15:1 18:1 54:2 56:1 61:1 62:2 64:5 69:1 139:1 155:1 156:6 157:1 162:1 348:1 368:1 397:1 431:1 587:1 683:2 695:1 881:1 990:1 1101:5 1300:4 1486:6 
1 1:6 2:5 3:1 5:1 7:8 11:3 19:1 21:2 38:1 73:1 74:1 123:3 293:1 421:3 575:1 984:1 1056:1 1142:1 1157:3 1298:1 1759:1 
1 1:4 2:4 6:3 8:1 9:2 12:1 13:2 18:2 21:2 22:2 23:2 29:1 39:1 40:2 54:1 56:1 58:1 63:1 67:2 88:2 111:1 128:1 134:1 136:1 156:2 157:1 190:1 223:1 238:1 251:2 274:2 285:1 292:1 344:1 616:1 617:1 853:1 881:2 978:2 1191:1 1287:1 1300:1 1486:2 1589:1 1804:1 1951:1 
0.9794412273766551 1:6 2:6 7:12 8:1 11:6 17:1 73:5 205:1 238:1 275:1 421:6 483:1 575:1 697:1 904:1 1056:1 1247:1 
1 1:6 2:6 7:12 8:1 11:6 17:1 73:5 205:1 238:1 275:1 421:6 483:1 575:1 697:1 904:1 1056:1 1247:1 
0.9962035302026065 1:6 2:6 7:12 8:1 11:6 17:1 73:5 205:1 238:1 275:1 421:6 483:1 575:1 697:1 904:1 1056:1 1247:1 
1 7:2 8:1 10:1 17:1 22:1 46:1 64:1 78:1 85:1 133:1 144:1 184:1 238:1 240:1 251:1 264:1 342:1 355:2 386:1 545:1 1101:1 1187:1 
1 1:10 2:10 7:12 8:1 17:1 21:10 73:5 205:1 238:1 275:1 483:1 575:1 697:1 904:1 1056:1 1247:1 
1 8:1 13:2 15:3 30:2 33:1 39:2 41:1 43:1 47:2 49:1 50:1 56:2 69:1 71:1 79:2 87:1 88:1 97:1 104:1 156:2 157:2 168:1 207:1 219:1 238:1 271:1 274:1 276:1 344:1 347:1 351:1 375:1 404:1 414:1 424:1 546:1 584:1 587:3 604:1 659:1 695:1 951:1 966:1 1055:1 1178:1 1280:1 1287:2 1474:1 1486:2 1731:1 
1 7:1 8:2 9:1 10:2 15:2 18:1 23:1 29:2 30:1 33:2 39:1 46:1 48:1 51:1 64:2 69:1 77:1 79:1 119:1 138:1 142:1 148:1 149:1 154:1 169:1 178:1 182:1 238:2 292:2 315:1 323:1 344:1 375:2 386:1 456:1 531:1 584:1 587:2 615:1 881:1 911:1 1101:2 1166:1 1287:1 1430:1 1573:1 1592:1 1622:1 1971:1 1996:1 
1 1:2 2:2 7:2 15:1 18:1 21:2 33:1 65:1 73:1 78:1 82:1 112:1 126:1 135:1 148:1 150:1 240:1 302:1 359:1 375:1 487:1 489:1 587:1 881:1 1573:1 1725:1 
1 7:1 8:2 9:2 12:4 13:3 15:2 22:1 49:2 54:4 59:3 61:1 69:2 129:1 135:1 156:3 159:1 160:1 166:1 168:1 202:1 219:1 238:2 251:1 312:1 330:1 378:1 520:3 587:2 601:1 695:1 805:1 938:2 1151:1 1486:3 1616:3 1638:1 1715:1 1725:1 1731:2 1959:1 
1 1:21 2:21 7:8 15:1 21:21 33:8 72:1 73:8 161:1 180:1 293:8 338:2 375:8 531:2 575:1 587:1 908:3 964:1 1253:1 1329:2 1709:1 1862:1 
1 7:1 8:1 13:1 15:1 73:3 156:1 238:1 390:1 398:2 562:1 587:1 890:1 891:1 904:2 916:1 1340:1 1368:1 1486:1 
1 7:3 10:1 13:2 15:1 23:2 30:2 33:1 62:1 64:1 79:2 116:1 128:1 138:2 156:2 161:1 170:1 272:1 334:1 375:1 473:1 534:1 585:1 587:1 966:1 1101:1 1103:2 1474:1 1486:2 1557:1 1623:1 1996:2 
0.9757874685622603 1:47 2:47 7:5 8:1 9:5 10:4 12:1 13:4 15:1 18:1 21:47 22:1 31:1 33:1 39:1 44:1 46:2 49:1 54:1 64:4 73:6 74:1 92:1 102:1 105:1 112:1 116:1 123:21 129:2 150:4 156:4 165:1 194:1 199:1 231:9 235:1 238:1 251:1 334:1 373:1 375:1 386:2 459:1 587:1 593:13 632:1 652:1 849:1 881:1 891:1 931:1 964:1 1024:1 1101:4 1102:1 1287:1 1309:3 1430:1 1486:4 1566:1 1731:1 1759:1 1794:1 1811:1 1918:1 1959:2 
0.5986256593554165 7:3 8:2 10:1 13:1 22:1 29:1 64:1 156:1 162:1 238:2 251:1 261:1 292:1 599:1 1061:1 1101:1 1197:1 1486:1 1718:1 
1 7:1 8:1 9:2 10:3 13:2 18:1 22:1 47:1 49:1 64:3 68:1 69:1 70:1 78:1 107:1 152:1 156:2 196:1 238:1 240:1 247:1 251:1 881:1 1068:1 1101:3 1113:1 1164:1 1340:1 1438:1 1486:2 1498:1 1731:1 
1 7:2 10:1 13:1 15:1 18:1 22:1 33:1 59:1 64:1 68:1 74:2 78:1 132:1 156:1 240:1 251:1 375:1 520:1 587:1 881:1 1101:1 1123:1 1486:1 1616:1 1622:1 1759:2 
1 1:6 2:6 6:1 7:8 10:2 11:2 21:2 33:2 64:2 73:3 233:2 293:1 362:1 375:2 398:1 421:2 697:1 1082:1 1101:2 1142:1 1459:2 1511:2 1665:2 1862:1 
1 7:1 10:1 13:2 42:1 44:1 64:1 69:2 156:2 360:1 474:1 742:1 1101:1 1102:1 1414:1 1486:2 
1 4:1 5:1 7:1 9:4 10:2 13:1 15:1 28:1 41:1 42:1 51:1 59:2 64:2 69:1 97:2 101:1 111:2 130:1 134:1 156:1 162:1 170:1 178:1 256:1 312:2 374:1 422:1 424:1 447:1 520:2 587:1 591:1 742:1 748:1 857:1 951:2 1101:2 1151:2 1456:1 1486:1 1616:2 1622:1 1623:1 1804:2 1818:1 
1 7:2 8:1 9:1 10:2 13:1 15:2 18:2 23:4 42:2 44:1 46:1 57:2 64:2 69:1 117:1 146:1 156:1 197:2 224:1 238:1 386:1 587:2 742:2 881:2 1101:2 1102:1 1119:1 1300:1 1385:1 1486:1 1699:1 
1 4:2 5:2 7:2 10:2 12:3 13:3 15:1 22:1 33:1 39:1 44:1 54:3 56:1 58:1 63:1 64:2 68:2 69:1 78:2 83:2 105:2 119:1 136:1 152:1 156:3 157:1 240:2 251:1 252:1 323:1 375:1 416:1 504:1 509:1 556:1 587:1 906:1 913:1 1101:2 1102:1 1133:2 1287:1 1461:1 1486:3 1645:1 
1 7:2 8:2 9:1 13:1 23:2 76:1 156:1 238:2 289:1 427:1 454:1 585:1 772:1 1071:1 1238:1 1470:1 1486:1 
1 1:6 2:6 6:1 7:8 10:2 11:2 21:2 33:2 64:2 73:3 233:2 293:1 362:1 375:2 398:1 421:2 697:1 1082:1 1101:2 1142:1 1459:2 1511:2 1665:2 1862:1 
1 7:2 10:2 43:9 64:2 69:1 87:9 93:7 173:1 200:1 206:1 290:1 313:1 614:7 887:1 1101:2 1280:10 1697:1 1911:1 
1 7:3 8:1 9:1 10:2 12:1 15:3 23:2 29:1 39:1 41:1 44:1 46:1 47:1 51:1 54:1 63:1 64:2 71:2 107:1 114:1 132:1 136:1 148:1 164:1 165:1 169:1 178:1 238:1 239:1 268:1 273:1 292:1 376:1 386:1 406:1 424:1 579:1 587:3 659:2 1101:2 1102:1 1114:1 1123:1 1287:1 1557:1 1573:1 1840:1 
0.6104035431271311 4:1 5:1 7:1 8:2 9:1 18:1 22:1 28:1 30:2 41:1 51:1 63:1 67:1 69:1 79:2 111:1 122:1 136:1 178:1 207:2 222:1 238:2 246:1 251:1 424:1 599:1 881:1 936:1 978:1 1353:1 1651:1 1804:1 
1 7:1 9:1 10:2 13:1 15:2 22:1 23:2 31:2 41:3 42:1 44:1 56:1 64:2 69:1 78:1 88:1 96:1 100:1 130:1 132:1 138:1 156:1 157:1 160:1 177:1 183:1 185:1 199:2 240:1 243:1 251:1 262:1 274:1 363:1 424:3 513:2 587:2 599:3 662:1 742:1 821:1 871:1 1051:1 1101:2 1102:1 1123:1 1222:2 1328:1 1456:1 1486:1 1595:1 1787:1 1996:1 
1 4:1 5:1 7:3 8:1 9:1 15:2 18:2 23:1 30:2 41:1 44:1 57:2 69:5 76:1 77:1 79:2 130:1 182:1 197:2 237:1 238:1 266:1 319:1 363:1 424:1 427:1 587:2 781:1 842:1 881:2 1102:1 1456:1 
1 7:2 10:2 13:1 22:1 39:1 46:1 64:2 68:1 156:1 196:1 251:1 386:1 1101:2 1287:1 1438:1 1486:1 
1 13:4 15:2 29:1 43:2 49:1 55:1 69:2 71:1 74:5 87:2 88:4 104:1 118:3 119:1 146:1 156:4 203:1 274:4 292:1 298:3 351:1 365:1 535:1 565:1 587:2 659:1 1317:1 1385:1 1477:1 1486:4 1538:1 1731:1 1759:5 
1 1:10 2:10 7:3 9:10 10:2 11:1 21:10 48:4 64:2 71:1 73:3 74:1 89:1 123:3 191:1 194:1 210:2 358:1 421:1 459:4 489:3 553:1 562:4 659:1 890:1 907:1 908:1 984:1 1101:2 1171:1 1592:4 1626:4 1759:1 1811:4 1918:1 
1 1:3 2:3 6:1 7:3 8:1 9:1 11:2 13:2 21:1 22:1 48:1 57:1 118:1 156:2 162:1 197:1 212:1 216:1 238:1 251:1 265:1 288:1 298:1 347:1 421:2 599:2 673:1 827:1 1141:1 1348:1 1486:2 1592:1 
1 7:3 8:2 9:2 13:2 15:2 18:1 23:2 33:2 42:1 55:1 62:1 66:1 69:1 101:1 120:1 156:2 164:1 173:1 230:2 235:1 238:2 273:1 283:1 308:1 339:1 348:1 375:2 447:1 478:1 587:2 721:1 742:1 881:1 887:1 900:1 1300:1 1365:5 1486:2 1533:1 1538:1 1703:2 
1 7:2 8:1 9:2 13:2 15:1 22:1 23:2 30:1 47:3 55:1 69:1 79:1 100:1 156:2 194:1 238:1 251:1 268:2 335:1 339:1 587:1 652:1 871:1 1300:1 1486:2 1538:1 1918:1 
1 1:7 2:6 3:2 5:2 6:6 7:2 8:3 9:1 10:1 11:1 13:2 18:1 21:4 26:2 28:1 29:1 30:1 42:1 48:2 58:1 64:1 67:1 71:1 79:1 83:1 101:1 110:1 119:1 156:2 210:2 238:3 239:1 292:1 312:1 421:1 447:1 652:1 659:1 742:1 881:1 978:1 1101:1 1133:1 1151:1 1170:1 1363:1 1486:2 1592:2 1920:1 
1 7:1 8:2 9:3 10:1 13:1 23:1 46:1 64:1 69:1 71:1 152:1 156:1 238:2 290:1 386:1 401:1 441:1 474:1 659:1 1101:1 1486:1 
1 7:1 8:2 9:3 10:1 13:1 23:1 46:1 64:1 69:1 71:1 152:1 156:1 238:2 290:1 386:1 401:1 441:1 474:1 659:1 1101:1 1486:1 
1 7:1 8:2 9:3 10:1 13:1 23:1 46:1 64:1 69:1 71:1 152:1 156:1 238:2 290:1 386:1 401:1 441:1 474:1 659:1 1101:1 1486:1 
1 7:1 8:2 9:3 10:1 13:1 23:1 46:1 64:1 69:1 71:1 152:1 156:1 238:2 290:1 386:1 401:1 441:1 474:1 659:1 1101:1 1486:1 
1 5:2 7:4 9:2 10:6 13:1 15:3 30:1 33:1 48:2 64:6 66:1 76:1 79:1 89:1 118:1 156:1 188:1 298:1 307:1 312:1 375:1 427:1 464:1 587:3 603:2 1101:6 1151:1 1275:1 1486:1 1592:2 1756:1 
1 1:11 2:11 6:1 7:2 18:1 21:11 49:1 70:1 73:8 74:1 82:1 89:1 93:1 115:1 152:1 236:1 563:1 614:1 698:1 762:1 881:1 890:1 891:2 1056:1 1142:1 1164:1 1321:1 1553:3 1710:3 1731:1 1759:1 1862:1 
1 7:1 9:4 10:1 13:3 15:2 23:1 44:1 46:1 62:1 64:1 67:1 69:1 70:1 110:1 123:1 129:1 156:3 201:1 386:1 481:1 486:1 587:2 630:1 978:1 1030:1 1071:1 1101:1 1102:1 1164:1 1170:1 1242:1 1486:3 1959:1 1989:1 
1 7:3 9:2 10:1 13:2 15:1 18:1 23:1 29:1 31:1 33:1 46:1 47:1 49:1 50:1 55:1 64:1 65:2 69:1 106:1 126:1 128:1 129:1 156:2 177:1 179:1 180:1 187:1 191:1 199:1 271:1 292:1 358:1 375:1 386:1 487:2 587:1 821:1 881:1 1101:1 1408:1 1486:2 1538:1 1731:1 1741:1 1846:1 1869:1 1959:1 
0.1305651593768638 7:4 9:3 13:1 23:2 29:1 31:1 33:1 42:1 44:1 47:1 58:1 77:2 99:1 130:1 156:1 173:1 175:2 177:1 182:2 199:1 228:1 292:1 311:2 319:1 375:1 441:1 513:1 679:1 742:1 781:1 821:1 887:1 1102:1 1222:1 1456:1 1486:1 1719:1 
1 7:2 9:1 13:1 15:1 22:1 33:1 41:1 78:1 83:1 128:1 142:1 152:1 156:1 202:1 240:1 250:3 251:1 375:1 424:1 587:1 601:1 615:1 862:1 1089:1 1120:1 1133:1 1486:1 
1 4:2 5:2 7:1 10:3 22:1 33:1 46:1 64:3 72:1 119:1 144:1 184:1 251:1 375:1 386:1 1101:3 1671:1 1709:1 
1 7:1 8:1 9:1 10:3 13:1 15:1 18:1 22:2 29:1 39:1 41:1 42:1 64:3 69:1 73:1 85:1 132:1 148:1 156:1 166:1 170:1 238:1 250:1 251:2 264:1 292:1 307:1 309:1 314:1 397:1 424:1 567:1 587:1 742:1 881:1 1101:3 1120:1 1123:1 1287:1 1364:1 1486:1 1573:1 1623:1 
1 8:2 9:4 10:2 13:1 15:1 22:1 23:1 30:1 33:1 42:1 44:1 47:1 50:2 56:1 58:1 62:1 64:2 69:1 71:1 79:1 154:1 156:1 157:1 229:1 238:2 251:1 271:2 361:1 375:1 587:1 659:1 742:1 1101:2 1102:1 1117:1 1139:1 1395:1 1486:1 1649:1 
1 7:2 8:1 9:2 12:2 13:1 23:3 29:1 31:1 42:1 43:2 54:2 55:1 56:1 57:1 63:1 68:1 69:1 72:1 87:2 114:1 136:1 156:1 157:1 161:2 177:1 179:1 180:1 185:1 187:1 197:1 199:1 220:1 238:1 280:1 288:1 292:1 293:1 376:1 609:1 742:1 821:1 866:1 1136:1 1486:1 1538:1 1709:1 1741:1 1787:4 
1 9:1 10:1 12:3 13:1 15:3 30:1 31:3 41:1 44:1 47:1 50:1 54:3 61:1 64:1 69:1 72:1 74:1 75:1 76:1 79:1 90:1 97:1 104:1 142:2 149:1 156:1 175:1 177:1 199:3 214:1 219:1 239:1 271:1 279:1 347:1 351:1 374:1 419:1 424:1 427:1 453:2 587:3 615:2 626:1 734:1 821:1 912:1 951:1 1101:1 1102:1 1486:1 1707:1 1709:1 1759:1 1843:1 1971:1 
1 8:1 13:2 41:1 46:1 47:1 58:1 59:1 61:1 69:1 105:1 139:1 156:2 238:1 308:1 318:1 386:1 424:1 459:1 520:1 878:1 1486:2 1616:1 1663:1 1811:1 
1 8:2 9:3 10:1 13:1 15:1 31:1 33:3 42:1 43:1 44:5 57:1 59:1 61:3 64:1 65:1 69:1 71:1 74:1 78:1 87:1 96:1 120:1 156:1 194:1 197:1 199:1 207:1 238:2 240:1 346:1 374:1 375:3 451:1 487:1 520:1 587:1 600:1 659:1 742:1 1101:1 1102:5 1300:1 1486:1 1616:1 1759:1 1800:1 1918:1 
1 7:1 9:1 18:1 41:1 46:2 68:1 386:2 424:1 780:1 881:1 977:1 
1 7:4 8:2 9:1 13:3 15:2 23:2 30:1 41:1 63:1 72:1 79:1 88:1 91:2 136:1 144:1 156:3 164:1 168:1 184:1 238:2 254:1 273:1 274:1 309:1 397:1 424:1 440:1 587:2 639:2 775:1 1061:1 1486:3 1709:1 1873:1 1920:1 
1 1:6 2:5 3:1 5:1 6:3 7:1 8:4 9:1 11:4 13:2 26:1 42:1 46:1 72:1 76:1 110:1 156:2 159:1 164:1 238:4 273:1 386:1 406:1 421:4 427:1 489:1 742:1 1017:1 1170:1 1486:2 1638:1 1647:1 1709:1 1809:1 
1 7:2 8:2 13:2 15:2 23:1 33:1 42:2 47:1 50:3 61:2 63:1 67:1 71:1 76:1 77:1 84:1 90:1 98:1 111:1 116:2 130:1 136:1 156:2 182:1 185:1 238:2 271:3 309:1 312:1 334:2 335:1 375:1 427:1 473:1 587:2 659:1 672:1 742:2 866:1 941:1 978:1 1079:1 1151:1 1456:1 1486:2 1557:1 1701:1 1804:1 
1 7:1 9:1 18:1 41:1 46:2 68:1 386:2 424:1 780:1 881:1 977:1 
1 1:8 2:8 3:2 4:1 5:2 6:4 7:1 8:1 11:5 18:1 21:2 26:1 36:1 37:1 74:1 82:3 92:1 238:1 270:1 421:5 849:1 881:1 1130:1 1759:1 
1 8:1 9:1 10:1 13:1 22:1 55:1 57:1 58:1 64:1 66:1 69:2 75:1 97:1 101:1 105:1 114:1 156:1 173:1 187:1 197:1 238:1 251:1 365:1 447:1 848:1 887:1 951:1 1101:1 1486:1 1538:1 1843:1 
1 7:2 9:1 13:2 22:1 23:1 28:1 31:1 39:1 43:1 48:1 57:1 65:1 66:1 69:1 77:2 87:1 107:1 114:1 140:1 156:2 170:1 182:2 197:1 199:1 229:1 251:1 262:1 487:1 875:1 1287:1 1365:1 1486:2 1592:1 1623:1 1649:1 1775:1 
1 7:1 10:1 18:1 22:1 23:2 29:1 31:2 46:2 57:1 64:1 69:4 88:1 163:1 197:1 199:2 225:1 251:1 274:1 289:1 292:1 386:2 399:1 442:1 537:1 707:1 792:1 868:1 875:2 881:1 947:1 1101:1 1316:1 1462:1 
1 7:1 9:1 10:4 13:1 15:2 18:1 22:1 33:1 39:1 56:2 64:4 66:1 69:1 71:1 92:1 105:1 106:1 126:1 134:1 143:1 155:1 156:1 157:2 166:1 168:1 251:1 309:1 314:1 366:1 375:1 431:1 587:2 599:1 618:1 659:1 717:2 801:1 849:1 881:1 1101:4 1278:1 1287:1 1464:1 1486:1 1584:1 1846:1 
1 1:4 2:4 7:6 21:4 22:3 73:3 123:3 150:1 251:3 362:3 398:1 649:1 715:3 967:1 1025:3 1298:1 
1 7:3 8:2 9:4 13:1 23:3 30:3 41:1 42:1 55:1 69:1 79:3 105:2 132:1 140:1 148:1 156:1 219:1 238:2 241:1 339:1 424:1 434:1 619:1 742:1 1123:1 1486:1 1538:1 1573:1 1775:1 1927:1 
1 7:1 9:2 10:1 13:1 39:1 42:1 46:1 64:1 76:1 101:3 119:1 130:1 156:1 386:1 427:1 447:3 494:1 717:1 742:1 1101:1 1287:1 1456:1 1486:1 
0.5760972127210175 7:3 13:1 15:1 23:1 39:1 48:1 56:3 61:1 68:2 69:1 85:1 90:1 96:1 102:1 114:1 156:1 157:3 160:2 194:1 206:2 223:2 264:1 289:1 307:2 333:1 347:1 422:1 587:1 1287:1 1486:1 1566:1 1592:1 1787:1 1888:1 1918:1 1927:1 
1 7:5 9:1 12:2 22:1 30:1 31:1 33:1 47:1 48:1 54:2 79:1 199:1 232:1 242:1 251:1 284:1 375:1 512:1 1135:1 1440:1 1592:1 
1 7:1 10:1 23:1 30:1 33:1 41:1 49:1 59:1 62:1 64:1 67:1 77:1 79:1 98:1 116:1 119:1 175:1 182:1 334:1 375:1 424:1 520:1 685:1 978:1 1101:1 1616:1 1731:1 
1 1:23 2:23 7:5 13:3 21:23 22:1 28:38 33:2 46:1 73:19 74:1 82:1 84:9 123:20 156:3 205:3 212:1 231:9 251:1 275:1 359:1 362:19 375:2 386:1 459:1 483:1 489:2 620:1 727:2 752:1 878:1 891:1 908:1 1025:1 1066:1 1079:9 1142:2 1245:1 1283:1 1356:1 1486:3 1759:1 1811:1 1832:2 
1 8:1 9:1 13:1 15:1 18:1 22:1 29:1 31:1 41:1 44:1 46:2 51:1 56:1 59:1 61:2 69:1 71:1 77:1 96:1 119:1 128:1 129:1 156:1 157:1 178:1 180:1 182:1 199:1 236:1 238:1 239:1 251:1 260:1 292:1 302:1 350:1 386:2 394:1 403:1 424:1 426:1 481:1 520:1 587:1 659:1 805:2 881:1 1102:1 1321:1 1336:1 1486:1 1616:1 1642:1 1791:1 1959:1 
1 4:2 5:3 7:7 9:1 10:1 13:2 18:1 23:1 29:2 30:1 31:1 46:1 47:1 48:1 50:1 55:1 59:1 62:4 64:1 76:2 79:1 85:1 88:2 92:1 100:1 101:1 116:1 138:1 155:1 156:2 187:1 199:1 264:1 269:1 271:1 272:1 274:2 292:2 334:1 386:1 403:1 427:2 431:1 447:1 520:1 849:1 871:1 881:1 1101:1 1103:1 1191:1 1486:2 1538:1 1592:1 1616:1 1791:1 1996:1 
1 7:2 8:1 10:3 12:1 13:1 18:1 23:1 29:1 30:1 33:1 43:4 47:1 49:1 51:2 54:1 56:2 59:2 62:1 64:3 66:1 69:1 79:1 87:4 101:1 105:1 122:1 126:1 144:1 148:1 156:1 157:2 178:2 184:1 196:1 206:1 238:1 263:1 292:1 344:1 369:1 375:1 447:1 520:2 662:1 881:1 1089:1 1101:3 1218:2 1438:1 1486:1 1573:1 1616:2 1651:1 1731:1 
1 4:2 5:3 7:2 9:6 10:1 13:1 34:1 47:1 50:1 64:1 65:1 68:1 69:2 78:1 83:2 128:1 152:2 156:1 175:2 194:1 202:1 216:1 223:2 240:1 271:1 487:1 546:1 601:1 942:1 1101:1 1120:1 1133:2 1486:1 1918:1 
1 8:3 10:3 12:1 15:1 18:2 22:2 31:2 54:1 64:3 105:2 199:2 209:1 238:3 251:2 587:1 831:1 874:1 881:2 1101:3 
1 4:2 5:2 9:3 10:2 13:2 15:3 31:2 39:2 48:2 62:1 64:2 69:4 85:1 105:2 115:1 140:1 155:1 156:2 160:1 194:1 199:2 260:1 264:1 347:1 378:1 431:1 587:3 837:1 1101:2 1287:2 1336:1 1486:2 1592:2 1775:1 1918:1 
1 1:1 2:1 7:1 13:1 15:1 21:1 30:1 31:1 33:2 44:1 55:1 76:2 79:1 156:1 199:1 374:1 375:2 427:2 450:1 587:1 1102:1 1187:1 1486:1 1538:1 
1 10:1 13:5 15:1 23:2 33:1 41:1 42:1 48:1 50:5 62:1 64:1 69:1 70:1 76:1 88:1 142:2 154:2 156:5 207:2 222:1 227:2 250:2 271:5 272:1 274:1 330:1 375:1 424:1 427:1 587:1 599:1 615:2 627:1 742:1 1101:1 1164:1 1486:5 1592:1 
1 7:2 8:1 9:2 10:1 13:1 15:2 18:3 23:1 30:1 31:1 39:1 44:2 47:2 48:1 49:1 62:2 64:1 65:1 66:1 69:1 71:1 76:1 79:1 85:1 92:1 96:1 151:1 156:1 199:1 238:1 264:1 387:1 427:1 436:1 453:1 487:1 526:1 587:2 599:1 659:1 849:1 881:3 987:1 1089:1 1101:1 1102:2 1287:1 1412:1 1486:1 1561:1 1568:1 1592:1 1692:1 1731:1 
1 7:1 10:2 13:2 15:1 18:2 23:1 31:1 41:1 43:1 44:1 57:1 59:1 64:2 66:2 67:1 69:1 70:1 71:1 87:1 96:1 155:1 156:2 163:1 173:1 197:1 199:1 219:1 280:1 323:1 385:1 391:1 424:1 431:1 473:1 520:1 587:1 599:1 659:1 734:1 881:2 887:1 978:1 1101:2 1102:1 1164:1 1486:2 1616:1 1626:1 
1 7:5 9:3 10:1 13:3 29:1 41:3 59:1 64:1 71:1 96:3 156:3 167:1 177:1 185:1 291:1 292:1 322:1 363:1 367:1 368:2 409:2 424:3 520:1 659:1 750:1 821:1 990:2 1004:2 1101:1 1382:1 1408:1 1486:3 1616:1 1734:2 
1 7:4 8:1 13:3 29:1 30:1 46:1 55:2 57:2 62:1 70:2 79:1 97:1 105:1 129:1 154:2 156:3 177:1 179:1 187:2 197:2 238:1 275:1 292:1 339:1 344:1 386:1 441:3 641:1 674:1 821:1 832:1 951:1 1089:1 1120:1 1164:2 1408:1 1486:3 1538:2 1741:1 1959:1 
1 1:4 2:4 7:6 21:4 22:3 73:3 123:3 150:1 251:3 362:3 398:1 649:1 715:3 967:1 1025:3 1298:1 
0.1084133958005836 8:1 9:1 10:1 14:1 29:1 33:1 42:1 58:1 59:1 64:1 67:3 69:1 102:1 105:1 119:1 133:1 142:1 154:1 238:1 239:1 241:1 292:1 375:1 520:1 597:1 615:1 619:1 742:1 904:1 978:3 1101:1 1217:1 1349:1 1566:1 1616:1 
1 1:6 2:6 21:6 33:1 44:1 59:1 73:2 102:1 123:1 128:1 275:1 293:2 312:1 375:1 390:1 489:1 520:1 908:1 1102:1 1135:1 1151:1 1553:2 1566:1 1616:1 1710:2 
1 7:1 8:2 13:3 29:1 41:1 46:2 115:1 156:3 238:2 292:1 367:1 386:2 406:1 424:1 1113:1 1353:1 1486:3 
1 7:1 9:1 13:3 15:2 23:1 30:1 33:1 41:1 42:1 44:3 48:2 60:1 61:1 62:1 63:3 69:1 71:1 72:1 79:1 91:1 98:1 104:1 114:1 116:1 128:1 136:3 156:3 160:1 191:1 300:1 334:1 345:1 351:1 358:1 375:1 403:1 424:1 455:1 491:1 587:2 639:1 659:1 742:1 853:1 1015:1 1102:3 1417:1 1486:3 1592:2 1707:1 1709:1 1791:1 
1 4:1 5:1 7:3 8:1 10:3 15:1 16:1 22:2 41:1 42:1 44:1 46:1 47:1 64:3 66:1 69:1 105:1 111:1 122:1 129:1 165:1 173:1 219:1 238:1 251:2 291:1 319:1 333:1 386:1 424:1 548:1 587:1 599:2 742:1 781:1 823:1 887:1 1101:3 1102:1 1520:1 1651:1 1804:1 1851:1 1888:1 1959:1 
1 4:1 5:1 7:3 8:1 10:3 15:1 16:1 22:2 41:1 42:1 44:1 46:1 47:1 64:3 66:1 69:1 105:1 111:1 122:1 129:1 165:1 173:1 219:1 238:1 251:2 291:1 319:1 333:1 386:1 424:1 548:1 587:1 599:2 742:1 781:1 823:1 887:1 1101:3 1102:1 1520:1 1651:1 1804:1 1851:1 1888:1 1959:1 
1 1:65 2:52 3:13 5:13 6:13 7:3 11:13 13:2 15:1 19:13 21:13 38:13 44:1 49:1 50:1 62:1 70:1 71:2 73:13 74:1 80:26 82:26 110:1 156:2 202:1 214:1 262:1 271:1 275:2 276:2 305:1 338:7 421:13 575:1 582:1 587:1 593:1 601:1 659:2 904:1 908:2 1055:2 1102:1 1164:1 1170:1 1486:2 1520:1 1584:1 1731:1 1759:1 
1 7:4 8:2 10:1 13:2 22:1 33:1 43:2 48:1 55:1 59:1 62:1 63:1 64:1 65:1 69:1 72:1 87:2 90:1 102:1 114:1 136:1 138:1 146:1 156:2 187:1 238:2 251:1 375:1 487:1 512:1 520:1 1006:1 1101:1 1120:1 1177:1 1385:1 1486:2 1538:1 1566:1 1592:1 1616:1 1709:1 1747:1 1857:1 1996:1 
1 7:1 13:1 22:2 49:1 56:1 57:1 110:1 156:1 157:1 188:1 196:1 197:1 251:2 432:1 600:1 769:1 1170:1 1438:1 1486:1 1731:1 1809:1 
1 7:2 15:2 22:2 42:1 66:1 91:1 126:1 134:1 251:2 587:2 639:1 742:1 
1 7:1 8:1 10:2 13:2 15:3 18:2 22:2 23:3 29:1 41:1 46:1 64:2 69:1 70:1 76:2 117:1 135:1 156:2 161:1 164:1 196:1 234:1 238:1 251:2 257:1 273:1 292:1 386:1 399:1 424:1 427:2 496:1 587:3 766:1 881:2 972:1 1101:2 1119:1 1164:1 1193:1 1316:1 1356:1 1438:1 1486:2 1519:1 1725:1 1921:1 
1 1:5 2:5 7:6 21:5 22:3 73:3 123:3 150:1 251:3 362:3 398:1 649:1 715:3 967:1 1025:3 1298:1 
1 7:4 8:1 10:1 13:2 15:2 23:1 30:2 33:1 47:1 49:2 57:1 64:1 66:2 69:1 79:2 117:1 155:1 156:2 165:1 197:1 207:1 225:1 238:1 241:1 287:1 375:1 397:1 431:1 587:2 619:1 630:1 868:1 895:1 1061:1 1101:1 1119:1 1486:2 1731:2 1882:1 
1 4:1 5:1 7:5 8:1 9:2 10:2 15:1 18:1 23:1 31:1 41:1 51:1 55:1 57:1 62:1 64:2 88:1 96:1 105:1 148:1 177:1 178:1 185:1 187:1 197:1 199:1 209:1 222:1 226:1 238:1 274:1 309:1 424:1 587:1 821:1 875:1 881:1 947:1 1101:2 1380:1 1538:1 1573:1 1892:1 1920:1 1994:1 
1 1:58 2:58 3:35 4:29 5:26 6:36 7:1 8:10 10:1 11:14 19:8 20:8 21:1 23:2 24:8 25:8 26:5 30:1 31:2 36:5 37:5 38:3 40:2 41:1 42:1 44:1 45:1 64:1 66:1 79:1 80:14 117:1 132:1 141:1 199:2 220:1 238:10 301:1 421:14 424:1 624:1 742:1 1101:1 1102:1 1119:1 1123:1 1875:1 
1 7:3 10:1 12:2 13:2 15:3 29:1 30:3 43:1 44:1 46:1 49:2 54:2 56:1 57:1 59:1 61:1 64:1 65:1 71:1 79:3 87:1 93:1 97:1 107:1 120:1 129:1 134:1 148:1 156:2 157:1 160:1 191:1 197:1 200:1 202:1 220:1 292:1 319:1 344:1 358:1 386:1 487:1 520:1 587:3 601:1 614:1 659:1 781:1 951:1 1101:1 1102:1 1486:2 1573:1 1616:1 1731:2 1911:1 1959:1 
1 7:3 9:4 10:3 13:1 18:1 22:1 23:3 29:1 30:2 43:1 62:1 64:3 69:1 79:2 87:1 105:1 133:1 138:1 156:1 236:1 251:1 255:1 291:1 292:1 344:1 521:1 881:1 1027:1 1060:1 1101:3 1321:1 1340:1 1486:1 1993:1 1996:1 
1 7:2 9:1 13:1 23:1 42:1 77:1 156:1 177:1 182:1 185:1 289:1 509:4 510:1 742:1 821:1 1486:1 1637:1 
1 4:8 7:2 8:1 13:1 15:1 23:1 28:8 50:4 70:1 105:1 133:1 156:1 175:1 180:1 219:1 238:1 243:1 261:1 271:4 342:1 545:1 587:1 673:1 963:1 994:1 1164:1 1300:1 1486:1 1595:1 
1 7:3 8:1 10:1 22:1 23:1 31:1 33:1 41:2 44:1 49:1 50:1 59:2 64:1 65:1 69:1 76:1 84:1 144:1 154:1 163:1 184:1 186:1 199:1 220:1 238:1 244:1 251:1 271:1 284:1 314:1 375:1 417:2 424:2 427:1 441:1 444:1 453:1 487:1 520:2 557:1 861:1 866:1 986:1 1079:1 1101:1 1102:1 1440:1 1616:2 1731:1 1839:2 
0.9820874249096682 1:46 2:46 9:38 21:46 73:38 84:1 123:24 150:4 231:8 275:1 338:3 398:1 489:1 575:1 593:1 727:2 874:2 945:1 967:3 1079:1 1082:3 1142:1 1309:3 1605:1 1832:2 1862:2 
0.1933613691086422 1:62 2:62 7:1 21:62 33:1 39:1 44:1 46:1 49:1 50:1 69:1 73:45 104:1 116:1 123:29 150:5 205:5 210:89 214:1 226:1 231:16 271:1 275:1 324:1 334:1 338:1 351:1 359:1 375:1 386:1 475:4 489:1 539:1 575:14 593:3 697:1 727:5 908:4 1025:45 1056:5 1066:1 1082:1 1102:1 1135:1 1142:2 1283:45 1287:1 1309:2 1553:43 1579:2 1665:1 1710:43 1731:1 1864:1 
1 7:3 8:1 9:1 10:2 13:4 15:2 30:2 31:2 44:1 47:1 55:1 64:2 71:1 79:2 102:1 105:1 129:2 130:1 142:1 156:4 165:1 199:2 238:1 267:1 269:1 279:1 345:1 347:1 435:1 483:1 587:2 615:1 659:1 995:1 1101:2 1102:1 1120:1 1162:1 1422:1 1456:1 1486:4 1538:1 1557:1 1566:1 1959:2 
1 7:2 9:1 10:1 13:2 15:1 41:1 48:1 60:1 64:1 84:1 110:1 156:2 300:1 399:1 424:1 475:1 496:1 531:1 587:1 662:1 967:1 1079:1 1101:1 1170:1 1193:1 1316:1 1370:1 1486:2 1592:1 1605:1 1809:1 1832:1 
1 7:2 8:3 9:2 10:2 13:2 22:1 46:2 64:2 67:2 118:1 156:2 175:1 185:1 212:1 238:3 251:1 298:1 342:1 386:2 453:1 545:1 549:1 605:1 978:2 1101:2 1486:2 1792:1 
0.5462728976257244 7:1 9:3 12:1 13:1 29:5 39:3 46:1 54:1 56:1 57:3 69:1 96:1 155:1 156:1 157:1 190:1 197:3 292:5 386:1 393:1 431:1 805:2 906:1 966:2 1287:3 1460:2 1461:1 1486:1 1589:1 1622:2 1645:1 1717:3 1787:2 
0.3379428359334695 1:30 2:30 7:1 9:46 10:1 21:30 64:1 73:23 102:1 123:12 150:2 231:9 293:23 317:6 338:2 462:5 489:1 593:1 874:2 891:1 908:1 945:1 974:1 1000:1 1082:1 1101:1 1142:2 1298:4 1309:1 1566:1 1579:2 1832:1 1845:1 1864:5 
1 9:1 10:6 13:3 15:1 23:2 30:1 43:1 60:1 64:6 69:1 71:1 79:1 87:1 100:1 126:1 151:1 156:3 185:1 207:1 234:1 253:1 300:1 333:1 399:1 501:1 587:1 659:1 871:1 987:1 1101:6 1316:1 1434:1 1486:3 1888:1 1927:1 
1 10:1 13:1 15:1 22:1 23:2 31:2 48:1 64:1 69:2 71:1 151:1 156:1 181:2 199:2 251:1 350:1 436:1 454:1 475:1 496:1 517:1 587:1 659:1 689:1 700:1 727:2 987:1 1101:1 1110:1 1193:1 1486:1 1592:1 1718:1 
1 7:2 8:2 9:4 15:1 18:1 22:3 23:1 42:1 46:1 57:1 66:1 69:1 72:1 130:1 135:1 197:1 231:1 238:2 241:1 251:3 259:1 386:1 587:1 619:1 742:1 881:1 908:1 1162:1 1300:1 1456:1 1709:1 1725:1 
1 7:1 8:3 10:2 12:4 13:4 23:3 30:2 33:1 42:1 43:2 47:2 54:4 59:1 60:1 64:2 66:1 69:1 79:2 87:2 92:2 122:2 143:1 156:4 166:1 177:1 185:1 238:3 252:1 300:1 316:1 327:1 375:1 395:1 517:2 520:1 689:1 742:1 805:1 821:1 849:2 906:2 1101:2 1300:1 1461:2 1464:1 1486:4 1616:1 1645:2 1651:2 
1 7:1 8:1 9:3 15:2 31:3 39:2 44:1 46:1 67:1 69:1 70:2 105:2 114:1 119:2 133:1 188:1 199:3 200:1 238:1 255:1 344:1 386:1 513:1 587:2 640:1 723:2 978:1 1060:1 1102:1 1164:2 1179:2 1222:1 1287:2 1557:1 1702:1 1911:1 1927:1 
1 7:2 9:2 10:4 13:1 18:1 22:1 23:1 47:1 51:1 64:4 68:1 69:1 76:3 78:1 89:1 92:1 99:1 105:1 130:1 156:1 161:1 178:1 212:1 237:1 240:1 251:1 290:1 369:1 393:1 427:3 645:1 849:1 881:1 966:1 1101:4 1312:1 1456:1 1486:1 1719:1 
0.1905938500998773 5:4 7:5 9:3 13:5 22:1 42:1 44:8 50:1 63:4 136:4 142:4 156:5 162:2 251:1 269:2 271:1 357:1 512:2 615:4 742:1 938:1 1098:1 1102:8 1486:5 1641:2 1663:2 1920:1 
1 9:4 10:5 13:4 15:2 18:1 58:1 64:5 69:1 100:1 129:3 148:1 156:4 162:1 348:1 368:1 587:2 871:1 881:1 990:1 1101:5 1187:1 1365:2 1486:4 1573:1 1580:1 1959:3 
1 7:4 8:2 10:3 13:3 18:4 22:1 23:4 30:2 47:1 51:1 62:1 64:3 69:2 70:1 71:1 79:2 88:1 114:1 128:1 156:3 178:1 238:2 251:1 274:1 659:1 701:1 840:1 881:4 1061:1 1071:1 1101:3 1164:1 1486:3 1648:1 
1 7:5 10:4 18:1 23:2 30:1 33:2 56:1 64:4 69:1 79:1 133:1 148:1 154:2 157:1 375:2 478:1 699:1 843:1 881:1 1101:4 1573:1 1976:1 
1 1:66 2:66 7:2 8:1 10:2 12:1 18:1 21:66 31:1 33:1 44:1 49:1 50:2 54:1 57:1 64:2 66:1 69:3 73:48 74:1 78:1 83:1 88:1 116:1 120:1 123:35 134:1 150:3 173:1 180:1 188:1 197:1 199:1 205:2 210:96 226:1 231:17 238:1 240:1 242:1 271:2 274:1 275:1 318:1 334:1 338:1 359:1 375:1 475:4 509:1 539:1 575:14 593:3 597:1 697:1 698:1 727:5 734:1 736:1 881:1 887:1 891:1 908:7 964:1 1025:48 1056:5 1066:1 1101:2 1102:1 1133:1 1142:2 1245:1 1283:48 1304:1 1309:5 1553:47 1579:1 1665:1 1710:47 1722:1 1731:1 1759:1 1832:1 1864:2 1878:1 
1 7:2 8:2 9:1 13:1 22:1 23:2 46:1 59:1 156:1 175:1 200:1 238:2 251:1 268:1 386:1 504:1 520:1 1255:1 1300:1 1353:1 1486:1 1616:1 1911:1 
1 1:2 2:1 3:1 5:1 6:1 7:8 8:2 13:1 15:4 23:4 30:1 31:1 39:1 40:2 44:1 47:1 49:1 59:2 60:5 61:1 66:1 70:1 75:1 79:1 110:1 116:1 129:2 143:1 149:1 156:1 166:1 169:1 188:1 199:1 223:1 229:1 238:2 258:1 282:2 300:5 305:1 334:1 362:1 365:1 397:1 403:1 422:1 520:2 587:4 697:1 734:1 867:2 966:2 1061:1 1102:1 1164:1 1170:1 1287:1 1445:1 1464:1 1486:1 1616:2 1649:1 1731:1 1791:1 1843:1 1959:2 1971:1 
1 10:1 13:1 15:2 44:1 64:1 69:1 101:1 105:1 106:1 134:1 156:1 162:1 165:1 175:1 201:2 202:1 214:1 244:1 381:1 434:1 447:1 524:1 587:2 601:1 625:1 806:1 1101:1 1102:1 1121:1 1486:1 1515:1 1846:1 1989:2 
0.1316748627023107 7:1 23:1 29:2 41:3 42:1 62:2 63:1 66:1 69:1 91:1 92:2 107:1 114:1 119:2 126:1 136:1 164:1 175:1 192:1 225:1 270:1 273:1 288:1 292:2 424:3 439:1 486:1 639:1 742:1 784:1 849:2 868:1 1115:1 
1 7:1 8:3 12:3 13:1 22:1 30:2 31:1 39:1 46:1 48:1 54:3 60:1 69:1 70:1 74:1 79:2 114:1 156:1 168:2 199:1 238:3 251:1 269:1 300:1 344:1 386:1 443:1 1164:1 1287:1 1486:1 1592:1 1759:1 1903:1 
1 7:2 8:2 9:2 10:2 13:2 18:1 22:1 23:3 29:1 30:1 31:1 33:1 48:1 64:2 69:1 79:1 105:2 107:1 156:2 161:1 196:1 199:1 238:2 251:1 286:1 292:1 315:1 344:1 375:1 507:1 509:1 578:2 599:2 673:1 837:1 881:1 1031:1 1101:2 1438:1 1486:2 1592:1 
1 7:1 9:1 10:2 13:1 15:1 22:1 33:1 39:1 41:1 61:1 64:2 68:1 69:1 120:1 126:1 135:1 151:1 156:1 251:1 375:1 424:1 456:1 587:1 874:1 981:1 987:1 1082:1 1101:2 1220:1 1287:1 1486:1 1532:1 1594:1 1725:1 
1 9:1 10:4 15:1 18:1 28:1 29:1 39:1 41:1 46:2 50:1 58:3 59:1 63:1 64:4 69:1 76:1 82:1 85:1 96:2 136:1 160:1 170:1 246:1 264:1 271:1 292:1 348:1 374:1 386:2 424:1 427:1 450:1 455:1 520:1 587:1 805:1 862:1 881:1 1101:4 1287:1 1557:2 1616:1 1623:1 1701:1 
1 7:2 8:1 10:2 12:2 13:1 15:1 16:1 43:4 47:1 51:1 54:2 57:1 64:2 68:1 87:4 104:1 112:1 116:1 122:1 156:1 173:1 178:1 190:1 191:1 197:1 214:1 238:1 247:2 283:1 334:1 351:1 354:1 358:1 387:1 566:1 587:1 772:1 782:1 837:1 887:1 1089:1 1101:2 1191:1 1227:1 1254:1 1300:1 1486:1 1533:1 1589:1 1651:1 
1 7:1 8:1 9:2 10:1 13:1 46:2 47:1 51:1 55:1 57:1 64:1 69:1 70:1 71:1 114:1 156:1 175:2 177:1 178:1 180:1 187:1 189:1 197:1 226:1 238:1 247:2 386:2 517:1 659:1 821:1 1101:1 1110:1 1164:1 1280:1 1486:1 1538:1 1770:1 
1 7:1 13:3 15:1 31:1 42:1 50:2 56:1 59:1 62:1 63:1 69:3 70:1 91:1 92:1 105:1 111:3 122:1 134:1 136:1 139:1 148:1 156:3 157:1 165:1 189:1 192:1 199:1 261:1 271:2 520:1 587:1 639:1 718:1 742:1 849:1 1115:1 1164:1 1412:1 1486:3 1573:1 1616:1 1651:1 1804:3 
1 7:4 8:1 12:2 13:4 15:1 29:1 30:2 33:1 49:2 50:3 54:2 55:1 56:2 69:1 71:2 75:1 79:2 85:1 88:2 107:1 138:1 156:4 157:2 166:1 232:2 238:1 260:1 264:1 271:3 272:1 274:2 289:1 292:1 375:1 553:1 587:1 646:1 659:2 966:1 1205:1 1336:1 1408:1 1486:4 1538:1 1557:1 1731:2 1787:1 1843:1 1996:1 
1 7:2 8:2 10:3 18:2 46:1 48:1 64:3 68:1 238:2 386:1 766:1 875:1 881:2 983:1 1101:3 1592:1 
1 7:3 8:1 13:2 22:1 29:1 31:1 39:1 44:3 49:1 56:2 57:1 59:1 66:1 69:1 71:1 83:1 99:1 111:1 119:2 156:2 157:2 168:1 197:1 199:1 238:1 251:1 292:1 442:1 501:1 520:1 659:1 728:1 1102:3 1133:1 1287:1 1486:2 1616:1 1719:1 1731:1 1804:1 
1 7:4 8:2 9:1 13:1 23:3 30:1 42:1 47:1 51:1 55:1 60:1 62:1 66:1 69:1 79:1 99:1 104:1 140:1 156:1 161:1 178:1 185:1 238:2 300:1 335:1 351:1 434:3 449:1 701:1 742:1 840:1 1062:1 1226:1 1486:1 1538:1 1719:1 1775:1 
1 1:20 2:20 6:2 10:1 15:6 18:1 21:16 62:6 64:1 73:7 84:1 123:1 150:1 205:2 231:7 233:4 338:1 539:1 587:6 727:1 881:1 904:1 1025:7 1079:1 1101:1 1142:1 1283:7 1362:1 1459:4 1553:7 1710:7 1832:1 
1 1:24 2:24 7:1 10:1 21:24 33:1 64:1 73:10 123:7 150:1 231:2 275:1 375:1 398:1 484:1 531:3 575:1 652:1 697:1 727:1 891:10 967:1 984:1 1101:1 1157:1 1304:1 1329:1 1864:1 
1 7:2 10:5 13:3 15:1 18:1 23:1 42:1 63:1 64:5 66:1 69:2 74:1 126:1 136:1 146:1 151:1 156:3 241:1 330:1 429:1 522:1 587:1 619:1 627:1 742:1 772:1 881:1 987:1 1089:1 1101:5 1385:1 1486:3 1583:1 1584:1 1637:1 1759:1 
1 7:1 8:1 9:4 10:1 12:1 13:1 15:1 23:1 33:2 46:1 48:3 50:1 54:1 56:1 59:1 63:1 64:1 69:1 71:2 111:1 117:1 136:1 156:1 157:1 161:1 212:1 238:1 262:1 269:1 271:1 279:1 323:1 344:1 375:2 386:1 517:1 518:1 520:1 587:1 659:2 669:1 1101:1 1119:1 1186:1 1486:1 1592:3 1616:1 1804:1 
1 7:2 9:1 10:3 15:2 22:1 23:2 29:1 47:1 61:1 64:3 65:1 69:1 98:1 139:1 160:2 226:1 227:1 251:1 292:1 453:1 487:1 577:1 587:2 958:1 1101:3 1742:1 1909:1 
1 1:9 2:9 21:9 22:3 73:3 84:1 123:2 231:2 251:3 904:1 1025:3 1079:1 1082:1 1283:3 1304:1 1553:1 1710:1 1864:1 
1 1:17 2:17 9:9 21:17 46:1 73:11 84:1 123:6 231:2 386:1 398:1 575:1 839:1 967:1 1056:1 1079:1 1832:1 
1 9:3 12:5 13:2 23:1 29:1 30:1 31:1 41:1 47:2 54:5 56:1 57:1 69:2 79:1 85:1 98:2 115:1 133:1 144:1 156:2 157:1 184:1 197:1 198:1 199:1 219:1 244:1 261:1 264:1 292:1 321:1 424:1 453:2 526:1 627:1 820:1 943:1 1486:2 1882:1 
1 7:2 13:1 23:1 31:1 39:1 42:1 46:1 49:1 69:1 72:1 83:1 85:1 105:1 114:1 129:1 142:1 151:1 156:1 160:1 199:1 239:1 255:1 264:1 285:1 338:2 386:1 517:1 615:1 742:1 775:1 952:1 987:1 1060:1 1110:1 1133:1 1287:1 1486:1 1709:1 1731:1 1959:1 
1 7:2 9:1 10:1 13:1 22:1 30:1 33:1 41:1 48:1 56:1 64:1 69:1 79:1 129:1 152:1 156:1 157:1 177:1 181:1 185:1 193:1 212:1 251:1 257:1 362:1 375:1 398:1 416:1 424:1 454:1 517:2 821:1 1101:1 1486:1 1519:1 1592:1 1753:1 1959:1 
0.2750897198998101 7:2 10:1 13:1 15:2 23:2 29:2 31:2 49:1 64:1 65:2 78:1 83:1 101:1 112:1 139:1 156:1 166:1 173:1 198:1 199:2 240:1 279:1 284:1 292:2 429:1 447:1 487:2 517:1 587:2 594:1 880:1 887:1 1101:1 1133:1 1440:1 1486:1 1557:1 1731:1 1991:1 
0.4057038635344524 7:2 8:1 10:2 13:2 18:1 39:3 50:2 59:2 62:1 64:2 66:1 67:3 69:1 77:2 96:1 97:1 116:1 120:1 148:1 155:2 156:2 177:1 182:2 185:1 201:1 238:1 271:2 308:2 334:1 373:1 431:2 520:2 664:1 821:1 881:1 951:1 966:1 978:3 1081:1 1101:2 1162:1 1287:3 1486:2 1573:1 1616:2 1794:1 1989:1 
1 7:1 8:2 10:1 13:3 15:1 22:1 23:2 30:2 31:1 60:1 64:1 66:2 69:2 70:1 72:1 79:2 92:1 156:3 162:1 180:1 199:1 238:2 251:1 287:2 300:1 311:1 316:1 567:1 587:1 599:1 801:1 849:1 1101:1 1164:1 1269:1 1445:1 1486:3 1709:1 
1 1:5 2:4 3:1 5:1 6:3 7:1 8:2 11:2 13:1 18:1 21:1 26:1 48:1 110:1 111:1 119:1 147:1 156:1 164:1 185:1 238:2 273:1 421:2 486:1 652:1 881:1 1170:1 1486:1 1592:1 1804:1 
1 4:1 5:1 7:1 10:1 12:3 13:1 15:2 22:1 23:3 30:2 31:2 47:1 54:3 64:1 69:3 70:1 79:2 83:1 88:1 96:1 100:1 111:1 118:1 126:1 156:1 177:1 185:1 199:2 225:1 251:1 274:1 298:1 312:1 390:1 403:1 483:1 587:2 678:1 821:1 868:1 871:1 1101:1 1133:1 1151:1 1164:1 1313:1 1486:1 1554:1 1791:1 1804:1 
0.446443425609805 7:1 8:1 10:2 13:2 22:1 23:1 30:2 42:1 55:1 58:2 64:2 79:2 89:1 128:1 130:1 133:1 134:1 156:2 187:1 238:1 251:1 363:1 742:1 1101:2 1456:1 1486:2 1538:1 1663:1 1762:1 
1 7:2 8:1 13:3 18:1 22:1 23:1 30:1 46:1 68:1 69:1 70:1 71:1 78:1 79:1 105:2 145:1 156:3 160:1 223:1 237:1 238:1 240:1 251:1 328:1 363:1 386:1 425:1 659:1 669:1 881:1 1120:1 1164:1 1486:3 1557:1 
1 7:3 9:3 12:1 15:1 18:2 22:1 30:2 31:1 33:2 43:1 51:1 54:1 56:1 62:1 65:1 68:1 69:1 79:2 87:1 116:1 148:2 155:1 157:1 170:1 178:1 194:1 198:1 199:1 201:1 223:1 251:1 334:1 375:2 431:1 487:1 534:1 587:1 853:1 881:2 918:1 1573:2 1623:1 1840:1 1918:1 1989:1 
1 7:4 9:1 13:1 23:1 30:2 41:1 42:2 43:1 56:1 62:1 79:2 87:1 91:1 92:1 126:1 156:1 157:1 165:1 202:1 228:1 231:1 289:1 340:1 424:1 555:1 601:1 630:1 639:1 742:2 849:1 1408:1 1486:1 1869:1 1892:1 
1 7:5 8:2 9:4 10:1 13:2 15:2 18:1 23:3 29:1 30:1 41:1 44:1 46:1 47:1 55:1 62:1 64:1 66:1 69:1 79:1 88:1 93:1 117:1 126:2 156:2 180:1 186:1 189:1 238:2 274:1 292:1 339:1 344:1 386:1 424:1 504:1 587:2 614:1 881:1 1101:1 1102:1 1119:1 1141:1 1486:2 1513:1 1538:1 1981:1 
1 7:2 9:2 10:2 13:1 15:3 18:1 23:1 29:1 30:1 41:1 44:1 46:1 47:1 55:1 62:1 63:1 64:2 69:1 71:1 76:1 79:1 91:1 96:1 102:1 106:1 136:1 156:1 162:2 187:1 214:1 241:1 246:1 292:1 309:1 330:1 355:1 386:1 424:1 427:1 587:3 619:1 639:1 659:1 860:1 881:1 917:1 1101:2 1102:1 1486:1 1538:1 1566:1 1846:1 
1 8:2 9:3 10:2 13:4 18:1 22:2 30:1 31:2 46:1 47:1 48:1 50:1 51:1 56:1 59:2 64:2 69:1 79:1 83:1 104:1 107:1 114:1 132:4 138:1 156:4 157:1 178:1 196:1 199:2 227:1 232:1 238:2 244:1 251:2 271:1 351:1 386:1 476:1 478:1 479:1 520:2 522:1 524:1 583:1 819:1 881:1 938:1 1089:1 1101:2 1123:4 1133:1 1246:1 1438:1 1486:4 1555:1 1592:1 1616:2 1792:1 1996:1 
1 7:3 9:1 10:2 13:1 15:5 29:1 30:1 43:1 47:1 55:2 56:1 64:2 69:1 75:1 76:1 79:1 83:1 87:1 88:1 96:1 126:1 134:1 152:1 156:1 157:1 160:1 274:1 292:1 339:2 344:1 427:1 565:1 587:5 801:1 938:2 1101:2 1133:1 1156:1 1486:1 1538:2 1843:1 
1 7:4 8:1 10:1 13:1 22:1 42:1 44:1 64:1 69:1 70:1 92:2 105:1 110:1 133:1 148:1 156:1 201:1 216:1 220:1 238:1 241:1 251:1 314:1 385:1 619:1 729:1 742:1 849:2 1101:1 1102:1 1120:1 1162:1 1164:1 1170:1 1300:1 1486:1 1573:1 1989:1 
1 7:6 12:5 13:5 23:1 31:2 33:1 41:1 51:1 54:5 56:1 63:1 69:1 91:1 110:1 111:2 118:1 126:1 136:1 154:1 156:5 157:1 178:1 199:2 212:1 230:1 263:2 298:1 375:1 424:1 639:1 1058:1 1089:1 1170:1 1486:5 1506:1 1677:1 1703:1 1789:1 1804:2 1979:1 
1 7:5 8:1 12:1 13:3 18:1 23:1 33:1 41:1 42:1 43:1 44:2 47:1 50:1 54:1 56:1 63:2 74:1 87:1 93:1 102:1 107:1 122:1 136:2 149:1 156:3 157:1 160:1 177:1 179:1 206:1 229:1 238:1 255:1 260:1 271:1 294:1 375:1 424:1 557:1 599:1 614:1 742:1 805:1 810:1 821:1 861:1 881:1 1060:1 1102:2 1336:1 1486:3 1566:1 1615:1 1649:1 1651:1 1741:1 1759:1 1971:1 
1 7:1 8:4 13:2 23:3 30:3 41:1 42:1 56:2 65:1 69:1 71:1 72:1 78:1 79:3 104:1 105:1 114:1 126:1 150:1 156:2 157:2 190:1 223:2 228:1 238:4 240:1 247:1 296:1 344:2 351:1 424:1 487:1 659:1 674:1 742:1 1486:2 1589:1 1709:1 
1 7:1 8:1 9:1 12:2 13:1 23:1 30:1 31:1 42:1 43:1 46:1 48:1 54:2 69:3 77:1 79:1 87:1 140:1 156:1 182:1 199:1 238:1 386:1 501:1 513:1 599:1 630:1 718:1 742:1 779:1 808:1 1026:1 1111:1 1222:1 1486:1 1592:1 1775:1 
1 4:1 5:1 7:3 10:2 13:1 15:2 23:1 29:1 39:2 41:1 42:1 44:2 46:2 50:1 64:2 69:1 83:1 85:1 104:1 105:1 142:1 156:1 160:1 189:1 235:1 264:1 271:1 292:1 345:1 351:1 363:1 386:2 409:1 424:1 434:1 587:2 615:1 742:1 1089:1 1101:2 1102:2 1133:1 1287:2 1486:1 1515:1 1557:1 
1 4:7 8:1 13:1 15:1 23:1 28:8 50:3 55:1 69:1 88:1 105:1 133:1 156:1 175:1 219:1 228:1 238:1 243:1 271:3 274:1 342:1 545:1 587:1 963:1 994:1 1300:1 1398:1 1486:1 1538:1 1595:1 
1 7:1 8:1 9:8 10:1 64:1 69:2 164:1 165:1 169:1 235:1 238:1 273:1 331:1 707:1 1101:1 1462:1 
1 8:2 9:1 10:1 12:1 18:1 22:1 23:2 33:1 44:2 54:1 55:1 59:1 62:1 64:1 69:1 71:2 72:1 114:1 135:1 138:1 169:1 186:1 187:1 228:1 238:2 251:1 365:1 375:1 389:1 520:1 659:2 708:1 853:1 881:1 1101:1 1102:2 1538:1 1616:1 1663:1 1709:1 1725:1 1787:1 1996:1 
1 7:2 8:1 9:2 10:3 18:1 22:1 33:1 42:1 43:1 47:2 59:1 64:3 69:1 87:1 107:1 110:1 228:1 238:1 248:1 251:1 257:1 266:1 375:1 426:1 441:1 456:1 520:1 612:1 742:1 837:3 881:1 1101:3 1170:1 1488:1 1519:1 1616:1 1975:1 
1 4:1 5:1 7:1 10:2 12:2 13:3 15:1 22:1 30:1 54:2 64:2 69:1 71:1 79:1 96:1 105:1 129:1 133:1 142:1 156:3 165:2 170:1 175:1 251:1 325:1 365:1 441:1 587:1 615:1 659:1 727:1 828:1 1101:2 1120:1 1486:3 1546:1 1623:1 1628:1 1959:1 
1 7:2 8:1 13:1 15:5 16:1 22:1 33:1 41:1 44:1 47:1 59:1 69:3 71:1 93:1 105:1 126:1 130:1 140:1 148:1 156:1 238:1 245:1 251:1 344:2 375:1 403:1 424:1 473:1 491:1 520:1 587:5 614:1 659:1 957:1 988:1 1102:1 1369:1 1456:1 1486:1 1573:1 1616:1 1775:1 1791:1 
1 9:3 10:4 13:1 22:1 43:2 64:4 66:1 69:1 74:1 87:2 90:1 96:1 97:1 142:1 146:1 156:1 163:1 183:1 190:1 202:2 251:1 260:1 331:1 472:1 474:1 573:1 580:1 601:2 615:1 823:1 951:1 1089:1 1101:4 1120:1 1188:1 1262:1 1275:1 1328:1 1336:1 1385:1 1486:1 1589:1 1759:1 
1 7:5 8:2 10:1 13:1 15:2 18:1 23:3 42:1 59:2 61:1 64:1 97:1 140:1 142:1 156:1 160:1 222:1 238:2 250:2 347:1 429:1 434:1 520:2 523:1 585:2 587:2 606:1 615:1 735:1 742:1 881:1 951:1 1101:1 1486:1 1616:2 1775:1 
1 8:2 13:2 15:2 31:1 33:1 41:1 42:1 44:2 46:2 50:1 62:2 71:1 84:2 96:1 99:1 150:1 156:2 199:1 214:1 238:2 271:1 375:1 386:2 424:1 587:2 599:2 659:1 742:1 1079:2 1102:2 1486:2 1719:1 1831:1 1864:1 
1 7:1 8:1 13:1 15:2 22:1 29:2 33:1 44:1 48:1 49:1 62:2 69:1 72:1 84:2 114:1 119:1 156:1 159:1 165:1 210:1 235:1 238:1 251:1 252:1 292:2 357:1 375:1 587:2 989:1 1079:2 1102:1 1103:1 1291:1 1334:1 1486:1 1592:1 1638:1 1661:1 1709:1 1731:1 
1 7:1 8:1 9:1 15:1 18:1 22:3 23:1 46:2 59:1 63:1 69:1 91:1 99:1 136:1 164:1 192:1 238:1 241:1 251:3 273:1 386:2 496:1 520:1 587:1 619:1 639:1 869:1 881:1 1115:1 1193:1 1379:1 1393:1 1616:1 1719:1 
1 1:47 2:47 3:1 6:2 9:1 21:47 22:2 48:7 58:3 82:1 120:1 123:3 150:1 185:3 231:4 247:1 251:2 293:4 362:1 475:2 531:1 567:1 1258:1 1553:9 1592:7 1710:9 
1 1:17 2:17 9:3 15:1 21:17 46:1 48:1 61:1 62:2 73:7 84:1 102:1 123:1 229:1 231:1 386:1 459:4 489:1 587:1 593:7 697:1 784:1 802:1 984:1 1056:1 1066:1 1079:1 1142:2 1304:1 1553:5 1566:1 1592:1 1626:1 1649:1 1710:5 1811:4 
1 7:3 8:2 10:3 13:3 15:1 18:1 22:1 23:1 31:2 62:2 64:3 105:2 118:1 150:1 156:3 180:1 199:2 238:2 251:1 279:1 298:1 376:2 400:1 483:1 587:1 881:1 1101:3 1108:2 1120:1 1486:3 1490:1 
1 7:1 8:1 9:1 10:3 13:2 15:1 22:1 39:1 50:1 56:1 59:1 64:3 69:1 85:1 114:1 122:1 132:1 138:1 143:1 156:2 157:1 163:1 194:1 207:1 209:1 238:1 249:1 251:1 264:1 271:1 336:1 393:1 395:1 520:1 587:1 853:1 1101:3 1120:1 1123:1 1287:1 1464:1 1486:2 1557:1 1616:1 1651:1 1696:1 1815:1 1848:1 1918:1 1996:1 
1 1:1 2:1 3:3 4:2 5:3 6:1 7:1 8:2 13:3 19:1 29:1 38:1 41:1 46:2 81:1 94:1 115:1 156:3 205:2 238:2 292:1 367:1 386:2 406:1 424:1 1113:1 1353:1 1486:3 
1 7:1 8:1 10:1 13:1 22:3 23:1 30:1 47:3 48:2 63:1 64:1 69:1 79:1 91:1 115:1 135:2 136:1 156:1 192:2 238:1 251:3 411:1 639:1 1101:1 1115:2 1486:1 1592:2 1725:2 
1 7:3 9:1 12:1 13:1 29:1 31:1 39:1 44:1 46:1 54:1 57:1 66:1 69:1 75:1 90:1 104:1 105:2 114:1 115:1 156:1 177:1 185:1 191:1 197:1 199:1 201:1 292:1 351:1 358:1 386:1 470:1 559:1 665:1 821:1 866:1 924:1 1102:1 1106:1 1120:1 1287:1 1486:1 1843:1 1944:1 1989:1 
0.3056255649533066 1:57 2:57 7:4 8:2 9:1 10:1 15:2 18:1 21:57 22:1 29:1 33:1 44:1 49:1 50:2 51:1 55:1 58:1 64:1 69:1 73:39 74:3 96:1 115:1 116:1 123:27 138:1 150:3 178:1 205:2 210:78 226:1 229:1 231:13 238:2 251:1 271:2 292:1 334:1 338:2 359:1 375:1 475:3 525:1 539:1 575:13 587:2 593:3 622:1 697:1 727:4 762:1 773:1 881:1 891:1 908:6 964:1 1016:1 1025:39 1056:4 1066:1 1101:1 1102:1 1142:2 1245:1 1283:39 1309:4 1538:1 1553:38 1649:1 1663:1 1665:1 1710:38 1731:1 1759:3 1864:1 1865:1 1878:1 1996:1 
1 1:50 2:50 16:5 21:50 33:5 44:1 46:1 50:1 58:1 73:35 116:1 123:22 150:1 183:1 205:7 210:60 214:1 226:1 231:10 263:1 271:1 275:4 324:1 334:1 375:5 386:1 475:4 484:1 489:4 539:2 575:9 593:2 697:1 727:5 908:3 1023:5 1025:30 1056:5 1102:1 1142:2 1283:30 1309:1 1328:1 1553:27 1579:1 1710:27 
1 1:1 2:1 8:1 10:1 15:2 28:1 29:2 50:1 58:1 64:1 65:1 69:2 90:1 99:1 119:1 142:1 163:1 165:2 209:1 210:2 238:1 249:1 260:1 271:1 278:1 284:1 292:2 433:1 487:1 517:1 580:1 587:2 615:1 1101:1 1336:1 1440:1 1719:1 
1 7:2 10:1 13:2 15:1 31:2 42:1 44:1 47:1 48:1 49:2 56:1 61:1 64:1 69:1 104:1 107:2 150:1 156:2 157:1 199:2 351:1 587:1 718:1 724:1 742:1 801:1 961:1 989:1 1101:1 1102:1 1486:2 1592:1 1731:2 
1 8:4 9:2 13:2 15:1 22:2 23:3 29:1 30:1 33:2 59:1 69:2 71:1 78:1 79:1 96:1 97:1 104:1 128:1 130:1 138:2 156:2 163:1 169:1 238:4 240:1 251:2 292:1 311:1 323:2 344:1 351:1 363:1 375:2 442:2 520:1 541:1 587:1 659:1 837:1 951:1 1456:1 1486:2 1616:1 1996:2 
1 1:4 2:3 3:1 5:1 6:2 7:1 8:3 10:2 11:2 13:1 18:1 22:1 26:1 41:1 42:1 46:1 64:2 68:1 76:1 91:1 99:1 110:1 135:1 156:1 164:1 238:3 251:1 273:1 386:1 421:2 424:1 427:1 639:1 720:1 742:1 881:1 947:1 1101:2 1170:1 1486:1 1719:1 1725:1 
1 5:2 7:2 9:2 15:3 22:1 23:1 30:3 31:1 33:1 49:1 56:1 57:2 62:1 69:2 79:3 85:1 105:2 148:1 152:1 154:1 157:1 163:2 175:1 197:2 199:1 244:2 251:1 264:1 281:2 323:1 375:1 587:3 646:1 1573:1 1731:1 
1 4:1 5:1 7:3 9:2 10:1 12:2 13:1 18:1 23:2 31:1 41:1 43:1 44:1 50:2 54:2 62:1 64:1 68:1 85:2 87:1 90:1 104:1 116:1 119:1 128:1 151:1 156:1 160:1 190:1 199:1 222:1 264:2 271:2 334:1 336:1 351:1 424:1 510:1 617:1 668:1 866:1 881:1 987:1 1089:1 1101:1 1102:1 1227:1 1230:1 1276:1 1486:1 1493:1 1589:1 
1 7:3 9:3 10:1 13:1 15:1 29:3 42:1 46:1 50:1 64:1 72:1 82:2 126:1 139:1 156:1 164:1 226:1 244:1 271:1 273:1 292:3 306:1 346:1 386:1 443:2 454:1 587:1 707:1 742:1 1101:1 1106:1 1462:1 1486:1 1709:1 1800:1 
1 7:3 8:1 10:3 13:2 15:2 22:1 23:1 30:1 33:1 43:3 44:1 49:1 62:1 64:3 69:1 72:1 77:1 79:1 87:3 97:2 106:1 134:1 156:2 163:1 164:2 182:1 219:1 237:1 238:1 251:1 273:2 311:1 319:1 375:1 503:1 541:1 587:2 599:2 781:1 951:2 1101:3 1102:1 1120:1 1177:1 1486:2 1709:1 1731:1 1747:1 1846:1 
1 9:3 10:2 13:1 15:1 18:1 22:1 23:3 33:1 44:1 46:2 49:1 50:1 51:1 56:1 57:1 63:2 64:2 69:1 72:1 82:1 85:1 98:1 111:1 136:2 142:1 156:1 157:1 178:1 197:1 251:1 264:1 271:1 333:1 346:1 375:1 386:2 404:1 491:1 587:1 615:1 881:1 959:1 1101:2 1102:1 1110:1 1486:1 1622:2 1709:1 1731:1 1800:1 1804:1 1888:1 1910:1 
1 7:3 8:1 10:1 13:1 16:1 18:1 23:3 31:1 42:1 47:2 64:1 69:1 85:1 107:1 151:1 156:1 183:1 199:1 234:1 238:1 264:1 284:1 410:1 742:1 881:1 903:1 987:1 1101:1 1142:1 1328:1 1440:1 1486:1 1700:1 
1 7:2 8:2 9:1 10:1 13:4 18:2 23:2 39:1 41:1 47:1 56:2 59:1 62:1 64:1 65:1 69:1 77:3 83:1 107:1 117:2 119:3 156:4 157:2 166:1 182:3 229:1 238:2 241:1 344:1 424:1 434:1 487:1 520:1 619:1 881:2 1101:1 1119:2 1120:1 1133:1 1234:1 1287:1 1486:4 1616:1 1649:1 
1 7:3 8:1 9:3 13:1 23:3 30:1 46:1 55:1 56:1 62:1 69:1 79:1 83:1 129:1 154:1 156:1 157:1 183:1 207:1 238:1 241:1 289:1 340:1 386:1 404:1 449:1 498:1 619:1 701:1 1133:1 1328:1 1486:1 1538:1 1622:2 1798:1 1882:1 1959:1 
1 8:1 9:3 10:1 13:1 15:1 23:1 30:3 31:2 39:1 42:1 46:1 48:1 55:1 58:1 64:1 69:1 79:3 104:1 126:2 128:1 130:1 151:1 156:1 161:1 185:1 191:1 199:2 238:1 351:1 358:1 386:1 570:1 587:1 617:1 742:1 987:1 1101:1 1287:1 1456:1 1486:1 1538:1 1592:1 
1 7:3 8:1 9:6 10:1 13:1 14:1 18:1 23:2 30:2 42:1 50:1 64:1 79:2 105:1 145:1 156:1 163:1 169:1 177:1 185:1 238:1 271:1 336:1 412:1 429:1 559:1 742:1 821:1 881:1 924:1 1101:1 1105:1 1179:1 1486:1 1557:3 1787:1 
1 7:2 8:1 9:3 13:2 15:1 18:1 22:1 23:2 29:1 33:1 55:1 63:1 69:1 88:1 123:1 136:1 156:2 177:1 185:1 196:1 238:1 239:1 251:1 274:1 292:1 339:1 375:1 575:1 587:1 631:1 699:1 793:1 821:1 881:1 920:1 1056:1 1438:1 1486:2 1538:1 
1 7:1 9:9 10:3 18:3 41:4 64:3 68:4 69:4 118:2 123:1 150:1 205:1 226:3 298:2 424:4 578:3 596:3 881:3 1101:3 1365:4 1851:1 
1 7:2 12:2 13:2 15:2 30:4 31:1 33:1 42:1 44:2 49:1 54:2 62:1 69:2 78:1 79:4 107:2 156:2 165:1 199:1 216:1 227:1 240:1 241:1 281:1 311:1 314:1 326:1 329:1 344:1 375:1 587:2 619:1 660:1 742:1 866:1 1102:2 1275:1 1285:1 1314:2 1486:2 1731:1 1768:1 
1 7:6 10:4 23:2 30:2 31:1 33:1 46:2 63:1 64:4 79:2 85:1 130:1 136:1 192:1 199:1 264:1 286:1 296:1 328:1 344:2 375:1 386:2 442:1 470:1 499:1 1101:4 1115:1 1191:1 1446:1 1456:1 
1 7:1 8:1 9:1 10:2 13:2 15:1 22:1 23:1 29:1 31:2 39:1 48:2 51:1 55:1 63:1 64:2 66:1 69:1 77:1 78:1 96:1 136:1 156:2 168:1 178:1 182:1 194:1 199:2 238:1 240:1 243:1 251:1 261:1 292:1 449:1 587:1 670:2 1101:2 1287:1 1318:2 1486:2 1538:1 1546:1 1592:2 1595:1 1916:1 1918:1 
1 7:2 9:2 10:3 22:3 33:1 64:3 68:2 100:1 251:3 375:1 593:1 635:1 677:1 871:1 972:1 1101:3 1329:1 1353:1 
1 5:1 7:1 9:2 10:2 13:2 18:1 22:1 23:1 31:2 64:2 66:1 118:1 135:1 156:2 199:2 216:1 251:1 298:1 400:1 517:1 881:1 1061:1 1101:2 1486:2 1725:1 
1 7:2 9:1 10:1 13:1 23:1 41:2 64:1 68:1 72:1 93:1 140:2 151:1 156:1 165:1 191:1 289:1 358:1 424:2 614:1 708:1 775:1 792:1 987:1 1101:1 1269:1 1355:1 1486:1 1709:1 1775:2 
1 8:3 9:1 10:1 22:2 42:1 46:1 64:1 133:1 152:1 196:1 238:3 251:2 360:1 386:1 441:1 542:1 703:1 742:1 1101:1 1414:1 1438:1 
1 13:1 49:1 65:1 68:1 145:1 156:1 183:1 192:1 239:1 487:1 793:1 1115:1 1328:1 1486:1 1731:1 
0.3703568997270048 7:1 9:1 10:2 13:1 15:1 18:1 29:1 30:1 39:1 41:1 63:2 64:2 68:1 69:1 72:1 79:1 132:1 136:2 156:1 166:1 175:1 192:1 206:1 248:1 292:1 319:1 424:1 587:1 625:1 628:1 750:1 781:1 881:1 1101:2 1115:1 1123:1 1287:1 1486:1 1631:1 1709:1 1975:1 
1 7:1 8:1 9:1 13:1 33:1 42:2 107:1 156:1 238:1 305:1 368:1 375:1 581:1 646:1 731:1 742:2 990:1 1360:1 1486:1 
1 9:1 13:1 14:2 16:4 30:1 31:1 42:2 43:2 44:1 48:4 57:1 69:1 79:1 87:2 111:1 148:3 156:1 196:1 197:1 199:1 210:3 236:1 284:1 699:1 742:2 789:1 810:1 1102:1 1321:1 1438:1 1440:1 1486:1 1573:3 1592:4 1804:1 
1 7:2 8:1 9:3 13:1 18:2 28:2 33:1 63:1 91:1 136:1 142:1 156:1 238:1 375:1 615:1 639:1 881:2 933:1 959:1 1486:1 1517:1 
1 7:2 8:1 9:3 10:1 12:2 13:1 15:3 29:1 30:1 31:1 33:2 39:3 43:1 46:1 54:2 56:1 61:1 64:1 69:1 77:1 79:1 84:1 87:1 99:1 126:1 146:1 156:1 157:1 160:1 175:1 182:1 199:1 202:1 219:1 238:1 241:1 278:1 292:1 323:1 355:1 375:2 386:1 397:1 406:1 473:1 587:3 601:1 619:1 879:1 1022:1 1079:1 1101:1 1287:3 1385:1 1486:1 1719:1 
1 4:2 8:1 9:1 12:4 15:1 31:1 39:1 42:1 44:1 46:1 54:4 57:1 59:1 66:1 67:1 69:1 70:1 71:2 105:1 111:1 126:1 185:1 190:1 191:1 197:1 199:1 201:1 238:1 260:1 302:1 338:1 358:1 365:1 374:2 386:1 453:2 481:1 520:1 587:1 659:2 742:1 862:1 978:1 1102:1 1164:1 1227:1 1258:1 1287:1 1336:1 1491:1 1589:1 1616:1 1804:1 1989:1 
0.9077526326211648 7:2 8:2 10:1 13:3 15:1 18:2 29:1 39:1 44:3 59:3 64:1 156:3 238:2 292:1 520:3 587:1 881:2 1101:1 1102:3 1141:2 1287:1 1323:2 1486:3 1616:3 
1 7:3 8:1 9:5 13:1 18:1 33:1 51:1 59:1 71:1 100:1 118:1 119:1 130:1 133:1 156:1 178:1 192:1 238:1 298:1 375:1 520:1 659:1 871:1 881:1 1115:1 1291:1 1456:1 1486:1 1616:1 
1 1:2 2:2 6:1 10:2 13:2 18:1 30:1 33:1 39:1 41:1 51:1 59:1 64:2 65:1 68:1 79:1 92:1 102:1 156:2 178:1 206:1 209:1 233:2 375:1 424:1 487:1 520:1 689:1 849:1 881:1 1074:1 1101:2 1287:1 1459:2 1486:2 1566:1 1616:1 
0.8592527790064431 7:7 8:3 9:3 23:3 29:1 31:1 42:1 47:1 55:1 72:1 85:1 101:1 118:1 199:1 238:3 250:1 264:1 290:1 292:1 298:1 339:1 379:1 409:1 447:1 475:1 599:1 724:1 742:1 1020:1 1538:1 1622:1 1709:1 
1 7:1 10:1 13:1 15:2 23:3 30:3 49:1 50:1 51:1 56:2 58:1 64:1 69:3 79:3 96:1 116:1 143:1 149:2 156:1 157:2 178:1 191:1 212:1 249:1 271:1 334:1 358:1 376:1 385:1 587:2 785:1 853:1 867:1 1101:1 1227:1 1275:1 1393:1 1464:1 1486:1 1501:1 1731:1 1971:2 
1 7:2 8:1 9:2 10:2 13:1 22:1 31:1 33:1 39:1 43:1 48:1 64:2 69:1 77:1 87:1 93:1 101:1 138:1 146:1 156:1 160:1 175:1 182:1 199:1 237:1 238:1 239:1 251:1 261:1 262:1 375:1 447:1 584:1 614:1 907:1 1101:2 1287:1 1385:1 1486:1 1592:1 1996:1 
1 7:3 8:1 9:2 10:2 12:3 13:2 15:1 23:4 31:1 41:1 47:1 54:3 56:1 62:1 63:1 64:2 71:1 107:1 136:1 156:2 157:1 161:1 185:1 199:1 202:1 238:1 243:1 328:1 424:1 483:1 582:2 587:1 599:1 601:1 659:1 1083:1 1101:2 1408:1 1486:2 1595:1 1792:1 1875:1 
1 7:1 8:3 9:1 13:2 15:2 22:1 23:2 30:1 62:1 67:1 68:1 69:1 77:1 78:1 79:1 85:1 156:2 164:1 182:1 196:1 207:1 238:3 240:1 242:1 251:1 264:1 272:1 273:1 336:1 350:1 387:1 472:1 517:1 587:2 978:1 1300:1 1438:1 1486:2 
1 1:14 2:14 10:1 18:1 21:14 48:1 49:1 64:1 73:13 92:1 150:1 179:1 329:1 594:1 697:5 727:9 849:1 881:1 1101:1 1592:1 1731:1 1741:1 1991:1 
1 7:1 8:1 13:1 15:1 23:2 29:1 30:2 31:1 46:1 59:1 61:1 62:1 69:2 77:1 79:2 85:1 122:1 132:2 144:1 151:2 156:1 162:1 182:1 184:1 188:1 199:1 219:1 238:1 253:1 264:1 292:1 386:1 520:1 587:1 790:1 987:2 1123:2 1486:1 1616:1 1651:1 
1 7:8 10:3 13:3 15:1 22:1 43:3 50:1 51:2 55:1 61:1 64:3 66:1 69:1 87:3 93:2 101:1 102:1 156:3 178:2 251:1 271:1 336:1 383:1 447:1 471:1 553:1 587:1 614:2 676:1 938:1 997:1 1010:1 1101:3 1112:1 1143:1 1300:2 1486:3 1538:1 1566:1 1815:1 
1 4:2 5:2 7:1 8:1 9:3 10:1 13:2 15:3 22:1 42:1 43:1 44:2 49:1 50:1 57:1 63:1 64:1 69:2 72:1 82:2 87:1 118:1 134:1 136:1 156:2 175:1 197:1 238:1 251:1 271:1 298:1 308:1 336:1 408:1 587:3 668:1 742:1 928:1 1004:1 1030:1 1101:1 1102:2 1120:1 1486:2 1546:1 1709:1 1731:1 1734:1 
1 7:1 9:4 10:3 13:2 18:1 22:1 30:1 39:1 42:1 58:1 59:1 64:3 69:1 71:1 75:1 78:1 79:1 96:2 102:1 144:1 154:1 156:2 165:1 184:1 194:1 202:1 219:1 236:1 240:1 250:1 251:1 397:1 520:1 601:1 659:1 742:1 881:1 949:1 1030:1 1101:3 1287:1 1321:1 1486:2 1566:1 1616:1 1806:1 1843:1 1918:1 
1 7:2 8:1 10:1 15:3 22:1 23:1 29:2 30:1 31:1 47:1 55:1 56:1 61:1 64:1 66:1 69:1 79:1 107:1 119:1 132:1 157:1 160:1 190:1 199:1 216:1 232:1 238:1 251:1 270:1 292:2 339:1 434:1 496:1 587:3 610:1 1101:1 1123:1 1193:1 1452:1 1538:1 1589:1 1999:1 
1 9:1 13:1 14:1 15:1 18:1 23:1 43:1 50:1 56:1 69:1 76:1 83:1 85:1 87:1 90:1 133:1 156:1 157:1 235:1 250:2 264:1 271:1 319:1 347:1 427:1 437:1 464:2 498:1 540:1 587:1 608:1 763:1 781:1 881:1 959:1 971:1 1133:1 1486:1 1768:1 
1 7:1 9:2 10:1 13:1 23:2 30:3 31:1 33:1 43:2 44:1 55:1 60:2 64:1 69:1 70:1 71:1 72:1 79:3 85:1 87:2 105:2 106:1 148:1 150:1 156:1 164:2 180:1 199:1 216:1 264:1 273:2 289:1 300:2 339:1 343:1 344:1 375:1 594:1 659:1 1087:1 1101:1 1102:1 1164:1 1486:1 1538:1 1573:1 1709:1 1846:1 1991:1 
1 8:2 13:1 14:1 15:2 22:1 23:2 29:1 49:1 61:1 63:2 66:1 69:1 100:1 104:1 122:1 130:1 136:2 156:1 177:1 185:1 196:1 237:1 238:2 251:1 279:1 292:1 315:1 351:1 426:1 587:2 766:1 821:1 871:1 925:1 938:1 1166:1 1438:1 1456:1 1486:1 1651:1 1731:1 1882:1 
1 7:2 8:1 9:1 10:1 13:4 22:2 23:1 29:2 31:2 46:1 48:1 58:1 59:1 64:1 65:2 68:1 72:1 104:1 107:1 122:1 138:1 154:1 156:4 189:1 199:2 238:1 241:1 251:2 260:1 292:2 299:1 351:1 386:1 487:2 520:1 541:1 619:1 630:2 631:1 1101:1 1136:1 1275:2 1336:1 1408:1 1486:4 1592:1 1616:1 1651:1 1709:1 1798:1 1996:1 
1 7:3 8:1 9:1 10:1 13:1 15:2 22:1 23:2 29:1 31:1 42:1 46:1 50:1 56:1 63:2 64:1 67:1 69:1 85:1 110:1 111:1 122:1 136:2 156:1 157:1 177:1 199:1 201:1 207:1 238:1 246:1 251:1 264:1 269:1 271:1 292:1 386:1 450:1 492:1 587:2 742:1 821:1 978:1 1051:1 1101:1 1170:1 1486:1 1651:1 1804:1 1989:1 
1 7:5 10:2 13:3 28:1 48:1 64:2 66:2 70:1 92:1 105:3 106:1 111:1 156:3 162:1 209:1 224:1 434:1 849:1 1101:2 1164:1 1486:3 1592:1 1804:1 1846:1 
1 7:4 8:1 9:1 10:1 15:2 23:4 29:1 30:3 56:1 64:1 70:1 79:3 85:1 90:1 117:2 150:1 152:1 157:1 160:1 161:1 162:1 220:1 223:2 238:1 263:1 264:1 292:1 587:2 845:1 1101:1 1119:2 1164:1 
1 5:1 7:1 10:6 13:2 14:1 18:3 30:1 39:2 46:1 57:1 64:6 69:1 71:1 72:1 79:1 101:1 156:2 163:1 197:1 236:1 301:1 386:1 447:1 652:1 659:1 881:3 920:1 1101:6 1287:2 1321:1 1486:2 1709:1 1882:1 
1 7:1 9:1 10:1 13:1 15:2 28:1 46:1 64:1 69:1 70:1 76:1 93:1 97:1 104:1 105:1 133:1 151:1 156:1 192:1 219:1 227:1 250:1 253:2 257:1 351:1 369:1 386:1 427:1 587:2 614:1 642:1 951:1 987:1 1101:1 1115:1 1164:1 1486:1 1519:1 1953:1 
1 7:1 9:1 10:1 13:3 30:1 39:3 42:1 43:3 46:1 50:1 55:2 57:1 62:1 64:1 69:3 79:1 87:3 90:1 97:1 104:1 114:1 116:1 134:1 156:3 170:1 187:1 197:1 200:1 212:1 223:1 271:1 301:1 308:1 328:1 334:1 351:1 386:1 565:1 627:1 636:1 742:1 794:1 837:1 951:1 1101:1 1120:1 1287:3 1420:1 1486:3 1538:2 1623:1 1911:1 
1 1:3 2:3 3:10 21:3 73:6 147:1 171:3 454:1 727:1 967:1 984:1 1113:1 1304:1 1553:4 1710:4 1720:3 1735:3 
1 7:4 8:1 15:4 22:1 33:2 43:1 44:1 46:1 48:2 49:1 55:1 56:1 87:1 88:1 105:1 126:1 132:1 134:1 157:1 186:1 187:1 216:1 238:1 251:1 274:1 280:1 375:2 386:1 406:1 446:1 504:1 587:4 695:1 711:1 1102:1 1123:1 1237:1 1538:1 1592:2 1731:1 1742:1 
0.3593398280938433 1:10 2:10 21:10 22:1 44:1 46:1 50:1 66:1 69:2 73:8 74:1 88:1 116:1 123:5 150:1 205:1 210:16 226:1 231:4 251:1 271:1 274:1 275:1 334:1 359:1 386:1 475:1 489:1 575:4 593:1 697:1 891:1 1016:1 1025:8 1102:1 1142:1 1283:8 1553:8 1710:8 1759:1 
0.9879165427366217 7:5 9:2 15:2 22:1 23:1 33:1 43:1 44:2 51:1 61:2 68:1 69:1 72:1 83:1 87:1 88:1 93:1 128:2 142:1 160:1 175:1 178:1 222:1 250:1 251:1 274:1 290:1 330:1 362:1 375:1 527:1 587:2 614:1 615:1 1102:2 1133:1 1400:1 1709:1 
1 7:3 9:3 10:1 42:1 43:2 47:1 51:1 57:1 62:2 64:1 69:1 74:2 87:2 92:1 133:1 148:1 152:1 155:1 162:1 177:2 178:1 179:1 181:2 197:1 247:1 431:1 441:1 489:1 698:1 742:1 821:2 849:1 1101:1 1573:1 1741:1 1759:2 
1 7:2 12:1 13:2 15:1 23:1 33:1 42:1 43:1 51:2 54:1 57:1 66:1 67:2 71:1 87:1 105:1 134:1 156:2 160:1 178:2 197:1 255:1 375:1 503:1 587:1 659:1 742:1 788:1 863:1 906:1 978:2 1060:1 1275:1 1460:1 1461:1 1486:2 1515:1 1645:1 1797:1 
1 9:2 10:1 13:2 18:1 23:2 33:1 41:1 46:2 56:1 57:2 62:2 64:1 65:1 69:1 70:1 71:1 85:1 104:1 105:1 156:2 157:1 179:1 197:2 264:1 328:1 351:1 375:1 386:2 412:1 424:1 441:1 487:1 659:1 677:1 801:1 881:1 1101:1 1164:1 1237:1 1486:2 1741:1 
1 1:6 2:5 3:1 5:1 6:3 7:1 8:4 10:2 11:4 13:2 22:2 26:1 48:1 64:2 100:1 107:1 110:1 119:1 156:2 238:4 239:1 251:2 421:4 690:1 871:1 1061:1 1101:2 1170:1 1486:2 1592:1 1760:1 
1 7:3 9:1 10:2 13:1 15:2 18:1 23:1 29:2 31:3 39:2 49:1 59:1 64:2 65:1 156:1 162:1 199:3 222:1 252:1 292:2 318:1 487:1 498:1 520:1 587:2 881:1 1101:2 1287:2 1486:1 1616:1 1731:1 1891:1 
1 7:2 8:2 15:1 23:1 29:1 44:1 47:2 49:1 51:1 56:1 58:1 66:1 69:1 71:1 77:1 84:1 90:1 123:3 134:2 157:1 160:1 168:1 178:1 182:1 188:1 238:2 246:1 260:1 292:1 481:1 513:1 566:1 587:1 604:1 659:1 734:1 896:1 1079:1 1102:1 1120:1 1222:1 1336:1 1546:1 1731:1 
1 7:3 8:2 9:1 13:1 15:1 18:1 22:1 23:1 42:1 47:2 56:1 57:1 59:1 69:2 74:1 91:1 105:1 114:1 117:1 126:1 156:1 157:1 197:1 202:1 237:1 238:2 251:1 288:1 290:1 512:1 520:1 587:1 601:1 639:1 742:1 754:1 755:1 837:2 879:1 881:1 1002:1 1119:1 1435:1 1486:1 1616:1 1759:1 1787:1 
1 8:1 9:2 10:2 18:1 22:1 23:3 29:1 43:1 46:1 51:1 57:1 58:1 64:2 69:1 76:1 87:1 105:1 132:1 161:1 178:1 197:1 238:1 251:1 292:1 363:1 386:1 427:1 559:1 875:1 881:1 906:1 924:1 1006:1 1089:1 1101:2 1123:1 1461:1 1483:1 1645:1 1837:1 
1 7:1 8:1 12:1 13:5 15:1 31:1 44:3 49:1 50:2 54:1 56:1 69:1 71:1 83:1 85:1 96:1 129:1 156:5 157:1 159:1 173:1 199:1 238:1 264:1 271:2 312:1 345:1 587:1 659:1 707:1 852:1 884:1 887:1 1102:3 1133:1 1151:1 1237:1 1462:1 1486:5 1557:1 1638:1 1667:1 1731:1 1787:1 1959:1 
1 7:1 10:1 13:1 23:1 33:2 44:1 58:1 64:1 148:1 156:1 278:1 323:1 375:2 404:1 741:1 1099:1 1101:1 1102:1 1141:1 1486:1 1520:1 1571:1 1573:1 
0.8777801962578633 1:48 2:48 6:48 7:47 8:9 9:199 10:4 13:25 15:17 18:8 21:48 28:1 33:5 41:2 42:1 64:4 84:1 99:1 100:4 145:1 156:25 177:1 186:2 193:1 195:7 238:9 247:1 313:1 369:6 375:5 424:2 489:3 494:1 503:3 527:6 587:17 623:1 715:1 734:2 742:1 757:1 801:16 821:1 852:1 871:4 874:2 881:8 908:1 945:2 1054:4 1066:3 1079:1 1082:1 1101:4 1183:1 1245:2 1301:1 1329:1 1351:6 1486:25 1605:2 1719:1 1729:1 1862:3 1886:1 1999:2 
1 7:3 8:3 9:3 10:3 13:4 15:2 18:1 22:1 23:1 33:1 51:1 64:3 66:1 69:1 75:1 78:2 92:1 104:1 105:1 122:3 126:1 143:1 145:1 156:4 177:1 178:1 211:1 215:1 238:3 240:2 251:1 318:1 351:1 375:1 506:1 517:1 555:1 587:2 632:1 661:1 769:1 821:1 849:1 881:1 1101:3 1464:1 1486:4 1520:1 1651:3 1843:1 1950:1 
1 1:91 2:91 3:47 4:41 5:40 6:66 8:12 9:28 10:1 11:8 13:2 14:13 15:2 16:9 17:8 19:6 20:6 21:30 24:15 25:9 26:5 27:4 28:4 29:2 31:3 34:2 36:5 37:5 38:1 40:6 42:1 44:1 45:1 50:3 56:24 57:2 60:2 62:1 64:1 71:1 76:2 78:1 81:5 82:1 84:1 85:1 97:1 101:2 102:1 109:2 110:1 113:2 116:2 121:1 125:12 131:1 134:1 139:1 141:1 148:1 156:2 157:24 160:1 170:1 171:6 181:3 193:1 195:1 197:2 199:3 209:1 211:3 218:8 230:1 234:1 235:4 238:12 240:1 244:1 246:1 250:2 254:1 261:1 264:1 267:2 269:1 271:3 292:2 300:2 334:2 341:1 342:1 348:1 356:6 359:1 363:1 421:8 427:2 430:1 433:1 447:2 459:1 462:3 478:1 480:2 489:1 491:1 496:1 512:1 540:1 545:1 587:2 607:2 621:2 659:1 695:1 715:1 742:1 911:1 951:1 1072:2 1079:1 1101:1 1102:1 1170:1 1173:3 1176:1 1187:1 1193:1 1225:2 1232:3 1257:2 1265:6 1404:2 1413:1 1455:1 1457:1 1486:2 1566:1 1573:1 1623:1 1625:1 1667:1 1703:1 1756:1 1811:1 
0.00199067933068706 7:4 8:1 9:2 10:3 12:4 15:1 22:2 23:3 28:1 29:1 30:1 31:1 41:1 44:1 54:4 56:1 63:1 64:3 69:1 71:1 79:1 82:2 83:1 92:1 100:1 104:1 105:2 110:1 114:1 126:1 136:1 157:1 162:1 199:1 238:1 251:2 292:1 351:1 363:1 385:2 424:1 439:1 442:1 496:1 535:2 547:1 552:1 559:1 574:1 587:1 659:1 849:1 871:1 924:1 1101:3 1102:1 1120:1 1133:1 1170:1 1191:1 1193:1 1371:1 1893:1 1955:1 
1 7:2 8:1 9:2 10:2 23:1 29:1 62:1 64:2 68:1 69:1 88:1 92:1 107:1 114:1 117:1 119:1 161:1 202:1 238:1 274:1 283:1 288:1 292:1 529:1 601:1 608:1 837:1 849:1 1040:1 1101:2 1119:1 1239:1 1380:1 1533:1 1569:1 
1 7:1 9:3 10:3 13:1 15:1 18:2 22:1 31:1 33:1 42:1 44:1 48:1 64:3 69:1 93:1 145:1 149:1 156:1 159:1 199:1 251:1 346:1 375:1 587:1 614:1 661:1 742:1 825:1 879:1 881:2 1101:3 1102:1 1387:1 1486:1 1592:1 1622:1 1638:1 1800:1 1882:1 1950:1 1971:1 
1 7:2 8:1 9:3 13:2 15:1 23:1 29:1 30:1 31:1 39:1 44:1 47:2 48:1 56:4 62:1 69:1 72:1 79:1 85:1 106:1 107:1 117:1 154:1 156:2 157:4 166:1 199:1 201:1 235:1 238:1 241:2 264:1 292:1 344:2 434:1 517:1 587:1 619:2 699:1 1102:1 1119:1 1149:1 1287:1 1486:2 1592:1 1709:1 1846:1 1989:1 
1 4:1 5:1 7:9 8:2 9:2 15:1 29:1 46:1 47:1 48:1 68:2 69:1 117:2 159:2 189:1 238:2 241:1 253:1 292:1 386:1 587:1 619:1 1089:1 1097:1 1119:2 1408:1 1436:1 1592:1 1638:2 
1 7:3 9:1 10:2 13:3 15:1 18:1 22:1 30:1 41:1 43:2 64:2 65:1 66:1 79:1 87:2 93:1 126:1 156:3 159:1 161:1 168:1 251:1 347:1 378:1 424:1 487:1 565:1 574:1 587:1 599:1 614:1 630:1 837:1 881:1 1101:2 1246:1 1408:1 1486:3 1638:1 1780:1 
1 1:8 2:5 3:5 4:1 5:5 6:4 7:3 8:5 9:3 10:3 11:2 13:2 14:1 15:2 18:1 23:4 26:2 28:2 29:1 30:3 33:1 34:1 40:2 44:1 46:1 51:2 55:1 60:1 64:3 66:1 69:1 71:1 79:3 88:2 99:1 156:2 177:1 178:2 183:2 185:1 224:1 237:1 238:5 257:1 258:2 274:2 291:1 292:1 300:1 303:1 304:1 315:1 339:1 375:1 386:1 420:1 421:2 438:1 497:1 502:1 519:1 587:2 659:1 755:1 795:1 821:1 881:1 1101:3 1102:1 1275:1 1328:2 1486:2 1488:1 1519:1 1538:1 1719:1 1990:1 
1 7:2 10:5 13:3 15:2 18:1 22:1 42:1 43:1 47:1 51:1 61:1 64:5 65:2 66:3 78:1 87:1 88:1 92:2 96:1 97:1 100:1 117:1 156:3 178:1 240:1 251:1 274:1 301:1 395:1 487:2 517:1 578:1 587:2 622:1 731:1 742:1 805:1 849:2 871:1 881:1 951:1 1081:1 1101:5 1119:1 1120:1 1227:1 1412:1 1486:3 
1 7:2 8:1 10:1 13:1 15:1 18:1 23:1 29:1 46:1 47:3 64:1 66:1 69:1 107:2 156:1 164:1 167:1 196:1 238:1 273:1 292:1 322:1 386:1 453:1 581:1 587:1 881:1 1101:1 1438:1 1486:1 1520:2 
1 4:1 5:1 7:4 8:1 10:1 12:1 13:1 15:1 23:1 29:1 30:2 47:1 54:1 61:1 64:1 65:1 68:2 69:1 72:2 78:2 79:2 83:1 84:1 88:2 156:1 219:1 238:1 240:2 242:1 274:2 292:1 364:1 455:1 487:1 521:1 587:1 654:1 909:1 938:1 1079:1 1101:1 1133:1 1486:1 1709:2 
1 7:2 9:1 13:2 15:2 16:1 29:1 30:1 31:1 49:2 57:1 66:1 67:2 69:1 71:1 79:1 119:1 120:1 156:2 197:1 199:1 210:1 245:1 259:1 270:1 292:1 477:1 587:2 659:1 832:1 978:2 1117:1 1395:1 1486:2 1731:2 1869:1 
1 1:8 2:7 3:1 5:1 6:4 7:1 8:4 9:1 10:1 11:2 13:1 21:1 22:1 26:1 40:3 46:1 49:1 64:1 110:1 156:1 175:1 238:4 251:1 367:1 386:1 406:1 421:2 736:1 1101:1 1170:1 1429:1 1486:1 1731:1 1809:1 
1 7:1 12:2 13:2 23:2 30:2 44:3 46:2 54:2 55:1 56:1 66:1 69:1 79:2 104:1 107:1 114:1 128:1 132:1 143:1 151:1 156:2 157:1 177:1 185:1 187:1 351:1 386:2 465:1 821:1 894:1 987:1 999:1 1102:3 1107:1 1123:1 1314:1 1371:1 1464:1 1486:2 1538:1 
1 7:1 9:1 12:1 13:2 15:1 22:1 30:2 31:2 33:1 39:1 54:1 55:1 56:1 57:2 61:1 65:1 66:1 69:1 70:1 79:2 82:1 105:1 119:1 156:2 157:1 197:2 199:2 251:1 283:1 339:1 368:1 375:1 487:1 587:1 706:1 831:1 990:1 999:1 1061:1 1164:1 1287:1 1412:1 1486:2 1533:1 1538:1 
1 7:4 8:3 9:1 10:1 15:1 23:1 30:2 41:1 47:2 48:2 51:2 56:1 59:2 63:1 64:1 69:1 72:1 79:2 111:1 119:1 136:1 138:2 144:1 157:1 178:2 184:1 235:1 238:3 246:1 302:1 424:1 442:1 520:2 587:1 662:1 772:1 779:1 808:1 918:1 966:1 1004:1 1101:1 1280:1 1529:1 1592:2 1616:2 1622:1 1702:1 1709:1 1734:1 1804:1 1996:2 
1 7:1 9:1 10:3 13:1 15:2 22:1 23:1 33:1 42:1 46:1 63:1 64:3 65:1 69:1 72:1 91:1 105:1 136:1 156:1 168:1 250:1 251:1 375:1 386:1 487:1 587:2 639:1 742:1 1071:1 1101:3 1486:1 1709:1 
1 7:3 10:1 13:2 15:1 18:1 39:4 41:1 46:1 64:1 67:2 77:1 85:1 100:1 156:2 164:1 182:1 236:1 264:1 273:1 386:1 424:1 573:1 587:1 871:1 881:1 917:1 978:2 1101:1 1188:1 1262:1 1287:4 1321:1 1408:1 1486:2 
1 7:1 8:1 9:1 10:2 13:4 15:1 39:3 46:1 55:1 59:1 61:1 64:2 66:1 69:1 104:1 107:1 119:1 156:4 194:1 214:1 238:1 321:1 333:1 351:1 365:1 386:1 453:1 503:1 520:1 587:1 610:1 702:1 1101:2 1287:3 1486:4 1538:1 1616:1 1888:1 1918:1 
1 9:1 10:2 13:1 29:2 41:1 46:1 48:1 50:1 56:3 64:2 69:2 75:1 83:1 90:1 97:1 112:1 142:1 154:3 156:1 157:3 190:1 202:2 219:1 230:1 271:1 288:1 291:1 292:2 308:1 333:1 363:1 386:1 414:1 424:1 601:2 615:1 877:1 938:1 951:1 1089:1 1101:2 1133:1 1486:1 1589:1 1592:1 1703:1 1715:1 1843:1 1882:1 1888:1 
1 8:1 9:3 10:3 13:2 23:2 39:1 42:1 57:1 63:1 64:3 69:1 70:1 72:1 117:1 136:1 156:2 161:1 197:1 238:1 481:1 494:1 541:1 742:1 1089:1 1101:3 1119:1 1164:1 1287:1 1486:2 1661:1 1709:1 1951:1 
1 7:3 10:1 13:1 15:1 23:1 29:2 33:2 41:1 43:3 49:1 55:1 64:1 69:1 71:2 72:1 78:1 87:3 93:1 130:1 132:1 151:1 156:1 166:2 203:1 206:1 240:1 285:1 292:2 310:1 336:1 375:2 424:1 587:1 614:1 659:2 987:1 1101:1 1123:1 1156:1 1317:1 1456:1 1486:1 1538:1 1709:1 1731:1 1795:1 1920:1 
0.4614383501081331 7:7 8:1 13:1 18:2 31:2 43:1 69:1 70:2 71:1 76:1 87:1 93:2 105:1 156:1 180:1 199:2 238:1 289:1 290:1 296:1 318:2 427:1 429:1 484:1 517:1 614:2 659:1 881:2 1097:1 1164:2 1410:1 1436:1 1486:1 
1 7:1 9:1 13:3 15:2 22:2 28:1 44:1 48:1 59:1 62:1 69:1 110:1 114:1 126:1 140:1 156:3 180:1 189:1 251:2 408:1 434:3 513:1 520:1 587:2 721:1 1102:1 1170:1 1222:1 1337:1 1486:3 1592:1 1616:1 1775:1 
1 4:2 5:3 7:3 8:1 9:2 10:2 13:2 41:1 46:1 58:2 62:1 64:2 67:1 69:1 156:2 238:1 243:1 386:1 424:1 599:2 978:1 1101:2 1120:1 1272:1 1486:2 1544:1 1595:1 1833:1 
1 7:3 10:2 13:4 22:1 29:1 30:2 33:2 51:2 56:1 64:2 72:1 79:2 90:1 96:2 97:1 101:1 110:1 118:1 134:1 156:4 157:1 166:1 168:1 178:2 235:1 251:1 257:1 269:1 292:1 298:1 312:1 375:2 447:1 471:1 528:1 579:1 951:1 1101:2 1151:1 1170:1 1486:4 1519:1 1557:1 1622:1 1709:1 1787:1 
1 4:1 5:2 7:1 9:1 10:4 13:1 22:1 23:2 28:1 29:1 30:1 31:1 33:1 39:1 41:4 42:1 44:1 46:1 47:2 64:4 66:2 68:1 69:1 77:2 78:1 79:1 99:2 101:1 107:2 119:1 130:1 132:1 156:1 164:1 175:1 182:2 199:1 240:1 251:1 273:1 292:1 306:1 375:1 386:1 419:1 424:4 447:1 652:2 742:1 818:1 878:1 1101:4 1102:1 1123:1 1128:1 1287:1 1353:1 1443:1 1456:1 1486:1 1719:2 1780:1 1838:1 1910:1 
1 7:1 9:1 10:2 13:3 15:1 23:1 31:2 33:1 41:1 42:1 64:2 69:1 90:1 104:1 115:1 151:1 156:3 199:2 351:1 367:1 375:1 424:1 479:1 534:1 560:2 587:1 739:1 742:1 771:1 913:1 987:1 1089:1 1101:2 1486:3 
1 7:1 8:3 13:1 28:1 29:1 39:2 83:1 90:1 130:1 156:1 198:1 238:3 292:1 414:1 1133:1 1287:2 1456:1 1486:1 
1 7:1 10:1 13:1 15:1 33:2 42:1 49:1 51:1 55:1 64:1 69:1 77:1 82:1 102:2 107:1 119:2 126:1 133:1 150:1 152:1 155:2 156:1 178:1 182:1 209:1 234:1 375:2 431:2 517:1 523:1 540:1 587:1 613:1 742:1 989:1 1101:1 1136:1 1486:1 1538:1 1566:2 1716:1 1731:1 
1 5:1 7:1 9:3 13:3 15:2 30:1 31:1 44:1 62:1 69:1 79:1 91:1 112:1 120:1 130:1 145:2 156:3 199:1 200:1 209:1 214:2 226:1 246:1 266:2 312:1 587:2 639:1 683:1 1102:1 1151:1 1158:1 1280:1 1358:1 1407:1 1456:1 1486:3 1911:1 1987:1 
1 13:3 22:1 41:1 68:1 156:3 251:1 424:1 474:1 600:1 1298:1 1345:1 1353:1 1486:3 1809:1 
1 7:3 8:1 9:4 10:1 13:1 15:1 22:1 29:1 30:2 31:1 48:1 51:1 59:1 60:1 61:1 64:1 74:1 79:2 85:1 93:2 138:1 156:1 162:1 170:1 178:1 180:1 192:1 199:1 238:1 251:1 264:1 285:1 292:1 300:1 520:1 587:1 614:2 646:1 747:1 769:1 787:1 988:1 1101:1 1115:1 1486:1 1592:1 1616:1 1623:1 1759:1 1894:1 1996:1 
1 1:6 2:6 7:4 15:1 21:6 33:3 73:3 150:1 293:3 375:3 587:1 697:1 757:1 
1 7:2 9:2 10:1 13:1 15:1 18:1 23:2 31:2 33:1 47:2 59:1 63:1 64:1 69:1 70:1 75:1 91:1 92:1 100:1 107:2 114:1 129:1 136:1 156:1 173:1 199:2 207:1 234:1 239:1 282:1 284:1 375:1 520:1 587:1 639:1 849:1 871:1 881:1 887:1 1071:1 1101:1 1164:1 1440:1 1486:1 1590:1 1616:1 1843:1 1959:1 1997:1 
1 7:3 8:1 15:2 22:1 42:2 47:1 56:1 59:1 69:1 70:1 129:1 152:1 154:1 157:1 169:1 171:1 223:1 238:1 239:1 251:1 262:1 328:1 355:1 422:1 517:1 520:1 587:2 643:1 742:2 874:1 1110:1 1164:1 1280:1 1616:1 1959:1 
1 7:2 9:2 10:2 13:1 15:1 22:1 64:2 68:1 156:1 192:1 212:1 251:1 587:1 1101:2 1115:1 1486:1 1598:1 
1 7:1 8:4 10:2 15:1 63:2 64:2 67:1 69:1 70:1 73:1 119:1 136:2 238:4 239:1 305:1 398:1 399:1 587:1 609:1 668:1 978:1 1071:1 1101:2 1164:1 1316:1 
1 8:1 9:1 10:2 13:3 15:1 22:1 33:3 47:2 57:1 58:2 64:2 65:1 69:1 112:1 156:3 189:1 192:1 197:1 238:1 251:1 321:1 375:3 486:1 487:1 587:1 811:1 845:1 950:1 1101:2 1115:1 1117:1 1395:1 1486:3 
1 1:6 2:5 3:1 5:1 6:3 7:1 8:2 9:1 10:2 11:4 13:3 18:1 26:1 33:1 59:1 64:2 70:1 74:2 101:1 110:1 145:1 156:3 159:1 238:2 260:1 375:1 421:4 447:1 520:1 748:1 881:1 1101:2 1164:1 1170:1 1336:1 1486:3 1560:1 1616:1 1638:1 1759:2 1938:1 
1 7:2 8:1 9:2 10:1 13:2 15:1 18:1 23:1 29:2 33:1 39:1 44:1 49:1 63:1 64:1 69:1 76:1 126:1 136:1 156:2 238:1 270:1 286:1 292:2 315:1 323:1 375:1 427:1 498:1 587:1 881:1 1101:1 1102:1 1287:1 1486:2 1731:1 1993:1 
1 7:1 10:2 13:2 15:3 22:3 44:1 50:1 59:1 62:1 63:1 64:2 69:4 88:1 136:1 142:1 149:2 152:1 156:2 162:1 166:1 244:1 251:3 259:1 269:2 271:1 274:1 414:1 520:1 561:1 587:3 615:1 695:1 1101:2 1102:1 1276:1 1486:2 1616:1 1836:1 1971:2 
0.1022778836381518 8:1 12:4 13:1 23:1 31:1 33:1 44:1 46:1 54:4 55:1 59:2 63:1 65:1 69:1 85:1 105:1 110:1 111:1 134:1 136:1 138:2 156:1 177:1 188:1 190:2 199:1 238:1 255:1 264:1 319:1 326:1 343:1 375:1 385:1 386:1 487:1 510:1 520:2 572:1 670:1 774:1 781:1 793:1 821:1 1060:1 1102:1 1170:1 1318:1 1486:1 1538:1 1557:1 1589:2 1616:2 1804:1 1996:2 
1 7:2 8:1 9:2 10:2 13:2 15:2 18:2 31:1 47:1 64:2 66:1 69:1 70:1 74:1 92:2 97:1 156:2 199:1 202:1 216:1 238:1 367:1 587:2 601:1 631:1 813:1 822:1 849:2 850:1 881:2 951:1 1101:2 1164:1 1486:2 1759:1 
1 7:7 9:4 10:1 13:2 23:1 31:1 43:2 46:1 63:1 64:1 69:2 87:2 122:1 136:1 156:2 173:1 199:1 201:1 336:1 386:1 414:1 529:1 599:1 788:1 887:1 964:1 1101:1 1486:2 1605:1 1651:1 1989:1 
1 7:2 8:3 9:1 10:1 12:6 13:2 15:2 23:2 29:1 39:1 47:1 51:1 54:6 56:1 62:1 64:1 66:1 69:1 70:1 114:1 126:1 156:2 157:1 178:1 223:1 238:3 241:1 262:1 270:1 292:1 344:1 432:1 587:2 619:1 701:1 751:1 1087:1 1101:1 1164:1 1287:1 1486:2 1905:1 
1 8:2 10:4 12:1 13:1 15:1 22:2 30:2 39:2 54:1 64:4 69:3 79:2 85:1 119:1 132:1 142:1 156:1 167:1 217:1 238:2 247:1 250:1 251:2 252:1 264:1 305:1 322:1 587:1 615:1 805:1 994:1 1101:4 1123:1 1266:1 1287:2 1314:1 1364:1 1486:1 1554:1 1927:1 
1 7:2 8:2 9:3 10:3 13:3 22:1 62:1 64:3 66:1 156:3 180:1 183:1 196:1 238:2 251:1 418:1 454:1 467:1 484:1 507:1 652:1 654:1 1007:1 1101:3 1183:1 1328:1 1438:1 1486:3 
1 1:1 2:1 3:3 4:2 5:3 6:1 7:2 8:1 9:1 10:1 18:1 19:1 23:1 38:1 42:1 64:1 67:1 71:1 75:1 77:1 81:1 94:1 151:1 182:1 205:2 234:1 238:1 284:1 659:1 742:1 881:1 978:1 987:1 1082:1 1101:1 1440:1 1843:1 
1 1:1 2:1 8:2 9:2 12:2 13:2 21:1 41:1 42:1 44:2 46:1 54:2 62:2 105:1 156:2 238:2 262:1 287:1 355:1 386:1 424:1 453:1 599:2 742:1 763:1 878:1 912:1 1102:2 1486:2 1873:1 
1 4:1 5:1 7:3 9:1 10:3 13:1 29:1 30:1 41:1 47:1 49:1 63:2 64:3 79:1 98:1 132:1 136:2 156:1 175:1 188:1 262:1 292:1 371:1 424:1 591:1 652:1 780:1 1101:3 1123:1 1168:1 1486:1 1731:1 
1 7:2 9:3 10:3 13:3 22:1 62:1 64:3 66:1 156:3 180:1 183:1 196:1 251:1 418:1 454:1 467:1 484:1 507:1 652:1 654:1 1007:1 1101:3 1183:1 1328:1 1438:1 1486:3 
1 1:4 2:4 7:8 8:1 10:3 11:4 33:3 64:3 73:3 238:1 324:2 375:3 421:4 483:1 489:1 596:1 727:1 1101:3 1511:3 
1 7:2 8:4 9:1 13:3 15:2 31:1 42:1 47:1 60:1 63:1 69:1 83:1 96:1 114:1 126:1 136:1 156:3 183:1 189:1 199:1 217:1 229:1 238:4 276:1 300:1 313:1 441:1 456:1 510:1 587:2 599:1 605:1 742:1 1055:1 1069:1 1133:1 1328:1 1364:1 1486:3 1649:1 
1 7:1 8:1 9:2 10:1 13:5 15:1 18:2 23:1 29:2 31:3 42:1 47:1 64:1 65:1 66:1 69:1 71:1 92:1 128:1 129:1 156:5 160:1 199:3 207:1 216:1 226:1 230:1 238:1 239:1 252:1 290:2 292:2 487:1 587:1 656:1 659:1 742:1 849:1 881:2 1101:1 1486:5 1703:1 1959:1 
1 7:6 8:2 9:1 13:1 15:1 22:1 23:1 43:1 55:1 58:1 69:1 87:1 88:1 105:1 126:1 135:1 140:1 156:1 180:1 183:1 216:1 222:1 238:2 251:1 253:1 274:1 327:1 339:1 344:1 403:1 491:1 587:1 625:1 892:1 938:1 1051:1 1061:1 1328:1 1337:1 1400:1 1486:1 1538:1 1725:1 1775:1 1791:1 
1 7:1 30:1 42:1 47:2 78:1 79:1 92:1 107:1 132:1 164:1 240:1 273:1 742:1 790:1 849:1 1123:1 1481:1 
1 4:1 5:1 7:1 8:1 9:3 10:2 15:2 18:1 22:1 30:1 33:1 39:1 41:1 43:2 47:1 62:1 64:2 65:1 69:1 75:1 79:1 87:2 126:1 130:1 132:1 209:1 238:1 251:1 272:1 373:1 375:1 424:1 487:1 587:2 651:1 881:1 1101:2 1123:1 1287:1 1456:1 1655:1 1794:1 1843:1 
1 5:1 7:1 8:4 9:3 13:2 18:1 29:2 30:1 39:4 43:1 63:2 69:1 74:1 79:1 87:1 99:1 130:2 136:2 156:2 238:4 255:1 292:2 363:1 398:1 404:1 881:1 946:1 1060:1 1287:4 1387:1 1456:2 1486:2 1719:1 1759:1 1855:1 
1 7:2 10:2 13:1 15:3 23:1 30:1 31:1 47:1 49:1 51:2 62:1 64:2 66:1 69:1 76:1 79:1 84:1 101:1 104:1 107:1 126:1 156:1 177:1 178:2 185:1 199:1 244:1 279:1 318:1 351:1 404:1 427:1 447:1 587:3 821:1 1079:1 1101:2 1110:1 1486:1 1718:1 1731:1 
1 7:1 9:1 12:3 13:2 15:2 31:2 54:3 56:1 57:1 69:2 70:1 71:1 78:1 105:1 106:1 118:1 122:1 126:1 128:1 129:1 142:1 156:2 157:1 173:1 190:1 197:1 199:2 240:1 298:1 344:1 587:2 615:1 659:1 743:1 765:1 862:1 887:1 966:1 1164:1 1432:1 1486:2 1557:1 1589:1 1651:1 1846:1 1959:1 
1 7:2 10:1 23:1 29:1 33:1 42:1 49:1 56:1 64:1 66:1 69:1 71:1 76:1 105:1 140:2 154:1 157:1 270:1 292:1 375:1 427:1 599:1 659:1 705:1 742:1 853:1 1101:1 1110:1 1718:1 1731:1 1775:2 
1 1:8 2:8 7:3 9:8 15:2 21:8 62:1 73:3 123:1 170:1 231:2 293:1 362:2 475:1 587:2 593:2 697:1 809:1 891:1 984:1 1138:1 1553:3 1623:1 1699:1 1710:3 1862:1 
1 5:1 7:1 8:1 10:2 13:1 18:1 28:1 33:1 42:1 55:1 64:2 69:2 145:1 151:1 156:1 187:1 209:1 232:1 238:1 375:1 742:1 881:1 987:1 1101:2 1486:1 1538:1 1671:1 
1 1:19 2:19 7:2 9:5 10:1 21:19 22:1 31:4 46:1 61:1 62:1 64:1 73:11 74:1 84:1 102:1 123:3 150:1 180:4 195:1 199:4 212:1 231:6 251:1 275:1 293:11 386:1 400:3 553:4 736:3 784:1 839:11 874:7 891:1 907:1 984:3 1079:1 1094:1 1101:1 1183:3 1497:1 1517:1 1553:6 1566:1 1710:6 1729:1 1759:1 1862:3 
1 1:5 2:4 3:1 6:4 7:5 8:3 9:4 10:3 11:1 13:3 18:2 21:2 22:2 26:1 28:2 42:1 46:1 51:1 62:1 63:1 64:3 65:1 66:1 71:1 83:1 91:2 99:1 110:1 119:1 136:1 151:1 156:3 178:1 179:1 180:1 185:1 193:1 210:2 220:1 228:1 231:1 238:3 251:2 255:1 261:1 367:1 386:1 421:1 475:1 484:1 487:1 599:1 622:1 639:2 654:3 659:1 742:1 793:1 881:2 987:1 999:1 1060:1 1101:3 1114:1 1133:1 1170:1 1304:1 1486:3 1634:3 1718:1 1719:1 1741:1 1820:1 1892:1 
1 7:2 9:2 10:1 13:2 41:1 48:1 64:1 68:2 84:1 110:1 117:1 145:1 156:2 162:1 193:1 276:1 399:2 424:1 451:1 531:1 600:2 662:1 847:1 908:2 1055:1 1079:1 1082:2 1101:1 1119:1 1170:1 1221:1 1304:1 1316:2 1486:2 1592:1 1644:1 1807:1 1809:2 
1 4:1 5:1 7:3 8:2 10:2 13:1 18:2 22:1 23:1 31:1 62:1 64:2 69:1 82:1 84:1 139:1 156:1 169:2 180:1 199:1 207:1 223:1 231:1 238:2 250:1 251:1 255:1 450:2 513:1 606:1 670:1 739:1 881:2 1060:1 1071:1 1079:1 1101:2 1222:1 1318:1 1486:1 1506:1 
1 7:1 8:1 9:1 10:3 13:1 15:1 18:3 22:1 64:3 69:1 76:1 101:1 156:1 189:1 238:1 251:1 268:1 427:1 447:1 567:1 587:1 881:3 1101:3 1482:1 1486:1 
1 7:1 8:1 10:6 13:4 18:1 22:3 23:2 64:6 68:2 69:1 112:1 156:4 210:1 212:1 238:1 251:3 881:1 1101:6 1220:1 1486:4 
1 1:2 2:1 3:1 5:1 6:1 7:3 8:3 9:2 10:2 11:2 13:1 15:1 22:2 23:1 46:1 47:1 64:2 68:1 72:1 156:1 162:1 185:1 205:1 238:3 251:2 258:1 259:1 386:1 399:1 421:2 504:1 587:1 766:1 1051:1 1101:2 1316:1 1353:1 1486:1 1709:1 
0.5178150977085318 7:1 8:2 9:1 13:1 15:1 18:2 42:1 44:1 47:1 61:1 67:1 69:1 72:1 83:1 85:1 96:1 114:1 118:1 130:1 156:1 165:1 206:1 227:1 237:1 238:2 264:1 289:1 298:1 315:1 366:1 587:1 724:1 742:1 790:1 881:2 978:1 1102:1 1120:1 1133:1 1278:1 1456:1 1486:1 1709:1 1787:1 
1 7:2 8:1 9:2 10:3 13:3 15:2 30:1 39:1 44:1 47:1 55:1 61:1 62:1 63:2 64:3 69:1 79:1 83:1 99:1 111:1 117:1 136:2 151:1 156:3 163:1 186:1 238:1 260:1 284:1 339:1 344:1 348:1 553:1 587:2 761:1 838:1 899:1 987:1 1101:3 1102:1 1119:1 1133:1 1287:1 1336:1 1389:1 1440:1 1486:3 1538:1 1719:1 1804:1 
1 7:2 9:1 10:2 13:2 15:1 18:1 22:1 31:1 33:2 44:1 46:1 55:1 64:2 69:1 100:1 105:1 126:1 156:2 199:1 224:1 243:1 250:1 251:1 263:1 269:1 305:1 375:2 386:1 411:1 512:1 587:1 704:1 794:1 871:1 881:1 941:1 1101:2 1102:1 1300:1 1486:2 1538:1 1595:1 
1 7:3 8:1 10:1 13:3 30:2 31:1 43:1 47:1 55:1 64:1 65:1 69:1 72:1 79:2 87:1 105:2 129:1 130:1 133:1 152:1 156:3 177:1 199:1 203:1 209:1 238:1 247:2 415:1 487:1 821:1 866:1 1101:1 1317:1 1456:1 1486:3 1538:1 1709:1 1959:1 
1 4:1 5:1 7:1 8:1 9:3 10:2 13:1 23:3 31:1 44:1 46:1 62:1 64:2 69:1 84:1 90:1 102:1 112:1 116:1 156:1 163:1 173:1 199:1 238:1 328:1 334:1 345:1 363:1 386:1 474:1 533:1 585:1 597:1 738:1 832:1 887:1 1079:1 1101:2 1102:1 1428:1 1486:1 1566:1 
1 7:5 8:1 9:1 10:3 13:2 22:2 23:1 31:1 33:1 39:2 46:1 49:1 64:3 76:1 86:2 88:1 116:1 130:1 156:2 165:2 169:1 173:1 199:1 238:1 251:2 260:1 274:1 286:2 291:1 307:1 334:1 375:1 386:1 427:1 535:1 617:1 635:1 688:1 736:1 887:1 922:2 1101:3 1287:2 1336:1 1456:1 1486:2 1731:1 
1 7:3 8:1 9:2 10:1 15:1 22:1 23:1 31:2 46:1 55:1 60:1 64:1 168:1 187:1 198:1 199:2 238:1 251:1 280:1 286:1 300:1 302:1 365:1 386:1 511:1 548:1 587:1 599:1 1101:1 1255:1 1538:1 1626:1 
0.9941196919430013 7:1 8:3 12:1 13:2 15:1 23:1 29:1 46:1 49:1 54:1 58:1 63:2 66:1 68:1 69:3 78:1 114:2 119:1 136:2 156:2 167:1 175:1 238:3 240:1 292:1 322:1 344:1 367:1 386:1 519:1 541:1 587:1 678:1 837:1 936:1 1120:1 1486:2 1513:1 1731:1 
1 7:2 8:2 13:5 23:1 41:1 69:1 70:1 72:1 91:1 92:1 101:1 105:1 118:1 122:1 123:1 126:1 129:2 143:1 156:5 160:1 180:1 238:2 265:1 288:1 298:1 330:1 344:1 424:1 447:1 599:1 639:1 641:1 651:1 698:1 849:1 858:1 1120:1 1164:1 1464:1 1486:5 1651:1 1709:1 1959:2 
1 7:7 8:2 9:1 10:4 15:1 22:1 23:1 30:1 31:1 33:1 41:2 42:1 48:1 61:1 64:4 67:1 69:2 70:1 73:2 79:1 105:1 199:1 200:1 227:1 238:2 251:1 272:1 305:1 375:1 418:1 424:2 501:1 530:2 555:1 587:1 630:2 635:1 742:1 918:1 978:1 1101:4 1164:1 1275:1 1592:1 1911:1 
0.2872329151695471 6:4 10:2 13:2 29:1 39:1 43:2 44:1 59:2 61:1 64:2 69:5 74:1 78:1 80:1 87:2 110:1 120:1 146:4 156:2 166:1 198:1 240:1 292:1 346:1 464:3 520:2 585:1 598:1 652:1 900:1 1045:1 1101:2 1102:1 1143:3 1170:1 1180:1 1287:1 1385:4 1486:2 1616:2 1759:1 1800:1 
1 7:2 9:4 10:1 15:2 18:2 23:1 43:2 51:1 58:1 64:1 68:1 69:1 76:1 78:2 87:2 93:2 140:1 168:1 178:1 216:1 220:1 240:2 296:1 344:1 350:1 356:1 366:1 427:1 587:2 614:2 762:1 827:1 881:2 1101:1 1278:1 1775:1 1928:1 
1 7:2 8:2 9:1 13:3 15:1 30:1 31:1 42:1 44:1 56:1 67:1 69:1 70:1 71:1 72:1 77:1 79:1 129:1 132:1 149:1 156:3 157:1 182:1 199:1 238:2 246:1 306:1 426:1 496:1 513:1 587:1 659:1 742:1 806:1 966:1 978:1 1022:1 1102:1 1123:1 1143:1 1164:1 1193:1 1222:1 1485:1 1486:3 1622:1 1709:1 1959:1 1971:1 
1 1:8 2:5 3:5 4:1 5:5 6:4 7:5 8:6 9:1 11:2 13:2 14:1 15:2 23:3 26:2 28:2 29:2 30:2 33:1 34:1 40:2 44:1 46:1 55:2 56:1 59:1 61:1 69:3 79:2 84:2 102:1 116:1 156:2 157:1 160:1 187:1 224:1 237:1 238:6 258:2 292:2 303:1 304:1 334:1 335:1 341:1 365:1 375:1 386:1 420:1 421:2 438:1 497:1 502:1 520:1 587:2 679:1 963:1 1079:2 1102:1 1486:2 1538:2 1566:1 1607:1 1616:1 1713:1 
1 7:3 8:2 9:3 15:1 18:1 23:1 29:1 43:1 47:1 55:1 56:1 69:1 75:1 78:1 84:1 87:1 90:1 101:1 112:1 117:2 126:1 130:1 151:1 157:1 183:1 202:1 238:2 240:1 249:1 257:1 292:1 309:1 339:1 344:2 374:1 412:1 447:1 465:1 587:1 599:1 601:1 782:1 881:1 894:1 936:1 987:1 1061:1 1079:1 1119:2 1124:1 1328:1 1346:1 1456:1 1519:1 1538:1 1843:1 
1 7:1 8:1 9:1 13:2 15:1 18:1 29:2 31:1 47:1 63:2 69:2 70:1 78:1 92:1 99:1 105:1 107:1 119:1 136:2 156:2 175:1 199:1 202:1 209:1 227:1 238:1 240:1 241:1 255:1 292:2 366:1 540:1 580:1 587:1 601:1 619:1 749:1 791:1 837:1 849:1 881:1 904:1 1060:1 1164:1 1278:1 1486:2 1719:1 1778:1 
1 7:1 9:1 10:1 13:3 15:2 29:2 39:2 56:1 63:1 64:1 66:1 69:1 91:2 119:2 128:1 129:1 134:1 135:1 136:1 148:1 156:3 157:1 241:1 270:1 292:2 478:1 587:2 619:1 639:2 804:1 880:1 1101:1 1287:2 1452:1 1486:3 1573:1 1725:1 1959:1 
1 1:2 2:2 7:1 8:1 9:1 10:2 12:1 13:1 15:2 21:2 22:1 31:1 42:1 54:1 56:1 61:1 62:1 64:2 86:1 105:1 133:1 155:1 156:1 157:1 165:1 199:1 224:1 225:1 238:1 251:1 262:1 286:1 431:1 587:2 742:1 868:1 912:1 922:1 1101:2 1162:1 1486:1 1579:1 
1 7:3 10:1 13:1 15:2 22:1 23:1 31:2 39:1 41:1 46:1 57:1 62:1 64:1 66:1 69:1 70:1 96:1 105:1 156:1 162:1 197:1 199:2 227:1 251:1 259:1 270:1 386:1 424:1 517:1 587:2 701:1 1101:1 1110:1 1164:1 1287:1 1486:1 1605:1 1740:1 1863:1 
1 7:2 8:1 10:2 13:3 18:2 30:2 33:1 46:1 64:2 66:1 79:2 133:1 142:1 156:3 180:1 190:1 196:1 220:1 238:1 342:1 375:1 386:1 440:1 457:1 519:1 545:1 615:1 881:2 1087:1 1101:2 1438:1 1486:3 1589:1 1642:1 
1 4:1 5:1 7:2 9:1 10:1 13:2 15:1 22:1 33:3 39:1 48:1 58:4 62:1 64:1 93:1 151:1 156:2 170:1 251:1 375:3 587:1 614:1 769:1 987:1 1101:1 1287:1 1300:1 1486:2 1592:1 1623:1 1655:1 
1 1:9 2:8 3:2 4:1 5:2 6:5 7:7 8:4 9:3 10:2 11:6 13:10 15:2 18:3 21:1 22:7 26:1 39:3 41:3 45:1 47:1 59:1 62:1 63:1 64:2 70:1 74:2 91:2 110:1 119:1 136:1 156:10 159:1 216:2 238:4 251:7 256:4 257:2 303:1 367:1 390:1 421:6 424:3 474:1 486:1 503:1 520:1 587:2 635:1 639:2 725:1 771:1 873:1 881:3 999:1 1101:2 1130:1 1132:1 1152:1 1154:1 1164:1 1170:1 1287:3 1309:1 1335:1 1345:1 1353:1 1368:1 1422:1 1452:1 1486:10 1519:2 1605:1 1616:1 1638:1 1665:1 1724:1 1759:2 1832:1 
1 1:2 2:2 4:1 7:5 8:1 10:3 13:4 15:2 21:2 22:1 23:1 29:2 31:2 33:3 39:6 41:1 46:1 59:1 61:1 64:3 65:2 70:1 73:3 76:1 82:1 83:1 84:1 102:1 119:1 140:1 144:1 156:4 164:1 173:1 184:1 190:1 199:2 220:1 238:1 251:1 273:1 284:1 286:1 292:2 344:1 350:1 365:1 375:3 383:1 386:1 398:1 414:1 424:1 427:1 462:1 487:2 520:1 587:2 616:1 671:1 755:1 763:1 887:1 1079:1 1101:3 1133:1 1147:1 1164:1 1287:6 1340:1 1440:1 1486:4 1566:1 1589:1 1616:1 1727:1 1775:1 1819:1 1834:1 
1 7:2 8:1 9:3 10:4 13:1 18:1 22:3 23:3 41:2 60:1 63:2 64:4 69:1 85:1 91:1 100:1 136:2 156:1 231:1 238:1 251:3 264:1 300:1 424:2 573:1 581:1 639:1 652:1 790:1 871:1 881:1 945:1 1014:1 1061:1 1101:4 1188:1 1262:1 1486:1 1903:1 
1 1:8 2:5 3:5 4:1 5:5 6:4 7:4 8:6 9:1 11:2 12:3 13:11 14:1 15:1 16:1 26:2 28:3 30:2 34:1 40:2 42:1 44:1 46:1 48:1 54:3 56:1 58:1 66:1 69:1 79:2 83:1 88:1 97:1 138:2 139:1 155:1 156:11 157:1 172:1 189:1 224:1 237:1 238:6 258:2 274:1 303:1 304:1 386:1 420:1 421:2 431:1 438:1 497:1 502:1 535:1 580:1 587:1 742:1 875:1 951:1 1102:1 1133:1 1258:1 1486:11 1592:1 1996:2 
0.477923526057477 1:105 2:105 6:105 7:54 8:3 9:227 10:5 13:19 15:13 17:1 18:17 21:105 28:1 41:1 42:4 64:5 84:1 99:4 100:5 101:1 145:1 156:19 160:1 193:1 195:1 196:1 238:3 391:1 398:1 399:1 415:1 424:1 436:1 447:1 489:4 494:1 503:2 527:1 543:1 549:1 568:1 585:1 587:13 593:1 597:1 598:1 698:1 715:1 742:4 801:5 858:1 871:5 881:17 908:3 967:3 974:1 981:2 1054:4 1079:1 1082:3 1101:5 1135:1 1245:4 1316:1 1329:1 1438:1 1486:19 1605:4 1648:1 1665:1 1719:4 1729:4 1832:2 1862:2 1886:1 1997:1 1999:1 
0.15743437391931 7:3 10:3 18:1 22:14 31:3 64:3 75:1 199:3 222:1 251:14 259:1 346:1 353:1 408:1 517:4 881:1 898:1 1039:1 1101:3 1742:1 1766:1 1800:1 1843:1 
1 1:2 2:2 3:2 4:1 5:2 6:1 7:2 8:2 9:3 10:5 13:2 15:1 18:2 22:2 26:1 36:1 57:1 64:5 82:1 130:1 135:1 145:1 156:2 177:1 197:1 216:1 238:2 251:2 256:1 260:2 517:1 587:1 600:1 821:1 847:1 881:2 1101:5 1245:1 1336:2 1456:1 1486:2 1725:1 
1 7:6 8:4 9:1 10:1 13:3 22:2 23:3 33:1 47:1 48:1 55:1 64:1 66:1 71:1 84:2 88:1 99:1 101:1 111:2 122:1 130:3 156:3 193:1 207:1 226:1 235:1 237:1 238:4 251:2 274:1 283:2 313:1 339:1 346:1 375:1 409:1 447:1 579:1 652:1 659:1 784:1 847:1 1079:2 1101:1 1456:3 1486:3 1533:2 1538:1 1592:1 1651:1 1719:1 1800:1 1804:2 
1 1:90 2:90 6:90 7:46 8:6 9:186 10:2 13:17 15:8 18:7 21:90 28:1 33:1 41:1 42:4 60:1 64:2 84:1 99:4 100:1 145:1 156:17 186:1 193:1 195:1 205:1 225:2 238:6 247:1 300:1 359:1 375:1 399:1 415:1 424:1 475:1 486:4 489:2 503:1 524:1 527:1 587:8 715:2 734:1 738:1 742:4 801:6 858:1 868:2 871:1 874:1 881:7 945:1 981:1 1054:2 1066:2 1079:1 1082:3 1101:2 1309:1 1316:1 1329:2 1468:1 1486:17 1605:1 1648:1 1719:4 1729:1 1832:2 1862:2 1864:1 1886:1 
0.8928094288467138 1:48 2:48 6:48 7:48 8:14 9:202 10:8 13:20 15:18 18:15 21:48 22:2 23:1 28:1 33:3 41:3 42:1 46:1 64:8 68:1 84:3 85:1 91:3 99:6 100:9 156:20 164:1 177:1 193:1 195:9 210:1 222:1 225:1 238:14 247:1 251:2 264:1 273:1 311:1 324:1 369:4 375:3 378:1 386:1 391:1 424:3 471:2 486:1 489:2 494:1 503:4 524:3 527:4 543:2 568:1 585:1 587:18 603:2 636:1 639:3 649:1 698:1 715:1 738:1 742:1 801:10 814:1 821:1 841:1 855:3 858:1 868:1 871:9 874:2 881:15 908:2 957:1 972:1 999:2 1009:1 1029:1 1054:5 1066:2 1079:3 1082:1 1101:8 1147:1 1245:1 1329:1 1351:7 1353:1 1454:1 1486:20 1536:1 1605:3 1648:1 1719:6 1764:2 1786:1 1832:3 1862:1 1886:1 1953:1 
1 1:6 2:7 3:2 4:2 5:1 6:5 7:1 8:1 9:1 15:2 18:1 21:3 23:1 26:1 28:2 30:1 40:2 46:1 49:1 55:1 57:1 59:1 67:2 76:1 79:1 85:1 122:1 187:1 197:1 204:1 215:1 221:1 238:1 264:1 305:1 374:2 386:1 427:1 520:1 557:1 587:2 861:1 875:1 881:1 978:2 1538:1 1557:1 1616:1 1651:1 1731:1 
1 7:3 8:3 9:1 13:2 15:1 22:1 23:2 29:1 30:1 39:1 41:1 47:1 56:1 58:1 69:1 71:2 79:1 93:1 97:1 102:1 110:1 126:1 149:1 154:2 156:2 157:1 188:1 217:1 238:3 251:1 263:1 292:1 410:1 424:1 587:1 614:1 659:2 739:1 951:1 1170:1 1287:1 1486:2 1566:1 1971:1 
1 2:1 4:1 5:1 7:2 8:2 9:2 12:3 13:4 15:1 22:1 29:1 30:1 31:1 42:1 43:1 48:1 54:3 69:1 70:1 71:1 79:1 87:1 105:2 114:1 144:1 156:4 175:1 180:1 184:1 194:1 199:1 237:1 238:2 251:1 261:1 270:1 292:1 517:1 587:1 659:1 742:1 906:1 966:1 1058:1 1164:1 1300:1 1461:1 1486:4 1578:1 1592:1 1645:1 1658:1 1893:1 1901:1 1918:1 
1 7:1 10:2 13:1 18:1 22:1 39:2 41:1 42:1 51:1 64:2 66:1 69:2 70:1 77:1 101:2 107:1 110:1 119:1 156:1 178:1 180:1 182:1 189:1 202:1 249:1 251:1 265:1 301:1 348:1 424:1 447:2 481:1 482:1 601:1 742:1 880:1 881:1 1101:2 1164:1 1170:1 1287:2 1486:1 1728:1 
1 7:3 8:2 9:3 13:3 18:1 23:1 33:1 41:1 42:1 46:1 47:1 68:1 69:1 122:1 140:1 156:3 169:1 177:1 224:1 238:2 263:1 375:1 386:1 389:1 424:1 443:1 675:1 742:1 791:1 821:1 881:1 893:1 950:1 1044:1 1486:3 1651:1 1775:1 
1 7:8 8:2 13:1 15:2 31:1 41:1 44:3 57:1 66:1 75:1 96:1 152:2 156:1 162:1 197:1 199:1 201:1 216:1 232:1 238:2 261:1 305:1 424:1 587:2 1068:1 1102:3 1486:1 1843:1 1989:1 
0.7132617782365713 4:1 5:1 9:4 30:10 48:8 58:1 69:2 79:10 107:1 230:7 966:3 1592:8 1703:7 
1 7:2 8:1 9:2 10:1 22:1 30:1 46:1 48:2 58:1 61:1 64:1 67:1 69:2 77:1 79:1 83:1 92:1 98:1 105:2 110:1 116:1 123:1 182:1 238:1 251:1 334:1 386:1 849:1 867:1 978:1 1101:1 1133:1 1170:1 1191:1 1374:1 1592:2 
1 7:1 8:1 9:1 10:2 13:1 23:3 29:1 33:1 42:1 46:1 47:1 56:1 63:2 64:2 69:1 104:1 136:2 143:1 152:1 156:1 157:1 238:1 281:1 292:1 351:1 375:1 386:1 441:1 511:1 742:1 1101:2 1237:1 1464:1 1486:1 1787:1 
1 7:3 9:2 10:4 18:1 22:1 41:1 46:1 47:1 64:4 70:1 97:1 189:1 236:1 251:1 261:1 386:1 424:1 548:1 624:1 695:1 748:1 881:1 951:1 984:1 1071:1 1101:4 1164:1 1321:1 
1 7:3 8:2 9:5 10:1 13:2 15:1 22:1 29:1 30:5 33:1 44:2 47:1 48:1 49:1 51:2 55:1 64:1 69:1 79:5 92:1 119:1 142:1 156:2 168:1 178:2 185:1 220:1 238:2 251:1 252:1 270:1 292:1 323:1 339:1 375:1 404:1 584:1 587:1 615:1 811:1 849:1 1101:1 1102:2 1486:2 1538:1 1592:1 1731:1 
1 4:1 5:1 7:4 9:1 10:1 29:1 43:2 46:1 50:1 51:1 56:1 64:1 68:1 69:1 71:1 87:2 100:1 105:1 114:1 128:1 129:1 155:1 157:1 173:1 178:1 186:1 194:1 271:1 292:1 386:1 431:1 659:1 847:1 866:1 871:1 887:1 1101:1 1160:1 1393:1 1509:1 1813:1 1918:1 1959:1 
1 9:1 10:5 22:1 23:1 31:1 41:2 58:1 64:5 65:1 69:1 75:1 168:1 169:1 199:1 251:1 424:2 487:1 644:1 892:1 1023:1 1101:5 1425:1 1843:1 
1 7:1 9:1 10:1 15:2 23:1 31:1 33:1 48:1 51:1 55:1 56:1 64:1 69:1 70:1 88:1 92:1 105:1 132:1 138:1 148:1 157:1 178:1 187:1 199:1 221:1 232:1 244:1 261:1 274:1 309:1 367:1 375:1 419:1 551:1 586:1 587:2 837:1 849:1 1101:1 1110:1 1123:1 1164:1 1538:1 1573:1 1592:1 1740:1 1882:1 1996:1 
1 7:6 8:2 13:1 15:2 18:1 23:1 33:1 39:1 49:1 58:1 61:1 66:2 71:1 101:2 156:1 163:1 207:1 238:2 270:1 308:1 323:1 375:1 440:1 447:2 579:1 587:2 659:1 748:1 881:1 1287:1 1486:1 1731:1 1920:1 
1 31:1 33:1 39:1 46:2 58:2 69:1 100:1 199:1 205:1 375:1 386:2 582:1 871:1 1287:1 
1 7:2 10:5 13:2 18:1 22:1 23:3 30:1 41:1 62:1 64:5 69:2 79:1 85:1 106:1 156:2 168:1 169:1 177:1 185:1 251:1 264:1 424:1 582:1 799:1 821:1 837:1 881:1 1101:5 1323:1 1348:1 1486:2 1706:1 1846:1 
1 7:1 10:3 13:2 15:1 18:1 23:1 31:1 41:2 44:2 50:1 56:1 57:1 62:1 64:3 66:1 69:1 77:2 105:1 118:1 156:2 157:1 160:1 182:2 197:1 199:1 259:1 271:1 296:1 298:1 424:2 455:1 587:1 881:1 1101:3 1102:2 1120:1 1142:1 1486:2 
1 5:2 6:2 7:2 10:1 14:1 15:1 23:2 41:2 56:1 57:1 64:1 69:1 157:1 197:1 326:1 424:2 514:1 587:1 907:1 1101:1 1787:1 
1 8:1 10:1 13:2 18:1 22:1 31:1 44:1 50:2 62:1 64:1 65:1 69:1 76:1 97:1 105:1 144:1 156:2 170:1 183:1 184:1 199:1 206:1 216:1 238:1 246:1 251:1 266:1 270:1 271:2 363:1 427:1 487:1 881:1 951:1 1101:1 1102:1 1275:1 1328:1 1486:2 1623:1 1893:1 1937:1 
1 7:3 9:1 10:1 13:2 22:1 23:4 30:1 31:1 51:1 64:1 69:1 75:1 79:1 156:2 177:2 178:1 185:1 192:1 199:1 222:1 251:1 321:1 630:2 821:2 1080:1 1101:1 1115:1 1486:2 1843:1 
1 7:4 8:3 9:3 10:2 13:1 15:2 18:2 23:1 30:1 31:1 33:1 47:1 51:1 59:1 64:2 69:1 75:1 79:1 133:1 151:1 156:1 178:1 199:1 216:2 238:3 255:1 346:1 363:1 375:1 520:1 541:1 587:2 599:3 705:1 881:2 987:1 989:1 1060:1 1101:2 1218:1 1486:1 1529:1 1616:1 1800:1 1843:1 
1 2:1 7:3 9:1 15:1 18:1 22:1 62:1 69:1 74:1 84:1 93:1 114:1 146:1 149:1 155:1 162:1 186:1 194:1 218:1 248:1 251:1 310:1 431:1 587:1 614:1 832:1 847:1 881:1 1079:1 1385:1 1759:1 1918:1 1971:1 1975:1 
1 7:2 8:1 13:3 15:4 16:1 29:3 31:1 41:2 42:1 61:1 69:1 72:1 102:1 114:1 138:1 156:3 160:1 166:1 199:1 238:1 262:1 279:1 292:3 381:1 409:1 424:2 460:1 587:4 593:1 604:2 742:1 773:1 1120:1 1486:3 1566:1 1709:1 1996:1 
1 7:1 8:2 9:1 10:2 15:1 23:2 29:1 30:1 39:2 41:1 46:1 49:1 51:1 56:1 57:1 61:1 64:2 66:1 69:1 70:1 71:1 79:1 100:1 157:1 160:1 163:2 164:1 169:1 178:1 197:1 202:1 222:1 238:2 273:1 292:1 386:1 424:1 496:1 587:1 601:1 659:1 669:1 728:1 871:1 1101:2 1164:1 1193:1 1221:1 1287:2 1731:1 
0.6491675801100251 8:1 9:4 10:1 13:1 18:1 46:1 50:1 51:1 55:1 63:4 64:1 69:1 83:1 122:1 128:1 136:4 142:1 156:1 163:1 178:1 186:1 187:1 207:1 223:1 238:1 271:1 284:1 328:1 357:1 386:1 523:1 565:1 615:1 829:1 881:1 995:1 1101:1 1103:1 1133:1 1440:1 1486:1 1538:1 1651:1 1893:1 
1 1:1 2:1 8:1 13:1 15:1 21:1 33:1 82:1 84:2 105:1 144:1 156:1 168:1 184:1 192:1 238:1 262:1 305:1 375:1 587:1 712:1 904:1 1079:2 1115:1 1120:1 1175:1 1486:1 1833:1 
1 1:4 2:4 21:4 73:3 231:2 293:3 398:1 891:3 967:1 1066:1 1553:2 1665:1 1710:2 
1 7:2 9:1 10:1 15:2 18:1 30:2 31:2 44:1 48:1 51:1 56:1 57:1 59:1 60:1 62:1 64:1 79:2 83:1 88:1 96:2 154:1 157:1 178:1 179:1 190:1 197:1 199:2 207:1 214:1 274:1 300:1 315:2 319:1 397:1 437:1 520:1 587:2 646:1 781:1 857:1 881:1 938:1 1101:1 1102:1 1133:1 1515:1 1522:1 1589:1 1592:1 1616:1 1667:1 1741:1 
1 7:1 9:1 10:2 13:2 15:2 18:1 22:1 39:1 43:1 58:3 64:2 69:1 71:1 87:1 119:1 155:1 156:2 194:1 209:1 226:1 251:1 252:1 321:1 431:1 587:2 622:2 659:1 881:1 1101:2 1287:1 1486:2 1700:1 1918:1 
1 7:4 8:1 10:3 13:1 23:2 29:1 30:1 39:1 50:1 57:1 58:1 59:1 63:1 64:3 69:1 79:1 90:1 126:1 136:1 156:1 162:2 163:1 197:1 198:1 202:1 238:1 246:1 271:1 292:1 520:1 601:1 610:1 676:1 1017:1 1101:3 1112:1 1254:1 1287:1 1486:1 1616:1 1768:1 
1 5:3 7:1 13:2 15:2 23:2 28:2 31:1 33:1 42:1 47:1 49:2 55:1 67:1 69:2 71:1 77:3 132:1 138:1 156:2 160:1 175:2 182:3 199:1 203:1 207:1 226:2 246:1 311:1 319:1 375:1 453:2 551:1 587:2 659:1 741:1 742:1 781:1 864:1 978:1 1123:1 1317:1 1486:2 1538:1 1731:2 1996:1 
1 7:1 13:3 30:1 33:1 39:2 41:1 44:1 48:1 58:2 63:2 66:2 69:1 71:1 72:1 79:1 122:1 136:2 156:3 222:1 270:1 363:1 364:1 375:1 424:1 456:1 503:1 617:1 628:1 659:1 718:1 966:1 1102:1 1287:2 1486:3 1592:1 1622:1 1651:1 1709:1 
1 7:1 8:2 9:1 10:4 13:1 18:1 39:1 42:1 46:1 48:1 62:1 64:4 69:1 75:1 156:1 238:2 340:1 386:1 451:1 742:1 881:1 1101:4 1287:1 1486:1 1592:1 1606:1 1796:1 1843:1 
1 7:5 8:2 9:2 10:2 12:1 13:1 15:1 18:1 22:1 23:3 31:2 44:1 47:1 54:1 64:2 69:2 91:1 126:2 130:1 151:1 156:1 165:1 177:1 199:2 229:1 237:1 238:2 247:1 251:1 441:1 587:1 639:1 821:1 881:1 987:1 1101:2 1102:1 1456:1 1486:1 1553:1 1649:1 1710:1 1868:1 
1 7:1 8:3 9:3 13:1 15:1 18:1 22:1 23:2 30:1 33:2 47:1 48:2 51:1 56:2 62:1 69:1 76:1 79:1 105:1 123:1 144:1 156:1 157:2 160:1 178:1 184:1 238:3 251:1 262:1 331:1 375:2 390:1 427:1 432:1 496:1 587:1 881:1 1193:1 1294:1 1486:1 1592:2 1609:2 
1 8:1 9:1 12:3 13:1 15:1 23:1 31:1 33:1 39:1 41:2 54:3 57:2 59:1 69:3 77:1 84:1 100:1 104:1 130:1 156:1 182:1 197:2 199:1 225:1 229:1 238:1 244:1 257:1 279:1 311:1 315:1 351:1 368:1 375:1 424:2 520:1 567:1 587:1 868:1 871:1 928:1 990:1 1002:1 1079:1 1143:1 1287:1 1456:1 1486:1 1519:1 1616:1 1649:1 1654:1 1739:1 
1 1:2 2:2 7:1 9:1 13:1 21:2 22:1 30:2 31:1 33:1 63:1 66:1 79:2 101:1 136:1 156:1 199:1 220:1 251:1 368:1 375:1 447:1 498:1 681:1 748:1 869:1 990:1 1036:1 1486:1 
1 7:3 9:2 10:2 13:1 15:3 23:1 43:3 46:1 55:1 57:2 58:1 64:2 69:1 87:3 92:1 111:1 126:2 156:1 168:1 187:1 197:2 309:1 386:1 441:2 453:1 587:3 849:1 1084:1 1101:2 1191:1 1274:1 1486:1 1538:1 1804:1 
1 7:1 8:2 9:1 13:3 18:1 30:1 39:1 41:1 49:1 58:1 69:2 79:1 105:1 156:3 162:1 170:1 181:1 212:1 234:1 238:2 359:1 424:1 462:1 721:1 881:1 1043:1 1166:1 1287:1 1486:3 1623:1 1731:1 
1 8:1 13:1 39:1 41:1 47:1 62:1 65:1 71:1 77:4 128:1 156:1 169:1 182:4 228:1 238:1 424:1 450:1 487:1 659:1 775:1 1287:1 1428:1 1466:1 1486:1 
1 1:9 2:8 3:3 4:2 5:4 6:6 7:3 8:4 9:2 10:1 11:2 21:3 22:2 26:2 28:1 29:2 33:1 36:1 39:1 47:1 57:1 63:1 64:1 66:1 69:1 71:2 75:1 85:1 100:1 105:1 106:1 110:1 136:1 163:1 197:1 201:1 210:3 238:4 251:2 264:1 270:1 292:2 347:1 375:1 421:2 434:1 494:1 659:2 831:1 871:1 966:2 1101:1 1170:1 1287:1 1843:1 1846:1 1989:1 
1 1:2 2:1 3:1 5:1 6:1 7:1 8:5 10:1 22:2 23:1 26:1 33:1 39:1 46:1 48:1 63:1 64:1 91:1 99:1 136:1 152:1 164:1 200:1 238:5 251:2 273:1 375:1 386:1 399:1 459:1 573:1 639:1 875:1 939:1 1087:1 1101:1 1188:1 1262:1 1287:1 1316:1 1592:1 1719:1 1811:1 1911:1 
1 7:5 8:1 10:2 13:2 29:1 30:1 33:2 39:2 47:1 49:1 59:3 64:2 73:2 79:1 84:3 97:1 99:2 116:1 119:1 144:1 152:1 156:2 161:1 184:1 188:1 214:1 238:1 292:1 334:1 365:1 375:2 520:3 530:1 540:1 698:1 951:1 977:1 1061:1 1079:3 1101:2 1287:2 1486:2 1520:2 1616:3 1719:2 1731:1 
1 7:2 8:1 9:4 10:1 13:2 31:1 33:1 41:1 64:1 105:1 138:1 156:2 169:1 199:1 238:1 244:1 375:1 424:1 509:1 779:1 808:1 853:1 1101:1 1393:1 1449:1 1481:1 1486:2 1813:1 1906:1 1996:1 
1 8:1 9:2 12:1 21:1 22:1 23:1 31:1 41:1 51:1 54:1 68:1 69:1 84:1 93:1 178:1 179:1 199:1 238:1 251:1 283:1 424:1 556:1 614:1 959:1 1079:1 1533:1 1741:1 
1 1:8 2:8 4:1 21:8 73:5 1368:1 1517:2 1579:1 
1 7:1 8:1 9:1 13:2 15:2 23:1 28:2 47:1 67:2 76:1 77:2 98:1 116:1 118:1 128:1 142:1 156:2 182:2 238:1 298:1 312:1 319:1 332:2 334:1 397:1 427:1 492:1 587:2 615:1 753:1 781:1 978:2 1151:1 1486:2 1882:1 
1 4:1 7:1 8:1 10:2 13:1 23:1 29:1 30:2 33:1 41:1 46:1 56:1 61:1 64:2 69:1 70:1 78:3 79:2 110:1 126:1 156:1 157:1 192:1 223:1 238:1 240:3 259:1 292:1 296:1 363:1 375:1 386:1 424:1 667:1 878:1 1101:2 1115:1 1164:1 1166:1 1170:1 1281:1 1486:1 
1 5:1 7:7 8:2 9:4 13:2 15:1 18:1 29:1 30:2 44:2 47:1 57:1 60:1 78:1 79:2 101:1 105:1 156:2 165:1 166:1 197:1 212:1 216:2 232:1 238:2 240:1 292:1 300:1 315:1 335:1 344:2 363:1 447:1 587:1 860:1 881:1 1102:2 1486:2 1716:1 
1 7:1 8:1 9:2 10:1 15:1 18:1 29:2 33:1 41:1 42:1 44:1 46:1 47:1 50:1 60:1 64:1 65:1 69:1 105:1 126:1 128:1 129:1 130:1 160:1 165:1 191:1 212:1 236:1 238:1 271:1 292:2 300:1 358:1 375:1 386:1 424:1 487:1 492:1 496:2 587:1 742:1 881:1 936:1 1101:1 1102:1 1120:1 1193:2 1321:1 1456:1 1633:1 1959:1 
1 7:2 8:2 9:2 10:2 13:1 15:1 18:1 22:2 31:2 42:1 47:1 48:1 60:1 61:1 62:1 64:2 69:1 77:1 83:1 107:1 156:1 182:1 199:2 200:1 238:2 241:1 251:2 259:1 283:1 300:1 357:1 460:1 587:1 619:1 742:1 881:1 1036:1 1101:2 1133:1 1276:1 1300:1 1415:1 1486:1 1533:1 1592:1 1702:1 1778:1 1911:1 
1 8:1 10:2 12:1 13:2 15:1 29:1 33:1 41:2 44:2 54:1 64:2 69:1 71:1 78:1 83:1 97:1 104:1 118:1 119:1 122:1 145:1 156:2 159:1 168:1 175:1 198:1 202:1 214:1 238:1 239:1 240:1 292:1 298:1 312:1 351:1 375:1 424:2 440:1 587:1 601:1 659:1 951:1 966:1 1101:2 1102:2 1133:1 1134:1 1151:1 1486:2 1617:1 1638:1 1651:1 1701:1 
1 7:1 8:2 9:1 12:2 13:3 23:1 30:3 33:1 51:1 54:2 56:2 66:1 69:1 79:3 83:1 96:1 102:1 111:1 133:1 142:1 154:1 156:3 157:2 159:1 178:1 207:1 228:1 238:2 248:1 329:1 340:1 363:1 375:1 404:1 434:1 615:1 638:1 966:1 1026:1 1095:1 1133:1 1486:3 1566:1 1638:1 1667:1 1804:1 1975:1 
1 1:6 2:5 3:1 5:1 6:3 7:1 8:2 9:1 11:4 18:2 23:1 26:1 41:1 51:1 84:1 88:1 101:1 110:1 178:1 238:2 274:1 421:4 424:1 447:1 675:1 881:2 1079:1 1170:1 
1 7:1 8:3 10:2 15:2 18:1 22:2 23:1 33:1 41:1 42:1 61:1 62:1 64:2 69:1 76:1 105:2 111:1 114:1 118:1 122:1 160:1 198:1 238:3 251:2 298:1 367:1 375:1 424:1 427:1 442:1 580:1 583:1 587:2 596:1 679:1 742:1 881:1 1058:1 1101:2 1415:1 1651:1 1804:1 
1 7:1 9:2 10:1 13:2 18:1 28:1 31:1 46:1 61:1 64:1 69:1 71:1 72:1 76:1 99:1 107:2 149:1 156:2 162:1 190:3 199:1 200:1 260:1 338:1 386:1 427:1 470:1 517:1 659:1 676:1 679:1 805:3 881:1 989:1 1101:1 1112:1 1336:1 1441:1 1486:2 1589:3 1709:1 1719:1 1911:1 1971:1 
1 2:26 4:2 7:1 8:1 15:1 22:1 39:2 55:1 68:1 69:1 74:1 84:1 85:1 92:1 96:1 112:3 128:1 133:1 142:1 159:1 160:1 187:1 198:1 238:1 249:1 251:1 264:1 587:1 615:1 627:1 786:1 849:1 1079:1 1287:2 1538:1 1638:1 1759:1 
1 7:1 10:1 13:2 15:2 29:1 39:1 64:1 90:1 92:1 97:1 128:1 130:1 156:2 292:1 587:2 849:1 923:1 951:1 1101:1 1287:1 1387:1 1430:1 1456:1 1486:2 
1 4:1 5:1 7:2 8:3 10:1 15:1 18:3 44:1 47:1 56:1 58:2 62:1 64:1 69:1 70:1 99:1 100:1 157:1 216:1 238:3 246:1 253:1 348:1 585:1 587:1 840:1 869:1 871:1 881:3 1101:1 1102:1 1164:1 1276:1 1412:1 1719:1 
1 7:1 9:5 10:4 15:1 22:1 23:1 30:2 33:1 51:1 55:2 56:1 61:1 64:4 68:1 69:1 71:2 79:2 100:1 101:1 157:1 178:1 251:1 253:1 278:1 318:1 339:2 375:1 447:1 546:1 583:1 587:1 590:1 659:2 785:1 871:1 1101:4 1538:2 
1 7:1 10:1 13:2 15:2 31:4 33:1 39:1 44:2 62:1 64:1 69:1 77:1 85:1 96:1 104:2 116:1 149:1 156:2 173:1 182:1 199:4 264:1 265:1 334:1 341:1 351:2 375:1 479:1 496:1 517:1 519:1 587:2 718:1 805:1 887:1 961:1 1018:1 1020:1 1101:1 1102:2 1193:1 1287:1 1486:2 1893:1 1971:1 
1 1:3 2:2 3:1 5:1 6:2 7:2 9:1 10:1 11:1 15:1 18:1 22:1 23:1 30:1 33:1 40:2 49:1 51:1 59:1 64:1 79:1 92:1 122:1 164:1 178:1 234:1 241:1 251:1 258:1 273:1 347:1 375:1 421:1 520:1 587:1 593:1 619:1 849:1 881:1 1101:1 1565:1 1616:1 1651:1 1731:1 
1 7:2 8:1 9:2 15:3 18:1 22:1 29:1 30:1 31:1 48:1 49:1 51:1 56:1 66:1 75:1 79:1 114:1 157:1 163:1 178:1 199:1 238:1 244:1 251:1 262:1 292:1 305:1 587:3 663:1 757:1 862:1 881:1 932:1 1592:1 1731:1 1843:1 
1 8:1 9:3 10:1 23:3 33:1 64:1 67:2 69:1 77:1 88:1 130:1 132:1 139:1 148:1 149:1 182:1 238:1 246:1 250:1 274:1 346:1 375:1 403:1 450:1 969:1 978:2 1101:1 1123:1 1242:1 1456:1 1573:1 1701:1 1791:1 1800:1 1971:1 
1 4:1 5:1 7:2 9:2 10:1 13:2 15:3 22:1 29:1 30:1 31:1 33:1 44:1 46:1 50:1 56:2 64:1 65:1 69:1 71:1 79:1 84:1 90:1 96:1 122:1 134:1 142:1 143:1 156:2 157:2 162:1 185:1 199:1 207:1 239:1 251:1 253:1 259:1 271:1 282:1 292:1 308:1 312:1 375:1 386:1 408:1 487:1 587:3 594:1 615:1 659:1 1079:1 1101:1 1102:1 1151:1 1275:1 1464:1 1486:2 1651:1 1991:1 
1 8:7 9:2 13:2 15:1 22:1 23:1 39:1 42:2 49:1 50:2 68:1 69:1 71:1 77:1 132:1 156:2 160:1 182:1 238:7 251:1 271:2 585:1 587:1 609:1 656:1 659:1 742:2 1123:1 1287:1 1486:2 1731:1 
1 7:2 8:4 13:1 15:1 18:2 22:2 23:3 30:1 39:1 41:1 42:1 69:1 79:1 114:1 129:1 156:1 185:1 238:4 246:1 251:2 344:1 353:1 424:1 587:1 742:1 842:1 881:2 1287:1 1486:1 1871:1 1959:1 
1 7:3 8:2 9:1 10:1 13:1 15:2 23:2 47:1 50:1 62:1 64:1 69:1 70:1 76:1 92:1 96:1 97:1 114:1 116:1 118:2 122:1 129:1 148:1 149:1 155:1 156:1 206:1 212:1 238:2 271:1 284:1 298:2 334:1 350:1 415:1 427:1 431:1 587:2 811:1 849:1 951:1 1101:1 1120:1 1164:1 1440:1 1486:1 1573:1 1651:1 1959:1 1971:1 
1 4:1 5:1 13:1 85:1 152:1 156:1 264:1 478:1 1089:1 1486:1 
1 7:1 10:2 13:1 18:2 29:1 31:2 33:1 41:1 56:1 64:2 68:1 69:1 78:1 132:1 140:1 156:1 157:1 199:2 202:1 216:1 240:1 292:1 375:1 424:1 473:1 601:1 661:1 798:1 838:1 881:2 1101:2 1123:1 1389:1 1486:1 1489:1 1775:1 1950:1 
1 13:2 15:2 23:1 29:3 30:1 31:3 39:1 46:1 48:1 49:1 51:2 69:1 72:1 79:1 99:1 107:1 114:2 140:1 151:1 155:1 156:2 178:2 199:3 239:1 244:1 289:1 292:3 305:1 386:1 404:1 411:1 431:1 458:1 587:2 966:1 987:1 1011:1 1287:1 1486:2 1592:1 1709:1 1719:1 1731:1 1775:1 
0.5255283366434141 9:1 18:1 47:1 49:1 69:1 280:1 327:1 404:1 837:1 881:1 976:4 1731:1 
1 7:2 9:1 10:3 13:2 18:1 22:1 23:1 33:1 41:1 43:1 46:1 56:1 60:1 64:3 78:1 87:1 117:1 122:1 156:2 157:1 165:1 180:1 224:1 240:1 251:1 257:1 296:1 300:1 375:1 386:1 424:1 599:1 793:1 881:1 1101:3 1119:1 1486:2 1519:1 1651:1 
1 1:3 2:3 3:2 4:1 5:2 7:1 8:1 21:2 26:1 33:2 36:1 37:1 41:1 42:1 46:1 73:1 148:1 238:1 338:1 375:2 386:1 424:1 742:1 809:1 1135:1 1157:1 1573:1 1579:1 
1 7:2 9:2 10:3 12:1 13:2 33:1 39:3 44:2 48:1 49:1 54:1 56:2 59:1 63:1 64:3 65:1 74:1 76:2 85:1 91:1 102:1 130:2 136:1 138:1 155:1 156:2 157:2 264:1 375:1 427:2 431:1 487:1 520:1 639:1 699:1 1101:3 1102:2 1287:3 1408:1 1456:2 1466:2 1486:2 1566:1 1592:1 1616:1 1731:1 1759:1 1996:1 
1 1:28 2:28 6:28 9:2 21:28 28:1 123:2 150:2 205:2 231:2 275:2 338:2 398:2 475:2 489:2 531:2 575:2 593:2 697:1 727:2 771:1 908:1 967:2 1056:2 1066:2 1082:2 1142:2 1245:2 1579:11 1605:2 1832:2 
1 7:1 13:3 15:2 29:1 31:2 41:1 44:1 50:2 62:1 65:1 69:1 71:1 74:1 85:1 105:1 118:1 128:1 152:2 156:3 162:1 199:2 252:1 264:1 271:2 278:1 292:1 298:1 345:1 383:1 424:1 471:1 487:1 587:2 659:1 678:2 1102:1 1486:3 1759:1 1810:1 
1 7:1 8:2 9:2 10:2 13:2 15:2 30:1 31:1 33:1 41:1 44:1 51:1 59:1 62:1 64:2 69:1 79:1 107:1 119:1 129:1 133:1 152:1 156:2 168:1 178:1 199:1 238:2 375:1 424:1 441:1 520:1 587:2 646:1 1101:2 1102:1 1180:1 1382:1 1486:2 1616:1 1746:1 1959:1 
1 7:2 10:3 13:1 15:1 23:1 33:1 42:1 47:1 63:2 64:3 136:2 156:1 180:1 196:1 210:1 375:1 473:1 507:1 587:1 599:2 661:1 742:1 751:1 1101:3 1438:1 1486:1 1950:1 1995:1 
1 1:8 2:5 3:5 4:1 5:5 6:4 7:5 8:8 9:6 10:1 11:2 13:1 14:1 15:2 18:2 26:2 28:2 29:1 33:1 34:1 40:2 42:1 44:2 46:3 49:1 59:1 64:1 69:1 76:1 96:1 110:1 116:1 120:1 129:1 149:1 156:1 224:1 237:1 238:8 242:1 243:1 247:1 258:2 272:1 288:1 292:1 303:1 304:1 334:1 375:1 386:3 420:1 421:2 427:1 438:1 497:1 502:1 517:2 520:1 587:2 742:1 775:1 881:2 1082:1 1101:1 1102:2 1148:1 1170:1 1177:1 1356:1 1486:1 1565:1 1595:1 1616:1 1718:1 1731:1 1959:1 1971:1 
1 1:6 2:5 3:1 6:5 7:6 8:3 9:2 10:4 11:2 13:2 18:1 21:2 22:1 24:1 26:1 28:3 33:2 41:1 42:1 46:1 47:2 64:4 66:1 68:1 70:1 71:1 76:2 88:1 91:1 101:1 110:2 145:1 151:2 152:1 156:2 185:1 188:1 193:1 196:1 205:1 238:3 251:1 255:1 274:1 375:2 381:1 386:1 421:2 424:1 427:2 447:1 507:1 597:1 599:1 639:1 641:1 654:1 659:1 742:1 881:1 921:1 987:2 996:1 1043:2 1060:1 1101:4 1164:1 1170:2 1233:1 1402:1 1438:1 1486:2 1718:1 
1 7:1 9:4 13:3 29:2 43:5 55:2 59:2 69:1 84:2 87:5 97:1 122:1 156:3 175:1 187:2 239:1 292:2 417:4 464:1 520:2 951:1 1079:2 1486:3 1538:2 1616:2 1651:1 1839:4 
1 8:1 10:1 30:1 39:1 41:1 57:1 64:1 69:1 79:1 97:1 98:2 102:1 134:1 152:1 197:1 238:1 244:7 246:7 261:1 424:1 471:1 604:1 721:1 951:1 1101:1 1287:1 1330:1 1566:1 
1 7:3 8:2 13:1 23:1 29:1 31:1 33:1 41:1 48:2 49:1 67:1 69:1 107:1 150:1 156:1 177:1 199:1 205:1 238:2 241:1 242:1 246:1 255:2 262:1 292:1 296:1 335:1 375:1 385:1 398:1 424:1 517:1 619:1 653:1 821:1 978:1 1060:2 1486:1 1592:2 1731:1 
1 7:1 8:3 9:1 10:1 13:1 15:1 29:2 51:1 55:1 64:1 66:1 69:1 84:1 114:1 116:1 126:1 128:1 148:1 149:1 156:1 164:1 178:1 180:1 183:1 203:1 235:1 238:3 252:1 273:1 292:2 334:1 344:1 472:1 587:1 645:1 1079:1 1101:1 1169:1 1317:1 1328:1 1486:1 1538:1 1573:1 1971:1 
1 7:3 8:1 10:1 15:2 18:1 23:2 30:1 56:2 61:1 64:1 69:1 71:1 79:1 83:1 98:1 128:1 157:2 160:1 162:1 202:1 212:1 219:1 238:1 302:1 460:1 529:1 587:2 601:1 613:1 659:1 881:1 1101:1 1133:1 1205:1 1227:1 1743:1 1770:1 
1 1:4 2:4 6:8 15:2 21:4 33:1 72:2 73:4 90:2 170:1 286:1 375:1 462:2 587:2 977:2 1623:1 1709:2 
1 30:1 33:1 44:1 46:1 79:1 88:1 116:1 119:1 165:1 209:1 274:1 323:1 334:1 359:1 375:1 386:1 462:1 617:1 655:1 805:1 1102:1 
1 8:1 10:1 12:2 13:1 22:1 28:1 41:1 54:2 59:1 60:1 64:1 68:2 69:2 78:1 122:1 128:1 138:1 142:1 156:1 177:1 238:1 240:1 247:1 251:1 300:1 424:1 520:1 615:1 821:1 1089:1 1101:1 1249:1 1486:1 1557:1 1616:1 1651:1 1678:1 1990:1 1996:1 
1 5:1 7:1 8:1 9:3 13:1 23:3 28:1 57:1 61:1 69:2 76:1 85:1 117:1 134:1 156:1 186:2 197:1 223:1 238:1 264:1 308:2 309:1 427:1 669:1 702:1 739:1 837:1 1024:1 1119:1 1486:1 
1 7:1 10:1 12:1 13:3 15:1 29:1 30:1 39:2 43:1 46:1 49:1 54:1 62:1 64:1 69:1 75:1 79:1 83:1 87:1 88:1 133:1 155:1 156:3 163:1 189:1 194:1 202:1 206:1 224:1 274:1 283:1 292:1 301:1 386:1 404:1 431:1 587:1 601:1 638:1 1101:1 1133:1 1287:2 1486:3 1533:1 1731:1 1843:1 1918:1 
