svm_type c_svc
kernel_type rbf
gamma 0.00050025
nr_class 2
total_sv 3259
rho 0.395961
label 1 -1
probA -2.05989
probB 0.0526155
nr_sv 1601 1658
SV
1 10:2 12:2 15:1 18:1 22:1 23:1 29:1 30:1 54:2 56:2 64:2 66:1 72:1 79:1 90:1 96:1 120:1 134:1 157:2 207:2 210:1 229:1 251:1 292:1 395:1 587:1 712:1 881:1 1101:2 1175:1 1649:1 1709:1 
0.03969851655381354 7:3 13:7 59:7 73:1 138:6 156:7 262:6 355:6 395:7 520:7 805:1 1486:7 1616:7 1996:6 
1 7:2 9:3 10:1 13:2 15:1 30:1 42:1 46:1 48:1 56:1 64:1 79:1 128:1 138:1 155:1 156:2 157:1 253:1 312:1 327:1 386:1 403:1 431:1 451:1 582:1 587:1 742:1 1101:1 1151:1 1486:2 1592:1 1791:1 1996:1 
1 7:3 10:2 13:2 15:1 22:1 31:1 33:1 47:1 48:1 50:2 56:1 58:1 64:2 65:1 66:1 69:1 74:1 105:1 126:2 156:2 157:1 164:1 199:1 229:1 230:1 251:1 271:2 273:1 278:1 330:1 375:1 403:1 487:1 587:1 711:1 739:1 1101:2 1486:2 1592:1 1649:1 1703:1 1759:1 1791:1 
1 1:7 2:7 10:11 21:7 33:12 64:11 69:1 73:11 110:1 226:11 375:12 649:11 741:11 855:1 1101:11 1170:1 1945:22 
1 7:1 9:3 10:1 13:3 15:1 18:1 22:1 39:2 63:2 64:1 65:1 69:1 71:1 74:1 91:1 130:1 132:1 136:2 156:3 194:1 251:1 266:1 333:1 350:1 414:1 482:1 487:1 587:1 639:1 659:1 881:1 1058:1 1101:1 1123:1 1287:2 1456:1 1486:3 1759:1 1888:1 1918:1 
1 7:1 15:1 30:1 44:1 50:1 56:2 57:1 58:2 69:1 71:1 79:1 85:1 157:2 186:1 193:1 197:1 264:1 271:1 296:1 347:1 414:1 493:1 587:1 659:1 1102:1 1319:1 1446:1 
1 7:3 10:2 12:3 13:2 29:1 30:1 41:2 42:1 44:3 47:2 54:3 55:2 64:2 65:1 67:1 69:1 72:1 77:3 79:1 128:1 155:1 156:2 160:1 182:3 203:1 253:1 292:1 335:1 424:2 431:1 453:2 487:1 570:1 667:1 742:1 772:1 978:1 1101:2 1102:3 1217:1 1244:1 1317:1 1388:1 1466:1 1486:2 1538:2 1709:1 
1 7:2 9:2 10:2 15:2 18:1 39:2 41:1 42:1 56:1 59:1 64:2 67:2 68:1 69:1 88:1 126:2 145:1 157:1 179:1 190:1 192:1 196:1 274:1 424:1 520:1 527:2 587:2 742:1 881:1 954:1 978:2 1101:2 1115:1 1287:2 1365:1 1438:1 1559:1 1589:1 1616:1 1741:1 
0.01219190056773331 7:4 9:1 13:1 15:1 22:1 23:1 30:1 33:1 47:1 49:1 55:1 61:1 66:1 69:1 70:1 71:1 79:1 97:1 102:1 142:1 143:2 146:1 156:1 209:1 251:1 278:1 375:1 383:1 392:1 512:1 570:1 587:1 615:1 659:1 853:1 951:1 1164:1 1313:1 1385:1 1464:2 1486:1 1538:1 1566:1 1731:1 
1 10:3 13:1 15:1 18:2 22:1 23:2 30:1 42:1 47:2 56:1 62:1 63:1 64:3 69:4 79:1 88:1 92:1 93:1 132:1 136:1 156:1 157:1 159:1 160:1 186:1 250:1 251:1 274:1 291:1 370:1 582:1 584:1 587:1 606:1 614:1 680:2 742:1 849:1 881:2 1101:3 1123:1 1486:1 1638:1 
1 10:1 12:1 15:2 18:2 22:2 29:2 42:2 43:3 48:2 54:1 64:1 69:1 87:3 93:1 166:3 188:1 230:3 251:2 292:2 293:1 308:1 347:2 526:1 587:2 614:1 661:1 742:2 806:1 881:2 1101:1 1592:2 1703:3 1950:1 
1 1:2 2:2 6:1 7:1 9:2 11:2 30:1 31:1 39:1 59:1 79:1 122:1 135:1 163:1 177:1 199:1 212:1 260:1 421:2 441:1 520:1 653:1 821:1 1287:1 1336:1 1616:1 1651:1 1692:1 1725:1 
1 4:1 5:1 7:2 8:1 9:1 10:1 13:3 18:1 22:1 29:2 30:1 42:2 48:3 56:1 61:1 63:1 64:1 71:1 77:2 79:1 111:2 136:1 139:1 156:3 157:1 182:2 230:1 238:1 239:1 249:1 251:1 291:1 292:2 500:1 594:1 659:1 667:1 669:1 742:2 881:1 916:1 1101:1 1486:3 1576:1 1592:3 1703:1 1804:2 1991:1 
1 1:1 2:1 7:2 13:1 21:1 33:1 39:1 59:1 73:1 84:1 143:1 156:1 359:1 375:1 520:1 712:1 815:1 1079:1 1175:1 1287:1 1298:1 1464:1 1486:1 1616:1 
1 7:5 33:1 58:1 73:2 123:1 148:1 152:1 293:1 375:1 809:1 1573:1 1609:1 1941:1 
1 7:2 9:1 10:3 12:2 13:2 18:1 22:1 23:2 31:1 41:1 51:1 54:2 55:2 56:2 64:3 128:1 156:2 157:2 178:1 187:1 199:1 251:1 296:1 339:1 400:1 424:1 500:1 627:1 881:1 1101:3 1486:2 1538:2 
1 7:7 8:2 10:1 13:2 23:2 30:1 33:1 39:1 64:1 65:1 66:1 69:1 75:1 79:1 88:1 112:1 129:1 152:1 156:2 229:1 238:2 274:1 296:1 328:1 375:1 395:2 487:1 1101:1 1127:1 1287:1 1486:2 1649:1 1843:1 1959:1 
1 8:1 12:4 13:1 18:2 30:1 31:2 33:1 48:1 54:4 65:2 69:1 71:2 79:1 105:1 122:1 126:1 138:1 146:1 156:1 179:1 199:2 227:1 238:1 257:1 375:1 487:2 659:2 859:1 881:2 1177:1 1217:1 1385:1 1486:1 1519:1 1592:1 1651:1 1741:1 1996:1 
1 4:1 5:1 8:1 9:1 13:1 18:1 30:1 66:1 69:2 79:1 143:1 156:1 216:1 238:1 288:1 314:1 440:1 875:1 881:1 1464:1 1486:1 
1 7:1 9:5 10:5 13:3 23:4 47:1 51:1 64:5 68:1 69:1 71:1 135:3 140:1 143:3 156:3 178:1 288:1 659:1 1004:1 1091:1 1101:5 1372:1 1464:3 1486:3 1659:1 1725:3 1734:1 1775:1 1981:1 
1 7:2 9:3 13:2 15:1 18:1 31:1 44:1 55:1 56:2 57:1 61:1 69:1 97:1 98:1 118:1 126:1 129:2 143:1 156:2 157:2 197:1 199:1 207:1 223:1 244:1 246:1 285:1 298:1 339:1 395:1 429:1 587:1 881:1 951:1 1002:1 1102:1 1339:2 1408:1 1464:1 1486:2 1538:1 1897:1 1959:2 
1 7:2 8:1 9:3 10:2 13:2 22:3 23:1 30:1 33:1 46:1 47:2 49:1 62:1 64:2 69:3 70:1 79:1 156:2 236:1 238:1 251:3 375:1 379:1 386:1 500:1 701:1 840:1 857:1 1064:1 1101:2 1164:1 1321:1 1386:1 1486:2 1583:2 1656:1 1731:1 1889:1 1938:1 
1 7:1 9:3 10:3 13:2 23:1 31:2 39:3 42:2 46:1 48:1 64:3 69:1 70:1 104:1 143:1 152:1 156:2 177:1 199:2 288:1 351:1 386:1 392:1 395:1 521:1 560:1 742:2 798:1 821:1 1101:3 1164:1 1287:3 1290:1 1464:1 1486:2 1592:1 1723:1 
1 7:3 8:1 10:1 13:1 15:4 22:1 23:1 29:1 42:1 58:1 64:1 70:2 71:1 96:1 99:1 105:2 117:1 132:1 134:1 156:1 160:1 180:2 183:1 189:1 209:1 238:1 251:1 259:1 290:1 292:1 309:1 587:4 659:1 680:2 742:1 775:1 867:1 1101:1 1119:1 1123:1 1164:2 1328:1 1486:1 1719:1 1905:1 
1 8:1 9:3 15:2 18:1 30:1 33:2 39:1 51:1 66:1 69:1 72:1 79:1 90:1 96:1 143:1 160:1 170:1 178:1 190:1 231:1 235:1 238:1 252:1 275:1 375:2 392:1 453:1 587:2 712:2 881:1 971:1 1169:1 1175:2 1287:1 1464:1 1589:1 1623:1 1709:1 1826:1 
1 7:3 8:1 10:2 13:2 23:3 30:1 31:2 33:1 47:1 49:1 56:1 64:2 65:1 69:1 79:1 144:1 156:2 157:1 184:1 190:1 193:1 199:2 217:1 238:1 249:1 290:2 318:2 327:1 375:1 376:1 426:1 487:1 678:1 1101:2 1340:1 1486:2 1589:1 1731:1 
1 7:2 15:3 31:2 39:1 41:2 49:1 58:4 61:1 69:2 71:1 101:1 111:1 138:1 160:1 199:2 290:1 318:1 424:2 447:1 587:3 659:1 1287:1 1386:1 1731:1 1804:1 1996:1 
1 7:4 8:1 10:1 13:1 15:1 23:1 30:1 31:1 33:1 64:1 65:1 79:1 105:1 126:1 156:1 199:1 238:1 247:1 330:1 375:1 418:1 487:1 587:1 670:1 680:1 711:1 1101:1 1318:1 1377:1 1486:1 
1 7:3 8:2 9:4 13:1 33:1 39:1 60:1 62:1 66:1 91:1 130:1 156:1 205:1 222:1 238:2 300:1 307:1 375:1 639:1 652:1 707:1 763:1 1274:1 1287:1 1456:1 1462:1 1486:1 
1 7:2 8:1 9:1 10:1 22:1 29:1 39:1 44:1 47:1 63:1 64:1 83:1 85:1 114:1 136:1 177:1 193:1 230:1 238:1 242:1 251:1 264:1 292:1 507:1 821:1 1101:1 1102:1 1133:1 1287:1 1319:1 1501:1 1703:1 
1 7:1 8:1 10:1 13:1 22:1 29:1 31:2 39:1 42:1 49:1 50:2 56:1 58:1 64:1 69:1 71:1 74:1 105:1 128:1 129:1 130:1 156:1 157:1 163:1 165:1 199:2 214:1 238:1 251:1 271:2 292:1 483:1 560:2 659:1 742:1 989:1 1101:1 1287:1 1456:1 1486:1 1731:1 1759:1 1959:1 
1 4:1 5:1 7:1 10:1 12:1 13:3 15:2 23:2 31:1 33:1 42:1 47:1 54:1 64:1 67:1 69:1 71:2 92:1 96:1 126:1 156:3 160:1 162:2 177:1 185:1 199:1 237:1 330:1 375:1 392:1 513:1 587:2 624:1 659:2 742:1 821:1 849:1 978:1 1101:1 1217:1 1222:1 1486:3 
1 5:2 7:2 8:1 9:1 12:1 13:1 23:2 30:2 39:1 42:1 48:2 50:1 54:1 56:2 69:1 71:1 79:2 156:1 157:2 209:1 238:1 271:1 345:1 659:1 742:1 1275:1 1287:1 1486:1 1560:3 1592:2 1962:1 
1 8:1 9:4 10:2 15:1 18:1 23:2 29:1 33:1 49:1 59:2 63:2 64:2 65:1 67:4 68:1 69:1 71:1 76:1 88:2 91:1 96:1 122:1 136:2 149:1 236:1 238:1 274:2 292:1 305:1 373:1 375:1 427:1 487:1 520:2 587:1 606:1 627:1 639:1 659:1 881:1 902:1 978:4 985:1 1101:2 1321:1 1583:1 1616:2 1651:1 1731:1 1794:1 1971:1 1984:1 
1 8:2 10:1 22:1 23:1 29:1 30:2 31:1 47:1 50:1 64:1 69:1 71:1 79:2 119:1 148:2 155:1 163:1 169:1 199:1 227:1 230:2 238:2 251:1 271:1 283:1 292:1 308:1 312:1 431:1 450:1 606:1 659:1 831:2 1101:1 1151:1 1533:1 1573:2 1703:2 
1 7:2 8:1 15:1 22:2 23:3 29:1 30:1 33:1 41:1 55:1 69:1 72:2 75:1 79:1 92:1 99:1 107:1 126:1 132:1 134:1 143:1 187:1 227:1 238:1 251:2 292:1 309:1 340:1 375:1 424:1 432:1 507:1 534:1 587:1 642:1 849:1 989:1 1123:1 1464:1 1472:1 1538:1 1559:1 1709:2 1719:1 1843:1 
1 7:1 8:2 9:2 10:1 12:5 13:2 18:1 22:1 23:3 29:1 30:1 31:1 47:1 51:1 54:5 61:1 64:1 69:1 72:1 79:1 91:1 98:1 105:1 111:1 156:2 164:1 165:1 178:1 186:1 199:1 223:1 225:1 238:2 246:1 251:1 273:1 280:1 289:1 292:1 479:1 639:1 868:1 881:1 1019:1 1101:1 1303:1 1486:2 1709:1 1804:1 
1 7:1 8:1 9:1 10:1 13:1 15:2 22:1 23:2 29:1 30:1 31:1 33:1 47:1 48:1 64:1 69:1 79:1 117:1 118:1 151:1 156:1 161:1 199:1 237:1 238:1 251:1 292:1 298:1 363:1 375:1 479:1 500:1 537:1 587:2 632:1 711:3 981:1 987:1 1101:1 1119:1 1486:1 1592:1 1643:1 
0.9228622710607562 1:1 2:1 9:3 21:1 22:2 33:1 73:1 101:1 103:1 117:1 123:28 143:24 150:4 205:44 231:13 251:2 275:1 375:1 398:1 447:1 489:1 531:1 554:1 575:3 697:1 878:1 908:10 1056:3 1066:28 1119:1 1154:2 1245:1 1309:3 1464:24 1605:11 1832:22 1862:3 
1 7:2 8:1 13:1 15:1 22:2 23:1 29:1 30:1 31:2 47:1 69:1 79:1 84:1 96:1 97:1 98:1 99:1 104:1 105:2 128:1 139:1 156:1 199:2 223:1 238:1 251:2 255:1 292:1 325:1 351:1 395:1 475:1 578:1 587:1 667:1 904:1 951:1 1060:1 1079:1 1227:1 1280:1 1486:1 1583:2 1719:1 
1 7:2 9:1 10:2 13:1 23:2 31:3 33:2 41:1 42:1 47:1 48:1 51:1 58:1 64:2 69:2 76:1 91:4 105:1 130:2 152:1 156:1 178:1 199:3 318:1 375:2 424:1 427:1 639:4 670:1 711:2 742:1 847:1 869:2 1101:2 1318:1 1456:2 1463:1 1486:1 1592:1 1702:1 1810:1 
1 7:1 9:1 13:2 15:2 30:1 31:1 42:2 47:1 49:1 50:1 57:2 58:1 60:1 61:1 68:1 69:1 71:1 79:1 99:1 104:1 105:1 156:2 197:2 199:1 259:1 260:1 271:1 300:1 351:1 395:1 587:2 659:1 691:1 742:2 810:1 904:1 1336:1 1486:2 1719:1 1731:1 
1 1:1 2:1 18:1 21:1 44:1 46:1 76:1 205:1 231:1 359:1 367:1 386:1 425:1 427:1 500:1 809:1 881:1 1102:1 1883:2 
1 9:3 13:2 30:3 33:1 41:1 43:2 46:1 48:2 58:2 69:1 71:1 72:1 79:3 87:2 105:2 122:2 123:1 126:1 152:1 156:2 179:1 227:1 234:1 366:2 375:1 386:1 424:1 509:1 565:1 659:1 767:1 771:1 837:1 1000:1 1127:2 1278:2 1314:1 1486:2 1592:2 1637:1 1651:2 1709:1 1741:1 1845:1 
1 7:1 8:3 9:2 10:1 13:1 15:1 22:1 23:1 31:1 33:1 43:1 47:1 48:1 49:1 51:1 56:1 62:1 64:1 69:1 85:1 87:1 105:1 119:1 130:1 143:1 156:1 157:1 178:1 199:1 238:3 244:1 251:1 255:1 264:1 290:1 308:1 375:1 587:1 594:1 617:1 809:1 1060:1 1084:1 1095:1 1101:1 1315:1 1456:1 1464:1 1486:1 1581:1 1592:1 1731:1 1810:1 1991:1 
1 7:1 9:1 10:2 15:1 18:1 30:1 44:1 47:1 50:2 55:1 64:2 69:1 79:1 93:1 149:1 261:1 271:2 339:1 587:1 605:1 614:1 683:1 806:1 881:1 1059:1 1101:2 1102:1 1141:1 1506:1 1538:1 1712:1 1971:1 
1 7:2 8:2 9:3 13:1 29:1 31:1 39:1 41:1 42:1 44:2 50:1 62:2 69:1 72:1 77:2 119:1 156:1 182:2 192:1 199:1 200:1 238:2 271:1 292:1 345:1 424:1 560:1 742:1 903:1 963:1 1102:2 1115:1 1287:1 1486:1 1506:1 1709:1 1911:1 
1 1:2 2:1 3:1 5:1 11:1 18:1 19:1 38:1 44:1 46:1 76:1 205:1 231:1 359:1 367:1 386:1 421:1 425:1 427:1 500:1 809:1 881:1 1102:1 1883:2 
1 1:2 2:1 3:1 5:1 11:1 18:1 19:1 38:1 44:1 46:1 76:1 205:1 231:1 359:1 367:1 386:1 421:1 425:1 427:1 500:1 809:1 881:1 1102:1 1883:2 
1 7:3 8:1 9:1 15:1 16:1 18:1 23:1 33:1 42:1 44:2 47:1 50:1 65:1 68:1 90:1 111:1 126:1 130:2 177:1 183:1 193:1 235:1 238:1 271:1 288:1 375:1 487:1 587:1 742:1 821:1 881:1 906:1 1102:2 1256:1 1328:1 1408:1 1456:2 1461:1 1645:1 1804:1 1869:1 
1 7:3 8:1 9:3 13:2 33:1 69:2 74:1 93:1 106:1 156:2 238:1 242:1 243:1 256:1 323:1 362:1 375:1 395:3 614:1 1084:1 1486:2 1595:1 1759:1 1846:1 
1 1:2 2:1 3:1 5:1 11:1 18:1 19:1 38:1 44:1 46:1 76:1 205:1 231:1 359:1 367:1 386:1 421:1 425:1 427:1 500:1 809:1 881:1 1102:1 1883:2 
1 7:2 9:2 10:2 13:2 15:1 18:1 23:1 30:1 41:2 48:1 64:2 79:1 92:1 105:1 134:1 149:1 156:2 241:1 290:1 424:2 587:1 619:1 849:1 881:1 892:1 1064:1 1084:1 1101:2 1127:1 1409:1 1486:2 1584:1 1592:1 1732:1 1971:1 
1 7:2 9:1 12:1 13:1 23:1 31:3 46:2 54:1 56:1 65:1 69:2 71:1 77:2 84:1 114:1 151:1 156:1 157:1 173:1 182:2 199:3 239:1 265:1 296:1 365:1 386:2 395:1 487:1 496:1 513:1 659:1 711:2 887:1 987:1 1079:1 1193:1 1222:1 1227:2 1486:1 
1 7:1 10:1 18:1 22:2 31:4 33:1 41:3 44:1 47:1 64:1 69:1 107:1 143:1 199:4 210:1 225:1 251:2 289:1 290:1 340:1 375:1 394:1 424:3 653:1 711:2 868:1 881:1 1101:1 1102:1 1464:1 
1 7:1 10:4 13:2 15:1 22:2 39:1 47:1 62:1 64:4 69:1 85:1 156:2 164:3 194:1 230:1 251:2 264:1 273:3 305:1 308:2 376:1 498:1 587:1 613:1 669:1 831:1 1101:4 1120:1 1287:1 1486:2 1703:1 1711:1 1918:1 
0.6770425708489958 9:1 10:1 12:2 15:2 30:1 31:1 33:3 44:3 48:4 50:4 54:2 55:1 62:1 64:1 69:1 75:1 79:1 85:1 90:1 128:1 132:1 151:1 187:1 199:1 214:1 230:2 264:1 271:4 319:1 375:3 587:2 606:1 781:1 866:3 941:1 987:1 1101:1 1102:3 1123:1 1538:1 1592:4 1703:2 1836:1 1843:1 
1 7:1 13:3 29:1 31:4 42:1 65:2 69:2 142:1 156:3 168:1 192:1 199:4 216:2 292:1 403:1 453:1 487:2 606:3 609:1 615:1 742:1 936:1 997:1 1097:2 1115:1 1436:2 1486:3 1756:1 1791:1 
0.3735435333022922 1:126 2:126 3:75 4:3 5:1 6:82 8:1 10:2 11:1 13:2 15:2 16:2 18:1 21:126 22:1 28:1 41:3 42:1 46:1 48:2 50:1 59:1 64:2 69:21 73:1 75:1 96:1 106:1 120:1 122:1 123:13 140:2 143:43 144:12 150:3 156:2 164:1 184:12 205:58 231:6 238:1 251:1 271:1 273:1 275:1 338:1 359:1 373:1 386:1 398:1 400:1 421:1 424:3 475:2 483:1 489:1 520:1 531:5 539:13 575:12 587:2 593:1 596:1 612:1 698:1 742:1 874:3 881:1 958:1 1018:2 1025:1 1056:22 1082:1 1101:2 1129:1 1142:23 1245:9 1304:6 1329:3 1344:1 1368:19 1464:43 1486:2 1517:4 1574:1 1592:2 1616:1 1650:2 1651:1 1665:16 1775:2 1794:1 1823:2 1843:1 1846:1 1864:12 
0.9867928262263264 1:126 2:126 3:75 4:3 5:1 6:82 8:1 10:2 11:1 13:2 15:2 16:2 18:1 21:126 22:1 28:1 41:3 42:1 46:1 48:2 50:1 59:1 64:2 69:21 73:1 75:1 96:1 106:1 120:1 122:1 123:13 140:2 143:43 144:12 150:3 156:2 164:1 184:12 205:58 231:6 238:1 251:1 271:1 273:1 275:1 338:1 359:1 373:1 386:1 398:1 400:1 421:1 424:3 475:2 483:1 489:1 520:1 531:5 539:13 575:12 587:2 593:1 596:1 612:1 698:1 742:1 874:3 881:1 958:1 1018:2 1025:1 1056:22 1082:1 1101:2 1129:1 1142:23 1245:9 1304:6 1329:3 1344:1 1368:19 1464:43 1486:2 1517:4 1574:1 1592:2 1616:1 1650:2 1651:1 1665:16 1775:2 1794:1 1823:2 1843:1 1846:1 1864:12 
1 5:1 7:1 9:3 10:4 13:1 15:1 18:1 28:1 33:1 42:1 48:1 57:1 61:2 63:2 64:4 66:1 69:1 85:1 91:1 98:1 99:1 111:2 116:2 120:1 128:1 136:2 156:1 197:1 253:1 264:1 279:1 334:2 375:1 532:1 587:1 639:1 738:1 742:1 760:1 881:1 917:1 931:2 1101:4 1377:1 1468:1 1486:1 1592:1 1719:1 1804:2 
1 7:2 8:1 10:1 15:2 22:1 23:1 30:1 31:1 43:2 46:1 48:1 49:1 55:1 56:1 64:1 69:1 72:1 75:1 77:1 79:1 87:2 106:1 157:1 160:1 177:1 182:1 199:1 202:1 225:1 237:2 238:1 251:1 255:2 309:1 318:1 386:1 551:1 584:1 587:2 601:1 711:1 774:1 821:1 868:1 1060:2 1101:1 1466:1 1538:1 1592:1 1709:1 1731:1 1843:1 1846:1 
1 7:2 8:2 9:1 13:3 18:1 33:1 43:1 46:1 55:1 62:1 66:1 69:1 71:1 76:1 77:1 87:1 114:1 156:3 162:1 182:1 186:1 238:2 272:1 339:1 375:1 386:1 393:1 412:1 427:1 503:1 576:1 659:1 881:1 1486:3 1513:1 1538:1 1905:2 
1 7:1 8:3 9:2 12:2 13:3 15:1 18:2 31:1 41:1 42:1 43:1 54:2 56:1 65:1 69:1 87:1 92:1 97:1 102:1 104:1 118:2 133:1 143:1 156:3 157:1 198:1 199:1 214:1 238:3 290:1 298:2 351:1 424:1 453:1 487:1 587:1 590:1 742:1 762:1 849:1 875:1 881:2 947:1 951:1 1430:1 1464:1 1486:3 1566:1 1613:1 1669:1 
0.9065039634239649 7:1 8:1 10:1 13:3 23:1 30:1 31:1 33:1 44:2 56:1 64:1 69:1 70:1 72:1 79:1 96:1 107:1 112:1 156:3 157:1 199:1 200:1 227:2 228:1 230:2 238:1 250:2 319:1 340:1 363:1 375:1 434:1 479:1 606:1 781:1 989:1 1101:1 1102:2 1164:1 1486:3 1703:2 1709:1 1747:1 1911:1 
1 7:3 8:2 9:2 10:1 13:3 18:2 22:1 23:1 33:1 41:1 43:1 47:1 59:1 64:1 71:1 82:1 87:1 118:1 126:1 135:1 156:3 196:1 229:1 238:2 251:1 298:1 321:1 375:1 424:1 425:1 436:1 500:1 520:1 659:1 809:1 881:2 1101:1 1433:1 1438:1 1450:1 1486:3 1559:1 1616:1 1649:1 1725:1 
1 7:4 8:2 9:1 13:1 23:3 30:1 42:1 47:1 51:1 55:1 60:1 62:1 66:1 69:1 79:1 99:1 104:1 140:1 156:1 161:1 178:1 185:1 238:2 300:1 335:1 351:1 434:3 449:1 701:1 742:1 840:1 1062:1 1226:1 1486:1 1538:1 1719:1 1775:1 
1 7:4 8:1 9:3 13:2 30:1 33:1 41:1 43:2 49:1 50:2 62:1 72:1 79:1 87:2 90:2 97:2 104:1 107:2 134:1 156:2 165:1 227:2 229:1 231:1 234:1 237:1 238:1 255:1 271:2 290:2 308:1 312:1 351:1 374:1 375:1 393:1 424:1 529:1 599:1 734:1 951:2 1060:1 1151:1 1486:2 1506:1 1649:1 1709:1 1731:1 
1 7:2 8:1 10:2 13:2 15:1 23:3 30:1 46:1 47:1 57:1 64:2 69:1 75:1 78:1 79:1 105:1 154:1 156:2 197:1 227:1 238:1 240:1 307:1 308:1 318:1 366:1 386:1 392:1 397:1 455:1 587:1 722:1 898:1 1047:1 1101:2 1278:1 1486:2 1492:1 1806:1 1843:1 1867:1 
1 7:2 9:4 13:1 14:4 22:1 39:3 59:7 62:1 101:1 156:1 230:2 232:1 251:1 260:1 310:1 412:1 414:5 447:1 520:7 1091:1 1287:3 1336:1 1486:1 1616:7 1703:2 
1 7:1 9:1 10:2 13:2 15:1 33:1 47:2 57:1 64:2 69:1 78:1 85:1 117:1 123:1 156:2 177:1 197:1 237:1 240:1 247:1 264:1 375:1 587:1 642:1 821:1 1101:2 1119:1 1486:2 1810:1 
1 7:3 9:1 10:4 13:1 15:1 18:1 22:1 23:3 30:2 31:1 33:1 46:1 47:3 48:1 50:1 64:4 65:1 69:1 79:2 100:2 111:1 149:1 151:1 154:1 156:1 166:1 199:1 241:1 242:1 251:1 269:1 271:1 282:1 288:2 327:1 375:1 386:1 487:1 523:1 587:1 619:1 680:1 764:1 871:2 881:1 907:1 950:2 987:1 1101:4 1486:1 1592:1 1804:1 1863:1 1971:1 
1 7:5 8:1 9:1 10:1 18:1 23:2 31:1 33:1 43:1 46:1 47:1 49:1 64:1 68:1 69:1 75:2 87:1 88:1 99:1 107:1 126:1 142:1 146:1 161:1 199:1 202:1 229:1 238:1 248:1 274:1 375:1 386:1 464:1 566:1 575:1 601:1 615:1 754:1 867:1 881:1 1101:1 1105:1 1325:1 1385:1 1649:1 1719:1 1731:1 1843:2 1975:1 
1 7:2 8:1 13:6 22:1 23:1 30:2 33:1 39:1 46:1 47:1 69:1 77:1 78:2 79:2 88:1 117:1 129:1 148:1 150:1 151:1 156:6 175:1 180:1 182:1 193:1 220:1 224:1 237:1 238:1 240:2 251:1 274:1 325:1 327:1 375:1 386:1 509:1 755:1 859:1 987:1 1119:1 1208:1 1287:1 1486:6 1573:1 1959:1 
1 7:2 9:1 13:1 33:1 43:1 49:1 87:1 91:1 107:1 133:1 156:1 375:1 456:1 639:1 643:1 718:1 1127:2 1486:1 1731:1 
1 7:3 9:1 13:2 18:1 33:4 44:1 47:1 49:1 50:1 57:1 73:4 84:1 102:1 114:1 123:1 156:2 166:1 197:1 224:1 271:1 287:1 338:1 359:1 375:4 390:1 532:1 575:1 722:1 881:1 982:1 1019:1 1079:1 1102:1 1227:1 1486:2 1566:1 1731:1 
1 7:2 33:1 41:1 48:1 57:1 69:2 71:1 83:1 143:1 197:1 257:1 328:1 375:1 424:1 659:1 1133:1 1464:1 1519:1 1592:1 
1 7:2 13:1 15:1 18:1 33:1 44:1 56:1 83:1 92:1 98:1 112:2 118:1 148:1 156:1 157:1 165:1 170:1 198:1 261:1 298:1 305:1 318:1 368:1 374:1 375:1 453:1 587:1 849:1 881:1 990:1 1019:1 1102:1 1133:1 1138:1 1486:1 1573:1 1623:1 
1 7:2 10:1 12:4 15:3 23:1 30:1 31:1 54:4 64:1 69:1 79:1 96:1 122:2 142:2 143:1 163:1 199:1 230:1 281:1 318:1 335:1 587:3 615:2 1101:1 1464:1 1651:2 1703:1 
1 1:1 2:1 7:2 9:2 13:1 15:1 21:1 22:1 30:2 31:1 44:1 48:2 50:1 57:1 70:1 77:1 79:2 84:1 105:1 116:1 128:1 149:1 156:1 161:1 182:1 197:1 199:1 214:1 229:1 251:1 262:1 271:1 284:1 288:1 312:1 334:1 587:1 668:1 1079:1 1102:1 1151:1 1164:1 1440:1 1486:1 1584:1 1586:1 1592:2 1649:1 1971:1 
1 7:1 8:1 9:7 10:1 13:2 23:4 31:1 33:1 44:1 47:1 55:1 63:3 64:1 69:1 83:1 85:1 88:2 136:3 156:2 173:1 199:1 236:1 238:1 250:1 264:1 274:2 284:1 316:1 339:1 375:1 412:1 749:1 785:1 813:1 887:1 898:1 1101:1 1102:1 1133:1 1321:1 1440:1 1486:2 1538:1 1882:1 
1 9:1 15:1 18:1 23:2 30:2 39:1 41:1 42:1 43:1 47:1 48:1 56:1 59:2 69:1 70:1 74:1 76:1 79:2 87:1 132:1 146:1 157:1 170:1 293:1 424:1 427:1 500:1 520:2 534:1 587:1 635:1 742:1 881:1 1023:1 1123:1 1164:1 1287:1 1291:1 1385:1 1592:1 1616:2 1623:1 1759:1 
1 7:1 10:1 15:2 18:1 22:1 23:4 29:1 31:1 33:1 41:1 49:1 64:1 65:1 69:1 92:1 105:1 154:1 199:1 222:1 225:1 251:1 288:1 292:1 370:1 375:1 392:1 424:1 487:1 491:1 569:1 587:2 813:1 849:1 868:1 881:1 1101:1 1731:1 
1 7:4 10:1 13:1 18:1 41:2 43:1 47:2 56:1 64:1 67:3 69:1 87:1 88:1 100:1 150:1 154:1 156:1 157:1 192:1 193:1 236:1 274:1 284:1 290:1 327:1 340:1 424:2 440:1 606:2 678:1 871:1 881:1 978:3 1101:1 1115:1 1296:1 1321:1 1440:1 1486:1 
1 7:1 9:2 12:2 13:3 29:1 31:1 39:1 41:1 54:2 56:1 67:1 69:1 71:2 74:1 77:1 88:2 92:1 119:1 126:1 128:1 140:1 156:3 157:1 160:1 182:1 199:1 223:1 229:1 274:2 292:1 310:1 312:1 333:1 403:1 424:1 659:2 753:1 849:1 978:1 1151:1 1287:1 1335:1 1430:1 1486:3 1649:1 1759:1 1775:1 1791:1 1888:1 
1 7:2 8:1 9:3 10:1 13:3 15:2 31:1 39:1 42:1 48:1 56:1 58:1 64:1 65:1 66:1 69:2 71:1 75:1 105:1 111:1 122:1 156:3 157:1 199:1 209:1 220:1 238:1 253:1 290:1 330:1 340:1 487:1 587:2 659:1 711:1 739:1 742:1 1057:1 1101:1 1287:1 1486:3 1592:1 1651:1 1804:1 1843:1 
1 7:4 9:2 10:1 18:1 23:1 46:1 60:2 64:1 67:2 76:1 133:1 162:2 250:1 300:2 308:1 318:1 386:1 427:1 881:1 978:2 1101:1 1474:1 1755:1 1807:1 
1 8:2 9:2 13:2 15:2 31:1 33:1 43:1 44:1 51:1 58:1 60:1 62:2 69:3 87:1 96:1 105:1 118:1 128:1 133:1 151:1 156:2 168:1 177:1 178:1 185:1 199:1 238:2 298:1 300:1 305:1 375:1 587:2 784:2 821:1 987:1 1102:1 1486:2 1806:1 
1 7:1 8:2 10:1 22:2 23:1 46:1 47:1 57:1 64:1 68:1 69:1 70:1 92:1 114:1 130:1 133:1 169:1 186:1 197:1 238:2 251:2 290:1 386:1 849:1 994:1 1101:1 1164:1 1456:1 1482:1 1814:1 
1 7:2 9:3 10:3 12:2 13:2 15:1 18:2 22:3 29:1 49:3 54:2 62:1 64:3 114:2 129:3 155:1 156:2 163:1 206:1 230:1 251:3 252:1 292:1 409:1 431:1 587:1 881:2 1101:3 1339:2 1486:2 1703:1 1731:3 1880:1 1959:3 
1 7:1 9:1 10:3 15:2 29:1 61:1 64:3 69:1 91:1 116:2 119:1 120:1 152:1 179:1 292:1 314:1 334:2 350:1 511:1 587:2 639:1 685:1 954:1 1101:3 1358:1 1741:1 1882:1 
1 7:1 8:1 9:1 10:2 13:3 15:1 22:1 23:1 41:1 42:1 64:2 69:1 105:1 114:1 142:1 146:1 156:3 164:1 173:1 238:1 251:1 272:1 273:1 424:1 441:1 587:1 615:1 742:1 887:1 936:1 1091:1 1101:2 1127:1 1385:1 1486:3 1559:2 1598:1 
0.8863335886829453 7:2 9:2 13:1 18:1 23:3 29:2 30:1 31:2 44:1 47:1 48:1 56:1 69:1 79:1 132:1 148:1 152:1 154:1 156:1 157:1 199:2 290:1 292:2 307:1 314:1 496:1 640:1 711:1 881:1 952:1 1102:1 1123:1 1193:1 1314:1 1486:1 1573:1 1592:1 
1 5:2 7:2 8:1 9:2 18:2 22:2 30:1 31:1 47:2 49:1 50:1 69:1 76:1 79:1 139:1 175:1 188:1 199:1 237:1 238:1 251:2 271:1 307:2 308:1 427:1 662:1 881:2 1417:1 1554:1 1731:1 
1 13:1 33:1 58:1 69:1 156:1 375:1 1291:1 1486:1 1549:1 
1 7:4 8:1 9:1 10:2 13:1 15:1 22:1 30:3 33:2 41:1 64:2 65:1 66:1 73:2 79:3 85:1 96:1 98:1 105:1 126:1 134:1 152:1 156:1 212:1 223:1 231:1 238:1 251:1 264:1 309:1 375:2 424:1 487:1 587:1 649:1 1101:2 1249:1 1368:1 1430:1 1486:1 
1 7:3 8:1 9:1 10:3 13:3 23:2 30:1 33:1 47:1 49:1 57:1 64:3 68:1 69:1 79:1 100:1 107:2 119:1 143:1 156:3 197:1 238:1 256:1 318:1 375:1 392:1 432:1 722:1 871:1 919:1 1101:3 1464:1 1486:3 1731:1 
1 7:1 8:1 10:2 13:3 15:2 18:1 29:1 31:2 44:1 49:1 64:2 69:1 71:1 152:1 156:3 196:1 199:2 209:1 234:1 238:1 239:1 253:1 290:1 292:1 313:1 441:1 528:1 587:2 659:1 711:1 847:1 881:1 959:1 1101:2 1102:1 1438:1 1486:3 1731:1 
1 7:2 9:1 13:1 15:1 22:1 31:1 42:1 44:3 77:1 85:1 122:1 156:1 182:1 199:1 212:1 251:1 264:1 491:1 587:1 609:1 742:1 1102:3 1407:1 1486:1 1502:1 1651:1 
1 7:2 8:2 9:1 10:1 30:1 42:1 46:2 47:2 51:1 64:1 69:1 76:1 79:1 101:1 104:1 114:1 143:1 178:1 191:1 238:2 351:1 358:1 386:2 392:1 426:1 427:1 447:1 451:1 668:1 739:1 742:1 779:1 808:1 878:1 1101:1 1169:1 1464:1 1797:1 
1 7:7 9:2 10:1 13:1 15:2 29:1 30:3 31:1 33:1 41:1 44:1 47:2 57:1 64:1 69:1 75:1 79:3 83:1 92:1 101:1 119:1 149:2 156:1 161:1 197:1 199:1 201:2 292:1 296:1 365:1 368:1 374:1 375:1 424:1 447:1 587:2 594:1 849:1 990:1 1053:1 1101:1 1102:1 1133:1 1486:1 1843:1 1971:2 1989:2 1991:1 
1 7:3 8:1 9:3 10:3 13:2 18:1 23:1 29:1 31:1 39:2 63:1 64:3 69:1 92:1 105:2 136:1 143:2 156:2 169:1 180:1 191:1 199:1 218:1 238:1 265:1 292:1 358:1 395:2 435:1 439:1 661:1 849:1 881:1 1101:3 1287:2 1428:1 1464:2 1486:2 1717:1 1808:1 1950:1 
1 7:1 9:3 10:1 15:1 30:1 31:1 46:1 48:1 55:1 56:1 57:1 61:1 64:1 69:1 79:1 84:1 96:2 114:1 116:1 126:1 132:1 138:1 157:1 160:1 187:1 191:1 197:1 199:1 288:2 334:1 358:1 386:1 435:2 491:1 493:1 496:1 587:1 779:1 808:1 949:1 1079:1 1101:1 1123:1 1193:1 1354:1 1538:1 1592:1 1935:1 1996:1 
1 8:1 10:2 39:2 58:1 59:1 64:2 75:1 84:1 130:1 160:1 191:1 210:2 238:1 302:1 340:1 358:1 520:1 1079:1 1101:2 1287:2 1456:1 1616:1 1778:1 1843:1 1853:1 
1 4:1 5:1 8:1 9:1 10:2 12:3 13:2 15:1 23:1 29:1 30:2 33:1 42:1 43:1 49:1 54:3 55:1 56:1 58:2 61:1 64:2 69:1 78:3 79:2 85:1 87:1 97:1 110:1 134:1 138:1 146:1 155:1 156:2 157:1 173:1 175:1 238:1 240:3 264:1 292:1 375:1 395:1 431:1 449:1 587:1 594:1 742:1 887:1 951:1 1101:2 1170:1 1369:1 1385:1 1486:2 1538:1 1731:1 1991:1 1996:1 
1 7:2 15:1 30:1 33:2 39:1 48:1 69:1 73:2 79:1 152:1 165:1 375:2 378:1 462:1 518:1 587:1 1093:1 1186:1 1258:1 1287:1 1592:1 
1 7:3 9:1 15:3 46:1 47:1 48:1 58:1 62:1 63:1 69:1 84:1 99:1 105:1 117:1 126:1 136:1 143:1 152:1 219:1 241:1 252:1 306:1 314:1 357:1 366:1 386:1 418:1 587:3 619:1 701:1 1079:1 1083:1 1119:1 1191:1 1278:1 1464:1 1592:1 1719:1 
1 7:2 8:2 9:2 22:1 23:1 42:1 47:1 50:3 51:1 55:1 68:1 69:1 84:1 116:1 128:1 155:1 170:1 178:1 187:1 194:1 234:1 238:2 251:1 271:3 282:1 334:1 335:1 364:1 387:1 426:1 431:1 450:1 500:1 728:1 742:1 1079:1 1538:1 1623:1 1918:1 
1 1:5 2:3 3:1 5:1 6:3 7:1 8:2 9:3 11:2 21:1 22:1 26:1 33:3 41:1 46:1 51:1 59:1 67:1 110:1 178:1 238:2 251:1 366:1 375:3 386:1 421:2 424:1 520:1 591:1 959:1 978:1 1170:1 1278:1 1325:1 1616:1 
1 7:1 8:1 9:3 13:2 15:1 18:1 31:1 41:1 43:1 47:1 48:1 56:1 69:1 82:1 87:1 88:1 91:1 96:1 111:1 140:1 156:2 157:1 177:1 185:1 199:1 202:1 237:1 238:1 254:1 274:1 287:1 290:1 362:1 424:1 587:1 601:1 639:1 821:1 881:1 1486:2 1592:1 1775:1 1804:1 
1 7:1 9:2 10:3 13:2 15:2 23:1 30:1 33:1 43:1 44:1 46:1 48:1 56:1 64:3 67:2 69:1 75:1 77:1 79:1 87:1 126:2 146:1 149:1 151:1 156:2 157:1 182:1 375:1 386:1 418:1 459:1 587:2 647:1 891:1 978:2 987:1 1101:3 1102:1 1385:1 1486:2 1592:1 1674:1 1702:1 1811:1 1843:1 1971:1 
1 7:1 8:5 9:4 23:1 28:1 51:1 60:3 85:1 178:1 206:1 210:1 223:1 238:5 261:1 264:1 272:1 300:3 348:1 714:1 738:4 1443:1 
0.7151665991933719 9:2 13:2 15:3 31:2 50:2 58:2 66:1 69:1 130:2 156:2 199:2 201:1 220:1 271:2 326:1 368:1 403:2 587:3 711:1 990:1 1456:2 1486:2 1791:2 1989:1 
1 7:4 9:3 12:3 13:1 23:2 29:1 30:1 31:1 42:2 44:1 50:1 51:1 54:3 56:1 57:1 69:1 79:1 90:1 112:1 156:1 157:1 165:1 178:1 197:1 199:1 201:1 216:1 220:1 271:1 288:1 292:1 319:1 333:1 395:1 491:1 554:1 557:1 702:1 742:2 781:1 859:2 861:1 952:1 1102:1 1486:1 1807:1 1888:1 1989:1 
1 7:1 8:1 9:3 13:2 43:2 47:1 50:1 51:1 55:1 69:1 72:1 76:1 85:1 87:2 119:1 122:1 156:2 161:1 170:1 178:1 191:1 196:1 227:1 238:1 255:1 264:1 271:1 290:1 293:1 306:1 358:1 427:1 473:1 596:1 683:1 959:1 1060:1 1398:1 1438:1 1486:2 1538:1 1623:1 1651:1 1709:1 
1 7:2 8:2 9:2 10:1 13:1 15:2 18:2 22:1 29:1 31:1 39:1 42:1 47:1 48:1 55:1 62:1 64:1 67:1 69:2 76:1 83:1 88:1 156:1 160:1 161:1 196:1 199:1 225:1 238:2 244:1 251:1 274:1 290:2 292:1 395:1 427:1 458:1 576:1 587:2 711:1 742:1 767:1 774:1 868:1 881:2 978:1 1101:1 1133:1 1287:1 1438:1 1486:1 1538:1 1592:1 
1 7:1 9:1 10:1 64:1 69:1 230:1 301:1 416:1 509:1 1101:1 1703:1 
1 7:1 8:1 9:2 10:1 18:1 28:1 31:1 48:1 51:1 56:1 57:1 64:1 69:3 70:1 71:1 76:1 77:1 78:1 91:2 97:1 105:1 143:1 157:1 178:1 182:1 197:1 199:1 238:1 240:1 288:1 321:1 427:1 478:1 639:2 659:1 662:1 881:1 906:1 951:1 961:1 962:1 993:1 1101:1 1164:1 1461:1 1464:1 1515:1 1592:1 1645:1 
1 7:1 10:1 13:4 18:1 29:1 33:1 39:1 43:1 48:1 50:2 59:1 64:1 69:2 72:1 85:1 87:1 102:1 119:1 122:1 134:1 156:4 230:1 264:1 271:2 292:1 312:1 375:1 520:1 627:1 881:1 1088:1 1101:1 1151:1 1287:1 1486:4 1566:1 1592:1 1616:1 1651:1 1703:1 1709:1 1834:1 
1 7:1 8:1 9:2 12:1 13:1 33:1 44:1 51:1 54:1 59:1 60:1 68:1 69:1 71:2 72:1 76:1 78:2 84:1 85:1 88:1 112:1 114:1 130:1 156:1 175:1 178:1 187:1 238:1 239:1 240:2 264:1 274:1 300:1 311:2 363:2 375:1 427:1 520:1 659:2 805:1 1079:1 1102:1 1156:1 1198:1 1456:1 1486:1 1616:1 1709:1 
1 9:2 10:2 13:1 22:1 43:3 47:4 50:3 61:2 64:2 65:1 68:1 69:1 76:1 78:1 83:1 87:3 100:1 116:2 156:1 198:1 230:1 240:1 251:1 271:3 290:1 334:2 427:1 487:1 507:1 559:1 584:1 594:5 871:1 924:1 1059:1 1101:2 1133:1 1486:1 1703:1 1991:5 
1 8:1 9:2 10:1 13:3 22:1 64:1 67:2 69:1 77:2 142:1 156:3 163:1 182:2 238:1 251:1 333:1 335:1 356:1 418:1 574:1 608:1 615:1 722:1 903:1 978:2 1101:1 1242:1 1446:1 1486:3 1755:1 1888:1 
1 7:2 8:1 9:3 12:2 13:1 15:2 18:1 29:2 31:2 39:2 41:1 43:1 47:1 48:1 54:2 61:1 69:1 87:1 96:1 107:1 117:1 122:1 142:1 143:1 156:1 199:2 227:1 234:1 238:1 241:1 243:1 260:1 267:1 284:1 292:2 347:1 416:1 424:1 498:1 587:2 615:1 619:1 647:1 711:1 881:1 961:1 1119:1 1127:1 1191:1 1287:2 1336:1 1440:1 1464:1 1486:1 1592:1 1595:1 1651:1 1678:1 1832:1 
1 6:1 7:6 8:2 13:3 22:1 23:3 42:1 56:2 69:1 105:1 129:1 155:1 156:3 157:2 186:1 238:2 251:1 254:2 287:1 313:1 431:1 496:2 500:2 742:1 798:1 824:1 843:1 1127:2 1193:2 1486:3 1959:1 
1 7:1 8:1 13:1 15:1 48:1 50:1 58:1 69:1 71:1 120:1 156:1 165:1 170:1 198:1 202:1 230:1 238:1 262:1 271:1 276:1 288:1 509:1 587:1 601:1 659:1 867:1 983:1 1055:1 1319:1 1412:1 1486:1 1584:1 1592:1 1623:1 1703:1 
1 7:1 8:5 9:6 14:1 23:1 28:1 51:1 60:3 66:1 69:1 85:1 151:1 178:1 223:1 238:5 264:1 296:1 300:3 348:2 714:1 738:4 911:1 987:1 
1 12:1 23:1 30:1 33:1 44:3 50:4 54:1 55:4 68:1 69:1 78:1 79:1 84:4 160:1 187:1 206:1 207:1 229:1 240:1 253:1 271:4 333:1 339:1 375:1 449:1 465:4 606:1 751:1 894:4 1079:4 1102:3 1398:1 1400:1 1538:4 1649:1 1888:1 
1 8:1 9:1 28:1 48:1 55:1 69:1 72:1 84:1 122:1 170:1 177:1 196:1 209:1 238:1 821:1 936:1 1079:1 1438:1 1538:1 1592:1 1623:1 1651:1 1709:1 
1 7:5 13:1 15:1 23:3 33:1 47:1 51:1 59:1 69:1 99:1 114:1 126:1 156:1 177:1 178:1 244:1 247:1 375:1 500:1 520:1 587:1 642:1 678:1 821:1 859:1 1442:1 1486:1 1489:1 1597:1 1616:1 1719:1 
1 7:2 9:1 22:1 59:2 69:3 90:1 110:1 116:1 123:2 205:1 226:1 251:1 334:1 509:1 520:2 757:1 1170:1 1616:2 
1 8:1 10:1 18:1 28:1 29:1 41:1 64:1 69:1 105:2 238:1 292:1 366:1 424:1 881:1 1101:1 1278:1 
1 5:1 7:4 8:1 9:3 10:3 13:1 15:1 18:2 29:1 41:1 47:1 63:1 64:3 72:1 76:1 126:1 136:1 152:1 156:1 217:1 238:1 272:1 292:1 370:1 399:1 424:1 427:1 493:1 511:1 587:1 680:1 815:1 881:2 1101:3 1316:1 1486:1 1709:1 
1 7:2 8:1 9:1 10:1 13:1 15:4 23:1 29:1 31:3 41:2 55:1 64:1 66:2 69:1 96:1 105:1 126:2 134:1 149:1 156:1 163:2 191:1 199:3 238:1 241:1 292:1 309:1 313:1 339:1 358:1 424:2 434:1 473:1 587:4 619:1 866:1 1101:1 1344:1 1486:1 1538:1 1971:1 
1 7:5 8:1 9:2 13:1 15:2 23:2 30:1 42:1 44:1 61:1 69:1 79:1 123:1 126:1 156:1 169:2 193:1 201:1 214:1 238:1 244:1 282:1 327:1 513:1 587:2 742:1 859:1 867:1 913:1 1020:1 1102:1 1222:1 1486:1 1989:1 
1 7:1 8:1 10:2 13:4 23:2 29:1 30:2 43:1 46:1 47:2 51:1 58:1 64:2 69:1 79:2 87:1 93:1 156:4 166:1 177:1 178:1 227:1 236:2 238:1 265:1 292:1 308:1 327:2 362:1 386:1 614:1 821:1 1101:2 1321:2 1486:4 
1 6:1 7:3 33:2 41:1 56:1 101:1 143:1 157:1 375:2 424:1 447:1 506:1 809:1 824:1 904:1 1464:1 1584:1 
1 4:1 5:1 7:1 9:1 12:2 13:2 15:1 18:2 31:1 44:3 50:1 54:2 55:1 56:2 61:1 69:1 74:1 97:1 107:1 114:1 119:1 130:1 138:1 156:2 157:2 173:2 191:1 199:1 248:1 271:1 282:1 358:1 403:1 587:1 774:1 881:2 887:2 923:1 951:1 1006:1 1102:3 1456:1 1486:2 1538:1 1692:1 1759:1 1791:1 1975:1 1996:1 
1 7:1 9:2 10:3 15:1 18:1 23:1 29:1 43:1 46:2 51:1 55:1 56:1 59:1 64:3 69:1 70:1 83:1 87:1 93:1 105:1 114:1 122:1 154:1 157:1 161:1 178:1 190:1 222:1 229:1 236:1 263:1 292:1 386:2 520:1 523:1 587:1 614:1 777:1 881:1 892:1 1101:3 1127:1 1133:1 1164:1 1321:1 1458:1 1538:1 1589:1 1616:1 1649:1 1651:1 1998:1 
1 7:2 12:4 13:4 18:1 22:1 23:2 30:3 31:1 33:2 39:1 41:1 47:2 54:4 67:1 79:3 105:1 106:1 118:1 122:1 156:4 191:2 199:1 251:1 298:1 344:1 358:2 373:1 375:2 424:1 499:1 532:1 812:1 881:1 978:1 1287:1 1309:1 1486:4 1578:1 1651:1 1794:1 1816:1 1846:1 1920:1 
1 4:1 5:1 7:4 8:1 13:1 15:7 30:2 55:1 69:1 71:3 79:2 96:1 126:2 156:1 187:1 238:1 325:1 397:1 398:1 587:7 625:1 659:3 712:1 1175:1 1486:1 1538:1 
1 7:1 8:1 10:1 13:2 28:1 31:2 39:2 41:2 56:1 64:1 67:1 69:1 77:1 99:2 152:1 155:1 156:2 157:1 182:1 199:2 238:1 261:1 340:1 395:1 424:2 431:1 670:1 747:1 908:1 978:1 1101:1 1281:1 1287:2 1318:1 1428:1 1466:1 1486:2 1549:1 1719:2 
1 7:4 8:2 10:1 13:1 23:2 56:1 59:1 64:1 69:1 119:1 156:1 157:1 173:1 207:2 229:1 238:2 261:1 357:1 412:1 520:1 609:1 711:1 739:1 747:1 887:1 898:1 1101:1 1313:1 1486:1 1616:1 1649:1 
1 10:1 30:1 31:1 39:1 64:1 69:3 79:1 199:1 626:1 1101:1 1287:1 
1 7:1 9:1 10:1 13:1 15:1 18:1 39:1 44:1 46:1 64:1 69:1 70:1 71:2 88:1 99:1 114:1 119:1 130:1 134:1 140:1 142:1 149:1 154:1 156:1 237:1 250:1 255:1 274:1 284:1 302:1 328:1 386:1 395:1 403:1 565:1 587:1 615:1 659:2 669:1 788:1 881:1 994:1 1060:1 1101:1 1102:1 1164:1 1287:1 1440:1 1456:1 1486:1 1719:1 1739:1 1775:1 1791:1 1971:1 
1 7:1 10:1 13:1 18:1 22:1 64:1 65:1 148:1 156:1 170:1 198:1 251:1 310:1 376:1 383:1 487:1 881:1 1101:1 1384:1 1486:1 1520:1 1573:1 1623:1 
1 7:1 8:1 10:2 13:1 18:1 23:1 30:1 44:1 62:1 64:2 79:1 85:1 152:1 156:1 179:1 238:1 264:1 296:1 441:1 606:1 881:1 1101:2 1102:1 1428:1 1486:1 1516:1 1741:1 1763:1 
1 7:1 9:1 10:1 22:1 30:1 39:1 64:1 67:1 79:1 195:1 201:1 251:1 263:1 331:1 368:1 444:1 560:1 714:1 793:1 857:1 961:1 978:1 990:1 1101:1 1287:1 1989:1 
1 9:3 13:1 22:1 31:1 44:1 62:1 119:2 156:1 196:2 199:1 201:1 207:1 230:2 232:1 251:1 270:1 362:1 494:1 553:1 1102:1 1285:1 1438:2 1486:1 1703:2 1989:1 
1 7:2 10:1 13:1 15:1 23:2 28:1 41:1 64:1 72:1 91:1 143:1 156:1 200:1 231:1 323:1 424:1 587:1 639:1 718:1 1101:1 1464:1 1486:1 1709:1 1853:1 1911:1 
1 1:65 2:52 3:13 5:13 6:13 7:3 11:13 13:2 15:1 19:13 21:13 38:13 44:1 49:1 50:1 62:1 70:1 71:2 73:13 74:1 80:26 82:26 110:1 156:2 202:1 214:1 262:1 271:1 275:2 276:2 305:1 338:7 421:13 575:1 582:1 587:1 593:1 601:1 659:2 904:1 908:2 1055:2 1102:1 1164:1 1170:1 1486:2 1520:1 1584:1 1731:1 1759:1 
1 7:1 10:1 12:5 13:2 15:2 29:3 41:1 44:1 46:1 49:1 54:5 56:2 59:1 64:1 69:1 104:1 139:1 140:1 156:2 157:2 175:1 236:1 250:1 269:1 285:1 292:3 309:2 351:1 363:2 386:1 397:1 424:1 520:1 529:1 587:2 604:1 606:1 1101:1 1102:1 1321:1 1486:2 1616:1 1731:1 1775:1 
1 9:1 10:2 15:2 23:2 50:4 55:1 64:2 67:2 69:1 77:1 133:1 139:1 182:1 255:1 271:4 308:1 309:1 321:1 333:1 336:1 339:1 500:1 587:2 763:1 978:2 1060:1 1101:2 1538:1 1641:1 1882:1 1888:1 
1 7:2 10:2 15:1 18:1 22:1 23:1 42:2 46:1 62:1 63:1 64:2 69:1 72:2 91:1 126:1 133:1 136:1 142:1 251:1 363:1 367:1 386:1 507:1 535:1 541:1 587:1 615:1 639:1 680:3 742:2 881:1 1101:2 1428:1 1709:2 
1 7:1 9:3 15:2 16:1 18:1 30:1 31:2 41:2 51:1 56:1 58:1 61:1 63:2 69:1 79:1 82:2 92:1 93:1 105:2 119:2 132:1 136:2 157:1 165:1 178:1 199:2 350:1 424:2 443:1 477:1 587:2 614:1 849:1 881:1 1036:1 1123:1 1377:2 
1 7:1 9:1 13:2 23:1 30:2 31:1 33:1 39:1 46:1 48:1 51:1 55:1 57:1 65:1 69:1 79:2 83:1 88:1 96:2 118:1 143:1 156:2 177:1 178:1 187:1 190:1 197:1 199:1 247:1 274:1 278:1 288:1 298:1 302:1 330:2 375:1 385:2 386:1 393:1 487:1 594:1 730:1 821:1 1133:1 1287:1 1464:1 1486:2 1538:1 1589:1 1592:1 1991:1 
1 7:5 8:1 9:1 10:1 13:1 15:1 23:1 31:1 42:1 46:2 48:1 58:1 64:1 66:1 69:1 77:1 115:1 118:1 126:1 149:1 156:1 182:1 199:1 238:1 298:1 307:1 314:1 321:1 327:1 386:2 587:1 742:1 892:1 1101:1 1486:1 1578:1 1592:1 1971:1 
1 4:1 5:1 7:1 8:1 10:1 13:1 18:2 22:1 23:3 47:1 51:1 56:1 60:1 62:1 64:1 67:1 68:1 69:1 71:1 77:2 85:1 88:1 156:1 157:1 178:1 179:1 182:2 220:1 222:1 238:1 251:1 264:1 274:1 300:1 659:1 881:2 978:1 1101:1 1130:1 1486:1 1741:1 
1 7:3 8:1 10:1 13:1 29:3 30:1 39:1 46:1 47:1 51:2 55:1 56:2 62:1 64:1 65:1 66:2 69:1 79:1 82:2 92:1 105:1 122:3 126:1 129:2 133:1 135:1 156:1 157:2 160:1 178:2 180:1 183:1 185:1 229:1 238:1 250:1 290:1 292:3 296:1 370:1 386:1 416:1 487:1 493:1 774:1 788:1 849:1 1006:2 1101:1 1287:1 1328:1 1486:1 1538:1 1649:1 1651:3 1725:1 1959:2 
1 7:1 9:2 10:1 15:2 22:1 23:3 29:1 44:1 47:1 51:1 55:1 56:2 58:1 64:1 67:2 69:3 97:1 123:1 138:1 151:1 157:2 164:1 178:1 187:1 239:1 251:1 273:1 291:1 292:1 312:1 436:1 532:1 587:2 775:1 810:1 951:1 978:2 987:1 1101:1 1102:1 1151:1 1354:1 1365:1 1538:1 1996:1 
1 15:1 28:1 58:1 587:1 
1 4:1 5:1 7:3 9:2 10:3 12:3 13:3 23:1 30:2 42:1 43:1 47:2 54:3 57:1 64:3 68:1 79:2 87:1 105:1 140:1 156:3 197:1 227:1 230:1 308:1 318:1 392:2 397:1 742:1 798:1 1047:1 1101:3 1486:3 1703:1 1775:1 1806:1 1936:1 
1 7:3 9:3 10:3 15:4 23:2 29:2 30:1 33:1 44:1 61:4 64:3 71:1 79:1 163:1 175:1 207:4 292:2 307:3 337:1 375:1 409:1 587:4 659:1 1002:4 1101:3 1102:1 1564:1 1920:1 
1 7:6 8:1 10:1 15:1 16:1 29:1 42:1 43:1 55:1 64:1 68:1 69:1 71:1 87:1 102:1 105:1 114:2 132:1 165:1 190:1 207:1 237:3 238:1 239:1 292:1 483:1 509:1 529:2 587:1 659:1 742:1 1101:1 1123:1 1383:1 1538:1 1566:1 1589:1 
1 7:1 9:2 10:2 13:1 15:1 22:1 23:1 30:1 33:1 48:1 58:1 60:1 64:2 66:1 69:1 74:1 75:1 79:1 105:1 126:1 149:1 151:1 156:1 164:1 177:1 180:1 250:1 251:1 273:1 300:1 327:1 375:1 587:1 821:1 987:1 1101:2 1486:1 1584:2 1592:1 1759:1 1843:1 1971:1 
1 7:2 8:1 10:3 13:2 23:3 31:1 33:1 39:1 41:1 42:1 46:1 64:3 69:1 78:1 93:1 126:1 142:2 146:1 156:2 173:1 199:1 202:1 229:1 238:1 240:1 287:1 375:1 386:1 392:1 418:1 424:1 549:1 601:1 614:1 615:2 718:1 742:1 887:1 989:1 1047:1 1101:3 1105:1 1287:1 1385:1 1442:1 1486:2 1489:1 1649:1 
1 7:1 10:1 15:2 23:1 33:1 42:1 44:1 50:1 64:1 145:1 249:1 271:1 314:1 355:1 375:1 392:1 403:1 587:2 739:1 742:1 1088:1 1101:1 1102:1 1117:2 1313:1 1395:2 1637:2 1791:1 
1 7:1 10:1 13:2 15:1 42:1 58:1 61:1 64:1 69:1 105:1 156:2 170:1 230:2 312:2 478:1 587:1 653:1 742:1 1044:1 1101:1 1151:2 1486:2 1623:1 1647:1 1703:2 
1 7:1 13:1 15:1 22:1 23:2 41:1 67:1 77:1 85:1 156:1 162:1 182:1 230:1 251:1 264:1 424:1 587:1 978:1 1467:1 1486:1 1703:1 
1 7:1 8:1 9:2 10:1 13:2 15:1 18:1 22:1 23:3 30:1 57:1 64:1 67:1 69:1 76:1 79:1 91:1 100:1 119:1 130:2 140:1 151:1 156:2 168:1 175:1 197:1 236:1 237:1 238:1 251:1 256:2 427:1 587:1 639:1 744:1 813:1 871:1 881:1 978:1 987:1 994:1 1101:1 1321:1 1456:2 1486:2 1775:1 
1 7:4 8:1 9:1 10:2 12:1 13:2 15:2 18:1 23:2 30:2 41:1 43:1 54:1 56:2 61:1 64:2 69:1 79:2 87:1 93:1 105:2 106:1 119:1 122:1 126:1 156:2 157:2 191:1 228:1 238:1 268:1 290:1 358:1 389:1 424:1 500:1 587:2 614:1 881:1 892:1 1101:2 1127:1 1486:2 1651:1 1682:1 1846:1 
1 7:2 8:1 9:2 10:1 13:1 15:2 22:1 29:1 30:2 31:1 33:1 43:2 44:1 47:1 48:1 49:1 56:2 61:1 64:1 69:1 76:1 79:2 87:2 154:1 156:1 157:2 196:1 199:1 238:1 242:1 251:1 282:1 292:1 319:1 375:1 427:1 587:2 591:1 606:2 705:1 711:1 718:1 725:1 781:1 872:1 1101:1 1102:1 1438:1 1486:1 1592:1 1731:1 1840:1 
1 4:1 5:1 7:3 9:2 15:3 23:1 31:1 33:1 39:1 43:1 44:1 46:1 59:1 63:1 66:1 69:1 87:1 88:1 104:1 118:1 122:1 134:2 135:2 136:1 138:1 146:1 161:1 185:1 190:1 199:1 253:1 274:1 298:1 302:1 351:1 375:1 378:1 386:1 520:1 587:3 711:1 925:1 1102:1 1176:1 1287:1 1385:1 1589:1 1616:1 1651:1 1725:2 1996:1 
1 4:1 5:1 7:2 9:1 10:1 13:2 23:2 33:1 60:1 63:3 64:1 83:1 136:3 156:2 250:1 300:1 335:1 375:1 673:1 959:1 1101:1 1133:1 1323:1 1486:2 
1 13:1 31:2 43:1 56:1 68:1 69:1 80:1 83:1 87:1 151:1 156:1 157:1 199:2 207:1 219:1 237:1 281:1 318:1 501:1 532:1 987:1 1133:1 1486:1 
1 7:7 8:2 9:1 13:1 18:1 22:1 23:2 30:1 50:1 56:1 66:1 68:2 79:1 156:1 157:1 170:1 238:2 251:1 271:1 385:1 574:1 771:1 881:1 985:1 1080:1 1408:1 1486:1 1623:1 
1 1:140 2:140 3:84 6:12 8:1 9:1 10:3 11:1 13:1 14:1 15:3 16:2 21:140 24:2 28:2 39:1 41:3 42:1 46:2 56:1 64:3 70:1 73:3 83:1 101:1 103:1 123:14 129:1 140:5 143:36 144:10 150:2 156:1 157:1 163:1 164:1 184:10 205:59 231:6 238:1 273:1 275:2 318:1 338:2 386:2 398:3 400:2 421:1 424:3 425:1 447:1 475:1 483:1 489:1 531:3 539:11 575:17 587:3 593:2 697:1 698:1 737:1 742:1 828:1 874:2 906:9 1025:3 1056:29 1082:2 1101:3 1129:1 1133:1 1142:16 1164:1 1245:8 1287:1 1304:5 1329:2 1368:20 1461:9 1464:36 1486:1 1517:3 1574:2 1645:9 1650:7 1665:18 1775:5 1823:5 1864:11 1947:1 1959:1 
1 1:601 2:601 3:304 4:75 5:53 6:271 14:4 17:8 18:1 19:30 20:30 22:1 24:59 25:32 26:7 28:17 33:29 34:42 57:1 58:1 81:3 86:8 94:1 103:111 110:1 123:2 143:34 147:3 158:32 181:2 197:1 204:5 205:115 221:5 230:136 251:1 288:102 297:8 337:34 354:131 375:29 412:34 417:31 450:34 462:3 500:133 527:131 532:103 616:1 631:34 728:34 738:131 764:136 881:1 913:34 922:8 980:1 1020:131 1064:136 1093:35 1170:1 1464:34 1466:34 1522:136 1563:102 1564:34 1635:34 1703:136 1733:34 1781:102 1806:68 1836:133 1839:31 
1 7:3 8:1 10:3 13:2 18:1 22:1 29:1 33:1 39:3 41:1 42:1 46:1 48:1 63:2 64:3 69:2 76:1 92:2 93:1 107:1 119:2 136:2 146:2 155:1 156:2 193:1 212:1 217:1 238:1 249:1 251:1 260:1 292:1 375:1 386:1 390:1 393:1 414:1 424:1 427:1 431:1 436:1 439:1 614:1 642:1 680:1 742:1 849:2 881:1 1101:3 1287:3 1336:1 1385:2 1486:2 1592:1 1939:2 
1 1:6 2:4 3:4 4:1 5:4 6:3 7:2 8:5 9:3 10:2 11:2 13:3 14:1 15:2 18:2 26:1 28:4 29:1 31:1 33:1 34:1 40:2 46:3 47:2 48:1 64:2 69:1 76:1 146:1 156:3 199:1 216:1 224:1 237:1 238:5 258:2 292:1 303:1 375:1 386:3 421:2 427:1 497:1 502:1 587:2 881:2 961:1 1101:2 1182:1 1385:1 1442:1 1486:3 1592:1 1903:1 
1 7:3 8:1 9:2 10:2 15:1 18:1 23:3 29:1 30:1 31:1 44:2 64:2 79:1 130:1 175:1 199:1 238:1 292:1 409:1 500:1 587:1 590:1 722:1 813:1 814:1 846:1 881:1 1084:1 1101:2 1102:2 1250:1 1411:1 1456:1 1755:1 
1 9:2 10:5 13:4 29:2 64:5 69:1 76:1 78:1 90:1 119:1 128:1 130:2 148:1 156:4 159:1 200:1 240:1 265:1 292:2 313:1 409:1 427:1 435:1 722:5 936:1 1101:5 1455:1 1456:2 1486:4 1573:1 1638:1 1894:1 1911:1 
1 7:1 8:2 9:2 13:1 18:1 22:1 29:1 39:3 57:1 69:1 71:1 75:1 82:1 88:1 114:1 117:1 156:1 197:1 210:1 238:2 251:1 274:1 292:1 314:1 412:1 511:1 517:1 659:1 765:1 803:1 881:1 898:4 1119:1 1287:3 1486:1 1843:1 
1 7:2 8:2 9:2 10:1 13:3 18:2 23:2 30:1 41:1 42:1 43:1 47:1 51:1 58:1 64:1 66:1 69:1 79:1 87:1 99:1 126:1 156:3 159:1 169:1 177:1 178:1 185:1 217:1 231:1 238:2 327:2 424:1 722:1 742:1 821:1 881:2 1101:1 1129:2 1181:1 1486:3 1578:2 1638:1 1719:1 
1 7:4 9:3 10:2 13:1 15:1 23:4 29:1 47:2 57:1 63:1 64:2 69:1 92:1 96:1 136:1 143:1 156:1 197:1 292:1 327:1 429:1 500:1 580:1 587:1 627:1 642:1 702:1 803:1 843:1 849:1 880:1 1101:2 1227:1 1464:1 1486:1 
1 7:2 9:3 10:2 12:1 13:1 18:1 23:3 29:1 30:1 31:3 54:1 60:1 64:2 69:1 71:1 74:1 79:1 100:1 126:1 156:1 162:1 199:3 236:1 242:1 288:2 292:1 300:1 496:1 565:1 659:1 711:2 871:1 881:1 1069:1 1101:2 1193:1 1321:1 1486:1 1529:1 1759:1 
1 7:3 8:1 9:4 13:6 15:1 23:1 31:1 47:1 56:1 58:2 62:1 65:2 66:1 75:1 78:2 92:1 105:1 110:1 126:1 145:1 151:1 154:1 156:6 157:1 177:1 185:1 199:1 238:1 240:2 327:1 487:2 587:1 631:1 821:1 849:1 987:1 1051:1 1162:1 1170:1 1446:1 1486:6 1843:1 1920:1 
1 7:1 8:1 9:3 10:3 13:2 15:1 41:1 47:1 55:1 56:1 57:1 58:1 62:1 64:3 65:1 69:1 71:1 83:1 102:1 138:1 156:2 157:1 197:1 238:1 259:2 284:1 299:1 328:1 424:1 487:1 494:1 587:1 613:1 659:1 673:1 701:1 775:1 1101:3 1133:1 1141:1 1377:1 1440:1 1486:2 1538:1 1566:1 1996:1 
1 5:1 7:1 9:2 10:5 13:2 15:1 18:2 22:1 29:1 30:1 47:1 64:5 68:1 69:1 79:1 85:1 112:1 156:2 164:1 220:1 251:1 263:1 264:1 266:1 273:1 292:1 296:1 500:1 527:2 587:1 766:1 881:2 1023:1 1101:5 1365:1 1486:2 
1 7:3 9:5 10:3 13:2 15:2 18:1 23:3 31:1 44:2 46:1 64:3 69:1 99:1 142:1 156:2 199:1 200:1 230:1 318:1 335:1 348:1 386:1 412:1 418:1 480:1 587:2 615:1 760:1 881:1 1101:3 1102:2 1124:1 1319:1 1486:2 1567:1 1703:1 1719:1 1911:1 
1 7:2 9:4 12:5 13:3 15:1 22:2 31:1 42:1 44:1 47:1 51:1 54:5 57:1 62:1 67:1 69:1 112:1 128:1 129:1 156:3 178:1 197:1 199:1 202:1 237:1 251:2 259:1 261:1 312:1 319:1 395:1 434:1 501:1 587:1 598:1 601:1 606:1 690:1 701:1 742:1 781:1 862:1 978:1 1080:1 1102:1 1151:1 1486:3 1959:1 
1 12:3 13:3 31:1 41:1 44:1 54:3 84:1 102:1 116:1 156:3 170:2 192:1 199:1 230:1 275:1 310:1 334:1 359:1 373:1 424:1 452:1 489:1 512:1 596:1 697:1 1079:1 1102:1 1110:1 1115:1 1486:3 1491:1 1566:1 1623:2 1703:1 1794:1 1853:1 
1 7:3 9:1 13:1 15:1 23:1 30:1 39:1 41:1 43:2 46:1 51:1 57:1 68:1 69:1 79:1 87:2 92:1 135:1 142:1 143:1 156:1 169:1 178:1 197:1 237:1 252:1 386:1 424:1 519:1 587:1 608:1 615:1 636:1 643:1 849:1 1287:1 1313:1 1464:1 1486:1 1725:1 1806:1 1981:1 
1 8:1 10:2 13:2 22:1 23:1 30:1 31:1 42:1 47:2 64:2 69:1 79:1 106:1 135:1 156:2 199:1 236:1 238:1 251:1 308:1 509:1 521:1 711:1 739:1 742:1 749:1 1101:2 1321:1 1325:1 1486:2 1725:1 1846:1 
1 12:4 15:1 41:1 43:1 44:4 50:3 51:1 54:4 61:1 69:1 87:1 92:1 102:2 134:1 142:2 155:2 178:1 193:1 271:3 308:1 335:1 395:1 424:1 431:2 587:1 613:1 615:2 772:1 805:2 849:1 862:1 1006:1 1102:4 1566:2 1809:1 
1 7:3 8:1 9:2 10:3 15:1 23:2 28:1 29:1 46:1 50:1 62:1 64:3 84:1 92:1 98:1 149:1 232:1 238:1 271:1 292:1 315:1 386:1 393:1 494:1 512:1 587:1 650:1 662:1 683:1 849:1 1079:1 1101:3 1291:1 1358:1 1434:1 1549:1 1971:1 
1 7:5 8:1 10:1 13:1 15:1 18:1 39:1 47:2 56:1 61:1 62:1 64:1 67:2 76:1 77:1 93:1 100:1 133:1 140:1 156:1 157:1 166:1 182:1 238:1 310:1 341:1 427:1 440:1 450:1 532:1 587:1 614:1 687:1 711:1 734:1 755:1 813:1 871:1 881:1 978:2 1101:1 1287:1 1428:1 1486:1 1637:1 1775:1 
1 7:1 8:1 9:1 10:2 15:1 23:1 29:1 31:2 33:1 42:1 46:1 47:1 48:1 50:1 56:1 58:2 64:2 66:1 69:1 70:1 126:1 154:1 157:1 199:2 238:1 269:1 271:1 290:1 291:1 292:1 327:1 375:1 386:1 587:1 708:1 742:1 795:1 969:1 1064:1 1101:2 1164:1 1347:1 1592:1 1624:1 
1 7:2 8:1 10:2 13:4 18:2 33:1 39:2 42:1 47:1 58:1 64:2 76:1 144:1 156:4 169:1 184:1 238:1 250:1 327:1 357:1 375:1 392:1 427:1 742:1 838:1 881:2 989:1 1033:1 1101:2 1174:1 1287:2 1389:1 1391:1 1486:4 1635:1 1658:1 
1 7:1 9:1 10:2 13:1 15:1 23:2 29:1 31:1 49:2 64:2 69:2 70:1 99:1 105:1 107:2 118:1 140:2 156:1 166:1 199:1 282:1 292:1 298:1 412:1 587:1 904:1 989:1 1046:1 1101:2 1149:1 1164:1 1297:1 1486:1 1626:1 1719:1 1731:2 1775:2 1814:1 
1 7:2 9:1 10:2 13:1 22:3 23:1 29:1 57:1 64:2 69:1 78:1 114:1 156:1 168:1 197:1 220:1 225:2 240:1 251:3 292:1 608:1 644:1 645:1 859:1 868:2 961:1 1101:2 1486:1 1780:1 
1 7:1 8:2 9:1 10:3 13:1 15:1 22:1 23:1 30:1 41:2 46:2 55:1 56:1 64:3 65:2 69:1 79:1 117:1 143:1 156:1 157:1 238:2 251:1 288:1 309:1 323:1 329:1 386:2 424:2 441:1 487:2 587:1 892:1 1101:3 1109:1 1119:1 1126:1 1194:1 1295:1 1464:1 1486:1 1538:1 
0.7136299608159559 8:1 9:1 10:1 12:2 13:3 15:1 31:1 33:2 44:2 47:1 50:1 54:2 56:1 64:1 69:4 71:1 72:1 75:1 105:1 112:1 116:1 123:1 156:3 157:1 177:1 199:1 201:1 238:1 247:1 271:1 291:1 311:1 314:1 334:1 363:1 366:2 375:2 453:1 554:1 587:1 659:1 741:1 821:1 1101:1 1102:2 1278:2 1486:3 1660:1 1709:1 1843:1 1882:1 1989:1 
0.4859601404009662 7:5 8:1 13:3 15:2 23:1 30:1 31:1 41:1 42:1 44:2 50:1 61:1 62:1 79:1 104:1 126:2 140:1 156:3 177:1 199:1 238:1 247:1 271:1 287:1 327:1 351:1 410:1 424:1 576:1 587:2 742:1 774:1 821:1 1102:2 1105:1 1408:1 1458:1 1486:3 1775:1 
1 7:5 8:1 9:1 29:1 30:3 31:1 33:5 49:1 73:2 79:3 105:1 110:1 116:1 123:1 154:1 167:1 171:1 199:1 231:1 234:1 238:1 292:1 305:1 322:1 334:1 364:1 375:5 462:1 956:1 961:1 1019:1 1135:1 1170:1 1731:1 
1 7:1 8:1 9:3 13:2 18:1 31:1 33:1 39:1 43:1 47:1 49:1 50:1 51:1 57:1 59:1 62:1 65:1 69:1 87:1 105:1 107:1 116:1 118:1 128:1 129:1 152:1 156:2 169:1 178:1 197:1 199:1 226:1 234:1 237:1 238:1 270:1 271:1 290:1 298:1 302:1 334:1 354:1 375:1 487:1 489:1 517:1 520:1 881:1 1127:1 1226:1 1234:1 1287:1 1486:2 1506:1 1616:1 1731:1 1959:1 
1 9:1 10:5 12:2 13:1 15:3 23:1 29:1 41:1 43:3 50:2 54:2 61:1 64:5 69:1 71:1 84:1 87:3 110:1 112:1 156:1 163:1 200:1 209:1 212:1 253:3 271:2 292:1 350:1 423:1 424:1 433:1 587:3 659:1 857:1 892:1 1079:1 1101:5 1170:1 1486:1 1503:1 1563:1 1911:1 
1 7:3 8:4 9:1 10:1 15:1 22:1 23:1 30:2 64:1 70:2 75:1 79:2 105:2 106:2 177:1 183:1 220:1 223:1 225:1 238:4 251:1 314:1 392:2 587:1 821:1 868:1 915:1 1047:1 1101:1 1164:2 1328:1 1416:2 1843:1 1846:2 
1 1:10 2:10 7:4 10:1 13:3 15:3 21:10 23:1 33:2 39:2 41:1 44:2 56:1 64:1 70:1 140:1 150:1 156:3 157:1 226:1 234:1 284:1 375:2 424:1 459:1 506:1 527:2 554:1 580:1 587:3 722:1 727:1 785:1 928:1 1101:1 1102:2 1164:1 1247:1 1287:2 1440:1 1486:3 1775:1 1811:1 
1 5:1 9:4 10:4 13:2 41:1 43:1 44:1 47:1 61:2 64:4 69:1 78:1 87:1 146:1 156:2 168:1 240:1 246:1 250:1 356:1 395:2 424:1 560:1 616:1 736:1 814:1 1101:4 1102:1 1385:1 1425:1 1486:2 1768:1 
1 7:1 9:2 10:2 13:3 15:1 22:1 23:1 29:1 30:1 42:1 48:1 49:1 57:1 64:2 68:1 69:1 79:1 117:1 140:1 145:1 156:3 197:1 241:1 251:1 252:1 268:1 292:1 348:1 441:1 551:1 587:1 619:1 738:1 742:1 775:1 1101:2 1119:1 1486:3 1592:1 1731:1 1775:1 1810:1 
1 4:1 5:1 7:3 8:3 13:4 22:1 23:1 47:3 55:1 63:1 69:1 91:1 111:1 132:1 136:1 156:4 225:1 237:2 238:3 239:1 251:1 283:1 331:1 444:1 510:1 527:1 639:1 643:1 774:1 868:1 1123:1 1127:1 1284:1 1486:4 1533:1 1538:1 1804:1 
1 7:1 9:1 10:2 12:3 18:1 22:1 31:1 41:2 44:2 46:2 54:3 60:1 64:2 69:1 71:1 78:1 85:2 116:1 149:1 162:1 166:1 199:1 240:1 251:1 260:2 264:2 269:2 300:1 323:1 332:3 334:1 386:2 424:2 659:1 759:1 857:1 881:1 985:1 1053:1 1101:2 1102:2 1336:2 1380:1 1504:1 1971:1 
1 7:2 9:1 10:1 13:2 22:1 28:1 29:1 30:3 44:1 50:1 56:1 57:1 64:1 69:1 79:3 99:1 105:1 122:1 133:1 156:2 157:1 163:1 197:1 205:1 223:1 229:2 230:1 241:1 251:1 271:1 292:1 493:1 594:1 619:1 810:1 904:1 963:1 1101:1 1102:1 1486:2 1649:2 1651:1 1703:1 1719:1 1729:1 1991:1 
1 7:6 8:1 9:1 10:1 13:2 18:1 22:1 23:3 31:1 42:2 64:1 65:1 66:1 70:1 156:2 161:1 191:1 199:1 228:1 238:1 251:1 290:2 315:1 358:1 370:1 433:1 487:1 644:1 742:2 881:1 1101:1 1164:1 1288:1 1472:1 1486:2 1501:1 
1 7:1 8:1 9:1 10:1 15:2 29:2 31:2 49:1 51:1 56:1 58:1 62:1 64:1 66:1 69:1 75:1 100:1 105:1 122:1 126:1 129:1 148:2 149:1 157:1 160:1 178:1 199:2 232:1 237:1 238:1 265:1 292:2 370:1 517:1 587:2 739:1 853:1 871:1 1006:1 1051:1 1101:1 1573:2 1651:1 1731:1 1843:1 1959:1 1971:1 
1 7:3 10:3 12:3 13:3 15:1 30:1 41:1 44:1 46:1 48:1 54:3 60:1 64:3 77:1 79:1 91:1 156:3 163:2 182:1 230:1 300:1 328:1 386:1 424:1 493:1 587:1 606:2 639:1 744:1 752:1 853:1 935:1 1101:3 1102:1 1443:1 1486:3 1592:1 1703:1 
1 7:1 9:1 13:5 15:2 42:3 44:3 61:3 62:1 69:4 71:1 72:1 84:1 156:5 236:1 269:1 492:1 504:1 587:2 642:1 659:1 695:1 742:3 1079:1 1102:3 1156:1 1319:1 1321:1 1325:1 1369:1 1401:1 1486:5 1667:1 1709:1 1856:1 
1 7:3 9:1 10:1 15:3 22:1 23:1 29:1 30:2 31:1 46:1 48:1 61:1 64:1 79:2 82:2 99:1 114:1 151:1 199:1 216:1 251:1 292:1 386:1 410:1 500:2 587:3 987:1 1101:1 1374:1 1592:1 1682:1 1719:1 1841:1 1874:1 
1 7:1 8:1 9:2 13:1 15:1 22:1 23:1 30:1 31:1 33:1 47:3 56:1 69:1 79:1 83:1 111:1 156:1 157:1 173:1 179:1 199:1 200:1 207:2 220:1 227:2 235:1 236:1 238:1 251:1 282:1 363:2 375:1 432:1 500:1 529:1 587:1 606:2 887:1 1133:1 1321:1 1486:1 1741:1 1804:1 1911:1 
1 7:1 8:1 10:4 13:1 15:1 18:1 33:1 42:1 47:1 48:1 64:4 68:1 69:1 72:1 92:1 156:1 202:1 220:1 237:2 238:1 257:1 331:1 375:1 379:1 397:1 587:1 601:1 675:1 742:1 849:1 881:1 911:1 1101:4 1272:1 1290:1 1486:1 1519:1 1592:1 1709:1 
1 7:4 10:3 15:2 23:1 28:1 42:1 46:1 47:1 48:2 58:2 59:1 64:3 69:2 71:1 105:1 134:1 209:1 241:1 318:1 327:1 354:2 386:1 520:1 534:1 587:2 619:1 659:1 742:1 810:1 1101:3 1211:1 1592:2 1616:1 
1 7:1 8:1 10:1 12:1 13:2 15:1 29:1 31:1 39:2 47:2 54:1 64:1 69:1 77:2 88:1 101:1 110:1 119:1 123:1 156:2 169:1 182:2 188:1 199:1 231:1 238:1 274:1 292:1 404:1 447:1 587:1 644:1 650:1 790:1 853:1 903:1 1101:1 1170:1 1287:2 1486:2 
1 7:2 9:1 10:3 13:3 15:1 22:2 30:1 47:1 48:1 64:3 65:1 68:1 71:1 72:1 79:1 107:1 117:1 138:1 156:3 168:1 227:1 230:1 236:1 243:1 251:2 487:1 587:1 659:1 739:1 840:1 1101:3 1119:1 1321:1 1486:3 1592:1 1595:1 1703:1 1709:1 1996:1 
1 7:3 8:1 10:1 13:1 23:1 33:3 39:2 41:1 56:3 57:1 59:1 63:1 64:1 69:1 91:1 92:1 101:1 105:1 122:1 129:1 136:1 140:1 143:1 156:1 157:3 197:1 238:1 241:2 375:3 424:1 447:1 520:1 619:2 639:1 748:1 818:1 849:1 1101:1 1110:1 1287:2 1405:1 1464:1 1486:1 1616:1 1651:1 1775:1 1906:1 1959:1 
1 7:2 8:2 9:2 10:2 13:1 15:1 18:1 33:1 46:2 47:1 64:2 69:1 82:1 105:1 126:1 144:1 156:1 184:1 238:2 375:1 386:2 587:1 637:1 798:1 881:1 1046:1 1101:2 1443:1 1486:1 
1 7:1 9:2 10:3 13:1 14:1 15:3 18:2 22:1 30:1 31:1 39:1 44:2 47:1 51:2 56:2 59:2 64:3 69:2 79:1 107:1 116:1 122:2 156:1 157:2 178:2 199:1 200:2 230:2 235:1 251:1 334:1 374:2 478:1 512:1 520:2 587:3 591:1 811:1 881:2 968:1 1101:3 1102:2 1287:1 1463:2 1486:1 1616:2 1651:2 1703:2 1911:2 
1 7:2 13:2 15:2 22:1 33:1 42:1 43:1 62:2 69:1 87:1 91:2 92:1 126:1 150:1 156:2 251:1 263:1 375:1 416:3 441:1 587:2 639:2 711:2 742:1 849:1 1097:1 1436:1 1481:1 1486:2 
1 9:2 10:1 13:4 15:1 22:1 29:1 30:2 33:1 39:1 44:1 47:1 58:2 64:1 69:1 78:1 79:2 90:1 105:1 114:1 142:1 145:2 156:4 192:1 193:2 229:1 240:1 251:1 252:2 275:1 292:1 375:1 395:1 587:1 615:1 1051:1 1101:1 1102:1 1115:1 1287:1 1391:1 1486:4 1649:1 1837:1 
1 7:1 9:1 13:1 23:1 31:1 42:1 44:1 49:1 55:1 56:3 69:1 98:1 99:1 116:1 156:1 157:3 199:1 249:1 334:1 339:1 385:1 455:1 549:1 711:1 742:1 1102:1 1105:1 1126:1 1295:1 1486:1 1538:1 1719:1 1731:1 
1 7:2 10:2 15:1 16:2 23:2 30:2 46:1 47:1 58:2 64:2 69:1 79:2 85:1 88:1 123:1 126:2 183:1 264:1 274:1 318:1 386:1 392:2 397:1 436:1 473:1 587:1 678:1 979:1 1101:2 1328:1 1650:1 1851:1 
1 4:1 5:1 7:1 10:1 12:1 13:2 18:3 31:2 39:1 41:1 44:1 46:1 49:1 50:1 54:1 62:1 64:1 69:2 71:1 76:1 88:1 107:1 144:1 156:2 167:1 184:1 189:1 199:2 222:1 266:1 271:1 272:1 274:1 285:1 290:1 322:1 386:1 424:1 427:1 532:1 551:1 659:1 881:3 906:1 1101:1 1102:1 1287:1 1461:1 1486:2 1584:1 1645:1 1731:1 
1 7:1 9:2 10:1 13:1 15:2 41:1 43:2 46:1 47:1 50:1 64:1 65:1 69:1 87:2 93:1 156:1 271:1 386:1 395:1 424:1 433:1 462:1 487:1 587:2 614:1 711:1 731:1 915:1 1075:1 1101:1 1486:1 
1 8:3 10:2 13:2 22:1 23:1 29:2 30:1 41:1 44:1 59:1 64:2 69:2 79:1 134:1 143:1 156:2 169:1 193:1 216:1 238:3 244:1 247:1 251:1 269:2 290:1 292:2 312:1 364:1 424:1 426:1 520:1 669:2 1101:2 1102:1 1127:1 1151:1 1191:1 1221:1 1464:1 1486:2 1616:1 1637:1 
1 7:2 8:1 9:4 12:3 13:1 18:1 23:1 30:1 31:1 33:1 42:1 47:2 51:1 54:3 56:2 57:1 59:1 66:1 69:1 79:1 92:3 105:2 110:1 152:1 156:1 157:2 178:1 191:1 197:1 199:1 220:1 237:1 238:1 288:1 358:1 370:1 375:1 477:1 520:1 579:2 742:1 849:3 881:1 1170:1 1290:1 1486:1 1616:1 1813:1 
1 7:1 8:1 9:3 10:4 13:1 23:1 31:1 49:1 59:1 60:1 64:4 69:1 72:1 122:1 128:1 155:1 156:1 163:1 199:1 206:1 238:1 300:1 310:1 335:1 419:1 431:1 520:1 527:1 560:1 627:1 650:1 772:1 1026:1 1101:4 1486:1 1616:1 1651:1 1709:1 1731:1 
1 15:1 22:3 31:1 42:1 50:4 56:1 69:1 85:1 90:4 96:1 98:1 122:5 154:1 157:1 162:1 175:1 199:1 207:1 230:2 251:3 264:1 271:4 312:2 315:1 587:1 664:2 742:1 836:2 866:1 1151:2 1274:1 1651:5 1703:2 
1 7:2 13:1 23:1 31:1 39:1 42:1 46:1 49:1 69:1 72:1 83:1 85:1 105:1 114:1 129:1 142:1 151:1 156:1 160:1 199:1 239:1 255:1 264:1 285:1 338:2 386:1 517:1 615:1 742:1 775:1 952:1 987:1 1060:1 1110:1 1133:1 1287:1 1486:1 1709:1 1731:1 1959:1 
1 9:3 10:1 13:2 23:3 30:2 31:3 33:1 42:1 62:1 64:1 68:1 69:1 78:1 79:2 82:1 85:2 122:1 130:1 138:1 140:1 156:2 169:1 199:3 240:1 264:2 375:1 403:1 742:1 1101:1 1456:1 1486:2 1506:1 1651:1 1775:1 1791:1 1996:1 
1 7:2 10:1 13:3 15:1 22:1 23:3 46:1 49:1 57:2 59:1 64:1 66:1 69:1 72:1 84:1 85:1 88:1 96:1 106:1 118:1 129:2 140:1 143:2 156:3 197:2 214:1 234:1 244:1 251:1 264:1 274:1 281:1 298:1 328:1 385:1 386:1 520:1 587:1 1079:1 1101:1 1110:1 1142:1 1464:2 1486:3 1616:1 1709:1 1731:1 1775:1 1832:1 1846:1 1959:2 
1 7:3 8:1 9:1 15:1 18:1 22:1 23:2 42:1 47:1 60:1 63:3 85:1 136:3 234:1 238:1 251:1 264:1 300:1 422:1 587:1 742:1 764:1 881:1 933:1 
1 7:1 9:1 13:2 15:2 42:1 43:1 56:1 57:2 66:1 69:1 87:1 91:1 96:1 111:1 122:1 146:1 148:1 149:2 156:2 157:1 197:2 261:1 284:1 290:2 355:1 587:2 639:1 742:1 1385:1 1440:1 1486:2 1573:1 1651:1 1804:1 1810:1 1971:2 
1 7:2 8:3 10:1 13:1 23:1 42:1 43:1 44:1 46:1 47:1 49:2 51:1 55:1 64:1 65:1 69:2 72:1 84:1 87:1 96:1 98:1 116:1 140:1 156:1 173:1 178:1 187:1 225:1 227:1 237:1 238:3 287:1 294:1 334:1 386:1 451:1 487:1 642:1 656:1 742:1 767:1 801:1 868:1 887:1 1079:1 1101:1 1102:1 1349:1 1458:1 1460:1 1486:1 1538:1 1709:1 1731:2 1775:1 
1 9:2 13:1 15:1 18:1 31:2 39:1 44:2 47:1 57:1 63:1 66:1 69:2 91:1 107:1 118:1 119:1 136:1 142:1 156:1 164:1 177:1 197:1 199:2 209:1 220:1 255:1 273:1 298:1 308:1 392:1 540:1 587:1 611:1 615:1 639:1 691:1 821:1 881:1 1060:1 1102:2 1287:1 1486:1 1721:1 
1 7:3 9:2 10:3 13:2 15:1 29:1 30:1 33:1 47:1 50:2 55:1 61:1 64:3 71:1 79:1 80:1 82:1 100:1 101:1 104:1 106:1 140:1 149:1 155:1 156:2 223:1 262:1 269:1 271:2 281:1 292:1 339:1 351:1 375:1 431:1 447:1 587:1 606:2 659:1 871:1 1101:3 1486:2 1538:1 1775:1 1846:1 1971:1 
1 7:1 8:2 9:2 16:2 22:1 31:1 41:1 42:2 58:1 62:1 63:1 69:1 88:1 115:1 122:1 126:1 136:1 199:1 219:1 220:1 229:2 238:2 251:1 274:1 275:1 307:1 424:1 742:2 1489:1 1649:2 1651:1 
1 7:4 8:1 9:1 10:2 15:1 23:1 31:1 39:1 43:1 50:2 63:1 64:2 69:1 87:1 126:1 134:1 136:1 149:1 152:1 199:1 238:1 271:2 285:1 288:1 321:1 441:1 512:1 587:1 736:1 1068:1 1081:1 1084:1 1101:2 1249:1 1287:1 1528:1 1971:1 1980:1 
1 4:4 7:6 33:4 57:1 73:6 123:2 150:1 197:1 205:1 231:1 324:2 338:2 375:4 398:1 462:1 475:1 531:1 727:1 1018:3 1019:3 1056:1 1258:3 1304:1 
1 8:1 10:1 15:1 18:2 22:1 23:2 30:1 31:2 43:1 44:1 47:1 51:1 58:1 64:1 68:1 69:1 79:1 83:1 85:1 87:1 134:1 160:1 178:1 199:2 202:1 238:1 246:1 251:1 255:1 256:1 264:1 368:1 392:1 412:2 523:1 587:1 601:1 881:2 990:1 1060:1 1101:1 1102:1 1133:1 1701:1 1803:1 
1 7:1 9:2 16:1 22:1 30:1 33:1 39:1 43:1 58:1 59:1 66:1 74:1 79:1 87:1 91:1 93:1 119:1 148:1 151:1 155:1 214:1 229:1 251:1 286:1 375:1 431:1 520:1 614:1 639:1 869:1 987:1 1016:1 1287:1 1520:1 1573:1 1616:1 1649:1 1759:1 
1 7:1 9:3 13:2 30:1 48:1 50:1 55:1 57:1 58:1 66:1 72:1 79:1 156:2 168:1 170:1 197:1 198:1 203:1 252:1 271:1 312:1 371:1 428:1 492:1 493:1 527:1 706:1 785:1 1151:1 1317:1 1486:2 1538:1 1592:1 1623:1 1709:1 
1 7:2 8:1 9:4 10:1 13:1 15:2 23:2 30:2 31:2 33:1 41:1 42:1 55:1 60:3 61:1 64:1 69:2 79:2 104:1 134:1 143:1 146:1 156:1 173:1 187:1 199:2 229:1 238:1 300:3 351:1 375:1 424:1 441:1 519:1 587:2 742:1 887:1 1064:1 1101:1 1343:1 1385:1 1413:1 1464:1 1486:1 1538:1 1649:1 
1 7:2 8:3 15:4 30:1 46:1 48:1 55:1 61:3 79:1 83:1 96:1 105:3 230:1 238:3 307:1 315:1 328:1 339:1 386:1 429:4 580:1 587:4 1133:1 1207:1 1319:1 1446:1 1538:1 1592:1 1703:1 1865:1 
1 7:1 8:1 10:2 13:3 22:2 23:1 28:1 30:1 39:2 41:1 42:1 46:1 57:1 64:2 69:1 75:1 79:1 93:1 156:3 179:1 197:1 216:1 238:1 251:2 290:1 386:1 422:1 424:1 441:1 614:1 742:1 1101:2 1287:2 1360:1 1486:3 1669:1 1741:1 1843:1 
1 7:3 9:3 10:4 13:1 15:1 16:1 18:1 22:1 23:1 28:1 29:1 46:1 50:2 62:1 64:4 68:1 72:1 83:1 93:1 146:1 156:1 175:1 196:1 251:1 271:2 288:1 292:1 305:1 328:1 386:1 587:1 614:1 881:1 1101:4 1133:1 1268:1 1380:1 1385:1 1428:1 1438:1 1486:1 1709:1 1883:1 
1 7:6 8:1 10:1 13:1 15:2 18:2 23:1 30:2 47:1 57:1 64:1 65:1 71:1 79:2 114:2 142:1 156:1 197:1 229:1 230:1 238:1 327:1 478:1 487:1 523:1 587:2 615:1 659:1 800:1 881:2 963:2 1101:1 1244:1 1360:1 1388:1 1415:1 1486:1 1516:1 1649:1 1703:1 
1 10:3 13:1 15:2 18:2 30:1 33:1 43:1 64:3 66:1 69:1 78:1 79:1 87:1 90:1 96:1 105:1 112:1 133:1 154:1 156:1 163:1 240:1 285:1 312:1 321:1 375:1 451:1 587:2 741:1 881:2 1019:1 1101:3 1151:1 1158:2 1486:1 1747:1 
1 7:1 9:1 10:5 12:2 13:1 18:1 33:1 41:1 42:1 46:2 54:2 58:1 64:5 69:1 74:1 76:1 105:1 138:1 143:1 156:1 186:1 230:1 280:1 288:1 318:1 375:1 386:2 424:1 427:1 504:1 632:1 742:1 881:1 1101:5 1121:1 1464:1 1486:1 1626:1 1703:1 1759:1 1978:1 1996:1 
1 7:2 8:1 13:2 22:1 86:1 156:2 238:1 251:1 603:1 922:1 982:1 1256:1 1295:1 1486:2 1555:1 1650:1 
1 7:1 8:1 13:1 18:1 23:2 29:2 30:1 33:1 50:5 51:2 59:1 66:1 69:1 74:2 79:1 122:1 128:1 156:1 170:1 178:2 190:1 225:1 238:1 270:1 271:5 292:2 375:1 520:1 549:1 581:1 606:2 868:1 881:1 936:1 1428:1 1486:1 1589:1 1616:1 1623:1 1651:1 1759:2 
1 7:3 8:1 12:3 13:2 15:3 22:2 31:1 41:2 42:1 44:1 46:1 47:1 49:1 54:3 61:1 68:1 69:1 75:1 78:1 83:1 92:1 126:1 140:1 143:1 156:2 199:1 225:1 238:1 240:1 251:2 276:1 287:1 327:1 378:1 386:1 397:1 418:1 424:2 587:3 708:1 742:1 849:1 862:1 868:1 1055:1 1102:1 1133:1 1464:1 1486:2 1731:1 1775:1 1843:1 
1 7:2 8:1 9:3 10:1 13:2 23:2 42:1 47:2 51:1 64:1 69:1 92:1 129:2 156:2 169:1 178:1 183:1 186:1 227:1 238:1 288:1 360:1 392:1 742:1 849:1 1101:1 1105:1 1328:1 1414:1 1486:2 1959:2 
1 7:2 8:2 9:1 15:1 18:1 23:1 43:1 44:1 46:1 69:1 70:1 87:1 91:1 92:1 114:1 128:1 159:1 161:2 192:1 224:1 238:2 256:1 386:1 587:1 639:1 678:1 792:1 842:1 849:1 881:1 1102:1 1115:1 1164:1 1638:1 1810:2 
1 7:3 10:1 13:2 22:1 23:1 31:1 33:1 39:1 48:1 49:2 57:1 64:1 66:1 101:1 107:1 143:1 156:2 180:1 197:1 199:1 251:1 262:1 287:1 331:1 375:1 447:1 516:1 560:1 982:1 1101:1 1287:1 1464:1 1476:2 1486:2 1592:1 1731:2 1881:1 
1 7:4 10:2 13:3 15:2 23:1 30:3 41:1 47:1 48:1 60:1 64:2 67:1 77:1 79:3 110:1 134:1 156:3 173:1 182:1 188:1 191:2 300:1 358:2 424:1 511:2 532:1 587:2 611:1 751:1 775:1 887:1 978:1 1022:1 1101:2 1170:1 1486:3 1592:1 
1 7:5 10:3 13:1 15:1 22:1 23:2 29:1 30:4 31:1 41:1 46:1 47:1 51:1 56:1 64:3 66:1 69:1 79:4 83:1 98:1 122:1 126:2 156:1 157:1 166:1 178:1 185:1 199:1 202:1 251:1 292:1 318:1 327:1 386:1 424:1 441:1 587:1 598:1 601:1 648:1 892:1 1101:3 1129:1 1133:1 1254:1 1486:1 1651:1 
1 1:1 2:1 7:1 9:2 10:3 21:1 28:1 33:1 46:2 51:1 64:3 66:1 84:2 117:1 140:1 178:1 375:1 386:2 722:1 736:1 892:1 1079:2 1101:3 1119:1 1674:1 1775:1 
1 7:3 13:1 15:1 18:1 31:1 44:1 49:1 59:3 63:1 69:1 76:1 83:1 84:1 85:1 114:1 122:2 136:1 154:1 156:1 193:1 199:1 239:1 253:1 264:1 414:1 425:1 427:1 520:3 561:1 587:1 591:1 881:1 1079:1 1102:1 1133:1 1319:1 1403:1 1470:1 1486:1 1616:3 1651:2 1731:1 1882:1 
0.7021207542788233 7:1 10:2 13:1 18:3 23:3 30:1 31:2 33:1 41:1 47:1 50:1 58:3 64:2 69:2 76:1 79:1 139:1 156:1 199:2 200:1 232:1 266:1 271:1 318:2 375:1 424:1 427:1 554:1 617:1 711:2 881:3 1101:2 1377:1 1486:1 1605:1 1911:1 
1 7:2 8:2 9:1 13:1 15:1 18:3 22:1 23:3 29:1 31:1 41:1 47:1 63:1 69:1 76:2 89:1 91:1 100:1 111:1 116:1 129:1 136:1 156:1 160:1 199:1 224:1 238:2 251:1 266:1 292:1 302:1 311:2 319:1 334:1 424:1 427:2 578:1 587:1 593:1 598:1 639:1 781:1 871:1 881:3 989:1 1486:1 1804:1 1959:1 
1 7:2 9:2 12:1 13:5 18:1 22:1 23:3 28:1 30:1 54:1 57:1 79:1 122:1 126:1 144:1 156:5 184:1 197:1 251:1 425:1 493:1 757:1 881:1 1486:5 1585:1 1651:1 
1 7:1 8:3 9:5 13:1 15:2 23:1 62:1 63:1 69:1 78:3 91:2 104:2 122:2 136:1 156:1 175:1 193:1 238:3 240:3 351:2 373:1 587:2 631:1 639:2 913:1 985:1 1486:1 1651:2 1794:1 1853:1 
1 10:2 13:2 23:2 43:1 58:1 64:2 66:1 68:1 69:4 87:1 101:1 110:1 126:1 140:1 143:1 156:2 168:2 188:1 216:1 275:1 314:1 343:1 447:1 509:1 513:1 734:1 1101:2 1128:1 1170:1 1222:1 1346:1 1464:1 1486:2 1489:1 1775:1 1997:1 
1 9:4 10:1 15:1 18:1 22:2 23:1 29:2 59:2 63:2 64:1 69:1 91:1 135:1 136:2 222:1 248:1 251:2 292:2 310:1 423:1 493:2 520:2 587:1 639:1 652:1 683:1 760:1 881:1 1101:1 1616:2 1725:1 1739:1 1855:1 1906:1 1975:1 
1 8:2 13:1 15:1 23:2 29:2 43:1 44:2 49:1 61:1 69:1 87:1 88:1 98:1 100:2 102:1 116:1 138:1 156:1 160:1 173:1 183:1 191:1 223:1 230:1 238:2 274:1 292:2 333:1 334:1 340:1 358:1 363:2 368:1 470:1 529:1 532:2 550:1 587:1 871:2 887:1 990:1 1102:2 1328:1 1486:1 1566:1 1703:1 1731:1 1888:1 1996:1 
1 7:2 9:3 10:2 13:3 15:1 18:1 23:2 42:1 47:2 48:1 64:2 69:1 76:1 92:1 126:1 138:1 156:3 227:1 246:1 290:1 308:1 318:1 427:1 587:1 742:1 849:1 881:1 989:1 1101:2 1442:1 1486:3 1489:1 1592:1 1996:1 
1 7:2 8:1 10:1 13:2 15:2 23:1 30:2 39:1 42:1 56:1 64:1 66:1 69:1 71:1 79:2 105:1 132:2 149:1 152:2 156:2 157:1 238:1 239:1 288:2 403:1 441:1 464:1 523:1 587:2 659:1 742:1 1101:1 1123:2 1287:1 1410:1 1486:2 1791:1 1803:1 1971:1 
1 9:2 10:2 13:1 18:1 22:3 59:2 64:2 90:2 156:1 251:3 434:1 520:2 881:1 1101:2 1486:1 1616:2 1958:1 
1 7:1 10:1 12:3 15:1 31:1 33:2 39:1 44:1 46:1 47:1 49:1 54:3 55:1 56:1 64:1 66:1 69:1 72:1 84:1 96:1 143:1 154:1 157:1 160:1 194:1 199:1 207:1 278:1 327:1 339:1 375:2 386:1 416:1 443:1 587:1 913:1 1079:1 1101:1 1102:1 1287:1 1464:1 1538:1 1709:1 1731:1 1918:1 
1 7:1 9:2 10:7 13:1 14:1 18:1 22:1 29:1 39:2 41:1 49:1 56:1 63:3 64:7 69:1 70:1 136:3 156:1 157:1 251:1 292:1 333:1 353:1 423:1 424:1 547:1 680:1 881:1 1046:1 1101:7 1113:1 1164:1 1287:2 1486:1 1664:1 1731:1 1888:1 
1 8:1 10:1 12:2 13:1 15:1 22:1 29:2 31:1 33:1 42:1 43:1 50:2 54:2 56:1 62:1 64:1 69:1 71:3 74:1 85:1 87:1 88:1 105:1 154:1 156:1 157:1 165:1 199:1 214:1 230:1 238:1 251:1 264:1 271:2 274:1 292:2 332:1 375:1 395:1 437:1 483:1 534:1 587:1 659:3 663:1 742:1 805:1 1101:1 1236:1 1486:1 1513:1 1703:1 1759:1 
1 7:1 8:2 9:2 10:2 23:1 33:1 42:2 46:1 47:1 51:1 55:2 57:1 63:2 64:2 65:1 69:1 75:1 107:1 114:1 130:1 136:2 178:1 179:1 185:1 197:1 226:1 232:1 238:2 284:1 375:1 386:1 442:1 487:1 594:1 742:2 1101:2 1109:2 1325:1 1440:1 1456:1 1468:1 1538:2 1741:1 1843:1 1904:1 1991:1 
1 41:1 50:4 51:1 55:1 69:1 170:1 178:1 187:1 207:1 230:2 271:4 424:1 1538:1 1599:1 1623:1 1646:1 1703:2 1756:1 1836:1 
1 10:1 15:2 22:1 23:2 43:2 47:1 56:1 61:1 64:1 68:2 69:1 87:2 88:3 118:2 146:2 157:1 201:2 207:1 251:1 274:3 298:2 308:1 315:1 327:1 383:1 474:1 587:2 650:1 1101:1 1208:1 1323:1 1385:2 1989:2 
1 7:3 8:1 9:2 13:2 15:2 28:1 39:1 49:1 72:1 85:1 101:1 114:1 156:2 173:1 200:1 229:1 235:1 237:1 238:1 250:1 264:1 307:1 327:1 332:1 355:1 363:1 397:1 447:1 491:1 499:1 500:1 587:2 735:1 805:1 867:1 887:1 1287:1 1486:2 1649:1 1709:1 1731:1 1911:1 
1 7:2 8:3 9:1 13:3 23:2 30:3 33:1 49:1 51:1 56:1 57:2 59:1 69:1 79:3 107:1 122:1 126:1 129:1 144:1 156:3 157:1 177:1 178:1 184:1 185:1 197:2 238:3 242:1 289:1 375:1 441:1 510:1 520:1 590:1 741:1 821:1 1004:1 1006:1 1486:3 1616:1 1651:1 1731:1 1734:1 1959:1 
1 8:1 9:3 10:3 13:1 15:2 23:3 29:2 31:1 47:1 51:1 57:1 64:3 69:2 75:1 88:2 114:1 126:1 135:1 143:1 156:1 178:1 197:1 199:1 238:1 274:2 292:2 315:1 350:1 390:1 441:1 476:1 482:1 587:2 848:1 857:1 859:1 1101:3 1464:1 1486:1 1725:1 1843:1 
1 7:2 9:3 10:4 12:3 13:1 15:1 22:2 29:2 30:2 31:1 33:1 42:1 48:2 54:3 64:4 69:1 71:2 79:2 84:1 92:1 129:1 138:1 155:1 156:1 168:1 194:1 199:1 214:1 251:2 292:2 299:1 375:1 431:1 465:1 476:1 579:1 587:1 659:2 742:1 849:1 894:1 1079:1 1101:4 1325:1 1486:1 1522:1 1592:2 1798:1 1837:1 1918:1 1959:1 1996:1 
1 7:5 8:1 9:1 10:1 13:1 29:1 59:7 64:1 66:1 69:1 83:2 99:1 120:1 130:1 156:1 170:1 238:1 250:3 287:1 292:1 327:1 409:1 520:7 722:1 805:7 857:1 898:1 1003:1 1064:1 1101:1 1133:2 1412:1 1456:1 1486:1 1616:7 1623:1 1667:2 1719:1 
1 4:1 5:1 8:1 9:6 10:1 13:1 15:4 18:1 22:1 43:2 44:1 60:1 61:1 63:1 64:1 69:2 70:1 75:1 76:1 87:2 93:1 116:1 136:1 146:1 156:1 161:1 186:1 207:1 230:1 238:1 251:1 293:1 300:1 301:1 312:1 334:1 427:1 587:4 606:1 614:1 691:1 881:1 911:1 1101:1 1102:1 1151:1 1164:1 1325:1 1385:1 1486:1 1703:1 1843:1 
1 7:1 8:1 12:3 29:1 30:1 33:3 41:3 44:1 47:1 50:1 51:1 54:3 57:1 61:1 63:2 65:1 79:1 90:1 91:1 92:1 102:1 105:1 111:1 129:1 136:2 139:1 142:1 143:1 178:1 197:1 223:1 234:2 238:1 265:1 266:1 271:1 284:1 292:1 355:1 375:3 424:3 453:2 487:1 615:1 639:1 672:1 849:1 862:1 1102:1 1255:1 1274:1 1440:1 1464:1 1566:1 1707:1 1804:1 1959:1 
1 7:4 9:1 10:3 12:1 13:1 15:1 18:1 22:1 30:1 31:1 42:1 43:2 46:1 48:1 54:1 59:1 62:1 64:3 65:1 69:1 70:1 71:1 79:1 87:2 106:1 117:1 118:1 156:1 161:1 163:2 190:1 199:1 251:1 287:1 293:1 298:1 381:1 386:1 412:1 487:1 501:1 520:1 587:1 659:1 742:1 832:1 881:1 898:2 929:1 1101:3 1119:1 1164:1 1238:1 1484:1 1486:1 1589:1 1592:1 1616:1 1846:1 
1 7:1 9:6 13:4 22:2 33:1 51:1 58:1 62:1 69:1 76:1 117:1 138:1 145:1 156:4 177:1 178:1 196:1 251:2 310:1 375:1 427:1 434:1 441:1 557:1 643:1 821:1 861:1 926:1 1035:1 1119:1 1438:1 1446:1 1486:4 1567:1 1996:1 
1 8:2 9:2 10:3 12:1 13:4 22:1 31:1 39:1 54:1 58:1 62:1 64:3 69:1 77:1 83:1 133:1 156:4 182:1 186:1 199:1 238:2 251:1 439:1 441:1 528:1 668:1 722:1 763:1 785:1 802:1 1003:1 1101:3 1133:1 1152:1 1285:1 1287:1 1290:1 1319:1 1426:1 1486:4 
1 10:3 13:2 22:1 23:3 44:3 46:1 50:2 51:1 59:1 64:3 69:1 72:2 74:1 88:1 92:2 101:1 104:2 154:1 156:2 163:1 178:1 185:1 186:1 200:1 230:1 251:1 259:1 271:2 274:1 315:1 351:2 386:1 447:1 520:1 660:1 849:2 857:1 926:1 1101:3 1102:3 1486:2 1567:2 1616:1 1703:1 1709:2 1759:1 1911:1 
1 7:5 9:3 13:1 33:1 41:2 42:1 46:1 58:1 69:1 73:5 110:1 150:2 154:1 156:1 186:1 196:1 205:1 275:2 375:1 386:1 392:1 395:1 424:2 458:1 742:1 1126:1 1170:1 1438:1 1486:1 1492:1 
1 9:4 10:1 13:3 14:2 15:5 18:1 29:1 33:1 44:2 59:3 60:1 61:1 64:1 69:1 156:3 292:1 300:1 374:1 375:1 520:3 522:1 587:5 881:1 1101:1 1102:2 1159:1 1300:1 1486:3 1616:3 1956:1 
1 7:3 9:2 10:1 13:1 15:2 18:3 31:3 33:2 39:1 44:2 51:1 57:1 64:1 71:1 72:1 130:1 156:1 178:1 197:1 199:3 312:1 345:1 375:2 500:1 587:2 637:1 659:1 813:1 881:3 1101:1 1102:2 1151:1 1281:1 1287:1 1456:1 1469:1 1486:1 1709:1 1870:1 
1 7:2 9:8 10:1 15:1 16:5 22:1 30:1 31:1 33:2 42:1 51:1 62:2 64:1 73:1 78:1 79:1 111:2 134:1 162:1 178:1 199:1 229:2 240:1 251:1 290:1 375:2 451:1 456:1 587:1 606:1 642:1 742:1 913:1 982:1 1082:1 1101:1 1208:1 1246:1 1649:2 1804:2 
1 7:1 8:2 9:2 18:1 23:1 42:1 44:1 46:2 56:1 59:1 69:1 82:2 85:1 99:1 105:1 126:1 132:1 143:1 157:1 180:1 193:1 238:2 264:1 386:2 412:2 472:1 486:1 520:1 742:1 881:1 1102:1 1123:1 1446:2 1464:1 1616:1 1706:1 1719:1 
1 7:5 8:1 10:4 12:2 13:1 23:1 31:1 33:1 41:1 42:1 43:3 46:1 50:2 54:2 64:4 69:1 70:1 85:1 87:3 90:1 115:1 117:1 156:1 170:1 199:1 237:1 238:1 264:1 271:2 318:1 375:1 386:1 401:1 424:1 501:1 507:1 742:1 1101:4 1119:1 1164:1 1196:1 1408:1 1446:1 1486:1 1623:1 1726:1 
1 1:8 2:5 3:5 4:1 5:5 6:4 7:3 8:5 9:3 10:3 11:2 13:3 14:1 15:3 18:1 22:1 26:2 28:2 31:1 33:1 34:1 40:2 46:1 49:1 60:1 64:3 84:1 96:1 130:1 156:3 199:1 222:1 224:1 230:1 237:1 238:5 239:1 251:1 258:2 300:1 303:1 304:1 318:1 346:1 375:1 386:1 389:1 392:1 420:1 421:2 435:1 438:1 464:1 497:1 502:1 521:1 587:3 617:1 642:1 733:1 881:1 1036:1 1079:1 1101:3 1456:1 1486:3 1613:1 1703:1 1731:1 1800:1 
1 7:4 9:4 10:3 13:2 18:1 22:2 23:2 29:1 31:1 33:7 41:1 44:1 56:1 60:1 62:1 64:3 68:1 69:1 93:1 99:1 129:1 130:1 156:2 157:1 199:1 251:2 266:1 292:1 300:1 341:1 375:7 424:1 614:1 670:1 792:1 881:1 1101:3 1102:1 1318:1 1456:1 1486:2 1506:1 1681:1 1719:1 1959:1 
1 7:1 8:1 9:2 10:1 13:2 15:1 29:1 33:1 41:1 64:1 69:1 74:1 85:1 107:1 110:1 119:1 140:1 156:2 170:1 180:2 188:1 206:1 217:1 234:1 237:2 238:1 264:1 279:1 292:1 375:1 395:1 424:1 577:1 587:1 793:1 1101:1 1113:1 1170:1 1486:2 1623:1 1759:1 1775:1 
1 7:2 10:2 15:3 16:2 23:1 29:1 30:1 33:1 41:1 49:1 51:1 58:1 59:1 64:2 69:2 75:2 76:1 79:1 96:1 97:1 105:1 107:1 110:1 111:2 114:1 151:2 164:1 178:1 194:1 273:1 292:1 350:1 375:1 424:1 427:1 520:1 581:1 587:3 951:1 986:1 987:2 1101:2 1170:1 1319:1 1446:1 1616:1 1731:1 1804:2 1843:2 1918:1 
1 7:1 8:1 9:1 10:2 13:1 15:3 18:1 29:2 44:4 49:1 55:3 63:2 64:2 69:1 129:1 130:2 133:1 136:2 156:1 163:1 214:1 238:1 292:2 378:1 570:1 587:3 606:1 722:1 881:1 883:2 1101:2 1102:4 1456:2 1486:1 1538:3 1701:1 1731:1 1931:1 1959:1 
1 7:1 10:1 13:2 18:1 30:2 39:3 42:1 43:1 47:1 56:1 63:1 64:1 66:1 69:1 70:1 79:2 87:1 102:1 106:1 134:1 136:1 142:1 156:2 157:1 312:1 315:1 330:1 348:1 362:1 615:1 742:1 809:1 852:1 881:1 906:1 1072:1 1101:1 1151:1 1164:1 1287:3 1461:1 1486:2 1566:1 1645:1 1846:1 
1 7:1 8:1 9:3 10:1 13:1 15:2 18:1 22:1 30:2 42:1 43:1 47:1 55:1 56:2 58:1 64:1 65:1 67:1 69:2 79:2 87:1 88:1 91:1 105:1 123:1 126:1 151:1 154:1 156:1 157:2 202:1 238:1 251:1 274:1 290:1 327:1 449:1 487:1 496:1 587:2 601:1 639:1 742:1 749:1 755:1 881:1 978:1 987:1 1101:1 1181:1 1193:1 1486:1 1538:1 
1 7:2 10:2 12:2 13:5 30:1 31:1 33:1 41:1 42:1 49:1 54:2 64:2 69:1 78:1 79:1 107:2 140:1 145:1 156:5 167:1 199:1 202:2 216:1 227:1 240:1 248:1 250:1 322:1 375:1 392:1 424:1 533:1 601:2 606:1 742:1 798:1 989:1 1101:2 1486:5 1731:1 1775:1 1975:1 
1 7:3 8:2 9:5 10:1 13:2 15:3 23:3 29:1 30:3 31:1 39:1 41:2 43:2 48:1 56:1 64:1 69:1 72:1 76:1 77:1 79:3 87:2 104:1 105:1 107:1 114:1 119:1 156:2 157:1 160:1 182:1 199:1 238:2 241:1 270:1 292:1 351:1 397:1 418:1 424:2 427:1 532:1 577:1 587:3 619:1 853:1 870:1 1061:1 1101:1 1178:1 1287:1 1369:1 1486:2 1592:1 1688:1 1709:1 
1 7:2 8:1 9:1 10:1 12:1 13:2 18:1 22:1 23:1 29:1 31:1 33:1 48:1 54:1 61:1 64:1 69:1 77:1 85:1 146:1 156:2 182:1 199:1 216:1 223:1 237:1 238:1 251:1 264:1 292:1 318:1 375:1 676:1 755:1 877:1 881:1 1084:2 1101:1 1112:1 1385:1 1486:2 1592:1 
1 8:2 9:5 10:2 13:1 15:1 16:1 22:1 41:1 43:2 44:1 47:1 49:1 56:1 59:1 63:1 64:2 67:1 69:1 76:1 87:2 136:1 154:1 156:1 157:1 186:1 190:1 220:1 232:1 238:2 251:1 368:1 399:1 424:1 427:1 520:1 527:1 587:1 608:1 786:1 978:1 990:1 1077:1 1101:2 1102:1 1316:1 1486:1 1589:1 1616:1 1731:1 1984:1 
1 7:1 9:2 10:3 15:1 23:2 31:1 42:1 49:1 51:1 56:1 58:2 64:3 66:1 69:2 105:1 107:1 143:1 157:1 169:1 177:1 178:1 196:1 199:1 217:1 263:1 361:1 366:1 496:1 580:1 587:1 625:1 742:1 812:1 821:1 843:1 892:1 1101:3 1193:1 1278:1 1438:1 1464:1 1731:1 
1 7:1 8:1 9:1 10:2 15:2 18:1 23:2 44:1 46:1 60:1 63:1 64:2 69:2 72:1 84:1 98:1 111:1 136:1 238:1 242:1 300:1 355:1 364:1 368:1 370:1 386:1 406:1 429:1 587:2 606:1 672:1 881:1 990:1 1079:1 1101:2 1102:1 1354:1 1469:1 1474:2 1709:1 1804:1 
1 7:1 8:2 9:1 10:2 13:2 30:1 31:1 41:1 46:1 48:1 64:2 69:1 72:1 79:1 107:1 117:1 156:2 199:1 238:2 366:1 386:1 424:1 534:1 578:1 1065:1 1084:1 1101:2 1119:1 1278:1 1486:2 1592:1 1709:1 
1 7:4 10:2 13:1 18:2 22:1 30:1 33:1 42:1 43:1 47:1 48:1 49:1 56:1 64:2 69:1 76:1 79:1 87:1 91:1 93:1 99:1 107:2 146:1 154:1 156:1 157:1 251:1 255:2 265:1 287:1 288:1 290:1 301:1 375:1 403:1 427:1 613:1 614:1 639:1 742:1 881:2 1060:2 1084:1 1101:2 1385:1 1486:1 1570:1 1592:1 1719:1 1731:1 1791:1 
1 1:3 2:3 3:2 4:1 5:2 7:1 8:2 10:1 15:1 21:2 22:1 26:1 33:1 36:1 37:1 46:1 61:1 64:1 73:2 129:1 238:2 251:1 305:1 375:1 386:1 500:1 587:1 977:1 981:1 1101:1 1335:1 1463:1 1722:1 1959:1 
1 7:1 13:2 15:1 29:1 30:1 59:1 67:1 79:1 97:1 119:1 156:2 292:1 479:1 510:1 520:1 587:1 951:1 978:1 1486:2 1616:1 1977:1 
1 7:3 9:1 10:2 13:4 15:3 23:1 42:1 44:1 64:2 69:1 106:1 126:1 143:1 151:1 156:4 177:1 201:1 281:1 587:3 637:1 742:1 821:1 853:1 888:1 987:1 1101:2 1102:1 1393:1 1464:1 1486:4 1522:1 1846:1 1989:1 
1 7:2 9:2 10:3 13:1 15:1 18:1 41:1 48:1 64:3 68:1 69:1 70:1 71:1 96:1 105:1 106:1 112:1 126:1 156:1 196:1 247:1 261:1 424:1 509:1 513:1 587:1 659:1 881:1 892:1 1101:3 1127:1 1164:1 1222:1 1438:1 1486:1 1592:1 1846:1 
1 7:1 9:3 10:2 16:2 22:1 42:1 43:3 47:1 61:1 64:2 69:3 85:1 87:3 106:1 122:1 207:1 241:1 251:1 264:1 362:1 408:1 432:1 594:1 619:1 742:1 810:1 898:1 1101:2 1379:1 1651:1 1846:1 1991:1 
1 7:1 9:3 10:2 16:2 22:1 42:1 43:3 47:1 61:1 64:2 69:3 85:1 87:3 106:1 122:1 207:1 241:1 251:1 264:1 362:1 408:1 432:1 594:1 619:1 742:1 810:1 898:1 1101:2 1379:1 1651:1 1846:1 1991:1 
1 5:2 13:2 15:1 29:1 48:1 56:2 59:1 68:1 69:1 89:1 92:1 102:1 110:1 114:1 122:1 149:1 154:1 156:2 157:2 188:1 292:1 319:1 395:1 500:1 520:1 587:1 781:1 849:1 950:1 1170:1 1486:2 1566:1 1592:1 1616:1 1651:1 1971:1 
1 5:2 7:1 9:5 10:2 12:4 13:2 15:1 18:1 23:1 30:1 33:1 42:1 44:1 46:1 47:1 50:3 54:4 55:1 59:1 64:2 68:1 69:1 71:1 75:1 79:1 99:1 114:2 133:1 156:2 177:1 187:1 214:1 223:1 271:3 327:1 375:1 386:1 412:1 520:1 587:1 637:1 659:1 742:1 821:1 881:1 923:1 1101:2 1102:1 1486:2 1538:1 1616:1 1617:1 1719:1 1843:1 1893:1 
0.2019852938373535 7:2 9:1 13:3 15:1 22:1 23:1 30:1 69:4 71:1 79:1 107:1 119:1 128:1 156:3 173:1 230:2 251:1 260:1 282:1 340:1 587:1 606:1 612:1 659:1 788:1 812:1 887:1 1182:1 1336:1 1486:3 1586:1 1703:2 1711:1 
1 7:1 9:1 13:4 33:1 39:1 43:1 44:2 56:1 58:1 69:1 71:1 74:1 87:1 92:1 105:1 114:1 156:4 157:1 160:2 191:1 332:1 333:1 358:1 375:1 395:1 627:1 659:1 849:1 867:1 934:1 1102:2 1238:1 1287:1 1486:4 1524:1 1707:1 1759:1 1888:1 
1 7:2 10:1 13:3 22:1 31:1 33:1 55:1 57:1 58:3 64:1 69:2 106:1 151:1 156:3 187:1 197:1 199:1 232:1 251:1 261:1 269:1 375:1 441:2 606:1 673:1 766:1 859:1 987:1 1101:1 1268:1 1486:3 1538:1 1846:1 
1 9:3 10:2 13:3 18:1 31:3 41:1 44:1 47:1 50:3 64:2 65:1 69:1 133:1 156:3 163:1 170:2 191:1 199:3 223:1 271:3 288:1 310:1 358:1 411:1 424:1 487:1 859:2 881:1 882:1 926:1 1101:2 1102:1 1122:1 1181:1 1306:1 1486:3 1623:2 
1 7:3 8:1 10:1 12:2 13:1 15:2 23:1 31:1 54:2 63:3 64:1 69:1 83:1 105:1 110:1 119:1 126:1 132:2 136:3 149:1 154:1 156:1 180:1 199:1 238:1 241:1 257:1 266:1 288:1 376:1 587:2 619:1 648:1 775:1 858:1 1101:1 1123:2 1133:1 1170:1 1486:1 1519:1 1971:1 
1 7:3 8:1 9:1 10:1 13:1 15:1 18:1 30:5 31:1 33:1 49:1 51:1 57:1 60:1 64:1 66:1 79:5 105:1 107:1 119:2 156:1 178:1 197:1 199:1 207:1 216:1 238:1 300:1 305:2 375:1 525:1 587:1 881:1 930:1 961:1 1101:1 1377:1 1486:1 1731:1 
1 7:3 9:1 10:2 13:1 15:2 23:2 42:1 64:2 69:1 77:1 107:1 126:1 138:1 156:1 164:1 182:1 227:1 273:1 290:1 308:1 318:1 328:2 429:1 587:2 742:1 902:1 1084:1 1101:2 1237:1 1486:1 1996:1 
1 7:3 8:2 9:1 15:2 22:1 23:3 30:1 33:1 48:1 66:2 70:1 79:1 88:1 105:2 106:1 122:1 190:1 238:2 251:1 274:1 279:1 311:1 375:1 587:2 1019:1 1105:1 1164:1 1589:1 1592:1 1651:1 1788:1 1846:1 
1 7:2 8:2 10:1 15:1 18:2 23:1 31:1 44:1 47:1 57:1 60:2 64:1 69:1 72:1 76:1 83:1 92:1 126:1 143:1 167:1 191:1 197:1 199:1 206:1 212:1 238:2 256:1 261:1 290:1 300:2 318:1 322:1 347:1 358:1 416:1 427:1 511:1 560:2 587:1 747:1 849:1 881:2 989:1 1101:1 1102:1 1133:1 1464:1 1709:1 1927:1 
1 7:3 8:1 9:3 10:2 13:2 15:4 18:1 23:1 31:1 41:2 47:1 49:1 56:2 64:2 65:2 76:1 105:2 107:1 112:1 126:2 149:3 154:1 156:2 157:2 199:1 217:1 238:1 327:1 416:2 424:2 427:1 487:2 587:4 775:1 881:1 1101:2 1486:2 1615:1 1731:1 1829:1 1971:3 
1 7:4 8:1 9:1 10:1 13:1 15:2 18:1 23:2 29:1 30:1 33:1 43:2 44:2 47:1 55:1 64:1 68:1 76:1 79:1 87:2 88:1 114:1 133:1 149:1 156:1 160:1 187:1 214:1 226:1 238:1 274:1 288:1 291:1 292:1 368:1 375:1 395:1 427:1 460:1 587:2 714:1 767:1 881:1 990:1 1101:1 1102:2 1140:1 1486:1 1538:1 1920:1 1971:1 
1 7:1 8:1 23:2 30:1 31:1 60:1 61:1 62:1 63:1 66:1 69:3 79:1 80:1 83:2 84:2 111:1 114:1 136:1 139:1 175:1 194:1 199:1 231:1 238:1 275:1 300:1 479:1 734:1 943:1 1020:1 1079:2 1133:2 1428:1 1804:1 1918:1 
1 7:2 8:1 9:2 10:4 12:1 18:1 23:2 31:1 43:1 44:1 46:1 54:1 64:4 69:1 75:2 77:1 80:1 87:1 93:1 130:1 151:2 182:1 183:1 199:1 238:1 291:2 386:1 426:1 450:1 500:1 501:1 614:1 637:1 711:1 881:1 987:2 1081:1 1101:4 1102:1 1328:1 1456:1 1843:2 
1 7:2 9:1 12:3 15:1 31:1 47:1 48:1 51:1 54:3 55:1 61:1 67:3 70:1 77:2 102:1 110:1 119:1 148:1 155:1 165:1 178:1 182:2 188:1 194:1 199:1 219:1 230:1 244:1 283:1 368:1 411:1 431:1 570:1 584:1 587:1 606:1 978:3 990:1 1164:1 1170:1 1533:1 1538:1 1566:1 1573:1 1592:1 1703:1 1918:1 1920:1 
1 7:8 9:1 13:3 31:2 33:1 47:1 49:1 61:1 83:1 101:1 110:1 128:1 130:1 156:3 199:2 207:1 230:2 266:1 315:1 337:1 375:1 447:1 655:1 688:1 1133:1 1170:1 1456:1 1486:3 1564:1 1703:2 1731:1 1893:3 
1 7:8 9:1 13:3 31:2 33:1 47:1 49:1 61:1 83:1 101:1 110:1 128:1 130:1 156:3 199:2 207:1 230:2 266:1 315:1 337:1 375:1 447:1 655:1 688:1 1133:1 1170:1 1456:1 1486:3 1564:1 1703:2 1731:1 1893:3 
1 7:10 10:3 12:3 13:4 15:2 23:1 41:1 54:3 64:3 69:2 76:1 88:1 135:1 148:2 149:1 156:4 186:1 253:1 274:1 337:1 350:1 424:1 427:1 559:1 574:1 583:1 587:2 799:1 892:1 924:1 1075:1 1101:3 1486:4 1550:1 1564:1 1573:2 1725:1 1958:1 1971:1 
1 7:3 8:1 9:1 10:2 13:3 15:2 22:1 39:1 51:1 56:1 59:2 61:1 64:2 69:1 83:1 93:1 96:1 99:1 105:1 110:1 117:1 120:1 122:1 126:1 143:1 149:1 156:3 157:1 162:1 178:1 209:1 212:1 217:1 226:1 230:1 238:1 241:1 250:1 251:1 315:1 416:2 441:1 450:1 477:1 520:2 532:2 587:2 614:1 619:1 906:1 1101:2 1119:1 1133:1 1170:1 1267:1 1287:1 1461:1 1464:1 1486:3 1616:2 1645:1 1651:1 1703:1 1719:1 1971:1 
1 7:4 8:1 10:2 12:2 15:1 22:1 23:1 30:1 31:1 48:1 54:2 56:1 61:1 64:2 69:1 79:1 105:2 117:1 143:2 144:1 157:1 160:1 184:1 192:1 199:1 238:1 241:1 251:1 366:1 367:1 587:1 619:1 654:1 1101:2 1115:1 1119:1 1278:1 1464:2 1520:1 1592:1 1893:1 
1 4:1 5:1 7:1 9:1 10:1 13:2 29:1 39:1 41:1 50:1 55:1 64:1 69:1 88:1 102:1 132:1 144:1 149:1 156:2 184:1 219:1 271:1 274:1 292:1 424:1 426:1 493:1 1101:1 1123:1 1287:1 1486:2 1538:1 1566:1 1826:1 1855:1 1971:1 
1 4:1 5:1 6:1 7:2 8:2 10:2 12:4 13:1 15:3 22:2 23:2 31:1 33:1 46:1 54:4 59:2 64:2 66:2 69:1 71:2 134:2 138:2 152:1 156:1 189:1 199:1 238:2 251:2 265:1 290:1 375:1 386:1 395:1 458:1 520:2 587:3 659:2 678:1 877:1 1101:2 1486:1 1616:2 1798:2 1810:2 1996:2 
1 7:1 8:1 10:3 15:1 16:1 18:1 23:1 41:1 50:1 64:3 69:1 126:1 152:1 177:1 196:1 238:1 247:1 271:1 389:1 424:1 436:1 587:1 821:1 881:1 1101:3 1438:1 
1 7:1 9:2 10:3 13:4 15:2 18:2 22:1 30:2 31:1 39:1 41:1 47:1 49:1 58:1 64:3 65:2 69:1 70:1 72:1 79:2 126:1 134:1 156:4 199:1 229:1 239:1 251:1 267:1 290:1 397:1 424:1 487:2 511:1 587:2 846:1 881:2 1101:3 1164:1 1287:1 1486:4 1649:1 1709:1 1731:1 
1 9:1 12:3 13:3 15:1 22:2 31:1 42:1 44:1 47:1 54:3 69:1 78:1 91:1 117:1 119:1 129:1 149:1 156:3 179:1 199:1 202:1 230:1 240:1 251:2 269:1 319:1 363:2 395:1 576:1 587:1 600:1 601:1 639:1 695:1 742:1 772:1 781:1 1102:1 1119:1 1486:3 1703:1 1741:1 1959:1 1971:1 
1 7:1 9:3 13:2 23:4 29:2 33:1 41:1 46:1 51:1 63:2 69:1 75:1 84:1 104:1 136:2 156:2 178:1 179:1 292:2 303:1 333:1 351:1 375:1 386:1 403:1 406:1 424:1 650:1 1064:1 1079:1 1486:2 1741:1 1791:1 1843:1 1888:1 
1 7:2 8:1 9:2 13:1 23:1 43:1 46:1 47:2 48:1 51:1 55:1 57:1 63:1 67:1 69:1 77:1 87:1 126:1 133:1 136:1 148:1 156:1 178:1 182:1 197:1 238:1 259:1 306:1 339:1 386:1 477:1 532:2 804:1 978:1 1365:1 1486:1 1538:1 1573:1 1592:1 1702:1 
1 10:1 15:2 30:1 31:1 39:1 48:2 51:1 56:1 57:1 58:2 59:1 61:1 64:1 67:1 69:1 77:2 79:1 85:1 92:1 152:1 157:1 160:1 178:1 182:2 197:1 199:1 209:1 242:1 264:1 317:3 331:1 346:1 520:1 587:2 712:1 849:1 856:1 961:1 978:1 1101:1 1105:1 1175:1 1287:1 1592:2 1616:1 1800:1 
1 7:1 8:1 9:3 13:2 16:1 22:1 29:1 46:1 49:1 50:2 69:1 84:1 102:1 110:1 129:1 135:1 156:2 198:2 238:1 245:1 250:1 251:1 261:1 271:2 292:1 323:1 386:1 500:1 683:1 840:1 850:1 859:1 973:1 985:1 1079:1 1170:1 1486:2 1566:1 1725:1 1731:1 1798:1 1826:1 1889:1 1959:1 
1 7:2 8:1 9:2 10:1 13:1 15:1 18:1 23:2 31:1 33:1 43:1 47:1 51:1 56:1 58:1 64:1 69:1 76:1 87:1 88:1 107:1 149:1 156:1 157:1 178:1 183:1 193:1 199:1 229:1 238:1 247:1 253:1 274:1 375:1 392:2 427:1 511:1 587:1 813:1 881:1 1101:1 1328:1 1391:1 1486:1 1649:1 1650:1 1971:1 
1 2:1 8:1 49:1 58:2 69:1 238:1 338:1 727:1 840:1 967:1 1731:1 
1 7:1 8:1 10:1 13:1 15:1 23:1 30:1 33:1 43:2 51:1 56:1 57:1 64:1 68:2 69:1 72:1 79:1 87:2 96:1 100:1 107:1 119:1 123:1 126:1 154:1 156:1 157:1 178:1 194:1 197:1 202:1 238:1 255:1 288:1 308:1 342:1 356:1 366:1 369:1 375:1 545:1 586:1 587:1 601:1 643:1 723:1 871:1 1060:1 1101:1 1274:1 1278:1 1486:1 1709:1 1918:1 
1 7:2 8:2 9:1 10:3 15:3 18:2 23:2 29:1 39:2 46:1 61:1 63:3 64:3 76:1 85:1 91:1 136:3 165:1 183:1 198:1 209:1 238:2 242:1 264:1 292:1 313:1 350:1 386:1 427:1 587:3 639:1 778:1 881:2 1101:3 1287:2 1328:1 1339:1 1467:1 1960:1 
1 7:3 10:2 12:3 13:2 15:2 18:2 30:1 31:2 54:3 55:2 60:1 61:2 64:2 69:1 77:4 79:1 85:1 105:1 138:1 156:2 182:4 187:2 189:1 199:2 222:1 226:1 264:1 285:2 300:1 354:1 411:1 513:1 560:1 587:2 881:2 1006:1 1101:2 1222:1 1339:1 1486:2 1538:2 1996:1 
1 7:2 8:1 9:1 10:2 12:3 13:1 15:2 22:1 23:2 30:1 33:1 39:1 41:1 47:1 54:3 56:1 58:1 64:2 69:1 79:1 105:1 126:1 135:1 156:1 157:1 217:1 227:1 238:1 251:1 261:1 263:1 375:1 424:1 500:1 509:1 587:2 610:1 627:1 837:1 1077:1 1101:2 1287:1 1486:1 1696:1 1725:1 
1 12:1 13:1 15:1 29:1 30:3 44:1 50:1 54:1 56:1 57:1 69:2 71:1 76:1 79:3 97:1 122:1 148:1 156:1 157:1 197:1 271:1 292:1 319:1 427:1 534:1 587:1 659:1 781:1 805:1 951:1 1065:1 1097:1 1102:1 1288:1 1436:1 1486:1 1573:1 1651:1 
1 7:1 8:1 9:3 10:2 15:1 18:1 22:1 23:2 30:1 31:2 33:1 42:2 46:1 48:1 51:1 62:1 64:2 66:1 69:1 75:2 76:1 79:1 105:1 132:1 138:1 151:1 159:1 178:1 199:2 232:1 237:1 238:1 251:1 276:1 284:1 290:1 375:1 386:1 427:1 587:1 678:1 711:1 742:2 785:1 881:1 987:1 1055:1 1101:2 1123:1 1410:1 1440:1 1506:1 1592:1 1638:1 1843:2 1996:1 
1 1:34 2:34 3:35 4:29 5:26 6:24 7:15 8:14 10:5 11:18 12:14 13:6 14:3 15:10 16:3 17:3 18:1 19:8 20:8 21:1 22:7 24:8 25:8 26:5 28:1 30:1 31:7 32:3 33:3 36:5 37:5 38:3 39:3 40:2 43:3 44:1 45:1 47:2 48:3 49:8 51:1 54:14 56:7 57:1 58:6 59:3 61:2 63:2 64:5 65:1 67:2 71:2 74:1 77:4 79:1 85:1 87:3 88:2 91:1 96:4 105:1 107:1 112:1 119:2 120:4 128:1 129:3 130:1 134:1 136:2 141:1 144:1 149:3 152:1 155:2 156:6 157:7 160:1 169:1 178:1 179:2 182:4 184:1 192:1 194:1 197:1 199:7 200:1 207:1 237:1 238:14 251:7 255:1 257:1 260:1 264:1 265:1 274:2 289:1 304:1 367:1 375:3 401:1 412:1 421:18 426:2 431:2 450:1 460:2 487:1 501:1 510:1 512:3 513:1 520:3 532:10 587:10 639:1 659:2 664:1 707:1 708:2 723:2 728:1 738:1 775:1 847:1 852:1 862:1 880:1 881:1 978:2 1054:1 1060:1 1084:1 1101:5 1102:1 1115:1 1127:1 1222:1 1287:3 1336:1 1456:1 1462:1 1486:6 1519:1 1578:2 1592:3 1616:3 1731:8 1741:2 1759:1 1797:1 1871:5 1911:1 1918:1 1959:3 1971:3 
1 7:1 8:1 9:1 10:2 12:1 13:4 18:1 23:1 33:1 42:1 54:1 58:1 64:2 65:1 69:1 73:1 74:2 90:1 105:1 135:1 156:4 238:1 288:1 318:1 375:1 392:1 487:1 558:1 742:1 881:1 898:1 927:1 971:1 1101:2 1142:1 1238:1 1372:1 1486:4 1576:1 1725:1 1759:2 
1 8:1 9:5 13:2 15:2 23:1 42:1 46:1 49:1 61:1 69:1 101:1 128:1 130:2 156:2 173:1 207:1 238:1 305:2 316:1 386:1 395:1 409:1 447:1 587:2 683:1 742:1 748:1 840:1 880:1 887:1 1044:1 1446:1 1456:2 1486:2 1502:1 1522:1 1731:1 1755:1 
1 7:1 9:1 10:1 13:1 15:3 16:1 23:1 29:1 33:1 47:1 49:1 51:1 57:1 59:1 63:1 64:1 69:1 78:1 82:2 104:1 111:1 119:1 136:1 138:1 155:1 156:1 178:1 179:1 183:1 197:1 239:1 240:1 253:1 292:1 351:1 375:1 403:1 431:1 520:1 587:3 610:1 832:1 853:1 1101:1 1136:1 1328:1 1486:1 1616:1 1731:1 1741:1 1791:1 1804:1 1996:1 
1 7:1 8:1 9:1 15:2 22:1 23:1 29:1 31:1 42:1 45:1 55:1 62:1 69:1 76:1 77:1 92:1 100:1 105:1 126:1 134:1 151:1 182:1 187:1 199:1 237:1 238:1 251:1 255:1 292:1 314:1 394:1 427:1 459:1 521:1 587:2 676:1 699:1 742:1 849:1 871:1 987:1 1060:1 1325:1 1538:1 1673:1 1810:1 1811:1 1904:1 
1 7:2 8:2 10:1 13:3 15:1 18:2 29:1 39:1 44:3 59:3 64:1 156:3 238:2 292:1 520:3 587:1 881:2 1101:1 1102:3 1141:2 1287:1 1323:2 1486:3 1616:3 
1 4:1 5:1 7:3 9:2 15:2 22:1 23:1 28:1 42:2 48:1 50:1 62:1 67:2 69:1 130:1 164:1 207:1 210:2 230:1 234:1 237:1 246:1 251:1 271:1 273:1 309:1 367:1 587:2 654:1 742:2 978:2 1456:1 1592:1 1703:1 1774:1 
1 7:4 8:1 13:1 15:1 23:2 29:1 33:1 44:1 48:1 57:1 83:1 88:1 112:1 119:1 130:1 144:1 156:1 184:1 193:1 197:1 238:1 274:1 292:1 363:1 375:1 500:1 506:1 517:1 532:1 587:1 617:1 803:1 903:1 1102:1 1133:1 1235:1 1334:1 1456:1 1486:1 1592:1 
1 7:2 8:2 10:1 22:1 33:1 39:1 44:1 58:1 64:1 66:1 67:1 105:2 216:1 229:1 238:2 251:1 308:1 363:1 375:1 509:1 761:1 903:1 978:1 1101:1 1102:1 1287:1 1463:1 1649:1 
1 7:1 10:1 13:1 23:2 29:1 46:2 47:1 63:3 64:1 85:1 101:1 136:3 156:1 207:1 246:1 264:1 292:1 386:2 447:1 935:1 1101:1 1105:1 1486:1 1674:1 
1 7:1 13:1 15:2 18:3 22:1 29:2 30:2 31:1 39:2 48:2 55:1 56:2 59:1 65:2 69:1 76:1 79:2 119:1 156:1 157:2 162:1 187:1 199:1 239:1 251:1 292:2 316:1 397:1 427:1 487:2 520:1 587:2 881:3 1037:1 1072:1 1217:1 1287:2 1486:1 1538:1 1592:2 1616:1 1863:1 1882:1 
1 7:1 8:1 10:1 13:3 15:1 39:2 42:1 51:1 55:1 64:1 69:1 72:1 83:1 85:1 88:1 156:3 160:1 168:1 178:1 187:1 219:1 238:1 264:1 274:1 290:1 305:1 313:1 327:1 504:1 582:1 587:1 742:1 785:1 843:1 923:1 1101:1 1133:1 1154:1 1224:1 1287:2 1486:3 1538:1 1709:1 
1 7:6 8:3 9:2 13:2 15:2 23:1 31:1 41:1 56:1 63:1 68:1 92:1 96:1 105:1 116:1 126:1 134:1 136:1 152:1 156:2 157:1 175:1 199:1 238:3 253:1 288:1 302:1 311:1 334:1 392:1 424:1 496:1 587:2 849:1 1047:1 1193:1 1290:2 1294:1 1486:2 1748:1 1865:1 
1 7:3 10:2 13:1 16:1 23:3 47:2 58:1 60:1 64:2 69:1 100:1 114:2 143:1 156:1 191:1 283:1 300:1 358:1 385:1 392:1 646:1 871:1 921:1 1101:2 1150:1 1453:2 1464:1 1486:1 1533:1 1806:2 
1 7:2 9:1 10:1 13:2 15:1 22:1 29:1 30:1 31:1 55:1 58:1 62:1 63:1 64:1 77:1 79:1 111:1 136:1 156:2 182:1 199:1 251:1 253:1 292:1 339:1 559:1 587:1 606:1 866:1 924:1 1101:1 1468:1 1486:2 1538:1 1804:1 
1 7:2 9:1 10:1 13:2 15:1 64:1 74:2 140:1 156:2 168:1 265:1 587:1 712:1 1101:1 1149:1 1175:1 1486:2 1699:1 1759:2 1775:1 
1 4:1 5:1 8:1 9:1 10:2 13:2 15:1 22:1 23:2 29:1 30:1 42:1 44:2 50:1 63:1 64:2 69:4 74:1 79:1 84:1 88:1 90:1 118:2 136:1 140:2 149:1 156:2 170:1 175:2 219:1 238:1 251:1 271:1 274:1 292:1 298:2 335:1 376:1 395:1 587:1 742:1 1079:1 1101:2 1102:2 1486:2 1623:1 1759:1 1775:2 1971:1 
1 7:1 8:1 9:1 13:1 15:1 22:1 23:1 31:1 39:1 41:1 47:1 48:1 49:1 63:2 69:1 70:1 101:1 111:1 136:2 156:1 192:1 199:1 202:1 237:1 238:1 251:1 282:1 290:1 424:1 447:1 587:1 601:1 1115:1 1164:1 1287:1 1361:1 1486:1 1592:1 1731:1 1804:1 
1 7:3 9:1 10:1 15:1 22:1 23:3 29:1 33:1 47:2 56:1 64:1 67:2 69:1 76:1 77:2 82:1 97:1 154:1 155:1 157:1 182:2 183:1 200:1 241:1 242:1 251:1 253:1 292:1 306:1 375:1 427:1 431:1 587:1 619:1 711:1 951:1 978:2 1101:1 1328:1 1911:1 
1 5:1 7:2 8:1 10:1 13:3 23:2 58:3 64:1 68:2 69:1 78:1 83:1 156:3 205:1 212:1 238:1 240:1 416:1 441:1 509:1 535:2 622:1 722:1 967:1 1101:1 1133:1 1486:3 1853:1 
1 1:18 2:18 3:35 4:29 5:26 6:16 7:2 8:11 11:2 12:3 13:10 19:8 20:8 21:1 22:1 24:8 25:8 26:5 31:3 33:1 36:5 37:5 38:3 39:4 40:2 44:1 45:1 49:1 54:3 56:7 60:1 63:3 72:1 102:1 111:2 136:3 141:1 143:1 146:1 149:1 154:3 156:10 157:7 159:1 161:1 183:1 186:1 199:3 222:1 230:2 238:11 251:1 300:1 308:1 362:1 375:1 412:1 421:2 439:1 532:3 898:1 1102:1 1287:4 1328:1 1385:1 1464:1 1486:10 1566:1 1638:1 1691:1 1703:2 1709:1 1731:1 1804:2 1971:1 
1 7:5 9:1 10:2 13:2 18:1 29:1 31:1 44:2 46:1 47:1 56:1 64:2 74:2 154:1 156:2 157:1 198:1 199:1 206:2 212:1 222:1 241:1 292:1 310:1 327:1 369:1 386:1 547:1 619:1 881:1 892:2 985:1 1101:2 1102:2 1319:1 1396:1 1486:2 1759:2 1920:1 
1 7:2 8:1 9:2 10:3 15:1 22:1 23:3 42:1 46:1 64:3 69:2 85:1 88:1 190:1 238:1 251:1 264:1 274:1 281:1 289:1 296:1 386:1 393:1 493:2 582:1 587:1 733:1 738:1 742:1 828:1 1101:3 1589:1 1895:1 
1 7:1 8:3 9:3 10:2 13:2 15:2 18:2 22:2 23:1 29:1 30:1 41:1 42:1 47:1 48:1 64:2 69:1 76:1 79:1 126:1 156:2 185:1 238:3 251:2 292:1 293:1 327:1 412:1 424:1 427:1 454:1 578:1 584:1 587:2 742:1 881:2 941:1 1101:2 1325:2 1486:2 1592:1 1633:1 
1 7:2 9:3 13:2 23:1 30:1 31:2 33:1 47:1 51:1 61:1 63:2 69:1 79:1 92:1 93:1 100:1 107:1 136:2 154:1 156:2 178:1 199:2 223:1 237:1 250:1 283:1 308:1 318:1 362:1 375:1 391:1 414:1 594:2 614:1 849:1 871:1 1095:1 1207:1 1486:2 1533:1 1991:2 
1 2:1 5:1 7:2 8:1 9:1 10:2 22:1 41:2 44:1 47:2 48:1 59:1 64:2 69:1 207:1 218:1 238:1 251:1 296:1 404:1 424:2 520:1 560:1 691:1 1101:2 1102:1 1449:1 1592:1 1616:1 1760:1 
1 9:3 10:4 13:1 15:1 18:1 23:2 29:1 30:3 33:1 51:1 62:1 64:4 69:1 76:2 79:3 85:1 96:1 126:1 132:1 156:1 161:1 178:1 194:1 264:1 292:1 315:1 363:1 366:1 375:1 427:2 453:1 506:1 587:1 632:1 676:1 881:1 1101:4 1112:1 1123:1 1278:1 1418:1 1486:1 1918:1 
1 9:1 10:2 13:2 23:1 31:1 42:1 46:1 56:1 63:1 64:2 90:1 107:1 110:1 119:1 136:1 154:1 156:2 157:1 188:1 199:1 237:1 311:1 319:1 386:1 742:1 781:1 928:1 1101:2 1170:1 1486:2 
1 8:1 9:3 10:1 13:1 23:1 29:1 30:3 33:1 44:2 51:1 57:1 60:1 64:1 75:1 79:3 107:1 119:1 151:1 156:1 168:1 178:1 193:1 197:1 223:1 225:1 238:1 241:1 292:1 296:1 300:1 375:1 594:1 619:1 810:1 819:1 868:1 985:1 987:1 1101:1 1102:2 1486:1 1843:1 1931:1 1991:1 
1 8:1 12:5 13:2 15:1 23:1 29:1 31:1 41:1 44:3 49:1 54:5 63:1 69:1 76:1 78:1 85:1 97:1 98:1 101:3 122:1 136:1 156:2 179:1 199:1 207:2 238:1 240:1 264:1 292:1 305:1 332:1 423:1 424:1 427:1 447:3 587:1 598:1 599:1 606:2 951:1 1102:3 1486:2 1578:1 1651:1 1697:1 1731:1 1741:1 
1 7:4 8:1 9:1 10:3 13:1 23:2 31:1 41:1 42:2 43:1 46:1 56:1 64:3 69:1 74:1 75:1 87:1 112:1 135:1 143:2 156:1 157:1 166:1 177:1 196:1 199:1 238:1 282:1 296:1 307:1 386:1 424:1 742:2 813:1 821:1 979:1 1101:3 1155:1 1208:1 1438:1 1464:2 1486:1 1725:1 1759:1 1843:1 
1 7:2 12:1 13:1 15:1 23:1 29:2 31:1 41:1 44:1 46:1 49:1 54:1 55:2 57:1 62:1 65:1 66:2 69:2 85:1 102:1 104:1 105:1 107:1 114:1 129:1 130:1 156:1 197:1 199:1 200:1 222:1 239:1 246:1 264:1 270:1 292:2 310:1 339:1 351:1 366:1 376:1 386:1 424:1 450:1 487:1 587:1 1102:1 1278:1 1428:1 1456:1 1486:1 1538:2 1566:1 1731:1 1911:1 1959:1 
1 7:1 9:2 10:4 13:1 15:1 22:1 33:1 64:4 67:1 69:2 71:1 77:1 88:1 92:1 126:1 156:1 162:1 175:1 182:1 183:1 234:1 251:1 274:1 311:1 348:1 375:1 395:1 440:1 511:1 587:1 642:2 659:1 818:1 849:1 978:1 1101:4 1328:1 1486:1 1755:1 
1 7:3 10:1 12:2 13:2 15:1 22:2 46:1 47:1 54:2 56:3 64:1 69:1 75:1 93:1 99:1 129:1 154:1 156:2 157:3 230:1 251:2 313:1 327:1 340:1 386:1 496:1 587:1 614:1 627:1 642:1 675:1 681:1 792:1 859:1 1101:1 1193:1 1486:2 1703:1 1719:1 1843:1 1959:1 
1 9:1 10:2 13:2 18:1 23:1 42:1 44:1 46:1 64:2 66:1 68:1 69:1 72:1 107:1 115:1 148:1 156:2 194:1 340:1 354:1 386:1 395:1 635:1 742:1 881:1 1101:2 1102:1 1486:2 1573:1 1709:1 1918:1 
1 7:3 10:1 13:2 15:1 33:1 43:2 44:1 48:1 56:2 64:1 65:1 66:1 69:1 87:2 105:1 117:1 129:1 152:1 154:1 156:2 157:2 165:1 177:1 196:1 237:1 241:1 252:1 253:1 325:1 375:1 487:1 587:1 619:1 641:1 704:1 821:1 961:1 1035:1 1101:1 1102:1 1119:1 1438:1 1486:2 1592:1 1959:1 
1 7:3 8:1 9:2 10:1 13:1 22:1 23:3 29:1 31:2 33:1 47:1 64:1 65:1 69:1 71:1 76:1 83:1 114:2 156:1 161:1 168:1 169:1 173:1 199:2 234:1 238:1 251:1 253:1 284:1 292:1 375:1 427:1 487:1 631:1 659:1 711:1 887:1 1101:1 1133:1 1227:1 1440:1 1486:1 1883:1 
1 7:1 10:3 12:2 13:2 15:3 22:1 30:1 39:1 41:1 44:1 54:2 56:1 57:2 58:2 59:1 64:3 69:1 77:1 79:1 151:1 156:2 157:1 182:1 197:2 244:1 251:1 256:1 309:1 319:1 378:1 424:1 441:1 520:1 537:1 587:3 781:1 805:1 987:1 1101:3 1102:1 1110:2 1254:1 1280:2 1287:1 1486:2 1616:1 1901:1 
1 7:1 8:4 13:1 15:2 30:1 31:2 42:1 51:1 55:1 56:1 57:1 69:2 72:1 79:1 114:1 120:1 126:1 148:1 152:1 156:1 157:1 177:1 178:1 197:1 199:2 209:1 216:1 237:1 238:4 270:1 339:1 395:1 517:1 587:2 616:1 742:1 821:1 888:1 985:1 1486:1 1538:1 1573:1 1709:1 1718:1 
1 9:3 10:1 13:3 23:1 29:1 31:1 42:1 47:2 56:1 62:1 63:2 64:1 69:1 71:1 72:1 98:1 107:1 128:1 130:2 136:2 156:3 157:1 199:1 202:1 227:1 228:1 290:1 292:1 501:1 582:1 585:1 601:1 659:1 718:1 742:1 772:1 1101:1 1428:1 1456:2 1486:3 1709:1 1894:1 
1 7:1 9:1 13:1 15:2 18:2 23:1 29:1 30:2 33:1 39:1 48:1 51:1 55:1 56:2 61:2 65:1 69:2 79:2 85:1 102:1 114:1 134:1 156:1 157:2 160:1 175:1 178:1 264:1 287:2 292:1 347:1 363:1 375:1 412:1 434:1 487:1 503:1 587:2 794:1 881:2 1287:1 1291:1 1339:1 1486:1 1538:1 1566:1 1592:1 
1 7:1 9:1 10:3 33:1 51:1 59:1 63:1 64:3 73:1 78:1 111:1 112:1 122:2 136:1 178:1 240:1 348:1 375:1 520:1 741:1 1101:3 1616:1 1651:2 1804:1 1881:1 
1 7:2 13:1 15:2 22:1 23:1 29:1 30:1 31:1 34:1 48:1 63:3 69:1 79:1 97:2 100:1 114:1 132:1 136:3 156:1 160:1 175:1 199:1 237:1 247:1 251:1 253:2 289:1 292:1 309:1 341:1 587:2 711:1 871:1 951:2 1123:1 1486:1 1592:1 1813:2 1882:1 
1 7:3 8:1 10:1 12:2 13:1 15:1 23:1 29:1 33:1 39:1 44:1 47:1 54:2 64:1 67:1 69:1 77:1 114:1 119:1 129:1 140:1 149:1 154:1 155:2 156:1 162:1 182:1 194:1 201:1 207:1 225:1 232:1 238:1 292:1 347:1 366:1 375:1 409:1 417:1 431:2 584:1 587:1 643:1 868:1 903:1 959:1 978:1 1101:1 1102:1 1278:1 1287:1 1486:1 1775:1 1839:1 1918:1 1959:1 1971:1 1989:1 
1 7:2 9:1 10:2 13:4 23:1 31:2 33:1 49:1 64:2 69:1 101:1 102:1 107:1 117:1 156:4 177:1 199:2 230:1 237:1 241:2 318:1 366:1 375:1 447:1 456:1 517:1 532:1 577:1 619:2 626:1 821:1 1043:1 1101:2 1119:1 1278:1 1486:4 1522:1 1566:1 1703:1 1731:1 
1 7:2 9:1 10:2 13:1 15:1 23:2 31:1 41:1 42:2 60:2 64:2 66:1 67:1 69:1 71:1 85:1 140:1 143:1 156:1 189:1 192:1 199:1 220:1 229:1 264:1 300:2 323:1 424:1 587:1 659:1 742:2 850:2 950:1 978:1 1084:1 1101:2 1115:1 1430:1 1464:1 1486:1 1649:1 1775:1 
1 7:2 8:1 12:3 13:2 23:1 30:1 54:3 79:1 85:1 88:1 92:1 156:2 202:1 238:1 264:1 274:1 512:1 601:1 849:1 859:1 911:1 1453:1 1486:2 1527:1 
1 7:3 9:1 10:3 13:3 15:1 23:4 30:1 49:1 51:1 56:1 57:1 59:1 64:3 69:2 71:2 79:1 107:1 114:1 156:3 157:1 178:1 197:1 256:1 368:1 392:2 520:1 546:1 587:1 606:1 659:2 990:1 1101:3 1442:1 1486:3 1616:1 1731:1 
1 7:5 8:2 15:1 22:1 31:2 41:1 47:1 49:1 55:1 71:1 84:2 95:1 101:1 112:2 199:2 238:2 251:1 278:1 290:2 339:1 409:1 424:1 447:1 587:1 632:2 659:1 943:1 1079:2 1290:2 1408:1 1538:1 1729:1 1731:1 
1 4:1 5:1 7:1 10:2 13:1 15:1 23:2 30:1 33:1 44:1 46:1 59:1 64:2 69:2 75:1 79:1 122:1 142:2 149:2 156:1 288:1 375:1 386:1 432:1 453:1 520:1 587:1 615:2 627:2 917:1 1101:2 1102:1 1486:1 1546:1 1616:1 1651:1 1843:1 1971:2 
1 7:3 10:2 22:2 23:1 29:3 39:1 41:1 44:1 50:1 62:2 64:2 66:1 68:1 69:1 72:1 117:1 120:1 159:1 249:1 251:2 271:1 279:1 283:1 292:3 296:1 424:1 680:2 1101:2 1102:1 1119:1 1287:1 1506:2 1533:1 1541:1 1638:1 1709:1 1920:1 
1 7:1 9:3 10:2 13:1 18:1 22:1 29:2 31:1 43:3 51:1 64:2 66:1 68:1 69:1 78:1 87:3 98:2 112:1 156:1 162:1 178:1 180:2 192:1 199:1 209:1 235:1 240:1 251:1 255:1 290:1 292:2 309:1 335:1 433:1 569:1 764:1 881:1 1060:1 1101:2 1115:1 1486:1 
1 8:3 10:1 12:3 13:2 15:1 23:1 29:1 30:1 33:1 39:1 49:2 50:2 54:3 58:1 64:1 69:1 79:1 97:2 98:1 132:1 156:2 177:1 185:1 219:1 238:3 271:2 282:1 292:1 327:1 375:1 433:2 511:1 587:1 764:1 805:1 811:1 821:1 951:2 1101:1 1117:1 1123:1 1287:1 1319:1 1395:1 1486:2 1731:2 
1 7:6 9:1 23:3 30:2 31:1 33:1 39:1 51:1 69:1 75:1 79:2 129:1 178:1 180:1 199:1 216:2 229:1 325:1 375:1 727:1 739:1 961:1 1287:1 1649:1 1843:1 1959:1 
1 7:3 9:3 10:1 13:2 23:4 29:1 46:1 56:1 64:1 69:1 73:1 114:2 140:1 156:2 157:1 287:1 292:1 350:1 385:1 386:1 567:1 739:1 785:1 790:1 798:1 1051:1 1101:1 1486:2 1775:1 1806:1 
1 1:6 2:6 3:3 6:4 7:1 8:2 9:1 10:1 11:4 12:5 13:1 14:1 15:1 16:1 18:1 19:1 20:1 21:1 22:2 38:1 39:1 44:1 45:1 49:1 50:1 51:2 54:5 56:1 58:2 59:1 60:2 64:1 70:1 71:1 98:1 101:1 102:2 114:1 116:1 150:1 156:1 157:1 166:1 178:2 192:1 202:1 222:1 238:2 251:2 252:1 257:1 271:1 300:2 312:1 332:4 334:1 421:4 447:1 460:2 470:1 509:3 520:1 536:1 587:1 601:1 659:1 772:1 805:3 881:1 904:1 1101:1 1102:1 1115:1 1151:1 1164:1 1287:1 1486:1 1519:1 1566:2 1616:1 1731:1 1772:1 1887:1 
1 7:3 8:1 9:1 12:1 15:1 23:2 44:1 46:1 48:1 54:1 59:1 66:1 126:1 135:1 238:1 386:1 520:1 541:1 587:1 1102:1 1132:1 1592:1 1616:1 1725:1 
1 7:3 9:1 29:4 30:1 31:1 39:3 44:1 48:1 49:1 59:1 63:1 69:1 70:1 71:1 79:1 114:1 136:1 148:2 199:1 205:1 214:1 219:1 237:2 283:1 292:4 365:1 378:1 414:1 442:2 520:1 659:1 668:1 669:1 880:1 1102:1 1164:1 1287:3 1533:1 1573:2 1592:1 1616:1 1731:1 
1 7:2 9:1 13:1 33:1 47:2 67:2 69:1 71:1 83:1 107:1 130:1 151:1 156:1 172:1 302:1 323:1 363:1 375:1 622:1 659:1 978:2 987:1 1133:1 1456:1 1486:1 1522:1 1907:1 
1 7:2 9:1 10:1 13:2 15:1 31:1 33:1 42:1 44:1 46:1 49:3 64:1 65:1 68:1 69:1 71:1 88:1 107:1 119:1 130:2 146:1 156:2 199:1 253:1 274:1 278:1 375:1 386:1 403:1 487:1 587:1 659:1 742:1 750:1 859:1 1101:1 1102:1 1117:1 1153:1 1385:1 1395:1 1456:2 1486:2 1578:1 1598:1 1731:3 1791:1 
1 7:3 8:2 9:1 10:1 15:5 22:2 44:1 48:1 49:1 56:1 64:1 68:1 78:2 83:1 107:1 112:1 149:1 157:1 162:1 166:1 225:1 238:2 240:2 251:2 255:1 395:1 510:1 587:5 594:2 803:1 868:1 895:1 1060:1 1101:1 1102:1 1133:1 1413:1 1565:1 1592:1 1641:1 1731:1 1971:1 1991:2 
1 7:4 8:1 9:1 10:2 13:1 22:2 23:1 29:1 30:1 39:1 47:2 49:1 64:2 69:1 72:1 76:1 79:1 92:1 93:1 105:1 107:1 112:2 116:1 117:1 148:1 155:1 156:1 161:1 164:1 169:1 173:1 186:2 196:1 238:1 251:2 254:1 273:1 282:1 292:1 334:1 354:1 427:1 431:1 614:1 775:1 784:1 849:1 887:1 956:1 1101:2 1119:1 1287:1 1428:1 1438:1 1465:1 1486:1 1573:1 1583:1 1709:1 1731:1 
1 7:5 9:2 10:1 13:2 22:1 23:2 42:1 62:1 64:1 69:1 78:1 93:1 146:1 156:2 177:1 216:1 229:1 240:1 251:1 272:1 287:1 392:1 614:1 678:1 705:1 742:1 798:1 821:1 1042:1 1101:1 1385:1 1413:2 1486:2 1649:1 1650:1 1872:1 
1 7:6 8:2 9:1 10:2 13:1 15:1 18:1 22:1 23:1 31:1 47:1 59:1 60:1 64:2 67:1 68:1 72:1 117:1 143:1 152:1 156:1 161:1 177:1 199:1 230:1 234:2 237:1 238:2 251:1 261:1 290:1 300:1 520:1 531:1 587:1 747:1 821:1 874:1 881:1 920:1 978:1 1101:2 1119:1 1464:1 1486:1 1590:1 1616:1 1703:1 1709:1 
1 7:4 10:2 13:2 15:1 22:1 23:1 30:1 42:1 62:1 64:2 66:1 67:3 70:1 79:1 156:2 165:1 216:1 219:1 228:1 231:1 242:1 251:1 261:1 272:1 284:1 311:1 560:2 587:1 645:1 742:1 784:1 955:1 961:3 978:3 1101:2 1104:1 1164:1 1440:1 1486:2 
1 7:2 8:1 10:2 18:1 22:1 29:1 47:2 51:1 61:1 64:2 69:1 88:1 115:1 120:1 130:2 155:1 177:1 178:1 207:1 223:1 230:2 235:1 238:1 251:1 274:1 292:1 409:1 412:1 431:1 493:2 499:1 617:1 821:1 881:1 902:1 1041:1 1101:2 1241:1 1456:2 1475:1 1703:2 1809:1 
1 7:4 8:3 10:1 13:1 15:1 16:1 18:1 23:3 29:1 44:1 47:1 64:1 69:2 83:1 117:1 156:1 160:1 164:1 222:1 238:3 241:2 259:1 273:1 292:1 294:1 500:1 587:1 619:2 680:2 881:1 1101:1 1102:1 1119:1 1133:1 1469:1 1486:1 
1 5:1 7:2 8:1 10:2 13:5 15:3 22:1 23:1 31:2 39:1 41:1 47:1 57:1 58:2 61:2 64:2 69:1 71:1 72:1 129:1 156:5 161:1 197:1 199:2 238:1 251:1 253:1 287:1 327:2 350:1 424:1 484:1 587:3 659:1 749:1 810:1 818:1 1101:2 1287:1 1299:1 1486:5 1524:1 1709:1 1959:1 
1 5:1 7:3 9:3 13:1 15:3 22:1 43:3 55:2 87:3 93:2 132:1 154:1 156:1 186:1 187:2 214:1 248:1 251:1 285:1 347:1 453:2 537:1 587:3 614:2 632:1 641:1 741:2 1123:1 1406:1 1486:1 1538:2 1975:1 
1 7:1 8:1 9:1 10:1 18:1 23:1 28:1 31:1 49:1 55:1 62:1 64:1 66:1 69:1 76:1 99:1 148:1 154:2 187:1 199:1 223:1 237:2 238:1 288:1 290:1 335:1 409:2 427:1 440:1 514:1 581:1 881:1 1101:1 1412:1 1428:1 1538:1 1573:1 1719:1 1731:1 
1 1:8 2:5 3:5 4:1 5:5 6:4 7:2 8:5 9:2 10:4 11:2 13:3 14:1 15:4 18:1 26:2 28:2 29:2 30:1 34:1 40:2 44:1 46:1 47:1 48:2 49:1 55:2 59:1 64:4 69:1 79:1 83:1 96:2 133:1 152:1 155:1 156:3 173:1 187:1 206:1 224:1 226:1 237:1 238:5 253:1 258:2 292:2 302:1 303:1 304:1 312:1 321:1 386:1 387:1 420:1 421:2 431:1 438:1 441:1 476:1 497:1 502:1 520:1 570:1 587:4 765:1 881:1 887:1 934:1 1101:4 1102:1 1133:1 1151:1 1251:1 1358:1 1486:3 1538:2 1592:2 1616:1 1731:1 
1 7:1 8:2 9:3 10:2 29:1 41:2 48:1 50:1 51:1 64:2 69:1 71:1 74:3 75:1 76:1 84:2 99:1 101:1 116:1 178:1 209:1 238:2 271:1 287:1 292:1 327:1 334:1 336:1 424:2 427:1 447:1 582:1 644:1 659:1 696:1 739:1 858:1 1079:2 1101:2 1586:1 1592:1 1719:1 1759:3 1843:1 
1 7:5 9:1 10:3 13:2 15:1 30:1 41:1 47:1 48:1 62:1 64:3 69:1 79:1 105:2 106:1 114:1 156:2 160:1 162:1 165:1 193:1 282:1 314:1 327:2 424:1 493:1 576:1 587:1 648:1 938:1 1101:3 1486:2 1592:1 1754:1 1846:1 
1 7:1 8:1 9:1 10:2 13:4 15:1 18:1 22:2 42:1 46:1 62:1 64:2 69:1 75:1 76:2 92:1 99:1 156:4 229:1 235:1 238:1 251:2 291:1 327:1 386:1 427:2 500:1 587:1 627:1 742:1 820:1 849:1 881:1 975:1 1093:1 1101:2 1291:1 1325:1 1486:4 1649:1 1719:1 1843:1 
1 7:1 8:1 9:2 10:2 13:2 15:1 22:1 23:2 47:1 49:1 56:1 62:1 64:2 69:1 77:4 88:1 97:1 139:1 149:1 154:1 156:2 157:1 182:4 238:1 251:1 274:1 335:1 511:1 587:1 650:1 680:1 951:1 1095:1 1101:2 1486:2 1731:1 1971:1 
1 7:2 8:1 9:1 13:1 15:2 23:1 29:1 31:1 44:2 47:1 50:1 51:1 58:1 63:1 69:1 75:1 85:1 105:1 128:1 134:1 136:1 156:1 160:1 178:1 199:1 223:1 238:1 239:1 246:1 264:1 271:1 284:2 289:1 292:1 336:1 348:1 366:1 464:1 480:2 587:2 749:1 1102:2 1278:1 1440:2 1446:1 1486:1 1843:1 
